104 20 10 1
-0.03645140880146981 -0.0784236735308152 0.11727747671341082 -0.007986649155807267 0.17683955626327932 -0.02282597512766105 -0.04358674731002956 -0.3447123034992348 -0.028869133725460162 -0.03291517745476366 0.2955084986913844 0.003489387330278675 0.053048279043609634 0.27414830308284 -0.04722071213607528 0.0418154798824623 0.3499910065980207 0.24485783313805054 0.052950368178046686 -0.09956118221131062 
-0.019033035126975906 -0.07024131768121175 0.10244157811921872 -0.06394663661519352 0.03472777469402077 0.012273690116117189 -0.03983292367653343 -0.4535944014164186 -0.014307899639744581 -0.01989652743486379 0.21952984727519842 -0.04410425310296334 0.224200384368635 0.20590653262036324 0.0006138474496901664 -0.014544516423799931 0.30965386658977423 0.15414542122361768 -0.051293847690175615 0.2697487518464785 
0.05999806717403808 9.754969803028711e-07 -0.036557320698004186 -0.021121199764202906 -0.130127304776839 -0.0090063451233001 -0.007801193875375384 0.11071742897757653 -0.22478053360284847 0.0741623080664308 -0.09494545755609508 -0.06683266485372037 -0.24969427991897938 0.03542934399912118 -0.011860664365832942 -0.07815403729317294 -0.2665872891691058 -0.23679807481745807 0.08263939853580173 -0.05866719247954574 
0.024382910780605192 0.012971567012462748 0.012745455495903057 -0.05000933748566054 0.07168185883860975 0.002868826355034712 -0.018893444456542834 -0.614158361252736 0.13565682708554277 -0.0072044128004539855 0.17624961855777763 -0.023865543922211678 0.11351745786621739 0.21808321865283023 0.050239033309012575 0.03350754950875367 0.09459573306538295 0.16127325263251377 0.04395235320369639 -0.3681274137199013 
-0.007015473497142489 -0.07850302404863548 0.028389512831129362 -0.014455930686194942 0.04303696792507571 -0.010691012799050163 -0.019741613305857313 0.3390127951218246 0.2697674864131839 -0.06074523264348199 -0.016125583984191026 -0.0750907819171467 0.1092158806896481 0.0642770792107356 -0.041820598133456434 -0.0104426637277322 0.057825516296485927 0.008883704775397388 -0.049778217504691594 0.031381117654896686 
0.040532386758070506 -0.056646240272582776 0.057196915513109174 0.0355204315329811 0.0441629376483979 0.005254923059429973 -0.04073375196379539 0.06694410008659227 0.011637151347720922 -0.0204298995198076 -0.03342028187992474 0.06603121536771965 -0.0100433473850113 0.004859221054635061 0.013891315974492648 0.04917529961577209 0.01602509627329165 -0.048631474886375266 0.011524651148600483 -0.0012644271487800155 
-0.010577476020782389 0.027465755484281536 -0.01764100689097666 -0.0468235230865488 -0.03599281086591667 -0.03172456713962321 -0.08175939558286768 0.018354464300223805 0.07619849877698988 -0.04670396626656789 -0.01823751408352886 -0.030144934162947338 -0.08765531835693723 -0.03337072545781448 -0.0034216354196047855 0.006032813562364301 0.2568858169850069 0.12698377771230848 -0.07362056455349088 0.012172026653200801 
0.003115063707654495 -0.051448764397659594 0.3776053182363834 -0.04133482987734726 0.3752343303515624 0.020319452304529327 0.04421646201153659 -0.6177462847017847 0.024021649610715186 0.028277812103686312 0.1271253026160628 -0.0774397703532086 0.19018267946980486 0.3620244126022348 -0.07292614597154315 -0.07016426486728138 0.06389101610711816 0.27105055271100265 0.02263754229962391 0.11777073187707893 
0.04573864661889349 -0.008369783670368896 -0.23264345226083155 -0.029069351525263996 -0.08185992007805 0.07414521619840574 -0.006349757204418194 0.13051424536697226 -0.2529690385046287 -0.006790103637277018 -0.13249138728321236 0.0030719796197842472 -0.34546598765507386 -0.2518092469474317 -0.006067901847205323 0.02881239772744834 -0.007081073713522567 -0.1411209646278486 0.00032500642487112843 -0.12517526462019388 
-0.05894576646143742 -0.0021994388986698687 0.3522216807184805 0.05508078910900542 0.3471326480244925 0.053349544133807256 -0.006790530160158804 -0.4475052796484701 0.02142959252073501 -0.07857694788184229 0.5971133206533104 -0.06283610947195065 0.4474284828483295 0.32456041134383873 -0.0442650550309707 -0.01434219116951131 0.5668867822090763 0.4236637830557236 0.06659321138373403 0.27551790995504266 
-0.03182318245032387 0.0007140420142641035 -0.21694824753861877 -0.08295858262686724 -0.05899480776007375 0.00781723470610823 0.058671028482562906 0.0050939607266887845 0.01308218060892413 0.06850051151772225 0.2108623870590206 0.047304184150281994 -0.19453626252838527 -0.04011324295582736 -0.04290287906122521 0.05690226428767148 0.10656825459574376 0.03887708187870666 0.008570297063758562 -0.07797591280194459 
0.03154976000625463 -0.043383252523679146 0.2774116811547483 0.04502697894595581 0.17767628797362406 -0.06184103371019013 -0.008017764833483225 -0.6916958596526971 0.24816057069197525 0.030703680413887848 0.47442546380216044 0.03911799593804828 0.33491773430592053 0.32827797854965124 0.016422723240467788 -0.010748455643861742 0.5531769980222369 0.5671065410010087 -0.014543435674204411 0.14482570346986331 
-0.03615538737502863 -0.04833885091086407 0.44502760765127414 -0.00332370532387152 0.23801378520105804 0.026342324789323315 0.07978269234576721 -0.509502152152438 0.44017239229207833 0.03782372479484406 0.19334587334782283 0.05151754065847518 0.31639932772767787 0.2057317708278372 0.004379243184867215 -0.028096033784370308 0.21820866130001626 0.17159093158894978 -0.04461245838385335 0.22795372494098368 
0.005442032420351065 -0.0657717700747538 0.3281442721379435 -0.06291378318605909 0.1334677436915595 0.02967258522279824 0.060362300913547565 -0.11915202696094553 0.2919698930001589 -0.002649648352611417 0.1376351364114406 0.0072438699524742765 0.07587310209225295 0.2992436290400561 0.013959428286726252 0.05046036708650883 0.19898686393455925 0.45815514210044417 0.08287550263249786 0.36942607087482376 
0.026617947148890365 0.03299740185432077 0.05842093058976027 0.07369898724461772 0.05402432306897885 0.018536189045249656 -0.06856953006354446 0.015999631910774224 -0.01939546129323504 -0.05083288592514333 0.061910559238174824 0.04892550990875699 0.003182577813985996 -0.004405017075249717 -0.0012602503911483339 -0.033928898854432364 -0.012358267720601617 -0.00781125476723029 -0.08073210933765201 0.06185937425038596 
-0.11869666274230486 -0.016532131549798136 0.20196410814879717 -0.0449590848671503 0.6036477335922422 -0.016765029974842017 0.032227049483898144 -0.3961309200383072 0.24881673493547476 0.05957757622630388 0.5862323277438118 -0.029518325814940998 0.582936054130318 0.48037521805660394 0.00035174816838148587 -0.015801943146613734 0.33527483410970693 0.574188486277453 0.02648916431791177 0.31496725679426985 
-0.07473813184987821 -0.03614049411445005 0.07197589079875989 0.006974435577199538 -0.018762254597581143 -0.08193071460537278 -0.035128960211948355 -0.035014993045932294 -0.04973976801757296 -0.020617514965961193 -0.043942730419029755 -0.07072915700336495 -0.06366295839094405 -0.00038292544365481655 -0.06934930131349981 0.07033125470057713 -0.043329277198615825 -0.004310171941569052 -0.010722999805262602 -0.028923178392767025 
-0.06024827465355478 -0.04235578375666604 0.034517586236266745 -0.05990050806749946 0.23235021510627835 0.019062524844747263 -0.02572703384050758 -0.17539266098879752 -0.018946915232464154 0.014261396574979336 0.21459734882895237 -0.02363280930243197 0.35160115729526875 0.38839905359767446 0.05193176098439418 0.07427586487608431 -0.06516077282990605 0.28031079741674686 0.07089603088943225 -0.15284872656574094 
-0.0551422303714203 0.0005932644014475303 0.49493959581243485 -0.022457189661259293 0.351494407813634 0.04014742921446802 -0.07696338549358007 -0.39213950459382696 0.3806327522688062 0.01680538774632611 0.5128895392292672 -0.06356219179133464 0.6013522356338818 0.6052758467811404 -0.01617581546667596 -0.04534872923658869 0.2659502802714263 0.3605993339850572 0.029651679776095317 0.542998479083319 
-0.05548634131190465 -0.04082947831677445 0.04540106939263658 0.07637995450863955 -0.0018391768078163126 -0.051315279651984805 0.026631573097294494 -0.5108089437893606 -0.047545064729486115 0.044984229931049426 0.13767083044352998 0.012310875478107382 0.19393660390698955 0.1414922400145028 -0.035940322233669025 -0.02919002377340566 0.3390934159819258 0.034170462340076514 -0.06492081808177202 0.0464968189231859 
-0.07934611483677376 0.007749814214227745 0.061996864226339 -0.0005433731266154746 -0.04680932507613352 0.001349501709370806 0.0419726554260255 0.12370312714340764 0.06639383982874375 0.045551916782655216 -0.11894118461423864 -0.05283253040801713 0.0731456642949694 -0.03920016202818578 -0.024736299349212832 0.00894762022775124 -0.028560928564376357 0.09539917682487126 -0.01453347698165713 0.21722108852932237 
0.010907390285604113 0.06565122774190897 -0.3510447386881484 0.07515581945510663 -0.1658816499080607 -0.07803961906613555 0.03386075224076154 0.5656918419343411 -0.41947147324084777 0.07618633121920057 -0.1994561255226338 0.034166005457486076 -0.44352231372437134 -0.01934268040997807 0.01888650480125242 0.005251577659910425 -0.01379407103028697 -0.37408829883228784 0.0038003097227301626 -0.4528134269695059 
-0.017617486762283686 0.034778021273748974 0.4941976964670132 0.024307183825577713 0.593557881378527 -0.042996306589780285 0.005692569601223758 -0.5133366675893698 0.48133856064208835 0.02176030241409427 0.3736555387378783 -0.016549555424436882 0.526168261179748 0.7627147005147032 0.027256530940128153 0.016343184985842002 0.41612397613802427 0.5114528814856337 -0.016770216745690663 0.7541519117240278 
-0.01321479621902471 0.05456105056130817 0.6276331636478639 0.05919913759371881 0.389251049705199 0.06822227253720049 0.07365411721163868 -0.7892525317550226 0.4048429205969876 -0.024831619809212845 0.6257280233624012 0.002876675188479076 0.5328737173167415 0.7891074692730599 0.008680109671421582 0.07012350082864043 0.6458970058871687 0.42428275820642536 0.0801216243225623 0.8146725650383375 
-0.024461208690937212 0.037840048759478974 -0.22519878509684205 -0.04707458478221782 -0.0977209548686791 0.020501426413702922 0.011862767213751749 0.27473456995133194 -0.1797136260823224 0.028975931858830354 -0.018844706631527947 -0.06543736093669039 0.03775207848153011 -0.12633537347898388 0.027007084923554123 -0.014439701663484112 -0.3267119850548445 -0.1910374746308053 -0.01757503307433214 -0.30289731963558303 
-0.07334703524197146 -0.043724190364323415 0.36852227866783094 0.05207089941486873 0.6849235217725459 0.07937887110108902 -0.010768434482645917 -0.4355613652501177 0.2935529330149311 0.034760421095494265 0.48500549959807054 0.052487158177640436 0.33887140787521575 0.6492860697912484 -0.06880758932250076 0.05286516120201808 0.46192085037826935 0.3416815066054131 -0.026606978653123142 0.5567918984616115 
-0.043687542810168914 -0.03857925832855841 0.07013344210166614 0.026463922237828216 0.3420981642238542 -0.07051966404101641 0.04666848981653654 -0.43821450355997416 0.05482558309435458 -0.08097804162521423 0.28454079486340117 0.053773073319333654 0.4234261790225565 0.2639086409181005 -0.06271538435521162 -0.003067295760868326 0.1813308548880472 0.24632879023691323 -0.03691985604459458 0.20063087808417862 
-0.037895942624224015 -0.08319321444097758 -0.3698180425799837 0.027573118863667173 -0.06102534366490329 0.036299305388676546 0.027885140725181667 0.13150787921335705 -0.4309303363021489 -0.004901332452531603 -0.3608796357526562 -0.009028580327388252 -0.3620088877901117 -0.3255218263102059 0.05101198830902075 -0.050060689886174785 -0.22565216985637768 -0.06010723380121942 0.0711124720280566 -0.63253600542394 
-0.10053279072593788 0.0584504165078632 0.010731283087853255 -0.031136872492169374 0.11000742191576071 -0.00677629943509731 -0.038887642172652365 -0.5830330652158074 -0.06471167475297655 0.016214269866896697 0.26116087629833795 0.02409402135595297 0.23154872435651017 0.3005195062732494 0.08359252367801234 -0.03771944143896044 0.36691510851436393 0.5521238018915025 0.019551183730696902 -0.25014748794307534 
-0.1448853546199922 0.03497804692685125 -0.6103333671063104 -0.03696070270155816 -0.1445990337727286 0.07674660522598929 0.06752195780248138 0.5591595584916482 -0.4283278824687892 -0.004543404722179896 -0.37028834029315144 0.07700694575002509 -0.25136202768981913 -0.10590342621649303 -0.027402007337450747 0.009988082597658984 -0.26389160013886526 -0.47706971864854836 0.01056777514254096 -0.6381824455335973 
-0.03906253455778781 -0.05645620252831702 0.6159310297632093 -0.02224742309415697 0.5705538825277068 -0.015437610039866856 -0.07281721885572973 -0.4243530948001215 0.6746356655041138 -0.02378995360779179 0.7432584256615324 0.02373718261578004 0.7622094903956744 0.5752584982747027 -0.0613657321818481 -0.059027384750345635 0.7062124907013325 0.5924188266750599 -0.041438808507714635 0.6012593508362089 
-0.022455242843885483 0.05506878563397934 -0.3770106131570824 -0.06069143742945289 -0.17274881872560058 -0.05560269650571024 0.08154370640369091 -0.06336194060966512 -0.15881283732131518 -0.006907928991875225 0.024125708159465988 -0.07284206695673956 -0.2519487446418967 -0.13079209527795124 -0.06057757970237616 0.018571121210914362 -0.12410198782685956 -0.0002652204708913871 -0.00708448555912278 -0.31859384455207246 
-0.04614821505505815 -0.03816916466773328 0.6801280747488533 0.044185599497449574 0.4540179119216047 -0.006117931121477445 -0.06303926650913813 -0.4630723377619979 0.5999548271130996 -0.03949640149027739 0.4945073118248892 0.02361814458865058 0.473648206416818 0.5517937085573191 -0.04533885492333896 0.04352395233529406 0.36441303456554563 0.48053839113815777 -0.028958720185211208 0.3252741877613802 
0.04187829001880627 -0.0443804605663487 0.30759361942060975 0.014495573848469756 0.24247118332108988 -0.0024161494293446976 0.0036525096021750698 -0.42304440338843613 0.2522799955831325 -0.034713948499437576 0.5307645235997176 0.0011154889051086534 0.4218106019584599 0.38533042791836153 -0.029772021647172374 -0.0025394972390163496 0.503066131508846 0.522116274528234 0.07148740431793893 0.13395040625105104 
-0.04967878113575011 -0.05954195422551541 0.5918107301251003 0.01709377166633337 0.5302552305763606 -0.008586246888852758 -0.036819197630430886 -0.523215318266571 0.3145545272347865 0.003891098997008105 0.5980883746747964 0.050195872856364315 0.28260465234376847 0.29134267519528756 0.03126403216956396 -0.010406018024525659 0.2934240746737306 0.4394906254513221 -0.060792315286523006 0.21961593494071505 
-0.13105136051937386 -0.043153779223495385 -0.30412350357625195 -0.051291800214313364 -0.4414215172237302 -0.0008795767692240059 0.06388237885610015 0.2689955133947645 -0.4161696539849543 0.06352032009537006 -0.15224630660492242 0.049953638266254076 -0.14755533452075328 -0.36842152934975453 0.03397133073086552 -0.03387952424168351 -0.06566872510052107 -0.1618309586607927 -0.0516825300069834 -0.22733451805835853 
-0.1050596607735811 0.012638308871284339 -0.027291699595394008 0.012662965385634703 0.21911007168979224 0.05741008874856796 0.00035346518139926455 -0.6726443499183 0.10115177083669301 -0.07116360772274521 0.23592213210343316 -0.05909714072076612 0.3618906180714287 0.31450043638753244 -0.025938804095555098 0.05647367808735132 -0.05686533665271777 0.2963951928038404 -0.02350492705087531 -0.016034484803038027 
-0.07740940644614115 0.06719628762384658 0.03316242881355285 0.07376448449742194 -0.022777943962143422 -0.0037730494109004305 0.044702122152122055 0.09049353422882983 0.027949632077882303 -0.003593643201210319 0.33556430657489966 -0.008394153811143003 -0.012701540681013338 0.29859250162885814 -0.0003640928370878786 -0.05813092177496515 0.28338962720863464 0.025584116184079762 -0.018295757070295217 0.20692295902102606 
-0.09249979530699738 0.07289466667617432 -0.3183055827189487 -0.06816396594305017 0.10960671404200621 -0.002621783188152536 -0.04808359254751996 0.6052185704922974 -0.053104525350775485 0.07159917499459749 -0.13874740623906173 -0.017246122226423213 -0.24704441924144527 0.007777111234100235 0.07969792560320595 0.02686598610419338 -0.1576327112866598 -0.14706725382854222 0.06812735264016105 -0.004188654029481464 
0.018873376783237025 0.05769357713678215 -0.1123347678538487 0.0199348779240822 -0.21994279043571308 0.012777343749519285 -0.036881877780826314 -0.02043057500426896 -0.3213127634418626 -0.006576947969321011 -0.21471884235689187 0.027855735473812496 -0.2845122736462262 -0.15382008896199173 -0.02900048813984695 -0.0654421610850632 -0.06584703601219263 -0.33392730267578247 -0.004157669465957719 -0.12325117768584147 
0.01000038814854744 -0.010712924055407585 0.02765658991006856 0.06183427170020932 0.23471190879633982 -0.03605973315519657 0.038813221853680684 -0.2431837690034598 0.05012772458003153 -0.06377592861113822 0.09400116317824482 -0.06218790899181645 0.19571592301201451 0.31364839890536617 -0.007931372272041864 -0.07249830094121923 0.019401242476829846 0.3671058043223907 0.06166476063722972 0.06327756625586936 
-0.07234980950106196 -0.006931642735497278 -0.45729755655588283 -0.07977762926368982 -0.12812853960989498 0.020979060357667 0.010891861548458446 0.49819900569949443 -0.1959913017803848 -0.04190658648440363 -0.43344530299821443 -0.01712446686396934 -0.1381226621265657 -0.07324337280715076 -0.03482325774855882 0.03296136367286791 -0.213299797005742 -0.49251222782917486 0.030859854938774068 -0.43450353820148707 
-0.04019630136535519 -0.04398276639026309 -0.1551196210321799 -0.0063077887662595375 -0.13444040308373717 -0.08170325782852227 -0.011934473086640638 0.06808381355559324 -0.33396777049388393 -0.06599474127958531 -0.14685810072980626 0.06734473861330567 -0.06669872539987497 -0.15843123762360356 -0.020736238309152645 -0.08348717987789338 -0.11786744012020844 -0.2710101787524387 -0.013968907966915791 -0.19607175914467798 
-0.06644581339916297 0.007525921518127177 -0.2924534035794171 -0.01600941202122881 0.010152546916244783 0.03257209271742539 -0.052069567020873314 0.4365617706066231 -0.3701621389595994 -0.036881842553777716 -0.32810979687574665 -0.021157284137944838 -0.33309369707823855 -0.23967395225125313 -0.01265836515107869 -0.0031795966438551895 -0.23294290124429382 -0.42742439357711653 0.004905217311309783 -0.08837192811518639 
0.005999603604359547 -0.07784244998762722 -0.011417134784420174 0.022612676547866736 0.0573802324459007 -0.06997499321758795 -0.005882533167127977 -0.11100206576044716 0.2846014480676301 -0.07540099964011866 0.11345478751568101 -0.029913681190002494 0.12678302027743718 0.01787662988583393 0.006209185865040746 -0.0811706860785339 0.15115526072292898 0.36156213482547384 -0.052059148008148586 0.10082584471503066 
-0.02256938522233186 0.06825221114520633 -0.4340003612699213 -0.043942471197165045 -0.17777707865507267 0.031397626727852006 -0.057468571252603635 0.5098913913451527 -0.5434380113917611 0.05970895300765143 -0.5101518846216425 0.018969521432542106 -0.21011168142606085 -0.1653734729772848 0.06335618314052728 0.021904265742495516 -0.46727309070522816 -0.6039557101446626 -0.04952390331322525 -0.27054926438989296 
0.00474320606797999 -0.062397850491305425 0.7826390534598424 0.0011644396479704724 0.44452208277866345 -0.002423334742765857 -0.012833630735777245 -0.6537961134835996 0.6288497871073072 0.0031160207478778306 0.42996988517544177 0.04491184794559267 0.6066105754924812 0.5214048280427077 -0.05213054985944827 -6.333174066785204e-05 0.45058696321698105 0.7602465479305027 -0.0005952504290842091 0.7528273062833651 
-0.03854623430174374 -0.004803367254000856 -0.4575660292931195 0.0629313269428654 -0.5885588689200572 -0.01291058299124287 -0.06637525333751643 0.7506704455081099 -0.305066663651712 -0.012643405700427521 -0.35487316204155606 0.005216375196156087 -0.414437456022712 -0.2393073053543412 0.08105971699444071 -0.06707533453100872 -0.3763838658945754 -0.32238184907426537 -0.0132014917806488 -0.6060635949084967 
-0.07338573998233534 0.016261879038391033 0.39378641231325506 -0.01575436454723638 0.5233872794405571 0.01615134579777113 0.07447893597327596 -0.34096049957577557 0.46537662110740674 -0.03329799455380445 0.6353576140078169 0.025903511561388586 0.4055687056790955 0.7623872313023525 0.04466155273828119 -0.04466132830058173 0.5672621975494316 0.34118807945603247 0.002976464178172635 0.5949733134798496 
-0.06300132740494942 -0.06835067575612454 0.4617292872527405 -0.0014384357003104566 0.43415153580798 -0.049122686140584515 -0.045471806566002325 -0.652327843691408 0.6404488434535223 -0.01730640447720556 0.6669397873477458 0.06969785238703942 0.49024890487552486 0.8596683097993996 -0.022318848148378635 0.012515163717274349 0.5845533601329934 0.681675623375604 0.054201396647469834 0.7487471783270292 
0.014240911114380889 0.008104194082159205 -0.5817476416603347 0.04683513059986624 0.02913441259034244 0.017464305545928014 0.010200196485015522 0.16681249667614761 -0.31465979432626545 -0.018322564013101485 -0.34441398711925236 0.08189730660647028 -0.08208936303517353 -0.25021801517609205 -0.054512628555902505 -0.013332724671841302 -0.32935910069265467 -0.4911188517702371 -0.04833071537501913 -0.6032893625253763 
0.004581230186130268 -0.015375335976048976 -0.4309711739627621 0.0026787289397563418 -0.311351344289722 -0.02464432448628973 0.010306017377521381 0.3660764853945774 -0.4193016630740693 -0.08230960504509574 -0.16391730622112688 -0.03826231712918485 -0.5502111655784201 -0.381500239561747 0.02642642380289448 0.06983709510596973 -0.20340848281554597 -0.5619765831304719 0.05026753108578352 -0.7080633505330663 
-0.06281412706326908 -0.04687424636683144 -0.3283169049609566 0.031446741119537186 -0.6098479120603967 0.028837630443274354 0.037728355836291104 0.4084042152513924 -0.38907118127547186 -0.011952730748541139 -0.6186317325509939 0.002068461172218378 -0.5361570853294726 -0.2610146055287682 0.007404233726384981 0.0517685571200345 -0.45223810614761417 -0.4426521496611967 0.0775352813715258 -0.6497730202047689 
-0.005930779165001 -0.008702332815684739 0.0408923722092667 -0.07999030391688351 0.009988367171611749 -0.03094590889988238 -0.002790301057458071 0.030308611730616053 0.016932997390281625 -0.03636994570112103 -0.043452118431013466 0.053721077957644976 0.0008851278290461509 0.0795861430382792 0.021893972463192298 -0.03989202438684551 -0.049984262351535504 -0.02375474425274298 0.038055069850776606 -0.004802933934400266 
-0.00925172033661821 0.012062929927682594 -0.4704820770877933 -0.02088815757701592 -0.2475429795614797 0.07056180222622141 -0.0823372719767844 0.42695652133961504 -0.49932884480881434 0.005354009030370012 -0.26643812759405294 -0.02684334513449997 -0.0013867139316285802 0.027105186873187276 0.038348853794955846 -0.04638523189251284 -0.3041579675222307 0.13883129848123843 -0.0590881174980372 -0.35511504076287387 
0.05070895765255624 0.0006029956471412551 -0.07508261854003996 -0.022195204652628406 0.1589980999913832 -0.07861515441734379 -0.04100589048416774 -0.12735567556429697 -0.24188176610469764 0.08090030087916625 0.2869552049068423 -0.058736994378779994 0.12706284496249345 0.0667031425490325 -0.021150709115093855 0.07316205133973973 0.10140173783023444 0.1347491092076022 0.0024518031085643344 -0.27906033498967847 
0.0651136533757642 0.06561913277394904 -0.09124629384011199 -0.03546283643546643 -0.02393779115936379 -0.027991250237846686 0.05887763977790934 0.26000633036979925 -0.44878732429882884 0.04498120110413765 -0.34095470835622216 -0.007482027784828897 -0.3099922056478431 -0.2725781420136262 -0.018099590816524076 -0.0016944558323594486 -0.04066876346219019 -0.21204526712387892 0.06472235340781665 -0.10558593828077932 
-0.08894590432902981 -0.009639678791565054 0.4095972703363318 -0.03475813099131978 0.4229169605894526 0.07845477223120735 -0.039970394820266895 -0.34419384671738573 0.05823010276756986 -0.03504354099921497 0.29202951313696945 -0.04914737230052239 0.14357599380912633 0.30341764528960263 -0.03107859551924677 0.06419816131369045 0.33275149379253016 0.2655407822367599 -0.026070225538959758 0.293843293356389 
-0.15035109140081393 -0.052879410829118026 0.11031888724738517 0.0027785909153125506 0.11547048001642214 0.06738556602103322 -0.0038027391819466525 -0.3548575703741682 0.06768190606362703 0.026886094384089707 0.13994704756846518 -0.06755501127626432 0.5014827010144792 0.23022632047408387 -0.0011387592243557137 0.0027529061289484004 0.17515589024104533 0.4215637931054113 -0.033835686886737465 0.24001461174896685 
-0.05608173468568839 -0.00835499910251918 0.03627089351353221 -0.07981007713665096 -0.10174089003116799 -0.06555902149130738 -0.006049759016769378 0.15631225998781925 0.2715723242152572 -0.020622683084730063 -0.0758640220861241 0.0769732115517262 0.05381184422022837 0.28064865710762266 -0.01961773851377277 -0.06837392642758834 0.071345197562236 0.2010099181082793 -0.06896669847031194 0.037879137485942474 
0.02649711720561884 -0.042463614654435676 0.4701577010621165 -0.07037127606408942 0.2691267362629027 -0.049741990357238766 0.07848229053613208 -0.2782368405922694 0.19917546305161904 0.06775553376774063 0.38775115694903695 -0.018975116133041158 0.40009596842276407 0.42179398371620047 0.07593493076604617 -0.0710739744304958 0.5174731826812078 0.4019866569527633 -0.05293040631310461 0.2001966854482212 
-0.10536784986447327 0.057503342825391074 0.2520103446154943 -0.04100635668307831 0.5157526178882779 0.037588519460584974 -0.041399531760500985 -0.6485094497542292 0.16292954523784856 -0.0672777119058864 0.5848358515208194 -0.048190284208612905 0.3789210866113509 0.5599935298021222 0.0803344070453992 0.057888787307006154 0.6089826455784902 0.6003244784611012 -0.02004068234703196 0.43648944164445613 
0.01859855792344808 -0.010975325653013462 -0.131794925008174 0.07774637096219814 -0.286613318731653 0.06736056860764217 0.08124253729741275 0.5069108349504345 -0.06995956129426859 0.03466172469153766 -0.08826528591452734 -0.06067317280514786 -0.1406228619073129 -0.3206329726687273 0.03691352765041732 -0.07136923729225372 -0.03187043400151799 -0.3908042727378406 0.05514043674715267 -0.07992677048963652 
-0.09966127363175668 -0.060149163400889265 0.4507119697717187 0.08057697778739946 0.10309205027234898 0.0178173546298504 -0.017049926637227777 -0.24266608409171925 0.40501559037948587 0.021903316133177916 0.09131528885405837 -0.005676423309975395 0.21369703246923116 0.49920746187272813 0.08278971480853245 -0.039729702094145246 0.40061014616317897 0.3038457507400223 -0.008116915447693268 0.12528988954979825 
-0.03293547121621016 -0.07562707826397388 0.3538224681609816 0.043646149977110985 0.47212600914795366 0.0025065350096304386 -0.06997472536035639 0.12540952366313682 0.14073681489155368 -0.05705241259577608 0.12798706088908132 0.011511994841138429 0.2066415074487033 0.377364035668731 -0.0665766051099637 -0.08043203104059941 0.48735990130887624 0.05222449493186825 -0.020520043880627326 -0.11975164555559095 
0.0386096638976187 0.053003019344252986 0.03636029631723629 -0.0519782232319887 0.1591724518053243 -0.06976055122842445 -0.005197429854824523 -0.17226259612988692 0.1860935866640012 0.07920019629377496 0.2336531440493589 -0.005962219724600544 0.020024699838959256 0.09018221745809334 0.007253519395115153 -0.047649281021152394 -0.09507572874274607 0.14022189477210384 0.052875446920404634 0.10314565766815609 
0.01355950552563976 0.006714283394800031 -0.04934754093532797 -0.06614149565819058 0.04240970122708893 0.028526225568528848 -0.03105368515368137 -0.35373985122978896 -0.07227309841986086 -0.03796829134875117 0.19145716738223958 0.014590079370682588 0.41737254459181694 0.09181894078223539 -0.028612758880700334 0.08323159109730044 0.3682872044769706 0.48437732742102146 0.0034897077317964285 -0.11857781906580755 
-0.08178801962353391 0.04510993277296115 -0.19753576667778572 0.015078913011254528 -0.33942146789761873 0.06005665636875677 -0.03449005943232297 0.6261829005791396 -0.44645942531581073 0.06783819017782357 -0.46795150689768517 -0.05587235612272931 -0.6099812388571954 -0.48260201567208644 -0.0703027389282025 -0.026539684787693932 -0.3790119819870424 -0.4594351805534991 0.019167962863905746 -0.466644021430813 
0.027416545931644838 -0.005770803322560537 0.6777420154073134 -0.0031205364863082998 0.68457891824921 0.040008080770226793 0.05441745006995356 -0.7960282322137617 0.6582878746954995 -0.08160301361421597 0.5335482013949713 0.008108035668063113 0.35630404897363666 0.38500842633994425 -0.03754917974400538 -0.01911230704193372 0.6865992578938281 0.4426354974613374 -0.013240929588376657 0.7506493227586177 
-0.03911522393952431 0.03839690581756782 -0.4242909656063225 -0.07270336777178633 -0.2198238635885852 -0.06123127262533481 -0.021103057031611645 0.7843397922430722 -0.5576611305045607 0.07324658873091026 -0.3378609835388166 -0.0458098840471842 -0.6252792087252161 -0.1867110297465785 -0.006312510630920481 0.032473481265594684 -0.5580084151345251 -0.49392311676305056 -0.06433908885635502 -0.5027002639323576 
-0.1122404213338053 -0.07509285256681618 0.02274655845737123 0.061206877654457495 -0.0036432264419666593 0.0035385130383606698 -0.050541093840143166 0.39375971137208865 -0.2615293791497677 -0.07173169505254524 -0.20863803788632246 0.01074920771158588 -0.12513089791070087 0.02890288014881985 -0.013836702009981409 -0.0536684380690948 -0.30544791211541955 -0.3318616759593348 0.07014014210194139 -0.35409891759664713 
0.004347145284828602 -0.007838025796904844 -0.4578062317695878 0.02344123099991199 -0.19100678212344585 -0.06992290348799665 0.021952933303678635 0.20881011682459305 -0.39259306435524033 0.008634734779311305 -0.1206262153173347 0.009783510135804049 -0.08917017602187995 -0.12582037336710475 0.07756884937094043 -0.03168048818972701 -0.012032813710305556 -0.30531224400698515 -0.04573533424864586 -0.6401571251554578 
-0.09546118778277833 0.016307795138325677 0.3240711803005445 0.04577457851049864 0.6102121219388241 -0.027087920202637093 0.06145782850837978 -0.515981755137498 0.5803905027114888 -0.06813339678406884 0.7614776532380462 0.015324411260713882 0.7211923969485752 0.41844775879466 -0.07816067642633466 -0.027667305941171675 0.6866998242902331 0.7171765763554411 0.06118011701213926 0.3962278951032614 
0.03327581941183326 -0.0526534275664634 -0.463765281299242 -0.07325309090838408 -0.3188676808593308 -0.018105660032880878 -0.06170499957217476 0.6033378790958187 -0.48704326481028865 -0.024522584000538646 -0.42864705676391407 0.03827223288427536 -0.4840849027200833 -0.21191390731519383 -0.05309118678606189 -0.01453184718588965 -0.23584556725669326 -0.44057022616962277 0.03154986202300403 -0.41429602056166703 
-0.024756035066938145 -0.058706977368710375 -0.1255605389341557 -0.03321168181745933 0.0038309740734466732 0.01346832143237502 -0.04197957815982744 -0.05512627117992534 0.015735677090908545 0.04486806355771725 0.33625062041652276 0.021396518245252197 0.3010757484592666 0.31609406780875976 0.009911001098240776 -0.023296449804201067 0.11239514031130018 0.24975232172160516 -0.001900956056836829 -0.2993151756489793 
-0.06532217775744703 -0.060934128995670425 0.34708915475084734 -0.05554459892012129 0.38243418325899203 -0.06176125338887975 -0.015059574190623433 -0.4939599612773627 0.15854229605099368 -0.03457459926160114 0.42320134622398425 -0.03195759905920347 0.4663810168209892 0.594810876163163 0.0413161755937077 -0.04289449257484991 0.3031993797080452 0.5062152367742102 -0.01741985160342071 0.08079334039921585 
-0.05654014612894851 0.07640697693521942 0.6565434384505658 -0.018871311189635552 0.277268149853495 0.04439311481451964 -0.030647240185394924 -0.7240834436173579 0.3406090324909959 -0.05317173773508635 0.6371963517789062 -0.04532625006865696 0.5685156311642197 0.3410117628496928 -0.06799456161918502 -0.016736832958890294 0.539395004644451 0.48649934056333677 0.05198315348854603 0.4225364801826812 
0.009056874802423263 -0.07140200159699979 0.6605216866691017 0.026784161305731826 0.7411095770330558 -0.062425769364179644 -0.004587316623842401 -0.5268051822189654 0.3590010441148418 0.053821951912171186 0.7095386672349024 0.0015320800276485244 0.4757260503305667 0.6916717844773937 0.0612223693548689 -0.0006489932360468443 0.7672149720591137 0.4007986543176556 -0.022754839083059163 0.6773033587784802 
-0.027878266544597772 0.0026675154127557073 -0.38041240519487846 0.011249715608866706 -0.47359614660615174 -0.055392632731920216 -0.011175777772733557 0.43926170614504706 -0.32740929279006037 0.04264477314144058 -0.5338914270372973 0.010419713704074622 -0.4114998745027962 -0.4340279247016162 -0.06606742677089136 0.03169828047427355 -0.5953735877798755 -0.4125419400325437 -0.06718159760696218 -0.47952027196890495 
-0.07240359823618045 -0.012153576316988775 0.48262044592271014 0.07344440819703371 0.3399181463567258 0.025769354254846912 0.04529842523107134 -0.35258961601088135 -0.0037094997914383756 -0.005122664766127738 0.48940816159567074 0.035349578738238394 0.19534993569655906 0.5308176334137352 0.014505244884325027 -0.02980689111176467 0.10843974201612343 0.49681114067619053 -0.008069251868935865 0.38312603490700825 
-0.06459936060909165 -0.06956353789367138 -0.2714840063752157 -0.012169654714037453 -0.4024254198519821 -0.014382454405012072 -0.03685654029029135 0.6470094005163012 -0.4221078359780348 0.052536703167699504 -0.3262603724232204 0.009930185129408655 -0.17704099174721957 -0.15772562671070445 0.07265333372785725 -0.008407276955166514 -0.11712305986203321 -0.08862932590781221 -0.038457639662525564 -0.2138573290080538 
0.07292766519143701 0.03765234054296396 0.596614304510206 -0.013889268176442902 0.6961156079926434 0.05175410279470045 -0.007640541096324903 -0.548848795928809 0.5835315938048756 0.04243303030908674 0.5209363896516968 -0.022619355380527596 0.35682054691563236 0.6470648926735544 0.03524271615948659 -0.04573705364603415 0.7020663809986711 0.3797379851464376 0.04930937118008029 0.34774543498686794 
0.005803898810004306 0.002343359830489597 0.12178338893417937 0.02999072867953974 0.4974771104918834 0.061442813645096316 -0.0009032780795129629 -0.1317581342174189 0.42999308269763215 0.06461493453357518 0.3299277968498141 0.024230840218990485 0.38685803748316844 0.24281307385950363 0.025361099918987124 0.05408371334320974 0.37613618746277133 0.4158258525649715 0.006152925742147265 0.41428465042711604 
0.029750896686120097 -0.011077397374037217 -0.3284947558344991 -0.013249225788637558 -0.2729270513692847 -0.07401959921188246 -0.0793340586617606 0.10999586333226237 -0.39720969101450804 0.05361100649236419 0.023418285530476746 -0.029581014220438094 -0.1509336962474456 -0.23336170427943717 0.05611247454747211 -0.00698550718459107 -0.0011315393135980525 -0.16233334352444803 -0.06189509388040845 -0.4433534981660046 
-0.025522129895394655 0.009313386735762777 -0.2509921193448109 0.05599742704331659 -0.43792286324283836 -0.059272887798485586 -0.024219411361512285 0.3309255650666234 -0.49190978745503317 0.0040070578375509406 -0.41116485175542605 0.004910097273284959 -0.2720192537274326 -0.3537440407271405 0.010611780355370592 0.015537224793562345 -0.2309219091979111 -0.1285910536083389 -0.0713132358842085 -0.36780000246946964 
-0.012511611882082115 -0.022975993975770333 0.2782290012940779 -0.0603819488917845 0.6042053787990587 -0.03287254208801083 0.02188043662651135 -0.38679582698210957 0.33828025930886724 -0.04680066658289103 0.4999281849927311 0.044576761056716284 0.39148317143019346 0.6448774757492911 0.07974080860045044 0.02045401544625808 0.6597232798656137 0.29582456717490524 -0.01567044218910843 0.63612923680529 
0.026028414300060043 -0.063672856526123 0.298535251950914 -0.022622280422895002 0.49138531114447037 0.03530308830533964 -0.002064904665013235 -0.7219429882528521 0.575965103136025 0.06954816289298194 0.3681567314744412 0.04619498494329916 0.43337488602421886 0.4531547639854579 0.07013610253139499 -0.08222306185422454 0.4221958021569688 0.3285116125176062 -0.0038136929737635334 0.391288576411299 
-0.06417429030422234 0.009576385045571026 -0.5068753929944937 0.0704870346513575 -0.2537134526353511 -0.015193102218106809 0.03664497339315293 0.5835823200423551 -0.5292754227371066 -0.03361088560903918 -0.24790878668992578 -0.04635595960128254 -0.3607771570128687 -0.30002399864264817 -0.04295138033936691 -0.016525381883280534 -0.44911428263108055 -0.5167413370203017 0.012757224727851943 -0.5492158478623047 
0.00396357159904809 -0.007664187784796145 0.7119748119590434 0.026316767942588463 0.5450395960981322 0.007776557033701905 -0.06151446830544274 -0.6492453660317866 0.604127965850386 0.08066503174195126 0.4376320475681699 0.08197613853984512 0.4596675862530299 0.5356598901135231 0.07849538179817733 0.04914763982726709 0.565200733791804 0.7521568037730718 0.08112785001706516 0.36394849153125275 
0.03485317867814411 -0.032192914961942674 -0.2608159614262438 -0.008391506431573154 -0.18968175804106602 -0.05637034836677277 0.038090567264232274 0.09068087252620699 0.0049512713587098085 -0.03288525024585602 -0.12055121632368437 0.003951385241836538 -0.06850638422744425 -0.3072210011582537 -0.07748838813844436 -0.04870118569527825 -0.08824134776594789 -0.12066260928684414 -0.051891661979449694 -0.11479996830073208 
-0.10299947626277177 0.04933985885884293 -0.016677555449245665 -0.04878652054141918 0.26699529822488133 -0.003615671754222732 -0.031660371196767394 0.19620737714660236 0.21484906279637095 -0.051619694656760404 0.15314453953038393 0.028757137668199016 0.14116109520920483 0.022893346670015042 -0.04921259161546957 -0.03579179747323231 0.2413444605875005 0.17806600799856445 -0.002830090071353767 0.06748933981983954 
-0.03602954358243428 0.05756093089883897 -0.4177013507327293 0.021405265535676815 -0.3728905918073721 0.07521444581703692 -0.08220880614997728 0.3340042587628541 -0.23181631329018731 -0.0779816457307337 -0.39051541456233607 0.07417427265351322 -0.27897787301247595 -0.4765151209556404 -0.06462604081742662 0.07176041237300676 -0.12018728575737747 -0.5347280102024902 0.056697516439894104 -0.1537509477411378 
-0.02587200350271235 -0.036849952230586944 -0.6710303912624143 -0.045200629195208286 -0.48829882928017315 -0.07888409984351506 0.017267217185822442 0.6278258124496171 -0.4781925285275467 0.04836532096595699 -0.673567203837195 0.07656151354209727 -0.5280021312739777 -0.4652031878645969 -0.050887984559360395 0.021166208744524097 -0.30760445792047997 -0.7212874373883454 -0.025969631447452072 -0.3896490395058484 
-0.10271627354951983 0.010008733436051269 0.051028614319766234 0.0043565035605371005 0.055266355362559576 -0.019417943999273643 -0.018754384832365432 -0.05888913296420498 0.4095778584237879 -0.05644403596601354 0.08958972557006029 0.02361440782213098 0.10600183477119217 0.39198775833108657 -0.016497275644522188 0.07636195247742043 0.08986944760356995 0.11438665269202405 0.003262087600146297 0.24950043442408015 
-0.03279308392079889 0.004676109073047723 0.29945857853299424 -0.03517229053750651 0.25072548567007236 0.004951643689428278 -0.0013152903502226636 -0.2643851650097013 0.5309495404623715 0.026558145120316817 0.34583826382836197 -0.04022837225956966 0.5053332963368167 0.33184841874904164 -0.06838715778518532 -0.02248328954991793 0.4729200438516522 0.31342784763849496 -0.060938684108701846 0.5303747973429555 
-0.0183367073268507 -0.0830472811122903 -0.28812736024252855 -0.07439295391299025 -0.19569632671450393 -0.009381321126230397 -0.05480223615073997 0.42450491672432017 -0.11618717005528592 0.05552567665718549 0.03555139451102913 -0.05997588517409399 -0.3058692549382648 -0.0604681861169628 -0.07736311370472822 0.04258000744070916 -0.14820919428550536 -0.07290930450090466 -0.04580702854877884 -0.25888270395415997 
0.010383817788196336 -0.03984979080419624 -0.461475524158317 -0.019710733226788728 -0.5138905875045682 0.0281328607784851 -0.06063115000625214 0.30088744260572214 -0.5102020437381385 -0.0067080728282236214 -0.38280824677345926 0.0017487184400964623 -0.25150673833200615 -0.3997132958775282 -0.022582136069187502 0.007837422434667896 -0.38678633130409035 -0.17874908818526647 -0.07569350516739393 -0.5330082996321436 
-0.04891866313564135 0.024573160836083574 0.36255634259255 0.060516940914510584 0.7483148744931478 0.019496190738218275 -0.014945583888679864 -0.6932378046997628 0.4817662236948244 0.05928382865691905 0.5709367553736954 0.06895047907678327 0.5502618577254901 0.4452720372737606 -0.06415815544581974 0.02326165160271951 0.49127309255596996 0.6199194549644447 0.0694495537372548 0.3530510181462161 
-0.0980214547793133 -0.022155619073255032 -0.5464345232741991 -0.014520369207642443 -0.45202479033242843 -0.011228406165524531 -0.06412730833469976 0.515009182297592 -0.6117277501514229 -0.04300439963546499 -0.3660644615432942 -0.0735091584068032 -0.5601355390390705 -0.35565405547751006 -0.03297961954003174 0.0024528035656047106 -0.42164197809686577 -0.44539762849435016 0.05251159599328792 -0.5967889301295618 
0.05123989552778015 0.019341758828534294 -0.08365199883161414 0.04432200619499449 0.08583211323521317 0.022901633201863045 0.05812792343649367 -0.05526082093141538 0.09257569419161032 -0.012513707644298143 -0.06870709257614356 -0.062433177641032955 -0.10322683170185987 0.27787230856106954 0.06237934853528977 -0.021379255115097064 0.29871195302348436 0.22432632216097334 0.03735320223099654 -0.2400736664164296 
0.025708693046751954 -0.032969821107266976 0.055631302026984554 0.0678341836743617 0.08115025194836492 0.03343185655416928 -0.0378234826026 0.0469301513890367 -0.04131313868455548 -0.060138846727232416 -0.05378727549473198 -0.03523399053087475 0.010606162964768817 0.046251295782503546 -0.03520976677175735 0.007204574167412066 0.05988948322949013 -0.004398916212403232 -0.07466623794766625 0.005463073126960991 
0.055754585948121924 -0.011829358215353874 -0.5285924507507658 -0.0019367836653610955 -0.40657544444437127 -0.06704880060682535 -0.0012269257751019462 0.4474161205590918 -0.3835584685573243 0.0033189251234498366 -0.37367925575268157 0.04327291949315261 -0.44419724672553157 -0.4907783576278386 -0.06194966590822356 -0.06657223818119765 -0.45618792697010724 -0.5693486615523154 -0.02761643083016198 -0.3252921475387136 
0.003355215648396528 0.07203777215533452 -0.32053649055071814 -0.05505955489103831 -0.17204707453092272 0.06192159929419077 0.041680339063555796 0.2725424876318974 0.06956825943763538 -0.05057678792477478 -0.04892721720622502 0.06230454961565964 0.011776517964847927 -0.2674951221467934 -0.04209353653089384 0.07087101084665012 0.10210868258197692 -0.21140351105306532 -0.06183161386057196 0.009330505393112356 
0.06170594565487086 -0.05723046411714891 -0.3986386570451056 0.012522927364238105 0.12051049768570883 -0.014575938981953395 -0.03323158329739124 0.3659461950203761 -0.1945263325442867 -0.027682758198985028 0.10667398409418347 0.06446023439053135 -0.2393084365238135 -0.2620058237224092 0.008380479848292294 0.01247430398873015 -0.21152223918188906 -0.33948986465401443 -0.055838750007393696 -0.32719167427852697 
0.25294287123681547 0.06454263784385984 0.1003190161718945 -0.13482775235780262 -0.03217010372896832 -0.23981901933436245 -0.0370410807659053 0.14323390654724724 0.006217502995197782 0.20860250805151195 
-0.19703930266430258 -0.002021256391461061 0.043687968768696184 -0.2132769630198794 -0.0008912973611073663 -0.180518530992283 0.028942492745012864 0.12048371635135262 0.0013901410532644318 0.13272466790482595 
0.5307502826805837 -0.290973993227057 0.20850512985409142 0.38200561065146266 0.6455455009977633 0.11105987229036605 0.39291218669465416 -0.005959223830527438 -0.1372920847715784 0.16156876643581666 
-0.12105968359907457 0.2127257667492034 -0.15611214346584645 -0.13816191730685054 -0.20541740246197515 -0.11810022157215233 0.09459046917673389 0.07603348840894933 0.15399137606229238 0.06258580092048774 
0.45640860977790926 -0.4211020719192509 0.1288935259655406 0.6822310325260645 0.27410814317799204 -0.14839848120333962 0.44872940346702045 -0.2365436930990641 -0.12759777189989818 -0.0021283600347260594 
-0.20282693305719385 -0.08092671224654029 -0.046100196153084486 0.08799960460671799 -0.07993137457738744 0.14033008557269566 -0.1734650599939408 -0.16787445972518342 0.20520587971277504 0.05457385367609745 
0.08445274061549032 0.18300657213259414 -0.08427849675519278 0.10457441191161805 -0.03453787317014932 0.09934997998999424 0.10145436164217012 -0.19844568546170485 -0.1411002313257161 -0.04248505011073977 
-0.4247064427079574 0.5636388195841876 -0.10199542337348783 -0.7944023431446109 -0.12055155479871746 0.07988331749884613 -0.2680656972941797 -0.03958382923876025 0.674003536431951 -0.1640404249527815 
0.5165959898209873 0.3362729986481414 -0.4142532052514848 0.4414838648918114 0.681146939958283 -0.21224581603532153 0.36461536519254545 0.21864061922520098 0.17406390771179633 -0.2287627114799109 
0.009383016420224953 0.050135378129704894 0.10486643111503406 -0.1934196131553974 -0.009620099406405555 -0.008208020656508972 -0.10302619536564737 0.18740536395288004 -0.18531606755874944 0.148354179524824 
0.23287305912788292 -0.1859958434551348 0.2518975065582719 0.6391884654915887 0.7943059922915048 0.01778841677252762 0.5719218623576667 0.007668855632096799 -0.209664668919091 -0.16519468622973368 
-0.09682300715090401 -0.03680665984728425 -0.18690130507668498 -0.1284042936287354 0.07457763620223001 -0.03405601327598843 -0.03437318774437262 0.07177763749875742 -0.022654573367092836 0.16625099989081105 
0.17305665565039677 0.045767793411197404 0.08956697948704752 0.7706113279477955 0.14366329248345236 0.2718309163659052 0.2530008186170996 -0.25919056430622195 -0.38191766993129145 -0.16130373040212925 
0.4072446359024358 -0.4904239583529823 -0.3023984230544447 0.7805926488006107 0.4415904011318712 -0.013784790774415445 0.44387634942523274 0.06797488861244115 -0.4508641148516124 0.061879793650007155 
0.1381788884583269 0.006761634829259878 -0.14404828949083356 0.07709008021258357 0.06492363078187545 0.16721291825078938 -0.17351655629751356 0.058121967214077336 -0.1680633554811901 -0.10986133062024532 
0.17654599994464173 0.13528810239697128 0.20058080825065394 -0.05183504914296823 -0.020557327211692157 0.17744237131223203 0.17744788884970572 -0.16064405554089392 -0.19745002989315918 -0.1145690648055497 
0.38898935037102544 -0.42833223744285825 0.12369201125091271 0.4831126411036564 0.22996769072921763 -0.00910726017485913 0.7585321307679136 -0.20701053018435955 -0.0495853119821937 0.09675026301555485 
0.7653261261197027 -0.43065303128182836 0.1271796265769397 0.44767730086024404 0.44057946281619687 0.0646036912882437 -0.03584652789455394 -0.027695468125708 -0.6604880091297953 0.1747228198026233 
0.15672219819407887 0.08355445300167823 0.06060676426225334 -0.017213324124575168 0.029650684411010098 0.05592060681606554 -0.18310100940984714 0.18008643067528465 0.12094815822414423 -0.1767731379421355 
0.49499689660393575 -0.004548842432351667 -0.3308706702085983 0.1005968514904615 0.747002084492189 -0.14107346903391957 0.42678549231118224 0.045104921726729565 0.0060520606506729935 -0.09140879077979364 
0.4896571010424906 
-0.3417985708136025 
-0.40724866686473726 
0.8878876119167708 
0.6955856834421292 
-0.46348827920377694 
0.7343952080534336 
-0.34524998961727915 
-0.7410730270075853 
-0.04541746341086692 
