30 15 15 15 1
-0.08254909366272012 0.12800032613164486 -0.3792567549617687 -0.14716660407925317 -0.00664160853015017 -0.28903860265405784 -0.24194155355722874 -0.11284274287002564 -0.07003161581541154 0.0040191031926584825 0.11885315846510522 0.15644190424140236 -0.16828685053202594 0.21514429166553772 -0.23597862371070946 
0.10098992026018166 -0.10585365854114938 0.03424174826628373 -0.23025350887855844 -0.18157470521569619 0.22731224452864762 0.286114983750377 -0.19245393516590556 0.1142461538255046 0.27142187913593185 0.32258856098778 -0.3022256445389869 -0.35608136175863075 -0.2665803092734636 0.29581566369132456 
-0.2876002405827523 -0.052224099121339754 0.27213964985029093 -0.004861382887609707 0.2749201992539248 -0.2404389632096002 0.04408839239106037 0.28445701126541995 -0.2946705951763119 0.10028979847343335 0.5091152575675202 0.23210930502269347 -0.1515325432286791 0.3098990264876864 -0.31776648985932493 
-0.06307903482614942 0.4613287989647122 -0.1914971267698935 -0.3687394627786739 -0.13814307356711347 -0.6493241135589368 -0.1402200535071946 -0.09854956878959521 -0.15075930568628687 0.042086571734451655 -0.16686949227668574 0.23862075462282656 -0.03605178063539608 0.15448420887557046 0.1876188273281696 
-0.24145033085459636 0.10979231944445075 0.08164781701625512 -0.15939849922897284 -0.14339951104922957 -0.17482597497055713 0.01663258178358564 0.046226961183367825 0.27109542125259717 -0.027081141050969742 0.5168904701616236 -0.06293522221392889 -0.14775165384536915 0.2255098984595186 -0.16423671213387864 
-0.20194954179169472 0.36045022195912796 -0.3839196890945357 0.13915364474741376 0.176347857092963 0.26016046426477063 0.08806974127342883 0.24916885636537325 -0.09951442662261463 -0.19907699016020242 0.42413499609115246 -0.05026397618304004 0.44278792122697164 0.11460626595839607 0.22521238350172826 
-0.27677772301147535 0.4932763982424307 -0.13226151607182646 -0.17665571186316398 -0.06634094206500868 -0.42910650134478634 0.05579297790147027 0.17848472354758915 -0.3174077312656325 0.10012813214564042 -0.03196886414995489 0.21176715327779697 0.504761251051863 -0.057730796076483175 0.24141464876261093 
0.045388000224259664 -0.3213395796844496 0.1524925092036549 0.15202461731426595 0.5370536315164475 -0.4807686831342285 -0.33879972755240134 0.2781387187280594 0.11698052233740674 -0.39661720602692624 0.28467386246697807 0.19268293913398973 0.2289343519735851 0.31313269659376824 -0.16488522280395565 
-0.29365728305158373 -0.3635521115145478 -0.36993251343934647 -0.13882462269592247 0.21222145170131212 0.17453406020061346 0.26207649596954646 0.26325660874467305 -0.22772013925200313 -0.13161958447937783 0.2081322485322077 0.3267505345155375 -0.06524359715359472 -0.4072724858202216 0.2246854170438596 
-0.15999987589922565 0.10508636374388923 -0.051342335069301984 0.2525657167409036 0.22913170277565523 0.025493598698899188 -0.13774573233179277 -0.24943885764005808 -0.229496855904693 -0.2779776487599948 -0.19970249238571544 -0.20519294829011644 0.1268370938707245 -0.02333183799784333 -0.298321165851102 
-0.2606074893814982 0.23298234828701692 -0.011988803078178673 -0.19338867124595482 -0.17564284626657156 0.18275443244447703 -0.058677111964478605 0.13841686783731935 0.28158615891701677 0.3554442852815601 -0.002214872083638507 -0.013827418781667952 0.19576103315014506 0.1086038114070423 -0.22921403170431476 
-0.29448729922433503 -0.22181307047676618 0.09025960188507967 -0.03145076362890379 0.25972257801665105 -0.1160959354863257 0.13049430134254314 0.14897270011015323 -0.07054039270896399 -0.03991470441053971 0.362728936393858 0.26865716765488085 0.023881562168902155 -0.23648689768856096 -0.21304539805481063 
0.05258419646031518 -0.2025969873748499 0.2717053197706933 -0.44557312721560355 -0.06842324281594582 0.08126373487921612 -0.3802461197261993 0.07931096989874481 0.01431870895937739 0.4068078579868005 0.1465621206326641 -0.24117710865160955 0.3253015796724267 0.3227375496471573 0.3425379264739791 
0.2631033935229596 -0.32767513916504853 -0.2282062887456582 -0.07275012921679729 0.37165722738215506 0.21777114335005704 -0.14883961652450084 0.35881768642097994 0.07573067300775403 -0.005361411628095706 -0.026449441223058295 0.16147608230649832 0.19373973140268558 0.3001431176043715 0.23904528834788327 
-0.06174396242756051 0.2947638415403187 -0.3647881893621441 -0.21009806198754138 -0.3157649246143321 -0.01691256781160475 -0.21149063185631942 0.24618867082790857 0.1972547700112262 -0.28611882623762586 -0.28573253462622067 -0.1850342321719046 -0.32034539436025095 0.3177388961604379 -0.1033531837064029 
0.2682528052484932 -0.15949683077339283 0.4047664487808372 0.13639390475501695 0.2738839294241604 0.1190340453819375 -0.1604387638964837 0.2639650095461399 -0.12762609450772888 -0.01681926824211092 0.09814715494411975 -0.2417508315826305 0.25086318091798593 0.012389346144265291 0.12295872234852177 
-0.1096491468326428 0.3233798488750852 -0.014008224010549325 -0.21902690643860975 0.23896876971087064 0.06586328455684215 -0.36907974208811745 -0.04131440412858997 0.10619967317799904 0.2321692702320039 -0.3121496152296822 0.38066558818391955 -0.10501442530706823 0.4654413956965725 0.2005260938849395 
0.17556162639525946 0.16850518845388 0.033059404159054895 -0.15428205086562205 0.07774304209039427 0.14952813952605343 0.19473652419050222 0.251008807611026 0.11773463129593371 0.18690560477943033 -0.11065005445340577 0.21396104790883433 -0.06105157904326186 -0.031688718198553414 -0.14600807348319392 
-0.0578119748247726 -0.2030619426669383 -0.032295835240691156 0.025169460344213905 0.32619880030477777 0.21609655113797335 -0.2620003726176235 -0.024293008661739866 -0.10126476751141594 0.19434280696888517 0.39735048070054546 0.3318375880673047 0.15368902373710935 -0.10696895387738774 -0.2654414598107055 
0.21460307229662476 0.18798440612050946 0.24924067459332822 -0.2068385199694482 0.2324316937304712 -0.2289997132562935 0.13883449405988516 0.218269006093948 -0.01993201744790868 -0.18526066938925578 -0.33354924273939573 0.13943609353721795 -0.14504406509353596 0.350374099705373 -0.35106331128764817 
0.187760292814586 0.34311097950540453 0.06921039533087607 0.007234249581573198 -0.19452310288394853 0.013354727823667341 0.05215126071865486 -0.059900138267285616 0.054240292978066644 -0.11145548719719037 0.3964518301525362 0.3176058986228378 -0.21406982490724638 -0.2968927193862258 -0.14543222611110854 
-0.00024040904997681129 0.026622226962577458 -0.17531716188301277 -0.15072410508939488 0.2128114957401606 -0.052714426383134054 0.0686429468826676 -0.15957316773660982 -0.2416815356346935 0.16049149606321597 -0.02193304260600201 -0.2098689800255275 0.00629556563124871 -0.07240035172334947 0.054355696422532 
-0.21495133843637224 0.03273650681372703 -0.16674491222023502 0.12137611740203974 0.26924831984654535 -0.2920979078905812 0.009506559002939948 0.177109180690991 0.20823246552546407 0.022567729378083864 0.2511119838109364 0.23668809259448412 0.07049212654083901 0.38760432196337485 -0.2461964211051435 
0.08941836094307011 0.12239447412169767 0.113925379462687 0.12905640678199026 -0.3160851273089447 0.11435081923593259 0.0970718648044226 -0.2387715853022945 -0.14517083337010192 0.07799451361838665 -0.08158599071476107 0.2649289585918252 0.06659826853561308 0.25660531195389563 0.36953677111263167 
-0.11876616276011126 -0.08275987153721101 0.24374475062954398 -0.08503728263091365 0.2509464279844734 -0.1389362380967075 0.11799222337070128 0.19713810840002396 0.015341914468141477 -0.2206612702094289 -0.28156601225066785 -0.13145781227119674 -0.20504427129259822 0.21875393092881404 -0.5054330427666409 
-0.0786866268183204 0.1264878123487306 0.11926948780956566 0.12072895556676976 -0.20115338795427268 -0.033892121159956275 0.031284160055420375 0.2491347628336033 -0.1779745153085257 -0.16379354923368852 -0.027459051406813227 0.05799186410964631 0.10030655173430668 -0.40637055507227937 0.24020670190258586 
-0.17298518722103348 0.13451171756097793 -0.13500415673720842 -0.1967101115810154 0.022432250127733748 0.2895471779772728 -0.057214766381930425 0.09607072889670952 0.0064526180258461085 0.023828760115300326 0.42115003163859177 0.15211706347807136 -0.2857434156370585 0.1398895323629991 -0.012645207035514427 
0.25244134729875267 -0.23601321395236893 -0.2541264838884164 -0.1932732960739563 -0.018319227118335998 -0.19241339682662165 0.05902360530063362 0.2775929400305645 0.11696977257798348 0.1157238093467355 -0.09949637912192885 0.3161545503108629 -0.07496636565440642 0.31583135369550147 0.10223108384669677 
-0.21565387804742364 -0.3169879460240506 -0.22692927510718713 -0.4451603371267685 0.04303216130273072 -0.36898693260247856 -0.5391668443402621 0.2719152141265302 -0.06989169689672459 0.1494255047505008 0.01380731819620571 0.07594919167056804 0.182278983615168 -0.002487045634683324 0.08606454027755624 
-0.05726893744652327 0.3197347919012133 -0.43803611466199954 0.12928165426705818 -0.14382026283892002 -0.05179204403577076 -0.3423565385121577 -0.03070640304315472 -0.30440095634274844 0.2542518526063039 0.3220753567962583 0.2625998911566158 0.38397397825259016 -0.24631650748017903 -0.20982593476173203 
-0.13845467818768117 0.3519329774399533 -0.20017415778882494 0.0123260580136911 -0.1355441718339314 0.30829917147355906 -0.09673708329526659 -0.0796268890268139 0.033453308146432534 0.3303189887822998 -0.35403884217959164 0.18884978971570315 0.2837227224742536 -0.35692464676047114 0.01568077894601842 
-0.12691591667162727 0.23414318422000216 0.1444419567581077 0.28836749812421936 -0.06052199429038905 0.1625735277077902 -0.10918413483394905 -0.4352111244457445 0.2011765252384867 -0.16241677752526 -0.0053340235560642895 0.507325111962756 -0.14734412406543596 -0.1481865961720214 -0.09675097771640322 
0.324808350302434 0.4077889177762592 0.232993663227477 0.1912072946819957 -0.2010806084953107 -0.31957680384561377 -0.222406152640211 -0.14462304585318633 -0.28388068405718014 0.10008480781945946 -0.08688674183698583 0.3386549547665441 -0.25722709172449043 0.12486509595953481 -0.32609332523446855 
0.053282764993958 -0.07094820200346276 -0.4799032864249118 -0.15117120233765882 0.11563043493614343 -0.022060576225989458 0.12323761427861739 -0.23659677543994817 0.0018328879018730095 0.4067643066431871 0.21903016422782573 0.046959865255679356 0.501893320669541 0.38325658345341407 0.04913040641792444 
-0.3528749692610306 -0.3820251770805414 -0.32840111761780555 -0.015452523122830786 -0.09017539546937185 0.3798529122121165 -0.2922550731805365 0.3785466832192631 0.2901359071178209 0.32551561153380854 0.07592096009284846 0.21812762633935398 -0.0272021843461242 -0.4493323867011923 -0.06582122074784025 
-0.005622286682828789 0.32953126898451024 -0.1350556743629642 -0.040042021643302984 -0.2705732708792784 -0.37945104557383375 0.3649706960340729 -0.07260756792069077 0.3261143323909586 -0.2747138119907339 -0.15086779632168065 -0.047063763021379275 0.36043595528383815 0.0833491777472792 -0.2702423243062011 
-0.13701841101408443 0.016437759828720064 0.1452794951750771 0.31131100817102964 -0.276262271057375 -0.3603720016747615 0.0572999702146072 0.286087178467158 -0.48156863069682976 0.15425306740240388 0.11600107741577155 -0.009811424765245694 0.40532552881495837 0.17399056524691953 -0.39422802680302965 
-0.011059156372181106 0.2556133066793323 0.38414057635413473 0.16915193164155998 0.10767707533305526 0.03923216859173104 -0.289090240754848 -0.00035323334142683754 0.24913273139671932 -0.038500861045569594 0.254129153153071 -0.17237715367589507 0.11949328263483429 -0.14465610122435046 0.3047372462194705 
-0.051860591564598796 0.2238110920809605 -0.11371995757369364 -0.21194740844590634 0.19740422372301147 -0.13991500156607695 0.1715157472205957 0.17934340789339734 -0.2028265101769052 -0.21162658028031306 -0.22325644548052867 -0.26254345370210375 -0.09731545966140065 -0.35744440676281375 -0.29136856584666615 
0.12733007792841583 0.23905736894107735 -0.2984188896389825 -0.2798015302135853 -0.21659727154246075 0.4029908433527785 0.1618845040588895 0.02893920381902553 -0.1312503875924232 0.36054448932974087 -0.046367236281836796 0.4076513823498971 0.19168834624558911 0.025998219458310427 -0.32265231254950244 
0.35955075821593113 -0.29409044494367903 -0.19231554640401752 -0.047821144491526656 -0.06902734170582261 -0.29581089508627956 0.3088380574201262 -0.4241226123983542 0.25228782202921535 0.34528976504103737 -0.24679786991225858 0.15570905938431304 0.153857798353461 0.16740489181571744 0.06798733704498888 
-0.14981115673462292 0.1792152130349613 0.4731556618884867 -0.013622077492263525 0.19246195996475626 -0.3688674718057543 0.2884192187372322 -0.3184778020216297 -0.003936547895150111 -0.13948118439697588 -0.35164412603896095 0.4828380101997418 -0.16276640772352272 0.0828143171323461 -0.002948443243337881 
-0.27484436147967695 -0.4535793021158168 -0.22162029334905672 0.16408531297154552 -0.20007719940667323 -0.07206233154169595 -0.4104864220964265 0.10244624535999816 -0.20063400815759824 0.4870242588661681 -0.25913462330163173 0.15315687606323036 -0.6091430422959411 0.4060200331631772 -0.1592029952893784 
0.019864894214702108 0.1188664019740497 -0.26438729968537916 0.07584687453525746 -0.24546874302064262 0.25187618969849035 0.16637519501316014 -0.31590247940335164 0.4132710552110652 -0.43154646545157266 0.2541673815484309 0.1476838337923555 -0.1735726885682783 0.22905465025434504 0.1620609231904876 
0.3684546173279005 -0.24595594813561802 -0.35861895504669855 0.49309424941865404 0.2525352879242279 0.22509289516476705 0.0633384929866057 0.1699505198298453 0.2698714103181787 -0.09076942647426178 0.18537200220447983 0.32065110149961495 0.050880617440636836 -0.0013816153557647767 0.25607311145949474 
-0.039989313086411696 0.2441061729447209 -0.05287032857833435 -0.11221444522928765 0.12763490503501312 -0.20598620676243115 -0.023339146072193364 -0.13532022260363355 0.09186667317500277 0.28224501945426933 -0.03740919222716796 0.2105312153956966 -0.030723046784090668 0.11364948057375494 -0.27509303244696764 
-0.048052892535042385 0.3583799405285199 0.07612449672025676 0.17364668712623388 -0.043812648377319255 -0.09780445709351207 0.2555133767631006 -0.32506860902047624 0.024740708045627426 0.3901179497988088 0.012690120980106063 -0.2267000616735371 0.23247104954740996 -0.1363823952547141 0.301706903964705 
0.028728362460784144 0.3703423673266466 0.09000675433373172 0.23074515906772172 -0.5495994066528535 0.2876274223267671 -0.3173058582438729 -0.12980383107352497 0.3712169277335083 -0.5040199830432507 0.22577950820391834 0.2696998682025968 -0.09666847219986255 -0.19783739859334487 0.4174780805799814 
-0.01574272866525195 -0.47759383921949716 0.3216636598905515 0.27784602980763473 -0.024374330755946593 0.17465104288054964 -0.05852639236814276 0.13399383226656383 -0.23148710984766827 -0.1582286226014065 -0.23047875333443876 0.35083916381355157 -0.20809550624926532 -0.5526469954037249 -0.19934143691245243 
-0.36733451975965364 0.14568874556378394 0.0462253603887686 0.20436474533318044 0.005019888586443499 0.20240060646144395 0.1432251228926877 0.2054742369036561 -0.08796100923489465 0.08947057972543697 -0.23799140554430637 -0.13003552483698577 -0.27836746341354834 -0.06578264815818802 -0.19043279830042797 
-0.06703692136214212 0.35263178814110224 -0.13115897543424176 0.3646372784873113 0.09713569819054232 -0.09460754117997158 0.2668089861021227 0.0865030062763287 -0.19214717480561772 0.2775877743518215 -0.04808408631129508 -0.10343870906739693 -0.13724626633437803 0.19526811842816305 -0.23468726751244545 
0.22880951115697637 -0.24380793003484558 0.031505442511872206 -0.014584553897631893 0.2651591503898508 0.42430502393037334 -0.23445565371137356 0.06138984714451583 0.28358431790375255 0.0296098438390833 0.3169792718935489 -0.16225438477620227 0.06876280745100415 0.24436581500670873 -0.4043619781563343 
-0.3675909669542021 0.007772599286595474 0.3300014914921994 -0.14147515604607577 0.1776171894913528 -0.37180295433927363 -0.11500305767801008 -0.26519470329181727 0.23832037528832672 0.1363014129969278 0.12076443700640695 -0.18165439987499243 0.11598524693064201 -0.21878241288555692 -0.014736424890592138 
-0.09276965170657009 -0.26089368146261077 -0.33303391709845165 0.06395275303099957 0.07710102913330184 -0.03786045812143132 0.10776208793959988 -0.24559101304471606 -0.4491405114603841 -0.06807554416577226 0.26775092266926154 -0.23478752980459222 -0.08524864837859966 -0.07064788917769313 0.10846436963900864 
-0.25210273640172687 -0.22067839656185181 -0.1752119739480402 0.2489641511111877 0.2054288197886105 -0.16761950762902209 0.07725275680891708 -0.264522014017904 0.07960043630850665 -0.2800859498190724 0.2552893066616678 0.1251130083193165 0.06838440870700598 -0.39138742432120766 0.03268213937618118 
0.36785967233899597 0.33139235601431966 0.10536562542657608 -0.29055963220057845 0.08203894896474398 0.027366707595278313 -0.02232133695583743 -0.05164249078599328 0.06039437160925414 0.24889974697128336 0.18508892378243558 0.057024467142235136 0.3106244819942961 -0.3667559182814035 0.3716303537755407 
-0.3366940095864169 -0.3269153103964172 -0.05548583935185377 -0.3500152841357593 0.02543554698182576 -0.5607590424661832 -0.15799902309152905 -0.3303792919055931 0.05557221335159073 0.05161792866137842 -0.11577336101312945 -0.23152313712100123 0.14434970346684592 -0.14078768397087327 0.403610462212193 
-0.008587108353967386 0.11718248894533786 -0.3559759352747193 0.08278984442240585 -0.11812639789212825 -0.20614888437770282 -0.047398717908714805 -0.08498920525520237 0.016743562941366936 0.527012992736754 -0.12514055344229957 0.20284582116616004 -0.012150470913261064 0.4539768268628166 -0.18319578576931664 
-0.1876459268791693 0.288250403713028 -0.34413095615017864 0.3321689626414165 0.037604154056357475 -0.2967016480086759 0.37455903826853 -0.33247819346766944 -0.03872889558118461 -0.5692311948103324 0.05107085879167293 -0.23747188903776315 0.041706027324408444 0.2810457491831946 0.4634073412500334 
-0.03441742169642312 0.02928308141273325 0.2051838728134859 -0.04213767294019621 -0.06441247654351617 -0.42592502122014664 -0.09463393040930176 -0.2670371511050116 0.14223089888694862 -0.14266681251159377 -0.062064869677069034 0.2889678751277393 -0.007744981405333671 -0.19792530594980137 -0.06413259735533369 
0.27393586517621854 
-0.4000288572203522 
-0.2902642879946423 
-0.4957779266596224 
-0.15855559392831714 
-0.04342233187431343 
0.16012561405512152 
-0.4480644782896472 
-0.538215514247237 
-0.6572728508978608 
-0.3938163217948718 
0.1523187825874 
-0.058602614395018494 
-0.31460083719774196 
0.27400904175429236 
