30 15 15 15 1
-0.11319841183166168 0.06923797137512064 -0.4536802899239405 -0.1576006250697897 -0.08866788004924954 -0.2050614479460456 -0.29027884882997795 -0.12069952742378177 -0.09090267662068606 0.018359436532223165 0.024586234690637483 0.2067815148310798 -0.1873374234209866 0.26340860139753797 -0.23890064160466318 
0.10410280789106355 -0.06244176261106308 0.02053230123823522 -0.24400524046149077 -0.20225288464657007 0.184387723975123 0.3893479739102528 -0.1501260210564369 0.11773685922593664 0.34668019602673755 0.21200657915315552 -0.2912945043522569 -0.31036579398889563 -0.28046454878703253 0.3405942192291513 
-0.33246767314783 -0.10353010599826847 0.24542531136212953 0.037228092838372306 0.18212693617696346 -0.12028309674427023 0.11628663560873505 0.2368659710861707 -0.3027467829686594 0.12590831201715616 0.41930883201478114 0.20024947555469147 -0.15791546437089818 0.15424094703290794 -0.28330171451969444 
-0.09036361300873708 0.41557514298442433 -0.19163937040605625 -0.38667352278679373 -0.1371624848683022 -0.61225203098988 -0.14358528263492001 -0.10422825734878848 -0.17583537661924592 0.03710219043884922 -0.20827346032351687 0.22633387837551777 -0.009719628241008712 0.10908208866664623 0.023355196097189244 
-0.24827056432130373 0.07941747633381231 0.1427601081822645 -0.2325091281480878 -0.26180017013571655 -0.1323056501175971 0.04876669094688348 0.09364950787481734 0.2639850529861464 0.06829079611164532 0.3761394153435301 -0.09890551169843048 -0.29761648745609287 0.40346405665554663 -0.11037042062985614 
-0.20778876630073578 0.3714283236448772 -0.31193480801175316 0.14675238291219792 0.20909473205406373 0.21449559845103924 0.01066826425489794 0.20739730593730085 -0.1018484316857219 -0.20129770707979425 0.42190435721272906 -0.07314631630512858 0.39784134258108605 0.16819117034059214 0.18392715233987497 
-0.32193406088266624 0.4282651848713722 -0.16205676599673435 -0.1430552440301641 -0.009958510196457509 -0.4697877004872026 0.02376096185031045 0.10508742187693183 -0.32547916291396783 0.10097838036245793 0.05588148036842694 0.18068975200005566 0.5440243481884005 -0.00631097942686333 0.26579793663208134 
0.029517625116239773 -0.3880878346125859 0.19039710804068652 0.18277711494472332 0.3872197654310915 -0.43034483139865515 -0.3212138565329799 0.24841043367603569 0.1205483609311537 -0.3807297423342488 0.25383053264374 0.15314662965796952 0.31593087278432497 0.2147760889804281 -0.275170535867243 
-0.301710217998389 -0.5045216732383125 -0.38768564329473854 -0.08226814897123962 0.23759536137570497 0.08822627918908989 0.1745677641118511 0.06514220737637352 -0.23420432819421008 -0.1355958420118814 0.1907593790683224 0.4160685725046885 -0.06676397544471216 -0.4576905876316302 0.3831698318927644 
-0.16474697694867607 0.16279211777224653 -0.050686626149906884 0.09924615813280942 0.338612461978917 0.22759239757942765 -0.04053296432301814 -0.27569823475565003 -0.23602482067479355 -0.28566759227116106 -0.22158176421042686 -0.04936541802278132 0.1306807544589013 -0.057161008035872436 -0.30648092030507396 
-0.267888152391709 0.20062964154145124 0.009318361787787662 -0.20846799936255683 -0.15342609860048959 0.1335753543130651 -0.11998054034541869 0.12251124633036997 0.2895932925477171 0.2974071839676172 -0.04962016914087116 -0.02238795287421455 0.21536673341899223 0.10574666974334342 -0.19268721726272592 
-0.3025592826876955 -0.1126771763920027 0.026791473450652165 -0.02607898222521203 0.07536377595010217 -0.12221414254492251 0.11921084607639329 0.01747289767575046 -0.07276009980488683 -0.008141063135897133 0.28893669632929403 0.24828889424496986 -0.049017373552664396 -0.2144063528903038 -0.15899080938700721 
0.05486679878717672 -0.36962992910812387 0.19778856334010153 -0.325690253482964 -0.004242575170389255 0.08694906349192348 -0.4387389064750086 -0.030777664904815982 0.014787709819626706 0.4289049875979361 0.07388477968854867 -0.3425391687011769 0.2755020749205008 0.05257406255319448 0.42977315221778073 
0.27044333816898275 -0.24919952440682808 -0.28819597054253665 -0.025991875338762425 0.39386991132990506 0.21134676904943545 -0.13465896135894528 0.2727100613704065 0.07918066326400906 -0.09217318825158936 0.12922904452768427 0.15967202335438782 0.17567272255147406 0.3599609150588717 0.3115713116233846 
-0.06369875980955433 0.34429113287580626 -0.3545650367874907 -0.33644195471829325 -0.14389770511868358 0.006813273878315127 -0.2674866160374634 0.31116648422343346 0.2029744313463975 -0.2919389087409157 -0.16559577292747898 -0.06917497159329412 -0.28954019388355556 0.23366176321797255 -0.022674781093368745 
0.2757145520704418 -0.13683612361791678 0.3920339384465917 0.1372663208026938 0.2684444189280745 -0.0019829531598390382 -0.1051468621573479 0.20760070739447997 -0.13149168558506588 -0.017529039740067063 0.05900590980888033 -0.31792907050797176 0.24765227148941082 -0.16440897886195727 0.12768044385278837 
-0.11300956464213846 0.3881998483322454 -0.03849938833710048 -0.24444676434721144 0.2813399218563139 0.06794253407011391 -0.41119121304753103 -0.19757423477814998 0.10946181822100408 0.22157399716824208 -0.3328673110889746 0.3345897423557732 -0.08696143042390783 0.4015905887790919 0.09515861362245764 
0.16934652754052715 0.09787470368128626 0.0430324337909204 -0.1275815311059538 0.10388379977144568 0.1539939475125325 0.2590824228197411 0.21875386059994523 0.12132369496514982 0.17944760563410367 -0.11009329714345409 0.1763888375127254 -0.07352789856371351 -0.1054864267824177 -0.08488108907217269 
-0.05964732102067724 -0.32328608986747126 -0.054226297507502096 0.016260430467410682 0.2794992754360048 0.16235231897331595 -0.34140055568874916 -0.00656537883884873 -0.10567715452205317 0.16562142984897346 0.33934596030332204 0.34668521816569603 0.17507656306902694 -0.22832038441928185 -0.24896138389004763 
0.22076134545950102 0.10597463808451305 0.3034183323037007 -0.15075243492948662 0.1706971273006515 -0.05323648063385647 0.1740236825537378 0.10435211052651833 -0.04746995824378326 -0.13906908745185578 -0.2991126716548968 0.1223987689221291 -0.18945701063669962 0.4386695511902453 -0.38043250445472065 
0.19323614952726087 0.24403832118895627 0.07157167446536378 0.10287747110975604 -0.21489428437070565 -0.04535216503997451 -0.18056438953323847 -0.1675735380916137 0.05596657017421574 -0.11486719191211422 0.5107249047643768 0.3221476441964729 -0.1523615492468316 -0.1878799578504707 -0.08357900397795272 
-0.00024836639511288303 0.1372706225671078 -0.18046934823736024 -0.15522222166665728 0.23282268401332093 -0.05360507473163489 0.07080577985923489 -0.16430887648233333 -0.24850738397721372 0.14456931362513087 -0.013698418051956145 -0.21590842863171505 0.04450174551008884 -0.07920401669118442 0.050086758176832814 
-0.2211183276636835 0.05646823292972435 -0.171671314021607 0.08353820730299794 0.38143701146012193 -0.3001150109338471 -0.22045338519163765 0.16019985373277643 0.2142306880674683 0.008495809058003451 0.42974702045829416 0.2467728742272702 0.08301240568324612 0.41659753986292053 -0.25206203743383493 
0.09219606720096657 0.12736186416942147 0.14516902245072313 0.1441289415007979 -0.3188691394398155 0.12148041394079082 0.11789518652373678 0.00036101679406881664 -0.14951852757916337 0.08043624141595611 -0.18355367537458894 0.25791429814508027 0.015538237543484984 0.20911956096842912 0.23045492900896286 
-0.12238422673772648 -0.15749459282979478 0.25062064121968836 -0.08987888765564903 0.2581983494621476 -0.06394203907449461 0.21290795979929517 0.1649455424339146 0.015844051084225704 -0.2269706709521809 -0.23910661446792766 -0.17927573888849987 -0.21096195597888046 0.3046709147449805 -0.4737939658208819 
-0.08114885620587668 0.14775241525652497 0.09372856779143891 0.15679036441335983 -0.17732076977376876 -0.034986517847084043 0.06601424158440146 0.3060977536031997 -0.18319622578924932 -0.15541215389753996 -0.04266777416086616 0.1250142900130677 0.06922886832154058 -0.3698407635488748 0.14930530352890378 
-0.17807618075707854 0.143520320802734 -0.13759390027682783 -0.2428563222509974 0.07337371130838616 0.25803324827851 -0.051119029944782415 0.16343147128563748 0.006665205099202703 0.024603834815797632 0.3300999937552565 0.18530202992054268 -0.293613893018927 0.11126213486357363 -0.03147640751660302 
0.25147848390098737 -0.21961855053162427 -0.2386003531443744 -0.2509930300045968 -0.019324285881718157 -0.21523439622378873 0.07529637297528219 0.2817546713253346 0.12053730846221904 0.11044164483820072 -0.10419921569115695 0.3182378451005162 -0.08814021266859401 0.3004305811039921 0.1277826227794058 
-0.22183843923004573 -0.35064850534314995 -0.23517523449325992 -0.48642541775815445 -0.010566014663549143 -0.44774160455324535 -0.6229478150891257 0.25713542955764934 -0.07336578186244798 0.12803430121592918 0.01546820108470741 0.11785017026415058 0.1545826404483658 0.05874447486636669 0.14939115209725948 
-0.05908773555855623 0.31758432187245444 -0.4609025599952649 0.08441956967234793 -0.13178499121803283 0.06602447350412038 -0.4174972567926485 0.013853823750965302 -0.3126991808847635 0.3466732863536744 0.41914769431431415 0.36991025533176425 0.37033926973673176 -0.18623676891166538 -0.1402390835573813 
-0.14261906708792182 0.3612408788335509 -0.20007224390079395 0.008645000820635646 -0.13962864737274083 0.3166857205339466 -0.09972737497511001 -0.10681362720421517 0.0552523970942394 0.33919786091810594 -0.3634359118207983 0.21616214158669195 0.2839343378569988 -0.36638392933107455 0.016193878473852133 
-0.13076176914306098 0.20129222196821514 0.1434892555346996 0.30171463911597685 -0.07140204986875838 0.16516750956317564 -0.1487411333477901 -0.3880831751355022 0.18789318026368704 -0.1188888939744397 -0.006036213455657468 0.5442236744302715 -0.1277097055650654 -0.1466954412410906 0.036095998483273106 
0.3335650517086434 0.45722185129111187 0.2577727149023587 0.36871490872306467 -0.20689775261479654 -0.3291288737105261 -0.2498476203190224 -0.21820594635311746 -0.2671160359487696 0.07915458154661116 -0.08753637902277879 0.483097924671967 -0.26112934100689666 0.287991684097002 -0.34371036234707575 
0.0549797100870283 -0.069460436116517 -0.47251996133289914 -0.16971040501029255 0.11987810421086426 -0.031032240472269008 0.07246102132650001 -0.20679905956071035 -0.02930213024762265 0.38410150514948427 0.22608215375590696 0.07653506352019766 0.49927634123040343 0.40121293530987084 0.15522908021234835 
-0.362246897487333 -0.38589121934441456 -0.35315000410951863 -0.09273231527978612 -0.09297518645797927 0.3888756334737527 -0.3194986848623543 0.31356803237377273 0.3197059109585469 0.3659189927028371 0.07892795986980496 0.20473489539818246 -0.021736105321447912 -0.4696972313451846 -0.055773580322861276 
-0.0058076323786048906 0.31172233892370615 -0.17703416492989807 -0.03719494598841759 -0.27808968454776195 -0.3888940150246491 0.27175899948336035 -0.01243798802465084 0.2844884984355051 -0.31369410604636044 -0.15383866781561853 -0.029629470564333498 0.34067981328087843 0.04059062110046915 -0.2861634640554011 
-0.1411434007696264 -0.017090219375805 0.11839483393239504 0.28118942929764495 -0.2839121349787777 -0.3803742770018783 0.035631539821623016 0.3414326739933042 -0.518348877717416 0.12992722262015796 0.12105818813491435 0.013853944354428927 0.42010821370578716 0.19391019705437068 -0.2519619750144935 
-0.011422265895431272 0.27593980880342617 0.30713820586720497 0.14497619461367214 0.11385988836725822 0.024126009056612982 -0.23969306793081407 -0.08796127856482498 0.2657420684887873 -0.06750811912983548 0.25999339250397757 -0.19170185518057048 0.15719488345377186 -0.20059105672716288 0.26892643632420715 
-0.05351389886949261 0.22200112173855868 -0.1377568738850634 -0.2382001763985578 0.20312770128139032 -0.14411937737425307 0.17656809391031267 0.20214720017052534 -0.20687055380551536 -0.21771021927560286 -0.22963026852253718 -0.26240048017736867 -0.11961681780979615 -0.40460137405393437 -0.29936888963392905 
0.1311874437025383 0.3315692103432448 -0.41729748326500854 -0.26522052662276835 -0.22280540683689576 0.4278920553600673 0.17896004618854144 0.10094095530051514 -0.22493719160790862 0.2740089000854974 -0.04785117058370549 0.3186642288486187 0.27276253600310507 -0.05022958703098887 -0.44561706691295505 
0.36906650124687707 -0.3085772299665295 -0.2854407443524774 -0.1587637532823798 -0.07120170840338583 -0.3181357140255928 0.2955053776242901 -0.45007119202994117 0.30034678244152446 0.30478460012353853 -0.25361240066734747 0.09798448051475474 0.19658269273521098 0.13079194649909706 0.047952340474258524 
-0.1542846146155307 0.16675708759449345 0.4286325344175632 -0.05927927869087827 0.20477157347549357 -0.39799079730471937 0.28601092419750535 -0.361648870079671 -0.0033745467886163298 -0.09386101078632655 -0.3620356401277604 0.4603546519012212 -0.1562161281920667 0.09138584471297723 0.04676556585026724 
-0.28246104065203154 -0.5001144755444287 -0.20943051735581866 0.21046005575725857 -0.22580322911841666 -0.1081482292802743 -0.37334772681551065 0.033163910399888474 -0.14188887160858657 0.6126967953094241 -0.2684981545637078 0.17069821181956643 -0.6778552627671078 0.4043954139882173 -0.10433772910295731 
0.02051291071276152 0.13936106011295765 -0.24876881073837984 0.09571185109095062 -0.25179213926503796 0.2477273075000848 0.1677397675280403 -0.3950394859174553 0.46950986920179183 -0.43036694832730243 0.25894844208174617 0.17425171927760613 -0.17882025924247943 0.3068847980531829 0.18265511488734068 
0.3781607083107552 -0.2609867852327077 -0.4270993462319525 0.4481921106812622 0.2691743304175711 0.21598454839071432 0.015601703167926858 0.2404057862452888 0.15955043160195867 -0.12521525886971346 0.18908380530028826 0.1711277015900349 0.0931839844565849 -0.032893548065360434 0.34372420354813804 
-0.04127495530611257 0.2509908179138582 -0.05455462741193321 -0.11564766326120814 0.131500740880153 -0.21192771668150887 -0.024098566193575297 -0.1393985371690312 0.09471572349449948 0.2900343524483968 -0.03861410825250812 0.2165873246647912 -0.03171738291735008 0.11712331860291271 -0.2827155351507063 
-0.04958893803312222 0.29239423605154463 0.07851073585753299 0.16816943562238273 -0.018073881259908445 -0.0733102878717871 0.2626725467432066 -0.3338310957620723 0.006920030465597925 0.36918048891188443 0.007931055654435663 -0.23315907781766063 0.23887138866002813 -0.19375506722002428 0.33180547402126925 
0.029659484724746218 0.34297903216593556 0.092801627522395 0.2265422303566751 -0.5697445253321063 0.26951250565682755 -0.3258951232227064 -0.13372983988346668 0.3188355082136219 -0.5081209694398009 0.24544244822860797 0.27719572176151963 -0.09858274552031653 -0.2659791268129199 0.4578002338929879 
-0.016257831795549658 -0.41306557568132235 0.3303503360317621 0.2756386854317071 -0.022726761363224084 0.16543660124763068 -0.06038349025229059 0.1380356216892019 -0.20275724221215147 -0.22006723501040248 -0.2370308732885306 0.3601670457242079 -0.2242744204024334 -0.5346165333034112 -0.18580521552635576 
-0.3770167564126386 0.15225750121524878 0.0477049030473537 0.2113222051433751 0.005185449819968484 0.2093541460464148 0.14751986926911967 0.21140280030709876 -0.09844779858727562 0.09336880104257114 -0.24472746598018155 -0.1339679518682587 -0.2844949505600928 -0.06785946822850474 -0.19451930945639834 
-0.06915150037064062 0.3627883197195272 -0.13512249703004492 0.3742619654831103 0.09510678037621006 -0.0624178528825352 0.2742366496417811 0.08919545654839627 -0.20208354397449713 0.2881875734992971 -0.049621094989501624 -0.10662187946681151 -0.13854509125363418 0.2141970304638489 -0.202536908079911 
0.2353205510604855 -0.17702859702365625 0.03252452429127729 -0.015074320384453069 0.26962049457198634 0.34033181642739435 -0.2411053364898937 0.06333391321056518 0.38682877333747756 -0.1241451342529753 0.325561219070369 -0.16706157927033183 0.06973000653773291 0.09080632738876382 -0.3590198151954565 
-0.3772786673811555 -0.15520592137932773 0.3388733432490312 -0.15643236639083077 0.1910462697388322 -0.2675191142365507 -0.11851514145121657 -0.27258419664223776 0.26807217653829757 0.11664073882133717 0.14047163468675367 -0.18697202545132655 0.11752793438478329 -0.2838112460554335 -0.004486316378375944 
-0.09564495673575964 -0.17258689544555086 -0.3419727286732722 0.059204791404209665 0.09675147534693518 0.03174467174144074 0.11106879923949614 -0.2525115872238629 -0.4494969052003866 -0.04837138498060302 0.2877274096561821 -0.2414453347195364 -0.08844254991021892 -0.06858982903798015 0.10135848909017257 
-0.25918018570479817 -0.1607140725106567 -0.18036140375244974 0.25766660873128366 0.1760191643979265 -0.2158532301266774 0.07967249130298852 -0.2718955817855094 -0.027407914286319255 -0.2957726856601879 0.27454407853046425 0.12890867136347087 0.07585731465659819 -0.3685009491003512 0.09002157067867582 
0.3775530962382756 0.3415543895941599 0.10860394317780608 -0.297771262792919 0.08462905835446516 0.0268524099516602 -0.023048178755443318 -0.0532890982715911 0.06439049404464527 0.25442736647116404 0.1904956933680725 0.05883581140772797 0.31765678309733425 -0.3763711264764841 0.38140393557997204 
-0.3457133680095242 -0.32972094744375 -0.05725021327618968 -0.36544107391338665 0.01486583408561309 -0.46983291859254345 -0.1626926540661861 -0.33925949718597154 0.0574405047076081 0.058017742073781534 -0.10057106994272322 -0.23810092031474803 0.148121715189926 -0.09871318118080097 0.4290782386490859 
-0.008869569408242163 -0.06818860560679876 -0.3654147848635396 0.07659634882182864 -0.13510815835712406 -0.13690888230438833 -0.048914554552192895 -0.08763725587569643 0.08068072254832895 0.5304798126657209 -0.10995326219095035 0.20870779773368045 -0.01707889856003181 0.45679255000422375 -0.17365754705214823 
-0.19311883029563084 0.24005882764066006 -0.3533130676019034 0.3233069515567417 0.033988771417634595 -0.2920926835917434 0.3843946756389797 -0.34140474931949116 -0.1303203735226622 -0.5889980281221815 0.052699896698384055 -0.24419527908716074 0.04482003781444779 0.2645084120170375 0.5006056935646702 
-0.03552836048470172 0.16303167637620913 0.21110509019941046 -0.03471356501480746 -0.05670488683613905 -0.43307035268011973 -0.09756334187495111 -0.2744702043134077 0.0208876242012737 -0.119449872559937 -0.04620386374811359 0.29691287752735557 -0.006910420119869192 -0.1473714406207358 -0.11326011337023657 
0.28153125544464275 
-0.2214692327288795 
-0.29823918223179896 
-0.502730735118805 
-0.11029123435277766 
-0.014311888708587305 
0.1648760709518164 
-0.4594022544448072 
-0.4690252755986718 
-0.666127264338332 
-0.4107246359024499 
0.1568599051887122 
-0.05858545879661467 
-0.31429134032597167 
0.3207021198306936 
