30 15 15 15 1
-0.11396500719451516 0.13814631381652193 -0.41930398092467686 -0.1842951644687749 -0.20918745869796915 -0.21461937748450732 -0.2556559548700894 -0.06310990814520465 -0.0921591318634683 0.02426395098255516 0.021140840185849424 0.20573966947788344 -0.14591456917543896 0.36472055647251433 -0.19799286296775406 
0.10423106188135471 -0.06123629275304396 0.022275238671431895 -0.2704895887725279 -0.21760460600863898 0.09011383783616812 0.42027649737599254 -0.1444593661116086 0.117884703917214 0.34337160181561927 0.1638303138802615 -0.29083647733796103 -0.2287748400069523 -0.25758656160399845 0.29570757822524557 
-0.33360104464003454 -0.08640812541085242 0.2733621741650476 0.061189560903320464 0.17062781037872138 -0.17144886131587514 0.12868970972496294 0.24326363483403912 -0.3031967074460733 0.1334528042213229 0.46397063300884495 0.17275518159914868 -0.16108524431479646 0.2048735301935971 -0.3067845780654471 
-0.09090664936670448 0.4192153066015646 -0.16865703742919871 -0.35998474935675173 -0.2700700052821716 -0.6065936281256515 -0.1093964093128082 -0.08113727732264166 -0.17765978221127066 0.0334968051604691 -0.2560586029696968 0.2093379230222626 -0.03556253915589535 0.19159854608549648 0.1113534043126881 
-0.24862633636724138 0.04572890432206401 0.16519085087212995 -0.25203427562232944 -0.3377674331835741 -0.1359946734968684 0.09135201285535696 0.10055835641635939 0.26515719077620487 0.10453090316886637 0.30861088366757805 -0.05785676973000934 -0.3146948423273184 0.2893964678760304 -0.1808656300875618 
-0.20807685605714524 0.34823977964609987 -0.28939115118027 0.19445015780051594 0.12241894726257059 0.26431179529165527 0.011369567125106828 0.24807674383331949 -0.10270906770430976 -0.20316014847545158 0.38232181680008587 -0.060585330205781864 0.4194100842198007 0.20472797593226455 0.15510310343775846 
-0.32253858029486626 0.4401683155454607 -0.09024033126229031 -0.1652335730101665 -0.10313705867465296 -0.4416065351853524 0.0766973257828445 0.16046417906276048 -0.3264882384700407 0.0928920707038742 -0.036952369633810156 0.17170026198207408 0.5335383701342564 0.032622361478897056 0.32008925372353836 
0.02891689735319406 -0.37150236084562355 0.23668157033810874 0.18170089142791115 0.428832768812011 -0.4485887285820866 -0.3199667004115571 0.2586369113042073 0.12070030856198996 -0.3891464868619603 0.2607311660137909 0.14954987006183973 0.27744372701599546 0.1618312014477738 -0.2232210006617805 
-0.30215832434503903 -0.3262459318529533 -0.385765000028846 -0.1548733377032241 0.11795901146500443 0.16152281353271444 0.17720977847120536 0.23161168950119526 -0.23453632852192888 -0.1357700942312673 0.04834185518668005 0.3040281111945057 -0.029598154611910066 -0.2811962507288034 0.28298516596769424 
-0.1649659518923478 0.2517332745041505 -0.1569934047498691 0.13952794906640162 0.11433786471516137 0.187260212020676 -0.05870498867148133 -0.18343945368383863 -0.23635988325468898 -0.28608768031520954 -0.25773256659800003 -0.12073260094215986 0.13084765875613627 0.05060389708894594 -0.30693740189337154 
-0.26827747547916997 0.17062128277077032 -0.1738416837938331 -0.1575464522301375 -0.10318725296687978 0.1911629389095621 -0.135393977597578 0.08628037974374361 0.2897886538684213 0.31152876442890143 -0.07776179421620903 -0.044870546810932437 0.2089697410808834 0.12812662203387953 -0.2598890934296005 
-0.3030088782231814 -0.2220897177984968 0.057142129481446535 -0.029643175359021223 0.06855195927137454 -0.12082305518169173 0.14620682077520677 0.17239558024146134 -0.07284542937900282 0.004092498979048233 0.2729899734777776 0.2380612785979352 -0.019003465676385542 -0.2379427156772775 -0.2717884856276364 
0.05753356085857242 -0.3085245920675795 0.1604419643832961 -0.2679978523976836 -0.03651799973279174 0.15550305830066816 -0.42571466695796234 -0.02032932974595587 0.014803135644486043 0.42334180636881674 0.07467681282681624 -0.38384914384435465 0.28089553846518917 0.19576373309572026 0.3004179637257081 
0.2708370627669386 -0.27331995721117797 -0.3595738281446702 -0.044648591740790236 0.3562610972561549 0.22149007588104025 -0.1415317709667958 0.32950977969726253 0.07819971874089636 -0.1183528821029358 0.014925439625217954 0.16565109920307555 0.1396620193394092 0.27294761473814055 0.3031898316166044 
-0.06377228791579707 0.3020190187540974 -0.4080298814076466 -0.25093841295708796 -0.06964677417317114 0.027001094132090366 -0.15701369479652239 0.2468716353363309 0.2032546311506008 -0.3156291241986574 -0.16420348836955165 -0.11673715398726055 -0.4074566372018324 0.19649295105921427 -0.044697448410927605 
0.27611737832720834 -0.1086078276429616 0.37082461582964815 0.17623857749453237 0.3001857244936735 0.031538215917412696 -0.1037832406518028 0.18471443258795855 -0.13165979812118528 -0.01543966220557473 0.11356772676951392 -0.340866830460087 0.23096177577772684 -0.08097868552559719 0.08096034821176244 
-0.11315055840446227 0.2964870466172503 -0.003502646310588015 -0.2529267492119147 0.3106255020299615 0.06802155289944534 -0.31213455118840466 -0.2083434069415195 0.1095977107202046 0.2241350301422557 -0.3102307395830113 0.31090143860248687 -0.11805462993847524 0.377941931873411 0.1915251237157857 
0.16933516312353852 -0.15438934092561807 0.0643231598827107 -0.1124839750753956 0.1556693266016806 0.19551828514437877 0.20643449434302028 0.19632083193065256 0.12147677774374378 0.18194349320110365 -0.09130459471908194 0.16036246726800796 -0.05807518100998671 -0.0768557045985801 -0.11687343617436412 
-0.05971566854155631 -0.11930879951524602 -0.11671553226901418 -0.08776991866862001 0.319782054881102 0.1670509694221468 -0.4341087660058153 0.020419498983493326 -0.10451204183496317 0.19368819587421582 0.4151642298176098 0.3563820911886656 0.18555856128296716 -0.357447077220081 -0.24617253317932772 
0.22107087331386938 0.07603773700183239 0.24227957286184906 -0.05972906145641332 0.09415556959263899 -0.06548649307532757 0.1534341046264033 0.10142014078493922 -0.046675618435469454 -0.159311687335815 -0.20839624324666617 0.026843644830879154 -0.17933374159995147 0.4022909528482486 -0.43395443096582453 
0.19350050543754116 0.31462876348305363 0.07256936951936774 -0.021630663472815663 -0.2620266450004015 -0.0161024906251983 -0.11210001175534347 -0.13621809997095774 0.056030264216406514 -0.11501087057107377 0.37621613543105414 0.3164438408312728 -0.15423995434938975 -0.25229653040341277 -0.20724122684635535 
-0.0002486162259444729 0.09494314180781403 -0.18071318074785664 -0.15542637907327064 0.26253842443696224 -0.013916799835721236 0.07088853956599903 -0.16452716575486148 -0.24886355836813379 0.14075474937632765 -0.013712670332840434 -0.21620990709515017 0.02598186295846627 -0.07771683488500482 0.09345379317293398 
-0.2214284489933151 0.07622810297182044 -0.17190117737566532 0.05811944517769872 0.3527518800976279 -0.2672532770079541 -0.20844899198604402 0.16403751699211186 0.2145293918347127 0.011973121242580542 0.41048764446574676 0.26097909881574494 0.13856361333521477 0.19498727373542735 -0.20936016852238773 
0.0923076508842127 0.10006497159141509 0.13134434397192704 0.17049266801173996 -0.34500749644874096 0.13567899227224564 0.10155919055102032 -0.05943913724866283 -0.14971390446117436 0.08053179148844802 -0.16531451605227243 0.263297853395363 0.02004159998304069 0.2165620664793361 0.23405448366089412 
-0.12253886476234571 -0.16440557227820016 0.2509804089363215 -0.08890863608899013 0.23536216194328022 -0.051116355295379626 0.20804698256527618 0.15818569328024357 0.01586062043924519 -0.22729054763562678 -0.22979340668238663 -0.18294356935259348 -0.21125526605266523 0.2624113436785718 -0.46801877449385376 
-0.08124536513673718 0.12435999492732762 0.039224114560139293 0.22573757184459228 -0.1974217548431677 -0.035024707964631856 0.14190400114526913 0.25483327116877075 -0.18344441735679498 -0.15561660491015075 -0.13016402091959495 0.10718145521983662 0.04749108398802005 -0.28500285705342365 0.11613383276062585 
-0.1783161989931757 0.10751096040602584 -0.1397301986955462 -0.1950831631128547 0.06884721304297033 0.320205878195588 -0.0005645391376262738 0.12032446858717083 0.006672020924400819 0.024630090740360776 0.3270111524512496 0.1897910153436949 -0.29404783032638826 0.04066446895206963 -0.035135873952178875 
0.25160040719544197 -0.4378369738258071 -0.23070426743884798 -0.1906446481235432 -0.008094370119834956 -0.1587650900741243 0.06628855937562914 0.22948180827353995 0.12068923992281473 0.1117855798189908 -0.08133831000422553 0.27349992039948123 -0.009643235095586622 0.20306958067852948 0.036861713890791965 
-0.22214975828969621 -0.28927365082830636 -0.27843100066511073 -0.4567487018962201 -0.10884914640542007 -0.3514032745498395 -0.622116626978313 0.28558917288669955 -0.07217428060894768 0.1552922727715986 0.09374615365069003 0.10639403301863762 0.17081664444235212 -0.035998022475348807 0.180514764981539 
-0.05915537232197327 0.299765421297958 -0.5273953554997515 0.1205483754448907 -0.1758143095948944 0.06355975636892901 -0.4265334624009118 0.04208607506393745 -0.31316660688656184 0.32624951946580855 0.41965333713628916 0.3417455562132935 0.3811614724685069 -0.18235110595266318 -0.2464244652649221 
-0.14280391946441073 0.3601474115723385 -0.2039649711439372 0.008753312950292426 -0.13980897208385484 0.31716017903937604 -0.09984945387656372 -0.10564223024766434 0.055999372433245154 0.3397122489380852 -0.36399365209670786 0.2203789059891678 0.28327879805117384 -0.3669469647490997 0.016210827715266714 
-0.13092879407413932 0.1996916648661961 0.12245328762412754 0.23045865676794489 -0.06945570334228003 0.1949910098569421 -0.20721014011692368 -0.3680199055862977 0.1930689427540252 -0.08837627361984016 -0.0061746571516552 0.5272313768670724 -0.1100106146232692 -0.14944795739210515 -0.014509829781980977 
0.33406941613356056 0.3674409622166309 0.2768166321854846 0.4575170593655873 -0.2071843793630345 -0.32836923537585583 -0.2600571928483869 -0.18254001589157023 -0.2598336951106512 0.12905410368149767 -0.08854796832011959 0.45192587960115954 -0.2748314726077456 0.24854384013836525 -0.33464723368064325 
0.055042165207495754 -0.08222050551193541 -0.4949363254691791 -0.1503133692997937 0.1187892497477533 -0.03552785977877464 -0.03967085327388708 -0.20816458176770594 -0.01701605698302144 0.3963901488760158 0.2245046127553836 0.10118980430929665 0.4944318917773622 0.39282728536531375 0.1460841450332962 
-0.3628025033719802 -0.38371103318001926 -0.3715329193159705 -0.0267344436899853 -0.09308784786150041 0.3840482549797345 -0.354242638391437 0.3731686864341796 0.289179350954436 0.35378866746542265 0.07738818232717107 0.16691489060662343 -0.003507401341449823 -0.4253853881884506 -0.0578517403722516 
-0.005813558428223372 0.3117605980081282 -0.15814520648461686 -0.028771729790615243 -0.27849662116261314 -0.35707017549368203 0.1741742160505988 -0.024432731771713293 0.27937162052059217 -0.2219494009552852 -0.15806602119970262 -0.02888307955976299 0.33623090537226297 0.03416743029850587 -0.2884658921386404 
-0.14132601629549266 0.04421304208683711 0.0460442026298482 0.2725919657758776 -0.2843291714791259 -0.3704747374913772 0.04259774607434902 0.33265499228865 -0.5316037641020308 0.13668670490679066 0.1173269961633258 -0.019645723365877128 0.4525897187260385 0.13511313499965183 -0.37894221126952654 
-0.011434084671806684 0.27461564110501224 0.33737505308315574 0.1994504927453271 0.11586217066549381 0.04772274729066699 -0.24208175633461318 -0.0664284334483492 0.26545255237296733 -0.008319249441697424 0.26258447968435883 -0.20167549317183736 0.13129801627946636 -0.2288772421194266 0.30309081421722683 
-0.053574520686715005 0.2248911407336319 -0.13333868177424824 -0.23680962548876314 0.2034081517000528 -0.14430650912132956 0.17680571404196624 0.1999941033301658 -0.2089992959063844 -0.2180146822699529 -0.2299545944030543 -0.26599992766512687 -0.11728971474001945 -0.40026109983683184 -0.2998128926636776 
0.13135510274580012 0.3309663152969055 -0.4088440012962297 -0.29895304975041864 -0.22311833538419856 0.43870868587015766 0.2194471461892193 0.1102492766055326 -0.2275259548261926 0.23426971253747675 -0.04790478869519186 0.36612450839266125 0.2718314282438203 -0.07578332410793696 -0.4494184874573407 
0.36963435887842155 -0.24887745792344507 -0.2626697408173944 -0.012208450080095372 -0.07128498766770747 -0.31839369000687784 0.25148270803862677 -0.4020498385571518 0.22860596215535978 0.3824619237519551 -0.2544112436186043 0.16055882434110724 0.18674592548320382 0.06140501249115117 0.019001694164103834 
-0.1544873237634357 0.15889400431056097 0.43345883022735815 -0.029673248579332626 0.2075179241325763 -0.376833487672549 0.2573406520793582 -0.3156080212344902 -0.016625481887771902 -0.114032410669843 -0.36166712177792865 0.4877729892143055 -0.14700105389361212 0.07194115542028277 0.02923081091089584 
-0.28287555692136285 -0.45545584717327714 -0.20636732296898747 0.15563570231446808 -0.22191016478868988 -0.07495735677797542 -0.3309281374520751 0.06865876270485773 -0.15957229334062745 0.5114878925988852 -0.26973109704156145 0.0766795149784417 -0.6068990431211876 0.4075319787097406 -0.11581196780775024 
0.020534598131646653 0.11190140096784174 -0.2422668014976584 0.0888439668015106 -0.2510009365441151 0.2694408849875652 0.15739524564718832 -0.3785873873434093 0.43501093010219377 -0.36765132932709316 0.2609747879274068 0.1751875780581812 -0.1941838055393719 0.30402250795635893 0.1975725310932459 
0.3787449399518436 -0.22113718873791646 -0.4614734340841695 0.4628664463147541 0.2714428001996866 0.24670621814246918 0.008237269817848447 0.2482749432377712 0.16283277801323803 -0.16204780645745637 0.19064813471668918 0.12336510289092258 0.112745495749724 -0.047607173723816294 0.28364755814634157 
-0.041320601056498533 0.2513512156220336 -0.05461655002603567 -0.11579247276743966 0.13166886691729757 -0.21222261864858474 -0.024124253685172712 -0.1395785143477993 0.0948307992519401 0.29046204392072966 -0.03865657889161033 0.21688992710257518 -0.03175176398779 0.11727027072575015 -0.28313049327375983 
-0.049644691989579645 0.26456134878176035 0.07860370350315203 0.17060689590704484 -0.009872334040088693 -0.10172827834199077 0.2630529073542906 -0.33433593314265403 -0.00421208095322454 0.33028122993335285 0.008110432739421879 -0.23348932191932825 0.23509431655498 -0.18978646209558916 0.3482218228923773 
0.029691492018093426 0.2998237673198025 0.09291404868741138 0.22969248824978308 -0.6097661823645703 0.28490518894984196 -0.3263858733038921 -0.13390129553395286 0.31404937976706104 -0.5316070383634767 0.246358845133521 0.2776011106351989 -0.10729462041250132 -0.2415982576628463 0.49378087989484165 
-0.016274850549043433 -0.36810182861424573 0.33084898931711965 0.2790704102291709 -0.13294799237762236 0.13926321805666883 -0.060452774599066374 0.138213543039543 -0.1781743341673259 -0.17272243841657223 -0.2373676300249143 0.36071891988443233 -0.19247113413407363 -0.5343188463512569 -0.19973029529449018 
-0.37759892622850333 0.15290273262858203 0.04775834193425673 0.21283294063053787 0.005190732669965319 0.21242807728689994 0.14771218630554678 0.21169683686074287 -0.08873223828676546 0.09572419040077934 -0.24507722668343512 -0.13413976390585483 -0.2841393338433779 -0.06793837896433633 -0.19871966365533786 
-0.06923209520144556 0.3627020932538273 -0.1352960390515362 0.3748391726482028 0.12223021716555256 -0.07152134466319768 0.2746369211551104 0.08930290726041132 -0.19822612710729914 0.3006266176630523 -0.04967688858222414 -0.10675371384782255 -0.13963089639317117 0.2227221744856934 -0.21895312755042598 
0.23565442846772952 -0.1720865341592163 0.032559841481021964 -0.015077577704089247 0.27294515720165896 0.324272756099339 -0.24144896792340512 0.06340697231193972 0.4099268829351876 -0.08848874677966628 0.32605137739276596 -0.16728418324671768 0.06969345926106862 0.12809683365941088 -0.17664915457877195 
-0.3778613092042898 -0.14485172029130874 0.3393871532292673 -0.1636569739973197 0.22416297978111854 -0.27612354698927644 -0.11866411982140522 -0.27298161433320034 0.2756188425132727 0.18058373544615372 0.14209703794612186 -0.187226275136417 0.11737543916788534 -0.21917342747677673 -0.1141731481529955 
-0.09576132525411392 -0.20896983116549966 -0.3424920620975587 0.05706368591571798 0.09595490057256505 -0.017736808059867302 0.1112069980689764 -0.25287457479445596 -0.4448975231201969 -0.07233013460500291 0.2886276672655002 -0.2417895407838699 -0.09083113836343243 -0.0651455317730363 0.08393908374380038 
-0.2595545618405317 -0.16042265010430326 -0.18060506398966622 0.25723326433125504 0.18590832921376824 -0.13946061601487303 0.07976701558040113 -0.27229181105784933 -0.10474693625543507 -0.302942728210746 0.27635971026970596 0.12907294104871472 0.07157130067784306 -0.28942612288441855 0.17703652093737393 
0.378136232662058 0.34241132764751336 0.10873860741949601 -0.3008428937118169 0.084563338884515 0.027704767696289382 -0.02307268829934065 -0.05334943966209694 0.06404369519980019 0.2556098099497719 0.19075561953666004 0.05890312857243577 0.31884381546378554 -0.3772052445858906 0.38199401596283333 
-0.34623937565662904 -0.34789033124172525 -0.057315524382314104 -0.36937663021743405 0.014690114729941814 -0.5068642193500683 -0.16290841717783824 -0.33977399500177596 0.05774591026846141 0.06827596802895988 -0.09832523571113047 -0.2384394804242352 0.14557742092246997 -0.09919389965073797 0.401342636408668 
-0.008878689454880921 -0.05567391285714564 -0.3659760790379045 0.0752161215512724 -0.10511416777906138 -0.15786661476133515 -0.0489694782158733 -0.08774257151883297 0.050138971688565626 0.5189414737983252 -0.10930435099935043 0.20899739780704218 -0.013049475871029264 0.44848301275627656 -0.1641796452925216 
-0.19338299630293365 0.26257919503496585 -0.3538526608889999 0.32964764440380695 0.17007799782433572 -0.250266109974626 0.3849901535905044 -0.3419230700880096 -0.15794952312927082 -0.5594026863320677 0.052759504021051826 -0.24454413820529308 0.04911744155285905 0.32752265899461175 0.466027507018503 
-0.035567186401011856 0.09807879953739777 0.21139863611539064 -0.03515568314626869 -0.047919437363286146 -0.48971369300783835 -0.09768238755182 -0.27487087940738647 0.0951795976809603 -0.14554095324902502 -0.044182409864539945 0.2973525813310191 -0.007733097236517553 -0.18287716597462245 -0.11834564235016883 
0.2819441579544265 
-0.16821332962386346 
-0.29868120706792767 
-0.5071645998252543 
-0.16139249226233118 
0.005026457329091976 
0.1650952480149649 
-0.46013410327763826 
-0.5015679273371636 
-0.645579620167907 
-0.41180647652111513 
0.15706659674022003 
-0.06068203979028519 
-0.3152395354912795 
0.30505288710675704 
