30 15 15 15 1
-0.11236893797730509 0.15234578693237738 -0.3447509506492358 -0.13409130249599355 -0.19622182890157805 -0.2535749198157663 -0.29811844858732073 -0.15155364968463106 -0.09203148313135555 0.003941671061289133 0.07179169418282098 0.1596266005126301 -0.13693278151618143 0.2941312388212209 -0.2817932161135459 
0.10360925843943337 -0.05951063497724122 0.0022204450051731433 -0.26319883425686885 -0.18605436988437665 0.16617431392905152 0.41985712231087147 -0.13884074786481176 0.11718425000306419 0.36109716809702574 0.17533162782576897 -0.3025777161637369 -0.30327427657705125 -0.296248229611825 0.3339489582682235 
-0.330250362650413 -0.008322371865629681 0.30104740102649635 0.021207880440593317 0.12795732711311092 -0.3760712914929153 0.15055909922583505 0.1770310406843421 -0.3014870983565161 0.1607798559224407 0.4492144234067388 0.22122375031030192 -0.16144817506328668 0.2042291064192249 -0.3226978595328143 
-0.08905648852421023 0.4275456306329784 -0.19488347698165 -0.32618244241727246 -0.1736277529387236 -0.6270229580738808 -0.09768479114845038 -0.16753945609033905 -0.17579953190211678 -0.011173610957389538 -0.12014178840516464 0.21547522079062018 -0.02019263344589821 0.1002780432405278 0.06890956403385257 
-0.24720311487370528 0.09841230594416167 0.26694508015798435 -0.3094937953601235 -0.48124509341950106 -0.12629835711522913 0.1010472970709984 0.03265075699755488 0.26352234055069007 0.10675366986540827 0.5099744581614478 -0.026118173628269317 -0.18297211350521705 0.41722351838821325 -0.17529766814236453 
-0.20687210899562852 0.34061327033787137 -0.2987041389199189 0.17064410482485162 0.23193067317119498 0.2610732570086685 0.029898216029702714 0.24878305987871574 -0.09938881148698678 -0.20038646487084286 0.36354936069694516 -0.07043680603269657 0.4138046713361091 0.18361341393049074 0.18772586369558683 
-0.3203347604016263 0.43629100131596893 -0.23121177093370926 -0.12404427760316887 0.033802863928290766 -0.4710443656054135 0.07470068849356364 0.08577945282184488 -0.32218474150027804 0.09930203084708145 0.08802748047448494 0.1695278629774365 0.5470774530199337 -0.06327217963919309 0.2859458751323076 
0.030217174992135554 -0.40520933217253197 0.22124754839318692 0.1682448684673089 0.41494582501246285 -0.5103620287945966 -0.23961320514970205 0.2516575512413093 0.11998371323846464 -0.36655054974578655 0.20331303017856392 0.16212797061200337 0.2717955004210873 0.08605537700700723 -0.22729271072222676 
-0.30045408533213525 -0.3301827553099973 -0.30512087050139824 -0.1726796716776865 0.3262788834195329 0.09985791280489223 0.23515211753894605 0.03198214545347728 -0.23318846239084173 -0.13496755280724654 0.13217520472775096 0.404384736137614 -0.104953838861452 -0.44519263592117175 0.4500265195851244 
-0.16399900997105796 0.19593156187559174 -0.16265830877331253 0.1071495925165837 0.39717125929889063 0.033690937783383015 -0.11564081086346992 -0.27453255121295034 -0.2350022312173582 -0.2844669401850473 -0.16538854686535157 -0.05432117676886577 0.13007310858216778 -0.09899137640055158 -0.30520847261186557 
-0.2667501337693041 0.1955652453541046 -0.05929289879930213 -0.16524850571232522 -0.1675773453117147 0.11606971357467939 -0.14645720809050186 0.10516552647795267 0.2900589914332611 0.20260467486683467 0.026199499134962542 -0.026523343880213063 0.2544893382047784 0.2395180478281842 -0.29215891894278184 
-0.3013002402821423 -0.23924669414485286 0.14444044603976072 0.01817893230188166 -0.014398566167049246 -0.11909447877719119 0.14968494501958074 -0.03092452543854231 -0.07240682235339323 0.03725299246028022 0.3721464576139556 0.26069035665918744 -0.0005619566102824238 -0.16202730121100167 -0.23368504579660834 
0.058548444712626574 -0.3609138193122262 0.20543725434787863 -0.23830400947114513 -0.012013633636626471 0.05546574960953175 -0.4045608384289353 -0.06846481531871777 0.014712442215347139 0.3659425650267098 0.0995401216944727 -0.37851048903360224 0.41736746775004774 -0.015127946449473425 0.3437374704004007 
0.26929624209705516 -0.31219213950554686 -0.051409582141926126 -0.016553079879365145 0.3014244802841005 0.20013386235875444 -0.1464745376718656 0.34926001558772124 0.08085314800533916 -0.09707528744406253 -0.0036966894245750986 0.16478244800191882 0.15646336135126157 0.22244595114236884 0.1788580610230452 
-0.06338727529038672 0.30049002399785696 -0.4707857729878829 -0.2784754996219061 -0.21157248738182077 -0.03156811764938015 -0.2341056749873304 0.28517613774656214 0.20207619700498528 -0.2919447189360103 -0.24434601690380933 -0.12498621630724874 -0.37838418768455667 0.12090049660777358 0.00442245202731576 
0.2745488109789956 -0.16607821610413523 0.339288043614205 0.2261185624175674 0.31359782005729575 -0.030468826240093335 -0.1153110631201074 0.20514428248585342 -0.13088062425762595 -0.017236256760948913 0.17473777294595735 -0.3275992786046182 0.22768200337191027 -0.1274040903417173 0.1121080911406299 
-0.11247730423274678 0.27738012100625165 -0.07689297663882863 -0.17087580041128275 0.2665300972557582 0.06761140429715465 -0.28145309167553406 -0.28738745327141896 0.1089449185257692 0.25153563525219885 -0.42152729043508613 0.24600177438057197 -0.12674610947912043 0.4324713745858521 0.230705989699817 
0.1689054350024619 -0.05624014924777703 0.10725830513980579 -0.11255909007139181 0.14210068039804066 0.15328958957718739 0.22447284645891086 0.2234827061430239 0.12075573568924725 0.19144841199736118 -0.0960471324297517 0.1399285810237123 -0.05425694063899806 -0.04338749457140233 -0.14175443758001602 
-0.05935471154015158 -0.21286880079380813 -0.09807704179507502 -0.0010202799127678461 0.3438555384337405 0.1372895769315741 -0.2787509474151039 -0.022784294759058722 -0.10413098961704087 0.16654933980456846 0.2803716568853972 0.32021472915868227 0.21611923944498873 -0.2973247511136322 -0.21120080377159745 
0.21979557693012175 0.10373700550099405 0.2973776308406428 -0.11542878898633886 0.29847515237741457 -0.13425415186324288 0.17816901637911362 0.042731861659775466 -0.0465976480814441 -0.1245851149289674 -0.10796543427574715 0.06945037535200184 -0.23431364281823908 0.44063304484717114 -0.37180864993725105 
0.1923755146867489 0.32875738556677053 0.06983241012785131 0.10946588857227853 -0.15818439509564353 0.08806294859179531 -0.04298881261454825 -0.0854817674238365 0.0556912118886646 -0.11432691915186881 0.44059397641030085 0.31833111021573796 -0.13149563147183446 -0.10228340133372624 -0.11874496940807881 
-0.0002470863033230578 0.1398325320496026 -0.1796587004481054 -0.1545128513167289 0.2177344970027935 -0.050602466394975586 0.0704614674018495 -0.16356267430508067 -0.2474390732145451 0.009444228697082451 -0.013628630054680173 -0.21496094252688414 0.07360117262326099 0.02631923558517302 0.09350458585637025 
-0.22015121845314892 0.11098771885201372 -0.17089558596860682 0.06467214868753689 0.12431325672286644 -0.2988643521823029 -0.24787307578704382 0.2131485429477492 0.21328954730113273 0.013022507136435671 0.194194905638219 0.27530624322853814 0.1223539141248729 0.3222309265151239 -0.22097659345502513 
0.09175504615314882 0.09466010532645024 0.06335752418107819 0.18751696587150454 -0.3782404211534519 0.14803076179576627 0.10842238230126705 -0.02608690978934473 -0.14883250214350033 0.08004800618814707 -0.1878940931568836 0.2230660495633223 0.014810495310120582 0.2166733068093341 0.24706159126618601 
-0.1218117435284851 -0.08607174118809989 0.24954465486016572 -0.14269755738076448 0.23710108109277808 -0.10918662260515138 0.15182146672616692 0.19796358886239343 0.015763479270505663 -0.22598166359168478 -0.21626993171848277 -0.14018397953554754 -0.21003321467634706 0.3155647640268652 -0.48695028214350294 
-0.08075739603883747 0.1321410350535714 0.17578273599173844 0.10410588325711526 -0.31976790250958576 -0.03481142864423337 0.04563342858967104 0.3107786285082493 -0.18237483382367523 -0.15470200918411794 -0.02318301492929098 0.11143354514250231 0.06970911672685898 -0.37961354453212476 0.1691707106519982 
-0.17727499287303738 0.08997197691786508 -0.14026852649538868 -0.17450533811006624 0.07863359158488441 0.33254512902272265 0.009015465028396497 0.14415443800018007 0.006631043023296511 0.024479638409465227 0.35758646831715274 0.1693566969940014 -0.2923856398962836 0.048675426281615156 -0.014179298060060984 
0.25072646040452823 -0.3507859981720797 -0.1763795035487024 -0.22985558505079726 -0.0032077565112344827 -0.28141460366863535 0.05852274667223064 0.26092393935225006 0.11997270800234135 0.12279855863323232 -0.11639311403728592 0.25517395492784883 -0.06860462679499958 0.27603931532694886 0.0400678913060297 
-0.22086862730522502 -0.29789345689435803 -0.27543017770698514 -0.4704257249204136 -0.0465160977771442 -0.3023377878557012 -0.6122755570924129 0.263186354428046 -0.07197956926515361 0.12294249030731434 0.07756491818696323 0.09241831970856498 0.17409365770605 0.03256486104152537 0.11364882869385563 
-0.058797742418938495 0.28097260402009244 -0.2752203196635475 0.1478373682532205 -0.2351984155747978 0.0816433092128065 -0.38298835774540396 0.02429301753552855 -0.31140559146901764 0.35399330912875865 0.39691605706340727 0.25568719092468895 0.34533029550790767 -0.3001175001920697 -0.19501340710728263 
-0.14196151823824685 0.35810593998776424 -0.20505174837331633 0.008251960510455663 -0.13898352308500958 0.31537864992904263 -0.09925302340079058 -0.10299502588030175 0.05142160690081239 0.33781570310239967 -0.3619748155308165 0.21801921182369485 0.2823102519462914 -0.36491336187197204 0.016111552157125474 
-0.13015378188113427 0.17691942236721073 0.11142238284254471 0.2386897734050697 -0.0689647380722085 0.09333507958396356 -0.16160872681398136 -0.4023982090613247 0.19862607606559413 -0.12563183949857656 -0.0069146805299455695 0.5289298755320977 -0.1331162234242973 -0.10174759628483844 0.027991497412352406 
0.3322015182015368 0.4855784159702735 0.19560911279306487 0.3350151460655489 -0.20598449680115388 -0.31676896116629577 -0.24956591829456862 -0.08336535675061829 -0.34025536623023556 0.021529318951003663 -0.08779265986380563 0.349534255262734 -0.16370899186590052 0.25507097896983266 -0.33896147682377314 
0.05470899394420719 -0.06331540845077 -0.517628556418121 -0.22960622627382352 0.11847647556623388 -0.0020021317156448375 -0.010656562804412878 -0.1896486914297398 -0.007073257609918097 0.3993184768190675 0.22435382299215725 0.036374467082057126 0.5019021889665125 0.34514657357524675 0.11993529390949464 
-0.36078962901598377 -0.36943131436343124 -0.3405810134233189 -0.048803615555074446 -0.09253070037820597 0.36703049476204874 -0.2977913879869035 0.36671160164939365 0.31601850466770953 0.37197653374454476 0.07628720240186487 0.18413246797255314 -0.023596725900353725 -0.4962960977828593 -0.041719935646779914 
-0.005777843685429896 0.3179830960407223 -0.15030918162386175 -0.04574941755745527 -0.2769155777686061 -0.37808788650851594 0.21993697086679231 0.03819277950860522 0.26345401851717476 -0.35998183837364883 -0.15390532914790267 -0.033827841674586266 0.34498111241811324 -0.015973832076080614 -0.3019924933675243 
-0.14049197675190683 -0.022089083263006695 0.07276887584822947 0.2488438497824453 -0.28271761263523926 -0.36842352640241194 0.039379547698092064 0.34043300405770216 -0.5009114211524427 0.1683373660853061 0.11979358355977124 -0.00716032265986575 0.39920719284409734 0.1551788745260215 -0.3069106619690494 
-0.01136396069239039 0.24878293019871203 0.37164849284669815 0.2182396377464351 0.10998496100575855 0.055710478000466176 -0.1877439605339934 -0.07448665372716703 0.27879027628693936 -0.08670295113296772 0.261327837720048 -0.17465746199048032 0.12437495990902372 -0.22647584501143395 0.30688927117296577 
-0.053250091084078306 0.22107498853778793 -0.13726163031099595 -0.23456659692664955 0.20222887875421902 -0.1434556138348356 0.17577288208789835 0.20227504384933964 -0.20682402807982686 -0.2167559328802627 -0.228631359553342 -0.2611523324099934 -0.11896870672688002 -0.40241538856447995 -0.29812079439116146 
0.1305776633260327 0.2582412472995042 -0.4656119311131192 -0.26622651253296276 -0.2218319693417227 0.3206075793022925 0.22644309318619837 0.0777105195717207 -0.14917284190081914 0.24622650111040179 -0.04761420138568989 0.42260364742296697 0.22089045690091857 -0.09690198189939413 -0.2974967763823847 
0.36758733938764365 -0.3335750584757264 -0.2251606319764568 -0.15805476219824807 -0.07085557756644491 -0.26972685262701707 0.2921900281074279 -0.4125053254493748 0.31743972558319444 0.3048275718391245 -0.2194000865680604 0.08697251146491476 0.17134669578002265 0.1782428381471896 0.08344411798588146 
-0.15357906977588406 0.1378869140388775 0.4538901007482416 -0.0207662035617533 0.19886999765422644 -0.3460245955227139 0.2866276646968514 -0.3442392386651463 0.042053968115021614 -0.09711463009956378 -0.3593511351836727 0.46800879778832927 -0.16625410625283565 0.13135361872738605 0.05642556404489251 
-0.281271594161713 -0.4323389212402714 -0.20465959862668176 0.17124755019435448 -0.21504407772350181 -0.10944788341697342 -0.3711850813345648 0.0695416470413669 -0.1388664207792329 0.5585621239910407 -0.26651993053326745 0.19317562948961978 -0.6141339921588191 0.3663880409457867 -0.11979667477148427 
0.020409007904877083 0.10106156309191854 -0.2030511811038892 0.06414574285964697 -0.25025092148982736 0.19429974272183465 0.07042204432861632 -0.37594085038162406 0.4732211808475452 -0.4648777588549779 0.2604066983349013 0.19623714384288465 -0.1925720553103457 0.356939803439262 0.20961218906534304 
0.3766525786758045 -0.23515766258793247 -0.45380260232318936 0.4505516000729817 0.26141468428065956 0.17065282690165676 0.04289822238908001 0.24483663313978055 0.20698058940070915 -0.09109590369357055 0.19036631801019324 0.23862007288019038 0.09055874085218117 -0.0731718147106143 0.30172338909167273 
-0.04106945845275549 0.2499134889385913 -0.054285913047328195 -0.11510403040005124 0.1308896414353311 -0.21099530681430606 -0.02397686876724675 -0.13875437101618174 0.09426351082014704 0.2888185031986135 -0.038421440188017054 0.2156372745561658 -0.03155822461010011 0.11657334277088868 -0.28152519786843216 
-0.049343707123779196 0.26342562973188816 0.07813123170458072 0.16643141339222978 -0.05226182949134515 -0.06540041400074449 0.26155313757494125 -0.3324666801847653 0.051841212531542336 0.34907173978843653 0.0130394732972535 -0.23214707892605105 0.23501122840513683 -0.18307925778926257 0.33177824558477165 
0.029510398579310423 0.29729798250640976 0.09235791298205526 0.22558250558892629 -0.5552938405662468 0.3223836847258914 -0.32455712370709255 -0.13310937158931072 0.32923673346139287 -0.5328324358943264 0.24565869853806974 0.2760247611233296 -0.10116015987925939 -0.22955417289593538 0.4365798341703306 
-0.016175184843251502 -0.38994835241758063 0.3289974800402558 0.27290253373237594 -0.046437557687464444 0.14243283769369997 -0.06008744227117762 0.13739713656449407 -0.18800360208703126 -0.23669927278715872 -0.2360045742844177 0.3587164838511299 -0.21347660560392093 -0.574561512988508 -0.18936242020566266 
-0.3755122564343245 0.1499440781241151 0.04746863027460948 0.21082645869738736 0.0051588381345937075 0.20843590375335416 0.14684206607319564 0.21047238387041678 -0.09052080072009067 0.09326507635012131 -0.2436729308259928 -0.13334648447784686 -0.28322673642484886 -0.06752872175932784 -0.19484495547183933 
-0.06881479737283015 0.3658860540724016 -0.13449618986171208 0.37171347952682215 0.10142382726509933 -0.09548470086191786 0.27307612510884505 0.08876781731710752 -0.19061522101200426 0.2207184150716186 -0.04937571141328438 -0.10611733171102232 -0.12964813000215966 0.14807614759744567 -0.17430484971346008 
0.2343005609979851 -0.15372812593961377 0.032361424777857875 -0.008809172557852936 0.271393249396493 0.4293923149112443 -0.24006405832074923 0.06302412362289228 0.38593485107917586 0.062363354067094805 0.32422433576482357 -0.16630430497784868 0.08065500900662717 0.2553585220339349 -0.3230540766368473 
-0.3757733360249264 -0.15558439741637317 0.3374922555057926 -0.15655716710432324 0.15205142068163802 -0.3116504278594466 -0.11795919499720313 -0.2714295149013787 0.27379558873560544 0.142633442197649 0.14125863522695514 -0.1861358172232954 0.11716783459431872 -0.2660720683054001 -0.02060655637179634 
-0.0951886270212389 -0.20326667608058707 -0.34058143538963254 0.055083822007298354 0.10779832205962639 0.016289602615051274 0.11054493222856641 -0.2514287484326426 -0.4124943687218003 -0.06328182202423425 0.28721045628555303 -0.24040280979522227 -0.08985492933732613 -0.06640025788985172 0.10753359616408928 
-0.2580732985148421 -0.16085469873417535 -0.17955118203758408 0.2559869911530542 0.18600916558926503 -0.2071592684399893 0.0792877162397709 -0.27074333803355916 0.02226113370044576 -0.32890927833778333 0.2747898714596891 0.1283085023010736 0.06980832531769383 -0.4306346597812444 0.06654698672192333 
0.3760468939970356 0.338303823853208 0.10809076944010476 -0.29886990674083913 0.08511329356175897 0.028054585462317157 -0.022931683103344057 -0.0530263513748856 0.0627567877794279 0.2547373279443422 0.18964572132335109 0.058546996881372236 0.3174736662236108 -0.37394957384546246 0.37988553745809106 
-0.3443098004674481 -0.3456713492325008 -0.05696882749141596 -0.3682489451107314 0.04008680958376558 -0.506063912503268 -0.16195297120475996 -0.337877136169399 0.07087324424287136 0.03487193518334874 -0.09015245518569215 -0.2370706805698614 0.1452540332847061 -0.13315237316550818 0.4359835706305154 
-0.008824195236929563 -0.059445555018143456 -0.363947327948149 0.0807249650267893 -0.21666224101835996 -0.1469277829824343 -0.04867252710431236 -0.08721658904997598 0.10955613995164577 0.5194539119120781 -0.10090486923030213 0.20778763583209287 -0.009447581776637607 0.44336456682933023 -0.18024385002801885 
-0.19225865118698643 0.2521288689606323 -0.3518847055441042 0.3185199010008715 0.03625295530035228 -0.2672118591912432 0.3828668370933204 -0.3400153238454775 -0.13668687704717172 -0.6284035691092158 0.05243993216516446 -0.24314268826240543 0.043507819899296245 0.31525800151176336 0.5084247083616423 
-0.03535063900344855 0.08953066125805399 0.21017580491311252 -0.03489230525292299 -0.011550176516436535 -0.450482530052817 -0.09709853016494467 -0.273308854833748 0.01420017621351569 -0.15888043061149343 -0.03754001943125166 0.2956732351142763 -0.009098358824579331 -0.18707711659213036 -0.11998402079497891 
0.2803450655393328 
-0.1646794800824044 
-0.296994972321635 
-0.49866472775139387 
-0.16304208137711487 
-0.10099316417063932 
0.1641275841359064 
-0.4576461632444667 
-0.526866572752078 
-0.6444455646858769 
-0.4100961249088045 
0.15614386426763013 
-0.06003001850938181 
-0.3180467173828226 
0.3067221285447287 
