30 15 15 15 1
-0.0852101401512016 0.14929692357450972 -0.37744121475592174 -0.17038949162262418 -0.11559504375100826 -0.2323111739936604 -0.18777049994960157 -0.08567855313179916 -0.09271970329924771 0.02110994912011716 0.09744941813755126 0.22236498817214911 -0.1624794594505824 0.3237950303693579 -0.19774975923160937 
0.10415418515287399 -0.1049349209161089 0.007503853085698934 -0.24342123938727298 -0.18707448181704825 0.2672477028561469 0.39782774354156564 -0.14058384361797718 0.11780558666062185 0.3343909430201441 0.23984338572765157 -0.3804620293852814 -0.28965635950605084 -0.20514713523970995 0.30408248021391077 
-0.2957783433333196 -0.026513648503037196 0.2968561897909096 0.0309114435763445 0.17798870749272702 -0.22996027886794196 0.13693820747451943 0.22038951717683986 -0.30319984528509786 0.166658508098075 0.47278417257917377 0.221305285818308 -0.1837403660655286 0.2217720468253437 -0.36886707312540734 
-0.06483014381983661 0.41341061363578324 -0.1586646986904605 -0.345443553684496 -0.2549151571512631 -0.5979283705682308 -0.06256061862918408 -0.0988711654154687 -0.17794829293037334 0.03529034180763003 -0.18540594720066725 0.20795671009936245 -0.02715188714588177 0.07715274184438464 -0.024500258747068984 
-0.24858781145153305 0.060166254567880294 0.25267499724555825 -0.24814135973674936 -0.34772086550233683 -0.14197370348550706 0.019087670792968893 0.04601245061582697 0.26390507218103165 0.07807270328261078 0.31357787812972304 -0.09365328501220249 -0.13338652893015887 0.3551324827842161 -0.2659608402439288 
-0.20801551812356128 0.3563658178225956 -0.2814102485107085 0.14623021734069755 0.1917130815737393 0.2561914008015891 0.03436417530368098 0.3242214298146764 -0.10175236708645155 -0.20243937468332024 0.43859366492395013 -0.04130744380149068 0.4453098221423735 0.06111889143452907 0.05255697707618144 
-0.28468637328892316 0.43855904600348133 -0.08892415585750157 -0.14247954018896247 -0.1306583781598859 -0.4199452175850649 0.11267858661281774 0.18470776566498773 -0.3256921082043448 0.10309250227575827 -0.016465527212944166 0.18083970680858047 0.52662704936175 -0.07477500030928347 0.09045442312284582 
0.047007389042623964 -0.36011993980403945 0.24475101410927608 0.16646879867942174 0.42201843615714213 -0.45820706667361827 -0.30861420300589176 0.22214041782964583 0.12062091311642573 -0.3378065686229924 0.25760708537340904 0.19131140991227294 0.26015547047340654 0.11321591136636108 -0.42942096617742825 
-0.30216056734532565 -0.3487140933331246 -0.38416335057047496 -0.12676901376603977 0.17755429314332877 0.1603244489186043 0.1793053065291143 0.21114452292063907 -0.23448900815755588 -0.13569022654608273 0.177599453393774 0.2979679577340013 -0.0859153292447444 -0.4128859622587006 0.18626839661200686 
-0.16488970195152258 0.2624103660161683 -0.17494951371165385 0.14831225639438228 0.2733274459124245 0.14556252392341856 -0.10382142320134101 -0.17524805335493945 -0.23631365127490442 -0.28607655163393686 -0.18505970820220935 -0.08125301203205415 0.1307677607196645 -0.10569655948416476 -0.3069437934292748 
-0.26825263029852786 0.17586376210771726 -0.1262013367547222 -0.18475482193032142 -0.14007004896708997 0.15644946027907186 -0.06392896957283566 0.0424914924336554 0.29032976378899683 0.28363327826548695 -0.021965750923819763 -0.04171815960727869 0.1182246452108681 0.029142902035458582 -0.14813768043643075 
-0.3030118539275722 -0.17940753990235994 0.13387899705536546 -0.11312706712351217 0.08103255008495854 -0.08717742654459612 0.14292465218736028 0.17482715218232675 -0.07277975828025594 0.01806506250276865 0.28133394882328655 0.29209538713779193 0.02167442579928579 -0.1433344608981738 -0.12529316191798182 
0.05590238236740946 -0.23894872832043784 0.11000333398631439 -0.34454921207320155 -0.06297941287968506 0.21691163748231398 -0.3289810613512665 -0.0034475000216248894 0.01478458928911115 0.3848172586848673 0.03727772549440151 -0.31635010870763397 0.2488242095005784 0.10257117414480539 0.4243598792113504 
0.27081411421493984 -0.31599156281512664 -0.26711823553834374 -0.06777302754952384 0.3449503003121506 0.17032368683557644 -0.09958939290996288 0.3985077494476987 0.07906500610865125 -0.0995315548480381 0.00784014742104569 0.16593589541800066 0.20737386871451002 0.15599240159672703 0.21254401023829042 
-0.06371157223839946 0.3364411359375274 -0.4032057190692719 -0.30368011247883103 -0.08641514370755649 0.006256908437573027 -0.29463685773100445 0.2856364356436427 0.20319111433978865 -0.29172062401421683 -0.14374681716213467 -0.04241765067623005 -0.39673571744347297 0.17208166860966947 -0.09783167054390382 
0.27609842273550433 -0.12850422250302243 0.3851104248358678 0.14285364756055333 0.2875984374447257 -0.029694606140606664 -0.10195610441035441 0.21394412376203198 -0.1315798929664774 -0.03942590079481226 0.004111269872814986 -0.281622107317102 0.18644114957357522 -0.016334110417069673 0.17336547525769175 
-0.11307204858977804 0.1936642296253806 -0.02714865273092818 -0.2923107635994855 0.24869427941063565 0.06795841484967798 -0.4360434417004442 -0.11330413927258849 0.1095197738926118 0.2906898636753635 -0.3219627306845754 0.3355523306523928 -0.07497589772930405 0.3564429664067363 0.06346074242085323 
0.1810602502436938 0.09346076549071318 0.03442325198475381 -0.08645188149874342 0.05751958188470809 0.15411796324545204 0.20908288940605263 0.222514460793515 0.12139731633960518 0.271405147722326 -0.17083976957906513 0.1737009655377828 -0.04927914280624724 0.02243664683618368 -0.06180728652417447 
-0.05965743604214066 -0.15827149664338822 -0.1014696689122137 -0.03281916302001459 0.2881785795724095 0.17091092116606024 -0.20496851157696824 -0.05943840494448728 -0.10525405619731858 0.17555295626881928 0.2611746198374027 0.325688357518189 0.13064458052206465 -0.2437892349255303 -0.19730327275526197 
0.22101599487108506 0.10854120847771337 0.24624812351451497 -0.10425260508634063 0.2014071167043668 -0.06402927326461373 0.15151148710107415 0.080308109341041 -0.04784614859886636 -0.13815923377267703 -0.1891778543522195 0.08096902730003623 -0.12967048436640224 0.3406505880688844 -0.3644558247240087 
0.1934329578153152 0.29166830125046733 0.0720119459094318 0.0004109940990773737 -0.24669796317096068 0.005925826503934091 -0.0765879500243182 -0.11834042279529636 0.055974435051668256 -0.11493210097389073 0.4488522192793691 0.2963280188384479 -0.1754455905113964 -0.22528391499129027 -0.20203684080628215 
-0.00024827999239039627 0.19648433053304462 -0.1806411443535858 -0.15534832423973596 0.22261146616834257 -0.06358018884557112 0.07082386856521944 -0.16445082011124817 -0.24882518898347025 0.08289288392603919 -0.013695390289972733 -0.21615251367739857 0.07677286649861821 0.0017899156788904421 0.19381191896400252 
-0.2213737601122037 0.07100495765220853 -0.17182659845091042 0.07593133118510012 0.3385120647742434 -0.2707548551657124 -0.14120306801161656 0.1664840178465473 0.21447115608190062 0.004834127100603022 0.30574644739313356 0.2549814777667664 0.1278946162638651 0.245651787901326 -0.20299218769337957 
0.09223399596853608 0.10402693364678528 0.08604620652034904 0.1685126526293245 -0.3298559056638354 0.11667131309908824 -0.006208614685816439 -0.22967967323606406 -0.14963505196327812 0.08046254782087797 0.004966846216645681 0.24326647291701703 0.058043881626382035 0.28708859665666703 0.4131433196315575 
-0.12245932061436472 -0.10188364003856296 0.25094343809247516 -0.10104492258086327 0.23873289098879277 -0.11232767153621964 0.1625681668186837 0.18812758822351858 0.01584086082826384 -0.22723905404462016 -0.2883058269048297 -0.15282560085919153 -0.211195429818576 0.31235015052719256 -0.4565767095319042 
-0.0811758180829656 0.14793878071981106 0.03419088259950855 0.24410715704111446 -0.20722046630601085 -0.03498538885731601 0.16006362087581397 0.3809904679495285 -0.18337326162764728 -0.15553858034044646 -0.18320693365120452 0.1148396748822674 -0.107669105051859 -0.3043806488880715 -0.0035536296557784476 
-0.1782434254713214 0.12039860815786277 -0.13944515343754918 -0.1972950293144774 0.14999388884174303 0.29751497912215746 -0.0605097994828194 0.07580293455240064 0.0066632948682024675 0.024600819345198442 0.40070105080630664 0.16063942999945943 -0.29404321135209727 0.16525258343681606 -0.020864131741373183 
0.2600408922060022 -0.192233463750847 -0.23460639382419593 -0.21067781328413923 -0.05181263502771197 -0.19343538696361304 0.03601566150467233 0.2646076907200313 0.12060984545097142 0.19994448290214617 -0.15725095472245781 0.29193322509061376 -0.07951106170770554 0.34573805572982585 0.13174300695378663 
-0.22209545368079114 -0.1984214005032053 -0.2752755124032682 -0.4958641728888043 -0.05220273302607356 -0.368316185416056 -0.5402474837841369 0.29905051231000845 -0.07291931548494975 0.13655983165989424 0.019111499636889046 0.12692811399970155 0.14614050631550787 0.05408921977153519 0.12984187119551868 
-0.059097496089911945 0.3414838403802927 -0.3502192971156771 0.0964718918965604 -0.11507727628331504 0.08026605102191738 -0.39270875112009535 0.08889854581041938 -0.31317851960182547 0.35133250142619044 0.3775628235613122 0.3401190350885209 0.35207219502216525 -0.2957008204430636 -0.18639202752554881 
-0.1427243953828044 0.36176671010564354 -0.20854732540735038 0.005672223193155264 -0.13972925911570902 0.31717569772883586 -0.09977362002687742 -0.08350341454225942 0.03452342722001329 0.3397490586551188 -0.3640550239877161 0.1962524090887143 0.29000254000293785 -0.36701143190911584 0.01619066949954851 
-0.13084889510945172 0.20257588567727544 0.1284715769839287 0.25597613385250856 -0.06870731410540457 0.18411551010965402 -0.13950283247453163 -0.436025459442311 0.2152831957907598 -0.13402452079180166 -0.005444095508639995 0.5121947181960197 -0.12260756459827173 -0.2021302067540265 -0.03264949826417789 
0.33410075509239556 0.4018208836765425 0.24036340605403247 0.2993877024449001 -0.20712262907439472 -0.31857445078669794 -0.21745347135048662 -0.12963333505941366 -0.3557626573931549 0.04913247781828575 -0.08694790187513207 0.40711995079005553 -0.24243883732180532 0.3078035294726808 -0.38642791889924777 
0.05498700460673935 -0.08393722337935215 -0.5014833556204412 -0.1519841205834637 0.12037695695280913 -0.002011822330565281 0.05380469199570056 -0.20259684745184792 -0.008177138960207943 0.42397566417523774 0.22726914105187343 0.06671411854918619 0.5186352056236416 0.38104215375797 0.08160038134612241 
-0.3628626332574826 -0.44437428248526 -0.3572481975897388 -0.03729779127253441 -0.09301394460906734 0.3753437213361807 -0.37628266496614343 0.3597151802503976 0.30510220194389853 0.32347155821663715 0.07816226748522877 0.18096343018894556 0.011728677044047814 -0.4230882938604714 -0.06854232892101506 
-0.00580592083377573 0.3014887100994773 -0.14131593147720342 -0.034857216198275684 -0.27847949957381696 -0.408225915121478 0.2635191521570699 -0.024186623455461038 0.28683921777403065 -0.2590515304144891 -0.1530600175741046 -0.077618611103061 0.34159793561782975 0.022503413977539737 -0.3844065950932407 
-0.14124639118024784 -0.022349158610450243 0.14019944211916327 0.3299573280602089 -0.284316635567975 -0.370542931298912 0.027895577879616152 0.32559766673982443 -0.5063684808593734 0.1671561872192668 0.1220552475880543 0.05616915952114384 0.4210238681254851 0.1804035178375366 -0.28657819548667585 
-0.011419500919464518 0.22299427335160754 0.345663197375351 0.20303638204070945 0.1164933138028685 0.058198892038371475 -0.23915642217321498 -0.08832096952204374 0.2696685426796679 -0.06005534540883631 0.264328018620583 -0.1666730019280338 0.14363645878166234 -0.1731361970303814 0.23579702580146467 
-0.05352037220187778 0.22347179499274458 -0.13693810491056294 -0.23772081579392873 0.2033447023862605 -0.14422710328176458 0.17673249335498664 0.2031948797254251 -0.20796923846040047 -0.21795820906669408 -0.22990460678755478 -0.26378563952585066 -0.11845106325817902 -0.40410516551799686 -0.2998131279668369 
0.1312751996961548 0.2959534261152826 -0.4017632824124274 -0.29079877971477447 -0.2230645507288494 0.44493555162286547 0.1683135292052568 0.05599497964876111 -0.15842262194617193 0.2347583438792388 -0.04785476736880309 0.3786166513519669 0.2601269865084581 -0.0715447133285784 -0.3771853009436133 
0.3697016620605201 -0.3346612818743557 -0.19150060786589576 -0.1878205912799011 -0.0712201110425509 -0.2712473257856335 0.27827003764186636 -0.39507796832769654 0.23265614182775946 0.3341874098146208 -0.22061814310457387 0.15883739545104444 0.14381071262700051 0.13363871127538635 0.0020060882388781526 
-0.1544091230017971 0.12643241302589384 0.4616568754813983 -0.04093822194385573 0.20770377357084013 -0.3437497954029524 0.2781382390697838 -0.30852162612579415 -0.019655761083656048 -0.12806622585573066 -0.36003100815383143 0.4802445276613353 -0.14756093297029643 0.07687885214649122 0.008441477184253143 
-0.2828618663368617 -0.5230017003563586 -0.15412550979561188 0.21980725661081532 -0.22233882887407397 -0.10250909269071007 -0.3942663745622973 0.022977365003758816 -0.11246190874153036 0.528332341462046 -0.2688237207759128 0.1896168015726105 -0.6363093141564581 0.34224411942577243 -0.20134225597135424 
0.020509648059954238 0.03239402878877978 -0.24643653658590348 0.03908013313160776 -0.26282933240782674 0.2995140147309838 0.16178277112446743 -0.4221176639762504 0.39133103958273596 -0.36845581770851715 0.26401112294107665 0.1683817426490823 -0.2347040118205247 0.3594820650385843 0.17655481458365394 
0.3788219926233688 -0.26464418759784053 -0.36900254332046134 0.4864484556532206 0.2722112014952924 0.2765166040546194 -0.011096335442030305 0.14610445618712864 0.2621232222209452 -0.025723348288908286 0.19299150995698744 0.25916554370085065 0.10095855729893446 -0.07765536192383554 0.1720295723712279 
-0.04127581569833576 0.2513144917245235 -0.054561680583866366 -0.11571360219436053 0.13158896171033 -0.21216324966048686 -0.024095504719417838 -0.13949878944627625 0.09475636048486943 0.2904544644695437 -0.03861405081309962 0.21683287852209607 -0.03171546892781454 0.1171912223603338 -0.2831170046338498 
-0.04959336710622027 0.2719858639711321 0.07853530339350862 0.19105724121816495 -0.02609800405429305 -0.07477874288505264 0.26302427122803307 -0.3343675283901274 -0.007427564107430505 0.35604622120390167 0.003030342871766642 -0.23344138351236607 0.23881866520154416 -0.17538759498346473 0.28781532007215116 
0.029657165822656508 0.3078176414898051 0.09284020029210945 0.2509973368141201 -0.5107977842044497 0.3016097692655344 -0.3264099149110671 -0.1338213956690829 0.3180855397486036 -0.5482608611431461 0.24153927860066568 0.277583296241678 -0.09809519918473482 -0.2304894411250102 0.4353690631995228 
-0.016254619633876456 -0.39207412500829386 0.3308772481205929 0.3106739111638499 -0.05970002236562624 0.12046381748599383 -0.06039407834825081 0.1381337551336249 -0.25624709035543985 -0.22996118888754624 -0.23732200599268796 0.36077688614925596 -0.20480817887270686 -0.5905791796993359 -0.11887468166093651 
-0.37767474122600936 0.15265439583550255 0.047708431838390096 0.21467667406458912 0.005183891048990557 0.21249367110497724 0.14763310582678257 0.21163721332463287 -0.0820178532382724 0.09621048894841264 -0.2450364038433754 -0.13405986674720438 -0.28224624932067055 -0.06787528659839358 -0.196403256030324 
-0.06916830000682499 0.3659840519430893 -0.13521616082663204 0.37491202039740984 0.1872368138355442 -0.043431596100209524 0.27461683523475133 0.08923025902680426 -0.1882214038156629 0.33715382513955483 -0.049625539887814346 -0.1066763093450713 -0.1279264945746688 0.2499575641122449 -0.22642044369562864 
0.23560777364397592 -0.17693330124498802 0.03252278802145653 -0.015058870724396009 0.29671111946100887 0.3635317009302883 -0.24140585272142676 0.06334647337418034 0.3665409468828436 -0.02675378779378356 0.32607510537396167 -0.16720845886547983 0.06885572085544751 0.1880431848648412 -0.31079659339890653 
-0.377937407287199 -0.14614380360079063 0.3394236452476038 -0.16213266657535264 0.1905205916080836 -0.3341427232908833 -0.11858491940757804 -0.27296027453049376 0.2152223532000118 0.16999893808819544 0.14201746364475532 -0.18715640953206725 0.1194999123966284 -0.20379099579452428 -0.029762384580442978 
-0.09568661142535334 -0.18670556048161427 -0.34253160079006556 0.12143159195092654 0.13028479886787656 -0.00736902122816389 0.11112878912881861 -0.25283887152077006 -0.46059374775241846 -0.05934960963087903 0.2838678101368413 -0.2417466382911576 -0.08850479428815558 -0.08446472948069152 0.0956344842823175 
-0.2595234486536063 -0.1534654431928644 -0.1805329936239694 0.2569370594647379 0.24923975186239042 -0.11080457603305577 0.07969810234217235 -0.2722699518507826 0.05385428310155318 -0.2133398937098489 0.2763409404942381 0.128993075419519 0.07181908145536968 -0.3300462512882711 -0.0008026624654594234 
0.3782126275410673 0.3420948701036991 0.10866082444183997 -0.2989530400947617 0.08719788145896944 0.030094009899296455 -0.023045035539622193 -0.05329544842385955 0.06362788140043099 0.25817569187949035 0.19068703085842925 0.0588454137926861 0.32099986257007534 -0.3743301078006329 0.38207459493187085 
-0.34628262796039816 -0.34006995691035036 -0.05725884096419319 -0.35960068685475044 0.05163175015821582 -0.5383564686793869 -0.1628317289301574 -0.3398108650944302 0.07507317633994534 0.03481507105113338 -0.10361500327904663 -0.2383945080418321 0.14841627333232738 -0.11956929691448571 0.42852332470923976 
-0.008867211265379314 -0.05290572779186515 -0.36603952616177704 0.06337369881774449 -0.17127912886453445 -0.1903115320931336 -0.04891865528735774 -0.08767047780574248 0.034623829355719955 0.5274336154661853 -0.11448892851842914 0.20893648948775828 -0.013231289165167847 0.4538887455729505 -0.1858225307779154 
-0.19331540326125976 0.2657480081576197 -0.35390357868559225 0.3167067580308931 0.11491657386693012 -0.32862611299750033 0.3850740068361966 -0.3419620483918933 -0.19472468348667352 -0.6273396679943096 0.05270592749193521 -0.244502974934709 0.04566856869572509 0.24383417192689763 0.5502754270218678 
-0.0355273782411921 0.12917489254046938 0.2113388688321872 0.007652274981343014 0.04459459911729002 -0.41425760047767546 -0.09760712955184565 -0.2748509715569437 0.021783529206467287 -0.06575452396690618 -0.04940205358135323 0.2973507308919368 -0.008201795998984398 -0.040002156446854883 -0.08672797040988646 
0.2819297316174473 
-0.1711730460727183 
-0.2986804803849435 
-0.5638269528243386 
-0.10949980921395976 
-0.03864292479429017 
0.1650190265045246 
-0.460306371657429 
-0.46441056415823273 
-0.6664339709389943 
-0.4102969429399494 
0.15698881060756012 
-0.0610935945357402 
-0.3150527426602478 
0.25276667788174084 
