30 15 15 15 1
-0.11165446049273513 0.08992883622353169 -0.344124623179853 -0.09642402906374423 -0.2395023637272076 -0.2628670276534318 -0.21907581003120769 -0.04581146204330049 -0.09262902744129707 0.016057882097861752 0.1346776626562188 0.20274992444738124 -0.1678935322360482 0.2775429555545689 -0.22204795291455692 
0.10402339321764752 -0.12340887991466226 0.035313806605881654 -0.23566975525285963 -0.1867803709407649 0.23982160348252438 0.2938729769456065 -0.21298342691327202 0.11765077131875053 0.2344479833755239 0.3400332981870214 -0.32332396114932893 -0.37426099919929867 -0.2966269253709775 0.35525831878403047 
-0.33096272727626547 -0.004885938448313393 0.2862696792945617 0.013064139904030301 0.1533594817902592 -0.2528624731604879 0.10213399300348705 0.26672579262578444 -0.30262585287251503 0.10643275423069952 0.5070251101609522 0.25062742074315375 -0.14686036754158843 0.2222272818889177 -0.31643651113894483 
-0.08887325241632417 0.4636860335023011 -0.1611466419104878 -0.4163911026166495 -0.38627562903890394 -0.5688453174243912 -0.11608439567751352 -0.06604115847022872 -0.17739554752586809 0.020099895693545762 -0.1564754867397486 0.26658021054675063 -0.020633355709618013 0.1596362041388231 0.046810867979212266 
-0.24815108430786229 0.013561076248369608 0.23045822926056891 -0.16204424516007596 -0.42598754097163366 -0.15163035388295384 0.08583969737488147 0.001577732690556644 0.26392787277751967 0.023296418520361756 0.48518747299423304 -0.15717503541442326 -0.0848744351988413 0.36812034059553617 -0.22142477951328113 
-0.2076745420812617 0.37461474890871266 -0.2938007748764785 0.12511241488413538 0.1595350013159821 0.24792747427564746 0.050766135266135756 0.3061810174546428 -0.10250233569680962 -0.22101939332661838 0.416123244623415 -0.01696950773723663 0.4090125137553856 0.07208502320121893 0.1740071969766293 
-0.32021943048632073 0.5092829357636173 -0.17790369265883102 -0.2317244491123991 -0.19199808387800074 -0.4340355935132538 0.06794775304339483 0.23321175546635753 -0.32587545840763077 0.03647584431757648 -0.024838811367224482 0.22473355291231623 0.5601354816258135 -0.04616363120230649 0.1445025060313111 
0.030856813434898617 -0.30859814765051174 0.22143931214083465 0.13082622458030363 0.44005813882434197 -0.46618539189680364 -0.29743384839894166 0.3099686925563017 0.12046098592260904 -0.3869972021796936 0.3004071999381114 0.21990272229170038 0.29123650619265923 0.14129910554442723 -0.24631127809925593 
-0.3015892623346679 -0.4103069937304493 -0.44051820352207116 -0.0868699361157501 0.24125480419328316 0.10213599761281378 0.10548251945985718 0.18861693579632846 -0.23408623334409984 -0.13550207248459945 -0.06729683626753223 0.23553473032075367 -0.04492569024343862 -0.25558190623541877 0.23429911402642878 
-0.16464303613962464 0.0295957742728791 -0.07616895169157276 0.36920666561649806 0.190826223660983 0.08048543638934534 -0.2694048060882555 -0.3514623016717099 -0.23590652107979174 -0.28554649114892583 -0.12054452962867543 -0.22467016829004627 0.13058898374057235 0.20501846537045854 -0.3063600981533107 
-0.26776746468529034 0.177977468535418 -0.16496966591979134 -0.21068044605290082 -0.09255575871521732 0.1656699755123788 -0.030996914910888792 0.07525558089284282 0.2892429765651992 0.3174734611615984 -0.06767247771376173 -0.02944145957126112 0.18062223089625895 0.05771795582365351 -0.22502740297766638 
-0.3024383478244689 -0.23418056022306136 0.135221313576225 -0.02571001969104681 0.024018793380895003 -0.11895617743215729 0.15577575623623355 0.12160600015213643 -0.07269893900163693 -0.03099775696003654 0.44251364097088197 0.27163676770606426 -0.002934839281201513 -0.17503164863504325 -0.26297340078548886 
0.07877448911957939 -0.33404931815317757 0.28516806768769964 -0.39182247952351784 -0.32878479141346223 0.14289927169946284 -0.2092880434913028 -0.006073444166159086 0.014772842830678218 0.417116176589835 -0.010019908173073789 -0.24335361136985728 0.2751461218465464 0.13860028784922204 0.20030210833704637 
0.2703225523479404 -0.28299079352715295 -0.40175846360098816 -0.09751678586168903 0.31025939092516225 0.16689060407654704 -0.11234448732797452 0.3779257456415969 0.07804586672828277 -0.10823529944696057 -0.021567182569833913 0.207290073816234 0.1987447749606023 0.22336793050050213 0.2309042049307553 
-0.06364369616645803 0.2865249782396881 -0.3733654013328388 -0.240374910460684 -0.15197209399342562 -0.029568837231458523 -0.23629290986733176 0.22582377274536442 0.20286110217502445 -0.3047553211770485 -0.20351333647838135 -0.14777023925292193 -0.3553998470702787 0.1071114601335746 -0.05419808491631561 
0.2755936054166271 -0.0782378849427678 0.35846625168082175 0.17766931135279265 0.32849710858743986 -0.030082106913037036 -0.10574610980316686 0.2130767392562483 -0.13139957917408346 -0.005823443469650404 0.15773999241323278 -0.2705572926475667 0.23003912800960352 -0.21863809715841911 0.10312006896582364 
-0.11292570858992698 0.33665798859091284 0.04899470581589928 -0.27412432450175245 0.17092612864001294 0.06788456657893079 -0.5027616136980972 -0.02420257320463296 0.10937969381623243 0.23255008976075617 -0.338439397966525 0.42583388705059777 -0.12068095219908556 0.4433272553270932 0.1308323044165885 
0.17085606641985973 0.1858533595205192 0.04888288287940028 -0.10598277544104416 0.12878937319016337 0.1538934341696409 0.18054156287898324 0.186060752927507 0.12123597022980274 0.19099047917954265 -0.09791296923985515 0.22311161726587106 -0.06316681308189757 -0.04076750048931724 -0.12744191052150755 
-0.05959511063943089 -0.23182252917245255 -0.1030051531481969 -0.05459298153877423 0.3433732991312397 0.17416183319802572 -0.17448256025747896 -0.04318866353296371 -0.10430048147624722 0.15289569873582026 0.419720257368048 0.37146293246079193 0.1174960926014494 -0.18752305127834587 -0.36059924998222437 
0.2206450056963768 0.16050769514267552 0.30868469497771533 -0.12280048975399672 0.20546510693115194 -0.18730392931548695 0.07094156225754863 0.12802815827939906 -0.04736755244948478 -0.13441225498545833 -0.24352310642578226 0.09312265068810094 -0.19267533585324967 0.5061626584685505 -0.3141426259191363 
0.1931248196774467 0.3390658666113979 0.07116727463849423 0.027182558539768233 -0.17874985624987866 0.08322720243818403 0.05600880957041971 -0.06535482179384443 0.05591702187561641 -0.1147824486237061 0.3627150105842643 0.278026023615426 -0.19044067211211949 -0.24400389823283156 -0.12235217045609267 
-0.0002481052021410634 0.10238338121323451 -0.18036103693517794 -0.1551212981619509 0.21857645374383092 -0.03351055739530846 0.07074590139137522 -0.16420506820004244 -0.24838788445005622 0.12025076806467108 -0.013684599722251124 -0.21579283056439486 0.04323727664885844 -0.02793072324827306 0.11711825651945651 
-0.22100193564554224 0.07966836124917556 -0.17156535688691485 0.07083340562442074 0.37443320220377235 -0.2999940196865938 -0.24303491197315719 0.16847639714581453 0.21411536011971516 0.011945239817867749 0.32464122196553863 0.25674020371817446 0.12627805257625496 0.18497101997298923 -0.22839425127176285 
0.09212309056141915 0.03949981022414257 0.09188784641891008 0.1732095320529867 -0.30627372837185746 0.14961784457859958 0.12225894799180731 -0.2381665008593098 -0.14941955031540943 0.08037021346142265 -0.07490160147152478 0.22850661195892263 0.01839681342587482 0.23424828936929099 0.3848688769028711 
-0.12229602726259943 -0.15195229373345187 0.25050097302348573 -0.11898973650423023 0.21077288218075585 -0.051571503181547136 0.1981700097711373 0.23863274505936286 0.015828174036888902 -0.22685346663017888 -0.24412064140129688 -0.10225389613509714 -0.21084717479183906 0.37093093784587383 -0.35612036980478756 
-0.08108238991014302 0.11143455361857406 0.032348780792741456 0.21501571431619826 -0.2055441129293279 -0.03495347159259585 0.12549987308385446 0.24981148569838962 -0.18308723084301304 -0.15531116740331344 -0.05579249784400443 0.06448176606972404 0.06380272906674508 -0.4147338347781681 0.2059953241394058 
-0.17796848721614084 0.12245396172003362 -0.13943200634367495 -0.2016438877633242 0.14296174224262115 0.26809294776260967 -0.027843954055983965 0.12833842405722454 0.00665833362126632 0.024579838264565942 0.4313248202162046 0.14541019647329073 -0.2934928044946016 0.1852124479600321 0.16977077997272286 
0.2529805886093605 -0.1730807110675897 -0.24706135403091864 -0.21191749201751814 0.06547336036503411 -0.17586080675461696 0.02097478221232278 0.20185655071430875 0.1204499384553149 0.12030921090399446 -0.08537927549501671 0.25211026678967985 -0.07761355776283983 0.27820858317457287 0.10226540490706292 
-0.22172194275543228 -0.2854988574294344 -0.2768935650242698 -0.4624624029600423 -0.09680598505029128 -0.39485500992057954 -0.5635454304017558 0.35099555113384606 -0.07202579742260973 0.11523308026046095 0.019674930798107466 0.16450135618341913 0.1934438900104038 0.07782250128609187 0.19132832688165372 
-0.0590359255755546 0.2730766761023847 -0.2636583546051489 0.09644532852352126 -0.25246670630887513 0.039914543786388736 -0.28723583838435873 0.05931360094378858 -0.3125785927448178 0.273604808290117 0.37413195451708003 0.32068066590268757 0.39452418378245235 -0.18273692868850866 -0.17734462076601518 
-0.14252258805506862 0.3616516936213792 -0.195796208921604 0.009765633833371696 -0.13953330120076202 0.3165653174567265 -0.09965025823500705 -0.10336794773993424 0.053117433403280304 0.3390789958206979 -0.3633195810738 0.21512373373574598 0.2836516704801063 -0.36626796517472404 0.01617766841367903 
-0.1306699647821457 0.21555127927696274 0.12122915008897714 0.2593649879821816 -0.06274114750963303 0.1550576266505322 -0.17435689144466962 -0.400389631804988 0.12711828170827622 -0.15658191170351712 -0.00499711342536106 0.5011070713719697 -0.08505107006829021 -0.16784737766334995 -0.05573814878813043 
0.33344572528597227 0.4212223215695414 0.18200271668084592 0.36530051111627476 -0.20678368947416675 -0.3290169215338485 -0.2201687178688458 -0.2015988200885867 -0.3413176224314303 0.043675673067094085 -0.08710413563625866 0.3747223704843197 -0.21232222925932673 0.2434854963925643 -0.30338721990137885 
0.054930886991987955 -0.08892390405685416 -0.4806149847589148 -0.17178426630956406 0.12021747478524214 -0.022497174037234943 0.01095950676192256 -0.23252462686656286 -0.000166651739964691 0.40717255406561936 0.22637146784512063 0.06692237167945991 0.4885568312773954 0.3838471842692366 0.12157242532128887 
-0.36213042236260645 -0.38376489176526535 -0.4004046362054056 -0.029707215408136006 -0.09290177050503708 0.3611730925737069 -0.27327188352055903 0.32857845962745175 0.2852138373117903 0.28843358941020786 0.07996845083919814 0.18482292745508758 0.021886464847253873 -0.470074901708294 -0.1089141903774228 
-0.005801629095069218 0.3059454837033061 -0.09308137786856209 -0.03970010001796878 -0.27796868348466 -0.3814314435767269 0.1959727889172767 -0.03160864762341094 0.2899045509230898 -0.2663279538456914 -0.15415358601917717 -0.00045495515086536127 0.32970400472602757 -0.024337824224506893 -0.29287656466896217 
-0.14104747693503814 0.003804877510272368 0.11971861479889793 0.3122663500707161 -0.2837910471760191 -0.369789860855883 0.0037037115186717333 0.2833009624422993 -0.47650427297712844 0.2195204886326029 0.1206040499239387 0.07102184217022608 0.3866686423780721 0.18859124495565724 -0.36160616299994286 
-0.011410662230576442 0.23195315760647636 0.334230634716602 0.19291654579081885 0.11053581861197927 0.04065357918988752 -0.18800198061833545 -0.09371078544646883 0.2895943089257941 -0.08338368479224141 0.26024408174536434 -0.1344625761794952 0.15373596519053048 -0.20177464833423694 0.2497446336050484 
-0.0534661619709638 0.22170827643908012 -0.13806676156455974 -0.23882430441678076 0.20301434267591897 -0.14402234146981593 0.17646079827577107 0.2029682789979943 -0.20864972883097505 -0.21759433898877162 -0.22951272235910106 -0.26196692545973604 -0.11965136134110617 -0.404351898858655 -0.29924788331605445 
0.13109546295976834 0.3182882270274751 -0.37109247722459127 -0.20744893387964924 -0.22268877209759624 0.40021796463736553 0.15102494208546857 0.03522447996293753 -0.20090625651886032 0.27646760350945904 -0.047807732568514345 0.3211654538973613 0.2551721135970449 -0.016116866007629037 -0.34343358197836393 
0.368950881261996 -0.34221812208379226 -0.245812519801302 -0.03041292881095698 -0.07114156871006574 -0.30514286186966055 0.16929884402169262 -0.46213700657027096 0.32944310765971063 0.3933502889277381 -0.2517189192729513 0.20416835041536738 0.1650497145698174 0.19223058340961244 0.10103648913914857 
-0.15418400376815192 0.15071806427591275 0.4262655821502911 -0.026984000369954943 0.1974495599835509 -0.3781271697031198 0.24434374325727679 -0.3439852916985446 -0.0143442503504898 -0.1349672805429612 -0.3609708017144529 0.49773593971859603 -0.1375154005694483 0.1047596708100066 -0.0060560802717342845 
-0.2823399683224881 -0.5323695170836643 -0.19278808026604075 0.1673993715429343 -0.20791818400579953 -0.09533702336046707 -0.30152422314598765 0.013232578640148698 -0.1393460506332517 0.521606398348106 -0.2674682132092844 0.21688560497902754 -0.6121947365397638 0.352082408532823 -0.14302875843977794 
0.020492649618798424 0.1084745109192334 -0.17054327305323852 0.06213155880479769 -0.25248770785803876 0.24317801361609626 0.15529819215506765 -0.39317769721631857 0.47586121115884783 -0.4582582803627194 0.26067542032845104 0.23526705687292354 -0.2309873603298062 0.33047556516156407 0.2410920177431261 
0.3780463288257184 -0.2404543699722464 -0.36832747118108455 0.46769027588663614 0.2590420037505228 0.21450771643392422 0.012231815567109615 0.18478147241250342 0.24536124986162391 -0.07981480609609251 0.19030750873057986 0.32374447045964855 0.06504931157152072 -0.04154816231277046 0.2709796455384892 
-0.04123671879407424 0.2508711211794319 -0.05450611819823917 -0.11556255116167466 0.13140863073391404 -0.2118127711182258 -0.024075025723307962 -0.13930327944216273 0.09464133537647804 0.28991324358686493 -0.0385780417199339 0.21647161930587755 -0.0316871205997511 0.11703751554218625 -0.28259445981423786 
-0.04954416328937137 0.2594559319937827 0.07844590368647107 0.17044033825458166 -0.03144480055306438 -0.048250437467028576 0.26255210084922437 -0.3337117900042961 0.04123043541203464 0.37352266820791563 0.01309303308396578 -0.2330411040152691 0.23696134298112057 -0.16222645496988605 0.26263662178992736 
0.02963100550150458 0.30544869454379325 0.09272830920985381 0.22932857896288042 -0.40857084033041746 0.28344898667327895 -0.32577524977262273 -0.13363681912375946 0.32794438580914514 -0.5019876026880612 0.2432038249705793 0.2770747398720411 -0.09820252698762034 -0.20825367400199582 0.4613723989345267 
-0.016241560935799267 -0.4047336518110036 0.3302307688150101 0.2803070000786417 -0.07532941660230978 0.05032335013683646 -0.06033075546523608 0.13794089156458814 -0.30093673044119706 -0.19568746197201825 -0.23691246384390008 0.36005032289529393 -0.19565355217148317 -0.546625847110426 -0.10803034426690442 
-0.37690221470851665 0.14949958413214248 0.04766157825757522 0.21088976571149312 0.005180079342958634 0.20891135929351787 0.14742159930721238 0.21128794379069843 -0.09250594831893139 0.09290222783876793 -0.24460829275737825 -0.13387483487853546 -0.2844509943478083 -0.06780155675320003 -0.19591405142213297 
-0.06909272129480747 0.3626993830928868 -0.13502891628112335 0.3741470403817627 0.08110789884923122 -0.08922348564969548 0.27411574247825027 0.08912419595481988 -0.19763714431829674 0.26784606248445814 -0.04957629565679102 -0.10654117682708238 -0.14039745040204402 0.18548231841642787 -0.20916571663114905 
0.23520232975864772 -0.16523164491497122 0.03249356910019373 -0.014563668842212727 0.2724269456262939 0.2931804422035615 -0.24098650594745327 0.06327910324846162 0.30097503432839534 -0.048988467756084765 0.3254413239680716 -0.1669569481365559 0.07354766303663085 0.13716254283420717 -0.19884107617160413 
-0.37716416266222186 -0.18773284926337808 0.33875445022620226 -0.1674854624262282 0.12078023628109016 -0.3595513753289775 -0.11842869426523198 -0.2724633387883063 0.23529997762151406 0.14586946502240697 0.13719835812273914 -0.1868621190841948 0.11795305571178183 -0.25694011424132734 0.004207620479946557 
-0.09557005480807124 -0.2008072697823625 -0.3418541090155729 0.0683973258816636 0.15451494640644456 -0.012770141024556097 0.1109858843905319 -0.25239177638240745 -0.4834468258631031 -0.046591113001297514 0.2853086738690661 -0.24132647075050495 -0.089563727743971 -0.052014169299014465 0.10279877469040906 
-0.2590599333620085 -0.1603176988793586 -0.18025311995521145 0.2557490241947008 0.26871471446440176 -0.13443749103522298 0.07960693566396362 -0.27177474609464625 -0.07005771741587524 -0.28483312067238387 0.2727292032929712 0.12881764242620783 0.07266813996095896 -0.31559247128866924 0.055330118983847716 
0.37743863037125247 0.3397908604211453 0.10852224489487286 -0.29778968759943353 0.08577471111304415 0.027924725264204447 -0.023025591164482866 -0.053241528913615305 0.06176992014692397 0.2554722284863054 0.19038497280442507 0.058784182186444635 0.3192784188439114 -0.3749527661312923 0.3812900255211566 
-0.34559509791686677 -0.3578196427110917 -0.05719972895953685 -0.375312964290111 0.07819461886052231 -0.5196732088158901 -0.16258933986047538 -0.33914063741097655 0.04679476985675764 0.07262111188614057 -0.09953796427114059 -0.2379823965960576 0.14648743556268842 -0.10869034941515023 0.3938832816844504 
-0.008860487526255576 -0.07910161432914152 -0.3652986988418657 0.07399098613708706 -0.19638595480942855 -0.2096792877441755 -0.04887029670630734 -0.08756690164597906 0.003210578659641449 0.5003743271028089 -0.11046527092755053 0.20859340952920236 -0.0152200613254239 0.42938708873517395 -0.13781032986469116 
-0.1930075261039011 0.24210840315184867 -0.3531955726753637 0.32920580089905216 0.07469731512028323 -0.31099372479319026 0.3842812108186486 -0.34128607845640235 -0.2336769791114493 -0.5838894738792306 0.052652767677650855 -0.24407615436285313 0.043296838711740074 0.2679432740072061 0.5223630195701153 
-0.035494858522190295 0.11951668374309359 0.21099028449972648 -0.03496181223011069 -0.0032395769319823594 -0.4929706186382693 -0.09748739058521291 -0.27434929062025304 0.0577355759146337 -0.19022785155551797 -0.04572364641634058 0.29679182872561266 -0.006449921065960897 -0.22389212519722013 -0.021125901608037952 
0.28141019516426874 
-0.1737593878196771 
-0.2981181550117824 
-0.5057434556218723 
0.08526731473778595 
-0.0315630468327138 
0.16477209120496594 
-0.45930347117758125 
-0.48827438638998655 
-0.6380576328913578 
-0.4098697655450417 
0.15675844237451625 
-0.05941652820353377 
-0.2973228239055466 
0.2800248059961163 
