-0.006693906036746685
0.05978417524741417
-0.006524801294029254
-0.2150108508820476
-0.08730355257789835
-0.11102216798356729
0.1699581817186135
0.10709218763851633
0.01792643421313825
0.09193267064255621
-0.0705920723414553
-0.010155504191843788
-0.1348965926138224
-0.07249892668678244
-0.038104746078161986
-0.15742929894169796
0.13633053699322062
0.1638980651794576
-0.0669372103490658
-0.006144723556764456
0.13082933435152141
-0.07603923441989423
0.06473089640914238
-0.004250945005443955
-0.058653369448267156
0.08914084253078687
0.011183550681994186
0.025706521270895254
0.2144593551830811
0.16815926050307292
-0.08157305254859772
-0.08951800908599498
0.0786779623816576
-0.03638757532392091
0.08322162593513019
0.09370036215521037
0.11631385985564047
-0.10255681848728193
0.217104912105291
-0.011966710105154757
-0.16393244094555104
-0.1112326043891183
0.003028334556410405
-0.007076505132711508
0.19232404147005178
0.1490653394484437
-0.012615170436271509
-0.10113742567747723
0.07847790016906317
-0.06455414960659042
0.03550009631933895
0.22542780806667992
0.18286553172028308
0.24054065933658192
-0.04623186852353757
0.02835828560092925
-0.03587258801128378
-0.18812731102995206
0.14682519061340632
-0.13249903706866553
0.08071806694214137
0.15830361264544432
-0.11032411986909926
0.016314996660787923
-0.024724646903558623
-0.1897804683122457
0.1233754857696617
0.15689548615118978
0.009760200412270001
0.1397194243143284
-0.23472890802463625
-0.1508915206676075
0.028150009390984734
0.05869917977968247
0.10148448462197332
0.04578312533909811
0.03228470962504365
0.07613377356182638
-0.15260732426468623
-0.15532945149032568
-0.10265652373943496
0.15693228990866928
0.06155846325466553
0.06956322496040947
-0.1394173081563942
-0.09908001987890949
0.058117244335172145
-0.1278540396241912
0.14861197498078324
0.14047026249054712
-0.2329965258700124
-0.1361132079980654
-0.02069881120966784
-0.11784022059820885
-0.13271511507615733
0.21740588520973989
-0.077633201990583
0.1565957095518647
-0.06819395413853106
0.12366110055315198
-0.1322913053600405
0.09475778396403299
0.09284685076060409
-0.12969670163421254
-0.014878900349773865
0.0003239542298350497
-0.08106175211223461
0.1514793124322729
0.21350651882389374
0.013870980091211134
0.0175782860835683
-0.005787248968204645
0.11431982580175319
0.0459778378528622
-0.008525602235968405
-0.1560666952603801
-0.11093371640708032
0.20301398130123227
0.1442217446563478
0.20353947979579412
-0.22621804481109128
0.02463288403032427
0.0013015256390524273
-0.22021283483969198
0.06342158050008699
0.10058464064324443
0.06556505203589576
0.1718563581311088
0.01769341482438671
0.19271408714327531
-0.09368482596263061
0.17116158551967878
-0.0655633638834478
0.205272324716853
-0.028090619098183767
0.19986549579281687
-0.022676347245473044
0.18123250054927437
-0.24009969557168345
0.17169418288519564
-0.09595464379306314
0.10115086768498378
0.1427442589608057
0.16969533351961708
-0.09958669856934631
-0.011813204996475925
0.052017811970721764
0.021756171518356692
-0.2380914705016292
-0.053709841546974176
-0.10664553823633147
-0.09703374947188356
0.006047693105320876
0.023395438108619444
-0.07904405279067234
-0.10012857924955235
-0.04052815819222788
0.21874923364374216
0.21773626071484664
0.007165801998841029
0.22421669151726284
0.11463058424371228
-0.1267720553068147
-0.016093767497357466
-0.025818560288046216
0.02513613014073398
-0.1736117382514437
0.1444175744517338
-0.12588384572139477
-0.14644606713624958
0.1642182144219636
0.10543475384332841
0.16045690039122668
0.11835481495516725
-0.2201912524067741
0.0720970858926121
0.011352238008765102
0.10334971529808434
-0.07532847390750019
-0.21504899700083238
0.02191839087456319
-0.24008182658098753
0.22746496527776397
-0.19136391142903186
0.02307727458900282
-0.13276986998173607
0.08782538854990332
0.15188174954842068
-0.14097468796315554
-0.15975513982034267
0.11240286266773804
0.12749882996076412
0.04620860655701243
0.18438748525687448
0.15062283234055
0.21085158748717966
-0.18044959255205634
0.07087245559502593
-0.09035923344861684
-0.14264586489522582
0.1563616599820185
-0.06818027660389492
-0.18544382818830865
0.1728394373139787
-0.16760518333341942
0.049268070614580786
0.011082359282979811
0.14748889770864448
-0.00714197960786331
0.07319189682503362
0.17415197247872227
0.04526467111389515
0.013103510174581294
-0.0825245521496918
0.06706776367573072
-0.1398480403203258
-0.084102620439409
-0.08044905584849571
0.2300521084815115
0.10045457933699863
-0.06985240415873503
0.1281164508973298
0.04929885577459807
-0.15873353993309675
0.036172221938869195
0.12421592430996259
0.217136800388586
-0.23185754918250348
0.11789963711293557
-0.16808905314583197
0.038441727332336695
0.04572484662368727
-0.2101912581666011
0.11563109061588289
-0.0606152046040792
0.2412980409156101
0.15346680383063452
-0.18670561626689572
-0.12571086964905168
-0.18830914159079817
-0.031125634460641018
0.15227859133355165
0.04011207467998813
-0.013139057469409724
-0.0993072490728477
-0.1957538514887609
-0.17899070072342246
-0.10789203612473448
-0.11461526520110282
-0.007245322320019192
0.06233581151441051
-0.0059798167651863585
-0.22159511918691707
-0.1317046268866323
-0.16804363088306867
0.17687952636284188
