102 51 51 51 51 51 1
-0.012161452502992835 0.09442448469169988 -0.17246383207708296 -0.09302532383760961 -0.16589396144293592 -0.17515008712223146 -0.13050430095551657 -0.06301418708788306 -0.010992154067525645 0.01499988538468369 -0.013259551864442366 0.03691618608439239 -0.11228032987273037 0.1695866173654999 -0.1927221909440347 0.06342126408661379 -0.04766103876086325 0.02371613365984914 -0.17275213420181335 -0.10270700308050609 0.14500156680071424 0.2112768384874981 -0.041378617722665295 0.09338120776842489 0.16429697812985272 0.14272043060890877 -0.18012731035408383 -0.16123980003536195 -0.12421604872568123 0.13246401369166533 -0.19112422096730466 -0.030953879172423215 0.17578779447846005 0.026528222987923934 0.08931516674721895 -0.06012210526697875 0.0671852388422603 0.13697267532954227 -0.17707783190318224 0.08059542453271222 0.19639929378237408 0.1287533172491406 -0.08657282724053615 0.1408273296633396 -0.14653623705153684 -0.03194969582566388 0.1664725083536246 -0.026017095869068 -0.09977536964183902 -0.11726263786569881 -0.18423154675688888 
0.03129151758220977 -0.09237689081536045 -0.03624836494002525 -0.039349447132874166 -0.19985245013099662 0.012692802171703994 -0.1342899504465014 0.08437336493787798 0.11241953876438367 -0.11913588943921931 -0.06576659653352572 0.13092250726682725 0.0052003994408261565 -0.1564754635161967 0.0032436172465247154 0.013987499943279516 0.03353251351704899 0.1534417685030427 -0.0005338729520536537 0.13836200381446537 -0.1275541027993554 -0.22647329806776867 0.13338236206951548 -0.05415126634985087 -0.1719211992856505 0.1838026955327874 -0.021905025611413612 0.13652047786081953 0.14063831317260947 0.10520884102477754 0.09728261922043148 0.03927709652842509 -0.017508104436011484 -0.05261412065563394 0.20960016222486294 -0.016351931517230144 0.22021560099970006 0.05106575881818916 0.07548619298804302 -0.13559905533652675 0.1404237331227502 -0.005777944120055146 0.04088662551310695 -0.08573390305002142 -0.07435294770780786 0.18389017251031772 0.05840678874703786 -0.1753416308659994 0.0603117818207286 -0.06301671596895476 0.038514620219783066 
0.09718804248221634 -0.03197667149836171 0.16535380584412765 0.01085282769460717 -0.1516235765237214 0.19729515719597204 0.03481752229954701 0.13637668484390186 -0.16174735877432422 -0.18447302373399974 0.1836281446081799 0.022460435299706382 -0.20196400053955646 0.14715825953546258 0.07684911718661133 0.14837786766976196 0.013546131524092439 -0.06429843403098873 -0.16364960101342918 -0.23392667189280503 -0.23647516772091415 -0.09432494883887388 0.16990852733840003 0.03869446958929617 0.030914128543756702 0.19827805534757137 -0.14747995796053542 -0.09630973221298654 0.1140081647245753 0.18753798246008757 0.053851109404271305 -0.16870928474872485 0.10387888457855378 -0.03424516459938031 0.09397008176163521 -0.03704082475831419 0.14485521468925389 0.13331744386845323 -0.028314154903280035 -0.3082252424852642 -0.14076196729466142 -0.16398741506674414 -0.1838500409484342 -0.20418029245676225 -0.12142023040215617 0.041737736240712024 -0.021766077926356205 -0.1592272728009275 -0.22701928274038705 0.25974288737164436 0.014870690648549718 
-0.11419617277567386 -0.0656579837735509 0.14647071718063442 -0.14662939247072845 0.038588431983385976 0.17871224150651718 0.15006554634408334 -0.06924788139129756 0.05436148564886867 0.0703489798021688 0.14442817870754374 -0.12638200271813538 -0.18358616898609853 -0.14130859365903622 0.013079440015971826 0.03711508891449295 0.04064604620045578 -0.1042969196688463 0.18096419977721154 0.013256155405992343 -0.03990352032832822 0.003593773341484726 0.042426290349946306 0.07999493302014538 -0.10819740684134913 -0.16963762969450533 -0.05194626647303851 0.05020368628039423 -0.100685678348568 0.06640998103801152 -0.15841554233134672 -0.1039730260001274 0.15005452971887118 -0.08888345081262589 0.0735772583936234 0.005591090310923724 0.1981611427716538 -0.10489361689086191 -0.12750352605749957 0.10140819301857718 0.10437736621405592 0.1809972843536967 0.17922191883564217 -0.1950616768225086 -0.0722345427371113 0.060673984120064015 0.19067296559311644 0.21385116439220783 0.032459943379950104 0.2075078249036108 0.0401239399877123 
-0.02123613208223019 0.012884536146906118 0.031579168754724066 0.009892303690131755 0.1662725771075534 0.11179938984403152 -0.06594912014458754 0.17994747483954043 -0.11468441085664748 -0.15596225516113993 -0.18157528862485695 -0.04502488911568793 -0.133868628095349 0.19069664229569683 0.14521745524524432 -0.19850196529577296 -0.17086062820291822 -0.012050796759448396 -0.128307999365163 0.10818959919864513 -0.04416153975172946 0.17248581671183794 0.09386355018613152 0.1531762348480934 0.09151317866255328 0.13476926529676686 -0.06464704923388104 -0.07114651068433757 0.08668301374976702 -0.08606224168913526 -0.03321372072156 0.09435462485207141 -0.20076251993701033 0.0307360937892176 -0.016317646453924105 0.08774957853620156 -0.09130550911106433 0.13388116413072076 0.01632854551363232 -0.13409820387906465 0.13905092641581018 0.0671243250855353 -0.17006823608000385 -0.028247836696442197 0.09328675484402194 0.16539680155682968 -0.18565180038184662 0.260967902532273 -0.043762537020920186 0.20167892292388134 0.040429542311167625 
0.17646349647630358 0.060254090065838456 0.031015696294118916 -0.0525377366633205 0.055181257841185015 0.07626137018674253 0.09500939396922901 0.0660123716065531 0.05917863352737235 0.138226040823123 -0.08346561409710876 0.07796508809872374 -0.0004922168951296015 -0.01845277832376671 -0.028432533149250656 -0.030072747232420673 -0.07584753026581649 0.058835858833241 -0.021244663179558417 0.14038283819117645 0.12612821172565955 -0.10588583539604406 -0.001412623967616508 -0.06804216258792584 0.1414371605780554 0.13838695552192137 0.19408390592188302 0.0841790829099613 -0.10540490510102304 -0.051438225460913874 0.10149306933456727 0.04513886140349147 0.10644152749287655 0.026212073372958045 0.09397131316173465 0.01242725914975552 0.06083419968516734 0.05488408813194023 -0.0019370266651303257 -0.08727541651041446 -0.11264611225411833 -0.023564793200286097 -0.16044986919661605 0.18359091404656247 -0.15310341611464048 0.09102151391632804 0.13536223630393912 0.012974723490651645 -0.03517229022838231 -0.18277383925338003 0.0035951172753765017 
-0.00836136003982546 -0.08826903196676703 0.023212839748427548 -0.10707564245064301 0.16609241775625372 0.18170674845381313 -0.11930690852550543 -0.1775519350339639 -0.12183858312780924 -0.037305818746530724 0.12337769605257817 -0.09967909838244757 -0.07714486253347538 0.18043827441900212 -0.04640798098063231 0.06182197551277606 -0.13319223059355983 -0.1545116339153173 -0.06204648272459614 -0.007943542764819459 -0.14821596164853149 0.058950070729250396 0.0019806493714249612 0.10601752428161053 -0.11341417724843751 0.09554440569520892 -0.12569645697994397 -0.04049385387471887 0.08375825710837735 -0.1939952528947171 -0.02875199738818569 0.1733041272594684 0.10915951489704773 0.008170642301160533 0.13116360475905928 0.17709767826616551 0.10186872691214298 0.148844777818784 -0.1808647574480648 0.039742167275969006 0.07909935462469038 0.09438663380366781 0.1358812484383342 -0.1812609202823853 0.09638656436579396 0.060338425486671954 -0.1311318206033988 -0.2353587169288829 0.04249198140870357 -0.025380044399487142 0.09014456740288974 
-0.05725452721881092 0.1602512644954228 0.24717250456604872 -0.16099271004092103 -0.09188878085906947 0.14627408702933928 0.05025160760942626 0.23643780556588445 0.12179633456443047 0.22976312287779627 0.01919102255289404 0.060276825627910306 -0.16422140608168914 -0.05398841690135511 -0.17550619793974737 -0.1696859198605869 0.1338837790826682 -0.20206851157080916 -0.04632341593107092 0.11925797514827971 0.08210782812812341 0.015534331867877286 -0.05902042010343339 -0.019445011965483594 -0.0557798524264101 0.1584669761696803 -0.08593001617072037 -0.03252315313103568 -0.1586311940687219 0.0358489137018362 0.02676405473039611 -0.1562243606815683 0.05099272409699836 -0.05630510652889993 0.15348806434234896 -0.14441227264760179 -0.13358625339961633 -0.0034684883902668436 0.1933134294743975 -0.01142630295116104 0.0976551053753731 0.03067636368161979 0.06303891960637102 0.12644481615045425 0.17797663058483523 -0.1472194588293196 0.09346726912243439 -0.012441153424648571 0.1981676913274446 -0.03646582475435411 -0.12092384302549958 
-0.19425660169248343 0.006857881449999214 -0.10973985507800034 0.05421209516364377 0.15662946012562312 0.06628951515422443 0.1141811751243496 -0.021282474889868223 0.20080536804969704 -0.022407608321280314 0.11410272831882652 0.08522956735615658 -0.11972355628456514 -0.11709691888763174 -0.20254574432986047 -0.1789410995664536 0.011673941294668611 -0.18605107803827878 -0.20544392753011928 0.06685977989297866 -0.024923257936754213 0.0787716308148103 -0.0771004832481001 0.0022240279296984115 -0.006324469646076042 0.002904160305067041 0.1687759865366666 -0.16244217702663535 0.2276771029772935 -0.2032351172790508 0.16755210287502598 -0.09221003366774602 0.07600672672036854 -0.16180057696710487 0.010976014225961698 -0.208981951811523 0.2050069360019998 0.1431777907808537 0.1592094375351249 0.18118659399924886 -0.16983798049721266 -0.10519130403507149 -0.102319502344368 0.018850141808807383 0.2052062096162613 0.21705340287715305 0.09615622519004911 0.005338456149559027 0.1805003828383869 -0.008570315377331087 -0.13354473590803098 
-0.130399455099625 -0.12312405630603289 0.15817467716719374 -0.15498070836186764 -0.1046145430040807 0.13870390253169354 -0.0642081110265811 0.21248039041000139 -0.048278198482828834 0.027815082357680727 -0.034661387299942316 0.21392181921507772 -0.035553261123684045 -0.002664524178477479 0.05349215666625165 0.17519396661473258 -0.16560761855380346 0.03012443971528433 0.1417589754626041 -0.17912104751999047 0.022112948666967024 -0.10585131925945211 0.134575135794275 0.05466127078042725 0.07312393751190491 -0.020099908162450702 0.03660114339581401 0.015448853218688337 -0.2743620667736336 -0.022428105470119405 -0.05390676456938792 0.0022041770752547177 0.186516987499866 0.026550223488322935 -0.06592267713548373 -0.03708934724796385 0.20216686282831167 0.16838547164715764 0.17375030456989654 0.16762915702188455 -0.11136474698259877 -0.14644231533962992 -0.10631924896202503 -0.06728250413219244 -0.11325720212497431 0.05092894071470395 -0.020414252807256283 0.12518934799327827 -0.11909431413705925 0.12649090888969255 -0.11132480290768687 
-0.0010578772101899681 -0.054139592965648776 -0.1508646429141586 -0.12569098346637525 0.03172525096385027 -0.05471071548322881 0.01635529407122199 -0.09660269351197559 0.024613268058597558 0.2544488001459776 0.08935363848123795 0.06719170401157949 0.22926751519057711 0.14929407654600466 0.02054851843904701 -0.20053410040127748 -0.17771410649388536 -0.15028205878123385 -0.0471005074695708 -0.08394136278390396 0.21016123345832435 -0.19822271244491485 0.24466574460855592 0.06308110090833037 0.08432253344555958 0.04440846748417816 0.0815093825356331 -0.010183593750557943 -0.19419330391443165 -0.10630909913354712 0.004310533884349667 0.0443034410459632 0.029229495213432904 -0.004762427549173487 -0.10277881151416293 -0.16074778133232673 0.1594811739115229 -0.030878694580878364 0.19751043634034188 -0.1673430932473684 -0.04999571933530532 0.012977707279652199 0.13226688454155205 -0.050964556550826476 -0.12433530785804578 -0.07926120087632421 0.022385310010158675 0.12990433822656638 0.09322244609145283 -0.12235071086143051 -0.24451854285431768 
0.14418289044278157 0.08991408322153692 -0.1929551027128206 0.054813979423083 0.03051454609716399 0.017837922480600742 0.12954234100017725 0.026882984680446267 -0.1564988577302854 -0.032868794204373476 0.2048920422637428 0.17069523122886607 0.04364085881466633 0.11064734602951094 0.025920036714423937 -0.1028196212560118 -0.007388594303012042 0.05873840723883237 -0.18415162799736073 0.1757692008715148 -0.11668680438516976 0.08121912668625128 -0.14668045269155497 0.18799960459205048 -0.013731939451845704 0.17524130104908991 -0.10826166536255863 -0.09364916107625913 0.04696706202676589 -0.06906946502483374 0.06914746472981834 0.18910601200374627 -0.12320543221854742 -0.15146117244427854 -0.17931228461725218 -0.10686130522397158 -0.05741100907326302 -0.166572213752426 -0.16414339874054826 0.017521398216703468 0.11006645815256899 -0.13380158894982255 -0.12335710279028445 -0.1685941617563016 0.15224043774748497 0.04700597192485933 -0.014290992844550099 -0.2835026541694399 0.12631159308781048 0.05429429226997557 0.171733827678745 
0.022127037701464413 -0.028695657042308833 -0.12797210728218558 0.14679808629977814 -0.10735904697898069 -0.17985961272501985 -0.057256693602142764 -0.0488860227581081 -0.0583043991933937 0.07917501073986132 -0.12799139634645595 -0.020783710512283973 0.08901310762853855 -0.05804392235844702 0.016257838336013904 0.1680955808295158 0.07939762426307656 0.04147866996864532 -0.10833245255758278 0.158677718334193 0.21286406315397385 0.026384782758052623 0.15786326800324793 -0.14336291833284937 0.16014124387552459 -0.15080162828726587 -0.07790664453093782 -0.030945786386265977 -0.15873166623305957 0.1707368292391574 -0.03698134028418537 0.02700035763778465 -0.013879155321263558 -0.021638257500490657 -0.11880117070642195 -0.08016678946729808 -0.00875565443723635 -0.026855221479966166 -0.0374052871767113 -0.2353270417441997 0.10674232912919657 -0.1456875021825973 0.21761616974753203 -0.06775886379781874 0.05851193423017101 -0.24363691378351218 0.09464480195290874 -0.16306988954648394 -0.010212190991086272 0.06443739041666446 -0.15477701712653902 
-0.017669511282514434 -0.1300342753559764 0.10724606536699222 0.08188370080272837 -0.11652499868298083 0.12975538807424938 -0.2182966586133233 0.11635984115649406 0.04713826097435745 -0.059752518787451275 0.12423247742855116 0.027698059247002308 0.16610100508809247 -0.05282987296031235 -0.20690984585549022 0.16777343786867996 0.13984714457312686 0.0746370637426494 -0.018967767494714044 0.0354632617038647 0.11137242429773818 -0.060441981655159537 0.12980150055041959 0.11612643530917835 0.025880526431753797 -0.023405995425675716 0.056271190437550085 -0.0839015348037569 0.13775570177247332 0.16297592751165005 -0.08593212726640058 -0.11785722062671908 -0.11882560923444452 -0.09555035044232253 0.14059979624803054 0.04432534861876027 -0.10150910968146655 -0.1337694168317333 -0.06423359115177826 0.00044911058183324127 -0.0760649342430914 -0.05344368112042989 -0.013068078665926828 0.1154069949626201 -0.011081197264976141 -0.09701926356714702 0.0681445544962832 0.022370527570300225 -0.028092360897614743 -0.006003377068831602 -0.04118108347900519 
0.11741534349333915 -0.05157287782876288 0.057471994157342235 -0.013079595916009386 0.047892815455516394 -0.23717079630831442 -0.07601223837242523 0.12037414676393374 0.022234535369223877 0.05466477692922387 -0.007275814099226232 0.035955797804589816 0.10646145114059066 -0.13492852699423336 0.02232269691392687 0.2168204285049745 0.05768120222078335 -0.09463179380893588 0.11550565275507345 -0.0766309622237947 0.18854142009725622 0.012233988411546508 0.16916765777075338 0.09048472142191062 0.16889816706848534 -0.15700566888374193 0.15744178186705388 -0.13175665453852003 -0.04296026750947246 0.2024564837518372 -0.15384019254501927 0.10006958911922768 0.0890949824568935 -0.01831213003849592 -0.050306577061624606 0.15548811880656555 -0.053537031402952615 -0.09493156493878878 0.11699817285603147 0.11917021313739617 -0.051867273121788536 0.1656297052202419 -0.02482112669321103 0.056352337791768264 -0.031145957684259144 -0.04139183419577945 -0.17726890943180418 0.19769053577820522 -0.0633076695195166 -0.1954615232904205 -0.11052045607143858 
-0.15152483147862783 0.10032018669306272 0.036949263005696405 0.09643357951262496 0.018711477227848442 0.15153733977502093 0.06661056533522422 0.09968778677964243 -0.022888241549683004 0.03272922970218768 -0.1152194021975471 -0.03837554408533321 -0.13557902943055092 -0.020003313634920257 -0.06656867274844301 -0.02429344225568815 0.17757021516357654 -0.06978876062235224 0.1625356299050069 0.04740834704517901 -0.10002964071602065 0.11001688005726788 0.08737222381178535 -0.029804275070637112 0.0753744782961953 0.0006619248386877288 -0.07314107144162774 0.0487112856319006 0.17008503803726593 -0.10078333728315218 0.17878699165910178 -0.06472264788444006 0.002867206172494276 -0.005535645745732288 0.12051981404137907 0.1589397841986874 -0.14607059317241974 0.01681139896769313 0.158748623908945 -0.04065127381108962 0.14146367950095184 -0.023108557191723875 0.030444774468244198 0.0996428723815256 -0.11040584129283453 -0.20926819119650447 -0.05831911130624252 0.14072138812514526 -0.05580091882708841 0.1813515423845091 -0.20407939994056298 
-0.03120364139509818 -0.13250251276459418 0.11983656080633481 0.09473093386551563 0.09800163872433165 -0.10382746103434133 0.06433214415523261 -0.08683307530250604 0.0113702703409589 -0.05930799036878789 -0.04468690494565004 -0.1473327509229404 0.06556521759485136 0.10747727209163936 0.0709713430440035 0.05390731621038751 -0.10160440845009919 -0.13672145635631994 0.012009641234841155 0.1445139266334429 -0.1183127832534304 -0.03109101578946416 -0.026854463992019566 0.035855833959826236 -0.1034422949400868 -0.0592263931571949 -0.13459878926668373 0.11751381476233771 0.1572397895429917 -0.02929209477207536 0.06017048731609403 -0.1888599720747761 0.026241229031166373 -0.04718568224013388 0.16329701005984296 0.029077065548060027 0.05768126403520313 -0.14485122463774083 0.011335689404601898 0.1948274596962687 0.2058676465822338 0.0742656876414508 -0.11005333782449235 0.06531286630812672 0.039303140403733325 0.003518793569438997 -0.039905968477729016 0.03811332292051599 0.15022672309508805 0.11327560410106269 0.014492345863208002 
0.20853711138608727 -0.17339783864131428 0.2378900683643299 -0.1757554198691376 -0.13692603383123958 -0.06740960008358284 -0.1618596426260915 0.07926524988133693 -0.12011208750070988 -0.09410646359560149 -0.17114351977118533 0.03880975793317929 0.12647782325277984 -0.05472138041904184 -0.13376291648778155 0.07346344113122506 -0.026388658310060438 0.12331721887591655 -0.16974775545891801 0.01755561463951392 -0.1796294222138007 0.04281182303645112 -0.04179114465481945 -0.07436970035388435 0.02995839202661373 -0.02598473768761292 -0.0305041989499994 0.15117045332242252 -0.025244334464267885 0.0898087783048768 -0.04980844656871942 0.16669611915372448 -0.034916424822699146 0.0035718972940492295 0.1786983243308249 -0.19172414188416956 0.2043530827382954 0.03227548067924169 -0.030991703242586932 0.2089037933065319 -0.11538036881073703 0.002997521868661121 -0.2081764214610799 -0.023746559819192898 -0.08448322142150033 0.0986895744574009 0.19526343073169028 0.13369182270613958 -0.03392243899852641 0.18848120059974527 0.16804618275947822 
0.01733048859080786 0.07609080232756948 -0.03001035014511045 -0.08768536530842527 -0.09149628072093323 0.06997273933423122 0.017855983438506477 0.016578286627574042 0.19425270303037742 0.02061347240479744 -0.06829456278211275 -0.10274544624300319 -0.2099495807998335 -0.09084178689628605 -0.17092386321007794 -0.11763083408296628 0.04488764437494164 0.1734242593776523 -0.30117616966107424 0.002051350410378092 -0.013618130819749214 0.09253976954230497 -0.24241246988917547 -0.13714237326253356 -0.08982164690061196 0.13257013520878075 -0.14196500175896618 0.1202834268094414 -0.05882448905936345 -0.12855173917519416 -0.13300660548341875 -0.003061821130426678 -0.020986031876709742 0.110055813241008 -0.12919927890460634 -0.1323465816026267 -0.15785007573630577 -0.16998329150527722 0.10748327562972718 -0.019374407759332454 -0.0852701807227073 0.017374516242834797 0.213518468630301 0.14143714759705542 0.09315824136743676 0.19418667988794097 -0.1615157641206726 -0.13352931757371858 -0.015236379038184868 -0.015134903517930611 0.18858888887867942 
-0.016666375199853915 -0.001317258044407894 0.12312132432501655 -0.016232650527045395 0.14908864375011896 -0.09172676489841038 -0.04579181499932996 -0.04791389153308896 0.05585270060121762 -0.08776694376608146 0.06740421292132942 -0.09960082443054602 -0.1265180040928397 0.13136828100596817 -0.08126953877979722 -0.03483720884561259 0.03676679606720481 0.004898277604246894 -0.13229769049355583 0.12193067076283472 0.17895580292615695 0.09327200454061181 -0.07197815662114446 -0.030216367009447215 -0.08057829118806242 0.018403324669627092 0.21897355493599654 -0.07199406320925275 0.08387450396311312 -0.19678421909634797 0.10716628987450881 -0.053468042970066465 0.20270880339833885 0.14758294589251872 0.138243294765973 -0.009267139155567901 -0.05218663980660367 -0.16072713559343813 -0.059929428072360055 -0.14477543360876646 0.042133341858081846 0.08744841911754897 0.015438222097094475 0.09586295802742188 0.060377694301056585 -0.15192075768108343 -0.14415723575008257 -0.09496333751489053 -0.06838157596223542 -0.1398952806474528 0.058307901142255425 
0.026443472627347878 0.04208572384481624 -0.014328013356819273 0.10223988501368327 -0.013966233861986352 -0.180193767144249 0.14659140117651162 0.04540986683309418 0.1234586129790062 0.15099502005236393 -0.17296007496252905 -0.11659961467092317 -0.13635854122269717 -0.009656007166552096 0.11606554051772108 -0.16836834883543497 -0.022457583688804936 -0.11649079690323771 0.08433739630122379 0.14546462206872895 -0.17661783126693179 0.010796763151331448 -0.08424936914589391 0.18418480015432695 0.20330107233876793 0.04182728859144739 0.15333889918441024 -0.1031175968308581 0.10979467773509266 -0.03570821848470975 -0.09359183055339677 0.13343835784755084 0.05513380761427399 -0.15723810271625377 0.14144462912394123 0.0535653632194248 0.022222116535942246 0.09759545364618076 -0.12082627678390226 0.04373462132630631 0.13443925866946616 -0.13931764276710923 -0.1386341213035781 0.10631740829385528 0.026567619224817204 -0.0019151117472173752 -0.12716012070328397 -0.044327732686964195 0.1278174762641006 -0.03486010798303697 -0.13601028807036245 
0.09033161465147185 -0.1064195356364552 0.16056361012287199 0.10501058127021742 -0.004017308425888386 0.0612084616763723 0.045287506489479545 0.06084531816231036 0.17851329702219135 -0.17500705658968466 0.1309716034795245 -0.02854818188555503 -0.11981642902187613 -0.13440549497852344 0.03051666797895909 -0.11271388574169844 -0.144320792333932 -0.15522321753814455 0.10708737572796134 0.03137341804675639 0.23867510098191194 -0.04362337655287811 0.16283284828579042 0.08550814105101122 0.013879128849378225 -0.20414140529111982 0.14158564419835312 0.18034477290075904 0.05472498624760334 -0.13338553365449812 0.15183429021738742 -0.1543622239736802 -0.033655496979394815 0.2566496434690451 0.059616487532393514 0.15904988587556984 0.07590230061139602 0.14214897321407877 0.16068565389583347 -0.037022494021255306 -0.1633929918970556 0.022691535130497594 0.11149255475910289 -0.11611113886636548 0.020138124673242986 -0.18607102859525446 -0.12261611179365625 0.18102618782860927 -0.16036161658850007 -0.017445970060239926 -0.1498355831071354 
0.15899310983310416 0.040497333006622234 -0.13908909497104566 0.11056566783587471 0.002157606952847046 -0.03783760491950665 0.057044242394288354 -0.09040661595716688 0.006273576984498727 -0.08617202508554714 -0.04391287980482981 0.10282370763375762 0.06020816108568431 -0.2664228282574572 0.14701033345697065 0.0833963462606696 0.1431030919800483 0.07951107690275627 -0.1310059403595308 -0.0978011131959278 0.013498964627296954 0.01598537866616143 0.034385679719590855 0.04604382176406913 0.11042311863074707 0.04971606542289892 0.03601020538676301 -0.13674988232155114 0.03151156917643502 0.042822953457172706 0.20119136286236744 -0.13151680229804846 -0.08506885324229133 0.027895989464192774 -0.04361553881879951 0.04270581057067472 0.08937297836617125 0.07920319908113171 -0.022337547111693543 -0.10578802005211756 -0.19697483417698672 -0.04422302831841321 -0.023855898919082526 0.058222529473408675 0.09499328647336164 0.12491877394272324 0.05062485109394068 -0.16053084881768778 -0.08183258178601054 -0.057596166516122455 -0.1063089642512635 
-0.17845817816811055 0.02738611321938288 0.05724389520949076 -0.05274716226799726 0.2336296627161728 -0.06055064675255757 0.15675144488428627 0.02684214575490571 0.06787752036685255 -0.11383970698891016 -0.0435054599258441 0.14395766079420177 -0.03370871734948611 0.17556295894971713 0.2017877422447679 -0.044186648505212305 0.05759626565912943 0.1988813865879174 -0.16817111011489264 0.18088223433530887 -0.147262342836445 0.15060614907195985 0.1084858951469993 -0.06625085281497796 -0.24746398010895748 -0.05406420499591188 0.1482787641511963 0.1861294993597463 0.06251450235401547 0.1660249604068978 0.09953936831878961 -0.10092751314451517 -0.03529070858394378 -0.027206003637003307 0.23025143880087257 -0.10864706064040239 0.18295791237551318 0.019451540968740008 -0.1734043524115859 -0.2129615928004134 -0.1980231651928966 -0.12269740845238054 -0.011648138419835778 -0.09383751307666234 0.3087663211902093 0.1550074198849079 -0.19507053222171203 -0.10578141519283243 0.06831107139109012 -0.027858253539854688 0.07459937767728131 
-0.003882797094765052 -0.1709804694785204 -0.07069496144141227 0.14940596795969857 -0.16110057276507464 0.015389406165040073 -0.157698757760976 0.04283158753377315 -0.12192058274826371 0.2321591890194945 -0.1522405122135447 -0.20595733134425487 0.1552204426990638 0.021839953703718395 -0.07465846583570222 -0.21220708655999493 -0.1852394113794256 -0.029070431528422154 -0.11075486319111884 0.14715584088919403 0.11019823734463438 0.1191058804306166 0.0072800876428007425 0.09521561193364601 -0.08152942026094624 -0.08347407927104612 -0.09753434946766017 0.17910049495717853 -0.02772803435420061 -0.06914828915475187 -0.07575291152412758 0.072692840170828 -0.023905111284589803 -0.1494486206664323 0.15017224215513977 -0.09576801539553527 -0.12638559429793525 0.07357085012082336 0.0869316690625298 0.06896857556635003 -0.07183375717475778 0.008477603791344246 -0.001309313556580411 -0.0006524357337775052 -0.19516475758377308 0.13831584553244397 -0.046586187241785516 0.1943892017497281 -0.04530187705166789 -0.04852345279429143 -0.05635069235768386 
-0.08893166840812974 -0.1919056095792418 -0.09180506378526893 -0.1547790118168824 -0.06711562548892654 0.22153417814009788 0.011302433897756568 0.017488048573297596 -0.3229599152768512 0.05155221566414729 0.11512252818942377 -0.1480577119747264 -0.08866118544551936 -0.02776374208688223 0.14546154634783984 0.21238569525687268 0.1527035970015039 -0.044282471718021583 0.019380511467336697 0.010995312731300137 0.09929130844559049 -0.02153219739014241 0.04475722902165299 0.14165082470682858 -0.16886180808039572 0.05514466701676173 -0.10192102929026864 0.07683694525059542 0.23367913934982387 -0.04124645183995135 -0.08937217364777422 0.11710589809761911 0.03782795104917913 -0.06253678410664236 0.09359679782694624 0.06055694502458336 -0.16241469966841302 -0.004837227357318986 -0.061356563946545775 -0.12114717578886793 0.16481515576952305 0.11557301544334411 0.04728916329238696 0.14022934695464487 0.03307662159802094 0.0529569662670801 0.11685338365423413 0.0677400935214653 -0.1421709867028015 -0.1262258666967043 -0.17587882528429602 
0.17684931929902947 -0.1050396769647072 0.10059489049429099 -0.12794607782459083 -0.08948567476178194 -0.014290630427061333 -0.12305303186994145 -0.012630434944279744 0.031054132239053404 -0.09298620672281992 0.017007211761101412 -0.02063469176017087 -0.033417899551352395 0.044922989122581754 0.05480245633950668 0.10356174970280861 0.048530225045511154 -0.08304155862367697 0.03456487286886869 0.1326499250131444 0.09112856252093499 0.15454428212881363 0.009584591919723598 0.054637130250066335 -0.14461761007756235 0.085780671142564 0.03663217772932507 -0.16791877324393878 -0.18148407756681434 -0.04024494396917089 0.053060658431452766 -0.13964516983377856 0.06418258273692865 0.15379408602024314 0.09683454395251623 0.0912506183943154 -0.12606330784132525 -0.06874680545966683 0.19486099562138479 0.13985183211175808 0.02521623821041914 0.0892992081611855 0.18203195950128917 0.1654954484230675 0.23350900355799772 -0.10466320621613588 -0.19207040696677863 -0.152542317263563 -0.15197050689183275 0.1882640358798332 -0.1315809580494069 
0.1060924950831979 0.06683943898113759 -0.006477638226209247 -0.05607143198375217 -0.04483262838708683 -0.09259324506181263 0.15419856629764178 0.0745985183197741 -0.1752378074817872 -0.028774934912541784 -0.06734134160024108 -0.16675527994783246 0.11974788353341052 0.07202845946632631 -0.05299247218362335 0.08131818424120871 -0.07310746062647291 -0.05904633015493288 0.1336206705520912 0.19219151102614196 0.016704459950075357 0.18160652691667076 0.14333942759764365 0.02801535630309765 -0.017362402331959192 0.0874528938922506 -0.013482891165689757 0.0382910567611518 0.17771659836089498 0.10687108385211658 -0.05970771877086518 -0.12814821483080216 -0.09765367299022064 0.003111301864259593 -0.003856305001336975 0.10887551136618748 0.1551939503619915 -0.13766486452040064 0.12447543009497113 0.16514496230318818 0.1599036460807013 -0.1445344918368204 -0.1740852338927226 -0.1548525734203796 -0.0749527261859652 -0.1662593006351974 -0.06341789945393289 -0.020955846817376545 0.16744733495883857 -0.02445906886716052 -0.06829895847568827 
0.002726844085767436 0.12147256501601783 -0.1207257611004456 0.01828643460217932 0.17430728937500437 0.09067695236552933 0.1880559787922892 -0.010444796536303383 0.013504546964130018 -0.12260383947543955 -0.11226395017886727 0.2222957642582203 -0.10534600886785868 0.1665358167873293 0.11606335680532164 0.1510914838929691 -0.1027496296063515 0.128892970393 0.021807004307419574 -0.18134201029932395 -0.03488652292213507 -0.1656615769358615 0.033094937667323486 -0.19635622757766816 -0.13430380269396175 -0.1865507944809996 0.06661771109627587 0.15150179810927444 0.066544332567411 -0.149280685863716 0.09559655048423642 -0.18988477122324596 0.05662474229850564 0.1786053435151346 0.23081811576094816 -0.2360300735009911 -0.06575132067421673 -0.11028749668618629 -0.13010363668891056 -0.1779355138773893 -0.0407197041625955 -0.17820056221882444 -0.02090746542087006 0.034202356967651754 -0.041966097649086084 -0.06751287430780752 0.06058291430013064 0.0010498067599189374 0.09791317355471645 -0.03910450958217903 0.08333398396501937 
-0.08828419229478633 -0.034577172840823976 -0.05156744718510774 0.09345683131746244 0.15506301372955172 0.13602795416847938 -0.10403040729584064 0.22558151466051346 0.225315488352189 -0.08967316660358546 -0.14171155164140103 0.01708900766375971 -0.14907316728638423 -0.06040444793516484 -0.1091558785903388 0.1716011431803298 0.045384163557388765 0.19987933574680877 -0.04326521255777676 -0.05320954683236115 0.20179959100079137 -0.15947534979262182 0.12315451215831373 0.07152934783123416 -0.03895727279909751 -0.18915525455553517 -0.0331324356281874 0.01134802395243355 0.15998392168830577 -0.14298034200589727 0.00525615550818406 -0.05478166595022903 0.11396801244352806 0.2543312306900733 -0.0696693459459007 0.12780686823986953 -0.06161369975143845 -0.21228120647478682 -0.1011549496625836 0.20070151322967936 0.12785097817046023 -0.046263083567388445 0.20612981336904107 0.13375725432117408 0.003516093412148152 0.027894407511554746 0.07057112063650285 -0.12945797368626913 -0.20046568634312378 -0.12062691951101721 -0.19618970811228584 
0.12838923440353167 0.016725266228776747 -0.053592638291066884 0.0063068282882174495 -0.11484434329400227 -0.16695642393839633 -0.09424290271990651 -0.12640217624538433 -0.17216018673806693 0.14837957023721007 -0.17403369213675726 0.12257693239232514 -0.10662087165418489 -0.11450447098378051 0.05050487939551474 0.15193263137613103 0.17181816738610095 -0.15500487048174702 -0.1769418613263288 0.08736621859285877 0.10638538836907875 0.11206633430039782 0.02890411325265363 0.1348438721230611 0.1708185556926698 0.013761287195500252 0.04210514894946511 0.11267948082508943 0.14972036682947562 0.07492063482575018 0.05209821150250496 0.017699317619617155 0.02995965668063949 0.11575992646948818 -0.08035439778506528 -0.12327499767059674 0.18320089919520913 0.0735643170704715 -0.0794950882608628 0.042475371841376085 0.20783608622525118 -0.19507409979821333 -0.19123625876586778 0.06986458284397082 -0.11320836465035455 0.11324243204387935 0.03100173342944917 0.11898711705984356 -0.14239589793210963 -0.3382036053689599 0.12217838201080497 
-0.016786789717420925 -0.21059928139601958 -0.05683576709873676 0.045063453131910285 -0.1836639218119033 0.17624038427540384 0.16102671311462868 0.1594454518753045 0.06143964907066274 -0.026645927362783595 0.12705902856343604 -0.030766415320925916 0.01200653137379674 0.07351278681450589 0.008800433283696202 0.17530332997845569 -0.09114353650856016 0.08325873867924094 0.18321821773129096 -0.20693564139668674 -0.021423420285450988 0.06110280852495557 0.1441681545629041 -0.10384978558226701 0.1179290212793772 -0.06456689184602175 0.16935676296534716 -0.248064634979379 -0.15110728103115106 0.18829412969077736 0.10437358085370424 -0.13205344653893386 -0.15010447978178704 0.020300441440926825 -0.20525382638970066 -0.07018329610818347 -0.0968547134594094 0.032562876540607404 0.03939026051697942 0.11871482504854951 0.1311748343236149 0.09490763311189113 0.031883738493940245 -0.04952722033503248 0.16486825270622235 -0.16917237999195378 0.13507770484724893 -0.04363638911783107 0.06785576738026626 0.12412256929294514 -0.318924107647506 
-0.12052253023678844 0.04662414969231236 0.16965744422483903 0.04167282296818238 -0.07235606836447196 0.15669305963761837 -3.720700413729374e-05 0.2254562989467114 0.07854216340159453 -0.14919540259559644 -0.10371034723123021 0.16406852246534825 0.10888414616495379 0.15107890986304617 -0.052431475716470874 0.04036357018932369 0.10360827681084561 0.05349653647138513 -0.10224642778461762 -0.08687399720511986 -0.12174913801667672 0.11748978358666531 0.16055261181924557 -0.0989811915688598 0.10512850974819456 -0.027085016386272507 0.07855451695690135 -0.25323979646202655 0.039088620020062866 -0.023184352441586835 -0.03513848589569198 0.11743584910881694 0.20260030718480768 0.05025132283258112 -0.10755118592596495 0.1722241983778569 0.14544377101062364 0.014000949499975754 -0.06938030327552748 0.1499887817574148 -0.11551722827474445 0.05675450423975403 0.09707137886811795 0.02552394275780681 0.012975723666204128 0.15974266963731057 0.1739191692694797 -0.1308683257561043 -0.09288876005885405 -0.20462009871460188 -0.2601080090923602 
-0.1283495958899661 -0.10952028832211241 0.07911018339471305 -0.14403689700880667 -0.1186788840932266 0.19137837587217882 0.12137241921781262 0.003761339130188126 0.16826584167892883 -0.21538663222525248 0.2288512691263717 -0.03620709671234725 0.23558966179241705 0.1988321989616983 0.10156218266380808 -0.029035912057852862 0.10041916914762304 -0.05441852262838056 0.07826772017999738 0.031423746747105276 0.15683570109519412 -0.18917561982689593 0.01797632080980263 0.05923716884097317 0.050025882313974805 -0.10099932518754229 -0.07783914289070173 -0.10240318854050895 -0.02845369488603452 0.1371470851578271 -0.010468838793166851 -0.1565817997120437 0.051845931981361545 -0.08693988395843422 0.004819462468211097 0.027960451455378423 -0.07012127620020582 0.20846032829547562 -0.20387765567770627 0.12191438233496983 0.19640949782905467 -0.0338781554329383 -0.05136334114215063 0.0364666373751521 -0.14890990705740326 0.08212497005070271 -0.1348185024446071 -0.10380944517904842 0.1682730472960832 0.11448402888411283 -0.0053745317056402495 
0.16561070729621524 -0.018662630123183272 0.21396087532813762 -0.044696773087565256 -0.04808884776293878 -0.21036977101915877 0.22071552827385546 0.004797923852986486 0.13318966092505588 0.02201308353273701 0.06256943841852271 -0.2401572781263228 0.19065089839430135 0.17346169587120747 0.032608264109006926 0.16720817804351767 -0.08926436258867047 0.05785239665061247 -0.08876748537624582 -0.014400499136684966 -0.03827038899492222 0.07912444372398743 -0.10997354293475528 -0.1699712416570652 -0.14083108578255163 -0.20395328880499952 -0.04541946116641615 0.1812541400523179 -0.12719066767771006 0.0898196001399233 0.031530168959937835 -0.058083870369861464 -0.09073989894613438 -0.07852112295831795 -0.13819232494096015 0.0575802128245276 0.09565795796443095 0.0343109601802516 0.10759294676612126 -0.10648624415888157 0.16415836460368785 0.13466187238668942 0.14549838894238828 -0.08974652506948874 -0.005662982223777946 0.021636161185391158 0.1273041531050647 0.13823943688613155 0.029766935985677107 0.030895408873853027 0.08849641937894379 
0.20872046318518742 0.01358823815938051 0.10493580258803917 -0.045459031508899586 0.1717181904144925 0.02812239293960178 -0.004939971307537827 0.17784582900193005 0.12127924371491415 0.10490222038541261 -0.21818823135321147 0.045240287631604044 0.21634271425240473 0.08143903153289347 -0.025130186216923114 0.19561032749934334 0.0008762358123186791 -0.13502999914192454 0.20532143599710978 0.10880803654461797 0.15321372813464848 -0.09357462576969186 -0.10822771876858528 -0.09795277768938035 -0.07064612803206083 0.0878848873753262 0.0927476287893682 -0.0802766107177499 -0.20004969653434562 0.10485683959657088 0.040727402060676675 0.08974062952887328 0.04908456906772583 0.019374939253613922 0.09968171276192732 -0.10958590289539222 0.0630326321642906 0.19543268559174326 -0.19390026220993362 0.07568704974272426 -0.13238509646301191 0.04448699098974547 0.038288291795853184 -0.20948303648451724 0.16744523833550257 0.053429061793223674 -0.08399184563929449 0.11218792781709006 -0.10756261388908434 -0.09103376778751793 -0.1736113321601859 
0.06444260721515155 -0.08713235737673104 0.07984056434308512 0.06644379864558432 0.03626340223004504 0.0953830689309624 0.1342301262201178 0.1363363260834656 0.06896864955587122 0.008002271827855543 -0.03380777038931361 0.10099880690928863 0.03967227023190458 -0.09764436471578734 0.020013860027917378 0.1274471609638611 -0.1431164011951468 0.17962775845411577 0.13741185208872242 -0.07070661466329496 -0.27991398386758526 -0.10950805027457078 0.1897176183465606 -0.1581750608423473 -0.07943126240285868 0.029822279549471552 -0.09384773581497964 0.1747286288103236 -0.17410427256180888 -0.010691068031393768 0.09367929602395389 -0.08311805205521067 0.03238906883084288 -0.052838399054667 0.15639528794426097 0.08551382865283097 0.022971312249407787 0.05702496695861219 0.010431897656579047 0.02110101811757942 0.10037464356972883 -0.07385829389987525 0.07349426996372697 0.03207931036816017 0.21077820129254726 -0.1389012061743176 0.017347469208680504 0.07418589868628864 0.11473313470983684 0.0956803485146324 -0.009015806330312418 
0.05661520540804064 0.1601529661788685 -0.10097153367338482 0.10049271822915203 0.22834728709170835 -0.22224569301266994 -0.13871223550686462 -0.16956947589641133 0.15227681835279755 -0.19758578035076932 0.13780877458738125 -0.02241160320658817 0.2164431464872973 -0.16954350260924816 -0.01634990287229996 0.08992059347530865 0.11719790463910973 0.12497726886852248 0.0019393457936006883 0.007656163829823204 -0.062307307715739176 -0.10264875897551873 -0.1295848990076913 -0.09530290492508536 -0.139838171061953 0.11297311548931735 0.11846088269022897 -0.006274536210049479 -0.249882902316495 0.011734620993720617 0.09238414017676808 0.014898675866878583 0.07571528467487057 0.17727881885677646 0.1290807814636698 0.07878967362427423 -0.07308466369006816 0.07506006737897197 -0.26120806236909516 0.1292997259875758 -0.10910820977890506 0.07380428158604967 0.1412955939521428 0.11326960984114445 -0.0763875163653674 -0.17444307147073268 -0.02250977740235375 0.14113252263753687 0.013570418870593905 0.09338125149043469 -0.04513249887241382 
0.04124142685654831 0.17344604053015622 0.0822792306372548 -0.142082276930498 -0.022035996629099212 -0.13071909356385703 -0.05285976849118007 -0.12956383095140225 -0.16842283860334833 -0.023156063231186172 0.12755354316900405 0.12735943614629427 -0.11431449890459312 0.16444916907207532 0.10019895987632241 0.07587035730676168 -0.20148783139586365 -0.0054692890129870355 -0.0450870279266376 0.08574307308651506 0.03141193096032942 0.0507312318835537 0.041562518141703336 0.20952843268707683 0.19198922400359428 0.17646795103582366 0.01364969725130914 0.11962596798623311 0.1658554550006842 0.08601290750230248 -0.08185225455104686 0.07545148677640781 -0.2688891194302126 -0.08849300488701226 -0.1896529049008856 0.03749427357058281 -0.1674955138976125 -0.04639180600133288 -0.1880241343687745 -0.11963892466902437 0.2283398700013396 0.0588673563538444 -0.16382699601647494 -0.06423462288310326 0.1539463727702437 0.1319250300965588 -0.10753888700490741 -0.1184875727946318 0.0758079879866438 -0.13506047010637753 -0.09172268496777457 
-0.12971847835585956 0.13705177636867516 -0.009346206850460491 0.018806650947668792 0.01441348746014117 0.13261619711377 -0.03870095991676753 -0.14480727417406739 0.09488658687815703 -0.16391360666850832 0.18118502272182413 0.05456421383366031 0.17146899525132697 0.04415942100459011 -0.07662454840888307 -0.06271034935620784 0.05004409412620375 0.1514374359076504 -0.09778333948670101 0.008713498029585688 -0.06578043808643033 0.10092776698503625 0.1541981139426271 -0.008997077293392797 -0.09158282538753795 -0.1677837311235188 -0.09331081889916033 -0.1477193187415881 0.000478414263073691 0.1085690126205201 -0.11563520934055813 0.23519571593593502 0.05202700852722843 0.12735790668015015 0.18249392761263564 -0.04554153031003621 -0.019126207327399856 0.09016569807299032 -0.005420740014873205 -0.05587098591174597 -0.12291551478132828 -0.07594535650231618 0.10100801872237491 0.11317584144504068 0.08445784205065475 0.02096517988441496 -0.11581699488252649 0.07639200975498689 -0.07837332355435443 -0.16020038759845742 0.08428218036153669 
0.01472692206335026 0.0014329341577817378 0.07582993094022729 0.20208895350982067 -0.14831024756142186 -0.15225147419398116 -0.11720101901464593 -0.1345902675697552 -0.021031539780407765 0.12238112475798889 0.1268723216747178 0.048302403635377605 -0.07254022299895378 -0.09591142161084379 0.10248918020648082 -0.08116098671537136 0.012093434755246038 0.10926285687918626 -0.08398033057229605 -0.12877508916840205 -0.12623036453937703 -0.1230877459808913 0.16675894091862647 -0.1505978419166777 -0.0858644257529335 -0.19679577206847926 0.10403382302834205 -0.07422041192459412 -0.04865062432461289 -0.09618451540193688 -0.04732497192666647 0.004405710645600401 -0.02392746707622347 -0.033035237921810616 -0.15553769988280752 0.11283137433413028 -0.19007976766828766 -0.0023509632060075124 -0.07866267273387044 -0.10377323995844026 0.1264726150496439 0.031746585695154345 -0.1235302001470577 -0.01971831937538503 -0.09062907359494662 0.048521632921027374 -0.12153185206296006 0.06924096238262346 -0.0522818194721449 -0.050140253634419325 -0.0754261124077189 
-0.09725834721900736 0.060332682936787445 0.24676482848077644 -0.11414756734971723 -0.0565258831174431 0.055597724777867494 0.15273125893792608 -0.16214291106119713 -0.05785162012702559 0.041079606202992204 0.032561086941888626 0.10450907137534178 0.13358635674208744 0.04598799161272572 -0.08020199518087132 0.060452648055680756 0.14196999497156632 -0.03813124948719915 -0.05995516227751261 0.03915142604432666 -0.16362903128253029 -0.05059324281384221 -0.013004445516165388 0.058050221742195804 0.000973906905676516 -0.006383995923275019 -0.10590826190996087 0.017651540126602312 0.13145116563332834 -0.1950343869996683 -0.07865446159403461 0.028029332234032568 0.19093651689627625 -0.05547603633008558 0.04619429825173096 0.15322343366509958 0.22648904376318657 0.0009492342477902358 0.10382108745064353 0.21265731366760315 0.11464846458013901 -0.18467409091796635 0.016404965003888508 0.03787213897821441 0.1642730672612254 -0.06317256625734224 0.006514697101896888 -0.07224056115187336 0.02646202541681497 0.02918510570187763 0.12288869904857641 
-0.001140360804483651 0.02474418277441349 -0.0007249461451490964 -0.03025646344794306 -0.1973924077309326 -0.1519312851451728 -0.042387870213087014 -0.148445137994051 0.049830906379950836 -0.002880205549515256 2.824697330202376e-05 -0.0656429348799621 0.04697180068509272 -0.09065221036695616 -0.14862540047297196 0.09661451954058786 -0.017189326678592975 0.15220755230796348 -0.09761010511208952 -0.17471465290514962 -0.015163765318897092 0.06801290769651924 -0.20731903677010807 -0.06274105326447471 0.020303003949617003 0.015273535900227337 0.07718430413710174 -0.14417060588926425 -0.07692173426614415 -0.003488666423144506 0.0824793729756132 -0.06596877764879852 -0.016822848364610017 -0.1801919858846719 -0.18268051472717725 0.03487992542449759 -0.1474710116363139 0.05337248981715854 -0.014083572919791761 0.08107129520760639 -0.028800401537823723 0.18330438059087711 -0.0038976383767650113 -0.0030224953622011333 0.05241058086409361 0.01420366927468473 -0.09369600765864522 -0.036364773798815656 -0.10829552186696412 -0.07774294805084705 -0.14707384074272511 
0.007519867214409591 -0.07458914145886723 -0.041219187667428915 -0.147295584213391 0.025845494051421156 0.057179937174086655 -0.02942841477946757 -0.04088334057892729 -0.07918638886231032 0.028661469185649675 -0.038851076299434906 0.15607756707930787 0.11162291859424295 0.26999904799668567 -0.0874530681920048 -0.0007378537684115803 -0.06285157287228756 0.07531965030697846 0.05852120865566351 0.12245428128385422 0.08424962088370584 0.23452715705952648 0.08798081807898528 0.05758088156731879 -0.13549595456582886 0.029710199971434224 -0.028894333461576115 0.009990384948771401 -0.305969824813082 0.11611599936769683 -0.10651059811201949 0.1130720979774866 -0.2452469696917909 -0.2709194202545474 -0.18686785508407547 -0.23198177650355223 -0.03727594690679768 0.17937397830679414 -0.04876986524615394 0.031764726781238324 0.17808346714107776 -0.060822982191888385 -0.0651232377993684 0.11234026133648248 0.03393645365703792 -0.19616434397803081 -0.04179243496702312 0.11489241584086024 -0.12980256566971526 -0.1564497453622477 -0.13656014922362472 
-0.14577503541508766 -0.03984251720368453 0.1303038909626172 0.06148715802283987 0.11718443483510037 -0.0455980393125899 0.051676625602203353 -0.2311988736908756 -0.10784947740469739 -0.10571338578257211 -0.034220335535185706 -0.06893642051908394 -0.07766743082512018 -0.13649603093871038 0.2423639629462032 -0.030059941527501844 0.1666442465316241 0.141313380551369 -0.012854057361054947 0.015667606190290742 0.021648470869870148 -0.06601638443096994 -0.16176541239068273 0.14312730902038104 -0.16195136355204368 -0.09275113941700612 -0.054199465731686124 0.28034639595885863 0.2377075055261952 0.14152220171855626 -0.11172055891872047 0.14039493998731487 -0.01050082959200707 0.07199841461767412 0.068330124746663 0.17170191654428738 0.036588119739073055 0.12810731647332912 0.11226520384272426 0.04134123630075197 0.12428906221525887 0.11264435670944078 0.06772404328752345 -0.0882074640799611 -0.22467639699421466 0.09992982876206317 0.03837762776151541 -0.04347697911602994 -0.018192332260447565 -0.1827930395567819 0.1966327866641723 
-0.14557192753914067 0.076153660597594 0.11573722644470147 0.036482979132987474 -0.038515402165453266 -0.09307573613809442 -0.01983917154293848 0.245763735593698 0.10386456786223379 -0.00600855825753943 -0.053731629029432605 0.25284446750085016 0.05907842618529508 -0.044444179659949866 0.04648375932110071 -0.040380172365567464 0.23237344405050883 -0.16065994661080096 -0.12205967311456759 -0.03711081956889051 0.004398191192238044 0.0550395606991042 -0.1932296364032238 0.06182286838896936 0.0645252205161174 0.041776061886479685 -0.1405298509833688 0.16239512620423918 0.016594318248779986 0.006398876871720096 -0.04501332812970561 0.050179944492552225 -0.10789570864119093 0.030362575562117484 -0.1422995310874619 0.22570572476662668 0.05558564581294145 -0.07033123931875558 -0.08831650659725729 0.1077293713621492 0.12063107370172098 -0.0558627136473935 0.054685357465275475 -0.07873843213610714 0.2595739214934806 0.07506467471907817 0.12857925291910285 0.18028319243313262 -0.0990815658843286 0.07531441138278111 0.14229689491000375 
0.08385812507145536 0.11647363998666609 0.15028217868354213 0.0499420025799174 -0.10979193712340275 -0.032101174165909886 -0.04955409634991008 0.225427684071687 -0.08751307650794528 -0.06848823281546847 -0.14139005038374614 0.03203198341733884 0.01752296825917662 -0.02987378747164344 0.12635115319868737 -0.06625587477730618 0.04435329902137708 0.1018483448541524 0.023412791700862745 0.0017452466212136547 -0.05896261789038658 -0.05672233640491925 0.09108441802637846 -0.18186589017859736 -0.14612644638128122 -0.11717438711455345 -0.007111609251241155 -0.15602995272359782 0.13809327227223328 -0.16322125768017542 -0.04288964319512588 -0.02239463094949256 -0.07739665677929898 -0.019084954515635768 -0.162995159227515 0.1305685136765443 0.08452849029159032 -0.09039898081056064 -0.1404723884552089 0.019575911827303328 -0.060547686709123805 0.14873952649318162 0.05068564848638394 0.03309643083200508 0.1361296749826581 -0.06096112193532118 0.05906329294585453 0.08957713808556851 -0.12572630443877217 0.0323850237465183 -0.14832862766546576 
-0.15444995363439462 -0.1375812552677558 -0.020027636324465317 0.17269717020509381 -0.028819093363644223 -0.1523474850775149 0.13715889727005318 -0.0021511003533452562 -0.010070481000084968 0.18304594032540558 0.175595797165094 -0.10041150913791938 -0.09879842905115936 0.04413382240294285 0.11779862564649345 -0.07554706760232803 0.012737299001717306 -0.20176594885263527 -0.0945913805816611 0.10838241927855474 -0.15516641525693486 -0.07215821782470604 0.1300233952873407 -0.12278779565506052 -0.1463560593356166 -0.08605814694052437 -0.06093151447741321 -0.014782749492040495 0.11047582233653788 -0.22509032924273317 -0.04336322207941598 0.10030084432083543 -0.13736729076303575 0.14527040260028654 0.042298262992248724 -0.11975574953672195 -0.14442589552965404 0.08324329677012204 -0.0355070506643297 -0.0308621702113113 0.148130530636991 -0.1269912100021173 0.16852321030248765 -0.17667258764448365 -0.11145436938894954 -0.08825149788544363 0.10135911515885981 -0.06291058671153242 0.027877706665055454 -0.13886585819871589 -0.1034104754912336 
-0.010245725961874261 0.12260246687052831 0.021245581829258328 0.12935636548968246 0.08615390513555517 -0.11327243270167177 -0.10783620146318398 -0.05107618331421143 0.1526884788201993 0.17239312587215963 0.09416736492125127 -0.07375675602730095 -0.026754296341680344 0.02195966316676805 0.01965174697004072 -0.03382930163324498 -0.10077056702976708 0.11249682537148711 -0.12842406527965872 0.12343526575124673 0.11793929578852853 0.08271247114253939 -0.010498188524807495 0.0781951573250087 -0.048662266652993266 0.09821217788852768 0.12058704836069674 -0.12957226290021093 -0.01028156868969932 -0.07289772487275138 -0.01883281085764436 -0.026254352118330253 -0.14841401715208852 0.053037954774654235 -0.12224812538774116 -0.062515657766354 -0.019174099928921527 -0.05505326343366763 -0.021771216140971935 -0.1028368545534036 -0.18365364215795504 -0.01763940071537834 0.07172784723864142 -0.11014418515056988 -0.07807222538277898 -0.06459152968018611 0.11615941317557466 -0.1954614312824719 0.05810529200771582 0.05229491829529389 -0.13539209850520809 
-0.045771145171392594 0.25809559292934975 0.0013204862439410894 0.04680853039076965 -0.017550839617689686 0.014081638702446143 0.07036881506019639 -0.19100202640402167 -0.05071281886732976 -0.01105565538308012 -0.11576547403642375 -0.0394144714467036 -0.0840141468850585 0.1497322754459642 -0.04860495018154505 -0.08443969946764361 -0.06236954508180599 0.03868622543310438 -0.13562845561653686 -0.15125458811762826 0.05759425655154713 0.09904266144180268 0.0902389239431789 0.13161966863754393 -0.10275191326665786 0.07637888872790122 0.12544997932944765 -0.10848011187186932 -0.11707891540117744 0.03764568863808586 -0.04778471843222613 0.05858579176997547 -0.17408415693001514 -0.10529924736197335 0.07615611544062645 0.15626186289368948 0.173191597685819 0.1729801997866094 -0.1596827960735533 -0.09846247710468739 -0.1376359369818773 0.012928926546672858 0.17699620268831345 0.009654013723658667 0.12551473537065702 -0.11509671108431305 0.12466607032699137 -0.0071711161470161796 -0.14667695065046105 -0.04847890450349576 0.006776707505442398 
0.15699124054184163 -0.11771941533829958 -0.14899267121768967 -0.12300408681121648 -0.025522307252364436 0.018479353284579267 0.010655455458741893 -0.08000201329838887 0.10597138221265585 0.10552325003610553 0.15208091820278002 -0.19977292934869187 0.022873610911844092 -0.0368485536654432 0.11871704229084454 -0.1518817526348148 -0.14595264588545787 -0.11022182402490528 -0.02988383597738784 -0.06251975469771742 -0.10954249891651524 -0.09571989724603568 -0.04346754009138391 0.19083406479299667 -0.10072914462520174 0.11375736865398643 -0.07457681408310211 -0.18104195876720255 -0.17503371726235162 -0.21165929314375498 0.057031876877631164 0.053589911462081655 0.09987992013733892 -0.05683717772095917 -0.04809731390426239 0.07277004632976694 0.1423480908533231 -0.06760575518507231 -0.2624264314763206 -0.23803873752008323 0.09712236136271146 -0.07005273010038589 0.008961766786950877 -0.09540100891551341 0.12259512029025549 0.015988954090582173 -0.007771976993459439 -0.1584363336619012 -0.0035062064065658773 -0.18707414242519155 -0.06700812813103721 
-0.04634554914689168 -0.06972989915546104 -0.1747988008866927 -0.0017871079341244605 0.08924922551601953 0.11732811499654941 0.023156293400704443 0.025859096597589365 -0.06196414199531877 -0.13640607860696877 -0.1914919888632439 0.1323694212467577 0.07804756947732702 -0.11659192376706458 -0.026360877676394792 0.0014863264537407106 -0.08405701718891784 0.14508073360123724 0.0366861084499648 0.03679598062528346 0.10426875220940632 0.1610556101246648 0.05850103500129448 0.12333580249163888 -0.02478105000417383 0.03422092938642645 0.1855375480958635 0.11830941411966434 -0.060125941798780065 -0.00217057480212572 -0.053967637506746345 -0.05453842136114825 0.07737903800180415 -0.11164834903630846 0.029653918330855632 0.15768563092366353 -0.02640243651587108 -0.15018964001312796 0.0039411690270967515 0.16887766981136715 0.08690421244396504 0.0822799491435351 -0.173599494683363 -0.08841906232611312 0.2304039855529467 -0.10615915809083781 0.003246528199400007 0.0906914176926505 -0.15831888076890463 0.002575122368678995 0.001049440001926815 
-0.09468734073282484 0.11798209277487808 -0.17097125697952784 0.04257377261821044 0.009378660899202309 0.061483115836111414 0.047207433027890724 -0.2298446401860787 -0.1524361298713821 -0.008855612674837135 -0.005891924548788345 0.05223709850900187 0.15175298507199003 -0.09597277452359303 0.12567895620917421 -0.035709059701386464 0.12085322868492547 0.08253311375894486 0.06577606029942239 0.007271264108518989 -0.022659557474771524 -0.05291368498186563 -0.14878203924016162 -0.03041205382030457 -0.08815995042053056 -0.09512351810865217 -0.06934729171289662 -0.24332375919267082 0.11118936417893462 -0.14140574451514443 -0.09797311463868434 0.06276046342444735 0.10801748029336325 -0.07668765623210158 -0.24854255217129162 0.2262344253260154 0.025523940979042585 -0.03100393457823422 -0.07003000666225632 0.004067360005915642 -0.03858073630389243 0.20333098853113243 0.07650079748696291 0.22662859927860896 -0.09039758177181767 0.11065289225135658 -0.0728660871599364 0.0695704131499565 0.06384429116456401 0.1830197646936109 -0.08153573011242389 
-0.015832257938172074 0.12115438506022594 0.0893836256726645 0.1550893320344441 0.17958129185117858 -0.14213144322999846 -0.15735162819665616 0.06133497343548225 0.09554627951625551 0.019057860575224562 0.11314470925304974 -0.10303756507873135 -0.04922116858547039 0.019676929101396446 -0.054410477740699376 0.014413314628148034 0.05196103846621131 -0.08646167958682298 -0.004446341343950382 0.20553572139727896 -0.11736748621173801 -0.15719500212460383 0.15728517796470098 0.020485857201990438 -0.13974421082512856 0.14138476952479134 -0.039838930048598446 0.23734357164752456 -0.08016870537279663 -0.13203898189080937 -0.12962035296830177 -0.074479226250008 0.11045664916680493 -0.1210977675704814 -0.02036067834441688 0.1513910759542382 -0.01419817335329179 -0.143662960837627 -0.19353427566133613 0.0660039020751048 0.20602777511730644 0.0838974816038131 0.12478816754832923 0.0657818636888816 0.1243440998123443 -0.2033933623437004 -0.06528570608661317 0.14017519825835795 0.1422854147374749 0.10337452100820985 -0.1078512580771067 
0.17552157011926298 0.15090207737341674 -0.12888961584271463 -0.09509489113726022 -0.06925149832626089 0.10818472219986222 0.11312527451554569 -0.015544931254972033 -0.09299592750716863 -0.06296575208076731 -0.11257240273352634 0.17304389601136227 0.08170952293715866 -0.006251367971153283 -0.01411391514271356 -0.12532297591753758 -0.09515178072828726 -0.18300312032887117 0.08731375202105546 -0.0036754696629785182 -0.12619830595329906 -0.09035176224792023 -0.11550326041246986 -0.09484114463349463 -0.06340956049833306 -0.06955706181212905 0.055136283159483296 -0.15123324318570006 -0.11995230274249392 0.11170371655620034 0.15707845406352156 0.07008000410977278 -0.11377561860103035 -0.14376010986832838 -0.1555130852242785 0.15383878978173163 -0.12364708046175532 0.13436862609418646 -0.14537017142943848 -0.2018200161366471 0.07598455009091634 0.06968789719483211 -0.15311425301417447 -0.1576263488634312 0.17214804955326551 -0.17746678534069515 -0.16430700720095306 0.028868659733124788 0.14633168827632984 -0.12108557739727133 -0.09849519857288086 
0.05651860670486855 0.008625729194851368 -0.22894265377055736 0.12070458111400777 -0.14537998301672864 -0.08207117525156533 0.10189488984220968 0.03641734059107866 -0.22711992913033363 0.09397473870281757 -0.06175930015045255 -0.06901609066848215 0.21792363943160958 -0.11810371582941476 0.07001133542122848 0.16456564089718986 0.1558338589688772 -0.19283977150882178 -0.0837400668742372 -0.15080541370221204 0.27823992371322454 0.10153747122037297 0.0385121395173936 -0.20339470190573283 -0.10124969439002801 0.022960502767413956 -0.07662536752580794 -0.09125632463625873 -0.09004035370700969 -0.10675455312063238 -0.06706009223958445 0.002993068855895083 0.07157707873648574 0.25125006234647523 -0.1354566325796334 0.03723769321473675 0.1833709051652019 0.03610668279749852 0.02478744683062293 0.18005962104054848 0.08102215561745142 -0.11970021072342771 0.18970669861812944 -0.15435548192950638 0.08436956587111027 0.05457951939702542 0.17736746505672515 0.014250774775668008 -0.12846128710618276 -0.019201632903205968 -0.1471673865913287 
-0.04231130715678354 0.15860778102767878 0.15669988737289534 -0.10792231566693343 -0.026626842543818485 0.09526484621121137 0.15173227380445495 -0.18087664510241527 -0.049798323417817245 0.09873447637460989 0.10178353190077415 0.021098290373010618 0.04657445987251223 -0.022620146955344835 -0.14849584201989288 -0.02804955921545718 0.017840177665735157 -0.0041763601024756465 0.03441193750700397 0.10131146623903224 -0.1176578581450543 0.1344374367419288 -0.00038279629400179657 0.050685617816385115 0.19191154363197277 0.09342382371693553 -0.05178998362020832 -0.006252941094507387 0.0016054612064163546 0.024971064789279216 0.08666498593393565 0.09398575950906796 -0.010347781737375791 -0.12839370427070235 0.001839821759923711 -0.07873034421382552 -0.14201028787495842 0.027873481377509533 -0.09413288478723862 0.09903115265530957 -0.057764590246948265 -0.05591649248523674 -0.10107661011614305 -0.14319756043630688 -0.041152487033406224 0.11295944310736176 -0.06888208462288459 -0.15107872321389634 -0.02899573976320995 0.13080157267173792 -0.03345936022076891 
-0.05738359910392415 -0.16717313853731347 -0.08362079067920068 -0.08467421634341771 -0.17159075489533127 0.08834821043479081 0.14340762622455863 -0.06481626638476896 -0.09238595652881906 -0.005930945682459814 0.16381381363590222 0.07287417181538658 0.056754344390024844 -0.02067523174744939 0.05852192327179265 -0.08782941481631704 -0.12822305989074226 0.1330201711639257 0.15894883417684316 -0.09602732412990499 -0.0659242288962867 -0.17246417300636405 -0.03356428454447021 -0.0896357262958818 0.07079780358653993 0.08850801761893208 -0.11864545353238001 -0.16193753258014393 0.12653222004139808 -0.07655203156325407 0.010144700220590526 0.21005885217644066 0.06561233226563366 -0.10061650243185163 -0.12008916624460365 0.010427653495513762 -0.08118573598636483 -0.1551319879770637 0.06432486708348749 -0.06955321063226837 0.044917725414052256 0.11625196642670806 0.1605147886484809 0.034321430475032964 -0.02732173832198182 -0.18492573188905295 -0.19724944894322993 -0.1200786247003018 0.031132090741381638 0.09917582089241404 -0.09044846280479818 
-0.1301311416198155 -0.12211226228794193 -0.037804714758668964 0.07861118638707826 0.009004285439779854 -0.12342865890554684 -0.010261946222592213 -0.11509962395848335 -0.017126574359070865 0.12189312944799197 0.08176355574190647 -0.03950107055434211 -0.06763710106281219 0.19923882166873497 0.11869211587734103 0.16711299512986166 -0.0019247466936566007 -0.1712399741717375 -0.07427797975656335 -0.04518207611510481 -0.11178546037235489 0.015328998333624978 0.08110771630260677 -0.12653757819763714 -0.0772207077515351 -0.13882921232599596 -0.05578026364572845 -0.017962721319010205 -0.08259501077446067 0.20888436464225385 0.11886259854395104 -0.02344309306665224 0.1316166514914839 -0.08834229766187006 0.013556093093277136 -0.01173908701759825 0.119698789679395 0.19602639836297647 -0.13321010466559113 -0.07154650365870249 -0.10285432520162688 0.05837022967001578 0.08042061199079857 -0.14517178713813358 -0.15891882115514513 0.09267296773405169 0.14030290126188402 0.048087714167967324 0.05618508938306635 -0.08269363605062666 0.17270418425805456 
0.05209625020587827 0.13061494839724905 -0.15919717914353243 0.10965807463370097 0.08605010662429256 0.10297871004445852 0.2157506358445309 -0.059352436770199184 0.10856256250075273 -0.14555145797228913 0.053308198013123115 -0.15587296231759806 0.08538246049792218 -0.002558948545204221 -0.09149940373009273 0.06750788520047271 -0.041185887338973735 0.11122421194210201 -0.09913167187434117 0.11556720905230516 0.19559536778487777 -0.06010488024530696 0.1528542409288765 0.12402385151708809 -0.022970799607075685 -0.08727439043788279 -0.06698619474558401 0.16264787718740864 -0.09905403830141268 0.10152395289891894 -0.021830254405816964 0.1359645545180558 0.17186695157506876 -0.10688116707193428 0.0916900757717702 0.020136550974546655 0.009710754563622142 -0.1551492036436724 -0.012669924586724573 0.17501151120880504 -0.13652500930016997 -0.12290432437341854 0.1406726593023274 -0.011297800487040615 0.033501860587248904 0.0195286842953282 0.049389742647341056 0.11681974756176845 -0.06871033807133972 0.14808267149683146 -0.025422105713106265 
0.00029806474643520505 0.025446459182283283 -0.08348902132004538 0.14347682765029005 0.06214861918212585 -0.016499121051962672 -0.14747006257308765 0.07641153697437338 -0.0748821610161574 0.12453453182738225 -0.15302407206959204 -0.20271902939096148 0.04450819804651877 0.0850997265830908 -0.002278881350338849 0.13390558722686538 0.17270628510566066 -0.010650730767053009 0.08279626331653447 -0.014400100919041781 0.09914249607554906 -0.14163240535635685 -0.1310617750602024 0.1835156780397793 0.09762212590646956 -0.08516482070331595 0.02220778971754062 -0.010699587060601826 -0.0990137356396351 -0.06031407133627879 -0.062380313584247095 -0.15136508492148634 -0.04918396562758203 0.14508417056739698 0.1505170279665838 0.022568576907933357 -0.07554688063589873 -0.08303175751844293 0.1919502950051581 0.03896024896994123 -0.08733159455420299 -0.07730786163027815 0.1662821716468944 -0.135834082183266 -0.13811753820624048 -0.11531428472768522 0.1121297469410984 0.10918273896884981 -0.027770588994134843 0.10486945122363506 -0.014528843570822316 
0.08982732458937201 -0.11907106060638852 0.11285204129683925 -0.06912630841328633 0.0355353414769776 0.17857489134613774 -0.04379006204689154 0.1534623953499281 0.13512538393162193 -0.15803275610591852 0.09939701694505326 0.18857669974293406 0.019110776848840657 0.10120898223806257 -0.14823601051764346 0.15320063874682208 -0.07889194523016352 -0.17516214367192987 0.18501999885424486 0.20354587220391193 0.08440548473665388 -0.15583943112959056 -0.18559138162981148 0.037048836457259364 -0.05039169092158137 0.1745213868284438 0.10854452566964827 0.2713833185459639 0.01981702160699389 0.16649546494190023 -0.05538323604421898 -0.12106803068579303 0.12706267319077247 -0.06042050648345104 -0.01616762256989274 0.06979441504294627 0.02560141859293854 0.019316481346238076 -0.06415382149494953 -0.1324872093781522 0.010284289038206568 -0.08253174762194304 0.12229698935776706 0.06481949252428293 -0.09713788461848474 0.15310922303162935 0.11182413761190949 -0.09495812396481283 -0.1468227156627119 0.040602766562366444 -0.060841980240964585 
0.014140322036282536 0.02759662094118307 0.06690974062281105 -0.15235676048541605 0.0548622827258799 -0.07116805024701099 0.1538248713257177 0.11270106603432196 -0.0071346691121903245 -0.039637014271147616 -0.09257018033948311 -0.0846089348063358 -0.12059299840489207 -0.012602159666913125 -0.12081981256798786 0.07938279049969599 0.04044467544148535 -0.11755137826820708 -0.04776084017035292 -0.13411475000314563 0.005348170086234911 0.09897606151732419 0.006769790533190304 0.14898021345550472 -0.07740169630182048 0.08538203578940684 -0.06062127761690548 -0.1282218895731965 -0.0813835529671371 -0.12085001037635051 0.13680170932049054 0.06558151706450377 -0.1436174900813936 0.07992433612255892 -0.09201342087753991 0.212787639797551 -0.03222078228172312 0.18236261002088006 -0.15416491723695994 -0.045891278909467405 -0.05825082788643231 -0.12554950137073548 -0.1394011375315242 0.07980996106280765 -0.0788881391052362 0.09060225597364989 -0.17060179904046927 -0.03398977507669035 -0.030516533751534767 0.015770660751058325 -0.09660583169951449 
-0.10134418382223956 0.20894297316516006 -0.05372522501471458 0.026563039049368402 -0.13898458184458018 -0.11161912666940546 -0.20398813647978542 0.07838749999358319 -0.19154766852813593 0.03137763534221172 -0.10694444791768237 -0.06811811603395611 0.11908506145015725 0.013502886857930375 0.19642188905176078 0.0070019304028979224 -0.1945377123354684 -0.004659382520227097 -0.1494926288273865 -0.07731060484985115 -0.004908494446741879 -0.00895839571588579 -0.08070962483599639 0.043170466338944884 -0.03209090430659385 -0.05181766476654965 -0.09415758343231562 -0.10159218072806553 0.02509674503785424 -0.16503751119688984 0.08202322046712256 0.01992922845783778 0.1434716673540418 0.1368572939323744 -0.04780481249329034 -0.10936714481751819 0.05835799918274052 0.016396867258060537 0.08983398030791732 0.16647353782424967 0.12159837451970108 0.05315702082758152 0.08880284652274217 -0.08885887980330365 0.05241263696619735 0.14145809373547913 0.12705026678741532 0.1485806020757191 -0.0016330095506404236 -0.10056622357690077 -0.1749404183590447 
0.24235742199049423 0.03448345347688033 0.14922635176712112 0.026066335778626867 0.002100285457441564 -0.11402944504499075 0.012587902085280985 -0.1646419501354612 0.11541245602448573 0.03148011675181499 -0.1489007381078897 0.10227957636893589 -0.11336888741810576 -0.14685619086177196 -0.01144268459758771 0.2441237525059957 -0.12667326180332142 -0.13563597902340838 0.11747235996885376 0.0800070654930655 0.11392583801206373 -0.020835686260471754 -0.01750252144331572 -0.029041938821680883 0.010503439826997276 0.09089782410646755 0.02181754574120575 0.054298469649119975 -0.01718726882277736 -0.02214873604592228 -0.0553008266784332 -0.06579556334305044 -0.05331703388652663 0.011955677250642486 0.09561841252488278 0.006577613141487974 -0.11592745361030651 -0.1013314193883892 0.10046345312651826 0.17523755814089362 -0.15159501146421325 -0.08836663489891716 0.11150021252922353 0.10165746275553823 -0.1021819897238587 0.016995835067597043 0.03706919810103989 0.10627943346291278 0.021152096860632814 -0.05413459592789848 -0.05900675831460493 
-0.08081688215213483 -0.12702815789473032 0.040809242612052314 0.052032776745877696 0.05755954685097914 -0.1923279445630238 -0.05741842495332 -0.1480095484252466 0.020069910793867704 0.17580250515672335 0.003574144424645319 -0.07320313096574003 0.09725697550819237 0.21975447068182838 -0.06552204652229192 0.08555488943549303 0.17383730789500668 -0.12086164499860859 0.00942736239474055 0.12810340082435476 -0.05127131094330836 -0.05678882784624265 0.025066912155553678 -0.16889844899006284 -0.04270394225490754 0.016153132000651 -0.08072992828346687 0.10552692986649202 0.04443478224080009 0.12812436896642615 0.003301659151924036 -0.12255181924662628 0.14802106758241057 0.10371407588144367 0.1021729664874829 0.13880826276771188 0.16239359410056564 0.14808825881216958 0.008604538332178783 0.01576797910090989 0.14739587389911477 0.010689781058292543 -0.09083901277003947 0.05885034728264303 -0.006621992989137526 -0.17148495551908524 -0.19612482924893918 -0.08170049967995244 0.06335416247663131 0.16969115578243674 0.08739493805488366 
-0.1220469463606661 -0.13386591412605153 0.10127405554920667 -0.06623746750465577 -0.07031224254385442 -0.16356308161456046 -0.12510044712104787 -0.15130035429804264 -0.10574451512466755 -0.005993880225371778 0.097350521330268 0.10958363661073933 0.1507896104109003 -0.017162373673848604 0.13700620088414786 -0.00353675957404546 -0.14068790918786492 -0.1308874323630593 -0.07841902037033271 0.16996365614875042 0.06638171451581787 -0.07729093326916466 0.11384053130495969 0.060905234655499456 -0.14279121110845028 -0.05321550716397934 0.09871710989154557 -0.15925405487822175 0.1378153827263696 0.1412683904566572 0.10969481131284381 -0.11909155972021726 0.047278914887744175 0.18710373938117678 0.2106557183891607 -0.12598275640839132 0.13985014592243067 -0.06927299972907344 0.047816142817838546 0.10169876313543708 0.10355865310045628 -0.06316749962065057 0.03279797855745876 -0.08529604759825475 0.22158499053469724 0.09059795668294812 -0.026232705818494365 0.15476508848193482 0.07165969468489658 0.14154429247413228 -0.10186156145854999 
-0.06311440107046683 -0.12663415238952755 -0.08053232203812574 -0.03632188517616433 0.0406135572364649 -0.037695604997638785 0.12075545772324196 -0.09511235324541027 -0.10140357948961641 -0.03091681656995619 -0.016715893832316468 -0.04583640096377672 0.15723596003159188 -0.07360347682128589 -0.045329426062811984 -0.0836550077534092 -0.12249629104301124 -0.04300816072115689 0.018789140724101507 -0.06825938860417438 -0.07073906784215357 0.15224791231357782 0.21362729160374808 -0.11758818165490896 -0.09848133800891991 -0.11408286203178579 0.06711774907168974 -0.08846463022164339 -0.0015303573449763751 -0.14614962072011375 0.09755201004736272 -0.056485512685144255 0.04484093131486019 -0.10911709202898846 -0.019331030844017702 -0.062363576652034916 0.03270901772734893 0.08616960054916098 0.12627543040837794 -0.09716397973821599 0.0804205118566026 0.11406798688670401 0.0005348050555711752 0.04601281357905247 -0.14827725240243284 -0.2056097953600196 -0.0685114957161111 0.15613779357776772 -0.103062129831014 -0.033920432052024815 0.013108608574727487 
0.16108128020646895 -0.15037817633051043 0.20145112137967805 0.1504873095058552 -0.07173055079577205 0.13697615818091577 -0.0559823372057957 0.15313783151484608 -0.017825327636740208 0.06127218886743517 -0.08133282213109375 0.03952440478374273 -0.10913255607233079 0.007518395408551777 -0.0017184671303520564 0.08969654859692505 -0.008654126932772748 0.07871120087807756 -0.03043728116088426 -0.09542607944061249 0.11024262208343368 -0.08008596376524361 -0.012253752445800323 0.01383658191144641 0.04986865103574351 0.005046671926764966 -0.027690447271300316 -0.10919134684149723 0.14412577050714148 0.11600957499916495 -0.12196034862058244 -0.010261187289234015 0.19940521544433984 0.06737280325699638 0.0890903530555711 -0.13631620757873908 0.055363051514696074 0.02541446362318361 -0.10447243935292663 0.21417875867098415 -0.16139123566294117 0.060678791632352 -0.06951801304446975 -0.12194378035499016 -0.1235811573757192 -0.036480869823440856 0.022229993019701837 -0.11834928143089803 0.11026272571028072 0.14889599503938994 0.08675359214924107 
0.06641929876334103 -0.07983233785055892 -0.08958441666711663 -0.12172132189022897 -0.0333890271390518 -0.14289241813422368 0.005143757349492254 0.1380964822087781 0.119446360277643 -0.11924638659883006 -0.15012351408847496 -0.06151173260104595 0.2581098346531474 -0.012938963491326257 0.07322798976171772 0.06666330343858204 -0.05336178006462829 -0.06796139221858702 -0.09027572468659886 0.22782215932770097 -0.17059770844446145 -0.0305118691826824 -0.04977660195954595 0.20637990865047043 0.0629953426883325 0.00830717579641872 -0.10411432385798816 0.08918334509328545 0.06168602183901529 -0.1443658760608477 0.12503423679577488 0.10293736308237686 -0.010195964235467841 0.053362950475817614 -0.15832050070832573 -0.052066429378278406 -0.09618178986201958 -0.015636611421533813 -0.08624009612364554 0.015328547850266444 -0.11023877097701557 0.08246825938943252 -0.14175661762883018 -0.06739624236862761 -0.019199848254503323 0.03614807147926419 0.03152310110353011 0.02158127986592225 -0.15528210532990766 -0.11127719073673395 -0.14317604398368583 
3.7552907146562933e-06 0.21776177763640073 -0.15946066019726352 -0.017991635529156218 -0.15517841413855807 0.0595709201491302 -0.1574168589222099 0.09588683278057887 -0.13280310486960817 0.08825694613238658 -0.09093422212227853 -0.04635559142672744 -0.08324748582139938 0.10818038781243486 -0.002949405823210806 0.11629233950395762 -0.13148866002646714 -0.0038669738418478663 0.08551086327685822 0.17056690555879908 0.05769301704213951 -0.14835428189900363 0.08769147847864323 -0.13274214590753278 0.08115675018852701 0.14479265417672565 0.022726744570300262 -0.002206048334686194 0.19741542880040472 -0.15669026095452107 -0.1536379304472686 -0.07653298281418333 -0.029714916153038232 -0.01806300802421338 -0.07067780440076396 -0.06377718066289988 -0.1396981668703698 0.08526789897034893 -0.054056271164688634 0.010053971379656378 0.07556429115939053 0.04526934659477018 -0.02788156701036158 -0.10018537307287445 -0.07016485459845345 -0.028125755491816964 0.2001924752653967 -0.07408769880570587 -0.14854617842153317 -0.10978290984546116 -0.09601681681034169 
-0.1322900700659578 -0.026612115311918948 -0.0662685093611609 0.1206745044080171 0.088433562792536 -0.12839649372271753 0.12519659394301716 -0.17585739512309476 0.090152740232458 0.02218545121345673 -0.12884817938291598 0.12617086742557346 0.14372362653384152 0.14700836758757663 -0.03990911430251685 -0.08564780712670333 0.17177402990446836 0.0983634452486457 -0.14316435421374382 -0.0449425866537857 0.16347536899242873 0.04088162205492862 -0.09275382562680283 0.09128298192971773 -0.08726286075388752 -0.1565930620294849 -0.08301457607023269 0.20521059374799233 0.04696105767827652 -0.08636681103203948 0.0784154459167061 0.057432970876825855 0.04271113985156036 -0.13405050192599552 -0.10466837008640258 0.11533863603868502 0.10007809801634178 -0.10306376418339924 -0.09531404469349243 0.02054447292978381 0.07448336800765047 -0.09272102971269273 -0.1241024339216305 -0.036112081708100915 0.15845977828061042 -0.10614811758604882 -0.13556218122201946 -0.15231911836062573 -0.04544489380620449 -0.1446101991303952 0.025315655604560724 
0.05296051280484097 -0.012007040526005068 0.0887886362943995 0.0003104704611217467 0.06223694579575431 -0.08322784622362071 0.10275066207299625 0.003977875369148517 0.0843063011284852 -0.018297757275513263 0.005424984225476856 -0.14598593570876275 -0.003240858865693105 -0.11116481725665815 -0.11109860941242582 -0.02029464940395507 0.034310629573995444 -0.05965049004439197 -0.10538568359457251 0.08667404805301683 0.16560812145882062 0.06776981640540385 -0.06494021296518022 0.12593379309423855 -0.1350223412129972 -0.029173224728031286 0.13388827060311098 -0.07301245284732871 -0.041936504689821075 0.10549576200657079 0.08601909288798072 -0.053480954961735244 -0.09671081772384153 -0.09841917251075598 0.1755275225292309 0.047349253805843164 0.1464543608136225 -0.05890224075146063 -0.16945343804570587 -0.015490788932539279 -0.09064023037985361 0.0057587082226670345 0.025637945196863705 -0.06328503479579208 -0.07108266450392733 -0.14963830438415912 -0.04515543398635512 -0.05412717796027406 0.0029017588431744096 0.10390270017450502 -0.0022304258789174664 
-0.13015917028579652 0.11877621762315954 0.05918875496974914 -0.04116018648157757 -0.1203964715800767 0.22411340662233392 -0.10915484035190064 -0.006846329108029363 0.12342122262202025 -0.1448952487983483 -0.056944919915936566 -0.0830407448937594 0.12781131210815053 0.06369500225071585 -0.1394459858834138 0.07879286742937049 0.021036768392805886 0.11618991915057468 0.15163141117022405 0.19313959525223803 0.062459104080831926 -0.06395610804291448 -0.12201215218690169 -0.04285859794463137 -0.09114506787306151 -0.0029375520083969797 0.05529498215114826 -0.032593015509214354 -0.21353475175860467 -0.009559546915540569 0.12348553998640788 0.06010388898471288 -0.039855847683244454 0.02907000699948563 -0.1237908848660387 -0.13183249295412572 -0.0550599253389391 -0.05267678444942096 -0.059462033365400783 0.10518272357635158 0.0872083441811228 0.11866999677084998 -0.12380840917487708 -0.006171409973828941 -0.09885034324881173 0.007558923517578513 -0.15479634256278355 -0.09097777973284615 0.11407863411049346 -0.11438135694301867 -0.11882836941687847 
-0.08058519314317983 0.08281514714352131 0.07844776123705431 0.08807530676180308 -0.05809564787830822 0.1473878157168582 0.09876961076645464 0.06674755032491121 0.10580673515374832 0.041971823183895765 -0.04270673596908063 -0.1468047138269518 0.02913046875137547 0.04621142577265848 0.03077636052557322 -0.0543870673536448 0.07752423102465436 -0.10184711479560526 0.04591877925442544 -0.16369448560474698 0.1730368350026504 -0.10259701525632295 -0.07046709162376995 0.2244324066293236 0.11940056511602665 0.07688373557694007 -0.05311823106599119 0.14242391284478342 -0.005693878281800213 0.04846758466705559 0.13927303756669354 0.08756373039322175 -0.04431239221768187 -0.05395128791187871 0.028118979943796894 -0.13697749002861054 -0.05456173465030761 -0.04404906479233925 0.07769937275303246 0.13375450542353196 0.1854130189951624 -0.052725602533627625 0.10944553066836728 0.06081617874465124 -0.10692510532487061 0.11789853286075476 -0.12355948869988974 0.11205272347121631 -0.16496586802589097 -0.12245771156932511 0.04223435291798856 
0.007988330006120457 -0.017369032585837982 0.0714748701847809 -0.04325551557044602 0.10977869197996909 0.12292245007851042 0.1669337386988976 -0.09317119698685357 -0.025916828895638757 0.055535087554880715 0.1552061967522894 0.09107975313737442 0.07969868798405304 0.17923589393789502 -0.04071838950657149 0.002553340499833162 -0.005671524633923391 0.1010697498936956 0.11474299199727446 0.06515057586797551 0.14399129780655806 0.11809768470672406 -0.07183162496577335 0.02984652751344577 0.20274027263689606 0.0425216209833843 0.0736418762541974 0.04946297182758985 -0.09816978667538546 -0.08885748031930873 -0.028125973119164052 -0.1084705406021195 0.10583779420351615 0.06476748817054931 -0.03584919317908387 -0.10193377941478358 0.12535083737365205 0.04290733311853952 0.16667892695966965 -0.12428354362130332 -0.0966770726566552 -0.129856436425726 0.19477562036573948 -0.10567628914468795 0.12050551215964123 -0.026058260410267656 -0.031647343761734066 -0.14303842863830885 0.034854976375612474 -0.10599148854042215 -0.08862402161653156 
0.12313989565118558 0.13905650195379538 -0.20478018937069345 0.10310177913220338 0.14196815243610147 -6.943651034552442e-05 0.05753975507866739 0.08517406534900442 0.07578801200357657 -0.04938653517318889 -0.01326147401461713 0.0037667645232052054 0.1062173856478288 -0.09820328725528422 0.0675855785585472 0.14925632172490144 0.11776277313432387 0.10996771190585923 0.10214370475550195 -0.04401401845865543 0.10908325530904103 0.05900309706893539 0.15311296670034857 0.16147142163668907 0.19606538496115092 -0.01049649564402474 -0.010405815696946962 0.10412276542286031 -0.08940292115708305 0.030571747781577962 -0.10182774619656824 0.03620547228680814 0.027695473248262114 -0.02485908705343848 0.18142997716160042 0.013216192456624339 -0.037173648202811854 -0.04726674582398189 -0.1605089158951071 -0.020493253247739252 -0.13790358947086453 0.019985201205920036 0.07426337314381662 0.08352037691712617 0.06999254589187491 -0.13012894891617208 0.08751353402306851 -0.13902512132819672 -0.10149951516321781 -0.1611140540595428 -0.06189420499986281 
0.058391429354426004 0.10125420316033433 0.16118576617234823 0.08171491423898233 -0.06360931416558971 0.06865374672971311 -0.2071904931744828 0.0868142850701528 -0.16264836092905932 0.11223842164441966 0.1726383597743244 0.041975706026991966 -0.13562434218167668 0.01656406005077279 0.10485300013394488 -0.09928383968013302 -0.25669680670331524 0.12697760544325654 0.019190364520456627 -0.15621452004869107 0.2242165307740808 0.0079281760177495 0.007936322700539851 0.1976936172699895 0.12547521014757948 -0.18552175632810322 -0.04642293644077688 -0.09285502615161456 -0.07306952101892639 -0.12735897949446714 -0.21820525990353043 -0.06122582792781857 0.15099907186420025 0.14454535900888968 0.21205939625382375 -0.15648261227169025 0.06002221058880889 -0.14963718371435678 -0.1463796436751853 -0.21052101041691954 -0.10899215619089912 0.09439085840815944 0.1304615907755664 -0.029933882904826146 0.06945696370017165 0.12367225243624227 -0.18527470188254416 -0.12865671947662927 -0.08890483500872123 -0.029333569422907768 -0.06887262017279024 
0.08401386310363676 -0.04821675014742753 0.10738360826844905 0.12244973089171356 0.003986879942611341 -0.032632648069118315 -0.15637094528418485 -0.08995397123230257 0.145340966270566 -0.07841839050847174 0.03977372597551844 0.0022325106011550425 -0.1264310354926157 0.15193243419656835 -0.13494009070634522 0.04698705294579915 0.18262034026335802 0.08353276717339189 -0.05343735169603266 -0.1331246837197702 -0.010055017079608625 0.09599612944368134 -0.05493592236995399 0.058564314233723824 -0.008246564318262296 -0.14794238907485013 0.17297510423950802 -0.036686723313002316 -0.004547277489229887 0.13049440919728805 0.009905895289492386 -0.014878794860314208 0.047431160506293854 -0.08917027209969629 0.003065360692481499 0.051751024175612205 0.014710683643227482 0.04827585087439376 0.03916387526611962 0.12656200444234286 0.1034773901914612 -0.12532389403184993 -0.07444974368631602 -0.13914364031213247 -0.10462940517114239 0.07556786936317628 -0.136871731272565 -0.1070899044556886 0.10363001697928508 -0.01693833981294871 -0.06458595778221078 
0.0440997274664471 0.12046715776317145 -0.14461710831861047 0.059350644231705545 0.05171607669320842 0.11443971468467773 -0.09402965553394751 0.06549581025991683 -0.12338889013881522 -0.13851178885230625 0.05552201063651951 -0.14943054146031193 -0.14246725796059007 -0.14482672699080046 -0.010505881819631354 0.07961612213319913 0.15420696991199775 -0.08449685908714906 0.09047945831534167 0.09138351491750335 0.11578596253872848 -0.05706163752868513 -0.11414158131330207 0.09184288313489763 0.020543730330126655 -0.026025206523399076 -0.13786559798370562 -0.1546078104797018 -0.05651154965958091 -0.07041999114318699 -0.007367392912740301 0.13218111743290975 -0.025402057507715167 -0.06528450704352701 0.10720606506888361 -0.05933686937795521 0.12961307665314675 0.112976544590749 0.04250149856480465 0.07641583719436176 -0.10639081818349742 0.03141209070747676 -0.053086639198898646 -0.00343239246959583 -0.0848815468394118 0.12525903682278375 -0.02698309935350308 -0.007060175655841493 0.06818675624128305 -0.11755633551780956 0.0009285841779247692 
0.09703805758251377 0.05444779780664808 -0.07399550135225451 0.06483143616702979 0.13564819025194905 0.14677350066100572 0.0848019502368168 -0.08791762730153611 -0.04430554816452924 0.013853257021222826 -0.06042979298832177 0.008696868360350619 0.0908408750913351 -0.12337643746350241 0.1480251666209615 0.07302461442263374 0.1385602185000514 0.11949542732371413 -0.020651775330050373 0.1585336073634586 -0.08416327794407678 -0.14184144567707394 -0.14456996580196144 -0.11744817902941658 0.00851984487366143 -0.11007531622503719 0.14870566367871002 -0.15371145282462062 0.08015339259341638 0.13731426344405562 -0.07175854741831744 0.03786582580473784 0.08383097693395153 -0.053111456606394665 -0.010448140226095852 0.08474868124966327 -0.13840547421762772 -0.12218618550217679 -0.04338480497656146 -0.09628844568567424 -0.059325489102271145 -0.10869409784476206 -0.12570809332595737 0.1540194256074247 -0.056100723734272585 0.026089703311641392 0.020965819403811353 -0.015095913313273908 0.14388568981817887 -0.07183639411305291 0.11764669683220066 
-0.13485604618324953 0.022818272357499437 -0.07670871788532518 -0.04166052473903392 -0.05991394683459967 0.037192322898040614 -0.0887612139830779 -0.09838046571376471 -0.06603087462809343 -0.15453092882438343 -0.06408352860975966 -0.1409912326939919 0.13073476281997798 0.09070548800011563 0.029084804093417516 0.042212037278771826 0.16006026899053427 0.12278151489003511 0.027686443618509787 -0.11689956410683214 0.0005975810614714225 0.02406336295111232 0.0629265176106803 0.1682225066580786 -0.09114807781535422 -0.0010218347496256386 -0.0751284956235331 -0.0381339021212014 0.12681549525991168 -0.1118403024227953 -0.026191154626739422 -0.018392356366736418 -0.18562713832182728 -0.030967633470129017 0.11487595852732231 0.02379621631576803 0.12333542105855518 0.02167527001759467 0.02238255418370412 0.04946734169348975 -0.1414022217977471 0.16181058753063077 -0.12416070810559435 -0.024861354390616843 -0.06298444460718916 0.02552730657469871 -0.04273207119305389 -0.0453074628797721 0.17007838699559225 0.055656171513028416 0.11741349474654779 
-0.013554034877618342 0.04886158018146343 -0.04394512528992432 -0.06017658855571784 0.007730549225010118 -0.09573724353612385 -0.10825146626178545 0.015161347968589109 -0.15225765951614073 -0.013252749812599489 0.22124499314479062 0.15428924157591253 -0.12991859909780085 0.06688985270825534 -0.08487919494931975 -0.11890730889307728 -0.09871933597981598 0.0839072624723044 0.015438502082293195 -0.14257527594244243 0.11707748488679548 -0.006798438909602511 0.1625858900253523 -0.1102769411077499 -0.12983138722139967 -0.029630386929496162 -0.013818077331297366 -0.15224402951957003 -0.14405518210592005 -0.15616650628452403 -0.14363025957183506 -0.10055423113263691 0.03892486054266805 -0.007054530941812318 0.14943380071958023 -0.13399010402245679 0.152442496785439 0.0239310622458731 0.1480322333375843 -0.1388044946245655 -0.12490424888460216 0.16697615815964437 0.0610528856352752 0.01027605141596488 -0.15252798995733832 0.06944050472267055 0.12293269334403358 0.14644273808218033 0.02400579299585619 -0.053261812890240984 -0.029061003856671437 
-0.08405081689627343 -0.12811018320261955 -0.05840942757593928 0.05668674847337264 0.04929086985320661 0.14438697663808442 -0.14447369272856106 0.052620601313286317 0.07845265678855406 -0.02657384602960386 -0.02322284555083233 -0.10611257584540726 -0.14177582345501466 -0.01098665881199707 0.04729537805298419 -0.08892593776310874 -0.0793555681715513 0.053717893038906 0.14273952365899228 0.17439772298904804 0.10127931073198303 0.22404912773171543 0.14446738480747112 -0.11784545696586876 0.16300739232133593 -0.14949105083456476 0.18904951012377028 -0.0495027373593241 -0.04064992984334524 -0.007197931502753841 -0.13723410822911197 0.12689766006918535 -0.08469834392533439 0.08972346573389056 0.10610609838136784 0.10500586889219345 -0.016691442451424458 -0.01012064167119034 0.024453735848638417 0.04429362564249712 -0.08159976362671491 0.07834069721527598 0.22505905426446707 0.16419917909224824 0.05168851647211535 0.09768473439981813 -0.15447953823412197 -0.10084393745386208 -0.06495793368910922 0.03394853611597101 0.08916416051464851 
0.07177766800754377 -0.006373548159903299 0.1935452532836233 -0.03739839046261446 0.04338979371159577 -0.19171369376966255 -0.09191057523631382 -0.04527536327238482 -0.03453339815546307 0.00844941632954312 0.1173048661337395 -0.05601953725857023 -0.13017410981639985 0.006483889291143022 0.22186698513641046 -0.030294518993837838 -0.07488958155115541 0.09470878149991244 0.022514803307797794 -0.15428831351047523 0.17363129767489302 -0.003359422676582301 -0.06024930137824556 0.04620972383054462 -0.06601019479732816 -0.012825316399114023 0.04227357052371279 -0.1208760516681303 -0.038587551727210866 0.05631875686640422 0.17235374576334614 -0.14983122885852332 0.16015100484481865 0.20270106125753082 0.21193923714073895 0.1324466789621303 -0.10849314053237337 0.13025822644929116 -0.10263329453112849 -0.029944787230067875 -0.04250733597054528 -0.06781524639215311 -0.04447459961804769 0.007268747631086326 -0.13149989773215237 -0.014742849233530217 0.042414058922579684 -0.11372032102351222 -0.07934680752686689 -0.07536729055551698 -0.1327745909062885 
0.10009242976244076 -0.07294434952910436 -0.04567186261759192 -0.02886351038936884 -0.06002684326029309 -0.11579208759899222 0.13957065182209757 0.05197643220170423 -0.07184991166596665 -0.12705129894855785 -0.11714291171912185 -0.06886255410752463 -0.1409443374138086 -0.11025630153973749 -0.007578454574467802 0.1361415525207594 -0.04099439779523389 0.13697968855447976 0.021413808382358023 0.1989499671864677 -0.11465436883925598 0.1025121742186699 -0.04583634570758759 0.20193090927341578 -0.04509149821010163 0.19818121681590495 0.12961027705906106 -0.011519036269460891 -0.19624205616431925 -0.11261736663277006 -0.1385485320846255 0.0905051773183963 -0.13296113208019036 0.09708885199316944 -0.14772014568876524 -0.0927626721751433 -0.09582203982462442 0.03490946081119238 0.014302740017870633 0.14080376354733262 0.04205562044552317 -0.10507793357598919 -0.14802794185059812 0.09316005238823888 -0.0033710084543508395 0.014570280128162921 -0.026193681594521467 0.06401087096242523 -0.028796352025631983 -0.05041541582611143 0.04636054723241356 
-0.0023201679060759007 -0.18037863790883327 0.17643233482743415 0.11034668520988392 -0.0369705941093138 0.019457839791392057 0.14989995187883404 -0.05946685735618114 0.16069803656036047 -0.14690519590986048 0.07582744399394574 0.09002492522633081 -0.09483104710748295 -0.12626749049308467 0.027785347052997917 -0.00616119167372671 0.02781037629221944 -0.11434961950544509 -0.06845575187700216 -0.1694289374627051 -0.14482314654177536 0.07861837002831158 -0.14821861719372592 0.013445730702679648 -0.061920155814636044 0.14703374178226508 0.013691026252412298 0.1879954938038543 0.006503461135856536 0.03503395692730635 -0.050580533464494044 -0.07641579716940591 -0.022126025795376637 -0.13250882370032815 -0.13113597066999322 -0.03410844070701164 -0.1574426427349537 0.06872405968462186 -0.08631169075549669 -0.012168297987903231 -0.09427879140542697 0.05553149013413434 0.1312171829170286 -0.08644911779909331 -0.17410721499316142 -0.07686153432595258 0.039045406805497944 -0.058132370317218206 0.12195721671301459 0.13267427499555712 -0.03923784535424521 
-0.04121716511423647 -0.15138489607592806 0.015106994006659807 -0.10735930645027619 -0.12058895769738219 -0.13956640685075825 -0.09943221008685704 -0.1068324652360333 -0.14529671679375142 0.15106135928979095 0.048536282211391446 -0.034532081300433316 -0.13663349092355437 -0.14152145385755516 0.09444801520628608 -0.02353262021304514 -0.12199819464981018 -0.10331153345317887 0.055334914375883705 -0.02216754752051731 -0.12565309215477216 -0.0329869884971537 -0.1423206194750345 -0.0705554123568311 0.0009330236129327465 -0.012922974187159942 0.08299995736262476 -0.10546854072998477 0.0030447225358979594 -0.11140649280531179 -0.09624223660181097 -0.027485277144447498 -0.11002893823134281 0.018972203525218664 -0.013608447914963245 0.1381023218353513 0.05216461467504441 -0.12363105963212476 0.03271493924236845 -0.024284003219484564 0.0001914238892222112 0.047761429321808074 -0.09739671835253388 -0.04301075122322406 -0.005952108271969636 0.035079778318832536 -0.06601133078303145 0.0008402234149404592 -0.06820274615281387 0.022052359482456523 -0.04835210597229953 
0.10527549460438398 0.05711417838016978 0.1078533995813879 -0.10736709029730165 -0.09756257127472218 0.013669923942049989 -0.14480614172427794 -0.01205230590084497 -0.050304200094405185 -0.053889397055303496 -0.1188644461004652 -0.155210542588762 0.06028035486116392 0.10244804569855868 -0.049594692298777894 -0.05174178914745875 0.11993518919894947 0.10541399842631094 -0.14932003231293337 -0.06650647141857469 0.20874555004679685 0.11926116701240846 -0.041451207602687605 0.14886347050311466 -0.006318191425714184 -0.17823682648640424 -0.07042292608537995 -0.09490740866903165 -0.22142565540437184 -0.07159716559718071 0.1758198921110879 0.007817803939760646 0.009798029591033175 -0.08437352001192598 -0.10535578829322523 -0.11640645893788797 -0.12890009147229267 0.1104880881908801 0.18910878076539323 -0.16037700129229648 -0.017248579914951684 -0.07946476954553211 0.02434372509405588 0.03561615019784424 -0.03175860169659639 -0.1266762527283486 -0.0328760365820969 -0.14600171509730875 0.13925820274089035 0.020234703447883907 -0.13572169100383233 
0.015624894640730257 -0.10539564378731132 -0.11863171378052716 -0.07227039126875222 0.13786002621339127 0.016471425936504056 0.062418166668648356 -0.0755056039476143 0.04370122973712992 0.1734698441282656 -0.09752286556972738 0.11284756474589205 0.1768949084249866 0.02611675161923944 -0.09171751888130417 -0.11533762110655499 0.04827725386423934 -0.17200359283052571 0.10100987062363523 -0.012245843956156402 -0.09729578580398243 -0.020610677994962155 -0.12004939108195467 -0.0012949345626863114 -0.0827618537594673 -0.08687582689282669 0.0056136168815687625 0.10408804042064324 0.07742023451582944 -0.13344584038972224 -0.11377791812690458 -0.08031278511259231 -0.03349059944425485 0.17498632001328798 0.15807500441686442 -0.14711809989639776 -0.0828138131256637 -0.0441903095303399 -0.08488457528779075 0.16520467398620864 -0.09616986223573443 0.0721247059588868 0.2185570503650684 -0.017764012678129062 0.16390809235513998 0.03718431813230393 0.12779303374060114 0.08463972682723618 0.15441891506834474 -0.050117057414572924 0.028902324293726172 
0.1315430344287952 0.09628689358469096 0.09741429812356579 0.1400913621574896 -0.06441043128770345 -0.018215585547475304 -0.12270085352281172 0.11739039144760878 -0.047914933586005445 0.12630883076469204 -0.09166642701116308 -0.04608443493072496 0.058536050289156386 0.1318913996236782 0.05774714301202904 -0.04903314710847072 -0.14383390469187762 -0.05162246507216357 -0.007234386716436943 0.07100187608253286 0.12260070925840218 -0.15468767955814058 -0.13207028623827682 -0.06718840100524454 0.01081944065074006 0.010870211337550935 -0.02277136326656919 0.11941501021471658 0.0700478251153663 -0.11317586095206295 -0.08181412412341044 0.0016077508697859022 -0.042087782457100466 0.09560683271871398 -0.024588771045921498 0.13780283485346034 -0.09842833154683374 -0.0052206845248842365 0.12279811911710801 -0.13559191906922177 -0.06798837967897513 -0.09200872838610273 0.15182771541293605 -0.009579229079525596 0.12086017445938127 0.10996159304925543 -0.12336735862099804 -0.04597980726158138 -0.0010011429060052506 0.11790409152796129 0.15087517049198862 
0.0005804895003499342 0.1428475397843816 0.19558860337019157 -0.06926190604143925 -0.08464603993736532 0.056735933418065224 0.03442893540816152 -0.12058423809751241 0.11862127249080157 -0.06469642904653682 0.06324422218373987 -0.15744902535418284 0.08112867523477031 0.09053293643888849 -0.05879442062801966 0.10711340357813681 0.020389045397683964 -0.07222083609989369 -0.15131221774978923 0.06636776145984549 0.1362511811681641 -0.06398586932401328 0.13860558463958755 0.14212993049578004 -0.03700419094298609 -0.08993081206503888 -0.03334991169122061 -0.0290648620271711 -0.08973022715198024 0.08603127157879763 0.19553303655477186 -0.1945496160867014 0.011883211038564984 0.0010029882714281827 -0.013532596632491234 0.01633781771128813 0.18808203261156578 -0.08436739112818774 0.20506178478352746 -0.07424838719910719 0.002551803377606448 0.11092518502027736 0.17799518417222354 0.12529656222353885 0.19379476792056463 0.037900202569178 0.16595425674267902 0.05722168691906435 -0.10764307519283607 -0.13211351618925574 0.10166494223815674 
0.026548241564278978 -0.19584811086607293 -0.15731030462937579 0.05105201764614987 0.05544568007678075 0.038171255872942275 0.08848926669553768 -0.05150957253256002 0.14115183188261118 0.052835019172816494 0.1914657175197674 0.11931983112193606 -0.02710788943585694 0.12727827268727446 0.12040582499156999 -0.17275324605586445 -0.10201176587521842 0.15409833197558878 -0.14690195220583147 -0.15635726079466605 -0.01172586442762199 -0.15202645395671222 0.28361321139711687 0.17211734366876477 -0.014423206529728208 0.11528188790326097 -0.14559807394300378 0.06164146243721324 -0.007482880351085542 -0.03952831562167535 0.059589264092174535 0.3220354884831548 -0.0017512987226918535 0.18192761593567106 0.19740472765277936 -0.041987595741485605 0.0011567611954393974 -0.24019632030560778 -0.026379143516747118 -0.09929087463634087 -0.08654634469139706 -0.05102898775417487 0.07499821258710962 -0.08277116614464447 0.09726316011558696 0.1602457979743851 0.1043827870865377 -0.016886372785174786 -0.024833091517707653 -0.049052765969448305 -0.03295717942424912 
-0.00990552848631858 -0.04272870308362217 -0.0924008155931526 0.09374446399524539 0.08719660057794355 0.1974597960931919 -0.03904110924405074 -0.03683284773923762 0.010423082957690292 -0.07416338316548741 0.038778284443791174 0.09138408230569992 0.0710392091125528 -0.09082892068370382 0.1172465976450987 0.09140314089375329 0.09337914342703083 0.009765199976828728 0.03451531460400993 0.04188494911011352 -0.17490377183382877 0.15700798637847665 -0.03559342607188966 0.08011231519656045 0.1688943072465619 0.018751282588790948 0.12090662223001576 0.048149158356630604 -0.1417993407589879 0.0741114650535079 -0.04353587583880712 -0.0557181964735657 0.10846728002243652 0.10573904338943309 0.22933784792616368 -0.09187858427947773 0.005328277306906618 0.14728900023877692 0.0050552961809746605 -0.10279971443269784 0.20800771617150368 0.1692572757769786 0.07940511920636516 0.056690390090197273 0.12144800027394431 0.16558511357704178 0.10265607942275252 -0.021702821436634927 0.21627963633866035 -0.08481233955593473 0.012932433158146121 
-0.11599749534144245 -0.10698634807797212 -0.12713750757240067 0.17800849727986967 -0.08514091261295413 -0.0013817420641437238 -0.06402689571212301 -0.013282004791526917 -0.06739806205717379 -0.06593255552736042 -0.11473763440511066 -0.06930002250406088 0.15304705634782828 -0.026402249786989834 0.16756347895574708 -0.1441227592740491 -0.13976003093837785 -0.0040952235772247075 0.11604601994365873 -0.1254301896138494 0.10282759158829917 -0.21481940814138642 -0.21346757837364905 0.02336448664251396 -0.2637471561851127 0.11652849186772922 0.03984312376410138 0.2526197966603809 0.14737465006440603 -0.02297525000464725 -0.12969335395492945 0.06600474917852539 -0.1352288651597525 0.1323565360019236 0.03331552045288297 -0.12905008044534222 0.07907509698090388 -0.05358431003544837 0.08664169842946003 0.08984307183482731 -0.21424576402920145 -0.034551349542116465 -0.1516020193610956 0.06047201919148453 -0.055007767135800544 0.049256573868137206 -0.14809741744488455 0.11205911538681465 0.018962002827074536 0.17240749545063128 -0.18758805929122752 
