0.002680909765614338
0.07882376858687551
-0.007126384769555508
-0.21058069612841487
-0.07610062488511983
-0.10944515562103704
0.16646304731142333
0.1089886992400299
-0.003099433494559529
0.08901201771159369
-0.04956256337244584
-0.004942254702340936
-0.08869108502932499
-0.06804236475117621
-0.027026276090154983
-0.16294593564944776
0.13301667432263883
0.15769559718446932
-0.1087909425889143
-0.00701637961904471
0.13000492888618972
-0.07747203488220623
0.03580290166230953
0.009485857404863917
-0.06040544718372389
0.12835875141661135
0.005980382807422477
0.0020668075622694336
0.19804661873693805
0.1805148653433989
-0.08639787053160453
-0.1001908203155889
0.06842110743824996
-0.0448037655627869
0.08201608561536824
0.09215360590760271
0.11183627469506771
-0.10032344830889639
0.22101713342375415
-0.0025177406313857307
-0.166378822428758
-0.125277532083363
0.032811229188833745
0.01262729187289543
0.18829791250307223
0.14323772814688202
-0.006322890717491819
-0.11183686521481898
-0.00402619431816742
-0.015149140352287779
0.04835473991941336
0.2214281796839334
0.20609941845060378
0.24289382373107848
-0.05087197043164041
0.03619853826404718
-0.041278506281767546
-0.18917270481167506
0.12392764175152297
-0.1450293158151301
0.08154052478225199
0.15674020334524683
-0.11032411986909926
0.04177314546914996
-0.02335739499928594
-0.21298802536251948
0.11081319067002693
0.1552653333640608
-0.0129791307973738
0.13776930146089747
-0.23689344737926069
-0.1543544715707461
-0.004657294003059481
0.05299111982258923
0.10645474035767173
0.04714365699895727
0.03211544615266521
0.09009986527446967
-0.15260732426468623
-0.15288758798550703
-0.11287062691133347
0.2093805222618722
0.06069204617410122
0.07570279140859613
-0.14104166042969776
-0.12199609850450015
0.050600755385741256
-0.1224678703628114
0.15702825829975625
0.13989465111594196
-0.20705132474581775
-0.13793309782226146
-0.010321754336959097
-0.11631900156618387
-0.1342400731747065
0.2228854159365891
-0.08778730052129922
0.14025817407723562
-0.06890557761832707
0.12311168470374176
-0.1636919443936961
0.089545008585062
0.07611126103579323
-0.12701762916925904
-0.03342607610710749
0.0001840429004379675
-0.1101012026604615
0.14848496063127328
0.2127273293429399
0.00248264122593521
0.01603071626378579
0.007817606395874655
0.09414790446124753
0.022719773879946375
-0.01794498395542901
-0.16339910872875305
-0.10846194723923967
0.2024375639786349
0.14341452356900816
0.2177600530101398
-0.23727988611897952
0.03474730204290509
0.01454183168567963
-0.20977861005471288
0.10248908666975896
0.09897875233133838
0.06253816298895058
0.1673865649228097
0.029672113176438322
0.17996435826703072
-0.10514525376091574
0.17405875574175544
-0.0655633638834478
0.1445665566597325
-0.021385977909278955
0.2006048333921491
-0.021237801424932087
0.18081532902055786
-0.24009969557168345
0.16870668493457447
-0.10572730285496679
0.10057484241090864
0.14135551828261403
0.17373420764283143
-0.0776449049104587
-0.018622708733965664
0.02756640085903473
0.0430866344926469
-0.2380914705016292
-0.061134391226471255
-0.10664553823633147
-0.09703374947188356
-0.013858996360143466
0.02600109263179774
-0.08032233280803361
-0.08937493809925241
-0.0513809109010408
0.1701313479428851
0.22263936555328798
0.0195887691527152
0.23100543376151658
0.11159184571245265
-0.1267720553068147
-0.017809167339093494
-0.004733472393032186
-0.0009234748450381411
-0.21875209177566451
0.14254383221723124
-0.12588384572139477
-0.14644606713624958
0.16261563194710016
0.10183253428568283
0.16020327095527176
0.09550856150454046
-0.21999530803787087
0.06784830104837754
0.027098740377136797
0.11102802326531441
-0.07331924193586387
-0.2137758658900854
0.013876830815187178
-0.24008182658098753
0.22398422420112546
-0.1491263452099916
0.020744293492328314
-0.13276986998173607
0.08329963755624693
0.13762702629663867
-0.14097468796315554
-0.15281885631523956
0.10770596326242939
0.12406353414159776
0.008462941178741802
0.1956482161036931
0.14947459940631874
0.21030906057732662
-0.22799150406875365
0.08064564959882914
-0.08599407738823045
-0.14544248048616676
0.18741328471292268
-0.08213605966232873
-0.18040569177876942
0.1776760162645873
-0.16760518333341942
0.04537209028419828
0.013511846287102652
0.14511672804988665
-0.013128849324782626
0.07692987409467542
0.16428439331437336
0.04726800792422944
0.0037074927885485517
-0.09441976314388258
0.06732881254738173
-0.13895658711692918
-0.08410300145606617
-0.08044905584849571
0.22765275940999566
0.10031840192688082
-0.06985240415873503
0.1257033922764344
0.047208544860986565
-0.15965417704651783
0.017534674404530454
0.11315362301690018
0.21519016542230257
-0.2201219226190541
0.11802561849184581
-0.14994206343784078
0.038441727332336695
0.044014216256400056
-0.202704455083958
0.11459145277779569
-0.06079148805981585
0.2391376199338483
0.14892413965993181
-0.18670561626689572
-0.14939201000341357
-0.1718886232277564
-0.02108794827327311
0.1521428834492449
0.04456617455907493
-0.005684163695781861
-0.10100867474269543
-0.1957538514887609
-0.17899070072342246
-0.10400680116843682
-0.11855676002371791
-0.011044415535575145
0.06048736812309975
-0.0001299425901568319
-0.22159511918691707
-0.1317046268866323
-0.16804363088306867
0.17435660198284175
