102 51 51 51 51 51 1
-0.034559052232032275 0.10111594684337466 -0.18842220414000235 -0.02719964202292414 -0.12391197785606854 -0.16056684730436757 -0.1380584699779547 -0.07735221574727248 -0.0064737446265113185 -0.006279820884052649 -0.024298641608868594 0.006669440527837085 -0.1398199562138543 0.18661022173213884 -0.18157151080319703 0.07392798299045021 -0.05394771733652775 0.025567519525524007 -0.15703981853165824 -0.09283364807514252 0.2076296148732407 0.20939407066286747 -0.0459881688590909 0.09848576674197729 0.1687274547027725 0.14384415190387095 -0.12940282624664162 -0.19611112103802503 -0.13554396433206145 0.1596657660739021 -0.18965805979731276 -0.02545573587941413 0.17409163539591227 0.015603959104946462 0.08470469041932864 -0.054192698058054364 0.07064348199983969 0.13926474717304618 -0.176615390995137 0.07462897880019105 0.16304823817083158 0.16813747877680485 -0.08164421631285745 0.08833789516504313 -0.14419380983962218 -0.030506127861746942 0.12576194094014514 -0.10970071273630026 -0.12626350805996356 -0.11145195465766554 -0.19811174500520068 
0.0721782050479035 -0.11325366665837505 -0.05574376787850851 -0.012833811414421777 -0.2442032274096655 -0.022148428102985313 -0.13889753311666997 0.0841308390429291 0.11225167818569273 -0.1462434019361767 -0.07080183832332178 0.12173467599033357 -0.05222850520904221 -0.16841959369959456 0.0654396883548546 -0.03962171874852411 0.05338975613119789 0.142519405294992 0.037477725483874694 0.15067032630632654 -0.1144009263073757 -0.234013962871981 0.13040658299793909 -0.03726159641438423 -0.22398783718096005 0.1958874522139087 -0.04489046933998179 0.13434071531682837 0.17972151854611676 0.1508263943855123 0.07107853378516939 0.07168289673224228 -0.023239342866606536 -0.031636602518685844 0.18612527590866768 -0.03408159161390723 0.21995347615672017 0.042336486786119364 0.07195641429672368 -0.11598486196767323 0.1393444849933158 -0.015679374254344344 0.03210240147810479 -0.04941343540733369 -0.08073024962753642 0.18064714405744717 0.07199082000001042 -0.15682479934585267 0.061987999285589 -0.1103971855376268 0.01546437119558766 
0.1225140406007707 -0.03132635730655194 0.2114073151361443 0.04482800880772889 -0.19101874397473745 0.08399500807148477 0.040409632656496365 0.15587861718738452 -0.16846231567884398 -0.1435869565539935 0.17679447373749496 0.07990672832458316 -0.19359359830310152 0.05328215007432082 0.16517731771783634 0.1441821719920937 0.036851058528088926 -0.04831812873716252 -0.15775875048576982 -0.18169853334480182 -0.2655259164605615 -0.08460974213793258 0.10796777777127924 0.06361123584168367 -0.01323501831306016 0.2006838583918489 -0.1633448639378421 -0.06705777766875543 0.14350428854341202 0.23732350874982283 0.05064971380162848 -0.15465165168080558 0.09578330235077877 -0.005550954608659584 0.11294541875438033 -0.0827687801017535 0.12232575610148631 0.1286994474648052 -0.03704603829044391 -0.2237358065105015 -0.17479798804050922 -0.13325523105761475 -0.1843339432312407 -0.14969991841903058 -0.1345659377502781 0.04406036090910998 -0.1027317635481244 -0.2744827950517286 -0.1467430706630775 0.18615804637883257 0.006030481204965666 
-0.14125652552089848 -0.05686546103440884 0.13467167043499678 -0.13326096307352644 0.06426024766385702 0.19361207550083928 0.13772018935293934 -0.08837679590061402 0.06144919733960157 0.07456566759232683 0.1287434471907085 -0.10249946963860447 -0.18436124467589837 -0.11290817582184702 0.003979908411376521 0.0158554712312813 0.0560799428828453 -0.09970401064117189 0.1782054733456424 -0.008130561447572182 0.04739458601994945 -0.004909087831432638 0.17939340092186645 0.07241667832186585 -0.11720723172666869 -0.17506825654188563 -0.030083892064543854 0.0709982883056109 -0.12987215660230678 0.08058395590129674 -0.18634972971694194 -0.1008438060773432 0.1622063921005607 -0.09496105264490506 0.06477799952201913 0.017678745390010422 0.20346231021935038 -0.09698707395192215 -0.12577372364199577 0.10858608453912202 0.07760989416366522 0.19279039851141963 0.18892160009777545 -0.19255474756222057 -0.062491016492718945 0.07249185918904195 0.1705664739436785 0.16149396571919436 -4.5020046516716856e-05 0.19776506336696553 0.039799627186268595 
-0.055228643830105874 -0.011488390108180388 0.03408728758431289 -0.09114211463431109 0.17165742074557938 0.1641482624422103 -0.041054651579026234 0.17941268758912815 -0.11737010447143228 -0.1658695899752676 -0.19165427005396327 -0.05908877431790386 -0.1542223130659078 0.20946888245694226 0.1286687331944801 -0.1602724769667684 -0.13152559509262737 -0.024989622267427833 -0.13313966474209404 0.12516483370732354 -0.05169546516357958 0.16483865496101344 0.06198511202400953 0.15687705574700953 0.09528555954363273 0.11755003728394983 -0.040872740301420615 -0.006838656518297179 -0.009830898648864413 -0.08149220635619114 -0.04015757605937892 0.08733162800693077 -0.22030259731812013 0.011059466953887941 0.0022933139522613535 0.1048153597615858 -0.08969125719846723 0.1309944870309598 0.010091416543133787 -0.13467358972734103 0.10320050665153564 0.03758974765894076 -0.1956313722960096 -0.04050933656048495 0.07343236661615977 0.1590546918941704 -0.23567029180359356 0.2101062873597823 -0.03923363907481947 0.18377604057550026 -0.013446376369237883 
0.0954101685682962 0.0651119023877356 0.03336794880735015 -0.09325260816006191 0.04008725059609861 0.09949198879004081 0.11447102946966715 0.06200511065163004 0.05315948229766871 0.13852557096193446 -0.06874684574935401 0.0392411687208557 -0.028488721602072418 -0.016526103801443405 0.013104435025782053 -0.029324055793627832 -0.09935199318132235 0.06877756474738572 -0.020714916234411993 0.14575549446079455 0.09286486868957562 -0.10446060953172422 -0.021816772959020864 -0.08147418989296974 0.13683976231404893 0.08441357542239376 0.18001465822896745 0.050305314165160556 -0.0898113110905516 -0.03936462347116262 0.1584935922051131 0.0038311105489209495 0.10948461171281434 0.03121034609864167 0.15274098111110676 0.026991308410536922 0.08470596767993989 0.03280439501792272 -0.00232720890439352 -0.11434558229544392 -0.13006983199987263 -0.01591516806489468 -0.12794475063911362 0.1496864253126112 -0.19994857510702768 0.11058845923230064 0.16525733975355641 0.037408430707459056 -0.01690624425344917 -0.17356245123985886 0.01562676055506863 
-0.007445148359684754 -0.09375821217987634 0.0158941076669473 -0.06601062465212361 0.1533820976273924 0.1773398001497651 -0.11990428203561396 -0.17555668023824572 -0.11562576135344162 -0.052622388996005194 0.14293276104588798 -0.10725701416181413 -0.08616434648127022 0.1910566008442658 -0.030279687007092344 0.0764767015485124 -0.12263434705398159 -0.162581124030568 -0.04675065079954126 -0.013824369630875386 -0.12800832952395322 0.06657558755951143 -0.011591302590132154 0.1012307370031094 -0.10323055358551285 0.09190306687267914 -0.054370354538735906 -0.030144658927873394 0.0891395418064253 -0.18189679833424657 -0.03974115534297384 0.1538149202690799 0.10768029715380983 0.0018591279260726315 0.14432679301943244 0.20719786634560644 0.09663803980142757 0.15015463946001073 -0.18254816959470369 0.033492499169690104 0.06326730991514436 0.08304338806783808 0.12169423244413727 -0.1927198758852165 0.08126957995691238 0.06135722984066864 -0.13964591568550436 -0.11011848409274286 0.006884582557542534 -0.0035107882793200904 0.12836821084939817 
-0.018496516114470857 0.17709606407992692 0.2418942524617081 -0.12614333530730165 -0.0862682289002539 0.1681179505895894 0.04508102256804862 0.24385003525153617 0.13080765623255386 0.23372655910046683 0.02838305104080413 0.05108400383869083 -0.1494468975656083 -0.03963998536615957 -0.19429030595272828 -0.18852295649994463 0.1580191170364604 -0.23037140057118877 -0.05429327798282425 0.10015466700032963 0.09093474488614607 -0.0006266074147729216 -0.03620161988654539 -0.024737200814895614 -0.032263628386459256 0.14972465427003862 -0.13302201834427219 -0.04803319374264676 -0.1566808856870958 0.0340700083924935 -0.010833563821556168 -0.14718821661245005 0.05807487752262968 -0.08400904985531789 0.12572968465078294 -0.08638036551065058 -0.12784427120934044 0.006037084895849204 0.19783164500913789 0.005003786890665183 0.0956189717477162 -0.04753802709036225 0.0647784491566042 0.20497819330495248 0.18072569841875089 -0.14486105937225555 0.09447131304828091 -0.03353213905476892 0.24708010238044223 -0.01796096565228006 -0.12449798952481266 
-0.17835191350056473 0.020869116039763408 -0.11806249021755374 -0.013062877273732437 0.1478701174312086 0.09894520828008552 0.0998086103694022 -0.038624534252770105 0.19696221949588838 -0.008267293997346388 0.13075809356256327 0.093211869774484 -0.12844358904500375 -0.1178629084449504 -0.1980522669617037 -0.18286240780254676 0.016883378561868254 -0.17403437215704132 -0.2059701684759508 0.05378066734112291 0.048055278588331134 0.07151270274831317 0.049294356008076044 0.00010519329700094323 -0.010868147265889094 -0.011229996360405189 0.09387392880017194 -0.055382103505308415 0.17993351895107698 -0.23235261990347875 0.14584417714916748 -0.1068116342484191 0.08245450662117113 -0.15970747390526074 0.00240675725859767 -0.1943983485015989 0.2060148977677748 0.14768388956084996 0.1544048292810139 0.17289064779889773 -0.16742228590153632 -0.11932065273212163 -0.10765233831012284 0.03291251728014613 0.1985582330311548 0.22360408675372953 0.08994702477898034 0.05675123186496968 0.17548059732605933 -0.00829346269293698 -0.08513451044325966 
-0.21441320768715286 -0.09930552174632418 0.14842974271035364 -0.25859965657837564 -0.0689310600842924 0.14168515168600113 -0.05689215804951261 0.21025664403565403 -0.034071655502829985 0.016875453623852853 -0.028519181360444637 0.23331755084395966 0.005455583020114999 0.03158786369966447 0.03329222441643514 0.15062315817295074 -0.13043390519522857 0.022408957816306828 0.11588761813404887 -0.2031880982844827 0.1322587332232058 -0.10162656095867362 0.1673216105771973 0.044816688039003474 0.05656721452907496 -0.0718682063865644 0.03379121502123035 -0.02362449815819099 -0.31152855508125765 -0.05914978058339255 -0.06379176002661673 -0.025350204810923198 0.1987685366356744 -0.02049288054067096 -0.049298523809218925 -0.004279443320810306 0.19647304966152773 0.1855129477032178 0.1760935073774438 0.1812426413294677 -0.14445053987003093 -0.15576142461331968 -0.0886669876669726 -0.11036792472847456 -0.10253693146199358 0.05024935554929189 -0.03867026718016517 0.14826222484285756 -0.07919850870210753 0.12978607721914168 -0.14227424333799157 
0.018350727407322867 -0.055580498343043946 -0.131424976205486 -0.12009841129948338 0.03290813287178762 -0.12057955616162618 0.014549736186882649 -0.06085573287968477 0.009188909364654654 0.23736616759486934 0.06591549517915446 0.00799405884725312 0.16443119199310213 0.14424721366029453 0.002246161278188156 -0.20828252590018714 -0.21094558996859092 -0.18241956689285974 -0.03923386544391256 -0.05571103411973102 0.21578642112681004 -0.17116147313277924 0.24855992664518306 0.08638933568826423 0.03365959199626771 0.06103962230528991 0.074862876959536 -0.01590215764049111 -0.13575233199317163 -0.0848466883273939 -0.011167380523542655 0.0583413618376013 0.024479479111884993 0.016848212855784542 -0.11019976533363922 -0.18216759778712893 0.16357621883550516 -0.051479837688671475 0.19820595772267247 -0.15495131711955396 -0.04186074961869827 0.020870074985122822 0.13051962583262272 -0.023553906415957164 -0.12133396869453444 -0.07835453104460052 0.02980411098381367 0.10732429998388801 0.10943734793119773 -0.1502737903839225 -0.16395577156748736 
-0.09763251501916818 0.0664376137011251 -0.19526827413042078 0.04533743994697369 0.06394861463460783 0.032893855917836126 0.11284331823037064 0.006680307902329553 -0.1927844069536326 -0.02665019736523615 0.1842966327595479 0.10607852319082432 0.18837449860471264 0.16584049143609358 -0.016839063114890557 -0.16452512614426418 -0.04595466818639578 0.10129140399992638 -0.06640241604749739 0.16578221656037065 -0.09224865311412937 0.11431370830466815 0.0458165579175952 0.1932034806808822 -0.02966267189961666 0.12713378918988702 -0.16898397880355787 -0.09048713784238639 0.08974661414072431 -0.15084392594930948 0.0860260257794311 0.1477070041289085 -0.1354330010246347 -0.21321485481326027 -0.16915487956898081 -0.06704435840500018 -0.0686544734030461 -0.17305093102436675 -0.17151928431639352 0.004778382422572391 0.12277457084377535 -0.1298269444719285 -0.15141468694717686 -0.32243334069219315 0.13364782529798785 0.05383028433661631 -0.015269730196508844 -0.0590359976691247 0.06253663389906643 0.0833091435699626 0.16156094226493684 
-0.00029179563896482313 -0.003775196991287096 -0.16513511965052546 0.30949126697239454 -0.16689510309206207 -0.054317513764363674 -0.06960810750417697 -0.07677079571089093 -0.11826161259926196 0.06363235925778418 -0.16880844616796273 -0.003361637579558079 0.12724432716267883 -0.07318223708503425 0.06260152578762374 0.11394920002073747 0.004497388466595438 0.03058172733658511 -0.09984716346603381 0.16777196059853025 0.16673934786115596 0.03768339739559784 0.12780409785135208 -0.15532487430590114 0.1473667968148262 -0.1579768126041589 -0.05836186054638335 -0.03195343901521523 -0.16087542437581998 0.1605593181192239 -0.03422679052137362 0.056931197287046785 -0.01782725744800769 -0.131272026924031 -0.1209423988011372 -0.09442773596196409 -0.006341771579815823 0.029632052773626832 -0.02435082585505302 -0.21444081772123333 0.18022165830347103 -0.16794620940175237 0.23142207486033206 -0.15325795827495334 0.05252694094296754 -0.24873022252797258 0.07263567937439115 -0.08484297295948823 0.006808211664975212 0.1263674799183866 -0.22756937759212556 
0.016938631229130464 -0.10330930375208279 0.09530254007368537 0.1051767904517414 -0.12241979149619842 0.16007437241053477 -0.23516705870547383 0.10747716679131655 0.05830847701729399 -0.03578713728334189 0.11033818425034542 -0.030744365347092344 0.20078588028793842 -0.027971607952331175 -0.16192886284391778 0.16979609320094124 0.18468068516174357 0.03541885238064422 -0.030488225091769516 -0.022500294921512246 0.031175733658287092 -0.11052477574865904 0.12496771690826577 0.10966016038684669 0.01752267433101238 -0.022356520981062215 0.09993659591170313 -0.18280203739626233 0.14731590507281453 0.16475004567358698 -0.08688129853282286 -0.09978404314455036 -0.11538187954354165 -0.07836180798491324 0.1601863090208277 0.036276327967073065 -0.0835602310043199 -0.12307419512089553 -0.049758866040028736 0.013837679495682187 -0.04861842917955109 -0.009277059567665434 0.01996623333908307 0.16255051443730448 -0.024533750886801743 -0.08123590736405091 0.04918778168287751 -0.15714483231162704 -0.023491985563376425 -0.023959349684027804 0.06577009922527699 
0.11454182275413918 -0.052275932142636365 0.05304364456586645 -0.012752980398624986 0.04670440047036867 -0.24181171873931187 -0.0869044623695018 0.11743244105699568 0.03141208683889196 0.037940179255779 0.028352003802535698 -0.05851476330575319 0.10385010023824205 -0.13163850951041442 0.02176617543050292 0.2315388459636993 -0.0007862032618812068 -0.09230499803340207 0.12540285810607948 -0.07473996631183469 0.13468486478892766 0.011928443959264201 0.12127762003513506 0.08669592834135852 0.1878020413423246 -0.1482294091894135 0.16536067959433384 -0.12854182591785906 -0.055217511683861395 0.11826103854995625 -0.1501041329507319 0.09761180772749882 0.07968874499581104 -0.017855270127143868 -0.10828261844861517 0.17464984232377928 -0.06691324051587338 -0.1338750182286557 0.1084297944818238 0.10660304668845043 -0.008014349745947004 0.17783452236233757 -0.024202593838566207 0.054956252087863554 -0.03037069881728145 -0.05591807834412615 -0.13045970103730425 0.23155212895207036 -0.06174136932145512 -0.16824018528574278 -0.10781180856319053 
-0.1557345338622321 0.09473968288510613 0.03337864895702133 0.07536540540031615 0.026101180946985214 0.15522031052873334 0.08074485128036736 0.099179278948089 -0.014374755219984976 0.043116017452298545 -0.09634684099075315 0.0019124641524792755 -0.0650152673842503 0.015440002591969938 -0.09172239002989518 -0.04907423893135992 0.20758524643185033 -0.09450917208297344 0.19165100833321824 0.02655712750842682 -0.05238631583181342 0.09691956466464766 0.1155054755817933 -0.026987429467370663 0.09614095276606846 -0.014646795813711444 -0.10960666279703273 -0.030413292538727304 0.10262033582571416 -0.08999133830952638 0.1520106667382948 -0.06295468433932197 0.007355875514992689 -0.018036836702787384 0.12393786574879972 0.17908501160763957 -0.15111113535468462 0.019720794477202666 0.16985698659810838 -0.040377780739535206 0.14625708066146298 -0.04053495323080967 0.03553129004969869 0.1376980671020596 -0.11343374335834586 -0.2155721059552011 -0.04994996564575522 0.18818403412159596 -0.10134763975616241 0.18736854785393708 -0.10233273747937124 
-0.10087220735357631 -0.13696629010683187 0.12504267212982886 0.03935123152388658 0.08822669827550857 -0.08044595955924566 0.044716518180198145 -0.09897950047343877 0.004817812222414243 -0.0682931088612953 -0.09119212523936929 -0.10027106922428539 0.023704008016291953 0.09702096686704659 0.09413911854448516 0.02008375978688926 -0.09235317148420348 -0.16076795177768194 -0.06962136011931276 0.11112659560786219 -0.15604669956691525 -0.04948735394812526 -0.09522793766671346 0.02882840473180115 -0.07221105969343052 -0.07439114509597991 -0.12364600862033887 0.14773717935087316 0.1567456009071107 -0.1023712715916719 0.03304517344381797 -0.19785952372707372 0.03973498748560808 -0.04900438859996468 0.15888757245947874 0.04384089241347024 0.06600539874026315 -0.1661356297148518 0.02210002099830245 0.20663689047411427 0.23075309238540956 0.05801086979120128 -0.11465381418980321 0.12773574898787504 0.032139128583007374 0.012876602096605575 -0.0453973926732788 0.060044780384215776 0.16449998476647124 0.13598943809690597 0.006877902054124213 
0.07509947476534026 -0.17432128267955913 0.24835574286073644 -0.16841118001565794 -0.0878290620788312 -0.037535104022836184 -0.18520821896664522 0.07358789247943984 -0.1116632965314597 -0.09831655567994786 -0.22662560618157096 0.03365885979141269 0.03228628691687376 -0.03709348520775656 -0.18968869747455733 0.061335915137313 -0.02199787505779016 0.11145347917394999 -0.05878981218121491 -0.00657148273187454 -0.25344399195977796 0.021342490969089942 -0.027036352813336068 -0.07165856096256021 0.03894476807246244 -0.04850559240103631 0.041496293469400654 0.17443503032612911 -0.03129805617245474 0.07118061205129708 -0.042068846357708675 0.15276796759676212 -0.030040825613730095 -0.013269716133658589 0.17138422084778568 -0.1768019457308809 0.19797893639817885 0.05795851945166833 -0.023911575775134898 0.20345724208219126 -0.0811769404738903 0.01214917426652365 -0.2073840995056719 -0.026771429149924884 -0.09360682884267242 0.09134562759232696 0.1898869668548023 0.1762402709412377 -0.08602400702368848 0.14995022350839235 0.10968139008301778 
-0.009400979979468179 0.07163529231041169 -0.027252278008493502 -0.10937620138352738 -0.03926773926924502 0.05559773185784228 0.004003749663663813 0.022809836606505072 0.20000465951782675 0.021378785960319033 -0.11375215506595897 -0.16327032737212752 -0.17289179905027974 -0.06429260687984345 -0.16150025714739377 -0.1265032920248099 0.022173558345261912 0.17790854088575908 -0.20079249871790644 -0.03170596196667027 0.0577772299037956 0.07992041951880564 -0.21167588040442756 -0.11426253512302964 -0.09430317446488003 0.16323084215297326 -0.10344487693060336 0.10295950623581815 -0.023027504244352914 -0.1698291946745423 -0.16006441229065982 0.01084250023666634 0.00037113524118509184 0.10236398647753328 -0.18639224092507833 -0.1496465777241027 -0.13537712314192601 -0.17273910280905724 0.1085372515133644 -0.013213419151611921 -0.15463451472325748 0.10780049368116094 0.19074908669222623 -0.001902420027379335 0.13357469164546448 0.2013360981112899 -0.16021056506521575 -0.2655731977794547 -0.027227601971966293 -0.009826280450075102 0.29765389603896397 
-0.007851818068554764 -0.028312243784078726 0.1201117433500803 -0.015827522239477372 0.11444045703087538 -0.13537088997272378 -0.043944172928479096 -0.06537573935413456 0.00799404846687172 -0.08128061614308925 0.07116509987406196 -0.10555909727790042 -0.12342759409371935 0.1257368409668529 -0.07926592276581625 -0.03397065510734432 0.0016568344602713916 0.01130065233977627 -0.12907002901391146 0.10906587062546527 0.1931403355605359 0.053250652158358495 -0.05732170895946892 -0.019889104675781314 -0.04802148210968798 -0.012917528583487482 0.28006578994983217 -0.05642351674592268 0.08511186132400517 -0.11829692032305358 0.09256876783452787 -0.05214268407857052 0.1980601748757453 0.15015961315713167 0.1372177000054034 -0.009035573108263887 -0.07916954311464755 -0.12102357172478057 -0.06860206128556198 -0.14125268814811065 0.07470417987698347 0.05097884640333973 0.005171560853718956 0.11486693706543752 0.04965912721461382 -0.1526113215005131 -0.13121957794286768 -0.09262854664416477 -0.0629677059298832 -0.13648774482037657 0.2095301868933162 
0.09428127630832009 0.040034687149503104 -0.030481576989068417 0.10150899306562866 -0.09440678452804908 -0.155517325326209 0.1099364482684814 0.03016367702331508 0.10279876157266313 0.15551659786147595 -0.10649854981804655 -0.17606871363844326 -0.13303466088422433 -0.013028617243081285 0.19218572847471896 -0.1590578449121065 -0.02227446648943965 -0.1421818202435439 0.10811068201802668 0.18000749262064633 -0.1918512227428261 0.006031120998499846 0.01047434428291337 0.21163003681802758 0.1669378257052771 0.05163467126045948 0.1812732838419114 -0.11631486037675201 0.17340668904433756 0.009340082833226113 -0.07958922994238878 0.13264117333078512 0.008966841868722679 -0.1425942993640798 0.1325345483547738 0.0025867987186927338 -0.002831803200348816 0.1581845621857938 -0.1356482367740261 0.049578332874244395 0.12799745474279065 -0.13592376074042817 -0.150796853528137 0.18710225048788492 0.02062010742220795 -0.004665312531809211 -0.10139497611708602 -0.07408544872943404 0.12258378898363113 -0.03643212058592769 -0.08969795181444618 
0.11471653002683113 -0.12374080710303562 0.16862909959110664 0.09980577498216617 -0.003916834312127109 0.02698728889824911 0.05693231560846104 0.047255135474814934 0.1786688199508528 -0.14503413630730183 0.12782718579371372 -0.15427602945296584 -0.11688561151908392 -0.15290030791849457 0.03986090085821285 -0.10405636070926196 -0.1088124235586725 -0.14360510422097045 0.13501039153891067 0.013838050420490387 0.18845019046062503 -0.04085312979307545 0.03161705280107066 0.176062893094789 0.016488550429870245 -0.16709115919810572 0.10435769339331168 0.1710947201956999 0.04283574767514778 -0.13279446542227782 0.07613789329360915 -0.15061390696807384 -0.04309274262648509 0.19208200924526928 0.11283037364207234 0.10844349045925496 0.06844335561186363 0.15614152955915783 0.17756388226885977 -0.04837355127224634 -0.14931181023162501 0.08592467604526749 0.017168457550896545 -0.1132687659606094 -0.05923860192245111 -0.13974006121625057 -0.15955261862086295 0.11936182637346153 -0.1658970216780449 -0.0629115023545272 -0.14619365104879048 
0.16893467725456385 0.01762461255393908 -0.04609766357854571 0.17318154188341123 -0.035472758896715986 0.007609256705941733 0.05402177648718884 -0.047992855885029516 -0.019899442868969778 -0.07645815382217196 -0.10635672106001232 0.21666827936942978 0.04978301156874087 -0.18477177523611718 0.1294933614280219 0.07918777765667179 0.16795311312829775 0.0031973239024563143 -0.12366836753182081 -0.03169753419236866 0.04291620067765455 0.041291499334968285 0.039466925387785845 0.04926014501410018 0.05948228987355693 0.050803759547475486 0.04522636208859103 -0.1292639368078674 0.13126290431447188 0.045685545731057695 0.21078902847421013 -0.09258441259495367 -0.07706211727882555 0.07761696361920067 0.04399719593350918 0.08665457726222925 0.08104399487736827 0.06537123630859823 -0.00904142819402655 -0.07526663416321902 -0.13009854410140184 -0.011568844309990684 -0.033264564626718104 0.06763896406879388 0.09328895878202544 0.11897534301302184 0.06720256784348873 -0.23789888355784963 -0.09404632708039562 -0.13971089698428488 -0.11439872224356021 
-0.17734046135367457 0.11200091768356482 0.10742945272827414 -0.06238090144919544 0.3308274484334314 -0.20457562752905825 0.09524669474042947 0.14182098167336066 0.11503870831407856 -0.1360917963992983 -0.004838386229106722 0.1389777228402886 -0.09025553938031458 0.16241329217649275 0.055494904399044837 -0.017211862473676655 0.1262894623694679 0.14730915222126298 -0.1291722001410453 0.20564194279281098 -0.24540363743842064 0.14514084754810072 -0.07114382090260432 -0.07130811231606164 -0.24066353831590262 -0.021043914784237974 0.16762784099107894 0.12471705980168286 0.04633309449381226 0.24808078076123144 -0.009247412196422675 -0.10151031563298885 -0.018629072868356557 -0.06426681413829315 0.18609486626902605 -0.14944381817425198 0.18542547932213063 0.08560729236351448 -0.13407063501408678 -0.20957875036744225 -0.14080690379444172 -0.13005585037886055 -0.0016842707683867514 -0.08780971743252236 0.3199494893870919 0.17401517701651945 -0.1542478397197688 0.004083939937896222 -0.0690025358022183 -0.1014867622043569 0.10953989171428666 
-0.0037856849346687 -0.15660266423344177 -0.1059862589130663 0.12493748322889199 -0.1636978011717549 0.053565819195670425 -0.17045850097315302 0.062351338953512435 -0.08260864077693308 0.17600904373290624 -0.07799885293144425 -0.20197135591962911 0.2223157084731 0.13349000134533442 -0.025152340054218996 -0.21411031424619115 -0.12721017443778893 0.017810303165415785 -0.10817708224676945 0.17211721098333743 0.11621485475797293 0.08093955521894279 0.0288304009073697 0.16948037122897844 -0.0834231705172514 -0.016749659649210265 -0.2214335855225313 0.21164464777026262 -0.039655351004009624 -0.005309851400344446 -0.07388325864969526 0.08197301727599886 -0.043309336495674595 -0.06727383251219708 0.22989653994241452 -0.09341382469844135 -0.1186908493958749 0.09738597154086504 0.05546439653321105 0.04896940055237273 -0.17139552142409864 0.012433601383164742 -0.005178539969310261 -0.025487669422522712 -0.18990578313158032 0.11219778534817952 -0.13979716848103496 0.1056362056545586 -0.033218661665165135 0.011991930854677701 -0.06066373855003233 
-0.1673009443115407 -0.21836437053579505 -0.05726613651117541 -0.2648525817546393 -0.11729975668331963 0.09556000786353146 -0.021681888425241005 0.07143646790859871 -0.30093860238019554 0.07137383381381873 0.1633540244655355 -0.25911216195956976 -0.04696190416711575 -0.0669329364167919 0.23649262077551378 0.22049444858093095 0.12939719769915498 -0.0453935261525683 0.07596972329484256 0.01510732576740139 0.1670074296559773 -0.036729955750217265 0.04379963354944089 0.14750177668616718 -0.19150258868014292 0.005262270505241387 -0.047980077556768835 0.08960561505558375 0.28160697072368635 -0.04077926067773883 -0.07397944527177262 0.046505541105019 0.04392657267960741 -0.035978521047443444 0.0779099916197793 0.004814263297919171 -0.14394309943545602 -0.04329327316627753 -0.07781252733258417 -0.1168846935378545 0.21214130297186826 0.043551678318027635 0.013620765562216969 0.04491644681381801 0.017014243723689287 0.060927589054221735 0.12387190457553109 0.1278221600611305 -0.0342368985556994 -0.20256556858211328 -0.15408594851746293 
0.15894276585502343 -0.13134596255913322 0.06104296823186348 -0.12482172165317086 -0.0872831235370433 -0.0025927984766905402 -0.13811382587205348 -0.021153653152332048 0.0429012469000614 -0.10679585671020021 0.016582810030831664 -0.013710691269572283 -0.02408267966385483 0.08423480812486134 0.019074406876473687 0.06927162619364245 0.10882057702389657 -0.09933089570092556 0.033705050373791595 0.16113129836924284 0.008015826155085538 0.18058626776771686 -0.01607758705149339 0.10566172960635102 -0.14109858644918988 0.12213216764753734 -0.04562893951643234 -0.16662329685204588 -0.12276258007316447 0.009709055184265972 0.08074823193723167 -0.13624354550868154 0.017702529650965394 0.0834802293988131 0.07542085626530827 0.14660723276255277 -0.16514057156223538 -0.06704773350696994 0.15844338709498199 0.09729879131761217 0.0300970050629106 0.097821700560678 0.1662880055823513 0.23940853311332339 0.19861546556469803 -0.1296829153825045 -0.15273864715352906 -0.10623401714003626 -0.14827837221123358 0.18803084397248462 -0.14236301009779678 
0.10348999691166408 0.07746662801317977 -0.005438729369805831 -0.05290755135681813 -0.0437195094059885 -0.1314296198236861 0.16198710370652908 0.07232325986062124 -0.18285545921686058 0.002072534790921841 -0.06567654908670191 -0.16399771532555335 0.11681870086811126 0.05887301016222882 -0.0844062082354133 0.08840555810136429 -0.06551216109405747 -0.057584258500341365 0.16855340635746174 0.1714844664190957 0.028597827365522833 0.24505162128898578 0.17151271002969426 0.009981410550200957 -0.0640545250421825 0.03805006465202946 0.008870049773188487 0.05562059852152119 0.16351477074508325 0.11384826187828599 -0.049577468829394906 -0.12501905551031356 -0.09525404790099307 -0.020875190480382014 -0.022989014090287776 0.07159287491294272 0.15036222089524673 -0.13409325273212874 0.13353180147849472 0.17226310046245283 0.17369889945596537 -0.1410174284311256 -0.15864543010323126 -0.1510927456004182 -0.07352156847628609 -0.16897653424381556 -0.0618489055401157 -0.050185701430855906 0.18749746258884406 -0.02069668387208671 -0.06661080740014737 
0.02906735237110251 0.11766168597332587 -0.12449943926010965 0.1416449851095618 0.16780563866849924 0.08302472745733804 0.16937141200096983 -0.010836171447036693 0.024115611527068443 -0.15104344602985004 -0.08917501034172805 0.1564657007727956 -0.11841684726331221 0.16679867960047381 0.15000702678078992 0.15422781864331878 -0.07552411411780731 0.1062481843084333 0.04736290875168859 -0.16635431554276134 -0.04149234680095622 -0.17829706045825316 -0.05947604339006396 -0.20000783883039344 -0.11956957585905026 -0.14037314065928694 0.12332064066285074 0.08569120015810901 0.06351313674400069 -0.1232691278379394 0.08956435174805685 -0.17349362635795346 0.05817950828176767 0.17129911395651462 0.21958680139304085 -0.21068389416814928 -0.06857108303918105 -0.11681102144044365 -0.13205925568295596 -0.1764443721404049 -0.07195955245329802 -0.17587879146403843 -0.021786703420186185 0.08185647226447063 -0.03849429460423744 -0.05854571791406098 0.05048789951450561 -0.08903440485236501 0.09998734190548948 -0.01357185020204398 0.049081296696989 
-0.07608223724729116 -0.033495358874342136 -0.06138482090140263 0.15362131310502372 0.18301230889530712 0.13326867076620494 -0.11186356844636149 0.21856300031957498 0.23097107422688654 -0.06855766855306039 -0.15195223904775235 0.002178081997488991 -0.11027801035462459 -0.025287850285960766 -0.15838747834971267 0.16077696410408 0.013927536895537577 0.1873574063968632 0.03722368080185415 -0.07489462633438239 0.26835383309689254 -0.16727799427333231 0.06115547695282127 0.105293222700844 -0.021660537330234715 -0.10305472949309301 0.010464136906129677 0.0019015357522217339 0.16335146639432618 -0.13923111339811656 -0.0068317913255360576 -0.051663424781643826 0.1268498870389792 0.24415625707032892 -0.15426024640225966 0.10503905789455278 -0.04347101432876632 -0.20227234739034777 -0.09700907449270929 0.19812254265448406 0.09935330068758874 0.007467663524566618 0.16941108104007227 -0.0027694623332137846 0.03908363851691256 0.02956571437371738 0.07447581368428739 -0.1859087197244947 -0.20576788750065225 -0.04116163850753933 -0.0912715177529281 
0.05411476431002237 0.026951144771352346 -0.06286346012512443 0.08204056497619243 -0.1894065391294072 -0.15391815571499035 -0.11145718987922598 -0.13041585572440964 -0.15484263161251238 0.11794130314872783 -0.18398095784791318 0.04412641405437591 -0.11356690494604038 -0.15683444223609305 0.06441888174367999 0.16985082258608547 0.1633217222070391 -0.13085470894617024 -0.23402984233867705 0.08979607345280585 0.08306028038023229 0.14942384058492822 0.012521317669188414 0.13982208252922504 0.20730433204244017 0.002155531170181279 0.06625620722480295 0.06221074212710996 0.1109488016220651 0.10592826996636703 0.040268639030391566 0.0132381465245914 0.020058656747862346 0.11158908791567447 -0.09155050468669419 -0.13934503565114173 0.1782828322279456 0.042578200803406234 -0.0900018323514822 0.021951084194308756 0.23389121616229358 -0.13786543462996448 -0.1566210430123816 0.07378225284184012 -0.13039561152709814 0.09815089492318228 0.014659112462708632 0.12064158482498413 -0.1143361998828368 -0.23542163067217298 0.09975908770845314 
0.00516014315744135 -0.1739491928751584 -0.06423770057210472 0.0025503735118796492 -0.17071982617246131 0.13993505759189043 0.16470988642532872 0.16021623326447643 0.06787261425058093 -0.016250732657281747 0.11967401018426387 -0.0334172144873534 0.015783040020484435 0.06402621757184922 -0.054319518809451774 0.17938585117934702 -0.1056224013696311 0.09132283779721373 0.1943071691423548 -0.2268288756602809 -0.10192511071869048 0.061794738841679485 0.16277103616926036 -0.09497052286971398 0.13892145011693122 -0.07011844121210534 0.2523689420360617 -0.28595731099685295 -0.16771042237798042 0.19721681635930205 0.05972046159655574 -0.11749133327520812 -0.15586625590794495 0.03245728462824396 -0.19816846868742147 -0.07349473000514095 -0.09319185912034536 0.0482246796995012 0.042668529552593266 0.1183938266601331 0.155380977407638 0.07256642793338428 0.03803698289137743 -0.09188613438365924 0.17329420546183008 -0.1822709071494944 0.15331579210901566 -0.03310623992638365 0.03178362184288047 0.12602098351868296 -0.14470176086431222 
-0.14878348412916562 0.043424770683813944 0.16531313292674402 0.045865716094392904 -0.08255987333250066 0.16307552315916252 0.010997077177510708 0.20774662449618753 0.07677803228958516 -0.13222617087883531 -0.017961168286423374 0.1731679647105194 0.16417604531288366 0.16388087550000058 -0.05113155489030306 0.03789364757601448 0.07923114009531268 0.09995670576162599 -0.09523184999584172 -0.07965747066869161 -0.18693498176077616 0.05116532364044584 0.14602849115187475 -0.1030440851442342 0.11930485313386215 -0.07345438582749125 0.011440087850709124 -0.0652996703471048 0.05842034238810406 -0.08100636581336129 -0.06217774011668453 0.12481368001800082 0.20428340007787574 0.009836419119808334 -0.08239495824185215 0.17990680998629063 0.14828090140541747 0.05164513469939911 -0.07187890428624495 0.14049846152002995 -0.1789911036426074 0.06745887643647197 0.10204343586122346 0.024541658250066822 -0.008274490774495815 0.15284488498767165 0.1804380283388014 -0.038104267409322407 0.058439091561607565 -0.06881581916607618 -0.2197622371241372 
-0.09901547970978007 -0.06136723237039171 0.0867503807160865 -0.14053157021695628 -0.16001622235873997 0.19347223029549526 0.11135458287343884 0.013062301537636989 0.1674907821395932 -0.19766662265649892 0.22535112124607543 -0.033517357483557296 0.2262749252914313 0.17845169210762518 0.09187766828053505 0.016579713117206706 0.11120805598144919 -0.06451232416977787 0.18253867120504824 0.02859807433519454 0.2169329108833544 -0.19205889035384197 0.07899520436514143 0.024170948507885617 0.02258646093989465 -0.10466209913426036 -0.07335914290820171 -0.07540649423832144 -0.004488288355504803 0.19238055485622826 0.01183551137938727 -0.13861477681377848 0.048556819141734944 -0.026422877795385633 0.012809798215587625 0.053474899268976035 -0.07427406967057713 0.21444734420107198 -0.2040061878358082 0.13921528384741463 0.14685779563380458 -0.07056451128067986 -0.04299373790568732 -0.017981879030190853 -0.14568542930504816 0.08122704409124594 -0.12785565672084165 -0.1426503143164989 0.17506786761168808 0.09561446014841919 0.03833027700496971 
0.18454381488110747 -0.031721854373943745 0.23617747805871184 -0.03318109245835892 -0.016688725259227086 -0.24811183349346452 0.1968214467161118 0.051112466287753275 0.13510386112091022 -0.0074904537832104845 0.0534328004353983 -0.24004883099476929 0.1764285423099144 0.16815658008257287 -0.017690119164687032 0.12481240185838478 -0.09254707388525757 0.13574693642364005 -0.030829236261436167 0.03815868485216135 -0.07275529628022288 0.04437348076343395 -0.19818129786808697 -0.11271037400368253 -0.13740143770114893 -0.18936432218482271 0.0768036575301868 0.12675506360363176 -0.14618208624963214 0.04230377800268165 0.035682937758533456 -0.049230879642774596 -0.08965908531499465 -0.12100066112639528 -0.08076837990672252 0.005062638234223378 0.08902731683320345 -0.14402108725488347 0.1240161729017131 -0.12106739032249084 0.1335397988590365 0.0841418260196009 0.18384491939910605 -0.036686033691884376 -0.005891381879912775 0.019067118059725 0.143179936181223 0.11600609407931542 0.12309203588675473 -0.009340164203863284 0.12315113759111768 
0.23243506676428483 0.024771017047070472 0.1019989107335466 -0.04433049246685578 0.18861650950094694 0.04937742093044383 -0.012285630752453843 0.1636770195294899 0.12180420845704137 0.1195637941313582 -0.22477989094131276 0.0571539174219647 0.16358839892694085 0.09994415360377308 -0.03252832362676557 0.2281253036352579 0.0004382317233073224 -0.09476979317771421 0.18033151487395807 0.15537018880098494 0.21370282718521533 -0.18659437397554382 -0.15305222058292547 -0.12236387020335922 -0.032074703708494544 0.12624414396621855 0.1952346469587801 -0.20887074102840608 -0.22061285313057125 0.09583998594601474 -0.01492862908061738 0.07055853414835088 0.04766011237007948 -0.05720873414772536 0.11039886906346232 -0.069552292846802 0.045472693901153806 0.1972697391817665 -0.18990670665571055 0.0844681510176552 -0.20101281701095375 0.0606405991660214 0.025331499713139912 -0.07295366369888225 0.15680059352039077 0.04194179900444455 -0.10905682307912963 0.058857054296200716 -0.055819472164078905 -0.0848748844516061 -0.17595151106763338 
-0.026375288007417865 -0.06718289390576337 0.06647077963421519 0.06480090774989591 0.00786441532574034 0.08805908815190552 0.14338568257085327 0.11671071684380746 0.05458689717823878 0.006366479497094985 -0.05465684154999277 0.026106434879263313 0.04464119422709512 -0.0952449638152721 0.019514694774014654 0.12433466185794714 -0.16445525382894224 0.18706295946397056 0.09768768066649408 -0.047890078681761566 -0.17610655310928464 -0.10682365435210495 0.2375914639306594 -0.1568776450758578 -0.05197049108692172 -0.010817906350479738 -0.09613940394142871 0.1301269775769731 -0.09808741603398648 -0.02991679858497359 0.059227415446179675 -0.08106961760611082 -0.019511080091757425 -0.04925303721789641 0.09177118111356121 0.06040686577094871 0.01018517497239625 0.08085186796856188 -0.0061806827798851684 -0.008123371711372432 0.08722534364674633 -0.030845438425962473 0.07463411903259441 0.005608942221153088 0.18820469337310175 -0.10443932480310743 0.006942534460701845 0.155005742016745 0.055561010680790085 0.1341015300746889 -0.011022338779745568 
0.05521267792327257 0.1671751493692587 -0.07762985536267977 -0.007245261150911032 0.20453745562761771 -0.33157413055047175 -0.12622584131069653 -0.15048622435560313 0.141065870683874 -0.15505403317124294 0.0550025250734356 -0.06916892244688864 0.24261413298804527 -0.17482953897600614 -0.09190582224008216 0.1749516455299103 0.0743820466835447 0.04637081217616756 0.0224593918987037 0.05535673583390161 -0.021337472776088374 -0.10041078284182706 -0.07565708089401714 -0.11141675059802786 -0.13643198499072032 0.0680588678539864 0.16011646785373973 -0.01837803997893399 -0.24091351881773834 0.029470946116927035 0.05965889473358932 -0.033348314448636784 0.08860898725249229 0.16897858424635315 0.10902137744557319 0.046878460413891626 -0.06935062590860888 0.03829832526587483 -0.2452808909456734 0.14716259821549327 -0.10969391069081001 0.06590845612088872 0.1431262357393935 0.0941886704696847 -0.08025097573467668 -0.10404221573632676 -0.03523126837272776 0.16252546570955617 0.007188887939466518 0.14527592641160583 -0.04401199755592419 
0.05391395705931997 0.09933902346062601 0.018033972918527773 -0.1386230790925501 -0.010793913801260433 -0.15615321638365912 -0.06171105369184472 -0.09887233962340675 -0.2796560633320705 -0.04137857362190898 0.1887539838766505 0.013107070318132743 -0.11151506416729173 0.21516826135139855 0.08054453146094546 0.12469236038909844 -0.31160680938973223 0.0016390281037042206 -0.1089740577941263 0.14575091279178334 0.05070336043797668 0.061121554557907534 -0.0002259912492449983 0.1878088173522409 0.2349765362660591 0.2518779548319782 -0.04947225336166259 0.15964508060414573 -0.0983048522035197 0.12158552923308871 -0.08436840816151736 0.05540488815539649 -0.2786712573338738 -0.11084288639079354 -0.1699638932020502 0.13900316656298065 -0.22362382450740692 0.027328124809161934 -0.2435869427896022 -0.12642467221342635 0.21109169559836122 -0.024615961487209122 -0.1875217005261574 -0.05227749398213604 0.09045452156978376 0.09573772969375309 -0.1972486099545056 -0.15742285847567838 0.04778016999419992 -0.07075984939655196 -0.07394622368561828 
-0.1265520216223524 0.1266079641670815 -0.08192903792666735 0.018337494457349043 -0.09600317176770055 0.1252371515837189 -0.03408244641569459 -0.12580509528406472 0.10005092400480323 -0.14798248557150084 0.18740674447373418 -0.005531807759710863 0.126927755261858 0.08691617800337627 -0.074733708370824 -0.04621659638017879 -0.015587389630256068 0.14830451540748033 -0.09538059148944047 0.015541157517304149 -0.09269569367334732 0.10154404992829455 0.16516345612169342 -0.011355139371023908 -0.08932960858402443 -0.1532453923499783 -0.07138436862062052 -0.04264456376433286 0.021672913339659892 0.15347946076343547 -0.11280420739824362 0.2355294246959675 0.049318337433601825 0.1383440416213003 0.1639064102342178 -0.0426621034529227 -0.022518278486390552 0.13995226758741633 -0.022708885479051644 -0.06449500395816786 -0.1199108353219152 -0.05396923430862252 0.08081278362994816 0.1431465266240007 0.05095417861152706 0.0175351644099085 -0.12889591640549486 0.0430267954164551 -0.08400935590939039 -0.1816745353533011 0.17981398443741503 
-0.055889315722002376 -0.0002344551855748993 0.07817382995651606 0.16630564184044172 -0.1634284768000086 -0.12596257829452084 -0.09499149977408472 -0.15377808694726755 -0.027038424313803006 0.1159385030873806 0.1415121001879206 0.02379502420889983 -0.09878382684037423 -0.08746616073014186 0.144713447340569 -0.07916000371299474 -0.006379970217710588 0.12313327029815885 -0.0819110016636234 -0.11694760512010395 -0.1587756026336029 -0.12060602360719466 0.14626903323322699 -0.15604107763736658 -0.08848617981893836 -0.21931535129083593 0.1152768954839228 -0.09689020779467848 -0.04079087906744659 -0.06478923045473288 -0.036613589521363114 -0.030577291660902603 -0.024171285972401833 -0.02540440177406193 -0.12652918175751288 0.13380300922823557 -0.17105332161828346 -0.01635237681470659 -0.0883126429828041 -0.1306893693473158 0.10877076429512993 0.03942737498710236 -0.09365530165815261 -0.05006604094284014 -0.1362558187556688 0.0717692119790992 -0.08506870900079842 0.08844678779699845 -0.0404802305246187 -0.039667909908582544 -0.056131744441450075 
-0.09486824430557789 0.06967403489401584 0.2540812808622812 -0.11135212387990225 -0.05647470272394054 0.03884579548029116 0.19974998052723925 -0.13658632921997424 -0.04775001319233602 -0.03322367374838082 -0.0006451519054791512 0.12368461275443231 0.14922337332865207 0.04532138018191847 -0.10690422883592016 0.09134883812580231 0.17818340141964106 -0.09862367170797745 -0.05847084619773509 0.049017873047759966 -0.1218097452434882 0.009572018713159871 -0.07776424746115458 0.059710838983724555 -0.0363466320274619 0.030709802382765557 -0.10434955466190247 -0.002346963860939867 0.19292373375702637 -0.11357718852248565 -0.09372758504484364 0.04451390128516773 0.18973489467472263 -0.01713388546708362 0.0020139858055125068 0.09321355216516101 0.21584173457090963 0.05324369619129247 0.09778295387873467 0.2072177045023952 0.11996496432831678 -0.19416508669818025 0.031481302452550514 0.027711612919121466 0.16869650383182505 -0.11869695565070228 -0.05215194330250599 -0.05310219170933221 0.04377581946811515 -0.009091576919874968 0.07951873367345513 
-0.0011118261657802522 0.05298003343402708 0.013085356239964095 -0.02775134082404585 -0.20973641119212785 -0.08756102194302312 -0.04825949735368613 -0.1518987625948909 0.023595706168034542 -0.01639580581229389 2.7540032379585996e-05 -0.03343976654527206 0.0458060377361268 -0.08271885851387607 -0.13422724742415318 0.1339121278673808 -0.03225332884559874 0.0563149288419347 -0.0952115293579934 -0.15005321778977534 -0.002588658647728466 0.05988949731912961 -0.17344052336364751 -0.03119430199708909 -0.027128158258768485 0.03241564368349532 0.04721842536917966 -0.15629067657037932 0.04305523614679247 -0.012079987888027662 0.036554547480771145 -0.08950271327132521 -0.019894191412422463 -0.1710163786319621 -0.1560592709345364 0.015502709620914878 -0.13902530701036106 0.018002994454847744 -0.017974798560341107 0.08571776197887439 0.006695832871406387 0.2149467116929002 -0.03665031799191704 -0.012851194386876404 0.07545739459054215 0.018712256070033885 -0.05739524934875914 -0.004719801756847715 -0.13084331313743988 -0.1102928298891032 -0.14349692427176652 
0.0675280220603895 -0.16539358785738634 -0.076933496411379 -0.14371344451257695 -0.014688036862546341 -0.14774357317607048 -0.002089612647307474 0.053913883571085744 -0.08727881458739492 0.010780270933966048 -0.14840827080019922 0.3104103711346835 -0.07742338192640048 0.26549411724640565 -0.12483402509503139 -0.0007193895987214793 0.04460688164796614 0.12748585507020851 0.06167929226655178 0.04531875258989185 0.10215036819011529 0.2585738949547821 0.02358511878126814 0.036261651483730686 -0.13219249771102384 0.017807689514899788 -0.0178926778791864 0.10786148127484901 -0.1880971630403804 0.10962552721276023 0.013477774966240981 0.02812133113043608 -0.22030661663675505 -0.25772641100781307 -0.11392473936705907 -0.16516187280655922 0.014874877725393624 0.20171329768254057 -0.11036508646032259 -0.058548143198977734 0.08725716584597816 -0.05931743317828873 -0.13485308212214067 -0.038923395279899554 0.07941697541494307 -0.1675407084196315 -0.11288111702124864 0.08170467362567531 -0.12278093931256526 -0.21955226566328848 -0.1140417731606877 
-0.09249027470506464 -0.001849144553121936 0.10422695452446644 0.17714787933781137 0.08131010965910043 -0.04662372875913995 0.060157472761664554 -0.1838093486417226 -0.11884392147014863 -0.1240257245335302 -0.07153913481433835 -0.10968913867511007 -0.05421241477727911 -0.15117356008351976 0.22999119935820792 -0.07707611886761952 0.1449855644638717 0.11196712861918755 -0.012533061254262698 -0.003673352386100863 0.005699522051105744 -0.10155095217239156 -0.07750048513904713 0.1484421586386645 -0.09954786056545056 -0.13779354802367527 -0.02223688473199053 0.10712930838451352 0.30055764222729975 0.11295482332192192 -0.1113827873398881 0.08080496207972655 -0.014674522081687144 0.06792946989576258 0.04066852861455929 0.16831699255713825 0.03523555371441176 0.11003394313503895 0.09919551252426366 0.027272161712922113 0.15989747257535966 0.17297061627161625 0.11461911667949647 -0.10855138476174025 -0.2439827460463792 0.10415233490441805 0.03239085696689462 -0.00861571722664976 0.011155371383839551 -0.15337606571970952 0.1685335780524115 
-0.14203040308409587 0.07474881241671955 0.09285393955599722 0.014923946807649613 -0.03755800446715288 -0.11627693900201387 -0.08215402881339091 0.14580214814782103 0.08962834855301946 0.04755848987417733 -0.02774822763652073 0.18928945590298132 0.06325201248304747 -0.044489789329435855 0.018706653157648915 -0.006880724330170187 0.14024194390925684 -0.12922146053431408 -0.15080011402734272 -0.06428923351909582 -0.027195650921317854 0.08182905943475291 -0.174414781940085 0.03666137376326078 0.05512301408585787 0.015559149083432745 -0.14483914541635695 0.17051671129154372 -0.021263394435107604 0.014965496846732085 -0.03660688374538013 0.04893531411820207 -0.17702378831837354 0.016963425350545912 -0.0752741842934271 0.2191995592442336 0.030704751824149407 -0.07067569523356537 -0.07901365137958807 0.09621587623158365 0.14626264143699338 -0.05447862839791624 0.0098409415015121 -0.08566531712364353 0.1761911309485327 0.06717028196339742 0.06858119533953806 0.19086907399859643 -0.0972481654932191 0.07615113419295046 0.13315117911344734 
0.08179175694070043 0.06595342811008328 0.16785306702218297 0.045828229163298 -0.10710073976140813 0.0012926342332974905 -0.07816133124922355 0.22409546182150858 -0.09665977455553026 -0.06749912536605844 -0.14709412682741962 0.030640589293915853 0.01708573591594994 -0.020174381679059706 0.12326471077405445 -0.032073449126544445 0.053503858508373324 0.06580809082450416 0.0345711265388834 0.016011231358167306 -0.03746794483007064 -0.04129262923161319 0.12738501073048458 -0.14495684380867696 -0.14257185205344644 -0.11706763550655322 -0.0028588586737102015 -0.1807144006433588 0.09227335620989442 -0.14135724708471795 -0.04251825220405701 -0.021836323256011324 -0.07581793796309375 0.012472106403988137 -0.16463543717499338 0.14462754787509818 0.06066436322648818 -0.0999133185280839 -0.1500278195776618 0.011180282123653408 -0.03039164663531347 0.1947924950890872 -0.043172912866442655 -0.05374749798310191 0.13691410473610727 -0.05933003745777612 0.06286808289568624 0.08644379302636934 -0.12265472304814166 0.03157910507516394 -0.16363096774134 
-0.15069957700793382 -0.1342284384566534 -0.011980662910087309 0.12780632173245698 -0.03870423382024242 -0.15004907116219984 0.11934115177407648 -0.009234767294179784 -0.01725389006432454 0.16500240957656392 0.183209703960765 -0.09948476323499333 -0.05458634699702527 0.06498595697263532 0.000997798198451526 -0.03268296494260405 0.062388478588382715 -0.18939902591023663 -0.0922655594398092 0.11707082462836238 -0.2754609718518894 -0.07037602428515334 -0.05512445587864818 -0.13039753368929682 -0.1427960540622705 -0.04069673259200105 0.029750622116896306 -0.0799630831166727 0.118194446520772 -0.14034848935579414 -0.04228629010894222 0.04013862485755885 -0.1391142946726285 0.1470021136735945 0.07007219523455893 -0.11682637926152684 -0.13547193608048225 0.1327183112057051 -0.04750381648856893 -0.04914181475452978 0.12735955993657933 -0.10994362778770012 0.15353474248444787 -0.13952236064636475 -0.14452969209357103 -0.06800905589686838 0.12842991085987285 0.026213425762115532 0.1114906874284651 -0.06739725499040912 -0.10087237292310675 
0.006167173838798436 0.15301267036111393 -0.0063032511605544995 0.11256368716789225 0.04780954810727661 -0.08258195329552331 -0.09672899242983292 -0.09250546094737006 0.13756245795921473 0.14585263398852769 0.1113744462007176 -0.0682041533336087 -0.026087821259472812 0.03155618124233294 -0.009007043519422133 -0.032987663518431756 -0.17380822225896045 0.07034794641288217 -0.12528835195058324 0.07981798006122537 0.12053372347739116 0.08711733450461115 0.021393437809549207 0.08626170013109802 -0.043562301554234566 0.11205416783340127 0.09005149224135041 -0.1433503994168922 -0.15659123162418886 -0.11673795178111042 0.0012953621669426429 -0.008221867257749819 -0.14857170160752609 0.08494693800994617 -0.10809792168377565 -0.05768136786426972 -0.010043219947032417 -0.06418845025627422 -0.012970416047237554 -0.11908765512084207 -0.15553539172323871 -0.0026204379242433773 0.04357413304091889 -0.13260910405934306 -0.09330139011064974 -0.06396987182935014 0.12119146572293425 -0.12351551467830389 0.03228272338591698 0.019553001735289257 -0.10746089397482132 
-0.044634924297480755 0.15758093182089283 -0.06387605457198905 0.041223515951567334 -0.019842078858172508 -0.02352481771441851 0.030330067402736485 -0.20025426554406492 -0.04945509830401272 0.003382566701971696 -0.11293135955497378 0.005196998409426527 -0.08194399870670784 0.15079492218873405 -0.04739902615207325 -0.08235924241343016 -0.04684626915082468 0.053348645180105764 -0.13232186100966203 -0.14793935620809134 0.08982130269772029 0.11472098777262028 0.09858211824526474 0.1610806041566787 -0.10022963446460523 0.08129793569613138 0.24418375729253938 -0.09496124189256344 -0.11925435822233488 0.0442040060740654 -0.04659896162814522 0.057134995315469964 -0.2082007721683284 -0.10271578724785296 0.04908437402136148 0.17576748058139557 0.17970013418855668 0.158899589584316 -0.2294107139793828 -0.13562213476461787 -0.13024478980157736 0.012606064985301396 0.1265888373333432 0.009412796589870072 0.15850366367148958 -0.11953900277814106 0.13045251295056126 -0.1274259094584833 -0.20691548243981478 -0.09832626084058287 -0.05985276537333199 
0.2359221958854473 -0.13724793153994183 -0.14220382293772335 -0.11999729788392124 -0.03088721148146559 -0.11924250194288033 0.006696764476696386 -0.10018627801565053 0.08343260196190123 0.056085742360704204 0.1694060448590335 -0.13637803522854874 0.022303410763314813 -0.15376156960552873 0.15993947944319764 -0.1481917040202795 -0.16893135870077947 0.02435581780402102 -0.02913982216714468 -0.111180963550524 -0.18319429867946208 -0.12810184819091197 -0.12077945590985678 0.21765295127702639 -0.11409094301696966 0.10019751148106465 -0.08005606497016944 -0.16745616641161915 -0.14307601185975793 -0.049308817484075604 0.04355801087545163 0.06373581124838501 0.06467717390706022 -0.06374654027436681 -0.05221741175339116 0.15779453705251006 0.10684156751894659 -0.05316499263184276 -0.24648737782422717 -0.22845756807340462 -0.008511551210223798 -0.0683218243883439 0.05473530650964217 -0.08800527162772757 0.12064188363241764 -0.03171896519942894 -0.03211706324406191 -0.027700417204103978 0.016403746677252452 -0.1537725854104021 -0.07451403792786135 
-0.04519519334372906 -0.05621204690956286 -0.12596959740468291 -0.005907005730622915 0.08705238959806622 0.211903702916713 0.0020629273440632492 0.011864349359732827 -0.07343350809352958 -0.10709953454845403 -0.19031005168098986 0.1352235113307003 0.07049107018710651 -0.13962298572653906 -0.02570415650911678 0.0652309488402285 -0.10962724731918398 0.10544099410131162 0.04826095586438857 -0.019863963568484026 0.07134134282115202 0.18278926240977997 0.04035263411916818 0.15341702730060658 -0.024163511407296372 0.05540429249899639 0.23814168601004637 0.09415092428267063 -0.07363195197030277 0.04469136641929692 -0.06087123314935952 -0.0531868057594595 0.0619942744792903 -0.11488931161394113 0.014496616534170921 0.18003579740896336 -0.04077395747910033 -0.09763176478186913 -0.010536782824459244 0.13916147922942598 0.15690398682930248 0.13867345223742406 -0.16604549455280684 -0.06115070627151951 0.20806574758225446 -0.141761023954578 -0.012507964795307299 0.0875283930365736 -0.10794471807649081 0.04040749496918194 -0.03063234535018488 
-0.09235920537666041 0.09800193662901295 -0.13958953104709335 0.04151629098653727 0.05230140722048699 0.06680568630377816 0.16842351245163725 -0.18132640934737157 -0.10845461210270248 -0.036854571435238445 -0.03208019742948638 -0.026382116549565706 0.15586931330445872 -0.09361364840940962 0.12260850109160193 -0.0348209614097098 0.1787558242508945 0.09451081288789968 0.10711681509436138 0.0023921418492698758 -0.05581267984213435 -0.051601929097683435 -0.18717732379891452 -0.016295075180422846 -0.08598945129960087 -0.07788964890368054 -0.06763357991447957 -0.1638735663361006 0.12564768723192904 -0.1404100884959171 -0.0955657963852338 0.06120753723785026 0.07992312257769782 -0.07479528251318127 -0.19339902625335015 0.26466151705270946 -0.01018236494414731 0.0024390297818921176 -0.09731584338811683 -0.012804882481959441 -0.03762172614591452 0.2304878706565866 0.0458690604117425 0.2765602220813282 -0.11170545453532608 0.0955372972815599 -0.07485229708724822 0.14794593983773835 0.0689918674640313 0.18583780883361525 -0.09429973852923236 
-0.015437094740079071 0.08118566158981884 0.09150153234420004 0.13684602180895494 0.17286785538732038 -0.11695997505557143 -0.10673059475652005 0.052625768282292366 0.06752436687291391 0.004516982953253683 0.11026448662677223 -0.10614986518694512 -0.048000097767802716 0.024441079549121912 -0.08173379710133916 0.009428687352693118 0.06470943034317345 -0.0843322663045965 -0.00433514508550594 0.2304494903120063 -0.030367745082381336 -0.11935511892782581 0.20447213247641483 0.061744324776313954 -0.13634024553273255 0.13301282762004493 0.0036190512500528936 0.1106840950472549 -0.09750813319893843 -0.12881745634035577 -0.09456389650946437 -0.04474268891943986 0.11509352205511426 -0.1185151958087936 -0.05324469768590991 0.14978880695454275 -0.025161595430425513 -0.13564676222949193 -0.19290473818445505 0.08156314469734102 0.21446235890539475 0.13863556436338387 0.08752224176752003 0.06961017067411256 0.10287381031178347 -0.2312336723436389 -0.033234182106207405 0.16849558269653994 0.14523144450818554 0.0784760341560367 -0.11642913729811141 
0.16096669136126626 0.10035997864144604 -0.12574284322077067 -0.09275692820184367 -0.03066650888135921 0.06161756531738056 0.11740542583103453 -0.03190315650840662 -0.09070859706851625 -0.019749500805307695 -0.19582153097475113 0.200969800793088 0.07969523602068256 0.04136748031120954 -0.013761534785695171 -0.12226098927856048 -0.09687343984952315 -0.15032213545814224 0.08516372102515467 0.01784238505577669 -0.1862362116653215 -0.1533349769158818 -0.0720600033893705 -0.06622322813010706 -0.055403516769661966 -0.054319634001146054 -0.0013285504472577872 -0.14189245238773343 -0.12398675991508827 0.15370358498592768 0.19996940731155818 0.08363540003813845 -0.16808842038658353 -0.12195769996547866 -0.13414062551783895 0.1513182726341624 -0.1670800757273895 0.04138815761054655 -0.1588708231425378 -0.18725944907783162 0.1121667214754022 0.06796588306227769 -0.12503125827229516 -0.11330003251008702 0.13686676648855156 -0.16214261590404802 -0.13632729751026793 0.028149788375632142 0.18264052277467427 -0.11108135537354187 0.01718524370533702 
0.055118446368929916 -0.052233760910870675 -0.17376223944368047 0.11775258536702501 -0.14184298342298665 -0.11852617474052954 0.052325694022275694 -0.04242855901160881 -0.20137717129568725 0.04427534991137519 -0.07698012550199101 -0.050378736139195184 0.25363966054099485 -0.1337579046711155 0.06828143849794253 0.14561867165432624 0.12810619497947953 -0.16677771166264743 -0.08120362603410392 -0.15420941907920013 0.16442501196018217 0.15173176130868668 -0.09868959708523525 -0.18501214492302534 -0.0987635276272861 0.047421965980855886 -0.07473450758086007 -0.06899313083535044 -0.15622467740188178 -0.053733406278783855 -0.025790146711063455 0.0029181982968640003 0.07579247475898165 0.2745230179330514 -0.1977884878285807 0.044666250058277644 0.17268328090576796 0.008224373079189513 0.03432280688082687 0.15203966000528316 0.12662844897081052 -0.11553512969549971 0.18282238702069445 -0.18544585550977388 0.13099532149928408 0.07090176530471477 0.18711921995739106 -0.03421159221581419 -0.1853766763307942 0.0022169956411421496 -0.1939257350016394 
-0.041260293438932574 0.2339217147604232 0.14889989342921373 -0.10527592692552738 -0.06091961853514045 0.16188173097971037 0.14166906223029516 -0.13366236853047994 0.008538481634901198 0.17998758553463912 0.1466809955248768 -0.027821805587986612 0.04541847192759814 -0.007127255531295384 -0.1448854391604736 -0.027900563111397148 -0.04660137746193513 -0.051854546433046454 0.033555895374296436 0.06296549829246652 -0.24526141782934516 0.07860501130737618 0.021895254043959703 -0.01885897304102001 0.16257493483822616 0.06277168500995121 0.011316394525426774 0.083703403374559 0.09591133402312003 0.008390735815250428 0.1059352676323893 0.09888970177716884 -0.0010488448164781992 -0.1252587122573632 -0.011199403733767524 -0.10977831752636667 -0.1451401197516609 0.023513757197875827 -0.05180600745622854 0.09748447576278874 -0.014911988153207333 -0.054531089026102056 -0.04430236625437504 -0.14159307635957322 -0.0960949539601042 0.15218598143017797 -0.09599455302427966 -0.19523935332852868 -0.023588170043138332 0.1351354494121032 0.08956496727557788 
-0.05596224544414824 -0.13080815219647218 -0.06743144214999527 -0.08258807899260316 -0.14971643416202368 0.03404317626813016 0.08616125448093366 -0.0644683351418063 -0.16606360771475365 -0.012578159729046901 0.18730437808682854 0.08704144650061976 0.055348407470416285 -0.020159631723664913 0.057072690653912656 -0.08566690991468996 -0.13261961375179468 0.1408355103942571 0.07132101128418761 -0.09366688325190199 -0.08276069367971983 -0.1489851789774319 -0.06537434471558891 -0.0905773184979642 0.08085292474638328 0.057928214766177065 -0.1475694473352403 -0.16397149591649196 0.12890190041890798 -0.12081861117454712 0.00989124415645014 0.2313480501061059 0.058613962585849985 -0.11044448716629465 -0.14079450322805429 -0.02376541793902865 -0.0857435298043718 -0.16208706626035488 0.06130972213339772 -0.07022525549173968 0.043351412112865334 0.07471650481995909 0.105854578526067 0.033467625661832555 -0.08748998479590962 -0.15602317330863325 -0.17832218402486705 -0.12253097122972136 0.07373231400001075 0.0951027607751714 -0.08822264566087955 
-0.1269548875714035 -0.14044037979885338 -0.028918887404930496 0.07667208555509149 0.008779277362542328 -0.049147835875109916 -0.029491473220113217 -0.10234382449398673 -0.03125198264620843 0.10874363692064805 0.09903304293335473 -0.011789565378541247 -0.0562676321948895 0.18672915868242468 0.11542149574374422 0.1602862754156253 -0.02373915475296395 -0.1690335818075901 -0.06807358102873194 -0.04617715306007429 -0.009014558022134772 -0.018629006430353933 0.07195507569149509 -0.1199324286772988 -0.07531538114919527 -0.1472274706571301 -0.02934994986633859 -0.01868104096523855 -0.06380004285476204 0.14761310357515914 0.1441711476435529 -0.01882995045581269 0.13431445131341568 -0.08616738883944322 0.07539672133746823 0.003764643769714785 0.13912420429057173 0.15676489158890808 -0.16012903969683911 -0.047729742325519686 -0.10032958537128962 0.0260006750270824 0.05629313779894632 -0.14163969596306591 -0.1502738519158271 0.1451675455148578 0.1492188864940914 0.0009724095297064465 0.1342335883095837 -0.08120861270947999 0.20116296104010076 
0.05080455830216683 0.08030311053093395 -0.14942328817490963 0.10697008427971406 0.08393065492486601 0.08127953298276178 0.06463914989782243 -0.039725849185663895 0.09000262434797873 -0.13147669897300282 0.003055576058922493 -0.15208918953456682 0.08327917202707205 -0.0024949326544925644 -0.08924820145609198 0.056070017405519125 -0.03468911816232215 0.12130559539777679 -0.0966964608892715 0.1325674109846807 0.12847849355082272 -0.05861690048267085 0.18240571623871926 0.1359790558881884 -0.022398186643995385 -0.019444709060070967 -0.06533006746507816 0.2397234695231399 -0.08363538707903415 0.2307276745549466 -0.021285962137724393 0.13265000161590554 0.1387142332026762 -0.10425974725707365 -0.008445836058977325 -0.0204901945074358 -0.008723449754038576 -0.1513824137817547 -0.017890001857048973 0.13991068683153282 -0.13319718841728442 -0.11989991143533796 0.062442581840973795 0.1601636919367144 -0.011116734607075787 -0.03539303746461918 0.04618330680668759 0.15311398000183776 -0.06701215531051835 0.10096007177657333 -0.02478866501186168 
0.00029060537619860096 -0.038382987341505734 -0.071038004907394 0.05467313931088968 0.060610650349356164 0.031425243204381455 -0.09250027504080668 0.07909296589172911 -0.073033681512792 0.13580111057054883 -0.14930718109371974 -0.14180530800595925 -0.08083801239248788 0.1207292047108478 -0.005575579658926444 0.10805807234732691 0.09874582942849786 -0.034357406003403645 0.08075562831675888 -0.023380098640771573 0.04067396796186623 -0.10583551279463435 -0.11195682745292683 0.17967100888871135 0.09522326062878274 -0.13746560804084798 0.024429798606779685 -0.0023860240311800564 -0.023035505077844385 -0.07198574487382825 -0.060836680229959125 -0.14768718168149822 -0.04107410239524144 0.22541773285159436 0.144335669828056 0.02200595011855434 -0.05355683945854074 -0.08098541455374181 0.18971882706494061 0.04832944888534178 -0.08518113190055865 -0.07540041750930863 0.10570695722013279 -0.14738087789211154 -0.12709963436062635 -0.11387840306377957 0.06999783644009193 0.07066210441491233 -0.023327176926529202 0.16632213430707554 -0.023239493613128773 
-0.02569284595107564 -0.1161580231353008 0.13444906654575792 -0.06741798376002164 0.04037229750641853 0.1606175954270985 -0.13678039245213677 0.17303991410367972 0.047967682466533094 -0.14177934661185995 0.02414263884284146 0.14369084562017156 0.018634059167411107 0.08308557444211231 -0.1446317247348112 0.1494796000502097 -0.07993295742464299 -0.14539943902874844 0.14102145957030846 0.19866646876091335 0.06565982427288072 -0.15205644502656154 -0.2514591491713932 0.045701157686883716 -0.04914185861182451 0.15261118158431655 0.16722710678074865 0.2634820423598388 0.12981228519891255 0.15466755918396358 -0.05401090486055931 -0.11810737081003637 0.1249220938229223 -0.05892480390149734 0.03733155591947724 -0.002434310641569863 0.024365983025529118 -0.020828412192969766 -0.05049876712277643 -0.12851876249797986 0.010027351669378378 -0.08049752469922249 0.11170853687924892 0.10780281083763998 -0.1319605396787422 0.1840915475330678 0.05563874151821734 -0.11798844982363127 -0.14325171515724994 -0.14375294184470477 -0.043992936179968294 
0.0137872840089411 -0.09042019207250035 0.006110106090867349 -0.14865554835736497 0.03819426923097976 -0.1315658323450643 0.14396745149311588 0.030551654532284374 0.011747989086600163 -0.03847747420926045 -0.09801887642486536 -0.08252437860015102 -0.1052849479301433 0.03575869583372856 -0.11786506971159547 0.0033320262737372027 0.021516841019264835 -0.11467460970591296 -0.046575670564693784 -0.13084401266958076 -0.0183830565906289 0.1434711596649389 -0.016490345098476373 0.15619684414802934 -0.07966542649593254 0.11065066765156314 -0.05912066303524391 -0.12509097971372435 -0.041309634717346125 -0.10402447235053511 0.1360440378994194 0.053642342987145784 -0.12113319264722303 0.06361711665061609 -0.11029213669510597 0.24933099122950808 -0.10237776274263362 0.219435978320383 -0.2146856755826496 -0.050949757754535266 -0.045193598464650875 -0.12248212572012622 -0.055333345209239534 0.015208846779262845 -0.045372129174346604 0.07534045604378908 -0.1319691651913044 -0.05203675305442334 -0.02256146451655679 0.05745454677522354 -0.09423144945261064 
-0.09885574491497084 0.2307231394080342 -0.050308781602421956 0.025901305575342447 -0.13559857411774398 -0.10888417346049167 -0.18343075031303163 0.08417422711615993 -0.16209498938372405 0.01612143134423367 -0.10432151016797123 -0.06643437542787234 0.1161716899479961 -0.04877963881402153 0.2367823633260121 -0.010530655834140902 -0.22013402556892228 -0.0061469903270950895 -0.14585876593231445 -0.0748391557876873 -0.00863550279199651 -0.004544709827683343 -0.07871959125468408 0.09597061845136469 -0.03129226210882328 -0.05064227860741938 -0.09184222512172432 -0.12702003128762268 0.05617489080632319 -0.10881606656489402 0.07666835407294856 0.0194321665435904 0.12699534942343316 0.12289014349235236 -0.051758739932162574 -0.09210508687017892 0.07415843925349287 0.026215195120360572 0.09722887130894146 0.1668919073484583 0.20652887779403234 0.060418017723831575 0.08942357960432688 -0.08667148035538028 0.013657004113434843 0.1334371690584051 0.11409905998363545 0.13044356682646951 -0.029521538670958598 -0.0859836063580316 -0.041771504174216975 
0.2591865341433616 0.028959524831128985 0.16170154368882758 0.009541921059906942 0.0020477396351427177 0.022386251107666677 0.021818220846253226 -0.16134431435547886 0.11433210197144746 0.06406993675828476 -0.14528080445197736 0.13019494654577607 -0.11059206579529343 -0.14328440171330398 -0.011156863762830533 0.25340600995209694 -0.12357916017425426 -0.1323292062607171 0.12090995477069041 0.06862556684952768 0.18959110780817298 -0.03634448210721318 0.009844320764659797 -0.046356595512116225 0.012305210558289193 0.07327385520915554 0.03431307893054602 0.09484623128028263 -0.0017500249991192383 -0.04547667517282329 -0.05393051593294277 -0.0641684955720487 -0.06521947501658404 -0.05673324369657496 0.10697180904705296 0.009960987676635466 -0.09482300615923767 -0.09232682204878785 0.11125800185042493 0.1970716603292422 -0.14791170295345407 -0.07557922787021645 0.11798875545885783 -0.008089086525563161 -0.09213469581491218 0.03649086651175603 0.02200651859371923 -0.006451080738653643 0.0504874029150222 -0.10369853519387168 -0.05754565540067385 
-0.07882424646530105 -0.12392561871893837 0.051005283039162345 0.05074264307632523 0.05613388317402285 -0.21238139889533456 -0.011383823758107982 -0.14451631699268044 0.008829838930283695 0.18322244485113218 -0.015664629435758064 -0.07040830525981358 0.09486690563788963 0.1885602499633994 -0.06390165643994934 0.09537834579235017 0.24271944566871173 -0.12221150836597641 0.004914802926651848 0.12614795064688394 -0.04325298314282843 -0.035738154128003415 0.11965782122991998 -0.16192347061395357 -0.041643253109896736 0.044227069162216255 -0.07873940212328996 0.10293800465957964 0.08177589843241365 0.17375471222121852 0.00680132173354874 -0.11955580259020758 0.16744890021773942 0.10116868002065753 0.08419277877553734 0.1311913397490872 0.1391163397142295 0.10352549521083715 0.033082076048199835 0.021840484726116695 0.12535712988772788 0.03644321950774557 -0.11994572117558334 0.0548882023807763 0.002754608992457833 -0.0946178608068624 -0.19680998965323804 -0.07968643158382373 0.051007018130376586 0.15543617555031183 0.1053804303612394 
-0.11906295753407611 -0.1306010736815988 0.11244780177055333 -0.06459961259772369 -0.06857501290665739 -0.15966673807712514 -0.1220437549495603 -0.10099655117573274 -0.10315036770243038 0.06339910830259436 0.09495819808089019 0.13993432775698894 0.09809285537246952 -0.007040658932973222 0.09233539412016763 -0.0034482969267469583 -0.16207337304632632 -0.1276932274636094 -0.07648458600177316 0.14166130503496038 0.1105896257460145 -0.04017257930299338 0.13907991959284124 0.06660949301098307 -0.1393152776746856 0.006515588412073407 0.0622714042390595 -0.22002173831306251 0.23786896007490402 0.1235469921767974 0.10700594082165601 -0.11617803318353045 0.025182571564889993 0.10496340201273781 0.17646730130013366 -0.12290507520872732 0.1672311630246384 -0.056087573535771325 0.07222765639882259 0.0956401033556962 0.09200515585454211 -0.06160462496447889 -0.010818997750353615 -0.06204404918943883 0.19877564368311482 0.12559390347402358 -0.025579162687346876 0.11349506550618498 0.06988964066299219 0.13263427527712626 -0.09936068307256163 
-0.07513056692765735 -0.1235409806575858 -0.08809919883978087 -0.03541864748440145 0.03960439700595376 0.009775417944019075 0.06640265611538851 -0.07278733553109673 -0.10930323804772993 -0.044921266984470735 -0.01376106216021457 -0.04710028941385985 0.157560245218105 -0.09793473846146313 -0.0442040771847832 -0.11976952045447706 -0.1031976286259167 -0.0416072438908372 -0.007289437501189078 -0.06657220254879022 -0.14242753638603461 0.14076548035577877 0.20300666580512536 -0.11471053444762697 -0.09606178233815327 -0.15843565560583103 0.11842349938635453 -0.08628676322571023 0.06567761317921174 -0.07993587327420316 0.08615837177137968 -0.05508616333859533 0.035109771426868254 -0.10644206419096779 -0.010133015922568264 -0.06693733018277803 0.037062275843721154 0.07274055196744933 0.12426312574879626 -0.14592209525981778 0.1668967686038091 0.09495514104135426 -0.0057662059459538395 -0.02687010734883832 -0.1602677183548156 -0.18916049666181667 -0.06434492532595054 0.08208754171885334 -0.10053239665427391 -0.033076540785307196 -0.053973015693495836 
0.11570692235057604 -0.16323602034887463 0.1793941893073044 0.14905611784267309 -0.06995877120548377 0.18391019928462088 -0.03633904196315242 0.18314667588654449 -0.024640650668492903 0.05826748053691213 -0.07314023011667184 0.04782300873770766 -0.10645715765637871 -0.04645392045919964 -0.0016754710311963949 0.09084917577934298 -0.07496561410549826 0.07228172587579045 -0.029679564443854976 -0.08459241108201435 0.0004721082699251461 -0.04822378110998789 0.029693204762090197 0.008603864615315173 0.06803756842258941 0.017243373929617764 -0.06372302152230848 -0.12484746554827524 0.11343449911882857 0.010967576001448685 -0.118978423127745 -0.010004826059568836 0.21562645435975672 0.11783825317964931 0.14454884538903873 -0.13299332938761352 0.07040409884259982 0.0381408799919947 -0.11898486278435755 0.20760870908156911 -0.09958777508251493 0.09867831771908346 -0.06780013972889652 -0.1189622496375083 -0.115591708575894 -0.03673321401282989 -0.022617076520168852 -0.08676627440957037 0.16120206611757237 0.19657815942274354 0.02955000435083301 
0.06477700582150561 -0.11186657667157311 -0.08737947888543082 -0.1187450920192726 -0.07350655029759764 -0.25166358657926297 0.03424923216479657 0.13207851651738017 0.08974090103791775 -0.11632916636450268 -0.14647480846213481 -0.12473871720916219 0.24180937587639087 -0.044426891573402676 0.06925547430701744 0.06501505549167083 -0.0078094189043885 -0.03949631533102325 -0.08805408107541682 0.22412528673920415 -0.1994918957369427 -0.056414239311187726 -0.06892076906371282 0.17661073278599473 0.06975731523274156 -0.06804716167119926 -0.10155931445752817 0.22293613948438734 0.10289526773579667 -0.1408527894425117 0.0893475310170931 0.026153299069710388 -0.049839367888252786 0.05204017014401117 -0.17925742626071953 -0.05077546955250119 -0.15187053724204 0.047060066054908915 -0.08658985408397801 -0.019452408898632065 -0.07705043012154746 0.0869955917154376 -0.13830510935442994 -0.06573011044405495 0.02833756426509669 0.08715265912723168 0.01567981869530243 0.23393290590482374 -0.21239699716288019 -0.09175340897392222 -0.13969102819320545 
3.661306146715953e-06 0.2523084208080702 -0.11344776420483196 -0.01754274609412062 -0.16014863126382745 0.040623442549713805 -0.1289594242732046 0.07939837850432074 -0.07923322545148372 0.0703343323040995 -0.12143409991511482 -0.01380438786539616 -0.08119591448463276 0.06516626012074382 -0.0028756269346168714 0.11344563796604987 -0.08713816062624859 -0.008160836740197176 0.0834044659094175 0.1521247856295139 0.07985378806257448 -0.1684691278131543 0.05206725341820388 -0.12950394472552154 0.07915586994874091 0.1518556797562516 0.05262484486632226 -0.005805244871292818 0.18232732971054774 -0.15288731719136212 -0.1499066208068092 -0.07464436812578418 0.03584197428086516 0.018623000763861926 -0.04109162188500506 -0.06219940775249939 -0.1332077224538084 0.09047242435620939 -0.0186976135528216 0.01890740556236187 0.05841656682690298 0.03219971221990782 -0.009555684781295249 -0.09772480605218549 -0.01561970649037005 -0.001671604579192415 0.2405659211047437 -0.13175985369133209 -0.16807021307861406 -0.10236097680623513 -0.08760798666957946 
-0.12906258931373796 -0.06478464072614325 -0.0571473974186266 0.11462442339748462 0.08162515027973012 -0.17130554941280993 0.09407590091283242 -0.24150663706527334 0.017345188708905453 0.05542020963904036 -0.1257023910020476 0.13604383938796616 0.1973602736430761 0.17288540162073307 -0.03891732833965394 -0.0835380942537687 0.10455759692624027 0.10205174486440276 -0.1396796142873715 -0.012165203201186869 0.12669840710802382 0.03361070819948157 -0.11324332483172796 0.12048081633345253 -0.07427305653799635 -0.16825358055235903 -0.10655546832938147 0.1881243795010302 -0.008205778557089599 -0.08423969376288512 0.037663071599223004 0.05601040777477121 -0.025839564411364584 -0.13078128707339368 -0.1228668404855028 0.10540395119850715 0.09422379003685194 -0.13943468448676885 -0.1311086256576209 0.007226149807777922 0.09868018354185872 -0.09044033393708635 -0.10318968383903275 -0.035214026655440205 0.17927447943956185 -0.1604169078794386 -0.12587908413029594 -0.16179955687232594 -0.04431670274773268 -0.14109135027538253 0.01902844754744825 
0.05164760772816503 -0.011707152292419436 0.07573058285611885 0.00030270064156331906 0.06069681746892994 -0.09795265436976767 0.09474466298611284 -0.001423929210616794 0.07875627373162111 -0.024005064858319474 0.026773329876456423 -0.13986555494057004 -0.0031597933264074732 -0.10844074011924208 -0.10837611745981604 -0.019788506184942493 0.006546220804505154 -0.05792977372764001 -0.10280014867580359 0.08891017889697751 0.18871332057722504 0.06600761572870911 -0.11365526613486183 0.13466868086530634 -0.13173010152483622 -0.042333491638594636 0.15307400019133632 -0.07120946373931301 -0.06221469343235813 0.03637076364159952 0.1257208736033019 -0.05215527926785332 -0.10257864156620031 -0.0960011135660737 0.24313064790780553 0.055103413540230135 0.13620190291884607 -0.057443696560525614 -0.17402797650442828 -0.0013193904610236773 -0.088409780295585 0.005614723824846173 0.05419729503332715 -0.06171928774306283 -0.0776653822024346 -0.1455525618561208 -0.05855778464285092 -0.05278564894928433 0.11561459208155739 0.19111370620397977 -0.0021746253743459864 
-0.1269822508564671 0.13935551737741542 0.07725701988588113 -0.040137547549332755 -0.10827987195093704 0.24187769872381307 -0.11801642707536503 -0.004342440157879948 0.1314190583043281 -0.14136967800733796 -0.05553431348163487 -0.08099418410223704 0.13354135837953554 0.0498894669885133 -0.13604906986033724 0.07684935509427877 0.10640729261991125 0.21247843454212093 0.2414799015650585 0.16670085425563105 0.10238881515450876 -0.06676647145722468 -0.16761321158402598 -0.06917454637865533 -0.09154598639351375 0.012849007824344368 0.06977870535791143 0.0250561533982592 -0.24004881165272124 -0.024282296679690105 0.1300027665480538 0.05861593347804606 -0.0388653756727911 0.044715439393623525 -0.12497723127036896 -0.12861586532838665 -0.048206333464260114 -0.05871530824320933 -0.03525674557843869 0.11473263353022682 0.10898666619736919 0.056533119235647376 -0.12078246802131258 -0.006017117702271979 -0.10205316605293589 0.02904085338014149 -0.10780604471553844 -0.039725973991535046 0.12977539423044598 -0.1276197039791613 -0.09543760392830744 
-0.07859817847296954 0.11654533558938199 0.08047783755463046 0.08590685469495624 -0.04967625568693812 0.14371003279974728 0.04221851401346418 0.06561318736805084 0.11585292659597626 0.0395643787913107 -0.039185521656461886 -0.14323413743218577 0.028405112360206427 0.033765253035609656 0.030010249857796864 -0.05303916382646574 -0.0014641382316014143 -0.09934658371717105 0.044778925096528706 -0.1482460067698993 0.14298920558655065 -0.09953898727220706 -0.066522599972875 0.18208843432881885 0.11647966690643767 0.10339083530251525 -0.051801455614833396 0.11381920175875965 0.0892262516939981 0.04726503761790029 0.1455189184983453 0.08540765206490204 -0.03799467933318247 -0.05261407347545605 -0.04145250595580492 -0.13363895977188 -0.02129748004383012 -0.042965068340692567 0.10989350553900787 0.13576824870952925 0.15599599265031103 -0.05141846256148516 0.116948781271451 0.05442679470261082 -0.09959870548759392 0.14790118967172805 -0.11922205749650282 0.127611329724174 -0.1457847585549656 -0.11946393667852383 0.07464860912242494 
0.007788674776523675 -0.05521347815521048 0.060432409136092824 -0.042181236903346235 0.08395230475160635 0.10172593618549405 0.16738183408508944 -0.13680523993066462 -0.025271118616095864 0.031212485440367286 0.11880303043146175 0.06148556023774386 0.07773318594953593 0.16569224083957668 -0.03970664411581123 -0.05598771356954256 0.0020004810257518873 0.11660166277293438 0.15563209824593557 0.06957806601559183 0.17924327907635582 0.1298909926267592 -0.060262652886545975 0.05194163605760122 0.21879110375031668 -0.03984740657419857 0.20552264212273405 0.005929364195877815 -0.07928858848554278 -0.09261270586544566 -0.027425501642006668 -0.10581100889028056 0.07327460818986037 0.0332824468048779 -0.002642632836506362 -0.09943116489321659 0.09567731076291476 0.039329121984660896 0.16246399623886845 -0.12124629199859094 -0.09246557454801231 -0.12668670413354083 0.09265907131952404 -0.10308377914514975 0.0718526605615802 -0.05481088758143289 -0.044970811253496897 -0.13955666049348814 0.03398798350718739 -0.0941004601022031 -0.12009405440783968 
0.12012987240787845 0.13152229866234708 -0.20913203996165738 0.1005710932724229 0.12785796668181146 -0.030680298551063877 0.06686113022494117 0.07567907753898656 0.08421691335252815 -0.04100355796899481 -0.019447363103888088 -0.00017519542547448285 0.10361189069119507 -0.09070828954806646 0.06134925826852871 0.12225539795803116 0.09439334183592679 0.09297520447754233 0.11985071259775043 -0.05082819551792164 0.019436174951130994 0.08236035348019488 0.12091910093990312 0.1337340702764814 0.2064018072693321 -0.01747792893670449 -0.010145847627214575 0.10156755328300654 -0.04469002926766074 0.10384803888087882 -0.09306173045104563 0.06558562834363722 0.009082573324188159 -0.02765423097264137 0.1534792951445086 0.012886173783794341 -0.030789269507774993 -0.06363928177977514 -0.17401464782346215 -0.014700156245249632 -0.12382830959572326 0.019486748199500695 0.061857459897209664 0.07385262767242214 0.04891290270353312 -0.13769047125302494 0.08450520667540186 -0.0036984860163986858 -0.20059370092939915 -0.15787065998426533 -0.06036245676604656 
0.0569453920397821 0.13732601798655097 0.14791316241309022 0.07970049658003739 -0.062035642893330405 0.08491329819186198 -0.26260344204294706 0.11387278400217458 -0.15849730385723632 0.12316732591129263 0.19097046031891926 -0.04982807298163061 -0.13231784498204044 0.02708909875662082 0.10228025293886521 -0.09684496624128693 -0.2296481431449882 0.10197713051921209 0.01871166826464066 -0.16799877368164162 0.2804157734892765 0.0043658771185444475 0.025733987290878897 0.16751814546754004 0.12240960181504448 -0.19443526537488964 -0.0452706765362111 -0.09057109627108391 0.04269338729725161 -0.12424857635328428 -0.1681390703155117 -0.05971042504918742 0.1276050819469608 0.09875025406583413 0.1198885241248782 -0.15268453853536104 0.1022885855447333 -0.1459999195194324 -0.1588453499525132 -0.1999290905523242 -0.10632012238885338 0.05618309937056789 0.17275964669789556 -0.12269006767669201 0.052726814483388756 0.10978164210236686 -0.214634695449689 -0.12551547908641053 -0.06694077121835158 -0.02860318264818847 -0.06717048055716868 
0.0597036934061926 -0.04334806642230268 0.11433392161041843 0.11531249030528946 0.0219709441194404 -0.08039790775376189 -0.20324441528870765 -0.07872396823478885 0.15417872015000017 -0.07648397143578523 0.020332742988496893 -0.008807062940303633 -0.1233426934966765 0.15504664108554236 -0.13164979930442952 0.05688570414956732 0.1958334456689608 0.08643779956791472 -0.05211274583738877 -0.12987741283705645 0.07154670794231151 0.09250984488108883 -0.06426418671184948 0.055765131093367754 0.02426024531545388 -0.15308644947040337 0.18798199026679815 -0.03577447425477526 -0.06249999802265606 0.1619678534798112 -0.00867154586248263 -0.014507367488648896 0.056127139374905856 -0.1482664322549526 0.0020493870470081545 0.022589926592400788 0.01711379413754537 0.06126112878562655 0.04447110270706714 0.13247772708767702 0.0710842549325042 -0.12226188554994001 -0.06885346991057541 -0.14467443574549446 -0.1023315305715761 0.08767943576682485 -0.12828234447212605 -0.10446347776109652 0.14417045907596643 -0.01651565160905637 -0.051513560817294364 
0.043004655001440864 0.11752082261907155 -0.1410980965232681 0.057881123320004994 0.050433718404930224 0.11163728628225932 -0.09171738311490978 0.06387606075395602 -0.12037293755262009 -0.13513696105957765 0.05414627725481868 -0.14579813951766551 -0.13899897131666 -0.14130277197541255 -0.01024341834105734 0.07765262411817604 0.15046229799611277 -0.08241501750194352 0.08825289232049591 0.08913511133490087 0.11295135852232624 -0.05564817143688057 -0.11134628097275952 0.08958338672507841 0.02003139773789459 -0.025376808682509012 -0.13450605429519757 -0.15085372807381847 -0.055111562259985 -0.068680136036426 -0.0071832373813095875 0.12895622068920126 -0.02476911406741996 -0.06366991690334159 0.1045768522871693 -0.05786768563884514 0.12644912262561134 0.11020910814742992 0.041445797910313366 0.07453006966071025 -0.1037811619367416 0.03063024535691666 -0.05177063898621891 -0.00334653877031799 -0.08279038815428973 0.12219857138630032 -0.026310952281794874 -0.006883690049226635 0.06650134156702972 -0.11467944860517051 0.0009053478850388377 
0.09465326147657556 0.05309840479082398 -0.09350732352814145 0.06322791011874918 0.13234112832616451 0.1679921334144895 0.12486817270253549 -0.11067101547635785 -0.06196920521359265 0.009182733218931797 -0.041668073292265295 -0.06321967244786666 0.08860557801265402 -0.12036078139894853 0.14442584516331455 0.09168155479081656 0.1255152255622368 0.14300894787768634 -0.020136758119208106 0.1930870089372724 -0.16657802439408734 -0.1383879343072766 -0.16433123519075352 -0.1040967665298901 0.005843922694409943 -0.12370305337805494 0.051726330282090116 -0.14997841652206712 0.07915333579206722 0.13454092292946854 -0.06998608603658026 0.036924461993193616 0.05852424809197994 -0.05179484739408574 -0.016244354014365917 0.10546863374044327 -0.16019848299166942 -0.11895147091057735 -0.06408092710155211 -0.11725044469520385 -0.05785658392413407 -0.10602920755653938 -0.1409130549835976 0.17148761651786126 -0.07698642882615177 0.019199417545900998 0.014864524404401678 -0.01471908021096217 0.11409902107536778 -0.06826292217062506 0.1325838262958253 
-0.1315677456381912 0.02224944608700241 -0.048131673838467726 -0.04062555105286166 -0.05843063935910494 0.03084393973718312 -0.0800207666651033 -0.061713812988913465 -0.06439806252787325 -0.15077865122535553 -0.03829938469634574 -0.13755780143023888 0.11361428351455302 0.06662944060295288 0.02836057877419249 0.07336809910685381 0.12192939683259374 0.05818393349569825 0.02699686378733133 -0.11403835936646849 -0.028393626602400728 0.02346363186100152 0.030621270967699562 0.14059096000864754 -0.08890536042218294 0.048798699053371 -0.07327402540533885 -0.024446943909963822 0.14409733083372647 -0.05054636362919927 -0.04119169910780826 -0.01793350142677536 -0.14013756487903045 -0.03019678829111481 0.03547090212140565 0.02320311496881048 0.11331488863520775 0.04216008572908241 0.01689741559145874 0.041997315487118506 -0.13795908292564918 0.1516966756872915 -0.10552110142059903 -0.02424182354668761 -0.06142604383722938 0.02294507460076454 0.01767394264875966 -0.04418265462906181 0.1446246088089577 0.07563122236116662 0.11842434660544567 
-0.01321559993401495 0.029589695948264143 -0.02573622045967421 -0.0586868541295491 0.007537328258432399 -0.09338379458730839 -0.08625848203646626 0.0031884024793136186 -0.14855877623156902 -0.0161694714243552 0.15187904218527826 0.09759728083115561 -0.12674739093505896 0.046601880965951956 -0.08278809322209711 -0.11599817835343988 -0.045221098351062396 0.05304531645319302 0.015053140191612522 -0.13910443944928644 0.10814353742202298 -0.006628488413752145 0.10815034675115252 -0.09440589650193187 -0.12666224966094042 0.004722115906936236 -0.01347306531194656 -0.14854546654423084 -0.1405494239817488 -0.1235733636314828 -0.1401345260006255 -0.09808479075070856 0.02244267713075528 -0.006878186267634741 0.1465536823392999 -0.13072232045416227 0.11145206774382556 0.02333461436339561 0.11426674553771221 -0.13542274505867943 -0.1218522251569889 0.11011068184315764 0.020903437983223822 0.017355784872314282 -0.14882275423865512 0.04248187414020396 0.10532587660615488 0.1516982000391997 -0.019906587705790683 -0.056512780070266104 -0.028337368055296283 
-0.08197978032488694 -0.12378906356323437 -0.04226930412666903 0.05528246788714197 0.04806808599584028 0.10842194574428186 -0.12726740340282555 0.07586479044037467 0.09762866771496122 -0.005568769657101853 -0.013934564611944051 -0.10350959581906809 -0.13832386165514707 -0.010712207132422267 0.04612165589185358 -0.08673691709997393 -0.057409307582125105 0.03555283463227919 0.19858287915968284 0.15978664802676923 0.17496561085187806 0.21238494149113643 0.13618154777394864 -0.11621893351988877 0.14409586638374314 -0.13768447124636715 0.18419102398309953 -0.04827474675092667 -0.05394031193683628 0.014368817471159125 -0.13388950528069274 0.12379822328237593 -0.06287896813403356 0.08751516735736743 0.14880146839698563 0.10273958908198715 -0.0006871194304835854 -0.009867785637516491 0.03737244094098075 0.058209087536023794 -0.07958813850783303 0.07640816491569938 0.13238958774536072 0.1681762884042992 0.07862535912621059 0.10909313873403755 -0.15072846707169957 -0.0983675288124746 -0.06276717332761148 0.0042893336881400426 0.1614699880467899 
0.07000474099370854 -0.006214207704846438 0.19055144426266388 -0.03646856712483708 0.04231220717762264 -0.19620512197823417 -0.08638329408513278 -0.04154522057489044 -0.03367435365615533 -0.00589516032347815 0.10623595046111704 -0.06711098276342575 -0.12699683573652026 0.006321793333688737 0.22136606111255414 -0.02954033669255202 -0.05773868503947097 0.08732913974211591 0.022164549059495803 -0.1505417317586554 0.22280498870681478 -0.003275393116697421 -0.058757787761029294 0.03822745223345713 -0.06437788750289229 -0.022903879537347162 0.13025487072829647 -0.17136071564398914 -0.0698458287959918 0.011434795653265693 0.14050947449116272 -0.146189399240655 0.16790494294238512 0.20192013667535716 0.21000790283024617 0.12865503728038769 -0.10440666644520163 0.10099418312686603 -0.09456006737863439 -0.02084954352550971 -0.0414514914688397 -0.06613889305166114 -0.04337029587584857 0.07225922613538946 -0.12829116024153334 -0.009209806744238644 0.04651926137115443 -0.11093509419525219 -0.07738984674130818 -0.08410448569081654 -0.1295356204151599 
0.09296995479711254 -0.07114301806154916 -0.026590299363197473 -0.028144766587986147 -0.058540773078680775 -0.112957337236447 0.11958197170378299 0.054327985849298474 -0.0700752253797254 -0.12394820964819665 -0.11427589586775326 -0.06716065992070107 -0.1375120139378788 -0.10755398064956591 -0.00738903019268707 0.13282280907309135 -0.019574043164616493 0.06276338419533178 0.02087985977068022 0.14544592232557352 -0.0973210604618899 0.0719081143463341 -0.044698520218370306 0.15015170631814684 -0.04397200621350001 0.14624365900445385 0.10926560516857602 0.02908901236692022 -0.14428624251678665 -0.09506070088855878 -0.13517283535383795 0.08827798996053393 -0.1297177386981875 0.08643108130509136 -0.14412800681018093 -0.07364819571065388 -0.06071629142193084 0.019178797736975995 0.018419508661438568 0.1176647715730419 0.04101090823027975 -0.10249978621046092 -0.14442855504696464 0.07891360740405103 0.010534268155300902 0.023367316732831458 -0.025541106103631757 0.026714925561763803 -0.02807927184901192 -0.01610831281396896 0.02759108245570683 
-0.002262123126397997 -0.17690987334951205 0.17742732972171676 0.10764219950743287 -0.03605133442121504 -0.02863491019333454 0.15140490195273512 -0.057368884363707184 0.15714922926205338 -0.14333225227221005 0.07395597913060177 0.08836360504137407 -0.09249944624963752 -0.1330685423809855 0.027093316215042924 -0.0060071546025530055 0.034758989101356864 -0.11154934508622605 -0.0667637771187019 -0.13777192747679537 -0.1620356275462298 0.15063218433164285 -0.1446147409189271 0.010691822976049738 -0.060387773036182715 0.14261601983293162 0.01216138906039323 0.1871881389597388 0.004642505485831622 0.032097072722544105 -0.04932606226501302 -0.07453003060856127 -0.02157438813696023 -0.12707519906331957 -0.13067890575761396 -0.04672940424640101 -0.1542580042061837 0.0670255423452865 -0.08313651179245386 -0.00873595077557738 -0.09196050945992414 0.05415552436000688 0.1347022927494177 -0.08432000853246686 -0.17077341389874337 -0.07496493513727887 0.03807492966003463 -0.05669267688153745 0.12445861315351253 0.1325484719897618 -0.03826261987600389 
-0.040193121376277154 -0.2145983622248888 0.09059546423387725 -0.10472641842572196 -0.12210834247762928 -0.21790701151163433 -0.06386901746955882 -0.06906869827030504 -0.11255035348423326 0.262050065713059 -0.005052545585979504 -0.07544072614257788 -0.13330310228188594 -0.13807549905275837 0.09212565170196048 -0.022946061136460638 -0.12784831919159664 -0.1724184890847943 0.09255530943991509 -0.029191944029010933 -0.12364461315716163 -0.03216617983326959 -0.17104676249085482 -0.08507315790254905 -0.006387274324560341 -0.012131758495174666 0.10908110481952311 -0.08980261459136983 0.03840898554215981 -0.12018621138153018 -0.09387661617041385 -0.026800682863384526 -0.1073320633860302 0.018498930956249902 -0.05178080144763898 0.0964637002203159 0.1385602896991097 -0.12582111863980405 0.11990870029101841 -0.005527013530103079 0.000186633228054514 0.0017603485449567918 -0.09500328231977036 -0.041942502635827696 0.06867840236764385 0.05429706718301116 -0.06437899575846193 0.018834219797769332 -0.06651694150694401 -0.08366730229915288 -0.06578983285370556 
0.10269260466234993 0.05569942504737965 0.0955730250895459 -0.10473401559659454 -0.09516514039885322 0.012622284775851797 -0.13364330799843402 0.011273908937885574 -0.0490565171024553 -0.05255370087119271 -0.0814185452975941 -0.15144231319411908 0.05605184567745866 0.07609356353173737 -0.04836444198771291 -0.008939244098782537 0.0897930276984188 0.04405641705600042 -0.14569023081926608 -0.0648620509338353 0.13858955492422867 0.11634359417582989 -0.05232216813617854 0.12490427182535427 -0.006160233410483474 -0.08996212353121881 -0.06868299946563433 -0.07800470957765981 -0.13546600393694583 -0.018658918624045923 0.12301698144016152 0.007622405012509123 0.01347340322591132 -0.0822946660110554 -0.13834016626519305 -0.11355703142445375 -0.08594356413319448 0.11330888780358803 0.14924460789045008 -0.14732813535210482 -0.01681817330740998 -0.03902883560795306 0.010800049432428387 0.03473034747709636 -0.030968181594228213 -0.0955755306891871 0.02535530940379351 -0.14245006036477503 0.119712238708439 0.04313329550768147 -0.1232891439159567 
0.015234892924176787 -0.09757941751015878 -0.11572915927639972 -0.07048546654618999 0.13390467597138844 0.04532538565815909 0.05958845854530483 -0.07364196387403815 0.04631616177846348 0.13805569412770205 -0.09512639104544374 0.12412347713018798 0.17460548041862892 0.016479953489619153 -0.0894610495501794 -0.11251373040317864 0.035105054110276056 -0.1603758155463447 0.09852947121625266 -0.013009591842722313 -0.07603734635631665 -0.010177730336474499 -0.11957006758146307 0.005945185903131312 -0.08072205283469644 -0.08473639149114531 0.005473256715557447 0.1422519056464561 0.06321912658237082 -0.13916388959945117 -0.11099131387929821 -0.06851139977316913 -0.02932947573961649 0.1676371758885937 0.14253574683699785 -0.14354014084604583 -0.06736105485782988 -0.03870558326258997 -0.08742810051336991 0.13355477592968498 -0.09380598602736209 0.07449168629413412 0.2076325051898234 -0.04017054696746525 0.14527203335104943 -0.04153145876377308 0.12671262821440368 0.06665567310660157 0.16900954634251417 -0.04887397205992952 0.06084379040912989 
0.12833327354189406 0.07781507465966579 0.06957424464065204 0.13667919231247885 -0.06281718812184779 0.012360000616851448 -0.16120593334690567 0.12900772625124884 -0.11329070393210156 0.09968363253550791 -0.0748095075880777 -0.09350371788104508 0.05708647176412526 0.19775155442202585 0.05631688431666144 -0.04781669750860664 -0.16176939993540024 -0.03532604885094846 -0.04164494612268444 0.07369556782719565 0.19532750215487052 -0.15093172228328267 -0.11153791803153836 0.0009651877930503503 0.01054915833558407 -0.026713235263579684 0.03593385141543756 0.11319983600586903 0.0931165505479278 -0.12808470939147348 -0.07979730061566527 0.0015675241444257143 -0.1069589162228248 0.11875647523337636 0.00845873342619901 0.19632989322512281 -0.16883214453930817 -0.0050901403109116245 0.09705686890976553 -0.21778343618260268 -0.06630780334694507 -0.08974522768442507 0.27236912811602193 -0.00933987744364088 0.10023038818595244 0.07487545395595477 -0.12035191874182191 -0.011119631196925335 -0.02325239541275828 0.11028010858815437 0.22903695616870573 
0.004606157455960291 0.13224203697876746 0.19497637316170496 -0.15096055859626487 -0.10900821476721523 0.0382073436407385 0.022157182427386093 -0.1025883486923461 0.13103869373695812 -0.06744376344777825 0.039710362079306144 -0.1756144551378271 0.042392384564702484 0.09494217614357606 -0.03792629253469943 0.1242510648126361 0.03213016486354674 -0.0662627776791146 -0.1039656764426293 0.04599333216837491 0.17132500053092986 -0.06407066244580306 0.10387149463399573 0.12620502541361558 -0.04159791908501005 -0.1072772557140048 -0.004096214956843412 -0.01852128056206408 -0.018355540642164964 0.0998956911873415 0.18019977197405446 -0.19282231320989862 0.024395271584585952 0.02071748415672788 -0.008228575427203753 0.0008414892473451969 0.19278884293498466 -0.09686395539226517 0.21857937794741958 -0.07804679999529145 0.005561887267906153 0.12380447001429686 0.17615878225398485 0.2003506495217725 0.20761279511393643 0.049966251986114575 0.17994606705329247 0.0633748026158847 -0.06427514090814708 -0.15143002796066438 0.12295347378434728 
0.0038264737028160197 -0.15393890693083828 -0.16709564359005355 0.050202800831436564 0.05532818533503489 0.02903826730659646 0.10784913190003184 -0.04461269033739646 0.14475201620193742 0.06364453263808549 0.185468520819422 -0.003957828103841908 -0.011923681751729597 0.07939754374436915 0.11746095222982661 -0.1928968824447665 -0.10895701486109179 0.2063584908279785 -0.14332908498442684 -0.14915177640330063 0.008223742333187468 -0.1279125358410465 0.18374305734065707 0.1556245331869982 -0.027306031713397776 0.08870315184494328 -0.17680776030824377 0.060115894571076196 0.08057956943449164 -0.02944242286355764 0.08932540867207665 0.2672250208627673 -0.020756154612042218 0.17045984568732594 0.22964084970355184 -0.09830196705463268 -0.010244410131262932 -0.22123755596243572 -0.02341281593676394 -0.07850900020716019 -0.06010037385442576 -0.06530618605985745 0.0978267950073268 -0.09656318975066204 0.08083570979278797 0.15597458846704462 0.12602028207022134 0.025440046944310353 0.04783686833114329 0.01697455984483261 -0.08012232352883439 
-0.009658037691883595 -0.045856511972799115 -0.09012784918533753 0.09143907161514377 0.05941764003535491 0.23128681429026088 -0.05214109234337954 -0.02867062174942584 -0.004215144691647155 -0.10345031477615595 0.013411013145659395 0.14700264585721387 0.09450389517004465 -0.08859391237710035 0.11044051774018662 0.08915426333794596 0.089981211893028 -0.0208958488141778 0.0336567171003396 0.03399916285045322 -0.15235272285902657 0.1652120927623929 0.03770995158333593 0.10474150366858251 0.17214941309226509 0.03396078727099003 0.14841108695665584 0.0093885604163994 -0.05537862881285746 0.08702192097069628 -0.028052665614968934 -0.05433765372452325 0.10901975658606781 0.11068726452432102 0.16864215770397364 -0.08961822585028072 0.012190566089768429 0.16523276131935047 0.003158154658627056 -0.09562171007159578 0.15143508350114637 0.18195179411021295 0.029709608770955086 0.051053597662094205 0.13611471245773019 0.1644017043810578 0.07761991258598466 -0.019949873375415532 0.13912450150636582 -0.08272285695158683 0.008411230134078405 
-0.08862401673085948 -0.12730983175885366 -0.13560194101063083 0.27119739961721473 -0.09083793526478462 -0.04902068168327949 -0.10257453985579033 0.010587003532009033 -0.09854198698731455 -0.09536298684296303 -0.13177152873130246 -0.042558223941340644 0.18061883249451757 -0.04146629803677323 0.08861112762913706 -0.14987087494503987 -0.12006469690874945 0.018953285094596126 0.0907377978416001 -0.17561831972851236 0.02395100320433921 -0.15912640938336822 -0.21695046911201643 0.039136685285904 -0.31994293860016987 0.1331824680190993 0.09495800904881704 0.3623671943302824 0.11851759561502591 0.03253358311179896 -0.1738221599307732 -0.025717952381721414 -0.15282885931833384 0.13053719426281696 0.01102925574435075 -0.12860184571912475 0.06294367435738188 -0.13223049520148225 0.07541532110677186 0.07369946092071729 -0.2882122147812797 -0.09769604370400099 -0.14596722261784073 0.07783990631944578 -0.08549729222402183 0.05575432272085392 -0.1931037933072843 0.1293499886711715 -0.05260451982629184 0.07775592801024683 -0.18289185850515838 
