-0.00456702151804169
0.059756985114873554
-0.0052826437797725175
-0.18823299377929467
-0.07787194304124405
-0.0993181429855314
0.17949877099015552
0.11262161557159985
0.007577632074636542
0.11047708544587939
-0.055939170234312094
-0.032254534740633424
-0.07692519456915133
-0.0606451751316
-0.035022962382861574
-0.16219486445605977
0.13616571521947016
0.1511663336629312
-0.11853468587138542
-0.002381911831255536
0.13725817366645177
-0.09165082226662848
0.029866897560209354
0.010178360708790305
-0.03920119731311637
0.13871812185908217
0.03373574464826147
-0.0075147709612288765
0.19412635603535783
0.18016314269345202
-0.08321054519069214
-0.0725124598727865
0.07597618932816688
-0.04384225964585673
0.08367862334369477
0.12441404473024026
0.11526624924130556
-0.07391916520325716
0.22344554235315411
-0.006249719074598548
-0.16507202464040993
-0.136812317610125
0.027123116133294413
-0.0035465830222294304
0.1825276197104185
0.14300718907924184
-0.012273501503915893
-0.13294169454360277
0.020667397080267158
-0.08682024725722999
0.036949622010754433
0.22179691681077496
0.21697947423337313
0.24313883294170993
-0.054389073321079444
0.03336589508122056
-0.03695749440409527
-0.18678115754079502
0.14414476641597307
-0.14746758282722222
0.1011363931885912
0.1494079505784522
-0.11032411986909926
0.018421841660307296
-0.011017487199259579
-0.19492274297079776
0.11733530635756773
0.14755268622228895
-0.004993714702832729
0.12818916673760858
-0.2298397447116523
-0.1428952713114474
0.05764688912579872
0.052085749761579044
0.10783942966968534
0.05024319177778892
0.02918973075749964
0.08383494972477963
-0.15260732426468623
-0.15391837307945674
-0.11920579619960889
0.18318170874077672
0.06808179497956729
0.07245878954694432
-0.1276631683615048
-0.11687828430632152
0.05716126459960699
-0.1268229388093546
0.20525848207104114
0.15815387523712365
-0.22699577274844004
-0.12811053907514228
-0.020302742120614586
-0.10855097582949513
-0.1126240868231427
0.2153803220805699
-0.07668736791305299
0.1524491923022797
-0.0701194911684821
0.1319196438645012
-0.16298428778629567
0.08582773753703297
0.07237739929743095
-0.11411193454962487
-0.004804174784910321
-0.027451313518774927
-0.10082148097394115
0.1460896648814612
0.21951300767836546
0.01829262374951999
0.02340405198567916
0.02956273151603511
0.11930597408526832
0.03211804985398874
-0.013862371361711803
-0.14460200063476503
-0.11169264950432821
0.18528412047714085
0.1441563224808074
0.19495138923423788
-0.2287743779474315
0.027517552767731178
0.017264880576603064
-0.20571669507856455
0.07664615196879225
0.0891411089830934
0.07155141581903822
0.1855243394050308
0.0311407586224326
0.18083965985647563
-0.09424665512310061
0.16990454638699426
-0.0655633638834478
0.1007069859108046
-0.018463745748211736
0.1995135454147157
-0.037104114366719336
0.18002754956887532
-0.24009969557168345
0.17107352341950863
-0.09831280034776499
0.09253120555589393
0.1485789033124084
0.1850363163373131
-0.10712238500413197
-0.0057838479472074236
0.019056353269459626
0.028427863969913696
-0.2380914705016292
-0.061765285316425715
-0.10664553823633147
-0.09703374947188356
0.008989372180886617
0.023574895144016304
-0.0849393539552708
-0.08604448428532374
-0.03299093721565935
0.21191496478322416
0.23290695933816033
0.006438243053525144
0.2202480883592065
0.10820561585936513
-0.1267720553068147
-0.006859987405503922
-0.023247702161248624
0.004869639110967444
-0.21010058014937724
0.1469921776661746
-0.12588384572139477
-0.14644606713624958
0.16507889727246378
0.11313122724398636
0.15398572889020554
0.10542881917784744
-0.22028834493644903
0.0631961384369516
0.018978590669408813
0.10567589667061816
-0.07017554380802485
-0.2137758658900854
0.01713244192858799
-0.24008182658098753
0.2298704709404414
-0.1536089341263386
0.01734411282976624
-0.13276986998173607
0.09358584910733418
0.1310104597314827
-0.14097468796315554
-0.15046625512501824
0.11427068818271487
0.1499182792133791
0.0390419305296576
0.18731998198695474
0.1463917787068752
0.18144602458680212
-0.21697368019489519
0.0618932678353681
-0.09470286765706155
-0.14425595121013962
0.19210343819878511
-0.031928125700725604
-0.18040569177876942
0.1709798270120161
-0.16760518333341942
0.0055766596371167425
0.005847404874892877
0.14287527833423425
0.005486482400636436
0.0794688692884851
0.17902963812562728
0.04165621138142382
0.011077722644465174
-0.08062956025082021
0.06273474289540572
-0.14974711651452707
-0.084102620439409
-0.08176162456454793
0.22542377466549532
0.10631713546085127
-0.06985240415873503
0.12354960933360702
0.0510604134977044
-0.1576605034081193
0.03261100278453801
0.12969379278389045
0.21250838035804848
-0.23340963356087427
0.11795136654034094
-0.1504702723112628
0.038441727332336695
0.0401254719477777
-0.2133773679549567
0.1198877075932329
-0.06477950858965693
0.23681377231839046
0.1617537972027853
-0.18670561626689572
-0.12983310666553083
-0.15741166100755785
-0.04163937446756787
0.1578012235283204
0.04311657691378146
-0.025833576194730267
-0.10839977352729112
-0.1957538514887609
-0.17899070072342246
-0.10870284218618012
-0.09461939652347069
-0.009744483316227537
0.06143000782368094
-0.007492311750350544
-0.22159511918691707
-0.13387840313809315
-0.16804363088306867
0.17216968673614105
