-0.014476490345069095
0.06407399748760698
0.0010080848984610625
-0.22064217215651377
-0.07128179618607484
-0.10256722966340898
0.17750245298788472
0.1040929388971511
0.00999350644016504
0.09528096153555125
-0.049793792354333156
0.027297666385467274
-0.08798572564231645
-0.05902226828988549
-0.007890984893904962
-0.15972421951561
0.13389644336231193
0.1457227914147245
-0.10196839632072532
-0.007927578025246256
0.13316675106392625
-0.08612215332172755
0.013129445339635193
-0.006098632677735883
-0.04196580539835388
0.15518113934085126
0.013134066326211849
-0.0383241225292345
0.17706388493769445
0.19531654929280176
-0.08131802241721266
-0.08818938863323919
0.07393918712117264
-0.05134366134191913
0.08370474472332518
0.09311398343889139
0.11846120170334634
-0.09557868981122009
0.2222452922244913
-0.014888469069082299
-0.16122338901796993
-0.13653528750823285
0.038285814997987805
0.00045133741616421225
0.1927542797745608
0.14819664975875987
-0.008382333461784805
-0.12278250119900436
0.015957694049289515
-0.033233096643995146
0.06107891464066964
0.21535661910325662
0.20727475953477104
0.2403445085797212
-0.05158029437808859
0.040858049514614546
-0.033408458150215786
-0.18737430184052078
0.14684431639808077
-0.14543854893899985
0.08192683901098667
0.15711898308598898
-0.11032411986909926
0.014979862088185284
-0.028407914073070098
-0.1990838240916418
0.11633529652412314
0.15998298813939701
-0.005585161363741919
0.13646810968790368
-0.24100335995855085
-0.14911934581519123
0.020107931113945033
0.05299510195352702
0.10130928764597655
0.051971673748282876
0.03391947641690109
0.07422347515865359
-0.15260732426468623
-0.1525814595725156
-0.11048346345817277
0.1720281456678898
0.06161569377089564
0.0705276942750419
-0.12897721132880174
-0.11687828430632152
0.05788696775312544
-0.13664723423018799
0.21176722899057648
0.14685435089904747
-0.24007589905494653
-0.09065232461886519
-0.019736756296063123
-0.10070316621770849
-0.11508763822629349
0.2190277054645073
-0.014566137234200844
0.15303644913874678
-0.07542992822913025
0.12044832093776268
-0.11970405599954821
0.08820832708930335
0.08297345745829195
-0.09238526530921765
-0.03779524268855106
0.006996179035935156
-0.1060597447057936
0.15353821088437317
0.2211501204200149
0.014782951551714473
0.007412089894465018
0.014079056075410717
0.1128259040141543
0.013723254822213687
-0.014519824952284877
-0.13604398228266143
-0.1073130402874397
0.19999540000086202
0.14633043040050417
0.20701198309831514
-0.2315664462991856
0.032895426235645286
0.012288835950170995
-0.21192774896851266
0.09787977346464438
0.10132484062987876
0.06968954960999159
0.1939562224144834
0.021869443845451097
0.18816543642041006
-0.10071814252114758
0.16554210265688626
-0.0655633638834478
0.14472115317979176
-0.04189453346529009
0.20770332771929756
-0.012834234968018733
0.17789918962319404
-0.24009969557168345
0.169611515249802
-0.10335132835020425
0.09731516546600166
0.14689467872443657
0.18144130680117906
-0.10807229099959142
-0.017796726892269247
0.023124501659569467
0.029578749662514593
-0.2380914705016292
-0.06031412980994162
-0.10664553823633147
-0.1032555340698557
0.008882756797819183
0.02407316328691086
-0.08458299923803433
-0.08789534588564575
-0.045270077038679295
0.15049456374214104
0.2247583612712424
-0.003766255490415304
0.2283532159900885
0.1095075819904263
-0.1267720553068147
-0.00895467651029438
-0.017697137873806848
0.009834212877299497
-0.18343337976514354
0.1445043368035995
-0.12588384572139477
-0.14644606713624958
0.16645585315768488
0.10548482127901392
0.15802237432062988
0.10669169279905928
-0.21983332875770661
0.0733457375368195
-0.008847780428607293
0.11049335159941862
-0.07532847390750019
-0.2137758658900854
0.013310963675249098
-0.24008182658098753
0.22249824392401524
-0.14870330353145178
0.01962487934715521
-0.13276986998173607
0.09665982267841759
0.14208799367112582
-0.14097468796315554
-0.1558423954716689
0.1120730944010161
0.13389140028289875
0.013846984940237877
0.1827722518384793
0.15257343694704384
0.21492073790109692
-0.2250759746843931
0.07993330822696086
-0.08705103888739063
-0.14375690820982082
0.20513941748019732
-0.07022694570324332
-0.18040569177876942
0.16944628438774664
-0.16760518333341942
0.024491178586512678
0.011028711336974022
0.1477989473425068
-0.014689235908425016
0.07661355331664464
0.16229473946710687
0.02539876187032849
0.0034117198467225256
-0.08280449743824062
0.06744616674909408
-0.1430712638662454
-0.08362561751425024
-0.08308048153398498
0.23033361704966007
0.10415181031995627
-0.06985240415873503
0.12647663967100609
0.06578482495883949
-0.16481971368933512
0.0506589277795476
0.12239470909348682
0.21788098216991156
-0.21424213305648704
0.11786820383098652
-0.15668400803102614
0.038441727332336695
0.03995876918937687
-0.2095691168830754
0.11770946386925646
-0.060582459645982974
0.24181548248594376
0.15315993207711975
-0.18670561626689572
-0.15122264419647796
-0.17697338146914482
-0.03294470849817229
0.14273795628126565
0.04393840939976507
-0.003029019843332586
-0.10348566708656619
-0.1957538514887609
-0.17899070072342246
-0.11577211322120924
-0.0994006760140393
-0.011787833772921929
0.05858172195212717
-0.00864825038803154
-0.22159511918691707
-0.1317046268866323
-0.16804363088306867
0.1770404110381372
