102 51 51 51 51 51 1
-0.018310291640942982 0.06831779590827505 -0.17044058730824663 -0.08773764566191386 -0.13101372896034552 -0.18236778174299595 -0.13866855477807108 -0.06700701873565876 -0.007073100717529637 0.008059820564823078 -0.03247105329328928 0.06745110271788737 -0.10434963481242837 0.19490046399745262 -0.20283066608644382 0.07840748234719305 -0.049312149994336904 0.028748146878335844 -0.18111613373170488 -0.10776299427311362 0.15436228125567328 0.20486196625811967 -0.06089025900562073 0.0988138799608468 0.14005336692340192 0.16440224566779943 -0.16360822495613084 -0.19899859958883884 -0.10128644329533587 0.18797572117927253 -0.2091070974937949 -0.013795424493678208 0.17351817741829853 0.007773347105649439 0.08454947833541682 -0.04467302925103165 0.07108516019463679 0.1385645433510053 -0.17772336237421535 0.079269766098027 0.17359272422973285 0.14365549310673678 -0.08536691877658158 0.11426960542014233 -0.15202664191034532 -0.04624451222895725 0.14083734807181472 -0.09369379891507446 -0.11831287888215891 -0.1522180525386585 -0.2189048071270743 
0.02954959647671011 -0.07912136599614839 -0.0402771354312994 -0.03219774243948249 -0.26833375396825077 0.01897529440613962 -0.12482856775081237 0.04968527379718148 0.05762935560508081 -0.12326087910539973 -0.03455903376690177 0.08467458512875949 -0.03741604197185536 -0.1617367679997886 0.0072725116761959896 -0.004003626588632039 0.036320662481754314 0.155337122132557 0.03489017891367168 0.12134593373204265 -0.130211140642866 -0.21743114708069625 0.118874375405445 -0.05370686860872065 -0.14863462551795079 0.1498889528315648 -0.02931524357284415 0.07525707630061013 0.12139826940451204 0.12499524242280172 0.09512223259604141 0.13127654143227457 -0.02280389027925321 -0.04757378947298517 0.25683271708422534 -0.04013525880983823 0.21836144309806213 0.07820152744421952 0.057781753420074 -0.20166253520003335 0.16605599022980821 -0.08001102447165943 0.04685775722432395 -0.08424240813876692 -0.07812430627916937 0.17401141590140354 0.05384720498581821 -0.16568111506104788 0.005639579247001338 -0.008214247374000208 0.027814987749254817 
0.06825694806286288 0.003178165385382524 0.17559646947109195 0.02151550083229677 -0.17797343145520858 0.1392384349381256 0.03865655647241361 0.13636008030073513 -0.19224413223616213 -0.16737902587847642 0.13807539032388208 -0.005899747175307314 -0.150306900773903 0.1357418764021211 0.0767293563043575 0.1348301676963129 -0.0040958262604620255 -0.06957639938747243 -0.158356413701263 -0.21674584395488639 -0.2268530416623504 -0.039321682117299694 0.14188391552139168 0.049829733823059504 0.008981979707456192 0.18683307365659566 -0.1604196357736627 -0.11539043830015262 0.0338794278617277 0.1347353837909741 0.059795579627000627 -0.17650523455234482 0.0935341390633156 -0.041953191197773715 0.1451910004703292 -0.05138981320750288 0.13408804453404974 0.18684735080149661 -0.043060932924257306 -0.25210805883452814 -0.1099600105578233 -0.18190452005202012 -0.1903222777645823 -0.07959266598171369 -0.11160646579206726 0.029442310222703768 -0.0200279209514215 -0.19839984776347017 -0.2853162809449098 0.2599123692722569 -0.011540937598574726 
-0.10618915368984615 -0.085847194802206 0.14932657746196873 -0.12496263040108138 0.061260836917651204 0.18261392644892707 0.15363359612084942 -0.08789785171174991 0.05742212532594353 0.07032401652028561 0.12274316817283931 -0.0969324526169804 -0.15400500203094317 -0.12163067040573661 -0.023911384462733682 0.02806344902389071 0.05162504377813957 -0.10857501046918244 0.1746543362343871 0.004946719155755846 -0.016137600835684402 -0.005468957725957162 0.15384669648342958 0.07502357931955879 -0.1334768592278698 -0.16155922648280685 -0.04233733952729394 0.09325935221575937 -0.1310877108910841 0.0783677760868106 -0.16726053288945414 -0.09099133105352053 0.15261306684808948 -0.10680341762032175 0.05615714099991212 0.02215697458226305 0.19573958258600963 -0.10804140658637844 -0.13136494204640958 0.09982795299798279 0.09222110653551452 0.19373487710323462 0.1804855641077344 -0.16768180154191586 -0.08367567904460332 0.05676189732315283 0.1866771576824286 0.16917685611246036 0.009857489362558083 0.16571907867261704 0.015905449144476964 
-0.0028620935523876365 0.0011643799802951113 0.03473416439354376 0.006701450073855173 0.16005625029335285 0.15155823802482157 -0.04905800373470268 0.17030068019156092 -0.11288865579222469 -0.17601531952543087 -0.14561179921134934 -0.017274651266658066 -0.16306276182795912 0.20533126729866855 0.11048660508188952 -0.1898403300910311 -0.1761015484659723 -0.029961754428826072 -0.12567876756812563 0.10840830435810295 -0.033207726768513614 0.18547932349215057 0.07814060194524246 0.15828821273320895 0.09045044315054689 0.12180083979697805 -0.07116381889475269 -0.03343676936772118 0.16996163895986555 -0.07235157596660663 -0.02588816032149407 0.07268501260661983 -0.2192178234839934 0.04157765529122728 -0.027102248903081924 0.08707522635701342 -0.09443645902333497 0.1561029439977446 0.00588212918042861 -0.15034577506794153 0.09246735365343951 0.03846885778760886 -0.16357675684129483 -0.08502795307017688 0.08867675012615278 0.14786785781155848 -0.24940004302301086 0.19305992552511453 -0.03839585294984066 0.2097097799515266 0.10168207540372932 
0.10690784476584173 0.049217770906227275 0.03589276018337427 -0.05950554298602749 0.07437116365620243 0.10740482784886514 0.09347080865271366 0.047471383687568036 0.04892579928655202 0.13315605730613383 -0.07137988734350764 0.021172798820530598 -0.014643447481223705 -0.024932408368120593 -0.018753517031392577 -0.02947047020892876 -0.07935015738397261 0.05291060195768693 -0.02082274318132053 0.14659145910183055 0.14417055751648217 -0.09832137086820597 -0.02960893852824551 -0.05216415508761041 0.13702291578586562 0.11023231086086213 0.19309814442089085 0.04707163266437417 -0.07341888249013703 -0.07299773224367104 0.10792371683257378 0.032495715486063365 0.09175255671207178 0.005182625699916699 0.07486176335062866 0.008473817919027552 0.06718596889897864 0.033532909519564606 0.0034451879806636876 -0.08557458882208761 -0.1660425133621748 -0.09213313691562808 -0.13451275877024393 0.1852927684387948 -0.18704794235064845 0.09076356988286727 0.0965724140565121 0.04821330027677486 -0.05342217089889636 -0.1518820065729506 0.0038460217355487216 
-0.019068509365803756 -0.08162274263745883 0.015443999959945947 -0.09538377666364736 0.1670051411183612 0.17525986873864655 -0.1271957235528885 -0.1759308475717816 -0.1258526457211449 -0.03804843702202562 0.10733667910636219 -0.11672712136224037 -0.16612141289166002 0.18603586842585373 -0.04855852415952199 0.09239655055572257 -0.12958544820137455 -0.16740594222839475 -0.014573988997493337 -0.017396028793525788 -0.14729445283078385 0.06531617493598514 0.05355580531408035 0.111400941255198 -0.12412522260290326 0.11133929469062592 -0.12135418598012633 -0.04518510766953558 0.0512140946222438 -0.19673540106952916 -0.0405200115963796 0.21004273526222325 0.10336187823577266 0.0046941905607757566 0.1326139006109274 0.19559697364837697 0.09816497434545629 0.14870964542017512 -0.18332399869459368 0.036936271353197096 0.07595394469020425 0.06816438532898694 0.13214605185700062 -0.2229415417648493 0.09254097367937528 0.04989885922039913 -0.1450148505994923 -0.19479065212176502 0.03515618020456702 -0.006386666081739654 0.10532525746670655 
-0.052899500109880614 0.17249317229892916 0.2543688242658632 -0.11752627291240092 -0.11040058847380906 0.1639044433538635 0.0480844026517494 0.2351388553261111 0.12608279214404183 0.23684825948548496 -0.0014625216236056437 0.05082854870347981 -0.1531311953316833 -0.04506809860743607 -0.20322972729140318 -0.19096338253746556 0.13715027694891346 -0.22410697501214513 -0.03874548496839263 0.12396010906964108 0.026767941858519474 0.023085846226183815 -0.11578496891370456 -0.009184267780249519 -0.052549715415839894 0.16199657816577528 -0.10189474173564828 -0.061319134109727426 -0.12473762436120447 0.015528479216493094 0.015781022637725153 -0.12551738323320089 0.053614959028208696 -0.07411760331721122 0.10823716009185612 -0.13385990386258545 -0.14233541775013128 0.003905812692735725 0.18877138344010874 -0.001757087492795347 0.12049384660289203 -0.00554537436371233 0.05725235311720133 0.13578493768692745 0.1841361252695218 -0.14340556356370648 0.09909758894781857 -0.026638328747575737 0.26036874555786266 -0.05281959128929742 -0.03082327890938784 
-0.2132068088880131 -0.008464919768714461 -0.10877557675125565 0.03009096208100012 0.15288404278380086 0.07393183997813818 0.10691859056381108 -0.04010167829832185 0.19039758662903336 -0.030592199822162783 0.1132941881899447 0.07062088384106238 -0.13445149902665193 -0.1184096570769823 -0.20659762964716558 -0.17469276780371154 0.007695691022875034 -0.17705464957404818 -0.18563918030312745 0.07044302873206042 -0.00668070203726936 0.06967124757438693 -0.08748467314683533 0.003963338478777037 -0.018685811884839715 0.024365192712530657 0.14468098325146583 -0.04982349629447876 0.1998105576358147 -0.237113873034589 0.15611736741206408 -0.1057702506143936 0.07588066364768237 -0.1582494765756778 -0.013621438375912452 -0.20981777123140255 0.19079637837035418 0.14732436548635064 0.14763327844157945 0.1727175688765994 -0.14402130158572937 -0.13117947434706745 -0.11883717461843721 0.04497855392870875 0.19451678511897244 0.21640113468314712 0.0940363645983974 0.05136407505601902 0.1884378818706918 -0.0445351728142776 -0.11537303447045015 
-0.10930776445941934 -0.12533123080278313 0.16716150566465462 -0.13618086620788408 -0.04339537608541605 0.13959431633080602 -0.05443740392764968 0.22892710696377042 -0.03319422199850616 0.03197794748061088 -0.0697042919954138 0.27725846896296813 0.0309356459232527 0.005670487096846872 -0.016032262749035815 0.15865332698149504 -0.15128888111936062 0.0053607955754434375 0.12962440075405673 -0.21076105117522453 0.03323402268426697 -0.11548361908801222 0.21628053786942447 0.04495730590939216 0.0678634960745815 -0.03700587330849682 0.03864579233984804 -0.019242940794433956 -0.2659222878963643 -0.0688577064590765 -0.04223697659248761 -8.566103563027853e-05 0.19904843464256394 0.020949079891150288 -0.08136871600861817 -0.0009352669875044132 0.20594903815747423 0.1587392833643968 0.18288619816399782 0.19300519770074054 -0.14489958702149827 -0.13036259617815232 -0.09954452068966327 -0.17943926424600315 -0.12294771369987201 0.05595152355432206 -0.022106096791461916 0.10729871691887768 -0.15528809674726507 0.08321518675984231 -0.09510592943373926 
-0.05490702517390783 -0.003113285323926417 -0.12229172871250997 -0.11376810280527369 -0.008599231910812074 -0.04756830664810885 0.015732474828169096 -0.11850726844376686 -0.02228235362222633 0.25126903749377266 0.09374830322106051 0.02746582920457482 0.16305870009378992 0.14822907931318047 0.02859341859791956 -0.2133762983644078 -0.15749501593528878 -0.14958902179313027 -0.0160993492326438 -0.08861442016249933 0.19355797864468707 -0.18688884574003595 0.23455944697777723 0.06537460175470308 0.09518326732493664 0.03033450672226752 0.09041764995285316 -0.031721758074595256 -0.2820805435453493 -0.09191648176579617 0.013920748855381708 0.06272908446691859 0.03321299579026836 -0.019857373259825388 -0.045310107452110227 -0.17474326675888738 0.16182457564632946 -0.021070619983294216 0.19663951772004168 -0.2175667884110752 -0.0484775762800573 -0.04160192285610393 0.13920467261157457 -0.09207039059318761 -0.12210230297612897 -0.08357773858599339 0.039875332439949084 0.11886648968606327 -0.002192813551186548 -0.06644403886561145 -0.272415239897936 
0.11166904714538259 0.08332065898968276 -0.19041167817447624 0.048271261238014264 0.05966422142943932 0.020264851602849302 0.13842961888208805 0.014667280998234602 -0.16377026741497291 -0.013477815595271486 0.16099194501530997 0.21307604967405636 0.11946820178635706 0.14481201111623265 0.006188990348307434 -0.1187423962340428 -0.026592282015576892 0.06391747973283139 -0.2584734944038693 0.15032842094105256 -0.09119531999154946 0.12518001918523458 -0.06425627543131292 0.16744761087331939 0.023604329183374333 0.100968817066757 -0.010771660184833106 -0.10643634786092672 0.1486746530218746 -0.20376361276449073 0.05843527755570636 0.18038296862363726 -0.11505871289907466 -0.19272578597476434 -0.16613911893825564 -0.04851509709219352 -0.04425362879588253 -0.15831898478051043 -0.16369114927553383 0.048384156617674944 0.14340543443656853 -0.15371221952173397 -0.16405462640313412 -0.22215832260302862 0.1464006540600937 0.06448522091812015 -0.0024300671471851848 -0.12485662366830748 0.07863369724945776 0.016129623839210613 0.21690208425377677 
0.050690575349345166 -0.04843741293517966 -0.10304782782531195 0.15450790127209274 -0.1459536973503144 -0.18959271583328863 -0.051923285352672606 -0.05600252508543454 -0.04695138256210061 0.08917976784641435 -0.16448574375253328 0.006729105610673125 0.08508483644538054 -0.09065719472875142 0.015055939235520578 0.1453898575519924 0.04498563424814658 0.003426074148790836 -0.14132554563556055 0.16025431255373992 0.21061246327311295 0.02968602203474233 0.12843365533268034 -0.15883733984484713 0.1617620093569473 -0.1125525617177046 -0.10233049091971684 -0.11442893721886055 -0.11904837495549588 0.17908280732607063 -0.04219277718267217 0.02673274015012817 -0.007422569679895788 -0.06749116161324761 -0.0816259417673923 -0.1278367356358387 -0.006756824537206406 -0.07336534481275125 -0.042931630395055834 -0.22295507009252355 0.11162936488441916 -0.17446892269841618 0.2452081782197778 -0.13098153068587048 0.03440316340853646 -0.2640828325606592 0.10741017744134307 -0.16530773099331186 0.06384776901353607 0.12080660738917362 -0.057285027612716276 
-0.025590880688859778 -0.13623826703861344 0.1078327274431469 0.06681997409961007 -0.1461678721661473 0.09625142454982885 -0.21339629628019913 0.10855092628424853 0.05901777826391887 -0.042738779443320524 0.1288087985287005 0.026614748433052397 0.1646841102921012 -0.04503888769664244 -0.18307877399532574 0.1731951076178341 0.1182590397447538 0.08173418625086754 -0.10211011115103762 0.05354319947199473 0.11127116878646007 -0.0989768418266607 0.1730906153630488 0.10475226014394168 0.023998195171241757 -0.012429424588268118 0.10334865278509918 -0.18018254569539666 0.2162312845230159 0.15800915147929284 -0.11450656227142564 -0.07719616405187123 -0.11799842021222902 -0.10035878235438937 0.15542138988351956 0.02442575347943934 -0.0813675453777545 -0.12683276446429873 -0.06608658312225542 0.002223699547631988 -0.07844759909055955 -0.06592311186007482 0.018492106693097032 0.13864230653698797 -0.01060383849988661 -0.1062170623197926 0.05277287205487923 -0.1411565232763189 0.039382065101717025 -0.04613900341441875 -0.04593973501097246 
0.11490567524797489 0.007739315044400263 0.08002138087314442 -0.012821936677714809 0.046918404878971205 -0.15337142900009945 -0.05342341353039521 0.12321047047229544 0.03156733748634393 0.07439629117154957 0.006485181077165936 0.04709271380132113 0.10420104024296484 -0.13201571394009698 0.021878903165391733 0.20004505032612724 -0.02137974975451691 -0.09263781140144649 0.20000725988299448 -0.07503634412521 0.2041947256285496 0.011993194852215873 0.1686296803728048 0.06854772745616185 0.14311855988220343 -0.1673898311965661 0.15502944630422202 -0.12891725338872387 -0.05052326467012582 0.17566487059809271 -0.15048634508170528 0.09795350664160934 0.11192431708843907 -0.01794949494446761 -0.04188140764107933 0.1358608146957676 -0.02971050363639722 -0.14346076205577818 0.13140525595201857 0.10342147767389634 -0.0046784915736893164 0.11139759173641067 -0.024326476014929453 0.055197779890673246 -0.030521567568804985 -0.020270155431979284 -0.1431773632067572 0.12959616437735114 -0.062003437585882316 -0.1208799955813604 -0.10816795745175603 
-0.12551572052841223 0.10726733924076882 0.03366351163802427 0.09642090190674367 0.023335518603069053 0.17328423660381131 0.08040199620353822 0.10056561381216579 -0.03290618021872585 0.04592739326483875 -0.11984757272893036 -0.0574379150551272 -0.08010337606563908 0.005786526076600405 -0.1022032152342664 -0.0251420970549663 0.17740940670384628 -0.0865335346790169 0.16403418711503398 0.039620427769716283 -0.08478167686245194 0.1001003082330133 0.17649755655151084 -0.011022967474121733 0.08856312900082786 -0.007737470013954317 -0.04804803186487668 -0.014342857659071038 0.21878234736484226 -0.08823303056421732 0.1736038558074324 -0.09637317553573678 -0.0035420436375767435 0.01028052578177613 0.08752702613919199 0.17783065972395284 -0.15273470271346573 0.02855507711689246 0.1604842953600536 -0.03464954271980551 0.16520467014613513 -0.03401057958819758 0.03176116079009296 0.12389619113009642 -0.10065710590871382 -0.2117511820079009 -0.07718877225803117 0.179501312441161 -0.028773432135957875 0.2061005531041312 -0.1501016066400464 
-0.12036370038317963 -0.12734288758799572 0.11801877082911492 0.0820070901685148 0.11152737093289639 -0.1096284877848439 0.06681234732636829 -0.0815131851776823 0.006875426220645263 -0.0678786896982481 -0.0600904683051421 -0.16111252780157254 0.08784285653843929 0.10360564342282065 0.023191315625747704 0.035899717834338686 -0.12521045162834638 -0.15625495620430327 -0.012465272893418788 0.12932789570202033 -0.08524854993203024 -0.0576228729380091 -0.07237272617816227 0.04435537941109901 -0.09314653597767208 -0.01653281987250497 -0.07443262977110157 0.16864173977621477 0.22316916983354534 -0.03641092819554316 0.05153061311138333 -0.20831832497800604 0.020751031320918052 -0.058775841321856905 0.13976822563373875 0.026531135240767854 0.06042427125014531 -0.16127780773943565 0.016333023911433365 0.19231647491086726 0.2071443516952224 0.036569157565837035 -0.14339108827373542 0.09985170775179633 0.03561928968315734 0.015027576982133646 -0.022625567147762555 0.06824522295419888 0.23292968671617356 0.10880537371834059 0.0758963177062581 
0.20840658622585334 -0.18966058412142162 0.24499104487445952 -0.1523866971439152 -0.08355847386420102 -0.0807302564228199 -0.182791765169786 0.080959749962495 -0.11550182785758976 -0.1299405632350474 -0.19227841649591432 0.09018463098309938 0.13885420279802782 -0.04355328192689206 -0.11863540247231405 0.06342078864735318 -0.04633693574779599 0.09418840983802722 -0.1021964824972039 0.012330764664809559 -0.1724450910147007 0.04119438504545183 -0.15049318971564699 -0.07779629351371345 0.05454330232927721 0.0004813238820369545 0.09082553203917397 0.2424294356632336 0.07445575990185112 0.19174367993963257 0.011212496619529574 0.12795015659415596 -0.039263046291968924 -0.039887129443789276 0.1089538705950744 -0.17724502836070355 0.18325633010469958 0.04830441661809119 -0.024991147228873134 0.19298332600585832 -0.11333466161451085 -0.03889241726962949 -0.21529494653832934 0.014277507044539357 -0.09292646431591678 0.07974116706529281 0.20614590724476872 0.23113371551790612 -0.1279221277530387 0.11859465399572161 0.07760884937875563 
0.05721955290880369 0.08094211013478447 -0.026165992941946978 -0.08724037615803017 -0.05014191396168619 0.04778803619604036 0.01596048997938526 0.04505021958764147 0.1967642341392826 0.02464779086415813 -0.09880767219865566 -0.08308870170599532 -0.10691449292102022 -0.0722515231164555 -0.1626508512768927 -0.15560525545939644 0.03644761546639512 0.1338988731384712 -0.33378915339852944 -0.024283442103329392 -0.009931244671836653 0.06363382391420444 -0.2709316835265425 -0.1467046722279415 -0.13797890236063443 0.11199610016767882 -0.10404667042612804 0.09725228186936058 -0.03175494098552358 -0.25073930081562934 -0.13451241008208303 -0.008521527443804225 -0.0013747958182223933 0.13498343219361647 -0.17854711732486722 -0.14382581988034335 -0.1333612764679113 -0.15300105340473655 0.11014548222983772 -0.0040473304835580695 -0.09007741620280214 0.138396726086174 0.19409778602505426 0.19326375142044172 0.11693625304907417 0.21183243549089606 -0.15585691432812196 -0.16059998913654674 -0.08130262045490631 -0.1031558516829654 0.27525569325174404 
-0.0031016158319310113 0.13137359443554453 0.11477008412100781 -0.015911859431480033 0.1148042040175202 -0.06624391536551327 -0.08927353150040279 -0.008209407571863165 0.07935221601717132 -0.08946540620106033 0.08783621018510522 -0.11123849986843003 -0.12379947383419485 0.15433775875169403 -0.07957275041483647 -0.03413646104935468 0.04122983753762988 -0.040909192847698596 -0.12944577922162256 0.1424100206687766 0.15243256809427078 0.029400084813549852 0.008292191993794605 0.014161535542208725 -0.13938162643427898 0.008972687914238414 0.20498095423362794 -0.056669643793862835 0.074101869109796 -0.16785519054115128 0.09072441395047842 -0.05237514581526684 0.1649551620291894 0.11675639305037637 0.1340200409385355 -0.009085297116807736 -0.09484273261381636 -0.13195296092298567 -0.09279045256585754 -0.14163367193219897 0.12705848421003474 0.006925124588594188 -0.032658881605729724 0.09223510561501198 0.02882878023513688 -0.15888177331841444 -0.1401029445162595 -0.09296192917275292 -0.11757824188962153 -0.13686718016637744 0.052737632136400876 
0.029122592232898512 0.05737661448818206 -0.022942396765268804 0.10151022716729229 -0.07485855538415984 -0.15424414395577615 0.13873122553106115 0.04506622961614362 0.12924534697555712 0.1799066412480627 -0.17500126264920388 -0.1042123713460994 -0.13341257618920663 0.0103690760521629 0.11742231344031964 -0.1868478792371867 -0.062178833602160075 -0.1140022568261582 0.09818576427205035 0.075889050149133 -0.15849543283911868 0.03957010118851822 -0.06458094129282144 0.19251400514677633 0.1832406718356268 0.06994324044214104 0.22977753469568177 -0.04045439554452618 0.17145296284914352 -0.08691735675036001 -0.09633642303731778 0.18561647577027007 0.05262686154101014 -0.1681517486429182 0.11846042646795531 0.034244365822279715 0.025993533139450565 0.1234880596991927 -0.11058827073988278 0.0644270296164455 0.13639087748940334 -0.15442968903161652 -0.13739933401238424 0.18466618564036766 0.03456862510272642 0.008515799102543303 -0.10184749437272658 -0.05480838362765451 0.14343646048048314 -0.07246678281022624 -0.1751754307198456 
0.10112129073782677 -0.09779196511163556 0.15002861544888693 0.11413082264293697 -0.02242898606126309 -0.010245521044865688 -0.0032906254916750715 0.11566375322614136 0.16342854405618848 -0.07212180514221764 0.1455603506881101 0.009312781737991004 -0.1172518150338694 -0.14548884631736533 0.0291617911351402 -0.125401902802305 -0.13396725417294367 -0.1027293002512021 0.1262871983282252 -0.025626542448247126 0.2747706192026158 -0.005039067647248011 0.051968036266843945 0.06644738223326666 0.013562528984412198 -0.19912542178013076 0.13164042953060828 0.15597348934719985 0.022367160800203047 -0.26467524843146006 0.09279135765661677 -0.1576726464808355 -0.023314642252275072 0.1940874559595657 0.14274789067911617 0.036392694658820356 0.058381075066492656 0.14902682090661756 0.18250627110930998 -0.04955088720768753 -0.14811206516287284 0.0554718993446447 0.1551630154334623 -0.11363127021735069 0.004530728353081486 -0.167247421924561 -0.16507773917572507 0.13953905512722392 -0.13994823933375605 -0.14557840327521349 -0.14657558095330317 
0.13691080893591637 -0.012686760650552884 -0.13426896812598615 0.11540717074329324 -0.0042095348600309146 -0.04621842163822497 0.047892871651069785 -0.007270944303797206 -0.04052302178681676 -0.11393529703444903 -0.12531920373319336 0.10207198329003139 0.05897079736567494 -0.21710068844480113 0.14420660586583312 0.06320818063832839 0.12913173277553666 0.06164980231675594 -0.12714171884456646 -0.040291307844473 0.045900448985991764 -0.002219455067615988 0.10996298597132177 0.0713620127331288 0.08110225661476637 -0.05781055740649563 0.0865606858223927 -0.08095997049050577 0.060555451720113916 -0.006924052424554677 0.221165236341789 -0.10481367545588777 -0.08762799986714445 0.05646326148095748 0.00921558286152334 0.04806844100339578 0.10399844871688216 0.08545017854082043 -0.0247978223822529 -0.09331118095229975 -0.16687958047434553 -0.06370085437553849 -0.06393620797607555 0.17869813167942367 0.10795142027247258 0.12168183151168838 0.05002467708633375 -0.14004534447639844 -0.12039896291471586 -0.038191656501055514 -0.10075812383071042 
-0.17703780926434548 0.15650804539159327 0.10615226166586379 -0.054522248910974916 0.32320192477433773 -0.3946294493991619 0.17415769574163242 0.17434457367534667 0.08919468550966797 -0.14762359381451215 -0.03675383526705489 0.24866048618945222 -0.04884393986726494 0.1843680177293387 0.13019968286500105 -0.021780682021317548 0.08787329695557072 0.16496991295268695 -0.1295480118404384 0.16345420959391657 -0.21894593670769 0.1627188356155054 0.03784981693442833 -0.07804889186650939 -0.1802498614851621 -0.09278559993256698 0.1986062337143224 0.15642550279485168 0.08287394472632324 0.20541703537390985 -0.07651545963754801 -0.16048026319921238 -0.010704585203970796 -0.024464362428298737 0.16579070858334313 -0.12943378444588208 0.22099843376666625 0.061233682803847736 -0.13384265767865575 -0.10958114357273069 0.005719625029685765 -0.13039079299519576 0.029249614847948895 -0.14660398561586266 0.2993677335182912 0.19320018139570416 -0.1264757022489994 -0.04080137701426042 -0.008799455684507494 -0.02962318330942836 0.06457962733784028 
-0.003807039485827622 -0.13652892451083704 -0.1175745369460317 0.13407521274757198 -0.2046794299545939 0.03600168478570793 -0.1852382386516112 0.12231284909866431 -0.13986488349091328 0.16561173060058923 -0.1648439502123865 -0.24076794182992112 0.24823937400795767 0.12306534698274099 -0.06784041078446107 -0.2482552684492324 -0.19946203871399437 -0.02199957047840461 -0.11556328028990086 0.16957676911426392 0.08555327140559683 0.07261153948756804 0.061474886414390494 0.14265007387363615 -0.12785796769737678 -0.045918022642302846 -0.12753774840616242 0.1830757358038677 -0.04165072245397371 -0.015066204629343938 -0.07417757309181323 0.1581890399086274 -0.050791487361951694 -0.1402201185018406 0.17647458205656527 -0.09589343705881384 -0.11462575634129339 0.10374434509683225 0.06625128556840454 0.06015191307353963 -0.09233367382663782 0.025979284036246848 0.06372530474643294 -0.07248992941168687 -0.26567652090750843 0.11846173833958541 -0.07402689445807564 0.08447104031599102 -0.06472834958108602 0.03997954101451618 -0.08589824281645805 
-0.10108048282524844 -0.19339364364192113 -0.09841816145010573 -0.14246971681808607 -0.08977946320905528 0.020191958726572225 -0.0009222075269350674 0.09177937250458024 -0.23064346862636145 0.04697013844406519 0.15351381520661703 -0.1634862380817947 -0.07254884794269796 -0.09712190688265021 0.09969695440468437 0.22226307167478734 0.13889313705870335 -0.01349089323399064 -0.03349549938293393 0.0202673685885899 0.18221274179780828 -0.0005683752508010436 0.038420362953221016 0.136801835865959 -0.13882870513780837 0.0486454191704478 -0.09821944722646885 0.07777034421173414 0.21414683484925387 -0.05621024567914846 -0.06094634096858865 0.08054912360080166 0.04793770095024503 -0.06301995305135259 0.0997662296623784 0.053665968741381936 -0.13935585708639422 -0.0652925208476775 -0.1046118883793122 -0.1287439738771074 0.13519685710093005 0.07267195744735423 0.06418206859705737 0.024848831278531894 -0.02321375825389025 0.03871090164703848 0.10476331169664099 0.1477125253525518 -0.20908479385987122 -0.18014855853968498 -0.3052332252371536 
0.17375807891979644 -0.12471711872253662 0.05398970072169482 -0.12519464498336255 -0.08760663898103083 0.0113930367246672 -0.1707319911388968 -0.04014141480482698 0.0386773554247159 -0.15110667751180484 0.016670853804893002 0.014794829963055237 -0.0450368673839335 0.08675457161283984 0.06629376699550311 0.08465733626505104 0.049512720106123544 -0.14641052301150909 0.03386977441506716 0.17402561028829044 -0.09453189696625823 0.1888139007412291 -0.016023169738883833 0.12561641472946672 -0.14147953000069458 0.13823333425278603 0.0066549194897574685 -0.18651081762656524 -0.18683433743317995 -0.07795668635524186 0.08105831896355423 -0.13662288442784962 0.01335438047540533 0.06868533663612043 0.08016025125604552 0.15823322131830556 -0.17983657846395928 -0.0673245927185023 0.15728321705190934 0.08383162396133942 0.0018570459165071485 0.09790611511211252 0.17912744324008958 0.2915000668871638 0.18694376421320896 -0.14419622291639572 -0.1862434129489108 -0.17291854312442848 -0.14866050335177772 0.2362975928246591 -0.12359143554598989 
0.10384043826626872 0.07730307613911297 -0.014461768454717059 -0.05351051850748421 -0.043922850560641186 -0.12011392328608798 0.15560296267312376 0.07829379363895396 -0.18289662615608013 -0.011830505095753554 -0.0659496915049042 -0.1556048558857788 0.11718483961072784 0.13713392668611066 -0.05780108043935728 0.09140534681890228 -0.06095589908476242 -0.05783396202542693 0.15757959949862832 0.13069830608838875 0.03761608571776862 0.229165764054363 0.15370245194845822 0.017849652036354535 -0.04569435196392843 0.09982560281396363 0.04958486995707779 0.046428256716000336 0.19945365037772866 0.09869881279413614 -0.06028923875639261 -0.13197631979665445 -0.1287651631875652 -0.02236104928055965 -0.04338832835131998 0.09309275536104261 0.14999901297908444 -0.15346000926460865 0.1391301791202295 0.18490465048219165 0.1820455043471052 -0.15967312250236732 -0.15468124328502386 -0.1514749647331322 -0.08481698961175839 -0.17241954860140826 -0.062111284521062765 -0.030796244317889254 0.18372016568741542 -0.07263300754804113 -0.06688649016109537 
-0.015072294335537475 0.12389188766660134 -0.11624186243323549 0.04032874777762713 0.18957467990546992 0.07811619417602739 0.17448188139747828 -0.00020034732364894916 0.033495256861213726 -0.10521635030478049 -0.10306268406827476 0.21185359151938984 -0.11194400197409876 0.1837531429017274 0.14350237908951688 0.17610048549654653 -0.09036898934888898 0.10669479856560317 0.006676373944153343 -0.18946497814625565 -0.0528248583717482 -0.155696984335288 -0.009921010944431742 -0.19191347209638582 -0.1585588493541637 -0.12939882002203448 0.0972024599986635 0.06328025129811977 -0.015768204554877735 -0.12510057257484877 0.08568631186281767 -0.19645422852217076 0.05673759169292667 0.1597659276490585 0.21039458638301184 -0.22563973011778513 -0.07018667140823054 -0.1123750820623596 -0.1343844703580695 -0.1785603429216402 -0.04979390680589595 -0.16913261770303029 -0.042690093859563245 0.0635488116634847 -0.029143704755877558 -0.0666816405658311 0.06789482735320795 -0.10769175776390827 0.0778260656612428 -0.03504046105779933 0.09337672448067418 
-0.06439435432913562 -0.023994210146983455 -0.06001556840467664 0.11331302802977235 0.16495295219324127 0.13481143543104349 -0.11383336050074669 0.2428779769383955 0.2212907022308931 -0.09502704429140464 -0.13651944204570776 0.04659353113180296 -0.059634521518205884 -0.030357145929936106 -0.11268037618151996 0.15163916030412739 0.03497706558883901 0.1562492492375635 0.043176187136131555 -0.06538739364805243 0.18311216186489868 -0.16855577878164363 -0.035523440269661935 0.08330649271158481 -0.05955744380724619 -0.23582637275403082 0.04477340442752167 -0.019014453715776338 0.14658792255639522 -0.20745264681149295 0.0004984457918659378 -0.06586284912423022 0.12216208947683975 0.27047195321530887 -0.12976727942056276 0.1264685734888524 -0.044511777293712446 -0.17305285384102934 -0.10459964382288528 0.20734112777198227 0.13639396019729397 0.04660897161262005 0.17228393860093855 0.1684665390654799 0.011834625445225018 0.02795778879755696 0.07828651364422692 -0.051193110661400615 -0.2817655658905104 -0.13650603911095716 -0.12824409790323338 
0.13846224770335133 0.06962435322573168 -0.0548841098356525 0.0448116433257443 -0.002143351294843087 -0.1848987246113712 -0.0761269203116612 -0.1354082524619358 -0.18498703169875555 0.1350554159291605 -0.12960946152829353 0.09973933792792108 -0.06164943801479892 -0.15044077038478965 0.020360690339626394 0.1787137496396798 0.16253013815674713 -0.09338770114652811 -0.14206290565291235 0.0890574198304036 0.0983195229856694 0.10706166869771239 0.00894100102379594 0.13428361982193382 0.17576927110040977 -0.009202368060513937 0.0696019216227115 0.08696588263194498 0.0765868781786032 0.1172172679979456 0.03147623796094228 -0.06180205592819838 0.03221880349046521 0.10514048310370197 -0.07581521244230997 -0.0974603864184458 0.18998561242216583 0.06616744460421471 -0.07588407051761605 0.03527617369499969 0.21889178791807243 -0.1124217477903772 -0.17920815936445988 0.09732584530428443 -0.10696085229651964 0.11862508884908707 0.032724343901024154 0.08585671091538043 -0.02934272064333836 -0.029586879311961214 0.1071786234264677 
-0.027325410576038607 -0.23133331000330049 -0.034166990297804546 0.048457007640566714 -0.1859247985589548 0.14553990317778043 0.1618169865221197 0.16021798056513087 0.08813311993141235 -0.05515714206097585 0.12537715742010416 -0.0819596930614913 -0.038014937175076445 0.05492844182611602 0.013764604542573897 0.20328669156505172 -0.14369832592099827 0.11588312196972511 0.16698930780257054 -0.2007869270461895 -0.06153349898132003 0.030318316363069413 0.1457768403522556 -0.09027596940405098 0.10673963180479441 -0.06454029741160151 0.14908257557002108 -0.28282698688197866 -0.10833328020990639 0.18521140885777454 0.04473987708507221 -0.23182072041935947 -0.15424254067994414 0.021912601644476157 -0.1987651203608146 -0.07559929383496224 -0.08112526315722286 0.03632794769365622 0.04654840218691819 0.11472382898898208 0.16355946768990903 0.0625250112798317 0.038953504174251995 -0.1664523664092964 0.16910434273105832 -0.18186767393812553 0.1051131927648176 -0.12175138352961803 -0.043421139306630024 0.05682518006614104 -0.2441458549063172 
-0.10090474727075001 0.030912038360870555 0.16586866063111005 0.04448127082012816 -0.09398209122977874 0.14320481912877292 0.015666923201578982 0.21976383638645075 0.08614659109297824 -0.14148836084114935 -0.18491517497518895 0.19278198669876384 0.06710623436606307 0.16171965432296811 -0.05942451856267713 0.008688378383453215 0.09170398676141667 0.065357546167835 -0.08293918765562787 -0.0705543074151512 -0.22415608282293398 0.1049959947200009 0.16777815387357978 -0.11166707611779274 0.08398993888390081 -0.038561805314791364 0.14045144638017584 -0.18624184426570128 0.005760614648756834 -0.024023612360003894 -0.04369838763136113 0.11423133757068918 0.20331581292055786 -0.03396004372149368 -0.12357928080948993 0.17921626543292246 0.15650734256986507 0.0768436444189123 -0.07586254634832355 0.1434666654436638 -0.13486341080410613 0.02529925206285215 0.07632922664189053 0.0011146703486012667 -0.006559716200037613 0.1545469921249749 0.18047555545760596 0.023248780343340658 -0.23486879854994494 -0.12781057180527627 -0.11524799994515514 
-0.09935937024643636 -0.09290614810855857 0.0871566220762931 -0.14091236010129246 -0.14410726170586047 0.1712357293548361 0.1306176281115141 0.007915164258864979 0.1561375528151487 -0.24450213598826775 0.20659075861442033 -0.01882861177880577 0.09777243085863375 0.19237596683687058 0.10553870897572705 0.04132841904350682 0.19827018695805151 -0.07191633037126625 0.16095809855034798 0.024679888513294185 0.12120827197291426 -0.14395388086550684 0.1172206139322322 0.01615203414586895 0.06900490326302837 -0.10920022022328227 -0.08917056550270598 -0.13418257836425732 -0.05413622318618079 0.2286099171685813 -0.03113234960803743 -0.14692168493007757 0.04849365380978663 -0.08060394055562653 0.06470154866075035 0.009664132484262266 -0.05181645680571767 0.2211153648106734 -0.2034111754095209 0.10566817748973814 0.17401640448349223 -0.03265360124062462 -0.049830051599412103 0.06557640021123742 -0.1417290240409877 0.08383450639286573 -0.1115340965325261 -0.12155426298385741 0.07524011302180887 0.06974381059858502 0.05553154252643156 
0.1898322085344663 -0.027201790626232358 0.21627406942767097 -0.0403399914743762 -0.026354056244938712 -0.24704512679503338 0.20901845679130904 0.01926710707942883 0.1333824410252482 -0.015811867766252694 0.024694000080641255 -0.2662577942546485 0.11056219253025205 0.17555289558573925 0.02043622675534297 0.17067012370143245 -0.0853845134829204 0.13276863427842314 -0.06505739988696188 -0.01838483225749281 0.01682217425101645 0.06339723846986217 -0.16610597195589272 -0.16438910081084382 -0.13778121898815235 -0.24479015488151884 -0.03248577304461305 0.19728688709856024 -0.14002624021317145 0.07734198917025037 0.03516622133901061 -0.05787637271222104 -0.09994209236435438 -0.06100554541720272 -0.12683311113488002 0.007836831119062866 0.05904274086132204 0.057323541775054304 0.0986695063322152 -0.11951156814697668 0.14582812128183115 0.11334687824079778 0.09038891378007709 -0.05302430642916107 -0.0004204265170189163 0.013952918784371087 0.1418119899981813 0.13307132452753107 0.025740481937290536 0.04878077836883711 0.2920685618286192 
0.1906820030825177 0.025775521091252585 0.11851783372353925 -0.044536047418543424 0.23272091233338177 0.032080823978656636 -0.012527636308429973 0.199033615385509 0.1332350723011219 0.11006625789666065 -0.1982621964799742 0.06544598236803734 0.11153791330816243 0.08208972103338119 -0.026492141818124246 0.23243938532928443 -0.078897508839157 -0.11596742629949443 0.15394133295422843 0.08757856185663636 0.15183146383333865 -0.17751585689041977 -0.15563906847051828 -0.1400497574733355 -0.07319681714445181 0.05257860918715816 0.21981761234057282 -0.030924880228138038 -0.1469856181387829 0.10824438270422879 -0.021313006105707976 0.024472965560486185 0.04773136047603478 0.042708940415119155 0.10477141080845875 -0.10623599176899819 0.06016115618451856 0.16676886555576814 -0.17541734901451808 0.08886032506386904 -0.15735931678761916 0.01885944681363654 0.037753275664215935 -0.008020740846210198 0.15120913682587125 0.046252056874893026 -0.07537381704293526 0.10071188808809614 -0.13195866618456414 0.07465863739631996 -0.18460170749275795 
0.0615710489506495 -0.08379320224759619 0.07037834403528782 0.06507163842790659 0.020266889395647556 0.08038659891677373 0.15861454783714132 0.13785187420401745 0.05495215804418704 0.005358655640038152 -0.027645381836684142 0.07709806457684329 0.04154653848396291 -0.09558281763523419 0.019616861207669666 0.12470722715062384 -0.15729423891514394 0.17162165765380896 0.1252912181209886 -0.05175362795562366 -0.21810762100878256 -0.10717855131513658 0.24376098594190365 -0.12595572151831333 -0.08017972978100282 0.011386206572658224 -0.09187130506424793 0.12159720047703647 -0.25986603756844084 0.05889503143480793 0.06754018519861323 -0.06680348072339629 0.009696052759765964 -0.06147346578845731 0.15367912585636645 0.07395801940246016 0.00554623824415144 0.06420356596790612 -0.0020225554097322517 0.024103241835962765 0.05409355550231774 -0.08429269189253381 0.08466724753309893 0.006773804787115267 0.20527734496228575 -0.12208875485978696 -0.024423913336045423 0.17484256716194377 0.11323266528079387 0.15717659839946607 -0.007165422545851743 
0.055455015840530635 0.17196103802780138 -0.10398960480315662 0.08519158496056205 0.21027345316558388 -0.17669725052087723 -0.12106435429215681 -0.12051630339442991 0.1391214927025594 -0.1683357629644623 0.13930046537878038 -0.10112198852975818 0.20358126359254988 -0.15500793689574316 -0.03372065474753473 0.0982365066344481 0.08727038795236976 0.06611647573201954 -0.019174584181953367 0.013075510560489084 -0.09565410472205152 -0.10011322681187758 -0.1601586335987455 -0.10420541835467405 -0.13681139846655246 0.06842510483535502 0.11509647748731884 -0.05674908621929774 -0.17515734273891162 0.00700366092638212 0.040713717752584956 -0.10858361216723894 0.09780635032553615 0.1924558959391953 0.14412180171302486 0.0565211417576603 -0.03719367094028608 0.09867540326991704 -0.21262312023886443 0.16284760759359704 -0.10527404624133752 0.1221710440920092 0.1405827132150575 0.10978106218425797 -0.0764458279677491 -0.11842803952347615 -0.0721642461712698 0.16867396995469294 -0.001023877173033973 0.1410467897652452 -0.04668119066261322 
0.00014178157423611775 0.12160041750466147 0.008094580238809553 -0.1390032864324401 -0.021979985517336022 -0.11856113220132412 -0.07476591118418402 -0.09164812993935946 -0.1826749457024459 -0.06702002493681586 0.06642167833020415 0.0270723079348422 -0.11187562835049675 0.1612258491413255 0.09920341654644307 0.13042818156133018 -0.16702466551712117 0.10786177064530374 -0.014812489552240139 0.14991497932056966 -0.0038054085702707787 0.012147929267435683 -0.08560365590250917 0.19823909033479095 0.22323221639765142 0.23886047990993717 -0.025159083960278612 0.23893205084325667 0.10052693386185109 0.17723826741305823 -0.1422679026022686 0.18552478667478886 -0.2392925989253743 -0.019777480321896412 -0.16800164148684452 -0.0025402237161525417 -0.21097091567570758 -0.08114965192651377 -0.19047363248099078 -0.08836777257534877 0.29528332401375296 -0.05035889343667609 -0.16469166359237813 -0.012588034060725313 0.093306950692882 0.08775754412020026 -0.13359749811683327 -0.1699487744145247 0.13891355159856528 -0.25500055108703257 -0.08779200387225333 
-0.12692616022163414 0.10377981523331005 0.004948322452121596 0.018434040946263955 -0.0031238109325458893 0.13796549881650078 -0.04912714560271654 -0.08940720096256914 0.08234332790707767 -0.12585920301760048 0.24140589179614044 0.020469253978256316 0.11250110399771822 0.09054498385712186 -0.07503007121121309 -0.08903660599510684 -0.002138625609820431 0.18789034866265272 -0.09571867074742836 -0.03819648463874431 0.034443865113119726 0.14051696796965976 0.13708816763454895 -0.04043546880962763 -0.08965701881469396 -0.11002779945106651 -0.0913463994776797 -0.017221466290491833 0.0021170235840048865 0.1677491121394504 -0.11316620709348181 0.25944467785759673 0.039089521799202644 0.07355473119466688 0.14501936298312634 -0.08388013033219126 -0.03289974569205619 0.05520107357396183 -0.026773796625416818 -0.05681174519668396 -0.12027982454658762 -0.06483959203679945 0.08450417796038329 0.015563423587734437 0.048932408807624346 -0.0045925215541548796 -0.12765789603437278 0.05700369386989104 -0.05843296719550489 -0.14401439433850427 0.2022334068128265 
-0.05475172276947554 -0.009523664832218911 0.08070808383060439 0.18520438433794684 -0.12923809107507367 -0.12111779613642298 -0.11850361076029681 -0.15303608989906775 -0.0312816620206953 0.11731067303890087 0.13877614941558652 -0.008397932560332276 -0.07855702038112006 -0.10239089845102292 0.08362970242289601 -0.0794665954026248 0.008575146218301152 0.10333822303075042 -0.08222358975580306 -0.11680536604484315 -0.10827294919446223 -0.11762710992868017 0.13853255183230237 -0.1258024591391814 -0.09024286005511067 -0.22460758528243896 0.10311359182524893 -0.09699198019896732 -0.016650410640930095 -0.11770621291245054 -0.03678998780213319 -0.006316531778181877 -0.03860805155584918 -0.054026998707420934 -0.17460501746804952 0.1088824015394934 -0.18371297558192126 -0.023697092183258023 -0.07327865643522562 -0.10205794932814943 0.07297092223210597 -0.03857592853128703 -0.10011108120971432 -0.0061000035094077795 -0.12555091107305416 0.04828386096370435 -0.1602408412121935 0.09727093463460126 -0.06880843419109808 -0.036682980518425765 -0.06983267404811157 
-0.09520546868099061 0.05292186709182654 0.2444488294347304 -0.11171250291117032 -0.07694373325731686 0.01975356308845895 0.10372803210568671 -0.09907670451528906 -0.08242818027138499 -0.030133786856271768 0.028702447332548814 0.08205455414743064 0.1709143180838248 0.0735355945551088 -0.0864666430394442 0.07537616952293517 0.16408124937731675 -0.050429856034021746 -0.05872324481922932 0.038981650326580096 -0.14313526084974906 -0.029797926764822114 -0.14336964536487765 0.04876806453319106 -0.04663072240209424 0.07908777757429306 -0.1398170845104437 0.05014828954427451 0.20678528562122217 -0.1554381688408134 -0.07946996324406898 0.061093199351779925 0.19734174369511548 -0.05602500870757148 -0.025588111160939567 0.08385046900118695 0.22136788818357925 0.07638815618052808 0.10423421927871826 0.23092662556466556 0.12012396826078549 -0.1872660365687161 -0.021788906273742022 -0.014100952719675404 0.17791839528608408 -0.021919279687329936 0.04881507203802114 -0.015466114773542514 0.06086766231571624 -0.04133934092999439 0.12833357871760123 
-0.0011181768740944882 0.053465403692135684 0.014010623787871919 -0.028251119373200535 -0.29543001267148145 -0.08364964858400799 -0.07533221753570082 -0.12118851531989057 0.015416298458250724 -0.018833166732678385 2.7698139017293e-05 -0.0627670034489052 0.046016872941407 -0.10030992920196986 -0.15518843453689699 0.11830551265273564 -0.04860126063073237 0.06942210147998569 -0.11518220541074417 -0.16392807001375623 -0.0018576373919615692 0.0628168434262608 -0.17403378816386197 -0.05495691060769484 0.007533453387362372 0.0040454504328377204 0.07489089126865706 -0.17963095727715733 0.02172168798332647 0.009258477950901225 0.08101669674763433 -0.09628323690064292 -0.02562791304569989 -0.16486518346100834 -0.12056680497975417 0.02617205884836892 -0.15961687000247574 0.08897387782272542 -0.0050869816056562465 0.07640648693270273 0.03569612141403065 0.2144194682646811 -0.040148041781263466 -0.008783457740208042 0.04456484514024881 0.020939077576552573 -0.04609753349720391 0.017325177928230857 -0.06685470828344046 -0.09422593735023772 -0.14387842016690655 
-0.00892020410254566 -0.07400749267790306 -0.06469547602126632 -0.1440949825370451 0.03278033595219692 0.031165254080772066 -0.0036753044814313964 -0.031636187225681005 -0.049523134628077975 0.01033689167138995 0.023936567083468724 0.17387580350099185 -0.08771003491011364 0.24672194746939452 -0.08561926714302424 -0.0007235062697883041 0.12388102127616743 0.06007748890360658 0.13083404638701127 0.06761709339524301 0.08072532335615866 0.19432030364800612 0.06932880696016405 0.05517213280603743 -0.132569990891615 -0.007520114929975324 0.09672326242446108 0.04189297270307472 -0.1288831668164976 0.12985452874464606 -0.11052045712452287 0.07892203902562939 -0.27336164740082036 -0.10741294312935593 -0.1527610943286739 -0.2723176758801573 0.010661206494346808 0.20326886050422951 -0.07286259431074604 0.05736326462613901 0.13801659890863846 -0.05957237580357612 -0.11534533542218327 0.0223794606015636 0.06809943697177032 -0.13906939733687082 -0.12196485617631249 0.08919165133778456 -0.11279802976817964 -0.22044008308812202 -0.13634924380455649 
-0.09282341443597782 -0.0379641767339735 0.09910846429719783 0.0950214808924457 0.10704818471395774 0.010115262952909765 0.05712426707765682 -0.22526294659844318 -0.12855913555852092 -0.20376291890317227 -0.053101602784901974 -0.16363697826490486 -0.05555641256921174 -0.1460175717032643 0.15316101566272 -0.07272812342503499 0.15001636955837536 0.0371460606507975 -0.012600899226893293 -0.011132079153664775 -0.06264522544928143 -0.12105694667065212 -0.04734858261601982 0.1393075713569268 -0.15408991015001827 -0.1982648470666212 -0.05150746302792482 0.1881468883436176 0.23649681501108935 0.02506608641424421 -0.10581822259164603 0.07491140488645118 -0.041251709330388305 0.032176221673525206 0.06505237635618652 0.19893472472552626 -0.008366811355548067 0.16180257890180294 0.09725379438845747 0.015299519515407109 0.13977235726834084 0.09492754486786813 0.11069253302978012 -0.05976055324144104 -0.24590296494020572 0.09845114512069579 0.05746364718401581 0.004313960045383789 0.054258385648395704 -0.18497150349016395 0.16314804500728392 
-0.14241157995335813 0.11369495823294805 0.10775625792262317 0.03715190938278843 -0.03773811188762777 -0.13308368836940662 0.00400398018066955 0.18413432653305487 0.09000374593104615 -0.085305721551287 -0.017485625082187005 0.12881681686694002 0.06390836057559657 0.01813830322724551 0.04553087749623304 0.07709081932628829 0.19095795147666356 -0.10760370157302308 -0.15605708179139371 -0.05320514072313057 -0.06093661357395147 0.09719535485175859 -0.1615012781797352 0.06172235898470095 0.06272610373010122 -0.01631680558270442 -0.08373584842415974 0.1122371923639746 -0.016844925825895935 0.056858509661058064 -0.044572105788997375 0.04323654863094152 -0.15865071086311133 0.0018864220206151756 -0.04883212668466195 0.16220980959379322 0.03764441470356851 -0.014921907600259448 -0.08465592554376444 0.11730516069541481 0.1374230334818033 -0.07027739472105445 0.07206196096550255 -0.08545176272331778 0.14838962207821765 0.09569212714642321 0.10091695053748878 0.19620895304382246 -0.05164113986147501 0.1571579350084034 0.06615008628623603 
0.08210409078717372 -0.01848952910415539 0.16692098834492497 0.050928418570024954 -0.1141394587434861 -0.05333918197134913 0.003887674669739947 0.23524035511733957 -0.03058195501150131 -0.0620393143017885 -0.13832717574698536 0.023470116390805176 0.017176232194187745 -0.038213360512965956 0.12363646481664226 -0.08614103857478653 0.07513671684375087 0.08690492775605058 0.035605198684706955 0.01794102130297154 -0.013146588647042656 -0.07589562163086308 0.1294208914965731 -0.24170380844587258 -0.14295315355495827 -0.030740917899044727 0.0955210793507488 -0.09811078995147533 0.17809046809117143 -0.1579046924248578 -0.01347880903847297 -0.021949376114602192 -0.0582808210399883 0.012311615474016711 -0.1431196588365969 0.10854531180317022 0.06395411960990449 -0.08719292174514881 -0.11666448908815075 0.03814051156770384 -0.09915315743971892 0.1414659621103121 -0.03720094101515121 0.0011332857276983928 0.15986062475571303 -0.045166023551635404 0.09023604593304463 0.08676566864325298 -0.12302599932968176 0.031735053862123185 -0.17621784525534545 
-0.1510817964459659 -0.13460691747349 -0.026872710858565574 0.1277792943235453 -0.02824259681201345 -0.17327267497092827 0.10824345953177525 -0.0028553674631801146 -0.022375766185552426 0.15511942495380432 0.19219570358579213 -0.007136679445546711 -0.08937943839825409 0.05363602719322038 0.10276801781445279 -0.10230105185245528 0.00747685763779262 -0.1618222696507361 -0.0925983031851954 0.09464560898975477 -0.1262825205813933 -0.07066160436071463 0.06995816642137939 -0.1349319276275037 -0.14317740482261018 0.0045886581182611064 -0.13289257138746383 -0.00043976756789683555 0.1896342182094121 -0.22562486557115802 -0.044511120868518016 0.07064949587898793 -0.10086724528688165 0.12437142258819946 0.06162205422028242 -0.11719252544410996 -0.12736650370192998 0.07311539583482793 -0.033354886556904016 -0.031083645867806365 0.1583283557188731 -0.1414863832313062 0.14359165730218307 -0.13990285505915515 -0.13999054215864315 -0.10183797832121705 0.10172554484922934 -0.050785592601073425 0.08436224709402744 -0.15431376897734642 -0.10121906207819348 
0.006201574879289042 0.12777834528222734 -0.003293072428477367 0.12299711190187637 0.04516702556071487 -0.08483441188823712 -0.08468019196190615 -0.0738058264981014 0.15000896105506242 0.16221762379936577 0.10338218396552694 -0.09004409329168489 -0.02622014080967039 0.021345636339417825 0.009283908582898156 -0.035048254242834094 -0.10596110067282141 0.15631340852882372 -0.12566161171453222 0.13398723187455738 0.14125406310421323 0.04372664842389595 -0.027541013345328696 0.09018312694699633 -0.045886382992925905 0.11165734356044013 0.14356840431277557 -0.11711647568321484 -0.054547148167842174 -0.11273598150569396 0.03951056186118825 -0.0012511068043511593 -0.15509565181457574 0.06370241746162117 -0.16061585422760777 -0.030557144297754316 -0.0017484188462759754 -0.07417248223313326 -0.009923668246413045 -0.11419299585493835 -0.129124976322258 0.0004562049960619341 0.0646002121820102 -0.10780023696877956 -0.09154795659835731 -0.05286909819938398 0.1249615994771765 -0.12471091464874269 0.011650380895596819 0.017967074537247905 -0.02981255975786004 
-0.04484157630965451 0.24559677546547948 -0.025086774356314814 0.04585705368133278 -0.010802518324749615 0.05121320044170065 0.027978005154279534 -0.14628377799494388 -0.04967859365461771 -0.02089704859436503 -0.11329349802099244 -0.0037518305257790733 -0.08225665706255934 0.1696891667983177 -0.04761545748806015 -0.08267278163836368 -0.1122223970252009 0.05480892562828123 -0.13269942035060212 -0.12554544321922914 0.07769459270418726 0.13738778861875045 0.09307177379477123 0.13087038470017692 -0.10057536783590282 0.08995752917027844 0.14597222868948925 -0.10617394450179062 -0.06081061874398189 -0.017253897353279028 -0.04681259585537824 0.04806240931576866 -0.20330088508540822 -0.10306514220096161 0.058153244104509595 0.133879909218939 0.17596162312596947 0.15320957568245516 -0.2474781804941299 -0.12245083563409954 -0.13062122877739116 0.012674274457495048 0.13745066993356347 0.009464504237610725 0.1330220795048279 -0.11550010264865399 0.1328934563981086 -0.1582239069744871 -0.13814708457406155 -0.04250847161594501 0.014985879092457867 
0.1623313817331889 -0.08986412742018678 -0.1139839016056473 -0.1203663626373873 -0.06833909216563629 -0.054286900274220444 -0.0232688411830662 -0.07579550746781473 0.14343217266261057 0.09054204925992772 0.21638442415594583 -0.25032489549398584 0.02241862247247558 -0.05791598877348661 0.10616919297133541 -0.14857382911151218 -0.14822453000592872 -0.02285191446424844 -0.02928544727340957 -0.004388184987495619 -0.14534566004599453 -0.09966490277818832 -0.05301147729206867 0.20281780832765772 -0.08857831557694007 0.091041757243585 -0.07302726900644214 -0.1585981880113178 -0.21897173182996382 -0.12130428254169295 0.06885636932617226 0.09692858200016279 0.10890634276932325 -0.05761241761523303 -0.04008491758086258 0.0964589399298434 0.11832663660471274 0.0009664959496335382 -0.2515462324151136 -0.23699287560482363 0.08733137570894782 -0.06860207215027601 0.07585939082580369 -0.09338979385773916 0.10765539131044706 0.013101002935651704 -0.01746615593531476 -0.06604402075185915 -0.0161657035727585 -0.15710632122051643 -0.08936350199996164 
-0.04540385395681472 -0.0503659202211256 -0.16689532260229265 0.00044549772661363606 0.08122239806150841 0.13866535077202036 0.023966869167572697 0.0415911369506429 -0.07080803977282808 -0.0792751483865633 -0.20305025213269554 0.14617936460843087 0.06984272622716918 -0.1738026908419811 -0.025834772560509776 1.7702836806364627e-05 -0.13101510430095192 0.12270613944333056 0.04972110819311153 -0.006372179554433401 0.12204948247550562 0.21587575163186531 0.09097406276773806 0.14585401288389152 -0.024287216889426637 -0.025583457995815705 0.2075742515167609 0.10870560353638291 -0.029608871397405777 0.06986843150588509 -0.001075972917079507 -0.05342266997790633 0.0657319417600602 -0.06722847095304516 0.043845592160990834 0.17044348138163182 -0.045062849029070935 -0.1325909681978382 -0.04202437230403269 0.1375378823809958 0.1068620167491399 0.0857207071004978 -0.14640044914163527 -0.14218796113915141 0.23176504193991576 -0.1468831434637731 -0.0275764423237975 0.0878523829966206 -0.14205661666466426 0.05098615964327723 -0.016660242269494883 
-0.09269211435219585 0.16804057662119673 -0.22182920351563892 0.041711515009901876 0.059909715245221144 0.06893109879382266 0.098119852375308 -0.23479928589063287 -0.10601598349010674 0.013340570575865959 0.03332452423171234 0.009358949468767466 0.17159534392220416 -0.09394874178964584 0.12297974071782017 -0.034990209497421744 0.10266317738147591 0.14360237638030918 0.09607513187609582 0.0029708145320092 -0.053703251035081855 -0.051832610932446024 -0.1272308630133194 -0.01806013861001148 -0.08631042890068025 -0.10056666716482689 -0.06791200499219956 -0.20083683073370834 0.15313140376037124 -0.1040278883665036 -0.09590418248274124 0.06146805626036765 0.08696703948923842 -0.07509179261479838 -0.21225089011387 0.23848190192937505 -0.0009680831535890808 -0.01878926205586242 -0.0959642740328364 0.022033730184509902 -0.0378020823996201 0.22519939025464666 0.07102804118576926 0.24715543062497242 -0.11567699577840591 0.10376406174101509 -0.0874868076815937 0.031756965976542234 -0.0061951885985970165 0.191069876162659 -0.1031351529955955 
-0.015519504840733448 0.08475906022814098 0.07030656140072405 0.1529250724313247 0.16489261442720918 -0.07959390573255806 -0.18116843282836945 0.05822022215002946 0.09837409073612445 -0.0007484805019254445 0.12502911754119483 -0.10304516437941687 -0.048218612655162536 0.04857758184493895 -0.06204073034594896 0.006016974746603631 0.061767998976367346 -0.08464990652433226 -0.004359536081297045 0.2299674867577848 -0.07656052809356247 -0.11333453687613382 0.16043317624067557 0.038002537011476226 -0.136719622836277 0.1899283467717277 -0.05444636335370806 0.20123032578266925 -0.07872513253092725 -0.1291930532359297 -0.12259855072537067 -0.051365335006384606 0.12759176784997925 -0.1040687571823798 0.044916369780934697 0.19672845953824944 -0.038957086776271646 -0.1404825625672281 -0.2276520334363663 0.038368139598172084 0.23127624268600996 0.048265237553597115 0.08796017584521035 0.0774842151440137 0.07619396105608381 -0.19609072183154314 -0.02742265601617487 0.08509908570279572 0.09060243984293914 0.09107234840953059 -0.13272439159927477 
0.19264823938909006 0.13633318180035475 -0.1261164244837796 -0.09309053557476081 -0.04883477401314673 0.14449390838141374 0.11398100779347832 -0.04452935570629236 -0.09103854949475866 -0.060989259916619666 -0.16805831936419455 0.194520268136095 0.08000301587965075 0.0103422535336598 -0.013835588544136454 -0.12263195127204216 -0.1377496217681116 -0.18221628022477204 0.08548304787299352 -0.004110971938029406 -0.11284062805115672 -0.14441943273160232 -0.02851746939188994 -0.05031103834911315 -0.03925806944042715 0.07735925169818209 0.07249830375689102 -0.14227359621909996 -0.07735595806617625 0.12480001767574135 0.1854364448164402 0.08684143143947143 -0.16480401185361682 -0.11656033437644946 -0.1954841627112311 0.16102007630291768 -0.12532397891075706 0.07969242755961034 -0.17171126462816144 -0.22146722403586985 0.1436797241589888 0.06824519045433648 -0.17134295678491493 -0.12310755145671484 0.1686944558772692 -0.13386218530593277 -0.18021944550124094 0.028291144925841286 0.1859432070163966 -0.11144142487881828 -0.10938741854668246 
0.05536048689695102 -0.0489609513343716 -0.1502520317687715 0.11811961574473148 -0.1422241152798458 -0.16910603296334947 0.08547421547381369 -0.018774260974436165 -0.22447234022611 0.08297764989348998 -0.04200532657864176 0.016223296084090677 0.20875632808838215 -0.09468946909086728 0.0685615798080628 0.19960853638486348 0.22135937882670925 -0.11820124024072173 -0.03537943876997171 -0.15481862342770178 0.15029265325718769 0.09369930324661599 -0.14074276039475306 -0.17484037020131063 -0.09910702961768991 0.15590592163892705 -0.07503087233355073 -0.045971921755126835 -0.14196546135509946 -0.07943590255115753 -0.015749225155275454 0.002934726571937549 0.07439953279409722 0.28203808931480023 -0.1961357358509265 0.08144902376201307 0.17986712047556908 0.08619353863274617 0.03357708330404983 0.2109704293975613 0.18270382051831632 -0.15371587651739643 0.1487813627031253 -0.1693378747491936 0.13055053034132563 0.08408989122886 0.17475520888139545 -0.08435713401710075 -0.23617948896660235 0.06747993580156945 -0.15320382255909182 
-0.041454560625429855 0.22546198151635324 0.15512523888542445 -0.10562879996786648 0.037575492737154825 0.10792613940503003 0.16441588635980814 -0.12597966388160214 -0.0276212168965645 0.10120264779593587 0.050290661413614726 -0.03853042138110578 0.08303097872661482 -0.09737330581198117 -0.14526718311384254 0.021441523342096046 -0.004612603478693948 -0.06386221855003367 0.033720010453955396 -0.0333169869537694 -0.08551247253370801 0.14090834136029887 -0.027872136565033737 0.04483550092052968 0.1764627024780019 0.029035792777782485 -0.0423281113229923 0.08287071929588785 -0.01602873635965652 -0.01383659766399289 0.07010340752813703 0.0824413066646881 -0.017826325299012423 -0.12563195084293943 0.03018989855627383 -0.07708955076611829 -0.14960937525104012 0.12155937932830849 -0.10054427364268335 0.14627284702881954 -0.03508651792705036 -0.0547712677053771 -0.09745030481854038 -0.14009258898416646 -0.0651826396428583 0.12475636347254171 -0.04243264807305287 -0.22643698560797024 0.008707915185436196 0.03479067073383058 0.005264677261155172 
-0.05620693605276196 -0.15647991489541496 -0.07520141443103157 -0.08290210100717221 -0.1819714386099282 0.016391836086112607 0.11278747818766281 -0.015730481530200152 -0.10735355356392967 -0.014755853372890402 0.15240950706539652 0.08024866551876247 0.05559117310492685 -0.02026484850002985 0.05732082465802958 -0.0859872455810504 -0.1256919607600521 0.13017173605605054 0.15345742106295268 -0.09400206814257372 -0.06837530231903127 -0.1764993323328981 -0.07120010346223266 -0.09406635596085779 0.07498624545509937 0.10612374520745055 -0.10218040154465108 -0.1646957591962263 0.1266164307438882 -0.04871013390408643 0.009945457270232537 0.22595753382324765 0.07355072983506958 -0.09549847373407264 -0.11985772237059095 -0.008552644635958775 -0.0775636216913535 -0.17054298995719774 0.056092456835446135 -0.07024060116544936 0.03660583413033301 0.08691903524877866 0.10554728806370302 0.03363137988379274 -0.08808309227364174 -0.20493670489245894 -0.19341649538594322 -0.0960510544673436 0.1265452542088948 0.0794960557838474 -0.08854796734098518 
-0.1273292964771127 -0.10759869113695847 -0.04338970766472151 0.07446013657891985 0.008827649476159164 -0.1446778174878921 0.020897860056280266 -0.12389971285098832 -0.017565557246215516 0.12594932268318876 0.14662998864105278 -0.03495734457488326 -0.08340778938112708 0.19653183064865676 0.1355165384937188 0.11215151748434789 -0.11702804267596345 -0.17067571176813545 -0.05452326682635957 -0.05783047016743276 -0.12658812897513522 -0.01782266531150507 0.04044242474380763 -0.11546030647009832 -0.0823623587260806 -0.1459665321074588 -0.07878628651530217 -0.0187845801523343 -0.07061872384375117 0.18154203464644544 0.14215314358279646 -0.03302510977652358 0.13384817702326363 -0.08648871900560401 0.017769782163749366 -0.01763214672900724 0.15534999370494365 0.1836687119859247 -0.1653770951389665 -0.051032660194310145 -0.16160931120733904 0.06055480398171032 0.09599726845091884 -0.14202077790685946 -0.14743423990940063 0.11318270568218235 0.07148945573794556 0.028343455571479728 -0.01854910932542038 -0.07467804334237486 0.05151182643574402 
0.05103259340754074 0.09240171598857076 -0.1610355736141635 0.10732516873470344 0.08424747165663525 0.10788528411190228 0.12049754898184287 -0.1578138173406877 0.10160629599509344 -0.1416503364853436 0.13215392335091686 -0.15247138967095564 0.08359464068028058 -0.0025090916639600278 -0.08957545954739435 0.05071634813576419 -0.053190428953018974 0.11048235628727016 -0.09703669511680198 0.1275860110280472 0.1543380867258106 -0.05886974005245013 0.18984173647881608 0.12314520721728668 -0.022513835124673476 -0.02617474837496777 -0.06560225915267301 0.10598068518941765 -0.15562737251117417 0.15315010937996063 -0.021396457807587383 0.1330277266301141 0.1788131029540119 -0.10461124938707016 0.019725143328456977 0.03274891874125279 -0.006738076700785445 -0.15176463008380012 -0.025225694124356074 0.17049662898345244 -0.13357518285542486 -0.12026889110142922 0.08860424785274114 0.05935762195252496 0.017492408936039552 -0.014567685391587261 0.050117782562970024 0.12961410057657777 -0.06728891900134683 0.1582617580465434 -0.024915188164136588 
0.0002922716859364489 0.051226408826200616 -0.07423689724334648 0.12871454594468082 0.060869423745236025 0.026656449433890943 -0.08648900908258146 0.09920666834109133 -0.073325922666114 0.14320802209323374 -0.14968936876049613 -0.1689109965806898 0.017248465073057745 0.05065266899550391 -0.006065072447835722 0.11653995712782682 0.17123846621714947 -0.03439116989937067 0.08106573140674529 -0.029252900051930156 0.0979849416402775 -0.13146783619399785 -0.1256655253237732 0.16076575528876225 0.0955610783162966 -0.13915326837848985 0.024998377986722994 -0.023995154722967465 -0.14189480507586125 -0.057567012787818575 -0.061096116327681284 -0.14806926757624356 -0.029352780200656344 0.1905472633211815 0.16379894738452516 0.022119788193111337 -0.04798391038654827 -0.08129601571388591 0.19299649304616004 0.053793362046892355 -0.12893814845440194 -0.0756983673553747 0.18109078532463824 -0.10913780531089261 -0.13860408068624452 -0.0977213470086293 0.1199374120953835 0.04586926562296264 -0.018515499232623384 0.08750331852919495 -0.02711446148912638 
0.0761413072403806 -0.116523514934599 0.11334797200479058 -0.0676958341247695 0.033727875028861445 0.2600698135247529 -0.034232247255598404 0.1364713770351809 0.1334541887247567 -0.15264588637055182 0.12050465775125777 0.1506397251043256 0.018732027821721536 0.15603701873172826 -0.14501342726886882 0.14986179443726222 -0.08306918518409273 -0.1842073447253971 0.19472655337737624 0.21222683993604763 0.15562766872425315 -0.15243864620165315 -0.19541114290546863 0.04299357952477462 -0.04936428927135924 0.11690224842135091 0.05254638632854387 0.15419853422129506 0.041224472591445 0.1509301576108442 -0.05424942282200628 -0.11847473293197625 0.12902832819641621 -0.05917857024662584 -0.025691016575056506 0.040616826861307194 0.029463958752582547 0.05912540180349747 -0.07134247386018475 -0.12804546550645665 0.01008227539748344 -0.08080706606099324 0.10677717030861364 -0.0013732405079579864 -0.08393618028587625 0.15624009542338566 0.08610618105565614 -0.07988155763529578 -0.14083842367628774 0.11111087171650762 -0.07589398514788476 
0.013861467243105358 0.009315344927378002 0.03683031061068343 -0.14903770349214293 0.038896405362517386 -0.04933205021647073 0.1288229634582026 0.04845171565444455 0.04948380538939229 -0.028778961004268515 -0.0768953796152694 -0.12105150816625755 -0.10515839782836615 0.03781886992980697 -0.11823220568452651 0.003350861835768139 0.01044915924556222 -0.11503859993004276 -0.046789222956393844 -0.13122078760490083 -0.008409920706486582 0.13670734201822077 0.04121145766578421 0.15095314040051516 -0.07997314045460081 0.03474500143641235 -0.059375016928098566 -0.12546409796073146 -0.08347237652354972 -0.04828047640818829 0.12005810635097447 0.046239844185342216 -0.13807782980296252 0.09059477686111474 -0.14966697288573685 0.25818148016770104 -0.08422873687894016 0.18947835302851176 -0.20532437236221765 -0.04876117157918857 -0.05627153564669424 -0.12285326480103713 -0.06657628860005907 0.04355831467818793 -0.02376465719696658 0.06999316589389805 -0.1530271923517767 -0.023887721997492624 -0.07141733613773787 0.04983653693716879 -0.09456759888853651 
-0.09919938936283608 0.2236634090777589 -0.035082145845998815 0.026032797848303795 -0.13597765028707964 -0.10924164565966207 -0.15645470064212866 0.06295827375088729 -0.14060338919923243 0.058465430578410346 -0.10467309657709849 -0.0667095810428061 0.11653719526591665 0.014917734985733996 0.1720238143125053 -0.011481783155959423 -0.17044739971483988 0.06451089127131983 -0.14624065263325053 -0.07348882544143401 0.031053139279609617 -0.005321981113038901 -0.08020095929242253 0.029933677881531923 -0.03144701109912427 -0.042907613118172525 -0.09217421817336603 -0.17211416006323288 0.08140773794036539 -0.060735491504750536 0.09815582170067122 0.019533941187980346 0.16488307001346522 0.16433510946498084 -0.025036165027637624 -0.12440030143919546 0.08858653190426757 0.026595065600507815 0.11270735823179542 0.1853925662166812 0.15331263180303117 0.04158393385132278 0.09150007572873838 -0.09205724516950174 0.05900474836446521 0.15241849610721034 0.13685884855612576 0.13355168242802498 0.022897636150908666 -0.09154501147810026 -0.05519037503050199 
0.26104105261888366 0.06791694805796152 0.1696177007394457 0.02555447352009148 0.0020593851386666046 -0.11550805784923081 0.029101032061362834 -0.17387375118763515 0.11469573582362375 0.05813272780513173 -0.14566260947634893 0.14164949449159173 -0.110951570117673 -0.14366585501511245 -0.011217648282598995 0.2772069743734685 -0.1239511561692982 -0.1327067693438703 0.1162893630986583 0.06732267963414737 0.15568025379950765 -0.04007099844031991 -0.04014149864713003 -0.06895472190833457 0.02109215821148984 0.06492825208382241 0.10834364053243749 0.03393311188011534 0.046414975127743764 -0.05613626952912816 -0.05416877625743798 -0.06443746582920576 -0.06681466528666319 -0.05029357644897378 0.1062435996084903 -0.007012698086847278 -0.08077535239898653 -0.09265967392077579 0.12164054304285579 0.20943025776546448 -0.14829380713097182 -0.0758776005411294 0.09645662735587339 0.06636070073424283 -0.07842347191151268 0.04344427703400899 0.02212039110671191 0.0006654979439118073 0.04504173252630884 -0.06361662965475808 -0.05779524085801006 
-0.07913008747251711 -0.1242978778884273 0.027811671713840767 0.05097047155710624 0.056379109287889105 -0.24471384436977092 -0.026656533368050486 -0.1266341441700033 0.03525399437965 0.11879738902829012 -0.03450490827163039 -0.1607576689263046 0.0952041277680045 0.2295401369192575 -0.06416987921563093 0.12646989857620083 0.10848782101382583 -0.12400438610403423 0.010472233944701925 0.059683566780372385 -0.019225354991085897 -0.0403978905694428 0.01300080269689214 -0.18288755932874917 -0.04183895061642772 0.09854853774336074 -0.0790450527850239 0.1032876734399846 0.1062579017132316 0.18951811979790956 0.006839146984885995 -0.11992447930608306 0.14982699310008096 0.10151580520745618 -0.0033355700552172886 0.14874909564334524 0.17679707754269025 0.12201156115725419 -0.004625589029279571 -0.028367997745236444 0.1369992649458175 0.03661894443254702 0.0024276451170290514 0.055193143918690915 -0.0015582346057641779 -0.17634348579229336 -0.15016480784757313 -0.07999419198207391 0.025964861860267703 0.17378653968500982 0.18892214119800269 
-0.11943119410193159 -0.1309777136595384 0.08721320348128447 -0.06486978463334682 -0.06885592661422693 -0.2029530101760809 -0.1495337082600817 -0.127885027267845 -0.10350033488541395 -0.01091580175145248 0.10153262455077992 0.14508679208257355 0.11460012190425127 -0.013832664738662688 0.0839449497738067 -0.0048313039861534075 -0.13764137350489605 -0.128068119420023 -0.0493608103666828 0.17997497880932176 0.15088548816734887 -0.0839445588063843 0.18303281173632782 0.08160307136502183 -0.13969570797160336 -0.0689968746630924 0.09867182158253264 -0.12866458818535678 0.18336973786126615 0.17281569645730918 0.10736107108325256 -0.11654354477395368 0.03808023793697637 0.08098580501732587 0.16713507841323708 -0.12327654891744928 0.12062760384917581 -0.09795553597824533 0.024389405079660142 0.07538168747127602 0.09290381826431278 -0.061866297456889506 0.04819071543874544 -0.09161744608400448 0.21801197312810164 0.1178957114759005 -0.0317874176420566 0.1489499756731666 0.13611828932634026 0.17987173437783233 -0.09970510253390703 
-0.06181434648910936 -0.12391294743252917 -0.09164899879069417 -0.03559029557147415 0.03979240569416797 -0.07812512338099055 0.09050942600205875 -0.09032261463457542 -0.10337205720447692 -0.07373252140526491 -0.018473689240221153 -0.07172000188287551 0.1755466782493667 -0.12271507208459484 -0.044409175410821074 -0.14687477723015807 -0.1040408482778447 -0.058049678817830776 0.05457270437406081 -0.06684778100897419 -0.09142304639318735 0.1255756540947732 0.17280732508947186 -0.11507456183999229 -0.09640098445702878 -0.15075796526670052 0.06643945085345336 -0.08660832929361782 0.006286535936105185 -0.15524335551774623 0.06728576640820322 -0.055328101899858 0.02993073033372075 -0.10679646932262378 -0.0386325070334488 -0.06107974076245478 0.02263875418977055 0.09870619764546526 0.10929927592980834 -0.07238279057339823 0.11903359325432342 0.10915236359750954 -0.001918776435873712 0.015835391797957194 -0.19470078126645046 -0.1293245965952069 -0.1033871718615184 0.10427503692870665 -0.10087858194809085 -0.03323869194884858 -0.020990999228335215 
0.08957569012800401 -0.14565037559018662 0.19959511344350997 0.14721223647237688 -0.07024328119853712 0.12629783285601098 -0.027083174224287215 0.1231036111602601 -0.016801132170545886 0.08571996887211915 -0.0796346362073653 -0.05087195301006188 -0.10681158233088793 -0.037431871098910365 -0.001685016058347051 0.08258555836100646 0.005627385170644714 0.04482647454882844 -0.029827497518479424 -0.09929552360776271 0.08984779956203696 -0.06478408788967001 -0.00486843716180086 -0.02090577958234216 0.04407314582286491 0.007088837632290077 -0.020675991563969248 -0.099813566441627 0.15094603581314772 0.07803701080951557 -0.11934658345918087 -0.01005963224717393 0.22971106616894962 0.09548020658597124 0.12010116778131147 -0.13337122444848962 0.08203549991463484 0.03771242270362502 -0.0844740876609575 0.22834076738340356 -0.11778490528111489 0.02199205565721457 -0.0680790075786313 -0.11933039535831784 -0.12211431613235839 -0.007764223402483259 0.004248336465167204 -0.08758953420594931 0.22325985337324344 0.13004355767156645 0.15164858356590902 
0.06504767024866034 -0.1015989327332842 -0.08770318099721483 -0.11911304079658729 -0.07088761136240171 -0.1455389514946938 0.033742966949529746 0.15052072866896543 0.09051614058774095 -0.1316362562329385 -0.14685677230751945 -0.1129570141406831 0.14220870080920647 -0.047876646123241405 0.07170798265018977 0.06528637874575345 -0.036183151667231385 -0.03968391133584052 -0.0883790809649086 0.22023940380196877 -0.17569219025416155 -0.08656520861133123 -0.06759992600645182 0.19928175327364542 0.075677556909851 -0.08865643034284533 -0.10190701006457803 0.19465933553541928 0.10506902288213202 -0.14123366746862095 0.15427635317745178 0.026285908653984467 -0.055493517924443646 0.052272295386550954 -0.19393887310308555 -0.051003407602296685 -0.09939382877473642 0.048606433828290815 -0.0833590600981044 -0.004840937964165544 -0.0838182796419687 0.0873185481897184 -0.13868520980880583 -0.06600339941589314 0.0011321826042395935 0.09250187434578094 0.022057449516039985 0.1068164613786026 -0.17475889754936647 -0.09924528934304797 -0.1400715739493767 
3.682327957612394e-06 0.21218654959713068 -0.1542721178343036 -0.01763546017900091 -0.15179315464903706 0.01901024565507691 -0.16037315673131758 0.06359412255367917 -0.12826459880457106 0.12355597433864207 -0.0890228914658663 -0.05603106932970823 -0.08150697023558799 0.09901876902465322 -0.0028919173412830608 0.11380833255581943 -0.12769737398471034 -0.012477548127039998 0.0837201950043346 0.1586978901985742 0.06831487190799271 -0.1258909853513528 0.08922478983370712 -0.12987995399681979 0.0794624524211534 0.1373563600614317 0.03700519246230728 -0.0021630835083984155 0.15637609971138236 -0.15326948332305265 -0.15028882844327476 -0.0749405170483212 -0.04361216575664043 0.08895017661866489 -0.04191100920972535 -0.06246279630452395 -0.10200510250770774 0.12650810296806062 -0.048713544511464583 0.011476577117367728 0.1172408954180163 0.042478593310160136 -0.02732431411009838 -0.09806668383212722 -0.06214237341572907 -0.041498865983647305 0.2002316788334791 -0.07196050001767224 -0.12981572731042054 -0.1207141009292145 -0.08048910545350327 
-0.1294383350320272 -0.05031110274469169 -0.06490015296108406 0.1180902284634396 0.06843790289520885 -0.12563387944148113 0.10332460274919407 -0.18957851038041024 0.07526848096124755 0.021744444602840352 -0.12607594389690163 0.13401033174464483 0.10351536066644289 0.17518660992207039 -0.039102704856564995 -0.08385410049630265 0.13959301846989117 0.09628574161986907 -0.14006015659395032 -0.021368178459290586 0.12253812940112478 0.04513386075575238 -0.08409101148557982 0.1355757217218634 -0.0719351437369497 -0.15317456888335676 -0.08127921442017387 0.21196768505480412 0.029894659235239235 -0.08455714467594933 0.055677518864451624 0.05625524876954086 0.02132868683715125 -0.13115802732633158 -0.1289455044249036 0.11287640295292116 0.08970449642643809 -0.10088017940325715 -0.1194752007479731 0.011398977837610751 0.08581910846972532 -0.09076979697673056 -0.12143947589247228 -0.03538485489998773 0.07342004613687322 -0.12493928022737354 -0.11936981128310947 -0.1458519997796855 -0.045728363034122844 -0.14147229192161398 0.02481091180314572 
0.0518784403840457 -0.01177076869544374 0.06258349704538492 0.000304436206599488 0.06095584373971022 -0.1002144056544895 0.09519096306629866 -0.05345124818564134 0.06867446009656755 -0.03111425039528348 0.0530214892296889 -0.1098506872604013 -0.003177669706097913 -0.10879766956160943 -0.10873296728202549 -0.01989197012331641 0.0013338874056590217 -0.07380965319225262 -0.1031496229587388 0.01915994104611257 0.13226282670734155 0.0648130275815741 -0.06804960952577756 0.1538174222226563 -0.1321073543016824 -0.11336951821599449 0.11879628826827449 -0.07149716145270171 -0.12572451672082366 0.058919787590991535 0.11086487947108141 -0.05238778231725323 -0.11779634021298242 -0.09634021631526776 0.14961967716674818 0.07808144575432513 0.13136083160331455 -0.05769296988691713 -0.18391879769516742 0.012284447638469375 -0.08873545805304314 0.005646124768400013 0.052078717289465795 -0.06198129214805864 -0.09631886483527277 -0.1430286139024536 -0.08548258641129346 -0.05302021124671917 0.13394773977502825 0.33515804345581385 -0.0021869851327709165 
-0.12735667794914995 0.14941900955153165 0.09570585381971962 -0.040327584422002696 -0.09244861608835792 0.18048360360131113 -0.09291988488644241 0.029965137478945022 0.16610774701728184 -0.14175069189864517 -0.05577766373191128 -0.08130480423286801 0.183529945805608 0.04864771088635007 -0.13642833078728758 0.07715069711489968 0.06873273798826394 0.06744901261806843 0.18615500929600526 0.16911041586234996 0.08364301305554005 -0.08934122537764705 -0.13154413708493445 -0.08631494096924303 -0.0846590799434532 -0.03214445770808295 0.04138260855584384 -0.01876626400145565 -0.20170252158022475 -0.02985614870935756 0.14520026883049916 0.058868770131188436 -0.039050552311080455 0.03788893234422687 -0.03982044224530336 -0.1289913385269765 -0.011579775287091431 -0.06503867449012628 -0.031141944876178083 0.13347892613613083 0.04555651505694815 0.11305749970692003 -0.12115220831591055 -0.006050705429015857 -0.06127567969717144 0.035171821380903634 -0.08625776398169771 -0.03646457848906873 0.15479213509820336 -0.1747089807489541 -0.11776267268202313 
-0.07890351172079861 0.010189002186373053 0.07172332517288123 0.08622766825925457 -0.07684232914278362 0.14371072704070545 0.06594910329154964 0.0654303960215062 0.10528438511962537 0.12326901102619665 -0.02323006481274789 -0.1436155804801065 0.02854757410485218 0.04705318853812423 0.03015959030841622 -0.05327454965761624 -0.0023036394392519444 -0.09969098165288966 0.04498609464714242 -0.1537829756285225 0.14615414802656215 -0.1014825337404943 -0.09757114862545686 0.18131494051395944 0.11684547533847911 0.06597971448838737 -0.052032795606295146 0.11048307897518604 0.12241525273002338 0.047481002410644034 0.13361029401566965 0.08572746907803037 -0.04169224004703241 -0.052848076910018825 -0.024705795399088192 -0.13401716550025086 -0.006259216229066093 -0.04410595547061366 0.0996916718418088 0.1273644783456256 0.1884860133180047 -0.05164853775529881 0.09715884126008467 0.0609440137821322 -0.10725580209887614 0.13436576885161808 -0.12000981335534175 0.06966216021315277 -0.16586470826769378 -0.11983253190984158 0.10446485068192715 
0.007831790001142697 -0.017025395084430257 0.07694515439819977 -0.0423789329351906 0.10744304662684998 0.1434626510193443 0.16623473876682773 -0.0897574932387621 -0.025399803613757804 0.058324562822036 0.14088192046668863 0.05963731483125565 0.0780365591133916 0.15342014487534977 -0.03989504273617202 0.009719096590937512 -0.0015153628851853195 0.08013304815861459 0.11967977738571917 0.04021516834880925 0.14501643872954567 0.100159550424955 -0.05642459694029589 0.03292785895843465 0.17266240559900553 0.05212800871696036 0.07096870073213545 0.048455286742713904 -0.07031891793979182 -0.1005964577756669 -0.02756370651559859 -0.1061645903759176 0.11034176370601613 0.06343167012790148 -0.04734114384163758 -0.09977569186086756 0.13230749204003397 0.05108752797178566 0.16041167419568 -0.12161642262171575 -0.07810119259727011 -0.12706093362921228 0.09070918747177535 -0.10343365291952518 0.12687617404651136 -0.019534969973277583 -0.015153998753295476 -0.13993716541121487 0.03415385992284058 -0.08241876668760405 -0.08676417322440344 
0.12049905253181395 0.14658157578866923 -0.20600222804721832 0.10091733610897193 0.1518137588707699 0.03316523157586387 0.058684307677591856 0.099573420157044 0.08222004559406201 -0.012366150330111944 -0.014330171736728264 -0.03833831257185898 0.10396250131006686 -0.09332770582644949 0.06704253169144062 0.1270381692233195 0.1040440784145552 0.0933091928390376 0.14911649408255764 -0.04750994889981124 0.14701127316623294 0.08827320922498555 0.1448907881698154 0.1643640268720428 0.18963611264986696 -0.004080975182652276 -0.010201389251313892 0.10191526086666187 -0.07382029501191267 0.08750388632901135 -0.09339586938748624 0.05028252848300512 0.028116448673733592 -0.011017858552286467 0.16396720850871704 0.012955806179598543 -0.01421715167895766 -0.04658221543807302 -0.1598749588258443 -0.026058930357734652 -0.13058971709629189 0.01958878199844002 0.0713466544479156 0.08776251319601963 0.058745517853134276 -0.12768606253738982 0.11549365841157007 0.00691693587687346 -0.12374868253570286 -0.14549119431354135 -0.06062050013582842 
0.057193133839371704 0.15946111047796907 0.1742898311009573 0.08000828806523651 -0.06229856034870119 0.04371418495686332 -0.10957982764301608 0.06706070156180524 -0.143588454912331 0.10370336611049452 0.1573391300179629 -0.11160709570661491 -0.13269540227626675 0.0013905475311279014 0.10262898812044197 -0.09718544001013893 -0.18493922305448507 0.19380063363184313 0.018810008381587542 -0.15397963166078837 0.2014897834372304 -0.0035978475087680806 0.002571448067597872 0.025430416312789732 0.12278068297961982 -0.1725553509915512 -0.04547960673254452 -0.09090079816852466 0.013066004853933812 -0.12462107763320156 -0.2307722247175838 -0.05996653885975991 0.16209527820607653 0.1305119829682566 0.11740383883457117 -0.15306671488654988 0.09025625227308294 -0.14638182479893744 -0.13438000911537984 -0.2170680700103561 -0.10667436936287208 0.0564284788167005 0.10105092278406241 -0.007234627244670323 0.07741543515988851 0.12725125548317026 -0.16922720478636513 -0.12588890027792002 -0.03930056088726522 -0.02874649967074878 -0.04640913905144388 
0.07681901911590826 -0.05359930699738059 0.0909736944176276 0.12548784744985514 0.003909082895017338 -0.021070338918547572 -0.12458147710181725 -0.06828219118470262 0.11779712038531824 -0.07678446535759585 0.03630858715195045 -0.0014833516273490262 -0.12371450781755967 0.12176188497660381 -0.1320270097064808 0.05435670315138217 0.14449391476007784 0.0630996621281322 -0.052345109349123446 -0.13025364071221165 0.023820222158223738 0.07048516520256548 -0.04234783179775119 0.04616656077911455 0.01987452031671323 -0.1425771812756133 0.1284199789777159 -0.035947543533372386 -0.036129950571732246 0.10527287239307882 -0.0046749357209022084 -0.014585158130360088 0.04195494114761846 -0.08729826172903951 0.008423000425368764 0.050665923859550106 0.01154980619627932 0.06291252479558146 0.029475312045975414 0.10373772640742605 0.11546906179514853 -0.12263284826411501 -0.07290298331977389 -0.13613301244659864 -0.08202582773042484 0.06662804985028603 -0.12865761042384924 -0.10481525742384853 0.08192128413997163 -0.01660336694358703 -0.06325407069831099 
0.04320538554433868 0.1952471492533352 -0.14179872808212413 0.058131732797919285 0.12352189312285414 0.09011093035257112 -0.079758685163852 0.13922601248889319 -0.10431119536679317 -0.13551584197323105 0.015178664633454967 -0.14618001807411518 -0.13937930138337404 -0.14168376869460347 -0.01029946820977944 0.0779558133314173 0.24121952746912928 -0.082728674572089 0.15742218369607444 0.07364759519890036 0.14775773395647163 -0.05589187903867999 -0.18641245967843084 0.09173015989821698 -0.01879701907463346 -0.11561013321804377 -0.134884658600121 -0.15123594787790495 -0.06229068727676244 -0.09970266403214939 -0.007223114809349044 0.12933190204446268 0.01540828630731196 -0.06393748825684839 0.21235868659491855 -0.05811825418532597 0.21189196358344625 0.12028043811298847 0.08932551308033515 0.16422241056552392 -0.10413200680651642 0.00970217010841484 -0.05200187743411173 -0.0033654550824234945 -0.05556559789238747 0.2122798737753055 -0.010535000796245218 -0.006921958535095651 0.09061696720283254 -0.21564231894158034 0.06925773309650635 
0.09499012449030957 0.053333982681709184 -0.09228353452548137 0.06349423314468813 0.13271869748000936 0.16331036151615194 0.06996395597685108 -0.10553000782235476 -0.06576025697753937 0.002114216453374707 -0.028637843440492312 -0.017330621850713598 0.08893162702192839 -0.12073016119871381 0.14480751280500548 0.08984708120544543 0.1393273239789153 0.13330134299182492 -0.02024186705586447 0.18531860080808038 -0.10063929512637615 -0.1387680628745122 -0.15274825391869462 -0.09208945875166863 0.015048939875219979 -0.10254446183700817 0.12161617628182346 -0.1503606259117482 0.06175014532663066 0.1726820934551801 -0.07027066628355907 0.0371020855991703 0.05442888355370185 -0.052026165614184564 -0.039178875558808654 0.10283978632653433 -0.15543726165327762 -0.1182857840430645 -0.0652675551435307 -0.10310645619331364 -0.05810711864908789 -0.1063830752833287 -0.12300820731119531 0.13885848534866935 -0.0730857661087581 0.025597346899011813 -0.0046953645532526855 -0.014797926552309451 0.09195648777420444 -0.05062185794887865 0.11381146917817547 
-0.13194491254999796 0.022364408909386842 -0.06860425534255979 -0.04081743342210488 -0.058682916442777455 0.03512407478511666 -0.0845292979683394 -0.08283109510361251 -0.06466767362838073 -0.15116087092946534 -0.06747122660372543 -0.13793763957570432 0.11296090755890656 0.08026230037047413 0.028502847969313024 0.04660857603281365 0.1642933437984904 0.060777811316974226 0.02713319193585271 -0.11440168468647219 -0.02347884299549191 0.023584160847893863 0.06778015294534769 0.17138320512249403 -0.08923197525642837 0.004584252754023384 -0.0735668558312117 -0.024571929165386638 0.1799603364104005 -0.0829531042297087 -0.02100686786280146 -0.0180281036627408 -0.1733372072432951 -0.030346920411039088 0.1077895207928474 0.017180142675808998 0.14034474419540294 0.03653609469751589 0.026516615086833093 0.04287864022707797 -0.13833906386117759 0.16807202453771572 -0.11703600752246289 -0.02436588301019781 -0.0616871983564005 0.03251878542630178 -0.06112804214606979 -0.04438767538940432 0.18397601134249278 0.04357339925857683 0.11466072264782938 
-0.013286900737270655 0.036418649268900295 -0.03114080901470228 -0.05893990459080093 0.007579101613074298 -0.09371849174010922 -0.10437188821774111 0.051075088301493016 -0.1540279949844546 -0.011392491245264902 0.19858261851128897 0.13166936981697594 -0.12712166121385457 0.05573047464055228 -0.08310253567889475 -0.11636351161431656 -0.04878876847991317 0.07218719328682988 0.015133647777104343 -0.13948480324517182 0.14091176109730386 -0.006665382484156486 0.15544721516041082 -0.11725233521373431 -0.1270364626920096 -0.025040373074053855 -0.013545666281434937 -0.14892761506783242 -0.14077625104791602 -0.1576855365122449 -0.14051520300123654 -0.09842723550500607 0.0425738236717913 -0.006916425147898933 0.1817175741807338 -0.13109902799973802 0.14921872724486732 0.023454555241670984 0.15104652828724086 -0.1416804391414406 -0.12222285595409743 0.1558455182274543 0.026943460356344557 0.0023039318308672547 -0.14920491879808498 0.06708022065262666 0.13535583743794358 0.20504298958862152 -0.009933536215243207 -0.0642507090070534 -0.028479536857839743 
-0.08229251482957291 -0.10770837361891969 -0.02418297444144014 0.055525025823699635 0.04828683559497576 0.1014626171306187 -0.11186630613429728 0.0895763680889579 0.10926966744664258 0.08405039908446839 -0.010221800725809534 -0.1078538583613275 -0.1387039684912642 -0.010770692162207569 0.04633360844162686 -0.08705936821987807 -0.04749306509053191 0.03946976004736517 0.25108513059123244 0.14173085775710728 0.18241192910688495 0.19170190007588997 0.11683335455299505 -0.10876266328337585 0.1189308202562412 -0.12652725476233953 0.14027416542564983 -0.048494208593894444 -0.07153777841196687 0.03996318746478807 -0.13426782837126702 0.12417038609558256 -0.044579443611028204 0.0878391317839044 0.10263703434627067 0.07791374128418958 0.015821651465958885 -0.009921876179459558 0.05610870338548835 0.07641812789606443 -0.0798956814543748 0.07670848226438637 0.16893778816293412 0.10739661531191903 0.08933169868531407 0.12299615944863103 -0.15111068662607058 -0.09871041584199011 -0.06531353545129086 0.034164082833717746 0.08117753525405773 
0.0702893692050368 -0.0062488634309628786 0.18736803323530463 -0.036644392313553924 0.04251038783762487 -0.18010426847400587 -0.08177618257568053 -0.02885819281565735 -0.0338389524530093 0.024374079475181554 0.06785268708592557 -0.10719166933530141 -0.127371272514058 0.006357031197599065 0.17724506629331424 -0.02968767571143904 -0.07333318051171599 0.0731466542716305 0.028434922637062373 -0.1509239501720629 0.16731172844647485 -0.003293913455702637 -0.06834017155813449 0.030956323316576155 -0.06464744236677801 -0.05495084067331829 0.0649533570275768 -0.15069463750142217 -0.02385131783804104 0.04484273524797836 0.14333574916105127 -0.14657132861557115 0.16641161807165702 0.1967394296636911 0.20323389588895793 0.11317907684370174 -0.09077030846757822 0.11196323618955716 -0.0837346128110347 -0.012204976399883303 -0.04164647356269728 -0.06641329685884911 -0.043572364480396295 0.04852254833964658 -0.12866643171298686 -0.0004497159515724803 0.05655245876436295 -0.11129499554356286 -0.07769243428551632 -0.07679331136106543 -0.12991164838414607 
0.09001827253904413 -0.0714305479128229 -0.04957717765618813 -0.028286101370477906 -0.0587933829213771 -0.11331950399176122 0.13728009578215405 0.050906947791982606 -0.07036003469611393 -0.1243204858541129 -0.11463947089115865 -0.06743782199459691 -0.13789183550447548 -0.10790980590194411 -0.0074300102956912075 0.13320062009781178 -0.03708483484824463 0.1013993725969332 0.020988459179860888 0.20237487845098737 -0.10912263505386224 0.1071560396337847 -0.04054608724087593 0.20106969261443042 -0.044176264199351015 0.19393888943764817 0.1214192396485519 0.0430366308549963 -0.16618285626944154 -0.1072864411073262 -0.13555173165750273 0.08860341707651147 -0.13009387360482075 0.09293195162594499 -0.1445096219391508 -0.09309016155975235 -0.09972363487614312 0.03402448372554825 0.007337795255545772 0.13135933909535358 0.041204240542643086 -0.10284883456731518 -0.14481022315539022 0.11221725363302841 -0.008645748200150447 0.010447248190861022 -0.025670996099769708 0.0671604509391596 -0.028220322626857555 -0.034075986634693876 0.02090785678895623 
-0.0022749749226676236 -0.16333143625439858 0.18973620693918755 0.10799813573499618 -0.0362255055654288 -0.013707359317522079 0.15989022686511112 -0.04590265577142792 0.18398817250553898 -0.14371371527150575 0.07425046978315644 0.09144703554096797 -0.09283260210555246 -0.1434147412589936 0.027230067415282205 -0.006040688287220483 0.03902763921322837 -0.11190994811719028 -0.06703987259935901 -0.13851057623086882 -0.18807560243472063 0.0730138706143375 -0.14764749316084436 0.003006741537426242 -0.06064589098252444 0.13252603294804183 0.008605914437706443 0.20125734483859822 0.026781024836941753 0.022181360634828517 -0.04954911952572441 -0.07482590532564866 -0.0216862257617458 -0.12665806596084486 -0.13105558915803836 -0.04378506996140973 -0.14241321212230493 0.06730234198349595 -0.07291119391871428 0.0019898827744354803 -0.09229271288357768 0.05439450514162313 0.1407090358525639 -0.08463762370313734 -0.17082549284066056 -0.07526185025164 0.03825705047036434 -0.05693963812577127 0.1347417360723594 0.11628285527669413 -0.03844546879300796 
-0.04038336894121497 -0.18434667957183826 0.08620557864074342 -0.10507855428980264 -0.07580325463865027 -0.19871087883261845 -0.05945164519126693 -0.08243457745652295 -0.1041484836159443 0.25107375014804384 -0.02870803379445016 -0.01440883849966114 -0.13368114788316157 -0.13845552057169289 0.09245814803156603 -0.023064226051083315 -0.11938356107906337 -0.15877831272355383 0.0947680923361554 -0.029367565542589204 -0.12295447185223163 -0.03232457247641094 -0.13108776436978642 -0.13069562597823722 -0.0062186576135080445 -0.0011526024872662167 0.08126491915859901 -0.07469024614522234 0.027593175935855568 -0.12923078325246762 -0.0942121606509631 -0.026936149194805574 -0.10768760837560808 0.018596252140880228 -0.004199112430805158 0.09258688655340773 0.13157988093703482 -0.12097893380399238 0.11507392656367225 0.02169602046826207 0.00018770388899950528 0.038528888884563385 -0.0953407328773001 -0.042139313362341876 0.0711892318662528 0.08861867631671831 -0.06464855371195377 -0.01574395971406846 -0.06679237056511703 -0.003819237796403654 -0.07168146456946752 
0.10304192678275903 0.0559432933399521 0.11431730849586817 -0.1050861617191155 -0.09550286124664577 0.011779558822188738 -0.13925750371185874 0.006953637982049005 -0.04927865697436225 -0.05278750736813597 -0.12179511220702949 -0.1518245286352765 0.05525643653008808 0.09190429379696727 -0.04858421239872121 -0.0442551096787892 0.12450095256920055 0.045440138329744674 -0.146072094634172 -0.06513295098579615 0.18504300999775344 0.11670926904331438 -0.03682780567650197 0.15217157468691733 -0.006194596859229163 -0.17082622055906205 -0.06896419645587591 -0.07830870096997472 -0.16493150628342465 -0.04284365433181042 0.17932653184994538 0.007664632933360721 0.020435397526974396 -0.08260806865518225 -0.11045730101209446 -0.12048658356363603 -0.11105691423168497 0.12450186626731499 0.19150304923931546 -0.16255513253144094 -0.016907366374853964 -0.07072980753834951 0.03041249023252702 0.03489923030178888 -0.031121570492816494 -0.11834789029008441 -0.05137294393546913 -0.1428313345315757 0.1534261863177733 0.009664724704104843 -0.1330286219321017 
0.015316302016373514 -0.11293501847848757 -0.11609422394002142 -0.07077132620042893 0.07950420572785899 0.05969514101329032 0.017554930382431874 -0.073935692213585 0.005314091800647961 0.1312517161206577 -0.09546404726565283 0.0706966669259765 0.11329491576342125 0.050935744872647196 -0.08978870494043721 -0.11287541118330274 0.0044698019044952745 -0.11252023804359018 0.09887261036380614 0.007034789216075384 -0.06285607199449657 0.020334981516023032 -0.07227651300458178 0.02524264585780547 -0.08103208298860391 -0.08505485455757261 0.00550388686155795 0.1018813205718313 0.04344357757810381 -0.12377124117585178 -0.11135127994329434 -0.032840045419732296 -0.0542754235483278 0.1192217731601648 0.11924386291524368 -0.1439216452519972 -0.08768340478378232 -0.03342769178235628 -0.0982305225083052 0.12779243533793674 -0.09414140957899063 0.0706288248493672 0.13976025020313623 -0.006628723701084866 0.09532137887479741 -0.021431218172017794 0.09508334638965171 0.07913236320840412 0.14060339375079817 -0.04909548891014231 0.08063747123053097 
0.12870857135008054 0.08697057047204004 0.07510991993793936 0.13705870208342283 -0.06308234429312655 0.005712978333081148 -0.16362348168911753 0.09368013793468552 -0.10125732100791175 0.16567600146028055 -0.08573309839628078 -0.10063263901973676 0.0573346481882213 0.19248401616339555 0.056562680070163955 -0.04803457827936365 -0.14071410066361065 -0.05619797935675377 -0.0271878881092201 0.07433407993268808 0.16095649510759708 -0.1513139420338125 -0.12279808438700955 -0.07595386818972426 0.010606797662525997 -0.02193047150150376 -0.0204166027378721 0.1017104847147094 0.10293244135288332 -0.1434749694988203 -0.08010530586537697 0.0015764587182034884 -0.10895665125411866 0.12173839771649322 -0.045010820115453314 0.1903663506541758 -0.1600313424982474 -0.005118677766755794 0.10086315869400025 -0.20253515908781808 -0.06658266591563786 -0.09007341106244753 0.20923019292146383 -0.00939120221181921 0.09553879952173569 0.08639180750762855 -0.12072129090743176 -0.12877030589894425 -0.022093286627121553 0.1651835278772667 0.14341033447931503 
-0.02455638027038408 0.16194989159894327 0.19497263341138957 -0.0839629931963715 -0.06606981959459908 0.031608093693657344 0.0393884628640407 -0.10042644409416747 0.13261005158088374 -0.06928354299366049 0.019912870656142778 -0.18604974713560746 0.055290547101783376 0.08651517056040209 -0.06845889596756582 0.13782193726363237 0.0039282326413316825 -0.06988844466039243 -0.06761466546591732 0.06223440462339886 0.21872638956382398 -0.0632806814541067 0.22554636778099654 0.13490237977897562 -0.03981548447301305 -0.12697670329999958 -0.0024489734004601 -0.008305715130242721 -0.12991439702921292 0.09066493259470602 0.19274892322082138 -0.20576149681059505 0.011257460148657795 -0.006745557438301779 0.015545582592256068 0.014581319841895151 0.195122080150114 -0.09160704012286161 0.20952119418880022 -0.07563729866984421 -0.00027792117004311537 0.11799818973655483 0.1701636580538402 0.20041771073476225 0.20472485039522217 0.051447941533393146 0.1774556536490145 0.0694949155993479 -0.02359951135958935 -0.1311025394521085 0.14621397392527086 
0.027282153003015785 -0.08056654859434359 -0.19255103833098097 0.05131867731193541 0.049233676919839174 0.08790749741697693 0.08972201406822682 -0.04138944502071276 0.1827865695224665 0.0387198496253806 0.21050586721312994 0.07835282836369145 0.06335048042721643 0.09383601578496548 0.13402986874709655 -0.19203432906586765 -0.07685490264569622 0.12325196262609488 -0.14371054734376285 -0.1845965315897475 0.00615927115486005 -0.13083420439671378 0.1369004848683134 0.17488899750980144 -0.023092083010043372 0.1442383865098916 -0.1643623183208442 0.11148201586146154 0.15114908209922467 0.09648071375630284 0.0580592325579603 0.25360832278948814 -0.000405754712662907 0.2219628241294312 0.17960972235492254 -0.07947214018036736 0.010840074421931677 -0.2309086847363569 0.00029214781294294574 -0.0833089282411191 -0.07595622686122637 -0.05726250642378465 0.07875385491941655 -0.07248593567470989 0.11871782722825139 0.13581634946831514 0.10053988996292329 0.06323704073193971 0.04590628757807843 0.08532242878939054 -0.16070868077663747 
-0.009711031043361488 -0.01580864057715008 -0.09677791880283838 0.09177034403143455 0.05967288188172254 0.19123619986406995 -0.04263537575807975 0.04942215604898143 0.02207386842104344 -0.10116896702890918 -0.03320120011915815 0.17985784947148115 0.16785871529880514 -0.08891993930467251 0.11010122025039462 0.08948134558449986 0.10173892858400795 -0.004312769868311235 0.03140869498120392 -0.01322565857233483 -0.07153594423597472 0.13462147271857194 -0.054249537255416785 0.0675908104968765 0.160796539703313 -0.007245490916454879 0.1051586051339988 -0.05598955016377825 -0.07580983067762975 0.11598097180407718 0.011038408335317195 -0.05457721614659211 0.1234911882981032 0.16747984639418426 0.20816444145816218 -0.0899461736124171 0.023143042695743982 0.15365236859307926 0.010062523966704214 -0.10235501825610221 0.17011961991921895 0.1777045881375454 0.05243068282840875 -0.019032183437776202 0.05557593359946539 0.17687128012986258 0.11580388297009339 -0.020054100276921734 0.12485335532345763 -0.08303716243541623 0.0157544445948927 
-0.07744867012335997 -0.15245273992296346 -0.14213237112419783 0.1671562064415988 -0.1126571985308886 -0.013579774265490388 -0.08397733511182603 0.012566559437440328 -0.08317788726302257 -0.07261091573816128 -0.06514188446053432 -0.028667718963662603 0.21079665933793523 -0.0021906358723736176 0.07723351728002514 -0.10584188043498756 -0.15241097966703349 -0.004570794708417452 0.08249162752043086 -0.11675824477888766 0.08001178266620668 -0.17799152984019975 -0.27538607152909245 0.028028309407732235 -0.15912032318428632 0.15513154077845948 0.11986812534944746 0.2947207033832663 0.1478279577844814 0.0056085234617772525 -0.1580352076157537 -0.034814054825400634 -0.1629000689235553 0.1311961381820738 0.031229743359010825 -0.12193055819731412 0.06909066949245712 -0.09610747041195782 0.06766826835849239 0.06850356136512477 -0.2787901165969275 -0.03576784705469939 -0.14803956612835864 0.051661335791932404 -0.07467179109570267 0.034896608716734376 -0.14057553206763054 0.13285480287448187 -0.02845142898328704 0.12188233933745929 -0.21852012552738542 
