-0.009263286935111617
0.06609683931793998
-0.005536091622658179
-0.20742721522345212
-0.059866705903741706
-0.10632344999003097
0.17891731387173335
0.1127206281613078
0.003226866772246497
0.10816896789239375
-0.05296590488960844
0.015574662324958206
-0.10318167137855055
-0.05930734613431773
-0.04761745280615621
-0.1596272509849963
0.13800337233290214
0.15157825019255064
-0.14286001939176335
-0.01124365592416932
0.1349070904068993
-0.09807803211572014
0.046695799582251646
0.008194953299523473
-0.04970084037387849
0.12144034677482914
-0.00012904932013145512
-0.022300043729381113
0.1976456245977819
0.1789151758761428
-0.07926898287849891
-0.08811823748717737
0.07130962074683467
-0.05414135325082713
0.08085657708422055
0.11228171843907635
0.11471887851151824
-0.09844210248493268
0.22122463147731128
-0.008928838910839326
-0.17229333261291305
-0.13704163188619556
0.0316532339153213
0.018456475086784378
0.18928944182661847
0.15096168059317616
-0.020631700779540404
-0.12252648072259852
0.022007439677681075
-0.01647447124125699
0.046545412386327915
0.2240759421850091
0.20874907928523692
0.24209283927528125
-0.055832459262876236
0.0342317550460244
-0.03641561408152187
-0.1879539926812266
0.14131850511154836
-0.14251530055820652
0.09848670658749546
0.15878303800784233
-0.11032411986909926
0.018295348432627728
-0.03586144180035851
-0.21510223126816383
0.1239807826128548
0.14977274585000533
0.002393306588020526
0.12757673395260252
-0.24078505451277585
-0.14466330141741468
-0.009021356144407126
0.05342887534310349
0.1114096626071861
0.05455182690760253
0.03211424247319461
0.07663400837228437
-0.15260732426468623
-0.15596464193295842
-0.11850661806292738
0.15745741045861075
0.0696440185537927
0.06783127821619271
-0.12680965690472537
-0.11687828430632152
0.04871120047300539
-0.12490138911304972
0.20808680342720867
0.15539165046394832
-0.23322000811495636
-0.1272434029459702
-0.012152217099544223
-0.10164634389577706
-0.12099756660635254
0.21806611138389062
-0.02560006939672207
0.15562772404210634
-0.07958058523644349
0.12468233843698454
-0.13449589316749322
0.08668752725446388
0.07631693152966477
-0.12761303607798946
-0.031474499198489984
-0.005473867614416756
-0.09645549994102955
0.14881020685550123
0.21067627976691178
0.00621357340688158
0.008397472036408447
0.012401302431095086
0.09927144841841173
0.02653246093712658
-0.010937698760643596
-0.1550224038223918
-0.11020537559706028
0.1989575395789307
0.14683424551688606
0.20726826350958866
-0.23286177955662402
0.035469416082956604
0.014419836994222212
-0.23695735783810884
0.10676879489990189
0.10018197881692534
0.04024341668390192
0.18321656423350502
0.017589102304143484
0.1870885197800722
-0.10840822117137244
0.1698265921575649
-0.0655633638834478
0.13370656276074785
-0.019522335384668507
0.19776357102751835
-0.012072505521654411
0.17990379123181788
-0.24009969557168345
0.16740606728356386
-0.10393712769709805
0.09621143603426338
0.13973087050071883
0.17754117806334369
-0.08071956222429226
-0.019165253792196305
0.021723791638875476
0.029331050134957366
-0.2380914705016292
-0.06043291243427029
-0.10664553823633147
-0.09703374947188356
0.010966843514613724
0.02986403972697949
-0.09456082489694614
-0.09009466340856985
-0.04759961967399814
0.13593115209944123
0.2227122324767625
0.02599968480272899
0.23786147656402948
0.10920171668958054
-0.1267720553068147
-0.018267065407840594
-0.03348785817701324
0.006504224928763929
-0.18450947820751698
0.14236730758062738
-0.12588384572139477
-0.14644606713624958
0.1648601434592004
0.10428179806157721
0.1587660322881353
0.09303880144652459
-0.21983588166555068
0.07229607020446917
-0.0032528397465506906
0.10652768005235773
-0.05237426774526624
-0.2137758658900854
0.006526810981715916
-0.24008182658098753
0.2242607915677759
-0.14656242617977405
0.02094148839498566
-0.1335534667359738
0.09631822412224607
0.13477338580785514
-0.14097468796315554
-0.15466579840547134
0.11199416614585331
0.14585072859333836
0.021698512989874196
0.19109905551818632
0.14849853599398485
0.22320017688276786
-0.22819254742533118
0.07892236086503658
-0.08434723211388845
-0.14107775774242687
0.1787665482988905
-0.06824874738575225
-0.18548332911290671
0.17066158972856837
-0.16760518333341942
0.010504161691831276
0.015747026337374282
0.14395434101481214
-0.011434545838370417
0.079084884415514
0.1630970827229709
0.030350929392368112
0.0028801372924974135
-0.08325792205139107
0.06750306494304045
-0.14901219313893976
-0.08410670966474751
-0.08044905584849571
0.22643986994890025
0.10635448710653247
-0.06985240415873503
0.12596484840744132
0.05254313561012481
-0.16463184221804533
0.051552555199456875
0.12245933862373375
0.2156031407290745
-0.2151221763672941
0.12089877614971344
-0.14683464852943554
0.038441727332336695
0.03977416275194275
-0.20712778131596635
0.11582351873497214
-0.05783237485155145
0.23844289631856744
0.1488306167995936
-0.18670561626689572
-0.14301108724048955
-0.1796166519470028
-0.022888343170508273
0.13546024152916925
0.041722816889223226
-0.009224746550997644
-0.1029063326779824
-0.1957538514887609
-0.17899070072342246
-0.1044560061755695
-0.12030668046963791
-0.010647736202458553
0.05539888067256978
0.002741717359841847
-0.22159511918691707
-0.1317046268866323
-0.16804363088306867
0.17271829347115422
