-0.011352105327851632
0.07047855002208255
-0.0005144605304621627
-0.1416571513460055
-0.09167348071982503
-0.09810959484752044
0.17733365801529788
0.11184319017690063
0.012072550815015713
0.10026566986768286
-0.056394735691567326
0.01715685137511763
-0.0774010300859542
-0.07184049637232304
-0.029770786679888375
-0.1692825736765149
0.13722485659446174
0.1659192370439513
-0.13030984416707878
-0.011537850971309264
0.12695525053284326
-0.08832801400476037
0.02034798005052906
1.936572209780321e-06
-0.0514540437248338
0.11791879647067091
0.036006025956019067
-0.0011305074418015656
0.1880112057987109
0.1781226729743635
-0.08196448742960574
-0.08231988187092348
0.07495835278255475
-0.04686384300077937
0.08680318202137906
0.12337752172061414
0.11611616236774498
-0.10149663406767556
0.2213189562719681
-0.0014829445437318698
-0.17651475721030865
-0.12670453032073703
0.032292537792058554
0.014235543459515672
0.18983885761044678
0.15127065741458187
-0.010013953426174142
-0.10580217682658793
0.026718754369110396
-0.014558681574791473
0.04266523187248458
0.21856091683462894
0.2062741394497837
0.23754990659116468
-0.05691076490209501
0.03260132719951907
-0.03166504470676532
-0.1771543434196811
0.13863056377581512
-0.1403459880307184
0.08854330577027802
0.15239371636997603
-0.11032411986909926
0.002823032097344659
-0.03411711553890946
-0.20449561822189463
0.11783184018501257
0.1419671127933957
0.020415078052267163
0.1374818842123846
-0.2283782180350036
-0.16298963596991414
0.0066008923423202396
0.05218550507186341
0.10473396070722674
0.04957254453578054
0.032236760290664156
0.07279449234444615
-0.15260732426468623
-0.13631563905112024
-0.10527874011446227
0.1761386022122286
0.06197375035040565
0.04824112399282579
-0.12945403961380406
-0.11687828430632152
0.04974700121664264
-0.12601752468715957
0.20802248972017184
0.15663792237685548
-0.2007886880095474
-0.13635904980910596
-0.009328776298589808
-0.10876322956031373
-0.12888940043666794
0.21508914347556976
-0.014614768675685525
0.15542306278081716
-0.08365904920436233
0.12396586965487189
-0.12883046377412596
0.08372476170001554
0.07836944698568243
-0.12196330138703626
-0.007365755584769458
0.0077514652926919505
-0.06278834057949288
0.15375779162932207
0.2168259794507994
0.006582260655894619
0.015230127693199463
0.012407425721812323
0.11138518612466589
0.026788046241596034
-0.01364152661485913
-0.15245579894189995
-0.10948229941954335
0.20128718932106995
0.1410866624100527
0.20328235157655014
-0.22552510933554243
0.025384952950122105
0.01864767632924013
-0.20440099604156803
0.10839063666542993
0.09775413938231436
0.05944881560068144
0.16161958572775606
0.02010662044552433
0.18593768993509857
-0.10096033350433092
0.17465693828205342
-0.0655633638834478
0.13287764200162377
-0.039284362456877796
0.2080059900209461
-0.020361360877859502
0.17846771305379464
-0.24009969557168345
0.16534830952097826
-0.09848670900647569
0.09915730171279154
0.1504812391503083
0.17024799311544236
-0.08596350268815967
-0.018670706564848396
0.028369833814118988
0.029870517047961308
-0.2380914705016292
-0.0627571218604292
-0.10664553823633147
-0.09703374947188356
0.0004633135815703192
0.025848997297065388
-0.08391429795114284
-0.09224460466920904
-0.04810937502773163
0.17982661186891258
0.223372726675178
0.015841663164277615
0.22391896950075493
0.11778002989594948
-0.1267720553068147
-0.018182167285491126
-0.01565277278676375
0.008173367450943965
-0.21626275837322556
0.14320507987135794
-0.12588384572139477
-0.14644606713624958
0.17430992320494582
0.10076091169601949
0.16215614474572598
0.10506027029695408
-0.2209655238389732
0.07361644618952211
0.006125711475424289
0.10828336333774131
-0.07161349594537572
-0.216362141384516
0.013196316102404487
-0.24008182658098753
0.22296787728898176
-0.1705814405216844
0.02292810295410194
-0.13276986998173607
0.09157854121936529
0.14970001699906166
-0.14097468796315554
-0.15269226853574536
0.1005530429871442
0.1384029178036095
0.03810861878654376
0.1874913902761409
0.14619827374956598
0.2220029522265666
-0.21739140640168264
0.07253559019364288
-0.08605497076000307
-0.14879105988248503
0.18306522644879608
-0.031944018062171696
-0.18040569177876942
0.16989726229622734
-0.16760518333341942
0.029683302047206248
0.012065428988775436
0.14684309967774245
-0.01504507716029409
0.07520092674027015
0.16734813096031842
0.052666638461725854
0.007286336119904465
-0.0920857114904602
0.06735282291748473
-0.14669831324148935
-0.08410670966474751
-0.08542207993384646
0.2293795163688966
0.1002062256706423
-0.06985240415873503
0.12742800963515136
0.053910356305649096
-0.1682160312349705
0.024504259795880626
0.13153133979753304
0.21712948882197733
-0.20257147556396773
0.11784231026134075
-0.15259177312357203
0.038441727332336695
0.03972936221792026
-0.21110995106098138
0.12262517713010596
-0.06380205538989978
0.24090768187809763
0.15795412841978623
-0.18670561626689572
-0.1311758418903296
-0.1754471331616804
-0.03946396150381841
0.13136961426876778
0.041859616555920354
-0.011445658221948764
-0.1024922688927668
-0.1957538514887609
-0.17899070072342246
-0.10589570056849879
-0.09952435109768515
-0.015840233822683247
0.060869952227396766
-0.0013858953339364404
-0.22159511918691707
-0.1317046268866323
-0.16804363088306867
0.17604559239599646
