0.004831898268637966
0.06760740893197083
-0.0035885329135229697
-0.1792167057804575
-0.07668630304173996
-0.10750551324589884
0.17926956869924027
0.10470711420287708
0.01251958025146654
0.09449420565707314
-0.06142204999823587
0.008830285787833616
-0.08231309367999808
-0.06989940729595091
-0.033836013543316175
-0.16746956733393562
0.1366799321603886
0.15158626704907047
-0.12208244467655746
-0.02880166598715404
0.13732259132690464
-0.08870293158845019
0.040367244536480135
0.002935457005710392
-0.046985902580280084
0.12734907933841705
0.0660842928798279
-0.027485871257801567
0.19660890502145942
0.18390370807148126
-0.08620578041723508
-0.0759927251388369
0.07167365507995012
-0.04696193973204428
0.08530759882300713
0.1049818573488788
0.11406724791431773
-0.10766584685542613
0.22095957554174236
-0.016770243995648616
-0.2033787417165931
-0.1258372883601951
0.035017339747514815
-0.006182067237289117
0.18754049176166757
0.15650806354365374
-0.018251734142275742
-0.10514926242270776
0.003486501439963457
-0.013756855653539894
0.04339803944620781
0.22623085813799873
0.20629159532595226
0.24471694242420833
-0.052464882136312466
0.03375454726010759
-0.03577775192565612
-0.20011276806459213
0.13874887039487432
-0.1496825269252728
0.08579825954410383
0.15006477744404034
-0.11032411986909926
0.017984161251141703
-0.03554968058632835
-0.20427601211262428
0.13055459375597528
0.1125817333184017
0.014314389612885236
0.12875583878574356
-0.23747644198600745
-0.14087375511771646
0.01824166313899595
0.057913434128718896
0.10489790459823678
0.04866669894546281
0.03197253978288228
0.08969918046589952
-0.15260732426468623
-0.1580307355792084
-0.12127192948556123
0.20043119162884881
0.06648440641606597
0.07619236723694175
-0.13450075201346026
-0.11687828430632152
0.04214383007772865
-0.121123956446736
0.19935327772627162
0.14886796099302543
-0.23862283468089446
-0.1333450696108644
-0.013751370443494572
-0.10038080471621531
-0.13790277858463973
0.21620565368803604
-0.015944707598833187
0.14501126750611532
-0.07273041275589255
0.12204640632467649
-0.14711973940702713
0.09648116044442968
0.07742439843408375
-0.12214821189541153
-0.0346644943301974
2.8240547581558453e-05
-0.10017590686056087
0.14793084910320944
0.20768190260612313
0.06103555937746109
0.010057501492227906
0.015486851533304133
0.1120038230785353
-0.022501291002111283
-0.015542351045435927
-0.15018095285222968
-0.10866019687814213
0.20350044296188874
0.14084493387303101
0.20446542248497235
-0.2355417234255881
0.024168598410513272
0.01943395779929224
-0.21865464361788084
0.1100807783055096
0.09242229212966134
0.05154646648586555
0.1519165746117171
0.02251441278283417
0.17915319379602393
-0.09358619370519809
0.17134192483396873
-0.0655633638834478
0.20110392791811532
-0.03797113794415709
0.19684471693067784
-0.017605292592063948
0.18328047112320847
-0.24009969557168345
0.16695834064902124
-0.10064825725956066
0.09718780498308627
0.14339903089506184
0.16869864094630535
-0.09461502880851522
-0.012718687343973635
0.03476356551155128
0.028979812562470005
-0.2380914705016292
-0.05965804676418557
-0.10664553823633147
-0.09703374947188356
-0.02443518552160105
0.026261146138006307
-0.08010030339146389
-0.08907020115501389
-0.046415404698103076
0.12121409156194277
0.22283993774107394
-0.02183580301464165
0.2377046522022402
0.11267195707186249
-0.1267720553068147
-0.008214512934798426
-0.02843430191082466
0.0005459015459580679
-0.19320024179594694
0.14095835743467575
-0.12588384572139477
-0.14644606713624958
0.16808751835678612
0.10300941786923559
0.16005553986339824
0.10181482486994178
-0.22144011035091288
0.06682279660999411
0.1052995384815071
0.10981705690995114
-0.0024355721532545735
-0.2137758658900854
0.014866660997009206
-0.24008182658098753
0.2263739044415268
-0.17239070971501333
-0.0005336131703084657
-0.13276986998173607
0.08783767713766599
0.13859059077826627
-0.14097468796315554
-0.15136450260457013
0.08829026885638029
0.1245166511955116
-0.00517248171649722
0.1921161474362
0.14667099661010588
0.21963165978943788
-0.22326498787049898
0.07661283929221269
-0.08825185890366043
-0.1452788266475332
0.19892729776599122
-0.03169219526240631
-0.18040569177876942
0.17363253326239755
-0.16760518333341942
0.03553323638780576
0.016109004536110822
0.13900225912890182
-0.008711470054271434
0.08327146764523696
0.16315651885382507
0.04181132602197969
0.011395634140002482
-0.09397669563230578
0.06755043606576716
-0.1448128151244225
-0.08869437080593089
-0.08044905584849571
0.2215222784864607
0.10639052714183672
-0.06985240415873503
0.12190987053648566
0.0506334290469658
-0.16511201658509747
0.01166495429154952
0.12940098810217068
0.2093192526526549
-0.22181580613949076
0.11785763827348082
-0.14123643512500278
0.038441727332336695
0.035467561997873626
-0.2095261542779855
0.1142292673843073
-0.07101920618774046
0.23313150089878037
0.13823884763523148
-0.18670561626689572
-0.15408380371062153
-0.17338397543013145
-0.03245619115890192
0.15296029427231345
0.040835197375999964
-0.005596273232496437
-0.10325172807081412
-0.1957538514887609
-0.17899070072342246
-0.105963350864086
-0.12032367722897863
-0.011153215167105898
0.05617385975970288
0.0014212394327245944
-0.22159511918691707
-0.1317046268866323
-0.16804363088306867
0.16814413067244405
