0.0034387192959706293
0.07762509112335976
-0.0043143562209661855
-0.19336356129381002
-0.07218652288576267
-0.09943957288319369
0.17877620153477766
0.10534846863960791
0.000166676398189745
0.10714153565791078
-0.049946819242061714
0.01433641993495938
-0.059304675456932424
-0.0728477063709185
-0.021971998153861073
-0.16125853016429434
0.12965338772169038
0.14926208413633135
-0.12061861311878837
-0.013282251353484816
0.1305050779051948
-0.09986700377477872
0.020524791011458113
-0.0027025902470825943
-0.05196827010057227
0.12752763382917903
-0.008649731516664887
-0.006872495324944139
0.19408001127117472
0.18768572301074637
-0.08867927062384368
-0.09788031065640092
0.0724488369911813
-0.04313398727160918
0.0916144095109926
0.0911710597117207
0.117467105247912
-0.09867766454748624
0.21735806782179914
-0.01603926894626449
-0.16557650660165418
-0.12304745059702356
0.02922010259570638
-0.021596625265628226
0.18885524098026282
0.1377782978359931
-0.009052171508227312
-0.11312941128023743
0.021497412333188255
-0.033842582876037454
0.043166851161928775
0.22041778869254539
0.20443158966480265
0.2413964712576772
-0.04416094547201462
0.031179685391265293
-0.031202498727068137
-0.19659033790855557
0.15138816867666746
-0.14314006287913075
0.08702262482182274
0.15212055179404774
-0.11032411986909926
0.015671709404032275
-0.03129991789159009
-0.21042834852994077
0.11102587102528216
0.15064582568401977
0.005390130906009596
0.12978329225305985
-0.2376562847555745
-0.15492251862300024
0.006334482102413944
0.05376265511948621
0.11745092553837419
0.05655778679568625
0.03173391454234323
0.07722590469636659
-0.15260732426468623
-0.16273951090562483
-0.1158717570679258
0.1893144696200905
0.0688216914118305
0.0768613033051667
-0.12384124702520417
-0.11687828430632152
0.05262534882816512
-0.1405859584183712
0.20987228789155343
0.1520843843101106
-0.22937128381151883
-0.11693092830545128
-0.010988099229472489
-0.11364538652273658
-0.1309333440556622
0.22312688884330664
-0.005829618363308232
0.15170518321373286
-0.06878452365404794
0.12321472541590738
-0.1465515052960123
0.08504326375701274
0.0796968058421552
-0.11117455274983104
-0.015670849986898234
-0.003979069957780597
-0.10047275560040769
0.15415044568795
0.2163689342489952
0.010712843949685214
0.015342967841157875
0.00965930279532803
0.08754281065293215
0.004255320007059937
-0.006835442220442085
-0.1595984177571863
-0.11116512153084922
0.19675320728851817
0.1390017568965079
0.2078994196528793
-0.22714358062577575
0.03319030814440752
0.008114195997790504
-0.21803239932429824
0.09927387624919098
0.09635686647280908
0.06440089862283545
0.18111724662700612
0.025599002058918685
0.18074463996085854
-0.10262684528869481
0.16899790119699293
-0.0655633638834478
0.14748920848681607
-0.040598735667522236
0.1917981299600849
-0.006199032895621759
0.17339639486353142
-0.24009969557168345
0.16631803343403848
-0.0968939099069759
0.08786017937523574
0.14622986346840544
0.17750410896070717
-0.08570791254569131
-0.021729996762369114
0.02898798464252699
0.03000307794913245
-0.2380914705016292
-0.05893961980253976
-0.10664553823633147
-0.09703374947188356
0.009474005343078823
0.029479488833612153
-0.08733989683738207
-0.08952443255712379
-0.04381472839007794
0.11755027783726084
0.22097699164598622
0.008929743737522176
0.2367346534985091
0.1097108929074382
-0.1267720553068147
-0.015118898898580794
-0.03777987039641406
0.0002242213380802508
-0.218003024236498
0.14094957971223784
-0.12588384572139477
-0.14644606713624958
0.1671075325631589
0.10820531968115008
0.1620377654965239
0.1113427185624846
-0.22036173489659297
0.06520263691258513
0.05610455647956791
0.10822858071649696
-0.053668001637183535
-0.22317696340654433
0.009294148558227399
-0.24008182658098753
0.21742586272345588
-0.19756346433849112
0.018943754383795884
-0.13276986998173607
0.09631927666325929
0.14962734218745838
-0.14097468796315554
-0.15032650808340842
0.1287838507165303
0.1336037436060364
0.005394607582296371
0.1861305934479788
0.1451379604954545
0.22447701628835184
-0.2039108190359989
0.07165417003520762
-0.09086470288282962
-0.13536212718171425
0.1555495690551392
-0.11141430020275404
-0.14589160057019482
0.16966829425146662
-0.15171745961282682
0.04569549689415565
0.013337124053449506
0.14127327245794497
-0.010871107325773824
0.08112821837995446
0.15449009393030017
0.051767352788158076
0.01517573969671775
-0.08062956025082021
0.06531163213478187
-0.1537659735637937
-0.08362597885462417
-0.08044905584849571
0.2238088948279834
0.10627456159939451
-0.06985240415873503
0.12173050204931803
0.04993583315110046
-0.16007944031182164
0.02297022934383688
0.1178904654441287
0.2117145026330802
-0.22588584490778965
0.10939690163161343
-0.1490088932911913
0.038441727332336695
0.036117627931117016
-0.2107187353798712
0.11711441834808246
-0.05332143608149335
0.23532223009090414
0.14595069331775695
-0.18670561626689572
-0.15889004705652063
-0.18156422280573306
-0.015652312582411943
0.13035910595575542
0.045650038561069986
-0.013401660920429171
-0.10090176917437661
-0.1957538514887609
-0.17899070072342246
-0.10405182744371735
-0.12308248700954143
-0.00421310842208829
0.05085428948384335
-0.0013698431173403852
-0.22159511918691707
-0.1317046268866323
-0.16804363088306867
0.1704730372694064
