0.2405569810622912
0.05775060176181195
-0.1621822942977137
0.03677867784961272
-0.08694562831775496
-0.1524716639431246
-0.11158255085976784
0.04380863372204243
0.14369764126570417
0.090264005682123
-0.0979093524832634
-0.0027380741477200615
0.2616268038979189
-0.14086288823858006
0.0921615790738788
0.19691023112837397
0.05518180480760729
-0.018450106723109753
-0.14833360145132957
-0.0160964691411832
-0.13605712331217829
0.18743080920477098
-0.008647336290044536
-0.08343052502204676
0.016939057396010995
-0.16128753745898647
-0.041791735934742016
-0.09103701384674681
-0.11237917911137836
-0.05132074333016156
0.2309166744193987
0.030336872201000675
-0.05793540847318075
-0.16779453128933527
-0.019860817051857188
-0.06919735346659873
0.25449194974858
0.22026464674264853
-0.10333225676715642
-0.05975482503245332
-0.029232604438153568
-0.12356721010958956
0.37856769902347925
-0.14708203762484331
0.14379155675607153
0.1983437581300367
-0.31778942049552805
0.3259483250315463
-0.22771766899473536
0.10025597757150952
-0.19205739661305618
0.036641223869533196
-0.29997169696541937
