108 42 10 1
-0.12074082479377839 0.16787377627855216 -1.5307764822077884e-05 -0.051966045966178716 -0.2642750436599906 -5.801207798936643e-07 -0.14144631459355433 -0.05169633554705014 -0.13128908844388498 0.0772178911226251 1.4518336155390415e-25 0.027312894284856767 -0.20647063367835475 0.00829667491862146 -0.11464999576062425 -0.036330747184530776 -0.045678753100993987 0.0026372620781152678 -4.8716864205858634e-08 -0.08523437413930039 0.17203771588573374 0.14767056707259102 -0.025020613309859947 5.521249027061776e-18 0.2128243254250151 0.2129669933804001 -0.26868510901816717 -0.1708469911098887 -6.996445333585619e-09 0.17624089184785452 -0.2271467081438397 0.01860163612585689 0.1762336667167584 0.04923052185696072 0.09210714534910677 -0.04463577287905601 0.03546515332582889 0.14684004999815647 -0.2940069034208391 -0.006863107884948226 0.2476043724524033 -0.04080286092444674 
-0.15048279321763014 0.190087607339145 -3.5144338210902036e-07 0.0022033779068836735 0.09524713942632973 1.664101062094575e-16 -0.10102159336081178 -0.1439505711119384 -0.27398190400599454 0.1325697591243079 -1.887564339640204e-10 -0.06273518032765436 -0.09317263777408713 -0.052503829192751025 0.0988048549341635 -0.0215333587545363 0.023121528423387033 0.058248086161100034 -3.665991816745349e-07 0.007299818690195093 0.12541397988467 -0.08349485238160252 -0.03115291546797383 -1.3644851608713073e-27 0.12346803356049496 0.057929279453457314 0.045717319068765624 0.0449590596934815 4.785816220121973e-07 0.1382511949769355 -0.19535074900673052 0.1683480933317921 -0.05281701616560118 -0.10464100115148002 0.18356130193638862 -0.03571852544034291 0.03666098445499331 0.09924702998766471 0.06673652059493353 0.0068446460630927795 0.1471976321407756 -0.19019467524377667 
-0.04772064842592877 0.16881727787170078 -5.277109812969059e-26 0.21062313278296263 0.06012369189239885 -3.6910821131778574e-23 -0.170393540057797 0.12871648935074773 0.008500364438494182 0.057650125365128445 -6.726431430006768e-25 -0.0722228936832596 0.23231897020707515 -0.014651048663989374 -0.19560696102113914 0.01981156698534402 -0.08194114428756327 0.07444350040867652 2.066922583640509e-07 -0.19292866651427565 0.16148073545482244 0.16088643427366212 -0.02894871618009282 1.4502981996222855e-06 0.07956055785569006 0.1784934084308244 -0.12166808660073423 -0.12232185360239826 1.6421643641768213e-06 -0.07329729098562876 -0.09710915332252423 0.09527433445587713 0.19457497466990298 0.17569140002742975 0.10699043747233405 -0.1404005040187094 -0.08709711251364612 -0.1448691128105349 -0.13589923717890567 -0.09078384150770978 0.16762837986175277 0.0023425604663322285 
0.022165109329121434 0.16749252213903437 -1.2195755125105508e-07 -0.024160390676685538 -0.05014706660889765 6.1246755021657096e-06 0.00843599406909604 -0.19756681108728 0.16168028012975408 -0.07400824918167451 1.111723314859893e-09 -9.160898627905034e-24 0.2389580201922832 -0.010136691910014761 0.044904555800956314 -0.2684643827508975 -2.186978436364161e-06 -0.040695498657056926 -3.8091409812707765e-06 -0.04994640228884795 -0.07015800760077741 0.323191514434024 -0.01042644092449898 -1.0670964701342384e-05 -0.15408654504682814 0.15186252987416982 -0.0383368297119498 -0.0482090506944482 -9.865517783150554e-13 -0.2761238071085479 -0.03767995186647014 0.046356941179136905 0.38722510213019223 0.17564664634603797 -0.03547040198611158 0.057466428800613874 0.13580591665388864 0.23592850077487604 -0.07669793194072015 -0.47760355075956196 -0.12624083797119845 -0.01711213109352884 
0.08779783506650585 0.05749380678165288 -8.562346953427616e-19 0.23770382873352539 0.056565373840878896 2.359994540650168e-23 0.0028344126504477544 0.07005277726483479 0.09901487100213202 0.0015099427143126795 -1.7119522811709813e-06 -0.03127359119257556 0.10657776798219419 -0.02434946138297222 0.12732007830455935 0.023962698059715792 -0.10847462638487129 0.1962697891706737 -1.0604946461308387e-09 0.07057844441902425 0.05669815065296629 0.24147136337273223 -0.015459118471502858 -1.736933476585059e-06 0.11128328057661391 0.06992549483726608 0.06328052631446686 0.2151676870392567 -1.0234447800816426e-05 -0.053262563981878924 0.10787285429757408 0.18181783041500807 0.2859463552561808 0.03273631415903471 0.21353938685273136 0.09358878264876322 0.01667154259869146 0.08466969699556709 0.09142184589590337 0.037229122737027796 0.2120919765180266 0.1414257106214209 
1.3466390303967935e-24 4.97165897009203e-06 -5.154069618035101e-09 -1.085219215652862e-07 -6.647807972835477e-08 -7.862118412964572e-29 -8.120086534151257e-06 2.9233155935003175e-06 5.584753181166289e-09 -9.910870131986295e-06 -4.348454570665177e-09 5.889961610608975e-20 -8.383775573558527e-08 1.366193843343462e-09 -7.176434334313742e-21 2.189045533616275e-06 -2.051715338804026e-25 1.4313685526566505e-07 1.9192499539649456e-08 5.239048776557537e-07 -2.8879229579605815e-27 -2.6598677458428234e-27 5.153229380170049e-10 3.6624164191136394e-16 -6.844341735953182e-29 -1.2245318741883145e-24 -9.758084636870929e-06 7.016510880659837e-25 3.6246711676323873e-26 1.1367422133151702e-09 -1.7946972467969366e-18 2.9163488007657765e-07 1.7928460150379927e-26 -2.3486910883726625e-09 1.8034204691559394e-10 9.091774739104494e-24 -2.7308711619432282e-06 8.6849753357516e-26 2.0888794655970132e-21 9.317786411428292e-07 -1.5184037252045448e-05 7.696429560453218e-06 
0.031172471096629364 0.19206889189083512 -1.6780505307158937e-24 0.12677136891323434 0.08137068357939466 2.121003867760097e-23 -0.10361949508317354 -0.02605616600367599 0.1570081873275896 0.1640500189225238 3.1552456349187516e-12 0.03127780402300978 0.21786995641258883 -0.016023963624080786 0.06471297650081642 -0.021974126671211187 -0.059759544503326045 0.019649121855047736 9.159949696369413e-25 -0.0778939430321167 0.03327552354977625 -0.04635541665822005 -0.007749972500393036 -1.2885154348679747e-19 -0.128238737269194 -0.028385632275666758 -0.22711486065020856 0.10819464029761311 1.5219430712211618e-07 0.15041433061615217 0.1712041175590307 -0.116890834982618 -0.09109777430494802 0.11370565762559534 0.003731599336787116 0.10450828545218457 0.09063211775481413 0.08529657473677067 0.06923069917301937 0.16669865001176334 0.029389909402309632 -0.03170149552274212 
-0.2110297468664636 -0.0926713999489863 3.897497479091674e-23 -0.1585714912253796 0.06104375213860826 -2.848520832279766e-09 0.10970302752485304 0.15834222161081893 -0.08684765538344091 0.070565576818237 -1.3085884774284899e-08 -0.012211161749778033 -0.27873862703301944 -0.02219888060964159 0.11820902007981862 0.02410124687284381 0.15392148641088366 0.10219015746470955 -4.3099938117441357e-13 -0.15277975209910039 -0.08369609410745749 -0.09257719163277013 -0.04316734578248542 -2.671766422232602e-10 -0.037095028697848156 0.2095179631414531 -0.08811716343995805 0.040435163184445386 -1.497388919374771e-11 0.1425943852084183 -0.16048493253830576 0.0400847593446574 -0.1800143880405974 0.07527040624286391 0.01671033068846223 0.06715839996650526 -0.2747639044880541 0.08814012088810728 -0.3068171877703315 -0.07542548486105075 0.15629801647710193 -0.36053130637994896 
-0.5103001724918362 0.4925228270706071 1.916115452887308e-08 0.31758383213185276 -0.25806245264959043 3.122439327193893e-06 0.12342185988631897 0.4521605319306477 -0.5674806972741288 0.4416442962034731 -8.449420686707314e-17 0.006530037048274613 -0.3212637046540753 -5.343132637162422e-06 0.4297354957447309 -0.1494406080869153 -2.676651478914535e-13 -0.28700821389240977 1.8188620022484278e-22 0.38672542988303016 0.5177780424122709 0.20722104727600715 0.0172377857108888 1.167239145561199e-05 0.24583405216537027 0.027749109235816544 -0.10693103988418275 0.3245882007390761 7.222223693312389e-06 0.1650767010961391 -0.23481455925831024 0.38229719206013424 0.16316795907957604 0.22364510206796306 0.22105334384872338 0.22179112763443742 -0.5049410854358067 0.4226873558357471 -0.6369346809937899 -0.429087819173301 0.4529084456312133 -0.28987836470610767 
-0.14515188248720762 -0.014838616489781074 -1.5830803301437083e-26 0.06130979421181503 -0.0717233951407083 -4.062122091667898e-10 -0.11486775905893588 -0.03623724260770447 -0.1094835157645798 0.05545327249206985 -2.444472651540359e-06 -0.009535338080030039 -0.35048051326909246 -0.004359623449616859 0.026769725173106173 -0.008088635404604187 0.0247722849950243 0.04152948817762139 1.659761799276186e-23 0.18003493027153583 0.07078095803825417 -0.0685512868150418 -0.025029276745742866 8.419397065533044e-10 -0.09214647187742422 0.18368897471053228 -0.06669332529356813 0.1875720533670483 -6.55957524324235e-11 0.2097387676564106 -0.392870068950377 0.05707404607200718 -0.20177277178683825 0.11540651958070718 0.1312776364206585 0.11673743388577072 -0.04308734125965157 -0.06674901521100501 -0.1041815616707915 -0.30037456532463574 0.19644188329471618 -0.16770904258134686 
-0.06973610608062565 -0.17398988070508342 -8.960979428553823e-06 -0.13638620974488172 0.04396364486765416 -2.1429868351136932e-07 -0.2043704425034136 0.05103440627808488 0.0672813534506019 0.10153470838069216 5.3269606595995625e-27 7.454578069944264e-27 0.1716022672538132 -0.014936028028292437 0.11518606711782417 -0.0602647771341573 5.074125183076789e-07 -0.037222551976488195 3.808005789498234e-11 -0.5063436375811379 0.058177688923227444 -0.014369225088339264 -0.030622858596234162 -1.4096947619802174e-05 0.16376288434570607 0.06943708155981543 0.10382731274660967 0.2095001692678623 -3.561201212515529e-08 -0.2920014325475004 0.02919985608425227 0.021936755278703167 0.35369415237513296 0.19113718907432609 0.1334847949546937 0.10887648558494842 0.2940041845204138 0.051349614709727556 0.04159878870704234 -0.08225925635067372 -0.1332108842379284 0.161645736525917 
-0.2525084973791216 -0.03840173725388749 3.0120558615718353e-09 -0.020868394816585603 -0.09640034471666212 -6.462659500965014e-14 -0.003002063546190071 -0.07987153497694609 0.10836845574858152 -0.02038859794708683 3.609507014347803e-26 2.2510292593768723e-28 0.14339432868627008 -0.057802849599131706 0.1199390041530668 -0.24967431802231776 -6.771197766414444e-06 0.001025097468463481 2.1556168413024817e-19 0.3144591633051373 0.053150300094174235 0.22834803892512923 -0.01236627807380868 2.8313118078203437e-23 -0.033869661942390765 -0.14161504794898164 0.04036005085398304 -0.022747253651783345 -2.5769257666669173e-28 -0.2513395268037246 -0.06759894076170023 -0.04613322854532654 -0.026229949214491913 0.23388610549987904 0.21216144561399733 0.19381567905769154 0.20835167873756769 -0.07085705115047843 -0.26021357835699815 -0.5470110438063244 -0.02065365190784466 -0.20079261683718677 
0.1795991036621322 -0.14036534175460091 2.4186299080639418e-09 -0.2486517683848933 -0.16494270087568258 -6.0934780038246655e-12 0.007311314874927443 -0.25675285025169725 -0.056092934063728575 -0.2036628797109831 1.3907489975607236e-21 1.1018421736043484e-29 0.1000526950360484 -4.865236227745222e-09 -0.07581160267516111 0.3184076811762427 2.5150737408742912e-09 0.15047435691114067 7.512509354598726e-06 0.030335098992564636 -0.11419239337201637 -0.5352435054038792 -0.07242138872790885 -1.7769688055781486e-06 -0.12373927512892718 -0.27504391436158643 0.5147485002278549 -0.26366049212859705 6.787403208633944e-06 0.2817031685460455 0.2433699333358105 -0.054986023583846314 0.10594835158559923 -0.14500792642146412 -0.31293599212690054 -0.21568247669557666 0.2563966389824797 -0.010229836336311303 0.09863429218452047 -0.21443652605282437 -0.24536151751641463 -0.08070183680572479 
-0.051180619414969555 -0.08323313980890887 9.73353439179787e-06 -0.19921134399873047 -0.26351844790339585 3.618180816571584e-28 0.09065549546186819 0.05164290358577859 -0.2911896199261262 -0.12225312697390943 -5.53978664594259e-29 0.023867932769433584 -0.05504741303542017 -0.036517860612469054 -0.1999863076364365 -0.005256208814513815 0.11139473175360465 -0.37717643120994737 -1.8370102184507427e-19 0.1756677508121977 -0.09221826289921753 -0.04113230388940677 -0.003193955230949052 -1.3225821186369402e-05 -0.015477498148768568 0.3082224444244416 -0.04056275491733745 -0.042760766444849226 -2.1075014816468897e-19 0.1678951937075415 -0.20814012344705296 -0.0024914351115195173 -0.11023108401953653 -0.10853282166123603 0.03988322611802163 -0.20474309451829464 0.027350312979094026 -0.23154688651870056 -0.0684103948922005 -0.2054439005447977 0.06889528982235409 -0.21240135082835096 
-1.5233380083661753e-10 1.6917907708436827e-11 -5.482557330726967e-18 6.29701995210653e-14 5.717660724709151e-13 -6.58635770473063e-11 -1.457764828182479e-10 -6.467438089465643e-10 -4.286964298869171e-08 4.207185125897345e-23 -6.915154939594977e-06 -2.4188709804968606e-07 -2.212482043058152e-19 5.749087739180024e-10 -9.6634476775167e-07 -1.9240403987672867e-11 -2.8270818670573543e-10 8.832504263934482e-07 -3.472280401551053e-16 3.751324231193654e-27 -1.880631988454103e-18 9.790817989715006e-09 3.203650267204062e-26 1.139652868258551e-06 -1.5525908165734009e-16 2.1442526056783706e-28 -1.0923015768121098e-07 7.525397440528894e-06 -1.4141664182147461e-08 -4.599651327435487e-10 1.358472431434502e-26 -2.7822118488859348e-25 -3.307744523439891e-08 2.472568913614852e-14 -1.5871064059718873e-09 -1.1656662695004282e-21 2.8095214462654063e-12 -2.0688462064123203e-10 -2.0827478472957842e-24 1.212286059488321e-12 6.11298127218084e-23 -2.31888245153157e-25 
-0.6457419623988832 0.41926883037411133 2.6540474061323584e-06 0.22770546014283552 -0.5299471232339048 -2.51661502930062e-06 0.11957450245147397 0.21804751557530627 -0.4375313826085148 0.17461527723089626 -9.83695183908393e-07 5.061436798893815e-07 -0.4062553234697498 0.02487756663124532 0.27766020550371684 -0.6065381349995752 -3.1731501557244085e-10 -0.5007050322504116 -4.72340553598651e-29 0.4666132214229776 0.2536647380478448 0.11081884210523896 0.025720871218069378 -2.991882169584744e-07 0.4908859597491149 0.22737467598161737 -0.1646172050198847 0.06572451993541474 1.6577145333724502e-10 -0.4395327798756151 -0.42716605928793083 0.4251565039301419 -0.15284652145323407 0.3570764978331996 0.08108885231702921 0.45562418212309885 -0.21286649431632002 0.10008527459164097 -0.38938744125886493 -0.7554831563349019 0.4140494547037074 -0.32671462829459047 
8.178127801681967e-26 5.370063474194861e-12 -1.2324386353532622e-16 1.063350615383919e-05 -2.411034483792349e-15 -1.3787483419502915e-05 1.7277867464872851e-06 4.395761539073614e-08 2.1922934044435877e-14 -1.6204514386659161e-28 -1.8631488130895764e-16 8.17170839472595e-11 3.565500460528894e-23 2.477261621653835e-11 1.5917548166695149e-12 9.24179603184943e-24 7.167097397153786e-25 -4.905611124131083e-18 -1.4058776451237839e-05 4.2967113072646584e-11 3.455244920476217e-07 -7.041843935870966e-12 -1.461943869112977e-07 -7.464042778119422e-11 8.249014861444592e-18 1.7813868159098877e-07 3.0667785079879837e-27 3.802858497505474e-16 -5.4943205305256903e-08 2.9691405890899643e-16 8.649594577906159e-24 2.152593865035388e-19 -3.461420941886123e-27 -1.2430216942410763e-26 6.024672620124654e-09 -8.355379616156767e-26 -5.107872266307295e-21 -2.226363222078768e-19 -6.523076943669845e-11 1.5502174601179407e-27 -2.053221266004533e-18 -9.843176857337265e-24 
-0.02309128276062754 0.020451965116254977 1.2527247013575832e-10 -0.06473214052234959 -0.1281261613479288 -7.994977964145619e-08 -0.04009912139183128 0.21354119315420153 -0.11781815348382008 0.10810952201494059 -5.997313024390038e-29 -0.009944930867985967 -0.02578146339442917 -0.04925490971468608 0.07039420525039333 0.02805078878169777 -0.005456651285685536 -0.2873973416751721 2.364412976145055e-08 -0.01540772622258661 0.06163007694652027 -0.17873035300210308 0.003874073134087828 -4.088234423493364e-23 0.17154344613145292 -0.04791627059807842 0.16346347189992466 -0.23914963563846486 1.2343071653986373e-19 0.24832627029073595 -0.32958453393504894 0.14857961612555656 -0.003283905794124333 -0.03455148658648959 -0.16596172002125598 0.07184304046696535 -0.08135098906222142 -0.2437320907132982 -0.017342781162753187 -0.08268634536912783 -0.0069104070407840145 -0.03743462833075182 
1.7812293828674386e-25 1.1820687484687976e-18 2.366417019883901e-24 -7.956032794358992e-29 -1.4823799182174182e-09 5.2658452668819435e-06 1.466183879966827e-16 -3.4756548174951044e-07 -3.843483808987784e-08 -1.019128405928847e-05 -2.5960364202158273e-16 -3.0765401201046996e-26 3.509525836385071e-10 -7.440018832022642e-29 2.675888199829714e-10 1.1233945922073413e-18 6.045610910534965e-11 -6.996105680250302e-25 -1.6226061543954067e-21 -3.28966043917302e-09 9.698863947171797e-20 -5.702512818063311e-09 -6.241890347885476e-25 -5.245385992030294e-12 -7.159209669605677e-25 7.333116362295136e-06 -9.274915277348137e-20 9.18953878552325e-06 2.0819805041410199e-22 3.745310034087674e-23 4.28769900477495e-08 -2.1414809855594098e-23 -1.0355280751082474e-12 2.964880039741567e-10 3.3492406119877035e-26 7.929691230624979e-22 1.0511080013688025e-19 -5.218436200744183e-18 -4.070826886509782e-14 1.2309066498427348e-09 1.1469026774853918e-16 1.8684783130178596e-27 
-0.1503157216518213 0.21055541835240602 2.336867836732364e-07 -0.12268837043114787 -0.09449427875978446 3.760458231520285e-07 -0.036612105854932825 0.16767528932809259 -0.24962760292657202 0.07639063653169152 7.909063848871968e-19 -0.0752639533465502 -0.4071552323922267 -0.01455704923758906 0.24292114592409764 0.002055127801170245 0.09929700229469156 -0.1912016740101656 -1.3364081099934743e-20 -0.13978683830307753 0.10914714464820001 -0.010902321801866822 -0.043247508702558855 -8.247354367628804e-13 0.1321218998194116 -0.037918617576426526 -0.09279137703491251 -0.06291509972367901 1.3603485321195786e-21 0.13430882239316358 -0.10944730879601237 0.12530929225951043 0.0002011625481977131 0.07965086251557049 -0.13937054099534477 -0.14028394216592624 -0.1392788266038058 0.12776680947316194 -0.31687318995691977 -0.11660078475944005 0.005178774620811017 -0.1701966878302972 
-0.039631896535392036 -0.07410564218082157 -1.7541641249137024e-13 0.1230721597737056 0.1754202798710462 -7.988650421359357e-26 0.024669469154819997 -0.2138633330077928 0.07543544357773778 -0.06845295650404014 4.882694734414848e-08 0.023211259818243422 0.13628119065825745 -0.03762746838016602 -0.02946356524732813 -0.024642920607982243 0.16671883597420706 0.1222217093906147 -2.4160132599992637e-08 0.03315145139462626 -0.003019344715502157 -0.029856637877887813 -0.019955815647475287 -1.3074429257955159e-24 0.12014740443360664 0.09295673030973843 -0.10222506508968696 0.14935296707838147 -1.8207656909647162e-06 0.10656839893077232 -0.05685482144541793 -0.15789789256299047 -0.027616681757517587 -0.19873732793051352 0.03289340192493757 -0.2110057325684981 0.012455507978057261 -0.19429756879459437 0.14878959590866347 0.1411932416563862 -0.05732639679257809 -0.12164354203317189 
0.36766838039094285 -0.15830289294489286 3.7639603007040394e-10 -0.06334368333402216 0.2954301669826423 -6.514978352345734e-06 0.043239623652162495 -0.2605327241758423 0.08252655629082724 -0.11297214966937266 5.938311776024662e-24 -0.011902672416436421 0.46893511057043136 -2.29326232276364e-22 0.020864182856723822 0.15503661386355663 0.1430515047758756 0.04538053872221344 -2.8844725028229097e-12 0.03528675664013327 -0.30728811660230076 0.11830164326418766 -0.035202147623456144 4.264270273776604e-23 0.10474368854130538 -0.24716851758060826 -0.18866642794327804 -0.24846391822978123 3.5987375517783205e-26 0.35412819651901906 0.28175784562478096 0.07847403244126099 0.14347560203326526 -0.1287383955081369 0.03387090468148123 0.013129818408058519 0.08392218464914628 -0.0447758329254281 0.19328324825896964 0.1759624322124044 -0.2072563142345857 0.15596605496000696 
-0.4492399695857521 0.3229054262836961 2.0727714053112197e-07 0.31325510439894855 -0.4410694110187804 -3.8431175552279264e-14 -0.17833475924458675 0.27776887828981794 -0.5966766634224664 0.30151753428625727 -2.8555068306854076e-29 0.12552459056524315 -0.5973566180860174 -1.9761154550074543e-19 0.3216129612329289 -0.1494132026960025 -4.0131633521110396e-08 -0.35655486232561173 2.0171657069976306e-24 0.5673913314949758 0.27581290421351534 0.3358733674807888 0.016735628113573896 -1.083774925752313e-10 0.13242095786001817 0.13001035431122748 -0.31502172164116976 0.371702418354581 -1.4299634562648251e-06 0.14715904674606284 -0.625749384075663 0.20938744205891205 0.21331328281454665 0.33053667471412723 0.20718180224180865 0.4344684661277988 -0.20134382137101745 0.4582270776494701 -0.3692453080702627 -0.20840163654919178 0.1238614467088151 -0.5388160549457943 
-0.27350534908793195 0.2323666049856479 1.965043897386414e-06 0.2743650951235534 -0.25381094016421246 3.2697135642080456e-07 -0.027934319889999355 0.44556475870397316 -0.34692546715768713 0.22280712237534925 1.6086278816570805e-19 -5.268043618699785e-27 -0.39130094078966127 -1.5481789408539851e-19 0.1350284822654958 -0.21150117847266267 8.959678837865892e-08 -0.28242430436820704 -8.474805575268269e-24 0.2572033455088204 0.34452178167351766 0.11313268379659132 0.04378040593065499 3.273845421544764e-06 0.39002801088553407 0.11738655995412409 -0.24266473949834494 0.22038264590950252 7.363671596266313e-27 -0.2841201428408922 -0.3154229255298188 0.3433390464783112 0.15694390327254074 0.4043782576170781 0.20137285379908376 0.4818718442969098 -0.17069731081665676 0.43019398005493936 -0.28869779890014086 -0.40986866220060836 0.08865774412814145 -0.3297310081238755 
-0.3349679405700948 0.28807011576820585 -1.2315817312026186e-19 0.10509102480012994 -0.0034801602409062615 -1.2930703874354737e-27 -0.19456870722652592 -0.02822299583700778 -0.2519715071107634 0.12150581441009048 -2.8935965732631235e-06 -1.3534067395252781e-24 -0.17978262512139692 -5.468520396577184e-24 0.1962246469335139 0.18487117277360302 1.739572634422215e-27 -0.23853285580792905 1.0501126022929991e-07 0.09082360686978298 0.3918653182339499 0.12644085853830975 -0.04720506250371296 -1.2469968903229728e-11 -0.009083811273409691 -0.016619488417462972 0.20862033982591752 -0.04528354025806692 -9.719949776961695e-28 -0.07805909808532549 -0.04413632241616939 0.2818685606144894 -0.06278361485608991 0.13351083487345133 0.03520121751157354 0.3237974764479575 0.20368848464889336 0.28160143801706794 0.02369904847456139 0.0643968746410765 0.33350359716114153 -0.16729482336164272 
-0.8068952576755585 0.3691980347619603 1.5244221062444059e-18 -0.1473693826338461 -0.5255026081118698 -4.4001679036992386e-17 0.029903473906645554 0.45715243708956704 -0.7060267188215581 0.15281932779336935 2.0999433674785463e-09 -0.1378317392601273 -0.819057660196944 0.001877283192604819 0.2181991632290924 -0.49681812102579215 -0.11328432742153567 -0.38695045797949623 1.0283741889302276e-07 0.3277740738502995 -0.06547575953370764 0.003561112066687805 0.01620594796383261 5.225540487642068e-09 0.3364631077292393 0.31834319960193974 -0.2849217548992641 0.008701359821302443 -3.8104133439669036e-23 0.28976334324365316 -0.7508432798172869 0.34315335817661374 -0.12872087661623247 -0.013021569929487593 -0.12785413153571773 0.12602065357523182 -0.6935721839271366 -0.20956871221391288 -0.8661672216554607 -0.5646522110963845 0.1248245899715669 -0.3244359007689317 
0.0611034151085092 -0.07831006809218301 -1.1592032621221842e-24 -0.04302386923660359 -0.06688352294161992 1.51594378283007e-12 0.16298966245982893 -0.09769673583396357 0.011273019921412417 -0.039257983525293534 -1.2452212896899339e-05 1.6386956732109114e-19 0.3540795128375699 -0.014888193633596973 0.024488600924537893 -0.06692963245078667 3.95756578026451e-09 0.2537227340728561 5.14507762519404e-21 -0.6189029988036333 -0.037577488253306944 0.052326048315681314 -0.039024428375901435 4.064341036701486e-25 -0.30158363700172086 -0.1833515656039784 0.13178386689853722 -0.28223861709134906 1.9278152627736407e-18 -0.11465296392999841 0.38994868569052127 -0.09317818078541493 -0.07035134054650521 0.05766889335062094 -0.08254684885838005 -0.13211931347321357 0.20605155893535781 -0.18173729995494003 0.1176582872254461 0.09530461465652786 -0.20388569242306268 0.1482438358099363 
0.17373957984943447 -0.028753634676259826 6.426331067179032e-06 0.26411645620246477 0.23895597827433188 1.867671783087015e-12 -0.1777521872675119 0.0032094010313587955 0.09403925225150517 0.2090222534564502 5.752726826492223e-27 -1.0400380433384211e-16 0.22855043745948828 -0.015122019751214287 0.2010483384395132 0.022058884322665902 7.1576884851298754e-12 0.34159044138837685 4.941371601326855e-07 -0.2828119127417076 0.08477528280728518 0.1655104259262236 -0.02472900247777375 2.2526560097630204e-09 0.15559891294794054 -0.053848128159638374 -0.001130448476604698 0.008270446844601622 -1.9669634150353893e-07 -0.3421849547694517 0.01892266592818151 0.2365518903866953 0.28529084468938054 0.19605972360062118 0.16971871757435802 0.012715319874913885 -0.08947409250001015 0.240401263564005 -0.024655901343029564 -0.2042226500382787 0.24805841266429285 0.05293080096694062 
-0.15748924539494077 0.17910946015691595 -4.48382551921429e-26 0.18958163965810804 -0.20809970638882755 -1.5791692840488856e-25 -0.13619067382593447 -0.0060743292472000415 0.11970362665638712 -0.05949188382965226 9.342890712413078e-08 6.087873079439693e-07 -0.07996971078713332 -0.013605664682788492 0.1791674333220906 -0.27606365721810183 1.413025504438994e-07 -0.11884898129705235 2.658018971811684e-08 0.22457390144519984 -0.04724611455161086 0.012475483537233767 -0.013285820636583462 2.341475859825602e-08 0.16526887240764435 0.0994302879198735 0.18284531777490243 0.07759403894256515 -7.161114619061894e-10 -0.26840266097557836 -0.0836471120775765 0.23690907751222834 -0.024075773659899095 0.24411423574568925 0.03480877681456816 -0.09024441243093033 -0.11596843477905085 -0.026655357797125537 -0.22582414728881636 -0.35142669812885113 0.0067512389319214095 0.14034819218793446 
0.4626575569940952 -0.18585698215529514 1.3525565523106666e-24 -0.0016667134475721465 0.2650190017613779 8.022511189109649e-11 -0.019870085336627697 -0.2819473853076951 0.1514309967584196 0.1268915253255475 -7.933367711796782e-06 0.0726549755713982 0.16499280552102594 -0.01340124454761831 -0.08075934219225368 0.2903241045260107 -1.31459289425638e-07 0.2210410270612163 2.462797244450576e-07 -0.27154982966764085 -0.11125072263256854 -0.08130351509285522 -0.079882549659088 -3.5952760925838015e-08 -0.17586452248342188 -0.1356137364498832 0.3351653421055539 0.09791508360461999 -2.757916769936254e-28 -0.10439150762224238 0.27788893739446374 -0.1366353405861399 0.18033154827175002 0.09685388022602417 0.007466407822589512 -0.0562263008183626 0.21193588220473197 0.2725600469451689 0.2353416289404268 0.1494344801686066 0.09331708685141954 0.02173394199294128 
-0.5312201894727105 0.4314461853605491 5.388893694370405e-13 0.31209748872768234 -0.47767015856735473 -4.260350679499686e-23 0.0481166496737674 0.32249759955200213 -0.5075310831660037 0.4590901664960837 -2.820226038585144e-27 1.084747906055049e-11 -0.45806915721288427 6.2688490864553355e-25 0.24755912175358472 -0.2575002657050841 -1.0627277315296859e-07 -0.4001269221905614 -1.0154190743811924e-06 0.27224305662329773 0.4652784709010676 0.3131296691172016 0.052085486999026535 -1.2071285806057898e-05 0.34680608335583574 0.3347671011134096 -0.45214317628254386 0.15623539483006157 -2.1695731437626443e-09 -0.08423289332250422 -0.16196893185643602 0.46212760034198047 0.05342836080712022 0.4258903418289758 0.28242314968276055 0.47005330405611884 -0.412022642521782 0.3366214342700817 -0.25194550716145436 -0.5010260681649561 0.2856237157560738 -0.36030549768047776 
-0.1756315287369861 0.3739179540836514 -1.2664148807269218e-24 0.13772227681591567 -0.17301982970522567 -1.4443177838622554e-21 -0.04931875704188987 0.286890274349922 -0.251861315127579 0.09459198157282506 7.456906272072235e-27 1.5305798173185755e-20 -0.33279656869635754 1.252418043537151e-06 0.25290839827477 -0.08682462505949257 8.32217338881344e-13 -0.1605962048695622 -3.22670685473784e-17 0.44540698171865145 0.3645168191217622 0.005878955562032878 0.033678523028265725 -1.3911102823915138e-06 0.3709604259811465 0.07442725618116636 -0.19112587068605638 0.01978067440712535 -2.0607295069604082e-10 0.027954545267376375 -0.34102266171190854 0.14439276600710602 0.021286666379265892 0.13612596056534368 0.1907437402327347 0.23300073767452079 -0.1747816088577404 0.2642870615247586 -0.15094515514387596 -0.09499927867284325 0.2026710277231415 -0.25542127690687555 
-0.15642757117920805 0.3805795551630576 -1.276767581907305e-25 0.356144132315153 -0.29010505797707237 2.346876062295201e-13 -0.19029949218959244 0.247793352938657 -0.21054524037176456 0.09250692937396258 -3.432800134681911e-15 -1.8131210766700495e-27 -0.18866915850095578 -2.8131079022125793e-06 0.2297798891684871 0.16591822307897186 -1.027916186880532e-21 0.003639515501088667 -1.2270025969520512e-06 0.05844423508893294 0.38890217868951027 0.14567384724277058 0.066644657215241 8.563659764122678e-09 0.3571431709740144 0.3008181863239506 0.24493427086362757 0.023671394705486987 -1.4514907241111146e-06 -0.2745091434830072 -0.5016839005577823 0.40490027401003265 -0.13770236819277332 0.3420266528613936 0.22973474497343935 0.20299479928142125 -0.3007228318476442 0.1170909748173287 -0.34833352599388395 -0.20395681345205874 0.2644413967052255 -0.3922376120719654 
0.12137071034705889 -0.19327922812511927 -6.41609221272107e-06 0.031168102512089294 -0.1372913174612091 1.2067619797868957e-19 0.09622131995825604 -0.2664923926606258 0.044274086049193966 0.0031641048993637047 7.73439526119874e-06 2.5096652498187668e-28 0.2732194605377303 2.2918245227860602e-07 -0.09688485364611872 0.314468015588192 -3.153697059650429e-16 0.09498310252138917 -1.2662344212614184e-24 0.06587244629473529 -0.04286954690110596 -0.4145069401860448 -0.07271303540455214 -2.183354742104066e-09 -0.09369182969727743 -0.25837707018720213 0.4448741852684469 0.042426113196831816 -3.824297381589117e-09 0.29453812021851855 0.29632782764304355 0.07575518158471324 -0.14638668271087796 -0.3127271153228051 -0.3158715708829489 -0.231812355425887 0.1707905450144824 -0.18471866002242782 0.05358977881171587 -0.015931693245265218 -0.10964650405380774 0.026237761710772117 
-0.17480857461987884 -0.009117786621436854 -2.3800780017590673e-07 -0.027177200472858848 -0.10406166235631938 1.8589174726588844e-08 0.14441032926729475 -0.004162973907421478 -0.16799440909790037 -0.274308716426829 -3.954648319001371e-11 0.1274902624327749 -0.23229739112933032 0.014022839061299086 0.08796425392852106 -0.06260614305120686 -0.1501407111663996 -0.054069946471720254 1.7023350558625692e-22 0.06301372576906714 -0.1986150325003395 -0.36393717197927633 -0.008825708541441553 -8.426524885230716e-07 -0.19184559996640105 0.07661453693526268 -0.14041823192314098 -0.11235880631743435 1.0648494633160732e-07 0.21589945157881926 -0.08166774684078387 -0.26108211810744963 -0.20263843606383125 0.05168098885215588 0.0506719501450665 -0.32393131679579656 -0.1756335194700275 -0.3037146109755033 -0.36953750505325283 -0.40260198408541853 -0.1077627427379797 -0.3362082972743118 
0.1422151441872722 -0.060497361574010824 1.3189453411043262e-16 -0.15471042301049082 0.2229645900814408 2.0443661604412436e-23 0.05873906335478405 -0.1460301775641 0.24034294471496653 -0.11460347198164907 3.793449929544835e-16 -0.10877468103403265 0.4221064788557436 -0.003724518539398452 0.047771609264020624 -0.1420996467943485 1.6784048372290955e-06 0.36229285733917976 1.9734528444137358e-16 -0.18659939933468261 -0.10506641732264999 0.05614960840380088 -0.02682129804032972 -2.1108628027660745e-09 0.05947875392258879 -0.09934539660469911 0.04363660022658342 0.002523682487382936 -1.46156840025149e-31 -0.11953582914658936 0.09934789861738773 -0.07947303841485753 0.170125520865153 -0.1680013606892967 -0.2276137736970056 -0.09944858869431843 0.23362418428889428 0.0947037202795069 0.129502822153206 0.17878816368971703 -0.19153470762143104 0.21773812513420876 
0.33826060614367803 -0.16330560384397258 3.625146949773129e-09 -0.13829428601035848 -0.029375437780236633 -5.3469227432998826e-08 0.15768258018581072 -0.030806670810729058 0.0046952508271610426 0.13940317420478077 2.6854609023566332e-08 -0.01683591401621142 0.0536600167290128 8.342261791081664e-23 -0.16721310402703948 0.16919107288407711 -0.1063957768406065 -0.07519013506075656 -2.2079192899869866e-19 -0.12856041575710822 -0.14667984312848534 0.057536517268023654 -0.0650473517168556 -3.172731209991052e-12 -0.11733233144987082 -0.2220280060014437 -0.14418613050113643 0.11053986895243306 -6.966960518584884e-07 0.10412450228619655 -0.02785502680470528 -0.2471776651418585 0.04976889681201999 0.09972233633120366 0.12425421792173284 -0.13971040149448 -0.06059467643608088 0.09138776503948014 0.21138541536130737 0.2911122070825117 0.048216702187688185 0.166583973985818 
0.07845845477727215 0.0925028505078574 1.600821846072779e-26 0.12076337210583811 -0.03509786648881281 9.565294227022333e-19 0.0005443249222024066 0.23623912490554355 -0.07292401869613391 0.29055099881961033 -1.5938830653665004e-16 -3.6416759928010163e-09 0.10529583173459749 -0.010454112273190768 0.005709592838245809 -0.05173968990446694 3.784611566268648e-06 -0.20456228269880247 -8.513284136073543e-07 0.18511011389513482 0.03763721708504713 0.2798666324407901 0.00020032886275519904 -2.4493695778825752e-20 -0.05993361868237664 -0.10448723514965771 -0.19056869656009043 0.08724469282619982 -7.256565360826059e-07 -0.20639691024746723 0.02617256497705071 -0.02898066216875447 0.27712638016922597 0.29376734032520996 0.30322094713441394 0.22792802015475322 -0.015497997733992871 0.26279367263516457 -0.18059113967708043 -0.1852260144016563 0.1534955315122095 -0.0548458394439574 
0.27332816945767974 -0.09771080668861537 1.4695003763318507e-11 0.17190550866845564 -0.035047414747385146 -3.6659900274075097e-28 0.05035343043028348 0.07095513055562701 -0.08023787045454094 0.1293220971842143 -2.2906523906591566e-22 0.0982879508010805 -0.09705310288562558 -7.864132235898711e-07 0.19440057189294516 0.007807851204725604 -0.04554770076326301 -0.08545443185104136 -8.376321065996346e-22 -0.24682820552926013 -0.09971395969703215 -0.10143230859609338 -0.024047875003337375 -1.0846006092551109e-22 0.13301247296498336 0.17056872230273776 -0.07837699095367424 0.020367526037560847 2.1947090177173842e-24 0.283609143208592 -0.06673000586078164 0.1417029901454443 -0.0789276899913407 0.002790436260687956 0.06662916356638329 -0.11635985536770682 -0.22271194785686982 -0.010366088993024401 0.27606344559135665 0.1572285074606968 -0.1518276498374669 0.1078432888656461 
-0.2217170816207594 0.2978980255723951 1.7165155977114738e-27 -0.12226451949410833 -0.2997948542531481 3.516722878916778e-08 0.0660636505662683 0.22369774900574052 -0.26349376436734984 0.09221925571439339 -4.81135687271937e-22 0.002834540484101112 -0.38476579814148965 -0.014109608301554567 0.0126393132190196 -0.14065523592202073 0.18207015109497476 -0.22965477229346573 -3.745124123444029e-16 -0.18703724580305053 0.1368829283813943 -0.14904454395654934 -0.03508776317323442 -4.6247878804505026e-23 0.017661894358940305 0.2516839992448717 0.15222088800784692 0.07424348314879409 -1.404119844363008e-10 0.08615957987045986 -0.09421895012920607 0.19478197125229266 -0.13508207503223815 0.20661430310821335 -0.07599535956301708 0.1101318226175422 -0.15831576245320841 0.11598201410893483 -0.30130151183657516 -0.04017922191186106 0.23430063741206983 -0.1687710401862927 
-0.4783805134803937 -0.17151199323327032 -3.1887265596105564e-07 -0.22880691356413044 -0.4371689737206979 6.364641305319499e-11 -0.19585124170268742 -0.06794081959955647 -0.15722212264222618 0.10944919908040456 -1.064160419909904e-24 7.571612024492817e-06 -0.5620151778395569 0.06290859089148315 -0.0881107376667313 -0.040885545173403696 0.11165074586931917 -0.03809778400756435 -3.652265830277946e-27 0.18194002202970352 -0.18584830617650722 -0.0517187704022157 -0.02758888565183588 1.0050416232451203e-05 -0.20853304193336605 0.23797706245454953 -0.006639846631083324 -0.11411333972654031 -2.9301547312281166e-13 0.2382009350934896 -0.4404168193004745 -0.15197315688730217 -0.05536282932113856 -0.07410896091290811 -0.2719054137052453 0.0012908263549601332 -0.2054892103744106 -0.05487326065305928 -0.35160234993502354 -0.43476748693661 0.12877660229261934 -0.39435239351901946 
-0.6679617052143659 0.8602183857841251 -4.7032301618416606e-24 0.4976796138397996 -0.7586535743206241 -3.792541623400116e-09 0.12543919091759506 0.6988259187529957 -0.8295713352340028 0.8848529099036577 4.6807131673024647e-07 -0.007302897598949068 -0.6628487482466057 1.6533696231287336e-21 0.8398851176019647 -0.7547193484204993 1.2832369725747495e-16 -0.755984589185771 1.1412222417492539e-05 0.7952267232788736 0.9123988694017687 0.644180804930201 0.07112031380923124 -3.0215744755419463e-06 0.7927002466575938 0.8420293873969983 -0.6610911249017161 0.8200490775836177 -4.692036199049666e-16 -0.4752968381697092 -0.8426815597655324 0.7371579917294843 0.1354151540485189 0.8568600284261695 0.40215468007561006 0.6159577356931984 -0.9102995592497645 0.5225694145579082 -0.8694944951619831 -0.6082191319691517 0.4422519196685667 -0.6143863752457761 
-0.36488743438200544 0.2011208627842601 -6.926065049718702e-10 0.10506091034693085 -0.5297335647298209 -3.802173437002638e-16 0.050654694962814835 0.16179169093784473 -0.25626784350822013 0.1376233357076021 2.0775257725940275e-06 0.08209812063467595 -0.30781750170068384 3.3538406016917027e-23 0.2043322274837616 -0.15632059936447043 1.8224305342993695e-06 0.012627011626255187 1.8806260742943298e-28 0.4205833936793031 0.43607712224709444 0.3257783967352651 -0.007894279686421299 1.1341837142349752e-12 0.1882566700919919 0.29156317079876065 -0.10894318648606542 0.23608974417274425 7.758332621919194e-08 0.2707909004018702 -0.23686874499244345 0.12782773018154509 0.13306307959539043 0.43390975329039766 0.30281018852016245 0.26685381856274093 -0.10698952584104823 0.13527757104441918 -0.4555969369487757 -0.07986420626390589 0.3560324803229762 -0.1542666510417679 
-0.4912270695677534 0.2013263342126942 -1.1752811911668902e-11 0.1454667552280289 -0.18935483520060165 5.4338726237589455e-15 -0.02381919993627067 0.14283135821015847 -0.24679455496958966 0.2927502934215398 -6.923476663778828e-27 0.007811436732661337 -0.3501848084733631 2.939135519859739e-11 0.13657646030992832 -0.060148309749008616 4.514381619520211e-06 -0.2519277280655794 4.22302571356449e-15 0.08723949996584336 0.3148197441555873 0.2283564192235672 0.03410737820980169 7.609073459910664e-07 0.2889233775173078 -0.05277768565869157 0.05520555312651895 0.07429584969721224 9.836399607439472e-27 -0.21295032122882168 -0.25861921012730804 0.17205168448497912 0.21416305143997166 0.3568997890581761 0.2235231810050896 0.37352860236327967 -0.15093121188297903 0.3745217845677359 -0.26500477286048857 -0.2765889405244002 0.19287520343888248 -0.11177014773810921 
0.170991284464179 -0.19748078969151192 -3.620965962010611e-26 0.1021904597070793 -0.0699757428162253 2.02047865901009e-08 0.11170982683488723 -0.07084070752141836 -0.11663929494329389 -0.18164705936856232 1.1020544029567159e-06 -3.8620021638215304e-06 0.04432485998867338 -1.7038501117757036e-23 -0.18675306243305434 0.1907649060448865 -1.8314749794724135e-08 0.07721722317492705 -9.23688231437011e-24 -0.044631950499380464 -0.0931401845103586 -0.06370730549193691 -0.06745811707748543 2.339065964167432e-22 -0.07723261504768086 -0.025363095069517737 0.06023118061506663 -0.05156968071529356 1.4293020414649625e-20 0.002683483579973997 0.17044944702476986 -0.028491807564666505 0.19601437465511223 -0.18180216794518597 -0.07119661994148521 0.08958374364778439 0.09828299395920058 0.023234745398037628 0.03167443560324935 -0.12259679453889928 0.1184514265709079 -0.05283527053392407 
-0.09532088756098475 0.4457697881428588 -1.0046287496525044e-05 0.1357759398679101 -0.39626878554043 1.7220667019806507e-11 -0.16247610868297138 0.45153364205088253 -0.27044480633249635 0.4094006096048273 -1.609669625052279e-09 -1.331930747619804e-26 -0.10347541265598627 4.285773119135901e-25 0.23339086270321735 -0.16799071499751747 8.592308533425339e-26 -0.1266147420652013 -1.048963990678866e-09 0.11194180984547843 0.1658129923247149 0.11819295263371232 0.04548318924398609 2.331381170452653e-08 0.17905678715481088 -0.04189191623758797 -0.2264715687959451 0.2965737238130755 -8.951649556396435e-26 -0.30164188190248953 -0.043024569152060446 0.4013432466245804 0.2951637435331 0.2520737254676762 0.3138890414499087 0.10538781993687128 -0.05309989223221595 0.1574074891364844 -0.08981968667950417 -0.1653482640673841 0.3615860997224461 -0.30547113323359826 
0.22979636716064805 -0.2838448629784279 2.591540769534786e-08 -0.24361007494348422 0.4837834160192618 1.6624299101113164e-21 0.027659261301827328 -0.0964754645951513 0.3665641300552635 -0.4068503974310923 9.756671467238911e-28 -0.04108925090774973 0.3601520233943803 3.196288049586392e-16 -0.3976326630221093 0.06452748055372882 0.05994207146296574 0.38448350132291226 -7.75451222896489e-08 0.1819982213051002 -0.16332895592610036 -0.11408113817140403 -0.03409068796956888 -1.9206223318246692e-13 -0.27363674428494134 -0.2104715480781097 -0.327070296939567 -0.2403504036373705 1.3831957887886252e-08 0.5015969185613621 0.45973782851257516 -0.11033085417830103 -0.02356373590451469 -0.09250252676318335 -0.17954781400638054 -0.24149873124722565 0.1820901255079741 -0.1554014795963717 0.15410361143513146 0.1531900396162878 -0.379980564207872 0.3073093728374014 
-0.3191848747863762 0.14712203450259406 -3.841045672684641e-06 0.08094174867158359 0.014455353163381453 2.3582462692464388e-29 -0.15022942577570408 0.2226836678367826 -0.009525290643157294 0.32973272331061704 -2.5638744181907407e-24 2.3873450487925716e-16 -0.1303352439864754 -5.9845686359638644e-12 0.09999587748525714 -0.05190819744987609 6.35636513921252e-08 -0.14794581417782907 -5.750459272249739e-27 -0.029056095201356 0.38425313040237724 0.05108231455985324 -0.05723332347790578 6.2966529429475295e-09 0.0008221764826653932 0.26652280436840686 0.09319404594567128 0.3449207317116412 3.727958212275767e-24 -0.44354991999291027 -0.24102628962609518 0.21244861847493413 0.29140667892716116 0.08126497082098393 0.18818266772226194 0.1782792558881291 -0.18639604417094177 0.36238305462565584 -0.26542219531345124 -0.32001782356162073 0.015394259266604184 -0.28251991616700134 
-0.2634241862343183 0.23705271639774034 1.0509945437270324e-07 0.03508658313134326 0.014731288431824164 1.0602337189327767e-18 0.0883847091691722 0.3983812979847585 -0.20958706981514041 0.2519818166523331 2.1689614332205768e-20 2.3111865468765727e-28 -0.267695912040483 -3.1700644019047194e-07 0.09739201728263622 -0.2522839693530743 -3.7309125356096595e-22 -0.0259645369271682 -2.337885315045923e-28 -0.00728500046416521 0.2779032143374495 0.11276217577520682 0.020300039252699457 4.770361601139654e-07 0.14557865317564073 0.14949554529000833 -0.12262746234779179 0.3685165051227807 -1.3416605354423582e-06 -0.2702320798068905 -0.23435993531863705 0.07997454292890838 0.03889800552276072 0.327719083842557 0.3227296935037825 0.24805283014395998 -0.18681391290815386 0.10604563801722289 -0.09165327833468992 -0.26883404708188396 0.1950615246971963 -0.07897666130926778 
-0.3398425343679712 0.10124576619646353 -4.494087084127306e-06 -0.01037344059182269 -0.04425206758129668 -3.285991609203303e-07 -0.12118452631264723 -0.023139701054735062 -0.12803028851919815 0.10222554171404764 9.78943001247015e-26 -5.196036272086868e-08 -0.2925175322959537 -8.421653111396974e-26 0.22701237578998348 0.17878051119862057 -3.5935327790796207e-07 -0.00924220456001359 -5.876743000801446e-08 0.154402894954986 0.19253436268542848 -0.16867904519700136 0.001375782027933521 -3.3744464411357856e-28 0.056771673972043524 0.06288242921924606 -0.06741953251105744 0.19748963210253226 -3.821800289616965e-11 0.14302360016864837 -0.21373270269455955 0.1604529219370079 -0.044055920018509394 0.032907450807597494 0.11682931463740903 0.34619113034559035 -0.12393677506090635 0.14335186637902095 -0.10800395919719259 0.16706084682005176 0.09335317241647982 -0.26191725612429534 
-0.08593898972333204 0.19949022358519328 5.956850138240608e-16 0.26380086902473265 0.07378721839052493 -9.676924653442685e-12 0.15959546803133373 0.12394154217978293 -0.14183295443161772 0.07780100994394418 1.6178632568944223e-07 -1.1001553944221122e-07 -0.06501242216063721 -2.8100914783970043e-15 0.2997397917845634 0.24858588320969877 6.469576130835961e-14 -0.08927562930457976 4.329243652323747e-28 -0.19803604749348663 0.14797397342849997 -0.13334722324521023 -0.07049125418157283 2.4221877092757256e-12 0.04707379665337564 -0.09501368756659881 0.2505700672320405 0.26683087747809536 -1.9467242238125883e-16 -0.25809540591535673 0.06610600255395711 0.2864136911893462 -0.07043206598893312 0.0664474949712218 0.15600495956028315 0.20392346870701106 -0.1355784191659524 0.15402620885605536 -0.18830636490244299 0.08855476729266606 0.1435650476895755 -0.007701508371974548 
0.30919026747133826 -0.09764342931842067 -2.2072533015843655e-25 -0.18006064562721394 0.07649487860539113 -9.641277031756375e-10 -0.08255635184987856 -0.4749591287930353 0.2381378702570774 -0.14075002537138612 8.544810670386678e-31 -1.3148908426253599e-20 0.30976787340873835 -1.3928245567000093e-09 -0.32635040555748257 0.4691331501588938 -1.434648828382151e-26 0.29303434528847694 -2.1588725739401997e-09 -0.5030728962226719 -0.24022639518249814 -0.10651636437282841 -0.05325015163267924 -8.575181798780894e-10 -0.1556560813684034 -0.20882006875686865 0.2599147740488415 -0.3189872008065899 -3.94022388987112e-23 0.3128949460617098 0.3164708527837678 -0.28081838340015236 0.019541180497375514 -0.3258158937149113 -0.3251909012867675 -0.22492557273858108 0.17798643510992712 -0.06799579590198603 0.3511158854903502 0.39597624587052643 -0.16850525457888402 0.34978549304580764 
0.40798570786368743 -0.3010779890759359 1.3175952728688863e-12 -0.2555651816010621 0.33361942724904164 -1.4502553792998826e-28 -0.11100891470174634 -0.41482596100674507 0.1635725457905999 -0.310133780813635 -8.629386789803438e-15 9.706406210625342e-28 0.18421118904563366 9.239485321755159e-27 -0.332991290210018 0.4465893895774061 5.657681397827385e-14 0.3070232645960711 8.292945786100707e-21 -0.48206442300096497 -0.11778876231032948 -0.41069097158564116 -0.011625604660171276 -1.045930421185688e-10 -0.28331409329871243 -0.19486337238840265 0.5093730122343834 -0.21445730397443724 -1.1384655054808089e-26 0.006866027349454795 0.5130340399823512 -0.3418276271630973 0.13455625659467854 -0.5053005343356702 -0.29968525771067295 -0.3706905571766127 0.5637865021902163 -0.4247817164989816 0.4747449530230632 0.48458676270503587 -0.22192090497022712 0.13355463167777462 
-0.07071838369012313 -0.1312499255189317 -1.3366800848054747e-05 0.01593389068455543 0.2209901998311307 -4.0453301628293506e-27 0.0070425017549921145 -0.0648813953020939 -0.03183242297883836 -0.10571788238482005 8.907009247177039e-26 1.3344888224215232e-09 -0.08311502630218905 1.8385895218581034e-19 0.055632515480058535 0.44533623636998065 -3.4223127555444686e-06 -0.08291241463957033 -1.0211519744462613e-09 -0.09414604010447093 -0.019810510365397965 -0.06375497422745166 0.06047650852022347 -5.382917259802862e-18 0.062318478675250234 -0.22237707941176307 -0.11067005641691968 -0.14086304115392997 1.0804640460367285e-25 0.07091505677544203 0.01905017073594501 -0.19439947076613243 0.34012481371468034 -0.06088654083596796 0.11887883503811356 0.03226457509800375 0.042525101087878124 0.047344168423157126 0.10879806725249332 0.00036742170616341923 -0.025028616218222326 0.12811894598820053 
-0.4631470386338386 0.1437799672283496 -4.459660591790459e-14 0.4400529995394083 -0.22544659009863735 -3.3646240301381186e-23 -0.1366712233312996 0.5186916439703723 -0.34961016216563523 0.34559878928225946 4.588672120072465e-08 2.878426663433736e-06 -0.3226445003121548 3.521117291551491e-08 0.4148644918562355 -0.3882528203355948 4.638175443539738e-08 -0.15878383734202814 4.5033165952821405e-07 0.3684298759957899 0.21600001325038137 0.375117822065763 0.06961142011114085 3.669484764809848e-27 0.4456265303603238 0.2064441187588051 -0.11978967217517987 0.14388779248187375 5.207840005481233e-18 -0.03133420003593708 -0.32807021000343617 0.28590395260497337 -0.02725750604938633 0.3571028788839843 0.46184248180188026 0.4028578119087775 -0.2508100493887399 0.2718168554681609 -0.20309536632650677 -0.2993261711852066 0.25184327623515507 -0.2741204356091773 
0.12861391738358474 0.06821295201942486 -7.203151033665323e-15 -0.23399315236266702 -0.04133825906000253 -9.331638639190796e-24 0.1310835752403501 -0.21034646474671118 0.13499491894779794 -0.10444440448405312 -6.796823580588204e-25 -3.10672905557459e-06 0.18800752422013486 1.0299172400012479e-16 -0.12127351455457366 0.3515068224016507 5.374423468896589e-21 -0.06731977706512192 -7.462508204944768e-27 -0.3231196178323174 0.09742582792218515 -0.08291594173969813 0.005819693469713501 -3.3084740438800414e-08 -0.0005003730306781997 0.02987224031054298 -0.138235271742485 0.02751716657841688 3.7448643699587454e-16 0.020255715793594625 0.19305278811441645 -0.03382857354251402 0.2399245739093622 -0.18076137215646954 0.09611839827839228 -0.01861503552373163 0.281736128074059 -0.05471080205879859 0.23527402230275235 0.15982765128920706 -0.21566173584239973 0.12714519491287526 
-0.19270491987412877 0.28239128837304334 -6.905206629772522e-10 0.028068970880055475 -0.2157883819740851 2.3799425460460814e-27 0.01597175675647653 0.16862883287769143 0.02213511533509697 0.1151117758079617 2.196326223578236e-27 2.9168697419282203e-08 -0.12627561384871522 4.490920136303918e-21 0.023981572137449298 0.14976874091196474 -3.201683394927073e-23 -0.24241972859340977 -5.644068094231802e-06 -0.16177949468942976 0.14767456534737824 -0.08155374682878043 0.03210844879617904 -4.5746162433414056e-07 0.012725995212823984 0.04454865141261583 -0.1344087391609855 0.027852642831888895 -8.233160449960337e-06 -0.11689810898803993 -0.05920767500661679 0.07209920971019027 -0.11522476371507213 0.0825413787734579 0.09192363576072278 0.32174580096049854 -0.32827534750275794 0.19424093594594005 -0.049289963008805456 -0.12754725700644257 0.11401576623048688 -0.014133741668282478 
-0.13421628745773245 0.008128867279455049 -7.041239745348717e-06 -0.2235190709868121 -0.4667945361964681 4.3742832633320375e-28 0.17977905674687003 0.03762441285799145 -0.1348980741450264 0.10704163364992363 -4.859542572119317e-28 -3.770805199153586e-19 0.222307647299793 0.02076757823619089 -0.14438534866668076 -0.20296949894520125 2.554011037578111e-25 0.06284146794925086 -7.550471711462346e-21 -0.2686471150975367 -0.15410098259262642 0.03774777312122906 -0.03099186771575124 -2.6805190837412084e-08 -0.13785804211131905 0.2333835887735218 -0.41373618049656863 -0.2108296182230739 3.740696053540911e-16 0.3007952186279888 -0.01639032544340464 0.0861886042969482 -0.26119546984180275 -0.07495470191116259 0.015818994898174503 -0.14543124519755227 0.17026153192763338 0.027765737714790763 -0.12716006299379912 -0.503382759226379 0.057869056507526634 -0.00989350772291412 
0.1158438530845685 0.11432626952340776 -5.7957708121518465e-08 0.166704367638197 -0.1422889026127558 -4.198277311266913e-07 -0.12502789639781342 0.026423979297569646 0.07124677571790324 -0.02982442650818359 -5.0141164985684616e-09 -8.75530971016326e-09 0.1754330761631717 0.02928324017941247 -0.05824099308728209 -0.11697668566764943 1.5818460652720285e-20 0.014832253780541975 -1.2750445197687687e-11 -0.20432589427619388 0.04842498183707308 0.28318082260122013 -0.021952686721880815 -1.8501621121316032e-13 -0.08525614444654392 0.014579151460374149 0.07884853795661206 -0.06587915558044503 -3.827228932999216e-07 -0.07597116262496946 -0.03294756852545503 0.08398860026286446 0.26084895965160737 0.03238817940640969 -0.023027348735442106 0.0204486100250847 0.058745408651162914 0.13180422502767372 0.2828416509609303 -0.1716219658837814 -0.0952734333038648 -0.029961135372598216 
-0.05058416887413345 -0.003066591099380708 -4.2047793582192204e-06 0.07049158462718857 -0.1995288656210865 2.4047019457577383e-25 -0.035530146938268996 -0.14001775227334157 0.04182065040296762 -0.14662874505413542 -1.596245755031578e-06 -5.7659673973249774e-27 0.16366639485148918 -0.03560238839350846 -0.14471402253636637 -0.34440041849517966 7.2991761689445135e-09 -0.010639170847061835 -3.349620119753438e-27 0.0542607405798409 -0.10553033206596615 0.07493177677170387 -0.028167873595894646 1.3227124644687319e-27 0.02996465781382546 -0.07714221781760768 0.11283589666944109 0.052781068934870286 -3.6465857018385685e-08 -0.22598898305105009 0.1084207531251252 -0.18350492598892124 0.06522561732804401 -0.13136836518533734 0.15068599574163447 -0.07174836273158874 0.06158661734358636 -0.019868970778920178 0.1336626637526452 -0.5233494888319544 -0.13605469863609154 0.12732930348340243 
0.41722118348204784 -0.19116195547526615 1.4593085029983563e-07 -0.3524484092185806 0.5051169613941893 8.805103601589778e-07 -0.14269735133969583 -0.3824796637458006 0.2773135781324045 -0.21422726422645558 5.265423910308363e-18 -2.3873890671228753e-06 0.13005320995793926 -2.25936695571428e-16 -0.026905789248514687 0.4625141276240679 4.2982426455391744e-07 0.08676261736396611 -3.480669031796394e-08 -0.5239757213055617 -0.22320411746636654 -0.0498449850859355 -0.06990301167655621 9.312802581737468e-11 -0.3412659073319313 -0.15646826172563913 0.20885355359416002 -0.404276022704498 1.3673561682642101e-26 -0.073917817478729 0.4674773371871163 -0.39647206137841723 -0.09404079327552904 -0.4119201198098241 -0.24439151156893155 -0.35765719594514456 0.12967727598101586 -0.25391680894257973 0.47089170325106516 0.5192144996257276 -0.06517147908294624 0.09181197975031223 
-0.5615250197227433 0.39861473150157184 8.030920004621858e-08 0.23123377473243492 -0.8001869955125689 4.2179462909127587e-23 -0.053694850424838514 0.4345809559231612 -0.686635536001345 0.38324330797026673 -6.580172379241731e-19 3.2342209725440477e-06 -0.6729850524793721 9.239320083662873e-13 0.3743709133559321 -0.6263379906454641 -9.605947949598103e-06 -0.582533003910502 -4.868139584404662e-28 0.6643536440975684 0.6512422920178059 0.38176758336219 0.02965853484052874 2.007767775939078e-09 0.6028116938649134 0.3554730156916219 -0.5112752518185358 0.24737186317669246 1.6485488956640556e-13 -0.5027930332129239 -0.5652989637749195 0.387060007751438 0.1293249996729288 0.5204033987002681 0.3864220034025155 0.4536650405908472 -0.5292643487188575 0.2415131781483027 -0.6615422806119805 -0.6238880956631264 0.34694570051968693 -0.6700283252047518 
0.17356321517930984 0.043049284597488115 2.4021303590915032e-06 -0.042712213392683725 -0.4357459296360571 2.6936074990355995e-16 -0.1546877783035555 -0.20554466170420702 0.19152598194663617 -0.014678273318640864 -3.406397130451513e-09 9.460582755213333e-26 0.21627871553747907 -1.1487606956348995e-07 0.04313826768679258 -0.3437388697451839 5.592262965137903e-24 0.17193908326281626 1.0588171895300563e-05 -1.1762416819076467e-26 0.06245435328269528 -0.041872072360202225 -0.038970859598287444 1.2266360729874018e-06 -0.0024527577984687545 -0.12439862386850098 0.2536934336976051 -0.09841776404666548 1.4114589727651258e-19 -0.43903340294299864 0.1551495390641695 -0.0821278052224922 0.16799123580903128 -0.11243685295851871 -0.16056055658841278 -0.07563286214851558 0.2897806041302022 0.0656107785282798 0.20593379453439464 -0.3606147462020195 -0.15053041851106566 0.27635291810968493 
0.054191275252681616 -0.1889893488395446 2.2345863517970133e-10 -0.2995530706691576 -0.10220166685840018 -2.129808322111022e-28 -0.1280728227356174 0.02639463235722069 0.05288523424345622 -0.15274664520207723 2.954975506697185e-13 -1.455436244270439e-26 0.2647258841168349 -1.6066372744983427e-07 -0.2501046548452462 0.2785864426943259 1.803513051698902e-24 0.2390246719102574 3.05122702625637e-08 -1.4001452011769923e-09 -0.01376109685348069 -0.13295406648937028 0.0006861737192132855 -4.95902296785004e-24 -0.05378884247737982 -0.17602598153490764 0.06747772855353723 -0.2169530036787696 -9.183420978581857e-08 -0.025004593223038205 0.11461371224548682 -0.3655805323013754 -0.004041640455898963 -0.3030682518609535 0.008068115626317453 -0.3308656485007296 0.09614434264165887 -0.08613575654709273 0.33753344965288906 -1.1381317196980147e-12 -0.3480800314638973 0.35842285819038516 
-0.09012278689417244 -0.12570681762194574 -9.119699376352508e-28 -0.004167065450256343 2.3189800968212306e-23 1.1345183846344713e-07 1.0477225381137243e-14 0.1534277024035951 -0.013223654832919422 0.1143331458380942 4.1549971251149095e-28 -7.492313910551795e-22 0.1452555163649621 0.03675140310410567 -0.10108002165245221 -0.006014668977346879 2.6062283145597253e-09 0.03665309907695875 2.250717760460509e-06 8.407837608469366e-06 -0.20516074679843094 -0.10214668251616023 -0.04482754660762149 9.398564963906384e-13 -0.012642576062830436 0.24952957390586442 -0.04606182727544172 -0.11059484025392552 7.396658799801157e-29 -0.10397713854850504 0.08318180370206339 0.019796739520467926 -0.15227586745318467 -0.05060105804581712 0.14517888393956008 -0.17289462031477287 -0.13648205908858402 0.07674236921159867 -0.09497305319046617 -2.844747647441603e-06 0.11072767505874141 0.007652733280538283 
0.29603644751472813 -0.2433843990650779 -1.1262591270166709e-06 -0.284188813339085 -0.03180265138543652 1.6181861162310462e-12 -0.13024584212296766 -0.22483104863012135 0.3737310019777508 -0.23032110309633802 -3.52634590649382e-07 -7.392410351806688e-06 0.32601130439414255 0.028324591918184785 -0.08171598353148657 0.01605245439841482 -2.206544076590861e-19 0.26400245210806217 -4.451246835402521e-06 0.06102027348579237 -0.1487188184302912 0.07784402138808413 -0.04697144555365807 -4.32195809164424e-09 -0.020063825441141218 0.024406944359727865 -0.08889104110984002 -0.3045650803538651 -6.890834028607162e-15 0.017358295312731024 0.3935806923787924 -0.17293472478824334 -0.2041830201348227 -0.235688722699057 -0.3173936568632321 -0.045421318750233586 0.36823784040000795 -0.21549979187813428 0.14153644795601064 -0.006767055682036505 -0.2650181663043512 0.05820569780843897 
0.15804031964986437 -0.12308348499716523 -3.3184340854640476e-11 -0.2354164431353061 -0.17688026707732293 -5.427482388303936e-18 -0.051869380640813256 -0.21427046130992017 0.21445990553171382 -0.3356202417467781 1.679894863587812e-19 6.592222786654328e-13 0.34340292441549114 -0.00599131509261906 -0.23921092985364517 -0.12412541317500517 -1.3864956600118264e-09 0.24512286804136207 -8.600421254101168e-12 0.2682757171120297 -0.2565948720219473 -0.23720774995764649 -0.012433766890615844 1.0567700418464523e-14 -0.29800194142949127 -0.16169956992082032 0.22516443853243837 -0.2599078159758822 -7.441241085241185e-07 -0.016930522253601362 0.3207521850994858 -0.2871840349289661 -0.06329262301166845 -0.06500621282020265 -0.2505073588203969 -0.3389488559715309 0.3730246077095997 -0.3406070302149591 -0.03205000813333328 -0.342652053209353 -0.21803485074679232 -0.05363657743791849 
-0.03347862147326809 -0.0033729013368398184 -2.4489256103041843e-08 0.2624998275506137 -0.22833107207750988 1.4204002607047443e-14 0.15073183061586828 0.2190662562178097 -0.21349305981885908 0.007971567660612269 -8.952747545480363e-06 1.5674365568638127e-06 0.08036995355056915 3.7640246136706144e-25 -0.09229500735020955 -0.19898434684695487 5.2836230196501e-26 -0.1620006936975968 2.4127689254083755e-17 -0.01579123598892314 -0.04399021292951831 0.07774358476682908 0.028017062607735094 1.972143605074227e-28 0.26666751538634004 -0.07439078144833408 -0.062163990552719796 0.19222034088628237 -2.124721579660325e-25 0.045075237231461084 0.13918038113974532 0.19902574346679452 -0.23490187792557315 0.2657091899494139 -0.1312402537749182 0.11835847099044186 -0.11227183799592623 0.2089224344982581 -0.11391021762765108 -0.15299427112359193 0.10480528215073918 -0.2699038047472781 
-0.32688919784082204 0.43095855135693034 8.278868027293022e-08 0.08354979814287106 -0.25527666258902154 1.552902425420512e-09 0.16407273179362916 0.12081336932107632 -0.25738658521544067 0.33979684810653843 -4.571517887183558e-20 6.657799402007356e-25 -0.1984285662004817 -7.860349243812649e-12 0.027013848969360436 -0.17461685513320774 2.0128577037798903e-19 -0.2530302240621332 9.340277447365729e-24 0.4234289528187359 0.1318805727064301 0.3038400365495784 0.07094709453713068 1.604047842822394e-22 0.40842394595923276 0.26713015106224575 -0.4422819497485443 0.27182582425029667 2.7410679765085992e-30 0.042864140738110755 -0.20993253901497017 0.4025795725005961 0.01725565097828018 0.07750202963019255 0.23562058331605504 0.15711669307858508 -0.32041722459181365 0.3491683231104069 -0.3458161691980518 -0.3050474166574769 0.21865443464179077 -0.31628166948356257 
0.41613396377362616 -0.4854673608592747 -1.875214050949589e-27 -0.1404155431867638 -8.383426094812312e-07 -2.7176109805626576e-07 0.005677806781351679 -0.28785342186673285 0.3990668134093801 -0.408114937373146 -4.801262981319654e-06 1.8130395725316022e-25 0.25240371750215723 -1.4881057364332643e-05 -0.2137332008748054 0.1779004314171906 -4.2618628043824364e-24 0.24819352752337115 3.1440822697587333e-27 0.13607099658962474 -0.22406716290826373 -0.1814229326122359 -0.06663870748116936 5.181410393427642e-18 -0.39484122421271095 -0.45232651245016353 0.09150287382668694 -0.11013803241977943 -1.4209114988396723e-09 -0.026903808035111054 0.2253781242132601 -0.32900966463129927 -0.07487753706216516 -0.2624282291983357 -0.17520187561744038 -0.48436004754574796 0.25547322547273243 -0.13210116864581056 0.4338165822637694 -1.7730929700176526e-27 -0.07472036175703307 0.40487292566998107 
0.3524562521016509 -0.48223657789611024 -1.2828327808067243e-27 -0.346269489803398 0.23586557144530887 2.7431168078964656e-11 -6.0052606291878015e-24 -0.37564218239760583 0.47034854170672896 -0.28829128263552833 9.254653689440149e-24 -1.716386349084207e-18 0.24115056711141877 -1.2680169618052132e-06 -0.356738952454609 0.6000694214836709 2.6524556129937256e-18 0.19483135415775202 -8.784213122082767e-07 -0.47167515928611903 -0.3693148597793105 -0.34176280388244246 -0.06801354658287052 3.796914192803525e-16 -0.2353163784970245 -0.4497344754163946 0.406033578505933 -0.15791468726285926 -3.404240964592904e-23 -0.041256123126845096 0.31426430478135947 -0.15910001926697098 0.2454488545593569 -0.22710235305442394 -0.23614205184347536 -0.5125060066225539 0.3737650285342328 -0.40152102374971543 0.30989229993098977 0.21072145667637487 -0.22930575940190104 0.21773468699426865 
0.10212484007279682 -0.183379827980089 -5.506416491860982e-18 -0.0013126936814696706 0.13045206488346892 1.3540726204353153e-05 0.18148840053536663 -0.22690751413351234 0.3300853177535255 -0.09316010309833941 3.547240967351923e-27 3.152410353308022e-27 0.3404793852910162 1.0743032358074544e-08 -0.1253293276659855 0.24111636860622712 -7.718874298732126e-09 0.17506012465562537 3.1541410616303247e-10 -0.578704361220167 -0.15526651984685694 0.16564451076286726 -0.05888987759256958 1.4589226882473228e-26 0.03080689723612449 -0.2924756769790873 0.34948153463504356 0.06912432851242263 -3.5341923616789876e-20 -0.146781816598674 0.3096807019008342 0.055546832804975244 0.21285395165723534 0.0348480627255578 -0.10754785997308602 0.02413697084164894 0.07238196168382131 0.15089383972142792 0.006643565107303714 0.2702384357799135 0.0013041007820078403 -0.044327909149362146 
0.0771812983519155 0.02008096343735719 1.8550505387805886e-07 -0.042136690816802276 0.16356532223357634 6.357691704261802e-06 -0.0881276180549336 0.10138388331529471 0.08465108838293751 0.0778751798198765 -2.0780155232771139e-22 -4.6825202601719215e-18 0.1841825939311192 -5.497161047541323e-13 0.2662937972227534 0.0950485081236953 1.8324981199486825e-06 0.14909367958672526 -1.8555837142800145e-08 -0.11926319234940902 0.16665755456006703 0.0086446795070512 -0.05147666232674658 2.2185092800428337e-19 0.22693298781465857 -0.2338427597770507 -0.18716874938161568 0.16949185034107958 1.7891213231317552e-28 0.13545584145171535 -0.1040241142491794 0.14639989463913158 0.2151566309022007 -0.010066681913294018 0.22792397339538528 0.04756565754142383 -0.10471104408775989 0.19594921559512857 0.20031701407877267 0.22424495814242146 0.17005640711993486 -0.029700656556628197 
0.02071199481651664 -0.06163547089133366 -4.23568026571485e-13 0.002618837353914675 -0.12142740434963473 -8.871089500448712e-09 0.018735236579222606 -0.027954705451143216 0.14788906733924334 -0.019400627534404913 7.484393603995605e-06 1.466169403080215e-27 0.2675898047590087 7.166610038996907e-29 -0.06579450612387559 0.09638003388548343 -2.5895328724812563e-07 0.307734937264606 2.165602573869141e-09 -0.17437665351611592 -0.11089753386767734 -0.05522531850333461 -0.023773771466771794 1.6485560642349771e-25 -0.21206025377154497 -0.28680567127621426 0.0801629873739479 0.045340483499656595 6.053693551591201e-09 -0.05346648389314203 0.11113383769128517 -0.24282489868808568 0.08313797993910521 -0.10561944532722885 -0.23390389357635724 -0.23361109091210366 0.3647911296396973 -0.2924059680236014 -0.013906927699093349 0.12671743490554746 -0.027407432988088027 0.22366126306918982 
0.48416343642905696 -0.3331723894005097 -2.964165887837739e-28 -0.44964257244147204 0.3846128098796297 1.8639526205161802e-07 -0.09880232717011236 -0.4724640677687247 0.6847786182716747 -0.5523615191025946 5.300704423500103e-06 2.234127917772737e-21 0.3708665519564969 3.0145393768440724e-11 -0.23957360708058392 0.3436244254770782 4.1342764286916476e-18 0.2459437274421253 1.1201194184641703e-05 -0.5853585913423853 -0.7060264759228755 -0.2291165077925747 -0.05694161458782084 1.577918947532273e-13 -0.6185408457509975 -0.6456633489935916 0.4891031632067776 -0.4894257969833524 1.6747434058331114e-07 0.0679566484349662 0.7243866008532157 -0.3592688760534503 0.022994238365814833 -0.5377114519757776 -0.5507498746072409 -0.34767904033649294 0.44590346911327305 -0.49522336567755176 0.5882564791382445 0.51166389710359 -0.4432361195301979 0.41103343740369314 
-0.9328803489151839 0.15935820992634817 -1.662085965983965e-11 0.0900641396803399 -0.6317455558577644 -1.3736342840956935e-06 0.18350940370534746 0.45015522667201685 -0.7664068256155465 -0.13015632086828202 2.9101114292315824e-28 -0.03596799203439327 -0.7213731015181963 1.5617334801140316e-20 0.2415304079779265 -0.638489351855797 0.07311746820069151 -0.38181696925160546 1.034376193043238e-05 0.4369788743295425 0.06906833224610916 -0.13387834041350644 -0.00534942743138354 -3.751445234790119e-11 0.0023505528373199106 0.2787073888408896 -0.5065278399468802 -0.03344279853422864 2.989851169505453e-23 0.24822986718272352 -0.7900272450275234 -0.027631160822740888 -0.16236418668325128 0.15441512471618413 -0.006069969263822121 0.1659816004539657 -0.7723003361150922 -0.053659034887604845 -0.8868136498638145 -0.8509942488323337 -0.037075913398439304 -0.7026411569009863 
-0.345258259295823 0.3261884625395752 -3.820027180697256e-07 0.19312398236333694 -0.6111331281102932 6.853448116469343e-07 -0.011461381634519322 0.5257533417178045 -0.5915950176584035 0.11101536345582867 -2.1047211349237117e-22 -0.12187471067110191 -0.5645087848722659 -0.014406909679746489 0.20463901387469396 -0.3235576356447488 -0.10473237329700387 -0.40407900144669145 -8.703040577837491e-20 0.45666080570533174 0.060856448944891756 -0.27627068342851896 0.05759098791248926 4.267972940229695e-23 0.2566086863697715 0.1820841553105807 -0.4547616017694869 -0.11359057659158622 1.706183174713219e-09 0.23305545810360134 -0.4907172616514774 0.09099895198434971 -0.2527439250333371 0.3457286510058435 0.07802053749464996 0.3356687343642014 -0.34290870993016354 -0.21037542788543404 -0.5800483508174686 -0.8125807681272733 0.06231616151840735 -0.43797073103214645 
0.5163903035737846 -0.464453640523598 1.5588489033347763e-26 -0.3626865653692582 0.47516867590246076 -8.473921654084317e-10 -0.135009153153661 -0.3771012290859391 0.34595073492762607 -0.38008030316491526 -3.5569913831918206e-26 4.00176846638677e-07 0.6038575815201531 -1.523377666633557e-26 -0.4438129024339208 0.3665150148444658 1.8127760894747898e-22 0.4445908039583595 5.752653875130454e-07 -0.3205795196948869 -0.3916067078654348 -0.25318904351795524 -0.05398869485639436 4.344562783630283e-22 -0.19894189382039013 -0.20888819869261754 0.5051014310232499 -0.3093073505179587 -2.608728782363083e-13 0.05368843211508805 0.6418218266826626 -0.3457898543878526 0.06877295991328362 -0.34184736509596797 -0.29697177649338524 -0.4796600744639761 0.451549988913422 -0.5728109757017564 0.6163612228808947 0.4853009858995163 -0.5054221629464409 0.4998632167388786 
-0.41980478101251184 0.07150081334783344 -2.0616995670685908e-28 0.42986499162728414 -0.47835338596717025 -1.7614690499315309e-06 0.14850423426390674 0.31732516665893074 -0.1419569921053564 0.2871421909408746 -6.537172289939873e-26 -0.02364077135694307 -0.26869791679899274 2.2613316975327183e-14 0.3651965865796344 0.035758371363857254 -1.2481520763729941e-26 -0.18754480127775114 -1.638736534566437e-19 0.2480942854365446 0.2092616204836303 0.2507579140216529 0.0016440543085964768 -4.610736125802045e-25 0.1314862042395598 -0.004334396510610862 -0.13343441146552895 0.44440380550804853 -9.647449600331202e-06 0.3522484923372114 -0.1666475134092542 0.3460886563557614 0.09762981316035912 0.2873693191684768 0.27772586983556086 0.3879645045195778 -0.25512407589822733 0.25995379196515167 -0.36946403623722196 -0.4211720853203748 0.08618657706854709 -0.19334043924295397 
0.8064627565019 -0.380941977654932 -1.4045578749540998e-05 -0.3573384110239833 0.550533052802151 9.670395294119933e-28 0.1744019693545197 -0.6015470138915611 0.538983118256663 -0.30695013279698824 5.852977689926468e-06 -0.055724286857416726 0.7980087364593561 0.03501480722044452 -0.586149875720455 0.3544973017122468 1.918987268094203e-09 0.46395847165259224 -5.326034012427315e-27 -0.7055500151490102 -0.7078172864006292 -0.12458492091354971 -0.07470609243467015 -7.785837952271305e-12 -0.2892120287776952 -0.37361053506612574 0.5871477833248907 -0.3174267125882139 -3.000469695568896e-07 -0.2568487950322462 0.8168643254414621 -0.4538372948857083 0.266338019456711 -0.3166523121649152 -0.16015055473368606 -0.47416207227396207 0.6949578083644943 -0.16719106871403358 0.7479441654973439 0.567951829862755 -0.2839054895746751 0.5252393177525237 
0.5047154082059007 -0.6900768353499217 -1.1790387566978103e-11 -0.3875017147375319 0.7500546144730974 7.273339186251366e-09 -0.17262511470134753 -0.8062753082679734 0.6398997545336338 -0.5344755110260522 -1.845892818626927e-14 -1.4511786410254608e-05 0.4089240680634629 -6.452202598269965e-08 -0.5921544849520002 0.6060901495185147 2.0180682876317987e-09 0.6178761265522433 6.432192694545539e-07 -0.5793784334347877 -0.5028007417151316 -0.4191342853956807 -0.0815606823023385 -9.703172638767919e-07 -0.5555415879594591 -0.39561182434266334 0.5744959786594844 -0.5649324842142862 -1.6227188966534763e-16 0.03188499515548295 0.38510332155826277 -0.54050431950843 -0.005697153860148079 -0.6833820087447804 -0.2834946004940218 -0.3803519514149644 0.5550924506964227 -0.6147905879425012 0.6094134285263577 0.6777209293889196 -0.28791985391725516 0.33524762314718104 
0.14114870313898978 -0.05766795481512766 7.009843686141499e-25 0.11979161458390024 0.1439404472106804 1.3271166902757726e-16 0.026919260260802963 -0.12234849067249243 0.1830660120360167 0.14836132241106542 1.3540715014686815e-25 1.4549805396659268e-07 0.07943746869758536 1.4110538335230863e-06 -0.11558882895751971 0.05352230526927474 -5.44892468634859e-07 -0.06294283715553649 1.5243417084260646e-23 -0.03412797665045625 0.017489967587639987 0.15112514820806902 -0.003444065713693577 -5.5134039098932216e-09 -0.01580174144405644 -0.032325428738804604 0.038738294040417384 0.1972510839429877 -3.264707731433203e-14 -0.39096094414039206 -0.10174668917997536 -0.01707119534431277 -0.05282858244383476 0.06373551321936327 -0.06553230247320486 -0.0651491779832652 -0.04756711073969991 0.1897719973447485 -0.1602943596459386 -0.15693877020928806 -0.11545511099022919 0.02504789715591703 
0.14985597354372854 -0.07389230084230661 -5.018446143379812e-10 0.012432996177046643 0.17124311462721847 -1.0211850290642597e-19 -0.15492636369311558 -0.346081669755353 0.12480416559642933 -0.08655903020647389 3.324459823950633e-19 1.9851816078281093e-08 0.14223338844805727 6.798082073859237e-12 -0.024841761429181944 0.014848853183205899 -6.590441053093674e-22 0.026753983927812752 -3.282284546848043e-08 -0.40868200419523576 -0.06837274042896281 -0.17162683610969093 -0.06297301032515527 -8.001057802565446e-32 0.052378810941079 -0.30978192690818507 0.33325387267389417 0.06718601318000125 -5.6034051996568453e-14 -0.03596765404034677 0.20744349730837242 -0.03422793016508122 0.0237185805693891 -0.11985945007747327 -0.20664605986562745 -0.1240045414083567 0.0893128556783251 -0.07520138419710078 0.26036984517356515 0.4025601121709331 -0.10874391631550785 0.22539967665958308 
-0.21674065194268594 0.13640088585130092 1.6769302512636717e-10 0.18672070817123665 -0.19671341211490606 4.005177660896312e-26 0.11575146857101469 0.21931570194055294 -0.21216801830552098 0.12362759582431866 -5.60074517065498e-17 0.09493653283838256 -0.3418404639205268 1.8501647339799984e-27 0.37424304440499656 -0.27745774148998076 -2.327838028597135e-28 -0.08172761941961346 -1.667785307170414e-27 0.1486890332487057 0.1490579977251692 0.41493819231943624 0.07098953815817452 -2.143659679944907e-19 0.11625367615889567 -0.19275032141373566 -0.16810573601308104 0.16659304282904283 1.6803602406196006e-27 -0.3682249589761444 -0.06781838549639152 0.37463678295042935 0.30337819894704177 0.34573959556496353 0.12047878202795852 0.20056974405607061 -0.3247390244339379 0.2120793354183686 -0.35496070727981677 -0.16332815043903648 0.38269198930792325 -0.07245035353134775 
-0.15456235980906827 0.04136344891561987 9.159434936099427e-21 0.41319666671752947 -0.00954676912304787 1.5525591988509484e-13 0.07534815834960636 0.1421363353784906 -0.03480910423517238 0.11612414541521612 8.512784141289121e-06 -1.7414665982703053e-06 -0.14728074165467495 -5.4201500573563666e-18 0.4008690179597992 -0.038770783057429876 -8.530991345802453e-14 0.05565954476599521 1.5622286342634772e-07 -0.20047102908569997 0.1425547392899529 0.3850557513141744 0.003773200053152473 -3.550414931281676e-27 0.25800612761313696 -0.2853900386424833 -0.08793579614271264 0.05468954006491148 1.2566698086259802e-18 -0.34413661737405593 0.038639414252394394 0.11494901042434502 0.36575509533874834 0.025551852844770368 0.12761576484077422 0.30426087051201345 -0.07564984603742231 0.3455303560496297 0.07967005344883499 -0.12898288246983003 0.12016366819558753 -0.30762189949149416 
0.011536856495938804 0.4200443607905312 -1.0364527395244599e-05 0.18517131286006988 -0.13311476819792406 9.34269367635252e-24 -0.13791655070593778 0.18211836544294352 -0.11361676795810241 0.34785935099378534 -3.260047235402066e-10 1.6208960410682095e-21 -0.1495404519202919 1.16921927712482e-09 0.22436926471162624 0.007129288429803276 -8.822062294479294e-08 0.19059212355276373 5.247487930087249e-11 -0.12550027622832371 0.3853061512356847 0.10519487855264344 -0.005578830802435197 -1.2317989028686946e-06 0.2878865608215757 0.02041231202736344 0.010496138602126812 0.209826942815979 1.911456573564587e-06 -0.40484979868321885 -0.14369729684405957 0.09620192490695494 0.2453082898678809 0.21609958197702872 0.15667906640594242 0.17708137334281537 -0.2647944819000965 0.41846005082978577 -0.08615619525618665 0.058593087613940026 0.3357517671480737 -0.06406085480714262 
-0.19688411130921607 -0.06660025556388482 2.405024772996041e-24 0.06254764776996334 0.06460646336472169 2.739449860525502e-16 -0.12610760791006848 0.08293275134947001 -0.2079108405131798 -0.05187892696662582 -2.363604651862803e-22 3.187862721124388e-16 0.10028624671228206 7.930400753476519e-11 -0.11906832303299707 -0.673269132559852 -2.582286184338093e-07 -0.021119209557673227 7.132371002275383e-26 -0.16338918249957282 0.2678525543709026 0.4180923543654932 -0.011499186287818732 -1.067245566338194e-22 -0.06871802756925503 0.4230102006165852 -0.21785706615316608 -0.10367014022520372 1.2588050597590464e-23 0.03224413327645472 -0.10740518337674924 -0.04976413071890949 0.03249285931085903 0.004654187464697444 -0.1481996725321979 0.01255892349373876 0.056568126050780196 0.13715800409336731 -0.22245895397448492 -0.10587426003351726 0.1159623222993012 -0.018595897372672202 
-0.5750064063035502 0.21456923010437032 9.286899141243407e-08 0.38832924358944393 -0.5336207261316177 4.4462696396010216e-17 0.017950367345043985 0.5481272064638064 -0.4771957390628716 0.23779290080953322 1.0100779640400887e-23 7.133416391304181e-07 -0.48045159287448386 -2.751645956704265e-07 0.11749072720479098 -0.2788455391070957 -4.825654099011947e-06 -0.28494084101526773 -1.8593575767520526e-19 0.3573548948163892 0.49058922667941174 0.2830386507563806 0.05224885546467207 -2.1981540376166066e-11 0.3920947826388271 0.35730761136319344 -0.27772151281170804 0.2842940631811685 -8.137269617564357e-29 -0.14183497834408842 -0.38415348070287664 0.17393544159245472 -0.02440949080754924 0.30863379424645965 0.31219184380191256 0.3041121159182304 -0.5206167746664282 0.41781777065828424 -0.20706241858704696 -0.27268413050757906 0.11994791246440525 -0.19116123383546516 
0.000612437642859523 -0.06026361313035356 1.4175759965324214e-06 -0.12375482402176685 0.07248130560586032 8.711319038379122e-12 0.16073930133102776 -0.2521443065768384 0.019138921597193704 -0.14700538810445524 4.967171080575356e-06 6.272736600898128e-26 0.25036028510036973 -5.529779312346622e-18 -0.19228722129401205 0.30059208654358105 -2.9749068484675463e-10 0.12594064870129543 5.684583628382481e-28 -0.5134400706105327 -0.14175050286440746 -0.34301058747282404 -0.07311940740393946 2.0494515710016612e-19 0.018612427472137087 -0.03716234725179817 0.2759078660872057 -0.20300252809501731 1.699721647264581e-06 -0.3389835958814542 0.13138836397151502 -0.12287804139477157 0.2839362724639916 -0.12818289367422572 0.048150901593082614 0.09396073368837239 0.11391706167089442 -0.06962475519642995 0.019543481366336123 0.3737706134306 0.007759960174781121 -0.08627949033663841 
0.003237362727129935 0.014189333123748411 1.2840606126179696e-20 0.11893148741120022 -0.2568130003493118 2.3948940298051237e-12 -0.12405466667445382 -0.24308948195864727 -0.07225054465316373 -0.2400059180419232 -2.558846103820992e-26 8.943226597406636e-21 0.07745508440886482 -0.0536021260448713 -0.12922414963948367 -0.23536334216205598 1.8056278878049038e-18 -0.029012354358663537 -1.6050536171247632e-19 0.3048098523722025 -0.2801895170380707 0.017422298619942576 -0.014426915910727938 4.107157703006651e-28 0.0991929387268975 0.0752548602030981 -0.19300207973239486 -0.2315405380303819 4.715880300058445e-28 0.4202719700202811 0.09867767127917465 -0.1546294552413007 -0.0930756070122927 0.12495594490023558 -0.23197955470637113 -0.19815363660572957 0.06883214449612832 -0.022071943330152596 0.07854730349363215 -0.4953281671470628 -0.10032138688379953 0.15706330423722656 
0.29488815489136855 -0.03397731576965433 3.781083231850314e-09 -0.06959557086619829 0.17472893779225512 -6.046721805178461e-06 0.028241436839711618 -0.29245721095440586 0.15884971342162538 -0.14475286251314248 8.334555904392673e-27 -6.1182823041425615e-09 0.19094174245996928 -1.3876076393307407e-06 0.04200347161952274 0.6181834179361089 1.5867618993201495e-16 0.24845445654511614 1.8337296448027757e-07 -0.11340529422274913 -0.2450761996817521 -0.03711407752204264 -0.06475125737804086 1.3432525722200194e-20 0.06397921003938338 -0.1037740319725809 0.13560751903503784 -0.1973908185873569 2.6595361499441575e-25 0.18627907268157246 0.02269800653180313 -0.15750138155716406 0.09111988027330843 0.0057555611651528595 0.08336906800315629 -0.2672304814018878 0.33024269521659133 -0.0770182434187444 0.2852760437099101 0.4109688208208803 -0.21610847155424437 0.22481901711667546 
-0.09622125955351683 -0.20724203501545024 1.1226710701245252e-15 -0.033342022361459354 -1.556071441311367e-26 6.278330600831077e-11 4.817360998601772e-22 0.11302832159782353 0.09270062144540817 0.13106226888699873 -2.9069571544597205e-15 2.072212852210333e-25 0.14094030223523787 0.05126389042905382 0.024939667620449184 -0.006008063053370705 1.816079223875863e-07 -0.10358919788544606 3.5118405136169534e-27 -1.826291237227156e-27 -0.017693715785130664 0.16475074993264188 -0.04477900850550453 6.193094920408932e-06 0.03893946849742674 0.06472671759822579 0.08559522459546275 0.12253734541991775 -1.2847554771044497e-23 -0.10041600067406307 0.09310785168437045 -0.11873365424721569 -0.15908696143409018 -0.081610469952636 -0.19170475004089085 0.021709232466265518 0.13355672853903403 -0.08977450812060243 -0.11447323531090059 1.217783360334281e-07 0.010231203779684696 0.24448602300285666 
0.16114081728993496 -0.3922419283651045 -8.469680181815432e-07 -0.17962230803035625 0.21400721086999616 1.6597005722704056e-07 0.007196207027343595 -0.30791373498570335 0.1344092858181391 -0.2331210792931811 -3.186282766546038e-11 -1.5538164120804967e-10 0.49782142427698406 2.2937555612948794e-07 -0.47452075228172547 0.41202075416800626 4.5497465684111357e-07 0.287623379880573 9.260619959095702e-21 -0.22200600655381483 -0.24796901414887965 -0.18161026721914844 -0.06916629092889649 8.732514132411208e-26 -0.13961910058011068 -0.38644463497095993 0.31417508254055854 -0.15844185692406557 4.442833069703909e-10 0.0678556564143717 0.4646483297047572 -0.32293953031082956 -0.07119421193631735 -0.20035597361844876 -0.159171683248088 -0.13647716540562235 0.32002876644430533 -0.26256426378732844 0.32116846947850575 0.47655829964622964 -0.38344200563383674 0.40410647202491606 
0.281884347851659 -0.3512322953299752 7.246715501582227e-25 -0.38126361363950645 0.5962812978738404 2.7375529978552132e-27 0.009520434309893364 -0.45207446234695725 0.23501285353447723 -0.41231285855670763 -5.678899256033012e-07 -3.6035113565983457e-26 0.5010075150730938 1.802493437340724e-11 -0.31791760648750483 0.23068152390595478 1.4983569118482008e-12 0.3729562231630074 -3.69449861842911e-07 -0.53730168286425 -0.515661538023435 -0.2080460638940245 -0.062461194726278084 5.53491160829087e-06 -0.2624362345089965 -0.4488992799834144 0.37261512991493473 -0.47101129512874484 1.6085005061879814e-12 0.04990406009941725 0.5482756207667021 -0.2434971045364132 -0.06047456585461664 -0.5724741219561903 -0.35969267595351123 -0.28590735557968033 0.35512239419792235 -0.5452304904844423 0.5163304765476265 -0.014978502085951816 -0.5369167597123324 0.5842250665533842 
0.37625420432194073 -0.26036318726565616 2.2076980082077163e-10 -0.11366659286078175 0.17834357209158963 -5.710767646596974e-22 -0.11136833032294916 -0.2893156234531848 0.16640373109805626 -0.41332154291393236 1.7203289996282992e-17 4.996148077398086e-07 0.5623309026977388 1.0629377719165356e-11 -0.48681602021266324 -0.10892888557561366 -8.002702420502247e-06 0.16183788551880043 -1.1337977536213048e-05 -0.377597663582875 -0.25813074684079496 -0.008222673814084001 -0.06822479833726001 3.919835200383519e-14 -0.14620092967623635 -0.3854326223941993 -0.13018494379686202 -0.3325690729560878 -1.7254575059613756e-25 0.014805109042804857 0.4580445329444246 -0.36608857643102 -0.07425412655757765 -0.13080715665280104 -0.27186936860446914 -0.3377231160972875 0.20004878399174902 -0.43119850453015085 0.5154611848359968 0.22262680954693 -0.23443899079195235 0.30326349143151576 
-5.294999306508542e-07 3.9715020315295824e-07 -1.6188403092413107e-06 2.912337481174066e-19 6.618056632188173e-06 -2.7844621093280254e-16 2.1663631506434518e-19 -1.2927338948508612e-06 -8.275650121955076e-26 6.690534450012572e-14 4.575684018476101e-22 4.0260004646432844e-21 -3.562103802390986e-26 -5.425854252372067e-06 1.0169410179182826e-06 2.4681896072798552e-23 2.939672768602509e-23 2.134082827907952e-08 5.5652179705740294e-30 7.211192729645155e-27 -1.846617071203669e-22 -1.8599655687722125e-10 7.605809475472694e-28 -7.413293120988489e-20 1.482310597278201e-27 -2.545707094578567e-16 -9.243706703671599e-25 1.5377885495153713e-08 1.457173017938502e-07 -4.5209351190571274e-07 -3.291604943037708e-13 -2.6574836030300988e-06 -2.728325750247174e-11 1.5324323031631852e-15 -1.049518009705349e-06 -1.9377732818818386e-08 2.6170185657648168e-11 -1.1659620537621415e-26 2.978101882198526e-16 -1.188482589271224e-21 2.1734343790905703e-07 -4.829140317060183e-06 
0.0062116979674553124 0.20025403916805254 7.928966669818579e-08 -0.024298451018617627 -0.02249839478846758 -3.403365033503101e-07 -0.17146703184373843 0.18930872500745657 -0.2795548152138042 -0.030888955158229384 -4.935934514957772e-06 1.8563845230478157e-27 -0.0010993674328273128 1.2278498973557212e-05 0.04828256344385051 0.19923469793613313 3.74391749644836e-10 0.09917257943645097 -2.344945081752182e-18 -0.05063501729828512 0.2889121290116788 -0.04178524880862848 0.061786960225769835 -2.2939118138827707e-06 -0.09130062130789554 -0.03289297738586749 0.049420398338717836 0.08087379636821057 1.1469363189004295e-06 -0.21170381464098562 -0.1954666337916786 0.2216871471019526 0.13570927244509223 0.25175370553578924 0.2582536806430362 0.15276699871606778 0.05049228022682059 0.02900796066850535 -0.04475226543037377 -0.05822098674607866 0.11358108048610063 -0.20271887372402286 
-0.18205288785012913 0.2853188043204145 -1.5759969980905673e-28 0.37504239637846426 -0.5369554229455296 -1.7737035488220934e-29 0.11771240606256349 0.4148600472171777 -0.4147316564775499 0.35401075960579026 1.7640656348482347e-06 3.194669457070829e-07 -0.290509243767478 -7.279239540137562e-14 0.25630350727924256 -0.0584779567446292 1.6339151029810338e-23 -0.30644872349921487 3.1669343466468256e-10 0.19165625834100153 0.5603730257895095 0.2764263363390386 0.03586020894631753 9.276908248736128e-11 0.2762767054511344 0.43466891095989124 -0.28166774295674624 0.1089905915547576 -4.7248674025998787e-07 -0.12994565588451745 -0.3527597205868761 0.21681098012128727 0.16931101864892678 0.12969284715215967 0.3662231234662416 0.5388905223948188 -0.45340492460695736 0.345486490117976 -0.28983933162614206 -0.3522201878296855 0.2613259670653973 -0.2286450078174418 
-0.349211980070449 0.06375998553930494 3.9578666357191926e-23 0.05567216961718621 -0.3437130558072755 -2.6861056983999772e-08 -0.16669746213454076 0.30829596172608015 -0.2795004515165969 0.2622292837472461 -4.535349501633247e-27 7.503768836126601e-27 -0.19672606176481086 7.051856781557146e-20 0.367149223001522 0.16426183663760405 8.923047937375354e-26 -0.2333174301717872 -2.161156588448417e-22 0.06976079536438805 0.2626421159848481 -0.06656300443889329 0.0666162055412782 3.5880788884715295e-16 0.0014442844502781749 0.06037937023002725 -0.1349117240766128 0.31756153528091663 2.3185082444419967e-15 -0.2413737987615931 -0.21556648330198824 0.37660996394703783 0.1020252250639157 0.24163456573007158 0.005369596181709819 0.16980508703311814 -0.2613712468293598 0.21676915044096232 -0.06555843817022745 -0.4861635010659492 0.23944493752224155 -0.30003639749093836 
-0.3547264567936909 0.4641329238157823 8.323980576690873e-20 0.20174785363046177 -0.3674723623122852 -4.353864596616589e-06 -0.048168863110129495 0.3690973356007899 -0.27542820745466706 0.4086359641789992 -4.652032749572372e-22 1.5355455733196587e-26 -0.272711472517223 -3.4216060660350627e-06 0.4589506916403926 -0.09340364641475914 1.845713223459137e-25 -0.3426804512327075 4.397102830096544e-26 0.3202689013835723 0.2748351379410421 0.3718871328861527 0.03460287083277039 2.5118966549655667e-07 0.24147812958855983 0.29018183884374427 -0.2310268230012772 0.18546789037770967 8.113997982819806e-28 -0.1275458621987872 -0.4163068658717489 0.2804184287387127 -0.16116389822150445 0.2666994731328791 0.4427528404806271 0.44360686922561215 -0.48699392305036054 0.33934362034199816 -0.43706551167285956 -0.37591332695971014 0.1928134981066225 -0.2121780141906249 
-0.3834691024021569 0.14555848121671328 4.1022418254500865e-08 0.2957493755716263 -0.2718873318158835 -1.7394060643115935e-09 -0.17587345310395147 0.4224091902627935 -0.3819160970845655 0.21755999129955272 -4.5525215544059855e-06 -5.474430336312032e-07 -0.5712888993958893 -4.502957768405302e-09 0.33549559357379766 -0.41435841553254893 8.452641901401114e-06 -0.4866788526083334 7.665929669441812e-08 0.4348924767924767 0.5450407830941327 0.14605391072643306 0.06610486158410385 5.980692728032456e-08 0.33256116253186613 0.37528472511115096 -0.5550007519006895 0.3715972351622467 2.322897627980734e-08 -0.02391130567057823 -0.4092302249628188 0.25334478043728714 -0.008867527770146258 0.24006394647959878 0.17798146599931944 0.35489085795732045 -0.3521521139312746 0.3991999295353531 -0.2788004512170835 -0.444759959580316 0.38614518741413373 -0.2190277107595304 
-0.11701567390998927 0.2220401285835094 -1.5791388914690283e-08 0.02460805441449249 -0.022427793946782484 5.10971309434264e-21 -1.71683445351873e-10 0.1258195246164689 -0.06245095535735776 0.3350993661653967 1.3298979409911196e-07 1.1078487140609486e-07 1.3944026920848748e-05 3.621876157765403e-11 0.11496996941644619 -0.6671751045954204 -9.05568080701249e-09 0.3005762909941293 -1.4815779995795983e-20 3.6635573606038257e-16 0.3490208260962524 0.01937299268871719 0.05901572325072884 1.616749896848713e-23 0.2988565423138971 0.08269676549015935 -0.007610745516271985 0.21763115256840568 1.7518257983093148e-27 -0.13046203741925383 -0.01054296303274831 0.07487353037355063 0.33415691799458014 0.3774181639069942 0.3288117639468487 0.34239485010599635 -0.09866619632164558 0.07138654598120378 -4.827129572055634e-09 -1.3313316199816724e-20 0.30309106318067863 -0.0003666209011742999 
0.3096219843806072 -0.17125602234540724 1.0321415046659725e-06 -0.19159838696058132 0.2786488050761763 -1.4717601791449572e-05 -0.14079355557276568 -0.31911641721211753 0.141365033202246 -0.19873818573075464 4.312171868532463e-10 -1.0202884971542128e-15 0.03996012223481133 -3.4149105592756466e-28 0.046382242275463656 0.29946575844759116 -4.253806912126956e-13 0.270518497471524 4.314180803113689e-24 -0.4024642629351941 -0.011500153242291753 -0.12935772339640197 -0.036171184242359815 -8.744285485909706e-21 -0.22981025881006564 -0.22030462090938427 0.23572306378019153 -0.3018851091626227 1.5597177815827651e-27 0.024071020022864015 0.3902098534454334 -0.3508404215596602 0.08251256037545637 0.0023729598028604747 0.05833482460368311 -0.016748116652590562 0.27102498596060676 0.0084684779399189 0.07542209978139912 0.15888961327926385 -0.19485642187988805 0.07665400751418382 
-0.3567894313120591 0.29257145682553776 -1.0507445558633465e-06 0.2053501355022721 -0.2847667350863147 -6.972208128590627e-08 -0.09216185992872207 0.20288969510303745 -0.4634455519431062 0.3377567554232886 -1.2918979203139665e-13 -3.3674019715693306e-25 -0.3671068219957161 -2.4029347575221078e-18 0.1118682924487892 -0.2631858459583522 4.631912594157203e-19 -0.3463089808985006 -5.777342634366871e-07 0.1174923273291606 0.2074409956100641 0.014239934481592205 0.0678389270419611 -6.884960526760647e-28 0.4301711912819804 0.281383661387124 -0.09620853299441796 0.29280260744069775 7.5730211273439126e-06 -0.04475226548937301 -0.22898281746440213 0.21408807887521644 0.2777733603381925 0.22104072388592128 0.44222460568015615 0.4425108308762603 -0.20153105288610432 0.05910781106442354 -0.4501085917921958 -0.4773071822639689 0.36961376393539147 -0.4385881646886125 
0.25134426418760586 -0.2946186707659268 -6.046830240396203e-13 -0.20367068998503365 -0.2198504230134719 -8.44068535967864e-27 0.13254773183983568 -0.14139889814059892 -0.014293964013637387 -0.27846734420111957 8.413426713517515e-12 -1.5473387650152778e-27 0.12389783620843968 1.465135774409005e-25 -0.06817193162249645 0.3144680155718264 -5.706593206744377e-27 0.14982116678832097 5.792448210137705e-29 -0.30664765313492603 0.03827929007261484 -0.2061684280904647 -0.06767527763848379 -3.0626804157196415e-27 0.0687169049491663 -0.2660318135777878 0.5025178875473412 -0.3186591169746334 7.193256914451675e-13 0.28503361588470594 -0.0051662777045558645 -0.24288461854736543 0.07488816271113444 -0.14388417738003767 -0.08357402882496172 -0.3039759629539045 0.23500767552991886 -0.27439333951041156 -0.04561762148918868 -0.11084951306053109 -0.2898657467021411 0.13080223497996282 
-0.574970357538992 0.47237399863253654 2.101889338956961e-28 0.493290986638385 -0.44238039830930714 -8.80269665338656e-27 -0.07180075781092422 0.3750009139430874 -0.42765283810376487 0.28309113181625345 -1.4323743738074472e-06 -8.903763453266879e-26 -0.6014509476319786 3.869955764075632e-15 0.21955487925315623 -0.29086354754760074 -8.769559801243554e-10 -0.2525982309718832 7.338930228182069e-09 0.17479816611973154 0.25388178793826266 0.21256251797086112 0.07057839694050981 -4.523885400064084e-18 0.4320602176178291 0.45831646949024035 -0.3462915438819071 0.2570065524714976 -9.458288968826757e-06 -0.10318210466347369 -0.532076125494017 0.17073172267314832 -0.14172931794059734 0.21514491577370853 0.14640180615015294 0.21758225420099525 -0.3557334024740297 0.456600933843617 -0.4916888934301892 -0.6174887295437576 0.11047477448611699 -0.22487601234081034 
-0.5355769408085451 0.16828317814431254 -8.562262804548203e-09 0.3663512220480471 -0.49591625369649706 -4.740019621201481e-07 -0.049090799390264735 0.29198014151774354 -0.49018976781565027 0.35844197490257707 -3.523707467596161e-27 2.007474786418253e-11 -0.579925969555507 9.138400705276217e-29 0.1568089236921213 -0.290963692297309 -4.507693846165579e-25 -0.4665779287160582 -1.1091997824754202e-26 0.26872689650456544 0.6275844389671964 0.3801755773370714 0.06640940329898609 1.1535079327930315e-24 0.2657105444116543 0.3174842347115091 -0.2326751878566524 0.1851611522436457 3.047968068820926e-22 -0.1031819788126556 -0.3901866648438673 0.23988124212241715 0.03800109916742916 0.2535755541077948 0.31298347039122704 0.3402986585258903 -0.4086179638804972 0.4676435705910412 -0.32003786499235265 -0.5807848383126585 0.16565365570167256 -0.32981790137346517 
-0.036899256639877656 0.03473968005091065 -2.2466830049223556e-21 -0.03350191532029237 0.0009695610588608876 -1.3438311079656134e-05 0.05704906283402557 -0.018689277473735045 0.04689446788158149 0.019845412741110506 4.5928567358087016e-10 0.01626034226752121 -0.03637015692270752 -0.01764770582361652 0.19983875620299768 0.04016469021783578 -0.08251347030284234 0.3404886969946418 4.249979597812867e-28 -0.30146910146069195 -0.07460840013950319 -0.01983813598055156 -0.05423485724517791 1.646026530713905e-26 0.16502961352549117 -0.08736397654609793 -0.00036578829284130907 -0.07466813058665456 -3.5710951921947036e-06 0.0020723041177527026 0.043161879075514685 0.13592784821260234 0.32474748530542213 -0.2030987280519136 0.023185531261963644 -0.04294412328643909 0.18000473553488386 0.12532477169658982 0.09836638156702932 -0.005123969858397703 0.07162103108920481 -0.16873711088878834 
0.5895166444089535 -0.5061562469525425 -0.14010160152926507 0.0011910763446770667 -4.057816283786846e-28 0.5187819438054067 0.262474906752313 -0.075919337618257 0.3216736012935763 0.018822836166565642 
-0.22028830266146956 0.26873971933587354 0.3751029732375356 0.2990717753574047 3.72937189581088e-05 0.24063328854337332 -0.25443434661575676 0.04523023856308246 -0.14138150892056806 0.3433639228205985 
-1.33747182658532e-11 0.0006347733981297762 -1.668997769715484e-05 -3.323223033541464e-12 4.252747005184502e-09 0.0009383414597462199 3.0411441416920603e-09 -2.8927393776313494e-11 -0.001935925657163385 -1.4378425502682115e-10 
-0.003831311866091786 0.22289130200504145 0.3344056579639288 -0.2721946831171771 -0.0009495936944639646 -0.19444108601447124 0.037590254289176415 0.08938577578603825 -0.004133870439986337 0.32652068115174604 
0.4607110724774288 -0.5329570964143974 -0.47034550703131917 -0.30538239694631636 -6.666219679573705e-14 0.5083888559094449 0.2812590523686592 0.022435881565755315 0.3261368037381364 -0.2950750139018568 
0.0004865042560214076 -0.001192285881835441 -1.1636685019064542e-07 -1.756360319732977e-05 0.0029313818296299262 -2.3613355423944834e-27 0.0004169839344959128 0.00015645638780087558 -0.0005085276958544305 -3.0517168700766764e-12 
-0.008632137271667754 0.26842968342083334 0.33837567865784685 -0.09977113964585138 8.219257851830442e-06 0.23266269017525298 -0.15018439682772308 -0.1935126593672405 1.2286708444148031e-12 0.05459443232358981 
-0.3384363031813308 0.2657189888649607 0.008067136523253034 0.175666740817384 -0.00335237301277377 -0.025329367751068494 0.05294113011321784 -0.006993807960759724 -0.0975349537051155 0.05061251473151048 
0.23678667318652777 -0.41332345018590366 -0.11651381201433603 -0.007312653330752479 2.3733380435444973e-26 0.6158486950142246 0.5004352242165332 -0.3991962619491929 0.2429788233954613 -0.3712387434353665 
-0.2603694523693091 0.13297607792972502 0.2739291931338604 0.37103015657120725 -0.0013601549709305973 -0.13742363710567118 -0.22940574245792927 0.08215118201057624 -0.06132468478385509 0.433834169141974 
-1.851564945441606e-10 0.0015853897229753042 -1.5790834880109986e-06 -2.1285417308651315e-25 5.757551139326843e-08 0.00034165638301910663 8.111564983268507e-06 0.002142310365909364 -4.6813484238916054e-26 0.0006374799003007416 
9.294650458714694e-12 -0.16090776833290832 -0.25095752013039596 0.1346933785237433 6.845576104235592e-10 -0.10573515626614381 -0.0004833091394248943 0.09232788612191847 1.1498566321154299e-06 0.023502234986712642 
0.3966704018551033 -0.3407984760700497 -0.029415977561568343 -0.2653117600679229 0.0004937267862085018 0.4456285016845295 0.30662040135971 -0.12156721125407483 0.2560051330165759 -0.4818896939289903 
0.014810120178058722 0.06650655017172864 -0.15584007814660084 -0.10012421426568133 -1.5657154290689668e-20 -0.08107790085143483 0.03922399060588013 0.12907229112099283 4.344687546385267e-28 0.12077950263559023 
-0.2709345309745812 0.2177752214436776 0.13869468533603121 0.2787561860851582 -2.7249794976232173e-26 0.26976236386150165 -0.06482909599028336 0.3860591620382098 0.05714414611819058 0.029391804324897138 
0.276422062967935 -0.30349144774266684 -0.26438787747868436 -0.2845745047616999 -6.633539389433282e-11 0.312534708840843 0.3306524044876899 -0.260060660350175 0.3748529872371623 -0.25139389622698793 
0.21559574682217994 0.06879710185036554 -0.02972398107008527 -0.05694315379988765 -0.0010681588737074454 -0.032796035947200465 4.15085202205459e-21 -0.19210592801213944 2.2604807354432615e-05 0.14528982403180332 
0.3992983446306484 -0.040823104273279814 -0.019623676456042634 0.04541245487782512 -1.2622592444572137e-12 0.019230701781510998 0.3437847589314619 0.19360860772605498 0.034090451462064804 0.24081295594856328 
1.604304596473041e-05 1.9154492842323297e-05 -1.572479898246498e-09 5.544274984334422e-18 5.299331021202543e-12 -0.0003339224329763047 0.0008601464110621923 -5.2087211123904865e-15 3.2220800206114025e-09 0.0010564025185758913 
-0.31918691327977217 0.7134331589446734 0.5592591693481727 0.20361661483540908 2.3827254961777256e-07 -0.496615421621083 -0.5685111343311084 0.593474970317349 -0.5025885018099358 0.7166066607107895 
-0.3660264614727895 0.18229476949963147 0.3465872870457136 0.17149793164375432 -4.550655362538306e-06 0.21085863169868416 0.10294034335557346 0.20956272707002924 -0.09233951810783612 0.39014990766289764 
0.2771336160035517 0.28563156074673346 0.023354214831348922 0.3070929005880447 -5.451449239774036e-06 -0.01789208121747648 -0.1274659165635829 -0.1909669248579738 -0.04155598141804938 0.3647689718320927 
-0.004550806753497208 -0.017718701977637197 -0.025401769519749463 -0.01797064880598625 -0.00024959466624544034 0.022116554066856177 0.009138555408274426 -0.015828590190940746 0.06294593584812244 -0.01792499391055935 
6.00296916017282e-08 -0.00019435432799529714 -0.0005525368426100767 -1.3014492274234288e-25 2.3887579066505356e-06 -3.859802695489733e-06 2.9952943424964483e-05 -1.0093628338984004e-06 -0.0008146164569044096 -1.869884083580181e-28 
