130 86 1
-0.020181443680815873 0.06454138086194046 -0.08123739616820567 -0.11039883162704874 -0.04059098502628268 -0.199737974187522 -0.08873769069525031 -0.12011553806876375 -0.08037335209656928 -0.018010125335895244 -0.08953020255033058 0.024201705399040235 -0.06356614269258502 0.19390114633131647 -0.15496153907629434 0.006945664206039101 -0.06690774365734027 -0.04633896781430623 -0.17362383285711994 -0.052070358356198644 0.05630921710255416 0.10491177995689309 -0.0241408188572686 0.1272691855476955 0.1613901173195645 0.08543473388463362 -0.1939537276204865 -0.12206546213658855 -0.07729206736189417 0.15028743685616747 -0.21557210418080927 -0.03561170114769554 0.09308106381451613 -0.007995779835409016 0.026405102572245844 -0.07190176040839943 -0.001965116353593527 0.15226009537550753 -0.14683555593316933 0.031017061629006203 0.12211444756910747 0.03470272988589711 -0.1107233736477904 0.12076856653977533 -0.12770592957697247 -0.04104175569884061 0.0877911290521555 -0.08919801689468303 -0.09755900867456356 -0.15903345699099888 -0.17349046114421868 0.0925635578246264 -0.15451292783470932 -0.0692374228191818 0.023042342189639863 -0.222895553816111 -0.024960620746317146 -0.1552622260922034 0.006421710033932981 0.09489936262533169 -0.16894907168462575 0.014479877883297833 0.013655951976523547 -0.13921012203427732 -0.17556261030450254 -0.020888068264452973 0.009780692904177537 0.02004328705019996 0.0858266222580178 -0.04364538860004791 0.09442462787120097 -0.1004630985194167 -0.16668990189039887 0.0610783801106757 -0.08042728617517426 -0.17988534014772334 0.09821989808039071 -0.012043987540138744 0.12786481682620474 0.02305461355553061 0.06956083699263146 0.07019769746863315 0.1196873451543616 -0.04737054527306321 -0.12000168956094508 0.0927209997050838 
-0.06598188593920438 0.14850733549850614 0.16840943571808548 0.04192869824610823 -0.08132336104829721 0.12716682784693997 0.03456861610829562 0.0024677817341177475 -0.04152942228681778 -0.059642164363287495 0.07238825862535703 0.08537508789992752 -0.22711179863627795 0.06865545903349733 -0.11869789091062777 -0.07682695940837905 0.12406802616569754 0.023636841437059557 0.11604528564831483 0.015307643742583367 -0.17678291827632833 0.13692041346695583 0.1270454526219025 0.23475715204472924 -0.09836044360236486 -0.09500973792357968 0.11394285353729128 0.015862503836411627 -0.1372429796405143 0.13669105371785298 0.10804216824823996 0.15151891868343081 0.06831495465520097 -0.055567025176159406 -0.2277098093564354 -0.21422504403442907 -0.12584109548243233 -0.11457518575368406 0.1784472106547024 0.011956011270003437 0.026484038603365193 0.07156469282183806 -0.10305258676313155 -0.09868058856572597 0.06752423274993936 0.11822573988485945 -0.01907045522092069 -0.22728029788801057 0.1545062494962381 -0.0817419888110979 0.17004131574576886 -0.03155759323161673 0.13138093857483868 0.06855619530992801 0.041069762800880316 -0.10042472560645535 -0.1401403002786048 -0.14268473031510642 -0.2371204535427362 -0.16399959797595418 -0.09473981437740779 0.16108400745813822 0.018967578771462622 -0.11142182157904315 -0.17470951559404596 0.11060384507631865 0.02244978162689449 -0.08711218943968702 -0.09482450906701474 0.018244956605291917 -0.08707920460043314 -0.044557856450776166 0.14447840834912773 0.1083948751441777 -0.04839788686046075 0.004421000369811474 0.03269938539102501 0.10805063276565365 -0.040042543860236264 -0.16145143718238453 -0.15109589960644582 -0.015256188262074047 0.09875807186840505 0.01356956657575956 -0.04662224276120588 0.15625283100190349 
-0.01647468928559741 -0.048032170161800836 0.07941774636025789 0.03606475192140809 0.12546593173914783 -0.08039652457625224 -0.09830503524431747 -0.060330075956604806 0.036838487703191716 -0.05679660840338951 0.07001330009056292 -0.17752471728789518 -0.09323377723922197 0.1529639134986028 -0.12177505427274374 0.017954317665759424 0.009058689650371196 0.11879435330385331 -0.0941259052029458 -0.12771050027760442 0.07866907267425866 0.0736117559846069 0.14282842210227 0.14153999279910356 -0.16432295451358866 -0.09859301458446082 0.04339818482769891 0.1462247023125012 0.12937614260029223 0.033303231251271874 0.14160725265783014 0.05649768413337785 -0.04269041066576231 0.02422895271456681 0.034578724762486815 0.019983942900508624 0.12738550817698055 0.1265688340433296 -0.017922805604645285 0.1278711216705884 -0.1065105279719463 -0.1170683377713762 -0.13167008430199387 -0.008982023154241809 -0.1752446576838127 0.19093117527595202 0.09035064156232543 -0.18074194002946384 -0.09776834088683377 -0.060922141021227685 -0.04695483899430682 0.10159955375704477 -0.07538068205490403 0.10527810373107233 0.049329453034370176 0.11571178433741335 0.10919510278042599 0.13666565664602046 -0.06654868568361112 0.003922555010978134 0.12356712911777105 -0.047744797687179874 0.000541349981545294 -0.015174697008213922 -0.15809085437223944 0.04937269984463649 -0.02426348329414653 0.018364457906614246 -0.1375726154818171 0.11096873730511986 0.023029399791916778 -0.09650607062087692 0.07766317365776944 0.037971139486305525 -0.14190533613775574 -0.017463223529118638 0.057078193671047564 0.13443536944839574 -0.19791614134762767 0.1460556340421785 -0.03392364320579797 0.14387132791640853 0.02101355256035302 0.13056727963162196 0.01860212019351677 0.042848393543122504 
-0.12097995058323205 0.016535733862599055 0.019657411874574798 0.12728472633160684 0.08252894822007865 0.025948981662549764 0.08018095948139377 -0.07421474923350298 0.049675788579711506 -0.012514024919654872 -0.11198353831611203 -0.032970681873212226 -0.04729025738658395 -0.12019316283232223 0.013968380556698684 0.06696494109218755 0.1603360752589357 -0.01697878946612284 -0.12213094157771413 -0.0077957829266380434 -0.04975342083491023 0.0722531426111469 0.09829838801840887 0.12971564398046548 0.029237363052469715 -0.07200420751086202 -0.08383464489077498 0.1370322938642435 -0.021768505659459824 0.02065364592999509 -0.03335334648499694 0.03223753848694959 0.004863841469801834 0.05125156594975048 0.09834976731580698 -0.010428699201804167 -0.12878707444825804 -0.1000186803825562 0.06015587198166906 -0.12586435730227855 0.16149783993849032 -0.056203427821484436 0.13329342654335727 0.0365245310634443 -0.013163954859049955 -0.03417940754083539 -0.08434471389556851 -0.010067586608202927 -0.03158620196612509 -0.09016374786958178 0.01614768740224624 -0.02691080894894509 0.15067365662097906 0.1007687668941905 -0.054874706628775055 -0.09622072222608945 -0.03394832663482992 0.0021279252780151007 0.0450204223424738 -0.09619876570476324 -0.09420673690430814 0.06568466440356073 0.007165313297406423 -0.019864548364709862 -0.06162617602976446 -0.1451568601909195 0.006162181532290507 -0.047574209966529384 -0.08520135090236583 0.047789583031142314 0.01630747555570415 0.02924925902735929 -0.10471607108083968 0.11105811693886766 -0.05532605539037045 -0.13455119502764337 0.09569755595194725 -0.2520328239296722 -0.05466864434637166 0.148166817839821 0.08461689941711929 0.06788302409449266 0.1303586851922244 0.12195479271287113 0.019102577968584996 0.1202414721455995 
-0.18892013786750325 0.03467963646374297 0.11152690274251632 0.03866648175562005 0.12544066423364614 -0.14677900552735165 0.035422755548562064 0.05415474423091438 -0.07379249470878707 -0.09617340638336541 -0.026720719574275572 -0.10999823590937058 0.04387543653190159 0.016547634483484168 0.07400873934652756 0.14856616924050256 -0.06590066189677724 -0.11668034005335345 0.14760442741746954 0.007703085387772932 0.1550249876364246 0.005287431651872718 0.1566254082113933 0.0558166135684126 0.004363258992694241 -0.121761563326834 -0.11664148929121401 -0.12195954921332512 -0.11292659295234424 0.07598268722383052 -0.18535130176872747 -0.06401091718917011 0.10733986087179782 0.03944703182780122 0.0619759748626245 -0.11952802859294365 0.0017012620269530952 -0.011305154495912509 0.1747177466677305 -0.14834320393973155 -0.07797016465746423 -0.13051584308257233 0.0870765770153353 0.02039220285771806 -0.23116724501416522 -0.01404282243704285 -0.16272063003563644 0.03943066081610426 -0.0796125993463087 -0.1384841542202743 0.052463429763885225 0.11038231448369493 -0.028086755301401378 0.03498862288332242 0.00956102417425068 -0.012759218346091299 0.1476931938142152 0.09903058359252961 -0.1738288228558569 0.05496556343051481 -0.013649065901396664 0.19221957634733944 -0.09015963435213241 -0.07876490826717315 -0.1393766160932895 -0.07072783920956305 -0.13080032735200023 0.08042484047051315 0.0035870722986304938 0.01838089397442723 0.09495623428556817 -0.05826877571928009 0.11232111128398932 -0.0210098416861436 0.07359345127083834 0.00280698725835218 -0.12330932915430033 -0.1411896017443854 -0.07950601249935656 -0.13889161153445553 -0.05159264443512207 -0.15393172209518036 -0.12457074273607162 0.0578502662042442 -0.07550731933213917 0.08174180013977078 
-0.015905994782009474 -0.009413578980991582 -0.02795261178368776 -0.007613265779159738 0.11073928320389995 -0.01863857044393722 0.11447079789460862 -0.09547080301597725 0.06522198750686328 -0.11035076307862607 0.040117650506201565 -0.10144437389259829 8.669301668724294e-05 -0.14382687387019963 0.1495868632867098 0.10947145140025744 0.09917202460655276 0.13831726727577806 -0.07164753009029208 -0.0690228838181676 -0.10315524795807172 0.02353704019847013 0.13577627978090934 0.16322005334974496 0.07600058685947064 0.0778417744657957 0.13705952399375315 -0.05428002758575857 -0.05477569955363913 -0.06565247914485223 -0.1260958157532978 0.08100744345042185 -0.08928994314786193 -0.04649460408213651 0.07361342450524797 -0.07463439434307148 0.16036956628160765 -0.0776871235959456 0.006319190499868436 -0.04397736416311928 0.1372611490847037 -0.025709401729263795 -0.028951351274963774 -0.019345727845484658 0.14654556865707258 -0.09683468117161562 0.048673795598493594 0.08323691240241221 -0.09765286087974547 -0.011713451586545048 -0.03385064782478043 0.11919697610977376 0.011357374533150754 0.037144457664805064 -0.0064656841286175794 0.04353830743598123 -0.06896429845284506 -0.16251785648694303 0.014578753823826378 -0.06540447660358885 0.003280961278657779 0.14496517180200683 -0.024387202435485075 -0.08793499657982742 -0.024768079494359895 0.14439233091769751 0.14533533816552352 0.11430788624463308 0.11948817825452432 -0.08929578020386984 -0.10126259040662625 -0.05421905244305812 -0.06127707871638275 -0.10751647018461932 0.0204990406481259 -0.03616166293548289 0.10571190750638734 -0.11161318082909678 0.05711001633112595 -0.09048503403675578 0.01408763010890091 -0.048102724820732426 -0.0910450563471322 -0.07783892421604723 0.05954307937470942 -0.00020878605495781773 
-0.022200336776974722 -0.09723045007500575 0.10534999051109223 0.13607281035020125 0.16385702188513976 -0.020203173879640855 0.18193735814114118 0.08323254741152716 0.01466572852959771 -0.11507281961379766 -0.18608017010970734 -0.17806976135937463 0.03313497326151232 0.030607875666018924 0.15978925856818874 -0.1430250436816449 0.13541413914275746 0.0346703501848965 0.09873195181249672 0.06479638860584011 0.03179286678736353 -0.05903979372556999 -0.1312441228941125 0.008349321324757786 0.01766391724188181 0.04430799673031232 -0.07508049138631724 0.04977675772957723 -0.1415062975184872 -0.16379334577181434 0.05817187383722317 -0.0914412890511163 0.12245895384935726 -0.13438236883100535 -0.05179597407216166 -0.006956727189685948 0.05288819237042531 0.019605106416450645 -0.11833396397734283 -0.10101012299047428 -0.02048728581206431 0.016140255235499404 0.082338619869732 -0.08592250105852607 -0.18574105502648114 -0.0063097273472238055 0.0814545067530849 -0.22924306133340364 0.03122599428245106 0.04884942386338826 -0.05475781522825577 0.15620106271247458 0.060608949481071525 -0.17402861603824862 0.01061486264082239 0.059343578805903026 0.08689255778055158 0.031467113395322495 0.09608025903527002 0.031088673877611064 -0.07975847706642394 0.049797000444053004 0.030416879699090533 -0.11612360153772294 0.04821334122349954 -0.13914850766872697 0.05645250939614344 -0.04841667699975954 0.05618745549113524 -0.0717869133401672 0.08342688412586671 -0.08780700476389176 -0.12116133590990975 0.06746835876350565 -0.09342312366704103 0.012547212264069813 0.05474076469821342 -0.07054155538810582 -0.0664988615276312 -0.11982688011851748 -0.192811887580007 -0.02768252295210409 -0.11897014107109302 -0.15406980526239342 0.027495302495361532 0.07735505033013425 
-0.17496169982715054 -0.053296289916310885 -0.13197245181509912 0.16565233165248017 0.10498886136676512 0.0022954775436168254 -0.24844270972165441 0.11839198185489513 0.024519131205440053 0.15392379146920013 0.09566786239306471 -0.09608202711298108 -0.30428686073157574 0.2250462307696769 -0.1610512896958013 -0.08511762598117581 -0.0034586095303977414 -0.02713856381068332 -0.05232989069536808 0.004921584278117963 -0.08135475896431216 0.016946570493584296 0.07615673805554214 -0.05880496154056502 -0.011712950244473032 0.1202141445174865 0.0234728059548547 0.029022435343779796 0.04453821119864124 0.12081007097791398 0.14058589020026 -0.06379397442917996 0.10219749651955169 -0.1621143006960307 0.11142739279417391 -0.27556982401976604 -0.009128482533423408 -0.2537867416527368 -0.2643574057662914 0.10068384914227119 -0.023960868110860793 -0.00419404122980916 0.002208071182374004 -0.04566662765808768 -0.04559583303848738 -0.26638245582541054 0.016858096993133787 -0.14258335707462585 -0.11895446082636038 -0.10879575389966806 0.13984963547858836 -0.17226950552576414 0.16282006990073764 -0.029148495851968326 0.06753753736927626 -0.09299544604564045 0.12679045618583937 -0.08815967123114885 -0.025973727111662737 0.06529243928638215 -0.07487587795692742 0.07121833933056924 -0.055326386113725395 0.1305112611859078 0.021560441014505913 -0.1572636499949491 0.137495785159064 -0.18109026804242637 0.08346618407608207 0.010100535901444269 -0.005123360497365375 0.04328249658944665 0.059625683175230086 0.18166787054483918 -0.13635667180521013 -0.06839398219873945 0.1621636434834562 0.06067013232199365 0.14187678412072297 0.009013366874594237 0.03525257658538951 0.088445551841724 -0.13536408815362033 0.14167007454109679 -0.0023807126926071614 0.05764167506192709 
-0.05720075552463709 0.053536351632292666 -0.09763942678977755 0.06012644410471475 0.2020914213700557 -0.07338470760121008 -0.3943848532171364 -0.10341527098242075 -0.02793044627430745 0.23262402415009023 0.02592405023298056 -0.11572764512264627 -0.16469118986062592 -0.0023809251010462563 0.01822388250332893 -0.05023332039669565 0.0027659629467977876 0.009453501510437435 0.13319146951705033 0.0859295082735101 -0.03511354417508767 0.05149740226865574 -0.02832100917591727 0.04374888712019977 -0.06379041706126806 0.0614232003355498 0.06764760499009466 -0.031450990215625585 0.0856555027825379 0.054056683730610414 0.06881856552365996 -0.18332236633119095 -0.019360474540519604 0.09895215566710763 0.07509678228973517 -0.054781697642862 -0.010627676387102821 0.023968288507246926 0.07000950035400867 -0.053306677684483425 0.052078845637159865 -0.008276212958817267 0.010669539701795681 -0.17729114380559613 0.06700127193890304 -0.08901040348260204 0.025675968651482698 -0.05978150920673249 0.05891181838179531 0.057902323685895755 -0.10477638757003042 -0.18019006601150392 0.16726693903969272 -0.2182012778508269 -0.054917070366277236 0.13018010613490397 -0.15660652068853168 0.1257831070617923 -0.03150680343119832 -0.03155961932212439 -0.06301990527223854 0.1392449626021563 0.02629577175721204 -0.13656268015481132 0.06174460289600505 0.13057347724794396 0.01716213228056159 0.07816314726350977 0.12755306794813767 0.0009711925011179595 -0.013311170580408952 0.044081961170090674 -0.08456518200775186 0.17962757425092646 -0.09469067369124333 -0.09058907817529128 -0.11347724397752962 -0.1658057480508194 0.029992890022594015 0.054207256826564805 0.07248081108104457 -0.014745087720020186 -0.018482291227275217 0.07642159584264184 0.03942678515610032 -0.01131192386868185 
0.08757982155026409 -0.09458633774808423 -0.053326742736212934 -0.0840623525909717 -0.025759989797653458 -0.07429198163600151 -0.05484812708282641 0.1593546633153651 -0.047173426853055894 0.128997508413989 0.031823441955540384 -0.01977505094646553 0.15849478176336532 0.07236495752101056 -0.12366642895103915 0.11527133443259996 -0.017440648998074838 -0.07861188165087528 -0.12368264054878236 0.07057459121903606 -0.06234054762904423 0.05695093575841396 -0.15556768544054153 0.002010935390846201 -0.027567541868190857 0.08195273286921932 0.060925838654947745 -0.13006291341099782 0.021870724633667234 0.09966702591558378 -0.04023794032580684 0.1324947477330918 -0.06884556689763045 -0.03547879304901982 0.07237652421861134 -0.16265365458267572 -0.2247588838630975 -0.003606103134520338 0.11102243093615351 -0.06981577728150015 0.10164726436809966 -0.11433820309814469 -0.018828598675488514 -0.09489932301358475 0.07058024772610764 -0.03430472342771174 -0.009524677318574183 -0.10118555211950107 0.056504636976722006 -0.08155158699411734 -0.031091600042082973 -0.03795818670877758 -0.09682143700726291 -0.15752811701856592 0.0017226311733091475 0.08910239513759109 0.048158653249672195 0.07097078307845543 -0.10446990358098998 -0.1585336705249338 0.030803454573078478 0.05029518527418369 -0.09175918704035911 -0.01648940316877478 -0.01892996577276433 -0.07778905428808275 -0.11173935016444707 0.019851203805011184 -0.10139409800088996 0.10151453093799835 0.09549217285691647 -0.034622906021803346 0.055009412220052546 -0.07608032058256929 -0.07011710561907833 -0.04523461720642451 0.12385939683997235 0.07389682161697646 0.022866006289772225 -0.14959474356232785 -0.060670537652999915 0.1531668166125909 0.18957594050301602 0.07608532114259646 -0.22042327749789617 0.05296749479566267 
0.06336591206439803 -0.017424555063028906 -0.03805289251056971 0.03698799174388349 0.16363056181487287 0.03362620110558974 0.006943417782156001 0.13319567426950937 -0.12131289468367192 0.15318433072443632 -0.22129927379167186 -0.10852241016201124 -0.15130944991923395 -0.08103999994086697 0.03627705467603933 -0.13711411911810137 -0.08307968655933146 -0.11958454166131252 0.053029518358017017 0.015891259407756615 -0.0391327721705879 -0.11757985179735424 0.13041695963256786 -0.015198942059819032 0.10649556439429032 -0.10407663600214573 -0.05457227843584196 -0.16752255533177343 -0.009293910544136317 -0.0579700875758566 -0.0033385112906714385 -0.10786474182314103 -0.06324027189631205 -0.0018398965110580485 0.1506562134248734 -0.1484197442610052 0.12610388417702068 0.03361030253937335 0.12244803106147736 -0.06093721799082786 -0.060999852844736406 0.10005278247412785 -0.2983957440114244 0.03514808881996708 -0.1866278421121762 -0.04021733319423724 0.12518438645030325 -0.11605974772065177 0.04785727698957758 -0.09510499203430396 0.043940475253924124 -0.09666391625008328 0.034202143581635 0.13852565221542637 0.06269566171117766 0.016758243936921317 0.06107787932239046 0.08118353278056872 -0.0009607172784475407 0.0007546747489768368 -0.09856791763695284 -0.023084683429023076 -0.13826211251789927 0.07300861735901397 -0.015140976962812216 -0.0054692009066218475 0.11342251737041509 0.09362971657630947 -0.045628108981546664 -0.08803777096527315 -0.1404989534066386 -0.07673159924071159 -0.17474987556154137 -0.08153347952480039 -0.02777641652176589 0.16020380379721483 -0.14894267038078954 0.0635550056405853 -0.009473839568589442 0.10904181246501668 -0.09440647380159095 -0.17566031067218132 -0.042701205591665785 0.15080714246387117 -0.1745927587199329 0.07775825685120177 
-0.13327910172130097 -0.1102686793016481 -0.0626079854797089 -0.04030666248457356 0.037620951900461455 0.02423941949692906 -0.03049239728617227 -0.11533141342058985 -0.1302821318274265 -0.05976135166035377 0.07141615467863001 0.034173471849376254 0.010544143376877415 0.0704550481084014 0.12955180386946666 0.04194212295995286 0.07935398312312701 0.18087132153658553 -0.1767052391499444 -0.06356758214919259 0.005916039345184525 -0.0571088581676508 0.14315846873232352 0.03564222083436132 0.03780216284056341 0.14781487630133797 -0.01845450503868799 0.1560607366103004 -0.07118146948148178 -0.0698407363719219 -0.03713023229101105 0.04062254669138688 -0.0703044507904145 0.07411852838471543 -0.11880663078915889 -0.13273353252123551 0.13633532630751521 -0.04304510826224159 -0.02322071597225602 -0.028328262246291112 0.026420332869677755 -0.15233521498228786 0.14049925436055155 0.16435387873651594 0.17608714830408612 -0.05402518869300645 0.004510550669228122 -0.12535252031887628 -0.039061664058577895 0.16971082150274197 -0.03596205583151664 0.04053940333014658 0.008181179049119254 0.08351189915152686 -0.0364852889121347 0.14376471979301944 0.09307931367366268 0.1069717090946614 -0.05517404567609586 -0.11829427941826513 -0.11354441966281288 -0.05572415201330031 -0.10340985832939023 0.08453522317601689 0.010196208053432881 0.008182903186198782 0.10341922715716216 0.0319210430137126 -0.17185772879852934 -0.1303999644705316 -0.09680080075528444 -0.04528291235642831 -0.1490095433103159 0.049982656894607555 0.024812105866962596 0.07426205416438988 -0.008975080950295608 0.09549486179938532 -0.01887448571295764 -0.13663750660891086 0.09389654398008912 0.02562002597818849 0.09069767020752993 0.13522661050096202 -0.13262809208508244 -0.07152946828701863 
-0.19481820070103537 -0.04484877492693222 0.10059923865362472 -0.06935084236840483 0.06693867268283815 -0.1272171420231276 0.11639321849057187 0.07133567394170497 -0.19656745019421373 -0.09664729515569756 -0.14260930264934 0.16790683015038463 0.2412570638144241 0.07728693356332385 0.1674829589814137 -0.07257389335652593 0.10596383033850273 0.020488609011697387 -0.108359975421023 0.16011195936204117 0.0248061413293818 -0.15277221007333905 0.17907322456223854 0.1087679333385212 0.038128708103061563 0.044840367061383925 -0.20030291044592655 0.024392291234283277 0.13795291470541843 -0.1251278941202685 -0.06935409666382801 0.08325210684998188 0.0009620684754857369 0.0883094646756563 -0.124521748048707 -0.035017747123729966 0.09629332069807367 0.027052940127481964 -0.1215869675669376 0.1439615824588747 -0.112878261837595 0.10671812492495229 0.08331938256127189 -0.049379514657187464 0.05891930441415638 -0.08774726905184747 0.024496327042629714 0.042819970165574456 -0.2008013404676848 0.11523663134784165 0.04589784070101669 -0.0983182437801278 -0.10430363706998341 -0.018092682908059664 -0.10450477592300249 -0.1367294445707672 -0.11702166908723045 0.08121026719429347 0.014704496096872596 0.175823200020788 -0.07866531946601428 0.08016906517364827 0.015351859891318057 0.015852838142758483 -0.10339402806563944 0.06629403816514974 0.13257293689505784 0.026204215219678584 -0.10704007303697459 0.022681970116384828 -0.14091842068216143 -0.1494059348350255 0.10324324652955569 -0.0027473838643065954 0.17425034967415323 0.04713448365807242 0.07821696495042683 0.14367249391719653 -0.020029516720449652 -0.15352911466020588 0.08650070254933896 0.03002260058294949 -0.12606104577348198 0.06211413386096156 -0.18382563025030774 -0.1267770589804748 
0.051705905245467566 -0.10105544343859556 0.026833397988654705 -0.19061644477654394 0.19440382121643923 -0.01824338655107616 -0.23847196452282848 0.13907160988347195 0.0317000651801882 0.03537279905595073 0.03280719129942777 -0.16365410356282875 -0.16337454206434313 0.0041519279869708155 -0.0474466487734285 0.02320400699379725 0.07444049241929107 -0.09674338080142995 0.15725392673916197 -0.0670868104293745 0.11254498879501333 0.07844936873749814 -0.16730910778442581 0.05948257645675424 0.011638072418843792 0.06906790628724759 0.061439899840371175 0.010377856115725902 -0.006397190904753612 0.07542704647294551 0.08280154775222777 -0.08180729601407352 0.09319107858225577 0.09117120101571519 0.12690639543825352 -0.20585885012320038 -0.03672638527374994 -0.1776910501066289 -0.09477022246474884 0.09138489472749649 0.04130366842364195 0.055155112077714834 -0.031243911420849806 -0.1632563049856646 -0.041520538919559646 -0.08705986307471296 -0.11914819053184386 0.13283821576508173 -0.04576321100625239 0.06684640390589859 -0.08908712873725275 -0.14888532656529785 -0.11734724873188368 0.07161999764907688 -0.023388965370401582 -0.09160477399563055 0.05277835780830522 0.08422858219490309 -0.09893028981745308 0.11075580065889545 -0.01013493263002118 0.17306157098413705 0.07087736370503106 0.049048008904934444 -0.10601740826141137 0.0467068957352033 0.13934545199968504 -0.04647109269407182 0.11716003272334866 0.10936653306737895 -0.04613354400503766 -0.003995550020291282 0.14409525488628924 -0.15705196190190626 0.2088539232804133 -0.06828807470596608 0.12494439165528759 0.04220193743071652 -0.030739851606642048 -0.08187865811623884 0.04840391822289514 0.0889845305508042 0.0672308231775355 0.016963365825996682 0.17547833502381688 0.03733902374000561 
-0.14365216910115935 -0.04362737587448938 -0.013242647840751033 0.21095013046823907 -0.0010779261063196249 0.11924790492097857 -0.15848605893818657 -0.07037198573166764 -0.09076505547110587 0.04293473257258387 -0.11089496091877327 0.036444560721017434 -0.0871780572036156 0.13924800663113926 0.03306170141453917 -0.11350764580189542 0.01821654805605234 0.033361004628605175 0.05031828546445819 0.12749300879393866 0.04858164309002417 -0.06101990159706658 -0.1889133876891243 0.12934238239052404 -0.15350250334095905 0.11883267528815394 -0.0527364823063656 0.004318427492261018 -0.13202603417372347 0.12825811132706472 -0.10100018978810396 -0.0405986965857755 0.18691920655757432 0.04929877700663449 -0.0336360417404062 -0.3492813823773916 -0.049345803770699394 -0.212955030246713 -0.24513201470144827 0.138282404190906 0.17638557620614645 0.07146045560471839 0.006954474868797066 0.11796392603750391 0.08033553302215928 -0.04189784053240507 -0.1267299479905452 0.08261053308251348 -0.25279004395793375 0.04506892513787336 -0.12177202765603123 0.06678732038553446 0.03973680874056257 -0.06836041552515723 0.07216011701653297 -0.08112999558757852 -0.11054369495961144 0.16379238454524747 0.053074768936227514 -0.008310818056678262 -0.023900532501311553 0.04196368625328129 0.1083711599161583 -0.021204969291484837 -0.1531696040670668 0.17535759127339462 0.03943002914288301 0.013294612984103804 -0.13393588568500703 0.030830532157179204 0.030946007713296055 -0.09991057711557277 -0.06824196795946942 -0.0372517739301072 -0.16090161778207962 0.027889087432597194 0.13091354449694714 -0.04064777426013622 0.07649699356855921 -0.10466101093394821 0.02165142483759982 -0.08994487204325545 -0.1924732660502217 -0.13330959139705842 -0.13230873345911334 0.16263835930408962 
0.17765872557250356 0.13101274979727445 -0.006279554827991711 0.03723229103512405 0.0883010238471376 0.13584201112504385 -0.010934411267324305 -0.014210607063903856 0.0645946811472737 -0.1609203211018726 -0.07485931915482226 -0.0767240913887867 0.04802639290421545 0.19232513846834237 -0.026094749996939882 -0.05953619762540673 0.05237547189925944 0.006570757343306566 -0.06019949033452364 -0.050189489501427625 -0.0742659734335394 -0.19183795945576312 -0.030018697335211345 -0.0069818394466997285 -0.07489247011691438 0.10804202657096965 0.04470456325178864 -0.06970934237667617 0.05851930742278325 0.04213446500721576 0.027219256761889993 0.16612066721499774 0.05404896654945709 -0.11214719636850724 -0.08079681954612182 -0.12801001246460803 0.10648898124213017 -0.18192685280910573 0.08893621033833837 -0.17192554434037266 -0.09824000702326043 -0.059788715370739334 -0.18260818063490775 -0.0573841991808218 -0.03294230534408255 0.0684784373883839 -0.03972227200893564 -0.04909860331481948 -0.004525608828840194 0.020089132948346286 -0.20130706783420335 0.09753777463480054 -0.11693148190745226 -0.1369967061847136 0.029824129181786327 0.1068103624698806 -0.05104993494662557 0.11574520308793271 -0.04453273078308829 0.10385289879352252 -0.18716403280879276 0.11634795775404384 -0.03820048602597813 -0.1735478137756588 -0.05154074074512459 -0.031137376030835044 0.03915931891214464 -0.15027288369908928 0.028632344593693487 0.024842267277856944 0.008515609030506206 0.17088300642112583 -0.21604620565859964 -0.10684715777113346 0.10259417873512809 0.047217374934022845 -0.02954824568516624 0.14716593660873145 0.1694330238276205 0.10518294905556703 0.11882483814207508 -0.10228473715325889 -0.060879850891621394 -0.21229968000617744 -0.17281103304080658 0.11316303699502168 
-0.08270653591932559 0.12574360328549714 0.05195484459197838 0.008196561805474869 -0.05876627845655885 -0.028284594241203585 -0.04866814905657461 0.13911044473531994 0.08706835474183913 -0.09795725871283432 -0.007234747863959671 -0.059289539539619386 -0.0972776186225876 0.11250296418057046 0.06314199226855083 -0.05312491436041588 0.11033200093462922 -0.0292198315247427 -0.061266782922586714 0.08774187488340275 0.16867375363915282 0.0044108297854235 0.11769556548065731 0.1139156451978283 -0.013509107757430144 -0.030189875567970773 0.05717244138918836 -0.008353138006147273 0.021962094286500488 0.148306687557789 0.05039304980966109 -0.05841900909551363 -0.13016592483216888 -0.06319989411782942 0.018993773343714236 -0.02554080877485447 0.1102447287041316 0.08886744421968079 -0.06470359987934243 0.07286386327778582 0.16274131159109637 0.12416915548602676 -0.0952921084384011 -0.09090777747976593 -0.10247043236077115 -0.036552026778864585 -0.0913258458638425 -0.04820036202235296 -0.03434063324455837 0.14932511876851295 -0.008266370061391585 -0.08663589015923881 0.0061469205930524415 0.027685961254739884 -0.12950342209395202 0.05115159685260788 0.12821159137291577 0.12607520371497705 0.09902957834339911 -0.053430195215808024 -0.016033612101951214 -0.12129266523728006 -0.07931512472458924 0.16678042450628927 -0.04229476434763085 0.14609092236947097 0.14005033847026085 0.1260152411282199 -0.06936312054838854 0.11513771442960852 0.05573061069672926 -0.11864815605180774 -0.046282719429949534 -0.09960202640871618 -0.005507101867461432 -0.12993736554754412 -0.09842628491702131 -0.11326151306892182 0.037307394934869016 0.037932340487198395 0.1307069311649241 -0.09421294023506854 0.029657825933048554 -0.09605735492671282 -0.00780490766970601 0.13200229328634036 
0.15744461010151728 -0.1015546950455027 -0.06477114024413892 -0.08622917711202316 -0.10919314513945427 -0.10148744317567865 -0.019451072050479842 -0.16841519416018377 -0.09759457036843731 0.026225617416250402 -0.10481368129426515 -0.04619583023853025 0.010126392846401199 0.008956022664976295 0.07517686878652739 -0.019540610092585807 0.0421633404191355 0.01517209246377291 -0.11542374806384754 -0.08816010647033176 0.14147765591691652 0.0976840291419934 0.07408120534955034 -0.10855615866576349 0.14517444462553356 0.13420525715310228 -0.04597953917276654 -0.07359154969292304 0.002904469406792519 -0.16744083909874474 -0.038946975587329964 -0.10140025975003378 0.13851747632497516 -0.03499244620176235 0.1261074328295597 0.002329360093566211 0.055837090275164106 0.1303582946752584 -0.07761618437542485 0.007680009071246964 0.05060075023403807 -0.015619680838033643 -0.20161488067283034 -0.010505595894605717 -0.025605677364593717 0.07423495331561371 -0.05892534067859591 -0.03211754125059597 -0.06729423017416025 0.05855331223619202 0.1387639086143875 -0.09297817591201381 0.08566347744780768 -0.053446131796954004 -0.07932850505638059 -0.14203346041635598 0.12580091166242507 0.12731117519230264 -0.041341364224063704 0.14862847021187434 0.1130319880694583 0.006288107634491292 -0.019447846255907317 0.05533807549596304 -0.06895794209206575 -0.1645729985235277 -0.08324758978420344 -0.14706516131831 0.04360924922117532 -0.011833334818367819 -0.07112627473617299 0.0490300421198979 -0.19888889960729822 -0.08022632981369532 -0.04590913808971578 -0.0663569811151159 -0.1432715433591869 0.10618827813088867 -0.007934094806707922 0.06286123301625339 -0.11075562642731998 -0.1441765058275671 0.006058037193453186 0.07822138539766911 0.13681744899192877 -0.07453851864999517 
-0.22474220431854508 0.1677781660132693 0.20560796852982108 0.06177566598684486 0.13207211686386142 0.09550490473468931 0.18542732401223502 -0.07386710016638523 -0.0211991316678065 -0.001856674820945438 0.03887510580519333 0.015524312614945237 0.18586515359817968 0.20310693070514022 0.022436318225160356 0.033485200580208554 -0.10736091348238846 -0.18917151053959372 0.15466799837940637 0.0033113211671605912 -0.11848478262195504 -0.13208754666003839 0.2188525266997961 -0.06621798188494643 -0.09098135206767773 -0.013164888998852757 -0.1905372238631673 0.23222630933267005 -0.07657114187140708 0.002872605346327442 -0.14182775852948162 -0.21890862751614626 -0.010883023893139176 -0.08237804892450355 -0.1298326419998555 -0.030091732247320358 -0.00020968901336416025 -0.032116461487063624 0.13821104307223372 0.08418133178614662 0.11594071833445936 0.07563617500660795 -0.04921355112072197 0.1216023066077157 -0.08714200146980931 -0.07788209789269708 0.01915181254849615 -0.05416882527590372 0.11611523133909574 -0.1154858827785504 0.03684644091079352 0.18253948298788908 -0.10618744795914475 -0.07183099062233644 0.07258819600565022 0.0524030624729229 -0.13579810394279723 0.0870486798128603 0.0022936946839709656 0.15233152489444657 -0.15053257445619994 -0.15662173826335773 0.11541223230648123 -0.02435381524622989 -0.0755652358563738 -0.12483059314952567 0.008876539608556952 -0.14165659574644582 -0.027305901629644636 -0.09852649947035545 0.0008914189267889539 -0.04006367140172295 0.07558409288963164 0.11147114357181798 0.0937470065654304 -0.019280454164096208 -0.0709509286591848 0.19546103780772367 -0.20079605431134637 0.09684740078048085 -0.13457348868925284 0.062413190662698605 0.10831493489762134 -0.03918291272175123 -0.13335841938985862 -0.03239372972492813 
0.09590579767041155 0.037590222925610345 -0.11463047855046646 0.1343101374226491 0.003416859957893462 0.09185289395889126 -0.000713140695309431 -0.08489593503188209 -0.11495995169452851 0.0714683775090167 0.0691882677373794 0.08045163754248073 -0.0571985574057706 -0.0029542042428044647 0.04955954539853612 0.009240397388601485 -0.08865335954517749 -0.02298598882363765 -0.04986201648560937 0.06974317402257986 0.16210878094028006 -0.08891761562681164 0.07221760617473837 -0.056145922463254 0.04775425564670335 -0.07942590136452621 0.05116651254925439 -0.06359450376011609 -0.04442568362229002 0.08414052845540289 0.14724267855360876 0.01975560573450411 -0.07432400542386684 0.09024342564988452 0.05100275768005605 0.07172542719752055 -0.09514512683591794 0.10962866948096692 -0.05153720473368702 0.020415505312205436 0.07078566568367019 0.04788207918897859 -0.04333641606226698 0.04813900003895007 0.13458375669376135 0.01664995902895644 -0.08797127315052924 -0.0860765060898766 -0.08040744567954376 -0.12153813991628645 -0.07579223195401275 0.09225138832296721 -0.145628032857302 -0.051231058676799106 0.13217503874428807 0.15835956332013765 0.03587599712465452 0.15920494453960762 -0.09404718591022344 0.1396892681115743 -0.06518351703845614 0.10592229498849329 0.10291255951272231 0.11514564915118435 -0.0077995111406202865 0.143988154453317 -0.07991599136527049 0.1442888946696627 0.03541128528676641 0.14588987490073968 -0.11407617907855998 0.04431362391526503 0.02227815667853983 -0.0018416672583275657 -0.047549156668384 -0.05868999433714386 -0.08252136730701597 -0.10031062345625105 0.08941480844928969 -0.003906661428012546 -0.085250679479072 0.09281722131317378 0.00631838157055727 0.0388803232938028 0.010248848108012748 -0.03256417172614914 
0.10327880252436815 -0.1716219450477392 0.23626384354953817 0.1363301956518335 0.02297742192575037 -0.14802071839449932 0.11094773291194121 -0.15999077834882314 0.07811646345981291 0.024239434155458362 -0.08528157662869934 0.11286571281580299 0.11484222215165947 0.0783436606153795 0.14103797513047006 -0.07681303113507224 0.14202399764492982 -0.009352264972155015 -0.10797927686075506 -0.2918326463060263 0.13543178056534302 -0.059132899351962614 0.07108341373230719 0.10402185913529476 0.08934604369896118 -0.17614121070774155 0.13134454029034073 0.1197988814397973 -0.1018267695638601 0.15450130572593848 -0.030007878002729096 0.05224804416387961 -0.07350770585279251 0.0858249334765821 -0.07120030194710993 0.11014105497953874 -0.1652947378063696 -0.2214168493090393 -0.11749352269388622 -0.1706392908456613 -0.049108346947180796 0.15090252767503742 -0.1514582452746355 0.06918945547200414 0.09482948172684498 -0.15440415679996602 -0.06399480260639362 -0.0886016169492801 -0.2858534293891524 0.049560281222726155 -0.020538158276229256 5.983794015918897e-05 0.047296110905034765 -0.19265135734754033 0.1423453423759297 0.05878504651229593 0.01323081390999618 -0.059179497321674254 0.013105454689855342 -0.00022228263910051673 0.11474971023527031 0.17111978699181904 -0.04334016197909712 -0.015531432847377617 0.0684819767104961 0.11937055815997664 0.017363906063456745 0.07348976246190093 -0.08841370212350814 0.08568966432413071 0.09039835490458929 0.019560246926552467 0.09799296934040955 0.08889708356439577 0.025632021576613363 -0.19858901909863094 -0.016839294961673627 0.15781163223155759 0.03695918904895515 -0.057383211601537074 0.08651219267563937 -0.07483264525137906 0.0036835058266470764 0.06835516134552408 0.1476060624971578 0.10940124443663711 
-0.16550752158863938 -0.05367064960235986 -0.0014041784235662492 -0.10614946544126139 0.14743939358136085 0.03596579287973519 -0.08101476158937015 -0.11800347057072898 -0.012011059217761485 -0.06738738577476083 -0.06951782365047371 -0.007309679927620486 -0.03261610301104759 0.1453990013264755 -0.06623682138660701 -0.0074942428471736575 0.10730110659810634 -0.23244951467542238 0.04025045222627615 -0.14865407052265964 -0.03428989853184124 -0.017816968110541686 -0.03552143187404826 0.21768249452721294 0.0911594146260005 -0.135661012171586 0.017005671514174314 -0.17617020764538127 0.022147853661694913 -0.11975230786353017 -0.039011432274239005 -0.16756007049275629 -0.013264649418524867 0.06642207498004465 -0.05142023700724255 0.05629135265944819 0.08222582913342556 0.060630133799687284 0.09589665062249528 -0.14799849515781066 -0.06533923094007536 0.06112334490106744 0.03484245464097342 -0.08109904022471744 0.03135743140776264 0.0878709945045929 -0.18176842018647618 0.062370973691246084 0.11680026576082324 -0.03201031996981269 -0.1340735609816916 -0.07578841689279314 0.10750585719034583 -0.14968910734217075 -0.003778797488408437 -0.025348873176845733 -0.14716739649442048 0.11522984851667108 -0.12618729709493792 0.04321090399986778 -0.01179919575108291 -0.007871296420860095 -0.06624792113217792 -0.048673279139060194 0.049583247323971784 -0.055957248466640956 -0.06360136241369778 0.1302017574974028 -0.0764290068576557 -0.08342433174612773 0.008939917649850153 -0.0763540123147914 0.04533641474421694 -0.008717136649814832 0.12893410368132072 -0.16880024484179165 -0.0617185929176077 0.17713158656735206 0.12458333145956321 0.02887077605027067 -0.07569778473042048 0.07688818843842109 0.2150595120149857 -0.139500137720373 0.023769433490329377 0.11013768857934356 
-0.19486263669666737 -0.05676838636690169 0.041536322610317464 0.1196777331931525 -0.04571419091941596 0.17277091889668436 -0.19829933152468043 0.11248850058513464 -0.08899952268520596 0.025763572504903316 0.23470934379673902 -0.04390821020106435 -0.19973035493082159 0.08417886632114864 0.08755149645072793 -0.07776126926036551 -0.1122068930447143 -0.09011213628199558 -0.11248508617638187 -0.09812847204790541 0.011176684890130323 0.1100738222394834 -0.07109583283325355 -0.028945679142580304 0.06490729740601074 0.0712162909370915 0.007074177478999168 0.09865238341791394 0.203246970568744 0.23744385692046974 0.13241700840353002 -0.051476073729338934 0.05530939207685248 -0.12184828619657403 0.10295089501029439 -0.266381852472942 0.2622790174142085 -0.13362047506716643 -0.04421512141103299 0.016672897349534144 -0.09585705716702927 0.015722280158945633 0.12295954213150731 -0.0312402510057977 0.0940268334078155 -0.11753789740258057 0.08876195661569278 0.097696800624781 -0.05143702984667198 -0.15048221428703482 -0.18416281024103134 -0.058243054351078946 0.033062412913667225 0.04903175009257454 -0.0576812439228113 0.13690881606654487 0.06996355755032777 0.11337223896388578 -0.1004638598034228 0.10392057276010029 0.09176293270070124 0.19658949930584788 -0.10944876769011955 -0.00040903457315943025 -0.050067939877489955 -0.07875090792566608 -0.016599287956252866 0.06896325058084608 0.1808853089859509 0.060280223128584456 0.09703517654094442 0.10887042236762011 0.009472837147387838 0.14469963908364802 0.06948329372150885 0.1619642426308651 -0.06999718427963675 0.014721281435203702 -0.06437391096036095 -0.11419912085431187 -0.17470949204111896 0.07516626375966982 -0.2109175948404647 -0.11178677352902018 -0.26218337000314995 -0.0991064568969328 
0.09364163954223001 0.0017045481546288479 -0.06463336458445669 -0.009222592820414334 0.13490444452501565 0.1772455018309087 -0.04966368829194558 -0.045704609286024586 0.12571765556510878 -0.16929740311226626 0.004417127200637118 -0.15526732907044707 -0.040743390161441774 0.04935850882130649 0.034500479179806136 0.07031873040864269 0.12168709467788719 0.06868061833214506 -0.05792300246025852 0.017797237178510446 -0.12657822722136775 0.19255900201084764 -0.045229590666573984 0.14028379852840556 0.019374883101681832 0.021887430874446532 -0.0027726323803660084 0.08477143348843426 0.08619426862062168 0.00045793515205938865 0.03719910861831966 -0.14007265129560859 0.11805922098175682 0.05404819833504744 -0.03200488662347118 -0.1186554405609743 -0.03142746288803074 -0.09271066149687807 -0.27857231989564435 0.007158882530896056 0.14705378192927343 -0.16173149932117145 0.18379583491139873 0.1971275975902594 -0.014881416458822913 0.14822041927740842 -0.02015898078975866 -0.07748171070124983 -0.09324676036461862 0.05033109406378198 -0.18018569744588894 -0.15215399814141686 -0.11311450886631655 0.07735762742540139 0.12698460166130598 0.13761867441330702 0.03631211897021886 -0.07012424824590525 0.022315665181482185 -0.08961513370273529 -0.13281762486017576 0.1492817618255408 0.004772609540946153 0.05650418109991942 0.05436024537254083 0.096356685779787 -0.11819165725847113 -0.07453015053958034 -0.0596359350966612 -0.108672184934499 0.03725776676150793 0.041761515270270465 0.1553151040936721 0.061000040484040736 -0.06543069921862302 -0.08903243125586699 0.10357834041341557 -0.17052139690800755 0.08068498304661191 0.12026785298412042 -0.10619226661574004 -0.1019355617366643 -0.2548538878093076 -0.1336308983891698 0.12994125823711328 -0.12193781550488896 
-0.19966439243318035 -0.0964309573594216 0.059048446621205924 -0.04413650960764369 -0.003804510000630029 -0.10481043846781989 -0.008161081975255738 -0.017423964859060618 0.03805603389008787 0.03924611723748369 -0.015751966144407836 0.00656750847993215 -0.11698108988759927 -0.03447148737129476 -0.15042385772633562 -0.0259690601812792 0.09290077184657751 0.059608547119038804 -0.07653333726736461 -0.038486578874989484 -0.014801029557800783 0.04432588188928926 -0.08747737772228073 0.14549661785535342 0.04259168864751706 0.04347996520449954 -0.16724245220087902 -0.15258391665120222 0.11729288748494558 0.11764503574339052 -0.19158678680388339 -0.1471231054992582 0.13146023709201338 0.028789957745489408 -0.04244515810486208 -0.07891854927982599 -0.010429228892069433 0.02009207525513029 0.20837945217955942 0.12221363184716018 0.08867735287744384 -0.0842403594058826 0.15049839145710225 0.06558081916807752 0.05755685677599138 -0.17697414267071612 0.16647829893732813 -0.10019939039493965 -0.031504187142658215 -0.02433268783253233 0.11100839372639129 -0.10279537412960658 0.1438365604558119 0.004958099483565909 -0.09681483176546585 0.20361000693897344 0.03990746294809801 -0.07703363062801408 0.02207975424741731 0.05122168883520534 -0.02492350915468489 0.02784224299107347 0.16988493228958254 0.16754175838599 0.013259767094202695 0.07007281474287151 0.1405168354994129 0.10544924373855298 -0.21083511563098536 -0.008618334063726724 0.060428470661931355 0.051202123000530834 -0.12679436076525122 0.004113653560416614 -0.06559731699267542 0.021485784022417576 0.03403596948436783 0.013083386446614073 0.08597597131950602 0.07297125101435581 -0.011133149864224878 -0.09077686649076387 -0.27612724061467847 -0.09584817675574378 -0.02855187191733582 -0.0825253416483429 
-0.04058474491238764 0.012493294061141236 0.06890519326156863 -0.04253871327820563 0.13634269421067385 -0.024628918157581017 -0.38796876305290573 0.08738937960405846 -0.005567826553111882 0.12068194092593582 -0.025797162478980937 -0.06520537644248171 -0.17149287419196838 0.1630619277672268 -0.18749940991996822 -0.12109154987081532 0.025900794525698777 0.08145051134573793 0.11007204583486543 -0.1700614469474234 0.08730511616919089 -0.09868861387801064 0.036547431157435896 -0.007487546539558532 0.04963712683969475 -0.0877206525621388 -0.004179771036399346 0.03635677195626078 -0.06371030413816214 0.16243953945785541 0.09449928471256268 0.15391774946008904 0.013504616798385445 0.18100825131563583 0.04761307480078607 -0.28752923414203524 0.12888172444250878 -0.0975977739369578 -0.08805810100320827 0.040390645719101025 -0.05891484535831264 -0.09830650958337533 -0.14488749974182585 -0.1395911486255488 -0.2274177260650894 -0.08918759928852359 -0.18441200849962353 -0.05391554411623045 -0.28658270232581184 0.07090161043598853 -0.07864302317992472 -0.047781595204859854 0.10453903151872834 -0.18935080003987612 0.22169261761493045 -0.0550950994580573 0.18578910118138925 -0.04898382977627336 -0.17434790874303327 0.07599338933626949 0.10427486836333907 0.11154555730764927 0.06782165735468042 0.11602248265402496 0.054476023582130745 0.003121758481336946 0.0531971824676693 -0.18339072951668234 0.06338610046742593 -0.035788192705338714 0.17832647093979734 -0.10406984480149677 0.12295576934236443 0.060579015130499715 0.06981150067949543 -0.11453284408266809 -0.07656807123684874 -0.1540691498093074 -0.4098264300879884 0.10951217493633203 0.03594260272347122 -0.040409264791089756 -0.10384906359682203 0.08895616536858632 -0.20089019562656682 -0.0032650295312839413 
-0.0015851452016005239 0.1204364369148441 -0.0596492993643312 -0.030971770707599506 0.06710209214551584 -0.030837823873098788 -0.09312191906622738 -0.05043535993251771 -0.1394793747822537 -0.0065621758508454565 0.06886201844504106 0.1107288787568494 0.09531205046977895 -0.05363491590231822 0.05017333623226853 -0.05157298932399414 -0.019895098040934853 -0.04789840829198621 -0.016433724484369895 -0.05687267192059383 -0.03573574966278411 -0.11810734510666078 0.12428862450279551 -0.02348891279230285 0.11539301446194125 0.10409635984249388 0.00020647809791487143 0.10369415575637879 0.014546655342139569 -0.0934542000632647 0.02156610649362712 0.09303982320751122 0.0036356208735055817 -0.10095981982796971 -0.0628601349068585 0.09627145793958744 0.16197889260214773 0.024098628183511574 -0.07738909841497772 0.06399999735142346 0.033555198021843195 0.05027543895923152 0.14132121312020435 0.09204490015651952 0.07286037505581316 0.07160787388964364 0.10359018541324912 0.041352928580449706 0.090820422617835 0.1626721133050327 0.14748863238086526 -0.05947485644596008 -0.21889565209312453 0.12261851343669576 0.005014914879670497 0.0540199705145935 0.1310004918045511 -0.125743331293638 0.09982098683251112 -0.15074284405072624 0.08339124313842539 0.016662511257562747 0.06937938664424415 -0.024215315740410415 -0.04418375855810141 0.027829073599029447 0.14936890283441642 -0.0045522254864449364 0.03165706005651953 -0.04205438732088671 0.17865020924178426 0.030489264791517954 -0.07156932159349533 0.07505007877037621 0.012109459237259049 0.14986181808612495 -0.04825189555833168 -0.15279164860363934 -0.061843240265812484 0.02637428975021476 0.10924426895561745 -0.09985789129698072 0.04876122864079811 0.06422475605216833 -0.017533582961219117 -0.17258262468343105 
0.03815355323871122 -0.0825225968882474 -0.024110781088204695 0.007899997758459953 0.07885592084882839 -0.19921390896236574 -0.0026926209892231424 -0.20572052079811495 0.15676326679574187 0.08674325178848254 -0.09882229257622838 -0.14877838681213287 0.062420969538557525 0.1546153844883544 -0.07972642719062034 0.11285158963703318 -0.07432530561903733 0.1698892827957887 0.07454520982540383 0.07835357746513064 0.1398754397263386 -0.0527527128303506 0.1321521447104518 0.07344206245508686 0.0812630447322564 0.044786909493839566 0.06327656925251214 0.004855214476340918 -0.2585027006056989 -0.008405322645300098 -0.11005616060928052 0.1373619481152284 -0.1136958305830349 -0.08990223603587241 -0.1158574268956391 -0.0010904526092554005 0.004453488309289398 0.10087980980467715 0.1426392192246789 -0.058967668087171514 -0.019879418094401 0.07127772491364365 0.03554943919463277 0.028318861307186725 -0.2501694793972035 0.048206800444916494 0.006850230827301876 -0.16524812712532963 -0.15029176913913347 -0.10103662778306431 -0.04280785174417146 -0.1656243390656166 0.05847416049658268 -0.17187511615182485 -0.10968492746513436 -0.01654541507492564 -0.10333796735591382 -0.08048432223282913 -0.14492165762327058 0.15355699944648113 0.030688552734658217 -0.024626587316308075 -0.14658837385126325 -0.12013942718215964 -0.02547231062636917 0.162094472102126 -0.06376836582946387 0.03285867380534971 -0.04098946918274767 -0.12886962973202168 0.021165096385305896 0.12720363676061108 -0.12194698002019225 0.0249545072150389 -0.21768201057014386 -0.2339631885991942 -0.1562366497370539 0.013878636231582493 0.2298195397883261 0.006061134653685619 -0.1648144931608528 0.12312372210290597 -0.06762453011761227 -0.023050527178984124 0.17068680729520513 0.14249986977841128 
-0.1494344521104426 -0.05969273999956762 -0.018914169091694907 0.09541862663648289 -0.020854119292738723 -0.004268264710453972 -0.23627623645013232 -0.09329028641335098 0.11180842499380081 -0.16201693005159598 -0.14752335226479701 -0.06184138953071933 -0.21228330739941279 -0.0735949733377069 -0.08684806823561202 -0.08403538021654762 -0.032015895687396746 0.0649008838312257 -0.0732152605976049 -0.10451266601636781 0.06104263580863536 -0.20178501671911503 0.16449005236049608 0.06426664389206806 -0.14638440652381807 -0.08659507973252878 0.12708275047322776 -0.027851252024402532 0.07590064013191274 0.16178767935357175 -0.15516939149524914 0.08984446659142964 -0.15383523488793116 -0.06446939376187642 -0.09664716839115145 -0.052901887314117345 -0.042873513831780126 -0.16663647023046194 -0.2682890776543128 -0.18766727798116004 0.01675572313748881 0.10438797083207346 -0.02776678538495488 0.11401403521130599 0.0451963253953044 -0.10681416257167173 -0.09694542787494902 -0.11059226143212955 0.1782174722516876 0.15463027236209387 0.2057445865458036 -0.11044023019315992 -0.08642055670482682 0.1318349830037388 0.052455216801324644 0.03074069439094089 -0.1370286279103731 0.08457508742892782 -0.10766715633442635 0.10612977390262422 0.1332535192636315 0.11274739452707118 0.025530951828182262 0.0709925502528064 -0.04091119328873116 0.050186034314804416 0.10437800762138298 -0.14263636047973374 -0.02304367987761288 -0.06943872103442135 -0.024923645448477468 -0.02568271548696755 -0.17494507620617694 0.05646961284929875 -0.10065975191302687 -0.01609935153840013 -0.004722392362519167 -0.07763129939693657 0.02274540718600739 -0.12783153664173436 -0.16745238430892975 0.07420732790661363 -0.00448435406601491 -0.020472990652550403 -0.14000933751608144 -0.0575096547668305 
0.2190304725951646 -0.08421474056887032 0.0770807425237045 0.03547792131201703 -0.05013188976789968 -0.04548791119849913 0.10098242343817218 -0.03539571723760928 0.04119555674333957 -0.0875081221516176 0.07074837066642663 0.06443175717915417 -0.01531553609758145 0.020437815758673098 0.025922416478748194 -0.11603964875925957 -0.08816713949797894 -0.19631336829546397 -0.003180654095703032 -0.006626861380215811 -0.13152778789015224 0.004522531805127649 -0.06660793634625795 -0.12667254195777 -0.09500067210208517 -0.00431125139561554 0.015222662487144146 -0.007418566327230214 0.08108431716260053 -0.11732691694670257 -0.021039546619546726 0.13243990472558198 -0.1778385492768609 -0.05902323764913343 -0.02623668623418099 -0.12632519315855698 -0.034199214520639086 -0.11781472513706925 -0.09263019165158844 0.05020703021472288 0.11560447211149628 0.08388806813891797 0.14527087847084988 -0.06882929102801948 -0.2127382797222718 -0.2513658584969098 -0.07328169926495819 0.11470412804519657 -0.08852622709597592 0.05837864688243751 -0.0252100563535417 0.15855936694484082 -0.18203833806810324 -0.09153312889015834 0.013216207319002953 0.024410790512677506 0.11363853427914265 -0.14685114733961904 -0.05230575228726803 -0.0777382224476617 -0.05699218302835904 -0.07604132937645572 -0.025777205183414118 -0.06296688511299617 0.12211106789978408 -0.12562921217144093 0.07250045856083312 -0.11004260105795256 -0.006594257558248218 -0.1298191923177848 0.07980388037639422 -0.1612185357447756 -0.14949974056191173 -0.033122752440063984 -0.10341434815627551 -0.06972190981399727 -0.18279418222971244 -0.03553551335023615 -0.0001884742144011997 0.07093616208538461 -0.1241048643677667 0.15196056484579146 -0.02438980200618367 -0.13704181645848065 -0.23567884356668486 -0.15669292934981632 
0.07087417934580305 0.1301175047300725 0.10598283962631752 -0.07411916460242497 0.05446640114736719 0.1478535216148741 0.03165060905372301 -0.1574330925846674 -0.20944766189619607 -0.29351658208171694 0.10852044124664688 -0.14025183199807612 -0.040170369098652146 -0.1388740593836118 0.11206982915637088 0.03003558054112535 -0.025735888430567858 -0.13675874287650897 -0.088605113299879 -0.21664700849682728 -0.12620604736948823 -0.07674335475139916 -0.07216715155664397 -0.08102463923159713 0.05561513948400194 0.08337836599730289 0.16810284391271488 -0.1356887141294227 -0.009002563382622111 -0.1092868906888404 -0.2677339707624485 -0.15132970060969497 0.03877698525006338 0.045132115981660226 -0.1498919441981653 -0.0024276214064946275 -0.028619796994113832 -0.2815291406343571 0.0010302465974258474 -0.003136050662508828 0.016242849341104194 0.08375692613629411 0.15327652074687922 -0.11487307852132254 0.03471522202850203 -0.05042854963739558 0.04271668900056831 0.08256489164107077 0.00024220851847033404 -0.09960274323194665 0.029873121167427123 -0.018232729806387293 -0.10305012716251268 0.021110929741710877 -0.20901723257223928 0.04397522925823641 0.1374003520392864 -0.0909512523598878 -0.062335038197466074 0.0358955666835397 0.07599760198823173 0.050208333534164255 0.07284353192192744 -0.21279426741135327 -0.05514354102407655 0.1428986457784279 -0.1641404027803458 -0.03830788047972216 0.11066255294951528 -0.17561893994033945 -0.008817559108390645 -0.008138102103640828 -0.13913157362204992 0.09079141964570553 -0.09412422141445889 0.09066953675065108 0.044264506577821605 -0.04191275946318669 -0.022234147475375186 -0.18438691336291532 -0.05777180354712544 0.06607638131649837 -0.15979934454015315 0.058317828874529354 0.13849850494649454 -0.13772194864992884 
0.08506937231312929 -0.0224157853394928 0.1233112911358482 0.03411037645879195 0.10063063489758539 -0.013484253163045076 0.005844132758045873 -0.06101515709259174 -0.14684688816641991 -0.022288248903373577 -0.05681760465314274 -0.11105136885766817 -0.044302573735752776 -0.08970016337336613 0.10230564067865924 -0.09716291681578826 -0.10774496164137758 0.035362672171522475 0.1369481331982164 -0.09511268522655604 -0.15174991759833276 0.09659182842582614 0.052029133303247016 -0.06541003336816069 -0.014093098471705595 0.025821197660744147 -0.02425727116838166 0.07981424972515007 0.04452148014229375 0.15173167454037512 -0.07410916903153532 0.10913272723106926 -0.018548965556570977 0.02747916391812947 0.08558081889259347 0.061973106869432255 -0.0679224121267796 -0.014404809860052414 0.06921671225437563 0.051177223944387035 0.14007919811107447 0.11394293575392062 -0.11073077794537714 -0.09655013288677025 0.042420411248655684 0.04907087454247131 0.013677720378662168 0.0795375309362459 -0.05803499661616878 -0.07000850563170782 -0.0009973305498832442 -0.05228377611018067 -0.00956869091000709 0.035567744506994736 -0.08972163060724977 -0.01713858889776324 0.15889923979598589 -0.061558094314439045 -0.09584973262920016 0.10991361339215094 0.0006119565208212814 -0.13747813008189272 0.11149625468153244 -0.045881500683262966 0.09156594013327991 -0.04625654738793002 -0.1459987716566296 -0.0504487393568152 -0.05467412937288623 0.07856505957512781 -0.10456236460081621 -0.013782329565987904 0.1193322195215031 0.0071159068736753334 -0.08086859695131633 -0.09827113419850798 0.06222286872113396 0.15555427466565774 0.09330680120484511 0.0758991857230473 0.031149593811077424 0.0704142732475799 -0.09687096107297045 -0.0464149304878702 0.04519923693314076 0.11715956177225491 
0.09423390674473095 -0.06504336289121629 0.15100431501661812 0.09940040639101587 -0.10715167995041806 -0.061475515734424724 -0.04423932030637137 0.05246736989212477 0.08767182063636257 0.025985310228415468 -0.07523240505847861 -0.029869489970940865 -0.07331288295547708 0.16789700099615254 0.08624772460190543 0.006436650357621946 -0.04470044024295654 -0.11630042681791644 -0.06823208971277955 -0.07705343359571241 0.062345561782922505 -0.0018014473697171762 -0.07120663628486734 -0.06665120474902143 -0.07071971334979409 -0.12519806641454556 -0.028040775410227838 -0.03964133959721079 0.04076977830076284 -0.15112150105318045 0.028872924296365413 0.045360132039857545 0.1115672537062346 0.06056830434423967 -0.07733303699456279 -0.0672289841455046 -0.0992065408090407 0.10504841941826328 0.0017148545574745657 0.04708098567445154 -0.1402925645934266 -0.11257542916630764 0.044844700417427476 0.08090673774454246 -0.08398178294274047 -0.04044237273834993 0.10999329666532212 -0.0679006211448168 -0.09259058727047385 -0.015274340598095841 0.13264651804667413 -0.10516244659807328 -0.02293671341775342 0.026448482444694603 -0.08310715882400144 -0.10124329062676703 0.09874955539739376 -0.18271781992345212 -0.04791499368773817 0.07605207470635908 -0.06620965721102394 -0.19020761780626436 -0.0014307555137850702 -0.07405026678638882 -0.07036199575794631 0.08329256320022375 -0.14230965097187484 0.07151593508681266 0.1498185462254311 0.0720505907647218 -0.12111928975936881 -0.052225426684840585 -0.11102567011199535 0.11284005004534454 0.14831009836892764 0.023212854475305328 -0.14615132757110924 -0.09009362213883185 0.08263377293270456 -0.12224023990915725 -0.068375700550482 -0.09805467853993691 -0.07099939169372674 -0.07698530074428825 -0.015005582612960849 -0.025540909069810377 
0.19774716156778824 -0.07510473600062666 0.021612445157077918 0.09901368256373008 0.02698437592767949 -0.016316725901908236 0.16583173556009576 0.11097649506597282 -0.18280295712455544 0.12355113280052084 -0.1347452039327861 0.0699144347926056 0.006119642979566684 0.10347785082335656 -0.033515317195540274 -0.10010370649441874 0.02931481642873315 -0.1845017425909782 -0.05202479370513317 0.19182314931192998 0.12390660465165734 -0.123195555976812 0.13150009869138204 0.09925968307673991 0.12891641444331714 -0.12246700179129191 -0.00796189749266157 0.06977656333119982 0.07006496407937891 0.01791639974873745 0.0450240627196291 -0.07400923231959503 -0.17041868264944926 0.04008757977563038 -0.13876890913117879 -0.029490306084796695 -0.07160711272753673 0.03935258290823908 -0.06927996980456051 0.06081661531270693 -0.03483153800048786 0.04404694233563728 0.15625934052883808 0.0319735331694152 -0.02723284004654852 0.02272435687200602 0.0001246847456267049 -0.008976278567480907 0.026278427686029414 0.1433316534561258 -0.05920115778519293 -0.12724431337656356 -0.05023783816776202 -0.05052191294324291 -0.13401363889280535 -0.005112272184731587 -0.0689302189059764 0.09437654610596936 -0.002200728575782805 -0.06618053963442376 -0.0478336374624663 -0.25600967538543423 0.00197284244478189 0.1006537510060039 -0.0850954050787561 -0.14100732630954052 0.009212314678015693 0.004119862385133707 0.041603715578000376 -0.0612635740608845 -0.17758262195847466 -0.0074027157843691 -0.09668352702206498 -0.15805261469419146 0.031485665034892446 0.09468070453101515 -0.03823861184426351 -0.11231450282793574 0.029201563593638097 0.10238998882861176 0.11164176334605067 0.04932134428690452 -0.0460275409851712 -0.012444644572127243 -0.077566065463062 -0.07002572585886066 
0.07855198496357486 0.08815517618629377 -0.10234138268075073 -0.05734381407378642 -0.1344955101841219 -0.012970686504406 -0.05780688746124811 0.03204093623448661 0.055934396689804704 -0.10173200850269935 -0.08548093962564823 0.08741791888385221 -0.021220420382231844 0.019336170809984662 0.17427574097040405 0.10429872341988827 -0.07212419785994555 -0.06450593085596847 0.03132807694052192 -0.031803306148577716 -0.17524920338974773 0.05874995346437699 -0.027280710415935775 0.0444414555657136 0.09716835578370289 0.12852562491307887 0.016885121333375983 -0.03599973637671739 -0.07935530982213722 -0.09700909518262119 -0.07693065659553192 0.031191866097676955 0.040714643609479295 -0.0583521536891538 -0.1183176666906918 -0.03801357656942715 0.04423824540182825 0.06107240571061317 0.0009057585251237828 -0.032052822279381464 0.025178328120606483 -0.04638278143970219 0.037517131001234015 0.08546514972540965 0.026805699361504766 -0.012148298591151359 -0.03768066949710172 0.07710493415516825 0.11979003740216941 0.07797427524013513 0.013976352979604728 -0.1042211553139422 -0.03940112909733376 -0.02957891278543174 -0.05013264652431842 -0.02463762746562984 0.02204215882169324 -0.10969315955366983 -0.04951817639409614 -0.10867889546267656 -0.05513994706950991 -0.012876019507483983 -0.023061288905851976 0.14046657896604464 0.12209842771273066 -0.018842081356693928 0.13828720179856 -0.056939783377943795 -0.0031810792025292636 -0.05586054205235452 0.14075335163996233 0.06792289570799084 -0.109362409283571 -0.03458110156798988 -0.06671395554491219 0.058568880265857784 0.08054148747714644 -0.13355870917035825 -0.061824758184372254 0.14280292246096335 0.15767251964702023 0.03258833801698867 0.04584327174798989 -0.05343243852424128 0.13226536602139422 0.041885646760165686 
0.10363847114362125 -0.10127843742129009 0.13755639178023368 0.07699963080089067 0.1076629731968655 0.03973607778833505 -0.06927207429223817 0.023858649027174533 -0.2104901304233629 0.019338072031763996 -0.18359751677220087 0.05019078152463401 0.05785627853227383 -0.07336418498338082 0.055139245781234324 -0.08924715332616197 0.08313382082954576 -0.12449445416330596 0.08113495220685106 0.10539467635086411 -0.10745593531057133 0.07138206519039697 0.1392412181011999 0.018690818674713512 -0.009834398397942751 -0.11713801305184304 0.1120271540338208 -0.04827012809011963 0.09007633703273236 -0.016278583106342986 0.10004540224987889 0.06739496256452096 -0.15881337494233952 0.007712154001861426 0.064500361924386 -0.017968360536199275 -0.18288890060309174 -0.03398395764480692 0.14852889086625026 -0.10324297028276157 -0.1626225879535221 0.034039576423477755 0.011686101166023071 -0.00034119464570575743 -0.024308597449523815 0.00478067697631441 0.06443794126090266 -0.04388207940657243 0.08773428926912995 -0.07108397637305718 0.0001831026119378718 0.11772503472151549 -0.08144557667337543 0.06854979305465772 0.09152357889814865 0.009493313944902777 -0.060396184146615975 0.021156188135185626 -0.04796563883759986 0.1462799483332124 -0.15427472421245778 -0.07388651641786989 -0.021557622564191834 -0.017624331348155064 -0.001401761578703642 0.06923753981586352 0.11202075599888195 -0.006711581348498382 0.053526424179014216 -0.04440016862558996 0.011188156790184934 -0.0636784443063817 -0.21506206269310613 0.114020054644709 0.06317861578645019 -0.08075611667556915 -0.01569105043261734 0.004561458690369166 -0.1265667315014672 -0.0790545851276108 -0.08209755744216007 -0.15086274753907916 -0.06536467026212774 0.17972772756730396 0.05629409775551928 -0.01880290917150543 
-0.04109578441651455 -0.05338824051814759 0.1790603262617971 0.0027023177798777397 -0.05661779883193883 -0.04957609185325533 0.06913231836431336 -0.055615177663122045 -0.14569132592085027 -0.11808061831368659 0.046974636433022916 0.02902780337528307 -0.03256219410204019 0.10698875587446907 -0.002093098354613079 -0.017410167054872302 -0.15169177372358453 0.07407119730608588 -0.04167801952992657 0.02230455948402993 0.13304418776700327 -0.07567825039788299 0.1475452971551244 0.07552214987890753 -0.16540342317893345 0.062082785822940446 0.1205541371744931 0.04830821334567129 0.06315077792046263 -0.0996960409789814 0.13249392633939838 -0.03537781301544101 -0.1372733033131494 0.0827741689004338 0.16439702518381208 0.05991028282089931 -0.1734402496042315 -0.12491726872583825 0.019964421851148145 -0.05636825601542839 0.0993365525026536 0.0944824858969325 0.16649088230908882 0.07760818103263833 0.10689632708688149 -0.0765182963215533 -0.11364028940740509 0.08109491290113975 -0.051511552718785894 -0.05285332439094784 0.02748258360931481 0.05689738537917452 -0.08800554985916782 -0.02182888281447298 -0.08753756239483795 -0.003962796425183417 -0.09821172059851711 0.058596897423574955 0.03122926447040638 -0.18261438395850865 0.13407224505337048 0.0634821057437303 -0.07023790897140281 -0.17546634501905978 -0.0068589605570721175 -0.07137043733056832 -0.01338072005829499 0.05405905441000794 0.13130086717007822 -0.13003395050175898 0.04070893424062497 -0.04009920221807654 0.1342508104846889 0.08821143755655758 0.011423385032185282 0.014164903079185996 -0.13220478237565797 -0.08906254850904308 -0.06982329434976449 -0.05806153326007935 -0.07894506109935341 0.020229522859914167 0.03506257603322424 -0.11967403663880762 -0.06918898759172368 -0.12188757746724443 
0.0029412641770396016 0.022788277187220443 0.026696609940550217 0.08892797366867969 -0.08822097237474774 0.022683924966319942 -0.03856135836037793 -0.08402384715583211 -0.03806444449846319 -0.08634733336003936 0.10121647559558307 0.03343313459431095 -0.08123939214877308 0.1014254689616459 -0.03737347373153585 0.13981520463821398 -0.013670455928562534 0.10864731101238907 -0.055646157800077124 -0.025582968396546137 -0.04552024679225203 -0.08218769118010032 -0.03283461499418773 0.06498007638558001 -4.398080422858734e-06 0.113782287944199 -0.058986242038542296 -0.02805027667291333 -0.053867052272967085 0.003146143064607073 -0.06249337832647204 -0.10621403584899322 0.13333837362565437 -0.02370659109594811 0.044023400516901866 -0.09144704892262498 -0.0726637477039561 -0.08235742900019906 0.11398569228943738 -0.080870334006636 -0.01681965744720743 -0.06948622585996396 -0.08661016260832186 0.07800860666605072 0.03127989630580675 0.09765502783979582 0.019129096150037165 -0.1016340301503423 -0.011142479547331488 -0.12824055973519252 -0.03628685908752325 0.004734333645520005 0.007401415411564967 -0.05183967858705819 0.011017296793407199 -0.046239852582198065 0.001226732780222712 -0.09810909379320298 -0.06923349748264905 0.0942635890455023 -0.06852721851437232 0.04284061870138487 0.01902916813406207 0.11341797405473031 0.07734008861999256 -0.020319802288476362 -0.11441024658434276 0.05562107442572559 0.01130117804737092 0.047241409854183875 0.11353432041800784 0.056302081508845955 0.029512668544802362 0.021388241093702864 -0.11334638429967792 0.03822231418699423 0.0924861758309525 0.15049948125003473 0.08521546048306397 0.01576168013818909 -0.06604323070978996 -0.03227277642704091 0.15440672172232017 0.008498576351879887 0.06337318955445005 0.020380375150899823 
-0.07013832769531411 -0.06113714041775299 0.06550606071197178 -0.16999088981601423 0.14217689805018538 0.05408080650838351 -0.1578845273346574 0.08841410802844261 -0.10344598860343775 -0.14700883050327146 -0.06672144858403484 0.10713727920806662 -0.13087009827576615 -0.11752343070768004 0.10542382730436027 0.10140001455429064 0.11486415601536758 -0.0031498254016796845 0.005090314936384175 -0.07402477186215775 0.03395773395139827 0.018068130613908582 0.07342393520901801 0.08880856153355426 0.015955330375803687 -0.030886939824229496 -0.1540579457602047 -0.03281250414064651 -0.13793689001093873 0.05925199341554696 0.0662974880632661 0.01725444170338071 -0.09671132346832434 -0.15182848824230968 0.09859570839893 0.13553127143217178 -0.13373232782408334 -0.18192495318179996 0.10370170303007473 0.0383902987150656 -0.0741463359590585 -0.022220770427233333 0.043558371285671624 0.09292332371586869 -0.10741019235885625 -0.05359002332006556 -0.12655632101989434 -0.15031289691876806 -0.16495418019279387 0.06794595719212482 -0.0012343234798402904 0.05353794986411353 -0.15010604715610384 -0.04559485150902268 -0.12234821987543758 -0.036464604271889065 0.1624276494361263 0.011326417252249288 -0.07152108227486553 0.07855673756088537 0.1667433078100356 -0.04660569789453075 0.10812141194818863 0.15206801593151742 -0.14141523999649938 -0.0386018369498944 0.10892002502172654 -0.0014419041198045141 -0.09410257189475772 0.0446665001915891 -0.12258248732730312 -0.06872612420140228 0.028602541813997514 -0.07649861964743587 0.09382734574175125 0.0393750001832902 0.15902558309355588 0.0035644211867242545 -0.09408772927994562 0.1644390728866093 0.06561156871143295 -0.02602704663057515 0.13622391331495526 0.07190900443696417 0.03723299139435032 0.031605691966167526 
-0.02142740703653252 0.10419801758203127 0.05286396101612311 -0.09720273776996628 0.09283481792638604 -0.061177952250126164 -0.14947611684983964 -0.22474150994307762 -0.0921516930769693 0.12965611837076138 0.11169459218937783 0.005941821596673661 -0.15654328699050654 -0.0844311076829974 0.11949648305036929 -0.0332588800463907 -0.09235227125515105 -0.22085898168967158 -0.15254073397166995 0.05326705606096561 -0.13039903839381353 -0.09151987058328125 0.12307146737061761 0.13008635782652866 0.13821787882317035 -0.010872734177148853 -0.022471679672405733 0.0015085957899745757 -0.05404839384553839 -0.15955367665288775 -0.2524795516974461 0.08574354083279105 0.03812411530022252 -0.16255329276614114 0.08587624094610068 0.12560096802934068 -0.1752011093273703 0.017753533184059464 0.10349288120598678 -0.18766113034140114 0.11960686623067505 0.10312464441367199 0.10422249389195791 -0.1482492583596075 0.011838860255909993 0.11094321675763488 0.03685502592508199 -0.08801633339191417 0.10636278621533868 -0.07130865042518127 0.08138273715925129 0.08609652444652126 0.057257577208973585 -0.05175803626350998 -0.030201522146436753 -0.10288801650081247 0.13587835714940721 0.08844579591266943 -0.042640748696437115 0.13979036285534105 0.049594795608910454 0.18420298069805155 -0.12015715909419915 -0.1482130366299263 -0.12352348439127701 -0.11331020247784816 -0.05505986673785245 0.11377250438211091 -0.09823462716572964 0.023866961736876253 -0.08703693009027613 -0.04565947864391723 -0.06782257531628552 -0.030377508762932076 -0.1408338200299365 0.08077275301793022 -0.09929950534637713 -0.0008001023371710825 -0.05512522365170781 -0.06360711668862656 -0.08222401494092868 -0.029470981997195656 -0.11242283173325343 -0.08277197897860178 0.024304074093919794 0.12049505308724272 
-0.13089388207173486 -0.10588914589862335 -0.13763973530397214 0.12036957147767871 -0.03030746963469514 0.01144918276604686 -0.07665304013871936 0.08145397871139316 -0.09826971952247511 -0.013792997099738911 -0.2793575846945451 -0.06209735658148267 -0.11020801848602627 0.07117883789957644 0.07544116132658923 0.12212735240408862 -0.12258297335877456 0.1406220703183523 0.06924517423717311 0.026647403176684337 0.026557394276579705 -0.16661844183149535 -0.07228653977222628 -0.0027589394568006873 0.07019909532526354 -0.12310535350905902 -0.08145246412008436 0.045613396372784686 0.04108222532675333 -0.15588424798175882 0.26415652102306436 0.1406844225634388 -0.10455507375728328 0.0978629497778889 -0.0669160376542773 0.1424400105026772 -0.027781640460786818 0.0863959289716602 -0.08040637202704952 0.037457753111983474 -0.1140229258461048 -0.01476205653582997 -0.042217197909145895 0.054199345122275984 -0.02219944324300915 0.02069323486030498 -0.037926742400728096 -0.08377794639787146 -0.06925859209664709 -0.022388530749965288 0.04949452616777895 0.043773567604820346 0.08000325129329987 0.015463876184067802 -0.012942143729528423 -0.08143354947673974 0.07875035535251314 0.10501167848920367 -0.07972616721395576 -0.0009870930394656305 0.12515302415520446 0.04914629685564545 0.012962658398013228 -0.14018991889800173 0.0030899159081175906 0.03605442652276423 -0.1207632741841343 0.1613019691682014 -0.1063327561129665 0.013557136307473598 -0.0646541569722921 -0.1757705847701986 -0.1048434126425991 -0.07290066591088275 0.02469349249151973 0.01719220084036378 0.05600295489427048 0.11174412533750736 0.0918184733999045 0.06787551615171186 -0.03522947111774048 -0.04849952810541449 -0.07281346994854543 0.046535965510689795 -0.23284693584030824 0.034567613154483305 
0.18716804134360462 0.050643956688115895 -0.062081688763613085 -0.2012100325538392 0.03994704563356002 0.07727554560030538 -0.16406485802286475 0.007187298253806254 0.035047358793903464 0.022962765501096213 -0.0709567032413712 -0.18553342452890226 0.17843621743389335 -0.0743288184948186 -0.007512757452852586 -0.025570137570072416 0.09149578926699944 0.025106337906221556 -0.11366207428924047 -0.33028587440156065 0.07903928043369976 -0.03290277569966549 -0.11220396896803014 0.1870927128319993 0.08469904615653831 -0.031353169953925036 0.04153564739104933 -0.21077678042318845 -0.28929768168958886 -0.08828701708653748 0.04393204494929091 -0.05450388180022087 -0.0668954217179847 -0.13580643511704565 0.07929002650485135 -0.13938769134205045 -0.12466550105916785 -0.0655927289403508 0.04444906611308649 -0.028626819350781495 0.03096791493022459 -0.26450558650964584 -0.13956388534167855 -0.2346802202967466 0.004621179973188274 0.15261205067426722 -0.09985223582321257 -0.03911299916818238 -0.19756739792821332 -0.009719720090038814 -0.22857469887353016 0.10974898263182063 -0.15487480261208666 0.21712479949526092 -0.10485448205701635 -0.03977184577909894 -0.13720817064265353 0.05752515261676353 -0.014442356788559948 0.15910641307769124 -0.16317105433491289 0.04823289224382102 0.04753052651381916 0.08079686118534662 0.019041626441372975 -0.1270327349267995 0.03558907305799597 -0.16761560973139758 0.060699244000085556 0.040264256249815555 -0.02932571241066122 -0.11200846580499987 0.09819515673465865 -0.1878902289251185 -0.25677493885465563 -0.11913238933962722 -0.04845453408108588 0.028727817073984054 0.020539540816063167 -0.0795143356945469 -0.15363635930366853 0.14223687812702257 -0.10524729204720427 -0.06576425675514445 0.019331181919000875 -0.007420395732898928 
-0.0038165182381620904 -0.07716005155826937 0.025314765361014308 0.0450561221187242 0.148214647746178 -0.056248252146411895 -0.013223496108137188 -0.07489512306217933 -0.0923473729816829 -0.2477859402321637 -0.010672431027986304 -0.03654603198331659 0.16754076240223403 0.10161872912989588 -0.14550241527527613 0.12947539425187318 -0.10023600818420879 0.05894345286568464 0.07354710254382812 -0.10012141072135064 0.16399117068443303 0.09115924308003312 -0.016461703060490513 -0.025221127540980506 -0.08269284246634385 0.2108364895383952 0.05028737609534236 -0.1569174430420615 0.1071344181450198 0.05734941966859498 0.1331193576320849 -0.1815143175405845 0.12039844839134145 -0.059250311927270545 -0.1328158804573111 -0.19410184240565778 0.17175409310489154 0.14397678069105435 -0.05373814252677124 -0.0031607714813494865 0.09328178418202003 0.019240189101951615 -0.019627650514973522 -0.10991791871709893 0.0018223935660119403 -0.0015100705705060665 -0.12048820328257501 -0.09529028368283536 -0.02118000379019146 0.13872941326109817 -0.109182498735745 -0.1625078217987058 0.017568353553850856 0.21869548459240715 -0.005613297547414111 -0.06522794327629315 -0.07727860411468056 -0.010623958489922602 -0.12850311454213761 -0.0058993447788440725 0.09435603645321719 0.0012876924377168684 0.10985323063716246 0.06906919732638707 0.050742684637933536 -0.21476829079971743 0.10931195246579564 0.034678312597732054 0.15013895345286468 -0.008570902244024474 0.031471874010936395 -0.06398677696924858 0.07678117481450493 -0.09164363752091431 -0.04819550871919881 0.014821158500921664 0.051009120015526196 -0.0830587087368962 -0.08524417652805082 0.11810828599133186 0.07509733734343485 0.08228472281043721 -0.1752246288264624 0.14533281314419103 -0.05161383152612663 0.008344166470000296 
0.19614549817187824 -0.046726417054010747 -0.060948586128162514 0.00936293915875028 0.208559737112875 -0.12115120434511673 0.09783974420633103 -0.18184961914353437 0.13312221490560003 -0.01726796216849786 0.12802267842403353 -0.14661912149620066 -0.1314058222604431 0.06523953412446605 0.033524177825600465 -0.023845232564330614 -0.006573381525168055 -0.10287290954429501 -0.28090819431093583 -0.11228096610172837 -0.0481591215305392 -0.10585614456966876 0.04338212530585816 0.14204906366540185 0.03154057969008066 -0.2016354164479316 0.13483389947415095 0.12256294318362466 -0.14481209644320756 -0.16491470342681713 0.1507886489425545 -0.03847387845705279 0.009309559704779178 0.1406024319080701 -0.14596486671334535 0.08991011257875083 -0.12311232493114732 0.15533329758958217 0.05985585478966775 -0.23648820986927982 0.06389857807966434 0.018072912142464776 0.007560049923380388 0.1412477766741812 0.09992322313629975 0.09216370242681923 -0.17425758502153757 -0.09232205524588281 -0.08132913032133532 -0.12191715918400604 -0.015206419064176618 0.06942338775217796 0.015062184365712989 -0.15957979050673532 -0.01617422889556301 0.12464541402401862 0.06031835655065732 -0.06281163831766379 0.03379618263035637 -0.08945102785764693 -0.1344908094494797 0.04985194571538747 -0.11239753587688368 -0.08574653318700218 0.09489887890208963 0.028011559788595836 0.04838537869761615 -0.1812981508916203 -0.0165499890826125 -0.034634995281834655 0.02684788228419026 -0.055741680718825876 -0.07685752915623077 0.12999871891298462 -0.0783221115320589 -0.23298359953772232 -0.11190390534920616 0.07707091709896464 0.081727011860002 0.04813802414024967 -0.08577592842263373 0.13163331630751182 0.05709332159811458 0.07356854335201239 0.10727624880966345 0.023592842261239946 
-0.15040778761968182 -0.09686822470395268 0.040485365909506896 0.03281523739817306 0.07042338706350647 -0.06827045403103102 -0.20966793110448856 -0.11211628054341954 0.07927899623674192 -0.1974387440111464 0.006075235234707013 -0.10050283456894914 -0.13258945825366822 0.150544669734266 0.042451417327667655 0.0300277532029796 -0.041294468123479595 0.100279639203209 0.12987562176468054 -0.05193675580557358 0.14915541117156947 0.18189726987217258 -0.11755780395353196 -0.03177350993754235 0.01579950236365801 -0.34819770565607255 0.04874313699643077 -0.08206272319959292 0.07406773824736669 0.10791921336488251 0.1379195427922475 -0.0799367692788831 0.08953873538744046 0.048043109207149555 -0.09738442889126231 -0.1615425023726275 -0.0744544677240875 -0.10272241483965984 -0.2953769431647979 -0.14529718353291046 0.09242043999922081 0.07018028721618037 0.04102144786701718 0.16477467759976902 -0.05610259485165624 0.19701490060597 0.09241340240535909 0.10018479925262187 -0.12054016135747037 -0.005391498812373927 0.03901523055445633 0.10498545735633893 0.0859580629970696 0.05116636728216792 0.19773777146380453 -0.01887919693696276 -0.0054632721153871164 0.028344988527731336 0.00859699826631789 0.11264685829058345 0.05654106303370377 0.19691823491219745 0.09996188420676615 -0.033719624961551384 0.01062442073517017 0.19391098157630962 0.058289621085014016 -0.07174081002458646 -0.07788894420945501 -0.08433286017416598 -0.08226669087007575 -0.032435039016614466 -0.08899623666563655 0.10501208788924185 -0.1549646913619736 0.06849195868436628 -0.09204012024366222 0.08544686443698055 -0.0280996018823719 0.20527653152128666 -0.11823876174801154 0.005352224789471149 -0.3599095092422655 0.10113496583904202 -0.2813464634116974 0.14301441908938284 
-0.03962959065926367 0.014007119536651989 -0.13937689696391384 0.02740942858348761 -0.03128573759359144 -0.05712857963595607 0.06951355450712195 0.13169606615949506 -0.12356757575240647 0.13378907722649055 0.1245610022944406 0.01667858599662242 0.07825944392416455 0.09895235917388938 0.06576976019366641 -0.03865559051238992 0.03735487330632137 0.043433307347171525 0.11294074828911985 -0.08923138982004404 0.09735460862907304 0.15224834380771088 0.08749150869984923 0.09688560531790862 0.11610408858137741 -0.016352034187574218 -0.12519541731599204 0.006691324745251495 0.03706470778927729 0.16586024148051431 0.18928675890218 0.009114275440160663 -0.009067342466721834 0.17993890680975222 -0.13017919216402737 -0.009765057177558613 -0.12473626193582706 0.0709064034346198 0.06400790486091933 -0.017053261944332293 0.13372710843599805 0.017270452345367903 -0.013781291530400511 -0.015571525725669248 -0.15823039294297853 0.0071582476536205236 -0.13501622378769376 -0.003535262419426159 0.025675612871598526 0.10210979479189847 -0.10326061652214225 -0.11058781024319889 0.09479237521014701 -0.0016704912748020456 -0.13520575873947163 -0.19947931519385986 -0.08196599503554637 0.07666648313428107 0.06613257738359228 0.12494147309931061 0.1176502463393171 -0.019214265243179946 0.046139682632143665 -0.06698907022833624 0.05896000003571182 -0.06569025987599254 0.09574848220742985 0.05895521914762863 -0.007676089699960607 -0.19287358863267962 -0.024957168969457953 0.1336819646549112 -0.10937556214922853 -0.1263656378859202 0.06580659890047257 0.09051328893641046 -0.15176767349318487 0.15627621273540437 0.012443905014394002 0.031879529888547455 0.1397438558835322 0.11709505135311506 -0.1370070749084161 -0.19544253364769146 -0.09793983037498157 -0.0030607992930045454 
-0.05055068984044209 -0.08858262951129472 -0.020546525466459253 0.12605952859929465 0.1508564088051718 0.057208674852198355 -0.1572831598657296 0.08459118257146424 -0.13101832620830994 -0.17505033549204782 -0.19055151042898835 -0.11035131407451212 0.01142642951060023 0.1257896135063191 -0.035356571918810184 0.04323848354066168 0.12155644605146036 -0.0852441758480055 -0.11295012220667353 -0.17011591717243085 -0.011364521408393436 -0.08249286146469684 0.08292858905118632 0.0002804603632249292 0.07514159746038887 0.15472098163052928 0.1136596758020564 -0.10086020501678863 -0.08340278550511272 -0.07977716982443986 0.18892191480533962 -0.036983615130028784 0.05235702183259523 0.00421184548591664 -0.17274572734535573 -0.014862378762044307 -0.03305020518958186 0.04788432224747935 0.13673208995400427 0.05083863498114597 -0.05886903029605676 -0.23477805060325418 0.05255885975364784 0.08059802534956984 0.005284725005316257 -0.02780668555927026 0.008044067824560087 -0.16709930643885568 0.09794140963890166 -0.03366743877311027 -0.057333219457156685 0.12389298272260402 0.062374978573154695 -0.14898313556502604 0.05426908222452533 -0.026320509254959674 0.014131066730246071 0.0625648900348679 0.0058846725722050035 0.07563517049587672 0.060019959552304394 0.11128097485094257 0.1400109168445112 -0.015502430563907833 -0.05617849263311938 -0.1290074175298983 -0.08298700289898649 0.09666770065981353 -0.08025577739109424 -0.10691975681010313 0.09809720468884879 -0.03727723177272589 -0.05990519851917991 0.058246363766896334 0.21809074439600093 -0.1307722406482813 0.07037253291745013 0.05485469637053722 0.1717174029627525 -0.020047319900810608 0.06087073728221841 -0.18063033531005188 -0.11874107446025027 -0.05243429701329285 -0.20645861787201003 -0.1463309116198147 
-0.14556488319611544 -0.006496629112695526 0.08953777368066522 0.13807634439537658 -0.05811129826943037 0.05382740796920834 0.11578066917793545 0.1087141684218086 -0.06054865318157626 -0.2197970835662507 0.0220795216231563 0.07642065878475594 0.020296739365935887 -0.33208258168904653 -0.2964307707038766 -0.16692991133397544 -0.07371757272894855 -0.07289733982360076 0.1337963543228517 -0.13257707435403523 -0.06978283819267092 0.1734003032709164 -0.39223016712472036 0.1439904052918054 0.17192432616221942 0.031067597113135396 0.06251964535945415 -0.29560035141073276 0.019670437729492073 -0.03308184604405064 -0.08575341355707934 -0.03451408906659588 0.13666088929961542 0.07674801948134671 -0.14105749112238256 0.047090029567335025 -0.3202609660767305 -0.042101848538709796 0.19144739852545126 -0.05580789614306644 -0.057237999218858776 0.1135852913598784 0.1001127837918299 0.12564778476499797 0.06019888690808801 -0.014025106308582856 -0.0486690479087756 0.00970083030353151 -0.013309421502360246 -0.0125623562055069 0.010279874765416913 -0.1726935369246182 0.13647326637673685 0.007889087836762156 0.15506757921704703 -0.041462588365979484 -0.17048262256537655 0.15009722970991185 -0.05727485801770595 -0.10161459486694616 -0.17297042616866343 -0.09330169743499549 -0.007488805989158652 -0.33961944620133167 0.06723769775606657 -0.15426954135082363 0.08293735161404799 0.09897524410179839 -0.05882047710268245 -0.023243257438878315 0.07379858342687763 -0.04398429067494027 -0.014347023360720464 0.051147579988475564 -0.060608953583867524 -0.17660758072278032 -0.03990821528375705 -0.07986190270371141 -0.1374797961363985 -0.16510452151030822 -0.11732111853038683 0.09181262364739576 0.12164910941938328 0.0042400954615398005 0.07808541634196661 -0.014698965702221749 
0.04331585865795399 -0.03272110044693354 0.1030227259903872 -0.1113222317545768 0.10009143050678178 -0.0527613796413151 -0.1811347887293699 -0.05927727160084868 0.0715239476522773 -0.08964767833622737 -0.08499686773836924 -0.047621514393337123 -0.3656128183622358 -0.02191750730741971 -0.16467114817243542 0.18884190399135625 0.12009511507268612 0.03964709616509684 0.15533573853667093 0.16613805425066094 0.1442926766515629 -0.025838910580791113 -0.3479104429364932 0.03771718608154438 -0.12275272797906113 0.03438495785905443 0.054844822073565384 -0.11704896251322665 0.03571771665569228 -0.07535411975072205 -0.08813885181297809 -0.005934967034202189 -0.007989644626744794 -0.03538596734625033 -0.03434502981852089 -0.16772917188100928 -0.012264093759930575 0.08175884044199604 -0.09684409995995613 0.2666773653399703 0.09228093978704204 -0.025578332155193312 0.06170356886150934 -0.16024149278358843 -0.061457610569836306 -0.1975093759187758 -0.008891715700780196 -0.09612190013299886 -0.03297249662910487 0.06446615307934091 -0.03671747772485626 0.11201578264072078 0.11275839386462636 0.08595754724110201 0.00532809983540859 0.03451701119649288 0.046243066844411054 -0.0020202308094431297 0.05472040339735619 -0.25397634249664225 -0.055887892063154955 -0.11973447235704159 -0.11836754261352131 -0.08676950222995644 0.11835134659933472 0.0003973656024916153 -0.09311820374132546 -0.054424282588373465 -0.08397954244223331 -0.06929938531753062 0.00715280762757225 0.04819113058723111 0.05147967179608778 -0.11713624088060777 0.07358127664195245 -0.004498793673378976 0.16347968619162723 -0.20745016946612324 -0.1790723258217413 0.02218753295421901 -0.049856922689471304 -0.08876225739127341 -0.3686286804658828 -0.27174192280846227 -0.19355603641441488 -0.06251474558986697 
-0.03957010612326553 -0.0043528001037836704 0.19048034591083862 -0.13354553780528458 0.11196306640708296 0.06291492043083374 0.0546900633325028 -0.08617547514705645 -0.10483750515676171 0.16193790154176052 0.08234705092311835 0.048398884625552564 -0.05590543826622123 0.057101695006310745 0.0946979458421332 0.14271471820187703 2.0587116406155248e-05 -0.07175462388693342 -0.020156049798307547 -0.12228042057495983 -0.06799297542140315 -0.042210695725027926 -0.06394284857184099 0.028714120049958512 0.03309759967244203 -0.10930629140622564 0.07426497487485662 0.0915192667031015 0.007585862205854895 0.02722015137767979 -0.0002134353895815145 -0.04879812667920004 0.01934379775817473 0.0910667997080898 -0.12368265126214141 -0.0467347499796954 0.043545382328713 0.11113902420959616 -0.05133325424345576 0.1639638519774384 0.18830542698346853 0.095336982779692 -0.01733897769614289 0.06792659590150435 -0.10449603046463642 0.18876303565297514 -0.060057063555920824 -0.05339255661339637 0.012429721894435529 -0.12236039462923096 0.084062665506192 -0.06236673876105529 0.1432207782655228 0.06628132623414851 0.05949269714635733 0.04400682394504634 0.003849736869890932 0.07070658131418056 0.02095687192847004 -0.031512309819568075 0.10903446465385226 0.15824860778883795 0.1332636106871161 0.09858152432235544 0.06142476748128249 -0.12421683472905015 -0.08280718402832977 -0.09874596045076214 0.07828520792615073 0.1773718093976674 0.0999361605209586 -0.011991018842975508 0.16306178427718912 -0.019270584998822858 0.03896135654386679 -0.11972601894586749 -0.08377876093230877 -0.045457761120390745 0.009042810406879584 0.011187224017201378 0.15144453188023677 -0.04795850520710528 -0.167678566481151 0.058860517367589314 0.22047657619884356 -0.01075288007026706 
-0.151075483453452 0.054987174440590245 0.08868431708381394 -0.21603324852030764 0.13726728580136485 -0.011413932238544928 0.05961812545172201 0.0770473777594261 -0.056442150057544535 -0.031367017972025284 0.08712025505287457 -0.12479618528291894 0.025619811393981357 0.08171438138081527 0.13216247937998432 -0.2205399210673227 0.14059161167297818 0.21735035225095517 0.2612825477386684 0.045787909645026416 -0.09213822723586866 0.17175716386224685 -0.18527067426900556 -0.010395748492301585 -0.019807111242292667 -0.05116906172882766 -0.049083419661889255 0.10374440120692607 -0.23792086730761233 -0.09124412456768875 0.006199215132434088 -0.12831519138729663 -0.05418419216468442 -0.04356047808492116 -0.14717587147034028 0.07942221089823098 -0.025654975930494324 -0.19173138990022082 -0.0971491769864895 -0.1088949110486658 -0.09552264638482325 0.09857499346608947 0.08475061207976683 -0.05369779093496198 -0.3022666088901133 -0.10564289938581697 -0.060261243194335096 -0.11410578651898713 -0.1346104116246847 0.021808423331845392 0.1630102687609551 -0.049752451867028376 0.09533031533041408 -0.0082170709680058 0.06337240512303037 -0.12904231209033523 0.12430817329680309 -0.019638888182761393 0.17870573761758965 -0.10167397869790765 0.19760132090524152 0.08071138690781542 0.06765406320442566 -0.18924817845587105 -0.08550976758537221 -0.05715298525953195 0.12730648298083078 -0.07433731529133679 0.19030251136895254 -0.12892817547864485 -0.06629029677536093 -0.07953635867711602 0.04545958155211187 0.05037222359763797 0.12648605268596955 0.0014194502161709382 -0.09363379417301758 -0.11430723200376522 0.04004334964766403 0.05804435001506212 0.03890830331987782 -0.12076207790069783 0.07531526041953018 0.030304199558172228 -0.29815711054164834 0.059995200012604694 
0.06358749459399644 -0.09057086209365178 0.14249776003217038 0.1299721782914489 -0.0551614070967829 0.006133166936160722 0.2090615243427475 -0.014367393759812342 0.13202994972848758 -0.19727297113302336 0.12504414805541308 0.18265823271410378 -0.061297883913517814 -0.1703280592232738 -0.01899862882565167 -0.060723018954176214 0.04571451298576959 -0.09434234520283144 -0.029964838797226494 -0.09994010404632495 -0.1147760995013082 0.09160309500692644 -0.2349394944398541 -0.009057985769296806 -0.1770233263797364 0.1155839675081999 0.014796060834920303 0.16857605853363036 -0.0023486705458227414 -0.00035943977268246735 -0.08841880814477243 -0.04898348342168188 -0.014723009149760224 -0.054247305181001106 -0.1635643583727959 -0.027967478391799094 -0.1182963277316805 0.03362584463533017 -0.046894999829301114 0.0133032697648678 -0.08648109317070637 0.07176158042485202 0.13788623442827283 -0.0882362354662012 -0.10201840069133711 -0.12086750779178856 0.060359034733061326 -0.04555345895455977 0.08576338054716015 0.13444754443954496 -0.066661913233526 -0.08110325459136616 -0.12376183973275627 0.009368764214141014 -0.12285044088984967 -0.08806472109080238 -0.15921596089710166 -0.08991856481781381 -0.06941022529328657 -0.13815447348703058 0.17740277371036295 0.048729517041055076 -0.022709824913599314 -0.1373073128372733 -0.09320321021050858 0.1144532491496886 -0.010815433637742835 -0.09396915127203491 -0.08192109974319048 0.0384679296934997 -0.008323398986129311 -0.08225881351039982 -0.02159750663174283 -0.12534933128458503 -0.1180530114712394 0.01403907751032292 0.001406982549387345 0.06941658742334343 -0.10052492336520341 -0.035683312518858826 -0.08541795430266966 -0.15090097694523844 -0.04718392624543118 -0.08260030844913001 0.01067754625995477 0.0016471438703939433 
0.06057650047686884 0.03303854313423785 -0.1288226037450513 0.08513362461031192 0.017378451480623124 -0.018289638548720993 0.06700836503798742 -0.10365737500911185 -0.0075939189116674315 0.03821973820466613 0.11965739764412846 -0.011390332629454034 0.06743416129860938 -0.059092454262325005 -0.11887869533179347 -0.03647834812405378 0.15180134336760162 0.1326189006556803 0.2246097520129749 -0.05660776103421951 -0.06694592215329628 0.009735480290495254 -0.0342758288755369 0.0029939696500519393 -0.050977980601330054 -0.01208953556074003 -0.1537340735171558 -0.11562760373584031 0.03661544988105018 0.07321472074292873 0.005980494859045577 -0.04094379548430854 0.135821173035714 0.023283659179677767 -0.08267594319158178 -0.05851640841588434 0.17568081170041794 0.11679105104908172 0.042600022772406904 0.18367126347680246 0.03482437278527951 -0.07550783359525931 -0.06310438988709355 -0.05135165567925772 -0.35058385399005504 -0.012939389963096468 0.09990702997006931 -0.008577692441591643 -0.046813395499470986 -0.03019881912690249 -0.10587329379001786 -0.196654204967116 -0.045552196151344884 0.17086849403517712 0.12319437010385985 -0.08909016587430892 0.04925849226724077 0.0011548569347076777 0.0011978388271576294 0.004157171576111899 0.01074284967210798 -0.10614523803616054 0.07193765696855596 -0.14952556414120902 0.06298053644123251 0.07869428639994569 -0.09656639892629088 -0.029502515285663312 -0.08565234172266525 -0.11618653933150196 -0.039997968241510036 0.027859838231870493 0.08655634417006643 0.058596533387478535 -0.060705951104963594 0.07471941016206574 0.18108443078540243 -0.12336182020920478 0.12628994842895944 0.16505290607860312 0.067458585313993 -0.05652013261122206 -0.019150276770356304 -0.0047870407528793815 -0.08615752479928783 0.14885888639958497 
-0.005233865206678054 -0.040897141592031006 0.03109463775517471 -0.07987545843426108 0.0631284995959514 -0.053208110242381514 -0.07331628474596423 -0.06608239900606216 0.11155294175848539 0.03298253633649831 -0.08283295328169514 -0.08853202522191123 -0.02886801286885792 -0.024055324558767233 0.14923343539675074 0.10855972631416601 -0.15652400187592255 -0.10470429431653959 -0.08552533719602719 -0.06502226621146953 0.13935713659455207 -0.10652484417080638 0.03212489267994774 0.15247035082745297 -0.011095405931230573 0.10449427406253144 -0.018813375199659962 0.11216031010239177 0.04854529415276422 0.0957740463213889 -0.11502694785827265 0.07380178283741907 0.13785002303064486 0.05658719692596595 0.07750297597217222 0.11143813906191603 0.02792851430335894 -0.0539274621008122 -0.0802335938400661 0.11059125109592309 -0.05185587966283385 0.1333416923042116 -0.09478287137692164 -0.029093923103724873 0.0208625912536944 0.13554255404602128 0.03667969241696589 -0.042818561195128134 -0.09480610203651813 -0.05598855345153958 -0.02542348560096921 0.08011786028937756 0.10814008274395098 -0.10235541785320013 -0.08667299116124098 -0.042878241877354416 -0.011086212138171833 0.012115264251399062 -0.014187753083246775 0.12347392536688884 0.07564631194510663 -0.04359602880451303 -0.09154952570275937 0.03371537569242023 -0.026513387551394686 0.10108189409362797 -0.027231042807445684 0.17509065625952433 -0.0771849664143315 -0.016474259811723957 0.13144988265332602 -0.08910225656326815 -0.1146833871441762 -0.15444775685080503 0.18223523557659305 -0.005920130529297606 0.12931290441091509 0.11515464263488918 -0.07104784541050378 -0.047143821183840334 -0.0053474985806451275 0.13295129600939184 0.15160338745070787 -0.04399729932917526 0.11069972905972436 0.11967321520784707 
-0.06917012200065341 -0.060215760694881625 0.07952656219040069 -0.03646221785640187 -0.05619645193528323 0.058374545018511206 -0.026997069803020742 0.024379134745912814 -0.16507396458721654 0.06722365177654754 0.04184910426872422 -0.03219248265929233 0.08266928636921893 -0.03604074479957189 -0.04377547533143763 -0.02620653256541855 0.07007087894917774 0.11598581809005237 -0.045766506484993946 0.11256036860785484 0.08743223069184083 -0.0743735464744236 -0.07920002670146359 -0.04994636609215585 -0.09589597704338958 -0.01308083937997825 0.11440896409126346 -0.002466650027983447 -0.09057737106833179 0.019321254129467693 -0.04514600014930578 0.056286497769073164 -0.0035870659033109885 0.15486307381024203 -0.03303998421727945 0.10118921233647976 -0.07155524312327824 -0.06862985116981915 0.025771729449106988 0.09878871214668437 0.08198305707408457 0.13474706617833107 0.027595184517846618 0.09758099477141245 0.02371787369293809 -0.10259476059658916 -0.09689906729682048 0.0213347899327909 0.01940268061619988 -0.0967379435138876 -0.08024253456089357 0.06837301226272001 -0.011431951486148102 0.0488823146209604 0.06262473726662622 0.006284463404276764 0.12341912937797139 0.0005882850079908184 0.08125194147153439 0.0827589750607535 -0.007944044670855558 0.09438577922081243 0.10751203160368368 -0.14643859931198616 -0.018056593529421586 0.11186542301519692 -0.18140302968300448 -0.08560951964945587 -0.02547204145369577 -0.14192351523995786 0.06510208360701258 0.03623456267541097 -0.014757305745952897 0.14257233189086554 -0.07376567028565563 0.061659550868341254 0.015223118146519844 0.10117117252578187 0.08201493401460071 0.1466005253974703 0.02530135770599136 0.1468719556922421 0.14164294521904747 -0.09180871682411125 -0.10900253104358786 -0.1825223331449143 
-0.036382073892376424 -0.06011330949187977 -0.024147459489442528 -0.1104422314837599 0.10708060798975576 -0.01880406719945385 0.03900385518670008 0.1120450356588286 0.10959448988641554 0.024338912145940132 0.01391286734490006 -0.10592616493335712 -0.16430695693579264 0.010183541395464525 -0.03160063800427795 -0.11000305077340404 0.09912002087973779 0.057602583193140426 -0.0145188652586102 -0.02195404037579511 -0.029670253009612027 0.018964351620563407 -0.09810643361040501 0.028610642078842046 0.14151320285267982 0.07291646958842188 -0.058607512867649404 0.0604384423126393 0.07333863461577952 0.09725852936978734 -0.003965712394999052 0.03908945496805634 0.04682731316108591 -0.07714221986461219 0.10638195635889132 -0.059942035042283404 0.05666806795136698 0.15144012750659558 0.08807500957935852 0.10472955008137903 0.06373628862270814 -0.06620350736256103 0.07213793650178002 -0.03260323098850469 -0.02342516134457882 0.09840082370213526 0.15767673347729025 0.05723015880229634 -0.08088204283711727 0.008854871592402086 0.07927535781813001 0.005950207874583218 -0.11627364958904902 0.03136407662362526 0.1459528776522485 0.04757710336247459 0.019505247046736934 0.11154334502033969 0.12329936491176888 0.08423912795776534 -0.02456334753485263 0.1963705241548382 -0.14134686400995083 0.00527290694733726 -0.03604973023298791 -0.2318864954175159 -0.12153176691421702 0.1178279712059945 -0.061051789839475616 0.03971486048353506 -0.15969630881757907 0.001139261370829236 -0.15272658481034893 -0.07318644753630309 -0.02541676871846602 0.05958236829802188 0.1308712297296287 -0.08240358760968221 -0.030482092301956892 -0.23326135534692902 -0.09087351811376786 -0.0227325212008126 0.07646095415372244 -0.15403950857703455 0.1751673070296535 -0.08443539135672393 
