0.05244009549512211
-0.13797109521968223
-0.08341241429130389
0.00035967801473368795
-0.15547368589667115
-0.0426625247895496
0.01637322737603743
0.22180832512699664
0.17558394613761025
0.13232535535801399
0.04791306368491178
-0.011051621263497046
0.008708632069909782
-0.12322090848416072
-0.04970612938117379
0.17142560423270195
0.17673315700435127
0.07117226513697453
0.06317814226104404
-0.006227303313378479
0.1627699377051299
-0.1572214245521912
-0.04816189408790324
-0.1260470250440891
-0.015143603601339164
0.047581006911264837
-0.012073199029102397
-0.10054670309246323
-0.021217285629255584
-0.07509560838915127
0.09428171268546644
-0.06771704145541996
0.21283008319384136
-0.12814840487602405
0.18743261373084966
0.07884733931760583
0.1403820537511788
0.04480567703135116
0.02810055763062042
-0.11310651868243303
0.11466618204264198
-0.13017835643394104
0.05116521918922587
-0.10249099633618272
-0.0397395984266609
-0.0813128887980159
-0.13605511747006072
0.07206551444561263
0.041120575759355044
0.19328222949338345
0.0041938531366581
0.0568269518560517
0.10715268802790923
-0.1254267038539034
-0.05414605512458151
0.08378042746679686
0.049492271253374784
0.14352957079859674
-0.022904377689177677
-0.007840198817385109
0.26224150330937473
-0.12102271471854663
0.1933410449319453
0.1391401825057881
-0.005354993513168295
-0.007218005208478851
0.2170737453088957
-0.016048768066827382
0.010125935381206767
-0.0027383438777879724
0.135323332291749
-0.028368572021052814
0.25372416226288474
0.15881143812373988
-0.12945126263412582
0.07774641532862847
0.14489816701489977
0.05681693241936888
-0.13584135286539128
0.20960065974293915
-0.08397867577826086
0.002166979210544641
0.051289794745628906
-0.08907414549709068
-0.030712443643535266
0.14439420029016145
0.12706345247566317
