0.06742209060589294
-0.15622739884500456
-0.16802943958677985
0.00027081237430388335
-0.15726871788090624
-0.08966678358765909
0.020316171428320998
0.22779810897980163
0.17503812981324288
0.13952896608386903
0.05522177982756183
-0.015961984462186364
0.005687969015456148
-0.12762422953637856
-0.044708934556629984
0.16677898937644603
0.17754916535991172
0.07085998672052791
0.07103882950405734
-0.00023966281411448408
0.1638018243748382
-0.1291944614356562
-0.062194544279773376
-0.12258762690243963
-0.017342943699047212
0.057657325524410705
-0.006834253041642211
-0.10205110713432809
-0.023532488542897533
-0.0888968638353983
0.08481534315310743
-0.05633688137978195
0.21552547509167544
-0.08096091744697852
0.18982635288393918
0.08992425681875726
0.14416330211195472
0.06815663983407287
0.020629296076068195
-0.09403568662565868
0.1170946015213876
-0.12040071235595827
0.05158775753396584
-0.09728563130358085
-0.03220742642691832
-0.0835222323264293
-0.14824259124767183
0.07019476377502894
0.04279093438662225
0.1951034094297509
-0.030417068065603608
0.05559217131934184
0.1109363327801019
-0.09674974139009
-0.04780301224677913
0.0805621670594551
0.048080144757848414
0.14428550567629328
0.004025482674322739
-0.01777597570633124
0.2602305417958867
-0.1264973245803471
0.1968468155000773
0.13146934743203828
0.009247857513328019
-0.00608424557006987
0.21934901444664717
-0.02773340697203868
0.038020462004031794
-0.026274496326098594
0.13849246379515698
-0.02238718569574559
0.24936883013849648
0.16122169007165468
-0.10955540007246334
0.0760248747646947
0.14563196731723138
0.05792459946699867
-0.13583580305864412
0.20673175887636747
-0.08609237057784422
0.008417490154952115
0.051549142215820826
-0.09155859886922521
-0.05408230348095456
0.14573514779065497
0.12778840764405
