130 86 1
-0.008065479548788123 0.07579124654990861 -0.07558964440353691 -0.1201342009255839 -0.03641564475148731 -0.1585603255116346 -0.05758484826462224 -0.1325641416012482 -0.08244450159186742 -0.0174713422318911 -0.07953167612746777 0.008387674170059563 -0.063512613108816 0.19739740192958408 -0.15887971658741226 0.008957026605716466 -0.07283370726330085 -0.05486468449930989 -0.1733442767951284 -0.06574515116930219 0.05122938078203496 0.05256300572780493 -0.039660788618775054 0.12959823721863836 0.16318421250902346 0.08507012969747493 -0.20427980038187538 -0.11208089857861746 -0.06407255568090683 0.1387072066204215 -0.22533879175833796 -0.055349957149790595 0.0868553924067233 -0.014054698674463068 0.03575177211714898 -0.07045449513168274 -0.01635793296578233 0.1433264717061934 -0.12824891645180247 0.02055864504762693 0.12236090790473246 0.0486089789585302 -0.10592627187180684 0.1176112547957052 -0.14755320807148398 -0.04444628820995601 0.08632447014594379 -0.08412973848532064 -0.0769445168341997 -0.17036498936550024 -0.15057852315942002 0.09123525952863404 -0.15107524962363336 -0.09203826014336151 0.030665121678759705 -0.2184295877255453 -0.02099884405198652 -0.16268670927802995 0.05552664520582588 0.09770535940580806 -0.16887372569223824 0.021454561510182022 0.005824413013452522 -0.14256798638278362 -0.1747090314106614 -0.032874083909624666 0.001445567310309149 0.0024293213736367057 0.06717904707637319 -0.02999301934635709 0.08973260306270289 -0.11310381105730787 -0.17361873199335018 0.055297501329706185 -0.07810436470068562 -0.18743327969398987 0.09573872825359195 -0.012598198901356555 0.04465715935285084 0.01289693734223733 0.08437848650854174 0.07411921010345789 0.12061782418827019 -0.033686799435830014 -0.1173895401690311 0.08608787165050973 
-0.0532461766051654 0.17872485626473938 0.1586145241530807 0.027117753871633545 -0.07320192767708719 0.14949599888559725 -0.0032792661138777465 -0.008587624545838517 -0.04623786840450875 -0.05262462555270787 0.05437117290919262 0.10668702771504349 -0.28609842049024986 0.10494644537930338 -0.11586530675307556 -0.07133555722843546 0.11047691377763505 0.018032006098679117 0.1178900396256958 0.007641518170188577 -0.18026910238053637 0.13744364953048493 0.12972544182586765 0.2403520789600606 -0.09978866549326533 -0.11245260557168925 0.10712651409265497 0.04799822548832036 -0.09075505794923651 0.1344902817905997 0.08619684490498754 0.14902159085566277 0.05282895930754029 -0.1173111375201142 -0.24399942230790203 -0.24791697727623177 -0.10608321093524027 -0.1261365216022118 0.17567779494162644 0.04362920195348011 0.022191712714044756 0.053168823087350874 -0.1173171276938643 -0.1004478208729528 0.08758468807944718 0.08552884066429275 -0.014494418056832013 -0.19256246770371407 0.1572319753976419 -0.08702957975273264 0.10489852669389009 -0.0322138235868898 0.134086152226667 0.04901573790908962 0.07239611838223282 -0.10015016103033658 -0.14690935557953105 -0.146853820423154 -0.20716813800895634 -0.15155779283753312 -0.09502713204812864 0.16740654140678776 0.012170188931550467 -0.09529045230292726 -0.17585942050876485 0.12677297602351204 0.0023570624408039437 -0.11710576498848013 -0.11601206819248801 0.02484720070848702 -0.09699633876921897 0.011061817855264094 0.13508072296883833 0.0964347784996642 -0.04804502217385835 -0.00947439208045387 0.022089844977541927 0.117974952237441 -0.08057545588608724 -0.16559025881537245 -0.1580865271823273 -0.03052043212803749 0.0831545015718244 0.0394203920851994 -0.07052744551438782 0.14344600666281176 
-0.010913974246911312 -0.00648955714052136 0.07520689084001259 0.04115812594710487 0.11277654010549194 -0.18710417665926335 -0.05977554255659157 -0.0704550670913186 0.028891327242991715 -0.08545965569277655 0.08019346590961846 -0.14815997240406836 -0.12785587521680533 0.1593292444154375 -0.1144546675429806 0.022627344935450995 0.004414686500230471 0.12620674717067817 -0.09859983072854836 -0.1491920158994084 0.07324822723707236 0.042234813881169786 0.1415091562623027 0.14154208253933978 -0.1593627117898054 -0.09809837610504571 0.06377682319620268 0.15806680652839192 0.16696216679293094 0.02074123115696617 0.13080724174249575 0.05440294353526725 -0.04838502140340491 0.007288050162050173 0.04156907548011394 -0.05573961853616766 0.11751984591327634 0.12282259141513649 -0.015573748471703423 0.16599151257049702 -0.11021434654354592 -0.06957849038397373 -0.1370291120304869 -0.020597520649521563 -0.19040566215840557 0.15915589774395222 0.06337704196192902 -0.14224504257934167 -0.04178218130249624 -0.06449174207267856 -0.12962731322205326 0.09807178838192047 -0.0640104686985003 0.13122208812288216 0.031173104966941326 0.11432400368202902 0.10613324861486537 0.13049807303883657 -0.15634856299795735 0.007530035854258789 0.11221054900331888 -0.039185126241602995 -0.010932669397751612 -0.005499629818795347 -0.14989361155730585 0.06094323554161115 -0.029762241551915154 0.02539921649650569 -0.1387843156651611 0.12903722716157529 0.018607818407711207 -0.10019244280385657 0.0893222114594751 0.03286871806695237 -0.13848334107202737 -0.01200101367681041 0.05527960341279004 0.13842244443070473 -0.11625038500835405 0.13300967994444998 -0.07711561004489786 0.1497626496534292 0.027266261055248403 0.12019593125989368 0.030290398030581294 0.036678071375664166 
-0.12912082751109685 0.01576447100541394 0.04666806943301765 0.17780761112709859 0.06784220809665782 -0.04650915753434711 0.07862376429164379 -0.1025637642920651 0.07698260102743755 -0.06659203440100264 -0.19738389546302373 -0.035302017291655136 -0.12404355194315542 -0.08589276085320594 0.023573551979964073 0.028159170251184418 0.1731376572250504 0.0075623086883707695 -0.10463261875763502 0.06234356654035389 -0.0362248805812078 0.10664869013108468 0.09458984940331827 0.1160673240976499 0.008952869429862804 -0.1986020360414938 -0.09414234030756195 0.08601298635727794 0.008455423313930656 0.017730102682278922 0.02685740240120303 0.08754964091109194 0.02050752926390981 0.04775978325009396 0.06875039374605132 -0.01308877318985801 -0.12497107930579675 -0.0985887276262994 0.010667280164340372 -0.11154040608094125 0.17504229110928166 -0.06847373351897149 0.09288455065339155 0.02638884070276327 0.06410029326553068 -0.06458196231366616 -0.07956475372269292 -0.010176531128047586 -0.030704738505107455 -0.07659585411842874 0.014717132317034209 -0.061232396184742126 0.1259739294396998 0.1397007225935782 -0.10919252932364931 -0.14205715555740311 -0.07867347246888569 0.014823172471418768 0.04333542220786342 -0.11748081903502426 -0.11869349926617694 0.07447515944704407 -0.01830041657014995 -0.010160307152549114 -0.0590631923389482 -0.10167194044296161 0.020176393857714716 -0.025506254429844954 -0.08041325925733936 0.056050136764803006 0.02963673141722963 0.02846837424111383 -0.09990723608468946 0.10408497540200524 -0.05282413125921606 -0.040255326478974986 0.1093871968812356 -0.27047610810121614 -0.03260945729264762 0.20403550896629946 0.11767075692840134 -0.01020519961660272 0.2115129515843429 0.10989473593295616 0.048389421068348704 0.13336711136804133 
-0.16635737643500687 0.030989346140581752 0.11505541916309203 0.04081928252094708 0.1288234218735527 -0.1840774306090613 -0.003079539411502508 0.04302627147502209 -0.06605462631561858 -0.11482922028184529 -0.0067851443313512545 -0.11502355731634338 0.06741373544130723 0.01777025579136368 0.061072882277580044 0.15141432788710188 -0.06935314694293998 -0.12005721470099474 0.13246393520603186 -0.006971872111804487 0.1531503800400485 0.026588146234517173 0.1423915031099078 0.05984471689642128 0.008811928682770639 -0.11787619727940613 -0.1477693444408357 -0.14128022919482366 -0.066230938430514 0.08547155148990405 -0.1919489114062977 -0.08534140595812634 0.10236234911418111 0.012525278668742482 0.06554948926313664 -0.12376625006387842 -0.013475924278869117 -0.00804204822999944 0.18023539523318913 -0.14165811824539126 -0.07112779078789257 -0.13008510449012478 0.09507303870782909 0.0037378662327283404 -0.20549666321295693 -0.030946971072698615 -0.13886688077108936 0.08619315396009213 -0.08743687137743829 -0.14510494570180255 0.02418615872337843 0.10323058599796484 -0.025942126499882926 0.02190826524531163 0.0330854148401335 0.0008858053065655009 0.15418739397098777 0.09735599491618996 -0.11462882725794772 0.05562380405925973 -0.010816346395145558 0.18212083160092393 -0.09199035131296511 -0.08054664197916173 -0.13068024711974124 -0.05402499647870416 -0.13613503786149006 0.07855338986662307 0.019691781454767535 0.04292218910956182 0.09839436907941468 -0.02637571193139897 0.11277259654305495 -0.025681482229395723 0.07522946191902291 0.004654330866149992 -0.12256085864626556 -0.1320462803311567 -0.10920573526016766 -0.1357092956836608 -0.02774264916447325 -0.1654217535768117 -0.145660259624944 -0.00110579447076469 -0.07781768672541561 0.07932686496782858 
-0.013387457562177948 -0.008971656859804467 0.016749012315126113 0.00017008099699591987 0.08736940965183432 -0.024634386444831853 0.14501972463558277 -0.09126772520387048 0.08861201176880694 -0.09915476889401989 0.046356346295059 -0.09699470386182443 0.01927683163052119 -0.12436794524907785 0.13947705754063824 0.12783230424664357 0.10596013863150486 0.14216062671327467 -0.06844424624872708 -0.06593143986838157 -0.09410229970089183 0.022445879731561896 0.12397338341258238 0.1525100816386349 0.0607547911635371 0.0703289145425432 0.14343612512137843 -0.014410960341820685 -0.04725121808730928 -0.07535177312432001 -0.11200007280711967 0.116418185842111 -0.11858697093252854 -0.04437831471013894 0.09679295126229265 -0.05244251122207313 0.16570407077259774 -0.0784363669228898 0.006021669756861875 -0.056239199019478124 0.14358411670300875 -0.03022914001534556 -0.02820174792795323 0.00954400030357719 0.14774132333967968 -0.09257516271378917 0.06417248894844972 0.07605478552540232 -0.09335952383143016 0.007733824851797069 -0.032294665229067106 0.10899846540107315 0.00112935185242183 0.0354415387868756 -0.037203075137962435 0.050792577659316204 -0.07576964596610042 -0.15273752561472007 0.013897578519684397 -0.07096642653942417 0.0038257920858287427 0.12817894969479587 -0.016688667388915657 -0.09263236661071568 -0.023621046201818027 0.15069800826657687 0.15165627819267968 0.10445748766161198 0.13956893621849586 -0.0791692996564714 -0.09158014927032292 -0.0517652214441809 -0.0525295744903886 -0.09838284400969492 0.019546238275586766 -0.015686520487359325 0.11247683584431382 -0.0987814860302517 0.036794456131140296 -0.08660198243708853 0.013429110718829672 -0.05930947364616571 -0.08702570264543345 -0.051462868050786974 0.045157192470522474 0.007769336893212602 
0.01738463568103747 -0.11338402351457777 0.11308580117255182 0.12931203718259432 0.17478009335516695 -0.009378766447595588 0.22398323542344015 0.07052184671605152 0.011455764134690115 -0.11906366529239798 -0.1788090403080221 -0.18741837338789538 0.03405344770913905 0.030635520924674253 0.15321734948627164 -0.1436546089292716 0.1310702320089537 0.027240350690878486 0.09096457213740991 0.0653825606027072 0.02665405654627487 -0.0920499023320061 -0.15265387562432106 0.011440257804476285 0.020261231651152498 0.039387160151689686 -0.08940244028995023 0.06292397226530955 -0.12329762219321226 -0.1677607543395578 0.05236644177565894 -0.11757738449031617 0.11763750119321029 -0.12110799210896797 -0.04061285738756349 -0.0012678163739017294 0.037249002109300135 -0.0005817007105616931 -0.10590415079479648 -0.1450473019396648 -0.017752461718501582 0.021874970372958186 0.08971169974265122 -0.08676787431305091 -0.1762624067287231 -0.01475005169269139 0.09312395209484735 -0.23172297397999717 -0.00540315817066448 0.03762796756694359 -0.043620184610192875 0.15448301611719004 0.053918960738578395 -0.18047591796716533 0.016156691083136325 0.0670341405921514 0.08662423064096554 0.02200435914559006 0.13772425330300303 0.033270387390454584 -0.0784809803842036 0.05354905712308563 0.02757913909947072 -0.12105938293427768 0.04164006571261401 -0.14300253834629878 0.05015880912468363 -0.057673553013853913 0.08352028680748559 -0.057924041361469655 0.08169637964040041 -0.09245385282599888 -0.12517140516448338 0.061204669643851385 -0.09354755736017581 0.021283958226603252 0.05405165580611267 -0.07136874728819603 -0.06634005325879594 -0.12577048376967018 -0.14506255044128583 -0.020950642111421513 -0.11459083231863007 -0.12209308708531516 0.01827286845201462 0.07289790503665795 
-0.2027323878179367 -0.02750265635682246 -0.10703474671572699 0.1517677586088514 0.09631446344075557 0.08234669716520679 -0.3814230493064793 0.1223078645032521 0.024597891684642163 0.1570986541270497 0.09125498797043048 -0.03275769702520933 -0.45910004185161835 0.21410996961704726 -0.20158157397459378 -0.0666940068449429 -0.0003117536902268236 -0.030637184348768484 -0.04717594492298447 0.00633031689075009 -0.08314276361409756 0.022007880027910418 0.08479457760312176 -0.06659665605678715 -0.04842536797144467 0.12862375686163494 0.014775614230294807 0.022223494403527406 0.04109154137153389 0.11914703544314202 0.16263535523864203 -0.06419971535641807 0.10315771572226065 -0.1577824910023608 0.11071415107487262 -0.195403966219179 -0.004836520485600158 -0.2095536014195001 -0.27996650424818126 0.167749576346635 -0.018902711070864907 -0.0014942874703725217 0.022965363575869015 -0.11849685130230768 -0.062188903206598936 -0.32050567327849405 -0.023468159127501786 -0.06995368174488721 -0.17797500930175286 -0.10142313300698526 0.023651874719671992 -0.19736180846158607 0.18044649993793654 -0.01406642108094505 0.07963893490773089 -0.06562958265758048 0.1290914817771 -0.08553141760932086 -0.028898458044117625 0.05523959261742735 -0.07067773766584626 0.042699167801360065 -0.07756712237102026 0.1252200984038676 0.021206713418996492 -0.15650978638902027 0.14050083288621498 -0.29321476344029784 0.06838084442226226 0.02787148113357673 -0.004861713695689506 0.07819345114635444 0.09540795238417393 0.1851850657185022 -0.21570273190103523 -0.08408252178631416 0.16399904348708333 0.06523209750658268 0.043455662575970166 0.02198902136006837 0.030015362823471968 0.07922724007105375 -0.15015343382777616 0.011551406266814473 0.04589548575104593 0.06131971984606971 
-0.08977084235463005 0.06747631808585138 -0.11743366397383567 0.10790779604391375 0.20013190895182315 -0.08585954912869141 -0.3936373319492543 -0.10192611362691847 -0.004942664969405423 0.23526995826435337 0.04305475781758979 -0.3202618500764002 -0.16044092333812068 0.006613872223256175 0.008474626782809476 -0.043601793833238985 -0.0021600387917475594 0.02036475873808684 0.08399436087321481 0.1261837480604613 -0.04319845757500622 0.013743939517108485 -0.05268006940080764 0.03569695987163916 -0.03978965056642533 0.09987887729012061 0.1434936736101672 -0.016038950135939044 0.06330508797550356 -0.009951937244888454 0.07312921835714514 -0.16586742969760268 -0.01790261123039995 0.13827745728921081 0.08215807320600876 -0.05449510854582841 -0.044517741019302365 -0.03716353263162484 0.1444336437234149 -0.21143397602703737 0.047304615638128975 0.1031153222988638 0.03411393722488997 -0.16305737160639733 0.08501510736414229 -0.07452988734735641 -0.01200791857482271 -0.14465200498774905 0.07653599686511173 0.04560321250525839 0.13686610363628396 -0.18802429349156874 0.17031892215210392 -0.18286758131262495 -0.04406672338529245 0.16196522696990207 -0.1618845125143824 0.11756577918120216 -0.13446855618002268 -0.023695936094398466 -0.06210946371489427 0.18419436164096564 0.012201638860633454 -0.12621498461292793 0.05366233097446585 0.13959943226555582 0.018101351033357648 0.060994867176252146 -0.02176976985545309 0.036106313134676556 -0.004356261880755894 0.04000428416602201 -0.080741858873598 0.1765643978203672 -0.10587719345688247 -0.10938925006615373 -0.09921320516523922 -0.17854481414477955 0.03705596342471485 0.046536048538642766 0.04809980020529756 -0.05363874449264102 0.04861537715006616 0.0907426163060363 0.07568270152353482 -0.020273963203204355 
0.08435001654047926 -0.13885227076413412 -0.1002593740689969 -0.10765247728984269 -0.014828039946253896 -0.11592776224142773 -0.13261172979096947 0.15516629199786827 -0.051900687443959106 0.09096685748677046 0.030880893447526953 0.07160353636764587 0.10326614284986099 0.036799456687808985 -0.10201935308594905 0.1264007369087155 -0.01738719752245694 -0.06561710421717011 -0.1201367723434705 0.03430107914538008 -0.07555713914555544 0.1203646437562638 -0.10536785177181379 0.0056915202416215815 -0.0386267129358515 0.11305208033525352 0.04658704031519342 -0.08568813750556814 0.037561160623084976 0.10078626320965121 -0.024200913957591493 0.1646636128748628 -0.07458593352501024 0.014558448980414255 0.06097084455004181 -0.08134472670628176 -0.19182710172598078 -0.03092522607256886 0.10239604855043578 -0.09331149257464197 0.10010445753668872 -0.16702071680877772 -0.02168586157431964 0.07812842090539591 0.059633536924067844 0.014814279073707276 -0.01580644111613735 -0.10820602354320547 0.04898972388682207 -0.09101417351725953 -0.07376628130588822 -0.044731051123707594 -0.07858884635974864 -0.03165660766410201 0.012077593992736639 0.07807919426589757 0.04140978467280053 0.04836557693063185 -0.10274979190741226 -0.15080509902511513 0.032102435525410006 0.07660171106886535 -0.10233115260043579 -0.028214294214427744 -0.0214609965779086 -0.015400882219542049 -0.11283860202654204 -0.058427409989994614 -0.13354175878893632 0.11775865342990645 0.09840942422271497 -0.0689680415764396 0.039794975454614696 -0.06923960896387357 -0.06929453013595337 -0.009756931353578009 0.12509713938817493 0.07686855808169661 0.024525540489130342 -0.12613336182045518 -0.10213462186844477 0.14928168043484982 0.15913873213697485 0.06320917263561188 -0.15283177253723107 0.049593748465201246 
-0.026458436954015455 -0.05574288667853939 -0.005598157885847464 0.05518177714710486 0.15659806691565745 0.08206040182368751 0.03730874666638816 0.12326619550479248 -0.11815324987620973 0.14627763910025554 -0.26089273747916053 -0.10017971517656293 0.027788967462986057 -0.09747812131159038 0.06140082123835418 -0.14170922783446938 -0.08530087856403418 -0.15919320594869443 0.05051213454951741 0.01625855614881591 -0.035568394938841646 -0.09426718623550186 0.04345481176270047 -0.014998953528360415 0.1101581989391805 -0.13510341175005944 -0.05154661392151071 -0.1883692061281427 0.026573716275199152 -0.04742675806887956 0.027696737687345107 -0.11666264037716997 -0.06413818437587057 -0.0036798927782722033 0.12482781641376663 -0.11641086528375037 0.15356678788143904 0.07143641433913898 0.13206954697711654 -0.03742119589611894 -0.08028463561140294 0.09690822915352437 -0.2762204394540691 0.11600252127302918 -0.0780793679569607 -0.03988285671772243 0.11933043082769741 -0.11257313958218995 -0.013914358862308568 -0.11543444499438778 0.0139967610372488 -0.0988820769712053 0.017306538789446265 0.15723526347278166 0.03665056891941758 -0.0165336946354265 0.05302625629539037 0.07900762162131748 -0.023466823181874197 -0.038452042770289754 -0.10133152033714599 -0.02034180898445144 -0.1384145442817099 0.06800196284743185 -0.010872788048375787 -0.01968308777775813 0.11169928470986487 0.07388005217700266 -0.029944326156106586 -0.06396321615296552 -0.13818077386739458 -0.027486384336738976 -0.17385344355301469 -0.08393452303721333 -0.02985140872153341 0.16350835090134838 -0.14509210581360046 0.06466850804952981 -1.1984968687818035e-05 0.11257597207985748 -0.08395127805678033 -0.16979362374951953 -0.03324736692511452 0.10532994636369274 -0.1500390499102194 0.07561610703161413 
-0.1120866811145458 -0.07160201381670703 -0.06251621447925322 -0.03854137392099687 0.03797770195776171 0.01873559342846369 -0.06917005268499263 -0.11795799604401308 -0.1388217080649686 -0.05051068709662603 0.07279093256715567 0.009969721635718826 0.009601475303805175 0.06691800175452438 0.12096466301496007 0.0537691897414292 0.07766923797705426 0.16644676555759028 -0.1499934809179408 -0.13436678007621858 0.002581049690742196 -0.07453000518349251 0.1439225332040968 0.03715991706397062 0.029508234935407447 0.14815230613985678 0.0067357112235015195 0.15014631303470863 -0.06715525479659361 -0.08629512899628591 -0.053108474473423144 0.038629730494977914 -0.0744512376777156 0.05263756995758553 -0.1296899232006264 -0.12980929999605778 0.12204224538283588 -0.05461959769703267 -0.014074447860658262 0.07580968084671688 0.025025462893998915 -0.11598876480580164 0.14019308058624555 0.13914029774584397 0.16711973410547537 -0.06315622292803975 -0.011675670708995481 -0.11632036302546564 -0.02489933319017081 0.16655730634308624 -0.08499620387673666 0.03932218679217923 0.006736109471249174 0.043865583724185885 -0.039623671493979516 0.143964625306865 0.09568406285126245 0.10078672088365603 -0.027481864956487925 -0.1140733145020947 -0.11588402397140234 -0.051047464055791796 -0.12003536714538683 0.08139469920305283 0.01701732694593088 0.011991575037902517 0.10058065098597362 0.034915608315942134 -0.22659532892582834 -0.1071072801540744 -0.09373057178625127 -0.076206939024841 -0.13301369583163394 0.048669636071727154 0.01441861491151864 0.08283583115885251 -0.009724261182942525 0.09443307990796158 -0.01959353006320586 -0.15256196636698113 0.11766956167150404 0.03931658169441985 0.08792044761825533 0.1343315009306915 -0.11797938249692642 -0.07620934267416449 
-0.22753442193433426 -0.07350222905461645 0.09178537022107115 -0.06663907616329114 0.05700559749334019 -0.09379668891986151 0.02341708289708871 0.08220402524485461 -0.2132324286290483 -0.04602656687926006 -0.13115679973387528 0.16399233187341106 0.14477092825042476 0.0694293640116889 0.1614439781989643 -0.06907893300109769 0.10534868011303258 0.03695159485468678 -0.10010541954877236 0.14898939268656936 0.026436913922071738 -0.23099387359331833 0.17196585714000465 0.10483309182965679 0.03409787015672438 0.06404480246230795 -0.1667291222413401 -0.0349737320534035 0.21034882113310632 -0.17186780849390534 -0.04161196083427471 0.11278594588606333 -0.00016567807829135598 0.013432347442466562 -0.13689508190938854 -0.03892709211010283 0.124815838573328 0.007926407609856021 -0.12628698997430968 0.08740091927303961 -0.10160769346362468 0.0775480753448648 0.08923292945672967 -0.07699596243833307 -0.012439181651201179 -0.051371848542608206 0.021494246953524216 0.03669227601340209 -0.14981401479965661 0.12544731848100818 0.034089803387188006 -0.09862976277763802 -0.09517168661784348 -0.053566307960262086 -0.12318183013830643 -0.10478232223045175 -0.08650604680325366 0.08688966540783606 -0.1794860852491187 0.17787522725228294 -0.0803910382497776 0.08140260164396795 0.02491738484992177 0.026767258434942882 -0.0966108111194809 0.07900615211106134 0.10895168525167188 0.018188469209627488 -0.10713307960016662 0.03175285428903018 -0.15693556483274035 -0.11708510363147118 0.10338092611795972 -0.0012282538193737205 0.13615264901735138 0.022068366128782557 0.07865025531901755 0.1378633869255328 -0.038543939861366935 -0.1504705261527363 0.07470410680139307 0.00895810296679701 -0.13383315674872817 0.0296331433901402 -0.23462681186110257 -0.12746877665697603 
0.03648145098305387 -0.10800862019959628 0.02274742294944229 -0.19577980484818786 0.1955714086364646 -0.027919354145496022 -0.21082007067078368 0.1387836313680987 0.023671430291186908 0.02999557317585993 0.06627351516107875 -0.12922862895004097 -0.08681094294436151 0.009120490083673426 -0.04729918139858238 0.009138369041649568 0.07366094868041453 -0.08576060528200968 0.1292764774872176 0.0467708101498911 0.11023696175886204 0.054802894955828955 -0.18745136586263686 0.050559809808933896 0.021456286737693626 0.05613086722888625 0.006933622605067788 0.029941248458463278 -0.021270280977321625 0.09399012977182908 0.09650952836998869 -0.018732811888648494 0.09137952788253602 0.06838165264140339 0.10555318656673086 -0.22680453629413797 -0.06521084326241748 -0.14005543644176277 -0.1509334828693746 0.05945382108315103 0.04243299216628118 0.05956977853194234 -0.03921180703499484 -0.17490679351774907 -0.0918140619678239 -0.052334294940781526 -0.10981738506525647 0.12709895291960932 -0.07974565330075839 0.07489338273772239 -0.06963308719682781 -0.16907111433349067 -0.11432777352585087 -0.015794742786848476 -0.07745599698478527 -0.1034702173143156 0.06836465972247141 0.08075618923094242 -0.09225997290969193 0.10778764755990489 -0.013946595333323968 0.15794960508154507 0.07279474998865941 0.07349296870627683 -0.10260644497663499 0.039235821789065255 0.1369632578281042 -0.05560586975694332 0.054999669784019 0.12522589156020175 -0.046910498310582104 0.000977273072687148 0.14701527778096826 -0.14074103249820263 0.2267115155760766 -0.08751982390458765 0.1238047453713531 0.039415623405885086 -0.035191227219166996 -0.08394222562567202 0.017883728884436432 0.06749275498239987 0.0705266625369623 0.013201598133550327 0.13334540523878968 0.033963742099978635 
-0.16712340199269093 -0.0024825965289900663 -0.012316287231575948 0.21484438533901767 -0.00020616149404018407 0.16281868000264907 -0.25987270249802996 -0.07832867241620563 -0.09026418377928064 0.06511852418891777 -0.09149890135649114 0.08500542220268842 -0.15516956478578872 0.12271186786045038 0.03976781176941661 -0.09798829578647841 0.0169579655316263 0.04041900239892792 0.0679949746489968 0.13447898861720023 0.04927568458857579 -0.11320969195057311 -0.15787971592495534 0.13840953241589 -0.16261274770736517 0.12724769808852793 -0.10033129331775835 -0.011735018191964873 -0.21383965869878818 0.1313820752635007 -0.10907821523339528 -0.05591585250065455 0.18541588387828992 0.012989749203630626 -0.0353769294569896 -0.33165595177267043 -0.051108237974226055 -0.1711702806914686 -0.257115153909844 0.16698708801063628 0.1801639207190089 0.07518889422880516 0.01357994320405714 0.11656257036976268 0.1506348666163765 -0.015010406811484855 -0.0860416436909259 0.11669004080848241 -0.27632727991323547 0.046858561647972904 -0.07341446479108818 0.0493845619268295 0.0701223465796957 -0.02237352800868845 0.07322761418634474 -0.05038445919794917 -0.09959706618595295 0.1637098505614056 0.06421227325866156 -0.004869415238109274 -0.016412168222949695 0.05778970330746439 0.11034161923817656 -0.027813240743189836 -0.1419538055482305 0.17921478682614667 0.039398765301793856 -0.007497485134913332 -0.11036453564826294 0.06407796795647842 0.02688948229640294 -0.07104784458337111 -0.06367550991489797 -0.02949285385469545 -0.1949834730138396 0.03955523781406688 0.13186339441167577 -0.0445712370753042 0.02956006293448022 -0.10859808676576414 0.0395986351878819 -0.06178904083108565 -0.2122965209907443 -0.11393346945091483 -0.10056149200379084 0.1657418902455095 
0.24139841701521328 0.17593006331361652 -0.00805669287152695 0.03988068412428342 0.08935254596779714 0.04325366503476823 -0.014341972014683948 -0.023679962612143102 0.047335057715982405 -0.12137414914013082 -0.07876642835516087 -0.07345161542068106 0.07450773858731832 0.19820156633026442 -0.04898506809123517 -0.0668141099440583 0.04897247468712641 0.0290882893100229 -0.07932976409060274 -0.0724051423679841 -0.08245370455902387 -0.16107649055101303 -0.009254953798983516 -0.003010071780886848 -0.05630183880412836 0.050913049234251787 -0.04577899755319571 -0.01524315543128326 0.04993967684823942 0.018384346385079044 -0.02444753302342109 0.18132112883453927 0.06138238416171628 -0.07024180436859341 -0.10327702859835745 -0.1464679836443948 0.11234392083507197 -0.028534200222538043 0.13519341366588558 -0.19669369367297623 -0.1150485213442893 -0.06967474688921745 -0.1663000337789895 -0.012157743362558478 0.04768217511305394 0.036019381656223884 0.013911307734417979 -0.09315519178050218 -0.02613697016358135 0.013640460594552841 0.026811892875839294 0.09207088644633334 -0.059129140908281336 -0.15558794633317138 0.033663372574881834 0.1072012321826633 -0.01878928909164152 0.11193559609208034 -0.053502238809451104 0.11713473238458115 -0.19232877273006735 0.14253282257430513 -0.07975295478489437 -0.16615068968905602 -0.046669230955234904 -0.022249432049697506 0.03588030836983282 -0.11373825480190422 0.0633268924263526 0.03655979257265153 0.0013114931250912767 0.14131679164719338 -0.21835937833468316 -0.11609565678821697 0.1232797003929508 0.025245563124919528 -0.014192636469349009 0.1504680398066394 0.07710705533359312 0.08675142446994002 0.12048670341524798 -0.13797269053863964 -0.1429236494040808 -0.23533198768202268 -0.17867889515090646 0.10564811554541724 
-0.07903578253391702 0.11165966882191183 0.05704600223510047 0.0025009385159763015 -0.04369804842651354 -0.026978552194576177 -0.04645652884576748 0.1330776753989601 0.0758321120523062 -0.09365134727368384 -0.00689441640291679 -0.048003095368434716 -0.09299978812872498 0.1112669386878213 0.05265903737778539 -0.05184804188256425 0.09773028381403834 -0.044864494472693 -0.05276512623014193 0.08386022679139161 0.15317755762479043 0.004202778637298026 0.08891952034638023 0.11266328186489816 -0.0033258098531812517 -0.032640390266936006 0.061497481645302686 -0.00796060968191389 0.02467714835479243 0.1447323356242792 0.052980604729291614 -0.0406029556048074 -0.08024927127156953 -0.060357848465264985 0.008895243133937712 -0.017852395728294765 0.09827243107791556 0.0849388160320082 -0.06554476006061473 0.0696088683230912 0.14732641387805656 0.09052679675058715 -0.09109643160208494 -0.08689413678498462 -0.09797856355112133 -0.03487548416770329 -0.09822706670694185 -0.045738821413408876 -0.03250429687871761 0.1462959182518307 -0.007638511111736643 -0.07511483769427149 0.0064938599213536525 0.026406926645958062 -0.07558104546787886 0.04883139312776881 0.11482941475098635 0.11245744630209896 0.10738511878274551 -0.04353571102325715 -0.03598924517130144 -0.07760501395257512 -0.07797088077951957 0.14987986130725184 -0.040363481543286533 0.13190655066078125 0.12636085842476677 0.12379057268166722 -0.06625715877041073 0.10790999100887275 0.04698557725051309 -0.09578126696909718 -0.028611547614766406 -0.09850544455679891 -0.010547998626056845 -0.12199507637758146 -0.09646207619715431 -0.10011916671107822 0.03559722570619854 0.02907337596282637 0.12147943056508029 -0.08538984002993752 0.033096879138499055 -0.09182999398294706 0.0028840867338053365 0.11831404733871109 
0.1902242745389335 -0.09710048563404079 -0.07197888181801251 -0.09927869372574619 -0.11315629692688847 -0.09703600091157372 -0.006437626823282088 -0.16848530217861837 -0.10067455629421516 0.0008359120065755358 -0.10788047000778969 -0.07007482232882445 0.01645473524697999 -0.03832280824693609 0.06515700386827303 -0.011578000061046303 0.05895636466209041 0.04591703514121165 -0.1125590151972864 -0.08309022715561473 0.15844714784066774 0.06332540075339028 0.15725628553256485 -0.12130227355759471 0.12263147254156408 0.15419764386093748 -0.040791266058567865 -0.0706711320181191 0.008778313279857073 -0.15851776467993195 -0.051204219840622366 -0.16163108490716646 0.15467615308773572 -0.032135980423771075 0.13870735011700708 -0.012553521287269834 0.06534859907604543 0.1402871091605766 -0.11118963113169088 0.0006165580291877903 0.06759684370963968 -0.003119832206415779 -0.2009645749092907 -0.002797039629678702 -0.03823311311848218 0.07111493556409232 -0.05763334528887391 -0.030249439768744328 -0.06619549787334285 0.07506589935815973 0.1702922853385124 -0.1253486852426284 0.10334640678287012 -0.05102592092254885 -0.09032669584177581 -0.15686126400591535 0.1491772826630663 0.14411664111100342 -0.049427821881083765 0.13125134653900622 0.12983701874964873 0.002560885374123791 0.00477228057705879 0.06421113446821596 -0.06586926986767284 -0.1708118226813431 -0.06639997046535122 -0.18999222851429975 0.07764974902142059 0.009512210114212813 -0.044040256601073365 0.05177007026814874 -0.12257059510507287 -0.04733113216160983 -0.01571647025592789 -0.06530729533122315 -0.12412608608355274 0.11594277494447247 -0.08041973999685012 0.06703628096574334 -0.09365250562184432 -0.15420310131393927 0.03872854255485304 0.08025125550021557 0.10885159472554619 -0.04845394423235363 
-0.08855058972309994 0.124888124421261 0.20958181460989744 0.07642051803266003 0.14123341811017717 -0.017316239033120028 0.23222942766427865 -0.08993923805818146 -0.009819239689457861 0.0006005672474264283 0.030835423794844774 -0.033981827581925445 0.1659197362758972 0.20145481785110536 0.011728801337669398 0.050300677589233324 -0.10117609690271258 -0.18392580330900732 0.16013410729951497 0.03693630408388709 -0.11249661156685925 -0.001045099947694736 0.1659170113208615 -0.07421741122973803 -0.08114929874702922 -0.0007622865595240604 -0.1729096830406659 0.21415910022365423 -0.032254021936460334 0.007133471249852225 -0.13509329325936567 -0.22642964697456566 -0.0026942666590676436 -0.07316923391134025 -0.11321049220626872 -0.04452812516020878 0.015624566454384892 -0.062420445931892624 0.1323805830902898 0.008357152665116467 0.12244376665610121 0.0865041376378447 -0.030091091572682877 0.10679551952958517 -0.12740122793942846 -0.14362457323903274 0.007072226730768091 -0.13147959434277398 0.05433919078580723 -0.12256850258436135 -0.04128370313449369 0.17525851559125233 -0.11131603507051864 0.061868864954450854 0.07718755717170987 0.065607542174702 -0.14218911033619508 0.09046488569496343 0.08932867484534433 0.1403576768443712 -0.14046087450020092 -0.14094231702166218 0.12574485189144402 -0.03053770855604018 -0.07556126173779086 -0.16645672609886616 0.015759992488068617 -0.1597605444227345 -0.0062968830933991205 -0.09323892605770297 0.00811790747104853 -0.13057066298931824 0.08307519208134798 0.11240020103387639 0.056209768146536235 0.00788753924229234 -0.06213635400518377 0.18020023682746056 -0.075823169938286 0.09866571532901132 -0.09190352457862697 0.061620959903578056 0.13074645996525203 -0.009736015406519706 -0.21447881582336634 -0.026435103883061212 
0.09633023011531935 0.03586747251580079 -0.09038080995060672 0.14049480492492866 -0.01889197960995889 0.0897376483005402 0.03120054972379793 -0.08113333664193359 -0.09926558754499933 0.1194101551700089 0.07507745174368918 0.07687571556270041 -0.03524098563392634 0.03234440512874614 0.04056664160310249 0.027041209092862034 -0.07970690292264344 -0.01749528448384234 -0.047598152108307354 0.06662100246529212 0.1683571628445607 -0.08498689470076583 0.06103293567331423 -0.06441320830972183 0.03272862478605695 -0.08465759038729986 0.05850728611961079 -0.02390654404263442 -0.038361657665774554 0.12186316758220926 0.15771690796639157 0.05122466749472153 -0.09654710510762433 0.08625744484875536 0.07433830522914413 0.0921428569990633 -0.08717398834340742 0.10653121948759627 -0.04920017320579766 0.0187315877893676 0.0778300677750502 0.04700299316243357 -0.04239603229869889 0.08591396650814925 0.13592960171713428 0.01587344720442964 -0.09892449319150894 -0.07188355457396908 -0.07683338466022645 -0.10707461865188785 -0.07241304457209301 0.08233142693613596 -0.1544326222431358 -0.048907386562406084 0.10022343945537075 0.16433464844721604 0.027588606924159917 0.16531548821240655 -0.08990310964071137 0.13745648673634936 -0.06386990266877564 0.08956379293396712 0.10934580698582878 0.07321632796970243 -0.00743280795924333 0.1502980934996065 -0.07127296667195189 0.1341035058771511 0.04062700137233209 0.1634923091689041 -0.10379878522857024 0.042293275025736626 0.03006442181881479 0.006082880354792342 -0.04538658008096138 -0.03213209440024596 -0.07372648021353445 -0.08761366045620693 0.05786092662599523 -0.0009048248949574793 -0.0814732209268441 0.0805467365642772 0.006020898684669851 0.04510965290472383 -0.0034902761699606094 -0.024216419205653664 
0.16548156787291873 -0.19967858965779647 0.22813658196935638 0.14430173105404598 0.018788132606722033 -0.11130499464579213 0.08287167593992953 -0.15696082313132523 0.08304622124916733 0.012453407291007662 -0.0968825673489233 0.08939619292715452 0.14330219963833568 0.0691406371639628 0.153832441127286 -0.0786125935616466 0.14300705684852086 -0.012958629381717962 -0.09664305944882129 -0.32785596049907484 0.13799092614303315 -0.14609357076863838 0.0581748833420351 0.09224257872755072 0.07610403904401453 -0.19174263390519888 0.15533911683394414 0.13459990193373503 -0.13732789033117807 0.13237140625560692 -0.054783198224278545 0.0603801898588563 -0.07304051607278725 -0.0009090139652444236 -0.060689325394839365 0.13063970103311084 -0.1657650878580001 -0.2575093870690647 -0.10834508679542189 -0.22111078035631143 -0.03972775171859445 0.16080741187624664 -0.13812206250284814 0.07389170664619102 0.08042877336879833 -0.0942208818659498 -0.007534952940060045 -0.14044718940209183 -0.2007346642163823 0.04359550910679122 0.05970210582952321 -0.0035563077391935717 0.04796064787765989 -0.24888533794837042 0.11561418115232108 0.06481397593195622 0.022507435984030873 -0.06406714285441684 0.047057267474102084 0.002769278262424575 0.12480281422427478 0.14358071608128803 -0.039612326206830036 -0.04917900774350821 0.07178763576894041 0.12745063516452523 0.01804677836627728 0.08372633475574709 -0.12619478107383647 0.10334298980510134 0.093842154732217 0.05514745283590291 0.10124013320524221 0.08871776160157994 0.04416434681437588 -0.18570553143148763 -0.014067130384489434 0.1624900230978391 0.052396463085690945 -0.053436525331961054 0.15301159672250783 -0.0558708147309443 0.009678717956055847 0.10239676953150563 0.14354618231364397 0.1102855560427475 
-0.12665455129651057 -0.05704915545921956 0.005520469444338807 -0.11494195450167123 0.1513731181012353 0.06428415383131142 -0.1759124880118417 -0.12413228647771508 -0.00904659315082102 -0.06337171032168096 -0.05457035344054436 -0.008673602845982491 -0.022048359063407644 0.1439165929355468 -0.07009960269102729 -0.0025452664572085076 0.10586897259909916 -0.21980384304936326 0.032766441980147255 -0.050562309472257344 -0.03613874061700223 -0.10602916930638207 -0.05433895631502054 0.21504994559844778 0.0899396175335745 -0.153697743516919 -0.04428218354339954 -0.16994514214249287 -0.026695555788529435 -0.10109338593570055 -0.011211477214051609 -0.19267899123862525 -0.015177185459521911 0.012091844744216845 -0.03954081367318833 0.034362562369070274 0.07559627785647759 0.06406726872670736 0.0817125212972589 -0.11524780230103183 -0.06077839325584045 0.05833644022371393 0.03795113362770088 -0.06186060581655519 0.02112500498843765 0.04881699603848082 -0.15815163916286984 0.04491657585031423 0.10110896451295176 -0.03794477120765617 -0.11604311976512191 -0.08131217862847592 0.1042255957942156 -0.1898286673599763 -0.0078010798418638545 -0.023013842414308545 -0.1385512171981154 0.11323260785201 -0.11074087336841543 0.042668527679508114 -0.006683687513678744 -0.024182267329126216 -0.06323191595423092 -0.02880144813725823 0.051925497123300426 -0.021167129292560354 -0.06531505002524675 0.12385796194929097 -0.04505501334325022 -0.05935077283889243 0.010373718701945022 -0.09703275945138683 0.04377367372427481 -0.011966038951103822 0.12245602239574714 -0.1504015241718783 -0.05971188173409943 0.1746031446426636 0.016032824981944267 0.02538980928969313 -0.07030217442840511 0.07018972262436501 0.20850588973524475 -0.16509446675326367 0.03911698146469037 0.10866012307835315 
-0.12790241490669033 -0.061099838316063276 -0.012618464500714391 0.11627629627973349 -0.04769571427486694 0.28389934722755206 -0.16529903751820427 0.12357244584232357 -0.08821849685697675 -0.01683491056961598 0.20077059531547423 0.17434287186614364 -0.1672659646389123 0.06975966559363851 0.10608006109442215 -0.0620902869897244 -0.10889880615848545 -0.10699675816933013 -0.06818179535596203 -0.05255492037948264 0.012434725035512248 0.1590186830336471 -0.05913091932809077 -0.008995088343453818 -0.07178981836255528 0.10578822773367297 -0.12440001047972771 0.09577576283083263 0.06985442537275668 0.23053752504831654 0.15470555940827527 -0.11798951633474046 0.06154293064621193 -0.11376531299456695 0.0938422764631786 -0.26760728549838453 0.2592495406994358 -0.015723033379234003 -0.035523065795481326 -0.054502132712950666 -0.07927510095785557 0.046329028608957684 0.1365838685902332 0.05725435415997901 0.1800937095548639 -0.13566669094981065 -0.013729456733622249 0.18744224762318643 -0.04564826410613956 -0.11677197667838354 -0.04061058248814023 -0.12883614462942392 0.021139445985531125 0.03161991745677046 0.03416739841097733 0.1604531595664057 0.07741144402484838 0.11615474134262326 -0.1945110710580568 0.11425251123886225 0.10208383503642186 0.21578096485848647 -0.11468739080510851 -0.0075281501452662694 -0.04818057360135098 -0.11669139056123955 -0.01201926162646317 -0.053951955587883904 0.1494458940824536 0.08915498467555179 0.10210248472870181 0.1422209011246916 0.02168533575546998 0.15338079369064725 -0.003848770455962538 0.15042895887358793 -0.06577283458742496 0.02623942004925326 -0.08808883081880585 -0.08494809850888918 -0.14006052756748694 -0.01256353595596651 -0.26307481575515473 -0.15544980400223346 -0.22991770568434414 -0.09591942596084552 
0.09035773552714463 0.010487618490043689 -0.03759309519070842 0.016402533735195002 0.14553975182147477 0.0684077330514338 -0.029915115277900504 -0.03899667556618698 0.14053273368233232 -0.1828478037022262 0.04504989035712228 -0.06697799324687963 -0.01925092096470392 0.0726562375499042 0.01059541399513313 0.04707494775755051 0.11237385810065761 0.08079302819137389 0.020903795204311473 0.037481578456580664 -0.1444629978498342 0.23675890312268524 -0.1048526074052737 0.15742664155678465 0.0002821762205078779 0.042731634143498363 0.03482259540962479 0.08995537775810801 0.036929747156978464 -0.0200610661684831 0.06836147174460366 -0.044350201391539064 0.1106487840019031 0.056333236865979575 -0.01853692830951429 -0.16412159973152363 -0.03749226133009705 -0.09522435978562312 -0.28780577413821606 -0.03360653186934463 0.13852553353482716 -0.18138985467809765 0.19559510556432808 0.1853652915896874 -0.06246182634027945 0.15450549318072407 -0.023225966183655404 0.13109544840494441 -0.03692356040127718 0.046168969742177976 -0.08664692331274838 -0.16392881057109648 -0.12760584849247492 0.14524337822267314 0.12937160008220164 0.20977253585888342 0.03059836421476416 -0.07616136783482062 -0.030532489394903318 -0.06800880260703199 -0.13013018019583886 0.18874526014192136 -0.003233934016727183 0.06611191310106011 0.046271880233544664 0.04818874988504158 -0.1269200535435729 -0.06401430032191353 -0.07849506298333724 -0.08193968455161804 0.036030297070553635 0.08723675324058773 0.14600678067970468 0.05645750879389428 -0.060087662355480145 -0.1749682057710462 0.09543146214492908 -0.08638361615375548 0.007077769629663334 0.12442261774324455 -0.14669883557192837 -0.1453461318206527 -0.2221526409842532 -0.07630138888252885 0.13387819242709345 -0.12052861866701499 
-0.1127842113749492 -0.10882189251298968 0.047342027324971996 -0.08727089961734324 0.006220957281899222 -0.05004438603824119 -0.24599328360280107 -0.03130403663666372 0.04215390048894542 0.004346554105557071 0.0022536144850441617 0.04647986434962806 -0.09639638660286541 -0.00548793984462602 -0.12626781496573566 -0.03553899778678308 0.08348355433087526 0.018992256980750678 -0.09877844289000971 -0.036820770343142135 -0.02755196090454649 -0.0672267965930744 -0.1296480308130854 0.15168401873066384 0.024867171064320213 0.015263883501693906 -0.09484290184937239 -0.21816417797072346 0.04052575363668339 0.15682459855329817 -0.14924631640625902 -0.09218697490454383 0.12253424798423615 0.025954715235438897 -0.05178989048670024 -0.08463765115470616 0.03715573858773795 -0.10232794648005629 0.08514154012507132 0.05241736581122712 0.08512215676330907 -0.07424911731533909 0.16720562368558473 -0.048272172513248876 0.05841905754651539 -0.13351893009258284 0.1956986741293191 -0.1362694339981882 -0.05466002442251802 0.011196492281050721 0.022515147465579415 -0.07100029015291127 0.09768606758976402 -0.039278565445633816 -0.08833149585797416 0.1341969227793006 0.03401508942682101 -0.0465790254727771 0.04372344537546341 0.049550389472639476 -0.041586012559163485 0.007220979901079155 0.1601093577596755 0.20492453107573458 0.012080860404310684 0.08396210282729619 0.13139184598982243 -0.008919568100424567 -0.1251557594591801 0.006905970605902796 0.05640467590484997 0.0830650224914477 -0.10417196970575274 -0.009132769474052014 -0.14770806047517407 -0.017056136169181012 0.023331442079318625 -0.003541717460503599 -0.000667738928764901 0.08233577611290584 -0.03581018559215544 -0.0543123031210068 -0.3212154705992042 -0.21172694239523712 0.0014167968198648974 -0.09192801852640341 
-0.08663372818009657 0.0016785043564753392 0.10967915336292622 0.023809422023502485 0.15644802580728065 -0.058150285174606096 -0.3851762542146856 0.0939366610293243 0.00780736421856421 0.14211562316891674 0.07091815493839546 -0.25448320288462406 -0.1440690102302323 0.15904619564849898 -0.2061803433319686 -0.12898594352663342 0.012134337540415905 0.17566773334280275 0.07466618971150688 -0.12402156258851434 0.06874451698277843 -0.07104715335612344 -0.04649731149221701 0.00032858972418898006 0.09255975258961772 -0.021336895245500764 -0.06313752775703078 -0.023091107805392946 -0.07215179427628876 0.10817043462456064 0.17309244270462804 0.11684004025753732 -0.003779442248364696 0.15708984737942203 0.019008939497909196 -0.25563340274609003 0.09201122780877735 -0.19147443305463968 -0.11965733430919709 0.009304649628687855 -0.07659499459587574 -0.08766134618831574 -0.1432182414586003 -0.07964487894090175 -0.1981601186668711 -0.03101135370881171 -0.25123906473636337 -0.13311097124543714 -0.24099323259308172 0.05255543936370708 0.01929007372872238 -0.0425909304820838 0.08097144383372955 -0.11143762883038248 0.23081363004482264 -0.029102785433007358 0.15632020740752084 -0.06711920549709671 -0.23236965473274618 0.10494425925231377 0.11341376545596893 0.2303131490657581 0.046629960483429995 0.19438459567125002 0.05128034412477643 0.08420611581652061 0.03800548936734584 -0.27759499904830814 0.08156812468088248 -0.02355116266295348 0.1638467707517008 -0.05780165414579208 0.11367318887314314 0.04465556631474216 0.03896373156715113 -0.03381001223876297 -0.07072859879795551 -0.25358457890185937 -0.11179193690218865 0.07360554859279173 0.08951993729714881 -0.04335299732868247 0.0017627984279522714 0.0563108623778534 -0.11495826506337307 -0.01714285601012621 
0.011367115222788025 0.10632323771124949 -0.056960207733059195 -0.049569188948806846 0.08078669855340953 -0.02941686996524953 -0.08901623919661543 -0.04994238247403368 -0.11915259311174416 -0.009299541477676039 0.049776669846641045 0.13298526720490486 0.10044567998093398 -0.04013003577453396 0.04916571064724814 -0.0785198663193949 -0.035290174561781476 -0.06576037093510619 -0.015667150103395627 -0.054303670832902266 -0.04673600491302793 -0.10569045083678207 0.14333602058598544 -0.004159042279937122 0.12693862639303233 0.08456654293981442 0.0028730407609811066 0.08674733023150114 0.033838360213765656 -0.06952776188749958 -0.01575372593097532 0.07326318375746405 -0.029553346192935526 -0.09653009400312644 -0.08124146562426872 0.10759795164029343 0.14206237310590533 0.022981965524183866 -0.06576293952212493 0.09231608178522935 0.014566965212204666 0.0479935024221236 0.12170548788274078 0.08798396281533602 0.05244723135256301 0.06840627724703706 0.083833821370106 0.03938394088646866 0.10924419048059925 0.14303537445765974 0.1398601741370216 -0.03990369581644484 -0.15433383072719417 0.09011408373457462 0.004115606632341696 0.02860999574381622 0.11143521331554157 -0.14503151178262066 0.09459323722719569 -0.14372890754307946 0.06905546731781075 0.01588542268475942 0.050520844854999906 -0.023093357058759187 -0.04216913145631544 0.0086948895104445 0.12971135816386536 0.014291888518126636 0.030199329383453058 -0.04630193362745677 0.1588331639759991 0.05280221146918092 -0.0672506227284794 0.05586644677130605 0.011943990090205673 0.13034440484145504 -0.06670334983565726 -0.13250460753568347 -0.0590595570333203 0.017917918820747905 0.0963162298074052 -0.08871396974646815 0.04338264761340529 0.06168746518660214 -0.01671650032582494 -0.15389044800232793 
0.028550463421233338 -0.13985015809837065 -0.05209359537203062 0.02437164713229063 0.08040404540351083 -0.11014752592725717 -0.11863836021703136 -0.20653813832991505 0.1675469161235796 0.056441705001944606 -0.08660443953930407 -0.2131227399197439 0.059989658679407754 0.149240290839264 -0.07488460312418499 0.12430476193293723 -0.0762161514112298 0.13959487396957915 0.07179789980040166 0.0502615474864996 0.13844590633762047 -0.06718771478955228 0.15324740915263182 0.07477165623221274 0.09033533773718978 0.030240847291048832 0.14738566952044044 -0.05439081131860591 -0.33352187325485977 -0.013917153391636109 -0.16848643549720463 0.15470329935902438 -0.1145260318699839 -0.08715883800120489 -0.11623042111186951 -0.054026882360182236 -0.03167854538352967 0.05400010771467865 0.15461005711456124 -0.09463573654917296 0.0016633171246559226 0.061272664131711424 0.03912016143936096 0.012314669030275557 -0.22951151486714852 0.0588593039369122 0.02656026676743643 -0.19511311931448355 -0.04397069335359388 -0.09819492636038517 0.12129091314923388 -0.1672183633432816 0.052499039852903905 -0.20453599981962184 -0.10899841396776051 0.0513956739625976 -0.10374376197105023 -0.08262739575110044 -0.09624377762079846 0.1580004947748243 0.024701999968680124 -0.017084961215860835 -0.14524382673216366 -0.10753391065673995 -0.020795616146688345 0.1666622841063718 -0.06760576775825809 0.039043600880347064 -0.061933203076829736 -0.11827016626053746 0.03119492249407406 0.07598682398503487 -0.13541453596958192 0.026655533034811756 -0.11309386932349316 -0.27637642827288705 -0.15510044688200778 0.024432229533097736 0.08598236562100446 -0.0025663340422582377 -0.10823328943487734 0.10520990752611106 -0.13388045624940031 -0.0582491212828966 0.18089718109174097 0.1404947153141236 
-0.23060975224994876 -0.09581668092374637 0.02834418435368645 0.0894598169325321 -0.014654897661098256 0.07827448215075232 -0.11220022023082356 -0.10996860359086387 0.08973503765335426 -0.16744174442813647 -0.10370923259139914 -0.0022723621915359555 -0.17066789874415964 -0.0859510743283076 -0.19207211891783693 -0.03438550236913669 -0.046721904820491565 0.06211050726018178 -0.11045481891803295 -0.07649095603428158 0.043146203276846554 -0.1275096554460724 0.18807657048055554 0.06872239816013134 -0.1193723358440858 -0.0694302800915163 0.11222572517732864 -0.00525674665426275 0.10483386849291548 0.16654851540703758 -0.1622793830805519 0.12678042173627493 -0.17007718323605334 -0.08991367428499095 -0.1055436582329943 -0.022923776169504008 -0.04469202669877708 -0.06206249550894676 -0.2716964291349783 -0.025640932777438653 0.00416630598542867 0.07009190637753779 -0.011861201361596787 0.09482655174185345 -0.058031484658362706 -0.16902050548136677 -0.08957328575814019 -0.10780184249761127 0.028591474237527593 0.14298941618887256 0.07404347890288446 -0.10447840810325598 -0.07062960761415432 0.14432773079882932 0.006859060126766746 -0.0006587023016358591 -0.12065769220757122 0.06989619745401296 -0.23433821618986128 0.11617924892861645 0.1300849517806001 0.06015211490062603 -0.018521083899766796 0.07483327261388886 -0.03455637087094954 0.09357089250237006 0.0896510790439632 -0.10861445549322488 -0.09720949752773493 -0.06635496383870228 -0.04164626752115328 -0.017307772734264756 -0.15907747176693682 0.0415690099066217 -0.22171225258277283 0.013728800214942384 -0.020132123360973652 -0.08042780946949765 -0.027254723548159877 -0.12373309126455734 -0.18675774539894055 0.08489283399178409 0.022437553591532163 -0.1659934637668721 -0.18885231955506854 -0.07214914441833323 
0.17886982394727205 -0.12419204202339656 0.024720805404751873 -0.002346644258891387 -0.0401100444921596 -0.062151087354814644 0.0751263850178878 -0.03303954758637466 0.06475963687760812 -0.1543652474511917 0.023560934057315217 0.047475957853266505 -0.23402861661782334 -0.04939523903922415 -0.005857259597166549 -0.11174082908568213 -0.08243922922048111 -0.20593094728844524 0.020713508406109287 -0.0549308013056046 -0.1289907917580169 -0.04789867607971538 -0.002073642892701781 -0.1516007425499591 -0.23687698932587645 0.024779057781792825 0.025413992476197002 0.17362541047458263 0.11460504759755615 -0.1638064139528228 -0.05053309498089471 0.09698393713495482 -0.17560745482178958 -0.0590344438480462 -0.02682140853046881 -0.06334748076669722 0.005633665220371188 -0.17709541388726022 -0.14082577202367064 0.0412576267698204 0.12072122083414882 0.05498614988364184 0.14905393616531218 0.04058842383476075 -0.1470459553139136 -0.18321324702386602 -0.04867420579635058 0.09776039611787202 0.06301168467075917 0.04072559964150291 -0.08552856122250665 0.1540792966287118 -0.1882661247409283 -0.08749347049426899 0.05397969011662621 -0.011680814552979727 0.10955609426477725 -0.18064814201583548 -0.045399353698778226 -0.10348917526084615 -0.05561484800745807 -0.05155803287528803 -0.025427032388303825 -0.017376240539694134 0.0842887657460761 -0.05930401736030074 0.07759867850830217 -0.12530659423416088 -0.01574813690061432 -0.10559636881484419 0.08570907845729377 -0.11110711014377177 -0.15940859664825538 -0.02166918620520821 -0.11407980142731011 -0.19531401950121216 -0.17355578255024257 -0.04835648732661466 -0.03385302235598457 0.10694216683080957 -0.13053272331856974 0.12046552778095994 -0.03444923672285353 -0.14738117503289014 -0.1649426521247899 -0.14634806850569007 
0.017728059049013284 0.12988487109894475 0.12349577414510093 -0.029678687699771646 0.0734147137499007 0.09534697155942373 0.054870870366859434 -0.1820802217889909 -0.24616984563802832 -0.2817208925592809 0.09663507268427957 -0.056114491739402673 -0.06769282771826038 -0.1740216418756593 0.17361509550698365 0.019861137700648786 0.019282262708711927 -0.1182773537068244 -0.11715227652775892 -0.13512783650424418 -0.14477279285090833 -0.07843152870474984 -0.031191800346932568 -0.12906287695383437 0.007237018507250025 0.09632449631572167 0.1632911631950562 -0.2018132246707408 0.04125243520814068 -0.04927600225001416 -0.19326309077965947 -0.17718542115894947 0.07062020001192565 0.04214015114598756 -0.14492059379680472 -0.0004743470019268767 -0.034094096431406616 -0.11807061983386861 0.14801025522543243 0.0276861576188643 0.047371236588607264 -0.018092764456258268 0.17822161034794254 0.026449215506321084 0.08681401251184866 0.030637492040783313 0.03820066119914654 0.07104435546434006 -0.011166620677724995 -0.12237767139983119 0.015646963786096563 -0.058109403965097235 -0.06662860091257079 0.0201302055876025 -0.1555534547014877 -0.0867505230267194 0.08183913692124965 -0.11100955280889364 -0.05435659316301509 -0.007886324041766582 0.12970291725901625 0.06866727983614541 0.1124837538183415 -0.2588890520578682 -0.05361760284832925 0.16962863586499627 -0.1663420400260825 0.02950871079733781 0.11907305556200422 -0.1520280181312763 0.060241444351134 -0.006262418448610488 -0.0874755856694254 0.13495186180025032 -0.09217206215806094 -0.047573289958074874 0.08444867248826146 -0.07550802332241045 0.023646692150982654 -0.1813052301956199 -0.07834983925468948 0.0387509288214266 -0.17588531898597876 0.0301251688298586 0.09903861347917754 -0.09399385209302753 
0.07967184649599196 -0.021375610593585778 0.10543781136588935 0.026016498966892912 0.09815575090872085 -0.009137249931693832 0.0055688541173212775 -0.0653356530803425 -0.1363129043058366 -0.02125387931879963 -0.05308002110139447 -0.10571212904393383 -0.042282711670476474 -0.07611148035436259 0.07855043395673748 -0.10122205941105822 -0.10354369565834953 0.028839137055318122 0.11517729224209793 -0.06347149877950786 -0.11912858074280884 0.11866488429775393 0.029888885807962885 -0.0501259447619482 -0.011542352748222134 0.018465572916385703 -0.023133408522927366 0.07265301918023888 0.04249197536522117 0.14397746296930253 -0.06658803314394554 0.10469059423031721 -0.02175640401461348 0.02620946481305349 0.0675902518697639 0.05918383258925547 -0.026820419955113868 -0.009361974807515884 0.0629951779422702 0.03641890080561884 0.12259599412462092 0.11063836126230733 -0.10603566574586304 -0.046566481097697926 0.040483577984466494 0.04730113231523192 0.013855140920003282 0.07550979969766587 -0.05506926116335932 -0.07024142863992526 -0.000950131071434877 -0.07920546295165243 -0.011816987892506028 0.033935074365248015 -0.06817361847151562 -0.01843619924596272 0.1398299118307604 -0.06133331369055418 -0.09163096545024853 0.1045570827708975 0.02614960617411636 -0.12732446674128564 0.0965613684826716 -0.045545118687984054 0.08495456729809568 -0.03925200478304506 -0.13838965813463014 -0.04815923020030052 -0.050416412167722524 0.08974546807895038 -0.09414086526215042 0.004587020206047884 0.10333457286831671 0.0011743746427502447 -0.07727512105418534 -0.09395226114561074 0.051451898098066294 0.14999439055254854 0.05427962263494638 0.06536943432767069 0.03189248025780627 0.09399257106565798 -0.11195788702006024 -0.04430214090046428 0.042271342517601965 0.1016284723814509 
0.10667955740302792 -0.06212216927904383 0.13437647965295632 0.09417759836417537 -0.12032029542253889 -0.05870766878232475 -0.042222245062783034 0.08083297254274525 0.09655473523235007 0.040611850135648546 -0.07033453832350496 -0.04474330076494226 -0.07003881722724122 0.1548642627796504 0.10157586870542518 0.039257618647739946 -0.032096568861044686 -0.15083526110967233 -0.0957584347110715 -0.07362088954982565 0.07579304396365717 -0.008635332746108604 -0.11448985053906612 -0.07811718947067951 -0.11630281851121196 -0.07251378680907955 -0.042515138809651215 -0.05307929116855691 0.03176373862219578 -0.05798935099350932 -0.016241521419283925 0.03543528495330323 0.12566024151173896 0.05783955817673748 -0.11211398896329444 -0.08051544232296355 -0.11416142960704119 0.180221336220258 -0.05778596197235126 0.029354553860447847 -0.13894725654525866 -0.11386993149761673 0.06101366367878533 0.12509192723345977 -0.08025750551317729 -0.038610975926421556 0.11138384107275236 -0.06485710615024647 -0.0883490797049667 0.010391315747488588 0.1509918307421114 -0.06045083521146246 0.014847559765079793 0.021852262892045015 -0.09155294160064578 -0.09680189592513058 0.1127191248463642 -0.17137493527980155 -0.04573637492465477 0.06430931104547719 -0.07411627213428974 -0.1258498307089587 0.03042130272255485 -0.10993952258158796 -0.06721344645306941 0.04619389018856672 -0.13069118585762093 0.1443926541761351 0.15631907303791368 0.08888504516692525 -0.1744290309288674 -0.04985838262841768 -0.15327607134837662 0.1269390685040336 0.08329278100626399 0.0015322393597336948 -0.1717119245841713 -0.09261737745136576 0.011837618381828181 -0.05141040373463107 -0.05965604710389409 -0.026100821069526273 0.009931957399599118 -0.021019997186109717 -0.010674433497392416 -0.012720060627684887 
0.1692944453623176 -0.07175466705235753 0.061241960369046486 0.08281923909464636 0.0529629582707115 -0.006674099804210372 0.08630057171294182 0.09482115784808672 -0.1776671511084364 0.16972114476000436 -0.11154821805192829 0.014394729590987565 0.0024700530197819728 0.130851476520661 -0.02721989828947408 -0.09305656998382714 0.012897744121214439 -0.09859923517428384 -0.03551418167415279 0.11581873757639595 0.12142957215591035 -0.11606369765724683 0.11427819845451108 0.1167825167220735 0.12483199497305639 -0.07892044709318126 -0.015275246630759985 0.061369196704168696 0.024097283299956914 0.06254726828297735 0.05647528384137773 -0.10676855558616756 -0.21659930540659464 0.04071000731247126 -0.09559914561493471 -0.028418562388441693 -0.03512081550223685 0.031234675243037385 -0.04626230875012496 0.06322848112773927 -0.046977933873431896 0.03861130062724836 0.13982627810549628 0.08202395219610933 -0.025974264703050517 0.01780221724124653 0.00934060342112708 -0.023993500291069222 0.029529759015478087 0.12515604028344338 -0.056275161937190205 -0.10537226897153665 -0.010569501546048191 -0.04822920688092668 -0.09475665886583802 0.05716757007454194 -0.0920525636009361 0.07796992135737565 -0.002096700686955142 -0.07117146330119993 0.02341506354976504 -0.10694007308843233 0.001820163013240798 0.0863862493710753 -0.0813244502063096 -0.13417826741352273 -0.008134426178656517 0.05484540067201019 0.0932488507208265 -0.07568480763173864 -0.16230144306827426 -0.07175197505307604 -0.1277519602333454 -0.153332011517103 0.03148656180440025 0.12039158837271743 -0.05444253147754564 -0.10923023390212853 0.00967184208349252 0.06911006194088341 0.1295492294476403 0.06891978069089601 0.007205935150864282 0.029047147269642054 -0.0900274826405808 -0.08651488918784853 
0.08532266213049201 0.08425627051094604 -0.09285291502521997 -0.048931526808272056 -0.1384364655517833 -0.012363764516166815 -0.05519743371516022 0.024797325301476623 0.04650245306602229 -0.07400780024252333 -0.08169383869656757 0.09066611280819782 -0.02023470287992115 0.00753408009218262 0.17029648083796867 0.11055856519779222 -0.07717959392762416 -0.08091255779210833 0.00047675848041402207 -0.030339015027226274 -0.17399053376043888 0.0500056661659332 -0.04232078534174373 0.04400194148230727 0.10385635149396186 0.11986843301389628 0.01746961600126569 -0.034347803301626706 -0.07582558308037018 -0.0834312155808309 -0.04197782400741198 0.02975501312781142 0.04282089666995128 -0.05571911152030725 -0.10579009292881009 -0.036272003469937655 0.00606613523113808 0.06018488983283802 0.02836086296092907 -0.039899482508982204 0.018705162712829605 -0.044271404155822945 0.02284097792253523 0.08033088885814407 0.025566423385140227 -0.00011565729633212234 -0.03595389678771036 0.07308104031423752 0.09681949886170443 0.06838372456304256 0.013322969563909354 -0.09537312849521434 -0.034438554947065235 -0.02446223955733795 -0.03893516726170805 -0.018993376515911126 0.014851252070275918 -0.11371081668825517 -0.04726935006687369 -0.10384960917515433 -0.08182624226858201 -0.010164207821517121 -0.023564306569715518 0.1357816186392118 0.10947928130918548 -0.011444855856279766 0.13071385331060364 -0.05436787467239774 -0.0033877817492933057 -0.027608613399498216 0.12978005086873612 0.06467721254064476 -0.11294736973281734 -0.0405525562270252 -0.06372119088911368 0.005197942219311237 0.07322110707533756 -0.1331494956264061 -0.05904187072043878 0.13284173329606733 0.08447026006591433 0.03351582533345464 0.04558908775989755 -0.042834754549903806 0.12406400010530613 0.034015823392471244 
0.08666414130162553 -0.09683559617049772 0.1418125620165167 0.08343824899138635 0.09562499186529992 0.01868433001118409 -0.06616999685604044 0.03103445738614299 -0.21510229275538953 0.02490950311183224 -0.18415307085853366 0.08837148567640123 0.04251543249691497 -0.05677346612273845 0.04882566927802621 -0.0966448386424073 0.08395882086415256 -0.12308603144055694 0.07565612214233661 0.10628276499958055 -0.09991660827725292 0.06917362019743563 0.19479087756181937 0.012665352651488103 0.018317027074937518 -0.10914409204805392 0.08870443386267035 -0.04607594403158594 0.0860928208263947 -0.01782869539108064 0.09871703266855876 0.0034694693285496903 -0.15156914723273773 0.007214660038685653 0.05120660052651473 -0.017131337590887388 -0.16391025805318654 -0.03899006805764941 0.1403390652336407 -0.11212340942538228 -0.16457487625717934 0.035328270227616455 0.01648299139212324 -0.0003250368193253469 -0.02318240575751807 -0.0025765374056972226 0.04348022231219975 -0.041880748059226126 0.08209208117718787 -0.06429606802231894 0.0001744301263981473 0.10988854212346336 -0.05464945972269357 0.09776893742678594 0.054793198722854215 0.04342400290083977 -0.08399857334249732 0.024529257881159727 -0.045784799877497055 0.13988447417496577 -0.20529019318431224 -0.07622285825988508 -0.12029644648183771 -0.049200085063982844 -0.0045368037830345745 0.058919987195027994 0.1099440723290874 -0.0063957038133233765 0.046680111547051546 -0.03361794977119461 0.014665726279018135 -0.06103706365588449 -0.27207739264100694 0.11353244645243421 0.0603374847558403 -0.056253331156918274 -0.011800085532698311 0.0029114385248296027 -0.06210949249763133 -0.05659660033310891 -0.08275099805017813 -0.12313032161959005 -0.055374789617957436 0.17374701244625487 0.05656490306566917 -0.014004322087779304 
-0.0396530619140895 -0.05097054913392034 0.17236903697965408 -0.005754940680285729 -0.06319025812790817 -0.04732473207607812 0.07339666923425964 -0.07839144449701696 -0.14410784614041514 -0.12682057417556108 0.06446364306373367 0.04499714765459806 -0.021771733384828424 0.1007744374535676 -0.017099405068988584 -0.034976879883670174 -0.14393041519431876 0.08366956353178903 -0.07155998413699523 0.021269447413252582 0.14024897859330818 -0.07297031112570353 0.15818688223553984 0.06833642848976625 -0.14722409166859796 0.06961758791941751 0.14044115632668755 0.028563333914829698 0.058291096276382744 -0.0935608611755322 0.13615800348740145 -0.033753615944038605 -0.15660875123787504 0.09767996252521842 0.14722404880489895 0.06292932414290317 -0.15536584435424503 -0.08566759870744028 0.032871402828230305 -0.06625021194597688 0.1065949552497808 0.11389820223580972 0.15485305394071447 0.0636089615594292 0.1102299884649237 -0.06713380341347543 -0.10792559940354184 0.07833865505656046 -0.05700977405668174 -0.04532612150915049 0.026917052091528913 0.04995139186259146 -0.05896638238980717 -0.037235558374898434 -0.07793749424493297 -0.017927183814593815 -0.09048169551527739 0.06571851693508814 0.04389506661719499 -0.1582523770904036 0.14125169152799544 0.08392781459821327 -0.08956555728592917 -0.1560289243598812 -0.00746843040913224 -0.04977904222706701 -0.005497349719791902 0.05076697141419438 0.10441573725955426 -0.13346311272912592 0.05247085756578816 -0.03826506645751966 0.1412623845481376 0.09535071126953552 0.010888107919603325 -0.020261981644600885 -0.12582506542327412 -0.07631388008836718 -0.06669770649949605 -0.04536372879532884 -0.07543263570344107 0.013963030364864605 0.04919716024409123 -0.09374725858906718 -0.06198714493701355 -0.1400359687329429 
0.007336035958728571 0.02906408993973555 0.021120907000708688 0.09716027993351961 -0.05010738681187241 0.021631549018808358 -0.036795447344506904 -0.08029780554152748 -0.036320610534602796 -0.08397333008836799 0.09033542052020571 0.041149642129201955 -0.07763031286447426 0.10028458827639619 -0.042350080537460234 0.07575510735706727 -0.008827193048390672 0.1154824667796307 -0.05313033982605421 -0.02454433784155067 -0.030241318087410134 -0.07853873663345556 -0.031324101148436756 0.05908181245506833 -0.010124211431229407 0.11895022553621011 -0.05120559088025408 -0.02675480293741786 -0.05267487898113213 0.009304322532034986 -0.05968171426667983 -0.11147101706647856 0.135829942000621 -0.022607728771571883 0.02364436208593294 -0.08741097081879058 -0.06941725532547278 -0.07870134164395665 0.10956543353249312 -0.07727678499728664 -0.00947992783829606 -0.06637501266841853 -0.08464693484213491 0.07429571077871801 0.03672755195653211 0.09322773767515857 0.02743100517973575 -0.09717655666734827 -0.01519809351205631 -0.09439865072312467 -0.034622129633490775 -0.0003237662946932509 0.018021657587359186 -0.04948945318929965 0.01050085533493111 -0.033157528311757827 0.0011686898196062478 -0.05810396575162939 -0.06613306599216973 0.08699151298714057 -0.06333482293085226 0.05420804542284767 0.014728191322119267 0.07783836662084105 0.07389542819789975 -0.024674713397325753 -0.09142873900648929 0.0511291671745957 0.01741830845288967 0.05178440198793243 0.1277873655897925 0.053757811475900065 0.03421570488887839 0.026317711996236382 -0.08742755964622992 0.03703939006989175 0.09718832977763202 0.143500369405295 0.08143947698167465 0.0020288673595943987 -0.04526422670901172 -0.030787435063826453 0.09874629355953563 0.004569854711028809 0.060523695916047816 0.025055750138608494 
0.004143644577364818 -0.05745558943854375 0.06413547367617059 -0.1533732508144041 0.13844105614391766 -0.022724762209696103 -0.15586383041817806 0.08804371797965288 -0.09718304890338837 -0.13504327036786773 -0.040754960691255 0.09359288854047391 -0.10201183425224684 -0.1257151405665786 0.09362092009050069 0.10783030091050347 0.12084469479874865 0.009397967617070836 -0.014618641006761779 -0.09701255640203815 0.03915847598222431 0.03905673988640756 0.053942059274157156 0.08395892248058791 0.00908044466227005 -0.009249842026734217 -0.17653756974837637 -0.02338305526772709 -0.13702257655932398 0.05674349990305909 0.08862630272883598 0.007255821652103314 -0.09184495239895507 -0.12801072529778404 0.11465349584998949 0.1570289388779823 -0.13903018188684416 -0.14068179020924956 0.1095793389929989 0.004092609508926593 -0.06025094237694767 -0.015991211934447924 0.06731946919554647 0.07927866608508771 -0.1137996910803459 -0.060064316038694984 -0.11541844959421249 -0.10863159759218127 -0.14240973262424833 0.07022984985272984 0.04398490132009286 0.0402412969317518 -0.14379078785263513 -0.0677862392932736 -0.11034327738623238 -0.007877425798432787 0.1788966092114391 0.012839626616486903 0.036101169692108456 0.07381884956252419 0.17638672397309005 -0.058984683696201363 0.11687552265484287 0.1540225764816622 -0.12541559538660224 -0.01556717377375844 0.11434999566394936 -0.008009243255265341 -0.07046941543988584 0.07813671423494577 -0.11446765817602343 -0.05161658713972806 0.0356521184567071 -0.07175719881939359 0.09196775126305494 0.05183087998499822 0.16907888124246223 0.004492226250413648 -0.08800437606281548 0.1691593652485303 0.11560743417037368 -0.027240735627025028 0.13119092891072834 0.07751210580702227 0.04819763860971039 0.0375730511837134 
0.05860900118570794 0.10834639782874475 0.050624246085272384 -0.11382745594469504 0.09258515014702431 0.056800072788085444 -0.2582575672786133 -0.23465496734480448 -0.07785064543430036 0.07118325965517858 0.10786863257320396 -0.1240606402145665 -0.2212854454458165 -0.09045507264945588 0.10863904995120924 -0.024004569830121492 -0.0945833192523017 -0.2426990818585851 -0.15444519996104236 0.08494342925761746 -0.13354115710344713 -0.19104431524079618 0.12329251826317074 0.1284202747991082 0.14079256346341384 -0.04069610448269746 -0.06099294164969443 -0.029322654748109335 -0.034903440530321864 -0.16217616519050243 -0.28198594905334856 0.04158789558798822 0.035141795744907445 -0.09900562575383859 0.09713779520331997 0.10502562601559572 -0.2284198860125481 0.053059346404405114 0.12169243016772271 -0.15468343872559184 0.1158228153916211 0.08085582398606975 0.11606556265336164 -0.22530146609194102 -0.12005152824554247 0.15752092987206212 0.052143959599830064 -0.17039907651189232 0.11567196372045555 -0.07741864926729178 0.03935858538928613 0.07616269357630971 0.040713405044412204 -0.04092086034763429 -0.014238561134325173 -0.09467566497943405 0.1483390998225761 0.08516530977466491 -0.020474918094263734 0.1384154222530009 0.057758080213201446 0.17280317116697588 -0.11755674859495395 -0.1678989057990077 -0.09900015858238348 -0.1194337958386418 -0.05842790346094099 0.1255157227778363 -0.0986203332679847 0.05185301035426065 -0.0827639688005148 -0.03591469996180063 -0.05800207045357504 -0.03404947642481918 -0.1117759953520286 0.10735819255515075 -0.09575439312127225 -0.005687870695525528 -0.0638275587937961 -0.0577839385729014 -0.0835525300578005 -0.02885448939288493 -0.11913184524920344 -0.1747421934359392 0.04655383222344159 0.11843796389259068 
-0.22132047958573917 -0.15622824098295401 -0.12733179624274363 0.11839525215276138 -0.030168021126330578 0.008526311449231144 -0.11916382411845186 0.08212420513915868 -0.12300814892108554 0.003507649184160681 -0.47142523603696307 -0.10752964961424989 0.0008995311284871436 0.08021189061430178 0.07116011916424447 0.11320612432497415 -0.13448635329597525 0.16569000261139577 0.06718324936692677 0.028411995042603087 0.018702773443181556 -0.23091189317081415 -0.07262700012186929 0.009571512269205613 0.06809789978993262 -0.11180097153984112 -0.1192007349887085 0.03902581724431797 0.0799223986052884 -0.1815112160434524 0.2196231705251284 0.16401667061518416 -0.11685828357169495 0.07410501234577763 -0.10351639996773278 0.14269467376857595 -0.01536084368433231 0.06490312935018208 -0.07060095767325719 0.18598498271784272 -0.12074291446918509 -0.03364828846325548 -0.042503646441097706 0.0648734855395514 -0.04715210458609371 0.03881376755295076 -0.033111563250134486 -0.08369545133756381 -0.08312732654944154 -0.023144260477078148 0.027503016738593095 0.05303336749498922 0.09068839441401559 0.013401142713431744 -0.030892780355422093 -0.07952617296762644 0.06042039795951263 0.09765029303994092 -0.07618080739328674 0.010244830328626917 0.11368093835514792 0.053105316812895556 0.013693604798809912 -0.2335892018475096 0.005018092360403498 0.04175900794595348 -0.15290285826088618 0.16704377680052485 -0.09761090179695356 0.009380829405952333 -0.08620400542597695 -0.17173654665289118 -0.11886743163392882 -0.08738603693927188 0.01171147044837138 -0.06638131575638695 0.04555782009299566 0.12187829170251856 0.0563839236541144 0.06105984936302744 0.02856784650672593 -0.10534542657431706 -0.12933378516942556 -0.09656208789911273 -0.2345379127371334 0.022633484003923503 
0.08427417683796178 0.052694175834417226 -0.06426742742194737 -0.19709574621257245 0.03346285554698098 0.24201598631186386 -0.18981954764531575 0.03199083821047086 0.047281995822551805 0.08980442531655536 -0.057075799512370774 -0.13369227245462992 0.06407664522458839 -0.06881025496331339 -0.02104260947150851 -0.04904435812621619 0.10364427060072563 0.046825405831890925 -0.10806723822176725 -0.2801095426414064 0.09204709230377571 0.020299851412883194 -0.08875550779702883 0.17295050064277903 0.051360024324484214 -0.022339009047010697 0.07497682862745048 -0.1987821268540107 -0.36313413884895795 -0.08392105068606368 0.026302341551000818 -0.10072819232545231 -0.05327717178879486 -0.08295933452190532 0.10535984012049583 -0.18368163310396873 -0.1389201595128836 -0.057217683009422544 0.10071889480023884 -0.009150262376860775 0.04258446050273062 -0.3487680518379984 -0.10635038802723318 -0.13189948808484353 -0.02554837421142994 0.14383738551654346 -0.04492536669324985 0.013540299874272216 -0.1859831582616187 0.003900415969506579 -0.13930025143389596 0.09279270880512663 -0.14390957125584644 0.22557590785113688 -0.1008674418584144 -0.07089048792301327 -0.10819907192354519 0.069743365628402 -0.02738896317068756 0.1471603354023393 -0.1338449420694353 0.08825149738711935 0.046545784205785076 0.09778750292812277 0.01997780728041435 -0.2275080268672384 0.04774330336346395 -0.17930696152118258 0.12468067157107403 0.06567119016111965 -0.019681537986779376 -0.03655344272624119 0.105733283961622 -0.1749552106053865 -0.3486509771627221 -0.08762472925522967 -0.03443052381174423 0.03613063555202174 -0.030328567638723616 -0.0749057173937976 -0.16523166201131376 0.11268158837148058 -0.15339576848865882 0.0057541239710539194 0.01742221704086546 0.004715274462560734 
0.10792523475215611 -0.10401643740371515 0.007780160333618516 0.05768982374851291 0.15879446304739414 0.026999931515813404 -0.2833071892683095 -0.03762545126481541 -0.059887288702536 -0.2974998256834322 0.044652682562230706 -0.15454883914842052 0.18818463114125702 0.07073222534380835 -0.10838350160617923 0.12012536706174554 -0.11050056981177818 0.01200672395575567 0.10066823443828102 -0.09992570895860498 0.1545984272859357 0.17658777797130754 -0.010876943340580526 -0.01110208395537346 -0.044543315541277634 0.1761827513269532 0.04916918176064984 -0.15973285892365777 0.0333474004817392 0.0041359325807304136 0.17927121437257004 -0.2869368926696705 0.11362170674733582 -0.07945995417062192 -0.16982136005119847 -0.11430875438485243 0.11021483070163925 -0.026995131220737052 -0.07297056689593455 0.0019284391596692738 0.08300210653092963 -0.014415251835563034 -0.04376992218788265 -0.001054750354297391 0.05049215824656205 0.08305713218895365 -0.11331376983501615 -0.0716231986044917 0.1254678839453917 0.1261501338297735 -0.016877665103088184 -0.12305639808572497 -0.007085404887429117 0.2511966880004025 -0.053039572153113876 -0.07313794686913534 -0.14626714423923706 -0.03164117527598325 -0.16703459532935802 0.008429629981180005 0.09087462922392055 -0.01548679313222436 0.1216663549638649 0.07611043718931229 0.03138904195124257 -0.18529039405594938 0.10016202279396572 0.019239470861068877 0.023184602515207525 -0.0011625172259288176 0.024940487605033722 -0.11993528462819615 0.05661713159792011 -0.09423237836016687 -0.05400222269092136 0.005552322623478842 0.04409699434726963 -0.09619461680048369 -0.07671837296232485 0.1408583874183677 0.07703937181879823 0.13174261598649484 -0.12550042687896978 0.14406952705836737 -0.18236726283210442 -0.0017655476015783155 
0.13525300363498843 -0.044599947097142725 -0.1063713002160805 0.040630533257278924 0.2175526853989135 -0.12940267417439097 0.08922706204563884 -0.1808109510944111 0.12774346537695866 -0.010730676941235574 0.12004311697260778 -0.0009246639959483231 -0.02705698154548201 0.07575839234169862 -0.02487149708229999 -0.027071308827453653 -0.016447672990004006 -0.08980288375314686 -0.17226177587341507 -0.09402707628061968 -0.05743131877687741 -0.022175120882706616 0.04196305663610829 0.15203871890032225 0.037130492407972726 -0.190383097385823 0.09624048984916506 0.11252863424731839 -0.13656825147199247 -0.1936700303223334 0.14078343177428346 0.01965414961536561 -0.000278579234967152 0.11192650017172036 -0.12947255287291287 -0.14749652691152174 -0.14505759764871623 0.1354816592404338 0.061103509768248125 -0.14604658890051758 0.05443557277942749 0.12715654875662918 -0.004837444029416462 0.15493173073514144 0.13965791449006215 0.16429578050483212 -0.17976749964486083 -0.09821486014960053 0.043202483087013126 -0.11717732874119671 0.03078631245366704 0.0801293956856904 0.004669499848715106 -0.19167759964372283 0.01632270674698515 0.13512523436310864 0.047122329660684366 -0.07243641299000021 0.07061214383044936 -0.10301660290817798 -0.16353129634978214 0.02208974641943145 -0.10240106029892784 -0.02295041066650142 0.09416248593846373 0.05641992461385462 0.039409924726865386 -0.31790423907556187 -0.012029598012471037 -0.027356111883886428 0.021172825239384685 -0.05199232899884755 -0.0756408516792241 0.12629519707562167 -0.07483597332118327 -0.15735616309446446 -0.11941574264493282 0.08769148568118547 0.04067892146483554 0.07961785721276067 -0.06743658810147395 0.14406988293565692 0.08494528718570642 0.036279587237863994 0.11540145053891335 0.01394830262633874 
-0.15578328460767024 -0.09260731917569816 0.0484927975218049 0.05276669224271431 0.05422556412707803 0.0302992370861079 -0.01327312136191377 -0.09482603223134432 0.08042302975713794 -0.20345945731011864 -0.1082021933486761 -0.12776786706189183 -0.20159290888356876 0.1112649739973723 -0.020789869036167936 0.03893296962552478 -0.033773405045052954 0.09830940334587386 0.15597059037527702 -0.12583684361256223 0.1567742325765307 -0.004556671412509162 -0.09105159530038548 -0.038752252096106166 -0.01740582544243105 -0.3401718720639559 -0.028091101091585875 -0.0479720185003794 0.07372557077730389 0.11871827013368315 0.16759047724535125 -0.0886086990155567 0.09842903741214543 0.016029028050383323 -0.07805651598181855 -0.01832764552448116 -0.0866680995432793 -0.0299925174527963 -0.2754205243098585 -0.09116880271249812 0.09765124137125734 0.15864099781427368 0.02455377129427755 0.12907629743810278 -0.12158035511679248 0.12947637253013924 0.15123997953245183 0.04784232352117404 -0.04172576212814581 0.007793598230829019 0.004947859048231778 0.09416035887262175 0.10925968638931918 0.04884551882264272 0.22226944752203817 -0.07429278986611092 0.0011956073897601324 0.03568244471562968 -0.025780388380122084 0.10728674580887625 0.06679265180736924 0.15842747590242415 0.11524218265360295 -0.04428213405963087 0.011389771428774051 0.17981566091681603 0.06619978379885925 -0.041632695487721826 0.005590969412765876 -0.05576192472564027 -0.07830089511586047 -0.030645626654433503 -0.07986421753614964 0.11635065124581143 0.0005683140287732004 0.05463913331298872 -0.08445106299173294 0.049403422523924975 0.024008991459165914 0.2381508621517841 -0.09571924185352766 -0.01770096259099549 -0.21894948468052577 0.19267726339333457 -0.18336081727244416 0.15044856856481426 
-0.011697287295417531 0.07388281851639641 -0.17672651939900416 0.0384290845649566 -0.05602693176310159 -0.0545484926327115 0.11282280620866583 0.13522941747786713 -0.1116314395634874 0.131899768959523 0.13581962998283856 0.11215078902899948 0.1845656683540488 0.10052358461707032 0.0011808731664102708 -0.017831357555459202 0.03955848268122303 0.01837667046377816 0.1773470301525359 -0.06170522827037382 0.0993159788551301 0.09257517112785402 0.06616692401381837 0.09189689548807421 0.061616100438564414 -0.0033596879310157785 -0.052734459585036086 0.04584897846846537 0.029648185251000683 0.1897536441529631 0.16049695120813567 0.004580779715410397 0.00023060754979320808 0.15132948162048837 -0.1342812339522515 0.07931981623583154 -0.1229042046092274 0.045274679602450865 0.07079992151268073 -0.045649417245483895 0.1357154412675435 0.007075829873295431 0.017899031842359067 -0.05541894763501973 -0.15203179376202977 0.00806280041899908 -0.16784761519921665 -0.0017483401820031603 0.05126173562113115 0.10391916580143859 -0.028282903821836885 -0.14004962200882815 0.11339106805580139 -0.002520895431911815 -0.14831977260541865 -0.19676961577668464 -0.056309346708734956 0.07857164666882369 0.042500351540681824 0.11894829347882661 0.10546670468325177 -0.018091317147357146 0.03856810707808755 -0.1068373045914302 0.06041869497744719 -0.031068402974569788 0.09782110476510468 0.0028466076898970133 -0.010354952397283656 -0.15562719259238705 -0.0026772885031021163 0.1415615010212602 -0.08842954444602355 -0.12787334149096702 0.06196339882803151 0.013729391429986602 -0.13637235930518865 0.15394541095744463 0.01064412491464391 0.018520994321161697 0.12635951303131937 0.11447992937529089 -0.09194153375503247 -0.1903205499443477 -0.15534108347468972 -0.0038436065768293333 
-0.15345903736700348 -0.08466588365345802 -0.021981131594857296 0.16134537836357118 0.1523646132037664 0.016399665029242134 -0.11380571209206782 0.08439696358651003 -0.1364708940267998 -0.067692436719686 -0.13113001937931887 -0.08424360541672522 -0.0033223507164915154 0.12948709033405537 0.05288522336300052 0.04005680358752887 0.12152802361808264 0.01172264001473729 -0.08749082865498346 -0.17862852891415015 -0.022846466378707624 -0.07838379465145319 0.11302132933110826 0.0015387642568810605 0.1535972885846438 0.12912612335674617 0.12782217993241649 -0.10445317722715472 -0.08117104134784661 -0.07820225302878916 0.17140716897439082 -0.0695631321109829 0.047481105462338365 0.0031687118200042033 -0.16706794455459706 -0.020443361024578607 -0.06635391586174932 0.020394696586741416 0.14285102602772284 0.15126398043193118 -0.06101792620893411 -0.22533986084919952 0.07258320781297724 0.09217770219265964 0.0076204577087710884 -0.011255710290699175 0.007390959491256648 -0.15051218051393667 0.04592857358354446 -0.03372870001798153 -0.13966924145814208 0.11436317926973293 0.0558217331761382 -0.09727713450266748 0.05952193452731455 -0.061714563318545426 0.019842754011608857 0.06201646826715153 0.006948381122587689 0.06741160031323176 0.04268796019587433 0.10871852351584323 0.1341041545771082 -0.034039119222118025 -0.054758596495668485 -0.04760085139704416 -0.08385041264983434 0.05363040028749399 -0.0745706869684252 -0.12156152354649707 0.09767879294404531 -0.098027001005929 -0.06398166753819903 0.0681738675331162 0.22569329115520445 -0.09554306094090702 0.0700115833614071 0.04977929250571611 0.07125749732925747 -0.14907045897687676 0.05181008951547286 -0.09745794983901397 -0.07122316106244166 0.00040473877671017857 -0.23422387852138105 -0.14639398006783522 
-0.15160699957720175 -0.0061908057917944475 0.11222915236126968 0.19297602916513626 -0.05620168332509579 0.1983669044478636 0.05631969762153178 0.09525703838943363 -0.06346210118346936 -0.16860924276835074 0.01184856196017093 0.13176951695615377 0.11718471124098996 -0.3306521062326073 -0.3549105766077686 -0.16187221488671744 -0.07718805668002231 -0.015933200135983303 0.1327592628968551 -0.1928088386456304 -0.07103649243644551 0.09784001577262846 -0.21904257171285185 0.1451011240620965 0.16018059158537049 0.043438961746631824 0.08162765750342924 -0.33117146727040453 0.01875549089083806 0.022765337783059506 -0.06537791437663228 0.12296061149328474 0.14210546203099733 -0.02253806317915015 -0.10700954894778197 0.0402658735711411 -0.23846018095297214 -0.0099713021070975 -0.11168165949007304 -0.03471379215715743 -0.05863361930230332 0.19760208912460753 0.16705824341126593 0.19624513903634325 0.07441005207815929 -0.09874009111977296 -0.04622322174187381 0.128532901947636 -0.05623922358836836 -0.015905324666779633 0.054660110699910155 -0.1752503003916193 0.14753380206979877 0.16187531097582458 0.14182753157863193 0.018405148344381703 -0.011894597049672235 0.14670426283724974 -0.18840308232918063 -0.10691156876997666 -0.13965224240868157 -0.13848058846083874 -0.0003956144645833195 -0.2754328862272991 0.06194453725185932 -0.16856838756583556 0.08342724273466194 0.01455350626693822 -0.05574033931310956 0.02622600040990549 0.07114359179980301 -0.040815188901019754 -0.022950601888621185 0.04708243477724993 -0.09041488716087874 -0.22324914242997537 -0.040363932451295714 -0.06771790377027821 -0.03598424953925265 -0.18767616801778197 -0.07760911828604534 0.09516351952459808 0.18670626666088938 0.005344465520763524 0.05854274528857605 -0.017339108481120656 
0.11242552484934876 -0.031215670781239397 0.17132264903176136 -0.1349956855941542 0.09074205305924421 -0.0729162387688359 -0.3463960911553727 0.056672624117136895 0.06651378805961748 0.018277427012631194 0.09243122140853022 -0.05906285985442916 -0.19661112256374416 -0.06217834765905848 -0.09588342953388575 0.14419299532648594 0.11311334929634706 0.008875880960239571 0.08875545890901304 0.13160078780705006 0.10613378607712746 -0.011907203821687716 -0.4375960907914212 -0.013018203314353877 -0.06988075800804221 0.04490134010764583 0.06067783515609229 -0.1751289029973626 0.001582333412340264 -0.052372049248126634 -0.25993763185649144 0.07083515489344225 -0.022264922770389238 -0.032073706605743345 0.020493919308442753 -0.2972247540505704 0.03083787328258532 0.04578558167289754 -0.03192134895928448 0.21932644439671087 0.0845728383582475 -0.0015787605195345447 0.09007783334219178 -0.09115393935209427 0.07511859764808972 -0.2152236831410281 0.021056816406101627 -0.1283374698600947 -0.04494004074681797 0.054870539127591086 -0.03328400816223948 0.11612656665149541 0.08708481273827712 0.15194657722357202 -0.010398112834917327 0.04268547882559046 0.017081547856295804 -0.02603817520748753 0.07332343661112489 -0.22083780297572478 -0.05664493895876147 -0.17967878867246784 -0.1372370510608858 -0.07094423337768584 0.09046010520886778 0.05704158693424825 -0.10151907519177208 -0.011775580631150178 -0.09190634944580836 -0.08487526832610587 -0.015338759068513405 0.06076077861535098 0.04634815551842832 -0.12578259151613963 0.07907446098576162 0.0703696566432113 0.1555231548791643 -0.44249960001307576 -0.09259824779215027 0.0018787825176959708 -0.01703553901140303 -0.08951218822745022 -0.34400299415851276 -0.20102935721718762 -0.1725296449959407 -0.0697036687781275 
-0.0500727177278871 -0.004147474618390472 0.19599581162420843 -0.10539040939268662 0.11611637730651513 -0.014683255108701661 0.05190359155022975 -0.08100922274965282 -0.10654075237020356 0.14930295515569902 0.11512418259762572 0.025284643346601614 -0.20324903874517422 0.06786507577733958 0.025676566072614652 0.13995008718930274 -0.005081655025205853 -0.057374983011404104 0.009700325151365518 -0.09073557968781518 -0.07282843997991602 -0.03928908638682037 -0.06860897034573606 0.028867035822743116 0.05760677702883013 -0.09820728710472466 0.02729211457805306 0.08883323941374895 0.006107796714432567 -0.11309916595714962 -0.02444396509870861 -0.26950695156501703 0.012687520310484382 0.06317989874894703 -0.15799336266894976 -0.03193779983769702 0.050653534840117864 0.08102627230760856 0.008805171409047541 0.12187429634851289 0.18317784188154934 0.14154201663240107 -0.08253512807386823 0.03265794315363885 -0.07018552632881103 0.18341917078851594 -0.09250425216708887 -0.05585499082020695 0.012518961796431286 -0.13404192471570583 0.07905897581563347 -0.06090933230573104 0.1278353161604911 0.1293070389825342 0.06365303799327131 0.04218507816471706 0.01405934600764816 0.06553953270246442 -0.025753760919519357 -0.02538934564442507 0.1040929412751348 0.1158599726431913 0.12746852267831346 0.10581287994061984 0.06022786586269284 -0.06400248268345561 -0.08808421677876717 -0.09808250688344286 0.05196317693195376 0.1791588363651304 0.09493354904053473 -0.010450319537272096 0.15795194314919947 -0.019691309682818688 0.02720953833458001 -0.07046623223723011 -0.08869054372019346 -0.0503529142093646 -0.020657523923927886 0.00684300608568455 0.13411820175355305 -0.06885271051350902 -0.1923902805072884 0.0407881104427078 0.22444590766008157 -0.01574964375352023 
-0.19285794113104046 0.052499965483848034 0.08063752787567403 -0.2711128908960589 0.14564300089204202 0.09494418923422868 0.05276726645783198 0.12095097846110932 -0.02541369746068186 0.07125331050998383 0.03799177227250089 -0.13847875206769245 -0.018163702318977775 0.08888998742373509 0.14461218704418696 -0.21436218233183735 0.13944373227416476 0.18531526208534224 0.18006088531467226 0.030566442943028096 -0.09309053504481289 0.16026949097536058 -0.15548391958271948 -0.011161583295651237 -0.09761685565101991 -0.04915977991483475 -0.06020553489036109 0.07152827792125872 -0.20278514537717304 -0.19658367748543884 0.008185055705939607 -0.1516823198457557 -0.05363217454058063 -0.034856441103905456 -0.12359432419122246 0.07844989558593458 -0.06256297491376168 -0.17416883477105405 -0.12785426851144327 -0.1442481940843089 -0.09446745640030418 0.26053043222918393 0.04615183153177512 -0.08630689217567364 -0.22892771155223296 -0.12392550086025368 0.015196665024897584 -0.11014752922606001 -0.20070863472932676 0.02062428485316202 0.034539065659642876 -0.06889500491503381 0.10156720290453274 0.09946978911971353 0.08074692641824763 -0.14169955438994336 0.12873560040811283 -0.022237491619231012 0.13991025627844683 -0.09658251143173609 0.19087745352852023 0.01757064151094033 0.06582677650946914 -0.14872953439078854 -0.0788761465868739 -0.20941887469762885 0.12775053019712238 -0.09322496353439534 0.1075171738297419 -0.1265370343948238 -0.06968471634502807 -0.0315640830565831 0.036956294872602435 0.031309298095418873 0.08391245609610481 0.039927891677796847 -0.09331918894857458 -0.11500253608156477 0.05060979634337596 0.07475162190611133 -0.002538230218927853 -0.2373287937809628 0.05809217166022795 0.040627555468116305 0.009076962388461429 0.05868090122949336 
0.035187166650253815 -0.08657124614546477 0.15141084466553148 0.13998406657016338 -0.06973405088122761 -0.03351949243738106 0.12969136712629367 -0.013814296635233266 0.16495218066058545 -0.21051107908279915 0.1323640076883989 0.11233620203257762 -0.058537689390669743 -0.15110336717523745 -0.02121916025814801 -0.02999878720500435 0.045029159752090764 -0.13841771255016272 -0.06659633693403441 -0.08432984974000883 -0.11610742003069323 0.037365643027080044 -0.19950532718501543 -0.0070547226526532815 -0.03737643340621526 0.14217319831104125 0.019105705366905684 0.1376436300875951 0.04926756593415332 -0.02451458124152769 -0.08665500387301342 -0.054518944643698074 -0.01634122917712062 -0.051792245898824044 -0.20118173870580722 -0.031125833378775718 -0.19774994003710455 0.035365340399156085 0.011805899346500046 3.120271902182193e-05 -0.08649605441540453 0.07488539474653352 0.12388927015702877 -0.06775488966332889 -0.09754511698644579 -0.11068767275331265 0.03761339012122886 -0.04387236215149914 0.10570317315233183 0.13361597932765565 -0.032524513787943986 -0.14634225292061806 -0.11780311511298605 -0.015103872901904429 -0.11797108075904533 -0.08346992358102992 -0.2575997408390938 -0.09096240475237967 -0.0663022540342121 -0.17049182925790632 0.1764101960412325 0.04272814640962652 -0.02748311924234975 -0.10694215802418254 -0.08909415540054706 0.09536454192673641 -0.011591657978434507 -0.08993405427840183 -0.08127482193083684 0.06293108283938852 -0.008708556645516943 -0.07860687005733952 -0.023005223475644834 -0.14864880046644527 -0.10678826641326777 0.04950501663542369 0.0008348940145529533 0.06899908635399986 -0.06541652045124646 -0.041987667140288384 -0.08314931230752884 -0.17494520238694125 -0.05876419411559409 -0.08046171684487279 -0.0004422592264555186 0.0010931274943869142 
0.06759366322473781 0.03151889774864642 -0.14764205793819118 0.08607912652470771 0.013486248209893895 0.10249944568652264 -0.030688795961843547 -0.10341213580327564 0.006735288383774519 0.021425168501612944 0.1323393287708853 -0.008081424298813762 0.0739391722521481 -0.003054711971819346 -0.1215353793293422 -0.050243080783228145 0.13138796768557587 0.056355423637221444 0.27281586590538426 -0.08003964468163959 -0.08809216439817165 0.01717849370157072 -0.049920819157948604 0.008294503272037687 -0.08641728280042775 -0.04120036576288678 -0.09697345335010171 -0.03877520340921 0.03484001832338704 0.0267017270562945 0.06477181011235675 -0.024420091028004784 0.11308200778962971 0.0220632458483868 -0.1279885524960924 -0.07574752180828784 0.11215869196870731 0.01002730834771577 0.04639715872085014 0.30848456143867753 0.01111459976436302 -0.11055648022159748 -0.068052223299604 -0.049022720382226846 -0.24102094468435556 -0.010560620427648585 0.08041214365919486 -0.005329016618816294 -0.042305460945394426 -0.05732174984518961 -0.10099764334597913 -0.16039739003061199 -0.053047320906156104 0.24430641321837895 0.140315384673496 -0.033482682247899874 0.04712969131888974 -0.01439349345113135 0.025694397270472565 0.022731573804235076 -0.018278052082564528 -0.0719789781323828 0.0438215259188728 -0.19850886881230834 0.06032002955564301 -0.0629583163542371 -0.11768228960692485 -0.025438683293246816 -0.08372912125617077 -0.104169754104244 -0.0603709936952907 0.05336183489060737 0.07392245633426882 0.03725215623346731 -0.057549233254111785 -0.10753370264195097 0.16018112218692548 -0.0654802049809385 0.04408190986666664 0.15754417947662117 0.06607681036230284 0.04199175376800097 -0.11969681514216152 -0.013541726875273736 -0.08730141946399443 0.12913517364375493 
0.03199998946930379 -0.039027664704344614 0.04545125335774559 -0.025832857906712043 0.07623659294955137 -0.050798259538227135 -0.06218921504075409 -0.08986036205322367 0.10482229485329336 -0.04104325225309457 -0.07915689051800134 -0.08311279917683181 -0.02003522646375249 -0.04801822239047849 0.14407991811902493 0.0987791329360428 -0.16329413913890112 -0.11706967782625288 -0.080124705790762 -0.06210197735349693 0.13133540718991205 -0.08732672697073221 0.083187771798356 0.15945426071699192 -0.023864186835612478 0.09662595759238894 -0.016544584249364322 0.10845310719265397 0.07720425365349162 0.0994816400755718 -0.09359405457288981 0.004684286357667961 0.125497640132784 0.05844818527574337 0.06948434549917813 0.08975561474084418 0.06559451414349758 -0.057206878262632585 -0.07666685479751975 0.09094961353621246 -0.05949889785759053 0.14758054582172603 -0.10337826357318182 -0.02775140754569275 0.020147063532852935 0.11290679813326428 0.03499746395187603 -0.0405453494544271 -0.09063056131342664 -0.06300128838025314 -0.06977696799418474 0.08644855118595333 0.09548661663194809 -0.09786827697947892 -0.08283601160973901 -0.04092119213515733 -0.014520841089327623 0.005395849459308751 -0.0202434740158471 0.13075271147491563 0.06801784685489318 -0.04054505890511478 -0.09124733439515124 0.011037187432772485 -0.025287326403781844 0.09478471693002706 -0.03600365343000347 0.08595126220648792 -0.07207131316433485 -0.026739120589097908 0.12452105905344435 -0.08516383493662714 -0.132839835348636 -0.19477059742247438 0.21208349267241253 0.0117685039802405 0.12145005635282935 0.12150431087391908 -0.07710452460452964 -0.05973366026157801 -0.008225106330640422 0.12991956963476575 0.1857580353025153 -0.04533332200714123 0.09256226714782333 0.11266752625142898 
-0.012434699564643992 -0.05750222116047912 0.08639091617032377 -0.01659817274904794 -0.05787200290148957 0.05468808061867264 -0.025749145610583352 0.03207101088203276 -0.13749040175667146 0.06343611744094704 0.06930783391694813 -0.04842105978930161 0.11126811054145752 -0.017008259944940405 -0.03584008297689555 -0.06944841617096131 0.07445529190084813 0.13130425280263996 -0.1336974122513516 0.07772840639927976 0.09222980534688513 -0.06805756967152192 -0.07450435751231524 -0.04605809517769301 -0.02429368024454808 -0.010820520723456389 0.06230624260463973 0.029373908651910773 -0.08657748412243617 -0.07277230073287506 -0.004551281817388119 -0.010445843547779143 0.002416786930487444 0.13656132620986397 -0.040781809579586076 0.12453610176702919 -0.13082847700430816 -0.012296959419700125 0.03056344406008367 0.07708327920746147 0.08628598883353795 0.14279754624281216 0.0023680638183604863 0.10720117761519865 0.008755798301577834 -0.09712553850982099 -0.0926368864297595 -0.0015508074371886867 -0.010868629510312386 -0.07668907700232216 -0.11302927467358118 0.0638064304250794 0.039741925884306945 0.0032548675951016718 0.036189236723782194 -0.0017917625295393656 0.11664797086174489 0.004892134756293524 0.06387837769545188 0.0794240321213787 -0.003659878903744551 0.09174732478794481 0.11776815879164472 -0.14031804671279263 -0.019231676105150242 0.12706220801581444 -0.17862132735433917 -0.07103018872116153 -0.022200017498819627 -0.09636291098781338 0.06941581308998163 0.03449056043487041 -0.010147719569873242 0.14689423406170016 -0.07047238399995735 0.07311576930686019 0.01964103446651291 0.09667614685896217 0.006753523465084694 0.1514617465100108 -0.017341480680713086 0.14150029185107565 0.12439103614727169 -0.08113496148813917 -0.04658984061055124 -0.15901690916661007 
0.0011749008531860815 -0.05740419035659896 -0.04808968859968899 -0.09522826435020555 0.10109697148590367 -0.09461465466027844 0.058102794463809775 0.12133232206746611 0.12255535032789466 0.0051386360893468045 0.015520646436933436 -0.08189982908222455 -0.1334813101271434 0.01582488327731402 -0.04853556456500284 -0.12057983878335476 0.10816284320663215 0.06509719373590177 0.10213390200568011 -0.02093488885500654 -0.02034085166145137 0.007161576557962115 0.0023285196705498112 0.016562710375531624 0.13570897429114304 0.08274809592048943 -0.055963429384704964 0.0637782644226587 0.07495060993332554 0.01838114656150716 -0.13672243220738986 0.04434782993261728 0.05581593121659856 -0.07370592255683076 0.11067905896058575 -0.07019912909831415 0.06559594956709308 0.1567040596013997 0.08160083302558982 0.12407801342796923 0.07323894946509639 -0.06323259567871045 0.083164054058063 -0.017150026392616622 -0.14721173343870725 0.09271359661399868 0.169769074213779 0.07280247144212734 -0.04912711530440694 0.017778649152654022 0.058894411279170215 -0.004828806768166432 -0.10375337535675436 0.10153963898075763 0.14962580972125772 0.028580138759601317 0.012522214389982486 0.12083335036499818 0.13162647535009284 0.09574899145961283 -0.018351831889391837 0.18269977281163316 -0.15438781344753089 0.015462658988409612 -0.04329933531511363 -0.1803403994693729 -0.11199281355011513 0.0891790108304111 -0.05830219993009597 0.05698613048670262 -0.17081926905519249 0.000435529510317748 -0.17400493642468073 -0.06464765471896683 -0.03945147386810378 0.06379210271038609 0.14053496333572005 -0.0939869569673813 0.04074175909711848 -0.28913817111496953 -0.0753092115515094 -0.02534487030000804 0.10589929268922851 -0.17738333347467572 0.15390011275788504 -0.0747537317619006 
