0.04828686297613468
-0.14386052227144178
-0.09526695663051725
-0.0013806125603204236
-0.15369261410578355
-0.00909181596409618
0.010235210078069336
0.22404747016393692
0.17760286502453101
0.136677356425787
0.05486479186801002
-0.00433060647505699
-0.009040402347364439
-0.12465541663950654
-0.03341473446941207
0.17512736243827262
0.17813859913889413
0.07417335786480372
0.06001839140574974
-0.01093437769859728
0.16339166114133155
-0.1341403153520226
-0.05976980793135514
-0.12202349028382686
-0.020032449313892926
0.04992607187300127
-0.0364363622440534
-0.1032693519274088
-0.03224066699171923
-0.0779655911732041
0.074219436744303
-0.07412509182897438
0.21603687992355727
-0.07556238208868638
0.1900458386259554
0.09310028804016988
0.14192892990501005
0.07404181246322018
0.01061716227779656
-0.09624643171754982
0.1178372619159833
-0.12462737255861696
0.04875258288983267
-0.11932596116263529
-0.026056661377392175
-0.0894846101586047
-0.13677732658897443
0.07022904027243485
0.028406256355452165
0.1997978681045771
-0.014607950089155091
0.056433265847027424
0.11635373833624715
-0.09836448527108375
-0.04448386895601324
0.07938129337918691
0.05218692559147156
0.14441582102577183
-0.021178566939741603
-0.009833221340988385
0.2582895043032258
-0.1197183906775014
0.1956309006126521
0.13499396095703434
-0.03318470010269616
-0.020669147555444765
0.2195856286880457
-0.005276533227940717
-0.009235335276482187
0.0046119623696347515
0.13481153585604838
-0.039049284775500875
0.2513384120232394
0.16264251952205594
-0.13094916917158567
0.09441779858159464
0.14590142235240444
0.06099851486080923
-0.13573909402178466
0.20696705340848406
-0.08592718277151089
0.002202671031305844
0.057584041266291824
-0.07810607299001965
-0.040597829895983546
0.14672068912225542
0.128316615610767
