0.03841975652331793
-0.1396845570897878
-0.10065398654733235
-0.002307087476717785
-0.15156395769055928
-0.060340523515818395
0.014637282632907636
0.22912024175578294
0.17248325990465319
0.1439545024018973
0.051575198308983314
-0.010731034104617234
0.015943412171072584
-0.12394723444248278
-0.04277373149107272
0.16346508027926104
0.17727674417003808
0.06079475504521746
0.04807793493844812
-0.011031791726336105
0.16142800227104898
-0.1329256075724701
-0.048688684169444434
-0.12131010664711331
-0.013644925073948603
0.05239716679322927
-0.02765329234875715
-0.105711414901407
-0.030257934645287973
-0.08749170553392684
0.07106250841022958
-0.06932475792162911
0.21266634601102158
-0.14470998470999355
0.18427468125877688
0.09699879973000294
0.14320764795779584
0.06535482171773462
0.023612758548697512
-0.10217456877365416
0.11614307466008852
-0.1416636277266732
0.0502138743057274
-0.11508667220167872
-0.028170843116372152
-0.07950080437734784
-0.13868395601519448
0.06680746333702443
0.02538266720451496
0.194908829147235
-0.02048840385257764
0.05613602582246825
0.10568475113955172
-0.09246845346773104
-0.0520096536940001
0.08479094398194983
0.05616956671710064
0.14221384959184535
-0.03587729238268807
-0.010501011162627884
0.2568247496731341
-0.1153087410581904
0.1928807466340373
0.13949898696868884
0.0032252407525747376
-0.027384425854329826
0.21879414807205555
-0.011580720460510086
0.027489383934592736
0.06155026415623513
0.13577008604369917
-0.042346771602852926
0.24935796087277404
0.16265915956404234
-0.13707610900781655
0.09142234589951695
0.14468537862015904
0.05479660219775973
-0.11821896601138433
0.2075423689693185
-0.07599122798883083
0.008864112788385298
0.05045403769867405
-0.08208540693797998
-0.003323558331022805
0.14546808774531778
0.1275953543627477
