0.057003278801761446
-0.1447432930698257
-0.07910003241609692
0.005058262903761574
-0.15570526104050852
-0.11201833029261142
0.02843932319824144
0.22196026640938085
0.1743554071365955
0.133278341901984
0.052164484053296135
0.001870856092992442
0.013393518621294667
-0.12303596135373396
-0.040774088922433845
0.1670929096929163
0.17627838749409816
0.0658629329425657
0.06122353852220642
-0.022174485932254358
0.1627479007679806
-0.13329085233692878
-0.044824585697588265
-0.1199719486297955
-0.01705816313805705
0.05224640065519029
-0.04422906176728734
-0.10476820656180601
-0.01735008841041176
-0.07906471826717688
0.07682408348983828
-0.06325262983080684
0.21244958822880478
-0.144569755242515
0.1851346138085225
0.06467228581477173
0.14124031575419266
0.07411393143676327
0.023666518408903804
-0.10233705717712717
0.11584426268599034
-0.1353230417822721
0.049658540626911225
-0.11538109019519928
-0.02983656865087763
-0.08722334415229015
-0.135556974947494
0.06923724813198642
0.04128443234131861
0.1960515215739441
-0.023265467776997607
0.05720881213153222
0.1214113164433917
-0.06885159559094495
-0.042136208949457084
0.08508321458740038
0.04891151901457722
0.14199898046250267
-0.05909517861071743
-0.004490618387020969
0.2599945515775562
-0.12157529299989973
0.19259502970873058
0.12890390466326976
-0.030809924495412328
-0.003961062423347269
0.21679367500533556
-0.017584514410455845
-0.022920097601097877
-0.0367576706604242
0.1346812363850946
-0.02159657096561517
0.24970642151927325
0.16029721066698152
-0.1357971317130599
0.09526325949684013
0.142934765238558
0.05521079518027823
-0.13408775321514635
0.20589392753639127
-0.07999505310317229
0.012389253701075173
0.06266187098080563
-0.07203646726359451
-0.04788511915692314
0.1445651398733675
0.12638027658373102
