0.060536670002484874
-0.11646007132102855
-0.16905609987321812
0.001916048228288319
-0.1608682819951514
-0.12020210542821827
0.022601047318893657
0.22808934265104178
0.17534815842888754
0.13238691575020448
0.054441656057944224
0.00541424620951002
-0.0008124590979285758
-0.12598223917488263
-0.047412527065642585
0.1688913637145115
0.1789031536277074
0.06398149359453031
0.05992547550367134
-0.025850420873308827
0.16343379289175644
-0.0954551315533104
-0.06146038316023917
-0.12275513734142644
-0.018904396678436217
0.05456244820662847
-0.02933909446749268
-0.10512861580308624
0.003483012548459113
-0.08104858163684062
0.07432707467609578
-0.07441039186182717
0.2157188670129017
-0.08296704552587614
0.18843237034557336
0.09293325241330193
0.13662018006548446
0.06457471453022182
0.01177799113970317
-0.08280149573529338
0.11953138381208438
-0.1301212018745567
0.05330297223637863
-0.11784546009567676
-0.05551672577306168
-0.0814180693770235
-0.12366803917657913
0.07460559438912964
0.03251078766367195
0.20247722211558067
-0.039095993565191
0.055020444000473616
0.11213590337659343
-0.07720207965182509
-0.04780610599356031
0.08595832698955277
0.05390989519848733
0.14477225438043087
-0.018914510279971573
-0.016474070334257417
0.2623475891624417
-0.13087114121755958
0.19308038437104055
0.1306444864554356
-0.005613187166103047
-0.01300401855468143
0.21972400924726593
-0.028023670037281418
0.05442825774718266
0.05693521639636859
0.13829565578518335
-0.01388905061911606
0.2517769585745602
0.16330521616751975
-0.12518749708087612
0.08654873825253596
0.14603116386547454
0.05384720324675932
-0.11077085565660254
0.21020516149548665
-0.08561409010749162
0.007809051741295291
0.05008974599446882
-0.0732044023725599
-0.009030047833464663
0.14680505373837477
0.12899806224327492
