0.058223347366392786
-0.12227689409266661
-0.09655668933544043
0.0031460526253301343
-0.15609484002233426
-0.09259962757041568
0.00014713690328668983
0.22695719215873436
0.17456139900319695
0.12319080285629071
0.044644423537522765
-0.009915569099620287
-0.0015010070719273664
-0.12216349928738619
-0.039679077983628394
0.17318173766388414
0.1779470162812007
0.06691869668879864
0.05573786716534686
-0.017714757734434337
0.1624626777673208
-0.11523466060067658
-0.05518469826454367
-0.12681363310369054
-0.016203827363604848
0.05094388161393213
-0.010598668937575979
-0.10572571261721819
-0.019554497068799418
-0.08027532621353686
0.08558913443464547
-0.05426228195023491
0.21404693432364574
-0.10820507416422956
0.18838148990133277
0.10269087919899914
0.13932549160986069
0.07024094770952809
0.032944297263082976
-0.07453851873096198
0.11622221298730522
-0.13376586464572898
0.04493240585799238
-0.10690887704771766
-0.02305300020624611
-0.06917345976077839
-0.13016131973345374
0.07327392679116272
0.05093690942085183
0.1952709329691736
-0.03968908503051879
0.05704029499549035
0.11280858975442012
-0.102781392663898
-0.05886055826687845
0.09322546309001473
0.057335726876974184
0.144912848109456
-0.0036146650842110457
-0.004970914567408985
0.2617808961934874
-0.12250553975518218
0.1923486405619698
0.1342244200210083
-0.027977658559827184
-0.011774839604412049
0.21787715374118946
-0.014513259177659294
0.029482072327383906
0.04735918202236665
0.13569054592365554
-0.0033325877122436787
0.24985689065478933
0.1602989549875242
-0.13215596998547502
0.08767182435803064
0.14545865629393753
0.06064105599563346
-0.13548119094743258
0.20923684664310774
-0.06724700247952223
0.00877107654515332
0.05363354663465595
-0.0891238640816556
0.011375476912382622
0.14461544773328885
0.12796286160969433
