0.06984068171553659
-0.13694025141895885
-0.08991603041566483
0.010340742423772696
-0.1529543108596989
-0.11382937702158356
0.024934928109393278
0.2320848242044226
0.1753573907522412
0.12698109608931707
0.05224643547269338
-0.01781110955516977
0.0072409411613837136
-0.11700563521859793
-0.039904856259222285
0.17194982291671368
0.17829078779861599
0.07212287830476548
0.04173614984886541
-0.016270712874821708
0.166393287121674
-0.09259567784002352
-0.06388307869247209
-0.11922025939609833
-0.013203727736055475
0.0541937588175449
-0.04526937173426294
-0.11064481177526211
-0.029324457211931932
-0.08815088409798297
0.08206657860972645
-0.08154752059776967
0.21601079091542155
-0.14005450365870165
0.18212598621745174
0.08001951356301236
0.1434005412497456
0.051947789704421564
0.02301597015790235
-0.12898617872981674
0.1167247278471013
-0.12950951415230205
0.05200077818435519
-0.10647803769728086
-0.03371736175183039
-0.07807958174284654
-0.12880828288021096
0.060631888121207324
0.027805203816248725
0.19340250676049886
-0.05813247445649743
0.05929000683942561
0.11079034558356586
-0.11199297621068885
-0.04133717089322697
0.08459834803380169
0.049847009615680435
0.14330580361679007
0.027673417305180963
-0.0064222410591850895
0.260013299913796
-0.1292802611268579
0.19374315541502451
0.13487693588550898
-0.009174507042026457
-0.02575159320915423
0.21868372251140614
-0.009625963616483437
-0.014112507309746735
0.01792177523244625
0.13776568454333016
-0.03305790131330569
0.25176737513184433
0.16230022808674713
-0.13648498628103878
0.09317501892864452
0.14241616564070128
0.055280391440399694
-0.1366342848615957
0.2105762113673712
-0.08514231898991283
0.0012750474296025704
0.057122737692160606
-0.08845083441237198
-0.026753853345357643
0.14468885145647223
0.1273814894259453
