-0.06870795433436643
-0.11134926365085202
-0.08973227602832563
0.074581929380154
0.05976997120193748
0.04013791572832519
-0.14461658140512954
0.044201520155021816
0.010493833911783027
-0.12166703758434932
0.05950029877631199
-0.04027103717925093
0.15641918205091218
-0.08757310909446166
-0.062197415954630735
-0.12375566633117568
-0.008204303521394934
0.037477373058433586
0.024428941886338717
0.15685615194069816
-0.08709155061984393
0.1375757608255853
-0.09456701898077406
0.05036474392087939
-0.04451197585966931
0.03018518081470005
-0.040001070839247636
0.1370318534117747
0.17076710537507003
-0.04183118679506836
-0.06364955184098418
0.016417412896572153
0.06868743566174668
-0.002982624598712307
0.02821317652039062
-0.11965259789909387
-0.1605790621150515
-0.025057587608966102
0.08045520875875666
-0.11930434564123936
-0.13816394384957204
0.01837795361864628
-0.006812162165366511
-0.03152792901483645
0.007595235271369624
0.15555031228212965
0.0939917228270197
0.0840307147033048
0.16705011451875235
0.035569461128941306
0.05608505523779652
-0.008490972967564903
0.1052112902812488
-0.03989797265154233
-0.10570277415801269
-0.053156725514243615
-0.057648798469852276
-0.10779631579641613
0.16471614337954854
-0.053341006508107296
-0.04446556622971462
-0.107728401423646
-0.07826513751837086
0.11359327855730735
0.14272323741098852
0.08707109422452045
-0.10821710087669628
0.1349083582186674
-0.02877836951189907
-0.07985608705001175
0.01452688246853387
-0.11775139493192983
-0.0031501717773883536
0.18222827528412694
-0.13015590488020662
0.041154597903999446
0.009718743155007686
-0.1098061937853955
-0.10149437666609727
0.06683385430825266
-0.03993973801650155
-0.00033884358060717385
-0.0273428101251982
0.11929169009141033
0.13256050465720084
-0.045751022288457927
0.022956077922404644
0.12195495379118196
0.02653542938019134
-0.024880643721643458
-0.13606541484044737
-0.036499299107467686
0.1042531646466462
0.1037468623132526
0.03320702424328231
-0.009427014485864194
0.04664641121641522
0.03757829526605001
0.12791433982267067
0.012297233521958785
0.011518096759708309
-0.08166072784688132
0.00830347061721047
0.053832491975814196
-0.15606970779190166
0.059074396995635534
0.0134031210968288
0.06637709980547149
-0.019701609873518672
-0.026319481489098337
0.02768996002380225
-0.163403195156081
0.16685453594616503
-0.0028986171719506894
-0.18784667722565893
0.06350218864645678
-0.031048767736763266
0.08440347721856355
0.060902116001976356
0.031710397142990926
-0.006886888868360592
0.13691581752319096
-0.10229488475149824
-0.004093938873181086
-0.1654922124693222
0.11489127187496652
-0.044428907694688366
-0.10980291702602922
-0.1563441754142125
-0.1278444754143299
-0.12385924001260931
0.0811707121378339
-0.0408037732056462
0.033655578996618855
-0.03662336496094117
0.07023974585820818
0.06277073245883827
0.15656866069360342
-0.08334608343902607
-0.05312920695775585
-0.08022642185385456
-0.0007079019009902367
0.04936719614149756
-0.03542316332714822
-0.12214590507619526
-0.07150237284744518
-0.0644326508688693
0.11869074891558919
-0.04613414241213685
-0.16301801140298716
0.0605573691584868
-0.05994118153578295
-0.05804706640895019
-0.07408243364416382
-0.05460587762276007
-0.09543073103238314
-0.17638393207833175
-0.06971426706482915
0.1433856306927752
-0.1465153676096422
-0.044162112764426054
-0.10917626870172452
-0.07266525124648977
0.014313912117201719
-0.13971154587222098
-0.13877676841149067
0.1770924488583051
-0.06686843060820315
-0.09988244556453782
0.12619771719430156
0.04693573518060092
0.0827400346920005
-0.11842569674686136
0.027731894795952085
0.0838508194251187
-0.02915914748604453
0.09318922326913132
-0.04054449505047156
-0.041187964910682016
0.15592459638615136
-0.17865943288788155
-0.0956167075267743
0.0706127355476951
-0.04094562247352473
-0.055270792014352636
0.060784411817309786
-0.062316534394708474
0.08613462854467574
-0.1576897179216127
-0.05111874336648732
-0.11593447924316147
-0.07957280840182734
0.25566559410736645
