-0.0626587876184285
-0.09417419117456519
-0.09439881165605886
0.08398310900460529
0.07511828216189924
0.031913958242102546
-0.1782020256932759
0.06926641922832853
-0.04083831083623866
-0.12131610907416633
0.05096825764515046
-0.0418132256174705
0.15905701103204808
-0.08865714462149678
-0.08553298751792864
-0.11087926531562182
0.008376534604828675
-0.0018140341692597449
0.026926019183833475
0.16173480963672765
-0.06798144675686278
0.13251951596934836
-0.04368299599521994
0.053072485545187405
-0.008916703907329536
-0.0195508789112514
-0.03710601715689996
0.14729153080125987
0.18327322463566703
-0.03248678103366554
-0.068136447998272
0.02902019478181813
0.07838610542587626
-0.011409490368068036
0.020912124182321454
-0.13579997708806982
-0.12762048308018928
-0.019434863158180073
0.07242581747336263
-0.17526788276872976
-0.16801227827483908
-0.013816961458532758
0.0008397738414516022
-0.05618282602036356
0.03616692528980533
0.14282121431110412
0.08611141836806482
0.03245045013012728
0.17500167931555421
0.06372613393243992
0.037135857884385975
0.008229182073005145
0.09651464014259771
-0.060445753266144334
-0.07592787697237782
-0.044714088235864625
-0.04765604259498389
-0.08228385180472338
0.15951794504974273
-0.0579125607001997
-0.03576756631498523
-0.1582933189761864
-0.06110982228762277
0.10925617396453759
0.12434621467769146
0.10161289760876115
-0.06906341002216705
0.13322609943160915
-0.0197470759250818
-0.057439199366138685
0.030117029971505577
-0.0702108506750226
-0.012216830592139715
0.15854454447713878
-0.11655486619637306
0.05515843937092942
0.03850327613911937
-0.10443100741510329
-0.1175277028971484
0.041924944544662286
-0.07196498976274342
0.03294183833158438
-0.0677155093449215
0.10720856752791434
0.12720849885705185
-0.032839512769590094
0.011094209691041669
0.09322150450294611
0.028868701359824632
-0.014897024210147405
-0.1779151824186135
-0.024567971407936647
0.08782192778425488
0.09490276852322009
0.026680083800177487
-0.0031677426368862845
0.0013867302379312833
0.05229401889747213
0.12168888757096581
0.016406988047883132
0.010744695075777973
-0.08601301561166709
0.026880738848336524
0.023004270255667435
-0.1628733807108255
0.05855713200648627
0.004641237350587578
0.06425843748602696
-0.016958608139100995
-0.01857106221230024
0.03546805548038302
-0.16247569008460014
0.17247771886759475
-0.001439162803035724
-0.1843034025483454
0.059256498730150924
-0.03121658540408646
0.06783072381614998
0.025334087767948522
0.03342091566874366
0.048951940044088205
0.13664325472194977
-0.10366467192890715
-0.017639351381867917
-0.1347467598734156
0.13010859375705067
-0.07006616846786913
-0.10980291702602922
-0.10672930734565976
-0.1278444754143299
-0.12345564711858999
0.07079260734827772
-0.03345329571782746
0.03349052885341955
-0.03858376377252556
0.06700847944029882
0.06536583146549563
0.16899442113723187
-0.08536012391878325
-0.036519361757707286
-0.09162845019723848
0.0039452116018099245
0.026515342940172253
-0.07228218090472675
-0.11908893037733001
-0.06227415774504359
-0.06386571601411466
0.10026299555779969
-0.030645844890631973
-0.16301801140298716
0.03914248555572467
-0.014190577734433378
-0.048471451094916476
-0.07280348557686754
-0.059155931151450916
-0.07975366293125363
-0.14844903471799334
-0.06603146431663454
0.1539796041324158
-0.07995041420514878
-0.041665861966727995
-0.11970938075828658
-0.08339904713263625
0.029736947222175597
-0.10681240107548658
-0.09673087216124097
0.1871487061797845
-0.08628464693675657
-0.1284149126520835
0.1337015076336235
0.04393080779791606
0.0845775565305903
-0.12792295239632834
0.057875651264488535
0.07793638525588256
-0.041047447877836846
0.07601377365571159
-0.06108700700773875
-0.04753282585272563
0.16367263043416988
-0.17045475480138708
-0.09870246490013769
0.07284099805945261
-0.04830318680578586
-0.06265857267260198
0.05155130160829886
-0.056986587894753964
0.09748499127880461
-0.12657528291069503
-0.057434676638883686
-0.1301791927858393
-0.09200808333911081
0.26403861062510364
