-0.035935183807170305
-0.05388153108739903
-0.06340182594230315
0.09741514679161682
0.07354259410821995
0.05408726882768931
-0.15299280382366398
0.06026389108777734
-0.004624070227832289
-0.12426992686017001
0.05640093603464205
-0.03748702680220789
0.15766776875975466
-0.07004890547696722
-0.03653536890095427
-0.14603062254280388
0.0163521702385813
0.00583485391087717
0.0361003925101278
0.1550269935779704
-0.1038789187077861
0.13483721454482525
-0.07271654577065545
0.10281895889572286
0.031412608772928466
0.022808191969699167
-0.02644554043828932
0.1376720045880713
0.16592120473370547
-0.053283720215500145
-0.07645911539706363
0.006017198615840801
0.07423303626601102
0.008603404861353052
0.013509764818354164
-0.10322512962135627
-0.09819056814335747
0.05043786251836735
0.07465046070379623
-0.20665725411248898
-0.12260120179615513
0.02727226495964219
0.0019726646249252646
-0.06031602014698537
0.03175170899036764
0.14721706645731897
0.07847576354133996
0.01773502615539707
0.16005924964637563
0.06493368716941879
0.08712597309534181
0.010394244298451438
0.16382764025413563
-0.042240791803804585
-0.06407986898326362
0.008462843598597374
-0.036927239147128026
-0.05810050372213334
0.15851603270970369
-0.07703611969091641
-0.021005677400268177
-0.1496168900295268
-0.05398075478775782
0.10927611249611167
0.1377081966982853
0.09020923652486036
-0.06922775025072517
0.13111905414624792
-0.025377377052407626
-0.03818096050223332
0.013925415591075822
-0.08551605148520927
-0.004277610807514739
0.16234970805209809
-0.13419633484264057
0.06073510983825994
0.0066152259655070725
-0.11241596330078141
-0.09811523450744009
0.052104160301859256
-0.05148944323991507
0.017937070137900083
-0.08334306858153853
0.12896438716191505
0.12209199579900062
-0.0592025341983086
0.0154358552869715
0.11669626546579301
0.05493225902614385
-0.02028095107165673
-0.14143688470139665
-0.024769396202481198
0.08168064472487405
0.09909196540595093
0.03537946643667973
-0.012434442878852469
0.029197668631282155
0.0413597717530964
0.11234357192791983
0.018302280303270194
0.008506717127687639
-0.10233665220031103
0.008995123031629245
0.03257637193560381
-0.15679689708536257
0.044069728899360214
0.005032428459506716
0.060533113617288255
-0.022777588551146276
-0.03684129198033646
0.015936199570368244
-0.16152749518927953
0.16650666278102533
-0.013109562947259266
-0.18717316128594297
0.05406930064181572
-0.07299800570553078
0.10072606367572709
0.031421944835921846
0.01831873259022866
0.03143274556689585
0.13650791160002693
-0.09121521038269385
0.018741977907112007
-0.13819323842004286
0.1166192918494485
-0.040048295778261286
-0.10980291702602922
-0.13677456158839102
-0.1278444754143299
-0.12213357136309475
0.0722140388175635
-0.039395063786389635
0.019012564738164518
-0.03353249292016516
0.06158897806263711
0.06132722980419114
0.16041450773517799
-0.08512183601860866
-0.0538346418440523
-0.04295807677636066
-0.0058104948654591395
0.02017984325840974
-0.04650742850046389
-0.12242212266257423
-0.09220860210134134
-0.05893890758594375
0.10592968614727101
-0.0396689824580665
-0.16301801140298716
0.05139658577476989
-0.053272900111856765
-0.06431950910105158
-0.07259274570320047
-0.06995085593297592
-0.08227296730710212
-0.17817393568952708
-0.06789203554457025
0.1503951374194598
-0.12080426649023436
-0.03677753967863162
-0.11418884635545512
-0.09092003086518942
0.026076455223715107
-0.1182951267101129
-0.11814008980340712
0.17111347805415866
-0.07678314719436995
-0.12836218272288802
0.1250379172430215
0.04912864741502639
0.06913821170255086
-0.14972933324436385
0.056465792250301725
0.08033488518111595
-0.035269298978282244
0.08697215085137336
-0.04335669723562268
-0.04518777353200001
0.15340685711628058
-0.16797828053189442
-0.08538840871904195
0.061580382282568964
-0.03057239776927963
-0.03268748293783546
0.06317186975619461
-0.06761397522527247
0.08599389310172029
-0.14873867053379425
-0.05212694563922151
-0.12893318417442698
-0.09092993587671644
0.25446161315447424
