145 96 96 1
-0.024878864308602176 0.11369769680676421 -0.1755457123817726 -0.08290121862653115 -0.09406294388306081 -0.1582393159210649 -0.09832151708636898 -0.04733077192454725 -0.06542449981061278 0.09349080400565461 -0.001160031723099723 -0.018189833168462805 -0.08881971710661438 0.09139840752107024 -0.10124848176112429 0.12845927273926014 -0.060156866101859066 -0.028108081010368633 -0.0845171661638203 -0.12832362908706205 0.04486727334583482 0.17993741713791384 -0.09409399947237156 0.0497173105530778 0.18730795151790225 0.11600095816029543 -0.10659656272951794 -0.09512289947928364 -0.10202719122592964 0.10610948239467999 -0.1051467172843218 -0.0005663747360378408 0.13017710809653663 0.0849624750826613 0.07594996373684695 -0.1677938852263308 -0.004292397942535911 0.0746647505971948 -0.1263762653579917 0.10314518701663666 0.05961968765811343 0.06873185240114596 -0.12396982597935467 0.08292596122884315 -0.029924670974422907 0.0016115825951588448 0.1536893339316299 -0.04913599702442797 -0.0439861989861337 -0.11940622454473128 -0.1779113743913388 0.03704596975659078 -0.2889850107404547 -0.04506222873030785 -0.05441698912074644 -0.13523645436800785 -0.019704421261224077 -0.035696027686889314 0.038800391301130645 0.048257345479857536 -0.11791157777041004 -0.05337517266106226 -0.009042249261273764 -0.036992839477336795 -0.13059803690891783 0.09007627099526062 0.06521503558877155 -0.01314237276367348 0.14637366957343587 -0.07432907153849079 0.21640846124798035 -0.040035203801289 -0.14017956371849652 0.07523359583207703 0.006537355862930578 -0.162294748287754 0.12485304091388762 -0.06662759406219793 0.1493903087492541 0.11985640583129417 0.10802831995928219 0.003909290817227222 0.06398452930370933 -0.31073083514159927 -0.03836474811312276 0.06419073084680439 -0.05539879177465674 0.07198538440422853 0.07496303967261324 0.019075687951620526 -0.12648186571991776 0.14253163842702374 -0.010813800350272951 0.04440701633475451 -0.015597294887552283 -0.12518884617889864 
0.05883845563374386 0.03378205268739769 -0.19165239066891082 0.01503468542523053 -0.04067588395082725 0.029107547875353006 0.08981523640735317 -0.04442111828938958 0.12357105253309562 0.055852895957581354 -0.10613439596655541 0.19008927108211462 0.03726710322822384 0.19655578331286958 -0.10878224219168943 -0.09556967085284071 0.14288499402375546 0.07452225181306726 -0.17196402255682255 0.03579919470089145 0.019981208146977448 0.11797155988416641 0.13528465263458453 -0.12226194752568458 -0.18204475163860434 -0.11897421732964249 -0.10439378356609483 -0.08129279723684028 0.11022232935490621 -0.03578524813461062 0.04227175016318328 0.09345231907610961 -0.13492851750583182 -0.11179592533513466 0.037768432652261374 0.11946232676100964 0.0027793838494719887 -0.13656990001688094 0.0978088164049669 -0.08401719489061232 0.04752425261060175 -0.029625121036960772 0.07722780884920608 0.07025829421110452 -0.055806837465770275 -0.137191438191344 -0.14808369322790893 -0.10812939170051286 -0.12740844767470552 -0.13801207891890824 -0.05964829920042022 0.07994890239769742 -0.024428235427194075 -0.13925257044599992 -0.16476175511454524 0.15225429589956535 0.01102004976598171 -0.1741281823770404 -0.11261155081381093 0.08305407513813708 -0.05973066500155973 0.008769605050966283 0.15080772101485326 0.07126553169985979 -0.1095036988830674 0.015382062528070268 0.05165542037061663 0.06740442613804098 -0.14790998715735654 -0.23467441508320566 -0.11637042762948117 0.018756527674061992 0.04674309238103171 -0.00829668825287187 -0.07842953321823506 0.1734754167093297 0.03400917126702352 -0.09667387898675457 0.039937288231265806 0.06579799085883095 0.06567812536681625 -0.08753887572229509 -0.19501609358366814 -0.10154472017772 0.04268314207633596 -0.05709535278292888 0.014232938469729775 -0.07903754178966063 -0.0844415430872865 0.11660769920717853 -0.1269856676153 0.07604492539389346 -0.02998431443921085 0.10881146973654028 -0.08670540712253073 -0.16342122370854165 
0.034493404820390004 0.022996267752695945 0.14643738576796467 0.13816907094557337 -0.23728311175051867 -0.08962134128617863 0.023898914472171445 0.1739696501274874 0.1102463131494671 0.08335315083869264 0.16196805907329184 -0.003143351687044953 -0.026030711095089077 -0.003609867581158806 -0.02974658356018624 0.039746340394847236 0.09737009125440133 0.12281321226832273 -0.06607660899227581 0.15458496234283595 -0.08797252712568136 -0.13305619347073153 -0.11626483512500999 0.1593978061536319 -0.16814713143147017 0.057273463050449905 0.04411814625399523 -0.15448669687619068 -0.08904935440446206 -0.06025770956191056 -0.08839008711084416 0.11493305548106725 -0.05977238335634931 0.20775194038264969 -0.07931731965833919 0.012246966680676798 0.1381035252310526 0.13523024768159358 0.01028678952469624 0.04229914768398858 0.017289368764345645 -0.0076177409640269785 -0.07613696355102013 0.021314155803775926 -0.14379928076013723 0.02328622969421007 0.03760057214371807 0.07320611540454039 -0.0038978406708458477 0.12115985157009337 0.044368423444548805 -0.2112633845605233 -0.027279900922726422 0.018495661534275974 -0.16529255983560975 0.07315279898474751 0.058249003810116044 0.03827402008964056 -0.15742847251051192 0.1271923177474736 -0.06608339204878926 0.1513387319486521 0.08015075158907142 0.05913601728744827 0.08455974108541071 0.08893652080823625 -0.19579589074477946 -0.00380590965721377 0.07742923341131136 0.0626765756869275 0.009384382641476919 0.050768749677807555 0.14176188594097336 -0.052769746035625106 0.04730041054090396 -0.080424444632834 -0.0215078934291069 -0.06329994935958846 -0.03884029034680025 -0.06324451185881681 0.10257723303595874 -0.037973628866844696 0.1412768582596777 -0.20940925629601995 -0.08866125491218706 -0.01870004397133945 -0.13338135025795236 0.01897865827680871 0.035282072540008695 0.07378075333307552 -0.036256000894871125 -0.09590256922719147 -0.06606403652636576 0.10729517064925866 0.00995084612473446 0.10223776854348418 
0.021487726826366918 -0.042441431099786694 0.0019710155805691566 0.1767780274502296 -0.11597742651430432 -0.04763753686175396 -0.057005459689830236 -0.10454406650687958 -0.13227398772669743 0.049477571641395886 0.12137183509454165 -0.0335421400426459 0.1573322806429108 0.08610202367664072 0.01934663166066262 0.05352913920717317 -0.3422895791948878 -0.10244035809241757 -0.022783394679511283 -0.16803456716800733 0.0029700164092463033 -0.0809583718912132 0.050290040648938085 0.12484273813752804 0.029477269342656483 -0.0835138707378723 -0.0042569000030296 0.042070926355871556 0.14705045464794914 -0.09325179710106302 -0.22264830128749724 0.10393779119638859 -0.09249585378378933 0.03419614229682678 -0.021325729402863057 -0.17576929261278854 0.085694811333833 0.017307235650477 -0.17916955114238126 0.050503307035563244 0.004579245046396878 0.008436368102866725 -0.11755289349429096 0.0176554627078438 -0.11916324125302248 -0.10682149472770314 0.07711441490397437 -0.052622784793393336 0.029868790909748918 0.2554554121856589 0.11164035437940471 0.006619352240616119 0.09430175951005491 0.1150078634129921 -0.012864977528930682 0.05178672194588023 -0.3202534767582153 0.0675706656243664 0.038176270733034826 -0.13781646063446723 0.17834531279292706 -0.12435649299180841 0.101165166678229 0.0024900383584220004 0.06520780563967332 0.03479774822020784 0.04401748400694738 -0.27409247278799803 0.022681429907742155 -0.18757916928085414 0.025004792569904986 0.08441396727651311 -0.05137209104453449 -0.13447461014941223 0.23348220826771762 0.2877514522209345 0.11908369977518438 0.22238211034133643 0.20223511137707875 -0.0074214712088889615 -0.12544564553322715 -0.10787444262964845 -0.04070702486072167 -0.05196974689047544 -0.02043084482279923 0.02655659438751596 -0.0516832769356296 -0.08315347332570996 0.08137609085135737 0.15742083299361817 -0.0047243368461388005 -0.10819730141383725 -0.05123304646761286 0.013950438700037569 0.18629516578231822 -0.03929137821972325 
0.015950830292794173 -0.03056580996647582 0.025124977804278897 -0.02147341243442355 -0.07571275697003924 -0.0931360826498749 -0.04355286121371432 0.0006913732479064059 -0.06600740140246127 -0.12054490979359832 0.037771022940533465 0.028711342458344023 -0.03944793523938679 -0.007689887812276063 0.0011537600083177558 -1.0884410246662929e-05 0.08136160832899342 0.06597846048431925 -0.07135276331379727 0.10533513334724341 -0.0036368621778069335 0.11748001658241375 -0.029930777705266594 -0.03519877306753005 -0.06569554440549269 -0.04530758299828251 -0.06237082996719668 0.023933114763686432 0.05264513107282674 0.01987403904837058 0.02189725560944612 -0.03546754980561519 0.10141896791776345 -0.020993730024738283 0.11450796827059943 0.0022518386244453096 -0.03869843641064435 -0.06891890800239743 -0.1254390071334674 -0.05277146034243403 -0.00430773808321992 -0.057232223465592036 -0.11348363878661319 0.035394705543422264 -0.0789190890977217 0.03691117419663997 -0.04005951037898395 0.0117421422812712 -0.01657104239074486 0.024104032244971072 0.0393160772098906 -0.04756343066564284 0.14079874864605793 -0.11842208974703801 0.08907824872239566 -0.06697223692944963 0.045428060729796674 -0.05962976352447448 -0.012934894669046767 -0.19869729838264052 0.08107552729668464 0.05189394340902283 0.08878002372652849 0.1611746770390787 -0.10224868353616912 -0.07297069500347995 -0.03370985638867187 0.01088413071369699 0.19019478347882526 0.10457199281656915 0.015621142062555913 0.051669967216363154 0.03439534879920192 -0.0755667829963977 -0.026777400246465112 -0.049330861742711875 -0.15299312388361602 0.13541950880465004 -0.09226203139692235 0.01602511632413758 0.05838816385004632 -0.020112021580455306 0.15372540066166657 -0.0484705317436082 -0.03470728052394224 -0.019689725604631225 0.07141761605423755 -0.012612875053892246 -0.049751702678583996 -0.056498781845250735 0.04812229569194564 -0.07956782702413413 0.06914931449009774 0.1828489887351529 -0.11470878660584355 -0.032918212248971 
-0.05159292749602378 0.13369449745390288 -0.015895646822880045 0.016214673606444484 -0.01310589637234771 0.05292138552973729 -0.09478153462519394 -0.20727967620137902 0.010508689494689383 -0.06108781721361088 0.031103066527205313 0.1788171803586376 -0.0702404597964471 -0.05452179052209658 -0.036454905281035226 0.14988746586688867 0.09439361721849314 0.15010712223360168 0.07183463360758892 -0.15211463042167941 -0.17360867071628552 -0.13793650913508199 -0.015082404293980396 -0.1261373873631525 0.011192382499362462 0.08531871289852531 0.14077815564527318 -0.11561686877117268 0.02975497715312869 -0.09169362247241843 0.056261614983008454 -0.0762092597842704 -0.1719754395699528 -0.12802245155666747 -0.015996255146419537 -0.008884455051789822 0.015238414196987968 0.012603915848894158 0.005807101037089734 0.17342667994416797 0.05374539789456363 0.09133107517831737 0.12750996126549843 0.1393679165817942 -0.056698030173418616 -0.18595957442735683 -0.13665736764413733 -0.13754367991135782 -0.03175146079155855 -0.10965436332481276 0.07394983985327142 -0.13852295911247248 0.15291345887393 0.08785880046898473 0.09555427447653865 0.03951399660831843 0.052821366753326056 -0.05893450743418878 -0.20531939652032308 -0.04126753010000324 -0.02600501810179829 0.06295350957939888 -0.015013628571845683 -0.06075250318268767 -0.1576334196752753 -0.156203342057671 0.10663506424322773 -0.11809006252433325 0.11841964164505721 -0.11633479758359837 -0.09322807298554023 0.01890833578128118 0.07253915535934366 -0.10951789453916429 -0.13136151909345584 -0.057074638084860775 0.022085667218620444 0.027517029374563556 0.02858350958705888 -0.15130257095738903 -0.15773218426681826 -0.03190977629270311 0.07277391571052201 -0.13929112318652778 0.03565305668862122 0.0943941697107196 -0.11451860129846675 0.139622433065659 -0.006702005002158919 -0.10243196450614252 -0.04912371687426428 0.13855814309715386 0.05942021380181135 0.023813101040725933 0.02776740258413103 -0.03075452458531189 
-0.10342096245293982 0.07677593948824331 0.08636398015288642 -0.02702428272252535 0.11291155993681348 -0.21478939107002348 0.04626648489685815 -0.18452814756611435 0.17794221819073303 0.01095252815643893 0.20004662808847434 -0.3402152593578924 -0.05395724846944402 0.04678933260401154 -0.0017225355445778252 0.15036432568043115 0.11091975463948991 -0.12062460455822961 -0.07525866551311595 -0.06437224823492463 -0.11282853058228984 0.03194270140551354 -0.1461835161439814 -0.22822069740124656 0.061234992090841316 0.07609001106743202 -0.18038376399609973 -0.020827543092716384 -0.028902433079212995 0.09704103940177246 0.015634502326653317 0.05080802901367438 -0.02351150678196705 0.09878835707915452 -0.00448434963499589 0.0891542778128184 0.11075704161450411 -0.11935495940529307 -0.1073681568237378 0.10146357666285212 -0.06267558216118473 -0.18629168841219956 -0.09137391691615088 -0.08394397596328339 -0.05181697014414257 0.09339471209094097 -0.11595211178745705 0.0018364705275085188 0.1284702188973749 -0.15280705681690948 0.14355617830142736 0.1968114921473141 0.007343238253626212 0.04605322407838865 -0.016141486329086633 0.1382520893253685 0.034490331959781094 -0.07239610608158574 0.11989215271743371 -0.22573897989017086 0.09537677602972658 -0.041342491981284195 -0.03595379545914452 -0.12388085104179217 -0.0776088658896069 0.189500997589479 -0.0661009569882269 0.043104832953312744 -0.06976586589883038 -0.06983429511826289 -0.05589126327836155 -0.0978440868757264 -0.03468636988545115 -0.02424190271012345 -0.07355064572016916 -0.31299395300475036 0.046867559367123814 -0.1155396788929034 0.10938763976284252 -0.1027902812935119 0.04943954404232731 -0.12679507623852515 0.020318178387662512 -0.06904316509547247 0.07516824758018473 0.08010045546713356 -0.08697667459648796 -0.09223501992027641 0.017572583556205744 -0.03442448702361148 0.08231705272434539 -0.13465649905036736 0.09354157685107704 -0.137383764052219 0.1304270792010371 -0.019068065589715917 
0.05106306640320926 0.058554928918050156 0.052547943520505756 0.1773117201091016 -0.11812418766126662 -0.1742084157792884 0.11314157758328366 0.15975538203972686 -0.0049959392196358005 -0.009989817068624321 0.07707976328932192 0.022761482697129513 -0.032897587283589415 0.07743737434449524 0.14667792703342913 0.05578705850745324 -0.3586494916205891 0.14007370721458798 -0.282237966978963 0.028597598516175052 0.08458308663975125 -0.03285053065133552 -0.17738412022783456 -0.08506306182531573 -0.019862024086588204 -0.24955994381755195 -0.00810082269191416 0.03335523672499094 -0.11314725975657652 -0.25437366089092783 -0.024510775870186866 0.06129324852868175 0.10351878204029911 -0.02541852753883194 0.23804847208897878 0.05035549546526821 -0.08211478302906185 -0.03585834692479852 -0.03912345381124457 -0.08919820664621132 -0.04078364089209803 -0.27432716428691767 0.019030692675956397 -0.053123517599278844 0.3264710396906625 0.006073193575147081 0.08728481581260017 0.09716988107463756 0.04007556847986512 0.25093153360700576 0.13920887923876188 0.20315451634676387 -0.09581946188631318 -0.024091084215394475 0.036257355063510834 -0.1697384590378352 -0.08035552799430697 0.050965599276407016 0.03367369764643493 -0.0627981414216067 0.22876422372692778 -0.15214920589183448 0.11351582516093964 0.029299717347061185 0.20414681868081166 0.03160985253504355 0.11913635052453832 -0.1558929378433281 0.20937906453192162 -0.32273094415766174 -0.09814573227990323 0.18362477666838087 -0.21854915235929476 0.11541673026813394 0.11821073768842161 -0.0944416305177938 -0.2168620459088667 0.10912441725671514 -0.07168300413073668 0.09305730809619302 0.1909981834517133 0.18018785315345692 -0.17715311481902946 -0.04854424006647358 -0.03957384539755008 0.031796715368831406 0.09620420815393592 -0.4413726084929462 -0.02999749628887188 0.17226776822439413 -0.04273790684716691 -0.17768392147855816 -0.04160410983483485 -0.13096739577383382 0.06257061707945302 0.09918054401459883 
0.07633032316444305 -0.14285315486277267 0.05839097328031994 -0.08072711204030143 0.15509602356284646 -0.1098521841272642 0.08668171266685115 -0.1784090414926963 -0.09681061464979429 -0.06102063593065859 -0.03340783135371952 -0.13958050816407438 -0.038852267521040075 0.11876902842236246 -0.11485296768504126 0.2410557420557062 -0.0416826264941404 -0.010732451929964528 0.1534212057520301 0.04651277301230289 -0.026536140031207224 0.07998164227255454 0.038589550789679815 -0.05533382252094754 -0.05738835769333445 0.0020849535131495472 -0.12839502775672143 0.12176849513969311 -0.20420249190972428 0.11552177528160645 -0.057939494061640694 0.017330679262243708 0.0530552280830143 -0.07228597525056533 0.05385524034667493 0.2956703728849238 -0.2263098370133331 0.15278574258018573 -0.13454372797668446 -0.0761558723513342 0.0007282539663107242 -0.11313685122375372 -0.14553217862522105 -0.02029573616144024 0.2021283585382984 -0.044781547629151125 0.14222679353891493 0.0038621062175403353 -0.24059847963387324 -0.06844663071819478 -0.02524503843934493 -0.11676277957256427 -0.012144372630829688 -0.07964304066619786 0.025317998463295036 -0.09408484448315593 -0.08583566854307914 -0.02189031435289803 -0.08724572563434224 -0.21456226960272967 0.10716143689891983 -0.019800098589062443 -0.05690089464177395 0.016717324313798392 -0.15521040630911387 -0.20841453690202713 -0.13228915152655968 0.1103289272473937 -0.06928053587302896 -0.00998041312235845 -0.05146873485911405 -0.01723122803235364 -0.10625547586315576 -0.17558985569021998 -0.0035251128737167794 0.05062236657079453 0.13896373716126745 0.027557382225027623 -0.10737315515911018 -0.11454379918347408 -0.04024043503552635 0.0887276852386203 0.07340998683081558 -0.25855492055113577 0.03180257239669546 -0.21114213343523014 0.1387956135492742 0.11382938065743514 0.12769723312574627 0.047547407664474475 -0.06214084385274235 0.061173469542097625 -0.017996421922677187 -0.012643511438181267 0.006979896451284725 -0.2035422320049755 
0.08626458205798976 0.0037543271879022424 0.03194999267656532 0.0965106300412536 -0.08213848561754714 0.16343957974281548 -0.051627350304162205 -0.10730720845009128 0.1103518171133575 -0.1444211393135003 -0.06918545745811952 -0.19248861532067768 -0.03415827732280366 -0.2135271105917512 0.13942603259080527 0.0500796070933078 0.06678398374287364 -0.17630959186221323 0.06933259628363804 -0.20376058068597144 0.03165675768772152 0.01484459489216077 -0.01847467933216249 -0.23741761464843025 -0.012570057887927503 0.00248726800129381 -0.10086716530131594 0.02382704877727333 -0.08334019785760068 -0.03329077103795937 0.1959452534565415 -0.00369665311968894 0.04604808025910119 0.0338838384702818 -0.10048428062495324 -0.09226514901823935 -0.02725667972688254 0.05312911958368373 -0.12059531124630964 0.2718834290638788 0.005879577494584547 0.025055661762824363 0.15049127166863394 -0.108149823569072 0.01982136776588237 -0.17331031476595016 -0.01261517500748168 -0.0844460424162924 0.00043922295582493793 0.0795060036251363 0.11174820940671547 0.009109441361820613 0.03476960146392959 -0.021851157045478155 0.14489312652396502 0.0066117440917995455 -0.16784026995339932 -0.07015178544685786 -0.07748648244426085 0.04827082289501856 -0.02972926830747358 -0.015618260286515478 0.004717897295298286 -0.05540708169342461 -0.15354776464091813 -0.09985635027973816 -0.2158821631969244 -0.04859819736895366 -0.18364547262821077 -0.07820793804694223 -0.07251339027303993 0.12298986236153613 -0.09176589051558923 0.0171425849065189 -0.017229134840295635 -0.05512771115216697 -0.03980623113285533 -0.04557610433008961 0.0026622961544634344 0.08469039973078656 -0.0361775608443667 0.04778345464167712 -0.054620041245126656 -0.08988724080207532 -0.10913216392655818 -0.09183978360864617 0.004004507412663892 -0.04669641458029072 -0.08696676080071601 -0.05656687978634164 -0.05329378872498001 -0.09249975805934826 -0.04721765885815777 -0.011400349080553953 -0.24333239091509307 -0.07980768713210977 
0.09706199311288959 0.007657624878104482 0.047379681861308885 0.11399995528050917 -0.15780905086889646 -0.11383883618309888 -0.012406573718626775 -0.05428985484814534 0.0931269721680186 0.02333981213694866 0.05830933537075821 0.10059866123534635 -0.028519828234901387 0.08716946118554708 -0.13076228852137858 -0.038828430405482686 -0.07341187728691795 -0.0017410605091403887 -0.18957936905804937 0.026138849203920553 -0.1281968392480059 -0.14818069256972757 0.09845867209984449 -0.11547138659531136 -0.09183189843700171 0.02448463467768395 -0.0078091588177366476 -0.11950294256408185 0.10109079284654883 0.1784155141026257 0.11696129701288444 -0.061563641314068225 0.028430979261276027 -0.08834796645404318 -0.05876773403710308 0.22249945450658223 -0.047363082370234906 0.018454494574975323 -0.03272664454880106 0.0720300540896923 -0.040176693748373384 0.18208252070213185 0.012657817896305303 0.08369762345879685 -0.012400166065127774 -0.09283719607235941 -0.13672675743230844 -0.06489482115977208 -0.10722123976927243 0.059802461527498726 -0.025866958021924402 -0.016829025472107368 0.00039660816411426987 -0.0067165929767957966 -0.14283199757752463 -0.06818617599029078 -0.09628558097815393 -0.02520544316685997 -0.14594088241051834 0.032796166142399365 -0.041437434769724106 0.03223215367389821 -0.06179845183127693 0.08550169357739089 -0.02776982585475387 -0.1093947056670724 0.1053071019715979 0.026010323911621978 0.08720736450177717 0.1726080896216566 -0.14004907788408344 -0.06847047643982063 -0.11831817736290495 -0.09564248143932137 0.12280254467634971 -0.2101387987532664 0.06703250807463842 -0.05931908260637684 0.1088812818869137 0.10665258839379048 -0.1477593618842818 -0.006209451906638247 -0.054711206979737324 0.13128950843684006 0.13478714103409498 0.01708330768128107 0.08581011034880417 -0.06618256098251724 0.12021104803892475 -0.037442500188119045 -0.25701472565140077 0.15677619074927035 0.09193484628746015 -0.13499940930993465 0.12505988708901403 0.07776577549109065 
0.12894010343016726 0.03605291851515498 -0.14173825158540276 -0.08639176617095096 -0.016568105992650906 -0.15727791747017447 -0.09596264136115122 0.013430870654984323 -0.024354264274716597 0.2369238084564209 -0.27578743525096183 -0.15509941259172277 0.0003942594365816625 -0.004970215826364502 -0.07583474672391133 0.2986592171922236 -0.1990266791826836 0.2805628568241111 0.13987234963857756 -0.10183683227601027 -0.024573528072309295 -0.0005763779672226808 -0.12293679369901635 0.06152318655361724 0.048843837665729924 0.1297727659559683 0.10692001852079494 -0.18599317011282085 -0.1516778999381097 0.053704134052760574 -0.005804451329824698 -0.2643208745001863 -0.4101696741581725 0.10199010143793488 -0.01123657414988457 0.16931314777266496 0.03616333983751317 0.021325438554688467 -0.09319957846329249 0.13559323411692192 -0.07245749498943763 0.1539438203018508 0.1511752187198189 0.1226751897239784 -0.03516390403611403 0.00019376949797565804 -0.2818983095082972 -0.07377447941000125 0.08390664132134416 0.004745780336733124 -0.26542898021954375 -0.1341354211352438 -0.052969558538138194 0.1149330366895588 -0.36091900018904965 -0.07334716927373555 0.07474665866080236 0.06904365964485419 -0.22917451415456572 0.06958690699653973 0.01239571336692482 -0.2000256494262048 -0.047735917248525245 -0.16112897936652412 -0.11919774231637323 -0.13889660074560703 0.11312839428824187 -0.0843316019137373 -0.2859708348059773 -0.05045838452900837 -0.0010502299769997617 -0.07839493708169874 -0.09873770153719054 -0.2993963565643403 0.03616690410299416 -0.2469903625359761 -0.07751700335415279 0.15955389603269593 0.18480074217024356 -0.23404679828794575 0.3112346261094264 -0.28584719219657256 0.09800435733796921 -0.031241465547239018 -0.2242346557315496 0.039249137424873626 -0.22300388861181544 -0.1948548617482583 -0.029733198452202892 0.19239236126348686 0.027271199854474362 0.12133541635892577 -0.0337828190438855 -0.18322685998370192 0.04744097635878509 -0.09782133644762296 
0.0844646211110587 -0.03505176214539808 -0.039804388672604614 -0.02068302975891514 -0.13300385123644468 -0.005095636865845517 -0.006514674053802338 0.07270721265093771 -0.016527844932716012 -0.05286484235740622 -0.17250645722543356 -0.03259758363634136 -0.14737511301792922 0.14272261396547334 -0.006587107837413155 0.08125440580046041 -0.02262869423751968 -0.11701258848321963 -0.10330178291106955 0.05162076728881025 -0.03248115372146403 -0.21358741645379378 -0.0009170233313016735 0.0807931771394372 -0.07986812516810719 0.1530057764615028 0.006263226748366769 0.0058433410688550754 0.011146166851976676 -0.02832676227193352 -0.13024467874937556 -0.0641617570880021 0.15918123659613698 -0.11492106450688237 0.06315613334217998 0.19082377322746916 -0.03450985727730623 0.005926752672816563 0.11291208924472593 -0.1714627794165541 0.035420629202240345 -0.14580271677166737 0.03589932544686742 0.05937344720579115 -0.14813804350329735 -0.14435759833509976 -0.03420854212900194 0.07607006440679037 0.07502716910393815 -0.03555410978436305 0.10571150529660005 -0.06855733302003662 -0.1564090324070148 -0.01939111787975194 -0.1367681225181314 0.13463107807073968 -0.05373797897662915 0.007991055882022454 -0.07307099593360161 -0.11563883015810067 -0.21603366321229714 0.013669855871749724 -0.1678788373732941 -0.011259807566725257 0.009817019042472612 0.14076658906752954 0.10290169902668303 -0.14244791527510406 -0.04943289030831938 -0.00948782895000626 0.05906254354479011 0.030144828033203085 -0.016137788456245136 -0.11969220045442776 -0.15420306771078252 0.027513469738100385 -0.09675724125119545 0.08608551958946427 -0.08278796286918692 0.023966646473688215 -0.08947712543478363 0.13561041059844356 -0.08963293090074642 -0.15481677210638942 0.05156319300541543 0.020445864495652846 0.038768002562563714 -0.10991777969698653 -0.09941088037182778 -0.08078097893799573 -0.05343456565521819 0.12652906214437798 0.10973626523286344 0.05127148449913248 -0.017283424182916732 0.10199412714831434 
-0.036072388742487145 -0.1332809664468151 -0.031163185668322026 0.023703235334831364 -0.08260273587004441 -0.01998082576208108 -0.03901547918239571 0.05808019005318056 -0.03075547788347298 -0.029749865112125618 -0.027231013063208496 -0.1316887405177302 -0.24919937696469363 0.1089177805626047 0.0638948277056863 0.009481236353660605 -0.12358779509548506 0.03797483885556813 -0.0408567805189511 -0.08994135536068515 -0.07153388431238927 0.07147477685533618 -0.0011873834476458338 0.01013024243421898 -0.10485470013246803 -0.000992621915943454 0.01683418676379723 -0.10955184875337066 -0.2722541721391904 -0.0783341893402502 -0.02342066718523615 -0.07457248193642656 0.04637505214653988 -0.012671400022527462 -0.11479264482371314 -0.054250536045711666 0.0013336163702215506 -0.015696595969423327 -0.14619421412538747 -0.0955739196835938 -0.03892465551377817 0.11675817452612658 0.14354865548286358 0.16835873378693444 -0.0522932831233466 0.028490886738441898 -0.043305055084210384 -0.026711957817567238 -0.09115002702279418 -0.06836216065418926 -0.006780758280029717 -0.18714284900765296 -0.04435090764761532 -0.014122602904571587 -0.011344673717043273 0.14017069912909397 -0.1071270202449282 -0.011236165240154434 0.015350430138272688 0.08097143337159313 0.059879058361788244 0.02496571577936481 -0.11909964760480586 -0.19307554882708527 -0.1013380880828112 -0.12114516134520925 -0.07330952462083669 0.090295139188497 -0.013122841042036126 0.010362721122949161 0.036848901852133686 0.10136129157786143 0.06002131158993825 0.09020699660418564 0.03938396906023009 -0.1623663828856645 -0.03175188577665445 -0.04691078940225091 0.024127453152786287 -0.1948307289320751 0.0006244179259428937 -0.07852296415406927 -0.049307439673535805 -0.027104213093131047 -0.1651803931114253 0.0030445044770466933 0.018450583364427408 -0.030605314843437516 0.012064408508681205 0.02686725048725953 -0.011487987044231531 0.07350103609101713 -0.09496084387632127 -0.047010406577140784 -0.0862835036759094 -0.11752103668486402 
-0.04102753570360229 0.17507091990956988 -0.0046212904345322115 0.12156746982478389 -0.016988675649090096 0.012315476549597483 -0.12595328170839 0.049204362291322704 0.014882860402450954 -0.08936115614470382 -0.031379586299550864 -0.15991416543751383 0.060079988575118475 -0.1428074025655753 -0.052100584805818084 0.10120686184635161 0.02834782826773455 0.015736084112607903 -0.1625748734880967 -0.12909977389395938 0.16141548880207435 0.02462512126882293 0.007031306988629573 0.11592407816304458 0.15464101318459955 0.08905164615400508 0.11961502647414508 -0.07840310753989316 -0.18884792850849286 -0.08988025677215439 -0.1675862475968019 0.13776689885419052 -0.034732968643354546 0.1670348938964898 0.1259617671472569 0.14305930880908438 0.003889944210466885 0.056690747052005296 -0.08092282982179763 0.2179797342998014 0.08063626147997731 -0.05650426118936914 -0.08231206502130883 -0.05916197015158665 -0.18407023039486264 0.09771620639647446 0.10200251443423917 -0.06180726900883106 0.09858285979633447 -0.07750803393887572 -0.03431041583197755 0.1763091533823196 0.08179934828338711 0.01867697357138416 0.09078067371265755 0.1559998708337251 0.030438926154085038 -0.1083632775426483 0.01967141229016886 -0.08190084348141952 -0.02928639819615163 0.17807660281889431 0.11171793541050859 -0.08395351910497752 -0.14111727186271167 -0.08660770088097046 0.0398097165597989 -0.02191132276070817 0.11856467933398943 0.09759138546092747 -0.09940795633559965 0.13051184447673936 0.08694460560031667 0.045517077282505265 -0.15747818387216012 -0.17780411797691653 -0.21509205125300127 -0.09845602917322685 -0.15927921167828793 -0.09758611355014979 -0.08909128718397044 0.22783586227660635 0.11911994463951349 -0.19251090183264322 -0.015452833683808512 -0.00961347666858091 -0.16031895390422485 -0.09508616108223708 0.080995195742227 0.043863742045577345 0.01826845596860437 -0.09011419461289293 -0.03163629835004704 -0.1130695192507416 -0.07574056282336623 0.2021072661083046 
-0.13007658088769147 0.1549357854205796 0.09086869212445772 0.12200262130545599 -0.09264798805194333 0.04566733093486465 0.03890783233466561 -0.038087954062805116 -0.04737527272704744 -0.04188145342521588 0.0437217218063057 -0.2771224199227646 -0.08415633174052109 -0.1321655730086076 -0.03348189456142733 0.03367001849782144 0.1286009263816797 -0.025231450119205856 0.04414161333781156 -0.16976728062824586 -0.015442425078815216 0.13990165104594066 0.07342583256052308 -0.07582099974184127 -0.09230912752587257 -0.3133414201471893 -0.1615805810729595 -0.10338125307152553 -0.008779393825352935 -0.14876423144895848 -0.05447412173334998 0.07016559820686263 0.012402215685236992 0.04942697685866245 -0.0445244894478065 -0.04200519608559064 0.02431413824961953 0.12015463082798301 0.06643548122244926 0.030061352559669845 -0.040193543773792445 -0.3054288993409475 0.07386292295495872 0.07944014612048361 0.11615350019569691 -0.060751293103899456 0.20237357685757154 0.1854731219561807 -0.02816108901960406 -0.02625244600113921 0.007154558639222067 -0.0737189333558711 -0.11372371501469067 -0.07880159402922762 0.15590422443249613 0.03786649864648508 0.18091437785187886 0.17201018000631343 -0.008039579154307832 0.10617680684255992 -0.10434752437889797 0.06866916849034223 0.11217238140074459 -0.0346606362633408 -0.1423440529997061 0.016765561283296794 -0.03795095975530293 0.08928130129634068 -0.01981284056918935 -0.09828639260668601 -0.08115330228550337 0.064028259698367 0.13642239154793254 -0.1665551673656896 0.11600776523483146 -0.08825020434118766 -0.2765525589720385 -0.03925801023795035 0.10551627463547888 0.11506414431094837 -0.09490234364602344 0.12861600703604723 0.12460272083647977 -0.08264563381693546 0.0024497562014224213 0.037388796758767696 -0.10607489759421791 -0.2706183333849205 -0.09977730753852325 -0.2139461923224103 0.07441651916620005 -0.052229199515146374 -0.03623082492493355 0.15181667135409446 -0.10214707831057951 -0.049948248834201237 
-0.08372268212958954 -0.071507217617022 -0.10677448677174631 -0.0278247342911429 -0.0959456189743994 0.07360191783276888 -0.08746909007283243 -0.3137518377906257 0.0793022765019737 0.14576265314933357 0.10018948388246514 -0.015979344501141936 -0.13538281945810837 0.11154250670898563 0.11103536128968176 0.08736125700102738 0.2457409025945329 0.09620021057862703 0.18462391175411583 -0.04157780430900415 0.003283035470454644 -0.111640173299582 -0.02813401556547396 0.16278587984347967 0.01661109555155574 -0.062012226036548344 -0.031192267286298647 0.15391364794311943 -0.08087234571789854 -0.07152175297977682 0.1691442596904647 -0.06070697984615071 -0.2097713543396167 0.011837948117320989 0.029303292892299406 -0.17924127856741054 -0.17163523429653177 -0.011570152903037301 -0.09708940007347636 0.03181195353875923 -0.011046522544023796 0.03187152233281483 -0.14778617626063117 -0.06843220577464577 -0.0966986527449067 -0.030443221760579252 -0.19288686266222216 -0.0568562405407821 0.018318412325677776 -0.20325125493076707 0.14623298978754576 0.15571784856835427 0.09743668808568935 0.053618419883506345 0.0550444389891685 0.21567358263766023 -0.13831276275257928 -0.011964632997230329 -0.06824830663429936 0.024174304324668335 0.10341316366616772 -0.03969965658321297 0.09580843268008371 0.08047244107010457 -0.15514258421193478 -0.09908698763261521 0.10162034175680054 0.09164180940684535 -0.1589033806142988 0.10282476816125463 -0.13120396476888305 0.08579280659116553 -0.21077040664545016 -0.20515320099670278 0.08994249467292713 0.05647966878892477 -0.03225011336064314 -0.04397690947859466 0.07556964456002978 -0.1422321084320776 -0.1477219979218755 -0.15212541594080528 0.017309120076441708 0.05328099730659456 0.09409892650457267 0.09609299959323604 -0.08475572214937102 -0.039165185479710304 -0.13632977247675446 0.11018993102352805 -0.041286151785846686 0.1351617780834058 -0.07893593731478579 -0.0052051970684622905 0.05210496892934941 -0.20446043671635353 
-0.2982116951150255 -0.06269572769367457 0.019940017435842377 0.030440057870111725 -0.07798048096737442 0.1102161936158218 -0.04012561425111761 0.14129912332007866 0.06976362232458681 -0.20936378127737063 -0.023295690442562876 0.13558834800685526 0.07661045908281637 0.19091819085805098 -0.07636404642911097 -0.06151110748905916 0.09468330833844676 -0.2836896266470001 -0.1390457795438747 -0.07524302386158621 -0.05991522200140271 0.1644101668094751 0.1115203827118451 -0.3722787587448419 -0.035666285363828126 -0.01698235421420108 -0.006864715758284141 -0.09969868323426126 0.08942615887895769 -0.18913023754265645 -0.0883186538422522 0.14440771601588437 0.09980841410029284 -0.0725167739641017 -0.1508579398230194 0.04788823059062961 0.09696039673024547 0.07665514141091369 -0.08773564788385883 0.18831584892292563 -0.0665070664540267 -0.0869809503868069 9.25571940360676e-05 0.02793830215306419 -0.2405272215446198 0.07893971407236901 0.10560903062283412 0.030767834663456544 -0.10124090966348634 -0.17266586364086917 -0.10603642419503773 -0.036793073410657136 -0.3094888394958054 0.1094439375793296 -0.12589815040614347 -0.03143083201957531 -0.012133274433785441 -0.08726333612775992 0.037190521612815476 0.1390475438827372 -0.09751467485132895 0.13431206553212083 -0.044079136031537285 0.05096935795249265 0.07391771319463576 0.14695387884454547 -0.03818800970190785 0.12034908820439472 -0.16078836993713705 0.02468758518964214 0.17998169306230813 0.1142420495808348 -0.08023120118833765 0.017773873149002035 -0.040812264799668554 -0.018581638679395853 -0.09981916689177452 -0.13635775753319554 0.02883899325467592 -0.09375691222453376 0.17152257354296463 -0.007984576489733419 -0.28376983502504516 0.2606045567606035 0.013875627252816384 0.06953418342742737 0.0015859212736130362 -0.006235492688727476 0.2394293064447411 -0.156724655667281 -0.10040464739348264 0.16119636837251133 -0.05764912902073694 -0.10933872619032 0.0618956332974697 -0.04908702135261704 
0.13448046445367792 -0.031480000063267545 -0.0744235368006058 0.11880746498006567 0.026556395909597987 -0.08573550943683089 0.04085414973018912 -0.08800879119735869 0.14835291206080103 -0.048377658534397884 -0.049171159755902874 -0.22183017265109936 0.1489949202039478 -0.09398655094595065 0.025059644333257598 0.011315512463089991 0.02246760010545942 -0.1525563043914843 0.043806177893916956 0.17248684563113983 0.00541628067674863 0.12248968168794307 -0.023351147045314467 0.05610150192246611 -0.028208377365937915 0.011734703159295421 -0.019813637741251968 0.07775594210287468 -0.16678537766179016 -0.055112225061231986 -0.18510291796286044 -0.08907854992452596 -0.03121127524612886 0.10955226933308111 -0.09460259991574653 0.008051291774246223 0.0028672203019881326 -0.03410029698891377 -0.09138207760918395 -0.03443431246030609 -0.05012420417774512 0.008622262691161505 0.0028874617958014903 -0.06093595957527753 -0.016074844634064497 -0.1508394359550551 0.10225413716831278 0.12903883725633275 0.034313325194378984 0.00044895058922560347 -0.07164005941904504 -0.03583833689595874 0.1497101069242371 0.0717484777827257 0.004347329630429329 -0.01639212835540561 0.12171075745264881 0.048655277889431074 0.015314923735585484 0.017283177656386924 -0.09232096805678412 0.05387637756547324 0.10108543383698858 0.048226082163416555 0.05187889754522813 0.02468787136037979 0.03326587188428989 -0.1264434306628817 0.07522667950401908 0.07969115671640878 0.029255420812402535 -0.018678193159096284 0.04371337324450135 -0.11116043122875335 -0.01761224845852618 0.07326660518770788 0.05045780192844217 0.16107372580607696 -0.1211866705432877 0.0479595756943315 -0.06031943651032973 -0.021710644278972763 0.07874343995602483 0.01279284348970763 -0.05648852280100842 -0.01419869731458875 -0.0029132561699398815 0.026684664441103522 -0.01465040002728344 -0.02783599052377148 -0.01095119932979244 0.017273122707351336 -0.0599201219764743 0.10957357821536343 0.17436635311134238 -0.109097790420038 
0.0832445615541552 -0.15141926418007398 -0.07892378773384315 -0.02635009285785845 -0.06602908655162655 0.11529151231694715 -0.002086438608875482 -0.09521747296413781 0.005406246324350004 -0.0435308180716339 -0.04091081143727814 -0.07408384500487883 -0.03582586640379154 -0.10108899721029868 0.06261158163860342 0.07061779053375278 -0.013909768506972299 0.11909874834589877 0.10705284065716034 0.0013485311055306324 0.03973396019867904 -0.04688552782240407 0.011811791076544075 0.05234414965672043 0.12076735803777389 -0.11544931624373692 0.08379324294761276 0.10661284590633593 -0.15673007201968742 0.11570518006664324 0.1548310172226773 -0.04379609569356406 -0.2041807966693316 -0.1063512888345072 -0.02979030218357488 -0.16422389265397805 -0.1208682381616139 0.11728331099997902 -0.12288153925128632 0.26420536600987143 -0.1163456056898033 0.08959961933459905 0.004239139317665062 -0.02809203756315352 -0.09870542514070925 -0.02948133818554408 0.05663962439235587 0.11030805080975266 -0.02739154723029965 -0.043850001508352575 -0.009716437446910106 0.003377354785553989 0.027279145348891535 -0.11994326424597276 0.06672426474332661 0.04680068493176719 0.16172348463238392 -0.218255968184586 -0.06021545593760903 0.14633308765482492 0.08962493083878406 0.009689720797903905 -0.06620348854196906 -0.00832650833977014 0.10156584142453597 -0.06190506891073739 0.15845544595241776 0.09223222682273481 -0.22150548020613742 -0.16703448863870707 -0.2238875130646412 0.08351152637038627 -0.21419456533838327 0.03556114201097749 -0.038385075388527985 0.11960220273008798 -0.10955438690324952 0.0232557535767224 0.13386227037206833 -0.018929581389004038 0.006799306371946769 -0.0160325689112555 -0.008616033747591257 -0.05634184278903744 -0.12788998071769525 -0.25941226273816675 -0.2306743382193033 -0.09589037910158887 -0.04183962508031852 0.15363138221361647 -0.20138359698620928 -0.09548773701417576 -0.07154141041614144 -0.004702962175592252 -0.06954471585384504 0.0708520078168914 
0.21789936381199174 0.18263203109325893 0.11507404436657338 -0.021018629570461828 0.05492016501077761 -0.20297290200799617 0.05016559891374831 -0.1102746804797021 0.09331226811383891 0.16470418454543848 0.17941721021157148 -0.18697797773508368 -0.03485590123497129 -0.13765949611435271 0.20636797463914466 0.0637572064706812 0.09459499374301959 0.16324250755708164 -0.07681897049924664 0.10579832439242225 0.023400148822181326 -0.024333610694848448 0.1939432276107607 -0.20658421724325915 0.06757015659874112 -0.47103541337917254 -0.4528176269989091 0.10660120633822025 0.07249911117570769 0.15519174776560615 0.005689968460103534 0.013340849413409545 0.22691397958462878 0.19153918279616672 -0.09699118052239163 -0.13619716714498745 -0.15152884537155867 -0.26120389475270755 0.01087050553739082 0.0335344967102544 0.02897693750497465 0.14553297866537393 0.08985182231048248 0.12206210238231195 -0.07369394044135533 0.18470090685866483 0.07697808012744876 -0.023945002504274834 0.01961404999678334 -0.0353627126992199 -0.0736445344453538 -0.05901833808785958 -0.21488911267531552 0.0716804893418808 -0.4003550468783383 -0.10412835544379591 -0.11450112437210141 -0.06443105395341192 0.19039451595835824 -0.09140798695936866 -0.01347029793349836 -0.12620905268578567 0.16598954033546215 0.03651866792305822 0.046321152027789296 0.03509380374495486 0.19511626012387054 -0.08518778373987689 -0.19379359620335804 -0.07081485583200736 0.300258545009844 0.09443658672271346 -0.1012783220389426 0.1430317431261246 -0.06880353913974672 -0.02775409626410267 -0.164216309642852 0.11246491408792379 -0.1318802089708466 0.17200024380996504 -0.022319912499634522 0.27182436882721694 0.06540547026584266 -0.2566508701786164 -0.012500448218119494 0.10659372059023513 0.21948483456953827 -0.2563569485200603 -0.054572679353383766 -0.12819625370584897 0.08615030135647994 -0.03316875027703728 -0.060510238420533734 -0.13043141819061202 -0.12108667241874495 -0.0410611802440287 
-0.11493241354416137 0.053056473028896455 0.19968943519293386 -0.0704983773700513 0.11439186124182095 0.03166795316109873 0.022401621667798823 0.23563226105950216 -0.2470411153844369 0.06805753805656979 0.16123491614902807 -0.14923576984413411 -0.050241996048321344 -0.2016223355416985 -0.02886500392485224 0.10289387766053087 -0.014017018601843173 0.04426358878357064 0.026041447859886456 -0.015582766659802126 0.017083679104752926 -0.13967508238231197 -0.1792007127631022 0.012285618062676727 0.047802071678059256 -0.20386675099216245 0.06883930573153335 0.2044369699469275 -0.10397328332945527 0.0018952132434149154 -0.17380254483589022 -0.1193839774673105 -0.02453007860817942 0.17569139921781593 0.13833545167441216 0.1790963030021553 -0.36975366210013066 -0.09798680345568676 0.0806605915906031 -0.16486628799374606 0.009655630035084514 0.15267513121046095 -0.19485982933742454 -0.23382882974026875 -0.26844456508571796 -0.06026777095949634 0.11393904551364135 -0.2550825358060117 0.03164561034739328 -0.1322730560309757 0.11978007068778307 -0.006203166895992099 0.027266301326508317 -0.12432331549150186 -0.018825734290163796 -0.0010196443603387785 -0.026995784968848264 -0.07838670254643489 -0.07729306864886791 0.02617102922855635 -0.026540916121477624 0.01042652111829299 -0.059838115509135474 -0.021149670212001107 0.12764388517158348 0.026657846015984185 -0.13734672350712276 -0.03833301446024172 0.07718811654238303 0.004625576293006426 -0.058286164580953086 0.11711586006747582 0.04598672236023827 0.11104043475265589 0.11604970927521217 -0.007250939562117998 -0.05317604864781936 0.1257775620198846 -0.18190643102244952 0.06316872438579009 0.010207385290627452 0.05904316141518337 0.023670458152413747 -0.13450468102565855 -0.023136319253494526 -0.07768937385071069 0.09174469796726203 0.04773305344602078 0.05838409878527623 -0.16726770445165867 0.041989175436052587 0.061411398178510386 0.00038604849370693325 0.08004474736030562 0.15155524993600605 -0.10262790040079948 
0.014062949263558718 -0.023707104974525686 0.03537776165781506 -0.014279329598686686 0.02492539852460821 -0.03317288071390057 -0.0019234539966944215 0.032725983696018306 -0.010808549054800422 -0.0366439981324569 0.01573210796417191 0.02712878709502686 -0.02343486352234571 -0.005064156852311999 0.04369969048882391 0.04044926480185755 0.022052113672888802 0.009521553521782815 0.03427303586533402 0.04452474227961999 -0.054937707128921376 -0.010783051500596254 0.006405619657824146 0.024986743307545547 -0.0450853320217011 -0.010514162108608359 -0.02349758237077218 -0.007995775194231627 -0.00020904437477016493 0.016922755696453854 -0.0003893477884961968 0.01267102927398895 0.008625007499613577 -0.007486550273516862 -0.0546488631268028 -0.03293763582227051 -0.01906576214982503 -0.038295369354422064 0.010346028400379627 0.011713028407465782 9.6419300379211e-06 -0.018996000162469447 0.01619313259490459 -0.03341226885258626 -0.05454306334249443 0.025098970793571308 -0.0058889548751822 0.021030923313559526 -0.03400050017408217 -0.047948272500116906 -0.01282326375950115 0.020829599950981097 -0.04332551012082182 -0.032789968104936666 -0.004792622340194009 0.012743864265606966 0.026774627878080763 -0.04253430101583705 0.01311567712678014 -0.011834669788556192 0.01801304403085631 -0.03192515321608666 0.0028982049149199316 -0.03544953865312202 -0.05304822619238708 -0.001351748540292241 -0.03409773550629059 0.014587268247205394 0.0038015282139043315 0.02952766051260123 -0.011237560640719462 0.05399757074022331 0.001576499940912352 -0.002196158512570836 0.02669924517451137 0.007594275211502148 -0.01450038256936999 -0.0011136975102360655 -0.03354075046300284 -0.011171126429933044 -0.05173422412842349 -0.0038951732106175525 -0.024062893148550146 0.0027728464886960726 -0.05181446175689881 0.005740886901011571 -0.02203182202597171 0.008101535138481018 0.024859746315596933 -0.006221784514858383 0.017262418253838764 -0.02798883400854909 0.05506723158448532 -0.027549029777428114 0.04834673645001227 -0.030400129843310104 
-0.12785205376637362 0.10886097685084253 0.11144768922865586 0.007459335552814533 0.0707604786449044 0.03452836455316979 0.12542022343392079 0.041641330702033734 -0.11287642730452326 -0.005296518154323505 -0.04413717355990547 0.029897526771675478 0.09140953406108827 -0.045798473862523066 0.032384348692399256 0.08933485661859435 -0.04705695577965211 -0.16575597106522594 -0.03254220431419992 -0.11126795763290043 -0.05863866363722846 0.03478458002808514 0.13466198371900437 -0.06314240999811105 0.11278091276462054 -0.07548634984968487 -0.015350101763193477 -0.06929369179147174 0.00545725508534824 0.1852865058206848 -0.09021322233338723 -0.17878335907974519 0.11916706028752601 -0.0838356178168732 -0.21031112797643645 -0.08537520831121617 -0.08890041394529105 -0.2363795625268868 0.022352220457091888 -0.09387073827625554 0.04567791716758651 -0.1358256916977781 0.033496733205522274 -0.0919390352225631 -0.06753425786749055 -0.06782448216938258 -0.06549675942823205 -0.039369947251767345 -0.018131104280179066 -0.15241297965406841 0.039242089442176574 0.16007052226907623 0.06981635841646675 0.11143099980770936 -0.014217668667344825 0.16349415893168662 0.0352881488327565 -0.24369665928755857 -0.0695576128650348 0.08990471505527643 -0.05677045037065214 -0.17119285291246306 -0.042314742916160636 0.050715025995840275 0.15159636958251452 0.06392713971624531 -0.08425588417691504 0.025399250928454273 -0.04665927652308701 0.08303067271680115 0.17923975867330236 0.1512145834520587 0.05515601015645785 -0.03239500470580218 0.15002073657173506 -0.16678255267175643 0.12490340712487139 0.01684289168394853 0.08516551034091285 -0.007440995704697258 -0.15747215804418524 -0.0069699634632720804 0.07984020749976838 -0.09627501776989471 0.07612856080685756 -0.27587167200373863 0.1938643653274961 -0.08633847743905614 -0.05501849143912475 -0.03526145046669136 0.009020167055376737 -0.014767795727591198 -0.027004650458768358 -0.02558448390403637 0.08586830846363376 0.01592677721080289 
0.10164159345804355 0.04598847463152829 0.13480719975333794 0.04487491694308596 -0.09583684552702292 0.0807753356099988 0.15193503973661282 0.11538765825160859 0.08721278701176036 -0.07720755091659362 -0.1844889125757349 -0.07467853676706836 0.06579287362460827 -0.06845930185426166 0.07220919529470193 0.06233465163714528 -0.029806297658777212 -0.20025126345726463 -0.0341606150080608 -0.1002289912568428 -0.021661731372262436 -0.12443760237663687 -0.12003386237333734 -0.31589184318442004 0.09311135670513003 -0.11002528236819188 0.2338486992668021 -0.05442633858221731 -0.09045143900329143 -0.04415429887648244 0.059168596573760814 0.07426084979973872 -0.08093648384088122 0.04602386996212701 -0.04880446390427278 0.207742478325362 0.02678038082730998 -0.17160776434979405 0.11670915132914667 0.006886578364293334 0.02804561929201393 0.12981879395688897 0.11008839506149043 0.06881047619043248 0.1010362692393356 0.008205231435409252 -0.07265825668425185 -0.06528604558854974 -0.15066085660915687 0.1326857357817638 -0.26231309983160084 -0.18202569011377367 -0.19373943306553534 0.009858938182189844 0.03349575369067871 0.00861210761427644 0.10719411570806452 -0.20547692758216593 -0.08375419310653096 0.11245121580641479 -0.013668314441408357 0.09315827151737392 -0.04124116829910629 -0.08052605347403845 0.03495625290122254 -0.15217257463795575 -0.14885700664559373 -0.18200709590516476 0.01111691521235865 -0.19038636062648664 0.1098195634043563 -0.12313690837830991 -0.00829186844860659 -0.1793862014288803 -0.078761661017754 -0.5095990967978891 0.04214491920557349 0.17472497714179455 -0.0380645308894969 -0.1277755144784122 -0.2763923132220616 -0.11009956360725441 -0.03660960769908032 0.17192716350187154 -0.07809917183101618 0.004989720865766588 -0.08817178865350153 -0.16523668514576537 -0.06620554590713959 0.10134162491024108 -0.0643733651433789 0.04699577769293031 -0.2669608872538545 -0.1900157087105572 -0.1587640985747561 -0.06457613370229834 
0.10069137958169087 -0.03715553332698264 -0.08174132227333468 0.03651015666113948 -0.03658569323731109 -0.020025518480125182 0.00818941699905578 0.055514489989373694 -0.06281000285173038 0.030445785629229446 0.06002917781700054 0.047674766429990356 -0.04403766847173017 0.05468395570074388 -0.03774462487894645 -0.08759417954054542 -0.12977206411312792 -0.025151323870947172 -0.09101987305775536 0.009527013245583634 -0.09909439481536476 -0.23945756242709665 -0.11424080421295091 -0.26920521091853755 -0.12634302683183482 0.1799739769329618 -0.3314955925283705 -0.06544890953506521 -0.01229541730945772 -0.1323232252659617 0.13772266340210462 -0.03839792913432061 -0.18296402790459868 -0.26910591844243387 0.06076959637439409 -0.09044853415955655 0.046555221108550815 0.09092289554165357 -0.22518342168503794 -0.013522138089448674 -0.07614897375696525 0.000907678275010856 -0.05505811416025924 0.11960811982519105 0.035132929350282636 0.02895717272234422 -0.10901356066810979 -0.4790536616151374 -0.05944444567940049 0.033815456231549745 -0.19229765783927721 -0.07336607437119803 0.040538398748710854 -0.04061237806851402 -0.07681453414794003 -0.058949636728586594 0.00025672833168937016 0.13930937793030096 0.06118286489275685 -0.058509734370714245 -0.10258812616181397 -0.07619994461262389 -0.04743881327201564 -0.060883711312899436 -0.15600633770561947 0.13646338997899468 -0.2755210798179661 0.023057504850988425 0.09191271518861162 0.1635519154159271 -0.09909321234148974 0.10475717154538974 -0.12110866109577773 0.1522722172856819 -0.009219040243812327 -0.1631726067614438 -0.07897568284454272 -0.0007488972566138724 -0.08458983790407122 0.001951629720725413 -0.1313460436255804 -0.003593498173361339 -0.11193156094880646 0.040282133295795934 -0.1120103253374776 0.09089636816342703 -0.14536015487718681 0.004302149860591932 -0.09719286231131856 0.03174484518618782 -0.10996569692584754 -0.11551298730730268 -0.0989944280965532 -0.1094503238949578 0.05139088778210648 -0.34349839343988364 
-0.054146929216223515 0.087275715440547 -0.03710208881835375 -0.05998430117162928 0.11453503954638013 0.0401353160277343 0.024234534044346598 -0.13520274997929607 0.12581674102459814 0.07528394074919459 -0.06513149032820008 -0.4884530615810179 -0.05797172668156454 -0.05899025950075399 -0.23685920429133187 -0.19784430473587133 0.044549502281628066 -0.1961923782339927 -0.0789499270499634 -0.026762836548360015 0.08466071341647002 -0.18155658833286104 -0.2002683255688041 -0.02215029775879661 0.14260430038287775 0.012986138286426608 0.1812607491646214 -0.08601480260059167 0.015832746218229558 0.1339337411621508 -0.06695936061459518 -0.13830003546344322 0.004850011576457576 -0.11719136799074908 -0.1122404139883886 -0.12004330380851078 -0.018428831106177674 0.065900473515851 0.08650639307299927 0.25445360762460373 0.033681130092335504 -0.03400892255456646 -0.08609515693894962 -0.15651656516699577 0.0744563662499055 0.10288557874127739 -0.07770917701611796 0.021640952638893384 -0.13476947403764253 0.11328553841398263 -0.13043950704457774 -0.10373609960150458 -0.12459805414440085 0.060606153130338056 0.22104234319560717 -0.2530228927585203 -0.1211288840668112 -0.17015621409240048 -0.07063586121083143 0.059779941536000004 -0.008687389405163419 0.08305418431542229 0.14030882877750814 0.10796458957556868 0.01649860452983021 -0.24520674674793572 0.07900598643628585 -0.08794279066933468 0.10774300876658627 -0.004581534424383554 -0.2901347842020292 0.004453935283294947 -0.13027930094498974 -0.08145903884315357 -0.25930216061540684 0.1342591874965331 -0.0002631783001889733 0.0955648902751459 0.05835064547248882 0.010968813458062882 0.03615459326232734 -0.09530778738142832 -0.19053393061909735 -0.1273357906071836 0.022286625763938864 0.068043287470115 0.1464151469761294 -0.08127057847239297 0.021814850951932356 0.12168509381835153 0.165945971810515 -0.05667564032844641 -0.19791829376828338 -0.2027100166079156 0.04600997696948518 -0.07079184518925799 
-0.07249211644235538 -0.11641116592156575 0.10150231555025932 -0.06909401637812701 -0.13400102441565695 -0.045806748273827295 0.030124465758177538 -0.2601227486815163 -0.18700680516204246 -0.041239819672160644 -0.051391760003867346 -0.03888028931287146 -0.020434392875548973 0.09158354927576769 -0.03905406716839515 0.03775602064984409 -0.17101578112246116 -0.14637194683400936 -0.1176733704122321 -0.08571894473429795 0.02416592452136118 0.11989819183540329 -0.1868290690063783 -0.03989067706735931 0.04484117457316518 -0.0946855500106023 0.09649773859023131 0.012577650607290497 -0.01948749674815676 0.07027650432759415 0.06804295875300669 -0.031406729384999846 0.10401844424223647 -0.029360915454144362 -0.09789823502054153 -0.04929572910645421 0.18436733803578614 0.12802471459014053 -0.026362897074584186 0.06079150737424635 -0.01887901646070764 0.010805882800672486 -0.0909727813455547 -0.041572552309990775 -0.04448365007228868 -0.06394758622442406 -0.0830786325999977 -0.011807442475313967 0.10114659094548076 0.08665578427666325 0.033051353833159255 -0.2842567421971457 -0.04408123869983398 0.17580620360471003 -0.1234320265398465 -0.08018929817781158 0.08658289121939541 -0.06960402323357098 0.02306626439417051 -0.00030829270156375104 -0.12963168601055702 0.16070132718993088 -0.0892686303646173 0.0015418427434802364 0.08576798935333085 0.08007400124231599 0.014741140947438112 -0.11121824666646653 -0.13768216883625597 0.019906109431991614 -0.05612300402572213 -0.0034784408782483445 -0.02245029016693487 -0.16791207256180715 0.20339819656182687 0.0776620624499663 0.07193105549923479 0.12361515437716133 0.025237434330211753 -0.005343608594702276 0.06980859420663969 -0.06951224385356317 -0.16494089694130848 -0.10279259541305545 -0.11478831368144293 -0.159482388646449 -0.03099209057681684 -0.16077034725148742 0.061261466124737304 -0.2189855426871483 -0.0639025635813777 0.09505971886443546 0.1510361714983445 -0.1646231193668206 -0.1869501388440125 0.16482665056108262 
0.04576702037967193 -0.1001247461776245 -0.038839332820199544 0.001622342207345188 0.06764831699947554 0.045599263380966135 0.05813501776699846 0.07992582796088256 -0.15655285650299272 0.19424109422247143 -0.07671805479973949 0.18788919999686401 0.033580063635643 0.04284780755103098 -0.05394256187105395 -0.010048503367405351 0.1360657130042397 0.021635102923071425 0.26290132004855765 0.133244944336283 -0.03468955282034853 -0.05191893087661993 0.16625169867170442 -0.01717825733910936 0.0610525889863172 -0.020899338602967603 -0.08274428373607627 -0.017647726980571717 0.013127563658425809 0.024717184704329438 -0.03468437513888077 0.005386250283439744 -0.15111502585464226 -0.0009570532321642143 0.13887175247203304 -0.07146528568930396 -0.05110633658847039 0.0883361168564936 -0.09512247899182509 -0.09990326565406396 0.037104193294698905 -0.13408674949491325 0.12571179755323972 -0.05147328303376385 -0.0036630683720443144 -0.0548114595291572 -0.03917891629622575 0.05260147858485026 -0.14727224846902998 -0.11982073335223706 0.10812071894446171 -0.021186714214687007 -0.1214870169145513 -0.04720058887687483 0.030902593173269793 0.1494340650489592 0.05166987713751458 0.153027413419962 0.06626236584814914 0.1145693987705954 -0.293074770250948 -0.1317005242552321 0.05925667136336265 0.15566723253336098 -0.021653213237202082 -0.09878372665156107 0.06999573642470534 0.08998274593676574 -0.10539762001420513 -0.0890664295406585 -0.031396658372611345 0.08315954236160673 0.11726392172590773 -0.046267244243407835 -0.138474059594798 -0.17344314954450213 -0.17719940780971843 0.15414287840534588 0.07741411264326212 0.026486196096073653 -0.09201077998244593 -0.16014564306435447 -0.12442796694973823 -0.09058478355364552 0.094179805148074 -0.023475518887800022 -0.04011077992607467 0.005371921824820131 -0.015440902780924203 -0.19113821687080598 -0.031824131124364406 -0.03799483464919366 0.08385978072520163 -0.0774534805194371 -0.009600158040620074 -0.038412731067870756 
0.13934449669632468 -0.3166387149376192 -0.02777641748048174 0.020325228522360468 -0.40863649585692785 0.19923494784419268 -0.043755588673722055 0.11333425574490193 0.10877772279622569 -0.11538590071386691 -0.05150410934280608 0.12967876167496092 -0.16174446160987724 -0.14303763896907398 0.04921872456702608 -0.08319545684483623 -0.3818959428032981 0.0018716558853794781 0.04200185894687786 -0.14398723796267235 0.0013478609193419107 0.07806738297810477 -0.035487035166434415 -0.183155359043833 0.03463116211116233 -0.1982976712175184 -0.013585737012723352 -0.013191877016911041 -0.11296216759492014 0.018659675019787252 0.023000344027254142 -0.2935845989467745 -0.11269214878853748 0.1169247552692413 -0.05256518038060698 -0.0945418661428057 0.039770264031159554 0.15309334118630963 0.05680151458045814 -0.20812416218359936 -0.057500899650525114 0.1059224986603543 0.022676265362193564 -0.00884652082321872 -0.3396731848256392 -0.050420004135035966 0.11343920657513008 -0.025928577145771948 -0.068130019295744 -0.17188522045999605 -0.19347874757450131 0.1501466923855731 -0.03182326835068954 0.05930471607992432 0.3148225338893685 -0.09450377686575757 0.07860492853365457 -0.01671576518908381 0.028577758490782913 0.019094277894268416 0.15087042123425154 -0.018130286158918468 -0.040362747130818305 0.2716872048503154 -0.15122598050082958 0.07559916353624621 -0.012274032932346267 0.1123142902734835 -0.065822935656831 -0.11710149459420577 0.02485354628188287 0.024846795522235347 0.17679326099677958 0.29921848591281 -0.1314457561345347 -0.34925393042413977 0.05833382684090481 0.004955270294478529 -0.09572817033919462 0.003871822161460036 -0.0014113639879978048 0.011935309438332651 0.10597102102525233 -0.1708675931376932 -0.04238580662471957 -0.3072285937296742 -0.05629048974338239 0.2376745114277888 -0.0713421881728969 0.05417148559038724 0.011832170034734767 0.06943309531778215 -0.007561862003114563 -0.02156993540063466 -0.09859946886075384 0.017158744648540166 
0.1546404852717943 0.012494393540932298 -0.014882402734826827 -0.010358707425625993 -0.030196834105651993 -0.0033755579122018023 0.05509757964762572 0.04355744353788462 0.0032890025347212994 -0.08514598697175749 0.02050976559713579 -0.027319540110848372 -0.10840846490571426 0.09517185399510536 -0.024250413480762907 0.10720352173076973 -0.048809188182697485 -0.056800689621435745 -0.023346841487892026 -0.10422397613395325 0.003574341200066246 0.07731616758445338 -0.045496457564872944 -0.03066450678907426 -0.0023429616253928115 0.007023880602960027 0.07404801865424818 -0.06765274695589474 -0.07182373522589118 -0.04241797254962433 -0.028529858353685773 -0.11504514431776953 0.05248744290122527 0.08561343871754788 0.016540753582998884 -0.1186787184606751 0.005600693416682336 0.08572967874858055 0.06710971186823936 -0.024471857513645365 -0.007088430818383794 0.020223252832168352 -0.02893167386621052 -0.06603328329626461 0.05088191091968884 0.07039153772382624 -0.10714198236600822 -0.025303204634205136 -0.10873406521004658 -0.007377664200095428 -0.06419477668990942 0.014918528169969093 0.016341629442594548 -0.09264330247058959 -0.04465749594408226 0.02925869059056285 0.014528505032141243 -0.034646347655097706 0.08444644226873174 0.0847439194894594 -0.05033834114864316 -0.045271863799798785 0.006310600612225942 -0.0839348677767875 -0.05269795584330094 -0.00993635916909508 0.02812006252935508 -0.024141366744563037 0.06847101665664705 0.10486925838810202 0.023198995587127114 -0.027999789606010867 -0.08637101308562338 -0.0504757244181568 -0.039730329219542976 0.09906627782122596 0.05897317831149013 -0.04374289746487515 -0.09155122449598692 -0.05088548306057858 -0.03988626993736062 0.030159822037650552 0.009678700062435937 -0.021731564707223348 -0.003637577127791729 -0.052390206167365276 0.016132169052675612 0.06984662220172073 0.003926658915962356 0.04572967490517754 -0.020487364093911276 0.11103764197718359 0.10352876514148336 0.041045331728940294 -0.023845702949894163 -0.03894164653560694 
-0.07108530239749371 -0.10595338322464028 -0.04741181699746118 -0.06130234803255546 0.04379595515158317 -0.06947289714412248 -0.0696816713282588 -0.14338342782121138 -0.12186741776968056 0.05064464367654215 0.0020165552099692986 0.07472083364810532 0.05362045723223116 -0.09473586279123856 0.05165234360260718 -0.09902115765974079 -0.09679612648606598 -0.0065771767225648375 0.06752361756618165 0.029594386125585653 -0.043342903259322565 -0.045730478318189306 -0.035864962069755424 -0.022979399431816042 0.10736134375326908 -0.22721894253561903 0.06885215624516279 0.1823113182149955 0.15851158571490898 0.04397012998433336 0.061437643338099965 -0.2112864965834466 0.09531205895848797 0.03466181756871542 0.043937290573207194 -0.2772381671386934 0.1780291922165961 0.10022402686909253 0.03834709870308499 0.02970506944011463 -0.03386296842425969 0.01598098872280346 -0.16879488810245813 0.08746263670852418 -0.21418177077940623 0.05223382530059668 0.01642976848194516 -0.02261533501843638 0.11617013453055561 -0.19577997385021015 0.1153132551756487 -0.19528366751608608 0.09760251236632018 0.14001102700960685 -0.02486983548165854 0.08600222794588826 0.060467531337740375 -0.024316605827461944 -0.04957689608045762 -0.18186442778231926 0.1173207595069603 -0.05845875296080221 0.11552891876844844 -0.07679662978765747 0.12475025905466476 0.12104802989862919 -0.19953203144174603 0.03250501490663757 0.07856902027082627 -0.02022311945750046 -0.16514594198009966 0.0002295117785720253 0.0169144400843675 -0.1995922621367191 -0.1647644932192625 -0.13507897119066833 -0.08011051344410211 0.009205515413365763 -0.12398986277221144 0.0021441078421077665 0.04145446836135496 -0.07094188380308271 0.02342195418367127 -0.034914960641132024 0.032260418554890695 -0.19158175308167014 -0.10230309249856652 -0.056374254972347326 -0.033971201234349845 -0.008391806065691539 -0.024223960331200518 0.05086083420111617 -0.07669328556630614 0.10598005107695851 -0.17637184647227538 -0.23242627124390472 
-0.010495947186407712 0.11778908892801943 0.030556977538865316 0.13248889416303358 0.1923568483800507 0.014326822127169474 -0.014830256754489454 -0.015260566068911581 0.0959176428751196 0.0001589956603443655 -0.32643245529525083 0.030781504419999578 0.08233523253778963 -0.18471766612239687 0.008983823003351198 -0.09244599496877871 -0.06928758792267647 -0.05639563740379301 0.006978312633729108 -0.10652341929852366 -0.015604455308137555 0.06813030345109128 0.08491704165080548 -0.004372292920044991 0.07424515122774862 -0.11928126573235631 0.13654279893487833 0.0025563701999145854 -0.04255093352801388 0.06878352680690077 0.13372871859455232 -0.06879091109587526 -0.12751644133529966 -0.13293962501224327 -0.07307799722499381 -0.10892154927403333 -0.0064738522722865965 0.12206765777467082 0.04481157142906842 -0.08867890042184477 -0.041654152195196234 0.016804968233170747 0.00063850885609676 0.06301438775416118 0.1869709581157911 -0.07974170681860879 0.08472522705912985 -0.10885642884444513 -0.1395918149090298 0.004503930099125307 0.11918633650048584 0.06679597903651671 0.04154229318475449 -0.06661776575278987 0.036377790706078154 -0.1346016966780068 -0.20012150976579268 0.046968328335315265 0.11286158183037863 0.2036387465948745 0.02734488616534228 -0.04786271819601609 0.09423909845525257 -0.06858091382039075 0.08814453915608156 0.052217211820546235 0.17590258670204906 0.02551728866894802 0.008544144299044333 -0.04896360057276657 -0.09909834407819298 0.07150724937132526 -0.03201310977830938 -0.014057238057418694 0.032093167285926434 -0.061587842910259975 -0.09470227215660447 0.05314303897658117 0.11519072676552357 0.018964126267745813 -0.023994988690891103 0.02711179644108361 0.008299318368982515 -0.12659327480909507 0.16195404661029958 0.010695406178349564 -0.032980994528277734 -0.15396511269765703 -0.0672811289900655 0.0029892462847928526 -0.013328198947244518 -0.04534314391554019 0.02236645820862354 -0.1289721748435443 0.018257832825115984 -0.18143069897002304 
0.12088636952586347 0.08295020764004235 0.006299515888508219 -0.03525126019139586 -0.09170644641864636 -0.07944747008497477 -0.03749872850657219 -0.012854830043180547 -0.026307489768170038 0.0011673911688904427 0.0432494647968817 -0.041110128608879644 -0.039669055440467005 -0.053838386687584165 0.0026733906013191224 0.015873033949343782 0.23398115533929478 0.08417532808275335 -0.028359723607993704 0.029517279724486218 -0.02095778968615086 -0.12969032053815444 -0.0206923962810446 -0.04694004963035826 0.1163682383473794 0.06217317386036039 -0.04348094341911066 0.08078540924734644 0.015512039526664441 0.08431479268558542 -0.009152933841786925 0.133847335276762 -0.030031330373910925 -0.01399285972977826 -0.04766934018659083 -0.04397683229517254 -0.017893347224663642 0.01688974930658002 0.0031475024385965262 0.14703090725001866 -0.024591166198082853 -0.015322654788534928 -0.037555597862791744 0.021608418270125697 -0.03364388341012665 -0.09608999219248303 0.12917957117395648 -0.012979587178061556 0.028068906002850762 -0.04881159788542388 -0.05378758361743467 -0.04406557702599515 0.020092323872102375 -0.04328791411675757 0.0016908896656536196 -0.050568479787682266 -0.02470439865911902 0.04165916573870909 0.03456959351217057 0.125074451625981 0.009456720045476196 -0.054117700371255184 -0.008828185997429905 -0.11541335777926895 -0.036110237347551734 -0.01079022445469972 0.020735644689888533 -0.08586997468634351 0.006077137720231134 -0.011028738908080718 0.0006811669211665775 -0.03277509197771094 -0.03718898385355271 -0.10050087836281643 -0.018006152796584005 0.032655756544827545 0.005871737351996071 0.04784314887810062 0.12240895198350185 -0.008066296703735331 -0.03179380391712704 0.013926844201976478 0.014425324508247597 -0.00713084595348201 0.12396205175242543 0.03323318933435052 0.011928036128917819 -0.07000528353693432 -0.05587902158611179 0.03737769415846921 0.03394922895079504 0.11537678566637984 0.11839261352441874 0.019154660365631893 -0.06638267393076812 -0.01759198088100882 
0.153750486306184 -0.09248113629903801 0.033405311211972856 0.036202320166118414 -0.08198683038623258 0.015627888420935036 -0.04157514280348948 -0.12013065086868815 -0.005529046506092897 0.0034272423909221124 -0.20194693185381668 0.07096517978270059 -0.13382483367126818 -0.08870918975328435 -0.09301453858401582 0.12996033193604561 -0.17131434839835652 -0.18147132922856332 0.03909556513267162 -0.00124912235565298 0.04043573045168999 -0.009274648187007913 -0.007575234643712237 -0.02046943555817022 -0.01500414305571639 0.041612956273845564 0.06720337146711619 0.0027602510098952066 0.004112382943908592 -0.05686719194426316 -0.09064217263694303 -0.16445035818601783 -0.07159912438223515 0.06688927425574444 0.14617751055533074 -0.06653559963749923 -0.03168120468327334 -0.13145244502753706 0.07154750828071832 0.0833617970913749 -0.053371491561762144 -0.06841335162270916 0.07311996634917137 0.07546467367059188 -0.0825821891408822 -0.003219103317940044 0.054876716826459226 0.13659001848767835 0.0023836845963877817 -0.02166058003070823 -0.033930391792388256 -0.028012210784672125 -0.12581943896424663 -0.04927547967548887 0.005630180664924231 0.042537243974756805 -0.16915044055695705 -0.0076382646108277465 -0.18563585534479707 -0.0451070841605733 0.23811498486912722 -0.04660783734385487 -0.04394652207000378 0.02150444501458673 0.14422062406278988 -0.10514334172083957 -0.02402142685310758 0.15174739202200857 -0.04755810737806472 -0.001450023817237005 0.0404062800381388 -0.09284089116750796 -0.003911685353247924 0.03341887127713096 -0.0989790627218945 -0.019694271345362155 -0.0026300416947397597 -0.07701449195258044 0.10154853455408246 0.026358481764865712 0.07733765371311528 -0.012312816365784114 -0.06353599801509642 0.07957811209246 0.10490758081419443 -0.028016803264933637 0.03640419406761265 0.016474349606671115 -0.08198471874454281 -0.02598206248322846 0.006961308142280552 0.12393639748644353 -0.12661950183639617 -0.15165624856908916 -0.019819413658267643 0.07710981018729215 
-0.025298509956860088 -0.05513915192719292 -0.02836732213893802 0.04023238554590235 0.12887776993851882 -0.002771784278918244 -0.04272037796342433 -0.04696673935897246 0.06568521712753395 -0.03456578304404069 -0.027027628032143158 -0.05499707401014966 -0.10789802135406407 -0.05065940689023455 -0.036894108665064526 0.0037877584340371244 0.06863788455189504 0.059696474122686125 0.06019653842322775 -0.004265046530861702 0.0358048599062107 0.013127616140572397 -0.04942628205213918 -0.05764999019958998 -0.10789970010366166 0.05308353333034446 0.00034753204797880784 -0.059471038247327995 0.06930345019763566 -0.0092388678341211 -0.08366411413297259 -0.011602298585905155 0.12516851494410566 -0.04611448945380963 0.0736718090261183 0.0765602251404342 0.09359534862982731 -0.0811746080650464 0.025530529002859008 0.06513778832459736 0.042273200407701335 -0.07062740123328666 0.01189389989377682 -0.1120328072019733 0.07082030158923891 0.07290091909403362 0.09498042743033568 -0.06574343104687279 0.06412966077084623 -0.022636627567724207 0.021384547347711464 0.03394983961388358 -0.061951815999682774 0.06415332693122427 -0.00029705079308860405 0.11815376214382795 -0.09033803163097479 -0.0218309057439322 -0.17623525990463335 -0.04044537674756672 -0.04835385767392056 0.04982439663242256 0.027381708668388925 0.0928267007663051 -0.04460506900863669 -0.0779337649113263 -0.01271479318084292 0.05703818960090979 -0.040563822388991734 0.07985798555461665 -0.024602527230013282 -0.015621601160942366 -0.05665317845881076 -0.013723112437886927 -0.06004766760752031 -0.012766079736112646 -0.044378783918109725 -0.02571251928739233 0.035742915845569836 0.1406903973129426 -0.11417888666663265 -0.03430998631187148 -0.03986962163477491 0.05565414441668799 0.016858470472469283 0.011172499377878125 -0.03213562497094231 0.014164592422587793 -0.0049301287645498355 0.010729515028147153 -0.03809646400620739 -0.05481268218413037 -0.05203052131517927 0.11911040735573405 0.11263880073444062 0.12185501431428512 
-0.03419109115642646 0.07246163772441157 0.02174752942688011 0.009159734737285867 0.037292345102155226 -0.06289503693381637 -0.043821345413768024 -0.008835523190315872 0.0424221456542598 -0.035938919670008576 -0.0111910541187659 -0.00027052669804006655 0.10581258529921872 -0.048806488061384934 0.04680277154935392 0.06075219982466666 -0.02045728980489495 0.039427677660665746 -0.022327029977519893 0.07152179149841041 -0.006641373815971474 0.00553203943543858 -0.02823755016329592 0.019916287540142946 -0.03810198064752014 0.004627426151272369 -0.0005868003565921293 0.045155521671412555 -0.09133243753181028 0.024131118832425275 -0.01620519130684958 -0.0619750131135642 0.051062232036907004 -0.008529325050850032 -0.015468709700141374 -0.0017030205130301815 0.034529742731552314 0.0010215385106446258 -0.03233962239454928 -0.12079930291727196 0.02149714723368785 0.12413676558286242 -0.06815257034558901 -0.010449013480902727 0.0313698329271375 0.010448599040812204 0.0049669651735234745 -0.14313009017474584 -0.02309057403661495 0.007896496968389566 -0.088009203070979 0.10631390410600453 -0.03762635396683699 0.0491656373516982 -0.11195503761784822 -0.04268339477921458 -0.04581853261454459 -0.017553622030375537 -0.09892438664294008 -0.045160659081378014 0.03510869322127322 0.0331290397734331 0.11307538393580796 -0.051980325603266715 -0.04623548519033205 -0.07911093262636898 -0.05308893797581104 -0.07064221685832077 -0.04510901119264758 0.027413247597613696 0.04938822764304172 0.023100394522525807 -0.041716936356397304 -0.07663590891023918 -0.01747385858468603 0.06172414782344377 -0.026113461878257558 0.025381711641016422 0.025903960674596986 -0.007732993525224123 -0.013944177711576506 -0.03139925421974038 0.06595817848706463 -0.15718492193239975 -0.0282863233619017 -0.02029586109088603 0.04473807556950844 0.03129866700619908 -0.039796295465097616 -0.04949068784867524 0.04129354216983182 0.07721513953743184 -0.14347360189564093 0.08409179292957765 -0.002170328642395615 -0.04206604856917167 
-0.06653590728502524 -0.13214340085995868 -0.09903631509987901 -0.19882909364847745 0.13349956211239272 0.011278308300345445 -0.0984868294563728 -0.05727057836773931 0.139467999279762 -0.12494972806614757 -0.02782240397041685 0.08133761672211584 0.06275987095961338 0.12205400925454794 -0.056078793547487966 -0.15939492788641338 -0.2249528551743857 -0.08212687642161257 -0.29135215626379574 0.10578788345223464 -0.08723587319210105 -0.023793603677247817 -0.4982814032541238 -0.18284635574452845 -0.2638834662172926 0.22185341100553038 -0.030312393864465045 0.05162231704330171 -0.12036958881876364 -0.2872816635584569 -0.08358834303558421 0.020134167865400822 0.01647014870088595 0.09881139026666949 -0.15486119483359917 0.01822796386727564 0.13227813847089986 0.17350428313571645 0.020079760442759647 -0.03182546092905535 0.03701435544592088 -0.35102749272078104 0.10552552995526218 0.08404419965728278 0.08871380746666394 -0.07641642008956051 0.10461958178457058 -0.29028326443754227 -0.11469611482636358 -0.25570938661257137 -0.09917254590587953 0.08277340522790425 -0.019368324555638063 -0.10962741643270939 -0.06874105466808476 0.049844743063483014 -0.07246474095732833 -0.2508911749678552 0.02968558409324552 0.06324836035504529 -0.017446701591629196 -0.08788330615965971 -0.021703402242862768 -0.03633589196275063 0.13410571908817 -0.08883574789532817 -0.4078494306846479 -0.18110120491467444 -0.13199030544412715 -0.23432311362248737 0.022154157138760358 -0.09499182731410866 0.18692500620889638 0.015216964901420143 -0.15140476210831103 0.15243726300201166 -0.16402506211197196 0.013544116691920207 0.003313317262092834 -0.23658166085273846 0.20718199769566223 0.021348263758987636 -0.047929996717090674 -0.27199495099696863 -0.09376682526356801 0.22645653341531316 0.1962936254964893 -0.05290602581328859 -0.12490846570604866 0.23324519941085517 0.0067980732683181055 -0.07732908368629936 0.06379145058179954 -0.11211078849336416 -0.18011649964891338 -0.12494644884504812 
0.14615764100262327 0.04338906994477169 -0.0788151713492743 0.004842352845794596 0.0717338670647851 0.02366437358170244 -0.1255216699321643 -0.059608356857835686 0.13013798392259818 0.061868660248819846 -0.10062593679446728 -0.07998656904367567 -0.02298339966657767 0.11542887572644413 -0.0934145320103424 -0.14138934570838363 -0.0027183351672466142 0.12974545557546147 -0.23271825328714357 -0.21585841139039785 -0.11299029253250176 -0.08932016014660095 -0.13762475143582412 -0.05012375436562784 0.039752132594467825 -0.10672325996379049 0.11980090674157343 -0.019374530614319502 0.02104942852285738 -0.10637920646833512 0.09027958124135682 -0.030841960528398486 -0.04091896103792356 -0.07353733098213229 -0.02210429102416622 -0.09239306930678079 0.021547528665393875 -0.44614075837850325 -0.12979745992644576 -0.28415606672006216 -0.021478555643960083 0.019668328189462236 -0.14340898252135287 0.10516514253215621 0.08222376129829786 0.0552173560899271 -0.16941157255126735 0.11497191293032621 -0.1581335443685862 -0.08838901337073082 0.1958064582247779 -0.16468440330845857 -0.07773209735306112 0.049323875701769826 0.09506310371428252 -0.0495949753677365 -0.12851562561417768 -0.2166659212774691 0.11455394665668835 0.03869804886000739 0.12258340896440824 -0.06930619929670906 -0.15786266118439096 -0.09926430210709429 -0.11188690920960993 0.03344583848617955 0.02735003339278038 -0.10948762042543576 -0.07149083154943459 -0.19171531596323302 -0.16130186831523227 -0.09614648864561617 -0.007165248819159231 -0.11512578610583774 0.003774029516689957 -0.14996996400212959 0.1729264876252548 0.10429402504928188 -0.024874546459043034 -0.12177467604436726 0.07635058554058546 0.02186600493493045 -0.024132772721218245 0.12544269444497202 -0.16925386443540433 -0.09299675210970564 -0.29798539866027285 0.16645577073419715 -0.04599524202744636 -0.12384058924355036 0.05670099320995018 0.07451107690283539 -0.03776147398911246 0.11494924814094677 0.1097270545316935 0.05117936375155151 
-0.14637642314773552 -0.19513655092953602 -0.0557058177871352 -0.1267472951566374 0.05453035614816773 -0.0656967695710861 0.00606987994698331 -0.2301588714506313 -0.12600510147219232 0.1798555390210451 0.1021608946032922 -0.14110762290146617 0.021088243462657183 -0.038379994021843 -0.25493572671181264 -0.07622244390124802 0.1393995401244827 0.039217925150013426 0.025699410386377373 0.10849871828453828 0.06793288664751297 -0.12809518020586572 0.024198791088364344 0.1443505012283795 0.07616838163071635 -0.20330083501587126 -0.052662013498811486 0.14330055116567994 -0.17671379408933824 -0.10143189773264444 -0.07712401369432294 0.04414345931246269 0.15851212623730618 0.08019268476669356 -0.06707513854999107 0.21665720165321745 -0.1605627053505289 0.09089398712464941 0.0991548444799122 0.04900364371784664 -0.01661842568574258 -0.22140404547621875 0.013247810184267515 0.013794140144328008 0.015415233442965966 -0.05508742355291087 0.039529112991057165 -0.16492846416245044 0.06197867985302226 -0.15789436803488988 0.010087950596408487 -0.2073167862271344 -0.03836091611991699 0.13967024850048537 0.1207490000548786 0.11135850145235311 -0.041227226903139506 0.26139674721754275 0.01965821719863987 0.04460606648172401 0.2103144165784102 0.11671527776316686 -0.03388303970130429 -0.06285191941689237 -0.01886820820584603 -0.2513495336869586 0.038340525537734114 -0.07159415000947968 0.15162481799333272 0.2741523977399327 0.24978766616209652 -0.047098661778088344 0.054601564722766005 -0.14729179345564827 -0.06387947005751576 0.006280792183112122 -0.2264956594117587 0.09009813747442823 -0.11308355730928893 -0.13707966123789064 0.05286389758801493 0.04017904803227825 0.0446949339164731 -0.07296498061441474 -0.11171356672267725 0.08058082016078273 0.23955480237509702 0.13728853035143357 -0.1595257439933736 0.004619622734571048 0.16116576968211863 0.10934411543852557 0.08506201898031542 0.09621940322089431 0.10178992895664825 -0.10421020119009532 
-0.20551498795753734 0.01650875710400802 -0.04558065734977835 0.029924100491158054 0.04183548579459432 0.13050977205934922 0.005144815222622957 -0.061684358937369926 -0.24356743179811174 0.18342148933726635 0.09724527543199635 0.12527535489470096 0.04270848826837473 -0.06713321729875706 -0.026639877489189653 -0.2118846611266765 -0.1325197951425316 0.059224075404677515 -0.051893296773971004 0.03376728989021905 -0.038868817175128786 0.09927157415276215 -0.03940641503934577 -0.15082306432149373 -0.07592047615649516 -0.05896417032754517 -0.05664606785535089 0.01970178031398235 -0.12136145195189718 0.01800184144199634 0.05077587278718141 -0.002884549835735423 0.026080313395861903 -0.08204983556542902 -0.027280061480981825 -0.07937495568708072 0.13544394923793385 0.2526299040723607 -0.23962917586575933 0.014904610713571059 0.039499805566914556 -0.06561842300499048 0.034181013780493735 0.07624602244576667 0.031755214277878946 -5.8115726506208784e-05 -0.010343983293701219 0.024101450478607886 0.09352416345146602 -0.17612397349666162 0.26449232719254506 0.19228126035937043 0.0728591617180256 0.12061345104335823 -0.09293648248529436 -0.21258319310623067 -0.01458272024390108 0.060968628749285936 0.05790926396459655 0.17958355293530734 0.15054403765152718 -0.02221532026725156 -0.03901595820591816 0.09121073761787826 -0.10280763391268559 0.12659203574702121 -0.07490306859754903 0.04825169648089728 0.018913271318840363 0.08092550438250769 0.1394377835097166 0.05782488888084131 -0.10377933122063761 -0.06276240295686723 -0.21999983866394895 -0.05825655784609044 -0.175057578386977 0.03795221300119942 -0.07525603627466407 0.08524993667280546 0.03535223239646805 -0.10592259335409747 0.03343229027907682 -0.10767398767610367 -0.08237465896010449 -0.21134178139360735 -0.2079281942767264 -0.08150688840482234 0.17119265169692446 0.09089482217698243 0.033408848703285074 0.012795869844551446 0.06297075979926896 -0.08827439587293896 0.06575179893748168 -0.05043653892688071 
0.12868006959808542 -0.05336578173522014 0.10107521529275335 -0.12877319207498417 0.045226415703894116 0.12748179538162382 -0.14385015748973098 -0.16569626229801712 0.08922790769225053 -0.022337044418191513 -0.09946037435707025 0.11292155382477666 0.0147865938385899 0.07872216466205824 -0.07370799248912796 0.1033455850563052 -0.07487799868567514 -0.07016261715646238 -0.0535216846025131 0.014197785049144325 -0.0446265839654995 -0.1576251314808355 -0.06965471338483324 0.17092711686661924 0.1763603438626124 0.02274726298956606 -0.15774036604273256 0.022046258105188198 -0.07850869731294675 -0.26213447036999 -0.08762707438396655 -0.14648072533106715 0.010049244935353297 0.054246268147382 0.0260426048427605 -0.016352649020628246 0.2385453762395026 -0.20939994787810853 -0.10984610307958258 0.11328724748147267 0.0012616884108320248 -0.13598706121214316 0.03374261802927681 -0.09751803832528638 0.16354931015783672 0.07252235329932248 -0.023369068187566663 -0.11586624059337068 -0.12329639690772828 -0.10135752242143732 0.10545222389709255 -0.09118490773108583 0.0780492879814221 -0.07299433481185505 0.1276236642634503 0.0972312076048029 -0.06644666387922489 -0.09515635717400348 0.11635599168306336 0.05180402540145536 0.032379115993214205 -0.055490585707949604 0.012218139859249957 0.03968707528224781 -0.046889627790446455 0.041506991871826666 -0.043896707960335735 -0.17426252779291843 0.09668165973110746 -0.14434775331820454 -0.005344494567769478 0.08684728025688578 -0.0016252213867048032 -0.00269188427096446 0.10286530476976277 -0.15678262316205235 0.08112805061530004 0.01948659266660696 -0.028586300964499607 0.09022708512922861 0.16686025913946903 0.0875018020299358 0.12098212276489073 0.0046015796490595715 -0.053011132873534796 -0.3431567076422361 -0.038558750614314866 0.052696489669133054 -0.0834223627147903 -0.20356175523793255 0.011012517263592899 -0.013517803197838095 -0.10424220742085473 -0.019195206292479203 0.12443467673442926 -0.18003650733086493 
-0.031443970143922154 0.20318322839878858 -0.017863504189909698 -0.09709181860624172 0.10731118985254495 -0.2195550098855518 -0.08099779088331119 0.20397604785000745 -0.22810746022794479 -0.35313814215878686 -0.3971828615606163 -0.35811416313940087 0.0769808699203013 0.1622322362691632 -0.07410343216600726 0.11223286503690934 0.2820415877193087 0.1940137573425398 0.21261037423513962 -0.03423239062127109 0.04686964879657933 -0.011334490692399465 -0.002055077654593132 -0.008294326286991635 -0.2868253777908244 -0.04843232887187131 -0.38220779021761225 -0.0075346527281624645 0.1399615856149899 0.1710337237930018 -0.01267572951209656 0.17248070145238967 -0.12424310080506679 0.18780782911999452 -0.09214468607337259 0.08798916077664234 0.08884888085593404 -0.04069440924416653 0.03877480499473665 0.18080589333514216 0.015920719943222004 -0.20422866951733915 0.07525285353458923 -0.011409884354011473 0.1031234644066295 0.10890045501547002 0.07313622937296316 -0.15456688260142812 -0.005369313753976394 0.1695745314046383 -0.42821245634277133 0.2810244446856494 0.004460697486839787 0.1440921505419402 0.2513108887292985 -0.1699005761536962 -0.0025821525725168047 -0.07020588050091219 -0.09080203511229609 -0.053310784411560674 0.17315319634816187 -0.11896270463549301 0.2678671119972413 0.025821016332400467 0.04939585106428047 0.11298239291431231 0.004613160106269096 0.1144354468768313 -0.011077069552269992 -0.05813504609747096 -0.38153313336108424 -0.1962658854750394 0.1415287333538539 -0.23301201839486435 0.11069199021031258 -0.09561310980070249 0.18127527714309044 0.22101890149154993 0.1133832732655996 -0.029854327677653933 0.046265099987302515 -0.16624597467297567 -0.13582910322289046 0.12776917627953238 -0.18039392026681977 -0.2809091918485206 -0.05060906158698441 -0.24958648778194722 -0.1251642446763384 -0.16505600914452706 -0.044033762273553816 0.0869330600064699 -0.17429631241718757 0.09347615331189749 -0.03927786730449897 -0.22571105030671354 
-0.02994986894851139 0.01716042840724333 0.08980165842365496 -0.1553230756864577 -0.09924954884574957 -0.21522941467309306 -0.0487471085070353 -0.05871690808487879 -0.005198090091031317 -0.22167211312976318 -0.033853608785725846 -0.44679261553710947 -0.13388225778971816 -0.0045043258204437 -0.049535783715105336 0.16457284137468886 0.18535914540965848 0.18315259792293276 -0.07280316495309556 0.08003660174522764 0.028278925922958862 0.035533062484691895 -0.17909238790069948 -0.17191827706854654 -0.054496196599371265 -0.1730914634291286 0.2037572413960628 -0.024202866399374263 0.05009408561499086 -0.1519310737561256 0.096601638603036 0.1116002669312238 0.023775676809044015 -0.16599225541651133 -0.018047434586805074 -0.06553502406128561 -0.11970006233046855 -0.2225872466401835 -0.031951310827599735 0.06026294859089242 0.036867432017696294 0.02567301760608307 0.01341820122578061 -0.09917172337155636 0.290953343843073 -0.1961935175095013 -0.011197982312557832 -0.12217925624676676 0.04151759738562565 -0.03323556115147592 -0.010278177937928708 -0.00821029752067024 -0.08363615717085192 0.17952190065694967 -0.028498405054216323 0.07559442620197554 -0.01572850308548669 -0.10813111410366011 -0.04561572657446599 -0.23017953380386555 -0.09502270049226298 0.006207264394694288 -0.16616790514514307 -0.09489366970154998 0.16791268502653844 0.08375075871299907 -0.2271285665840987 0.055799886123119785 -0.12684508020590077 -0.04995666348733888 -0.12201110703376 0.0961749369546255 -0.055911627720566626 -0.06919760865359274 0.12892682031939792 -0.08267110439654131 -0.1712266494670951 0.008932459456856596 -0.140068643474027 -0.022575381507595263 -0.22840912615490744 -0.1539677246804268 -0.12977123001473354 -0.14802258954763428 -0.010244570922513586 -0.34125197003155366 0.1948902970746036 -0.49411680676839237 0.09238810062916414 -0.43443107094925704 0.03846941269936342 -0.16633625524981643 0.05001614118058021 -0.10545080631446614 -0.08176462587952926 0.1561060141427841 
0.0551328901679292 0.0443242735611314 -0.0896132235838418 0.007158197916363043 -0.013673698689999679 0.024793031414766825 -0.05536448673489383 -0.13754080463162213 -0.00796648032920669 -0.02125352378516921 -0.2557221482981028 -0.08975887554574766 0.06487514176999566 0.045171584013581886 0.08908960361405362 -0.09032371711926705 -0.06293093442835257 0.020453071231904128 -0.09030792301295251 -0.01033185147229106 -0.08567009267146207 -0.08243458149533002 -0.14383376384354224 0.113690862905417 -0.08551584644156096 -0.08221097651289742 -0.049699204226900315 0.14903269234675054 0.10720813839523724 0.019222383240166188 0.1165211492528661 0.008494981848333876 -0.10536753743707097 0.13254103552112867 0.013223983495493752 0.20175146083256384 -0.018948018442135593 -0.2477076811453782 0.039108001757917156 -0.1983707201557997 0.051504586822154814 -0.012562867827692918 0.02977089050158184 0.03742627064991583 0.025823069020998644 -0.013758506599744171 0.0487926166830526 0.0023047244657958786 0.10440827858488436 -0.07749178364082258 0.07960685954741052 0.2275827322027228 0.022034346537899124 0.2152929473326704 0.12678858157565012 -0.1877858517384465 -0.11758356589499488 -0.012662844249957131 0.05443460432786727 0.14497372213277904 0.08573196722617167 -0.14231827576284842 0.15552886766282048 -0.10482023711442115 0.04621845686773375 -0.3119954172304203 -0.11660308123344279 -0.060820232110064154 -0.17734291388607004 -0.026783272195748758 -0.08616700179246854 -0.17940628784897739 -0.1965182102820551 -0.14986099592330426 0.2634680794708875 -0.12940161024723268 -0.1099661525178041 0.022543823538373108 -0.10359177130724243 -0.22933022976476147 0.17536374928127058 0.05199655145674238 0.01761468976650768 -0.0017617358337260985 -0.04069434621559546 0.005059961864325459 -0.024100139084233682 -0.236265385427706 -0.029346216397976074 0.020947894859184375 0.05833390763936426 -0.2775485720846553 0.07988541035058157 0.1376679062119008 0.11568195591796021 0.17545342743824835 
-0.1421294349298327 0.042772315303994744 0.017991115274649847 -0.21081112202224583 -0.20935952542664774 0.10962445725468037 -0.03145627562166914 0.10110873268132883 -0.2740617419826695 -0.15200105827829882 0.005159299773370237 -0.15325945711236558 -0.15653403165182014 0.0030469365181692073 -0.04657385982714437 0.21396591842649546 -0.24872303958094394 -0.02019863573129962 -0.08248245022827734 -0.13282640286963707 -0.040480718781569995 -0.009802257881453575 0.15004073243170493 -0.04056450237332106 0.025632898521890293 -0.18421780774352742 -0.11800949791917739 -0.19869685753741792 -0.1961848506617479 0.12683811895337374 0.2399297061157293 -0.19900065666367767 0.14957923831235814 -0.04264409761106731 0.007823813705239583 -0.23871711382947905 -0.018838743842659704 0.05910753144723028 0.11383274845766522 -0.19719326145785826 0.04803280386366627 0.1064496943904066 0.08153845133456056 -0.0903187976516632 -0.4083031345376565 -0.14949079901872847 0.11394704637454023 -0.121560848399183 0.0735683550409321 -0.0034752615953152557 -0.04251749954425569 -0.37217900947389293 -0.04219095665824911 -0.17677087062599217 -0.08614219445704241 -0.04381525866981209 -0.05210153241393264 -0.033862815644250595 0.05506122673795458 -0.017174321397240427 -0.008748399875099021 -0.023530115321352144 0.12506333605315445 -0.08674527258013993 -0.042220544195422906 -0.032928527358848284 -0.2403810495654258 -0.2469743500276886 0.07063143358805735 0.0040535985561726915 0.06768291660951256 -0.044669410390047105 0.35292768594615714 -0.0992562824262902 0.17491447179843442 -0.06943502371225403 0.04206295465998016 0.0699973674454191 -0.07026098610939333 0.008037478086841283 0.018672154497411456 -0.006906624369152433 -0.009824321763287989 -0.0608982487469022 -0.13097914964777765 -0.1168623855867057 -0.07067642991843287 -0.0669546780920013 -0.1547732365013281 0.10620367715805831 -0.024199644811348467 0.16652753000944348 0.0370210995943188 0.0681987520416275 -0.03702574122821015 0.10040864050883429 
-0.058901495449034474 -0.3169076791431497 -0.011535787553077938 -0.07188942380532833 -0.1167932998034718 0.004360167484875291 -0.05914620343952736 0.005760369041686539 -0.30211084859269166 0.08976710742320305 -0.037875137744076165 -0.001747276623436904 0.15906302748932388 -0.1713145919985129 -0.2801914331217533 -0.07242783238267203 -0.09043769516367257 0.13546922217717836 -0.07746871824067114 -0.08822503762629338 -0.013505134680783301 -0.08086779491333765 -0.14625811054021537 -0.061071669995685474 -0.07009055204530104 -0.3777554993789187 -0.0203086915983193 -0.14178636197407662 -0.06435372584693412 -0.16770034585650426 0.17495658429808558 0.10544630992319015 0.0836249637654391 -0.023997328973791622 -0.053619744277329184 0.09070296508993504 -0.17589423042276708 -0.1299782399891719 -0.14409472229684134 -0.09572448909000572 -0.01051458791740904 -0.08115880428907264 -0.0013388360570597735 -0.20431699813874393 -0.10744162900427982 0.10257226333211092 -0.06067897576571456 0.02128532068556107 0.0014527537030970955 0.08349932965507519 -0.21661468266498976 -0.17144041546686015 0.05192066826593763 -0.17625779517350454 0.05753002075037818 0.02251737907868589 0.08826950342575246 0.014263024377768229 -0.11558759093540077 0.02402693906023381 0.07658865573169081 0.07662733395087482 0.14015921939971135 -0.07064375798216425 -0.016406316195824673 -0.058007265883821726 0.11929756147593291 -0.15464594468064205 0.06331617397051292 -0.023615598298969937 0.06698747483897947 -0.4388332702330905 0.04507507946762251 -0.10777595908647361 0.21877507978935537 -0.19209794057063484 -0.30011609979399456 0.17194310713091646 -0.09411010860845734 0.022880145540984068 -0.03183617757289693 0.022898832653594024 -0.05668062928198571 -0.21599085870384446 -0.0026287317919736607 0.17127706810670218 -0.18929680765085397 -0.029711948985412007 0.00174148323396376 0.05549351987664603 -0.057121776494790145 -0.09735491864481367 0.13213025953321342 0.14311601349319236 -0.05331851330959269 0.11197812265039818 
-0.0744224144511695 -0.04603466654169216 -0.09458889621442691 -0.14084867696511974 -0.05990666687058543 -0.03480367814212672 0.20370283417231158 0.02088767463786521 -0.05343182000645995 -0.08898129512290061 -0.12870244887552876 0.021262955893958494 -0.0031713298315882753 0.11078389853630977 0.028025907908206086 -0.12751065302128467 0.024674273719126918 -0.11848503727509095 0.01799163216082967 0.033431754793752815 -0.020386294707212295 -0.09269033655700899 -0.018088979866155187 -0.3145710369159013 0.17211839513749375 0.10432681012376843 -0.2518212160979743 0.020966056300449034 -0.16047108321758452 -0.1564053277360657 -0.14394265916818838 0.03346074886090969 -0.013016358232847641 -0.05582625481952735 -0.26746837303673315 0.03673067241385264 0.15825611746895857 -0.28822498533374735 0.050016296579922806 0.12508803265607113 0.03822881519414129 -0.14204003810920274 -0.12424989399970868 -0.024948508884754805 -0.16090450595265823 0.08705494217490861 0.037243391897987435 -0.1890200177527093 0.05968763245481245 -0.07532286152774913 0.19346796769548688 -0.12244154836332082 -0.1665408165266434 0.02809514338340532 0.1667949036985828 0.10299586759189515 -0.2898867292305114 -0.06245707151720548 -0.03714778302711951 -0.13746371386720885 0.1248390972225387 0.14280452697313833 -0.1690231817511288 -0.07790938009847347 -0.06853346853222544 -0.19157417972245677 -0.017431847837917354 -0.15045354516361276 -0.04668615237367555 0.12383192539197634 0.08905607183451118 0.09811024412371173 0.06029604522019603 0.19571097825209413 0.08109450271557146 0.280574714153564 -0.1087882724418794 -0.046848158625329185 0.195552494676776 0.01358562181386703 -0.03213424907421237 0.1032407314269002 -0.07546067092757573 0.18871051250731077 -0.11044464486551468 0.1546615981778619 0.0964703141049128 0.007614972888423563 -0.07941044250319883 -0.01949147441975759 0.007454230920846825 0.09367827043935123 0.14079714134300156 -0.13384329378485813 -0.1481040163338124 -0.03363245278807875 
-0.012651820747415048 0.1569791579893028 0.2595839781677285 -0.10626264455457068 -0.17585543669253798 0.04477186841958419 -0.0016034541837401258 0.1933592929946464 0.21055263297981414 0.2235324143061546 0.1417090354482953 -0.07810874098664822 0.017083730890268052 -0.07459399185568527 -0.014494663135180413 0.1805226828429239 -0.04800130171061937 0.11828203412850993 -0.08654925350271124 -0.06609049286250011 0.050736119951917 -0.08911913993372479 -0.019221964807593264 -0.0434045815607827 0.19997570134433995 0.11572076145715479 0.06734629735433964 0.1452164348315301 -0.0657374667133504 0.04930881379430293 -0.02171694089331444 0.10911028567792148 0.25700981985197136 -0.04303823973848463 0.0032145033342816103 0.24408101124012166 -0.13108687199755942 -0.0329930080093012 0.030978123194976916 0.07902096255896875 -0.04276594741614784 0.07547101671048916 -0.047931524333788826 -0.04319415002348037 -0.07433806625577226 0.0797006176792222 0.22583659726208416 -0.13334046068352604 0.1490237013960639 -0.012555384647637467 -0.07652640120426289 -0.1022854743758723 0.0898523189459494 0.12228569777870707 -0.1555693910280635 0.08567539336871152 0.0856645248210234 0.02528715690916312 -0.044057390625298065 0.10496273491006829 -0.005335846484657947 -0.12234341018371403 0.03651559979063916 0.1411803427615172 0.026458018595759972 0.05783459844561569 -0.020793209821553506 0.043669602817326514 -0.0074673489537188 0.10763197828724401 -0.0454502261257884 0.17550797345287616 -0.1329594877776876 0.15719505346274223 0.08390312537971077 0.022889151652748456 0.1353810256343748 0.11603499978311155 -0.05185546522737647 0.09323410849323087 0.050968503424635346 0.08808484882392977 -0.05768632820349415 -0.046360662273767346 0.07575751442857079 -0.08915754971903611 -0.14189163804991764 -0.011453481409212516 0.1784511463708479 0.12727795005481213 0.01748751510012874 -0.05732136596595645 0.12442944386894214 0.09466000839081186 0.14880098083493523 0.13711289259278103 
-0.033231143074937845 0.022360256131586338 0.10223168217874773 -0.04259475325404669 0.012481211339062558 0.1529356970193957 -0.05585707097017073 0.000878383214703454 -0.0585923669855346 -0.33896560646127144 0.09649819476787953 -0.004843728339271885 -0.019557112108338447 0.1661614603163929 -0.039567346857887105 -0.06635967908334221 -0.015396246961000367 -0.05628251235830224 0.11195808969841313 0.17192106706717017 -0.006293839361750664 0.1550335953715314 0.07223332158383715 -0.20461296779688493 -0.09511833167647979 -0.15855159229179983 0.10413655285042941 -0.22681520747359246 -0.03187515382409809 -0.11745271527937423 0.027377796380893174 -0.010160779366623128 0.04328250686221924 -0.015382650074277525 0.034358313614248015 0.058294336721045566 -0.23527545031152342 -0.1788409969958844 -0.2288293072736027 -0.0361121966306515 -0.010164623735925835 -0.11046391847053397 0.08678049165670904 0.04013909042982064 -0.05073374741023195 -0.1020467557320646 -0.06706139540568559 -0.14964639068370927 0.011140910036941799 0.08497493194231674 0.20627597002770015 0.010791820996399124 -0.12330838917440669 0.09143457739720005 0.023709694014749646 0.04271818006209462 -0.003842358458141106 0.025840778064647768 0.03266855732698196 -0.06794756637538339 0.1706047333114071 -0.04863667531533363 0.140186966502997 0.19003678358481316 -0.03545373097194251 0.14830716149689122 0.09897360988977813 -0.02552804230126562 0.1566872870197102 -0.02346954522384809 -0.020309029667735953 0.033223244831717576 0.06951792138273927 0.23864838233155475 -0.13741272072342092 -0.0006993102513757795 0.030891750071677125 0.003148900642137006 -0.09935910685858955 0.11046381750642537 0.16720579624905202 0.07597322167077476 0.08044282028998578 0.020235681915476082 0.1267660121595953 -0.004513352472148893 -0.02998686358063312 0.009483151887143632 -0.06439912611117847 0.042949261693554466 -0.01961539728131781 0.04906623354549565 -0.16763174267381575 0.06065117398743467 -0.17666184539403654 0.07299128718273513 
