145 96 96 1
-0.06158364524032227 0.06946191537006773 -0.1760801684664352 -0.07564835849792555 -0.07004989460708151 -0.18383577394129105 -0.1321258034940463 -0.007710811746855745 -0.07880849966649729 0.09220932835179761 -0.011895288543668212 -0.04745139963572091 -0.0802307732495335 0.11249926528588862 -0.14677266185824484 0.09509797499044596 -0.08792615405420284 -0.0033016748344155025 -0.08515306068114918 -0.11112080540050288 0.07685528695177242 0.1798308060723522 -0.11269243520596074 0.09515389093043564 0.13722379006729674 0.08578055236008438 -0.12124528335348378 -0.12005532243749596 -0.11140408776324366 0.0974381078655915 -0.1222100992300941 -0.009391042418235074 0.19496467915222088 0.028773901168767255 0.04385256616629223 -0.05670764818893262 0.004579138532852959 -0.04298053742675321 -0.11433975244350521 0.09631423556193972 0.11006845067262364 0.07941501927229165 -0.17512653018023785 0.04600085747578491 -0.04232774033848152 0.009583508253209513 0.16831936774935066 -0.058240748390505186 -0.051871582158736926 -0.0158830180754716 -0.12917058123892153 0.04302095574215314 -0.21736088077664778 -0.07257505655374823 0.038908730049440225 -0.1571943333414037 -0.013589332801307235 -0.07929182598517313 0.049719776736191226 0.041057878164355806 -0.032315300752358375 -0.017600359371326913 0.03247135257386209 -0.04571258393594099 -0.11430517939695427 0.101032512312249 0.04556471724239689 0.011977362250514047 0.1611647592355124 -0.04698303678522917 0.15412184849666105 -0.09362352099366356 -0.12729404519045998 0.050845963026138835 -0.03343769865291683 -0.16798536344953394 0.11390457149057656 0.021077154829008203 -0.00025120011749933354 0.12545310592759276 0.04762432569401846 0.05487559879765742 0.05078890168724069 -0.27364965004828373 -0.039675703382235965 0.006215110995690877 0.016943024499669557 0.09052757295285001 0.05169845992964783 0.019393666340836987 -0.09984245339922668 0.11780426511708719 0.002042362215178383 0.043468734444899904 -0.041638710355867206 -0.10124068068175683 
0.08109685730849052 0.050041075552519625 -0.19973024413653934 0.005057800912953012 -0.02814511408914929 -0.011183395714961913 0.11231377172552538 -0.028000307125618122 0.09309256057455022 0.05899750903100274 -0.11088177491154884 0.1760649705197963 0.028214907951696174 0.18782917348111267 -0.0818581031748498 -0.06499249148189262 0.17228545099809225 0.06643948914512732 -0.15372922800050373 0.022749720274544884 0.043782343854274965 0.11498465366072601 0.1260513427275605 -0.1220986383516324 -0.18951741423781804 -0.1343740721229709 -0.10084220905859508 -0.10881080899170699 0.09892073754750555 -0.012239110214645571 0.05089238534619233 0.08430208013452267 -0.11422088381679193 -0.07821797445288178 -0.0019725535804720083 0.2078062614235858 0.07839404729201624 -0.19325576973154773 0.07426621491269726 -0.008673067126670236 0.08179707249453425 -0.025700630045197195 0.07385970613025891 0.057772880317193506 0.010894631768116633 -0.15456284235864048 -0.1530051767405435 -0.1479794243020147 -0.12815001505372467 -0.1387923858742252 -0.09225783555871465 0.11029550373257763 -0.05611253954299025 -0.15144400802052052 -0.21634747429317494 0.1377502822196752 0.02119213482958985 -0.07358677721362922 -0.13334900055302235 0.0826717385528613 -0.03204525242078737 0.011524876036547943 0.1317166389606123 0.03427633137923742 -0.09715348476620768 -0.0010763453182248907 0.048788875361349224 0.06274719698527602 -0.1516615063900929 -0.1700930551711819 -0.13460473366365938 -0.0017430747567813885 0.02390653423445782 0.02670838860609716 -0.12114759391920311 0.18113640249121862 0.03852947441689192 0.006095776913658101 0.10416019093826184 0.07339431581273714 0.0743202869356508 -0.08065031342544435 -0.16621283852162452 0.01970072428693541 0.04055039075196437 -0.07701839313325227 0.014759914287410233 -0.13120352291028253 -0.1082294616305849 0.10075618492629225 -0.06951206023865951 0.06257378018914604 -0.049947514114769734 0.09855033312308659 -0.1075350306016294 -0.17667710034849596 
0.0259497000352969 0.03892186913998467 0.15919412120146728 0.13447550761794155 -0.17745982680301245 -0.04345174742250116 0.06417002227405352 0.15446829447951663 0.12094843938528885 -0.0005863039674193836 0.1565519376230327 0.016215276711876572 -0.05145253451476677 -0.000982043317135 -0.045690547209651426 0.03154810321169053 0.15665144104782172 0.08623421168221426 0.05212047246380555 0.1586881740080951 -0.037423593456376684 -0.10557021794649808 -0.17205091087033694 0.07691203812975056 -0.14964852707827359 0.09850414681216015 0.0873027776544316 -0.10456471304258261 -0.11889642981507512 -0.1160690966348085 -0.12885891345431147 0.087675922761425 -0.09328417392694686 0.18401739666337003 -0.0012576104518112366 0.11097120178993086 0.09567371701166474 0.22212052539284752 -0.03153744355379407 -0.06315633396307564 0.10264623014704757 -0.07315937642025078 -0.032677715628682186 0.03882745389923251 -0.14455709544269638 0.025706866957282498 0.026690912287879672 0.10077494997982994 -0.017076782763180302 0.11367069826691263 -0.014756144407776709 -0.1665557647185998 -0.04034346946232904 0.024120409056725314 -0.17257522571213446 -0.061650919821204124 0.14491955482298144 0.10723643364214352 -0.17318153867989836 0.12779834367713805 0.008403781291453125 0.1323483085422287 0.07063533563392538 0.10306620411549308 0.032733527620248004 0.06370736223047589 -0.09775559924020581 0.02367173674946262 0.0551425326293267 0.11424239135701215 0.04141162834446154 0.037783689214275336 0.15709230036051156 -0.06782860372427012 0.0952389246217874 -0.04338250128231907 -0.06695556140274274 -0.12005432440214034 -0.029104410513606967 -0.028315311037492134 0.08884269063227564 -0.02347541030839368 0.20299983174477143 0.024134545527853553 -0.07406090370410125 -0.11851115980483067 -0.03251645056595019 -0.03964673907044912 0.13204581925503467 0.12555264067005453 0.06492610534393069 -0.09216210572929859 -0.06194947786209112 0.12619724870730356 0.009727935492706199 0.12743277790151097 
0.01513717991365339 -0.014748556546922115 -0.016261757681639066 0.24635808224255443 0.047846398974806977 -0.0525677206532988 -0.1025047978520255 -0.05743778472508274 0.05871585142864075 -0.21371867184122326 0.11751821361200694 -0.08139215432318271 0.17653193242399867 0.08399639531557943 0.0219825282161892 0.0217488590130624 -0.2777139473595209 0.13362283322434684 -0.02920429422697356 -0.1490806709499316 0.007912281570002296 -0.07829489903283866 0.04682861129103744 -0.019852885852767437 -0.05266456748159879 -0.06428899084112964 -0.1638365005013001 -0.03653514444265558 0.21472465096180862 -0.11217101749899996 -0.1321864999277887 0.15040702294500416 -0.030394922742309965 -0.08235972274936433 -0.04747639835733261 -0.34457437242190947 0.04691592012251257 0.06950270528050084 -0.19361269973872902 -0.05127922839763765 -0.004556156694641991 0.01584860498899446 -0.08268298720303062 0.003661085412936355 -0.010656826521671587 -0.03341766556465673 0.0338843662797588 -0.054910671252332593 0.012898372002197737 0.31045637328906944 0.11129384219835602 0.0032389619481416206 0.18889989094015108 0.09626917135682657 0.03730725293352494 -0.042820884219681665 -0.21073624803666408 0.0722913768588209 0.04338290463716528 -0.15776403002243863 0.14853182488808644 -0.07956202466017798 0.029971931487663413 0.04474854835271122 -0.0725468462784001 0.01801055171245773 0.07106738808519665 -0.16504487820976874 0.01558312653438366 0.01814916322389367 0.0344363598789112 0.10071059711439512 -0.0260715999693103 -0.09728696185702354 0.284112043492904 0.09317679013726737 0.14664578392999336 0.09621801163189962 0.1941552627975429 -0.01566313441217878 -0.13554399499760575 -0.051031436076513906 -0.08784681691088582 0.00031950680093358985 -0.004223625552131604 0.20027484996236516 -0.05720975763131113 0.06197288914406609 0.08062908399523631 0.19183765942578718 0.19167586567192144 -0.06249909235950379 -0.038649467295086566 0.053617181646514016 0.19692120169634492 -0.05046664565237243 
-0.0975711383567636 -0.03499167058973737 0.02060225913501181 0.006947433095564305 -0.03652662172210563 -0.06510573235895098 -0.04611461784461522 -0.0061988770471035175 -0.006800385064284472 -0.041394436065064245 0.09435418124097796 0.012985632918895977 -0.008056371499311871 0.016738241758964618 0.0012055287375644342 0.00444999894809052 0.042114835418229885 0.0429554033235634 -0.05595265820748853 0.08046515517645318 -0.0037998692619989117 0.11016436176364494 -0.03125680045791849 -0.041172671830157846 -0.05224184421291727 0.01953329762327099 -0.03023480311918956 0.029748932184513268 -0.030411196055946058 0.021603401082258864 -0.03862357704294101 -0.07444501819287466 0.013315009649684502 0.031350965959575365 0.07496748529307042 -0.01692563004726388 -0.03699704869770208 -0.048159200753826945 -0.12587415262195692 -0.06890116168515031 -0.004500757551971477 -0.021431974861728396 -0.09883042724596837 0.0006882515503626506 -0.02056744797090822 -0.01858121747755435 -0.06124016045344362 0.03446201530321098 -0.03797442604004797 -0.05644949937541309 0.08082220421869309 0.027435583075054667 0.16707267024280054 -0.11163576389468846 0.033529364352971956 -0.04280544744582843 0.05346360785815441 -0.0614733892324109 -0.04599193836344013 -0.1431546764414752 0.035818685241425806 0.04336246513139091 0.07392965114139055 0.0758531578977864 -0.11611114749611584 -0.07655026593734492 -0.03530852961821952 -0.03158885181006876 0.12569605088965907 0.09791979168779862 -0.008277893816896127 0.06329055648427777 0.040863042800171154 -0.017123621836867487 -0.027965380416048166 -0.016221204106392814 -0.10335840402327391 0.1354128421081107 -0.08412805833837872 0.008651547393893426 0.04931224019563033 -0.021006932529891068 0.09661203789723914 -0.116841929624544 -0.05116256672005656 -0.02056600979835176 0.036699106459142455 0.028225867808180934 0.018668533649222257 -0.05419948000562687 0.06419510841084657 -0.06705367397050048 0.07108986106550404 0.098272976336022 -0.0495760061513254 -0.0015015975736294967 
-0.06642708912983936 0.14831272142157587 -0.0117104579879826 0.007515688659777376 -0.011721753130477495 0.029654819500681058 -0.08979298795627391 -0.18114892522978504 -0.01655876704458594 -0.04324951391743686 0.03540381772900732 0.18847680883584225 -0.07500880254934532 -0.04281490575609557 -0.019568854456551633 0.1679304099924919 0.11337956204088133 0.10402689933596485 0.13559104256170207 -0.16895760272787352 -0.14469451002876252 -0.14030805486818904 -0.005238123815772922 -0.14791386338247922 0.012646733932140794 0.03318813249753353 0.15331966388743368 -0.14444186985642138 0.01641928111711233 -0.07675726471308496 0.06538718970435044 -0.08456696291499331 -0.1625995639051566 -0.09152581748411143 0.009162146673105982 0.049989908681277694 0.03982804484439988 -0.06760805865727267 -0.017457034391754927 0.2921623554060168 0.10125710064285515 0.07270526961622706 0.14234707309889166 0.13176960834673448 -0.002104857432263066 -0.19085830157837175 -0.14270009746992687 -0.150962817996523 -0.03613939283362416 -0.10941435074694329 0.07140403613465154 -0.1424750319842299 0.026929986675971674 0.09468384056542624 0.07793336727011875 0.027926079745515697 0.06029540523020096 0.026271557448922272 -0.22306804568272387 -0.03504662183545093 0.06822713075832461 0.07778260037977548 0.01750415006976342 -0.09538817688238002 -0.15633426556571284 -0.1542734856419814 0.10662678651820529 -0.11684608245891343 0.10618447066207598 -0.0795371465464156 -0.10385781452418108 0.02113694787860248 0.06041896806130714 -0.07922456534741931 -0.19103319069363803 -0.043870823828477665 0.040754820747429144 0.10331452761035059 0.12802485322872764 -0.13179501710077182 -0.13730758522166767 -0.006981365824933908 0.08842443332848977 -0.10742144480235646 0.02787763454224293 0.09726486266740512 -0.10013138319062737 0.15954089454032566 -0.005789211130681841 -0.13447306016866184 0.031881941153241396 0.13005665810559297 0.05027015108247618 0.015440366225548383 0.017833158245940426 -0.02213400308636121 
-0.26133689263685594 0.12559882493693053 0.08388339867667353 -0.029531884597997566 0.16431675223477463 -0.26078391093477404 0.046403069346128735 -0.06650827978226273 0.08518456545287155 0.000993434927837931 0.1919057553798877 -0.37418318079417023 -0.03901359928767133 0.051375838814855246 0.008250297642590818 0.1431734909216574 0.1722211392302383 -0.0787174530609339 -0.14951036394657663 -0.07639763799139733 -0.11023254395297888 0.024888717543613548 -0.24696030877133723 -0.11514968385933667 0.029009782009376265 0.027051538279350935 -0.1685774771727009 -0.01236584734924392 -0.04821563660916356 0.0739937266364865 0.042976390393285054 0.030200367066270203 0.01563341060023458 0.12193177757755129 -0.04619342283077933 0.16637069924232628 0.09818005351859023 -0.06625925596653366 -0.07229066309484501 0.1837468935602989 -0.15473984149576306 -0.18917573133087015 -0.20844060891201974 -0.056767869123289676 -0.0077172348716189445 0.08253130174555304 -0.09019157438685894 -0.048561301840143414 0.14690777039504674 -0.11622319192076871 0.1350711362245715 0.22760906489787436 0.058660824185091366 0.031818970375095644 -0.04987500086017142 0.10517093199788718 -0.06740782097778271 -0.11257964224478721 0.12917232930158196 -0.32810055518358905 0.07106295584204336 -0.0975358709803011 -0.08681090579082261 -0.0730456306101164 -0.05316692822521266 0.20287064080563963 -0.08060591918997283 0.02322361933872795 0.002551156270162067 -0.3145197419822933 -0.09236438999803612 -0.16113218803148285 -0.043266496230689545 -0.11151049905987381 -0.019274299479283837 -0.4005189842566695 0.05435841035115629 -0.12085498603504888 0.15902730537514156 -0.04492979642210052 0.04551121940872924 -0.1347232354314544 0.0619655548556103 -0.18666189052407842 0.0598066827331782 0.0614639427296805 -0.10955280910435455 -0.17342348979317937 0.0012883442804631682 0.003123572083881026 0.09462973117628183 -0.1608759666162136 0.13392709967955596 -0.10817516741910801 0.17305076942719047 -0.025639520916719907 
-0.058734035554910295 0.05823754405939479 0.08146050829711736 0.17147938304920785 -0.13352346223629405 -0.2747819008838192 0.1492302748366489 0.12571790880057737 0.032244738843755845 0.05496551585709978 0.03517734138017727 0.06281449406432306 -0.012152870994833139 0.11694675107241634 0.0910083385246306 -0.0038499008148991957 -0.2571205498520676 0.13570079155735779 -0.2792535961758641 -0.010562647373840477 0.05336132906502471 -0.007277750395312064 -0.056496612938815575 -0.10628783351299498 -0.18736743107413675 -0.09064620729931987 -0.018445316806386492 -0.04011801220457964 -0.08950867249275998 -0.07055428038686401 0.056685953385535885 -0.050394089355209726 0.0944671942858744 0.08549508456514533 0.022758631945549616 0.01119090549397525 0.01870269370267338 0.018942332801548417 -0.049489034311722954 -0.04825837249491435 -0.05675041670776039 -0.21960749760853912 0.02682575144437988 -0.12825241231323198 0.11586113643433511 0.01158970373867233 0.09455235173202928 -0.09921271523028423 0.07148154103823827 0.22258098486096736 0.034146205130707534 0.13803417509013705 -0.059542774012816185 -0.06829600087014696 0.08653966029164388 -0.11858971971700052 -0.0401719331924625 -0.15263479634683827 0.03869022707159315 -0.04818989586911363 0.36100782461051345 0.03252886133603502 0.19368042963840745 0.04050151588605612 0.230566289600565 0.08871236416084739 0.06434725311387239 -0.1567826318814946 0.14723786367050865 -0.30595096769634716 0.022784596671018693 0.1408490788774462 -0.16795554111948754 -0.1548160640775862 0.1179299531153954 -0.08053811951206759 -0.1908593228765659 0.08618215417240632 0.09215455258333789 -0.09110842028570774 0.07261702565587516 0.09016804506174884 -0.11211286127462441 -0.16121795653330498 -0.033358695331096797 -0.11638104489535035 0.0752243514449268 -0.5126958846621122 -0.09338716491858239 0.18236184158183819 -0.14546805918266886 -0.19855583795475026 -0.055222127552500895 -0.13385855434807167 0.0710735882361185 0.06298121458145135 
0.0030783894957071983 -0.03496858551418872 0.15976235564230556 0.07236505508451319 0.10834854294011158 -0.16665497944201624 0.15786137433676542 -0.11007884910880639 -0.10377226548441533 -0.10208801029078121 -0.1691906105059145 -0.06216027502567548 -0.09102860302568509 0.15090689231329638 -0.12085095741178743 0.257617259593492 0.10459637308872483 0.0070393025777967435 0.08119029026326281 0.045793324104993156 -0.027713542710388426 0.03593625921151212 0.04692967977614709 -0.09780134163610177 0.13700604626709806 -0.040676341557537375 -0.11755275622777518 0.12822331839049173 -0.31952454267409874 0.17386027862951686 -0.04055433235906078 0.11882749701443573 0.09968553969019672 -0.1455362540170743 0.0069876992741574355 0.16454038913006103 -0.020217499750387703 0.1356162773221519 -0.07225890785788838 -0.10672953265314068 0.036569131543629764 -0.04007347123680722 -0.157633368922403 0.021611310174140835 0.1702994861651511 -0.05216876837930601 0.13349467301474469 0.09016905889379291 -0.2114652049296049 -0.11746768488369994 -0.06900436874919254 -0.09826473041804057 0.11549109094335015 -0.03398184654078105 0.042550683669149415 -0.16229651186705488 0.006134699559777273 0.01811697440380484 -0.08573216888965358 -0.2234093458375774 0.020752555864561945 0.05585710812533857 0.06964916821013309 -0.006193922815810904 -0.06667393956062366 -0.13323228458871686 -0.08471779949654738 0.11133396970083488 -0.036132895247660786 -0.18988112166109983 0.015868879703565052 -0.040034725010365514 -0.13928444100691448 -0.11097496767235655 -0.09328453799926817 0.10777295600153904 0.138014643284589 -0.061365724419249236 0.06742327337228683 -0.09246247665310785 0.03902886348730618 -0.03033405892032583 0.07996507343646676 0.18297790805697398 0.04908353958213708 -0.19096451413501003 0.15428504461045275 0.09589210006519569 0.1283226841158257 0.03778504623127395 -0.10579639342659103 0.07992809193209603 -0.14840378314620897 -0.019057863888017782 -0.10577270269536869 -0.05844883859647529 
0.10906756700330407 0.027475271386413664 0.021940257927322796 0.06502424997873896 -0.15388642864228333 0.0628419443420363 -0.05310183377294915 -0.11492926156515595 0.014822766965508332 -0.055773638594199426 0.04436822059486923 -0.15308445852223077 -0.06893885367145297 -0.1593834524012692 0.08170143530256217 -0.012571383590934158 -0.04603217041042238 -0.05821025601465322 0.12920738169940577 -0.1723969970516406 0.03460067793890046 -0.07756159642159434 -0.026093905333943786 -0.21981889233990023 0.16281865101836374 0.07796929045754869 -0.08480196194419008 0.0013676763598905164 -0.08902420791432071 0.0852683172644587 0.17683844863437984 0.014542609226101651 0.0474659381257854 0.048237957716083725 0.03488094983805764 -0.014903611842404938 -0.02846566601017632 0.08048498489668936 -0.13418316782765702 0.14405979629653506 0.006142845577089328 0.0904785062904118 0.06652712035384123 -0.06085808440698098 0.05633875160536292 -0.10631189635858906 -0.07752350191707545 -0.10507457920266274 -0.009543114090812151 0.15438299409934844 0.05215675436319207 -0.0537270749291454 0.0792068387031773 0.02644734597527959 0.03935669163813748 0.15126881467266856 -0.23257421460349267 -0.05421852849940491 -0.1059502013298682 -0.03483072918136735 -0.07399971507207999 -0.03228536102911152 -0.059079856711557 -0.05513467944309372 -0.03075871524781218 -0.03610702822918598 -0.19193796762727186 -0.13550330058490603 -0.18201347001075718 -0.018840395069545858 0.025947540085118886 0.12968430558810096 -0.04196338926400017 0.2043576994228985 -0.0038230379552538518 -0.02514209744548409 -0.03606361464966473 -0.06464099482005597 -0.006507866602853445 0.157983182459462 -0.13728114130935443 -0.03168960180093098 -0.11797304750396376 -0.1685836471433181 -0.11177115426152176 -0.057453039715029915 0.01781708639166442 -0.0923115691156512 -0.17162170842220656 0.007947316193150544 -0.0556305026030468 -0.13160911643160386 -0.03492489806666785 -0.08299832840077898 -0.1838933484109414 -0.08876380050256376 
0.12653355728897925 0.06337609291395925 0.03143902639879711 0.05302438475213391 -0.14347235325307064 -0.09479687463403341 -0.055691809951728025 -0.07668114636844342 0.11208171400806617 0.01174606123398404 0.020132660447990686 0.12253496614837926 -0.023528856520200467 0.12014396193638943 -0.10977128663041959 -0.04658207082357117 -0.05693633259944893 -0.001486256828346315 -0.09898604546229141 0.02963031414140474 -0.11821912243097858 -0.12562298763239346 0.07708804387424664 -0.09337636590076477 -0.02762783464444956 0.045492622889769886 0.012605380109699306 -0.10320130287019058 0.0855676366718771 0.17523959725143207 0.11785440115544879 -0.0640576995109304 -0.0002557430208241513 -0.08997349225607901 -0.04200683886515151 0.14364898172964652 -0.07654724137538897 0.028857154365421897 -0.05245714748026662 0.08443601415612549 -0.03747155761819854 0.1026166753584951 0.03636767615155849 0.06009177829021446 -0.005751004546036283 -0.11556819189731744 -0.14812213195390908 -0.0020471471882183598 -0.11601311576137424 0.03671857306489582 0.005806439827924515 -0.04837000504698823 -0.01576645881626025 0.03829548925329793 -0.14836717226287716 -0.11164905712423012 -0.09213662086270173 -0.05601429100182233 -0.1775506262985991 0.05004510296340125 0.036921539029520736 0.034344028341737734 0.019570026127913673 0.09319225937290739 -0.03151269903508389 -0.13334253228733925 0.08749873762924462 0.017647457059107433 0.09230132480123074 0.19404490453630577 -0.14833451566507344 -0.024174174647695647 -0.15790409938630365 -0.1616970874848341 0.13772259674090742 -0.14524926938571775 0.001414779120121458 -0.06404187889067693 0.1176931905341193 0.11250295722360457 -0.10866848526482929 -0.06320165551988817 -0.05419252547655366 0.08726480274883884 0.13876140896647862 0.002790789172012693 0.1231027664088953 -0.05314629582373259 0.09103854798910022 -0.03930799293032352 -0.13310922217571058 0.17745437537851996 0.06085527190457163 -0.13016220831076467 0.11716770385488769 0.06524624484918973 
0.03220433878114007 0.07678681039389407 -0.06899690422079398 -0.2967530422723615 -0.06381954481510145 -0.12276983030013622 -0.2321773729256301 0.0908272177891915 -0.06572878967686567 0.23915729841685754 -0.2719651146897817 -0.10735255076356134 0.021668009972209405 0.07704346843657074 -0.018908382975329204 0.21588703459829056 -0.2051718316138319 0.1357817550730657 0.0865229669347402 -0.176333383368226 0.024276848533206476 -0.03337194155823112 -0.2628117893517424 0.11899522437721229 -0.01781806956668865 0.24845876015077556 0.06981531285679808 -0.15284312043998405 -0.12119251296317265 0.17277346780577976 0.038805005921508255 -0.3448539729517627 -0.35239670457368455 0.22451241647414305 0.06025935445393741 0.29494496537178827 -0.037005124471658775 -0.05536080540934283 -0.007170738348405117 0.08318380875793636 -0.20366758036205032 0.1451364074324722 0.03387369257792562 0.2257716880605737 -0.13304448478647038 -0.007975885897058497 -0.267848935443858 -0.11266853061623039 0.03727209570957093 -0.0007027567881758284 0.05257886945084614 -0.302990441550398 -0.00578583331864372 0.19271791256094933 0.12603277455734588 -0.42688890580226246 0.0012549629693607005 -0.03590006860569719 -0.20501513272437782 0.06583096197699614 -0.12765178374078612 0.16185644706213123 -0.1465271039113923 -0.19785936258805142 -0.09478407450133446 -0.2070350730008456 0.13174141999065295 -0.05939981330316668 -0.1510509307622088 -0.026594633518173847 -0.07307025403876737 -0.01469200993112291 -0.1411128107939774 -0.1848766826872339 -0.09178903505376651 -0.07058266871151961 -0.10477014920361427 0.09284532181260075 0.0735618116876806 -0.12986802733709707 0.20677538591472597 0.05832297265078474 -0.036578220046564684 0.07499578564401008 -0.22530316317459054 -0.038000488850415265 -0.22405988605752888 0.011849193130782688 -0.06487668535020773 0.260676091475626 0.15019196847675365 0.12400384991794096 -0.00815200080621021 -0.13113981830480095 -0.08144787907729222 -0.027058876423116596 
0.08022250041069864 -0.06637683420776903 -0.08617273129104122 -0.1445218112296257 -0.13069199564505699 0.026499150231870553 -0.008513176280618089 0.029169831601495347 -0.06571667578755801 -0.10027870413391966 -0.1253408769440139 -0.07483951230960552 -0.12160754766546411 0.1314311502331587 0.010916342776785706 0.08960800390895765 -0.04720785725922455 -0.2277631901741729 -0.07080460501583251 -0.046725655874858996 -0.03391853720262336 -0.20711177031383607 0.11503619051666815 0.030298254876376964 -0.10914948337903103 0.051903893142403935 0.00490482107841471 0.08436313256455769 0.04218121237274775 -0.028883221387721748 -0.11385528885858667 -0.056952775925762006 0.12935324642323592 -0.22496559791969728 0.06617435151342975 0.12478208323497417 0.0024868897717030486 0.09107460824200876 0.09595436522349682 -0.2597444014335373 0.128889199318822 -0.10045424061123949 0.04845197627307811 0.06943188117939467 -0.16265413188829894 -0.1556889323648416 0.04262909396396 0.08070483359410581 0.13119675299591227 0.01303896988360617 0.09975039366206614 0.06512313366433316 -0.14490667536647858 -0.038428617831963136 -0.15553131649211865 0.09087289552430075 -0.10110428886398741 0.14155804636615846 -0.06007875575544052 -0.08602549452097775 -0.06537526410327324 -0.02409364905672385 -0.1024777325708112 -0.021597990373355445 0.0075249587224420125 0.1352000305378111 0.08813941463269112 -0.12699534446350436 -0.09780736540088023 -0.03049464002628302 0.02897773086710634 0.013844310971205578 -0.015503218272015987 -0.0757272786580957 -0.1069477683287071 0.0722157078270941 -0.08264745774071217 0.027832851929543122 -0.061650521764531306 0.018177864249265374 -0.09151529737157343 0.02751169306463638 -0.1181967835874301 -0.23674352511123606 0.09597996356838885 0.0003977681180505079 -0.022723678509789964 -0.20901387635843716 -0.11521469568350219 -0.09512770453662897 -0.1061765775447221 0.15328259396053717 0.06932443141515475 0.03111430160987055 -0.07241948961216303 0.08937211926922918 
-0.02225580005509569 -0.09194850211585198 -0.04183785479073613 0.013212412512477588 -0.016560053033409374 -0.0094611325725621 -0.07315828773060877 0.12771588295212144 -0.0766058576058853 -0.026638414898578433 0.04070724275940264 -0.13304496861354204 -0.14984735933920623 0.16648084056297466 0.027271788215447696 0.009905102661165179 -0.046053914569445284 0.011244306771777995 0.08529742386876736 -0.11152766057835362 -0.06678658079234269 0.04391314246963236 -0.17641073284749717 0.010949511307791015 -0.03276077336973179 -0.027242822808354182 0.025695375510649376 -0.06396400772814353 -0.272301615151898 -0.06554824539990237 0.02480659032691488 -0.14641047404777685 0.025770329124144155 0.007607912370519994 -0.10464769218969976 -0.060243649314663326 0.03739631750949903 -0.013382196924150411 -0.07818935692737272 -0.06502388134189087 -0.04986149756528487 0.1950760316748698 0.1383363430673795 0.17458750888401126 -0.1369583215704359 0.0007742395719614695 -0.060479159448560554 -0.0049819441337346304 -0.060469486797764045 -0.09996697561135946 0.06936609275691245 -0.11510839277590225 -0.04326395319713525 -0.014752673839497197 -0.08310522207207735 0.08406891213140118 -0.0651259084227344 -0.011738098655719011 -0.014729559018285224 -0.014557041549338933 0.03988414355909022 0.04267876796275733 0.0009273394430130491 -0.14679081020594717 -0.10367436860913631 -0.16031453711623408 -0.0011295844172915827 0.03673807190371457 0.021878012334627904 0.0030276332834212644 0.08382753476675896 0.10976379424092057 -0.023076115021494772 0.007272934503108923 0.04112148701967802 -0.19647678368003083 -0.022678481221619376 -0.04897346645327946 0.11922251587695211 -0.23066343652967358 -0.008854511389871112 -0.19696772036172533 -0.05330112856163393 -0.0987397997663597 -0.16322491501403408 -0.07537221292332466 0.08321884648798059 -0.039442132887736334 -0.014281456563800279 0.022736956426317446 -0.012001112658752321 0.07849581813738049 -0.10050176543157695 0.003933981770865763 -0.14557463630692116 -0.08047700499802107 
-0.010246081145996769 0.14787425654638367 0.05780542339855179 0.0992443697368794 0.03558440521936028 0.037285215913291044 -0.14962325706228746 0.05914538295449181 0.01981565997253556 -0.15260198346402068 0.026636815221960555 -0.09280866803065978 0.07447931827319909 -0.1221756716235152 0.01744935250960701 0.05697989822194286 0.11127653349536806 0.11112669904204675 -0.2655614125251326 -0.10023292242892487 0.12109178715417332 0.01351515402739478 0.009244580142849802 0.13231553971495846 0.20225280973001108 0.18269749678244632 0.1225931108999124 -0.03493842016153823 -0.24734061968891946 -0.1352776877492433 -0.13643254762344587 0.1365302033061945 -0.09548162382991732 0.21393632675920857 0.053706359847328015 -0.017812771248145835 -0.06026820367378773 0.10249378373156665 -0.09821793882051066 0.1039053822688313 0.10410989010704257 -0.0640682389812936 -0.1307741493916837 -0.02642733143860744 -0.10429840792440553 0.09880638461379912 0.09013800011978487 -0.013879966960853979 0.09879885627344777 -0.0788798955472353 -0.0296954016260425 0.16113752501083362 -0.02204950631788869 -0.015993523269733155 0.2015264648730605 0.07673451625568975 0.024538842987482885 -0.0874636790667901 0.03131760563630883 -0.024221974864952776 0.11106681662148202 0.2423065689692933 0.07680531937130726 -0.06269607550874226 -0.16538941347362687 -0.049126457324291106 0.04627190020912671 -0.036049670448830944 0.08301130672740557 0.12718674130762742 -0.22661573131281518 0.22719191307419603 0.19744106403549036 -0.004725693144203271 -0.1931354536970985 -0.16018167762423124 -0.18032898874892025 -0.1272067888213196 -0.10389567361649453 -0.07326892341378329 -0.06563195901156209 0.17678065087235714 -0.08002593431191764 -0.05999173997189152 -0.006789516536909287 -0.0019014566810488021 -0.26556622566526855 -0.07527272674969696 0.09695897484635378 0.08791415755071068 0.1093638269185354 -0.1174740072026628 -0.007538110259947908 -0.15710390340807703 -0.0408989264409759 0.22222361488070952 
-0.07752808399642674 0.13925003621061519 0.15027194303932603 0.11788342632435111 -0.07897467137405524 0.06613624477364152 0.05357036394189649 -0.06551726042054037 -0.019665112016319073 -0.04558950903767452 0.06369707213032948 -0.28734411913725444 -0.10560275146238403 -0.09974798385631853 0.07834875561948826 0.04203847248227455 0.2860679849816556 -0.15584390430551048 0.07174385038745217 -0.15409428378514425 -9.486822980051502e-05 0.12840950215568328 0.14336750465247314 -0.06780915535231757 -0.06832624594693892 -0.30798934169473235 -0.2238862514723829 -0.13430259249500448 -0.04030965802466685 -0.11545804654117275 -0.011940854538918848 0.06622688709531899 0.0031819917606972035 -0.0014773458749966096 -0.0538524034879317 -0.06472134456202225 -0.00722851112600311 0.01248815045267231 0.05707079824031031 -0.08709223982957388 -0.10426167228962449 -0.28988377938494914 0.07528519444791092 0.06521126002899705 0.18109076735319016 -0.07219472821805858 0.16737459670075625 0.15384003265818613 -0.06285339712500182 -0.03378405379303418 0.02685959918086971 -0.07885585218532604 -0.14106305149693285 -0.044742538729216734 0.1799873016059759 0.005225586298937735 0.14753427393863688 0.08661728095916944 -0.0019285237265232477 0.09040440315450213 -0.05418880731112934 0.06495445248472213 0.11746142181240143 -0.03648034271142283 -0.1434651077674524 0.010352268836447385 -0.034661161425249505 0.07731413754013922 -0.04694345090232116 -0.16512314438055548 -0.09970400912138545 0.08296260082880014 0.14531399940424183 -0.24599352237128352 0.12063555060106398 -0.1885457506097149 -0.2651355803207028 -0.1640022745855894 0.07338357557843211 0.15502128974575302 -0.16081483123859716 0.1617007039785488 0.17902717003992227 -0.16417956812824572 0.007672765411218517 -0.04210761931587547 -0.1608708648964967 -0.38449113602515894 -0.03990413456308526 -0.18950301398787178 0.11353891336189226 -0.07664653013348847 -0.004956519740411346 0.1388167256926708 -0.10999012359059844 -0.02370092530701097 
-0.05190233734015434 -0.08285612846861586 -0.19169439582759223 -0.08617182625157746 -0.12056174146571272 0.09108808082290391 -0.07363523931582598 -0.24846195982072794 -0.0031755183801413273 0.18102007241957593 0.09316614398638445 0.0026241824995371804 -0.22839646829395716 0.12473465519056902 0.0997874383342718 0.18076304865882833 0.1090227790055071 0.03573751549185896 0.15157441010801725 -0.06547323245582776 0.003880306605288398 0.0038960398067327136 0.06959288994709281 0.1661396329261474 0.009526097294067594 0.0013667746246608463 -0.014980162362327229 0.17026504225228323 -0.15870707263611297 -0.08311970846512302 0.16305731216530123 -0.22033519935390128 -0.21526098232239568 -0.20763979377839395 0.05272165904485948 -0.15313702748524752 -0.11336464152903812 -0.02686895801614528 -0.1698298481123102 0.15951783292660018 0.12438236777644777 0.10263133254435575 -0.12973061874811465 -0.09406138534860303 -0.16249710064860884 0.020887494063860406 -0.1662218024473915 -0.08781820183520636 0.0788660413781914 -0.16342016786839128 0.12150230586194322 0.13437259540138935 0.020869593316860054 0.03996371155589664 0.03476448639567033 -0.019201304076471533 -0.1878729616443135 -0.08374325367634317 -0.06810931577648778 0.03271818133600863 0.22096373154655471 -0.09728858915656069 0.22735621665769917 0.1116753907344898 -0.168084307466208 0.016493314306660636 0.13438795076814242 0.06944547482478873 -0.05451031529354355 0.1307461874584793 -0.04061013028280195 0.09387870612315755 -0.15972842758415193 -0.1901436133418529 0.02807814542448772 -0.09373170049978152 -0.010655127670694556 -0.0783902994694907 0.0896578909827037 -0.1842380842077297 -0.20079476086302064 -0.05962599839752723 0.094628029431133 -0.062330288608248935 0.028985644203173472 0.17604908909012995 -0.18300999417384234 -0.06880877611226986 -0.21850350451400272 0.12976209813884615 -0.08132232272659441 0.19654194556775878 -0.16635722327130145 0.00796957553459551 0.004997693466007765 -0.1837324911838445 
-0.26385617407409384 -0.08056972819415818 0.0689215270045469 0.07859434193513902 -0.04585193715326328 0.10616103499811515 0.03908960162187306 0.12510110456836948 0.029252840724589134 -0.24585611936964705 -0.042950840455030774 0.13778826505132177 0.057874911694318305 0.18578824663850718 -0.038046187574928995 0.05772311449509541 0.04811657968117932 -0.04575879950688039 -0.20078500777252425 -0.0852910945410433 -0.09593231221518807 0.16135449619565015 0.15009663900851078 -0.1758348134486025 -0.021737288654709933 0.027812833449211267 -0.0548663928310796 -0.09005757679809567 0.05703662910627081 -0.2490875447463758 -0.14138606564169523 0.13424864226127414 0.12631204846816343 0.06320039791630354 -0.07205981146417843 0.16743583528124079 0.21018495079730543 -0.02300991133503879 -0.11350274739842156 0.1973816139265068 -0.13741490413858473 -0.07817493379293247 0.014270202612369312 0.050110342245610645 -0.02186277996565197 0.06268031198286261 0.09872327512214238 -0.04766220304448502 -0.07744892635341093 -0.15401635785159823 -0.17494932661034787 -0.04648212070673356 -0.29942197729395065 0.01452271732824916 -0.2375570328893717 -0.04614153516380952 0.05473253661164312 0.1450174302649754 0.029420065666152816 0.12683981289028157 -0.19074106186887077 0.07972669037208809 -0.0699378178414833 0.030485510919725962 0.0873441031830811 0.1342057123803623 -0.08681980905657499 0.1523639839779302 -0.10283582136295295 0.17516897133949327 0.15181822803059705 0.12914206706816722 -0.148384449347766 0.0830640755879899 -0.11700200532558204 -0.04740354931477676 -0.14900954878565262 -0.06902996683892344 -0.15329753297857557 -0.07467339139816287 0.1765051418220252 -0.024948394443112372 -0.18717193144691335 -0.05818909077293193 0.03247011078681468 0.13196367484498667 -0.02610361252128016 -0.06397513322394979 0.17136473062254867 -0.2632706355615359 0.09789168632915272 0.11746151968398087 -0.05738437576054802 -0.12342248038636641 0.06847345888175956 -0.07825245066199765 
0.0002913950006134344 -0.036208604351016235 -0.05487089105606572 0.08844236035153658 0.1070408304066293 -0.06055037933609185 0.041815054589735966 -0.07467219956199085 0.11720804813836833 0.01862421353225674 0.04415135036516934 -0.13024332835710242 0.10004181576912623 -0.03319452597196256 0.026172263726255078 0.015514567345686384 0.0004959580694041353 -0.08893010986450813 0.09798771276220576 0.11979105454036854 0.005658853218860217 0.11313794336192629 -0.024388696879675254 0.01703148865031866 -0.014013666476398932 0.05456897033133751 0.002407285858342041 0.0627580538375544 -0.1565288171623172 -0.05637143004092537 -0.16694521711431176 -0.10884201441441273 -0.06591929317516564 0.12497963181386201 -0.05025439341953086 -0.01331441960137752 0.013152702682005258 -0.016183219151600828 -0.09436863321629153 -0.04924531003840555 -0.05232503571477952 0.06763015794800538 0.004620868356541037 -0.05391069253917676 0.03619327782736034 -0.13187536872016395 0.024255257648177316 0.10541249653757515 -0.011624230079378817 -0.07333473629695078 0.012909143216642834 0.040543073814907495 0.17267610308169382 0.03509016989987905 -0.017636563341689684 0.005666871712533647 0.09898066531738975 0.05172870437134074 -0.028394738188192707 -0.009706699913993382 -0.06910971792049236 0.04513378320990646 0.08117370785475198 0.011011720090437192 0.011997368467332535 0.021396520280125533 0.034745675154173976 -0.11917297642060236 0.05909386831538282 0.08185315374876406 0.0021038685401702597 0.008815283298750042 0.05040536581965795 -0.04342029795806008 -0.01839679638933096 0.12231580931162332 0.019075424698590648 0.15129572737952804 -0.10775256474571994 0.028833093108165116 -0.03138339855836345 -0.022676004150990803 0.05289965965954652 -0.0356037852695064 -0.06395351642561783 -0.014832141860457207 -0.016180133129833574 0.05739711080425465 0.038924863592374286 -0.036765645696092225 -0.008384811824954121 0.019196308129135923 -0.010363917203571186 0.055901857046486425 0.11663963032346156 -0.07264691507187843 
0.05703868619982834 -0.12815359780007018 -0.03756204849943755 0.010415645236663808 -0.09142976753062383 0.1297103607727739 -0.045792993564986686 -0.16202848322297894 0.02610379664105517 -0.08189122560295341 -0.020559386194424135 -0.09932207724982108 -0.030340806354265063 -0.03617497352635183 -0.009115520734670122 0.1106139514247678 0.035886917322287826 0.05366655027290441 0.07175480352785185 0.014168678480755748 0.049004037152099666 -0.04519541350849515 0.039862733655212874 0.06912521786432975 0.0868402129454203 -0.16328544871674075 0.06295467582487954 0.08128297913628252 -0.177483094274685 0.1442964035636027 0.11119000513308774 -0.022488910941023576 -0.20287845806316684 -0.10851044750103662 0.08930159149794428 -0.1693880554478547 -0.07227519804066712 -0.12483683728575715 -0.1168795744519006 0.17132343874160624 -0.08412559056317959 0.01808380515101952 -0.006818449416508184 -0.1047008558084234 0.0006665104627094148 -0.03188193353262334 0.09618722708360562 0.011615542919806945 -0.033935127824292755 -0.01966002665856291 0.0032038616219303906 -0.044687002442142604 0.004502809277832312 -0.12694139661789033 0.05222656482906336 0.03198382154736475 0.14782389827066228 -0.1021414350135699 -0.0702467038014094 0.12295642737942715 0.002582713534480409 0.1319572165597889 -0.06425101308820218 -0.005837760731364673 0.09084285006100132 -0.06146857816786738 0.10580365332939237 0.10018726247527285 -0.3180600646206904 0.03479308251703545 -0.2112969896538079 0.0861939291074593 -0.1660349582519566 0.08148308318519769 -0.11656262978729504 0.11627388465219718 -0.07192959102453189 0.05619609641350164 0.15598104167335175 0.03920122818728595 -0.04810830960391404 -0.027148030905271722 -0.031256740226950804 -0.01751635116439657 -0.11812816259267106 -0.19943844832845634 -0.25206271563947275 -0.06816530177484514 0.008264311617248048 0.1823550340584424 -0.08808935715536892 -0.1189111302159375 -0.08148929885405956 -0.02535553719878733 -0.06915894955902836 0.08904183342934446 
0.2514569274052392 0.22835907354381618 0.08913744752960685 -0.026422074460432314 0.03504742499670271 -0.24395596100713493 0.1181313960776898 -0.11833368178228941 0.13973363069530645 0.15799522040457245 0.11832349448298157 -0.18054027314856447 -0.021052760142815916 -0.05534816771400258 0.15412883392815133 0.129904944215556 -0.04119786401242425 -0.24695422264224967 0.1366078939598121 0.12603720355948947 0.15405864606247713 -0.050448417543636735 -0.08798956297213223 -0.01663729921835829 0.06493816810736003 -0.2247317619372453 -0.1775884108574723 0.03276121490664161 0.03584614325633852 0.1920380942311268 -0.029487264434158812 0.07040978407787471 0.13496390867020078 0.006337604042398216 -0.14755360029586018 -0.18379009021531686 0.12487792589451478 -0.20099504888698996 0.020702184732132107 -0.3620329258347115 0.08917817539796971 0.13704777983436386 0.057459369933980424 0.08991656694548181 0.07848546224574741 0.16601530699386846 0.040646345923967285 0.056145789653241095 -0.02065706192771997 -0.09689828253144522 -0.08300723218949661 -0.0757395447128336 -0.4005518195100295 0.07458674489261712 -0.08587571088587774 0.005022600541211229 -0.3285676180919026 -0.2560964379020146 0.15063894873810124 -0.21477665392633905 -0.07231950742603692 -0.19660221204122116 0.058435890712144216 0.06799610111326827 0.014370488778375252 0.006486707169399874 0.24458448781010006 -0.0855409500143575 -0.3638208603873226 -0.15321545735861136 0.24673718829060742 0.03753394371747628 0.07286187880051642 0.16268813565216297 0.026466432000646228 0.045215043924709195 -0.18100427815074077 0.12869405329110928 -0.0655507964023761 0.15596364269974228 -0.09266476905778341 0.26855651842100525 0.04554788629484556 -0.18593784719704964 0.010432638885630634 0.0789285361564912 0.2844510755308193 -0.2652854678130148 -0.04909798395595447 -0.17517316795673293 0.1660434950042618 0.10166163338250117 -0.0584878342633496 -0.06325196498777774 -0.06408747851924798 -0.03652297224670068 
-0.164800329911573 0.036599301593102374 0.19346276116263136 -0.14515525969879564 0.18983615040557375 -0.03722467632804251 -0.001553249574428167 0.22844590182132146 -0.033195524731766214 0.08532681656962875 0.18882921444989997 -0.02363236468969321 -0.04786264788773063 -0.23882696373746018 -0.040338677504220634 0.06469341308247488 0.0034322721750241476 0.02132975478777838 -0.0735843519108007 -0.028178749059994217 0.05046647015220199 -0.038748633671746184 -0.16316149882796802 0.04686976821652782 0.053568345950517716 -0.206580310123368 0.0939998866495305 0.15543496643573126 -0.09639714660852582 -0.008356147583050958 -0.20510456972470187 -0.1353085229689717 0.006476064167551102 0.2398194454545503 0.16021158114365752 0.023986483485909326 -0.09865474201202276 -0.11731617052198201 0.08881062445795962 -0.16033175933525606 -0.03861845638985489 0.07265317352875886 -0.06368446051815685 -0.17703377210478666 -0.1279621372438701 -0.15258692815118635 0.08046242562796344 -0.3263423714839355 -0.028968699764392293 -0.16887892328461132 0.17555561912769443 -0.08989971956837643 -0.11242691358332962 -0.029898718822337744 -0.0567690520906466 -0.1169747442212452 -0.0404413509834606 -0.09408450421000648 -0.0798231695805935 0.002732550701148047 -0.07162891970848094 -0.05657229144836002 -0.10514962927517174 -0.04698085793295971 0.1317760545829294 0.09029999950264496 -0.13602335727454565 0.014732252867524354 0.058627278414748366 -0.12355411333075882 -0.19113077322704206 0.13955717918571564 -0.03319251953559728 -0.05066162136559845 0.08641061813171312 -0.08542108673640629 -0.0795111896677731 0.18535220403063313 -0.1862415340299427 0.03618175925326346 0.07544657431605946 0.12378847040618197 0.0013225432199391843 -0.15357114626986185 0.03435476935831458 -0.10514182666844887 0.24622986839376054 -0.02131524512696711 -0.011618571170749274 -0.020015918897031536 0.12932521098406596 -0.0019976366493530124 0.009290677161725724 0.037289086416774184 0.14136192100430792 -0.2627655277512019 
0.012925479614584541 -0.024760304684454282 0.09161820656032485 -0.004362197010551523 0.0777061985763734 -0.034640424230331986 -0.005602015494655441 0.03417404416226835 -0.011291471375787409 -0.04523040852673573 0.01643348690914719 0.02833216891419146 -0.024476094443217328 -0.03398917813764846 0.045623915659062854 0.07414868183222903 0.08231832517608018 0.00875413241298475 0.029746753857926182 0.12819793824591239 -0.057344745823748884 -0.015025748595075345 -0.0014143763454780238 0.04772715227250877 -0.05571325712651987 -0.010983992291251505 -0.024541570913555508 -0.019591240112024965 -0.0002184279845313718 0.08745454572853567 0.012086840081544275 0.034555783472374244 0.05361750810819243 -0.007821536550734101 -0.08487420128427982 -0.06711182633164718 -0.019914511522952823 -0.03998567815082169 0.05595233343691291 0.012236153850344135 0.013431843312281432 -0.019841670062686435 0.008660710203997278 -0.07892667987348463 -0.11885313545863152 0.029440840119425257 -0.004456931468202056 0.014534940169171583 -0.03550410423372822 -0.05005559747267519 -0.026493667888476128 0.04887915105957068 -0.04523357599678403 -0.034240818532224986 0.002028790981909155 0.05631441475694796 0.053061932778105524 -0.04440818003966224 0.0656408797539755 -0.012363199596981692 0.008756735311872835 -0.03333828092992287 0.034264650030712746 -0.049727164571152005 -0.05537442635555968 -0.001412395677807163 -0.03358116140076708 0.06805169773934926 0.003971903457517102 0.030836058086957396 -0.011739556081635783 0.12497241366378486 0.0016472237490299014 0.010764527632934557 0.05016131495283681 0.006281806157850762 -0.015147199946064213 -0.004906853772479582 -0.10082243305712044 -0.01167016879465879 -0.054004126388953695 -0.004069738224748559 -0.025131730293090074 0.002897174777399222 -0.07298413397538135 -0.0006504875221789018 -0.023011323588753217 0.027280463425751824 0.015399970351350474 -0.006500333609395451 0.018031501816199794 -0.05389266031056109 0.1346644097448549 -0.02877082490808323 0.05606228720745616 -0.031746665697036075 
-0.11818320078820756 0.14373452477058785 0.04307787423831764 0.008459736310893728 -0.013243867758203241 0.0160425866630639 0.12784453165832055 0.015273278050862324 -0.08025784421458013 -0.046247555761275635 -0.1279926241728236 -0.07329180273919345 0.08103632200799649 -0.0888784059798877 0.026397327007982033 0.02022961642426353 0.014156605225722489 -0.19414775071083015 -0.25607319142247953 -0.13992014340111456 -0.061643618131779626 0.04876136145326362 0.12310923184895979 0.07414770076833015 0.05626081991092405 -0.13004521223140778 0.022325104608966903 -0.06993794460569416 -0.016314674645280847 0.16644123834392635 -0.12611383482593932 -0.11655221757893958 0.11766436076812056 -0.156732397065842 -0.2849498517681692 -0.121978419228117 0.1815720049822086 -0.033362905459544324 0.030857959814809266 -0.10710738391319263 0.1272942103345991 -0.0962353424871195 0.041592910133119596 -0.06774963525740162 -0.054962116137401575 -0.0386173740956536 -0.06162412198817382 0.05530327176331233 0.02071987525106745 -0.153706123035594 0.026502335635842793 -0.029847727055259746 0.07363509905020432 0.12388687450891978 -0.03637117921520949 0.06604878003891916 0.043620130168069655 -0.3316153082621233 -0.058245570766193626 0.08174736285731485 -0.011789728391872905 -0.2560432537827201 -0.07263679369477363 0.07516252999049497 0.1396929597417446 0.0806301256347246 -0.09610161143183932 0.0010901071071144786 -0.053399646613004746 0.01405742644419383 0.19348214006206726 0.1565223558685389 0.03127288956737073 0.057441742114748284 0.06453424173335325 0.06120707721197388 0.2416009049412957 0.1794289768245525 0.08099657405253835 -0.08692974172559674 -0.13034062424151122 0.05696908412062166 -0.022412108832415106 -0.15905281167360646 0.030320751932971436 -0.11046833100308827 0.10131624213987574 -0.18784654693336097 0.06214591107088921 0.02185912064084045 -0.03478793611700988 -0.1654498397987911 -0.03454458663176996 -0.003545381189095791 0.09351018485952778 0.00287266581180408 
0.010285325791313039 -0.006717525513224158 0.08632987136581413 -0.0648859357350119 -0.08517410730479417 0.009557802823361303 0.029120398673813455 0.16119028484070083 -0.17841179397372384 -0.10858664810853273 -0.13634234317495444 -0.03756833497716049 0.06148775854437577 -0.06554245743363858 0.17278066922729995 0.017133209355697315 -0.16560374008063414 -0.1871872116500516 0.13510463145516796 -0.08521462632429581 -0.037133130156695955 -0.14955378329956592 0.14601881031291608 -0.09374021233305728 0.07953944009872897 -0.17676400728736838 0.2663448535128528 0.0657416178955586 -0.012537716632406834 -0.0645438300815952 0.18014365270219196 0.051128100512696714 -0.11587503602755042 0.12239831613462981 -0.0607151856106 0.16088322806059963 -0.09370900595805148 -0.2660125159618488 0.08656028012424972 -0.00780670183389743 0.18937533021376235 0.08191213778298263 0.04300725819057634 0.13081735815472628 0.032483093638033644 -0.014166909835345957 -0.10902092902852813 0.020286589212665868 -0.08573655610713889 0.05760354216943869 -0.30289147129063815 -0.11088772802260531 -0.14343737690343178 -0.008066681398417078 0.061132854218608555 -0.06997215141058857 0.08488798233129179 -0.04463847947670424 -0.01895108756530214 0.15942113356145363 0.12936126751586136 0.08497946910703419 -0.09061885218701812 -0.06509008224445602 0.0443147272369737 -0.08196328723931853 -0.06696058375745986 -0.16639033954104343 0.0357080550697594 -0.08061029022828943 -0.009053384164610177 -0.149854490592454 -0.05097157502781501 -0.12553220890451647 -0.1715247634398337 -0.3349735555232692 -0.0004408757490847751 0.17842622665363123 0.028242669951805525 -0.07477950396867504 -0.15761448859085414 0.06015454345085734 -0.01803414123677398 0.07257185180083185 -0.11589915441541469 0.05071536296794884 -0.1756934519536643 -0.17713350148847343 -0.12103518322645637 -0.009657398623416679 -0.1768063869975504 0.05787508275370367 -0.15723242691905215 -0.14494488066096034 -0.11814593718305098 -0.06032710781158258 
0.06326729161031437 -0.07749670808419593 -0.12158315874352216 -0.04967342182780047 -0.06821743075205092 -0.03913246238478206 0.034252827570279205 -0.02722689635407452 -0.13241527042290788 0.01627604079206541 0.08114496452244455 0.12638599842073445 -0.024587508169280164 0.016127587451403094 -0.051320537488325935 -0.1166286377103092 -0.15479297166916714 -0.11128569307258697 -0.1408318144369087 0.07372192693417337 -0.06369791974373165 -0.20404408440077448 -0.20550890992120693 -0.050951076110230746 -0.09449806697592494 0.22384769632389845 -0.07737595015672252 -0.12390505522956652 -0.10491169752975385 -0.05387223578825124 0.10430125295692198 -0.04064498186902975 -0.3330561575527218 -0.2826264870641156 0.18171851001630254 -0.06819827262718707 0.03846800659554622 0.2203457016672198 -0.2638345240177682 0.09532175649977388 -0.12825974615394448 -0.08051280743169992 -0.08507581601763617 0.13321931100372003 -0.10913292319316585 0.06982733282151594 -0.10272967578205416 -0.20229872407704122 -0.08828007520587475 0.07686030088433474 -0.045927344591000716 -0.0005184141175166811 0.029414192426393607 -0.04587628146608501 -0.18488681530921655 -0.15321193959863483 -0.03401013293708409 0.17812668771394988 0.07807036713032318 -0.07649750807276508 -0.02752273610684245 -0.057762308118600704 -0.08072775156399457 -0.040257302504220854 -0.2050413553354012 0.13842091760747985 -0.19867502395439893 0.0668139974037197 0.10632919800173538 0.09094681419763793 0.03995263163794016 0.010560506762330472 -0.1519806309916442 -0.014208801165275177 0.043708726949895395 -0.0774067023387381 -0.07106726819520849 -0.14491576528711353 -0.07174415799548627 -0.020458222613937035 -0.18574614263751915 -0.10543865117863609 -0.2573049204892851 0.06662710359564017 -0.09353615571272304 -0.045914494823558694 -0.149408136737517 -0.04881379444231185 -0.14695250513172414 0.0952931369467139 0.1056488625145666 -0.09304615670398454 -0.1344206801125303 -0.09383441433523187 0.09601791915097294 -0.2840078271183883 
-0.20415989317473945 0.15402524132755105 -0.15072608751791852 -0.011869059594448768 0.13299695079388177 -0.15979860766236506 0.040953896532660974 -0.0354194459268013 -0.024420385738166 0.08353404361395754 -0.07608797898976433 -0.41882551721751865 -0.036133530911483996 -0.043126687525525224 -0.2343278053611319 -0.08833640661898007 0.31739290699479805 -0.13094310159850753 -0.08551661345034256 -0.016126357907965176 -0.07630457975264433 -0.16278176243238468 -0.1347707436701387 0.1083442370401412 0.012333774090900081 0.0012119993709087049 0.22084703040069809 -0.11043079138844464 0.10650201408596034 0.0941228401091373 -0.025744621389062795 -0.13841225011056224 0.054719908652093516 -0.04354317888608372 -0.04467757875955918 -0.07367665521587716 0.009118550101806108 0.08003648621925964 0.12653518280461454 0.20475792211803848 0.13385796589635132 -0.212908342477718 -0.2874909097360145 -0.13999203161576074 -0.007050022723740244 0.06410831157508023 -0.03236379074644549 0.000767918044790952 -0.08416441989264072 0.09269367319126633 -0.12511983444744637 -0.11847846688907307 -0.004685379314166862 0.04173312551319266 0.1670499942650487 -0.21711894804702953 -0.3022475049683304 -0.18111010886406145 -0.048534173047156355 -0.18429747032850524 -0.07347014938911924 0.06485293241716282 0.04404025937061773 0.0286688569938043 0.07239960810700447 -0.19053447657662956 -0.04957921570101449 -0.12234674615500388 0.08991717910458832 -0.34542739552383395 -0.201052736538599 -0.07229756243591474 -0.11329106320865394 -0.08709908305019222 -0.2621614080185542 -0.4152541833547428 0.03128641133861607 0.1301101433846381 -0.02948922643467707 -0.00594644608546728 0.04115822806014288 -0.17844111670165702 -0.1336630704900865 -0.18945097995334534 -0.010927339580607997 0.09622250554922794 0.09089719394666551 -0.10819287211307646 0.010053141833136041 0.12088099399464734 0.12701552073978203 -0.1140640725628157 -0.18824589432773692 -0.1842440857518201 0.05179367865722092 -0.08631665354240071 
-0.1025928125173886 -0.09800440786007823 0.128924721282529 -0.06403715768806612 0.03540970672992661 -0.10525845737313824 0.027655933698110688 -0.26276967052013467 -0.07919047262890498 -0.13270972923304 -0.06411171610069293 -0.13810824884235381 -0.013361133531799392 0.1031054785564974 0.06209560925202686 0.046833841456377236 -0.03415717509531699 8.110968028989142e-05 -0.18359168615944443 -0.1840234288526975 0.06045639324144218 0.12108042741669311 -0.06359198339956627 -0.15363580200740423 0.10357889958964056 -0.2017353167031839 0.09432456274236974 0.02847491015176472 0.04361430676673247 0.022132351913982124 0.035491158532376166 -0.04048913333150885 0.0742005693042153 0.022230702015344026 0.013631284206362901 0.13909404872188788 0.0773425801469229 -0.05666692756508923 -0.0005490128270312975 -0.12577208984023722 -0.11444447633657787 0.06238410977977938 -0.03845825291921943 -0.023935427456921364 0.04784967862344636 -0.08433696784778426 -0.10206854386046643 -0.10349892537009968 0.12846721328640545 0.02641461087934613 0.10542597862622126 -0.22822463836514667 -0.1698325406461883 0.19565284437237784 -0.16713493057255924 -0.04628526018139937 0.03957347880199446 -0.17435412814960857 0.011720798064356351 0.020889043294196375 -0.17330974339895866 0.14368408750263337 -0.121257275353724 0.023912535552820156 0.13267260456740176 0.0905259637079555 0.02323879793794323 -0.08608158646607224 -0.10589380046877432 0.045878918970830435 -0.16118402059704068 0.029766175230110565 -0.009076492987925327 -0.24063139106591205 0.18956887819876309 -0.03082865475908315 0.05668482909166306 0.0013403068164580814 0.15707422481296426 -0.0307571203384595 0.07195311415983746 -0.17243147380453863 -0.1830655269528962 -0.14821927458820947 -0.1311203414462888 -0.11485429814721301 -0.009971183742373973 -0.1243866875019224 -0.12049293473308706 -0.12956918073231286 -0.12388656507270021 0.09236400144385588 0.1374308390872466 -0.1750858405236116 -0.18259962447699113 0.131194750390194 
0.05914877773162785 -0.09000565209820327 0.033505037653277545 0.02764840865245049 0.006485973330525374 0.04616803622881794 0.05997431338406118 0.08260354313048336 -0.0918568282436401 0.14427257636943794 -0.1585189719330727 0.1433545700776424 0.040402458909392126 0.07035824487770533 -0.03694300363297157 -0.03584810422704216 0.0942340133429571 -0.07571707471723228 0.04023995153538844 0.159861862231507 -0.0362231594830632 -0.07811373457831107 0.1696769283773252 0.042476649839006564 -0.06682059537278981 0.07407808239734877 -0.12132622186379431 -0.013025667218577546 -0.10050621389031682 -0.08749558052374393 -0.03887289217705578 0.013367518928120853 -0.11480270808337065 0.02915445882971119 0.17128851632383477 -0.10542822495937779 -0.09835332959253097 0.08650466415612497 0.02853621619606266 -0.1521137729795146 0.1037624378593803 -0.012430249355458273 0.12301928988257374 -0.019567195835708432 -0.11076664189994832 -0.09000982393304435 -0.08024229192478034 0.053055190731196494 -0.1787210581661552 -0.05646102254572052 -0.05441293849405512 0.046183878146172294 -0.022636322448730446 -0.03820038152246055 0.056621497972668265 -0.009465713958540622 0.038911821733809734 0.03968135769989972 0.04597831399441727 0.11154182773983716 -0.18878494874621085 -0.13069723728073715 0.1474638274452942 0.06666547102068228 0.05229823176435549 -0.17173483597552575 0.08181441706401035 0.09561992679015406 -0.12236583660134916 -0.1721938540885804 -0.041763611080248016 0.07593485120897683 0.039284199530298214 -0.017789101063275685 -0.16887692507332971 0.002676017002947755 -0.20844245965348288 0.09859002756646582 0.05278991969017534 -0.04246089670850157 -0.06314095975186122 -0.19037801624999867 -0.0941753162465931 -0.2920069964424307 0.0704914503048369 -0.07152993024672749 -0.08163597711252242 -0.09886925594595865 -0.0845409186564858 -0.11077253457668519 -0.07129422448338113 -0.06318469379524903 0.002680395052144288 -0.15189466381469954 -0.06051716229326374 0.0011459402618998705 
0.2004198587107514 0.010013812462140706 -0.029008172920145733 -0.3068706082091807 -0.35735278882410193 0.1033306880452886 -0.05612685485240711 0.011285346561268316 -0.03487538986462507 -0.14363383369394472 0.06584785045138927 -0.02851357534853723 -0.1455615486079472 -0.1604441808322622 0.05138066689985196 -0.14655901014113248 -0.26369194761979453 0.18219487041528973 -0.05870348320612833 -0.11801862105653005 0.0014083337389232929 0.09607889082004546 -0.037055342545522126 -0.26167054850387356 -0.004388335226468069 0.02507854989741679 0.08542357452205081 0.05550929396182224 -0.18728115366100162 -0.2204739606553642 -0.007640028223449535 0.08124486291686535 -0.03408385191191784 0.03798860168250024 -0.1376495539135696 0.11776057557216106 0.18097965737580973 0.16036372370049579 -0.1270361162352145 -0.24023587630841914 -0.09346428197219714 0.2563407176092749 0.05505975709384779 -0.13005627271704864 -0.13655989405632807 -0.03343278519280245 0.08646365099715522 -0.0739445402091069 -0.15501865143130822 -0.25213749774046446 -0.18169270191679734 -0.08726600368642347 0.05680301910173243 0.03393709454631176 0.10049980367669006 -0.13088077263520206 0.0002516080378034464 -0.0281491326126608 0.0005444348386482404 0.02431230383456479 0.222852065794267 0.0057823167347393544 0.05918536651211467 0.24623686804954817 -0.02835739950850782 0.0478233829284434 0.013512525935008483 0.051210057590760555 -0.05083213097708154 0.026853145248685168 0.020989287584671862 -0.0017820203048640407 0.2705016740781789 0.020421147922366763 -0.038962266446113586 -0.3936913204331543 0.04022698892139697 0.029630602689424097 -0.007165735605615944 0.07038087020462815 0.0018259660905188342 0.0003842808045175985 -0.0521605348140552 0.08942851322715699 -0.21825595383504318 -0.05185738906718326 -0.08913060874112654 0.2345357490268713 -0.12350952561904652 -0.07595620301888013 0.041398470276428186 0.14723802790268473 -0.061402131318374596 0.025117743750194016 0.008321455744344706 0.002389486731813719 
0.1324580345830855 0.005551129423055188 -0.015546148805541534 0.04939491467556286 -0.027552646239837737 -0.003564974012597449 0.07834445897579813 0.045454780520441516 0.05346581041465513 -0.04697859922854514 0.04470258444247344 -0.06422301653521864 -0.11982865903611603 0.10986146858003866 -0.025327490428531073 0.10749081072604871 0.020593052881440903 -0.08863954813097509 -0.02636949780629095 -0.10431817714389677 0.003734550436246975 0.1035545872553603 -0.04749820233152512 -0.04454846573907049 -0.01528377899837731 0.007253781542908444 0.06231936896265774 -0.056346551242158135 -0.017665403878156412 -0.03936184248170893 -0.024360059462288683 -0.10463025339822561 0.06384876352727635 0.052127178695284104 -0.08411589966575143 -0.13443891920456627 0.007669101024564145 0.09024155367252973 0.06585954133739892 0.09946926748400628 -0.007405658753439723 0.021123068834021874 -0.03693565872815972 -0.04015238579710879 0.0960139675754539 0.07529706523015203 -0.07384291145108242 -0.026123521891486402 -0.09830846930831527 -0.007465660656634304 -0.06846470904079893 0.009821965453772367 0.025180768197599547 -0.11452432393997115 -0.08618422644626882 0.01121706836630682 -0.028195879639507353 0.0019634347933467607 0.11712803237823037 0.12196242565605837 -0.025409114890025272 -0.04726392551980015 -0.019461927173033158 -0.04168843437304072 -0.06196494668583707 -0.012826835501523783 0.03154220846656815 -0.030649810325931427 0.07578192388240362 0.15994485982813425 0.023553424562213036 -0.028201511064211062 -0.08231540538470432 -0.05866534815260492 -0.019973029504642702 0.11553175969824728 0.04694466043571199 -0.03285327812167482 -0.07138923769973404 -0.09199503070068807 -0.020702120971239264 0.03216538496396323 -0.0019234973524626736 -0.023698689158303445 -0.07296223933163486 -0.03131995449774202 0.013882946356303768 0.1495753353997283 0.04703962899953148 0.08137713007143876 -0.0265628650270316 0.1344389498427305 0.1514690131685368 0.04882447571512537 0.0019676511437713333 -0.0406599879019276 
-0.0791555463338976 -0.0316313137655205 -0.05042480740058483 0.0035314897747951565 -0.06804857349551091 -0.07638348049827047 -0.056762758526512205 -0.20065385835847624 -0.0961470674837693 0.1401582163360983 -0.003970152468880582 0.06965026934606822 0.14075937523683682 -0.03410581383191948 0.06266967386160704 -0.05735542782500745 0.015871782862431093 -0.1853792260152671 0.1454854851597167 0.09612151491034741 -0.04409895164477399 -0.07648517591560856 -0.06439292301462891 -0.09246322721289774 0.07093812185200445 -0.24028557751872223 0.0909489921969269 0.10142911657189672 0.10996480453053727 0.06507209778934568 0.08972288216046373 -0.09270613643775641 0.1950353321187088 -0.07906283412753516 0.011678875663734862 -0.1282002645939573 0.18490906188528347 0.0880178269443889 0.030519215754541872 -0.03263626526852548 -0.04049568605065945 0.04544416975273517 -0.13379208160341935 0.07481899058796555 -0.19049317888858253 0.059618001631778654 0.00029933017721187836 0.10270371536850387 0.12189839184497366 -0.20832649974770773 0.13950725414276277 -0.010469072844597183 0.12585471408756435 0.18989723492593735 0.03152158937747752 0.10419255857039578 -0.04858456007986153 -0.09544922300536451 0.01831759896797826 -0.09818178092212497 0.17910823116062338 -0.012355082008082607 0.17821531998092216 -0.07238707700833286 0.1531052149835622 0.16438781935524482 -0.07725912303130814 0.05663887267954375 0.004967431771091266 -0.040564358763965254 -0.06924702153547976 -0.02492047948013584 0.09465640594004911 -0.15146674283648373 -0.15754443628713014 -0.08563911281015893 -0.07173816484896456 -0.013425408943369115 -0.05100695123550602 0.13126642435269015 0.07366186040916158 -0.1580240422946464 0.08488762309036763 -0.1594295527740687 0.09398872949929468 -0.04511463971045008 -0.033299906499776405 0.16802301975115458 0.08473968740127832 -0.0028726705989269136 -0.023135556877934182 0.08553519614167955 -0.12404709571049546 0.1119177922950956 -0.2128568538535006 -0.16259302239286488 
-0.000218661281524107 0.1632069379235197 0.07196390885696057 0.05260555533838719 0.11554921016127805 0.08634604511290359 0.027758341239375765 0.15611806357585145 -0.06127389349129056 -0.013995943530550859 -0.25457045089117114 0.04636692410077454 0.08018670047035784 -0.06250180588492572 0.009385540045466096 -0.06586801865450308 -0.07977077866733262 -0.046257183809022766 -0.015897198224598858 -0.10946765390126151 -0.015845459457713085 0.06868423692675127 0.020177608861438944 -0.0027343895889057404 0.0907899606871661 -0.061675939012780005 0.20002032305976675 -0.07611621337040834 -0.1284353394044067 0.07569891432008119 0.16569100600469022 -0.06427181346038756 -0.11309727557673543 -0.01547614127215208 -0.18558540245778804 -0.024570568062732386 -0.006763654323521232 0.04324847345693302 -0.001734688910407275 0.03808292295777353 -0.043489972974592 -0.052272291012567244 -0.042218293245875886 0.04739515837271329 0.1483138897247984 -0.115005232702047 0.1136344025050275 -0.04815734522523138 -0.16523397538046836 -0.0036594746598106673 0.20897996503253366 0.03245512041912104 -0.047699692383292934 -0.09853661721608019 0.10289676571523532 -0.09786982905328306 -0.10951412195531962 0.013733146211837846 0.11194355918850742 0.14692115599774108 -0.02430215656746875 -0.04996636291845652 0.07571187088009589 -0.1314045213462182 0.07740011578563982 0.022467733451774368 0.1782321889490756 -0.0022321952161831163 0.2579157498643098 -0.043317606824013484 -0.04423626754136477 0.03832284977704331 -0.011240852090470451 -0.052191573107283167 0.013902697174875097 0.0008472545109919617 -0.06516309642168179 -0.08309929646221773 -0.07639192534005082 -0.12905971490636733 -0.043115107575743786 0.026594396088819746 0.08845910661925459 -0.06135141478208622 0.10700954791824918 0.017004535437414123 -0.03051437488156013 -0.19624017757558673 -0.06154525778412084 0.029590149269465193 0.08335358619819036 -0.005929572603960518 -0.010508309748845673 -0.11373395507577036 0.01735766011034962 -0.1406896193273669 
0.10161653410255629 0.0774925263676711 0.006581535379551054 0.01758220488764749 -0.07363707765607945 -0.03546850985839567 -0.03915446030529852 -0.013428661251404333 -0.08769775793345096 0.0012197712102111214 0.021532847243077042 -0.04292241043374217 -0.04725199770627089 -0.08687506026606703 0.0027932647325195196 0.016580651659314043 0.039321461620199366 0.07723783966651174 -0.029617020451659887 0.009621803539144179 -0.021889984909786754 -0.1347458646562612 -0.021612895111843257 -0.04900398645811265 0.11159295763204492 0.0610081885182141 -0.04539572246983451 0.056430296530726454 -0.041842768471048224 0.08038892202505003 -0.01032969890787862 0.08056010150208676 -0.03136174852089466 -0.014617178033658957 -0.048001159547680965 -0.04591302258093138 -0.018690317731377085 0.01764235359946851 -0.01560871384671173 0.09223891798084052 -0.025683212573511825 -0.016005902881141548 -0.034532309538814615 0.02342764203637527 -0.0630219090636175 -0.06629997078327876 0.09244221850471686 -0.013558955554908261 0.002024666612338539 -0.05095604439047413 -0.05173943431133391 -0.04600559808414132 0.06542082491405822 -0.04519435607850879 0.0017667413452649551 -0.04154286900234666 -0.024858534496555958 0.04349520339211279 0.011983887631003203 0.1121543652394602 0.01277771912878927 -0.05648967306182593 -0.009222970692482499 -0.09115381338810885 -0.048777457598075225 -0.028889736668846727 0.0023157283346647655 -0.08582575492326763 0.00634922827745126 -0.011521451399284769 0.0007117369151622216 -0.03422529376413285 -0.0388312649890043 0.023154995868357956 -0.018808107635605455 0.007549881221461895 0.017993433972311606 0.08521278743195795 0.10010138826579057 -0.025978959411911348 -0.03320119969553755 0.01454823521479146 0.015068815114570287 0.05346757387618966 0.08212248159057847 0.03566544333132999 0.012293309960821949 0.001629572894598899 -0.04572342491961918 0.04668985237931913 0.035147937644832185 0.10603274416709868 0.0471534490877151 0.0035026314139251146 -0.06108861692823526 -0.018375633007978346 
0.09844020243314296 -0.1643057206965163 0.09081190799826264 0.02258359103781416 -0.04837828943625343 -0.14872126209497938 -0.024684060818892337 -0.06573947126217106 0.11848885461202423 0.07861624945701227 -0.15695410818504854 0.22926568662227695 -0.11441196248356679 -0.17757777652619877 -0.05145380678484504 0.15339106776404687 -0.1830400901403917 -0.159344784512533 0.04328569532720438 0.011759251999678757 0.03472834483813573 -0.018621311584091464 -0.023885959795479646 -0.026112726632552125 -0.15451893865510197 0.07305168117244774 0.06301290326773475 0.028309720987407784 -0.16169914667189697 -0.09844494260920877 -0.12169629220965628 -0.13502437383619642 -0.054789065492337294 0.10233536092912018 0.059396229140193026 -0.047767417714592385 -0.054593942227527316 -0.06713688431996714 0.0668052230466278 0.21464098682124186 -0.05571153179310111 -0.0436273945303851 0.07858580720215629 0.10997309780438445 -0.035272966318725014 0.05175066329656939 -0.01841509388330372 0.04858110129220681 0.004705819172360299 -0.013752062429090583 -0.13623667381861565 -0.06643194194195726 -0.10658741941696556 -0.04847697931558804 0.014392560994253048 0.007338855475213401 -0.14023293877016538 -0.045663538275678414 -0.17844163467383606 0.0074913591840008635 0.1679650043174837 -0.17642722824186077 0.004621445919918037 -0.036405334499486804 0.12796451722290153 -0.036227730433809634 0.03538929483773354 0.10621484295319997 -0.038347297472344805 0.04471652966734915 0.11743153030889256 -0.033476693946910524 -0.022273102922480303 0.03181082173970547 -0.04981907309983334 0.02166415557321877 0.03837221050988515 -0.08458025055088383 0.06223092746452522 -0.053413233037434275 0.10642942949623097 -0.03804480159497188 -0.06794814989450183 -0.09289095248478192 0.05796942144774168 -0.07479316325541989 0.038012378991978596 0.0888777670967904 0.01824472942999882 0.004595250985365389 -0.020763853142914544 0.10257044898339586 0.0017219135757883318 -0.18715063353905362 -0.11915035652239368 0.056962667184010066 
-0.026421615713151037 -0.057554801099714885 -0.041009464041774184 0.03486298795472686 0.11263051253666198 0.02572372930792192 -0.04460229924503314 -0.04903182526383098 0.09683106392747788 -0.02394470974523325 -0.029268795480939264 -0.05740665042035213 -0.08066304684185868 -0.08671589185064384 -0.038523581376038195 -0.04071307304993778 0.047251952919556285 0.09140941829332203 0.044336845915614806 -0.004456144982658808 0.03289930626004228 0.02582404309893941 -0.05159714149466929 -0.047913769665691275 -0.06561365238616498 0.0554112453038857 0.03740149870979884 -0.04240747350970193 -0.02928141812304177 -0.009557178025538052 -0.10191094727408721 -0.025934638841132833 0.09663902992869887 -0.05463872275832791 0.08882720762860463 0.11339213553382335 0.07614639181851422 -0.0434976310166831 0.03551885118757314 -0.0014894196020104628 0.04413579238794958 -0.046075270371761956 0.09458068347723883 -0.051779996681272936 0.10264333707627067 0.06737680264052605 0.09137958547237694 -0.022820985629139503 0.04479233227839585 -0.02364274814303016 0.034142816120246805 0.03545123708981895 -0.018319926627040017 0.06536483627095956 0.01700351880961315 0.08325833584460605 -0.09448787692644725 -0.022801561291470308 -0.10693364960250465 -0.036011378196294096 -0.08697222982515242 0.0199141134831285 0.05049787249131495 0.025753901674749367 -0.04100313294454335 -0.057780613195706966 -0.013282408320169303 -0.028532911900693545 0.03327393317278422 0.08140059151694803 -0.025695072622337157 -0.01631808744423082 -0.041020555239266 -0.016996360009875016 -0.016843534849555246 -0.01258503313172933 -0.07754458595949607 -0.02685379502681191 -0.022465757548049983 0.1278741877143058 -0.12345632405127628 -0.03582706825084628 -0.041628185986084594 -0.037316691448572935 0.0017821222931074013 0.011722934774191092 -0.03355793602897439 -0.00739266385069648 -0.03393704536326303 0.004680980205460754 -0.03977814192591624 -0.08674210581464704 -0.039641783695905604 0.01805265596297114 0.07520596816164642 0.11251209763942754 
-0.035702995746359885 0.09918032460726289 0.022790318682927125 -0.003460808244720324 0.07139498491659231 -0.0729904550825916 -0.04208769249060212 -0.009230634718344382 0.018455478670120665 -0.037526878823708545 -0.042556156185535376 -0.00868165049647444 0.10131054447955062 -0.050950714936854796 0.1004258601700114 0.07336546367474875 -0.013005605238268044 0.13653205447559968 -0.023319526182246877 0.10169546702086378 -0.008405366318842717 -0.02891878710609326 -0.029489498465267286 0.012488379858275746 -0.039783897965388657 0.0047739333054917146 -0.000613136373667854 0.0026672797352949654 -0.05036257945952326 0.026516661157785962 -0.013362463544462326 -0.05724764442333575 0.05406173133761399 -0.01861313442321784 0.04624294354110758 0.0250282726961247 0.036056392622347194 -0.005434425515416553 -0.036946325623428644 -0.07358558155985111 0.022453104428875447 0.10367197565660823 -0.0774700283277324 -0.001773575407501307 0.129771375144229 0.0050548035446965865 -0.021021941255316957 -0.10519665874150037 -0.043715519953944154 -0.03589651115350097 -0.1091864652334705 0.13998458705216835 -0.03900641694665675 0.08028806097667071 -0.10155639168669357 -0.0777159957848711 -0.09825945089232192 -0.0183355786955341 -0.08763122350737008 -0.048104750305244304 0.0809648837976754 0.03459467233272529 0.04131759827366834 0.03375294053717266 -0.09184204370570612 -0.11336334216155028 -0.044480528790311655 -0.12487716725876491 -0.04709405053334052 0.02130824038673537 0.05155745231120616 0.02015085580452256 -0.04355547295956067 -0.08086294157497467 -0.018252289518603373 0.056827796971090784 -0.019384901224990776 0.026508469481558255 0.14259397046400984 -0.00014861421823726987 -0.014566337351529918 -0.03278942823779681 0.14253453832388918 -0.19792868542104616 -0.029540406940154737 -0.021198878693701243 0.046707115949221494 0.07477676829611693 -0.03954714586269273 -0.06305991786383987 0.04056323130936037 0.10190584746652671 -0.1826791918181444 0.10469693401784073 -0.009142502904759289 0.008111527672112859 
-0.10334237790992683 -0.25726553552341397 -0.09795893895175402 -0.19097485951734608 0.09206417529365946 0.023818868816480893 -0.028282127232473912 -0.10276354741420153 0.07666260340175599 -0.1596397155742965 -0.034899145799884214 0.15711400643324647 0.0454164630892062 0.11028485750083786 0.06960081716243814 -0.11601389825641273 -0.14065490866630914 -0.17057196262009575 -0.019500735096607973 0.07932300452738462 -0.07488157923376103 -0.0708556211862541 -0.45807014035716026 -0.13600563885378952 -0.395022057141849 0.2694527017686602 -0.10987965879670025 0.06230186712237025 -0.08248311090133903 -0.3317384293323596 -0.020092337038620976 0.03455537921865393 -0.03939946537469276 0.10909955987396466 -0.12005217411652042 0.14244652587099574 0.23388338029647954 0.12625865401946806 -0.009767973777066218 -0.1514380116771367 0.11414109978054127 -0.4947819858863716 0.09338988242554579 0.16301078297183627 -0.042511786621547476 -0.06547519556619961 0.09122691983515545 -0.3217795696276059 -0.08258063183092502 -0.2085841755379561 -0.09538866637976062 0.013679546950164758 -0.1506212908784794 -0.1264473580760837 -0.1146024561585471 0.18153692792508383 -0.15282899816486895 0.002955645372619502 0.043241825970436666 0.06222067208720561 -0.1777053932741218 -0.08553393884058924 -0.11264253557934785 -0.06989222655993096 0.17743166583012412 -0.07776761092916742 -0.5743607913418975 -0.16762057592452687 -0.15384060929169738 -0.16999370391245372 0.010195098374156226 -0.06285308091176851 0.14461998628026765 0.20432144340370853 -0.1729357508790675 0.12762547953951242 -0.3486175468925085 -0.2740021392300839 0.03982193793929118 -0.1830245235689561 0.22932557791345282 0.16717859749220743 0.08637676927197106 0.038114162344305584 -0.10749500699670489 0.2552532432414085 0.14484255647900876 -0.19636060578914366 -0.01875391250767709 0.07323649226839365 0.09531047090470844 -0.05937507722017588 0.04443732337497801 -0.13566687534920277 -0.17432669904789833 -0.22890015024448127 
0.15818478333961597 0.05690205392523764 -0.13097470783044976 0.011885386351448523 0.05626883759096143 0.015167863436279334 -0.15253686531851676 -0.26383038874060866 0.08575355341695003 0.040430078681609555 -0.08232744534926606 -0.0571212583629664 -0.018959176531649392 0.12655913538106378 -0.033414968231811795 -0.08399492541876337 0.08025980853536387 0.05630046163659764 -0.10671033979131023 -0.19510040389357827 -0.09873397363644289 -0.07808678094643506 -0.11036443763600355 -0.09019834704962391 0.10932991553984989 -0.08778203027239008 0.11219767474551341 -0.01033398987714281 0.0006252320082704024 -0.1005431457822537 0.05509109652825561 -0.02246660504604777 -0.07880741116125423 0.025201076832576566 0.013468664216923014 -0.18060208332377553 -0.0018454230324009206 -0.4873313521101087 -0.13107900462771965 0.11732312678242023 0.04150837938013991 0.009968472684672084 -0.18949043958341186 0.1405244531207926 0.10728773467984301 0.06652499637452834 -0.1111389530583039 0.14952154115518593 -0.15616126571795166 -0.182503078540462 0.12671911566640912 -0.23351855995612245 -0.1612865828985232 0.061249920640520004 0.11708849945835868 0.008014119806667223 -0.13895687742264895 -0.08305004739417937 0.11068792356855177 0.012288584783061267 0.0950259431718061 -0.06536256149222876 -0.2772231332120673 -0.059338837893017575 -0.1038724810194901 0.03359444192691341 0.06849086860079807 -0.10107150284977322 -0.0889695173222553 -0.37871368261859906 -0.11252443644009717 -0.09163805040947866 0.08010464144541117 -0.10301901542427525 -0.04151334917684225 -0.139093735806678 0.24757307416991567 0.13267381769531997 -0.07688543221654065 -0.03236645509780172 0.10814029271598165 0.009849865766967262 -0.027073854548779717 0.18719224619905722 -0.15623208479404765 -0.041825333900877275 -0.3162093705136753 0.23634995231547806 -0.016501609070987345 -0.11808638535611267 0.03094564282557056 0.10895772651630846 0.012841614675992263 0.11212098624900031 0.13086740229743787 0.04567854934243463 
-0.15515918051111108 -0.17127065038432263 -0.006900954349369783 -0.16961761314032459 0.050577211519029046 -0.02642307522567488 -0.05753541484719421 -0.17945241400792886 -0.027267838921097232 0.1765629270612006 0.12542642145896069 -0.09577656631104305 0.027727256633573116 -0.06750412860702054 -0.12642804073028288 -0.007987014847899487 -0.06888328910133934 -0.017746023826380436 0.18152134319698884 0.07923905377927001 0.013904291932250432 -0.15538987267817422 -0.01868328970043686 0.059825978720236796 0.05050368067256482 -0.11970613586670721 -0.03917621617092844 0.13742717258788387 -0.1366886070267494 -0.1049306510794946 -0.05255774357481877 0.04362677747216877 0.05765447533923981 0.14056968026809408 -0.12294044567602644 0.0905319222601635 0.1170664375721877 0.05222659033450029 0.07855878954979395 -0.09188409763948754 -0.08585770157119285 -0.3064975093663169 0.01202467439039608 -0.008004250732304022 -0.06623156014679545 -0.05881283287065109 0.05112763109412677 -0.13230498925492679 0.06007789399733784 -0.1485156694642629 0.07853598724080771 -0.22085355556753214 0.028461599078028442 0.14436495283486991 0.1648310925869704 0.14638108172255793 -0.08754277121371187 0.09311701909341558 0.040822456958982456 0.009069745064585005 0.09304870446446503 0.1233268488916224 -0.004467025632289545 -0.0675921762055074 -0.06391516548557653 -0.2474047326541417 -0.16818915502634713 -0.08963982009492807 0.13486112055496563 -0.07360861382429199 0.21327208768878642 -0.06082754083072533 0.07696434873658001 -0.08952070825697205 -0.07193881470379702 0.0819208941192972 -0.03639867275015624 -0.0015143870322347056 -0.1052679159367809 -0.12947050335993954 0.027069063669887074 0.004405776596836133 -0.00989514515569664 0.10742536883008089 -0.043859694493315 0.0738085048735714 0.2401697688189947 0.20044737711060998 -0.06805851356075691 -0.013229530036079845 0.10348751793287526 0.0755546063458638 0.09591875160853888 0.08838446018079052 0.11437429064738595 -0.12037002045883444 
0.04295959004902032 0.045900434845567786 0.01720607037937303 0.06012721455984758 0.06352080315958586 0.11690157010781471 -0.04596410631392485 0.014078589552617373 -0.003513504869069924 0.18362327039739365 0.10584705766666727 0.1630963991834054 0.036621233136467424 -0.03867162306407795 0.03591033715169919 -0.110228403668164 -0.09541619126966393 0.187662961906974 0.05868306614655281 -0.04275109354191213 -0.04527453157143616 0.10260403822689294 0.0796497462062838 0.2500010378244794 -0.4244071744254808 -0.00200565125136153 -0.11007938197353592 0.02485266784286303 -0.04821738300287514 0.04282909291545478 0.03577375740244643 0.009418434740585435 0.0407768395510386 0.0432109101000445 -0.11946510328995245 -0.12349036587793222 0.08897394086601582 0.08830897182781622 -0.15375083785520074 0.03674433173475605 -0.007210737735509343 -0.10038145081011222 0.030487554041314317 0.02783910207895185 0.051186698617117 -0.06520608217022716 0.0447779980004526 -0.017704104728785256 0.15036212439503505 -0.25086181497903065 0.10600849145283454 0.2006734229604037 0.11266538168670699 0.15466828362327154 -0.0005743451073783812 -0.19410066804676865 0.1038017580194383 0.08685028460145232 0.06440105290426086 0.20099437811840884 0.35528009352972784 0.12608847345309163 -0.13009091546120952 0.07927907129625279 -0.10895519517257408 0.06884175137406336 -0.1359853778397359 0.004101479594860301 0.07908370517832862 0.1285317241756789 0.0738793889768282 0.04618255491262988 -0.2341751184303626 -0.01878032477497078 -0.22324955413130584 -0.11102117371689255 -0.12496647395565647 0.12764363421530353 -0.0797676015999068 0.06239881808776218 -0.10535482207865196 -0.13697217923748226 0.021462388140899978 0.16269086049378614 -0.16225450797739127 -0.23336801137206903 -0.22438371794545492 0.02333188914956909 0.17751820944940294 0.06648890971376148 0.038230926950696964 0.02123241437041656 0.08912773852831966 -0.04844885445554361 0.08748740719576524 -0.11322763028953349 
-0.002875493770355508 0.04563302532735029 0.0917853435479552 -0.16279060466429662 -0.06635094211129106 0.11323307091296349 -0.1383056119038511 -0.16871251074052748 0.004436310960418512 -0.006805369698284127 -0.16667780092055304 0.12120241799690074 0.023547641371034014 0.05216978059199607 0.06058456312935103 0.08613249766926405 -0.09132977256632356 -0.07752370766892631 -0.09062650188600456 -0.015018415210749545 -0.0507503117506425 -0.11250099722804126 -0.05738743353659567 0.13239477023466809 0.18242833705888412 0.04172965778823726 -0.10339796215248297 0.11152703850566856 -0.13472342640354573 -0.11300256589861087 -0.10635342509264796 -0.07135363682395188 -0.023270160524371943 0.08946636819607703 -0.05117832246896315 0.022029765031817954 0.12464283282770057 -0.07643000563224309 -0.0780423627161498 -0.21383127344764016 0.0680613391443486 -0.10336227658576837 0.020746575947381458 -0.036472942750604066 0.11730882078223324 0.08745963511012056 -0.011868897233075978 -0.08384454837208846 -0.11364983209322492 -0.14761045481470128 0.052382162106624525 -0.06590421163401541 0.005405925106865657 -0.04262736694247126 0.11324638365347618 0.12865744204053692 -0.27364956501107984 -0.07313622496715454 0.08266169581215017 0.04092748916307267 0.0481040264082193 -0.16574338479163828 -0.0654336511537021 0.06798335523677823 -0.036908165162388006 0.01615669557805838 -0.03864489659081763 -0.188596604993963 0.0862513789988593 0.03427925074320693 0.0445913277795493 0.0903822217653412 0.022536346172444408 -0.015631017430746574 0.08382093687328429 -0.16015393133728367 0.11208698470655208 -0.012650269431514349 0.01789617113982447 0.0724027082522935 0.14319954334995752 0.11569779825380481 0.10910168206086658 -0.06815698943482305 -0.08206963331492025 -0.164234879289576 -0.09850476088767132 0.07728765804279807 -0.07604069087935034 -0.15852152646052287 0.08874902835416776 -0.034944737532213964 -0.09999276921833981 0.04634755866181935 0.12811665065419686 -0.09461256774800215 
-0.037944010436004295 0.09538898913396943 0.15088800858939677 -0.16986770476907606 0.008306291496753618 -0.11586210272991362 0.006651215373391664 0.13101479772545283 -0.09095132662923344 -0.17259204463300112 -0.33066917189023287 -0.09875052177325046 0.051244374179607866 0.16680814004838054 -0.07087828408929696 0.09066503147752218 0.4070257108806578 0.13666010819380212 0.0664089655706662 -0.05546350283852979 0.030341972978650843 -0.06308220777261174 0.021641276536591373 0.0460325186286889 -0.2229786882885869 -0.1464482491127902 -0.18744943538346295 -0.0028164450406970376 0.17201723319549514 -0.24314840152318432 0.10311815810661497 0.15960532273947828 0.06209263474739791 0.09959535824972993 -0.19210632782880607 0.021579867546306482 0.03531241434574154 -0.24235639774847909 0.060165791516148315 0.15024608548288884 0.13503032109618357 -0.43381793964003806 0.031783844214339545 -0.047289503743169536 -0.11765090734615088 0.10506305554189051 0.04910716020614549 -0.02236049160483738 -0.025880094771801462 0.1515539751067946 -0.5208995949654183 0.2745636519453791 0.08406131405025938 0.02735999341063101 0.22987268940818598 -0.043659199565278486 0.06516900486726548 -0.03991954048192032 -0.08953171298330997 -0.04223520378434947 0.19852892742693343 -0.15758200648212467 0.10839850625404694 0.05654642941696597 0.07200248555242769 0.11978000888321692 0.004712542770194585 0.11736892782852533 -0.07317704209645465 -0.0476973094271528 -0.30012802867532806 -0.12712726413446637 0.13884305483778384 -0.19792722242173072 0.04988882053414509 -0.11213439990236208 0.25337941907575784 0.003520688656318197 0.003958788296760126 -0.04534533240227043 -0.09617031658781235 0.07222368127840197 -0.1671163594131365 0.12369490794686018 -0.35634908338193855 -0.15850094493625494 -0.03387519158573955 -0.3786674672490457 -0.17488895618009592 -0.26361374333985155 -0.17428348809072114 0.14552654469725157 -0.11342491100351212 0.07560407520983868 -0.23168330248661884 -0.3568691261183222 
-0.061793198591066106 -0.016989663533120387 0.16187269893984454 -0.1591999456955763 -0.08418246048926803 -0.13480305179632748 -0.02349791284177809 -0.09771513051079221 0.08745084472431698 -0.11267828871010838 0.018539978785790372 0.03204273043630614 -0.12176265290863883 -0.01438633553802732 -0.05149239677520695 0.08012967684675838 0.14210156760480436 -0.21966431144898346 0.07302998747335157 0.05249812262350355 0.029506166817718702 0.0655894816393841 -0.20256839879391608 0.06840789437147932 -0.17971058158853567 -0.34603016383059537 0.038877186256174194 -0.11540372954266229 -0.00849677351523405 -0.23246417491577698 0.02636228802713834 0.11233013070363204 -0.012184527915724124 -0.16318277315486218 -0.10525287128936055 0.09252562422329186 -0.028713399187297584 -0.007751200094179562 -0.0199748562443676 0.2233684134139265 0.058190460909965755 0.006203116590464081 -0.10501429848689063 -0.05559682287721478 0.05442476557802068 -0.13236921394772766 0.012758985595517535 -0.030672126721466884 0.024325165355493332 0.004334636404611554 -0.1338725383972493 0.03147013416835188 -0.031540941826843624 0.0979933623092776 0.015202221081812737 0.015502068457384504 0.017526814902588308 -0.06815667609860832 -0.030287093519583294 -0.38223495950532704 -0.07192338282215303 -0.12343535625908732 -0.21648521141243993 -0.03183990385830496 0.1541382686231743 0.11971327597698557 -0.1544196746498334 0.05524549400079309 -0.14080935966042177 -0.08281950509425347 -0.07096546382461734 0.07843730223632413 0.010370332664680623 -0.2171904464615716 0.19074744557122972 -0.25779808482080696 0.021850548271308542 -0.19428610793562082 -0.1358274187825245 -0.06262788263881379 -0.2311536576144813 -0.09863102107824642 -0.010640605284830762 -0.3660156520267419 -0.08060358418427307 -0.34465073432323223 0.09831226397271972 -0.3409020789630538 0.04033663563990249 -0.33724829677467155 0.09592850052355313 -0.0862866838069663 0.04166658872540425 -0.02306488785993428 -0.0621710839858359 0.24252399649769252 
0.011863985299720674 0.015554000670304931 -0.0619738746264769 -0.0023173857874449126 0.056389588935334765 0.1454319816102811 -0.08379593242179542 -0.04445161639602217 -0.060169573660372906 0.053691784816735 -0.34605929480519027 -0.054444036059596586 0.03904578945293017 0.09680981528979911 0.11406054107874627 -0.1226764637796123 0.031348359656024186 -0.009367263137035162 0.0028010873145056297 -0.05291107134636228 -0.048605404403140935 -0.18046984964887158 -0.254761919787642 0.03318138347175627 -0.049747883537074516 -0.04608995638466976 -0.05238371028761064 0.15399956675461782 0.0574633594737373 0.061022879260841635 0.08136146726140027 0.03513922589442657 -0.1033911456330054 0.10160626800790265 -0.20226899214775512 0.08977748873789682 0.07145171363638349 -0.1996630500136475 0.0675227929499973 0.17473626478928703 0.23808461627319227 -0.03186481196785258 0.05373489242908973 0.05190273636210491 0.013103510817004324 -0.04441962376613723 -0.025158597653575053 -0.040945613686839244 0.07583027789485772 -0.012472124447706071 0.11820800388913476 0.16158340223052173 0.09067318058506971 0.11033490042227187 0.20581799911740392 -0.12211761500804318 -0.052608499197768825 0.07442523180600258 0.0333262347108768 0.09991592227441407 0.019366038605712385 -0.16314930914815037 0.20087697033659632 -0.1183240848683889 0.06977088736856443 -0.23612875636051747 -0.08574932070813601 -0.11613169738059552 -0.1482951154189044 -0.14920511325092553 -0.027436198761046787 -0.1209289650345731 -0.15600365295242483 -0.19960547131103998 0.05535411590848117 -0.08761900053289877 -0.18051830691500806 0.062195640599335945 0.1780241766150395 -0.16431619617167526 0.18207492347736448 0.033207836656682824 -0.11810151258754491 -0.11922601355976979 -0.10555906699605645 0.01399005552814728 -0.010650425222757536 -0.3309117324783681 -0.10378839267530682 0.07764699914325429 0.010309457888038538 -0.22897713279131868 0.09145928221423728 0.0871967075354726 0.1475933107009876 0.2314002043911508 
-0.06252125776384145 0.22597968854073408 -0.10163140059688466 -0.1747689965535206 -0.16046868319273916 -0.0068969229144413575 -0.04196471536697072 0.06242582439461305 -0.08604015246152354 -0.1074921759471349 -0.017504848815341475 -0.08782800377494197 -0.12714791994166588 0.055654015249233274 -0.048622028258760636 0.09392981134849827 -0.07087364306252975 0.03591460887958859 -0.1320720488674884 -0.1278209182084397 -0.04226575283003609 -0.062400432370803054 0.049476829596261734 -0.04245347027114262 0.13354822237673078 -0.18251857973769506 -0.07303518794194955 -0.13643694735342637 -0.2351162460769743 0.10510041164127727 0.26871053449403265 0.014595991746864451 0.15800602627429058 0.19825548603708432 0.024395265760586957 -0.07217235914911468 -0.0899887076364581 0.006656603804714358 0.1354736664603563 -0.06368840736034381 0.027296090630800757 0.01719308088548522 0.08229744621680288 -0.027217375990836665 -0.3281728833492011 -0.10232474909789456 0.18566426087001286 -0.2627053250659332 0.07746072084785334 -0.039753526764106005 -0.11635897936979112 -0.21066782437611223 -0.08039664945901083 -0.06758042593227792 -0.07969907726275344 -0.25875054778965456 -0.16517032406998497 -0.18357207186992688 0.0771821052400507 0.007136618566616888 -0.01664798113432076 -0.0837430132151974 -0.028359741234962724 -0.04109830569294737 -0.02404780943384934 -0.10045162166620852 -0.1343917024834771 -0.26281362496344485 0.22137916718852083 -0.07436760016914623 -0.16402327591445656 -0.028426984463549722 0.2313048235610092 -0.07196305570528483 0.13543016682153958 -0.055042723649865184 0.13980635181303216 -0.040685190669941654 0.039031998934892266 -0.12721942913404838 -0.005868963833909993 -0.17839316099411615 0.05725857744761728 -0.05785859436841948 -0.12434662926724492 -0.07462879431206641 -0.15125394230759628 -0.2935129360439879 -0.2038596604590465 0.044588454340338174 -0.02484110288586553 0.06285428557833031 0.05010655666941783 0.08700658440757211 -0.07387386789886348 0.014584984885242918 
0.13716441128980794 -0.2983901341250889 -0.06312660553447985 -0.08922580278003339 -0.021543178386983452 0.08523340106322193 -0.08231909804395826 0.016978711382920474 -0.15427387609799573 0.06122819978224285 0.01912822701906929 0.07216260402371269 0.19718343812929662 -0.3402761045198465 -0.10973156329863623 -0.11379056804631218 -0.1059854396040256 0.1370923554438699 0.14551356569924445 -0.09639050709082815 -0.012860990219732403 -0.1134859411064785 -0.1563971208999084 0.03137265940283008 -0.23896913018414853 -0.2809324163996457 0.03193710543723217 -0.1539304186653865 -0.048777957833354646 -0.16095681041417173 0.19684029431139694 0.12213489454645038 -0.1232490762986506 -0.06117420945619937 -0.29279341008189214 0.04369935219055438 -0.03130141732299901 -0.06829224365658008 -0.038653400820520184 0.17271706341913443 0.11482255076336778 -0.22469086852674172 -0.04205019674604425 -0.11681814622838824 -0.18083183412977508 0.06520213049392615 -0.01986667164749041 -0.045482237747257216 -0.08999207560666747 -0.05843217042048334 -0.2717091488187048 -0.1323478542117202 -0.006346636465829241 -0.21956108033363977 0.06109404794148403 0.040469980867974015 0.09462083057926556 0.07517136547167927 -0.02768120696545409 0.10851348052423486 -0.05968181681388784 -0.0903443116098971 0.20998606023047098 -0.09166423575825111 -0.06584275701146873 0.11961839603346706 0.1468143274659939 -0.16939356183202434 0.17291849412017937 -0.050249445124162316 0.18931432486756847 -0.157066252348794 0.02974376018729322 0.14690092320822948 0.22632890464051342 -0.10379880488710089 -0.30109414167143383 -0.20527245082026274 -0.11346541672526869 0.1732011819410926 -0.1497051799469445 -0.00974878657241671 -0.11299412317862677 -0.16163167158076433 0.07714928682976843 0.16724431915601076 -0.09038109056843467 0.15050676027065668 0.10401367157632187 -0.07648213767842982 -0.09451804086906158 -0.12090384177570418 0.16070423134599993 0.16034528632627973 0.018043748883092 0.161447642963229 
-0.09630983366415302 -0.02762543650897125 -0.022611791859532646 -0.07363726846530452 -0.03772761861596807 -0.06035628450483696 0.22754211345265157 0.0969403113177688 -0.1126643484905119 -0.09902471443932498 -0.12462777839990474 -0.1224781313230168 -0.11021844586879932 0.1561137310166987 0.0366200543408669 -0.14877535366829536 0.12967879031281915 -0.022483176088963934 -0.05415967494124859 0.016477756592387014 -0.01967720848084045 -0.1683199383722988 0.016830451366068554 -0.3268469568181877 0.18663474831537522 0.07285021627639995 -0.19623861203402762 0.005280318117641494 -0.11677548250818448 -0.04130721418009093 -0.05946747393907644 0.07582951168888413 0.08427871323952486 -0.1672297136376919 -0.1768594897901457 -0.02769854688184316 0.17087697841486865 -0.25499334193174655 0.08802302146223409 0.08949531216402914 0.09126639925033102 -0.04793881898250991 -0.09271141114701331 -0.033934227575025844 -0.0673196503173929 0.07902517028966592 -0.011517055099657501 -0.17735518998738609 0.06191320222742773 0.043143615935996464 0.06262002072293252 -0.1143331086709943 -0.22362778306655282 0.025283914423798813 0.16926800704427228 0.11708968313728814 -0.27196878067180646 -0.003113859049694696 -0.10180320610820753 -0.15872503699884669 0.08146715595272476 0.004387615781084328 -0.09539105224571807 -0.17091990534894702 -0.05673149980028557 -0.1382081479683461 -0.040948748659766436 -0.1992042381915096 0.042418757250271284 0.2615661708573875 0.1770100951841653 0.07167556025564673 0.055840470997851076 0.12357696843897763 0.1656011406871151 0.14610502268599607 -0.2200853748785868 0.0029542745210369183 0.13626185040777275 0.0463503103743937 0.13674097768357235 0.18577958091329724 -0.024834451317268816 -0.11581785802134159 -0.06922571867346834 0.11352270578477752 0.1264438902668595 0.16669969421683828 -0.022792409936048294 -0.15086851396949383 0.06176403727185875 0.08658058981231381 0.22212568161704901 -0.1606866115410803 -0.139558949466906 0.05999200039460123 
0.03628098758017264 0.08268662975645033 0.19928479343445465 -0.0018092475253498712 -0.16936932310822794 -0.03903418207818205 -0.010440920975236282 0.10966374474350947 -0.16614525933463256 0.21010959453574912 0.14670898077874825 -0.02570090862104475 -0.07685578534349359 -0.04760956845222931 -0.014637529490670912 0.007617186252451251 -0.047158745805206966 0.1786378466761933 -0.06330956250873901 -0.00287748043856423 0.052134225525842535 -0.019401919667023367 -0.03636904616208727 -0.08497625415440642 0.09820603449692789 -0.01155613191618537 0.1339078768536989 0.08100463738610993 0.030037829791011775 0.0918655176154565 -0.11187937376740903 0.12207357387877672 0.2890744469605034 -0.18034339345566472 0.08568751404154334 0.2840706030738975 -0.07028941864834276 0.02466237518055138 -0.01663443520073913 -0.12891977411623068 -0.08538386799493473 0.03381899603733247 -0.018051334717862074 0.0034747090288319697 -0.223978971539618 0.04031747768047913 0.17613822920051325 -0.04115295507518275 0.18817356085402862 0.09716569175788027 0.0942715351916084 -0.14962001935207342 -0.1001212789352242 0.13815601289033289 -0.0789965969312892 0.1719503143702198 0.11107983384029536 -0.06086875457551647 -0.03145356005919943 0.004664741049671029 0.1475028207982429 -0.19875018257024016 0.006876173995356735 0.12862806979176844 -0.06340389921456394 0.09853975980118816 -0.037073871707039116 0.00704100826947444 0.05565596139544637 0.18461889043772617 -0.11422339183494895 0.09617711389009231 -0.07784069758284787 0.11550371457388434 0.17858164984166938 -0.014588825502396438 0.13045697259466252 0.2441418324548564 -0.027040129217989876 0.12599291500701945 0.03236097206508744 -0.029787725129108125 -0.09630948145060918 0.23524247295423834 0.12790306475621158 -0.22082351618707763 -0.1654552952446512 -0.20114719423029873 0.06930619557362978 0.15272675116237666 -0.13536816960148035 -0.03346387760995089 0.12574785279510947 0.06658609783768324 0.14339553354922036 0.11272456041838125 
0.06382002722586749 0.0923336670244615 0.21374189275658728 -0.07410778483248369 -0.17330413974302636 0.09885148513336091 -0.06766614400464978 -0.020517612721147355 -0.005143779347180797 -0.1185388319215807 0.0901372232465762 0.10910181396068404 0.015954724863820324 0.15699862594780584 -0.041312812810429166 -0.0043335404579091415 0.03020368914853521 0.0848449947013011 -0.06637276867375706 0.09961514452300427 -0.0065756054265196165 0.09285932086153564 -0.027632342732800255 -0.07186827491967172 -0.03517324158996472 -0.17690650557448723 0.07151183231088408 -0.23503725155707553 -0.025522994549176885 -0.15965717335156424 0.05185864871105989 -0.07076736727900891 0.05531566489643703 -0.08992991629619253 0.031279038910281304 -0.023083392307304346 -0.22382070310201618 0.004824210734194172 -0.2337101099312207 0.12354031881442963 -0.010618904617657137 -0.0335752219643441 0.09182518987701689 0.02726374858619784 0.12353963795793389 -0.09203892804548738 -0.04069544848365303 -0.13602542530818437 0.04154925536042365 0.13232935878282037 -0.06898724535779734 0.024215959659077833 -0.08013485850112402 0.09149927588944153 0.1301278262442153 0.1346783844196747 -0.05625178967113942 0.06611261236808964 0.008954122429744622 -0.05315282087551233 0.06227637763806301 0.1459172340310395 0.1444969900769083 0.15044691915110564 0.0265371447840456 0.06236011313044272 0.12386840370111135 -0.10890764208791112 0.11614471416967653 0.06202325983667741 -0.09242543101325668 0.07231217242536013 0.01719224370337416 0.11277032958215225 -0.07725682004854499 0.03778973014506824 -0.008919181729986167 -0.05767733536349203 -0.10340846684652218 0.09151783962056788 0.1765575768625609 0.018251595418531264 -0.029370960616833242 0.10221737037752723 0.10023270300838993 0.190631776424212 -0.01828306745028216 0.31737481934219086 0.03137338875842195 0.003124517975248337 -0.032990394202442735 0.04393254397694816 -0.04546249129508113 0.06766043561406485 -0.24939897322876042 0.07877703571264334 
