-0.023389293165928405
-0.08725024593082485
-0.12624521665826538
0.09970362568544817
0.08592736812867108
0.052937125423677206
-0.18035865399308074
0.0508365135764427
-0.009412300206242116
-0.11644218097580983
0.039783402178515455
-0.039418702973237005
0.1614355539906864
-0.07089490203710577
-0.05143401561348009
-0.14451503101234137
-0.039277796917906324
0.017068560761658195
0.024514568627115475
0.14619073977550837
-0.05217535732987475
0.14410429829517124
-0.08255529363905875
0.10587732721825666
-0.028549150894414854
0.03581750375953725
-0.021291078064754995
0.1337333376477761
0.17822705913965423
-0.0540529166760123
-0.07733226945316506
0.02337340578948969
0.06214384862754167
-0.005064093710244018
0.05620639319865341
-0.13972564511518687
-0.139131081361153
-0.05728501512819652
0.0733782724991735
-0.13462192089028113
-0.16758756422204693
0.008224655733587796
-0.009172630991685016
-0.04290211592341949
0.014933661787708654
0.143937748103177
0.08743899935480982
0.023150360296414426
0.1653115113283287
0.041045141439092325
0.059102362964834454
0.016535073437953636
0.10322867692834763
-0.058287077521281476
-0.0757894363994693
-0.03468101712840823
-0.04638330361946935
-0.04955437405326247
0.15866168535887024
-0.06502789286000962
-0.0397059392787747
-0.14560344326560892
-0.05952421171755021
0.11466709965921863
0.14693852907579344
0.09309798576385926
-0.0828689913093305
0.13450522360203296
-0.013609271511386174
-0.034820248141190266
0.018057649857234598
-0.10506215582840474
-0.005476959720093884
0.14852247107505123
-0.11186562726003907
0.043014070872748965
0.014949799462975725
-0.08773554205884808
-0.06832358387216922
0.07025621923727536
-0.05293230347009803
0.018738402146310656
-0.07582944960292377
0.09182305908424619
0.11957003354898806
-0.07417033255076608
-0.010340185518627231
0.10847168543242199
0.03712635783363172
-0.0069442972313790334
-0.1253274429973048
-0.03918112198963806
0.10143360099122695
0.1024961802278601
0.04719302421004389
0.002062798589419487
0.040163035014776347
0.03176933744427336
0.11863130983387969
0.013502070427835858
0.014799949652878872
-0.07914145767765651
0.01945140458468114
0.06118857131750592
-0.15407336255798176
0.06557913515803766
-0.0019329938965643287
0.05695698545955561
-0.022770236327994135
-0.020045579435665473
0.02064831079754859
-0.16439414146865403
0.16909216038596792
-0.000920822162061221
-0.15585305469983612
0.0551870780017467
-0.05986267979532068
0.0825775114552622
0.037017491769064687
0.020890670900778726
0.02392577376211832
0.13825218165542336
-0.10192553895895358
0.0010960602548850417
-0.14065669881206158
0.11375574164980604
-0.06982407468154209
-0.10980291702602922
-0.15822549746309364
-0.1278444754143299
-0.12285286656332421
0.06619473202396688
-0.04134245371233866
0.04594982545776633
-0.028922008556230495
0.0638818449280844
0.061888753910817884
0.15889307318710902
-0.08360569601209177
-0.04655306887355458
-0.06129425129932647
0.0020150543246254538
0.06423370668203573
-0.014251948298644514
-0.13127075478684833
-0.08728035137238466
-0.06454711046291217
0.10519977510022352
-0.035155181761184255
-0.16301801140298716
0.0476153037961624
-0.016266668638080732
-0.07938137997675222
-0.07407258282466724
-0.03906993957671602
-0.08908474567777681
-0.1798124648658441
-0.057646644829170354
0.15112778849845632
-0.1798325369288767
-0.053544671392292326
-0.1349950217422794
-0.08989258238935836
0.021309284554185015
-0.13596639090135887
-0.17122428816826626
0.1812686262061044
-0.08113488403299564
-0.12368475670525049
0.12752585380432005
0.04477583295703781
0.08395287168729076
-0.12899079457498308
0.050459240643180844
0.06903927391854363
-0.02949852331296376
0.07656714679356358
-0.03450592023370137
-0.042241974423337963
0.15658903240575842
-0.17320129928178882
-0.10722234899349657
0.07503907284246089
-0.03371214370241634
-0.03730969607574496
0.04437606994680277
-0.06339079610185981
0.07724634725074714
-0.17011942285057652
-0.09331391976907628
-0.1272354877608841
-0.06069466622016062
0.256983521236573
