115 20 10 1
-0.04979796750180075 0.2559746758627875 -0.09001444665439778 -0.18921644200540352 -0.032589665135256116 -0.16686254350283306 -0.2910653825891627 -0.23678615880756262 0.061974480245067104 0.020544412947079066 -0.02433461401352929 0.2494682331963597 -0.15778775146400728 -0.017593364931290774 -0.2257006204466995 3.159250737729669e-28 -0.20326802779715888 0.09253004259654096 -0.025194083091157383 -0.24326105224504418 
0.1017503988634679 0.34914954140725346 0.027036328798539268 -0.0880717221498555 -0.0008817534271656526 0.16629574602638753 -0.3543890257052504 -0.3521287070390939 -0.04880769847708859 0.14509048639885025 -0.02454649339773098 0.12865035412340378 0.1593881295694445 -0.14359523406059024 0.05422826641648242 9.6834458092336e-27 -0.07841259868078446 0.19418267436283798 -0.025505025527334708 0.07109404030185865 
0.23765988974686394 0.0851639450660629 -0.05886628847851856 0.21151663116159472 -0.03915334427354581 0.0036028169079355046 0.2389905785521608 -0.0013435786337963865 -0.10535406365938611 -0.19544184891824484 -0.02523280137946755 0.050298524992700086 -0.1516941753377677 -0.048526692963002716 -0.01974316439321754 -6.81186589637895e-10 0.10576968421453445 -0.13802385846261514 -0.025176212021040596 0.09769792132190964 
0.15360532010380443 0.07348822340968042 0.33533835345054197 -0.08769959246474476 -8.275240253126611e-10 0.3461561361742961 -0.036805542851694587 -0.1788801767042618 0.4667425213994712 0.2602682252045802 4.283067086195154e-11 -0.051793736426090545 -0.17729172349849248 0.05713818698463686 -0.049786574898526594 -1.0966407725938879e-13 -0.06279646736218697 0.20986970221723797 3.125523306536926e-19 -0.5354118802907584 
0.24726771871016426 0.11081235659616034 0.2174975387994022 0.06217286605344125 -0.02110176059201689 0.1657930380062404 0.07820377367136588 0.13036048806438894 0.19996914549834535 0.05769287801613837 -0.024485276642670587 0.2677878078386769 -0.052616771702014134 0.12599002434116244 -0.06405536042056191 -4.1971598474941694e-18 0.09190998986976126 0.12639737074599228 -0.025609787235161614 0.038583902082979175 
-3.6386455469089244e-28 6.868681575142927e-40 1.1653333148814232e-11 -3.952827009140903e-31 6.142171993234216e-11 7.484622214084272e-33 -4.963001678634591e-09 2.4294369768100684e-10 4.73755366698614e-27 9.240587326284694e-09 -5.133759931916709e-14 -1.7014247611707399e-12 2.95463799009635e-10 2.1547096985892275e-25 -3.2202250913350003e-10 8.924912592350014e-19 6.294791208014408e-19 1.617494633551417e-10 -6.256886784428332e-24 -5.12944674235406e-12 
-0.21886200784909385 -0.16234282774119976 -0.14645225910832624 0.007729922222535 -0.0033036035029151214 0.05362728738004699 0.08609177346203115 0.13910932379413535 -0.1327199307556497 -0.12077449334787667 -0.024326435815389454 0.24037553222918753 -0.008680739417516719 -0.08647990889743297 0.0997080156881821 -9.109352267607563e-18 0.0739733521858712 -0.030700064936137174 -0.02515883540855 0.13802755128182725 
-0.04391852350412315 0.03000955269924597 -0.09270690757391048 -0.34241364631647847 -0.05004133066120583 -0.19024574742591507 -0.38427119642200136 -0.1240688814984652 0.1140796152231064 -0.275925834578524 -0.0246965961946874 0.3985367008867809 -0.0036188993730647415 -0.4370934328363624 -0.13035103353356411 5.3879842153918614e-20 -0.26970912896257737 0.06994504801219513 -0.02491388400106276 0.0853280051342282 
0.36262360550220296 0.4450629502892263 0.531656733358278 -0.5300596445293595 -0.03121513302871878 -0.2611656541547992 -0.9047781965485067 -0.5187664998209301 0.5069792367867456 0.5135452625587424 6.481373192263504e-27 0.6350323705296855 -0.00205172883257463 -0.7876973978541348 0.005266433022925746 8.059078970512621e-20 -0.5226129712528103 0.3621399220267819 -3.1550116972250183e-10 -0.4575028275664334 
0.010375917282782286 0.1493716275045661 0.2724577404306947 -0.5059560694052277 -0.021600591875422737 0.06745937348710346 -0.5077428691009604 -0.28286567716687266 0.17125644323128503 0.19430709193112097 -0.024327038312922034 0.1001697751625014 0.06591337479163545 -0.3405223317920251 0.14594980798292395 2.843343293301747e-10 -0.507147504344156 -0.015700132221602308 -0.02517621202103938 -0.12858557078757146 
0.3462792826523991 -0.007130959931680565 0.25792932292912335 0.24563825785212742 -1.3361079981738051e-35 0.24335112593297198 0.18854136295106613 0.1268759302680111 0.23367062158102164 0.2257569182414685 -1.9817140156113203e-34 0.14802427410310418 -0.15969052326479607 -0.012451223230620567 -0.16064280934454184 -1.7279306805332855e-41 -0.06196382862456292 0.2783293891758549 4.8317950878426266e-14 -0.16931409132245334 
-0.129117331437174 0.004750392513629377 -0.06305117274575302 -0.003579248623205982 8.424091855752947e-30 0.12922237648763402 -0.059473251352074145 0.10773606201368394 0.253788709705603 0.10731337588926255 -3.420703515128263e-39 0.11266755232467161 0.09677340667143379 -0.12626226712438093 -0.013187339420158954 -4.0363141311961625e-35 -0.38103790756635036 0.11241593858432779 1.2603615066821239e-37 -0.5717779666863607 
-0.2012911894365779 0.31222875236553455 0.062115824162633886 -0.29944779526544996 3.018497278024433e-16 -0.2660126307055481 -0.35249275207082836 -0.001108193685417683 0.06840914602117389 0.019933096161898416 -1.0254685423753546e-08 0.3484457079373056 -7.624313313068826e-33 0.22349807073947384 1.7772587416441527e-34 5.854743581422376e-14 0.1551166747927147 0.03321577741736149 1.915931242792491e-23 0.26098617542317015 
-0.015585886178224683 0.201815066624884 0.08589788658416007 -0.14553795743114742 1.963197612779057e-12 -0.07060790930373838 -0.16697972121008414 -0.27490883119311316 -0.14391083876574895 -0.07092241556805429 -0.024326435815291272 -0.035924513687060386 0.02199169726285103 -0.3218249210843303 0.17584180160907234 -8.46761560733407e-28 -0.3984966795637654 -0.10124819506672988 1.2548279390373029e-29 -0.07999553044135116 
7.269553006071917e-12 4.419160842422851e-11 -1.0681082334933987e-30 -1.477651252384055e-22 -1.4498801794419735e-19 8.229930960578785e-13 7.515353813239756e-40 2.2867036818267806e-15 5.589089859921585e-37 1.4701039809476363e-21 -1.7581253892731929e-40 1.8424450848382364e-17 1.2099364666483604e-37 1.8896734904298402e-39 1.4447167073011355e-29 -2.811688337010843e-10 -4.495067995318696e-33 -1.3620017119905433e-10 4.64410531397318e-09 -1.769409274655632e-14 
0.6095126342466648 0.4951596644853652 0.5901448988417218 -0.5069789331050776 -1.7345642730428508e-13 0.35436978997888596 -0.6312914868052429 -0.7051965620714329 0.5498146301964532 0.4695583582057178 1.041461887936507e-10 0.48793660003590084 -0.13085940361701007 -0.8531331527478037 -0.13576423645418956 -9.94310257660069e-43 -0.7322763274877151 0.37254820095562696 -4.0862381772340475e-19 -0.7211078266849038 
-3.05991676774771e-37 -1.5786370458236828e-33 -8.001802413839203e-18 -2.907101311764988e-11 6.992989670131074e-41 1.7424471338797125e-40 -3.9923017254277664e-13 3.904788692697684e-33 3.746443730108567e-39 -5.424116546097875e-30 -8.668111558220332e-13 3.6929104017063915e-19 -6.219242993993848e-17 -2.044779071967937e-40 2.0178790679565443e-16 -3.600121335741402e-09 -5.62033056452055e-29 4.059857427755902e-12 3.0835266115472777e-13 6.514992127710663e-40 
-0.050216221931819544 0.39973594606294566 0.15470782727878546 -0.11159405946425313 -3.673476753185144e-11 -0.13587355019090105 -0.14072047115478492 -0.21966276004765847 0.09365977441318646 -0.3211331369034366 1.6411802247947552e-17 0.3184838115956749 -0.1321664124143655 -0.3895120498332408 0.030599197687734905 6.870504969299617e-30 -0.10913038055147029 -0.08648431662795587 1.354229140707012e-16 -0.10551830417451255 
-0.28348847299636615 -0.2959602530297103 0.011413532879855458 0.23508496239511112 3.106509199453081e-09 0.10680416327544005 0.38363363460777394 0.17757095112242988 -0.14645518205221267 -0.364317541884069 -7.155251885830684e-31 -0.3397919543451283 -1.840567816849477e-13 0.36396010137999085 -2.387131500725064e-09 6.440973625934832e-32 0.31511128051839354 -0.08516634133127363 5.257098581103812e-27 0.052350592202518066 
-0.09862992539119646 0.2183934534279068 0.2923189224384528 -0.3298680917662253 -0.022331205280823878 -0.12710571208223745 -0.18464786664292196 -0.2240796711392 -0.10856025953692756 -0.06648794494174262 -0.024333567285619338 0.3271305324939808 -0.11795640136787386 -0.5111700324759352 0.013465536574460953 2.827513258023638e-13 -0.1904387985775032 0.13289645638305614 -0.025176212021045582 -0.04797954650969366 
0.17573543702279104 0.1022613975611104 -0.17527573229360185 0.15228070460666698 -0.018415068386202868 0.24086163132256613 -0.025377502187379917 -0.07963329974590078 -0.17205264875861503 -0.08722177938895162 -0.024494396077821383 0.04011464117161072 0.09412765828903988 0.23634133884851097 0.08548267255102387 1.5083105250732384e-29 0.09144247168317018 -0.031954588666836675 -0.025172861401779285 0.09224299726834057 
-0.32365601266287664 -0.044013796626366154 -0.23159008761510366 0.2873138100088257 -0.018383067273705884 -0.2936352745968045 0.1759428546939841 0.36390636993773834 -0.12381224932873487 -0.07520841916289055 1.0528449854713928e-38 0.10407773369430597 -0.04603215084528309 0.3943989465103596 0.10073186227040636 4.506881955840038e-35 0.5442189189405453 -0.2836757491685475 3.116941613240986e-17 0.17675510701139918 
0.5222831101934606 0.24124134223474225 0.49736565599284793 -0.7841795773862453 0.012430528504748895 0.11275277525804428 -0.5986934553219025 -0.33791408250454685 0.312701042507901 0.34020129479201283 -8.526075278455566e-15 0.4806625365349138 0.1354288992267544 -0.5305772637112001 0.0728017671165724 7.3487928527788e-22 -0.4213946729358766 0.41946323059361135 -2.6730435550172052e-19 -0.5404194324261279 
0.5314720801447014 0.5652451279584834 0.4139007708453169 -0.6038292136305906 1.92273772456222e-14 0.3299407492854969 -0.4415272777905129 -0.6627705918420509 0.5791393258119774 0.509398323334259 7.166236222268246e-11 0.3491370921502149 -0.04801905526708126 -0.6980613500246009 0.1790377718405697 -2.3200444711777162e-09 -0.4963527530613152 0.7412505323679032 -2.801924685700694e-09 -0.5026779672031407 
0.1316384319371759 0.28853536770935256 0.21941752556122593 0.07563585988094257 8.503082304679715e-39 0.06137421879557263 -0.006304369106903209 -0.4273446039017809 0.2709070310953395 -0.07111206718256378 -2.0052763832932445e-41 0.3272040068574982 -0.05233359034749809 -0.27114896764122 -0.06237974292272633 2.823944764720493e-10 0.04626238189649374 0.34658589064807854 1.347190187438958e-10 -0.1694565172603493 
-0.31189346898619336 -0.2769143722322929 -0.2382673504297245 0.06651559689440584 2.5022460469032125e-34 0.018692660160407975 0.23371684139543097 0.0221191135169532 -0.07696608001743675 -0.21659064938507216 4.51151425388002e-37 -0.22220792764548836 -5.527134575981457e-10 0.10931916231103121 2.3264209219806084e-29 -2.884118767774126e-42 0.1518489459680666 -0.31185583739834244 3.9138535156144175e-37 0.3446654325705444 
0.03137647363184418 0.5996233656037814 0.39667705454727853 -0.9189229994322807 -3.058168022497569e-35 -0.3744001400431147 -1.3132302806356722 -1.004596257670813 0.07286011282597828 0.07194602615394033 -0.023469597080296622 0.3796532955378006 0.16708574308109517 -1.0646029317145398 0.11135878425651866 -4.758203212059902e-32 -0.6671761719232838 0.054702985032183925 -5.650969257698711e-09 -0.8787224189355021 
-0.05139638820899087 -0.0653260420981728 -0.09798023723186888 0.22027930327543038 -1.6233276998242556e-12 -0.062459213964671266 0.27314016324446033 0.11332449659350917 0.01373583454046034 -0.2326818765931748 1.3912846907532667e-29 -0.18582912532765217 0.07976753500854003 0.13891370603001563 -0.1649006395293059 1.2277486213618127e-26 0.21252150662163374 -0.027090934052072208 1.615159208078863e-17 -0.04760907242812042 
0.1882782007309204 0.20519932282788786 0.44978112358288547 -0.052482282853267406 3.8028236762183037e-28 0.38361943284621447 0.08125008352251924 0.15199539069649917 0.4560844234921035 0.1059518763967618 -8.126772078103436e-41 0.3615818729187358 0.12228130905927011 0.19493083260103347 0.06634273560718178 -1.3681207857533932e-36 -0.02644091098246841 0.37114059560830626 3.684620701507366e-28 -0.08240428847117579 
0.14292680958364246 -0.05997933694143498 0.1857028237688462 -0.14188854511964255 3.076707115699973e-17 -0.0939712769356615 0.04484107766566971 -0.09797939639696689 -0.026252271690766653 0.03453509843248577 -1.0550017976294321e-26 0.1844901194019462 0.0739364042161746 -0.1363796835687392 -0.12961854979596718 -1.9694051285245417e-15 -0.3184391550604927 0.009197333871726072 -2.8978360362451535e-09 -0.8639672343980371 
0.20381245746766952 0.05871768821269265 -0.09533144929341633 0.3372415753023395 -0.025537560448511513 0.3270506314168451 0.5301596337219304 0.2739144964709389 0.13914496784720964 -0.030632513921306 1.584132471025611e-37 0.1678955679639469 0.05537778720626378 0.46106492745619715 -0.17579521949957774 3.3179282702205287e-09 0.13137711999997245 -0.0021081104050342642 -0.025176212021042865 0.36464005515563386 
0.25141808957117334 0.2794762917100562 0.16656036842789834 -0.3367761510688548 6.924938982353919e-19 0.12880875724186042 -0.34029140230376714 -0.22422129376071856 0.3800543708187997 0.3771201497572129 -7.655073843399224e-25 0.27637295055319205 0.172272408389342 -0.4416097859834986 1.237438306178245e-16 -5.799410922999255e-10 -0.22442890790695105 0.1981358501374733 -1.8730728210706323e-34 -0.6157329316605451 
-0.17050676552200897 0.2450624079803614 -0.005062120497031899 -0.07018618619116211 1.9399865456552259e-41 -0.35251132317235984 -0.19416636324971442 -0.22206173562183873 0.019747253630108624 -0.10415084700314285 -4.347277484716167e-31 -0.08742910273331078 0.11000546248934018 -0.27186836779221585 5.345067006164706e-09 -2.976281279976222e-14 0.047013627871692866 -0.16885815373601634 2.668322843020053e-16 -0.1684498351352031 
0.2380741314647564 0.22904474553868173 0.03735053307303108 -0.24130096546085295 -1.4967662564083023e-16 0.1611830820067633 -0.17143894453598243 -0.3218206306021154 0.3373366136107384 -0.027733148673977137 1.3441360606421468e-12 0.15055641341106146 -0.05501613251121825 -0.1312384956506835 -4.0542562391964563e-23 5.777899689877895e-09 -0.26624439090377183 -0.0193078360005322 3.2011538142581884e-10 -0.1686085992498999 
0.29074447247892876 0.1436905859500549 0.27374025618556935 -0.21525859403148218 -1.1058529540837765e-32 0.03168386079268725 -0.22851654030833635 -0.1629368065814135 0.1743049235215311 0.18150479429557495 -9.05711027057991e-09 0.2589998214694118 2.58146374908001e-11 -0.42633244862025343 -6.833145284150196e-12 -8.315409716639853e-17 -0.2540895519817473 0.33999282271768144 5.128518949828036e-39 -0.2526120938557905 
-0.2758629846226515 0.05812961317940427 0.07729821269387209 -0.25468492182213814 -5.500389915121924e-39 -0.33679963109016614 -0.14665369769869496 0.0014863492214912536 -0.07212976204399255 -0.08277449964320323 -6.831297620328716e-17 0.1336496274213556 1.0871091383256082e-26 0.07724294202869006 5.8663578970193226e-12 3.2677396809793956e-39 0.2435393367463652 -0.038919269039999045 -1.1277062179904576e-29 0.0691747784127367 
-0.2150349767744342 0.18848508990833193 -0.042857088124941115 -0.08185781205364372 -8.216092210736887e-42 -0.05865715070635947 -0.0230978098723672 -0.41891518202922484 -0.12160432757663951 0.06819238055453276 -0.024301918028778954 -0.12054064608481696 0.11623928317074628 -0.31333866475780353 0.06086724566524135 3.643781899130498e-39 -0.07303200507439504 -0.07948546002508437 1.5558770958875216e-13 -0.4246335436652278 
0.26201642751956666 -0.41069358596822825 -0.15197201732529916 0.4694320283075195 -0.05769644246270426 0.35547621252786565 0.47891393693023115 0.15023200855048566 -0.15580161989786148 0.023436117619238108 -0.024301918028744016 -0.3724995179902455 0.14399106516956856 0.5882814748070497 -0.021866392363983328 9.731305132270205e-13 0.07391963298486981 0.025571232678009242 -0.02517734820372516 0.13314116491493955 
-0.2597944779446016 0.2134050483666595 -0.09924991137691656 -0.050112621624086306 -0.03289623657481268 -0.3024426849232295 0.18227448909845226 0.13701541590693758 0.13306443985831035 -0.24142270338164742 -0.024293629568656327 0.13654096507706726 0.08355580559877951 0.12500190437248584 0.035391035311047106 -2.192552444543601e-14 0.015033222496115219 -0.1818735398690678 -0.025177064153143816 0.13571779182675572 
0.32001694887784926 0.2534926067964116 0.11528729508134111 0.08757547986380523 -1.0748937295727394e-31 0.2856862097567593 0.07338570169159028 -0.0917875560203269 0.044349855642594097 0.4190181417189646 -0.024301918027786577 -0.031011847263124087 -0.0922775933368923 -0.07068289823837047 -0.1061719716448226 5.094074154533356e-15 -0.30315642795507936 0.2183259762152537 -5.691831776366434e-41 -0.05192236774629525 
0.11565277439226522 0.0735408855096723 0.12611414687076386 0.299753102460414 -1.5819110227183205e-38 0.19623986424079795 -0.03113452811461072 0.13619690627608932 0.13036328124394642 -0.10660089143063226 -5.481860884729732e-09 0.16209714700378888 0.14860566223736063 0.09254568582790809 0.09116157696415819 -3.9242263625594776e-14 0.17390467983825347 -0.11856757063099843 -3.884024080389286e-23 0.17596276114570047 
0.08732000441377734 0.06762051893379628 0.22149011213796338 -0.4437220958703325 -1.6767371360291554e-37 0.02099876089875125 -0.46350656218852476 -0.3929659310561874 0.2074276075018033 0.10223896269950995 -0.024301918025152438 0.25410591087307516 -0.1708031902871966 -0.5372692192526508 -0.019555914783888878 4.9639518872210725e-12 -0.279667886982789 0.0777287091700935 -4.377816375369664e-37 -0.14737525255488892 
-0.31207394703774677 0.11926982388984032 -0.12868124817170046 -0.3611208110963442 1.7861477074914437e-15 -0.11204084061461267 -0.46848350967835123 -0.6373634497380458 -0.07364593515771929 -0.21323744007867423 -0.024225460851455882 0.25228402526837324 0.02884117385633097 -0.9557645137042471 -0.03587656593567307 5.57245525596285e-09 -0.10251890487889487 -0.02828890952933457 -4.3785265327573414e-13 -0.29183306475918214 
1.185373122227671 0.7558465169467831 0.9330410598046147 -1.1543378881252273 5.158571369040942e-13 0.6671935156210524 -1.190224297191477 -0.878753563506725 0.7457914723564006 1.4567890335327007 -6.957510788854502e-10 0.5838865561040326 -0.06881071391866435 -1.489212049663822 0.02676003884910353 -9.242545271810118e-10 -1.3100951661191649 0.8043401693834787 7.763704027065542e-25 -1.189393848715682 
0.11467584275273272 0.20006143271561302 0.37931838324856887 -0.3973599602823261 -0.010991729026059433 -0.26287764316912754 -0.4730226060528554 -0.48505751669779923 0.31093416933474344 0.06228402425668282 -1.8133862373457586e-17 0.2965124755397627 -0.08261356817113454 -0.4730745795860019 0.1879364017264403 1.0207523301724177e-31 -0.2473515151087435 0.2555580798564553 1.491714026505522e-11 -0.14753034843292048 
0.4579763970159268 0.5250196909952916 0.27854241910063887 -0.4331673111150518 -0.01840311066814983 0.1410480139920176 -0.5547840393942881 -0.6130489578183128 0.49966115846372205 0.34158336572220893 4.511184712761581e-37 0.20252686023654798 0.021773804231197486 -0.485778582902926 0.14321354018508278 1.2827045435469796e-38 -0.44946672645171826 0.600340527507859 1.2402608895257757e-41 -0.41602955620753157 
0.19179446040660966 0.17414711688223733 0.13710790889503754 -0.3229495691670394 1.5682689189597847e-40 0.03846383529366744 -0.2734058927941722 -0.3165263786645478 0.24538848084123838 0.1928931781103433 -2.2185176377323265e-10 0.18621327667844279 -0.21046667374400174 -0.4974572434618708 1.519126808885373e-43 1.9708368737336932e-09 -0.5341753355015393 0.3664016864132965 -1.5767876262948742e-43 -0.2738657895648642 
0.3376930163771614 0.1747945704562339 0.4028501204955928 -0.3084516380244433 -5.124283734174036e-15 0.4469682564234308 -0.42895318457723974 -0.5212559375846174 0.2539869417018943 0.45508783338480824 5.712152442855155e-34 0.39973037537593425 -0.194249621303719 -0.6645396342878448 -0.20983061170352812 -1.1893654557018267e-11 -0.31426891727650613 0.40787465992682925 1.7081307788541122e-27 -0.32780041566889 
-0.3524221122089206 -0.08933138571044213 -0.35931145620849003 0.767623627796073 -1.456955227345666e-09 -0.5002871130739078 0.6515555281453815 0.49797867404069596 -0.3836090066730236 -0.5569257397040038 2.644990789987073e-39 -0.0871939180872598 -0.06214320740011436 0.837293295289198 -0.1313426025480427 1.510785588639017e-22 0.5371950217502758 -0.4925629953457113 -8.528627205192585e-17 0.7487144642057506 
0.10772183709049414 -0.052138388220456945 0.37370043907594236 -0.25303899447562045 1.1194683629108892e-33 0.12031274164638474 -0.18713816213945628 -0.37746904948090976 0.4255007821475687 0.23793223669760222 8.67420433163141e-15 0.04659372800377146 -0.008485758333757993 -0.3847482148893554 2.6665039601634917e-38 3.0538922568012444e-09 -0.2697936204741739 0.2972509615083891 -3.199387070616884e-28 0.15200742727718694 
0.5255240235672681 0.5254572285526062 0.5789255194412041 -0.44860458306523987 -1.8193788751180098e-40 0.23433153104607302 -0.6873056058594822 -0.5612772221928268 0.25220495292059614 0.5679496175814824 3.0976680123082363e-28 0.2929668738133738 0.09263923449866582 -0.5667030152489854 -1.4466566254821898e-09 -2.092975756949003e-12 -0.6801570969191877 0.4115029128151886 -7.234849825925029e-10 -0.4606540600067048 
0.20544407540534823 0.22981318250360622 0.18345717601778308 0.08487140168411475 2.907848905234866e-39 -0.2601153961976244 0.09400775689313293 -0.2438257110486207 0.37264012320622414 0.2385267246473386 -7.836877513187496e-10 0.07454159343086131 -0.2051736506651978 -0.30295317964108676 0.1450557418668062 -1.194663320485855e-10 -0.25128446683988837 0.05171819875200587 2.6244517423291655e-17 -0.023133690327072718 
-0.0907206997907798 0.11203260063212517 0.034669523528680725 0.11099131956104305 5.81080245605375e-10 0.00869905507737901 0.10686471560585717 -0.1272674079484373 0.3585772978641936 -0.1631369197758875 -5.3133856705941235e-18 0.32806796383196635 0.05662363820016657 -0.2971609492237496 0.14848114091707726 6.2929701286501095e-25 0.045380519857579064 0.23347941282597717 -1.106503042325706e-19 0.2919197237618866 
-0.1905064433369873 -0.2513174275427226 -0.3529384678371436 0.5050474548681373 -0.018305931816492895 -0.5847325122178595 0.600573393865698 0.10934657215321067 -0.059459107249392976 -0.4292102761249283 -3.5430517008693563e-10 0.13336455387147075 -0.13645179845803335 0.4121067514604397 0.15299241028449864 -8.996540971608953e-41 0.2739210128155383 -0.22742018073091577 1.0578091902976826e-32 0.607766247611796 
-0.5239976231086613 -0.1699841589465214 -0.3014379043210383 0.4886211640526029 -2.6768982968747103e-17 -0.09725546564345382 0.5437728069125227 0.22311541134792878 -0.4059198709651146 -0.40156015910710813 4.456093425991748e-35 -0.0955866734998998 -0.05262324169828945 0.5866622576442233 -4.1522122340940124e-35 -1.5417527930964196e-33 0.2853160661872545 -0.21479372573700076 7.454267240665655e-10 0.5553782907636425 
-4.57719334470761e-15 5.085602144786862e-19 -7.4487165876002285e-09 -3.6885274805252412e-28 1.1354323344976617e-10 8.789601465585405e-36 8.457458900560183e-13 1.754250925722241e-34 2.88830815702853e-14 6.973315903835524e-12 1.742913847828648e-27 -5.716696710266268e-12 -1.0697250459132943e-22 -1.5880098749449693e-38 -4.178012583471678e-12 9.235638003143746e-36 -1.7727700195619193e-09 -1.6651624493422259e-15 3.1927419958456765e-16 -5.939900039165353e-09 
0.5721937086691026 0.33555603534796197 0.7901834287217103 -0.6132745550088013 -3.565039810858778e-25 0.4270849436904455 -0.628218062469086 -0.6504053956178307 0.5891689242535503 0.5992154603115255 -9.966931687798173e-26 0.444968061879944 -9.098999012372906e-19 -0.7737602940183372 1.5518178666992675e-25 -2.227577475126916e-10 -0.49487801725937325 0.6980221631574879 3.878475409501237e-15 -0.6087083441162175 
0.02130812285087762 0.2526765180553244 0.16492906130900417 -0.26423819356032785 1.1550929821758053e-38 -0.08344342990371291 -0.4694577681822415 -0.05297054374261611 0.2915637926770029 -0.026950248610466847 2.726549158075256e-18 0.36766991079100214 0.1526790702064518 -0.33541885439983354 -0.14219602156382297 -1.6254253464304763e-34 -0.27486965389396306 0.29144435255481127 -9.663128090633174e-34 0.048231626831001156 
-0.16846107837634308 -0.3308290160840439 -0.32231724463025413 0.12730332722608537 -3.8729693814941795e-15 0.19036533747167855 0.16957458340706388 0.23450328360408096 -0.16583302757086196 -0.28075664489883556 -6.121920187880063e-18 -0.17472578607441458 -2.0665579475296984e-15 0.02358477637901472 8.072257676950259e-23 -1.5849677810798345e-22 0.07231880239229013 -0.029876719993120405 -4.938563994951585e-37 0.2889820811052261 
-1.3753785829226488e-29 -2.192029977998477e-36 -1.5453288645336233e-15 5.5195023569196835e-40 2.2279984966459148e-11 -1.1261222445449146e-25 3.435590078482551e-12 6.232225114327691e-11 -2.992766547956297e-28 -7.229490812573918e-27 3.170394450786911e-11 -1.755946114610966e-10 6.484515851147143e-12 -5.700563997665666e-15 5.059700985450099e-13 1.3057345767983384e-28 9.579562240185163e-30 -4.529648052243518e-13 -9.894801883067166e-32 4.1756587425185103e-13 
2.6551455920656974e-14 7.455785050397646e-33 1.173350658072485e-09 9.140803341262481e-36 -2.2885846115624686e-15 -3.8495562491877846e-37 -6.746981121013882e-30 7.1956123639537834e-09 -3.461564606745111e-34 7.455650993913278e-09 -1.5739718928082983e-40 -5.168590630849558e-14 -1.8864681608475033e-10 3.2163801626400945e-33 -5.5028344926497935e-12 -8.518977223183719e-32 -4.229358842568747e-36 6.854742725041185e-09 2.5092654228181414e-10 -5.567171348309166e-13 
0.21643116517090497 0.3795825286597077 0.37312459231514 -0.3536402923281029 -7.89982692463511e-41 -0.23613189587384228 -0.5075255331172658 -0.12915648534386606 0.08943674311116216 0.35972944326544576 -7.683309835449802e-15 0.47857675321717585 -0.06702538204430034 -0.2729733636599064 -5.802965661108636e-12 -8.591627886623606e-15 -0.034023059283590375 0.31806067215524797 -3.1599639385749205e-27 -0.4843785389049717 
-0.052992088488185735 -0.21990790816500075 -0.14653882666451473 0.12293332881502618 4.118901051835163e-12 0.33063172435092264 -0.09551999407077265 0.18054197014148846 -0.2176616933802798 0.059583634804911245 1.5536972055088483e-22 0.027498542293149884 -0.06288104848115889 -0.15400404938362552 -0.11121129093082774 1.079618577747191e-11 0.0067943546154253165 -0.1382861534214832 -4.8275855241576756e-23 -0.584312869004156 
-0.05936191124236381 0.1302083211231939 0.19802431252983735 0.09899954717611097 -1.2706018720979258e-18 0.18549194957836382 0.07213606481872371 -0.013425855167638015 -0.10322046462768919 0.18717517586808605 -3.297605790063735e-39 0.0957364067066974 -0.13287705431656238 0.09570305834945826 -0.03675883641506436 1.2593707593628869e-33 -0.12209217054296266 -0.009814264923610257 -1.3875181070040935e-10 -0.4114131856415734 
0.15420570245171467 0.061415408937031096 0.14833138046706265 -0.11975912797745183 -1.2321702188486865e-27 0.060820918612682275 -0.05397400309676803 -0.19143557440542128 -0.03188621659263549 0.08276122053674341 4.592723889740233e-09 0.20127902577442408 -0.0897319512086271 0.17143742450669705 0.012943277103352505 1.4024633063676676e-14 -0.16999838013151006 0.11226223986579492 2.7287346374560087e-16 -0.7895938386140958 
-0.07045711826006436 -0.04267358304686897 0.030777288544835482 0.26700591897964404 -2.497455194940047e-34 -0.2367746923046647 0.24968522691041584 0.21060876333799783 -0.039082633031169 -0.05999626731413875 3.441529409059941e-35 -0.10512855928196972 -0.02931813346591109 0.132752701587098 -1.2080517099548768e-16 1.9288110612961397e-10 0.5080246979176631 0.020899061279026968 1.1340371151080776e-19 0.4131606010997514 
0.8397496612197444 0.5643833741179524 0.7827325354272968 -0.9236349483231622 -6.463812854079812e-21 0.3198268269325563 -0.6722668934953966 -0.7800176274574446 0.7670948272155904 0.4919701064062273 -3.669562868324386e-16 0.3565021061931102 -0.195017374122881 -0.871398195891501 0.00970990244298808 1.6163819163626e-29 -0.8609493800294726 0.6727773779739424 -1.05777355558275e-34 -0.7891425365686104 
0.09226384844138412 -0.0953125140758787 0.013377000945930285 0.08232116872323864 -8.286464988223306e-34 0.39721452779651195 0.1760941416159252 0.40726428495860184 0.03134442068809415 -0.06789994138454912 -1.6333483460226044e-09 -0.03466614990569488 -0.020839116446355336 0.06444218875954033 -0.10024692701964413 -2.0085225719253873e-39 0.08917993241415866 -0.16492894487276719 -1.5349199968542968e-38 -0.4143085055340661 
-0.3822096651056422 -0.1313590422890993 -0.5029741996734723 0.47209473321890677 1.264340017063296e-10 -0.2079060038293886 0.5710010149986956 0.5370221673779083 -0.14199683864887702 -0.35522371153435806 9.7624577449691e-09 -0.4263748563804983 -2.4325824702161896e-10 0.5420938891958244 -5.2293466338123175e-09 2.676687272478036e-09 0.28603143918123003 -0.19787107822305752 -1.0780947641409674e-26 -0.03672217148924695 
0.02767125635196949 -0.03261712354495085 -0.005474282231810077 0.05678841188952875 -1.5746735973751501e-22 -0.09042037961288295 -0.1592937909049951 -0.1740889955025356 -0.13036884457307016 0.29284160966528777 1.8828324364876377e-17 -0.037872315325341 1.0603493874676767e-15 -0.14787426650194915 -2.28800896946626e-26 2.2354745835808624e-10 -0.07242865948046545 0.09416395264305955 9.205128470411085e-10 1.3669280563948281e-11 
-0.34780764934224795 -0.3171923147428595 -0.216225599399262 0.3391227015829585 2.0234752330333794e-34 0.05336874790637066 0.5033732695111716 0.2664964021501628 -0.4609957240608706 -0.48809024501015846 6.556572308193628e-40 -0.28614497946952877 0.13472545862506957 0.568709623834836 -2.744417176149493e-14 1.3235953743593786e-12 0.5274531235210155 -0.11123134695089734 -1.6108726281150795e-09 -0.18689113229763513 
-0.18532677549725735 -0.06748905378558025 -0.1343703361326769 -0.00884219697412921 -6.486150617930014e-31 0.32713977656482046 0.07097240246120816 -0.17069396997872668 0.07690864833404729 0.04625924738605385 -1.4491483433247342e-11 0.1255968760948453 0.13985030137027543 0.1739273208531928 1.6572114633052848e-11 1.1251713564234172e-33 -0.1753858298185784 -0.10980787283866468 -3.2933749079819284e-17 -0.44648792876466475 
-0.4288460387846765 0.030742414418493635 -0.03853247283921282 0.43659890589631567 -2.8303438842924605e-13 -0.1552324737374089 0.3013455933965541 0.11186631988898815 -0.2781015011736737 -0.5052120793034427 -3.903467993028735e-38 -0.2953195761736422 -0.1532967190844958 0.2156051247591267 6.264838708721493e-27 5.104845414929937e-37 0.5179994298218837 -0.3371450814990773 -2.3715204353938387e-33 0.10266827857907793 
-0.006619776603141249 0.2760606384839222 0.25913585381630216 -0.21145902538190872 -1.2873292804529012e-19 -0.3813555580886879 -0.4231432850869118 -0.2944760606876339 0.007527257893846542 -0.253794383212682 1.1373515311981157e-22 0.1842014605361833 -0.09875838737435381 -0.20544126212096217 8.095787128910761e-36 1.4708683704442506e-35 0.16623401247447256 0.01858221779659114 -5.94001595837359e-32 -0.22691870820517496 
1.1362924059148161e-23 -2.4041787619716837e-12 3.881582716316866e-10 3.261040913943315e-15 4.1090182734560935e-10 -1.1245465259806133e-14 3.058080206190257e-10 3.582662466348477e-10 3.559763454479248e-23 1.5873099873067568e-22 -1.0507806502226547e-38 -1.137131960141272e-14 -4.633707670493629e-38 -1.1332014487498584e-14 7.107013740619842e-10 2.2085129124909977e-41 1.7714588535367202e-09 8.544575646345009e-31 -7.708793409947957e-41 2.1617820680427065e-09 
-0.6713830722377185 -0.38309337877880384 -0.40179051745631295 0.565945159819421 -4.801161622383311e-10 -0.3521646197811703 0.5715301977566491 0.6487514030928824 -0.5364740490751635 -0.5908592510898519 -2.2373990452132657e-18 -0.33395987039253444 6.527763966596051e-09 0.4421251984130626 2.5340307802265972e-14 -1.3139913770220201e-17 0.361753413286497 -0.6115578497096873 3.454592672735828e-10 0.48419309301239566 
-0.04053258886306028 0.21304673409285388 0.21479420186507409 0.20130243597484543 6.241329042880263e-40 -0.045545168914527284 0.10775897245494774 -0.2501128252049519 0.042222666257420174 -0.37955624936839183 2.694086308161128e-28 0.08386109020297598 -0.09561991766224219 0.25260289631956107 -7.720195670429375e-13 -8.280944477187655e-19 -0.09616782293061366 -0.047392624146178675 -7.825420181539169e-11 0.2339813257619134 
0.19320913294306677 0.34465739956355035 0.13543374290245133 -0.3902041989455576 4.865187621524075e-38 0.06999898393445526 -0.11847478167674856 -0.49307386600692527 0.10104423259134183 0.4436270448097649 3.789606925166616e-15 0.4160843415618082 0.06256312632139527 -0.36472685013845596 2.795417541433931e-11 3.938910642479473e-39 -0.4419207267429955 0.30800302466832874 2.0438597217636004e-26 -0.30479442026329384 
-0.31616820222927433 -0.22883250082131185 -0.35027310492017466 0.5061222031763996 5.549760539527578e-23 -0.07989822595905711 0.5866007145295987 0.5209861163860137 -0.519359551935727 -0.3117819048774596 1.107981350262367e-09 -0.5566423913856924 -0.16703564644669378 0.43437559910112694 -4.124290240780994e-17 6.4356199464537936e-18 0.48482394029052645 -0.29317781681825406 -1.8823224884031255e-11 0.30319861955352256 
-0.40191824801735715 -0.5817418069114209 -0.6647566468809752 0.6777843562494871 3.774196617957925e-28 -0.18917995606959528 0.8526444673794119 0.8825824539079 -0.3235189510074972 -0.47044101734080335 1.107869927131252e-35 -0.4213647312355172 -0.09769569395746884 0.6909798161710637 2.3022422361074997e-34 -2.263837221441325e-35 1.031714218847768 -0.6035650864508593 7.785560926334448e-18 1.139671499623089 
-0.3593982693933211 0.5079414786579998 0.1882596091416072 -1.091164450016126 -1.3720897414813091e-14 -0.046680034032033114 -1.3661519159727844 -0.6696788384367649 -0.17612569631515032 -0.14064370839207416 -0.023383178952872802 0.5234158387840774 -0.06722866392223864 -1.3891002688342882 0.038207294114498296 -1.6891796584350182e-09 -0.8271417832746508 -0.07265294587246911 2.462464024088611e-34 -0.6992087542404778 
0.11578230292976174 0.7625529448483085 0.34645273281232375 -0.744766041290645 -8.100853127946425e-36 0.04940550775065141 -0.9270302701936086 -0.5890443401760298 0.0862448043035864 0.2601343218399292 -5.543147712527684e-27 0.4415659051990819 -0.16997191020419913 -0.8898013991051179 0.09792808781275004 2.8754598015073306e-26 -0.8332668433801382 0.30858439721306213 2.647176189112428e-40 -0.618175567028822 
-0.799984638273311 -0.7295868911349845 -0.7500204298924151 0.9059161991514711 5.70655241886985e-25 -0.04513765032813358 0.7867085557556087 0.715916651626242 -0.5100130324530023 -0.8840367191016391 -1.2047880191753342e-17 -0.5363934552418804 -4.0136622122688993e-19 1.0734416119315053 5.600592830459183e-09 -3.109763873056986e-10 0.8816164883476184 -0.7093468864920508 1.1458677897604746e-32 0.7997105370238847 
0.5202700622690489 0.4181968752649472 0.3964666342888049 -0.477819570364525 0.010709065662161676 -0.12683179547640988 -0.7597167640927546 -0.31319284473330544 0.5573666385670253 0.540659578081133 -3.181926639592227e-16 0.5982393752369105 -0.14418266035628916 -0.6055073947649574 0.0675094011426472 3.6120871481723527e-20 -0.5757414467119292 0.5629921989365647 4.143183937784045e-11 -0.27195681262276294 
-0.5073605605250523 -0.6956239759104654 -0.565580036917191 0.7401361406986685 -4.28604347257293e-12 0.25741215481745583 0.6282010791585666 0.6081179983735561 -0.11744276664788766 -0.46283502428712375 2.1176227855670963e-34 -0.27421789816886305 -0.2308907022181734 1.1982716716134232 -0.0971636703194221 1.482985734734533e-15 0.8282529141263711 -0.1854537345741475 -0.02517621202104474 0.9254959108735019 
-1.0077399495734982 -0.5446507561466868 -0.7525151537730095 1.106000549400955 -2.1237717967488218e-09 -0.2931998532664115 0.9799018497237231 0.9083801430788531 -0.8470334348972233 -1.0128857156314053 -2.9303004723491576e-19 -0.7799525991189594 0.13234018006087608 1.058650923804696 -1.0770231250742022e-10 5.293155649371335e-17 1.0589557976350958 -0.7148524738160341 8.708220020811132e-41 1.130443481242808 
0.2415740954027939 -0.07556788235901854 0.2911816563771101 -0.1336255900091414 -1.4342065317466482e-34 -0.2294259723234522 -0.24010925661503696 -0.09109549870489667 0.2175993178644459 -0.13649637056371797 1.6175653047038989e-24 0.31020265814282955 0.1421333150982667 0.030927449993278344 0.14355586629615796 -1.2240068531819176e-30 0.1569475920751073 0.049162543669944936 -7.056537680476684e-25 -0.30671429503503156 
0.18283089885286222 -0.14529467592008982 0.09839992585635049 0.28970449824841615 -1.3868586045817846e-22 -0.051809693118942485 0.4537368959799103 0.30399697949169824 0.08406765492962748 -0.0021097079294827618 6.831194661654915e-23 -0.05365895616544617 -0.07021413291196212 0.36057305742227264 -0.09338388847739826 1.984778802892312e-14 -0.18789833723565896 -0.16749848019834845 -8.540128501596629e-10 -0.02658994031034759 
0.5524914427232532 0.42074684928581635 0.3013242700178118 -0.15158585412017775 7.459716058407224e-40 0.38365487933062453 -0.7754290224945402 -0.25595010230969784 0.3030469216653365 0.7890087329537209 -4.7193756320309735e-30 0.19240483131614328 0.05828570098824683 -0.46654563657128834 0.1676657852193407 4.110427335334574e-13 -0.14146110370369575 0.4492327590715302 7.336746243496135e-37 -0.35895759524882864 
0.6106097042026347 0.3679750693786786 0.3351976607624781 0.10646136194728162 4.993286096802216e-12 0.5111691191798486 0.1243295388414565 0.08671359902169393 0.3474090404613694 0.5573201537299204 1.369215801330915e-13 0.2430418498318873 0.1380455928841351 0.2354393919282145 0.12313752250844695 -2.987284745997889e-12 0.12156555523606949 0.539560469807706 1.8253762851190005e-17 0.09643924231576669 
0.5942651820242092 0.1029260657867596 0.2588805777902863 0.23889444503643664 5.386570583700303e-15 0.47702797601316627 -0.05009714428670751 -0.0484628158003614 0.2832132020404806 0.2567714454476687 9.503737672174223e-21 0.31240780750960184 -0.033024511072461835 0.024307944572226948 0.028809530584267364 -1.6586319256207425e-39 0.14328938567756186 0.39764457042381357 -1.5830415694061865e-34 0.27347699445899576 
0.22412861105445192 0.3114132209459214 0.4958859423863405 -0.5240176932142424 -1.4283707881298952e-22 0.4975610821035974 -0.37457173628200713 -0.3341765153042543 0.157191111761751 0.515578392519551 5.029194329338501e-33 0.08120246674551239 1.6099979017664147e-17 -0.5191121087711039 3.4009849134577414e-38 -4.811600551831669e-11 -0.4572198951719068 0.20824037773763993 8.942623385739468e-31 -0.5036875711170427 
0.4749719083422343 0.29232161476986923 0.4828464239045838 -0.3275775127518102 2.43170264330502e-34 0.17965574821504837 -0.42523862548252256 -0.2209009134456168 0.4673695252128615 0.23774226911307073 -1.4857518264162094e-37 0.39844706929577456 -0.16274826895501546 -0.3108614412377489 2.1917214364612835e-14 -1.5775808727523926e-42 -0.5979961681704181 0.23010939651091858 1.5777379968588404e-10 -0.7407409380593469 
-0.2683437782727863 -0.06586864678599909 -0.2553667705539175 0.40427160976213306 -2.880085792529275e-13 -0.2341256455160473 0.2929765309406824 0.14504403316053746 -0.08197049631758768 -0.466455587726316 8.835603496841174e-18 -0.009746274863885436 -0.033909030989627324 0.43578413615424555 6.043249062659651e-39 4.210524472450956e-40 0.37577875304728675 -0.257368749113911 3.0738567652801454e-16 0.514124613320587 
-0.12713934082264808 -0.12238175124192113 -0.13477042499537298 0.24754589970346447 1.3501270142979536e-35 -0.4344407945649818 0.14892644203879107 -0.0058383598225007945 0.011515265316131267 -0.46269632225069623 4.531046623302826e-15 0.19580066418189596 -0.22497745930540047 -0.0012674881815746331 -0.16940118352216227 9.809616246188155e-18 -0.2697728535790889 0.035705414192597956 6.11268673869262e-35 -0.5256986161870532 
-0.6109355495180873 -0.1780688919740703 -0.1672882862247683 0.5791103044077406 2.1100214697109377e-40 -0.7434976063287628 0.7274529274868957 0.21768482841433592 -0.4536745106416188 -0.73203070504066 -4.594980278300698e-13 -0.3061846689242413 0.01622985142107611 0.5452095436723636 -1.101551389549532e-31 -1.7998468304620466e-10 0.2802199222466575 -0.31153451070730775 -3.7677954476947345e-37 0.6347867552802461 
0.27862506407422977 0.18505464557156168 0.18432958321486237 -0.07942640404487825 -6.583574267753484e-27 -0.09569219743642049 0.06036060606927514 -0.22013357274283285 0.22880139958742748 0.26013383912008703 1.7399172142037816e-15 -0.0635041116854314 -9.988930134665487e-17 -0.1416603646270459 4.869207045625163e-13 1.5954792398343637e-38 -0.08993669360998618 0.02211649638686406 -9.773602999805936e-35 4.185026640151985e-09 
-0.3842964470113 -0.47407984489016636 -0.32654968386271993 0.4203649290384489 -7.699491654281381e-40 -0.21873931918184664 0.35801052825895663 0.43736677858438583 -0.21102219530125194 -0.3843215591786009 -2.5827773257168006e-12 -0.12825686381418072 4.648123723659173e-14 0.5497139963032749 -8.60291695060109e-16 -1.1498860629699291e-20 0.39553087269793535 -0.304485374141126 2.098118853553273e-40 0.4865757432213461 
0.5072856952667599 0.3077903568155108 0.398448232363474 -0.18790524003747502 4.303145807658582e-37 0.48858047297908297 -0.32074137075367515 -0.19061754691492655 0.24462848376346238 0.43555090902462174 -7.380019917103587e-10 -0.01178164586943346 -0.16440881177688846 -0.18523688810086067 -3.667864166423712e-14 1.7776094320425272e-29 -0.419033127189572 0.19678361040039813 1.8005451083754045e-09 -0.2443073405720615 
-0.3656379057272496 -0.1356689615413589 0.03400582459707064 0.24597278520010382 -2.3101634893953887e-34 0.085112122285588 0.21434086126019566 0.03340526106739895 -0.272140297142281 -0.41684327045347397 1.905938805869149e-12 -0.1782708967399508 -6.439348610019041e-38 0.2889591910779049 1.0500223697863262e-15 1.4230345508213234e-39 -0.009971095555969638 -0.011078127529176106 -2.314150334987062e-09 0.3064830040610681 
-0.16680998734826358 0.012837818128388218 -0.11201735677915733 0.17662068594428615 -7.811876812011533e-25 0.0630891682782691 0.3714523688888389 0.02511833124722959 -0.1534237843586307 -0.27646590090330136 1.4959717298086582e-17 -0.012330019856676675 -1.3763340890891363e-37 0.1356386655122128 -3.0124033467148515e-10 -2.0507899064441325e-15 0.06637097069566734 -0.12475316864752278 4.115142309494055e-12 0.02688145012700059 
0.4538995758595943 0.13449235322669 0.2825825317987349 0.17259844761882548 9.07140462966804e-38 0.14044777987199378 0.09540965169573284 -0.19582718435229235 0.15778588823427095 -0.004568219830025342 2.3588107152436144e-23 0.1856381972524325 0.04502582476935078 0.005039379581249333 -8.354174725833758e-42 -1.0714779435707321e-17 -0.06726907475912428 0.1384695830472996 -2.497142009961697e-09 -0.1440439626582627 
0.2554739855799295 0.26845309484385443 0.4442891353516391 -0.2739404090814878 -2.1492885045502957e-10 -0.1807534738510554 -0.48733538015132605 -0.4406431610134475 0.3257391368341148 0.36705432458030157 7.546768348517621e-13 0.3443014634536688 -0.11550755850047592 -0.5572398628759458 4.783220338878487e-20 -4.045879771938263e-18 -0.31601320098159963 0.40793085628761117 -2.149557995344674e-17 -0.411124815022409 
0.03224472205099648 -0.020778377963189244 0.33313177293273005 -0.36817736660848155 -4.7617637613080787e-17 -0.14510825506806274 -0.1857774236875856 -0.2985656435088742 0.14828540319042413 0.022663380573305483 -6.121682283763263e-33 0.09386052926042296 -0.02561474091415251 -0.2728683462511244 -2.743577367354336e-11 2.4877967908316225e-17 -0.32564408221262875 0.15798977615451892 7.148449847067972e-23 -0.40341324267902345 
0.3869257569440363 0.3153175104535914 0.2183597345363571 -0.4310917929376612 1.7178572114021765e-29 0.08438311666418369 -0.5172292912641128 -0.2047265418041611 0.3360220135674924 0.27270020403812045 -1.0388618496054355e-19 0.17274860223854638 -0.017879830282122616 -0.24926724446121315 -2.4678854563092043e-12 3.642254909898218e-23 -0.23258397683121662 0.3840089263782364 1.0584169125299159e-22 -0.43972113419207015 
0.22401871859274627 0.2089951215442113 0.30315633337355824 -0.1450158721766519 -4.116501250125654e-27 -0.15565726824336637 -0.15291303923024482 -0.08488800614141373 0.13004407430421366 0.12474260026889897 7.987007454396632e-12 0.011528852272966244 -6.448929491109566e-32 -0.37005580802322624 4.8777702202459616e-14 1.0032696389042512e-31 -0.08956698944127922 0.07941264275376468 1.3460773980579668e-40 -0.16641030416863556 
0.4579556268983684 0.050337999063268954 0.40683167037627377 0.013900700968815034 8.053263986807537e-23 0.23379583263560874 -0.003933346145816411 0.018580721038002783 0.46776477577930603 0.49882724587595667 1.569819237177973e-14 0.35886713611353344 -0.2202438685385915 -0.11893136089360985 -4.807851845027556e-38 2.087058725380041e-21 -0.27056881866712074 0.3496775232424035 9.03253312238712e-23 -0.41727406148748014 
0.31402356790108105 0.18159735028301413 0.1743278214473982 -0.24431814244033206 -1.7006545073031956e-36 0.3178199090084642 -0.4277125385834556 -0.3577813969223762 0.062757621360219 0.1664121847016324 -4.3799156325272643e-35 0.12544665973618754 2.1804541578904002e-43 -0.35408037446527935 -3.459575138133254e-30 -6.116713120316055e-15 -0.517416254569373 0.29358788988317885 -4.6381751146013237e-38 -0.2926228996200062 
0.06145743766922684 -0.04776010131177003 0.13508646860958098 -0.242085966662154 -2.7311405848624062e-11 -0.21052937267672855 -0.28829884326521904 -0.159589880848951 0.3211426901319824 -0.06623598380389295 1.0223707829295272e-32 0.0956014971958093 2.956991324531651e-28 -0.4414080865379479 7.590775012446855e-40 -5.2363193309218654e-14 -0.3735867765733812 0.17299248811725926 -1.301378135026502e-14 -0.10435240595735013 
0.2096745994370307 0.2525802152289407 0.14134830791493472 -0.139371346927109 9.197111448832358e-41 -0.0912167212363573 -0.22890363226674476 -0.1800226684090981 0.15769226364862096 0.09377825203809607 -7.065642348638923e-15 0.09822527878759944 -2.44188166321245e-09 -0.3322182645833067 1.5814434785312427e-22 6.3269542683774586e-40 -0.36912122020694726 0.20172120853084616 -1.9614022995795313e-25 -0.130009919913004 
1.229274800320868e-21 -1.5621745541121447e-38 5.185409134534765e-30 -2.8889438424514562e-18 9.797617416858356e-09 -1.2741241402071629e-18 4.854175739176642e-10 -1.3608617309596083e-16 -3.408098438610658e-42 2.4558052141225926e-14 -3.6936526534512694e-23 6.443446434976284e-25 -1.843237882920438e-38 6.727022817422513e-19 1.3250934909494032e-10 -3.783962337182472e-38 7.598703367997565e-40 -3.213266430847045e-10 -1.2642580180569804e-34 1.1337749966400156e-39 
0.04317447461770603 -0.01757916910495976 0.12673439786965499 -0.2195263425145069 2.4659613840753403e-34 -0.511469934419465 -0.31825429353235085 -0.05853054574071314 -0.21581291692508173 -0.08522543024716024 3.2402941198769196e-12 0.1672581819106485 5.1310262285515445e-39 0.07255099939032074 -2.902529331808912e-25 6.058745071080476e-32 0.15521288645864323 0.10957938213215682 -1.3709803196842608e-15 0.15166919900920323 
0.4172042089923305 0.2060822113058609 0.09544855385608009 -0.6288227582633655 -3.864374246877726e-15 0.13157013201720186 -0.6821307096345599 -0.1351615243792837 0.6190734015851502 0.1538725096937243 5.633712879350584e-19 0.16591004522602856 -0.07367467403631724 -0.4187498205129994 -0.042356856177011376 -2.014220709489623e-16 -0.5758293357833005 0.1266561836045071 1.6885763918424299e-09 -0.31717583554880907 
0.4931735068788694 0.376944311604881 0.26835860919708343 -0.4607011212393857 8.442070253694907e-33 0.05089107469420301 -0.7019333752048009 -0.20595717268806296 0.3728430222394308 0.029643051280859083 -7.083803466529136e-22 0.3827628904142547 0.16299104168729328 -0.27851214351941167 -0.16067646857414492 1.4009342760192506e-18 -0.4881647885487691 0.3931075065532185 1.159603497593273e-12 -0.13015680110255562 
0.12668395652788564 0.16977372936340726 0.19490576928912368 0.24748506891674377 -0.003480339944158696 0.252782621282032 0.3467543103621411 0.034234713469323996 -0.04666991895211505 0.07258799876882426 -0.02433256920132579 0.06100943597371391 0.1022430568766383 0.01691205476195349 0.13226695027460122 -1.9127555783720437e-09 0.1381186184445983 0.1196623388744085 -0.0251777742849201 0.08850372468123226 
0.05696763799288497 -0.03438482270349935 -0.02425461452329925 -3.0912208629788836e-10 0.04013715070555576 -0.08276570073042265 0.31304979321590876 -0.4519554960691829 -0.02324384455744452 -0.49505813430887363 
0.5769183354342032 -0.026972962682206725 -0.025017688030891046 -1.735525409286958e-05 0.31333789543183194 0.1877669919265406 0.01210356424436201 0.19569434482589024 -0.021740710679625328 0.4980405013374362 
0.3514430084606608 -0.026973015201983187 -0.00035563301431854857 -6.54377576744885e-09 0.5450732551493728 0.016451596210178516 0.4247266584902902 -0.016176255178074063 -0.022016223316883927 0.1886408056299748 
-1.078916998208112 -0.02697289063706013 -0.02533501099437621 0.00014871563944919547 -0.995372706125162 -1.065953281722165e-09 -1.1071453070911919 0.6637012182539961 -0.027695311669833276 -0.02069445553205923 
0.11953368555972942 -3.279092690612295e-14 2.7611416184394703e-34 1.5973965725410943e-05 -0.01721878252502733 4.5961798435447716e-14 -0.05100052860928619 -6.0757012925889285e-40 1.1350964308985155e-18 -2.9337407249359863e-05 
-0.3179518914406873 -0.029550729871773332 -0.025018220785572684 -0.0006588307610264536 0.2092749111683351 -0.26443878323908954 -0.07593321756156503 -0.1723804594345682 -0.024754464578478713 -0.359629142990557 
-1.27513104825038 -0.015163921954894292 -0.025017407336096847 -1.5495287958822695e-18 -1.2247485982509663 -1.8831462118188104e-21 -0.8346260911031806 1.1375977446855685 -0.027696239399881157 -0.18992270584286358 
-0.14184639222038703 -0.02741075096781052 -0.025017121437141424 5.674503012437948e-07 -0.5806403713721127 -1.5855463538753735e-22 -0.7157581953586776 0.03244111401359751 -0.030532890583222068 -0.05777101380203505 
0.5609340883938487 -0.02697292111869434 -0.048200613483831284 2.398283020520951e-05 0.19805388333325671 -0.12700567585143768 0.6039480601982183 0.30186600317818546 -0.022399519872720975 -0.29812302857905754 
0.38117819889473487 -0.026007356888212593 -0.025029835232128386 -7.700835997957384e-27 -0.05584646116610504 -0.23905520321955356 0.6236619089178854 -0.6651365955152633 -0.021330545771803728 0.008590312081636433 
-0.0009629684192799348 -0.0005515656097724105 -8.599135016692041e-10 -3.707860788079092e-13 0.00015266721498287172 1.9415559263819633e-06 -0.00095643334636002 -0.0002133055697715376 6.700993598753947e-16 -2.019333079343832e-05 
0.43937148605923093 -0.02697311228604596 -0.0393080023655074 -7.964586094846213e-07 0.33328115177983664 -0.08860852801016876 0.13748694667209088 0.30083444632614675 -0.02305325666328438 0.458860819764039 
-0.38706953604670186 -9.40532566181666e-05 -2.972205826151563e-07 1.8775984653962364e-06 -0.014043310821077728 3.849943037610297e-14 -0.24509842833544399 -0.30562946544778835 3.2327380916155685e-39 0.19284028198347142 
-0.6787327766157384 -0.02515546713636914 -0.025005806919132064 -4.12766901701563e-08 -0.8314660066101321 -9.387864823877091e-18 -0.5012542377569033 0.98597052957925 -0.024407418116726805 -0.38145043813022594 
-0.061886369467358995 5.939949705032676e-21 -3.7679550430266614e-35 -3.1023932766454278e-21 -0.3370358103449152 8.365993817372701e-10 -0.00013236710315320263 0.30709821155152794 2.601036465087202e-05 0.16835941111421238 
-7.100048245441484e-40 1.5589941962022856e-10 1.3328160717448805e-22 1.115970425046241e-06 5.644178012106206e-07 -1.1997855921430342e-05 -1.2140610019627703e-11 -7.381879394787649e-14 -3.115306011286597e-16 1.7420375446357177e-31 
-0.6695364890522524 -0.02697262276971744 -0.028258056537399226 5.207560306121025e-28 -0.22201184077596076 -2.377576159685767e-14 -0.3764243456372881 0.1058925831558312 -0.027482894466986697 0.014438010437220487 
0.26163485377482865 -0.028265360873059295 -0.02659380922380582 -9.85986060327987e-10 0.4653410720435393 -0.25785043841369565 0.2380130191836717 -0.02519175631621901 -0.02230236919828502 -0.15301481354686441 
0.004775921913364916 -8.443917395215896e-34 3.396426271227753e-14 2.268512813906495e-40 -0.024739736875985602 -1.414658428826044e-22 -1.850457072937308e-05 0.024770165938473598 4.076842857629068e-38 -3.6085900924636255e-05 
-0.8291709829657004 -2.106848798924802e-07 -0.016756838520375066 -1.3036923938834186e-13 -0.8246723303706484 -1.0244136440724677e-25 -0.6352758499006125 0.42553530442814624 -0.02783332493704296 0.22079351600989489 
0.70826450332755 
-0.053681082047118335 
-0.043897145252360895 
2.0282276915269323e-05 
1.1127772983549888 
0.4293204501568753 
1.1347085436590894 
-1.3020066349360757 
0.00649054533110929 
-0.9772984732083122 
