98 24 18 13 1
-0.041493896533480554 0.07893173479610535 -0.19698802923775846 -0.1139535348698638 -0.17409890611162251 -0.2064685576044529 -0.10484945936732513 -0.018490685874214773 -0.07626585360476794 0.053173445359103615 -0.016448773273027604 0.10612454624152406 -0.15607873135104333 0.1773311390943929 -0.22375062755584585 0.09933093390330856 -0.06027956152268131 0.043811974459521855 -0.14289364398906912 -0.18628959416584143 0.16118511438451588 0.2615070616429888 -0.04675149995489095 0.2039615414494572 
0.22560692555817688 0.10981231889782263 -0.17475876622973188 -0.23435723118975754 -0.13568825840567014 0.17692455186645076 -0.25073349372173626 -0.07992709529015135 0.13238935995191392 0.031724090361635975 0.054969959619844265 -0.014834753113698251 0.05729143882998742 0.20815038625400864 -0.2584914456652856 0.1540180442730486 0.26998857942573584 0.12081602629179541 -0.09696243353152588 0.13547599424178108 -0.10397552564676772 0.03099724980061601 0.13761845042620865 -0.028422257349934657 
-0.07067680572940926 -0.21636873587903627 -0.2546410437732131 0.06601236231799168 -0.1299919512159367 -0.10274101805958964 -0.08137487368537712 -0.2712444404006176 -0.020498223080188626 -0.1662692991401942 -0.0507004473458869 0.14988570237559667 -0.16888544538939318 0.02360449975365388 0.03911780982049342 0.028145022755563298 -0.19767201074413812 0.023030567772019096 0.05631999393023125 -0.0073107701597830005 0.26076132872391716 0.06399106757945569 0.12584086253750604 -0.09785947781912563 
-0.0831192129520085 0.047776167052229125 -0.036233030828206926 -0.2396869921600056 0.12530351272932244 0.04784815582171516 0.09748597395560643 0.05583396048150211 0.06932731545857818 0.1014800144906952 0.0906704878307624 0.03772912271375088 -0.2004557566684606 0.281566520530607 -0.07907947525212998 0.29983992912820745 0.10840735394603086 0.14178450159913716 -0.16474651254820252 0.15623218633743308 0.0986082517709511 0.12912177774189604 -0.09929435214423248 -0.026105121586037568 
0.17707270032551276 0.02252999827307048 -0.24259055091981627 0.06687608454459719 -0.11460624624733691 0.01719929637917317 0.16055153434796815 -0.0512016545759754 0.20181733568761154 0.04877082961274385 -0.2210884608154032 0.18083932986826423 0.10790981600183244 0.20024200277046722 -0.11373792792940568 -0.1674081705484322 0.17342843888476273 0.07919230026341469 -0.18444061411782584 0.13543712456324036 0.12490624180064099 0.24599521547494058 0.09123884930380805 -0.10036360678890255 
-0.0788486298915679 -0.32290817425138646 -0.20044041222487377 -0.23380552177473132 0.10399846269396476 0.16379402268265067 -0.015209971991536193 0.07065874327762238 -0.311815520317003 -0.04930270242893879 -0.03778452756881274 0.3502844777893185 -0.09361620487771466 -0.06899768779848786 0.09398006918566962 0.009572288698733061 0.19309001232962336 0.08147786320769707 0.13687518021702255 0.09833375314381279 0.18170534900248594 -0.026559481140661836 -0.2913697175863937 -0.099297462767032 
-0.14628175735506033 -0.23885720396622298 -0.09758485511489047 0.046311206081258806 0.014430060531707428 -0.1436091034028492 -0.24589012826332474 0.23156639611477195 -0.004543179741934784 -0.17367409908517056 -0.13998652610435616 0.15373649663511016 -0.11460668952572366 0.07224859724013893 0.1892734166596194 0.20324152721814595 -0.10525920565537993 0.04661329098176089 0.04713844452827847 0.1453071784902639 -0.09124851404163833 -0.1601042583690588 -0.24746889692296647 0.04114282065378949 
0.13617334044287668 -0.059682373996079036 -0.07199634835724227 0.2177539294725914 -0.00018517572175727332 0.019706882335832756 -0.056134853833781015 0.064539059397816 -0.03867613749683686 -0.11765547699277357 -0.1728332647950036 -0.015362777840320493 -0.01715928232877353 -0.13312552615506526 0.09996705564407204 -0.13637846663319894 -0.11825459330056919 0.136892779974057 -0.1215406049202533 0.04284553931405333 0.11716494790848134 0.2818341007926787 -0.16726656068570933 -0.15444442984997075 
0.08099011410153793 0.08185082425153653 0.2347784560696814 0.2006382822582627 -0.19409828343383642 -0.10512359504855821 -0.009039994153527953 0.13827233103088551 0.16580775373466833 0.022187690119439413 0.11465531917942202 0.12383234253633262 -0.05207697037200487 0.03760024505307808 0.040957010443463816 0.08359190864692928 0.2102735826836286 0.17644908618062036 -0.04127834903813976 0.18428868692090392 -0.0966125950775883 -0.1713929908476404 -0.1576189800757196 0.01692848088014485 
-0.19101970865339873 0.1786335597307473 0.12980271146472439 -0.19366428971392344 -0.1284703739293663 -0.06615338951278003 -0.14668182902104213 0.12271583433344936 -0.06112272605319251 0.1754447954795889 0.032164386783587136 0.15064964118795665 0.13689635861868596 0.16138503207676785 -0.015698106147231158 0.018140948814176196 0.11834279823072455 -0.08459871625588207 -0.0038070368032231436 0.03890453701337435 -0.19345519421040225 0.03668405379914724 -0.02598879856855017 0.12185992784834884 
-0.10353897561295955 0.19789832180413222 0.030527280190851935 -0.1370169691783105 0.061355374443504786 0.016451324548565453 -0.2331832645167128 0.028765119769862936 0.10378065721740483 0.19019811906446754 -0.21778472636695861 0.17979071425358967 -0.10133750246770494 0.17039130718699316 0.020678103095834913 0.1074074561698016 -0.0049563656613682335 0.14638641333093616 -0.08465557395756938 0.06961710060792899 0.08936901460540386 0.21133081880674365 0.16891851092414534 0.17482906597850606 
0.11057976479583201 -0.05242062911033717 0.08025372314744322 -0.03169837153546316 -0.047397632109574116 -0.10606949195340687 0.03726903742332169 -0.014450742454415627 0.07333806257832239 -0.08493053068678928 0.22150304340821772 0.06213906378711999 -0.13023332819377473 -0.05940199170889859 -0.08918962002610878 0.11955061695265254 0.05217272327687594 0.15585203880370238 0.06408191456380888 -0.07714681143968954 -0.12569228967502707 0.13164249139810855 0.06905991425480135 0.1819132437180387 
0.08680247475773618 0.0778313668803834 0.009537478547678013 0.0844272188537671 0.057641170934238775 -0.05030396929122626 -0.08832178141325311 -0.2841010687463807 -0.1290967604709026 -0.14747526555831958 0.20084105847168565 -0.09154598491763134 0.12051075114524178 0.19570420323891857 0.0645155860905281 0.07507818807393463 -0.08995978527741572 0.030597275393685276 -0.060949995566858296 -0.18725094662840114 0.14520875087365132 -0.0007590648354719368 0.16837079612926192 0.2707398499497707 
-0.040893035890410205 -0.25640212887441954 -0.12173005247737183 0.013149261153829323 0.05799835674788912 -0.17198845116193476 -0.13696056686395483 0.1922428400223089 -0.11262571221807578 0.08702925390879707 -0.10540231844152598 -0.17968507568770783 0.05427726532549386 -0.013801340386432936 -0.14987063063292058 0.0776899941824811 -0.012996542371924118 0.12200134229342803 -0.14121675833184835 0.04973677702350846 -0.023512197572654235 0.09708534807432644 0.034302324682190716 -0.10449233224694819 
-0.06344513381274086 0.15568678584772308 0.19102848359426428 0.010978985181177481 0.12920036264905638 0.1516561771482543 0.12019093576868903 0.16306227431395034 -0.19219999728279125 0.05955236861575051 0.06903327449517278 0.052245240212107746 0.13852910178149636 -0.20177649578403709 0.09753345534783979 0.10294764994708186 -0.0782353451571004 -0.1393281256332959 0.05202362819674651 -0.07425839539539604 0.12873220162782428 -0.01839166757636083 0.11879364688014633 0.23340173656980673 
-0.1591720941230644 -0.08762035290681416 0.15703693473022473 -0.029519511696771875 0.1648637431011066 -0.04029783188413106 0.31375065197259455 -0.04646639492652585 0.029593428675595113 -0.06907027096089131 0.022956566837701007 -0.28324225656832774 -0.2798111609214947 0.060108818876415 -0.18741379122597335 -0.1055561610167148 0.061555091242697306 0.04792119792151446 0.07530036104357167 -0.23828168393859742 -0.03805113431808 0.06430301837749831 0.28284767885820966 -0.06675810159084436 
-0.13966844519353958 -0.10701287884636815 0.09893371878547878 -0.01683748772761523 -0.17664630020797784 -0.040746301938759416 -0.12369269634517334 0.173477546630488 -0.1004078721819178 -0.18854866963650752 0.03666474612403407 0.11335989409116136 -0.008357301314869264 0.07100577766899015 0.004352283404926111 -0.021781234576691448 0.23030912003202367 0.08668235375198723 -0.18663256832811242 0.08245504460886888 -0.02254189678630205 0.1692181483411384 -0.11030422862317489 -0.09204096385608443 
-0.19379957226862282 -0.0800252163091155 -0.14249088633341817 0.011674078677045925 0.06748223238899982 0.08481568638734738 0.13595843246125808 -0.059369815230351036 0.10809786288782847 -0.0404630552465055 0.12623607977590032 0.10976356305212676 -0.1460789754816335 -0.1339248799216313 -0.22666281755391104 -0.13583931244323855 -0.003921426555133464 -0.18009653862482616 -0.18847662417600564 0.07222677808712365 0.006278577972221917 0.1572611432580039 -0.0455814607105785 0.04548895057106716 
0.03226979911601925 -0.07305154524048957 0.11391044716344202 -0.07312714003405674 0.12537911447264474 -0.1284367067769404 0.08663132540220399 -0.13454467956876434 -0.018851445836490628 -0.16965531260212632 -0.019597871778747673 -0.14237201762944862 0.14929287568615476 0.26032612516829684 0.10186968871542892 0.26324731028144555 -0.1946955277486704 -0.0746500240016046 -0.1238722932430239 -0.03474998105803634 0.2545668552406643 0.2816175473606098 0.0006090623882719303 0.15421909395463942 
0.1453013491680964 -0.025905987675041566 -0.098924481625929 -0.1248427442022984 -0.21621204530169294 0.09059717010125408 -0.11669095394591984 -0.1812550368477048 0.12240247740741908 -0.06721973571294652 0.18075010249558845 -0.09548763401092554 0.10557566320792353 -0.05959287933112973 0.1420265743871118 0.016419257475242185 -0.08794230051780526 0.022975472530460693 0.16839538113610517 -0.21191398964429994 0.10651332496737025 0.21988382701537354 -0.13041314878141155 0.04784076078053085 
-0.09503290345559084 0.09635213837630721 0.02291980699294146 0.08076724655276846 -0.08364954574586614 0.0929926533518265 -0.030676301467263155 -0.3034474411060174 -0.031659993051120286 -0.027375500833028484 -8.746296072500055e-05 0.24744589977080045 -0.13179398695092592 -0.063018304206157 -0.07594787651908119 0.2571931441520884 0.23012489779897996 0.19810982183002038 0.16738097749365796 -0.15137840009437847 -0.13313694708413237 -0.08287063535654052 -0.06600616617789931 -0.11770340099657851 
0.1634909806966264 -0.03846275944705822 0.14778084619111467 -0.1661461004625857 0.07440852366676211 -0.10668827936697632 -0.020576545921198047 0.017850651424644946 -0.11978277090071322 -0.1667142222828436 -0.041728693748125316 -0.06615739744183705 -0.0017595459560869205 -0.2205204285093746 0.015020600412129674 0.1591854744662297 0.1060075351664014 0.02265403040278658 0.19000938562433325 0.2405908763628359 0.015363173906140292 -0.20594768838986038 -0.279125540618184 -0.16097613734903293 
-0.007681686406705473 -0.12030022124091218 0.26351467775142856 -0.16706542330909696 0.2168151980231149 0.09015989261843482 0.11779246818400015 0.05201799240194227 0.06653785332274267 0.025116688434962058 -0.20899656666775185 -0.053725831568744734 -0.09102805110352627 0.09877896018459852 -0.012269111012737532 -0.003481044240864897 -0.11381023210529072 -0.22407815938556502 0.10217703052722575 -0.10105079259831912 0.24405827843631656 -0.16952916667536527 -0.06750675336931594 0.04296682947719632 
0.11493470962612513 0.07255814248297261 -0.1491740281725871 0.0012727229930169022 -0.002926226698154608 0.07622542319389136 0.08207541821192067 -0.1456884902793785 -0.21873506106058882 -0.03854012895533577 0.08278422864678378 -0.2331093313840088 0.18162134532447227 0.11265032373622494 -0.01987056034167122 0.15264937931043235 -0.021108361176947588 -0.2370683406968076 -0.006084389160747893 0.12065800322189633 0.14134637492274355 0.05196533192205522 0.11334887532150173 0.04608066545640517 
-0.12161154920471337 -0.014008376159357239 0.14047069998368705 -0.06616207763286591 0.13754217558690873 -0.20031060231762696 0.040570907382707994 -0.1533147123104454 0.02973061284606876 -0.02832513339568779 0.11401589519995133 -0.011770265184722208 -0.13486222492264727 0.18743712876744026 -0.07546589680228065 0.1498112313682308 0.15596616493428309 -0.11031867409019507 -0.11323981738510967 -0.12505902041220598 -0.14203413232910284 0.011361268164822039 -0.13470710742026995 -0.11705235247485712 
0.05957330165715523 0.159280080559501 -0.16708293307937208 -0.11633567455544722 -0.13908283189337667 0.1805712477833213 0.09307862238850169 0.06990686459912034 -0.048183914189755477 0.08740875355895522 -0.025347985914407557 0.14115322209648262 0.15148581046922027 -0.08046262998953041 -0.14861386018091544 0.16507904707781976 -0.23139496729818146 -0.20366785682233313 -0.02696996299678314 -0.10361181914050642 -0.0801706748772391 0.07064907935387252 -0.1445045394675399 0.14015579133408618 
0.0696849267050672 -0.236346299634262 0.03963220574958128 0.18092493564291007 0.04585905382704761 0.15816823843811875 -0.12690531395173024 0.10627494936669662 0.17139643115648548 -0.07841888817628195 0.07026762864442171 -0.13821368752001514 0.11983182973786706 -0.15030077228614042 -0.04119099210177358 0.018682886865788517 -0.152744646645117 0.22888694805647938 -0.051050887052847486 -0.03176261013907233 0.0474557089782802 -0.10534424438860288 -0.20661456232737893 -0.16884081989738045 
0.051636517460294976 -0.11681781968448415 -0.056235888643837405 -0.18795385997595337 0.07983470897220311 -0.14861575337446822 0.17720069899813576 -0.15211402643760732 0.014644044784979025 -0.18154861846096804 0.13307906325334834 -0.12852683800960776 -0.049154426323526346 0.07280166038920277 -0.13904569558924476 0.03266992974467123 -0.07979790004371369 0.05413317410841662 0.08804325582726244 -0.1499135735976665 0.2216753992886014 -0.20542424727182376 0.17639424249502333 -0.012512719814251118 
-0.04960158150916903 0.1686423403552604 0.09572367023482634 0.16370195364284082 -0.09839093578263979 -0.16312099156918122 0.13204701458353152 0.16062810899469995 0.03319448599116396 -0.007100007542606099 0.09958579399156837 0.15560949026817816 -0.12630483038030232 0.17484528774086416 0.08349145662508196 0.05285234183802129 -0.04716261028977383 0.07783469190868912 -0.1985067210154709 0.06897916550501153 0.15729853958345094 -0.09379221350839725 -0.24124258955409214 -0.1325669836486777 
-0.10460323249064583 0.1377318105551564 0.01689309749651409 -0.17113547616642716 -0.14371329132373706 -0.1538605246482615 -0.04908886237560311 -0.06930223178304562 -0.058200889061650746 -0.008296771571607558 0.08765408038156192 -0.0024597408296307926 -0.08160355083430046 0.0738939490151117 -0.11028445618602062 0.004664864831927118 -0.031071805183349944 0.09042768563112315 0.15005543555823844 -0.056308837129306705 0.13522365317638058 0.021951666047037282 0.042683000123488336 -0.14634118610219823 
-0.011356132664999255 0.1479974338518724 0.04141836277188723 0.08515750272981022 -0.03160549690583131 -0.03697250565033443 0.10097627748332419 -0.17223666765046847 -0.016465834812034928 0.19864282819088497 -0.0061243267391675 -0.09524358122028707 0.136301913587843 -0.08642199945521645 0.07919602419002236 0.06790204431280852 0.14729462024827655 0.10477607767755655 0.1341750397804472 -0.1965459218745123 0.221814380940542 -0.10956017075353122 -0.0023599677390753636 0.21805039950247773 
-0.19613665638400282 0.13132748121166238 0.1343938440786946 0.005184835605784987 -0.09656730469390251 0.14031364018979264 -0.03141841352182407 -0.11430113641358805 0.21415324163081426 0.1972750088037194 -0.008091800920049177 0.14336311132130722 -0.09033009867361988 0.03135556485891611 -0.06128526503606264 -0.05455562227982071 -0.08112600869769436 0.19365459718844377 -0.08121137841638097 -0.18772174094996777 -0.18594286388231937 -0.1892574571574286 0.037279706601623774 0.04623652950970097 
0.2075046952947786 -0.03761601076836713 0.11562025908717825 0.044786227229956115 0.09535269422761275 -0.03593865060534794 -0.014991752014702072 -0.11015695888468661 -0.029030232779606924 -0.176482705055345 -0.035848623623630754 -0.13186987352843568 -0.07644545358264841 0.16202407003940963 -0.07082050839450121 0.1682113845519863 0.0004471813730944982 -0.07285368036753019 0.1370743242826059 0.14514264398590032 -0.0744470390143853 0.09350466241267295 0.015681700952092228 -0.09943691569119409 
-0.06686307437292817 0.12598251967887134 -0.09141066861969198 0.16192519125490432 -0.0807837504259277 0.029682360994617196 -0.017813028894262794 0.16266531272023363 0.17574481350265736 -0.12517758147983238 0.01226402130477225 0.17108647917439967 -0.014031916029498886 0.16539190007545337 -0.08728261091792014 0.027702844000928338 0.020356264940115415 -0.10758971558956594 -0.19417312273531026 -0.032661473409516105 0.177280212989934 -0.11310846325818137 0.1473757022939627 -0.12905768234360274 
-0.0622272804024006 -0.24380043490580586 0.09611087101790496 0.026043253201932688 0.0743274228412826 -0.09254386300492325 -0.011823063098300349 -0.10795362163010892 -0.1038136958484658 -0.050351229718732245 -0.05693088578346896 -0.09968989737105394 -0.039155005590301585 0.16279808766102066 0.017199485679191964 0.1622552842294718 -0.08444747110865654 -0.13924103768294294 0.0055382758633421725 0.1338669659464368 -0.12535085434625004 0.023598342527104264 -0.14410607034293055 -0.0010584298408061966 
-0.1343809176849968 -0.1540454142181363 -0.094115075928331 0.1487219870195035 0.11124389576125038 -0.01089023734557172 -0.0023182533597652447 -0.14084582170656298 -0.02159961697456474 -0.08012300636266044 0.1297644687981241 0.10664414798901808 0.027862826612871157 -0.10331775821504201 -0.011501483706881236 0.24901154473008075 0.11836112956023769 0.06663172825930039 -0.1383229687631878 0.06640656988171718 0.054998974314531095 0.008934460627173119 -0.10477425682493356 0.03896745420558684 
0.15935004772755224 0.10916322269749733 0.03111924255273086 0.2195870961305034 -0.17347967229235964 0.2057178690422414 -0.21551071463457971 -0.12451162637253053 -0.04159950653944538 -0.18241318166792048 0.02545377835749461 -0.1975165881415997 -0.08501825676447568 -0.16982655955340223 0.08030884003575894 0.08769703423596763 -0.0404202119516602 -0.12364618223849337 0.09766688040523203 -0.09271392407333695 0.13692044046139737 -0.008466271313194029 0.002656628327061437 -0.1881892003988866 
0.02873836272774497 -0.01561852563939812 -0.10718933579225366 -0.02590738294583801 -0.046180427358858855 -0.07513826493161511 0.2828142875047865 -0.05577137656168565 0.18687294989215802 0.003355588067412036 0.23642605199774777 -0.1326561909198419 -0.07442350292229961 0.11955689866493618 -0.18208071976770124 0.1278222126488476 -0.023399587711499737 -0.048594206979224897 0.19776024449088628 -0.1783791313634211 -0.03411167765555292 -0.18713052175007397 0.09950457153228354 -0.12675208499851817 
0.09720866372889396 0.19060602432380022 0.11888623791214425 -0.018854031892775666 0.07359474605226476 0.2182233380830081 -0.03626053070700007 -0.01739742317827333 -0.1747916378610155 -0.0513494155117077 -0.14215392751828734 0.13643313714636426 -0.004350854611859217 -0.002360106340210626 0.13358763377282284 0.05186748089147312 -0.05885967855658925 -0.09131406165384061 -0.17053277748848392 -0.03210517765124274 -0.0790189671649128 -0.0787913547289761 -0.012802046060784111 0.2360785997284022 
-0.15541068707436145 0.12936853300861753 -2.6401452544161643e-05 0.1097153398108102 -0.141595166896775 -0.16600063360789105 -0.04594080766218317 0.17703237621285978 -0.08217443396448795 0.09936128413869372 -0.08277289486338213 -0.17928315040483045 -0.19297452847788482 -0.09506712668069023 -0.04672834975988528 0.013567983143876198 -0.21698650639683872 -0.18656708267160488 -0.1930313237978507 -0.15362726254146722 0.03875541825525022 -0.03820729408142666 -0.11248442690624126 0.02268226019665841 
0.22956506397445864 0.06852109267515971 0.07875673399188396 0.14844244209530974 -0.18362545877531114 -0.1828964338048199 -0.02314630468329157 -0.0036006357226269783 0.14711510459188856 0.007870776513206591 -0.0020954259787303456 0.2248106653228706 -0.10051279852120536 0.11630219954309172 -0.0974323208855138 -0.06076186020347653 0.0011117586362813035 0.01969469888810947 -0.1108270402261583 0.12383347484857805 -0.05255835143383105 -0.1335869685494079 0.12125263094300841 -0.055942656230642984 
-0.07527905183971599 0.10038384228262903 0.010087685244160326 -0.16890762214226507 0.14874951673924605 0.12720046262070414 0.20803641886089005 -0.03491669698574566 0.08065697703604628 -0.06323379742715424 0.021407597469369193 0.14148470467582525 -0.027075246496933984 0.007298491588230083 -0.068575447710403 0.051252553403391896 -0.13789653028363485 0.15509152095209525 0.09954786385223341 0.16712516869955962 -0.10405870295127234 -0.11458278420094739 -0.13156891308639457 -0.07022037401999759 
-0.18468756406412457 0.13029193317297957 0.06711214475342585 -0.027249253669971534 0.10598513529151642 -0.028099734457413095 -0.18357218837195752 -0.14515002561701604 -0.09416939246645038 -0.0727500349085613 -0.1785186965871454 0.005386173230945521 0.04919646456667787 0.007606501442141552 -0.026508240722015255 0.11186867055422763 -0.03851440842619183 -0.19350794806527247 0.14832250659367896 0.04881909527042049 0.10053971697996236 0.16561789780103453 -0.23382271229528467 -0.104839348170041 
-0.17404575634189443 -0.07611411013142998 0.13546025867159478 -0.16663978271311133 -0.0105129521963258 -0.17077565019006727 0.07912181867725407 0.10372794885701267 -0.2331218094902148 0.02088356860835073 -0.10310197167936884 0.24151321723714603 0.1549414706474 0.07179069909046998 0.19193129023250038 -0.036625543855895545 0.21440680046070343 -0.004510127840482883 -0.10454190475113921 0.23479328255495127 0.11973151900034339 -0.17341011734802883 0.1240668292164082 0.09322743969430439 
0.066486194405516 0.05036355282086238 -0.09748938512866653 0.09124176435483607 0.12477703497467676 -0.17778828311370484 -0.14687802997829152 0.12216381311603455 0.06311817235255596 0.012236261523336641 -0.09954848394634079 -0.06496265800317592 0.1428620988481188 -0.08763308510606438 -0.17360521538866228 0.204950017000593 -0.16410819545573443 0.1458386731944608 0.1518364617642104 0.036826847820007 0.07337086442036603 0.039045139086826476 0.03594194303277858 0.19798092217030622 
-0.06936099423908397 0.18955468077627838 0.02652630391110558 -0.15309934724442234 -0.10807238280145906 0.017039743121008057 -0.11697827486890504 -0.14651281634461366 -0.1149277331755246 0.12194655748145426 0.031213216596333023 0.17675069727494025 -0.024766047998997738 0.007433717407413335 0.030803268131195893 0.04167601270130011 -0.14985499591972887 0.08572340560501447 0.17174420169020094 -0.004767514986266586 -0.1073911626932131 0.09687498221547897 -0.20768048791940327 -0.06766592379552261 
0.23378422810381919 -0.009231848384970064 0.14111025036317154 0.041099758949427544 0.12797738904467967 0.20356489986710175 -0.0954818547838467 -0.14992814474410146 0.046011255801975764 -0.06749424513076369 -0.14840168350797844 0.0889971973389664 -0.18511161469534165 -0.09840083603511914 0.10893994454225969 -0.14176889540882986 -0.05676242533912667 -0.19108020141889562 0.19874996747008444 0.03217060909784039 -0.04373764677227141 0.20994082217199364 -0.04545358153655946 -0.017733223804559065 
0.06540627588255916 -0.1325791940699142 -0.07680089683935767 -0.06392147348947962 -0.10108596387851786 0.05171639082697471 0.12342582341861146 -0.17055903679271792 0.2448590107842272 0.08695816563761452 0.17021870375250406 0.07635228091107334 -0.13106374380354735 -0.07519077223790115 -0.021273950299430924 0.03449751347659654 -0.0006193221484276448 0.05881419156910672 0.07160173705422797 0.11434991926890249 0.017125406960637687 -0.13862284190801996 0.1504362285046719 0.040812039954046 
0.19999341473074145 -0.11377693319222804 -0.1282762314382536 -0.04276968929181842 -0.07072296570640614 0.1608126292263438 0.02309149599410916 0.09741752994407021 -0.054189550250818896 -0.15943021726779508 -0.1531268305438029 -0.0350897490295131 -0.12137449102748943 0.164252252101419 0.039111979068388585 0.10544617632498804 -0.01184383393327807 -0.16398843700055257 -0.10483703646726426 -0.0060475499405679934 -0.11946910603597627 -0.18941397995011386 0.08037959226464693 0.0778814281306682 
-0.0668174663822542 0.1384961125647051 -0.028047661724753054 0.15021113849752427 0.05791254788523459 0.006443247272751156 -0.11861138120755975 -0.061377063135742684 0.177393673183943 -0.07691807802711859 0.1580685901713639 0.18631376899253738 -0.06703483831020716 0.0664521821285631 0.15888893347257033 -0.20895801963780308 0.15275970963905836 -0.122583208095728 0.13892494966297675 0.08648307971469898 -0.07852812364884167 -0.1384637283676957 0.0618213692385827 0.16460813583885997 
0.10446669032142099 0.05899745808210963 0.18201406567873069 0.03528103665698295 -0.11977380979869837 -0.027698170167794866 -0.07087723190848319 0.21872560648907194 -0.0493770847161106 0.23089681124719028 0.00734888555601443 -0.14566814083928334 -0.1694948756273122 -0.05934002543036993 -0.14974075916757446 0.05663201330134454 -0.0527736815687241 0.20768184308808793 0.17133000800245346 -0.1393259846560463 -0.050258487358194395 -0.03768235422251694 0.03531485621716576 0.0923343392506185 
-0.06206389642644389 -0.06934596968793212 -0.09406740396725753 0.17289194829400675 -0.19071624293854303 0.1715573403604122 -0.12353600541834518 -0.0019023463469436451 -0.07978020504796875 0.23790356136163565 -0.15000189203489567 -0.11813520925506486 0.15405881441089128 0.050637859716851336 -0.07522532782732595 -0.19946228927935356 -0.20588732190343306 -0.14087080731266327 -0.11752482537024685 0.17429341984997537 0.18253221576521803 0.10301770326475881 -0.02722773011161094 0.11529355868802907 
-0.04214753056283089 -0.02829072189742329 -0.08863463083863678 0.21676822837790305 -0.04439332092989073 -0.029913596400556162 -0.09708990464464197 0.19930898122788931 -0.02430100646021016 -0.07987295280922709 0.07738412100427318 -0.16642652474229344 -0.17186816540531988 0.11505753422890869 0.09651977504528418 0.03551656205402799 -0.10958202651547752 0.03863946641548989 0.054420140795107964 -0.06793875758530735 -0.1723653729616125 0.13990592324171341 0.014858962082354429 0.08400527711102275 
-0.09730961428984165 0.03585824700624263 -0.02790888983657455 -0.046325435269618916 -0.14841069563965564 -0.10115852837922673 -0.1675639729863707 -0.07776845847845253 0.09554792412600999 0.04518562771520352 0.0679310264266074 -0.19636280625889505 0.07030217986204151 0.001241925730973627 -0.10650691012041602 -0.12899323528269419 -0.12493696969210513 0.1367052247007099 0.19269214818649033 0.16476283439609216 -0.06007836526328054 0.11096867249629097 0.01818324267840541 0.1255099962072339 
-0.006358745141344756 -0.0592805519081566 0.11379161727012652 -0.1591090857672161 0.01447767057364252 -0.05270194654012642 0.017745660256069565 0.10548952687231761 -0.1438622654564448 -0.04202962424474992 0.061687617786030505 0.16054785109999908 -0.054791906912765455 0.1734755039726894 -0.03767679550231002 -0.1446174828925704 0.06285219557038198 -0.0652177914581101 -0.11169302078149386 0.1354356936883393 0.18150602161296947 0.038790337426509655 0.010489798215391189 0.016424196292490856 
0.08384446931575858 0.17675971287514877 0.14574496385377078 -0.13199304514741064 -0.0936121609436642 -0.21944455086646633 0.19757682673432964 -0.10431387578126433 0.04987807762631841 -0.16339878415583056 -0.12879098724674573 0.01514039506529775 -0.1899918607039663 -0.0511754433681557 0.004402978038787893 -0.05681525188178152 0.029765876428743242 0.014384057999755256 -0.042962688313889955 0.055083613423724725 0.09309985276944928 0.0818819412880103 0.014319136899467748 -0.06083548802791757 
0.037277918098463335 0.18142893717060196 0.02923862431704981 0.219340866410742 -0.02310717676064873 0.09471145798642158 -0.18448811955974934 0.10527942177586533 0.02145901296609281 -0.1976101894803168 -0.10219939605649223 0.028749717175412005 0.1060547920499439 -0.20476888202967064 0.01920325644172155 0.14788786927919517 0.05474218976765646 0.18316139482679436 -0.1694311277918277 -0.08701513498166334 0.19822943954311334 0.09324826083295581 0.029340471544163742 0.11636420693321042 
0.2095170238288346 0.18109062408184487 0.19917130573234956 -0.1431911216340497 -0.17112835968110218 -0.16994347835595247 -0.19377617557395638 0.17324218713163614 -0.214609611146495 0.1356888407766156 0.06743731266058364 0.02877923236715506 -0.060345915772373575 -0.027516566633493722 -0.09732950270767472 0.21683586307408026 0.06130809024036756 -0.18923131938291746 -0.0150546344238149 -0.08636078958189695 -0.1819945320034748 0.2023564391538405 0.08432445148767316 -0.06707833253796232 
0.14572834123045042 -0.11769243946907658 -0.07576820119797455 0.17470766794766 0.26288841691925285 0.06330522652870764 0.1806234454835214 0.15212627295011424 -0.010239388443337796 -0.050024114705867005 0.10614681875142537 -0.00044824968934497657 -0.00013883345912853648 0.2186652571168528 0.10844001913477107 -0.07233397684591276 -0.23393509428910003 -0.12496807465860457 0.010498788074847517 -0.03251238067382284 0.14974354241156343 0.19707556769759313 -0.17904440014498813 0.1766723244156171 
0.1641220083327257 0.24211201838576055 -0.18438308001028578 -0.17638106194228398 -0.1974145744685757 -0.07921400752671205 -0.17714553711087233 -0.08135213675885186 -0.020025300611657134 0.1611109097510362 -0.009009988051451784 -0.1363664570289149 0.04112459041873812 0.05894165596875949 -0.1546579018058227 0.07420470648247374 0.11273274975256516 0.1421277862402493 0.15536612841275366 -0.04642752719983452 -0.03906323102443191 -0.15856445600360292 -0.08028466788616656 0.1685756283637175 
-0.04618905889795116 0.12025499540944527 0.15538449849109962 0.14735978751311068 -0.13654022995298334 0.21714135330431053 0.03509868875553623 -0.11463748048023881 -0.07316488724149803 -0.13502202758619228 -0.02687858020591949 -0.12379452405291147 -0.13284780140991626 -0.12002941885577165 0.07533427065774208 0.09294941479617366 0.22349673093022698 -0.07090690450283026 0.050956745672931875 -0.1857763812005746 0.006329572673843842 0.20532028551602283 0.15397094490178623 -0.1957568412017458 
-0.09772833898480042 -0.1365603534158863 -0.18045609395807952 -0.19563504388278072 -0.0038297870211604942 -0.18129018272552105 -0.08754707901513786 0.05506157456921548 -0.10832339385595632 -0.09100948312383006 0.03552680252939144 -0.03633687604134185 0.07016362889262237 -0.0035475455425546774 0.052382283947754904 -0.05768936922684446 -0.08407029436035651 -0.1663848026922405 0.17421756400410335 0.10610709104774288 0.2123340493624066 -0.12477715319566082 0.17346083530582573 0.21082596604236745 
-0.09815861598910215 -0.06831793697558229 0.020136890365099133 -0.12481384894268135 -0.022677111105284257 -0.12480242976632941 0.23076034479135168 -0.002411630342553964 0.23804940227082208 0.03087323333414227 -0.006128454141544618 0.17259130221015642 -0.14411435766508943 0.023016802725288228 0.06375184557196475 -0.02592450892191413 -0.22783690010426197 -0.0028421931274516046 -0.013638418285483934 0.1688461015230494 -0.09620118516024646 -0.04263885998835931 -0.08093954959090675 0.0735102167467665 
0.21124358949657288 -0.1391430235437071 0.12752232649281378 -0.10647481917203944 -0.17622197797690986 -0.16884280413181824 0.1979744246909821 0.17900883220094757 -0.09241117906088762 0.19097604098476298 0.13257796251093765 -0.035421499512804676 -0.012495876873010497 0.04881194440453667 -0.13578202079168858 -0.1937606052551455 -0.08704948530239454 -0.19349163991620683 0.06876066249195775 0.02015152107418094 -0.08433001152580777 0.12013462550608305 -0.15034744777403514 -0.10091284072305581 
-0.0819693842446273 -0.12680333353135592 -0.1640835453854026 0.1378044277378744 -0.16398238067343224 0.06562337678438791 -0.15095944067125658 -0.19542090527438294 0.025330559774077582 0.18130655060915665 0.15951116682506447 -0.0709394936616643 -0.1887303469421478 0.1343798545905972 0.12130728111464469 0.1632389058865151 0.050663228952548274 0.1187542317239299 0.15819235840277737 -0.018071581655552876 0.005306854015832059 -0.002409140903412532 0.0852760334759301 0.06585043004430105 
0.0912677257483565 0.051586336744252864 0.002256947637100122 0.128330679390566 -0.08614383821358156 -0.08616944769106316 0.11505403944410263 0.09019802921236073 -0.17468834835044797 0.1145024362362685 0.1095988145769118 -0.0942040041895297 -0.16586639902763775 0.11573967149836178 -0.10907735193953927 0.2098152348355312 0.07884073917430164 0.1538163707095306 -0.15604483605513772 -0.16556324407081086 0.1482946351736522 0.009930700893915947 -0.16436125698874696 -0.05069083514462336 
0.06782505965508949 -0.1230863020064086 0.15747706119642418 0.2126775262500369 0.17976253515716425 0.09090456100049192 -0.046063801046549585 0.12136180594486683 -0.08066137843371878 -0.07316783058238799 0.041583157177193734 0.02920222433364427 0.18232316101126772 -0.12163637106600204 0.09674508134303605 0.18170820992610884 -0.23810807893206998 -0.00934732984833198 0.06182775887915825 0.16722503222577734 -0.16916254295801908 0.1449614495145378 -0.05334256968785421 0.15887389598728344 
-0.18850571607550617 -0.16511508840838326 0.19221275191643064 0.04300709556246989 -0.03230362485205763 -0.13127969965571762 0.058995930799983075 -0.18474343241105165 -0.07428316234262801 -0.06956430429160856 0.042193468976810186 0.0593647599715602 0.13742823225577336 0.17036787803571948 0.06318396503843238 0.030651980330487483 -0.039762529013099936 0.1862002610981154 -0.1373743352739934 0.15721739288884487 -0.07452225216004184 0.018981730879997986 0.07176912973810468 -0.10427961889240746 
-0.131874373407156 0.009206009213010334 0.1579310829008008 0.08723230125304891 -0.1515359779850091 0.19217950160381606 -0.00791941746410075 0.20016953117407593 0.029441013243133255 -0.16535323878371205 -0.11791455771100186 0.1524978870574326 0.08881469716182303 0.15951915880070486 -0.06731236132859479 0.010948951584436505 0.05745588020136561 0.02426209892020174 -0.10628479195853403 -0.028685597369062867 -0.0996201974580212 0.15022679186437 0.2217131340749796 -0.17273763011949966 
0.12674597093784956 -0.09899705758070156 0.0493056914806909 -0.09561409751376718 0.05943469555530419 -0.05065789365426703 -0.10739667068800238 0.15128246639579604 0.16500344788873914 0.04460640722020127 -0.11309716436728576 0.22457148913683925 0.08066535211848239 0.13016000566415709 -0.11419889757973634 0.13102643857403853 -0.0991210538910241 0.051753425275652534 0.08318653673981351 0.07588715328526613 -0.01939676654612208 0.14528083143952977 0.14697242949687972 0.03429437396641763 
-0.1630835403404683 -0.0758622793879183 -0.1570761686595181 -0.12986590833222797 -0.1485247320169649 0.05308751924305367 -0.18375422968229085 -0.10224240066169976 0.2528354622953957 0.154643292877892 0.04139585953137387 0.12458101951870615 -0.18211429416025235 0.10871948293672756 -0.07440963279395478 0.046016658681144025 0.05036768657942558 0.11327521236216416 -0.016219503101902035 0.2772438426922685 -0.09570869809610956 0.10559531565541036 0.13715259098207191 0.19385290009374745 
-0.18650227735040245 0.14869202187403208 0.025686226773012744 -0.002958844630009963 -0.09517903112337059 -0.06823231123471625 -0.09907986912766104 -0.1111721585062841 0.18472819990594694 0.0009351062344813038 -0.16600579451900582 0.0698566349340962 0.07000818678570181 0.05620362018887649 0.006014830676475335 -0.039276956750780787 0.16397714191131627 -0.1882900427325015 0.17246800596416023 0.24117954880369155 -0.06335194055732711 -0.11309833146546339 0.10738488331322207 -0.12775597390732768 
0.11727846490201137 -0.10362911897142035 -0.08257032331222748 0.18406987015097495 0.16038366420106578 0.035163454515945665 0.14147152592106194 -0.05803099827590651 0.21966922855048218 -0.025983532593799 -0.08097374128679315 -0.18459473573884527 0.2125181165289323 -0.013204181282184788 0.09270287207921742 0.0800485834999623 0.08952340999760416 -0.17900632020291518 0.16731573863881744 0.18115448951256174 0.04257691994319068 0.22070357636967325 -0.1155966637703175 0.0401028221133086 
-0.04065177705393362 0.11919574207147433 -0.07865498048134437 0.20155172749762768 -0.1714347097500619 -0.18275315461467645 -0.17970189970614925 -0.13883470036439208 0.00911171376186365 0.13914465619143618 -0.15483984304834217 0.005104221197227339 0.07242895657883605 -0.12095348738511716 -0.11962664225990026 -0.11064044722079293 -0.18196413659137792 0.08415320460736217 0.060558163072868716 -0.02202152081100235 0.03740987045895781 -0.1551710078017678 0.25087511918632516 0.13806168103178074 
0.06261956090819146 -0.06374632611028819 -0.0327234172326782 0.0238208322510686 0.17348930027464743 0.15505433563882284 -0.02757556810567564 0.021349147594263464 0.17396731874310162 0.19083483176830252 0.054748693151798325 0.10480545695277259 -0.06402386538226383 0.1502163651108375 0.13368141854503668 0.02038202794473231 0.1771394440601972 0.12568170998404377 0.12228213681029244 -0.1468045192226164 -0.01354989559741017 0.17904310718455196 0.12347594353033388 -0.031090204171454538 
0.21023667753748343 -0.11120800387358365 -0.06553912311034628 0.20675259589193723 0.12240428286921068 0.16355488871206608 -0.19505873265424964 -0.04724909889751736 -0.11059562308481352 -0.08052623874786075 0.0940654863685757 0.0967830472086575 -0.013847448410621552 -0.08556313616038111 0.03321919097473775 0.013184470089525101 0.02388077648125402 0.04536796150111245 -0.04097329373842925 0.10463634114026371 -0.09838352506332529 0.06250131826052369 0.20696191867237093 -0.19832693033762014 
0.07601691253078764 -0.15783536790230734 0.017136742282865113 0.04989149188310972 -0.10168659365870812 0.1647883404864613 0.06524476482377464 -0.10619195700827352 0.1329350381890596 -0.1569773061344848 0.02162677741208347 -0.18992921908836474 0.051692662927856535 -0.11656008932914017 0.05882370374702254 0.08521522815081155 -0.004190350901906174 0.05488416127048867 0.12424429148644445 0.1459041677689953 0.03976071718196456 -0.020331361536867536 -0.03126759364078672 0.1528448862167045 
0.06733486297985276 -0.13424842870027398 0.0257561879846091 0.20406252069280034 -0.138740009224384 0.1308654815154654 0.1663727952056091 -0.0014112891399348888 -0.18449625094178565 -0.14002470994962984 0.20943396599806358 -0.22489476554161095 -0.050123050354187376 0.03138238860987574 -0.12012914852977213 0.18931537125621437 -0.19619084735580478 0.015525348540501934 0.046369698662813694 -0.1064742625959924 -0.03884628143629318 -0.003511973250133148 0.14328581265809548 0.05280651468610207 
-0.012691590595699624 0.029325845835682082 -0.018249164905396215 0.010052298711229358 0.06243398417390066 -0.1264597923287316 0.105282149892598 0.026088522213032 0.19240700397434224 -0.10992321282000547 -0.01319456940601647 0.195650869880427 0.039821317814796496 0.11789409153927428 -0.03386472946580986 0.10123918850190046 0.19983972669208266 -0.11882878132731586 0.12186183023258702 0.20313845979090367 -0.19384735155014318 -0.11279962987578075 -0.15218078562744053 0.10583875161937951 
-0.16680473596500972 0.2128318873047906 -0.04335710242203042 0.21379963813686703 -0.12349211698357074 -0.02315999903190957 0.14904155181746429 0.03967021746642031 0.042408162813453436 0.004941899553610635 0.02896379669473172 -0.023238859505620355 -0.12532120632409677 -0.18757990323249987 -0.1385232257089928 -0.17844648471285787 0.03137761212098319 0.10563816787275486 -0.05542054805080858 -0.1691964229685547 -0.028830925138130462 0.020852125626614055 -0.037869478460023434 0.12321033187322603 
0.1743261934795349 0.18305141510270026 0.08050016000906042 -0.011614668070887749 0.07202039085839601 -0.19431511116589806 0.23505521467224696 -0.1301275028907973 0.20275570780939195 0.11565608376363568 0.11720256528270986 -0.12363290933688027 -0.11121790980823715 -0.06490362973011232 0.13980026697256082 -0.019425800278623215 0.2281686383810109 -0.05797281785118848 0.04691562041426808 0.1685303112906136 0.0425500238112163 -0.18128366105214563 0.0048519937826823345 -0.06508597533841247 
-0.001593015031080048 -0.08976883194388124 -0.15020818798309243 0.06629342487267756 0.07148816948239355 0.12740212140767737 -0.14612307401531946 0.14397619097097658 0.15642886125226618 0.04308519174205589 -0.11692738035172785 -0.1162756503022874 -0.024182746854050592 -0.007516775541145949 -0.008819359938876928 -0.01272691844761883 0.1218451354809759 0.1449771492798746 0.125635260789194 0.19471169742440197 0.025955814242177376 0.1943689218172201 0.05642509502749934 0.03526854642208888 
-0.07122671585154412 0.15904374693954504 -0.17865956234500094 -0.14524955606880974 -0.14698639061642305 0.012819514551733068 -0.12881780259582243 -0.06254714064387726 -0.12271577880457828 -0.1053749956292333 0.284467485409214 -0.07455413507444296 -0.13858504741593922 -0.06257212149650306 0.27714153537484904 0.0832845164615513 -0.12649130176047005 -0.08533709243530974 0.10355872455523984 -0.10267233026584337 -0.09717217151652635 -0.16564287166675812 0.23840437802648523 -0.020399777835799368 
0.024204829721843003 0.0935522205838293 0.11749379037269941 -0.020553227416585263 -0.12528085534409295 0.13045351512735973 -0.1871707805722468 0.1781297801750243 0.030181054901686048 0.14925932869868394 0.04263720113165259 -0.09820099317355295 -0.08044859183477662 0.01287677842952419 0.1843590444365002 -0.1251328924851747 0.003866404124154912 -0.061499056791168946 0.10676081067475149 0.12005465474069921 -0.029575684726282046 -0.11724836740189144 -0.172527430969843 -0.11944631118818404 
-0.08991295862217621 0.03877772167936955 0.1483287024247437 -0.14779813025305757 0.1827800714132869 0.07220843333488088 0.09565162535093225 0.1928104438354882 -0.03290699178310949 0.012352094766327412 0.07063454278813253 0.005030020605461782 -0.07926040393321505 -0.15702678999107464 -0.08491246743411715 0.10641128890008232 0.05538173833778528 0.11943786480223756 0.006690226859373788 -0.10602959698112834 0.0503053465453939 -0.07731165316098092 -0.18776757533133792 0.16055126038070358 
-0.031225526872953088 -0.027056557672206036 0.13572535370221736 0.2000096672952102 -0.17032879491407682 -0.12759445586864232 -0.07001019772012554 -0.10740812670534025 0.003924390237222326 0.12873420928595614 0.14061926705436045 0.038646180064495605 -0.1147217468439171 -0.1522315417290082 0.09622177419020643 -0.10398155448004931 0.008613768980081862 0.0925114667203536 -0.10757233769031102 -0.1291522748164757 -0.18362262518850175 -0.142394463184509 0.1621341774967129 -0.157329489825211 
-0.10941741082138677 -0.1864562480358847 0.06949904930873002 -0.10618857217739835 -0.03389564382708176 -0.14333154158391515 -0.04825639862041733 -0.029623883860145358 -0.010570516236922007 -0.03025205603052907 -0.15808931597715317 0.10790465850368897 -0.1441766312780107 -0.029680998933661648 -0.09009052331125665 -0.07850536218301692 0.06793487021997685 0.006950821293035449 -0.12288551488190635 -0.012070836940704825 -0.06318452214621235 0.08069847417310956 -0.10843542964939908 0.1369985640914278 
0.010255148320745248 -0.06978396300764016 -0.09739071178950011 -0.12446556281387135 -0.011019266657919509 0.2404202795245232 -0.15696851339555926 -0.08549866907894672 0.05622920495920203 0.14997684216419563 -0.08737537894014759 -0.005505627954208094 -0.06670645309384277 0.10315650300052107 0.08661614163606783 0.1419610152943597 0.15696143801426254 -0.03890985517400775 0.16961421448539088 0.10704458577903767 -0.0759676100578908 -0.053957682582996956 0.09275391566133637 -0.14866699516612278 
0.052481882822555025 -0.062327206000515945 0.1298368532124856 -0.05328001523018951 0.0922159613564126 -0.1140641951677303 -0.007251021395918229 0.0989424555546301 -0.08147932899077441 -0.13435543987592957 0.05863156361317614 0.14807075562017008 -0.08680310330133172 0.015118040677989589 0.15331773336279012 0.2013896938172865 0.09473176961215836 0.03566640004786168 0.12588787826167397 0.16689603385887586 -0.19875299771819943 -0.04034976322930559 0.015492709185916356 0.09243847170590933 
-0.1642721179027484 -0.010742166976818906 -0.08703111358806247 -0.029988972559000467 -0.0007892056120205996 0.03569807743509118 0.03290593447888304 0.041411155079873245 0.07148286511693873 -0.028090975488645704 -0.19774857411795957 -0.1695624453001775 -0.0785045567222707 -0.14023608620816144 0.038728385424713435 0.006899133344906685 0.007323458396607569 -0.07060995128571773 0.060327246632934574 -0.12280657960596526 -0.19738057101790699 0.0628154918733065 0.007307920520610469 0.0680753439714697 
-0.1092465606120205 -0.2692689545292618 -0.047903895224217875 0.10861253383026047 -0.15806432708490384 -0.0864020843561986 -0.029291154711749184 0.04709401723582537 0.09682756742239637 -0.06511227778903433 0.07347651219035267 -0.026763256892738122 0.05085521069889334 -0.13482900023457806 0.010916603043174487 -0.14108729022549105 -0.2153810885269308 0.03137626066935613 -0.12526066549724396 0.08971677704308083 0.026401856748397987 0.1466148029761425 -0.059316917865892896 0.238874904777569 
-0.0035989456136547404 -0.05066320214021638 0.09376920020656503 0.05204576035821298 -0.05409509845342081 -0.009128613810838534 -0.11731237379787245 -0.08210990290090459 -0.2550119642602259 -0.02394061951134179 -0.08512174029302773 0.027923600226233716 -0.18787182123220578 0.028861674246112183 -0.08169671581969384 0.05769701173391926 0.09865039626515734 -0.034379027556453605 0.06425541016211699 -0.10878045261582543 0.23412733404040342 -0.11850025109316248 0.1840890475715815 -0.14841049618115387 
-0.027865366466012807 0.07828317204587057 0.1336800672578714 0.029242762655678167 -0.03580107492388633 0.04960216472511982 0.06436060482555384 -0.08778995290343329 -0.10428898350656615 -0.17295454869003848 -0.07089514501444559 0.08184958176826208 0.09589521200928369 -0.0703507299382173 0.06836551348719165 0.10776951097236775 0.11539227049081481 -0.1876643158581253 -0.14032910193430462 -0.11475010166633413 -0.19779101201827254 0.15257248896766107 0.10721293843319481 0.0661978550811365 
0.016892162778483853 0.08741291433672478 -0.07803798103280565 -0.05240554454700294 0.02937872739529549 0.15652043754786954 -0.1182624069375251 -0.11207764748538573 0.07183392924947667 -0.0626370591470397 -0.18042633723247625 -0.11656328285433637 -0.12136762451823119 0.03450532776548589 0.0458971441315478 0.2050387443244779 0.18118637557848952 -0.07605546738823198 0.10021691517793593 -0.1029004784355538 -0.0516752007108094 -0.0818048537715537 -0.04330283189190966 -0.11299772510462318 
0.011356801444128374 -0.21834451192313598 0.23879300034814951 0.02737314835219103 0.18032300660968673 0.19755864799859932 -0.1231221740407445 0.030684154904610128 -0.012950616848442786 -0.10111918796208676 0.006360977079750309 0.16876260960765108 -0.16036217745059383 -0.1319320740679444 -0.1285322739758576 0.21009239632086374 0.19475151975910726 -0.004505996117950955 -0.14595118225077836 0.04849205471108678 0.10742356036967718 0.16720057082483358 0.08378620276601262 0.2500140443691587 
0.12643392671302742 0.06778875691607288 0.05913628858865293 0.08772790900682313 0.1382966050789067 0.24857278189212262 0.14057901652231522 -0.1116850329457247 -0.25663741719581123 0.21615037763490388 0.005915912047903644 0.09946987611541493 0.041569074185629565 -0.1513396328727069 0.12591990157923327 -0.13147471525863041 0.1462533318263311 0.07920644685304 0.047467236267970316 -0.04431442576941218 -0.015192738689202692 0.05854790553726411 0.10350285052070343 0.08783873167094895 
0.14540202101690478 0.005113301944012031 0.18844511300609224 0.09587476249713 -0.05709156396274946 0.10842021674890256 0.016677336948856387 0.013630646361487435 -0.19925304921910045 -0.22233319297528426 -0.11464363796771648 0.0009281816404319071 0.20022115348987124 -0.009404741293278823 0.04967102591149401 0.08467085613230098 -0.03478848819118469 -0.23905210316625913 0.09679881973565974 -0.09500375877376657 0.06681284414751539 -0.1386373964868711 0.08442382791654489 -0.10162164057997689 
0.019531622880656182 -0.19350050690532639 0.19287475503673548 0.05689062552919946 -0.05278651860340073 -0.1403288798331084 0.0699302319668791 0.19320832334145463 -0.06730689469450858 0.10546571252309334 -0.08388919951137921 0.18988062560631658 0.10414167931796214 0.042527199355370825 0.1637278397620407 -0.1162387197870178 0.1707761469511436 0.07018528389979553 0.10741672183619831 0.046786134788636524 0.11563125900699427 0.07497737821170979 -0.1403850049443586 0.03826470316461574 
-0.1791646708469549 -0.04924451267911919 -0.2430924672364334 -0.13082509056905142 -0.32953143359910786 0.3338473540698857 0.03249851505734267 -0.011719121577894906 -0.3256937848563397 -0.04478513462495598 -0.0317082188778483 0.3662083657228886 -0.10887740888127768 0.04845622736108934 0.11148103230024475 -0.21412354017539986 0.014557536917334035 0.17936801817940012 
-0.27665673375008165 0.07123368846223269 -0.3883703421883949 -0.3182315627007161 -0.3024831503889858 -0.01239770149771983 0.33515704999059354 -0.03588378657820779 -0.31713840826175904 0.26748964828486926 0.012863853143368385 -0.13667735311824578 0.3595000331314819 0.3391664844224589 -0.16284806217538847 -0.2034076840982002 0.06589302661500626 0.26121274561018865 
-0.19292857236531533 0.05796652231056155 -0.1818791710897277 -0.20812659584547372 0.1775922714370407 -0.23908857912244527 -0.23543047884186216 0.20476402853037154 -0.3337523090077785 -0.28322072742301774 -0.14390767778569713 -0.058895241963504465 -0.04078098076055108 0.15364053199475275 -0.31903959639991786 -0.09540295434497933 0.09313729320677891 -0.34737364805119136 
0.3131317365595818 0.09810112180417652 -0.24781717599449213 -0.16556578342062156 0.1666542277816424 -0.06483935993284684 -0.042182409570744615 0.25485891222339785 -0.2479175018249387 0.309180714950406 -0.31436194432060655 -0.3626107317894485 -0.24263778280422557 0.26972536402893144 -0.029484157700867566 0.10334317838108711 -0.23276059042099687 -0.200405265622194 
-0.034661696829033015 0.16306365484333438 0.018185881126568666 0.25284563988880654 0.10823148300635925 -0.17038971634162736 -0.20620234204481022 -0.003780306152738649 0.16657590810811176 0.29491146944634866 0.2687333467845223 -0.23105063874364878 0.0197496638518339 0.05437784005645969 0.031300834986645105 -0.07441313529693348 -0.27310212232771014 0.13367215383071798 
-0.36855059213607444 0.2503757204969865 0.2776230251895848 0.18370838615880955 -0.009044438007440451 0.13475280197206105 -0.15412960008842558 0.2933613344675478 0.18735494801365096 -0.2095308228517008 -0.12312148332679852 -0.06781716731990006 -0.023098251251098132 -0.0030405055277833385 -0.3150247115951909 0.10792946903314678 -0.22024697548073777 -0.12236138772050993 
-0.016990306272277638 -0.10199379271285838 -0.07496294121766332 -0.218054550378781 -0.2964427084200859 0.034270152456202484 0.091639292643403 -0.1960182638166013 -0.2075624077781382 -0.16706180625889572 0.2288588985918939 -0.283822544562419 0.06296372253233379 0.05729285831596774 -0.10561496918188652 -0.10070443621623046 0.34126039105108064 0.04603351019551191 
0.15348040894633902 -0.006166674894707955 0.07860615463306075 0.027776604357853375 -0.24252353509308358 -0.11158430475513663 -0.07315825967549333 -0.3469340390548143 -0.09221715877891815 -0.2290424539717388 0.25019613656938683 -0.14949329721265073 -0.23778224815195168 -0.044039215086306024 0.12372533569107493 -0.2982036049772086 -0.23118651960398587 0.17817492018508602 
0.1867353797205244 0.07918281752779144 0.28732463217134524 -0.3045462267171272 0.13777440823797885 0.28619202748353406 -0.2520111935349394 -0.13132112907559884 0.01707269287759656 -0.12251974640327176 0.1377825437079538 -0.33091426064360796 -0.20994033719875305 0.16964419362959238 0.3236849691850341 0.29481445301148795 0.29704813012056064 -0.2822485297902495 
-0.3356729641946365 -0.2935404948750452 0.03252276495476488 0.30673396410408865 0.02121780225853787 0.19169535281722572 -0.2726695232532807 0.23110783324099599 -0.2131063256316781 -0.2529091807417777 -0.05261842840682922 0.12788323144222566 0.41504587394455605 -0.39447335216101126 -0.15327008551766735 -0.27052143688265806 -0.07114098132669706 -0.24537743380376675 
0.04864814773107681 -0.10231446662760685 0.3270267033691575 0.1974007109682818 0.2468390205442246 -0.2534637998417802 0.07701622572368415 -0.1700240030854665 0.24696999321025806 -0.3958314655917422 -0.27007546513204167 -0.12581039293771432 -0.0861897095328859 -0.13533002362223856 -0.27685435759032495 -0.2609908821803669 -0.13512409311888357 0.3714901854704097 
-0.23280056562078233 0.16788404877124669 -0.1914707707726278 -0.36299113794351406 -0.33307371873671227 -0.23727066548844283 -0.0734034035978707 0.23221632973559317 0.14605881719536168 -0.09642074073259636 -0.012545521357391022 0.2571253122176582 0.3057369575225909 -0.14906482748385513 -0.3413836843230359 -0.31133710720492347 0.17000228887147895 -0.19255012710964928 
0.03152823720682445 -0.20990614877626174 0.24048463503211243 0.022909864877184733 0.018118680589896276 -0.1435270764627766 -0.0005422307836446306 -0.34014843167791325 -0.15094530719975432 -0.15190774419850983 -0.14636592339396146 -0.34465096481240814 -0.03105709080008689 0.25536338521023316 0.3039774920473014 -0.0018037168691893686 0.06291818570064327 -0.12313360919710492 
-0.27439645487219677 -0.2518079161034223 0.1285191855659072 0.1302203369676454 -0.21871935379159074 -0.057973413166270436 0.06406961553600979 -0.2927513067717037 0.19422685405845042 0.11555713386099009 0.08352175481457481 0.1996464305881912 0.4206402762642058 0.030262229388570996 0.2492158601797692 -0.054496362126524395 0.10969265040729685 0.2812897546232861 
0.1753607502164148 -0.1332243152294475 0.06649389582395074 -0.10022631606305749 -0.12000662758957031 0.0740604905437274 -0.2045713298612059 -0.02565642519279463 0.3061107246796737 -0.1432146943493266 -0.21203782694899762 -0.0803310914676597 0.20697970882760128 0.3160013108941409 0.2236954094007138 -0.33629948257149156 -0.1594983953079362 0.43340482720408763 
-0.3127364993662573 -0.006600379100500084 0.19696427131969282 -0.25855565147874343 0.10959573627503273 -0.007939958661282357 -0.26253253774274765 0.298293980808617 -0.24510694469299218 0.13509090854951727 0.17365544540275776 0.09103206868327307 0.10302991380503423 -0.3088719677916195 -0.12982445575900547 0.05832651728470319 -0.08221028269710663 0.08230116483189218 
0.234105328276089 -0.2111628312312612 0.31080135101137685 -0.035894484416227876 0.30434699355487854 0.07893029494596537 0.1641763009815512 0.05926185248301726 0.005899391158704563 -0.08309207244952757 -0.2535589681741931 -0.03719121965602635 -0.152647683919087 -0.3998031122652221 -0.15260308918578783 -0.2178668173853949 0.28347905378552124 -0.3701400759632291 
-0.25158289339030127 0.13810608340123995 0.32114534687067553 -0.16875461643551853 -0.32937542555434524 0.3165666725225495 0.07333414970725331 -0.10869584792904306 -0.03538147776645345 0.13821394201494067 -0.08487358375416017 0.3435845331741357 0.2408925380393136 0.28542894563875204 -0.10039870020449598 0.30016712316285665 -0.013933788315500415 0.03718435923904526 
0.15557771588580988 0.21085722056542422 -0.06967882884392271 -0.034805798258979434 0.2163741735404233 0.14740321287789912 0.2990226909237312 0.3300087494171904 -0.219023027716118 -0.18018646753195988 0.14632282434070645 0.17734463765886427 0.0762891666843848 0.2541066576436283 -0.1683873793895773 -0.10830023940523623 -0.003563597199988997 -0.13379840255436906 
0.0667603210844794 0.12332396794498658 -0.21592447487764366 -0.013873083784573876 0.33944177450417584 -0.11877831688540169 -0.4453509054253102 0.16403103013649648 0.0022008840038522685 -0.3679201783041071 0.2816672267091473 -0.10419308004634886 0.2760462845377291 -0.04366373808232068 -0.2903355502577261 -0.173006453499835 -0.10532011417404014 0.22304719767384565 
-0.2765650184690614 -0.04622452769733019 0.2729456173537664 0.016979044088292206 -0.27188813321130806 -0.3271063957021107 0.09368436097463693 0.3725932018480657 0.18576182887469622 0.22942160853469315 0.11851061548649314 0.2727954364195237 -0.2806239447872673 -0.2039301140842388 0.13218019952450402 0.2510118001356367 0.13748582310268742 -0.2873814532854527 
0.32727175847345796 0.2764632841596681 -0.3528810572017514 -0.26406007769342665 -0.1523922787615417 0.16176599124473004 0.23182153286067905 0.07967134707264943 -0.2174465186752763 -0.05317960471452467 -0.2654936899342649 0.35771421786053814 0.21684728127305627 0.012062794578370083 -0.031025989862200523 -0.27560822646673544 -0.12253399221869157 -0.3274380499999235 
0.22619741765979456 0.029991720256616464 -0.22616473262292897 -0.19721559916639744 -0.162586535644029 -0.12925135498947424 -0.10311106000839639 -0.12499323748860802 0.1121252165096524 -0.3410120506788101 -0.11607646613302418 0.20655371102313197 0.3618719058156365 0.22063155164346535 -0.17609833648556844 -0.18156776258976967 -0.2305225222951899 0.2735061051829273 
-0.2243493194580552 0.1754119951280309 -0.17790527899290778 -0.30642197957754735 0.15834402049425633 0.15335264655443492 -0.4083166919516089 -0.10908730278634679 0.308030163419431 -0.225785590773444 -0.28673957208446893 0.10711044292246108 0.31924394307214654 -0.2965375275417313 0.008668784801274098 0.12436595364110248 -0.22395079820865474 -0.40442488869749144 
0.3176684402487791 0.06871711833523268 -0.31247436336197837 -0.3095402256347152 0.08893195463976972 -0.2408903221924713 -0.24434407485026963 -0.3029543806637205 -0.23278673871118633 -0.008329999148723637 0.0076555412403333115 0.008979915625822689 0.4598526005955852 
-0.29593123253487136 0.20310743231953454 0.23352916006030833 0.06633376820049734 -0.028977442927282153 0.31476189374274105 0.26149717479718004 -0.36094918482319543 0.3718725447171961 -0.39633085108907906 0.05708465695793975 0.056533203563590775 0.2665442751938041 
-0.12231572531176275 -0.3404696263702753 0.02389169061946412 -0.43579524859376206 -0.11774114746498901 0.40984622492399314 0.3390134317257603 -0.3190150511600954 0.32258571261626434 0.23310550436891844 0.34327944497046137 -0.2188305826760405 0.008448649654747968 
0.2764308855678217 0.13175134880419248 0.07347346150339183 0.15311387333495452 -0.23617550800207907 -0.39145369216111137 0.18704339645437332 -0.1337053842911011 -0.12643960589075992 0.07737108829611074 0.12363779047801392 -0.23624200383621075 0.2615483714331942 
-0.09392614510677938 0.1034087544917853 0.3746948266168396 0.05052748597725384 -0.11083566547409013 0.09327357639565562 0.0013889661581006974 -0.03707640929417981 0.18383195369100014 0.34024427700251647 -0.01609097165655974 -0.3297918370053856 0.0543503410777318 
-0.2022023024699707 -0.36976377925131115 0.22897534364013933 -0.1797749234834164 0.22000821893544165 -0.009143888673260662 -0.1435255162714177 -0.146655259650776 -0.3677499059707882 0.026743522710952004 0.2577308772793625 -0.33334699443088156 -0.3131365489383211 
0.06497528419814912 0.11936180956348932 0.12324459715736594 -0.17081334618049393 -0.4001306315689293 -0.08186174997021142 -0.23200039987993223 -0.43491827274269346 0.17931807196436964 0.42072893052085275 -0.08525781512863567 -0.15765492850541155 0.05377049944138637 
0.25755691296208716 0.2345407885626992 0.11237434052817906 -0.02209585376705852 0.13026058181296554 -0.21205958991551535 -0.18229511678209961 0.2814558361842846 0.35064510318082776 -0.3481623832207927 -0.16105267726909528 -0.3972628740432223 -0.11611863659249261 
-0.225148664536644 0.10517337032650989 0.16559047624189308 -0.2999903449573544 -0.3495360057666723 0.349344990901688 -0.08677173965101692 0.03624821754822258 0.3720847979358838 0.19806696700882812 -0.13744414737982263 -0.33174432006342913 0.015363069521417371 
-0.16646653041279325 -0.4273374041643688 0.18717408495137489 -0.07233831862635981 0.03318887894486749 0.2537901507607354 0.4013734782822256 0.13079073382174372 -0.14180125024767878 -0.3449578545164501 -0.3415338741872324 -0.14212153525927237 0.11252040218583519 
0.1540070929099153 -0.23949053793723726 -0.3342488714895483 -0.1353702646671758 0.015128912756705951 0.23706599133626088 0.03881023936366629 -0.1507911749999696 0.09740439223867095 -0.21224327351448496 0.12007334762588441 0.27266917173314076 0.08934975100278122 
0.07787857151516486 -0.19339186471218128 0.27629802732100833 0.48031837305492 0.19381223237276837 0.11491692608110719 -0.2930414587570509 -0.10642543556389798 -0.12329831564090382 -0.20564536644367265 -0.04210548400667383 0.08666985069250588 -0.3035006357043555 
-0.21743547988655332 -0.3472127241057522 -0.20682508424302928 0.02520141649348377 -0.03694476486685093 0.46328216911074693 0.4334147579912267 -0.024186075016947986 0.4278491380765338 -0.2551392739036054 0.03199172396745285 -0.03624785528970397 0.3838911226002196 
0.2805933271310726 -0.2573323691466858 -0.04713327952204513 -0.30984281601707425 0.042899395100402145 0.23986635430545572 -0.42934403855723186 -0.2954504005926642 0.45542917804307587 0.42703185659871984 0.04409938039996912 0.11481552325023532 -0.18210435185370857 
0.36290847854005365 0.13370079675509067 0.13133153194233588 -0.393226268684889 0.2816969157781918 0.2210248879912288 0.14581427826149662 0.19069014126578976 -0.2739157881395195 0.17297186117039334 -0.32275197491996815 0.16347087079890293 -0.4002158592160319 
0.21930821184693908 -0.006544865001147173 -0.23503489017630969 0.18139684024856084 -0.14535153045339483 0.3068978103333309 -0.2546522749378966 0.35177576564859325 0.378268289243263 -0.1542978209248493 0.2894639328615836 0.2728982671166462 -0.05885816285033441 
-0.11188730700988063 -0.1732638341830585 0.3968066419882049 -0.2294149672583315 0.3755464661741626 -0.08074623466227125 0.3480121415571707 0.25003720297409127 -0.29131055310859866 0.08231964835275354 0.1366795276947309 -0.07366560605039185 -0.40774393818555393 
-0.1813485447799122 0.26152973161559473 -0.35064621441623106 -0.3365529890986954 0.16596429007919605 0.022835952379006343 -0.01448980898885734 -0.10714533171598549 0.11001743930474367 0.317274645635906 -0.17643165035705213 0.27500298879295293 -0.08378264799310102 
0.24122952073786724 
-0.010602521526623268 
0.43986838345786633 
0.6708544215766264 
-0.019373642301404953 
0.37630872047607855 
0.05220304808956022 
0.2837748818048559 
-0.35292835665789024 
-0.540323928254164 
0.5791795338615744 
0.37660188837435793 
-0.26927067096860763 
