-0.09180757991164905
0.19397728763460745
-0.1557307777752249
-0.09508088941797795
-0.21648860242205228
-0.01554314089811561
-0.009442187961608202
0.0632307922266169
0.1535018728923227
-0.0702294305542337
-0.03018234341857155
0.16315381721249622
0.058955443602834175
0.07895154789229877
-0.08310494088500814
0.015907210042075504
0.06404062081137761
-0.19322058475559947
-0.21787128267262687
-0.1339213206576705
-0.013224099879370775
-0.14472188948551232
0.0811675658801651
-0.11406869274791069
0.28617555219967616
-0.35133213571734223
-0.19876388503876535
0.09714395490127388
-0.16193288140754367
-0.37062621976205373
0.051168604898825285
-0.14970857962661951
-0.2761987931728647
0.3569667000903109
-0.25049173018837845
0.18431188287513178
0.32705977659118046
0.2697015481168056
-0.23867922243569092
-0.19895404772556527
-0.37312305907699483
0.314825054875366
-0.005162913056771466
0.21921660517654276
-0.2207161385140258
0.38944320661837
0.15884537822283842
0.12294686334625962
-0.18028253355132937
0.19798270265171755
-0.1870255126424735
0.2789256556338049
-0.42984693047613143
-0.29340775519553985
0.03199089325410744
0.13068261883699672
