-0.0964068075741838
0.19324042390817026
-0.12598560673653603
-0.10199447148839381
-0.19764480263365367
-0.005783689351453523
-0.00995280792933038
0.06742789929947769
0.1534647256270859
-0.04923306846853598
-0.021042241391726196
0.16296730890608002
0.024649619119529342
0.0674299012503632
-0.08163168247631199
0.02657450693187258
0.06169322295715197
-0.15827160444954189
-0.21786621343967136
-0.1756853970784749
-0.026234636300839408
-0.16685249468652485
0.0831337747568522
-0.09629873440158955
0.2930718252819116
-0.35133213571734223
-0.20256423683211144
0.1146623502415533
-0.16193288140754367
-0.37062621976205373
0.06082034921446122
-0.11248878940584242
-0.2603465331988746
0.3658459659448337
-0.2522213015289419
0.185680254771418
0.321257919938222
0.27047981473238736
-0.23867922243569092
-0.19895404772556527
-0.3572214226022538
0.317140199595186
0.008954076407033195
0.1882589502611801
-0.24640440312441203
0.39255424595555705
0.1559039242259603
0.1260783174298157
-0.15962285069094437
0.20298667370782425
-0.20013353847405224
0.27520243894004687
-0.42984693047613143
-0.29340775519553985
0.02815530773022788
0.13380977790292883
