-0.10372812649266382
0.18961000404976583
-0.12200285506476617
-0.09206600716636253
-0.2101582697515722
-0.025811693424179296
-0.00446619458984575
0.058457098652876294
0.15159728683087095
-0.05842285741554584
-0.03335949715738012
0.16236959868585818
0.03659550831412779
0.07201126624629865
-0.08370268778838996
0.01356083505763768
0.056940751572972674
-0.1664742426993853
-0.21749277414938623
-0.1445285362026733
-0.037245561942707534
-0.16711837018336287
0.09198408731550516
-0.12110089839567853
0.2976761824947197
-0.35133213571734223
-0.20219112578638943
0.09270162788175251
-0.16193288140754367
-0.37062621976205373
0.0509009723491107
-0.1540373278713532
-0.2753410876536892
0.36090009141651175
-0.2528463539895713
0.1882231834285223
0.3267078436506763
0.2748538046347423
-0.23867922243569092
-0.19895404772556527
-0.3491152406602862
0.31696341645164827
-0.015276306043891307
0.20084461517574625
-0.2504609585801382
0.39382095566878667
0.15407511947059793
0.12730892723774528
-0.1810839094558253
0.197553316534447
-0.1927652775675467
0.2755381849008925
-0.42984693047613143
-0.29340775519553985
0.02774827168254261
0.13505811613175947
