98 24 18 13 1
-0.045399241169041864 0.08316063764715811 -0.20697560638056745 -0.11143489551564392 -0.16171763945522052 -0.19002296416609757 -0.12017912882223479 -0.03016553718771263 -0.07619595042883034 0.012141153370115867 -0.034628518744410364 0.10492467081666372 -0.17148172342257556 0.1778933235676679 -0.22390912745496253 0.09981689101007014 -0.07278878998371381 0.03695846011352636 -0.14448092357880976 -0.179170216232792 0.16845308928218286 0.258865627394933 -0.0656077311501988 0.20220740093434345 
0.21462281751222825 0.1281759344448132 -0.19188143938898344 -0.24223082058807302 -0.13293067044514867 0.1910786704531619 -0.25126334161925284 -0.10993361803031126 0.13278504931312454 0.018142093475517915 0.08791693203057684 -0.02420683547854931 0.04944887113567878 0.2265578326832689 -0.2431179234490374 0.1542317780548527 0.247058476027004 0.14009808356363973 -0.09710803828611102 0.1314223459945597 -0.11887035858055583 0.017990077258634964 0.14910606629459314 -0.007641264945323891 
-0.09179478207855901 -0.1855956003180215 -0.2455295954815919 0.013059250817092014 -0.12387539445236269 -0.10234232319040021 -0.08730497188461568 -0.3002814503650129 0.04845790419007548 -0.12982505144815012 0.08497189397796502 0.09451191937958921 -0.18582066075027764 -0.03640044592290303 0.04448288805932896 -0.029113497761544118 -0.23563512089467956 0.07570022080331247 0.057733375519231765 0.0476040927834083 0.20367017210346708 0.0019195028711444626 0.2000443042212661 -0.12177590753259704 
-0.06875646753183362 0.04127223529297604 -0.04938164451131326 -0.184736405565995 0.1882878658924611 0.05817110093542862 0.07605639514243498 0.06442100007753701 0.0620375068354699 0.12942853717049896 0.07223974325844551 0.03955470157885633 -0.1906371268305749 0.2736353827213376 -0.07077857630612659 0.3115399062697904 0.09996835101267391 0.14590226448446122 -0.16533871348020124 0.1664373283373634 0.09362663055146776 0.12674979266634398 -0.06668859512602011 -0.020154834210957692 
0.17892549594148102 0.023926194157598144 -0.2610316355694447 0.05985063264859008 -0.10666204066985369 0.009457054415076186 0.17239044692105623 -0.029600937430890838 0.2039596422936957 0.059556302370938174 -0.21986264106060466 0.1734418886374475 0.11437242038212823 0.1948692466080846 -0.12360062494078428 -0.16467802417723187 0.17733686231022108 0.0847966343950293 -0.18559430417612627 0.13592729744683438 0.12078483068390333 0.2437794525697818 0.09625052216259922 -0.09510383048027238 
-0.08202020427479509 -0.33567188464499254 -0.19714345363685967 -0.15162377089547585 0.16260778380093088 0.15777708436537627 -0.05178649620675515 0.08367347079818073 -0.300668594900678 -0.008271598002725965 -0.06717448511528774 0.34168131414366526 -0.09624149186851222 -0.08202242018704617 0.09743465629804507 0.012701576858257702 0.20184424066769477 0.07453648900073312 0.13865429002530907 0.10528969595885602 0.1587850495312222 -0.02489408568049885 -0.2705434605101459 -0.09007414502457843 
-0.11910263012182155 -0.24493052385603906 -0.11042696782468339 0.05885814717936491 0.024306129111864083 -0.12862922218934092 -0.225852782457189 0.24478307179667635 -0.011944566227316237 -0.17039357290681834 -0.17281257063999364 0.16061546243376287 -0.1420612294784224 0.07797064281726408 0.19074222724284293 0.20813401807575255 -0.08224382278076466 0.04288179895846627 0.04770910567823884 0.12273305999407147 -0.09834603196147564 -0.14322725583107446 -0.2831379456653658 0.050292167979628884 
0.1186436669290656 -0.04882366577926516 -0.07284741734801824 0.2005403185236224 -0.004035688123290217 -0.049327717955402244 -0.07980227826769903 0.06367906098584299 -0.020227734314615872 -0.15908763363946707 -0.17470744599510815 -0.012998317455335804 -0.03674921147946198 -0.16463466637564278 0.10111902445797996 -0.14871695493094905 -0.09789988495281647 0.10207037094235108 -0.12291510194705249 0.04496460376056325 0.10486013902731575 0.29290785096993255 -0.1214281889589891 -0.1648818151875557 
0.09851119371780712 0.038202207973352914 0.22788674085471966 0.18487584275887337 -0.1961687870169586 -0.10000081718100204 -0.0032316500552581097 0.15746287724761587 0.1840067019371041 0.022463137773279296 0.12579151990064455 0.10811678743271422 -0.0601482667468119 0.019812450316808283 0.04145587815806816 0.06824122947594807 0.1975404786617167 0.18510097617436563 -0.04178097008643515 0.1822689255730868 -0.13871180434333433 -0.16494103608152105 -0.15929437066630636 0.028703150346114443 
-0.19306215300754945 0.21036635283382202 0.13126038897355954 -0.19573084498876686 -0.12991471160384335 -0.06693969951054864 -0.14830612566405196 0.11993306667513232 -0.04887015732414867 0.1773805516122928 0.02256642258498572 0.1486126688084036 0.1414540598528323 0.15760711224979293 -0.0158943114825304 0.0004930636935218849 0.11457389063906295 -0.085587175134644 -0.0038552249342886855 0.06749062850629267 -0.1955198463656832 0.025103245384552608 -0.009756104497603045 0.11615143743203982 
-0.12048441256663228 0.19095587208475878 0.030903031526872266 -0.1405386248608744 0.08034120207356474 -0.010979332423803454 -0.2625628768396635 0.022383327862281425 0.11157512545873406 0.19985300680830495 -0.15805604544969368 0.17867080496369414 -0.10911417011407287 0.1782158958555558 0.020045895413874713 0.09803044285651394 -0.01493674822403261 0.13421954278722603 -0.0935908872612186 0.09444773228539288 0.09725327736965558 0.1828600884149825 0.16001860772723386 0.15072643016993767 
0.1229999266555029 -0.03966486831850443 0.048125809187470066 -0.03965963025648288 -0.04683586037207427 -0.08064497381954445 0.00864004003841216 -0.026199871099999276 0.08714917012923272 -0.11069083559499916 0.258444588389244 0.045873939782288056 -0.14395136801252198 -0.05644112115607081 -0.0902966534088387 0.10790274503004509 0.06916741875621625 0.16843634231431642 0.0648451000006058 -0.09932296280124228 -0.15666238087224046 0.13019085854448545 0.06960982881623148 0.17112603078216393 
0.10408261666929389 0.09329981188093993 -0.03765972980477843 0.09029664401505205 0.03249877073400094 -0.05299058897073937 -0.09948490154402953 -0.25380459742118583 -0.12227824430711098 -0.13667237309758498 0.22533476372223238 -0.1113143994064645 0.14477964803997503 0.20112201898887064 0.06650066229592327 0.04355300489919197 -0.12154620719933493 0.011855576530624619 -0.061678050853823545 -0.14103222139881733 0.1372043960991398 0.006260080107124613 0.18456492827195473 0.2452636062518083 
-0.06130019887102139 -0.25900719665428323 -0.12310646912702594 -0.017538154029927682 0.042084340271457805 -0.19344675477812304 -0.1736984089498499 0.200638857008787 -0.10131564808579308 0.012352730629361318 -0.10661110086092669 -0.18902508789675496 0.04897246660115037 -0.02411924968487307 -0.13948002257952147 0.05827876636333269 0.011329733286917729 0.09530676398551897 -0.14278758311429324 0.07379414183996356 -0.03836643303184595 0.08467719360567134 0.06251409296949853 -0.1392943905370509 
-0.10011252763783648 0.15165297433722233 0.18302788080680557 -0.012743355255992952 0.160176864435025 0.21135101625423297 0.060262580872436106 0.1589770527033617 -0.1618081443481109 0.17546464685332325 0.03892294543715338 0.04766626375817051 0.13064790051169825 -0.21177957766999655 0.09988105743290478 0.11403322214697213 -0.06738184970846556 -0.10482794669259549 0.05265042896535851 -0.13188907309120013 0.12098761004626171 -0.04382701923984501 0.11909701760071553 0.21817050399397236 
-0.16111696750497737 -0.11543508752718068 0.1599587235143379 0.006350804641323443 0.16758717181513524 -0.02617512978782368 0.30706150475000005 -0.043963801240061606 0.01252869414695464 -0.08870424607082632 0.007828198273442229 -0.2611048360012743 -0.22981813221514916 0.057790431882013236 -0.1894232163300353 -0.08722800848350512 0.08802674805027666 0.06384268911360903 0.07618774826852057 -0.18668954609861335 -0.013659619366190569 0.07262213969020602 0.26996270094237923 -0.09646030021876593 
-0.1325152740271775 -0.10768501012303629 0.10007482753444026 -0.01704768268590134 -0.17855612208305116 -0.03696052881958877 -0.12469640715262138 0.1740029070185088 -0.09356296560087408 -0.19056850476297915 0.0371132524934056 0.11130800820910378 -0.006283017739581441 0.0750036080659403 0.0044073407550939215 -0.02511193366355003 0.2079636119010349 0.09558345354361387 -0.18863481777818822 0.07528118376630301 -0.023296597765324736 0.1867851650004672 -0.11156381029929956 -0.09310914243108522 
-0.18716756443317914 -0.051281418180918095 -0.15249666472313247 0.023673338840160426 0.13919146149037356 0.13480137512859997 0.13457972197810794 -0.07957468593816264 0.11713584119796809 -0.03363518913605701 0.1455115532496783 0.09524618739717869 -0.15838407612234665 -0.14019106590879765 -0.22741259954407067 -0.15321096227152473 -0.04866543898724976 -0.15925800602497764 -0.19972457086985268 0.0662149688014269 -0.00663318228583607 0.151426578167151 -0.022888670088089487 0.06170521896546586 
0.02286844647734849 -0.05557209115213423 0.11168711874557341 -0.05842113340049637 0.13870403699527464 -0.08832067261643987 0.0967871036327179 -0.17509863387230787 -0.03864558489982854 -0.2040230995143412 -0.044669806539836446 -0.13821215342665172 0.1832989943479204 0.2822147948794987 0.09987938696946846 0.2640495515777665 -0.15886022574059727 -0.09785569884367686 -0.12527037612311548 0.014557536958954882 0.2442211444428642 0.28793490758944995 0.0416505911278824 0.13419971932401745 
0.15463905427882885 -0.04150840958568983 -0.1000654932095991 -0.13893629461516455 -0.144927273545995 0.1307291403994697 -0.12805725557399908 -0.14940783900431132 0.08422180048778946 -0.0543320944004655 0.21902370350177652 -0.08449872630645695 0.08635446361023207 -0.05898650272664727 0.1464555070098753 0.011850192647329262 -0.04033043842115426 0.07020304815986016 0.17141268755436898 -0.18919804109115357 0.1354125216379591 0.18772661547028563 -0.16652379622991492 0.03187007340894864 
-0.07589209911989984 0.12043596077782513 0.02320412817231997 0.07633580570582438 -0.06381710694737816 0.07418537396284669 -0.08276993675237404 -0.3163897953341219 -0.04228520768188018 0.0005488757320961105 1.2524256349156289e-05 0.24062001836046606 -0.10124891039286935 -0.032682040148704676 -0.07801152972263665 0.2504441746112884 0.22144842828582825 0.19554077165258962 0.1645608816856 -0.12710898473992271 -0.13773812648382378 -0.08013125968752216 -0.07321298925552511 -0.1510584893250141 
0.16558620908434124 -0.06353956338267472 0.09244602356787718 -0.1494466175193682 0.0628678215194678 -0.15091685596995724 -0.016458939022165175 0.032784281143335876 -0.10802933687507563 -0.17167713838336734 -0.018347138036995975 -0.07556021367525259 -0.023877041798306763 -0.2300647389497707 0.016410405669746435 0.1457789101103779 0.11389537088621669 0.020622731535731118 0.19204259527829926 0.2192616713186078 0.015413512976632758 -0.18528367554157157 -0.29454731269893175 -0.13313920075739377 
0.026367785084638214 -0.13630019194190948 0.17297404411310985 -0.15501107631519268 0.23860659638366155 0.026844464991811597 0.10113923998902126 0.060649531539861086 0.0742085626937893 0.029705097625438406 -0.22356711615355926 -0.06236213269524629 -0.043738693022339764 0.0988271661033298 -0.012423013268255822 -0.014600112786812372 -0.1155807966755819 -0.21953935219492413 0.10335216218012487 -0.12539058130074682 0.2250498165069407 -0.13045348848404562 -0.10560645663470444 0.02296913244502526 
0.14650419304060447 0.061067192702693514 -0.15082256154314636 -0.12698727628694767 0.0017870687100419104 0.07266173212760725 0.0436017916463756 -0.14382073175857743 -0.22231875768437911 -0.012517958892316968 0.09375580948151975 -0.2296808283791008 0.11850901661526077 0.1257275847828587 -0.02011783574365649 0.1688441697722571 -0.020629409862175263 -0.19974403868246268 -0.006161215035198852 0.11954571351267565 0.14042794312701468 0.044082118486537786 0.09500419744487247 0.004998846043959467 
-0.10749034954129101 0.005722952321603812 0.13247447083085614 -0.0639618425124109 0.12142694855388803 -0.22240554456032066 0.04600502602715258 -0.1297088717754737 0.03555980158767216 -0.028674562363008735 0.1236429282574712 0.00879792083230104 -0.10403912509525827 0.19223106985540567 -0.07635509797737361 0.16741146951466102 0.1542041302300228 -0.1115784048594576 -0.11452962496157239 -0.11283555287018178 -0.14361298307376216 0.03297048702183856 -0.13670676417962313 -0.1351622200386079 
0.0585904122179148 0.1348046813521824 -0.16890299240587905 -0.10740586681762124 -0.1658157155442738 0.15946380699978818 0.11983147647105925 0.05339074770933157 -0.03487995538125233 0.05788426932683045 -0.0256616429886862 0.15209839960466823 0.13960491976750922 -0.06766437861425476 -0.1502569538856694 0.17445702659792964 -0.1988103540698277 -0.18188726901830415 -0.02730313557178793 -0.09526151310150174 -0.07750850874757179 0.08240299690070833 -0.14153488796411756 0.14322424609396006 
0.09054623805856768 -0.23991070363178954 0.04011557451935645 0.15370749343131912 0.04648271789010362 0.11896307384723605 -0.13180896310205245 0.12123581906224278 0.19783464727546285 -0.04362850992949229 0.09034100084411172 -0.1611778158031857 0.11797623595895812 -0.1751833418350159 -0.04169259302622908 0.022266257434875047 -0.15503076769764484 0.1818313140666463 -0.05166655077904927 0.009255021701139262 0.0018606342186781675 -0.12311773552632363 -0.2595782051656561 -0.17067747242908296 
0.09665919053122174 -0.21249456322418467 -0.05691068105063531 -0.17474833551887045 0.1073499976175001 -0.1255932337911127 0.11252825330015385 -0.1594102257149644 -0.04987497233204835 -0.18319969047966936 0.0802362862849774 -0.11216190922260583 -0.054750330778907653 0.09570735191469869 -0.14059515307804357 0.04296796151090449 -0.11886630732180363 0.09629199805404473 0.08906873961296033 -0.14972540237980678 0.2403043635890063 -0.13460869927556077 0.0958662687744193 0.02335814404170345 
-0.0819372448249066 0.08588556176755177 0.07077391699054011 0.16012032901743806 -0.12254637657547726 -0.19527415665676237 0.12254348002392945 0.21769054099964066 0.048037402995117266 0.07377723831612305 0.1399572403605675 0.17378606230330312 -0.13618489023519662 0.11929524918031822 0.0699937754303809 0.09250950084740933 0.027564060721209437 0.07315843441727064 -0.20061719683751467 0.0855674177350884 0.1395263652659259 -0.1614274432143856 -0.25031715438565616 -0.1396168263063614 
-0.08509413856146061 0.1349519626150952 0.017103974399672674 -0.15507435606599798 -0.1453085984732041 -0.10394659603518926 -0.029691323122880926 -0.0701235263975691 -0.06593932857776812 0.00514636416684914 0.03631184135912092 0.00943598024002521 -0.10618373671396493 0.07824408725762205 -0.11154383378305485 0.010830147020922382 -0.04419388509914328 0.09933426043554248 0.15171251873747876 -0.021373489200483688 0.16287964875116992 0.03351029264193713 0.05185587141421432 -0.1479621628383133 
0.013843529555760074 0.17673720428348225 0.041922618490552385 0.0906816981179843 -0.03939294816568075 -0.09120949536620476 0.10698050350193021 -0.1831898275533241 0.02235585277860495 0.2029571282332005 -0.005168455769029895 -0.12226002250740611 0.18865260746607068 -0.11722696628535527 0.08012595890373189 0.0416886521808597 0.1514072682763222 0.08559838086397113 0.13567629845252757 -0.19863864875359125 0.24301324932089186 -0.12420712314051084 -0.07149758853538644 0.18542356939947047 
-0.1982256725782164 0.1324614919322092 0.13509512196521486 -0.012853664015994385 -0.0976834715013031 0.06397709034267074 -0.04365460881173265 -0.13285450947197625 0.2161553340835259 0.1739805435617325 -0.009852579892050801 0.1369554396727903 -0.07796690409321695 0.030061577015307074 -0.0583906161112961 -0.04142481888596605 -0.13411947051513864 0.1824311700699093 -0.08216320933419376 -0.16921384880259652 -0.15710731866672453 -0.2091544506227942 0.04942074179729496 0.0590716940069628 
0.18933717095745098 -0.0585804659713407 0.11693447014261683 0.0691267716311011 0.09760363109584862 -0.057599634189633375 0.01066495765839709 -0.1284530314585003 -0.04081010819107876 -0.17307235063400456 -0.03628750633519999 -0.10811093564967263 -0.06352256277600217 0.17606081223095588 -0.07165860025021889 0.18205241404052092 0.031814359520415794 -0.06555856320379085 0.138603839618794 0.1567019839382218 -0.09418018208455964 0.1261986867498412 0.0002542764781669185 -0.07961570828631981 
-0.06765728670195516 0.136737444313415 -0.0924721352694412 0.11327036543282039 -0.08173094180216571 0.014498183788240188 -0.017024435623730714 0.16400648146397015 0.19957059215445366 -0.12658882945157027 0.014331137133559133 0.15279758434533916 0.0162801085670734 0.15703794652507816 -0.08829993769491275 0.01097234336230314 0.002527255422608466 -0.10882121731534765 -0.19624430693744432 -0.033062624543730226 0.16510247768326483 -0.10147991292129686 0.15711501051381477 -0.21362302022267277 
-0.06296968723980945 -0.2483637078478377 0.07070546949580332 0.034392784457750084 0.07520413770264359 -0.09863266163477223 -0.012313578016478019 -0.13264246786946166 -0.10425850554224252 -0.05095887027118601 -0.05761356011996649 -0.09800186500687122 -0.027525773057862104 0.1530208091555287 0.0096961620306499 0.16399866471768548 -0.05435492640384648 -0.14079242063680478 0.005608247077215892 0.12983819791593987 -0.06187632997606231 -0.014719877285086889 -0.10639475071935377 -0.0010718669118682678 
-0.1358842210865126 -0.15226089015526736 -0.09520529028336723 0.1473011361994597 0.1125831230829572 -0.03840806519010748 -0.03137022913185424 -0.14241300085227632 -0.0063737816446572644 -0.08106302212779393 0.14677174615714075 0.08934175955115346 0.04560483395238931 -0.10370433094519785 -0.011645874152888772 0.22945305419736917 0.1102622742705438 0.05001594451294675 -0.13986529735003086 0.050183760624188056 0.038178719112803974 0.025305420965777158 -0.10021837824458202 0.03944303091589363 
0.1572704725268758 0.11596609603373764 0.031502049880586504 0.20622364903642623 -0.17535990929197479 0.20570194170084574 -0.23788776669484601 -0.13038918088556622 -0.036165650661574684 -0.17780376469929998 -0.0026977725759191463 -0.20029317431855026 -0.08361571684382141 -0.1626220969347165 0.08125087478059168 0.084509795873804 -0.05113517732197616 -0.12504198178022977 0.09879464915137742 -0.07850327950848364 0.13164800114981018 -0.011321625666344351 0.010948258265846975 -0.1890751589681978 
0.0170139003066706 -0.016476974508292854 -0.10841668515716678 -0.03140195541086332 -0.04674001764531487 -0.04169476978668659 0.27430728699950035 -0.02810851745087884 0.18559802594148886 0.005072799024531733 0.22176998653724236 -0.12486498681949272 -0.09288958685254647 0.11929668983690207 -0.1840410022248808 0.137922414859408 -0.020988572266679974 -0.049181652139579306 0.19986396893868394 -0.17796952015970904 -0.038791543903854656 -0.18913734589025402 0.0951915225172806 -0.14756090802925512 
0.09123487081219653 0.18992725409328243 0.13262981857192507 -0.01908890570761833 0.051979601608954984 0.19979713945425884 -0.03698356515900517 -0.01342853183452535 -0.22076181596370048 -0.05196849931188199 -0.14373395370848877 0.14372307971322157 -0.034786284166325274 -0.010785589207946871 0.142191162787138 0.05805843962645308 -0.04148176735243252 -0.09237449890686583 -0.17238536083222875 -0.032499718512780475 -0.10980888518867732 -0.0822345305804216 -0.017466788640909763 0.23646110385571947 
-0.15711947358989875 0.11835229721803216 -2.673700204241124e-05 0.1109688404833045 -0.14316970860555456 -0.16781045558365995 -0.046526691536086545 0.15682970690237436 -0.09450906233449384 0.09804682695676108 -0.08374163781038071 -0.1669457768007448 -0.1950348036736059 -0.08076742168538673 -0.04729427433579932 0.02668213443431502 -0.19456502755412647 -0.18248248437053105 -0.1950921163260892 -0.15531887683996803 0.035042046955218724 -0.03867394795426674 -0.11263321966665046 0.02296370367481669 
0.24638768344365014 0.0734551202510032 0.07968188559248901 0.15919478647391616 -0.18560001364554324 -0.17307185790980062 -0.02398014370427978 -0.06007548988380998 0.0985928250186025 -0.010077496923970135 0.005008654916297263 0.24263160965150352 -0.08194286811859113 0.12437598474035896 -0.09855761654246799 -0.07293052798347076 0.03925983156818324 0.0009138013044661325 -0.11209201563666153 0.007574725112172476 -0.06414947522904142 -0.16335824192275533 0.0861396338789369 -0.03128320104866167 
-0.08618371752062066 0.11110748519565107 0.01021451678240557 -0.18058395067489008 0.15039392819844405 0.11626037098393786 0.21695791726153313 -0.019510688013269845 0.08735887521243986 -0.06398748968411638 0.01527021255647333 0.13299992720321716 -0.007304735648896209 0.0012467980681838326 -0.06938868529268924 0.03335741313187372 -0.14621721764159368 0.13889977570662035 0.10069542936738016 0.1051132943546138 -0.1148033260814156 -0.14790121946967308 -0.12345557611936576 -0.07105183188415928 
-0.18667191403170824 0.14895573505429166 0.06790912805447169 -0.027585780200134257 0.10719997918586807 -0.04999432140453457 -0.18554625157690277 -0.1467593797298091 -0.07373833462466461 -0.03527812008728911 -0.1804459485607623 -0.01541400929938378 0.06869648456855786 -0.01406557733725634 -0.026835864403883393 0.09147038609289253 -0.025480614279429523 -0.19557308042116087 0.1499627692014291 0.06222913332188804 0.08032029687180199 0.1392575630521149 -0.19299819946365562 -0.10604226993674967 
-0.17593129200200197 -0.07734902286794258 0.13617201126731396 -0.16845565228881446 -0.010645070914331284 -0.15052883271541417 0.0816727245079911 0.1174196556319963 -0.24757717956482667 0.034707147675652215 -0.10428677219424182 0.23922552507257036 0.15893327374080868 0.06763419230958116 0.19778859814881725 -0.04891194118897482 0.20965460044580636 0.011384318395563456 -0.1057417278406677 0.26103306219426975 0.1120934430325512 -0.1752897030008681 0.12840163308099195 0.08157462229205559 
0.08359045986334497 0.04796298299421505 -0.0986152825356417 0.039929793283840116 0.12618424596478917 -0.17970874123950786 -0.1485042380147009 0.10810016936032626 0.03762262097069531 0.012389757048960991 -0.10069605597741595 -0.045235941329989246 0.12252176081941173 -0.04707669048532918 -0.1754866278702407 0.2209873642559675 -0.11887998359598269 0.16660641941682894 0.15351078648882863 -0.0052417124128276565 0.08578866219432048 0.04267149828464064 0.017079644961545935 0.1811426634243821 
-0.08082383486587784 0.21623313131979083 0.026854144770298502 -0.1547858695390234 -0.10930888663463831 0.03314859790162772 -0.11684039793453298 -0.1481354660049564 -0.13594075990275387 0.1084527979047395 0.07918688655152398 0.1671041894664083 -0.06261069478662153 0.08494409947254494 0.030653810198368422 0.045570841355285795 -0.1683026869941074 0.11065142585671323 0.17322327952096844 0.044346755766019735 -0.10275450468324056 0.0537531071570806 -0.20982655679681234 -0.0684690635287329 
0.2384095412455522 -0.01650833438727588 0.14268002857802542 0.041600294299998085 0.12941678364981468 0.20637437015907872 -0.09369432830215313 -0.15158399388434235 0.0416623002436352 -0.052676101554507145 -0.1500427156055334 0.09450823565883205 -0.16911350077447773 -0.09502723042279873 0.110484616141709 -0.15128173067073625 -0.05396451837610979 -0.1931231982846833 0.20086264179419763 0.032565927838595514 -0.15092024204567234 0.24155225519695206 -0.05227823182196751 -0.01795439365827801 
0.046618601702616766 -0.12368676596932958 -0.07770470746132487 -0.05106595732994264 -0.1022496707745334 0.03907376035400493 0.12158418993599078 -0.1724118670753298 0.24338444173437362 0.08913518560153182 0.16920233580077265 0.07747542584571254 -0.16909451306453804 -0.059461711930072145 -0.02153830444683132 0.02952230682375852 -0.027205200785100397 0.08157070674505298 0.07244845399079629 0.07013439253416584 0.018315041590435777 -0.14016812938091786 0.14922018727165598 0.10350770497475387 
0.18292822738825743 -0.11107792531188711 -0.12971862294205821 -0.04328969903398506 -0.07155997979735562 0.146164759609349 0.026702943831399133 0.11200420143832486 -0.038425150420225436 -0.16117753964904616 -0.1548136180280835 -0.05085327185480834 -0.12274730438453339 0.14895934986925768 0.03958925072577985 0.09031041392642741 -0.021058931239003622 -0.1657791826243221 -0.10603993415726634 -0.020457505110996824 -0.12082257488078496 -0.1914417412836648 0.09607713683598133 0.06485297023969708 
-0.07773761728908289 0.14974086042756019 -0.028393765799338225 0.143563320168589 0.058931847818942354 0.02941746462823776 -0.11995612253810915 0.008438759534494297 0.16675626379922956 -0.07782316935263776 0.15889961221390825 0.1869720176744103 -0.06783096169177569 0.07728565681814598 0.1606310799049868 -0.1980939883126754 0.14547871134232204 -0.12396826231881623 0.14047321668162582 0.05777404980535156 -0.06587634114831943 -0.14000744601848242 0.05925191103264407 0.14881702956225723 
0.13274020141748727 0.07570699588832441 0.18363943306702293 0.0357132172931954 -0.12282460688060934 0.015005490792818833 -0.07554599655962145 0.21945121673800902 -0.05046170085795008 0.2239222001892154 0.007441552402041514 -0.14637006922362153 -0.171337691139442 -0.05952973113366608 -0.15139479123903496 0.058901361663009355 -0.04908016455811812 0.19795589669313277 0.17319008420126825 -0.1408782047411477 -0.048529828917347355 -0.04906715393387402 0.030129904408358044 0.11885398205587455 
-0.07084968345179882 -0.06966374101963069 -0.09515711272362358 0.15029638938350198 -0.19275591488000643 0.1458577670278422 -0.12493069206149968 0.012408872022068824 -0.06545757588131217 0.22544386382121984 -0.15165845615774715 -0.12779650461913736 0.1656540989085181 0.04381890284563234 -0.07611189265744973 -0.20158139746145953 -0.20898644765594243 -0.1424382320872111 -0.11885849339013538 0.18345002178758651 0.17188727127358694 0.09207405110183586 -0.014711725624513528 0.10150801514722439 
-0.03583915828747183 -0.04482522639438457 -0.08966644898974512 0.1656284024293932 -0.04493220486405137 -0.023847759699962414 -0.0909003489976547 0.18740528438560952 -0.032894558423200056 -0.08081025083575351 0.08130741242851836 -0.15341600677634487 -0.15352577263109224 0.1247517892941011 0.0976354398652626 0.01183143654185987 -0.13373621454477355 0.021185994838837548 0.05507429241060959 -0.06874492816629497 -0.1742351672377942 0.1444913633568391 -0.00110670888856446 0.10561522980436919 
-0.09843361579220909 0.052957330962746574 -0.028253330336469935 -0.04688670257645197 -0.1500518153167709 -0.10232299576157403 -0.16938857721918757 -0.08724872805013019 0.12638488857825542 0.03990758693724858 0.05916319453627383 -0.2357161507021883 0.06825692031939384 -0.019928943370701703 -0.1077271756515948 -0.16350811661663173 -0.15632305110012967 0.13823156703729408 0.19474985065361253 0.2063950709585049 -0.06079660745526052 0.1075446353025577 0.040031775937754345 0.1201615271751727 
-0.006439011638390935 -0.07009079094888426 0.11508709015939661 -0.16085333787633824 0.014658854263541583 -0.05333650134794303 0.018546388655448456 0.09361326433221089 -0.15743878981296933 -0.04254101128127468 0.035820478279972395 0.1736130818496499 -0.04217707214425625 0.19015090986485786 -0.03813721445331099 -0.14622163393196472 0.08432835315377629 -0.06599366792131046 -0.11296692012922412 0.2585333467674475 0.19402200383415835 0.03926383630764475 -0.0007524436107661101 0.016629320575807165 
0.09113456593813914 0.17223689375535 0.1378689173786513 -0.13347259221532956 -0.09469703941359489 -0.2030157486014271 0.19364274914111468 -0.10551132229120816 0.04567512624232012 -0.16518392896611803 -0.128199836598037 0.020245084367838746 -0.19399999266177725 -0.02282327646332417 0.005672107438561855 -0.05256538399392011 0.031575769632705586 0.01456408788699623 -0.04348494471060023 0.0726810455071945 0.09779104827009188 0.0877915154620182 0.009876785135422622 -0.0549091890165797 
0.04497280454006704 0.1746230428052682 0.035291781727916104 0.22576733844416402 -0.023393766800779602 0.09580799396511934 -0.1864706313028696 0.1131593227630077 0.03239397344382359 -0.19971255594454407 -0.10434952311682084 0.021174494076646906 0.10727036000294127 -0.21555392249333497 0.019442393703417077 0.1395078986751888 0.030626531431620398 0.1722417902129177 -0.17127334288423005 -0.08158458739166247 0.19099010083459064 0.10112042725088118 0.029749229745814985 0.10433683512485373 
0.211117015019823 0.1875242245006521 0.20128778644321121 -0.14478131586271145 -0.17298654148516832 -0.17179051753506921 -0.1958437489708552 0.1728082672912765 -0.2167485200032302 0.11608583344082601 0.03967252897654895 0.030037809623938268 -0.06106717181898638 -0.031573506339138704 -0.09845371398630659 0.2173158769839236 0.06721614191506346 -0.1912574083525835 -0.015242924392748068 -0.08736821647685429 -0.1667736404185187 0.20430199853051162 0.09216251394659497 -0.0678749397431806 
0.1653072638748292 -0.1035645942612775 -0.07666071365877015 0.1623216072241969 0.24212465339781056 0.05503100127952895 0.16636685393107298 0.13665009059077188 -0.02817137855027329 -0.05062800047810825 0.07974613018448114 0.01517080882029295 -0.0004362545238616588 0.253581222005558 0.10968033027566375 -0.05712694676963311 -0.20878507384715447 -0.12637721139897434 0.010630730772181003 -0.03291176090721503 0.16686253566541548 0.214916577266211 -0.17838373005743827 0.19170570916199062 
0.16471546585607802 0.25285365957550165 -0.18636462342495574 -0.17828841093738818 -0.19951517021400478 -0.08866879635923307 -0.17906001094124768 -0.08230549406731269 -0.011217987392652028 0.15109154147401443 -0.009123399699031295 -0.14692518767700397 0.051357290053766075 0.059842293201342676 -0.156359445508873 0.06395354435384679 0.10361224736949019 0.1315358914884663 0.1570744864409045 -0.046989974922742817 -0.046300288189073786 -0.16030349767110091 -0.07045034226630317 0.15835049465404907 
-0.06576219660317371 0.13733053601468592 0.1570930331740416 0.16044345223812195 -0.13806493958255767 0.20549439767776148 0.0336588393734995 -0.11594162791119089 -0.08298984794609283 -0.13653169412418853 -0.027210654969859062 -0.13914432294366874 -0.13433586244792514 -0.12138858246839924 0.07622202950981594 0.07885253633795189 0.20704284468782372 -0.08266708635675594 0.05157133047248198 -0.18777075737687876 0.006409473422757182 0.15778434697523144 0.16967160758747282 -0.197842411850734 
-0.09885675555979045 -0.12694338563209315 -0.18240133210687365 -0.1977195092477134 -0.003878261928789484 -0.1832431490152892 -0.08856724311729801 0.05572302581334195 -0.12133210796369512 -0.09206667381659388 0.03596188609380591 -0.023469493464568274 0.05752894716689502 0.008628405800897226 0.0530131858446493 -0.05838063382011759 -0.08505305360997469 -0.1507799694323531 0.1761047069632678 0.12118998765939874 0.22526441651338971 -0.12618436537766564 0.15971212910149396 0.22369426905086315 
-0.10029943656174287 -0.06299039000107744 0.020387410691292563 -0.12622143107677825 -0.022958492190617446 -0.12698315962438245 0.23399017968765345 -0.0024422018901798766 0.24123468007942045 0.027830089078048657 -0.006205832758609343 0.17012378929031208 -0.1433395846702407 0.020362844010122047 0.06451133822462601 -0.02624511001005216 -0.23272711139584856 -0.002878206049116455 -0.013809249884101175 0.1726782752393747 -0.09731348412573754 -0.04315734630107368 -0.07754213022985629 0.07437795313094199 
0.2159357446767419 -0.1427048603376149 0.12895715484064046 -0.10769475138954207 -0.178127843342546 -0.16376330094110247 0.19421824304030172 0.17442793280243005 -0.09403992088773065 0.19496246051120059 0.13360888941246649 -0.031299869820728084 -0.012652586092348426 0.053433699009062294 -0.1372992221627583 -0.19582803697707624 -0.08570248042323107 -0.19555662382825198 0.06957595434939239 0.020402219607228097 -0.08053139592020574 0.12664306496117603 -0.15478928894866903 -0.10207473288881197 
-0.08292943055417734 -0.12190158967936827 -0.16587519394066275 0.14870263278953702 -0.16577306879590778 0.07327878083976194 -0.1526252810288513 -0.1975034269268412 0.02270770235401297 0.16385216830188537 0.14482448632629644 -0.06437496029349582 -0.19075184702202946 0.12059980588105132 0.12267941312881833 0.1480962574852195 0.0676265736123997 0.12340743936914135 0.1599278378079067 -0.0182968919062849 0.02292922910996183 0.0024247107792409834 0.07660693241018773 0.07295569327401169 
0.08307806132962571 0.0594505494309876 0.002285563098620017 0.12977337677267148 -0.08714893285605284 -0.1071172916887015 0.12253843576019707 0.09124642900453377 -0.16712005270700256 0.10826820230317305 0.11691559517903477 -0.10143661352540306 -0.16767495016270018 0.045884678392731096 -0.1103242579314057 0.20285913516946627 0.05755034263417484 0.1394772805605097 -0.15775971761431967 -0.16736892422348493 0.1409750553246089 0.004916008691587933 -0.16615554133532742 -0.051302371381258725 
0.06862996737468864 -0.12447644414975376 0.15920568718823955 0.18133007467278087 0.18613316935712954 0.09196063291439294 -0.03722462727193707 0.09747919884493825 -0.08467300779467041 -0.07403180132731589 0.04208933631278315 0.03767776497871826 0.15224275568666204 -0.09814586706554429 0.10655222295395826 0.17771410083536374 -0.20147113520628843 -0.009464945492997014 0.0625656803360756 0.1378504536038319 -0.12685076176088883 0.14307452987947863 -0.053984438519614715 0.1577955589493169 
-0.19052515749879229 -0.18013041028069982 0.1942660843550401 0.04352986877438792 -0.032700524633248296 -0.1319567069464243 0.05363229699206435 -0.18672829720882908 -0.09675964230154074 -0.0703885016046366 0.042706766080461436 0.07978332730913945 0.1401230623119275 0.17814593331325368 0.06393709904907337 0.03854401479740491 -0.031939656913186044 0.20792033133962518 -0.13890729450875514 0.16322307127365526 -0.07540110563235006 0.0342271423655046 0.06823588848149512 -0.1054767082896356 
-0.13335273751798635 0.0033548427192534357 0.11695183616325047 0.07678019028326018 -0.15320739707106026 0.16125216524010638 -0.00801921769275564 0.18003229472195603 0.021183185259513272 -0.16715692936557916 -0.11925219981297815 0.14229232728922306 0.08222083735357372 0.15888341401710537 -0.06811157117917171 0.011086485992412158 0.059901260441447376 0.037455779504034156 -0.10750275008799728 -0.029039342942189822 -0.1007685230063264 0.13878284349130593 0.1964268759798494 -0.17461091489619457 
0.12579476866381908 -0.09979486338624219 0.0499013226522809 -0.09672018920703682 0.06014568092577162 -0.051269052122201945 -0.108955501870783 0.151076679598947 0.16488113238555302 0.045147763825296554 -0.1143855064974162 0.22602199722299038 0.07975113724821334 0.12629065215767582 -0.11549854872739379 0.13249634377938094 -0.09938863167833933 0.05237713451192604 0.08415975187822822 0.07578202262975872 -0.017209376687570166 0.1456267307265985 0.14598493803980617 0.034714886181683474 
-0.16486568881494512 -0.07730617656347327 -0.15880095042131168 -0.13132421789323745 -0.15016695979188657 0.06544108162105283 -0.18572997290533164 -0.1034182161529489 0.25376251391109933 0.14475745634453233 0.04189985255308698 0.12643691972482765 -0.18407488715597206 0.11377321729150816 -0.07528725015204298 0.0474521378890917 0.05116167481107967 0.09391919252887548 -0.016422114392430128 0.27728673975804896 -0.09681579041965646 0.10692768354394837 0.13761654254514558 0.17915594531557769 
-0.1885033292905305 0.15806798603540692 0.026003958820430318 -0.002996330902816858 -0.09628051885957756 -0.06904174115726039 -0.10022251502410266 -0.11244069188611962 0.19437401704100174 0.000946979263653868 -0.16781566534974532 0.061904969441168696 0.07853183981358244 0.04778095561964989 0.006090783916855091 -0.039756162635130064 0.15970856525900756 -0.19030750698154902 0.1743387627748706 0.24667519372933333 -0.06676438396344449 -0.11438668558635164 0.11629593044623583 -0.12919314716674954 
0.12155271266635351 -0.09841533748552586 -0.08353687492285566 0.16745018228842273 0.16214009367995313 0.014013527455702106 0.1457947951158165 -0.05872612804525593 0.20102657113178385 -0.026304844143822986 -0.0819229943966974 -0.18484392004130817 0.19767002145237295 -0.013906981076715546 0.09377809140776146 0.0560568149649686 0.08914062318677379 -0.18093810379983197 0.1691379979309751 0.17191641274567052 0.020611347112976894 0.1870933978689504 -0.08750763273574784 0.04059170122628365 
-0.04114707737546964 0.05093699783838934 -0.07957902363078861 0.12810886576170777 -0.17329576935611135 -0.18471965378486738 -0.1816401420633107 -0.14038207744293016 -0.041591296889192386 0.18360036493761817 -0.15654313802046663 0.05876042900422183 0.010935864274701662 -0.058441546430071385 -0.12098171275232729 -0.11190349812421044 -0.18392334062467874 0.08513685848626983 0.06128180894239137 -0.022294952583434693 0.08746530169321687 -0.1568774891641525 0.17677527914978355 0.1396014303382691 
0.06336636861888055 -0.057825202698920594 -0.03312530397189583 0.004148605884405501 0.175369627430283 0.1603260550030313 -0.02275233912007644 0.02161441547850604 0.16306756156638708 0.20173873891925698 0.05540658484918044 0.11423116587799584 -0.0647864015318376 0.16219015485552526 0.135177772008196 0.02063553342048728 0.16869847926237375 0.13770181812360308 0.12366414425784897 -0.14843001118276591 -0.009184035406308454 0.1829939544338145 0.1162005344910296 -0.03147266556607752 
0.19898733593133255 -0.10095965262004741 -0.06631858498878118 0.21809449606992742 0.12378752658549765 0.1477872973998923 -0.19713796559515873 -0.047821037462776085 -0.09959193661622717 -0.08147063456885988 0.09515517478643663 0.0864391131042084 -0.003181143370090521 -0.09740570178998742 0.03362696194391186 0.013349694709063198 0.010556636366813638 0.049872781436961736 -0.04147235170334548 0.10123615605047827 -0.09951884370058858 0.049670269159372886 0.21686377483855665 -0.20043578070876852 
0.06465457153026384 -0.1498054071565416 0.017350606085577994 0.050493854683042946 -0.10285659244815158 0.158900658922982 0.07345263733529714 -0.10740895049989009 0.14257504891571599 -0.15870113953271947 0.021895417611355664 -0.19794156285623746 0.06422397838975913 -0.12317201356427639 0.05952779268515814 0.08621033016310753 -0.013971047138425797 0.059905926165691466 0.12564612912377832 0.15574583297973646 0.03259472664587375 -0.025961152110134313 -0.02002917749343242 0.146143344849586 
0.06742880476742173 -0.13577756466214075 0.0260747625448107 0.20114272290723245 -0.1402864524285218 0.1284594734154632 0.16508740246338607 -2.131288597394612e-05 -0.18647883763971432 -0.14158381162851952 0.2080806482412913 -0.22313900211717894 -0.05072807200256833 0.027590809353507134 -0.12148932521069038 0.18923073188980755 -0.1934113273440514 0.015719429819802875 0.04693147778403544 -0.10769418903244285 -0.03832904461328836 -0.003556440703681288 0.1430714764581554 0.05344226395701098 
-0.012850721334346196 0.0590577671472626 -0.018476647037890048 0.010178690088402826 0.06317871035326096 -0.1278839459901559 0.11164085438701767 0.030612679314988334 0.19652149466030855 -0.11117886071186384 -0.013359918826062677 0.18904186179784976 0.04030690146398583 0.11252095653549515 -0.034280153519084304 0.09569199207655786 0.19589967334277897 -0.12017573589015963 0.12323958180756997 0.2044986379922973 -0.19591557254118977 -0.114084914391251 -0.15385843830117182 0.10572814652803304 
-0.168622165403058 0.2355392785554529 -0.04388394748906124 0.23643811355557484 -0.12488636025400879 -0.023447228540393217 0.17206437845464048 0.06237481136397559 0.04208379943865811 0.005004376067718746 0.029320871606975458 -0.04670816130578832 -0.12286450666455503 -0.19075897116832297 -0.14006753040880865 -0.18037306533287456 0.010070870228090247 0.10148891641411663 -0.056086080642011836 -0.17103642697411392 -0.03810741218203687 0.028341072794392633 -0.016769071903552594 0.1246017277331646 
0.16604051110326865 0.1898231922372642 0.08144427264761679 -0.01176046196982335 0.0728717249070492 -0.19638758647442683 0.2421731194069443 -0.13158842807273746 0.21053129580899776 0.10680356963547527 0.11803231265075595 -0.13109442117895503 -0.11248691470591768 -0.07423712706554085 0.14031131575694217 -0.019667652828004423 0.22088053626843712 -0.05866728954358743 0.04748370841847688 0.16406499941502747 0.034869908063494916 -0.18323656695174148 0.011674013376798697 -0.06586038038885807 
-0.0064854621613790985 -0.08332505517065794 -0.1518667517289616 0.06708129497271914 0.07233363334157239 0.12498859793784034 -0.14774192412509382 0.15268676587650995 0.16490267632619063 0.04981972957339044 -0.11825495137633013 -0.12541177519719293 -0.016219203342797115 -0.011578346479509727 -0.008930394625647462 -0.012886486183478799 0.11824713781165917 0.14015529707979077 0.12705111841188865 0.19921306258968188 0.013297614688622025 0.1861126053718411 0.06261648317687926 0.036018075257742116 
-0.07206929391873453 0.16157454674484567 -0.18058812374786437 -0.14685988214895482 -0.14861365405945676 0.015439754777178002 -0.13026562155754515 -0.06329313613347352 -0.11963592888737827 -0.10658349373863699 0.286920135428357 -0.07659362971424864 -0.14012996204153697 -0.06401021295072987 0.2792397587843092 0.08152978464009186 -0.13192543539599072 -0.08633350673257366 0.10474829421062416 -0.1038526413926844 -0.0982947231258238 -0.16744930604383795 0.2418741584690042 -0.020653499401538874 
0.024504693862317486 0.12460124085893902 0.11882714182229515 -0.020808816773530834 -0.12669314376246596 0.11856610486907077 -0.18917797442969878 0.226757620929977 0.061568836397082105 0.12459645510596434 0.04315566812548891 -0.13879486895411178 -0.060978309892114835 -0.03708394215519956 0.2355633693892593 -0.12654369017844186 -0.037971479294238414 -0.062233285468747304 0.10798371272607284 0.16381819561168454 -0.04118740029050131 -0.11857921487075307 -0.17439874502742048 -0.12079954824740279 
-0.09095844714271914 0.039251072532569216 0.14996902525071468 -0.14943329431408514 0.18474681930805792 0.07306184007256013 0.09675811401125659 0.19486922420116265 -0.03331105800394752 0.012507024370231191 0.07147057971606378 0.00509360514518198 -0.08019103931897908 -0.15875109809308638 -0.08590430798606867 0.1076305612059424 0.05604682981463283 0.12079101597363076 0.006774647690977658 -0.10724490304951563 0.05091246056983728 -0.07822104401782856 -0.18978024740773905 0.16230928936908165 
-0.031609600191305924 -0.029314376655768845 0.09647030632774645 0.1807617606885899 -0.17217945971332546 -0.13133493641598173 -0.07083933055654032 -0.10064208282856285 -0.00178147145827976 0.1301811908050117 0.14218421855154093 0.038069986020938584 -0.10397826870643494 -0.12573279812338672 0.09733429073082157 -0.10517553582709875 0.01564468065143196 0.09971444675728008 -0.10880365924614822 -0.13060344343307742 -0.18559715390675294 -0.1415568105788857 0.14115291955557238 -0.15905670099594874 
-0.1106678327594612 -0.18845687686614265 0.07032252399052062 -0.10740553049479369 -0.03431143413522822 -0.14492311116289705 -0.04883995322422373 0.005739415098366655 0.03766126487791977 -0.030624523944005187 -0.15982380856088013 0.07256055544037632 -0.1457764718810632 -0.08217536755919463 -0.09113790831339351 -0.07942777510359339 0.024059936019214523 0.007038505994955001 -0.12427362690430709 -0.016732773289679776 -0.06393766239812484 0.04181150364836514 -0.10967569327503134 0.09853303115117906 
0.010384062429263126 0.0002449545494066214 -0.09851556863630447 -0.12586963279105148 -0.011157674006311584 0.19443588665671702 -0.14752812003432475 -0.08649682287033562 0.12051129933714488 0.06567096287893333 -0.08839370111984955 -0.07393914389522602 -0.031777497533179835 0.04084733368628715 0.08762631246788663 0.14353914849899885 0.07223381090145908 -0.10526939405530554 0.17145815386103297 0.11262837767154862 -0.07686230576270575 -0.07783457369184392 0.15326516360648482 -0.150310605051193 
0.053113923111724574 -0.08881545887494244 0.13129487219173722 -0.053921170264046414 0.09328600216687702 -0.12332758733187726 -0.007342463772458779 0.12170950006953118 -0.04093719944905484 -0.13585849027370006 0.059333482193843996 0.10134956731635361 -0.0878152823949378 -0.019277383142071523 0.1611324144252505 0.1495215597415917 0.08272853923956212 0.0361031318783745 0.12730627875623232 0.16407093109920798 -0.20086569942556462 -0.04084153169939153 0.024354885021048347 0.09351087955224112 
-0.16606555633770315 -0.0031762540851188953 -0.0880457409871471 -0.030358300198188852 -0.0007992277283218088 0.028598055347611548 0.03920533193550333 0.041915725795266326 0.07735126006768023 -0.028437598706438433 -0.19985219296005732 -0.1759157527971247 -0.07942675032568826 -0.14179726822279398 0.03920115735172112 -0.0006207195312623973 -0.023532680377816622 -0.07144571642484662 0.061048292427275996 -0.12419389334977458 -0.1994808589133685 0.06035242497718973 0.01697954772031945 0.05704153211685844 
-0.12817693698019086 -0.24913984321740038 -0.048483387351928295 0.04895538275127177 -0.15979858033107291 -0.08546805098380149 -0.04393518262740666 0.013188335003029131 0.08765527102923105 -0.19726523015024397 0.04101130686659535 -0.013999040532035724 0.04546196542537562 -0.113613013060371 0.0422086599207013 -0.14703068920284754 -0.2389301454013453 0.008304942904572257 -0.12667275052371824 0.049861382787521426 0.04737609425431762 0.16420426013881811 -0.06386264193755214 0.25418376400124926 
0.01605940753474094 -0.0332931404358557 0.09793419274600712 0.05536573530160291 -0.054745547669847086 0.007523765297072341 -0.11460032312392658 -0.04435126747975976 -0.19564159105810258 0.0007407599634250497 -0.08382965971758091 0.011941524500096109 -0.21717087934257506 0.006966011620328153 -0.08265380816553582 0.010961109781782162 0.08870862133103428 -0.045074788781921435 0.06502053575628602 -0.08256064618248769 0.22517410061625653 -0.13649058065781747 0.2029577474324468 -0.1618429736570077 
-0.014245455061671788 0.07438775968719853 0.11876247760957437 0.034003181288677346 -0.056636977816168055 0.04764815195698171 0.07038880108167828 -0.08251544906589815 -0.09205693040673797 -0.17482986655618418 -0.06126949728546783 0.08385207441877723 0.12843674226096444 -0.08100959413459677 0.06083899492525223 0.11811305493269798 0.11246098733420928 -0.18967604040271335 -0.1418911991816965 -0.13206957158465987 -0.1409436815105435 0.1629204229731163 0.14081958270359368 0.04721485803061353 
0.017103028219806592 0.0460176434649555 -0.0789552986203248 -0.053036712326377244 0.029740764521664013 0.12399097072295531 -0.11960359392351544 -0.06876316339426956 0.09714471498022176 -0.06338406309095104 -0.1823712995047493 -0.13798057812752237 -0.12274036826917051 -0.00193281382713486 0.053780356151815235 0.152878443902643 0.16198481257494046 -0.07695112475978885 0.10137150710089755 -0.08691388226789504 -0.052298014644059636 -0.08276311780345595 -0.034271950442755335 -0.11428504551240107 
0.021603915955006967 -0.20694889644355416 0.16379488843051512 -0.016307049544079442 0.20704275082972193 0.18415978236977582 -0.10394191217507538 0.03770254781838211 -0.032061384826382044 -0.07812080788598727 -0.03247740286528835 0.1670156493044527 -0.14043554416967743 -0.12163589598203076 -0.11786908304453919 0.19611020747190883 0.19833162069110394 -0.004735604388806566 -0.14756835589103354 0.04608627905601435 0.09185368067079396 0.19006139490820295 0.06421591330194393 0.27734735603772764 
0.13081416544203858 0.08277843342168498 0.07574066631879171 0.081982563819955 0.1396618777658551 0.2605692623064015 0.10426862050584644 -0.13833114462311188 -0.27158057647354317 0.2206352853539544 0.02045941492971932 0.09881623028105944 0.06031527704787094 -0.11541982253871072 0.13836290544797702 -0.13461569188808215 0.15472522401811095 0.09369893529329847 0.049309969894863526 -0.011034453340474218 -0.019016106527193235 0.06468863716070987 0.1056635013504264 0.09180418373195526 
0.05447803851137493 0.04590739531675622 0.19046399891424926 0.09698361096426326 -0.057776059086458185 0.02941184666457271 0.016885567532210263 0.04422421458411324 -0.06645237046157645 -0.2338953908742357 -0.06742377483159501 -0.09206291658249634 0.25027850943291274 -0.11054061994848054 0.050270856143594014 0.014985324113361455 -0.08429621201081158 -0.25887771886786975 0.09791743112451805 -0.023806491713510403 -0.0713093904791877 -0.14286892426891526 0.12475903088594908 -0.1674065162960709 
0.019774766149601573 -0.1955655715289677 0.1949341213255054 0.039106683247459216 -0.04608155212304473 -0.1418909748952813 0.07857681474657925 0.16332095014452236 -0.0725473260816005 0.10667515454552796 -0.0848700042357723 0.18435216106047975 0.08076614008549776 0.04973334416314402 0.17350874615384765 -0.09231380861972194 0.17059756513810084 0.07101635364888922 0.10864642977240854 0.02842475056087401 0.1340200217295537 0.07914181874840928 -0.14194765218892197 0.04471250886989349 
-0.18916421012841805 -0.049839440391723465 -0.2739209594011101 -0.1261189938961434 -0.3327325975408947 0.3370816453034304 0.03991486468305193 -0.06151891061773877 -0.3037223479303452 -0.04833393980515289 -0.03209803833747521 0.3596879208910441 -0.15026261768007956 0.0500113159071869 0.11275274827851343 -0.21637369621415392 0.01424726963737008 0.19023335287080742 
-0.28947006485843607 0.07207634350720564 -0.3734003908388043 -0.3427110499632515 -0.3054730209232186 -0.012553195641995505 0.3283954717686524 -0.015409734894016393 -0.29106935066530504 0.27503598422943926 0.01302511442334577 -0.13151441777324863 0.3690924027706302 0.33167930268864826 -0.1646279715642623 -0.20556231453808224 0.0654621711887763 0.25682196164664267 
-0.17858520195682506 0.05866092279002209 -0.24718135371488398 -0.21032346293939644 0.17951090517698395 -0.24155609283746748 -0.23156198853133628 0.1253869978335 -0.3342639681817866 -0.29517570140612215 -0.1455048872609482 -0.06985755321008337 -0.05129036068369643 0.1727801897835395 -0.32215956471551127 -0.09650681210638444 0.09421712915536404 -0.32422935662026764 
0.21705214689352156 0.09923346640120449 -0.27570696563728425 -0.17651082030094792 0.16847023397058628 -0.0656110111563534 -0.030275768999252353 0.22873741311780565 -0.25046022354990766 0.4148171929174699 -0.31744540394743403 -0.24449701149234293 -0.18396264178145796 0.16536272126943563 -0.029847455025258453 0.1045304978862645 -0.22453867320492593 -0.31029355485994525 
-0.025383984417423386 0.16484561426308741 -0.05810340526702883 0.255429978407279 0.10946963479402222 -0.1722409541927984 -0.2469790269028255 -0.09612074766237069 0.22602428423810167 0.353700798333502 0.26971466107798475 -0.16930343064945155 -0.020596979925321928 0.06123115096694703 0.031685805164358406 -0.07529079110237405 -0.27585487992375346 0.14552514219668247 
-0.35834828078440695 0.25293923335169505 0.2501746549453226 0.17739732426500318 -0.00915827911252196 0.13625979717113634 -0.15419707955113013 0.3037023382752398 0.23601567948914995 -0.21831654525743324 -0.13761936562812102 -0.07456368450587066 -0.00762593136349615 0.010654901068626247 -0.31811335578801897 0.10916449220034807 -0.2206388208601381 -0.10144025745698164 
-0.02476415347718805 -0.10316700711136857 -0.11808607887953407 -0.22033940617623335 -0.29938449632552455 0.034690377937871664 0.0968397844148397 -0.20124367088347095 -0.17632684030927753 -0.1549610811185014 0.23193877589279002 -0.2732074761900109 0.06739262424752664 0.04637211865286917 -0.10682596391581646 -0.10186414312055417 0.33574154469592876 0.036949260745998865 
0.1639570293486892 -0.0062445329034045895 0.08158784290630013 0.025867492690671304 -0.24502040922187007 -0.11285708448013657 -0.03717464655068038 -0.3223366347331177 -0.091398648265928 -0.23633678564224408 0.2508048437191192 -0.1466774508975528 -0.25293424653843816 -0.03894024733539569 0.1251219346425986 -0.301159444578916 -0.22004258723786455 0.17868184250432195 
0.1902105763210349 0.08011260849792831 0.2500138339890075 -0.2796733498617124 0.13931132054818735 0.28905144014877754 -0.25560938538443484 -0.16476584848556594 0.05732651743470378 -0.12785632943851055 0.13733494192946513 -0.33776478352097006 -0.23661891851778655 0.1760784750269333 0.3268410049077709 0.2977432220512308 0.29230785441738794 -0.273099455914845 
-0.3164728457767087 -0.29645906062295374 0.0178666234548692 0.31756969593320067 0.021481474048462797 0.19374396553272782 -0.2892555078426833 0.28889473757174555 -0.21534747285833886 -0.2744186034083827 -0.053252029032678776 0.10657615488953251 0.40405042398277935 -0.37084717967281283 -0.15495825510917682 -0.2732529688826392 -0.07450950796661426 -0.21431433516641699 
0.055695363300496 -0.10349103591555908 0.291555294191408 0.1995011812023641 0.24937260037750042 -0.2560533404614612 0.09197667423628733 -0.18573088968867207 0.2681265103271446 -0.3986480961885763 -0.2728033223827019 -0.1316011644945336 -0.08989017115819642 -0.12261312876847325 -0.27963785889550197 -0.26364344724471206 -0.12453139090209471 0.37828159813976064 
-0.23341617070953116 0.16971167533941484 -0.21696333094741807 -0.35742356808680087 -0.3363020834317713 -0.23972258832636262 -0.06930054920935567 0.24868950987790148 0.1799478489164034 -0.0876426177888221 -0.014377059838458576 0.26063028756217727 0.3011213534816947 -0.15352197956439445 -0.34467544668447603 -0.31439685525587713 0.1637868836740937 -0.1913225876933675 
0.0342156750507751 -0.21211887386266867 0.22527855254592183 0.022702340240585855 0.018344566948482015 -0.14512056072470436 -0.02766994254667695 -0.35689997974941867 -0.13208336486264063 -0.1549274895853065 -0.14798714127782808 -0.33213284659495385 -0.050082239266585955 0.2514730325392456 0.30697920606207807 -0.0018265971034016931 0.06261983416445838 -0.11866165454474681 
-0.27608490194612567 -0.25438351266425324 0.13058722085226065 0.15273308308313882 -0.22101006002826745 -0.058667891592620654 0.07859883971800329 -0.2758577339453246 0.2308027644323721 0.10998008168732061 0.08281875171142615 0.18950048666678518 0.4195436753588608 0.036065955854641285 0.25176957116369114 -0.05515138161467755 0.10382608542177756 0.29269474238254567 
0.1579705291982911 -0.13471612298827682 0.0816167822311319 -0.10138100665810089 -0.12136555966239351 0.07493427411973393 -0.2059173784975508 -0.0024939843535820645 0.30912931054439097 -0.1211696090347665 -0.21426949795313738 -0.07855923881924881 0.2173073259800612 0.2921527902777418 0.22602974334019843 -0.3395525254393632 -0.1597414334375654 0.41235779177268866 
-0.3069318865528786 -0.00668367419438556 0.17879307562430863 -0.2611878905415914 0.11084800117198078 -0.008040015556005855 -0.27657359958834926 0.25741406162176445 -0.18146768562925714 0.14206316057647334 0.17372468870950641 0.0884926174987809 0.1297275559034519 -0.30700123258629436 -0.13128235074662697 0.059024988559535335 -0.084150962211951 0.08873207558166439 
0.23345572453138588 -0.21338673201853817 0.2651903523044868 -0.025190419966948683 0.3073516329355466 0.0798573367707268 0.16422453793626385 0.060651566253052 0.03911000847641455 -0.07210937313348406 -0.25614930932304 -0.029253423376603947 -0.14895006824743548 -0.40796910446066104 -0.15428482114041728 -0.22015002015050317 0.2860708958946025 -0.37135148281649294 
-0.2372612080638334 0.13964627109576858 0.27361182788713745 -0.17059045625888536 -0.33257538908315554 0.3196673638565818 0.07085191951143106 -0.09857986443815193 -0.01853287780180991 0.13925627299325674 -0.08586500531056593 0.34155142471586847 0.2572063569495025 0.2834933692781511 -0.10155519987364314 0.3031385975564469 -0.01410826534354133 0.05695526567852585 
0.15716241927960597 0.21307840528886382 -0.07050429419115448 -0.03523236149505331 0.21864421855532631 0.1490345344477954 0.3022069395817105 0.33321358480773283 -0.22131640464598426 -0.18227634880488983 0.14794362207408443 0.17903059220090928 0.06644722089899642 0.25684717943628255 -0.17021975583465046 -0.10953910323507467 -0.0036087157890088263 -0.1350772066350434 
0.03350729694664774 0.12471651224063382 -0.20469446609705383 -0.008531476737319589 0.34271877329555034 -0.1201247577665492 -0.4649207947621448 0.17988558828048032 -0.0005672379775287708 -0.3225594644030767 0.2822143064473542 -0.06896212479319906 0.2828656797806396 -0.09985505952384448 -0.2932283798807582 -0.1748822577541805 -0.10178736350230205 0.18453657562635786 
-0.2588247524068598 -0.04678462805476174 0.23776614629870582 0.02267072531232443 -0.27463091425409303 -0.33028887658964956 0.10094751971157075 0.42215552349625163 0.23130314442394595 0.22117262953952194 0.11985433071217957 0.2698337568499979 -0.3194286277602124 -0.19204959658544227 0.13366161175782462 0.2535806823899274 0.14017123032879608 -0.2763157743905828 
0.34086334422228376 0.27924358769959423 -0.35674504898282094 -0.24964535158802048 -0.1540719746972205 0.16353560157088526 0.2246806849613533 0.08487953679396237 -0.20023401323937653 -0.056794521199706016 -0.26930372390100604 0.34234708963169413 0.2542238404701575 0.01305600709614163 -0.031407686202785876 -0.27838153305918867 -0.12391854848843714 -0.3070741075892193 
0.22396535948167778 0.03036108070201589 -0.23699212733267397 -0.19337519780754236 -0.16436395735092202 -0.13070351552903 -0.110971217962231 -0.15333213281370597 0.14995655555783058 -0.35300946458115323 -0.11739534326506805 0.18785305900557805 0.3579168374491307 0.2362476670948291 -0.17800304852705637 -0.18352329872809753 -0.23207147522972313 0.2883213543767496 
-0.251536088525526 0.17731030127301597 -0.1971232944711593 -0.3047120236633585 0.1600809520686897 0.1550416125500355 -0.4008971289580642 -0.17105361792980478 0.3482873622327027 -0.22581683255715354 -0.2862718571245952 0.10660480720280496 0.363700056306872 -0.28605442540950965 0.00877794127277296 0.1257690187889297 -0.22628736357222137 -0.40337160448725135 
0.3191333160045292 0.10942524309645323 -0.3255455514667282 -0.30364921838553754 0.08421628325498542 -0.23498462232565392 -0.21108729861408448 -0.29064621640477445 -0.23970440300812138 -0.018007888093238007 0.007752043289950656 0.009092952361126108 0.45401120682738466 
-0.29886893354593014 0.2052593661771273 0.23594888009938267 0.06712208768244142 -0.02933468110242502 0.3178484824803564 0.2641539580492198 -0.3643879846576106 0.37539211660894317 -0.4000280013371317 0.05776907382347709 0.057211369058343585 0.26924296548619747 
-0.07354644423556585 -0.34311605305592435 0.06457688025469632 -0.37679174599489706 -0.1568167439934099 0.4662474866878018 0.3403230922837196 -0.2636482066185184 0.23084147267557129 0.2342206161872765 0.34658559002270517 -0.22112226725187184 -0.040918561888190874 
0.27860058583708486 0.13322848633433945 0.07434079375604044 0.13128844325460842 -0.2302472052216219 -0.4160994863063761 0.18904942040696524 -0.1548228540462938 -0.10127357799067417 0.10035020464648393 0.1250335052612856 -0.2386850885116919 0.28445536672708005 
-0.09501435545986779 0.10459675865122225 0.3782351182356445 0.05113714871520605 -0.11210072983050548 0.09435485992633673 0.001406593170497036 -0.037529764105979704 0.18580841407958046 0.34352738068541017 -0.016292004436489132 -0.3329950041751027 0.05500369782940272 
-0.20434610060710184 -0.3732678299097056 0.23135565890207416 -0.1817138435267992 0.22231025284825615 -0.009258969367117027 -0.14511898525818048 -0.14827929741057244 -0.3712391019001551 0.027073974614676793 0.2603562183733498 -0.3365774531673535 -0.3162104125364718 
0.042881775974507715 0.11958691806231345 0.16314667904372745 -0.17905533254467973 -0.3917030543039256 -0.0900050784388171 -0.2558227341948474 -0.4631336289102769 0.15657537738804458 0.42283484211818695 -0.08625337576681034 -0.15938525936328873 0.062215289048360045 
0.27157255561644533 0.23611216880808905 0.14497242305990765 0.03843519852226522 0.07384474782545791 -0.1510595526258929 -0.1110448214151766 0.34071069489691624 0.3047804998523327 -0.37678681538634756 -0.16281548932635598 -0.4009667041370094 -0.15731917983116522 
-0.23524656826532522 0.11237067567047983 0.16739641434479693 -0.36203167694533206 -0.31305124122785927 0.29348041528394064 -0.13348241048573878 -0.016714807139813482 0.42154288681603097 0.24097525675398188 -0.13897779659692186 -0.3349624889289754 0.07327699377289915 
-0.1673646429864498 -0.38738810105108057 0.23668411504728043 -0.06542471213822185 0.026744406549158987 0.2607330149097854 0.4346948385017564 0.14144170961948452 -0.15934737582842967 -0.3538336829294391 -0.3448267770839598 -0.1437012436338915 0.10580016936409407 
0.15570236836379706 -0.24298340132982796 -0.337486236616156 -0.13967573603668512 0.018029235441166535 0.23661162943651845 0.040614254324767736 -0.15517504892864756 0.09852939336311357 -0.2124486853223056 0.12143295749330914 0.2754183730230058 0.09321486658346016 
0.09328803660585439 -0.17253788452528163 0.326960399571371 0.4780224736825056 0.1963680947011085 0.11263465084040353 -0.26544836596227234 -0.10711302708760602 -0.11541660801462647 -0.20751295907609987 -0.04261775547565809 0.0876805985107245 -0.30046875370740705 
-0.2197850392493678 -0.3230064115409901 -0.15441134382161437 0.02017130561909514 -0.031720999975966696 0.4582943894945353 0.4574265074384234 -0.01756644828707026 0.42699885507770335 -0.2579402762977655 0.03238491579911202 -0.036691447644466815 0.3891710021798143 
0.2771808162194915 -0.20786224528625002 -0.044800853329446534 -0.30749855982568974 0.04143306478337337 0.24227394089276452 -0.3993313428892408 -0.2887184389559967 0.44355375389289786 0.4220763876160323 0.04463485175623542 0.11612149502983962 -0.18445801899424782 
0.3663618345498289 0.1351973428546962 0.13280448202528955 -0.3969011229303083 0.2845198903973976 0.22333584367317547 0.14743011635535622 0.19272957469184424 -0.27667522425529445 0.17484734127191856 -0.3259007817600295 0.16525670058443034 -0.4039408121934111 
0.22160409588172186 -0.006627464429353546 -0.23746758854172056 0.18335079409901903 -0.14696285221392177 0.309922610888061 -0.2572518058679382 0.35514600965166654 0.38183472854379913 -0.15599589727405175 0.29234974653769685 0.2756493504540421 -0.05956264094620003 
-0.11184283162487837 -0.17521122258147742 0.4005072030317445 -0.24434447336005044 0.3903589087730925 -0.09383457099411788 0.3513439703351969 0.2487318522668745 -0.2862865617540218 0.09602970228322509 0.13820561577390914 -0.07453505067785983 -0.40000305643547696 
-0.172856879872967 0.30666458451910983 -0.366440229172562 -0.34452634719548864 0.1743252923254684 0.014951199793285557 0.01052916002135139 -0.10446333413409406 0.1093975874799581 0.31930411397165526 -0.17833947107269443 0.27777133836994855 -0.07584280582106695 
0.20224909887681075 
-0.05738585601651955 
0.4909120103558295 
0.6718448366709203 
-0.020984559623125267 
0.37206767415402797 
0.0669392292215997 
0.29429059636552446 
-0.36712756302008553 
-0.5360045372613137 
0.5840816310697896 
0.3801561463409635 
-0.2696039686845708 
