98 24 18 13 1
-0.058143762211463106 0.06295354888916727 -0.18033946372743595 -0.10608068474588153 -0.16830454541369397 -0.19555257972627585 -0.0927681408776829 -0.034060702316954856 -0.07115240681232232 0.021767823286835117 -0.0320050121887844 0.10717078249709173 -0.18303102828341994 0.17891976274832844 -0.2239113630908638 0.10403948266210496 -0.0765777314836606 0.03443788288710738 -0.14268457122491612 -0.18226190727565889 0.15217808015743245 0.25997915994553356 -0.05908778544422374 0.20089211772114424 
0.21550277844349008 0.10638759777001225 -0.13457520819791421 -0.24788817183610612 -0.10926427717751819 0.18914992296089647 -0.2661615110104732 -0.11492419175349752 0.14565478111451974 0.027041388519106233 0.08154114837798068 -0.027700443063935886 0.04737575042224334 0.19732086913697403 -0.24085873220500695 0.14925517741771913 0.24898416860023373 0.12688346028006095 -0.09636819471548726 0.1293383384278013 -0.11697099037099822 0.032973818375169925 0.1518833968118092 -0.013996370208390889 
-0.09593084944699445 -0.18216699143302315 -0.1711331047721937 0.05304492714184352 -0.081708181208261 -0.10551159384122638 -0.10621346431640777 -0.2658066327572673 0.03271466911994749 -0.14242032225553575 0.08094267558165782 0.10379827065263034 -0.21159848553671629 -0.023456534406757296 0.04549788914897341 -0.012815679278137917 -0.232973133946404 0.04119832226627636 0.05649357263569905 0.04353331467782095 0.21652420164230501 0.01666758820191547 0.1984168135427316 -0.11657562164806995 
-0.07355460568750817 0.0398755155876636 -0.022590906779775658 -0.24336014554456623 0.18844541239451662 0.04512765722276733 0.04979334101050608 0.05867087656369866 0.07348394889992882 0.1098985594125681 0.04700871017922896 0.035576867002884975 -0.2076188408165284 0.26811764869374444 -0.07084944959410258 0.30784449285135695 0.10142834165949145 0.14538240829889468 -0.1641089731343777 0.16976650848812302 0.08692116475011402 0.123999033140324 -0.08746010246657837 -0.0191549551864325 
0.18266623537551593 0.03917969584935719 -0.1896769775200502 0.06588073563380892 -0.07035641812855178 0.0015089937493502877 0.16703752997007784 -0.03338169308909199 0.1934405952411608 0.058003493928993156 -0.19531630113837595 0.17898310935632034 0.11435046531979773 0.20553651731922937 -0.11836600544201353 -0.1621363827919593 0.18274669821649253 0.07381096069314465 -0.183949774148704 0.16193836848908483 0.12666796568629451 0.25930576655139903 0.08969458768261554 -0.10955296329956468 
-0.09741682422149735 -0.32363959004266607 -0.1543042226544085 -0.22545392356001054 0.18914745134471878 0.15740905323273355 -0.025315107668143145 0.09920748497455915 -0.2980112061526768 -0.05661729203040554 -0.07285556015032314 0.3317535544194325 -0.09126604824834725 -0.0953141576939743 0.0959752366767734 -0.0014188088513906987 0.2063470726214133 0.08448535138165351 0.13657103593056982 0.13549505194041778 0.1441910229984222 -0.019631218324636025 -0.29568913629618554 -0.08689930655162373 
-0.17401803189509815 -0.2476730450293245 -0.09545998387745794 0.03656935307291675 0.009160867754493677 -0.15062213833635976 -0.22276505383429632 0.23686178034545335 -0.0014479986094902027 -0.2009276129202994 -0.1981906293768171 0.15405761117818004 -0.13474945121023155 0.06625288940303413 0.19873054437114834 0.20160959923589986 -0.10240788668955307 0.035353777681105356 0.04703318915893122 0.1218013064173632 -0.105965465650482 -0.13268688803550727 -0.2631672234391756 0.05389115395729105 
0.07760984175631191 -0.05332077391105398 -0.07185188915135712 0.18956754297033984 0.0008745302676142653 -0.039850602469382664 -0.07178803060275056 0.06438507365347013 -0.03534833700569938 -0.10792043092061016 -0.1726136398213501 0.017865697487680698 -0.035620733392112885 -0.14661159403259172 0.09978955471576605 -0.1394400438706189 -0.04529678706657096 0.11360809586971331 -0.12134459300939529 0.08845523983154963 0.09728959045549164 0.275036958268046 -0.15110354763663147 -0.16370857770735195 
0.08253976912946547 0.03083095568499485 0.2229486890145875 0.1723520949652984 -0.19387602365866077 -0.07478774432559239 -0.004474627565742417 0.15494212491555276 0.18989330024994158 0.02213259278079593 0.1273124605766132 0.11089044234905843 -0.03715078166711453 0.004722506787055044 0.040863110694027246 0.07352383574100116 0.2059154120696977 0.18475487020964312 -0.04118384224525435 0.2166508112520087 -0.1341759480650269 -0.17081728783988795 -0.1565700342220581 0.04178099649862862 
-0.19079760013161104 0.21792183304125823 0.12960105760851634 -0.19344204670447263 -0.12826957838669087 -0.06601725924483517 -0.1464709422190981 0.1145785682073765 -0.043209967081747 0.1755462941073256 0.022099012520411156 0.14280719262087757 0.1318616406015742 0.1529041464806178 -0.015658035902523793 -0.005212568381798878 0.10831969508012335 -0.0844380191131456 -0.0037968170206377936 0.07291348500433009 -0.1932329598102933 0.019839621009677462 -0.003703253846934881 0.1105070974016316 
-0.10310150974785298 0.1630906830878942 0.030454112653236363 -0.13864022203864437 0.11661001630734533 -0.013462055753698594 -0.24489548243423367 -0.0037871596262898767 0.11364969506599719 0.21681975149055568 -0.20987941555955203 0.18378927806623085 -0.06538670704639646 0.17402667149643034 0.017624363566573455 0.12271593321438526 8.771344340847406e-05 0.07994367021997059 -0.09368950243628596 0.07054891227378168 0.11792684558274877 0.18403290641949532 0.16894326218668085 0.1836245092638928 
0.1033554545480004 -0.03479499408493872 0.11699085921599747 -0.025010865451392493 -0.05952203588355122 -0.09421273056730228 0.012173527824290743 0.019059421594977363 0.09948029899653692 -0.11653817586577243 0.254974741628548 0.03615775670267855 -0.12702079574296554 -0.07247349690727123 -0.09099462918207893 0.09641864499204378 0.07429995705513924 0.1533400964870953 0.06394886364699577 -0.05601249644933267 -0.1618570447181188 0.12042052460143775 0.08411933147236855 0.1931766136815212 
0.12985418973542162 0.07786625786866044 -0.006510623737676649 0.1359592576482204 0.035968989866870416 -0.13613706267496445 -0.09100421512223086 -0.2130002761387703 -0.09125609911327245 -0.11932636492709443 0.25246385573514885 -0.1236268831427004 0.15944594186711805 0.1430310762977344 0.06566968055339067 0.04795315507371967 -0.12766132164465424 0.023583263337448625 -0.06082172884956464 -0.17356333557667514 0.12868430530792355 0.007095699138907927 0.1993981783724438 0.26429082701925094 
-0.053751326145756964 -0.22590787250684488 -0.1292406740908521 -0.0007893934366033442 0.04626891979996751 -0.1970930594600205 -0.1658112875799095 0.20050424564765815 -0.09899051035558333 -0.00959814792098303 -0.10521961598211886 -0.1836709559280207 0.03332799654325958 -0.02492639828938435 -0.14795174473864356 0.05957499227426183 0.0038881226845417114 0.11172066188972637 -0.14100853532648402 0.04121403097638196 -0.05286914232440931 0.09350113281565085 0.03547445929057042 -0.1135567817285777 
-0.0811528387281771 0.11320933029743425 0.17334467735357226 -0.016263403506668994 0.1973620516706608 0.25506576850255863 0.06614686387872326 0.1777410634285785 -0.15645888568152125 0.15196175408750764 0.06696094773556036 0.060538760563171146 0.09340752581707826 -0.19618929358648984 0.09865263282536037 0.13009923866686893 -0.06352025861347502 -0.10071992733329506 0.05190986876181663 -0.08489260700514374 0.10083048696769517 -0.08074686492262331 0.12070640918799919 0.2248655761177483 
-0.14820292920249395 -0.1200393298777188 0.18508487314679997 -0.028196392362029414 0.19294958158309977 -0.012710134598494684 0.29411881263962203 -0.04419126354448694 0.017779750407820427 -0.059096435507629594 0.012802383918645723 -0.26452558792350195 -0.2706716564268527 0.07036905691669203 -0.18719195656391888 -0.09105513032915792 0.07539311247338762 0.06253173557750687 0.07515142043680179 -0.1940452971394833 0.011563210963542252 0.08221285388272898 0.2695643369422004 -0.0813890930284971 
-0.12043274454114049 -0.10250327581102486 0.09875724944100513 -0.016794716291721752 -0.17642592254812461 -0.04129251408141033 -0.12205925993614304 0.1770704635493238 -0.09254918066258437 -0.18832673742932618 0.03657913449798105 0.10918317724609644 -0.008204192491840978 0.07128398789405178 0.004340626882296613 -0.027587334054347018 0.21540406225685899 0.0871332349735691 -0.18641080691877662 0.06992165927256302 -0.010407818077699452 0.20221690892064206 -0.11011715203401531 -0.09187173304526068 
-0.22373652907037164 -0.0733199741299297 -0.12962155470684122 -0.003362417678621962 0.13487824096352471 0.10256312838679697 0.12868648706768038 -0.10220472250202049 0.11824642769023698 -0.06348870688492778 0.13469415034628274 0.09996971042715433 -0.16839486605633033 -0.1438439481570594 -0.2276576269316068 -0.14383159248380942 -0.04884861203587502 -0.17151670542748693 -0.19876340625077038 0.06626468348835265 0.0015932495347677185 0.14789884021424407 -0.02251808162500272 0.06804207392017488 
0.02452119779120409 -0.06344835303568555 0.14197889473354752 -0.063152340427742 0.18663073082121193 -0.09763565156518568 0.09997968638746181 -0.1266533477377227 -0.02783022621411741 -0.20710967118883933 -0.04056496643863725 -0.13766404932868304 0.187216962413552 0.27170828427596616 0.09645333054540102 0.2641433558576555 -0.140703335288335 -0.1138572699035009 -0.12367461133185834 -0.017119001357155293 0.2454046156644896 0.28346995719121393 0.012439266472541876 0.15390639790582455 
0.1375116044308723 -0.042752887529646226 -0.047392827036494965 -0.10400534616952391 -0.14932875220563582 0.13701942105082038 -0.16672839075221058 -0.15605019955441393 0.08033900603304413 -0.03992620001210829 0.26352236775624927 -0.06255616579013042 0.08826958183555919 -0.040166241215023185 0.14095387914112162 0.028933970833793374 -0.04077419440842568 0.03392711920954678 0.16858397836113165 -0.18696885038670863 0.14670595041168344 0.2070604719600002 -0.13746137025420543 0.04349983649978726 
-0.08274316057311702 0.14368255504624494 0.013436304120845349 0.08328396365111551 -0.04751797131391469 0.08153694669798879 -0.10087220415819599 -0.3248720479093784 -0.022646854192843683 -0.03165429812415265 0.01724348503211468 0.23582057525237418 -0.06021515347676755 -0.06418659151336792 -0.07914601151380005 0.24279005971090348 0.23177599560672296 0.17270285633727173 0.16120650568848416 -0.15378814192495496 -0.13428511860270062 -0.0727281886417152 -0.08890554733588875 -0.16182488147766455 
0.1630909328241951 -0.05071352935621959 0.16788628770083056 -0.13120914065051772 0.07608749144850561 -0.15796448855211123 -0.013505644347041604 0.02929592134029722 -0.08856628485594133 -0.18256547323753558 -0.025974699035992168 -0.06354817838390975 -0.03932122351712836 -0.2294041727788775 0.02727609174926484 0.16022360813676123 0.10071865852876455 0.041365518182037986 0.18978734324208207 0.2469107849756688 0.006047618942820089 -0.22101018693780702 -0.26489336357085697 -0.18995563789956924 
-0.022427888488070195 -0.06633545535736533 0.19133902525483712 -0.14669601758202067 0.1514301291923692 0.07829867974204253 0.099152480419415 0.012523714714310439 0.07865798996826699 0.026526249314036257 -0.23666957783027148 -0.06439881891472014 0.011635195517904066 0.10201694962788142 -0.012237334935448685 -0.01602713824159706 -0.1551521943541741 -0.20887389171150744 0.10199736941135207 -0.06896278905161685 0.24689497985989464 -0.10181680086469007 -0.06744443745939453 0.0194354473424234 
0.11504045754455862 0.08471140476705924 -0.1489620266964211 -0.0515923311094372 0.0020657494396029825 0.06044683273650937 0.03816205498108421 -0.1779722144984061 -0.22272438101401423 -0.058418284580394705 0.0950880558162409 -0.24034496611506312 0.1317438055228125 0.0895959754264834 -0.019820729382025386 0.1423950897200472 0.011057502202799973 -0.19741904852173017 -0.00606821271354613 0.0765972613665027 0.14326057780556792 0.0564361737138224 0.08457714959693247 0.008838044564700146 
-0.09012973349948741 0.006905916997491539 0.07670685195266332 -0.06671917409194777 0.10367733426769964 -0.1823675581921468 0.047203298468345214 -0.1472982183700745 0.06136385864710064 -0.028256605297923718 0.1306761804154449 -0.0032725658836203937 -0.07546843754405758 0.16386620060430093 -0.07531673593487508 0.13350043038278958 0.11720518769136996 -0.11013158504690469 -0.11305026179328147 -0.13394818531162977 -0.14182549150783752 0.049868012306368 -0.1303400449862518 -0.1299816300392943 
0.058554492851101425 0.16457144541104662 -0.16686468549245845 -0.10600548066340938 -0.2196853434784551 0.1629654723165549 0.1180588483267807 0.046943791878689384 -0.013226701837419218 0.05133749646555303 -0.025285879835128457 0.151668579682605 0.14856558087116725 -0.07743027685041688 -0.14840210385637095 0.1737092568650047 -0.21579435860981144 -0.19062270929076158 -0.02690433663323419 -0.10026154662755352 -0.08181315226765397 0.06615677730951816 -0.14333055516966747 0.1453415118569014 
0.07442609640960036 -0.24411746180810212 0.03954082835959726 0.17594943062703783 0.04627522951375681 0.12035014358358553 -0.10854521033465009 0.12568741190872598 0.1895749022861023 -0.0835003041205686 0.08071829098800604 -0.14285494848565589 0.12980028905688668 -0.17998482694917206 -0.04109665015191599 0.04336006453627701 -0.15086410171536388 0.19922918470523648 -0.050938788495295505 0.04383747220415599 0.004122700563806142 -0.13422858551629674 -0.2635854981222563 -0.1686221199110604 
0.08525743113008197 -0.1399345859210569 -0.053962576531725044 -0.1678398894579724 0.10693031049233936 -0.18136577744702437 0.12445292903577497 -0.12417858433957343 -0.00824322510603675 -0.1813274567979959 0.06611486988514804 -0.13337940527025013 -0.06007280765565457 0.06569657098799812 -0.13883861595455563 0.018755327460214785 -0.11580950381128506 0.1005849223647131 0.08787851444305703 -0.15215896361704903 0.21897988702536716 -0.14053564440365082 0.15335797604712315 4.742476302518894e-05 
-0.0192712047008694 0.08862509324934212 0.05526339421676919 0.18648742635571056 -0.09758183804683154 -0.16674763063945824 0.13210277440947638 0.22397942380252311 0.04646659281519592 -0.0036133498090361914 0.10928954571119368 0.1643717896637448 -0.12133306343024416 0.11249656348492819 0.06976569781489593 0.08681047765611645 0.01799642149419096 0.07768242322364544 -0.1982843746495648 0.08729756257178212 0.13609519102755946 -0.17425792233002543 -0.2101467160903915 -0.1462886277331293 
-0.06430698879302822 0.12050071242142925 0.01685019491645047 -0.16390431605191844 -0.14350381369792817 -0.12443868434241614 -0.040508789691998864 -0.06916154811944 -0.07075154111076419 0.017525441723394458 0.06765662371731376 0.015381657117993063 -0.13012057460989174 0.0844022353546988 -0.11009739664774584 -0.003767007333119482 -0.02229434080487962 0.10211136196643449 0.14984305463715605 -0.01689568744524797 0.16539890416569827 0.03605208410962628 0.022729242820087384 -0.146130456484732 
0.041780543556744654 0.14783110610309277 0.026441273260518573 0.139126265677838 -0.015435745715759263 -0.061964209752931786 0.10151209085266406 -0.18236853799774316 0.020473315198632328 0.23640561477991684 -0.005660326595319353 -0.10161889820932132 0.17254543666059557 -0.09700519672009766 0.07904200647803719 0.06873257532616688 0.1301481657979512 0.09356328158241017 0.1339707052605074 -0.19632359529204485 0.2294216377866491 -0.14072595546748115 -0.03585617834618299 0.20119945071174505 
-0.1959143377036881 0.14980691258290915 0.1376270028145586 -0.026906077580444315 -0.0963932499547596 0.1361307815244916 -0.02585095127115002 -0.11450759608705952 0.21083232844904337 0.197131573611413 -0.02115453202010441 0.1541859621028289 -0.08090827322754315 0.0538911785447711 -0.05018124162135357 -0.039195595556434995 -0.08491902094886354 0.20022736086948958 -0.08105482047452835 -0.1767707832585329 -0.16389718489799177 -0.18249119544808626 0.025496420443652516 0.056927421619705786 
0.17450218809183124 -0.03270151292658195 0.11542876917301469 0.06819512431039927 0.12516086778114885 -0.09013236136680756 -0.016850471761776536 -0.12682337412014694 -0.03126523124522199 -0.18339618487907586 -0.035764626097471976 -0.130533174239625 -0.1137033058908626 0.1557566822288038 -0.07067768349144987 0.1829054846000431 0.023630533083606863 -0.07336975661857768 0.1368685183533873 0.14169532217243494 -0.10608660501761627 0.10048240888388084 0.006820132174675013 -0.07147905424634053 
-0.06672590450500275 0.11366050349269863 -0.09124213123901315 0.18293924019029165 -0.08062772661318435 0.029485786029420036 -0.017814786793819336 0.12548725190508783 0.18679784289053258 -0.1249789916104632 0.013087694853586027 0.18582146466759047 -0.0024307052603050683 0.19369404698487883 -0.08711874846731102 0.008553967808265985 0.0036946405463628537 -0.10740502461253437 -0.19395086021940056 -0.03258389820747907 0.18695046317017452 -0.11074222402979443 0.1341357096613263 -0.2531386871359017 
-0.062097043742572466 -0.2408374108255809 0.06447798331583363 0.0418709452382823 0.07417978500621641 -0.01372334198753222 -0.008819075576250444 -0.12660746062394732 -0.10184167709250216 -0.05024033568694698 -0.05680898906354905 -0.10212027666997943 -0.028182156698627347 0.15530964792724772 0.008735195054787913 0.1613598845490714 -0.061007089372636304 -0.1390338531651774 0.00552351726212654 0.11939130725560904 -0.04785004415315373 0.015515652438457225 -0.09593307168428214 -0.0010555552831084392 
-0.13417646203027986 -0.1264963518379452 -0.09394360085846981 0.1663992082399725 0.11257246216983804 -0.0299720460081809 -0.026645261993332905 -0.14063779058734924 -0.0027651444922243557 -0.07996781300174205 0.15098344070207445 0.08646158178380856 0.04894744801307131 -0.09440794565642045 -0.011471598670381994 0.22883872013432835 0.12135498961534139 0.04966523810523262 -0.13811628064444767 0.060341134287480995 0.03623562957813095 0.008208911310521856 -0.10201513958830279 0.03887735444520948 
0.15047659573246203 0.11897517107973431 0.021101231508723874 0.22835192131871349 -0.17325991079798195 0.20097959931315498 -0.24125664618197035 -0.13056770616562743 -0.039847626105523434 -0.1765198129576194 0.01865901235084588 -0.20604924237544248 -0.10346286130596002 -0.1563353539755025 0.08015341247806236 0.08136862939729206 -0.04078630437704809 -0.12344865956590029 0.09749169462076679 -0.0627205618303774 0.12444200520598045 -0.03678757596162393 0.022328957611771273 -0.18796729795496198 
0.032036897928539004 -0.011677624807723665 -0.1070050043530875 -0.03903476304887172 -0.04607688789081507 -0.08013873763625275 0.26076786938052676 -0.04234248807030378 0.1610092384210789 0.0018127903716094662 0.1640795733923744 -0.10825863208969391 -0.06032499056857652 0.11385806495126122 -0.18185948524994772 0.13036238949672252 -0.022054068942862513 -0.04848637465497616 0.19753790214018074 -0.20136928133395665 -0.0068815259570946625 -0.18690871307263118 0.07370834617932924 -0.12655242537525022 
0.12038514402979027 0.17576728149821183 0.22091610150520952 -0.018806545813896354 0.1293522241519371 0.2076692267418844 -0.039580627927930316 -0.02384720393578775 -0.1976062259177436 -0.05123680553824299 -0.1419452260396117 0.10582300696887244 -0.03554844049041705 0.021757577015906207 0.1422545131187137 0.02574823629226121 -0.11818394133800757 -0.0911456310302687 -0.17031366822768051 -0.032028743003415655 -0.0969769544223277 -0.12319335669312387 0.006331667417036676 0.21496562738845654 
-0.15519616423702343 0.11562891615819562 -0.001687252341885896 0.1095287730953689 -0.1413867496046387 -0.16578267843676892 -0.0455012569230634 0.17885723317313296 -0.09697342306509253 0.10848277047241123 -0.08261440863757444 -0.1647098862113866 -0.19275231518226488 -0.07658132752096879 -0.04662382695522289 0.028931384880718006 -0.21155808223572817 -0.1898578918301936 -0.19280910791305864 -0.15341342206421704 0.0506718539205157 -0.038118665185160244 -0.10988326647995693 0.02262605285017259 
0.2436278739177123 0.05589698827544757 0.06403058558830817 0.14451790650551438 -0.18340402617689447 -0.193439423263369 -0.02445286933937622 -0.07118606278189175 0.14291245243021727 0.01854690492785452 -0.010977511907077296 0.21775121396482594 -0.10986442542144154 0.10931806707794887 -0.09725737504783939 -0.0757333344970024 0.027118817689838193 0.01857180116955812 -0.11063951451185697 0.10839249344722293 -0.04009283769330334 -0.08757783355413017 0.11921961555698277 -0.07784083442661781 
-0.04591039024664887 0.1055202452436264 0.01006131628111087 -0.20457839082771787 0.14853770076014508 0.13852052752200789 0.21094574036701944 -0.042054829288945085 0.08046247268546813 -0.06310202671017945 0.01527052921495064 0.13866741969461632 -0.018742735406554082 0.015645999299659978 -0.06843580147643395 0.042759467244635516 -0.15352412244803076 0.16535865386192164 0.09937077974306845 0.04837591135348966 -0.09997715508456297 -0.12819240609720622 -0.1301372698456571 -0.0700783913043024 
-0.1844660067970073 0.13491668328063303 0.06697461187872587 -0.03315112464323329 0.10580189719050309 -0.03210966496932819 -0.18335076227305075 -0.1449398548325471 -0.09070714217820391 -0.03847190650302465 -0.17829799532381893 0.0018737395701197187 0.05227880756327027 -0.0036637551641419 -0.02644361120323325 0.07284870935983999 -0.02664807054844148 -0.19328571146042017 0.1481108790095254 0.07809221420178389 0.09776651415295282 0.15103535246166627 -0.20178055253493107 -0.10465716714291341 
-0.17382587829553375 -0.0736072654291724 0.13970430814087023 -0.16642165357275693 -0.010485521065852084 -0.1526991865977512 0.08282522176495209 0.11390692577298156 -0.2308007880014763 0.018840419037402602 -0.10292142494358761 0.23812218720032724 0.16049158423686685 0.06575272388730637 0.20366793024742674 -0.054669512848857287 0.21062501713366802 -0.0015858353138692685 -0.10436000082439503 0.24027873063385344 0.10013939980986443 -0.1731903703677769 0.12850209207819432 0.07502133811125127 
0.08388128649755143 0.05664556143925143 -0.09731438085004894 0.03935755070512173 0.12457872168257472 -0.17756770451194376 -0.14666705317134152 0.11310032031486021 0.0425064970884393 0.012204566111710387 -0.09937139921891829 -0.04968916567951797 0.13018721875329117 -0.04120596696868383 -0.17338542780422556 0.21701002959785273 -0.11987188719462959 0.15960079087959014 0.15162333747115075 -0.005162474039838124 0.07712421030592247 0.017521481766621695 0.031396208916858834 0.17004124591700773 
-0.0769842637588192 0.19657031320922017 0.02646163531590751 -0.15288571465119707 -0.10788726102481543 -0.00014978861461283012 -0.12253327567369077 -0.14630200738523055 -0.12421252419392383 0.12680718014652248 0.09591367818073102 0.18264692880862293 -0.048038271288897386 0.06637470805514167 0.030202775284000092 0.04327098381267584 -0.16275908697453495 0.10320933175521098 0.1714163358271276 0.0491515926423487 -0.10404143207252613 0.06706425107505287 -0.2071733187945212 -0.0675275872525753 
0.19509515762487564 0.02877091891716648 0.14090208230896856 0.04100558930342904 0.12777691605330102 0.166146240503254 -0.08196145295355543 -0.14971581814717433 0.08929294805662462 -0.023308621433919267 -0.14819002085435365 0.05115887363400377 -0.1848900102634775 -0.1418408787442407 0.11072473850245658 -0.19463020598480474 -0.051163801717275754 -0.19085808919706576 0.19852762072630073 0.03209403999394267 -0.08103017977427367 0.2040699481676966 -0.0031606653389044726 -0.017688347772760432 
0.01777084533390879 -0.0999453075201663 -0.07664997436938155 -0.05034602518957567 -0.10090736143863152 0.033083719490930905 0.14198368253730795 -0.17033992138095447 0.26396425739485485 0.08753227875316663 0.18491936327588515 0.05957280946824415 -0.16909287324336394 -0.08547455150973714 -0.021220916715651968 0.028157715027289962 -0.04787358192400843 0.05973656325699732 0.07145782399458707 0.14003441255345628 0.0011894871609966617 -0.14312028892672288 0.16053339065543074 0.06971061862809469 
0.18656237204330556 -0.12659947927633006 -0.12807556259876762 -0.042672389415432055 -0.07058027731647928 0.14652985059292267 0.022930207583389154 0.11346143674329003 -0.04056209461840685 -0.15921426802388802 -0.1529131870613924 -0.04822594564375273 -0.12117860045888167 0.15179884465817145 0.03902160085283075 0.09180593638461736 -0.02805540724588681 -0.16377105383665813 -0.10465485758945639 -0.01797611149266977 -0.11927463001120903 -0.189191980394026 0.09411610404716203 0.06899418194506363 
-0.06668036308954536 0.12799092163261083 -0.027979724847763125 0.14177633617329488 0.05820653505102993 0.049464757346538185 -0.11841755565615487 0.011524148134627299 0.15160722697908874 -0.07676700217862036 0.140657648882374 0.20352396539280576 -0.06689741800280224 0.08956649121408344 0.15867316739321372 -0.17717620929405908 0.16634678384403603 -0.12238644179747628 0.1387179350585497 0.07698185352247014 -0.04629658838888329 -0.13825696356766837 0.03827212816046842 0.16614494006516975 
0.14732015831728665 0.06377331581755005 0.19626261949709967 0.03519816896522791 -0.12147572772887631 -0.0016164284143427238 -0.07423665173425575 0.19530122991097645 -0.07537780777276999 0.19658137056361594 0.007329451577540289 -0.12353230089146015 -0.16927601439904064 -0.035032735059576776 -0.14952851283269344 0.08168130279885127 -0.013165663654987583 0.1958552568456031 0.1711107147257458 -0.13911875465283402 -0.025367529813259928 -0.031878417545324826 0.004597772933737709 0.1461860390886955 
-0.060781078719167575 -0.07676277884693403 -0.09389597983546501 0.1931151395985994 -0.1904941534211156 0.15239619215862282 -0.1233385605476118 0.010255815311888905 -0.07551138633419319 0.23610717625174682 -0.14978953394520278 -0.11479849272234678 0.15204878182189258 0.058938178268023556 -0.07507648719238814 -0.1992399440525 -0.21685025340560432 -0.14066276322364993 -0.11733183613110931 0.17887173795232572 0.18551474489599692 0.10210689590376604 -0.031899333666331575 0.11429213423963422 
-0.01847644288290978 -0.03574987144679863 -0.08846921161127487 0.20414937897268753 -0.044293025213306074 -0.030376910612446226 -0.1155228965200144 0.1958161649037349 -0.027183064022967503 -0.07971807536118376 0.0706521036480117 -0.1624218973839474 -0.1612875210166171 0.12334487541851155 0.09634576955292555 0.012496071273312334 -0.13707475858102153 0.044994611635916074 0.05430235740409356 -0.06780002683303446 -0.17214584909502711 0.14400968897233227 0.006222223754381102 0.0741417138356112 
-0.09713479426310263 0.06065179152284724 -0.027841249207932618 -0.04622163505204219 -0.14819902899828333 -0.10097985505724474 -0.16734559883547392 -0.08851841161394172 0.1319009187619812 0.03961627269010715 0.0582022297884097 -0.2412254490750526 0.0610797069945846 -0.02445643139812931 -0.10632319606954484 -0.16908812906964038 -0.1623477626911021 0.13649943283313834 0.1924699481442675 0.21169161717017046 -0.05995145783993024 0.10219972845231881 0.04604468004084451 0.11451412068748693 
-0.006341858901757886 -0.09117815897158803 0.11360160727884436 -0.15889324485786666 0.014440523853147523 -0.052587038379845345 0.016828346828319483 0.07294215379167432 -0.17733952260722197 -0.04193370544172297 0.039021808790206045 0.19438342285360397 -0.041574637114938945 0.20649193358953927 -0.03758919934734164 -0.1444075665905547 0.09673249861677911 -0.06508304369537399 -0.1115047584339862 0.2666825584726079 0.21441803043946467 0.038700579434607224 -0.021341124959727474 0.016382401536574106 
0.08997842885895643 0.17540880712172732 0.15730458360487012 -0.13179002249327773 -0.09479564480092871 -0.23714162167028302 0.19682084967082944 -0.10413218504011072 0.04589628368250265 -0.16318157564191804 -0.1264723967005457 0.016466862462140974 -0.19799739043246492 -0.01742769193754948 0.0056714179513760125 -0.055846549278855115 0.029213986027786805 0.014347136821234424 -0.04286502987679996 0.05942907544607508 0.09384920934590718 0.08445945238340793 0.01279013859628215 -0.058722316300170455 
0.04433308563241901 0.1374118641571329 0.06004282905516749 0.22077143362376458 -0.023050019658317798 0.09453934822550392 -0.18426658498994578 0.10761703920061852 0.027200671239127044 -0.19738784845768706 -0.10298507553258976 0.02681558824960829 0.10587149021381748 -0.20885571900359975 0.01915496240005908 0.14512476078075626 0.02381565069268271 0.17863032998969042 -0.16921228211081182 -0.04011901635803625 0.19634843635126165 0.09425316496103274 0.03003011359552751 0.10585425293332501 
0.2170505129719958 0.18060270926625785 0.21623129909063138 -0.14298190113814335 -0.1709091124163592 -0.16972450874519995 -0.19355392809978042 0.1653206538881148 -0.22227740566094623 0.11458738382589588 0.013913538041944912 0.036610369648964365 -0.06021858981021193 -0.022603393461229464 -0.09715466227601145 0.2233039347541127 0.06264023054100118 -0.1890093335390064 -0.015016101696279222 -0.08619800301417872 -0.1673522222404445 0.20863583697827215 0.0841711691781649 -0.06694084888646269 
0.14472292037432835 -0.0684339401952583 -0.07561863912918702 0.1605135036941447 0.2630995410386973 0.07549833385237294 0.190794764841888 0.15612776745192042 -0.006626268329924802 -0.04991378669098571 0.0915890537577521 -0.005246267960377063 0.0081957569377326 0.262510860621359 0.10825457115395673 -0.0764238287648497 -0.23620813090122966 -0.12476962922846802 0.010471392258336319 -0.032435110576895604 0.14458336347822562 0.18904105559866335 -0.15880265973334373 0.1721218996659347 
0.15237442487010175 0.25010363131067026 -0.18416155752668054 -0.17616073255877795 -0.19719223543957115 -0.08835691115172792 -0.1769250702275598 -0.08119540357418174 -0.011531648554471384 0.15363776241729077 -0.008986328385954886 -0.14508574581721634 0.048176490578028114 0.11527287418208765 -0.15444366325371092 0.06685217940865373 0.10870685598308047 0.13627698305442365 0.15515162225109336 -0.04632354362307478 -0.03187836346683967 -0.15834880104771465 -0.07220848873780508 0.16214042031270337 
-0.08487416008403605 0.16197888378792868 0.15516998545229374 0.16809302169692386 -0.13633453104628085 0.15079633957827804 0.051788004032380125 -0.11444678098940923 -0.06084396421011983 -0.13481719761894595 -0.021740109723111085 -0.1655510446147736 -0.1326442587391077 -0.11983452251173266 0.0751852848981652 0.02886145032214042 0.14821376381160228 -0.10083297797694735 0.05084480870447036 -0.18555470581722802 0.006312761827554554 0.14414130238822317 0.19309466290258814 -0.19553453102599422 
-0.09755309044882247 -0.15782602647798 -0.18023508934855567 -0.1954127366733092 -0.00381950715722481 -0.1810690573054883 -0.0873829100647009 0.054942730413379465 -0.1187326560813004 -0.09084138990485452 0.03544344488313188 -0.025131513755550356 0.05958672583834269 0.004402078388856724 0.05226791616811212 -0.05756625028201857 -0.08391023226815499 -0.1436652868817824 0.1739976511376265 0.11112461017193159 0.22223528882406796 -0.12457883982166067 0.16087760435803908 0.22075493721493883 
-0.0974836064305491 -0.05748920333161412 0.020086448541793388 -0.12461551015518706 -0.022620915290042846 -0.1262584350870932 0.240374754072341 -0.00240511808750342 0.24800053555593496 0.02189457254433172 -0.006112163580118691 0.16561210651026737 -0.14155488807953628 0.015640602116353534 0.06361929153348005 -0.025861145649767183 -0.2386296693414431 -0.0028345321799692082 -0.013603300203549945 0.1788716782662657 -0.09602751053316308 -0.042541803548548224 -0.07242172869073593 0.07336368401008936 
0.21634903569960756 -0.14142291541664762 0.11916463873933313 -0.10629113429601103 -0.17600167783957008 -0.16292305700449317 0.1928675949130794 0.17281836373022325 -0.09334722379414569 0.1942647422925434 0.13229339845304622 -0.030472067211393204 -0.012463544575936798 0.05456691450997956 -0.13557675278193987 -0.19353835839636174 -0.08681098143671367 -0.19326940399056844 0.06862075111011771 0.02010104573530773 -0.0799316563775096 0.1300765264041513 -0.15356170113933088 -0.10073440766463776 
-0.08181188592749668 -0.10884231547947273 -0.16386613435061118 0.13893757188298608 -0.16376499928711863 0.05279679235561668 -0.15074667853944287 -0.1951986035619292 0.034195468913445055 0.17169703024285013 0.16991169306971604 -0.07977653867368123 -0.18850840009154168 0.12500323147670392 0.1211114397311961 0.15377391296945897 0.04349172177778505 0.10977383446650114 0.15797683210279992 -0.01802591495261322 0.02259206732339537 -0.021499878268775946 0.09441164151180036 0.058693477536468745 
0.00791850968209124 0.1301449992753005 0.0022508490871295164 0.128693630703 -0.0859813065675128 -0.12734563684773967 0.18730172632525957 0.09546865771021792 -0.09477742837044327 0.03178168437178967 0.18137111400697442 -0.16677385424455124 -0.16564848086520573 0.0467092007826793 -0.10889134238784973 0.1047595194399398 0.026643044914808407 0.06532392470166738 -0.15583007795672757 -0.1653454100920615 0.04907248714657292 -0.03533414847239773 -0.1641437650475172 -0.0505793554112124 
0.06768649304221006 -0.12288917612402339 0.1613581913206642 0.2190838292204265 0.18194406377840983 0.09073658430205997 -0.044449035067070056 0.12915813438407733 -0.07324265780418555 -0.07302176380790815 0.041488076282604626 0.021549610956015812 0.18959997472429937 -0.12813437734883668 0.09823304460383124 0.17420558034650027 -0.2536131629733088 -0.009322819397361511 0.061698135600280514 0.1746879313303668 -0.1534660624881619 0.13771051763063544 -0.05322658373569815 0.15238051742413272 
-0.18828378736958015 -0.17781425707224371 0.20820582869187867 0.04290935471771832 -0.032226782662268506 -0.12793751151370453 0.06020524778662625 -0.1845218688449899 -0.08996611483510064 -0.06942324851958753 0.04209724357216712 0.07278255895080832 0.14723372095479142 0.17349704361296428 0.06305226989464716 0.03270386258682432 -0.03846285773471243 0.20236955088667904 -0.13716816936702936 0.16951835239471535 -0.07437435232447819 0.03523048099939234 0.07477948691430643 -0.10409796023467725 
-0.13167142357597264 0.008616655054803959 0.15079742267750096 0.08478866235109121 -0.15132297692657407 0.1834024029127272 -0.007898525275165637 0.20006487012613816 0.027918664320955376 -0.16513546361265688 -0.1177212669127883 0.15311087134896423 0.08059086619240918 0.16114932791595174 -0.06717453734441564 0.010920435542028165 0.0582783501058587 0.02484817912887369 -0.10610128010424942 -0.028616303445684194 -0.09944304126294211 0.15499102147973493 0.22139136905296175 -0.17251802565513447 
0.08429736636104374 -0.06678992139418997 0.04919661298766706 -0.095441036090563 0.05930879977137097 -0.05054647064760193 -0.08081395052362607 0.16374550546432484 0.17619413263227118 0.04450572178815454 -0.11290772684118648 0.174945500885466 0.09886958822309362 0.09912384314408641 -0.11400855453230935 0.1308240135300361 -0.10264782797440886 0.05164012558602395 0.08302754551117114 0.09564591357240224 -0.043001365441152996 0.10261605481636359 0.16017510939972748 0.03421348459966923 
-0.16286642651250968 -0.07956070204577362 -0.15686103616094624 -0.1296642142483108 -0.14831301498583074 0.06031644201078761 -0.18353278147004423 -0.10206267659800836 0.25041604309318216 0.14638399461325038 0.0413011312117014 0.12766741496637066 -0.18189305512519333 0.11644897054642936 -0.07426188433679237 0.04868609327428612 0.05289584954045359 0.11772840468368387 -0.016178193390453306 0.27370067869996906 -0.09553553755733574 0.11051309201666489 0.13593444772269964 0.18430886507142252 
-0.18628052864404068 0.08877611618539522 0.02562338231541275 -0.0029508731943060744 -0.09500642705092661 -0.0680931576148908 -0.09890325304325037 -0.11098433813388575 0.11857336225770675 0.000932565281260091 -0.16578783792828322 0.10948310184957274 0.013127516460156764 0.09444985335605754 0.005998834451400482 -0.03918626113813863 0.19395667241343895 -0.1880681318331174 0.17224845975469574 0.17147505049914225 -0.04274351564415787 -0.1129088929724342 0.04674016881775851 -0.12755564665941505 
0.11181072509715118 -0.11582336983195556 -0.08241208528302305 0.20342470260257173 0.1584926232411609 0.016716368277093524 0.15751359577566587 -0.05790733189707234 0.23281420411544138 -0.025920040981492226 -0.08081747984305604 -0.20033964225243625 0.21878197681826653 -0.026502857125794865 0.09253291880863465 0.06500773074285737 0.08694134299179523 -0.17878553958613938 0.16709742953865028 0.1991145187988522 0.02734722500370232 0.20569308282616425 -0.09860991548208907 0.04001054506184341 
-0.04055845564409843 0.11761545672169418 -0.07850165468122394 0.19405922125058442 -0.1712153927245322 -0.18253183142179105 -0.17948100939611014 -0.13862773446516222 0.00578473833755941 0.14274084911086157 -0.15462553528754766 0.008144418645161878 0.06961468347927409 -0.11448057580449204 -0.11943204769203147 -0.11045308141938973 -0.18174291783282334 0.08399304261545708 0.060430505903108056 -0.021966797525677165 0.041128598826843825 -0.15495657488678524 0.249886659704957 0.1378551358051478 
0.062488724453710336 -0.03598291647153496 -0.032645715391660175 -0.008470487626692419 0.17326953677452275 0.12332223360048872 -0.026927200875559727 0.054686939368641246 0.19037477705306502 0.17493305341477466 0.054630365567327914 0.08658427531366004 -0.06389090172706985 0.14477613552598675 0.13347737631416842 0.0203310251437298 0.14267608021544437 0.1157240574589354 0.1220855870804572 -0.14659357609265292 -0.022189666298601817 0.16073133948635895 0.14465602194301685 -0.031015865627025664 
0.19055588340952048 -0.09837942678183609 -0.06540389898664317 0.18094029114578078 0.12220764515189815 0.15912555612700033 -0.1948364410575923 -0.04714364636314267 -0.10447709331797574 -0.08037053784256896 0.09389406428639269 0.08834480207255965 -0.014907302419345061 -0.052867248996049394 0.033140478175869105 0.013150455513040987 0.01975269467629439 0.04526588978436263 -0.04087936318342166 0.10737468679560554 -0.09820761061402664 0.06119123016954907 0.18345511276345608 -0.1981045845447132 
0.08805624947699127 -0.15535286928050956 0.017093265874728363 0.049781393869406665 -0.10150740654127056 0.1645874120454114 0.04796353066154932 -0.10600852984445738 0.10673970795953043 -0.15676220908604854 0.02157294494141076 -0.16102755123079376 0.031682920735273935 -0.09749771007294986 0.05869877443568919 0.08505379503659759 0.009430095925548042 0.061888734166063705 0.12404634885447861 0.12172460556072641 0.04692515154017019 -0.01909390479372838 -0.03603506354885203 0.14878856839815072 
0.06372373535747386 -0.12598906153479597 0.025693191083633472 0.204727352537972 -0.13853309451908505 0.12665663340716626 0.16927641662181875 -0.004415589221222642 -0.18427471544016982 -0.13981710866244856 0.2134708192703491 -0.22762900822054805 -0.050012550955568516 0.02524031018934008 -0.11993417775393642 0.1864456515030699 -0.19690247443070533 0.015485690231115358 0.04626581892497564 -0.10629057822607675 -0.04213427709948736 -0.0035025337628779487 0.14748238292877103 0.05269143012903994 
-0.012658779128142523 0.04190420122587106 -0.01820308417396798 0.010026018307934991 0.06230343116059371 -0.1262603292001686 0.12500109170772955 0.04256103906103821 0.20859953530100714 -0.10973646564041506 -0.013160530231399134 0.17908064632928042 0.03972957842353159 0.10260328684686165 -0.0337847072545507 0.08460446209711642 0.17908136378803724 -0.11863479009740281 0.12166558457098975 0.22282026755020906 -0.19362510128725732 -0.11261043938727239 -0.15196752120526566 0.0948063780391293 
-0.1665865625277326 0.20263300732955747 -0.04325871328698984 0.25318878888388896 -0.12329470314318287 -0.023102724116278034 0.1389301958962392 0.03000583333730578 0.056304796710679096 0.004928696895357988 0.02889391344171396 -0.01363029015454042 -0.12129454190433071 -0.19497732567626405 -0.13831642855917808 -0.1782257953733113 0.041122648823132435 0.11049640562082338 -0.05530111322289394 -0.1689776348419749 -0.05199590192321143 0.009831894761403193 -0.04757289866708764 0.12301311778336045 
0.17594575314671146 0.14683705965647817 0.08034449185825442 -0.011584503411225898 0.07187589845317248 -0.19409284357161083 0.1924245545805559 -0.12992564275555565 0.1615195212192329 0.12156306284606783 0.11876549511007034 -0.09112806419253039 -0.11103005048226888 -0.02783907698216254 0.1385577016991814 -0.01937699266647777 0.17332478985505564 -0.05784924456756217 0.04681076271989914 0.19170141077329023 0.05632248537813465 -0.18106253655397822 -0.014219879792406027 -0.0649514234542785 
-0.0003526252456021486 -0.08062681076770192 -0.14999574208258487 0.06615708885129151 0.07134441403618426 0.1306749553001432 -0.14591244565514933 0.1452832867984681 0.15731829273355388 0.044916003716758544 -0.11673485684513529 -0.1177972196257263 -0.02188288508882589 -0.004397785642286343 -0.008796182141245144 -0.012694020573183593 0.12011968110328995 0.1470409395184214 0.12543635709963444 0.19343907730089135 0.02299665178891697 0.19214736631353296 0.057958997867568675 0.03243472660508075 
-0.07108332400032125 0.15355218555458097 -0.17843883794967622 -0.14503933804102248 -0.14677536426578003 0.014905636264666908 -0.12861678134969812 -0.06241641473566994 -0.12954785388438253 -0.10519231838510645 0.27938762861882527 -0.06857003974758495 -0.1383782166918258 -0.05831238680058543 0.2705029683477094 0.08896373829299918 -0.12203348930342399 -0.08517551447237688 0.10337774448089843 -0.10249219355663476 -0.0969974926432372 -0.16542501549502645 0.23359953887726742 -0.020348734463115283 
0.024145235901043897 0.1303697771126568 0.11730082522357849 -0.020501833564975726 -0.12508219445671498 0.11930346482701533 -0.18694896816186032 0.2266416902744746 0.05336989873488872 0.13644068031940654 0.04254014778046505 -0.1394732735454 -0.06369044370442623 -0.039178881282233936 0.23646996120465907 -0.12493433338410112 -0.015935807851764162 -0.06136994007193865 0.1065768662461553 0.16371853976636705 -0.05675897788403048 -0.11705559315263345 -0.17230787186611213 -0.1192518523399279 
-0.08974609050895871 0.0063731093581156344 0.19825016435858028 -0.1475867365052114 0.20683141364067403 0.050588552066890766 0.12376637034678412 0.23007408279223146 -0.021183972064867326 0.012320115015810292 0.06482512845882445 -0.010674196698548924 -0.07910630417110824 -0.15681167518708197 -0.08475139508125698 0.10110392872835636 0.02417111911719177 0.10721699972798565 0.006672485264753425 -0.10584631819121615 0.04094787323061518 -0.07885126409503534 -0.19927071693353812 0.16049729033906607 
-0.0311509077295782 -0.027689820162745904 0.12852806520944776 0.1976121976318802 -0.17010973364270845 -0.13676041167610323 -0.06986851124401947 -0.10787719943724824 0.002371990159251279 0.12853324222368925 0.14041135383262257 0.039125371373776 -0.12079891369508983 -0.15074388836137062 0.096048078140499 -0.1038001755987873 0.009375021460306159 0.09317605482103405 -0.10738766227736099 -0.12895103754126822 -0.18340119293521592 -0.1384181308324914 0.16174133373005278 -0.15711426691510316 
-0.10923110367195875 -0.18623450385050722 0.0693580860922079 -0.10600514810348548 -0.03381555910551274 -0.1431222516678481 -0.048149161016177125 4.4269279148000714e-05 0.03251282210830768 -0.030179463227376108 -0.15787382553649526 0.07721055395168012 -0.14396692781992382 -0.07691235037768018 -0.08992345570427869 -0.07835222846960381 0.026378491132833505 0.006932408969985346 -0.12268853216585364 0.023393223162936017 -0.06305282615732975 0.044947136679194595 -0.10824998573059158 0.1006878854280053 
0.010228360626167957 -0.07551561332786602 -0.09721580859155524 -0.12426746584204519 -0.010990576032458428 0.25790506796503176 -0.15736977722650639 -0.08533689938443058 0.060462635040089314 0.14564972827215492 -0.08721140886809067 -0.00972278720561788 -0.059827013839342066 0.08869966984089407 0.08645305586187131 0.141752411567906 0.15649656149457267 -0.04713772296510924 0.1693953242495167 0.11071982371767948 -0.07581778408146767 -0.05991596725102532 0.09653089802902728 -0.14845521545384385 
0.052367346489532486 -0.08278504736715614 0.12963517761804744 -0.05316413421739329 0.09204653896730103 -0.13179930170180384 -0.007231838267194644 0.11452503907246991 -0.06588022257398936 -0.13415099918727222 0.05850693948087164 0.13255329858846007 -0.08663979902945607 -0.0013916162822793102 0.15332010256765796 0.18589506125424188 0.11566421417629949 0.03558276460240547 0.12568880236444854 0.15424965426813184 -0.19853065097258826 -0.040257015711810694 0.015820548221420688 0.09226880631789729 
-0.16405465185353496 -0.005903261562421693 -0.08686754350072129 -0.029916930495625018 -0.0007870597877298415 0.0313255431183762 0.03653271286308192 0.043138674813079404 0.07568549599787866 -0.02802294622267207 -0.19752623186428214 -0.17269207266345085 -0.07847829200067269 -0.14002837360198486 0.0386387471117128 0.0043954053793589295 -0.018754695676278698 -0.07046742124217487 0.06019994983821561 -0.12260965329835652 -0.1971582323657597 0.060907465844995214 0.014445956676484264 0.06464677037879078 
-0.10003794349406206 -0.23409771712955277 -0.06106859631313257 0.11996780328027724 -0.15784884535565744 -0.10780887832990246 -0.05319640355230579 0.015009308120746344 0.093389290487465 -0.15425240410438626 0.049266622054026384 -0.02270719756163886 0.06814920325984705 -0.12955880870428774 0.042476679712380026 -0.11426751817590945 -0.2140145108012044 0.03129486476290015 -0.1250620184843295 0.049183050342407705 0.012192444907420179 0.13713618524181484 -0.06598561307395004 0.20851658149891983 
-0.022531949560513083 -0.07606242930896973 0.11208815115275436 0.05231702291331862 -0.05397785520867196 -0.033286818874691114 -0.1083007415392758 -0.10098017235423229 -0.2078422639061475 -0.022495946419122493 -0.08367148440239462 0.028898480321702034 -0.21414381215146372 0.0139088453603797 -0.08153955482993847 0.06234740601449818 0.07495599666586314 -0.03879327157476552 0.06412209875638396 -0.051029499045076594 0.2451947736710398 -0.13233695895006767 0.18677271222216435 -0.16137602957992317 
-0.0011849829346755663 0.09580674161241434 0.0590525906833881 0.043548110947126815 -0.06407186282031178 0.16513692711613787 0.07400399600146652 -0.09250430310753316 -0.08978788456962569 -0.1727348978220248 -0.054235978932315236 0.08333306123228054 0.10224833856971369 -0.07841876414015851 0.059837848116487076 0.09942327596949732 0.08706731175672787 -0.18744245876093044 -0.14012134048943783 -0.1403238808277095 -0.1266276060256514 0.18727684838283848 0.12529769464587556 0.05285456639763318 
0.016849262402228424 0.06693353518579581 -0.07788544945591551 -0.05229113738799565 0.029307967943300296 0.1397045397816079 -0.11806884848659477 -0.09652960894529782 0.08745310741456562 -0.06250619599476573 -0.18020533704142794 -0.13211085993656924 -0.12117173897225499 0.017998364348569388 0.046005591749691994 0.18954514342642464 0.20198929315185535 -0.07590552532264438 0.10003916688067692 -0.1155056202842259 -0.051562034348933285 -0.08164755887406891 -0.04283465177926754 -0.11280837002300431 
0.021046045947840982 -0.21073060035987443 0.2737540889145587 -0.004776447937167408 0.2381273912538543 0.1827891750440791 -0.12116532432242087 0.028030721905567386 -0.014501511503698985 -0.09067978758067308 -0.037942787679784186 0.1603465319000632 -0.12880380473955866 -0.13768495204359105 -0.11572387130450876 0.19491655365007296 0.1820184658542428 0.009300098238373144 -0.1457406340278956 0.020369112742386584 0.09164953392806675 0.20006641729980562 0.08853774564459296 0.24888989688415344 
0.13782053506769995 0.07193765772340265 0.1580311023156298 0.07227587131092711 0.18757151763274893 0.2690076936417772 0.10234539900378492 -0.12984009528743007 -0.27211324385218033 0.2262070139091198 0.00823774408891628 0.09956667175861332 0.052091663003663434 -0.14102337411138624 0.1407493088048727 -0.13743258294389446 0.17005153080652372 0.0718342548459007 0.047903236475182825 -0.02490653221010577 -0.013714942552871964 0.07853682888522537 0.09521045471639793 0.08735688084287258 
0.01991438251562764 0.06921070448033487 0.188223189265551 0.09570142825339172 -0.05696940753919055 -0.014633390756369675 0.016634943555063657 0.02237820516778463 -0.06304766325891006 -0.23153593348931056 -0.048175035102848575 -0.10763831539769665 0.2601589801754713 -0.10211525381363097 0.04956131090567454 -0.005917131417416172 -0.10092316400024003 -0.23484574898692603 0.09662452554087823 -0.09895956054685925 -0.08186271937459959 -0.1451858532044124 0.16015883556963376 -0.20759328786812237 
0.019482571414677016 -0.19327827061012778 0.19805834738318162 0.06336405141132372 -0.05240751775992092 -0.1401211185047507 0.07129119127169105 0.20100074287859648 -0.05988931148205581 0.10528295159541251 -0.0837293559588697 0.18221202903227462 0.1114256631861303 0.0359996069610445 0.1651821144136693 -0.12371301297190221 0.14989506569470093 0.07004335059628634 0.10723218596300667 0.0542750440015872 0.1313268485774125 0.06773892510873213 -0.14017721419034862 0.03199574669401769 
-0.1783925618693788 -0.04913554099974952 -0.272747591710103 -0.14672056173065498 -0.32936301654479905 0.3336822057463062 0.0376305724890442 -0.13593909239643004 -0.32552252621956423 -0.03152620650195688 -0.03163260168843762 0.38164433649027973 -0.14068078996182123 0.03394158967258475 0.11129294943850146 -0.21390207302347758 0.003826522179213613 0.16694464308472381 
-0.2711543811336145 0.07109028690103503 -0.3714895096999927 -0.35660714572555946 -0.30229607252608054 -0.01236560987391068 0.33942687260084997 -0.030765111508907043 -0.29140455065981824 0.26042251739472316 0.01283062059784082 -0.14521270710004694 0.3520174082789322 0.34553476454252624 -0.16263101967343685 -0.20318541753308034 0.059515770461193496 0.2688684790605536 
-0.16687098796962718 0.05784295910381302 -0.2400796181531598 -0.20790457729852746 0.1773717265293748 -0.23887208962798306 -0.2013334663978191 0.05511307147446633 -0.33358708787814173 -0.3594713083410964 -0.14369810514951606 -0.1456556246795533 -0.09480142576248525 0.2430177910506486 -0.3188635588440368 -0.09523011456778706 0.09296686896572086 -0.2648880849901838 
0.27114162464307695 0.09792549369717929 -0.29369936325447354 -0.20272418089679037 0.16643609475232793 -0.06470517524895636 -0.06011999925540474 0.23823861716858072 -0.24770374371851767 0.35275618380607954 -0.3141826624955906 -0.31384882974609407 -0.23104199524985058 0.22677318748956743 -0.029413176143465915 0.10316240247490542 -0.22199695260690847 -0.24482951451932822 
-0.05275427584813335 0.16284654701887472 -0.06031640900049412 0.25263361367239207 0.10804621985574676 -0.17017064069899446 -0.2689988902476851 -0.11609873945812876 0.17411099326825144 0.3620911496613375 0.26903880179340534 -0.15332090622460715 -0.009769701859610078 0.08360045494687895 0.03122605983906037 -0.07426538212901387 -0.27289869304122755 0.13110688603814594 
-0.37951343174304947 0.25016280804817087 0.24033557966892324 0.16202233289331444 -0.009020691344361217 0.1345481286573663 -0.16267042344795404 0.27205632348049397 0.19473095533328352 -0.19829945960177006 -0.13292240152596352 -0.054003257544641615 -0.009491877760595863 -0.007546457017047503 -0.31484588356937016 0.10774447451329733 -0.2030189393872084 -0.1236752835598649 
-0.041292137372007744 -0.10181430833461946 -0.12574143648691813 -0.2178335847250961 -0.29625191850141763 0.03418931188395477 0.1018841512459003 -0.2072445565599185 -0.18271177465268382 -0.15567124898227472 0.22872385797434341 -0.2703913058896778 0.06380576220179508 0.04752391476415 -0.1054320707932401 -0.10052620756729959 0.3154086429279543 0.03307376915208795 
0.1672665837533343 -0.0061502853886965005 0.08039428251679542 0.04693076679027446 -0.24230805068148642 -0.11139613438713081 -0.031217808563934784 -0.317635660094021 -0.09204773508034725 -0.24317117290084364 0.24931755290192262 -0.1547638810800036 -0.24711370762106855 -0.033083901001753964 0.12352775720882768 -0.2980138791840093 -0.21753931539905877 0.1877629749520323 
0.19585280572296454 0.0790288166547135 0.24146260053764965 -0.2819695518997781 0.13756802094160925 0.2859953446975447 -0.24909252269669732 -0.15854310962304918 0.031125667887993255 -0.12597012568939867 0.13714476899280506 -0.33582150044518133 -0.23277090801365596 0.17737275572685007 0.32351224787104443 0.29462269246551903 0.2746416065013668 -0.2728007480676794 
-0.3211376960901486 -0.29334798390741795 0.023122313642922037 0.29735583227359774 0.0211648960400018 0.19147320463346876 -0.30303442749983917 0.25366859652670753 -0.21288474662566056 -0.28204837374479114 -0.052503661265834625 0.09622396772213733 0.4065686223273307 -0.3622468881739999 -0.1530563853948093 -0.2703167848104603 -0.07347663037334902 -0.21242159539952712 
0.05803175747552056 -0.10213467323134881 0.2800834864255691 0.1971783720918409 0.24662490298990677 -0.2532520011092238 0.08816870071630961 -0.14399844167187936 0.2516725476730548 -0.4082110287035636 -0.26987060542071006 -0.14426640372939153 -0.09602323572787178 -0.1176632908130948 -0.2766527701594842 -0.2607820328725489 -0.12283727171180316 0.3885458587893831 
-0.23131191074853538 0.16766559156358626 -0.22367932750491631 -0.36300551719024876 -0.3329079788660399 -0.23705367425102267 -0.08026891939159124 0.23883826905341315 0.15493780819813968 -0.09372362466755936 -0.013301444219109431 0.2579706762632847 0.299198703056068 -0.14810095542318172 -0.3412244247128022 -0.31115577918245235 0.16113261494053677 -0.18936313911581057 
0.0239566679474705 -0.2096842665588254 0.22217238114009238 0.014426794067245664 0.018072904014191392 -0.14331769021464458 -0.04580120545488839 -0.344124048274594 -0.15073255096604 -0.15490400690992123 -0.14615518232257194 -0.33641052891967266 -0.050238282533711584 0.2572742132492132 0.30379135917116107 -0.0017988336424336617 0.06278689428733963 -0.12224757452039939 
-0.2693663564023505 -0.25159551310585554 0.12984360970303774 0.1453738451654825 -0.21849848372699163 -0.05784983892979393 0.07559899302571517 -0.296137978161374 0.1940045896020735 0.11016708192748716 0.08255402023347844 0.19020126459143027 0.414561439621989 0.03779792497377213 0.24900254417670287 -0.05437845232748478 0.10399289406531492 0.29075857434584923 
0.15282110652818304 -0.13302054599911836 0.07493044581410792 -0.10004855847429436 -0.11981174827158936 0.073913212585866 -0.21286174291499235 -0.014244937907606139 0.3059259588634362 -0.11695077618345727 -0.21181613846052258 -0.07403540079781523 0.21758651898215087 0.2874609196476764 0.223475352302074 -0.3361362252873901 -0.1577922603962207 0.40628654068119135 
-0.31685088261613537 -0.006582869108263842 0.167060872749146 -0.25834581197997797 0.10940927363201279 -0.007919014105135787 -0.2738160604505799 0.2582454584705027 -0.21701208944975145 0.1464258499674462 0.17264003432890299 0.09590526524805564 0.12411596150295853 -0.3120349121798599 -0.12962278805661304 0.058202378893127564 -0.07007591929940461 0.07833738087783923 
0.2262848988887878 -0.2109410592297915 0.25623327638532795 -0.06414964691940385 0.3041610959539128 0.07877661653184864 0.1511204720070826 0.04561659013599298 0.020732672321667502 -0.07162466730408633 -0.2533472046647746 -0.026669997732435374 -0.156738791313429 -0.4106163822343229 -0.1523896544787548 -0.21764582529953272 0.25676861718208926 -0.37609711681144176 
-0.25107006701291257 0.13789951384145466 0.2651581331856134 -0.16853593798628175 -0.32920689178423856 0.3163889078172486 0.10026857297333332 -0.11579998396713728 -0.01838411759418472 0.13097828054421326 -0.0847125578268873 0.3405556065092067 0.23868131012466406 0.286894324544388 -0.10022077243867505 0.2999786014760956 -0.013897954565542272 0.05160740644067162 
0.15550296222170654 0.21063542070331082 -0.0695376107910348 -0.03472388118396539 0.2161529801221833 0.14719199704816324 0.29904413107613226 0.32984069008908384 -0.2188022023445557 -0.1801250770619947 0.14611210322912982 0.1769278051843045 0.06497606376886081 0.25407906013407955 -0.16816879343772173 -0.10811491525518513 -0.0035540210513587108 -0.13341335733414916 
0.027267278207857574 0.1231266731928717 -0.20380083725966378 -0.02672894873652563 0.33928097585236106 -0.1185843640649511 -0.4709984003953358 0.17927578607476347 0.002194935532823871 -0.3193914428615766 0.2807193822327833 -0.05896338471855183 0.30259125389451647 -0.09977319571830202 -0.2901411867153122 -0.1727867915894916 -0.10076921879559368 0.17786624826000974 
-0.25600364041900436 -0.046120908890369926 0.2301421440590766 0.00912684846842979 -0.2716841242091019 -0.32693617585054097 0.11691608933503442 0.41405792779201794 0.19386344209785386 0.20638957809406464 0.11831686691421169 0.25068760117967237 -0.3164544313084046 -0.1779286440977046 0.13197706233327874 0.2507991124333176 0.11774206702228518 -0.25924002038492394 
0.3384542814857914 0.2762615012575896 -0.3362375820372562 -0.25277334921209677 -0.15217892884197187 0.1615492830962426 0.22467732860099301 0.06933302059655806 -0.20439734569366277 -0.06490010778822992 -0.26647570535255627 0.3322167159402775 0.22640472266255632 0.02226065248679645 -0.03095178459185275 -0.2754060190093841 -0.12233726125202961 -0.29962561225639744 
0.23512326772018968 0.029919672434335423 -0.2440431065545687 -0.2060241402491156 -0.16236957295859009 -0.12905005395680075 -0.10125966913649229 -0.2099669240776503 0.12112696723045983 -0.3475241729168469 -0.11588461318939254 0.1888366550336276 0.35368157037266895 0.23388492330827143 -0.17587805922949643 -0.18134659826437213 -0.21086136918579304 0.2879375808420993 
-0.2557896485765159 0.17519184729071208 -0.19463673677781163 -0.32058618677757184 0.1581284415977948 0.15313891387889764 -0.3689947307761878 -0.19593897284781714 0.3078466456487179 -0.2381632122072095 -0.290508351954892 0.10303623846568236 0.3246284030973347 -0.28341652213426155 0.00864598818748957 0.12416792607967082 -0.22373078743014613 -0.40025295150350865 
0.31397161399289997 0.06867528173112404 -0.3197222620764447 -0.3071378500544016 0.0866208716150382 -0.23852375832287825 -0.18287885384473404 -0.2893146916576485 -0.23498502782650604 -0.012895577036482113 0.007635322596126047 0.00895633192437242 0.4574291600805161 
-0.2957401363319367 0.20288515561352366 0.2333112028768202 0.06619737295933865 -0.028907530804976125 0.3145828855309701 0.26128853561847065 -0.3608062376870053 0.3717393122575371 -0.3962208237658519 0.056962511689451864 0.0564119514368571 0.26633781000464696 
-0.07188418066012131 -0.339674067214382 0.06368401051433074 -0.3665784019505991 -0.15493656902370553 0.47108767715843863 0.3373030276707816 -0.2508792701116571 0.23046314074543375 0.22730814512305045 0.3431217021373554 -0.21860972890668073 -0.04883769456109732 
0.27580382215049765 0.13154847462839006 0.07332697870406796 0.15082770541072968 -0.22763000767001057 -0.38942903402489387 0.1868215959008617 -0.132694556948148 -0.12541126257000354 0.07753260340684094 0.12344027372645988 -0.2360247380385499 0.26134408342443843 
-0.09375487208925493 0.10322791640893639 0.37456417141902804 0.050416287719629915 -0.11064813237804805 0.09310300492546317 0.0013851991822522564 -0.03698998816274272 0.18361049612121308 0.3400841125592902 -0.01604996696256362 -0.32962361499428083 0.05423267352967366 
-0.20197999931643754 -0.36962863889292547 0.22875633392466632 -0.17955402189580194 0.2197875429880363 -0.009119891009540738 -0.14331613079038333 -0.14644438506694163 -0.3676129579218119 0.02667838470349121 0.25752071016479056 -0.3331814632369273 -0.3129564332353429 
0.07563150490210839 0.11839180249478018 0.16101491295737327 -0.2130655071477537 -0.3583321997889731 -0.12411226536328535 -0.2659247424486208 -0.511014675477931 0.21273416258634867 0.4509209452449622 -0.0850963313716845 -0.1574395903396245 0.0964242520280727 
0.2746184080354918 0.2348569249275285 0.14764622450913864 0.027207737789932965 0.08483734499920473 -0.1626247854138728 -0.13826194943088252 0.32911204825257223 0.2976135599527003 -0.3562618041975195 -0.16083619547573724 -0.3971537686086581 -0.14621370216415022 
-0.23002499498055867 0.11091509527212115 0.16537263466677418 -0.3045892993656016 -0.3346192804708969 0.3251648047075388 -0.0866084719993109 0.02590268778601434 0.37195175835785577 0.2052150527362771 -0.13723794271934686 -0.33157756940696914 0.027943254509990814 
-0.15885790881090908 -0.4085880298909907 0.23651894906145587 -0.06854128670785942 0.029929223694462624 0.25757246799829053 0.42962840451391887 0.13451565012288413 -0.14668464871037912 -0.3480803527003295 -0.34137473422820047 -0.14191285016762176 0.10898094274619656 
0.1537931045323299 -0.23927416221748504 -0.33408403114049867 -0.13479934337717778 0.014635448765589264 0.23721739949140755 0.04073900038641343 -0.15019150219054211 0.09722947501892604 -0.21233172546313336 0.1198784184820894 0.2724655347857004 0.08881448175364083 
0.08363964997441829 -0.17066704404512364 0.3239860978262731 0.4737752024923988 0.20076869203743286 0.10836406399963619 -0.25985888816470654 -0.11125495905267871 -0.11720309751044565 -0.20019710432885343 -0.04200942318810817 0.08650670210024496 -0.2961617304906735 
-0.21049341155133483 -0.33993022249035343 -0.15696564129199034 0.024130533406763778 -0.03564471800026421 0.46220305315261206 0.46307734949419843 -0.02232342337604972 0.43008122647535213 -0.25287903104279097 0.031915522649803685 -0.03616306663668304 0.3852659114501758 
0.27663213009275633 -0.2568528960009964 -0.024311083059063574 -0.3157310604656328 0.04826017243126097 0.23399272540755542 -0.4051675002435911 -0.2989761232185987 0.4540321883550269 0.43154149311414425 0.04399962358810667 0.11462467971417706 -0.17628687026711073 
0.3627672428996609 0.133496743000424 0.13112891717534905 -0.39311318982413224 0.28149781550295055 0.22080437331495992 0.14560379407736102 0.19046805341747924 -0.2737127518543937 0.17275220661666116 -0.32257858010944324 0.16325364076188034 -0.40010969213012243 
0.2190874290336325 -0.006527498198147318 -0.2348173108613365 0.18117569980283646 -0.14514126412617842 0.30671355423873325 -0.2544409199136312 0.35162499109099216 0.37814093588059605 -0.15408372028458758 0.2892690743004818 0.27269473992673215 -0.058733178870414064 
-0.10685635449149998 -0.1717775844384208 0.3966970849501014 -0.19326373835602756 0.336934551175353 -0.05581073696920659 0.34905630358054734 0.2699765295986961 -0.27436115428313923 0.05786628252270824 0.13647375028635605 -0.0735188624172517 -0.39825496106349245 
-0.16071984827245514 0.2789009989711145 -0.34406038783185294 -0.34318035996705953 0.17236856301594808 0.01623231790704495 0.01941584047347905 -0.10990785168826663 0.11666468237634253 0.32208250854057313 -0.17621131171907545 0.2748004831761418 -0.07717425762765523 
0.18606861139269024 
0.002011606915128715 
0.48665654260171887 
0.6723858889356327 
-0.017019386741612248 
0.3757262304971034 
0.06153957942474635 
0.2994635725185938 
-0.3631782627039797 
-0.5456832120023206 
0.5792898158588539 
0.37647298994783274 
-0.26635723695516234 
