-0.09289631063929887
0.19814777897461916
-0.13483940844776043
-0.09311547867954256
-0.25517836308580427
0.003970496282216961
0.009250560672716889
0.06678706435965082
0.14650153096818314
-0.08072608439413449
-0.0403954890444272
0.16309120934609883
0.05321772204126645
0.08354150654720796
-0.09192170112226143
0.016460962518023713
0.05325665529863969
-0.1561778714757823
-0.21861206849651488
-0.14608187096050612
-0.01263327428013414
-0.15162720292745463
0.07556061769669366
-0.10310569320395063
0.28143064357957487
-0.35133213571734223
-0.21106001271566288
0.13667140400062633
-0.16193288140754367
-0.37062621976205373
0.053026739612730765
-0.11776511547510271
-0.28078187668186966
0.36371879864049456
-0.251786424225578
0.18409588566301968
0.3359570685529012
0.26997160089847694
-0.23867922243569092
-0.19895404772556527
-0.3744195781529342
0.3148467667457664
-0.0030072759822340105
0.1934165443716234
-0.24858458847843937
0.3933390329083099
0.15499765967125848
0.12691374506771894
-0.1564894942552936
0.2057834529065021
-0.18840334472314166
0.2756659280859068
-0.42984693047613143
-0.29340775519553985
0.027116135177897037
0.13459450672077644
