-0.09056311237218705
0.19367182255569182
-0.1303912049330834
-0.09152432736931553
-0.22645637854504183
0.002224136577875148
-0.012794724289547062
0.06927063653225224
0.13859248491611487
-0.08096011224879643
-0.03271960046510153
0.15479550449646728
0.04509120430013739
0.09161505934183355
-0.08680900418038733
0.010128308523652572
0.07163514677826655
-0.1450980829976597
-0.21702215588738327
-0.1621000549306972
-0.00869651867355779
-0.15356775178510093
0.08260560587454045
-0.09812064321512833
0.2921562932297467
-0.35133213571734223
-0.19387447518558706
0.09151125810105033
-0.16193288140754367
-0.37062621976205373
0.04897372055784739
-0.12047011555894868
-0.2779087725693145
0.36008747002412733
-0.2511202159974212
0.1884783862228824
0.3336479111191605
0.27356131830261066
-0.23867922243569092
-0.19895404772556527
-0.37143316315741415
0.3161814144642124
-0.0003707535277181621
0.1991582155418014
-0.2613607283559358
0.3937556982478798
0.15387154757486915
0.12724678167449066
-0.19113617991419404
0.20435256041824046
-0.19316702401155578
0.2762590614514132
-0.42984693047613143
-0.29340775519553985
0.026418219991674124
0.13499181903782032
