98 24 18 13 1
-0.046738846894990804 0.09429622003494217 -0.1768072568176088 -0.13260295794829796 -0.1801811912724347 -0.16952461055883414 -0.11351151488587133 -0.01932977922875638 -0.07217791485837903 0.02379384426504323 -0.04125498744069463 0.09802269474503449 -0.2221626446613159 0.18245636584364197 -0.21648643076440924 0.09224053834329607 -0.006945589872548521 0.018965959901351 -0.14484578944818857 -0.19932024825733358 0.15194218190534514 0.27451695318031283 -0.08996142264482071 0.19819755834638336 
0.22503937463974077 0.0993016963144951 -0.1688356815347289 -0.25465183778957073 -0.14726957697481186 0.2371050337430801 -0.25521085962102397 -0.09962058010811921 0.1252949565899967 0.02079954732213823 0.05774391622518757 -0.003778315725105623 0.0089260789125842 0.22451545487803443 -0.23293069869597485 0.1777730060129591 0.2624511444506904 0.12379578378490294 -0.09900445749358076 0.10353523725503275 -0.11213681337617167 0.043279744795594315 0.11846654711898981 -0.02688630495693313 
-0.081042332475616 -0.2213794848347436 -0.24326030597751663 0.040786679736794916 -0.13177399746832846 -0.09296357745701996 -0.07954493828467289 -0.26431496771524465 -0.006043316309949625 -0.1646871894574291 -0.029855966478044938 0.14121325826302067 -0.21331405404621429 -0.010224412149825786 0.05500090113200459 0.018518490002579248 -0.16698738589319229 0.039334120546309755 0.056670277821212076 0.02127744791244943 0.2524549709674637 0.04729694839324194 0.13216639138856995 -0.13709876465266435 
-0.0765564238903013 0.03501451294135484 -0.03737542682025865 -0.26169739810913967 0.13183875874427525 0.039606068741953916 0.04944839735813134 0.10617337299695252 0.09720368716811374 0.10904746394638828 0.09132217589288212 0.017839077253451647 -0.1917729128790582 0.2582472446694526 -0.0628241788322662 0.30717091784952016 0.0993188174336972 0.088802038237467 -0.16675089559234987 0.15058167737678926 0.09490799571590151 0.12010814894778776 -0.11753662520777516 -0.03772586287507394 
0.18608545273368987 0.027548899873882603 -0.2439566905067328 0.06040671944488134 -0.12755725882826555 0.017667327414913947 0.18145714796353446 -0.051140557232581714 0.20227807155047337 0.0605832129177933 -0.19666858170997914 0.17471493242022035 0.11016935984807061 0.19237626979906058 -0.11043218509056409 -0.16071597608282895 0.19651483618780996 0.0849997706909025 -0.18731980945519563 0.15630405090242724 0.11656724596616994 0.22190753512658185 0.09191709048850795 -0.1187200509873748 
-0.1063051288994061 -0.3150378127473623 -0.19091909725282638 -0.22131365721795448 0.10294348927318837 0.12796451757632615 -0.06435888724731337 0.15342314397547033 -0.2779695628427676 -0.016359727414514483 -0.03307001766923132 0.3288438204892325 -0.07143361341894577 -0.0901494369787752 0.10350166724183227 0.0017624638062999638 0.14996474347802413 0.035329256374993706 0.13914521610120958 0.07587400108699162 0.14421181725328136 -0.05542345180312651 -0.279434335981806 -0.10656091158869083 
-0.15365169968291537 -0.2430745278582402 -0.07127919141967767 0.036590870529788655 0.005438960220128689 -0.13418330614728932 -0.21897421807963127 0.24692544492504814 -0.01253023311105635 -0.18643680470420287 -0.1688996815639506 0.16054444481484384 -0.1577552315961862 0.0936782821611027 0.2018253936226021 0.20587721299560852 -0.15006588328363843 0.05645912775771778 0.04784808328334301 0.12627786989253964 -0.10875479064231482 -0.1456695186935781 -0.21627048141106256 0.045885464637622095 
0.11179082401670695 -0.028977414351307493 -0.07305146734322182 0.1659802606841476 0.011156563442416488 -0.02618489499052532 -0.04391980666957815 0.07930243021069425 -0.00946397768840122 -0.09445952294730131 -0.17513109992799938 -0.009437535088985722 -0.017975869714598535 -0.11745785542197892 0.10139054986811015 -0.1401067607420993 -0.08182765022013455 0.12109802866197403 -0.12323497069730953 0.019763028470170693 0.10082173964837728 0.2850881780166815 -0.12561758491598793 -0.14124263263792136 
0.08717899139020857 0.08203919233865628 0.2116541482987972 0.16818682219056286 -0.19663143731548305 -0.06779181499217914 -0.0057072237451024814 0.14882751169928488 0.17338799469612817 0.022531315397813008 0.12709864333882276 0.11418267555126421 -0.035242798745489794 0.03322071263039138 0.04157785418708053 0.07358405405818581 0.20408136726409287 0.21212985163904566 -0.04190383839686018 0.153482804728787 -0.13685274160286054 -0.17471808594119684 -0.15741367212721 0.04349255465877109 
-0.19351929053241376 0.22728069466693337 0.13159799038313655 -0.1961927207865298 -0.13024948152638133 -0.06712890947555862 -0.14867869759971294 0.11002969091836018 -0.047256489172942714 0.1773425241799398 0.022635946154704684 0.1391984826883609 0.13004230946844159 0.1480417591180448 -0.015943084614435582 -0.010037371964487335 0.11324275944553869 -0.08582233558743066 -0.0038672995073168173 0.05550081394356613 -0.19598134870455902 0.023289119817025108 -0.0023966892170499835 0.1054811792966546 
-0.05996859483463741 0.14588942163229157 0.030995528322979988 -0.12534182297337787 0.07095104306025399 -0.008577033444058095 -0.27968956783675697 -0.006320764989389454 0.10167609990555944 0.19025022265375366 -0.2306600491897906 0.18563632411855063 -0.08588470968699202 0.16595259215271665 0.025876524259250806 0.12040875151189587 0.03761956934323557 0.15874053405218447 -0.0858799439125078 0.0839737151414896 0.08033670759446941 0.19898163668070648 0.16388809289173176 0.15953606294222147 
0.14977020946914407 -0.061020151643854645 0.08515639817733443 -0.04088230013203429 -0.06508327127401227 -0.043397839492422804 0.013046603399604648 -0.052525263177545786 0.061228150317499896 -0.11237646731886045 0.19906735885561605 0.07157361002801065 -0.14436398322898353 -0.03765376012189158 -0.08122079501981466 0.1308840649269412 0.08591342075307745 0.1621603485256894 0.065028983428748 -0.09265036259057628 -0.10616590256465759 0.16198236537714436 0.06426527277977592 0.1800780489634858 
0.10450616332114412 0.04967767492976 0.02778404677468126 0.08609678154759633 0.0328765075549536 -0.050035459199213726 -0.09625184776594453 -0.23513012673617512 -0.12103548486111929 -0.16208126900156541 0.19703972330276087 -0.09199819818009765 0.11951373374071149 0.2086923297955359 0.0667775528032182 0.09511763544918124 -0.1154968897144306 0.04021030702251767 -0.061853814796053425 -0.15198876573187337 0.11733612755724097 -0.03472338704278624 0.1341176932176464 0.25023830737358804 
-0.09019627963298232 -0.24101946590202464 -0.12342674917571175 -0.026656121328782898 0.07429586402405192 -0.16700094766434262 -0.1472105276401572 0.20778554085664303 -0.06479240629567906 -0.01900592140013779 -0.10689509427453273 -0.18521890060986462 -0.012179596700703704 0.0007271689219089258 -0.15221228948488333 0.08850394746755758 -0.007422405933604515 0.05504678352395805 -0.14314901191718513 0.1009519093906765 -0.051944472302441064 0.08203700101068993 0.12355670218342667 -0.1587462689834599 
-0.08888032085879784 0.133359953386329 0.16799892263142902 -0.009059015620386714 0.1308177219001203 0.1976604390512349 0.06269840171532569 0.15595392133682398 -0.1875154973702276 0.1776494418447063 0.01079842228607256 0.054205129797327216 0.11589016704209873 -0.19473504171561587 0.10025825916845844 0.12292958863649142 -0.04114070582264188 -0.06474164277831346 0.052802604240633474 -0.10566404245100207 0.127096345708946 -0.05223908629406773 0.09180952880941248 0.21961260468507054 
-0.17858970608925806 -0.10461884912328388 0.15341935928306605 -0.0331819381660622 0.18310824850293955 -0.021092930520383368 0.3044931049250519 -0.0578102126705913 0.01450262368346312 -0.0862562023100948 0.0052618820291663055 -0.2667425142392953 -0.22941106570502104 0.08041619087182941 -0.18987384071052746 -0.08379654100423199 0.14068101215267198 0.04610321812942731 0.07640007147455855 -0.14558159202056056 0.00946656761309383 0.07318999757631334 0.28780756851091915 -0.07646811463802392 
-0.13948703281449934 -0.1044135322882095 0.10034395983516199 -0.01709989382880719 -0.17898692936508442 -0.04506339473699703 -0.1252966726798397 0.1591391411872194 -0.11433555295196997 -0.1910211855744659 0.03722321933198415 0.12803477769609284 -0.015708980596125778 0.0878722410488717 0.004421131480018981 -0.007672203303328662 0.228076208480186 0.08554828762398722 -0.18908402303342034 0.07896116825659798 -0.00314159346741472 0.19106341153553325 -0.11185887889095347 -0.09336212218820049 
-0.18788311358891605 -0.07770822730718294 -0.11760497078674405 0.0003812678995072893 0.0878311019642306 0.15593543277660807 0.14499403864237412 -0.08735342632236139 0.09570332310261762 -0.0025913842532904944 0.14977305468430793 0.11663073250264726 -0.23983396688252742 -0.12013053752746711 -0.22070504135297797 -0.1352521046185215 0.00544940459673538 -0.18203764011761006 -0.1909483493788229 0.04449725248700761 -0.00040532946826848086 0.17639833231081026 -0.07094774869439097 0.055400477615164825 
0.049516130371260465 -0.06367601370810996 0.0972084191689771 -0.06811464125347691 0.14922530096444483 -0.1128509140820805 0.10156475257123744 -0.17887274494644403 -0.01851600199075415 -0.21878730000558108 -0.05582796066458879 -0.1452552553617085 0.18800170625547805 0.2562158830457662 0.11535652541547645 0.26166446052716696 -0.18573614276318132 -0.08829180517924844 -0.12559529160024 -0.025424111251763477 0.23306244910564475 0.25919590883611127 0.06841808059758972 0.1420944888320929 
0.1719580321897747 -0.05093022134020389 -0.10033460408487385 -0.1034649015954781 -0.22156048932252115 0.14221611391567052 -0.1554356676584264 -0.19201407107451243 0.09775227443905878 -0.06501862368429025 0.20397094803399837 -0.08021390659961644 0.034187374108182 -0.05469799065493569 0.14777245387577911 0.004293799346227731 -0.051966372239621174 0.0464131471145088 0.1695074265888513 -0.2541344392162549 0.13123898749156848 0.17651398098529647 -0.16957972579946004 0.05266096966238782 
-0.06623636385352055 0.12640086182084662 0.023274468169196576 0.026731312988858072 -0.07984572788772452 0.08333083829473167 -0.08747404367006784 -0.26763831651455877 -0.013452011581759044 -0.020297063790966068 0.023746019606204087 0.22117172533261004 -0.045731668263758754 -0.07556968852454006 -0.07321076634277515 0.2337565631353415 0.1785361125347934 0.16552324800781865 0.1696171518413634 -0.16966157161642206 -0.13742378284412962 -0.07430782753748148 -0.09414524230809358 -0.13441847344478347 
0.11335253170274574 -0.06121989757722943 0.1041488258169145 -0.15323662873295968 0.08140422830719087 -0.1510385679061238 0.01888630251101529 0.0017111252708883423 -0.13840807775045283 -0.17911427478811603 0.061286820405115676 -0.058965767962522585 -0.010630293006784794 -0.20115588545662114 0.012925820157746255 0.16361741851997028 0.12923624332970168 0.0168101654110144 0.19249791405203318 0.21513896249387598 0.004496767438360135 -0.22065654617827288 -0.2630053581878023 -0.19568790285068483 
-0.010858103042339506 -0.08005240056962087 0.26551225659538336 -0.1920913101557153 0.22074574597527266 0.1135906461666834 0.10014203107077584 0.010533073452526789 0.0514325668478387 -0.00782624376573557 -0.20903163436285147 -0.03759023057394467 -0.05068069681316412 0.11961188718036496 -0.012461358171525121 0.008513110007083234 -0.16309683004800402 -0.1826531239772821 0.10362878119044629 -0.0854438834887372 0.25356013924884746 -0.12617744276332646 -0.08580344987038044 0.049566915751715165 
0.07511135225442836 0.01770667752787019 -0.1512001594904069 -0.054469286253326 -0.0025083296848303544 0.044665383000997844 0.0727381072427484 -0.13863960152800656 -0.20748047075624723 -0.06459533181947145 0.06837545444342066 -0.23573007061851817 0.13158499197036705 0.06780193848280376 -0.02017913406115059 0.1760277773900825 0.08572780575528094 -0.24582656207874387 -0.006180435861963829 0.1662403611814166 0.13225446488160914 0.038814231545185145 0.08673607598952872 -0.006955395756413067 
-0.09443603618638356 -0.02915255464472268 0.107535490902971 -0.06533298483672399 0.13719723771850867 -0.1324922736016784 0.046957941674193086 -0.11304139137552767 0.06878372465856128 -0.028760703416609537 0.08324815393501597 -0.010071281073981761 -0.15140785891821906 0.16862064206659275 -0.07656783346685135 0.15371275340424856 0.1522537261329202 -0.11187350585492256 -0.11483125072455695 -0.11433057298442367 -0.14397608922306274 -0.0043880313683164135 -0.22924564777229714 -0.14106632994723037 
0.11143695205419042 0.11990737631249838 -0.16931572069013048 -0.10769164813125658 -0.11746617735473212 0.18022996000309222 0.03624625213174519 0.05341534398500308 -0.028268543837713857 0.06585876816882358 -0.025739116683832428 0.15127511332497856 0.06190660772769139 -0.07782326699508944 -0.15063342514173736 0.17710912106222051 -0.20219747887983672 -0.17916811476323619 -0.027385342057200574 0.008674651628585937 -0.08310327807756088 0.04537493064620451 -0.125142327905778 0.057458726218409466 
0.10253115983918824 -0.24141073706754607 0.04023386195260853 0.13847973347366824 0.04663446810263604 0.018904969637240934 -0.16356148190564948 0.12406227974001376 0.18277953768088226 0.00891561965124084 0.08281549327532425 -0.18219147883354583 0.1176085885167129 -0.1574547920274503 -0.04181521885985302 0.004807395620034872 -0.20263021378726112 0.13361746344368175 -0.05181611464550684 0.028509851086268332 -0.011896637777885724 -0.07943116329833311 -0.24269348394178406 -0.17109355848849747 
0.05369697720305746 -0.13718006239624156 -0.05707407111635391 -0.17136300767829069 0.07389289983750735 -0.15791265761336412 0.20093672203353163 -0.16349875154099566 0.016541488192348484 -0.1845900413207259 0.1306731828988201 -0.10829936470181642 -0.0627067352868745 0.10457992054048469 -0.1409521080605445 0.0432657401918359 -0.0976665518445722 0.059047625670796966 0.08931219723508801 -0.15724573841212253 0.22096143635884988 -0.20452858768501175 0.14687817938846462 0.002856275200073116 
-0.10154962235780131 0.08542238169166026 0.08832532837165424 0.16200061563892812 -0.09844889674229652 -0.18802256720463484 0.1320327068425266 0.1863499026234114 0.06166048566815352 0.03315971652889674 0.014157204281807612 0.1569816904059793 -0.0929721888538781 0.11326264037854106 0.06582121719438423 0.08125571223910152 0.06726873469238874 0.07896840420360045 -0.20108766562803992 0.0553532566841642 0.16804265767591448 -0.07066448675785787 -0.261883637438165 -0.15190028306716094 
-0.09498613462293781 0.12071827456024146 0.017156352998770514 -0.13832423798703172 -0.14567513854739098 -0.12580796761201565 -0.02917992963094162 -0.07032076738251783 -0.07663350591713876 -0.007417931016646796 0.07691329691366385 0.018641909649332884 -0.06716771621381055 0.04933367043755588 -0.11183885801932428 0.001579763959134374 -0.007592392261074837 0.1287271569091868 0.15209188599598758 -0.030640268823903687 0.16740119993577565 0.030745022874017404 0.016428866105574782 -0.14833404511842582 
-0.04514969119027799 0.16574893505691016 0.04204587529294042 0.08630727551139382 -0.024359393577596054 -0.05956435552019694 0.1054751345512023 -0.17452778282522846 -0.027539911671965425 0.19454373809600514 -0.005306545867366101 -0.09967915974565154 0.11778035744362972 -0.06698518905078797 0.08034792921263441 0.07241064541088596 0.12369220219832773 0.10077320247999362 0.1360231175180981 -0.19910565093076607 0.2763608755058824 -0.10561316016074794 -0.011191202669686122 0.23025500031835136 
-0.1986919489893181 0.10882553529781754 0.1339604483007313 -0.016487789665708033 -0.09794709568846974 0.15619394866948388 -0.03578533133689671 -0.08596693691842469 0.2017332132573128 0.18613692270636567 -0.008219227860194047 0.14855700863460644 -0.0809135634391234 0.02335162676669903 -0.06444847334796028 -0.04670567207228017 -0.10897467958971438 0.2212424145102165 -0.0823901253677093 -0.1858817680488099 -0.1642594599355886 -0.21596170702607428 0.028560128116546974 0.0461138735638627 
0.19943956406385324 -0.08953712898708537 0.11724137222373232 0.11367802527788305 0.11672379205904286 -0.07082949988609759 0.0010491744950363894 -0.11870489996123532 -0.034803084483653754 -0.16956068168300323 -0.036395170523401174 -0.13786808235878106 -0.0279416856819644 0.16205229319777564 -0.07185968547784805 0.20407629656735893 0.017162109195585633 -0.05578498967834263 0.13908520619228407 0.1321013231184491 -0.1339767126399289 0.09554387927384468 0.014982101717788882 -0.09893579281848072 
-0.067848313596632 0.11027536167408047 -0.09272362131558669 0.1778144928209217 -0.08195681097174635 0.010858096849291694 -0.018328890063827607 0.1646133379616979 0.17972159858489437 -0.126916555482821 0.004842009209320842 0.17059082320494545 -0.012827988732480639 0.15887171362286648 -0.08854157051476076 0.06273085194025156 0.029860101033568523 -0.10911017246442214 -0.19670709070594414 -0.033161236601208496 0.18566755673938523 -0.09625550529751256 0.13289461110965706 -0.13084392320727128 
-0.0631487722142126 -0.18961884443848945 0.08440913067979354 0.058944019162519234 0.07541403344987843 0.014779736745713213 -0.019228038153261785 -0.1331248749813969 -0.13749427046003024 -0.05110655079402136 -0.05777878611413777 -0.09151756788148632 -0.01772933006156172 0.1626885724717733 0.004307249218286587 0.17302444559764565 -0.12211213241000222 -0.1411497792604727 0.0056257594004095355 0.10568205087706561 -0.030479950443483738 0.040241389853131776 -0.07332725645990543 -0.0010752401278800935 
-0.1362314713912353 -0.11631352096067135 -0.09546316552664792 0.13135134761729464 0.11289642901864151 0.02047853895122675 -0.024169293570269826 -0.14277366719327317 -0.029745060438307245 -0.0812872710571636 0.11698224871144916 0.12058043467137214 0.01567234889605388 -0.10778387410849949 -0.011681867644735233 0.2681503237671505 0.12933853039383109 0.08612202351024503 -0.14022075702841344 0.07444468586659397 0.07093563889207757 0.02445963796558481 -0.09378626028063458 0.03955946146739469 
0.15202739339817004 0.12758982263192098 0.03159624722480852 0.19637534237287085 -0.17578478098913464 0.19910013527858428 -0.22387705437312838 -0.13971472892084025 -0.042273717907940454 -0.16813180323948945 0.02262988909468301 -0.2050481364791143 -0.08221183065855442 -0.18520924685074497 0.08147557973183228 0.07382257366521915 -0.05853077067295117 -0.12536640933051074 0.09906083755055294 -0.10239935471815696 0.12565621383812714 -0.007290443270389955 0.022652553686206906 -0.19065777007477072 
0.024298039887921938 0.0074967885052012306 -0.10870473448838192 -0.026306886757259368 -0.04687638260202117 -0.07785026783003025 0.28518133327794115 -0.061566209161849766 0.19158537071764273 0.009869623212396032 0.23257643417754884 -0.13528383996651117 -0.052049209032142434 0.11417633011603508 -0.18448188114347197 0.11965492042298995 0.019596439962546338 -0.049324584350023355 0.20033312004174175 -0.1783992417817863 -0.023378343304390158 -0.189587456032521 0.10256596937827503 -0.12851027935746687 
0.09660110260316454 0.22273199291572038 0.11877855738649112 -0.019147168934514864 0.07334090749726496 0.20239145644208895 -0.03184442612916449 0.00012352969742440608 -0.26968635538278124 -0.052118865471744366 -0.14409730537191473 0.13015794013023438 -0.03540391818463409 0.0307175687191224 0.1476766047849402 0.046157534416882896 -0.06708718539788311 -0.09262575575830279 -0.17280466389649668 -0.03259674075481137 -0.12898678648947182 -0.07853067897554587 0.00834386549125256 0.23957362651535297 
-0.15750949961031782 0.06725057839281025 -2.682129672967733e-05 0.11126258692860909 -0.1435319144199154 -0.16822110868333076 -0.0455967314440216 0.18591155514360377 -0.0890630640820979 0.10638792808941165 -0.08397236497132775 -0.17294619245308987 -0.1954954467471034 -0.09398734542537074 -0.0474321345464326 0.021419295568142555 -0.22779415037697356 -0.1703436851168201 -0.1955528609856106 -0.15570537053076405 0.05123669896794868 -0.03878825014246311 -0.10947783398764399 0.0230333426427848 
0.23697158022483344 0.05562372544395353 0.07990277381890729 0.1495706407761999 -0.18604372933137467 -0.19972292907013858 -0.022523878183769858 -0.028072537946652733 0.17130585583290628 0.01624395555503102 0.0019670300949042687 0.21948525873177743 -0.06156370087462536 0.1511259217760487 -0.09882325865180486 -0.04614196232500005 8.348702027656822e-05 0.01890830026391738 -0.11238825612239187 0.11049268769791915 -0.08599859549588909 -0.13637552443093853 0.12256954322828888 -0.05630262603307939 
-0.036144519293742954 0.11001944158734492 0.010246163146693858 -0.19782443559778254 0.1507706724657462 0.13821790703707662 0.21985504287397273 -0.049437426608542126 0.09193514514086777 -0.06416918227190094 0.01649870327216478 0.12676133663156733 -0.011724915086911288 -0.0017860263817012373 -0.06958407963740726 0.039685045352066725 -0.14255727215125005 0.14353303500528145 0.10096598485253983 0.10590088333359357 -0.09452720921603638 -0.13173097246418458 -0.13306820624374105 -0.07125139975360258 
-0.18711757354128813 0.1202782606855922 0.06810079166178415 -0.033737313713550536 0.10748529772956938 -0.03478656216361007 -0.18598986962727304 -0.14712884532194498 -0.09781651334240894 -0.07305821314102674 -0.18088024222495377 0.0029749795938236946 0.04496855918855856 -0.004264602211108295 -0.026916726247669213 0.11090163830106581 0.0502348196731582 -0.19603467700101274 0.15033865375916527 0.041599357669432596 0.10236868896298272 0.16534753731567153 -0.23084209801999464 -0.10632498119069951 
-0.1763572284304111 -0.08112502336926426 0.13503936157731466 -0.1688675316099307 -0.010678027119306353 -0.17292979076271928 0.06915683413357028 0.10538212831625265 -0.24267540073064842 0.030403462985340253 -0.10456551318496404 0.254084192442741 0.1439434086558361 0.0931160127202141 0.19040130395855026 -0.03343219417256689 0.18513185809382962 0.008425291387618985 -0.10602376081346364 0.2291773444708376 0.11730293983234158 -0.17571444376393694 0.1138938758480287 0.09904562497190818 
0.059647497898596406 0.06363706346546263 -0.0988810575828332 0.06258868023973126 0.12651111064801407 -0.18354585509260504 -0.148877206879324 0.13377356229212065 0.06830558308082396 0.012428001454496075 -0.10096661289823754 -0.08252748482045401 0.1509548225289356 -0.07948589284473236 -0.175911735835617 0.18667141916615926 -0.1318512573299579 0.14010467490497683 0.15389371591203663 0.031019732948378585 0.055240560197465705 0.025784541980340546 0.051138863868337416 0.1770047950813607 
-0.08339019636883403 0.20981732596114314 0.026935059257431546 -0.15517131431989115 -0.10959893235915762 0.020735382489703358 -0.12425971070549682 -0.14850769584348633 -0.11519227627799626 0.11023364924648843 0.01058340095451352 0.16420315552991094 -0.07395087079353516 0.017380827680429128 0.019568252599436096 0.038542162611401226 -0.19073274606242893 0.0862941776156997 0.17353166725624738 -0.0136663988261213 -0.12359216235836024 0.06314990373898988 -0.21035902464091724 -0.0686621410180802 
0.2553502925434618 -0.01494998193124632 0.1430412385337209 0.041722666823655497 0.12975050317036635 0.23137795359604177 -0.009347912392250649 -0.1519631058871909 0.0197252229581271 -0.056318254202336236 -0.15041875964819876 0.11078960334311078 -0.18754630538707057 -0.062310509462331215 0.12486263182330937 -0.12728805217483097 -0.16122533986067028 -0.19358044455593837 0.20133353942206503 0.032663137227057076 -0.1745323207908747 0.24236214640065207 -0.05911988406965338 -0.018009298239785174 
0.06893506282289939 -0.14636780996357462 -0.07792076023123505 -0.05121392311290205 -0.10252377922734027 0.0547311486163217 0.12937897861968375 -0.17283121995359665 0.25158758796951625 0.10151823034622973 0.1772954019980345 0.06896732507976103 -0.1695076045112086 -0.06408998464828286 -0.021603775730807396 0.11044546755193987 -0.015504176125056116 0.08179618751264872 0.07265151021698382 0.139885529696448 0.010014006234043351 -0.14052420985526284 0.15436883243272434 0.04911592542688716 
0.20812273098552334 -0.1118117274290503 -0.13005297938061564 -0.04341669620502635 -0.07176081859407486 0.16991899619610606 0.01419988278575609 0.08599956699137742 -0.06182014569299194 -0.16157546444699225 -0.15519911745254658 -0.02739313355976777 -0.12306681231117782 0.17232615531272671 0.03970608532999094 0.1131990891113851 -0.004290336570532451 -0.16618596153577106 -0.10632264014196302 -0.00912723765813508 -0.12113793172791484 -0.19189598599735183 0.0701578939347309 0.08668598962111548 
-0.06780208142509271 0.12600363704730957 -0.028479102702091644 0.13835775554346239 0.055489614762326785 0.0380569160437532 -0.12026960332175686 -0.02907538649585945 0.17007159683375409 -0.07803951265072144 0.15271350513090384 0.1914530051981962 -0.06802242772932643 0.07078153444071542 0.1610279460328305 -0.20985730057670593 0.18746246579073308 -0.12429039184435782 0.14082992205333533 0.05552250467135831 -0.07308881015238294 -0.14036319716138823 0.05479651370777251 0.16497798887419976 
0.1402015272690504 0.068583064682432 0.19200388771855756 0.035819276401235535 -0.12144639835461325 0.029711778030302723 -0.07494754082176279 0.21992817906091586 -0.05657655342743274 0.2227456841828698 0.007464716711231909 -0.14430076861266816 -0.17175502250815292 -0.056850929401219774 -0.15177352731633656 0.06348014932721938 -0.046578548781883486 0.21261209974580766 0.17361089806508315 -0.14123573882474716 -0.04500269654412428 -0.05593145910760806 0.01715547688648685 0.12243198641932612 
-0.04940762492528267 -0.059043204874053457 -0.09541487578847448 0.207244808061952 -0.19321250661505518 0.1399590884976572 -0.12525488174623964 0.0077656003341258426 -0.05851104572134136 0.22482970741765795 -0.15203771605653912 -0.1267895663753387 0.16284517960963346 0.03798972915860023 -0.07632402891642599 -0.20205354936108305 -0.14506780164956745 -0.1427989498109206 -0.11916959094608838 0.19770641288142698 0.17403793308091228 0.08728591225898123 -0.017126344089772358 0.10397224935624502 
-0.0031105692221933506 -0.0479931336420411 -0.08991132244019512 0.20599409101929245 -0.04506367438585527 -0.02500161740496536 -0.11374510225788881 0.19083975765377093 -0.033013702972782534 -0.08103388574340148 0.08879412000203125 -0.1556754766462718 -0.16366580638245373 0.11614734804147003 0.09789895302398345 0.013856592606340456 -0.10897273950766947 0.0044380177071261335 0.05523286670386102 -0.06893870134318215 -0.17465793840786545 0.1456669700030778 -0.010841951527134823 0.06270775852842304 
-0.09869897196573024 0.06982663283977013 -0.02833826477899468 -0.04702346351107115 -0.1504278775102448 -0.10259727143741815 -0.16980222591516314 -0.09784466221722514 0.12798860715712826 0.03956308725071822 0.059333505536259185 -0.24514538345669712 0.06186470673111115 -0.029512166954722387 -0.10801367861650572 -0.1740489272364823 -0.15763496376956584 0.1385836686911798 0.1952099884312448 0.19418238454241368 -0.060970097394849924 0.1057202351344206 0.047392325589408715 0.10949136321352178 
-0.006459089553949116 -0.07630234703808514 0.11538994224176644 -0.16125063477616086 0.014703929892251255 -0.00814004297580742 0.0186760351310356 0.08751367002879636 -0.16239143291014793 -0.04266596205268307 0.057805966155806875 0.17988282713522097 -0.04230102638063015 0.19976088471118464 -0.038250028151314765 -0.14659001650074283 -0.02399083478759406 -0.06618047639786419 -0.11326509781267678 0.23011085579603205 0.20011090521184302 0.03937977142670351 -0.006091634825323926 0.01668028618721144 
0.08090301146371817 0.1825927420748952 0.12920208673145428 -0.1338148254314898 -0.09495373042574223 -0.21786788926691783 0.20386482106055603 -0.105792834871841 0.04582088705240624 -0.16558956861749347 -0.12853386423590055 0.010264689283092517 -0.18413164138356095 -0.03910790021919467 0.005705739750982125 -0.06296330854251997 0.020752505633819775 0.014608879261654158 -0.04361247474364021 0.05352207102681227 0.0877132856845507 0.07805493887392859 0.020520095331081196 -0.06432683117166768 
0.03881249815549665 0.1830160348175139 0.025792579841704362 0.2166585445744957 -0.023464659351216978 0.10233962250659014 -0.18691592620769434 0.1067250753477379 0.01942645927087326 -0.20018144186484285 -0.10306544906748433 0.02622642944484385 0.1075558367712621 -0.20501984631385237 0.019501700808369306 0.14417630786054675 0.06512665022614628 0.18353404213359104 -0.17169055297379676 -0.08384587588615385 0.19671089929366126 0.09132668784815538 0.032020366904806655 0.11929051241104244 
0.2124440526498977 0.1718961067627779 0.20175942624865237 -0.14514678979678272 -0.17340697351592066 -0.17220870178031053 -0.1963058245218135 0.1721220851827452 -0.2143955668108116 0.12422644480904187 0.039243426244454024 0.031236415763337178 -0.06124136043961034 -0.03249253756994721 -0.09871911651169778 0.22061941800955095 0.06579401885502302 -0.1917113232302351 -0.015289749953985243 -0.08760763219915421 -0.167113016315325 0.2030358788619647 0.08038539212642576 -0.0680665169435002 
0.1533729659130806 -0.11965249696667574 -0.07687420152522868 0.16249951079451927 0.2549319590676773 0.06021222785638444 0.17459113980061836 0.1463268400625762 -0.01584337929733385 -0.05077479901492394 0.09101966554589037 0.0052235803420323775 0.0005524007960091063 0.22411960625093877 0.1099712056344106 -0.06801973413103837 -0.2190836825292839 -0.12670448702255907 0.010663643382071535 -0.03300994716662839 0.15591250792094657 0.20781739166582341 -0.20395128840004198 0.1820786909594014 
0.1848632024270394 0.1857150906664015 -0.1868097262305566 -0.17871872295560612 -0.19998371028309597 -0.07493880179436188 -0.1794917494795909 -0.08253275438847736 -0.05749403658829816 0.18333756281744776 -0.00915171805603198 -0.08884577110787105 0.0011920236671421529 0.05724264944607792 -0.15674798262158304 0.103540980629777 0.14171774932298573 0.13857953258156586 0.15746442441519307 -0.04712701453160499 -0.022348519872571686 -0.16069972842581895 -0.11008354273215304 0.1905802782122761 
-0.0355398340196241 0.1144280021207556 0.157483007448162 0.16013483883477062 -0.1384166978955371 0.24080839251809344 0.03559143940581389 -0.11624635603854455 -0.0822763282908802 -0.1368802857259588 -0.027292595492887907 -0.11629331172968393 -0.13467989543937553 -0.12170516237018777 0.07643443718828748 0.10088204617130515 0.2097836217897843 -0.05111409509665078 0.05172064117492799 -0.18821840401488246 0.006429460242413272 0.2055471647861802 0.14793155225550642 -0.19830801403850723 
-0.0991230870332387 -0.12045157771730462 -0.182839215149543 -0.19818489508945242 -0.0038904081731855806 -0.18368257174492486 -0.08880951087683163 0.047334214550533396 -0.10790676072280107 -0.09231720763687817 0.0360686405729656 -0.035682470160929756 0.07194544010007235 0.0007120593942861902 0.05316632190784254 -0.05854785882491097 -0.08528693352587652 -0.1634546773487553 0.1765309662241561 0.11512689227866182 0.20997472589990138 -0.1265112303152616 0.17621540099653213 0.2100388192938306 
-0.08670098761621964 -0.09030311289456278 0.020449502468152903 -0.1265483749669338 -0.023028115956767913 -0.12653681610126713 0.18075262426534125 -0.0024498694802218626 0.18754059153671024 0.05787908857833904 -0.006225191299785545 0.1890915425486011 -0.14370213564886844 0.052813265975407066 0.06469436971891368 -0.02632426890570002 -0.17799144162330394 -0.0028872357487153715 -0.013851773860761345 0.12330862023472706 -0.09757625265817055 -0.04328398206730705 -0.10425692878169249 0.07458580432574279 
0.22459992982430574 -0.14498717406973272 0.1292899034570212 -0.10798118156073047 -0.17855785814627206 -0.15278838482423074 0.18584918479023121 0.16413848282460713 -0.09417761237254631 0.2029077649689461 0.13610562174082128 -0.022463433993449012 -0.012691624438938258 0.06566353854000866 -0.13764940066361747 -0.19629008473332374 -0.09695441019973369 -0.19601819127613387 0.06977181969192232 0.02046435495158534 -0.07288223343095901 0.1342863664816689 -0.15817276014884016 -0.10234844223885976 
-0.08315819888641537 -0.1456150148501145 -0.16628215644071442 0.1406891707294061 -0.16617983601518369 0.04982588967879506 -0.15300645852519737 -0.19796843223444782 0.03501478670429789 0.17054851248935046 0.16863530467388538 -0.08138158794833042 -0.19120485647567173 0.12378142425174399 0.12299877501696788 0.15253975898494132 0.03505523456658395 0.11340533894751749 0.16032333925508457 -0.018352811773436555 0.0229987675112844 -0.004005271354596397 0.09485578581634256 0.07342112102322439 
0.008064503649037201 0.13214887225451882 0.002292740837966085 0.13067896383333974 -0.08738782588326077 -0.12931368827201797 0.18998482726682053 0.09700959157128777 -0.09630868779832921 0.032345520075277516 0.18398802438655606 -0.1692238325610593 -0.16808534546363005 0.04751888269155434 -0.11061656943161077 0.10642872906425292 0.027119576871298547 0.06642502700284794 -0.15815099553216047 -0.16777873697129442 0.0499200717557273 -0.03595752279664754 -0.1665630396363829 -0.05145096658601625 
0.0688234507099574 -0.12479966217426137 0.15959978459323085 0.2157999990987661 0.18084814303736624 0.09221091750954157 -0.04675868589855549 0.1250858821506877 -0.07753089281869471 -0.07423879437633506 0.042213050137635565 0.02586202027036134 0.18543518236304424 -0.12552400445498688 0.09861267596268036 0.178442847754368 -0.240710842062978 -0.009494306923029366 0.06274372796366308 0.17055354635274583 -0.1562846083507165 0.14121464357526975 -0.05414014162242789 0.155103396635735 
-0.1909777605875024 -0.1786017719016648 0.1947253634498141 0.043657521366499114 -0.032798114346744824 -0.13970923691874454 0.06378512135074085 -0.1871740588173989 -0.08696072351181051 -0.07058640744849319 0.04283217033508445 0.06923774354511841 0.15037558148351968 0.1729232002261206 0.06411866272892738 0.02900822155136763 -0.04077132713254326 0.19849509361449927 -0.1392607869060599 0.17027434114148587 -0.07561148805802528 0.019756152980788793 0.07840516302105302 -0.1057581426613885 
-0.13369472051628833 0.005584230546801565 0.13630855633211758 0.0999161300257659 -0.15358972672477225 0.1605260894473203 -0.008044155597044597 0.2146838928426824 0.04127771783946387 -0.16756633828232448 -0.11956415305641016 0.14084862399771722 0.10008853480123228 0.14532869498333986 -0.0683037462521528 0.011120783095295584 0.0532261622407099 0.0027857896036308782 -0.1077887490693503 -0.029126527555230052 -0.10103924594279014 0.14750423064438176 0.22987281924413427 -0.17503438848601396 
0.0856796545189993 -0.06791330131661821 0.050046180872319684 -0.09698158371264137 0.06031748756222932 -0.05141755864719089 -0.08214574811930027 0.1661601136799415 0.17875250304496307 0.04527981854888788 -0.1146868149093251 0.17748964419640464 0.1004578550832714 0.10071563097089675 -0.11580230469254438 0.13283653648084792 -0.10428816624329434 0.05252858522151673 0.08439148556387159 0.09718932534213294 -0.04375103007263828 0.10425595741595402 0.16254768107303078 0.0348181479275594 
-0.1652707186469162 -0.1861618152272906 -0.1591942597310484 -0.1316619533441488 -0.1505432516205503 0.053741316645788656 -0.18617392454991463 -0.10369498532417104 0.2455044531182004 0.1501560035618271 0.04202304692839025 0.1321991149074459 -0.18451582785271667 0.11854254247355084 -0.07549735129324432 0.052221570216557774 0.051038718168038476 0.13148126551610412 -0.016472462470053306 0.273289627993402 -0.09707740649208767 0.11331572047834594 0.13365291066093424 0.19638338406177763 
-0.18895229758589918 0.1532863498431319 0.026082421603659513 -0.0030057292815804694 -0.09654089357822809 -0.0692362621931309 -0.10049198624017072 -0.11273770498588793 0.20067473501688343 0.0009499600948854908 -0.16822632835914278 0.05565085820116676 0.08397551777572512 0.03630774308515291 0.006109787312351897 -0.03987345823846416 0.1569209258876886 -0.19075971968686373 0.1747617276745673 0.25039985764436207 -0.06257289516491221 -0.11468799659516203 0.12196806505207676 -0.1295263944408133 
0.12089475303331053 -0.1165817940230882 -0.08376710869908305 0.19473982069760631 0.16253987951375565 0.03450352231800961 0.1540767361649325 -0.05889425185357509 0.23080620955581532 -0.02638417538382401 -0.08214932884625592 -0.195396303055211 0.21522999403840418 -0.026327060980641633 0.09403263675812429 0.0692167015794101 0.08865045362628908 -0.1813733025966741 0.1695511718083351 0.194666306524695 0.03178180602592944 0.1896457748294472 -0.1093583151007826 0.04071130080938503 
-0.04126820497444949 0.12695716883513194 -0.07979966100482708 0.20805384141193448 -0.17371678139818594 -0.18516176897523054 -0.18207662999637056 -0.14073859619282902 0.016721747214463168 0.13369087780565245 -0.15693203526800278 -0.002718126096475166 0.08114362602219993 -0.12892872928995425 -0.12129741366937513 -0.11219932056214979 -0.19863509919736863 0.08537093945641726 0.06145655140506499 -0.022362638665846507 0.029226611239723 -0.15726704146221665 0.2613805802325147 0.13995634867649315 
0.0635464708689568 -0.058550783804679846 -0.033224092874479146 0.0020014451343590323 0.1757945172497901 0.16315985667887728 -0.02074129726182391 0.015028172102774446 0.1897927700283929 0.17304463842114817 0.05556603260581092 0.0854008818055824 -0.0649701351945328 0.13949700070168236 0.13552355610140393 0.020698354885186853 0.18104508089159962 0.11149254180980751 0.12398562163390951 -0.14880283135485564 -0.027561064163146277 0.15473237062337006 0.14416390423998063 -0.031566779569047985 
0.18634921296520884 -0.0890776379514019 -0.06650621905165506 0.22458351047329328 0.12410926860936698 0.13954545921538788 -0.1976023268285568 -0.04796031631639771 -0.09204129731231564 -0.08169587267152184 0.09541293333858984 0.07472179634811775 0.006638073862299867 -0.1037811603985812 0.03372716493521832 0.013390835435845919 0.00760544669530526 0.04605228983771975 -0.04159437296978097 0.12225063180341016 -0.0997866988111304 0.03321663108167498 0.22440224155823751 -0.2009059323612648 
0.07019232190379895 -0.15230267300415895 0.017403717990544097 0.05064029537005406 -0.10313208395791298 0.15914479149976898 0.06950370002717349 -0.10769473874257385 0.13654713820657174 -0.1590942543616143 0.02196193490168071 -0.19213776903986426 0.057999542390587785 -0.11889330916960102 0.05969799829935634 0.0890976890678127 -0.011690462161670655 0.05468250309174378 0.12597184665486724 0.15014229770397594 0.0348223645256325 -0.023814561787721344 -0.02753243867544755 0.14739657415258936 
0.0546443354014559 -0.13644723950977805 0.02615342976907609 0.21349067477487962 -0.14064277532108058 0.11481187106594343 0.175769553932673 0.01974624403284709 -0.18692414741323915 -0.14194278737170182 0.2199227450794668 -0.23484596642963498 -0.05087513739322779 0.013799817679770144 -0.12180612259703996 0.17768713475780648 -0.2022202140197714 0.015767680494764284 0.047068359553112595 -0.10798061794105786 -0.049268226332601577 -0.0035675852025090584 0.1530835677790105 0.05359653504913812 
-0.01289035773214797 0.07202997728477228 -0.018533099297407762 0.010210227373710504 0.0633583315158829 -0.12821442273873834 0.10321377164896524 0.0171958251535845 0.18359728890538662 -0.1114730741232788 -0.013401090350520952 0.2036653569480164 0.04042571641362513 0.1288488307902773 -0.03438219428974316 0.10944877067228631 0.2028683038397984 -0.12048969262095541 0.1235601478197374 0.19808569717692964 -0.19637777513480495 -0.11438556047453775 -0.15424205439369348 0.10733705956049076 
-0.16903436085015566 0.22231722499158504 -0.04401256544072988 0.23467189037329556 -0.1252104551652676 -0.023518276800535993 0.15596673866331343 0.04774841298272809 0.0343076785224711 0.005020018914305661 0.029408860759861957 -0.031575600094850526 -0.12318426663517142 -0.18979962648079307 -0.14042340471575646 -0.18080722485781067 0.0512800965438672 0.12514237740139572 -0.05624731168993732 -0.17145319036419499 -0.05271951443581497 0.023650572415444472 -0.03006941534563281 0.12492521386972553 
0.17850129685108934 0.14904929149699822 0.08166944681313776 -0.011796802561951727 0.07307583541037914 -0.19685062339740053 0.19516409772273877 -0.13192671811443285 0.16390796443544853 0.1234562896477529 0.1206221145503426 -0.09260794033407245 -0.11278403017061266 -0.02833605548857125 0.1406676895790452 -0.019727624498716928 0.17585040331181306 -0.05883526035191181 0.0476220790736841 0.194433027086829 0.057284680097125056 -0.1836759776557443 -0.014479354459851365 -0.06604684995416477 
0.0016419034248591137 -0.08332271831589386 -0.15224642518362325 0.06727086377475101 0.0725364033395309 0.13449764482524157 -0.14811336448178591 0.14347079716391545 0.15519272078718066 0.051416672077443895 -0.11856473532948626 -0.11610631772461477 -0.023678349894053118 -0.0017735310877774915 -0.008958123013606286 -0.012926230491220603 0.12298850472135314 0.1487814476194967 0.1273798274502624 0.19180976336294114 0.02166670574351678 0.19347435853614708 0.055361812908068415 0.029885146981754464 
-0.07227140458270238 0.1598906857110598 -0.18102267900797997 -0.14722954997790896 -0.14898684205368556 0.002454489019790578 -0.13060113086534275 -0.06347305067536622 -0.12124292225767724 -0.10686742497370497 0.2841093332549922 -0.07509787397308339 -0.14048596430249405 -0.06501073198533959 0.27674681161326115 0.08159057002635867 -0.12922176503838947 -0.08657045307307518 0.10502808094303462 -0.10413039742873118 -0.09855975890081196 -0.1678592718526379 0.2389174278490595 -0.020716373677799715 
0.024578816378060177 0.09594930616626984 0.11913817119722965 -0.020872147478332877 -0.12702109171795142 0.10262577819414187 -0.18962815767961044 0.23885767689527299 0.07041528777181878 0.14303893841655896 0.04328229930828198 -0.15066801136104477 -0.07613573091228171 -0.022978264973129832 0.2465565062407653 -0.126871320157713 -0.032521400923194804 -0.06241047864973772 0.1082707913868431 0.17169593686298906 -0.058074327285024555 -0.11888970485941817 -0.17482182207338967 -0.12111485529613368 
-0.09120637246516734 0.01802371371227026 0.16541818183562684 -0.1498081217513473 0.1960410497170926 0.06400379696407789 0.11044169234844999 0.21743455542291945 -0.034587193678173894 0.012545623098268188 0.0659190074049252 0.001837812277623533 -0.08041316808911832 -0.1591443102723859 -0.08614022778794266 0.11554682931453426 0.06855364328374773 0.12075352862454523 0.0067957600630566386 -0.10753032259122394 0.05394512628092246 -0.0784383623440119 -0.2023607908800089 0.17332012157697613 
-0.03170410250683645 -0.030839920074233928 0.11401984059188608 0.21334234773182578 -0.17259837570330255 -0.16164361635885244 -0.07103836635421897 -0.09480516687549777 0.015601586197681086 0.13051652227894195 0.1425444188216849 0.026297681263428525 -0.10496847854858941 -0.16857256678733154 0.09759710740645448 -0.10545628938169485 0.004126239573221078 0.07052264260143568 -0.10909257510154598 -0.13093966386618688 -0.18604086439945072 -0.14737265274996408 0.1699741219643245 -0.1594505083971795 
-0.11096090944320924 -0.1889057614289127 0.0705202643379387 -0.10769131105270632 -0.03441356281716633 -0.14528887195096135 -0.04898196942842316 -0.02109116966915776 0.011678010346761983 -0.030716228952218635 -0.16021910791595387 0.09768863562362112 -0.14614395669059382 -0.057140766475665315 -0.09138625662436496 -0.0796480434823104 0.050714733097406484 0.007060430766673781 -0.12459641069133554 -0.0030325682349434157 -0.06411922751923382 0.0674383420079871 -0.10996655828231139 0.12315444537687588 
0.01041622481722938 -0.06249549384518526 -0.0987811137981498 -0.1261958269952525 -0.011192187171046534 0.23439727446923947 -0.15844059905208738 -0.08673415947829115 0.06187635220341474 0.14340545086361597 -0.08863555671657838 -0.011358977505746055 -0.058143665753060327 0.09807640347259575 0.08786634296348335 0.14390210475856777 0.14995433149510484 -0.04430957920116249 0.17187571221445588 0.10943917908299092 -0.0770762895357758 -0.0698793489441786 0.09857950148852793 -0.15068718325448305 
0.053267325790241314 -0.05725259942518005 0.1316325460193542 -0.054076706386284756 0.0935393961428291 -0.11351616135662869 -0.007365323500406642 0.09803092504998875 -0.08104195509555413 -0.13620568722521023 0.05950318368944552 0.14764346874787548 -0.08805576270935594 0.015354207828963833 0.15625891541918768 0.20010181575604505 0.08589506466017324 0.03621028108409218 0.12763552982054846 0.15550504000854265 -0.20133660239399984 -0.04096181898288238 0.016360796344591817 0.0937647998961776 
-0.16647288270240687 -0.03994990141943758 -0.08828676953684862 -0.03044924766622519 -0.0008017441201174397 0.06394060709999633 -0.0014930092208630804 0.04805361586902774 0.03282697834047919 -0.028523061187607106 -0.20032132344245654 -0.12279489311681561 -0.07190509257223877 -0.14215667954040143 0.03931691911012888 0.0444579794796362 3.6986355719067356e-05 -0.07164626960963096 0.061222432314516885 -0.12451650635718861 -0.199949338845996 0.09417710834907005 -0.02246869400884788 0.07918375842654221 
-0.11335218976454234 -0.2720629508778061 -0.04862444663671068 0.12360669181301175 -0.16019383066814555 -0.09977111197809302 -0.004122487218481398 0.048031604465272146 0.09810072483467432 -0.09644094832137767 0.068807624827558 -0.0233352504362059 0.06570385021330198 -0.13729830997223005 0.05283083155212437 -0.0701587259010446 -0.19679603044752825 0.03491181994864867 -0.12700065509856043 0.08651626953728644 0.022947823977150294 0.14558668435166064 -0.06552694773895837 0.2415499949316795 
0.015242546655843596 -0.02388441993021643 0.09002223453945121 0.05715744087668052 -0.054903256928649065 0.028067605237748393 -0.12286041794618663 -0.0855938690273083 -0.24798098258806514 0.006387103801779201 -0.0725732318650099 0.030531730943062853 -0.20343421578945825 0.04717554122887013 -0.08288191068551762 0.03834818245092957 0.06590989448582957 -0.031082884741187276 0.06520486663601151 -0.12355326795324272 0.25267106661093314 -0.126797258133082 0.199901287695294 -0.15579946753260532 
-0.004777506464428108 0.0975048027749108 0.12078605033174862 0.05680132649407576 -0.03809891994437784 0.19777748142261004 0.08138158776394988 -0.06102565650095137 -0.09490603231782457 -0.17525374913437275 -0.10163657628930531 0.09574571118187529 0.10565037343025308 -0.0741600750366022 0.05577750082147715 0.12885630183357566 0.09852165012813406 -0.19012711926217749 -0.1422508020918774 -0.15470678260330425 -0.10965578586660385 0.1514044406301887 0.12742125936408405 0.041610110676296545 
0.01715540400447634 0.09248349128335999 -0.07917441323171376 -0.05318991066327572 0.029829952246228218 0.15758573448317142 -0.11991631008663252 -0.11297237960729961 0.07225082395259465 -0.06356421068879858 -0.18280912755570575 -0.11695980075748796 -0.12305986127706214 0.03473967576190611 0.04745743237010615 0.2037508442129038 0.17236305176468336 -0.07716532692719172 0.10164361006307272 -0.11050470830874652 -0.05244925547239933 -0.0829914844450903 -0.04331856857841034 -0.1145861326304657 
0.0034460431189354264 -0.24427014789253337 0.23508318799807315 -0.017429202792316485 0.18692637468646117 0.18263029540395959 -0.12977555895612966 0.016052719967044896 -0.012199076407192188 -0.09416098450139267 -0.0015555076674206765 0.16898361322280425 -0.16892974915318248 -0.14200045664341743 -0.10430928207615608 0.2084961512803209 0.19114838009890903 -0.000550126928496292 -0.1479394477853753 0.08116906083417763 0.10458443594727916 0.15965842892919752 0.07346679450214065 0.23654484264858536 
0.1277249078808117 0.07669604609682891 0.05705573527556574 0.04956552187754087 0.1330313132613309 0.23364180236542945 0.14057064984802797 -0.10222956757489154 -0.24920455458015228 0.22090370226890615 0.033319130227670274 0.08966486076055571 0.06859172714877773 -0.15938130839111958 0.14941894428514152 -0.14043215191953212 0.12452909189327091 0.06673427027376844 0.047692976510224354 -0.05119749436403201 -0.03363098664570846 0.05039669965832425 0.10452648504823814 0.08776258166189514 
0.16014076360614815 -0.0632197317030004 0.19091649232935898 0.09724561582998012 -0.057941708956242594 0.1647202049810442 0.016937296239508095 0.034339322372760245 -0.197269977887951 -0.2295004733503549 -0.15159298294115742 0.06037837796961532 0.1330956381410037 0.011062733461751706 0.05041670161958924 0.16912952083092833 -0.010607091658184409 -0.22178494539852117 0.09818159590232742 -0.10107861493841536 0.032840762313291326 -0.13219657416578176 0.0872658409604433 -0.11725436940105921 
0.01983505365383579 -0.19602715481649732 0.1953945859048326 0.0600714577469569 -0.05484279894365823 -0.14225057734804009 0.07095671380299357 0.1969292422300208 -0.06417804540717459 0.10695929220587445 -0.08510344482728913 0.1865316145802493 0.10727467406310867 0.03866110251992962 0.16666220073714955 -0.11948490317043717 0.16768723402990823 0.07121583271012524 0.108934993671201 0.050146033960637285 0.12849046350531634 0.07124601513623705 -0.14230737022354595 0.03450066743457555 
-0.2065465024306646 -0.04998413317251506 -0.2939736057797024 -0.13851224945070814 -0.3334010517330276 0.3377556641875866 0.0317664116662309 -0.026310899797662723 -0.3295288216385295 -0.0445475431115807 -0.03219392432861783 0.36739728410178474 -0.14269113625056215 0.04539790421071917 0.11305045219470854 -0.2168711663150525 0.003897552583858225 0.18359080727994137 
-0.2722964166525289 0.07227847176165299 -0.3998676145586167 -0.3573463950349415 -0.306105376302682 -0.012591933837720285 0.3462981911928842 -0.020132971805476615 -0.32084198693593147 0.2601721391541873 0.013065276877971793 -0.14712868462693401 0.3254010741458156 0.34068595971055937 -0.1650325455409925 -0.20604137243620285 0.0605276653200692 0.27358140336912834 
-0.1777069991588965 0.058828877040951674 -0.1998266173852012 -0.210810690375582 0.17994347599697652 -0.2420945997296 -0.23820156452497177 0.17886297519652553 -0.33765976930497116 -0.31501802209783863 -0.14587182383036146 -0.10863251276031657 -0.07343815214251022 0.17661164174887783 -0.3228142712943955 -0.09676771186186199 0.09447270034395056 -0.3171309592491319 
0.24462532329351383 0.09950066514564353 -0.28208261706943144 -0.15817888151468937 0.16888214098064466 -0.06579684627458657 -0.054708021772077044 0.2642170890709843 -0.25101265460585986 0.3802957028146589 -0.31809387861413646 -0.3014831317816537 -0.19014936749121022 0.19895340401429687 -0.02993694703191128 0.1048097912981429 -0.22504972566736706 -0.257384376827273 
-0.018644578061233954 0.16525060561047272 0.004401614604627469 0.25599005424056887 0.1097600396647329 -0.17265998580837796 -0.22618653749965711 -0.06431482200067479 0.16876426988955068 0.32769992672620707 0.2505540599491003 -0.18958774726676805 -0.03416887725481611 0.034727636986446105 0.03178052350303415 -0.07550090099309743 -0.27644545850497776 0.09909757552184698 
-0.36330042600493556 0.25349548897563107 0.25683619867364255 0.17059523636208665 -0.009186704045997427 0.13660782580671485 -0.14501275940256037 0.27844595480121725 0.1897844936691145 -0.2085934086359307 -0.12483527519933872 -0.06645134609957147 -0.026460620696407578 -0.00665105183803748 -0.31876271735675277 0.10945421517485766 -0.2058731150401424 -0.11642165580259639 
-0.036604958775989 -0.10344320505405345 -0.09247315827473901 -0.2208435072616685 -0.30000848922201906 0.03479357089660667 0.10706263757546187 -0.23269700364812684 -0.2102554822276734 -0.16002648436869957 0.2286163320203378 -0.27370695224868147 0.05041817091240795 0.05157726185291171 -0.10711044108845635 -0.1021373717623408 0.3193302378411084 0.0405833891631554 
0.15893094085625978 -0.006264010877132046 0.03134826510454009 0.02773542340183101 -0.24556436867806195 -0.1131550192335805 -0.024358543347549205 -0.3031950270236433 -0.09354060913932542 -0.2341507522151403 0.24040504460757717 -0.15514999500863513 -0.24524113876647505 -0.0509586962042021 0.12544653303457895 -0.3017858870404379 -0.22054619425835842 0.18400178794239128 
0.18726294822492284 0.08033454629671871 0.26031241727541415 -0.28489966104656295 0.13966564325422573 0.28966097776667704 -0.25302678158624753 -0.1676190690627529 0.017322173728768524 -0.11158506911244025 0.1307011653099719 -0.3187282277881851 -0.2395884376675964 0.15406771361281804 0.32750183729405274 0.2983649412163483 0.2782043733254701 -0.28851052112301867 
-0.31702851647720814 -0.2970789949568426 0.013498055958470166 0.3130083983858661 0.021546778758142943 0.19420231668179172 -0.2768971662071739 0.26970401673493094 -0.21584321643147214 -0.28288233000273755 -0.0534057970905372 0.09901344020483527 0.4134361390866173 -0.36229256037882296 -0.1553440392936094 -0.2738397414600389 -0.07470043088554504 -0.21450185423461926 
0.006932816034744637 -0.10376797059503842 0.33034723382296216 0.1972101794791378 0.2499233463785406 -0.25661436888436656 0.07644996537324654 -0.1863208095336499 0.25004161005275627 -0.3713302707778045 -0.27338943491895723 -0.10231110016485663 -0.0465430521131948 -0.1663128447812777 -0.2802339307626 -0.26421596352619253 -0.1247470833547079 0.3433275700211514 
-0.21784764775907633 0.17012593580640517 -0.1950634439670032 -0.36226240192757786 -0.3369751086579977 -0.24025819109028368 -0.051707191597361854 0.22504254861905937 0.14803349922760106 -0.10239363293655304 -0.014125434364714924 0.25123697247248455 0.2716424455020245 -0.15351493384552117 -0.34535905903439207 -0.31504126559240514 0.1635164958424648 -0.1825013418655457 
-0.004016055445359194 -0.2126091568900136 0.23063438499078678 0.03424712937177227 0.018400628049067873 -0.14548672077142602 -0.023780308199782198 -0.34482019490903826 -0.15299215996620633 -0.12029883610948798 -0.14835907366213202 -0.3084221889776932 0.00957665581658036 0.22350401239223322 0.3076136127881921 -0.001832338012529317 0.06384921727152733 -0.14940391217483887 
-0.27081937634487085 -0.2549419861983476 0.12322204187301214 0.14648450148378864 -0.22151527611229546 -0.05883586396661827 0.06063403752946734 -0.29250515548983747 0.1967614064497204 0.11613015122367491 0.07859250196517653 0.19925069256987749 0.4060757435467159 0.023875269964267056 0.2523240250471101 -0.05531015862560064 0.10565164134274178 0.28255581960442194 
0.16304779842049866 -0.13506094739533783 0.07734655506855458 -0.10165313134215105 -0.12168208985360564 0.07514350260169318 -0.22854951611538063 -0.036120380188704226 0.30976663379352387 -0.10819319757340128 -0.2147634232017388 -0.05107776703742366 0.21731531278048846 0.29700825692698524 0.22654324694138195 -0.3402296828909452 -0.1601365727270321 0.41823694230815156 
-0.31713553581480153 -0.006704506296224678 0.20668020150856325 -0.2655086293270988 0.11114147881153458 -0.008065017250475337 -0.2881478778385628 0.27338966097964723 -0.24818990556277504 0.14665200407372944 0.16562258625102003 0.10589979377650277 0.1538545981763293 -0.3230656401971256 -0.131619998278821 0.059193889073020554 -0.07124889061924347 0.06857767335031709 
0.2514817589235631 -0.21387916459785772 0.2938374101295314 -0.052288076007946896 0.30798654583485774 0.08007865269555921 0.16752611420473504 0.02121476372170922 0.005944200322917495 -0.08858774053737384 -0.25671048427662957 -0.038209670321864224 -0.17025302082232038 -0.4020411028514726 -0.1546692785318968 -0.2206538060382886 0.26016454576924897 -0.3605030876385878 
-0.2532846277570326 0.14000128145537968 0.29934061540196477 -0.171006378026527 -0.333243641150879 0.3203187838315298 0.09343604307659495 -0.12326095073501114 -0.03599579248690014 0.1278923764530549 -0.08610083104434578 0.34164662128905393 0.2263129960605278 0.285626881247912 -0.10182772276486264 0.3037677600130387 -0.014151688198918598 0.04976350080593473 
0.15648246756361675 0.21357031574756372 -0.07070249040523326 -0.035337074358212824 0.21914549308263573 0.14940856474130113 0.3017576365658516 0.3338826569863403 -0.22182212943352772 -0.18173989954578115 0.14831546716112554 0.18054134400174648 0.07794547209230249 0.25641058710800185 -0.17063497727614757 -0.10982966326196178 -0.0036200230818938736 -0.13648643602710145 
0.07246642449846286 0.1250402439379493 -0.22401837458544369 -0.007000010972064144 0.34339992851664664 -0.12043860404365525 -0.44276097548355425 0.1394242154315878 0.0022357904655085762 -0.3819260041660481 0.27059768266697987 -0.11704865228762902 0.2942717017266078 -0.0392533127805717 -0.29384380118061054 -0.175306238161231 -0.10238373313954521 0.2341404286966312 
-0.24664949404454975 -0.046921113457414586 0.27597480231798854 0.022996254419779347 -0.2752197052860993 -0.33095418113424335 0.12107861706696132 0.3729726011252599 0.1881914062025242 0.22376099605057853 0.12016759079174506 0.2731190643991425 -0.30709179690290556 -0.2153543651803119 0.13400423941671363 0.25413792398846113 0.11958522709003576 -0.28417100204655876 
0.3344697185253422 0.27983908925968226 -0.3079395192073494 -0.2517931090622226 -0.1544560122405839 0.16393807707981892 0.22513001998852938 0.05796064021398183 -0.2204003009452574 -0.05431805028405582 -0.2507196012041981 0.3553313406842246 0.23465441488868266 -0.004199895573249849 -0.03150161587964671 -0.27897578587954275 -0.12424057144599616 -0.32156081316951834 
0.21635601834794171 0.03045203608539285 -0.22839271028571642 -0.19518734343386457 -0.164768024707507 -0.13103994648850673 -0.11978964133833954 -0.20204738709406497 0.11367337485704637 -0.3312607251788986 -0.11770325240248694 0.21066015741439348 0.34098805539744426 0.2043111830617673 -0.17843283224678852 -0.18396323311034252 -0.21379863772879348 0.2669033359102995 
-0.22090465597182599 0.17773880085872587 -0.20483807748889435 -0.3120128637459595 0.16047675086076682 0.1554275607974383 -0.3932506045295938 -0.12816527081200818 0.3117038306581972 -0.2380989522412862 -0.28687744854328995 0.09497698768554429 0.3433128693443302 -0.2927978796359335 0.008805203374399209 0.1260949984475546 -0.22680128976617903 -0.3939131106162891 
0.34651340779381407 0.05658726746407203 -0.3161889774689679 -0.31314418343919004 0.09291627067799163 -0.24450917965126034 -0.20605389431414878 -0.2938596726999526 -0.24328932088202893 -0.0075511742265424175 0.007776161327796234 0.009121177673831844 0.4635204500809982 
-0.29949221310736834 0.2057379009523263 0.23647846521828514 0.06731175983403878 -0.02942270970034863 0.3184974925068358 0.26472723972052453 -0.36509579501829337 0.3761130097469736 -0.40077714133049824 0.057934705476754444 0.05737554501844374 0.2698238275053242 
-0.11793000535633485 -0.3450013538372943 0.02335760833537826 -0.42220504890720495 -0.12240988514580696 0.422797653978681 0.3357672851471256 -0.3087753535639053 0.2898050898804684 0.2302633830217068 0.3472715912659564 -0.22162766970712394 -0.017222679131027617 
0.2668449487750015 0.13357020984850934 0.07454855287219736 0.13018446684308482 -0.22866864763150907 -0.41617530012079235 0.1895421091690776 -0.1531831235235941 -0.10497821447400449 0.10106628779011108 0.12535791469685922 -0.23921904229081065 0.2846488113836111 
-0.0952717860300677 0.1048762021802814 0.3789593436029229 0.051285304085462564 -0.11239698963497542 0.09461075265802084 0.0014110172298868217 -0.03764089008361422 0.18625250810659502 0.3442095525665476 -0.016341964529638844 -0.3336637955940186 0.05516208644055951 
-0.20482305597199055 -0.37398622051565533 0.23187784528887107 -0.18215046666018136 0.2228176253481061 -0.009287701895760107 -0.14548514212003466 -0.14865181557794835 -0.3719550923368963 0.027155521914186367 0.2609237843592042 -0.33725082957901154 -0.31685724397674325 
0.05089642601829027 0.12048263350320729 0.1246693990585136 -0.197704809654831 -0.3741542544231939 -0.10865611966887359 -0.21197442085999632 -0.4679277687693544 0.13205240420128034 0.4441081832160973 -0.08649013055332941 -0.15977970615470186 0.08063909410695402 
0.23143739215823017 0.23738208400086952 0.11336064622320059 -0.021902396776981893 0.13385754137088224 -0.21188677387690563 -0.18678933511808407 0.28076499626800383 0.39969888899142564 -0.332929412336029 -0.16321657815074014 -0.40171689296999824 -0.10799192309841446 
-0.22800097983859088 0.10656420379674776 0.1678062794422435 -0.3043568788349401 -0.35668251762181485 0.3575164693940853 -0.08802398676840553 0.038525905109442385 0.37632707461510756 0.200951902119738 -0.1393314339486308 -0.3356338027850812 0.014406326472218484 
-0.14332722389780428 -0.4215669217125991 0.1889024821278877 -0.0725503751242851 0.03355920444119394 0.2535703548454771 0.41469189508285315 0.14048387665760143 -0.17147775888915173 -0.33889456677662116 -0.3455105790455721 -0.14406452891908328 0.11254415569308493 
0.15608961580236927 -0.23527020208812713 -0.33816077055507193 -0.15555224564480893 0.037601839402295605 0.2045133241097438 0.023401227863649284 -0.17059039153891056 0.098794970401169 -0.18860828563165918 0.12174963320002179 0.27600831468081444 0.11067294742598116 
0.08253020457463445 -0.12909389635463875 0.277890032455619 0.47811396996064914 0.1963424075934237 0.11271521134882115 -0.2859675558917941 -0.10893071129583974 -0.13523237388994797 -0.19335337073029102 -0.042742916238980154 0.08792075825321047 -0.3015967080334195 
-0.20633830803733585 -0.32394645629734886 -0.20520817669638405 0.021346231981028824 -0.03287152661002393 0.4594190895652105 0.4375714760314621 -0.018567158885390688 0.41019504971793114 -0.24588125264449032 0.03248161344546346 -0.03680023902013554 0.3876224588393423 
0.2886500343963929 -0.2817402530882036 -0.047842844580684725 -0.3143353979453006 0.047786205021472156 0.23537367081481098 -0.4066340562317232 -0.28461112049474385 0.42300379532235904 0.430068561818693 0.04476551335950697 0.11642661745465563 -0.17754009980236743 
0.36707201352965385 0.135543167605132 0.13314531938200916 -0.39764675495350515 0.28512298173967954 0.22384491230559697 0.14780093059704436 0.19318611946244527 -0.2772669981073156 0.17527125648172534 -0.3265603888151053 0.1656624796102987 -0.404694311159173 
0.22211029804933424 -0.006648123317168942 -0.23799960199827752 0.18379041347051736 -0.14733272718791388 0.3105610067246065 -0.2578146618081248 0.35584259945523744 0.38256314529297114 -0.1563837211157903 0.2929639347765215 0.27623962921906675 -0.05973293693837193 
-0.10855406988614384 -0.1742854414037285 0.4012568786963268 -0.19601246370963926 0.3410344950781263 -0.05676492300007636 0.3532535663712514 0.27349633923502314 -0.2779213501594233 0.058852563531529074 0.13855766396479086 -0.07474329103584183 -0.4028261057351782 
-0.14600467214674714 0.28125477351760025 -0.3547031635434114 -0.3431973246951227 0.17317080773387913 0.01614624985855725 0.008390362422259266 -0.09926950556372559 0.08933386736521462 0.32031424408778664 -0.17876987757843743 0.27836470579616746 -0.07698315223498418 
0.24025980626994545 
0.026478632210912775 
0.44308342180726 
0.6720221098221261 
-0.02010158556764393 
0.3736594233016406 
0.07591589295386857 
0.29401663314297544 
-0.34047128842279584 
-0.537303091847253 
0.5850047398757683 
0.3808826123773058 
-0.27342713841319277 
