98 24 18 13 1
-0.04982101138406876 0.08603321636369857 -0.22715398814223406 -0.10874898863634753 -0.1818590594799697 -0.2189964908481867 -0.11241196854621482 -0.027457917057654574 -0.06539307264222573 -0.010245871883465324 -0.03993702238072033 0.09253256654532886 -0.18675709316070627 0.17970500022385688 -0.2180880645843395 0.09417684766793492 -0.06803885152903992 0.033165658282997106 -0.14284970454655826 -0.1921803452267239 0.14122442756389203 0.26064754037508947 -0.05290467214616981 0.18046906089989995 
0.20220491443300517 0.10773355626867545 -0.2161447263378669 -0.23571771054149454 -0.20402733179713498 0.2075477454130903 -0.25795360391155014 -0.1107499302485005 0.1431170156413919 0.012023225584506131 0.05989940228289537 -0.019686516330070274 0.03649396453832183 0.22283531742794813 -0.24176507197237113 0.16396245327187983 0.25095152432026946 0.1351304166715284 -0.0970573608364193 0.12863913595491025 -0.12955406292589883 0.023720121572706542 0.13764770208987334 -0.015806482537565936 
-0.09052744274201988 -0.23934722691031005 -0.20677073068631868 0.036199122377889484 -0.15841878668234807 -0.10524928243205278 -0.09648957470547949 -0.2710240404028234 0.04592402115504265 -0.1404498187674398 0.061493806116558095 0.09803411277001356 -0.20166553888104696 -0.0533366638106572 0.04109835586203135 -0.0099951278575904 -0.22457963647305768 0.03845726276067542 0.05577316600484527 0.023788393198997445 0.21723056507615796 0.005280469782301478 0.1905776045320786 -0.13617710070313802 
-0.07311410423634053 0.028048760638281354 -0.06802455941803999 -0.2382401633786744 0.13264749962081357 0.04531394282640369 0.050791144721388126 0.07184542844357425 0.0764973199783295 0.12774904613550012 0.0904166830901584 0.03472821715178308 -0.20905341436114866 0.27271588385461604 -0.07756719679195842 0.3088346569873647 0.09454433762397116 0.1385176325725367 -0.16471702886179906 0.15720980893871453 0.09249812585112029 0.09068071971270161 -0.08133379835095518 -0.0318145530505591 
0.1842483514245826 0.02177184665932269 -0.22616608763186702 0.06653375430603059 -0.12369224230902302 0.023792527012495047 0.16299622408076156 -0.03812272172806222 0.19262176817788149 0.05296351006419899 -0.23748982985015443 0.18160449271044835 0.11107832136662092 0.1973407992143967 -0.11090257416372738 -0.14639883901832845 0.20485932016549183 0.0947620663500806 -0.18469353520385548 0.1353273098872385 0.13002259800017316 0.2573058528409127 0.08196055345346334 -0.11239988478915865 
-0.0841986050344375 -0.33756545594458454 -0.21366024958740193 -0.21058207339190005 0.11447897967545034 0.1470476811434579 -0.05943279439153242 0.09866133628319076 -0.2995919642342072 0.005408832027428926 -0.03085306959143443 0.34463225617392723 -0.091580413678212 -0.08160922680388356 0.09034029272877037 0.012327150483403382 0.1962463898080965 0.0642701251926223 0.13712090083852055 0.09132019810660835 0.16199753884153428 -0.07567795389408295 -0.26791212528061753 -0.10335761112169037 
-0.19852649322121482 -0.2452777469997774 -0.13553792298686004 0.05050618488399945 -0.008200488064155572 -0.11426543384534374 -0.22680346059031653 0.23169721987976524 -0.009043176869518773 -0.17857663892376888 -0.17837809970022098 0.15883550567144458 -0.13309983592965363 0.07977427671749203 0.18255566823144923 0.21365630525721985 -0.1080278974870256 0.03474759266150422 0.047070987776021415 0.12108854373517422 -0.10530126260391708 -0.12596388571752448 -0.2714701428051107 0.06030956742690066 
0.11845599013164168 -0.062130595707485754 -0.07191724288825317 0.18461747318900731 0.013096125082191495 -0.1013224790077071 -0.051428560182050255 0.07496469216455919 -0.042312132647101264 -0.09206279840820861 -0.17282811200630824 -0.005704545819692306 -0.03307506522245486 -0.0877942705907365 0.09989094438925021 -0.1659188035206732 -0.02499543148925289 0.12222786203924937 -0.12147687257419496 0.04462909533393523 0.09694361360914773 0.2932089417300244 -0.13108960140826004 -0.13761789937170485 
0.0838252431109331 0.06521930524781894 0.16234547247045591 0.156990065839927 -0.1941275301527915 -0.09110423681305142 0.03197126853659917 0.15943119358515673 0.16130640185582132 0.022147754290004023 0.14668462116574252 0.1120507983733845 -0.0418660754890404 0.033463589577457264 0.0408947995634777 0.07957845196197275 0.25179565906732243 0.1885594920377599 -0.041215840933283426 0.1904320067414766 -0.12931445091114252 -0.1485281223947754 -0.14499304931597368 0.04988156455734355 
-0.1910436528259925 0.22746289922192095 0.1297457971025692 -0.1936927825549428 -0.12841228642151234 -0.06607572956026367 -0.1466421182944113 0.1175813632746989 -0.04586556660223408 0.17403885518518206 0.021799276159648467 0.1404867921546528 0.1339379729300445 0.14983390237915883 -0.01566824373342657 -0.008368846078504856 0.10874786848606617 -0.08451900250815028 -0.0037990519349217424 0.0333573777883137 -0.19348332458024126 0.019405772692538344 -0.002341726686873795 0.10748910022110704 
-0.07451063204974327 0.17547830543376752 0.03047622742158315 -0.15617657714769206 0.07928045181797451 -0.014018199011536439 -0.2542188206667847 0.041164705989558695 0.12964443992021327 0.2199564210588749 -0.16210052242949444 0.1557649557310132 -0.0518419483733466 0.14185134212223713 0.023376472983864662 0.09574738038625076 -0.004978919141614879 0.127038685673864 -0.09243906600317767 0.03589088080828316 0.07355234894033091 0.16495635494658878 0.18090038857978674 0.149581937283825 
0.09785667397779306 -0.08044064226840472 0.06208724133785073 -0.04460527300598686 -0.08263601803641876 -0.11306799363990457 0.017496104147692624 -0.048080235823522895 0.09777599518323775 -0.1129571510717945 0.25890897909828997 0.039573193941596925 -0.10767711724969006 -0.07580224819214564 -0.08517111987347363 0.10689870858261807 0.08041624959042463 0.1357086618424951 0.06400495137025869 -0.07418963977069977 -0.15657867401655262 0.11011489050037349 0.07433567907281334 0.20171204113452934 
0.12978343249033045 0.03662305261863245 -0.008679865336830057 0.15990520745355982 -0.007400356277415934 -0.046829266969039066 -0.08524641469105393 -0.20751075929820723 -0.10385763883129563 -0.1219599499374063 0.20249397950838663 -0.10610101560394561 0.12599100261503252 0.16511038305261427 0.0650684070492266 0.09371057936383341 -0.1422367254854631 0.06759246452097381 -0.060874273081135986 -0.15865180649339963 0.09648951744858654 -0.0018297639331634888 0.13420195066251603 0.25263365725511316 
-0.03684996251618105 -0.27600492235391144 -0.1216664641046311 -0.0072088002662472036 0.06563283401415787 -0.17535198656151527 -0.1839081447018022 0.1855532930692497 -0.10980850161307167 0.009453013398711957 -0.10532855204347419 -0.16051075418355198 0.022026069784007198 0.000307587290091786 -0.1497683595608756 0.08820205425747758 0.027109515104539957 0.09421290593127839 -0.14117101351263434 0.0512111289138221 -0.026023420695102637 0.10292441878480361 0.09310608551086912 -0.11996551886678805 
-0.04451125725579992 0.09878318162103583 0.12798753554349293 -0.015608248665876508 0.1285536312235091 0.2474700102503263 0.062363285926134306 0.15013710463391816 -0.1752012424907834 0.17568367011060473 0.024338852831748248 0.046658685761931 0.11706746289980188 -0.2222004463706509 0.0980913686855477 0.11329016762055509 -0.06536694529606521 -0.0874645840464685 0.051952714372328346 -0.051988110132553174 0.12496700336879167 -0.052228347396590845 0.11425520027252394 0.21412151170528124 
-0.15500771852114056 -0.10942622465415178 0.1597095334724349 -0.07121399789069492 0.17115816663943256 -0.02094184952088679 0.30596346013267917 -0.04458202417072755 0.009586401608167282 -0.05130457062594655 0.004508896691011163 -0.2754820914148054 -0.26435901715462273 0.07342365986837524 -0.18743165975401063 -0.08248125137788641 0.0852376465621917 0.06123620565172393 0.07522077041749471 -0.16610704312970673 -0.003047098656114652 0.10429122293996639 0.2789622701570529 -0.04239746707380552 
-0.10404043648675977 -0.11665302316934473 0.0988572232890796 -0.01680576397447499 -0.1766469222968974 -0.04080101137333685 -0.12292721666725227 0.16181541219447912 -0.09238649921096774 -0.1885684344454971 0.0366067688806596 0.12525229462524737 -0.02522942653718491 0.08211887912355337 0.004343194831066432 -0.009320074878130493 0.23278758177753026 0.07945769397365482 -0.18664914004900476 0.09601210444899397 -0.0008545559254382877 0.2125491073998294 -0.11023303359907727 -0.09196242154282037 
-0.22552101475201797 -0.06245755557315135 -0.18105869880635767 0.0020487909481169664 0.075725765413324 0.08323913300647742 0.12853158268009768 -0.07857964280495101 0.12377129240131036 -0.057276895175378637 0.15632094709281802 0.08989972843913963 -0.17994234231079986 -0.14201457718979557 -0.22181948324878065 -0.15148276086195508 -0.04738382049050732 -0.17198185658922224 -0.19765739075070216 0.05571756770173796 -0.009245165184954765 0.1369641144539432 -0.024036963093657583 0.06597380816931975 
0.007955402495604752 -0.06964035250398516 0.11109937141681366 -0.029044925253117384 0.13586653764718962 -0.12710686045423578 0.09322037927975219 -0.18186549584604259 -0.027295456206852656 -0.19294741953502692 -0.042138248929787445 -0.13118504506926867 0.17907729038960518 0.2497590155846384 0.10263710238684369 0.2799204123079849 -0.11941562710165027 -0.10049387943894661 -0.12381037371858498 -0.029012991338503692 0.2516299738087242 0.2980022262684879 0.010099261726325656 0.16536803848139972 
0.17388026720741875 -0.04499235674040792 -0.09884798278452893 -0.14100492737108977 -0.20208894383448445 0.14000686265299775 -0.18843197341695905 -0.17633951471254936 0.10440974582740833 -0.05392297134328239 0.17325505255238124 -0.07161242060945668 0.05313834303505394 -0.0646951966470278 0.1479866235179688 0.02221095015032995 -0.03947058522845804 0.02418980690219664 0.1682174005943858 -0.1945152397086493 0.14730287606094877 0.16486895279564193 -0.13711813973990353 0.047219882125882066 
-0.053410734489969705 0.11893220688777997 0.022878814148629006 0.05764725397055128 -0.07104992471311665 0.08399511699523868 -0.08711175221498045 -0.3211882683589168 -0.007100060890909415 -0.032673145321755484 0.008701683651744984 0.21897801022589802 -0.06815813252639699 -0.08376794870129492 -0.07345293377141172 0.23478899883234358 0.2371572928791266 0.17158852479476852 0.16276224186031985 -0.1579434377725846 -0.1324688028264557 -0.11560048677302703 -0.07566470186692041 -0.13764017603706644 
0.1466132713830031 -0.09668662899177356 0.11484374935343045 -0.15104019333925964 0.07588998436483402 -0.13911971243091578 -0.025408708172298507 0.020596838304610343 -0.1136872058474701 -0.18144116634486646 0.07783784365343444 -0.07553289608751178 0.00689395999220142 -0.21874717362150348 0.004026242260129258 0.14635231964654521 0.10568805254465301 0.014947381331165027 0.19003161267712476 0.24161387286024064 0.012446927256398147 -0.19832923043026626 -0.26572744353708505 -0.20597915641179337 
-0.025599002287121444 -0.048179777032884154 0.19242167102171517 -0.12313389641749314 0.16519151600758059 0.08474374209652809 0.09846873833090533 -0.005708327363911114 0.07857375433881757 0.026473887328293616 -0.22518432401177788 -0.06510712304541132 0.011328105471669292 0.10670308908032528 -0.012245093734644387 -0.014892359091657942 -0.19492439217981092 -0.1930050465915996 0.1021018074570034 -0.12010561213400381 0.22744676109686973 -0.09652222168523589 -0.038717418613669195 0.0173797140334654 
0.15713383330085665 0.05229326371457994 -0.14913721141143552 -0.042405079577791605 -0.0024639430818795523 0.07561675353770768 0.06656265424172193 -0.1643128488724154 -0.21419209973212097 -0.013719562383595557 0.0861237732499456 -0.2257319218169039 0.11603226184157006 0.09856852965286612 -0.01983407511730665 0.16986493983950268 -0.007987001405650718 -0.22941846383932446 -0.006071859845877652 0.11781375421397988 0.1432883893030046 0.05570375087074805 0.09041732889351543 0.052533219753527295 
-0.08336121153847748 -0.030255711651659925 0.06758221128491507 -0.05799742709655449 0.13183086851187711 -0.12432097090234365 0.06063611453397019 -0.09415067417002408 0.049243790827524246 -0.028276821623082933 0.11416193294504222 0.009744347243482453 -0.14958556389874167 0.18018500724249822 -0.0753862880674006 0.16932469281745308 0.17262175239370628 -0.11024748727110414 -0.11317036440633642 -0.11926060097706347 -0.14198926237198034 0.03738463006403115 -0.20280133953353663 -0.10404988238530243 
0.0723792424012635 0.1784141702428447 -0.16706941254664748 -0.10611552243610776 -0.1419095878471322 0.09064370711946403 0.12144162615959479 0.06268218355853089 -0.04741854583597647 0.061060304417390965 -0.02530360024295276 0.14486726571834715 0.1392530558025208 -0.04828963646494046 -0.14857638528812797 0.1639488196841646 -0.18257274556707537 -0.1954729819313715 -0.026923406687831403 -0.09923076573332523 -0.08876651427710995 0.10144030597440104 -0.14429320094438094 0.13398493509749868 
0.08347547723715953 -0.1897528230360756 0.03957124909682658 0.167697804639802 0.0457409127244125 0.12458532379995908 -0.08738645096238086 0.10437197548608872 0.176773091059335 -0.0951967753857932 0.06945632521948804 -0.15465640130045513 0.11805282221316052 -0.12322113327936522 -0.04112856452903967 0.0029527147576574927 -0.17457866207149766 0.22015134866833141 -0.05098061410897219 0.016220709854978362 -0.003910102826524521 -0.14256952718100555 -0.24743838714841673 -0.16882981323726484 
0.034342000029013726 -0.12518257002931646 -0.0561624671913095 -0.20714091864684347 0.09070912443173432 -0.15446624043231288 0.15606817589776995 -0.14662634580164238 0.016626395333110694 -0.1815569233858551 0.1271443737165664 -0.13488464777656448 -0.05132854559373326 0.11611324311801738 -0.13899767484724498 0.022377642934010466 -0.10193503013997794 0.0683416183157898 0.08796394736406804 -0.13756562736400232 0.19151630383306242 -0.2302247014125749 0.1392627560155724 0.011553102229013668 
-0.04918458018306178 0.08761096232660674 0.08557519172560996 0.16246695754648433 -0.09687239800963943 -0.1407082661443185 0.12053444114363183 0.18992128072574088 0.07492240513159798 0.026936407318263175 0.10948407657938168 0.1246593029193025 -0.12181967297957441 0.0981557558619806 0.08924874051438546 0.041731303846663084 0.03452058801685846 0.07775488808534925 -0.1985437423339946 0.0703019800652761 0.1650063650322263 -0.13129833398736868 -0.24877212911221544 -0.15020922925095304 
-0.08317854340867264 0.11622893856837245 0.01686128391940725 -0.18356059883228174 -0.1436702492674214 -0.12304160299341599 -0.05535285185304724 -0.06922369845173999 -0.08375444518829575 0.00910560389093663 0.0808440410708071 0.020840406453891114 -0.08629248026032939 0.07856972068750961 -0.11021324993712583 0.039528388541769946 -0.015156384505563203 0.10142526018574331 0.15001966328377028 -0.004668914944568132 0.16038145225995454 0.056486988813932264 0.012311403371963006 -0.1463010866756826 
0.015400762268436131 0.16139289000042184 0.0413557260111775 0.15852264875746291 -0.024811198628670726 -0.04326928330979899 0.09877176305948913 -0.1828557498721097 -0.0035319694283288384 0.2290340152056022 -0.005736578716284778 -0.10765333013637232 0.1697464662854855 -0.08899722193503366 0.07911616201086313 0.08045409487645944 0.12125278962534182 0.12575564618449872 0.13412216973372607 -0.196579459050914 0.2700389988146086 -0.10945711362711877 -0.023750498365894802 0.20882881402250805 
-0.19616947159892065 0.10808735172284224 0.13275312809003517 -0.02987689149725247 -0.0964900046128506 0.1787552807446961 -0.025460356018290074 -0.10995349761202666 0.22511442809607168 0.19183335761010384 -0.0032953181378194787 0.12945332094548925 -0.07128431370688561 0.03364484041321416 -0.07271690895329881 -0.04078323296357025 -0.10237070567851139 0.19698342152293608 -0.08113150108374556 -0.17776121611048215 -0.16668018113656807 -0.18704685639454055 0.023927287196932625 0.05336777911278993 
0.1574281182424222 -0.04617615673310514 0.11555232775310785 0.10508261866368587 0.10994472327825922 -0.03839558050380117 0.008182542809076683 -0.11888258302475943 -0.042443804002587 -0.17647568491531795 -0.035791507448075834 -0.11673352278066272 -0.050249501993083576 0.17254771674314745 -0.07074163295711701 0.21965527499775742 0.034428585086756884 -0.07362396512443724 0.1370239955470772 0.1708907800831017 -0.06366380802198979 0.08850038978981525 4.6851630825008104e-05 -0.09840946080601624 
-0.06678519812484604 0.15046358776764202 -0.09133198468947888 0.1663591906797523 -0.08070386924225721 0.04517003668483972 -0.017568859194098077 0.1274838427289314 0.17342840828881745 -0.1251167153273617 0.009254290731864633 0.18171704545264988 -0.010159257426188088 0.18889793773154165 -0.08720319247362639 -0.044474009913645834 -0.00292383657805476 -0.10751704389568398 -0.1942024996654747 -0.032607894540027015 0.18316181422996716 -0.10923797095701555 0.14162920355268735 -0.24414683728142889 
-0.06215102448671774 -0.22041822830328825 0.08551208579169038 0.04827558050281044 0.0742479505488918 0.009250479375392879 -0.0021298851925428686 -0.10788114033836356 -0.11184295384155178 -0.050281432243898604 -0.05685709187749048 -0.088108591723099 -0.021573198209247656 0.16434544034329632 0.018202685926242794 0.17641556750475582 -0.06630751139803731 -0.1391932188575489 0.005526820669885914 0.11196694911816481 -0.029307803764086964 0.005618066780822068 -0.08952242231471105 -0.0010561606363356235 
-0.13432824533690926 -0.14718933017537064 -0.09403705401954254 0.1485118586442941 0.11112106828482958 -0.01881647137779602 0.020065309818485092 -0.14079968310084867 -0.022502157671608833 -0.0800431266995498 0.12940583745125914 0.10762336826492701 0.0324260431103643 -0.09966266102225767 -0.011478825567648237 0.24799210005950584 0.12440795806219221 0.07054889856771802 -0.13827420591388273 0.05560609918046075 0.052288718555247186 0.018171837088172736 -0.10181483681062983 0.03890714446260627 
0.17073885765425442 0.1006108490462639 0.031067476337138036 0.22241024192759914 -0.17347548594106213 0.20824765144592758 -0.23306661475153626 -0.13510429883106023 -0.0502641223080661 -0.17488786943739895 0.015462885565164333 -0.18863342957238555 -0.07529016505534057 -0.1878986477256389 0.08022895902651428 0.061400241660885896 -0.026390631478738637 -0.11355433766045779 0.09758994107649072 -0.09022926021909422 0.14578016820888498 -0.007684231726709593 -0.002619101328107599 -0.18820836297967258 
0.032593589435669736 -0.017814768377236515 -0.10711645733283097 -0.04426347194800205 -0.04611371911604918 -0.06963894118440718 0.2693474540958245 -0.04638128570734062 0.18120355347040293 0.0022766184975388953 0.23610263194809708 -0.11949124764236052 -0.07577104175094984 0.12365759614410869 -0.18208987578067196 0.14153018299197154 0.0018586466559964206 -0.050538546072147174 0.1977959344928478 -0.17606484843222553 -0.03397100459191667 -0.1871479192516375 0.09227005374746793 -0.12669252593420463 
0.09986728547923147 0.126203481853089 0.14902609507762785 -0.018819111336796805 0.08219829523536529 0.20832906716494148 -0.03378824747617451 -0.012290912309017457 -0.22041346531867373 -0.05127894339509947 -0.14210918660486635 0.1857043193021045 -0.019518393288658505 0.029913543831223764 0.1345485334276844 0.08066265506870257 -0.02666734501258856 -0.09123535670220505 -0.17052422730056085 -0.032052244968400694 -0.13418786838592597 -0.05974225693096715 -0.05844189686615289 0.18593973821752516 
-0.1553814928773955 0.04715828363373649 -2.634438442336782e-05 0.10964381341170805 -0.14154982588167278 -0.1501237140629095 -0.045532761457927465 0.1834175054967296 -0.0933392138224655 0.10467844784074973 -0.08269306369449123 -0.16850222546736138 -0.19300182743877292 -0.09219054159485984 -0.04666121055652846 0.027343724954759674 -0.2231561659952272 -0.18870094939577964 -0.19305872086441123 -0.1535958338043553 0.0459932257814972 -0.03814773856910404 -0.11222014191620241 0.022641608578803846 
0.22525622809577356 0.0634447003108833 0.07867688638312749 0.12712487270239964 -0.1836371044051504 -0.208399251937799 -0.022058134826771485 -0.06991750551150619 0.1298902259282767 0.04728262110114403 -0.004037496869095782 0.23851193121550385 -0.09964031807136824 0.13536074396068395 -0.09735530268734878 -0.04646737817497794 0.02239594392454092 0.03259955883349781 -0.11075614448220107 0.11475895230566495 -0.057494730297101115 -0.10704164092393435 0.10694244726656711 -0.04977827346108661 
-0.0832298900470125 0.10959954807331107 0.010067579387298648 -0.208723476705683 0.1487122008209911 0.151367792673267 0.21799072831585067 -0.03495316331550259 0.09139158539581917 -0.06315714782808461 0.015053495100042778 0.13142880138220014 -0.02996393462374621 0.01512666541364075 -0.06849709624800762 0.016330450214665806 -0.15174024106445472 0.1478995020436177 0.09947159432531226 0.06524285841950066 -0.11589504676282679 -0.13352268644654028 -0.1271279376918597 -0.07014162771364413 
-0.18470093762146322 0.12600315005081092 0.06703419528980775 -0.034304989619001365 0.10591165219647719 -0.0487891094441818 -0.18358374768260136 -0.1451085800480517 -0.07839798324746958 -0.03774850079982304 -0.17852221912900346 -0.008342333437337568 0.05474675474090279 -0.030697163483393852 -0.02646229457440869 0.09107390757338012 0.03519343566584077 -0.19353616983936564 0.1482846911450905 0.0748186889751241 0.0949595357787337 0.1912416164480304 -0.22071817817563233 -0.10476531392223123 
-0.1740424205661862 -0.06450591805187185 0.13382030484972082 -0.16662563465841326 -0.010492071908141378 -0.1657760279439919 0.08418943333562738 0.1036108237655795 -0.22472861161027122 0.01743392263769461 -0.10302714699500341 0.239837005903214 0.1610133907547357 0.07716107010567065 0.18153604340311646 -0.03704796139313828 0.18455423247956926 -0.01798036080303029 -0.1044677312957382 0.25382376621064534 0.107864668226592 -0.1734058267583327 0.1315300919046327 0.08935255728269058 
0.06608457996472085 0.05301510954471789 -0.09741238602266149 0.017207056543093284 0.12471584265514413 -0.18983937979067136 -0.1468385438838291 0.1172216803146586 0.05970259988503795 0.01221230202547774 -0.09947221465113107 -0.06693794209220656 0.14142905191028665 -0.0783539387528346 -0.17360121733318623 0.20204355698743 -0.17054443415082488 0.16169449420301193 0.1518028331973965 0.02486457899606937 0.06145931268276673 0.02383567666097681 0.0471575234598092 0.192851590798496 
-0.08554383127350693 0.20414828482716776 0.02648033377758677 -0.15306726541569993 -0.10799996415640269 0.048666219970143094 -0.11352105261545484 -0.14647291255429967 -0.11446413498348604 0.11929749835604163 0.04848586343592468 0.17187221451811538 -0.057404609748626566 0.06826807242187442 0.03055544851954274 0.024519198691016455 -0.19203057831666473 0.07871694884779135 0.1709921150777285 0.05479657095545543 -0.10725646093911086 0.079414554964275 -0.19682960867904065 -0.0675878165489065 
0.23946415424336967 -0.014840765662319597 0.14106439226773382 0.04103741569690082 0.12791887455047857 0.2103113681037034 -0.0990791402190365 -0.14989222095378615 0.043422268898440336 -0.05529924070567769 -0.14836396048857214 0.09349168411026944 -0.1851256817940825 -0.09913708092312021 0.10848046393103682 -0.14701974428931106 -0.06279411440266248 -0.19110424876708168 0.19878742390783946 0.032117599963422755 -0.13591351070328667 0.21112206847303766 -0.054302717106009105 -0.017700064736767124 
0.03870334741803077 -0.09021174801288614 -0.07672116347671834 -0.05365893795023541 -0.10101029104543181 0.0418009448228794 0.11902199386628826 -0.17055052501271872 0.24214554901090782 0.08796412073936641 0.1677531353642724 0.0784689001791883 -0.16725940968993558 -0.06404552584099642 -0.02123535602980429 0.02729043752432542 -0.05018724158700201 0.09313267014928972 0.07152270540142792 0.059150008661111746 0.02119495457081062 -0.13857438602728733 0.14525388619392537 0.11122733140084949 
0.2007257609013327 -0.10895466059970524 -0.12821797532004106 -0.042705837276509485 -0.07064411071659817 0.16517324414557324 0.025510607757434106 0.09508921027458182 -0.05517035734406905 -0.15940621729496707 -0.15309478262044676 -0.03378439551733938 -0.12131063292583462 0.16621557339617526 0.039051527676808986 0.10747050364478214 -0.004528693165495626 -0.16397058718677945 -0.10476300113138147 -0.010618992461761373 -0.11940383802084566 -0.1894352004488037 0.07826783502029447 0.0752019795549561 
-0.06673960369237514 0.13640164125734672 -0.02799970510094203 0.1375894540297319 0.057843029592025946 0.034810363086742235 -0.11854549815974828 -0.00013724932528648133 0.172020011616957 -0.0768383355384728 0.1564769882945447 0.18768167656398585 -0.06695691142160648 0.06537065377080283 0.15886422140022824 -0.1936323222625564 0.213191754339379 -0.12252027537770474 0.13887680439524094 0.03859194460206452 -0.06077735117179912 -0.13841510944131608 0.049285079269051325 0.1690775408201202 
0.1337076062952348 0.07690358599838422 0.17758899139631512 0.03522453001761019 -0.11970876321759191 0.009568020042204691 -0.07430277222129703 0.20539097766779357 -0.06506872845905283 0.19683769429864126 0.007333906767761168 -0.1337974994267153 -0.16948481428876022 -0.04385395439859685 -0.14970461274314872 0.07193741628130892 -0.01993305956702368 0.19611028541945635 0.17132262771810317 -0.1392782538137135 -0.03522220272724631 -0.03914298815278115 0.010899239804162412 0.13600059978591825 
-0.05693006360454159 -0.05997440279176174 -0.09398936916550472 0.1721022727772098 -0.19073967014354629 0.1594609139487974 -0.12347381897418962 0.015027230975620354 -0.07518767111641045 0.24060806378649088 -0.1499660559992398 -0.11055309361022306 0.15151707701938633 0.07746768705629277 -0.07514574560308064 -0.19950102357451532 -0.12831262396046336 -0.14082469516802548 -0.11745818085090773 0.19927167994695838 0.1850825761166139 0.08132784311712893 -0.028473887275416655 0.11570602618063952 
-0.03630129521927354 -0.041404146478901796 -0.08855541584150144 0.2050214864784204 -0.04432807177274883 -0.026152872417070042 -0.11421592751870638 0.19339017178335768 -0.031961746911004514 -0.07979307609380243 0.07844533346140875 -0.15897695899047082 -0.1612651325726497 0.13292867677361495 0.09644245988588192 0.01394326164426746 -0.13643339289966433 0.014242453881893895 0.05434774733858158 -0.06786057513526379 -0.17235952385464512 0.14847604543337228 0.0035007347607378843 0.10069661289055233 
-0.09723255524525812 0.0693568979754651 -0.02786111165903081 -0.04625861222732212 -0.1483729831464079 -0.10108288477846426 -0.1675511364645939 -0.08545109818942373 0.1301119143998532 0.03792883164553892 0.05793406531471554 -0.24551232999648026 0.06409988666916791 -0.028395124927051926 -0.10643368582745884 -0.1730946093834495 -0.1632250632699787 0.13665482907148943 0.19271895990770577 0.17229635949762795 -0.06000302866136801 0.10182314131940669 0.047663751271750356 0.11151672547018711 
-0.0063456799146299 -0.0766570466499019 0.11372250838034895 -0.1590846628507955 0.014449846449220257 -0.01488795719323687 0.018081577295647293 0.08722334684785382 -0.16406974599844773 -0.041966431844894396 0.05079261410369463 0.18021443281791488 -0.04160701446783053 0.1930792565057199 -0.03761777553624577 -0.1445754420889832 0.07828959222672736 -0.06514043409472856 -0.11162263125052099 0.2333353102481743 0.20028240719771473 0.03873020203651622 -0.006930541886488667 0.01639314308736208 
0.12170238964022152 0.18074123623935823 0.13528629955212398 -0.13193811979387407 -0.09353400522237544 -0.2319055160995663 0.2015950874371016 -0.10423959668893078 0.04907756082217819 -0.16338012343118083 -0.12845038868153197 0.011588480949604744 -0.18596150485434507 -0.009956295112775914 0.00501439116457754 -0.0606218115435819 0.025870307865233727 0.014356392132986544 -0.04289866663235384 0.056298669261677155 0.08952970998409215 0.07847754588629441 0.01753181694119834 -0.06505189790187131 
0.044368171984399296 0.1736688167019976 0.03796856474267657 0.19149758627315702 -0.023065915943100684 0.0946336010561468 -0.18450116764319127 0.10468458484737579 0.007129820950584772 -0.19764561259035246 -0.08791792578800922 0.013598788762600749 0.10598134322268042 -0.17820547150091517 0.019167794828542344 0.11923748511061524 0.058795025431926315 0.17192784929848004 -0.16942097407987547 -0.08807505090517694 0.1669749460027683 0.10479616905427969 0.03909265983356745 0.13210330751082622 
0.22001370264338807 0.16275943240411553 0.19920951736482376 -0.14314750675376195 -0.17112068273607794 -0.16993406850829698 -0.19380486256976015 0.16237387932311992 -0.2245372939353053 0.10587434781224775 0.027194956027162338 0.04017731142083134 -0.060270458827899685 -0.022940341627587436 -0.09725245026424405 0.22852701719171525 0.08215466452595128 -0.1892522318902349 -0.015025840930139976 -0.08628125336021966 -0.1591943025527051 0.19600647014079353 0.07231260175255648 -0.06700039293161975 
0.11745513254485221 -0.0690250992025204 -0.07568856090746089 0.1705733674434656 0.1904089903022689 0.009189654183804104 0.18024839046276048 0.15432114380576098 0.007032591955029375 -0.049954543711017506 0.0829532311068441 -0.01732744645532406 0.04125075432076287 0.19590272752393054 0.10836779600281406 -0.06519719610453362 -0.16363643089616756 -0.12490703758130879 0.010477933487041206 -0.03245897414404404 0.11910290199456672 0.17264025669306504 -0.12774057879589157 0.14303288422458676 
0.1906043162842649 0.24984398311394773 -0.1843959568650723 -0.17638127658484432 -0.19744965001819728 -0.08245813955916535 -0.1771469284138213 -0.08127226152298117 -0.016092798119410237 0.15610518039693494 -0.008991870729345468 -0.14288947028253948 0.04694161812805242 0.07465145243994553 -0.15462775910716886 0.06880134707705865 0.10871613022814372 0.14113000122268402 0.15533687785743974 -0.046360623655786345 -0.034691777851744474 -0.1585393189300337 -0.07536587411152203 0.16353144012163462 
-0.0725390682597209 0.14005305412855132 0.15535527116721695 0.15622147369354536 -0.13648967000780413 0.21003025745544399 0.034652075963025296 -0.11456890918830119 -0.08196609503279417 -0.13496997502276653 -0.026832144170633888 -0.14419272795596658 -0.13279367245076498 -0.11996455921859912 0.07525467627426659 0.07444744172143784 0.21508840833591397 -0.08714699910846527 0.05088653599683821 -0.18579153972044302 0.006316564313509907 0.1726025284117437 0.17323715085057464 -0.1957889880405944 
-0.09765142049245829 -0.12932368625208457 -0.1804626618837499 -0.19566697672358419 -0.003821755902970738 -0.18129807549049018 -0.08746769750099895 0.05498880885200066 -0.11553991378463288 -0.09093071309027012 0.03547003088087078 -0.028876202104515927 0.06443189349340861 0.004465484198862904 0.05231113972253526 -0.05761518203952051 -0.08399053963553788 -0.14100514520213064 0.17421448715897134 0.11677322650150851 0.21873917568053464 -0.12471596097201462 0.16713801821323193 0.21797583679793833 
-0.08538629449943709 -0.06596313658458992 0.020100000350642376 -0.12475268649307347 -0.02263646690236736 -0.11413686474469549 0.23396467811380414 -0.0024065153858011555 0.24125254562482198 0.02891728590646008 -0.006115838585782916 0.17177414525776113 -0.1417182304432914 0.02242745032822334 0.06367500245743249 -0.025879342983355036 -0.23186081096505104 -0.0028361856688374413 -0.013612022737866113 0.1719839664778297 -0.09612377003668936 -0.042575123538417366 -0.0791020671602664 0.07343085962318231 
0.22178386746051232 -0.14738297142669232 0.12746342127393404 -0.10640157882115783 -0.1762219486515528 -0.1616476154576063 0.18938487470738233 0.17039569773441776 -0.09420345815301874 0.1976666119023414 0.130740949385921 -0.02774440479515852 -0.012471461657751577 0.050212965767988324 -0.13573071104623935 -0.1937892652235975 -0.08057817757034548 -0.19351983343061002 0.06868226356418392 0.020114608884598782 -0.075975311108122 0.1500963218597494 -0.1604714949562897 -0.10083709854053746 
-0.08188952304112875 -0.1701424871482919 -0.16406582679083054 0.13799789201404483 -0.16396452250783558 0.05127453516607095 -0.15092475096509073 -0.19545246226668192 0.03206881781341763 0.17433219868068744 0.1666828767253243 -0.07770188376460074 -0.18875041667833 0.12734634162529918 0.12124337226096606 0.15749441943162742 0.04838849434740347 0.10805297687193473 0.1581667356873482 -0.018037886788499925 0.022607595826876607 0.0007489165094384867 0.0900364736564518 0.0623365014359145 
0.015346265270978139 0.0571753536288116 0.0022521548418535566 0.12478295945415088 -0.0860642767524424 -0.08610312671276751 0.11848148188792001 0.09113473413495551 -0.17681160180860067 0.11379322234386695 0.11232019385325048 -0.09722249500930562 -0.16585116184438994 0.0986264619430694 -0.10900547341125409 0.20685921011856098 0.037440041619052664 0.15101220738740076 -0.15601644686107774 -0.16554758205909342 0.14448450694387324 -0.03698922315847314 -0.16434392221861122 -0.05062080536264434 
0.0677469083416565 -0.1230237614924144 0.15745051012528752 0.21863525421524604 0.1797684861398474 0.09082576896741269 -0.046145878446305626 0.12804291915439137 -0.07440891424748526 -0.07308852601086792 0.041520369651095096 0.022662255124827405 0.18808755850739903 -0.12834561500686748 0.09673570510992784 0.17544536175798736 -0.24268790400221613 -0.009328586054599217 0.061751665735215275 0.17265791977434092 -0.16088984625171987 0.13914792358921116 -0.05327082413996026 0.15386464617803114 
-0.18852540884601493 -0.17641136768383656 0.1922387384809421 0.0429430349797956 -0.0322504606668259 -0.14455540376247736 0.06401074472179905 -0.18475689722278255 -0.08426649871455094 -0.06948570826271876 0.042130129307791656 0.06919341584603121 0.15123675376508905 0.17231940202302093 0.06310733437994051 0.030635544405725627 -0.04470182493857123 0.19763924187671503 -0.13732461020766792 0.177480904415065 -0.07444275453995175 0.02063531387964829 0.07959328872647599 -0.10420532401154604 
-0.1318193383778621 0.008119576478342709 0.15270927880645954 0.08962338015705268 -0.1515019846480939 0.18528880814407558 -0.007903350595240588 0.20442977062708834 0.0317363661074707 -0.16533728317252386 -0.11784818404589603 0.15113501973220037 0.08280762540812096 0.15590541343458522 -0.06723435402327183 0.010927283322620747 0.05885113039182392 0.01985818321453645 -0.10621145689803561 -0.028636827503846534 -0.099543955008382 0.15310757480626394 0.2225821635469033 -0.17273233478663153 
0.12217149082509704 -0.09955739726103074 0.04923662727402594 -0.09553650322848357 0.05935965536605779 -0.05058788628023639 -0.11095805599165971 0.15389739142801412 0.16739630771987793 0.044540979772702126 -0.11302762328557038 0.22149788391958333 0.08430490850685128 0.12609799440957542 -0.11413004601251676 0.12946204167847 -0.10916147039368888 0.08347726741768224 0.08310672620375556 0.08065784535115077 -0.022118646600772868 0.14114839070870355 0.1519518015389604 0.034238947890255576 
-0.16306444793732222 -0.0875350382661621 -0.15704910029251576 -0.12980905030891435 -0.14848715281720948 0.058958973895287405 -0.18376608410878068 -0.10216720523310292 0.24979507179347613 0.148316778700426 0.04133324341363935 0.13042527708129673 -0.1821235039867373 0.118071634367408 -0.07433014971449903 0.0501891132114951 0.05147731675489276 0.10086990542367277 -0.01618878394881535 0.27662954204355067 -0.09563113223700843 0.1125731427674103 0.13705302728760643 0.19388172030899994 
-0.1865186334726766 0.15907010701741375 0.02564138215592777 -0.002952596440614564 -0.09510130830259728 -0.06815404973293739 -0.09900342676797695 -0.11110146293780952 0.19106711067703527 0.0009330994630385205 -0.16599075307490932 0.0637475823261588 0.07564557631597511 0.054190168834536014 0.006002437626591639 -0.0392163443463216 0.1574240885297538 -0.1883093741088198 0.1724623093638857 0.24792962244814523 -0.06196581934431056 -0.11302879110312947 0.11349950001533972 -0.127697268892015 
0.09346367554636288 -0.0905291930667624 -0.0824904833195088 0.20522506291735992 0.16036092803116805 0.032082417470899446 0.14001559969102795 -0.057956638432442247 0.21573476426455415 -0.02593828731670351 -0.08089386134583931 -0.18410836031693736 0.2088240161047438 -0.011688973864228036 0.09262448680143125 0.0803955292355778 0.09734469949875821 -0.17901060501831395 0.16730254877399695 0.18418011684834826 0.04252625796819012 0.20770951672364277 -0.11465844715941118 0.04004141458713729 
-0.04058985102585497 0.11026550637908022 -0.0785751368257055 0.19251313955672342 -0.1714274837006268 -0.18276339093860552 -0.17970727679901544 -0.13878646216404292 0.0012309215776849266 0.14865670072729648 -0.1548099288858574 0.013901202034114187 0.06416738003274323 -0.11242107936858682 -0.11956148853689139 -0.11056944411467802 -0.17650936256934407 0.08407345593613152 0.06048261185515692 -0.02198182710533059 0.04632877773552953 -0.15514151077364177 0.24414069624648185 0.13801265180807012 
0.06254314877223864 -0.07277098391208428 -0.0326697669425461 -0.012362046112904798 0.17348512835700655 0.1765953848143104 -0.024304212184722025 0.05883412979304718 0.1775551256076442 0.19273697792599528 0.05467610777064368 0.10496262701913833 -0.05831630790572335 0.15649467719079804 0.1336280771304832 0.020344767234840452 0.19278354668643216 0.13565528962171772 0.12221897135753529 -0.14676494890074282 -0.03508187057527287 0.1808850692110773 0.12362942513317561 -0.0310384727239845 
0.20809198801964388 -0.10781368406736049 -0.06546165958031903 0.20660926147041628 0.12234121165947794 0.15514185764520894 -0.1950896551165798 -0.04718155719472752 -0.1091234850494289 -0.08044635707660852 0.09398745104911874 0.09376420749215837 -0.011387936727216665 -0.08790182939076445 0.03316497289853422 0.013158856442722163 0.01852502477022674 0.05041535040994009 -0.040911067731567115 0.10570216455092805 -0.09830683311194252 0.05462893000666558 0.20921810817011027 -0.19836363045597383 
0.0690957984457114 -0.13728814783989413 0.017104536275574452 0.049822013471232884 -0.10161116570981077 0.15644181196254334 0.07109852049622135 -0.1061185759139415 0.13851150296988302 -0.1569501105318968 0.021587662173541765 -0.19367012360380617 0.06005518330503073 -0.13672148980750176 0.05874895396019723 0.08513556937745051 -0.01442246433533688 0.043862413647012106 0.12418266936107615 0.15192091891854487 0.03341090748142202 -0.029397045605875475 -0.02550782098183184 0.14593025818738425 
0.0602657272255562 -0.14649356057840174 0.025711248854625224 0.2121459150930264 -0.13869167364802595 0.11849420634742956 0.17347460244783858 0.008410280798637194 -0.18450931228582113 -0.1399777068707567 0.2180606679774954 -0.23265047555520657 -0.05005341057911237 0.01759555483975828 -0.12006436212513316 0.18193829013194623 -0.19933627793908715 0.01549577184807693 0.04630284068517744 -0.10640102196676916 -0.04605220823632206 -0.0035045897953283295 0.15077698814006787 0.05273510202082837 
-0.01266683323970332 0.06421263240418516 -0.018215190226054244 0.010032257555971496 0.06235764549708827 -0.1263999876161472 0.11090520323617004 0.03283996113839815 0.19908428033151884 -0.1098518026991196 -0.013168938293335559 0.18741756086964603 0.039760179276152566 0.11304786021905099 -0.03380978228190722 0.09338611724062074 0.19039002881322303 -0.11876305300670874 0.12179834235345152 0.20823742535994566 -0.19387616212908695 -0.11272990616438261 -0.15214757658961905 0.10576519679436652 
-0.1667908211988555 0.19916592203830472 -0.04329273702800013 0.16128685058416561 -0.12342989583951328 -0.02311866285600153 0.13687735652177535 0.037330666395745754 -0.014776568332485798 0.004931628588541834 0.02891467581315658 -0.023335666937875803 -0.12142674694827305 -0.15352730474739815 -0.13847466770604352 -0.17844989461226027 0.022941540158173318 0.13805069087405492 -0.05534757835088828 -0.16918592960032425 -0.029068004857759174 0.03998668582289222 -0.029194170779325106 0.12314788868455392 
0.18235269348569738 0.17372162688937798 0.08042027836530825 -0.011591808356421636 0.07194128100217555 -0.19434473530812416 0.23012060324356637 -0.13007087873969747 0.2005547735043998 0.11897766021169909 0.11557226298478965 -0.11977710042300704 -0.11114724093226183 -0.06934375259756886 0.12385346528916838 -0.019389995800442553 0.2571500904761914 -0.05789848721531525 0.04684833567070011 0.1574499997043869 0.049126329899614386 -0.1812915434263827 -0.004665414713886559 -0.06500866220652488 
0.012561852298008104 -0.08490694518411948 -0.15017259783130746 0.06621572133875067 0.0714091597059559 0.1458891428959193 -0.1460827265770536 0.11828344189519525 0.12960616414161125 0.05759310662260923 -0.1168603255792806 -0.0942207982992368 -0.03191034037111799 0.0163257928129579 -0.008801598252784067 -0.012702099461248015 0.1348730236146705 0.14708623537228568 0.12557477048688914 0.15019792549895983 0.027784061971836273 0.18516816307635175 0.041776007757781126 0.04075172667830838 
-0.07114775751452915 0.15621052949842357 -0.17866330480160447 -0.14520822220025192 -0.14694702882024396 -0.004316071329469404 -0.12876001831096098 -0.06247075708009683 -0.12285461020989583 -0.10530121609966012 0.28131454545474704 -0.07099788273297868 -0.13853655277249063 -0.059801061704671185 0.2741830859617057 0.08626718130313919 -0.12807385134339927 -0.08525744543986413 0.10348410236239257 -0.10259731858257869 -0.09709506705736556 -0.1656273211273697 0.23633947818742923 -0.020362490354701095 
0.02416201982512458 0.12393098346645956 0.11742712439443247 -0.02051570888983098 -0.12522007370686963 0.12462962098891975 -0.18718824496108283 0.21954169211152577 0.04271552464583721 0.12262042494162592 0.042573466149897064 -0.1314092180246509 -0.06925216974465803 -0.04265494590950552 0.2271893168225013 -0.1250719898141861 -0.028910412386152152 -0.06142310034754434 0.10668771407978797 0.15372837665790787 -0.05961083033943176 -0.11718153229793718 -0.17252182273134084 -0.1193810266695937 
-0.08983396933528863 -0.0005338601102519562 0.1668903482899094 -0.14775970490000492 0.20814943662002178 0.048717809729942295 0.13101164228040935 0.2377987573598243 -0.014715003035586904 0.012327931676809362 0.06479045526159866 -0.01716228586455958 -0.07918053995882994 -0.15699965805750016 -0.08483278070077091 0.09562971871782837 0.059141784154289105 0.10440887695649625 0.006676517431276306 -0.105956135749055 0.03424060853690258 -0.07723188215525759 -0.19964061550380705 0.155090193817742 
-0.03117363360313927 -0.028367473906218375 0.1304149386397487 0.20303021639458968 -0.17031994666705608 -0.1364135959309347 -0.06993149851848673 -0.10501358604714554 0.006061662623141281 0.12867635186994938 0.14057288893544032 0.03658689377652506 -0.12021310216791917 -0.1573449607176496 0.09614436546868753 -0.1039071231232235 0.009704173666987698 0.08852294796781698 -0.10749965696286175 -0.12909478424438892 -0.1836342662259723 -0.14086507363922096 0.16264794509080624 -0.15730274808224387 
-0.10934571909291553 -0.1864725280378741 0.06942046874867117 -0.10611518940755657 -0.03384066201547143 -0.14328808035587742 -0.04818809787396732 -0.022560897248308214 0.015146232398543935 -0.030201338325596436 -0.15806355910396622 0.0944071715713029 -0.1441341008214031 -0.060091567320033325 -0.09001156792664393 -0.07842552473554289 0.049219989723571916 0.0069366079539870075 -0.12282281734270273 -0.018587486248732188 -0.06310789127565554 0.06479960410880227 -0.10836320406195292 0.1203132895748372 
0.01023473681459139 -0.06409350315192651 -0.0973136797087415 -0.12440411864881205 -0.01099747188487137 0.24851071756691398 -0.1566402582466387 -0.08541903816252149 0.0622894720160703 0.1433769494186868 -0.0872959732908117 -0.01231733377945232 -0.06057230631387405 0.10860523687621931 0.08653663633325007 0.14191606667862686 0.14738986043893554 -0.03381547199059061 0.1696043262115973 0.10700702575500173 -0.08118069318059115 -0.05996724667223988 0.09906523713517226 -0.14862958251073877 
0.05241067517682774 -0.06612697047346615 0.1297799692792945 -0.05320830816495182 0.09213745973359015 -0.1410957520836095 -0.007236230313693826 0.10108844623956204 -0.07798958319010682 -0.13430274302710435 0.058556906974586195 0.14512684660509714 -0.086723621466407 0.01297245519452257 0.15458229018153644 0.19843335961035008 0.0838705939802678 0.03560947860576157 0.12582759685133263 0.16432134231184967 -0.19879045958047564 -0.040288121473224636 0.016969373680294646 0.09236002268024768 
-0.16425465982483187 -0.017246436331612092 -0.08695166132193714 -0.0299385771352783 -0.0007875099856366405 0.04137919077482893 0.0258084873508315 0.043172580421795455 0.0642647567351122 -0.028042963280620687 -0.19778424335394723 -0.16143477517963215 -0.0785518267925962 -0.14018930471558902 0.038668311218031305 0.014493542921813998 -0.013897636432005407 -0.07053112024902922 0.06025179803120784 -0.12274382051546691 -0.19741558619391095 0.07448745151302212 0.00394248805572351 0.07037150754341553 
-0.0990785796169802 -0.2379637984816479 -0.0478358571836889 0.09938198075076687 -0.15803853769845674 -0.10721960651121029 -0.0589757409847026 0.017968168778208008 0.09248566869908335 -0.158714706506252 0.04278809534322414 -0.02125641875314663 0.059539886859182344 -0.1312652100694065 0.03426353505324586 -0.1518653424448919 -0.25451831919978557 0.05667514211423513 -0.12519986732395835 0.06168955474686248 0.0357346375217523 0.1337375506544136 -0.07163665022237647 0.2233257050894619 
0.007641941673732574 -0.026299451886345353 0.09856515754308917 0.06281648828926292 -0.05402289745309157 0.017591542216594747 -0.12922534919218756 -0.08978566944851184 -0.25576793293926137 -0.016719088454077952 -0.07365518249635285 0.031003908561251053 -0.2073098548503141 0.05038847606946822 -0.08161684744685407 0.0488880081782061 0.09918594638594302 -0.02332836019505723 0.06417838485297288 -0.1298497996663634 0.24353713151950987 -0.11583610268376789 0.18605993067678506 -0.15417172889176872 
0.005001562428667144 0.0694814796014906 0.08543917535963916 0.051057007188136425 -0.03474015889277945 0.21881318149392506 0.09939496995471694 -0.024429309740117255 -0.08587926001450087 -0.17294957683849818 -0.0707290892589554 0.08671705704640191 0.09190147491944634 -0.08295721413722448 0.07016487241679462 0.12062032356462413 0.12170079880080163 -0.18768260172789716 -0.14028241815978115 -0.14733321627988594 -0.10848377034704576 0.16806173129251914 0.11072805502342552 0.07878154717017316 
0.016860350710400877 0.08360867864221469 -0.07795816601535663 -0.05233438548853703 0.02932908706510525 0.12166337420282725 -0.11819627716956142 -0.10993069578516661 0.07532367024842448 -0.0625606401256588 -0.1804328580457976 -0.11949650957369101 -0.12130376122808341 0.032361237267986925 0.04711544960982138 0.20208290997731715 0.17027238358535118 -0.07597579892334187 0.10014089981428856 -0.10338723121719783 -0.05160451375459762 -0.0817249880583861 -0.041712637129924394 -0.11292812281626896 
-0.014279166170046362 -0.22197579279000965 0.17386607003670138 0.008477903533435208 0.1317276251125983 0.1890129623149674 -0.11188139999608585 0.017435015060640827 -0.012887235380917532 -0.08558729177359854 -0.008324438083494168 0.17514626522997492 -0.12843462796888575 -0.11272382210724395 -0.13369694923385433 0.21982996810567043 0.2013143713671414 -0.005698239268113635 -0.14591063983690503 0.040199770920465415 0.09206774563792379 0.18532023309789855 0.07034969365877729 0.21714894664141593 
0.13296420665523556 0.07131550182006535 0.08556350573914408 0.06255767484063705 0.10691355670989854 0.2553264444168337 0.10621643743022867 -0.13586584561685017 -0.2657868108439811 0.21905959352825286 0.02192317816676515 0.10234313327193383 0.07206044689556601 -0.1395307189380761 0.12411411795646736 -0.12353360161913224 0.17281324693759156 0.06516249036960015 0.04761965072220572 -0.03128253439770132 -0.019659065703371482 0.06436776515880822 0.08769334333565043 0.09948615297675957 
0.05166202229181597 -0.08870051395184105 0.18846470417333971 0.09579724695007094 -0.05701768559584105 0.03060984926209301 0.016645872410596965 0.02994324005135961 -0.05567854188554846 -0.23136037984806934 -0.06573311209930037 -0.09513226739456906 0.1406081519292289 -0.09164335763628087 0.049601702377877054 0.021790722035452056 -0.1198628300655878 -0.25317850724822816 0.09672159371229623 -0.10164551333463664 -0.08530725128731595 -0.15562241485210948 0.14294228639370843 -0.14527893256114785 
0.019495655890326712 -0.19352871578458866 0.19290188174011216 0.0628545231138972 -0.052714649833684964 -0.14028219582510323 0.0697023370357295 0.19989261842506514 -0.06105405175027465 0.1053919766444116 -0.08380943205121463 0.18334464165435904 0.10991483052851263 0.0358518456200808 0.1637784093654297 -0.12250350555720894 0.1659962448254919 0.07010654538989693 0.10734396045422452 0.05225408102259448 0.12395456934754287 0.0691872308793943 -0.1403383799605026 0.03348202468880117 
-0.16183925521737624 -0.049175492226218025 -0.29845036596030317 -0.15245760341273315 -0.3298769680480648 0.3342050493169549 0.06938716779820187 -0.08970413129566239 -0.3230031641711769 -0.06625936435836761 -0.03165575257117703 0.34746861810100793 -0.1853039679833891 0.06714828939647832 0.111410517644102 -0.2141897534905301 0.023526520581271165 0.20504136651310897 
-0.26888710745079175 0.07115472873391283 -0.38562218833820244 -0.3715419715040202 -0.302754862686056 -0.012373458364889973 0.33938663343767544 -0.050025949801636764 -0.3166611756493247 0.2624942484613277 0.01283879564242351 -0.1434935870606619 0.3327848391478253 0.33987869433376605 -0.1628286481660273 -0.2034535940185124 0.07626538796592623 0.2700313779367929 
-0.1259573879155037 0.05789219483998773 -0.24323688083853165 -0.20818130232644044 0.177594353611498 -0.23920639956387232 -0.17233000071012142 0.12565610740907235 -0.3341097353800585 -0.3262155889245979 -0.14386484998366292 -0.09963935974683187 -0.08231735622428753 0.1946125896382811 -0.3193559936039159 -0.09532529722898599 0.09305901560886404 -0.28902643472557277 
0.3039881397397875 0.09802433121896109 -0.25512739798466627 -0.22019024363336645 0.1666401001422841 -0.06476213061779616 -0.038836776680832054 0.21008408299305312 -0.2480549065074805 0.31370269951407126 -0.314665551936478 -0.34399284501893757 -0.2754315914057678 0.2664149516433256 -0.029434386161739472 0.10326846015692959 -0.22229957529389555 -0.2064043213270544 
-0.009745394131951388 0.1630445352534459 -0.04164695782090462 0.2529942590194161 0.1081591486787472 -0.1703809570583323 -0.2119216706311613 -0.08781231673697058 0.16717966493750194 0.34130704020960456 0.2713067735148195 -0.16212965216255848 -0.010600477738422927 0.04698455425083599 0.031248851883842525 -0.07433365176113893 -0.27329884350955236 0.11987396251233509 
-0.3838699608779113 0.25051869425342255 0.27234359576623524 0.14805982516944569 -0.009026256540643448 0.134700488374792 -0.13946754061342745 0.2863723882362395 0.19139655703181638 -0.19772644482153112 -0.12305897039389022 -0.05165927670777287 -0.02079157224072859 -0.018425853414657828 -0.31533012361819107 0.10785697503148543 -0.232536287612749 -0.13132787906928783 
-0.013454767669156965 -0.10191849257871222 -0.16099860935822022 -0.21812850046633003 -0.29669853576390826 0.03421475324275651 0.10939154135590544 -0.20010921317618235 -0.20690415522103234 -0.17697342062443086 0.22989680804673115 -0.2782519807408214 0.0431449716145137 0.07044089141666886 -0.10554130544434003 -0.10062861128578461 0.34288928879104896 0.05610127887586315 
0.16100781961256788 -0.006153984587680135 0.06480045058203854 0.057840882807129984 -0.24264889620855823 -0.11151385095750792 -0.015491201784381755 -0.32226609947166934 -0.09213865743657038 -0.22806349261124406 0.25262113242077194 -0.14817995406285112 -0.24998558694151968 -0.0635497288730205 0.12366329929721072 -0.29846403915608066 -0.2092611078032303 0.17674609658494053 
0.19666594746048535 0.07910295572763827 0.25336677579121347 -0.279925118712988 0.13772508732847738 0.28642143905610573 -0.238435021536999 -0.19395427677232632 0.021327261611839735 -0.128707732163952 0.13998737506998368 -0.33972755693016315 -0.253857911587451 0.1758487374287052 0.32401419156773426 0.2950660382791945 0.3036755931041234 -0.27011479800301286 
-0.3228240157561085 -0.2937887730989962 0.007377207778045231 0.27713699458275504 0.021179291237088876 0.19172045168470875 -0.2761583920637686 0.2593035739169345 -0.21317056172984097 -0.28978366948708817 -0.05254713421092624 0.1099877534422596 0.41587561050771 -0.3456055470367015 -0.15323821449228495 -0.27071185738315345 -0.07376789715522737 -0.20518257656625555 
0.04721687342204127 -0.1022393017627376 0.3271540318033436 0.1974357619015464 0.24697399770405784 -0.2536138396038723 0.023708357491267158 -0.1940247765507734 0.2519198960249199 -0.3628640149629019 -0.2702648017542012 -0.13044708790079823 -0.08595434290778291 -0.13668705791642294 -0.277060325902799 -0.26115846422164213 -0.11057719500750056 0.376931520045087 
-0.22872543673521475 0.16787166901053513 -0.19066656642862456 -0.36439175902202625 -0.33342922682373793 -0.2373845364416881 -0.06122986079428918 0.23618051915774624 0.1495976509883104 -0.09593906496666352 -0.010492116745676627 0.25664549047132446 0.280323328832603 -0.15684994835971994 -0.3417628495211236 -0.3116325124110212 0.16948371308589447 -0.18911535505021185 
0.006634812728905541 -0.20996423198111483 0.22313726536275283 -0.005220512245944353 0.018084911416997702 -0.14348382967303866 -0.005878589151781354 -0.4276001317579845 -0.15091060048062113 -0.13090707726803388 -0.14632585213878202 -0.32567257743050737 -0.01851919470726716 0.2332191586498145 0.30425316948654557 -0.001799872677572405 0.05905800936052031 -0.14284284782686385 
-0.2714562368165973 -0.25195415732101023 0.11288063274740423 0.14634383036249277 -0.21879462721055826 -0.05789908223113091 0.0659905005677584 -0.2669352596812496 0.1987282322901265 0.10839376104153356 0.08549095061249048 0.1881841113494852 0.40366319299387826 0.037591968459159276 0.24935620008294251 -0.054423923911570866 0.10880587650153026 0.29194848310688626 
0.175142850295672 -0.1331705406516484 0.07593891461441657 -0.1001503043298976 -0.11994175123965767 0.07398105428219828 -0.20358165351178847 -0.004036088870064481 0.30639208642389126 -0.137546484496414 -0.21209999724514617 -0.08392731810138604 0.2033207339766894 0.30962397891468185 0.22378072260721513 -0.336664131157066 -0.15888758671626832 0.426251486755924 
-0.31422768437624815 -0.006586843926487081 0.20385194366876364 -0.25871750925693693 0.10952414331703632 -0.007923852815183218 -0.2949128929983349 0.2668590797405486 -0.243983520138427 0.1394426555125064 0.17575404762565988 0.09509345457118075 0.14140799530069462 -0.31434660302318923 -0.1297675607744236 0.05825201032783695 -0.09401341935645859 0.07745708013595178 
0.227220763280894 -0.21122331835163521 0.289533945650171 -0.08618206275064748 0.3046236535772832 0.0788504410964501 0.16176162470347855 0.03746319250477994 0.008619576611207307 -0.07413181315870027 -0.25370922692198905 -0.027309027133672066 -0.1531981283437452 -0.4185945334839848 -0.1525703969290395 -0.2179403945547457 0.2994148259682405 -0.37769744262589694 
-0.2668892325237464 0.13805709937227265 0.3037184641077221 -0.16874348558633154 -0.32972052230075016 0.3168762924991245 0.0721863078707251 -0.10445892882406742 -0.032469480006235944 0.12316489143539743 -0.08479389356447688 0.33893775495359196 0.23184847199718794 0.2852148524459369 -0.10032275533412494 0.3004327175708903 -0.013906887477800391 0.041937242102407915 
0.15463418729660694 0.21091712161479836 -0.06960020589519653 -0.034749808754320856 0.2164447978858933 0.14736433076843744 0.29895328604879023 0.3303556238608569 -0.21909890703886922 -0.17972909557125824 0.1462827040090967 0.1776772169568232 0.06638095815416643 0.25382035141136056 -0.16837572053318955 -0.1082279416548445 -0.003556108312614016 -0.13404438875886668 
0.057143540247913044 0.12326161414539603 -0.2051580117418761 -0.025561998584903784 0.33981537936494116 -0.11871255257814925 -0.4652587818464588 0.17035398333876348 0.0021962081728995986 -0.35206039098367264 0.284637398165073 -0.08375712533205575 0.3081160220841972 -0.07816387123549966 -0.2905755558563523 -0.17300155913793286 -0.09629855087043927 0.20263680535066 
-0.25993389575199366 -0.04615778448443226 0.2640028992727006 0.007882541247334387 -0.27208188440152525 -0.3274451413290434 0.12307800401654147 0.4008519352522887 0.18964715140814722 0.20692293779960735 0.11844466098967749 0.25953477728640295 -0.3289098366837336 -0.18848833338430457 0.13212544758110428 0.25115622300236806 0.145544403145096 -0.27144304531918423 
0.3536868577304268 0.27666828398223187 -0.3106147045127777 -0.25272933254237007 -0.15235932822374074 0.16174510870930922 0.24300712003975503 0.08739490798120989 -0.21509026675247211 -0.07794826008835419 -0.26364205116296496 0.3241257142363752 0.18976955888332722 0.02922576528581245 -0.030974335383576496 -0.27581111255248303 -0.12247102135445902 -0.2915175371712924 
0.22653561777856487 0.029941321456824068 -0.23895659658062582 -0.2149761892270847 -0.16256676530122158 -0.12919395176154128 -0.10710357464194933 -0.19504165109198326 0.11269465969062402 -0.3452952235166661 -0.11600883744818415 0.18889614309842367 0.3306111720718076 0.22914570700273276 -0.17609811775830175 -0.18157609807755276 -0.23007410995651473 0.28857726942561535 
-0.2328623667679403 0.17541072839922944 -0.18757457843273062 -0.3187569639074122 0.1583185954964046 0.15332087760758578 -0.37220680709523046 -0.19298194273188088 0.30831666358426607 -0.2147062496851734 -0.2877544818916719 0.1301330302991976 0.3351821870188533 -0.30182370144807774 0.008651304858450878 0.1243044292661437 -0.22353234648559403 -0.42465669373272513 
0.3234394496903031 0.07161678586355971 -0.31277284610688677 -0.3096679744555601 0.08962174319774907 -0.24096575935613446 -0.2351870731951282 -0.29360671508944114 -0.23973603503074864 -0.010416261863362647 0.007639976301141902 0.008961854328904164 0.4599608366271634 
-0.2961857254921254 0.20315279037887374 0.23363499391221026 0.06625605219339242 -0.028928304884306692 0.3150665899275282 0.26166595271412385 -0.3613854114069035 0.37234140556169765 -0.3968746166765965 0.057010782209011984 0.056459621359635365 0.26672508180623955 
-0.11982750995560872 -0.3420030930144017 0.017459437620274444 -0.4262236112584226 -0.11699718517678126 0.4189971761022454 0.33213118001950165 -0.31219608411921396 0.30503209415662735 0.20786092952891294 0.34366405688155227 -0.2189060779204599 -0.06873810925876131 
0.2765894557146513 0.13169620030663132 0.07339410989942705 0.15078004520950208 -0.2275841171984106 -0.38387416013253245 0.18706064926674282 -0.13127194144269616 -0.10605354827625894 0.07559062868566455 0.12357568462945927 -0.23635365279639514 0.2569611639527962 
-0.09384807235781935 0.10333406539392893 0.37517220456557226 0.05045756757599757 -0.11076477470763904 0.09319533333007454 0.0013859961194385652 -0.03701800457150373 0.18384393423725812 0.34062017735687206 -0.016060462922147863 -0.3301381023462958 0.05427798873262457 
-0.2022460026425383 -0.370226298770752 0.22907156455885 -0.17978041558113456 0.22008607007603623 -0.009125522247418957 -0.14348226776845802 -0.14661551854686158 -0.3682063877223824 0.02669726487245979 0.257890806848152 -0.333703274738391 -0.31343682715789295 
0.05849814750899016 0.11299820495402073 0.12005290762687607 -0.17528047529777374 -0.39673600314534163 -0.08613837876680508 -0.20164976853498393 -0.4544353962076235 0.125691467608144 0.42080932096569224 -0.0851781604370647 -0.15762860763956227 0.05715654146146554 
0.2544386721159364 0.2346268825625428 0.10826316868337937 0.023642506789154392 0.086330867347872 -0.16634147609337582 -0.21369275090495207 0.32619306119080455 0.35298449341759713 -0.3596178194374912 -0.16103083506800855 -0.39780954102126465 -0.17517651558956449 
-0.23061384795534348 0.10589786470615785 0.16355860360550545 -0.304689704349092 -0.35211737075277344 0.3524987503419157 -0.08669225383030926 0.03663051321396497 0.3754918538961127 0.19922459630614783 -0.13739449266515003 -0.3320960772181182 0.014981860246930007 
-0.14723384915643314 -0.4235712374089091 0.18598715964713508 -0.07255839067578161 0.03364132769872601 0.25361100005025233 0.3929707498705003 0.13308709903051516 -0.1512082612746263 -0.34511623308368067 -0.34191347023125906 -0.14207675943210274 0.11194338465632808 
0.15397613643460883 -0.2413631610337481 -0.33460770312437454 -0.13297876250890595 0.01286678998080172 0.2395350155352236 0.03727061491074229 -0.1483925597609969 0.09732736471870068 -0.21545124614365702 0.12000852022576756 0.27286483248125004 0.08695966703564 
0.05418018502491128 -0.18134068057917277 0.2735822253581359 0.4747331083001207 0.19949938965282313 0.10933240789805858 -0.2942366532606954 -0.10513074706908447 -0.1343338625298986 -0.19671760344316674 -0.04204222333405502 0.08659035205959656 -0.2995474617073087 
-0.2247540442326881 -0.34654974111170234 -0.21148248551453855 0.02210745182761178 -0.03364054015946177 0.4602557494534211 0.43084578126841283 -0.018812701974566214 0.417277102534724 -0.25306012919595944 0.03193892412940945 -0.03619031563494654 0.38622119982525743 
0.2935754141284167 -0.2551503159891852 -0.047065826742616404 -0.31659711045447037 0.049916852020275265 0.23326907223249782 -0.4267163269770006 -0.3077644044358093 0.4326840362541962 0.43220546622689826 0.044034379110199424 0.11474706667399788 -0.175446038001886 
0.36335051919734523 0.1336474737747208 0.1312759980064386 -0.39376039366479276 0.2819149662217886 0.22110478372109257 0.1457735808612362 0.19071352405366912 -0.27411450592965686 0.1729669151612717 -0.32307861168402063 0.16345230896775598 -0.4007717405168589 
0.21938466099224524 -0.00653143762551323 -0.23514394356770066 0.1814049030181418 -0.14531031117578302 0.3071812764268282 -0.25480505464157854 0.35218500830422605 0.37875649998650185 -0.15426722726207967 0.2897017003851618 0.27309448882240434 -0.05878339645040515 
-0.0984344781407775 -0.17325716163556268 0.3973518883018417 -0.23160293722304556 0.37862956271810555 -0.078961616743273 0.3491029426953202 0.2537288831690467 -0.30318168930703965 0.08193439267899999 0.1366291064472172 -0.07358622591520392 -0.41757244041495006 
-0.1865982494648829 0.2780111440085557 -0.35105216211824 -0.3427261221696134 0.1724089699346739 0.016800532208683126 0.0009128006664305798 -0.1064899956561464 0.1050443087867421 0.3190202610941369 -0.17643194264530693 0.2752043818741864 -0.0776795435692172 
0.25789755624949673 
-0.029324100490455626 
0.4415899069031311 
0.6718359820429151 
-0.02159808829527763 
0.3731828709173317 
0.06187168019464079 
0.3025517798868565 
-0.3476577729059608 
-0.5393476819572659 
0.5803389411408757 
0.3770850407715557 
-0.26839472023896865 
