98 24 18 13 1
-0.025011135050932023 0.07419492702818381 -0.17159589455695973 -0.1227475062314953 -0.17072215857076067 -0.1703931094727891 -0.11320904020013968 -0.02685213228233126 -0.06840876043462779 0.00665815875754813 -0.04242686933450722 0.10086935929779091 -0.17489870467559543 0.17641162785764936 -0.218678601070134 0.0933816016993393 -0.0680587561901759 0.053105914358001376 -0.14212819912557875 -0.19134189698089693 0.14850673996497574 0.25806953740317945 -0.07400515055518896 0.1936034320037004 
0.19844715017798178 0.11103808954864029 -0.15017148067606617 -0.24765010272280902 -0.18796066221286942 0.20291191314940382 -0.2555997307712473 -0.11891495775998107 0.1338815497722837 0.02007084141061498 0.08487214558192342 -0.016002933386106227 0.05353001608556343 0.202309435742176 -0.23038878232105534 0.15050396513436398 0.2592887699301935 0.1432440692697505 -0.095515673833565 0.10707377245206848 -0.11563843956503786 0.01563108038501559 0.14952737120332477 -0.013847044911112973 
-0.10727052508394598 -0.18259984491466105 -0.25948250364203734 0.08558526890064784 -0.17564586600222118 -0.11118246906270798 -0.08950651348321537 -0.2649177532218073 0.03669143595137122 -0.11113474994061649 0.07528195853563004 0.11301106771149426 -0.1969004247470828 -0.006856623415642377 0.05096778313824769 -0.0026933339340344253 -0.2504775427290414 0.055617239041181696 0.056610003350262915 0.00920314556605201 0.21359204501290724 0.002305480064825645 0.20732386716690585 -0.11268325009443415 
-0.0759449945198187 0.03422904100559151 -0.032160530166401156 -0.20991457521952497 0.12842731806992536 0.043361973938649975 0.054880393257175905 0.06788469603963802 0.07097606223186842 0.13997928190760928 0.06679185955795909 0.04080465716920416 -0.20622496997661285 0.28927931350731206 -0.069820620391688 0.3156789902123767 0.11365020078191002 0.12993290474985064 -0.16287248996056994 0.1474442003712258 0.07645618718600147 0.10754068315478957 -0.09404392020242548 -0.01995617839960783 
0.18582167007399167 0.0215756034745038 -0.24568206663421713 0.07918628994547086 -0.13191093429482134 0.02292742927015071 0.1590559247284038 -0.037460337503497955 0.19616011216091653 0.07623979348284025 -0.22274706135461136 0.184694615367277 0.11606036048363688 0.20941312046001434 -0.11540146542305535 -0.14841288769825065 0.1839987696547261 0.09727371353848022 -0.18276727615749824 0.1295594178173282 0.1339464193415358 0.24946404958534701 0.07854064063850728 -0.11709426199300275 
-0.10280051551564343 -0.32574162829412034 -0.20243745738696678 -0.1926585482887948 0.10154523447794915 0.14410881924461244 -0.05445036888164109 0.10215253225069627 -0.30895822472474427 0.005248623386907524 -0.05893726190613299 0.33961441855982305 -0.09942761052319955 -0.06390603423695544 0.08299467376186143 0.011078034868478132 0.21369719242868526 0.07570800857055161 0.1361106840984931 0.07434612134141125 0.1300699839374601 -0.04472009220118944 -0.257802343983556 -0.09482312031256862 
-0.15036904828261924 -0.2513190417252736 -0.06222865302753912 0.007181368544630482 0.012682299523169176 -0.1219535496807066 -0.23167581649844637 0.24155342601948424 -0.004202861638973391 -0.19480981031926625 -0.18089648301113376 0.162783775517221 -0.15558967116329134 0.058691271910411937 0.21257012528658623 0.20417136170452793 -0.08144764492634224 0.03843059196036681 0.04684463307657665 0.1373731085837553 -0.10105552385319648 -0.12526463659992074 -0.28552050018094444 0.04692538212957812 
0.09743099155077488 -0.04667320117807857 -0.07156592626454042 0.20964235462111352 0.04043669981915321 -0.010186266121689092 -0.07098852623213799 0.07827721066372965 -0.030184637940103107 -0.11119025396541171 -0.17194625820798767 -0.003826398658272333 -0.02821625156964515 -0.1469908978345731 0.09939561757908182 -0.15285213078710314 -0.04804865378258323 0.09662050055171857 -0.1208685324039874 0.019915653156158217 0.07843688652659786 0.31026411393292697 -0.1425892575373571 -0.15119837111662895 
0.08290599137177658 0.05579767747777126 0.24169208619739568 0.17302726756331227 -0.19313090603883692 -0.06140047100356441 -8.676856787078804e-05 0.15825116105276268 0.18271672681529497 0.022043206372455607 0.13350005639855272 0.10616608521225236 -0.08447713606452359 0.010807881314963137 0.04069899179537139 0.06612208015322842 0.21752956247237024 0.19185185599915394 -0.04101845086610456 0.16935971843017528 -0.13765500333073777 -0.1502497153295155 -0.15596265664420064 0.03817455262596564 
-0.19006368017737818 0.207290999124164 0.1290938083425143 -0.1926985064974037 -0.12776734881209506 -0.06575406858737598 -0.14590042204306178 0.10110579741854243 -0.05249671168449405 0.17222867861211424 0.02226529287020868 0.15232071672924571 0.16865793382457359 0.16163746701912257 -0.015594676074804545 0.004198066944313798 0.11747442078574143 -0.0841031962232438 -0.0037813987484570256 0.0655039268914127 -0.19249017972535987 0.028474055326409096 -0.012867564608842844 0.12011717260207032 
-0.08715646494515486 0.15291546022940974 0.030331421977833315 -0.12517858329650405 0.07047797828878348 -0.0023422938504339278 -0.2570254455092104 -0.021072288950466967 0.10878914563518134 0.20444666613942172 -0.19492140631452365 0.17607446481882608 -0.10206135785843827 0.16617085959749697 0.020378530012830853 0.09747768793090608 -0.0043951670769739925 0.11699794456221234 -0.09198298803523053 0.05264472572413714 0.1269461315220572 0.20054150458081832 0.17448170755462905 0.20422448263435447 
0.10494116577452699 -0.044067062490561935 0.08238382974151187 -0.01871230325452066 -0.06763509874122464 -0.08405457145410522 0.01599804954543863 0.0030043618859093226 0.10462674266047382 -0.07486462806011472 0.2587114621578792 0.03829857037113342 -0.13656890401443464 -0.10804172034868838 -0.09359493871622832 0.09144027554605369 0.061931998076274114 0.1476462277537508 0.06369376448170291 -0.01786277373389154 -0.19111437445290144 0.1206352458253668 0.06804415013887495 0.1757764929304062 
0.12346568406326315 0.08989064033401033 0.02718538396133082 0.10039053364208476 0.019957128367566326 -0.15592107523379317 -0.1035757128908391 -0.20973367984570931 -0.11835533051114154 -0.16143847541806286 0.23379976166162617 -0.10391767476309705 0.1883639720683402 0.17515449177280853 0.07385148224270344 0.03848840892276192 -0.12390560081679891 0.06653229033058762 -0.060578881541492546 -0.1619794373749201 0.12219779995358467 0.019973879126695102 0.20637397270931504 0.2663223913183117 
-0.111329364771815 -0.2077720955632536 -0.12105712519488379 -0.021502184468368175 0.09779935534527062 -0.17960367931659557 -0.15197526853361562 0.19918999037686883 -0.07549082245635788 0.07352304344122125 -0.10480489454923052 -0.1735877243638312 0.04410773075271975 0.0053334592910088035 -0.13719714953848275 0.07727436191776725 -0.00020506112760489625 0.08856171037916531 -0.14045843559167498 0.06865844614203856 -0.04473458692245224 0.10379300738626426 0.05335656326482075 -0.09802623495620895 
-0.06879754489853833 0.16696542119421165 0.21471619878202824 -0.014389072808210855 0.1281752000254244 0.1647619250365847 0.08590706571835227 0.16370499954497097 -0.18218995929888954 0.05918891455136519 0.06911404409576352 0.044247352566497436 0.1653353234003002 -0.19742125976386776 0.10636166408151111 0.09562366385621543 -0.08997742151743904 -0.090003312938927 0.051702060868239 -0.13709016501301985 0.11035294932180503 -0.005707911045520996 0.1285031417507495 0.2615692211843094 
-0.14472004176641098 -0.09366366003415781 0.15755836524656253 -0.022210154383955596 0.20922835622913052 -0.013654614457665065 0.32863329238316563 -0.053219014841500045 0.0021470125089684444 -0.12558053330718455 0.010364398373304272 -0.25594708572091374 -0.2438111080566308 0.09296969769915928 -0.18647117651881528 -0.10141084955211828 0.09489433890372868 0.077180296864427 0.07485261394977138 -0.18931632569248705 0.03946701920248647 0.075403544090857 0.27163722796836515 -0.06853682194271166 
-0.09920114610097308 -0.09375382802217819 0.09836727096493426 -0.016726779943164 -0.175744534871838 -0.05244363540412217 -0.12236095109713045 0.166583440797677 -0.10844912707170944 -0.18760181909068696 0.036432035115158565 0.11922491462854737 -0.021936580370504433 0.07667763636143182 0.004323003154449737 -0.01667463748428676 0.21979199081833112 0.07569470920284786 -0.1856928770787141 0.07317500313465018 -0.02216822842464011 0.25843719167213497 -0.1096837403113041 -0.09150821949233356 
-0.18114063285781945 -0.06499760253215112 -0.11628537761386139 -0.028109724246739857 0.08152306601351524 0.12274790493614465 0.13586749483438543 -0.07816008819251434 0.12453679749852543 -0.05401872462814964 0.14286643645146063 0.09149620843873384 -0.17681554168727384 -0.16241741085416198 -0.22134548496650897 -0.15829582146905577 -0.029949998342051184 -0.16938118582803557 -0.19664232112226154 0.04916063195397799 -0.0044205978305317415 0.1385312648641932 -0.03085212770314916 0.060383215257014726 
0.024284782889228605 -0.06650685781141194 0.1115102234650208 -0.10148169204198203 0.16503031216174674 -0.16972113458073465 0.05595135517105977 -0.14729494658753284 -0.011926603928770207 -0.20586190725691825 -0.0459105870041326 -0.1525271064450681 0.1386580190339837 0.21164041791468047 0.11335426654923161 0.24501600944297194 -0.11744956748253617 -0.13260818381429265 -0.12318973419786583 -0.0015669735334947633 0.235264833054444 0.30309149100653304 -0.014204090003992547 0.14895442442093837 
0.15116564732408083 -0.03422219952579385 -0.0983580784865869 -0.1375381398380485 -0.21049467350791934 0.11902601530126695 -0.17192343245353908 -0.18402452638107417 0.10825089258280551 -0.014493560716352645 0.22568619480146546 -0.08713045595218488 0.06012720550746911 -0.015292046632624453 0.1382329027112999 0.03223703621466718 -0.05730090575511321 0.04340878309408842 0.1686214982749026 -0.19316684991517996 0.10251187927141682 0.23410155489298914 -0.15343255705864164 0.06430425161582269 
-0.08532366408049348 0.13777394321371206 0.02277075174402456 0.07092493140870575 -0.0771512302009595 0.06716768357588014 -0.06979028512412205 -0.30452442619967596 -0.010521167832441388 -0.04798870634501807 0.017254164252309193 0.24112421506524986 -0.09028943138457214 -0.08079237135433666 -0.08116387592904048 0.23295746257965344 0.2238687348200826 0.1818932100651107 0.16193381265936535 -0.13629560739118024 -0.12478037024567687 -0.07777206700697824 -0.051406747387978215 -0.1729666700395868 
0.10569809235940258 -0.04307673627573646 0.1727763266504436 -0.15438192490056737 0.08053199432366746 -0.15028768333849168 -0.0029817129146321383 0.029572315224580984 -0.11494748625781753 -0.18795160296029093 -0.023048713505473824 -0.07224376243745775 -0.0042732003673917615 -0.221886967939394 0.03190822737691885 0.15115326297560622 0.10132394315119912 0.026257824784829333 0.18905710225985986 0.23445500662306085 0.0007801053463094612 -0.2373742792041447 -0.2687741365918336 -0.19290624800270526 
-0.010020682095173407 -0.037529900730930266 0.2289454783752894 -0.17690252349295893 0.16182661888529828 0.01090736458585905 0.09948969533370655 -0.0020092291653710436 0.07770195233044591 -0.0022029135227558997 -0.23892062371731698 -0.0690333907207771 0.012770412794246799 0.07961063640688784 -0.012187766317052857 -0.046699670689252064 -0.21226097479336456 -0.19222654277099807 0.10159497371079922 -0.07341918555585088 0.2405030487210928 -0.11517597796034512 -0.03587573024070817 0.02027338994254424 
0.03228121353036464 0.03731943479215822 -0.1483822149511942 0.004736606204638984 0.00175275328752394 0.04726203629489602 0.044432182357189945 -0.15732525128310318 -0.2090835802388517 0.0028462829032822085 0.045334437717266994 -0.23625179070903293 0.14161073534249435 0.07999029234805174 -0.01974062474586904 0.16515629521225364 0.024085071578480784 -0.19666106703626532 -0.006043587412421236 0.1533438414093599 0.12709056154120066 0.05882511879261444 0.0988723101957371 0.023039234353036668 
-0.09721870912644652 0.0033204205044800213 0.15414290963445826 -0.06802002464418748 0.13271444170571814 -0.21414983231831092 0.04497919999615338 -0.1330160403014015 0.0669987739958877 -0.02814269347780602 0.13969404729011228 -0.024662986134160403 -0.09319482939060708 0.14518080151008556 -0.07501728659813953 0.1386994763075674 0.15773103715941014 -0.1096981183218155 -0.11260568173437228 -0.10986069923846864 -0.14127233366548472 0.04296217125137348 -0.16253893230599248 -0.12850057343150106 
0.04696741019818972 0.14155075507221038 -0.16621848198293493 -0.10558775661261577 -0.13791855556049284 0.19254499906950873 0.11389697562992271 0.055959349632942586 -0.03245461623923965 0.08061660707179374 -0.025183854020004212 0.1520845693584551 0.1354909215374993 -0.07595387183370904 -0.14782437944032362 0.17270874764821986 -0.18451957017819481 -0.2245486141725175 -0.026795832701662817 -0.10424362204640465 -0.09597213377300055 0.0927589389581941 -0.1292357060644234 0.14418321582723267 
0.08614997730573544 -0.23396633194361235 0.039381958070948686 0.1575947971904155 0.04569501080910697 0.14369250632572508 -0.12000643201870902 0.09440271750974227 0.19702456632685222 -0.09544917054674633 0.07676568462533535 -0.14607079468839612 0.09577575623521675 -0.14627906749394262 -0.04093160467758876 0.007125238293374081 -0.1509176444943895 0.19504484051890358 -0.050734809760959156 0.0004900367589239333 -0.014608224970259993 -0.13751501492114052 -0.23546824592037233 -0.16796943506047593 
0.09680806867963343 -0.1510718546316426 -0.05589075529890479 -0.18569768289928343 0.08388636011783236 -0.15264273998953976 0.1307024189747851 -0.159501070478068 0.004410383383523414 -0.19140137610150018 0.14292842496597025 -0.1092777430631529 -0.07030195841001233 0.07418896367024913 -0.1382966457683748 0.04431518525064979 -0.08830294912508627 0.06046067306541924 0.08753039747400829 -0.14750776758818457 0.20779975515837704 -0.1724883013159118 0.19791687951537032 0.0026624475176007987 
-0.04926981868537983 0.1340352518713304 0.06820355561029709 0.22408701286116756 -0.09849647713386604 -0.15202817462519713 0.11298342987620444 0.1949010502106407 0.04142604292639265 -0.019577100025426942 0.09755881720764889 0.1730663752098401 -0.10894878258930667 0.13846788035948385 0.06767124520321609 0.09123470664651075 -0.07531572149748118 0.07600989119960683 -0.19752325523098413 0.039865072985596474 0.1324421210479386 -0.12287923742793326 -0.20486461343329906 -0.10130363410371182 
-0.12163168004370381 0.10066573419469356 0.016782035278298305 -0.16685454988838153 -0.1429443778543276 -0.16587546666185546 -0.040061282737279526 -0.06888607583994547 -0.07730024597535115 -0.03314562649030838 0.07130440446168038 0.03240850017221787 -0.1081596556802249 0.060112187362891534 -0.10966406021104123 -0.05014073667992986 -0.004960238689465227 0.07921917899229304 0.1492599598602639 -0.02280758552549411 0.13448879997610694 0.031248266225828356 0.04504055323017476 -0.14556120731670666 
-0.02609229175085953 0.1912541260781682 0.041157646306525124 0.10322097736734225 0.0023803607194352702 -0.060092647198969895 0.10325350233234493 -0.1803187551221097 0.018021721486728943 0.17704216673241308 -0.006109905761504381 -0.12103816341878475 0.19215065354556332 -0.0628004792760156 0.07872808736704268 0.07981537336959128 0.10257008445422018 0.11922956552250491 0.13344700915025895 -0.19556958841979147 0.23072698244315443 -0.10902678786227382 -0.015825629838055463 0.17331220824360263 
-0.19516181635593507 0.12805289148774626 0.13093012782287242 -0.015191018088568322 -0.0960123457871284 0.11755303673279954 -0.02055269497229257 -0.1067707599030711 0.2094685607277046 0.1884419587573375 -0.00803773853473201 0.1481220786246241 -0.07674870837981095 0.04750680398269494 -0.04424663759135931 -0.04938800278183972 -0.09626122230195241 0.1907262742166548 -0.08073309619315822 -0.1734282198266124 -0.17957680272808546 -0.21588120724340104 0.033569443500779055 0.025107373235361254 
0.16518035093839517 -0.047767773293875194 0.1149751463332096 0.08407610981659668 0.09474210480385559 -0.03677038128448272 -0.016497728248611173 -0.1337052350860626 -0.037899235808456756 -0.17701282564747228 -0.03562076749785903 -0.11238270411808612 -0.05934377803703502 0.16039380376414816 -0.07039629722889307 0.16682692284257372 0.019990257592599044 -0.09264596488942889 0.1363336178358966 0.15478176627215187 -0.09766120085591411 0.08913407989302172 0.002039505895490526 -0.10910381526652302 
-0.06645994390208318 0.10847009947630139 -0.09088104286612182 0.14203148780556976 -0.08030765772739933 0.05675303193419266 -0.016544217247015214 0.12506608734172223 0.16223372450555354 -0.12448918397784325 0.005431698166039245 0.1917990773486755 -0.02674315928769674 0.20074557832281958 -0.08677356495245636 -0.0023769130566682656 0.03087190067854949 -0.10698195657300412 -0.19320547062339175 -0.03245271012401329 0.2001332829337766 -0.12307792628569991 0.11997453787506122 -0.23032658124851615 
-0.061849197146433985 -0.2253367138300756 0.06894917467946231 0.13122940499769997 0.07388475809534903 0.036901320273404425 -0.006903532911010295 -0.11737166369365644 -0.12652982010152544 -0.05003911244080587 -0.05658189626172924 -0.07380802628829251 -0.0523583933804218 0.2014535322046277 0.007877066868189618 0.18675472364417675 -0.07063351094677738 -0.13849115111678806 0.0055010987255737515 0.12545981628867545 -0.12466168352145368 0.0375777225004944 -0.06973318707352075 -0.0010512653184427722 
-0.13365199248552628 -0.1765575573147341 -0.09357211286039147 0.1549844692490668 0.11074421930572903 -0.017563126118615335 -0.020603822520414684 -0.14008907912788482 -0.016034470316087703 -0.07965030271840283 0.13636732399305515 0.10047907614785329 0.034834030977301894 -0.10007750988331378 -0.011425121121858825 0.2438151239637293 0.15221063246267064 0.06573304308078978 -0.1375770188966335 0.054389031150546455 0.050019887719936686 0.021515150437812377 -0.10191421342120155 0.03872111926577266 
0.16515560016224534 0.10930345778070179 0.030919795119953655 0.21978817556142521 -0.1725901527180013 0.20046650432643762 -0.21762361833975957 -0.1282267279749824 -0.05074093941462394 -0.17963741202377226 0.03492355768631868 -0.1946465856342467 -0.07896487430511519 -0.2018979402219842 0.07983518249328868 0.06595939858532403 -0.03442396106961922 -0.12296463689335416 0.09710657248684375 -0.09976340092734949 0.14020026831718124 0.008091680954391181 0.0034600224831728135 -0.1872436901281642 
0.026875779872646405 -0.014783957726650237 -0.10658346330285708 -0.025739796218946686 -0.04589211351276331 -0.07479880715513655 0.2679374564184678 -0.08603685662785876 0.17659490685569237 0.00045297883955892784 0.228202330093842 -0.11847922011541887 -0.07338829372355023 0.1300763529693279 -0.181158186753458 0.13175876748444465 -0.011668854677261743 -0.04829207600962546 0.19677948956610916 -0.1751655921469448 -0.02610498719219074 -0.1861889663630225 0.08662311428610049 -0.12605667512625665 
0.13254284673437688 0.15674327073897315 0.12408938615108588 -0.01873051699821808 0.07339606221014504 0.17547981845837532 -0.03767847810127298 -0.014395510474308794 -0.16440302966667156 -0.05103165143193434 -0.14139162011495965 0.15097644436138707 0.009796687643491689 0.021274822051523926 0.13878963258998894 0.05386779786056305 -0.010895446874024554 -0.09078491444727291 -0.16965475107320496 -0.03189976884246936 -0.14622558880800007 -0.05319862478174199 -0.019535625131743745 0.25796874298745653 
-0.15459315699939036 0.12523846624808188 -2.62223951074443e-05 0.10909760399875726 -0.14083523392586328 -0.16514046851337355 -0.04499621399661328 0.18855043357530396 -0.08713526039827503 0.09134277685940287 -0.08228664295571149 -0.1746832430337572 -0.19201128278657806 -0.08428547721120459 -0.04643688943961257 0.01873706108640282 -0.21182457701524227 -0.19954400751634505 -0.1920678689868608 -0.15281703955832854 0.0562169065668583 -0.03796544454644947 -0.10783036708761062 0.02253468692859001 
0.24602266905991857 0.09373865216719662 0.07829106111994656 0.15578853556675126 -0.18269707890154138 -0.21019592350603616 -0.0204078256018855 -0.04396640500811593 0.15465452355229284 -0.01702191254550483 -0.008358027398939828 0.21814231937997736 -0.10449850125228312 0.15253946738443983 -0.09687315246336048 -0.06333160974668167 -0.020050707253955805 0.014543140214530239 -0.11020411242282252 0.12549243056019183 -0.08940601290940307 -0.11700084848358568 0.12430220557045059 -0.06094217451464966 
-0.08809762617311856 0.11157269187875446 0.010020535360454351 -0.18447024952704522 0.1479594707933316 0.15074955064742518 0.21987412646121246 -0.07547034475807358 0.09261484015531446 -0.06285024316801965 0.015206838548651576 0.12802528517512085 -0.006073740067593551 0.014845195799625687 -0.06816316196751591 0.0587032484042284 -0.15634404451918602 0.1414520992110453 0.09897844823059819 0.07307674125888688 -0.06372099869882503 -0.14956656867809434 -0.1606106477350371 -0.06979934207269615 
-0.1837551784214182 0.1341832938280082 0.06670767940292997 -0.050055151205668565 0.10538495085740013 -0.02848115180006593 -0.182644009716017 -0.14437505202375972 -0.09208926260963814 -0.05513705070756816 -0.1776097407477396 0.0031827919771647175 0.05183273608871833 0.004079268368471896 -0.02633695076069053 0.10541161630152576 -0.03807929582347239 -0.1925427395918481 0.1475342405088463 0.04071892627062551 0.09864637070894848 0.15426973218626422 -0.18514486182527456 -0.1042445955394562 
-0.1731540397494376 -0.06888727240770567 0.13199144328818138 -0.16577708495804414 -0.010443026127875163 -0.16311071057772572 0.08596297608784519 0.08873690570687454 -0.22158016859877172 0.011707792143379525 -0.1025154922052495 0.23489620968894853 0.16269205820414936 0.06589016743456506 0.22095680970730566 -0.03653014546703914 0.2070858700442712 -0.018447308752471636 -0.10394856535119701 0.24124600710218425 0.11871588429003423 -0.17252086796032204 0.13055255961410653 0.08751082338982703 
0.08628579383749581 0.05436470002100218 -0.09692993940991007 0.038550076316272136 0.12409042666098873 -0.17688212783799864 -0.14609580103909697 0.1129823136682325 0.030468256981267688 0.038814409006973895 -0.0989790653310303 -0.05414507887491256 0.12921772721016034 -0.06784980206241585 -0.17271520827338255 0.21411722907269803 -0.1493248938191016 0.17162556032882367 0.15103361371068375 0.053369000964175066 0.08014284950354632 0.03744011632183595 0.021677903129989372 0.17396913030316746 
-0.06779714589347156 0.23328240235110723 0.026354902744461565 -0.15229129440663966 -0.10746235262132782 0.0008513340678385035 -0.11434585315094144 -0.14573211779971393 -0.09271046453640461 0.08997982469188776 0.09366920312568923 0.14340168555049979 -0.04916229217898154 0.07059802126058827 0.03088849939429532 0.031264096961307414 -0.15843778157880675 0.0830823478459057 0.17023907583134568 0.07009449839913173 -0.12121979168009804 0.042840953970953 -0.20637864469935566 -0.06725849442316083 
0.22320013643143755 -0.01805905328934465 0.14035238116375495 0.04084090510089421 0.12727654478895697 0.21371697673301548 -0.09592798724583287 -0.1491331973986061 0.04461021845998636 -0.09800764529242277 -0.14761308723286243 0.09697477223000175 -0.17173990714303222 -0.10587534534536178 0.10705267343966478 -0.09979943786310275 -0.047436721686429074 -0.19012394903046828 0.1977656194964292 0.031964805395104885 -0.15313851889621102 0.20645254964285042 -0.05857005563819672 -0.01761681564653441 
0.06573879900123862 -0.14324002215861906 -0.07634534283298294 -0.05828710813526799 -0.10050914042192421 0.05434384729396312 0.12128180237172641 -0.16968090754666365 0.24270015795945687 0.08305714765061012 0.1688184084125323 0.07794049637311884 -0.1337359726512256 -0.08550233212147457 -0.021135189020728914 0.030676077896098705 0.003154752944077824 0.018243942555807774 0.07117339668004889 0.11408990181428202 0.018903066554739556 -0.14463467480380257 0.14969091402334808 0.046461919335050346 
0.1832134126345314 -0.12587412319679434 -0.12757406478454247 -0.04250109547926609 -0.07029927084846367 0.14411287660876707 0.0242628914750745 0.11430694659335137 -0.03677096575837815 -0.15859635383866136 -0.15231866464718688 -0.0520600646952592 -0.12070316839962636 0.1481652251559833 0.03886479268427468 0.08835739171515802 -0.031216299768981007 -0.163136275104699 -0.10424229481516474 -0.014148152517714589 -0.1188064117884093 -0.1884639084695552 0.09760493550868483 0.08613759995732652 
-0.06641458046395032 0.13621957281904054 -0.027866919953354042 0.1403261079190642 0.0567007793317606 0.04060087486712603 -0.11795258731958184 0.01147745841298899 0.15163911831896987 -0.07646191595583272 0.14157120972569762 0.20056176450236846 -0.0666307871621066 0.08923576906196638 0.1580572586904626 -0.1856970134565962 0.17193105534950623 -0.12190643749924837 0.13817641729496505 0.06093730458810055 -0.04869788763998589 -0.1377171742337202 0.040382640848106284 0.16319847378683508 
0.11778496530236109 0.04768800802883242 0.1810917855085718 0.03505656511786947 -0.11910973239245184 -0.02751956968953847 -0.07045288762948118 0.20557935702358854 -0.0668289672302473 0.2348400954064621 0.007299719286595831 -0.13280617914216028 -0.16862091965045706 -0.0031808728382772544 -0.1489465899652013 0.07192609634066506 -0.0401768779353164 0.22804806880016804 0.17044886300540182 -0.13857573436983037 -0.03522572849760743 -0.024797966988442357 0.016104321190672316 0.10240010182622115 
-0.048426626497248694 -0.07181519946021561 -0.09352467501936111 0.18461568394436878 -0.18976133828651956 0.16651583176092527 -0.12285495426664353 0.002717095378060635 -0.07791511153961074 0.2436950242408494 -0.149206638559177 -0.1097456343838571 0.14400137646510242 0.04910489337362403 -0.0747779721129176 -0.19847536120774759 -0.11586041102139738 -0.14011395824349634 -0.11687098695949344 0.19937787639689816 0.19124810540279324 0.09333275140368967 -0.037882684481448846 0.11565853429563969 
-0.03292802739955362 -0.0426832379712563 -0.08811881485509868 0.15674374544445588 -0.044115310838072824 -0.025150723823558246 -0.08812052679829893 0.19154012370224846 -0.030925397233506426 -0.07940153361126263 0.08011782814352232 -0.1575623909815859 -0.151048395079416 0.1240964157752157 0.09596504776777573 0.011770884051002968 -0.1353942547807618 0.017973196670454928 0.054085124780371065 -0.06752986989855737 -0.1714801881795721 0.1418812197167086 0.0020654170994359924 0.1038239672168757 
-0.09675104231300827 0.04943741441489794 -0.02772899798617316 -0.046036288132850114 -0.14762206178616355 -0.10058135631157238 -0.16669762110121372 -0.10191002401596337 0.12345633877840993 0.0368422334688382 0.058227470948161546 -0.23357804095761434 0.0949211578052505 -0.016508588727290642 -0.10590425848311347 -0.16047484611741675 -0.15446014509329034 0.13596623758813522 0.19172994269209964 0.20493235080922698 -0.05971202417555158 0.11119360184510184 0.037126188680364554 0.12414368401737978 
-0.006316125229187583 -0.10258826438351201 0.11315492997506071 -0.15827652040756582 0.014382069432845639 0.003362152470605625 0.017863427488843234 0.06070349922705263 -0.19003209635798385 -0.041765339971435556 0.038802833761236735 0.20668478576955834 -0.04903034715224497 0.22191361786575456 -0.03743808326451283 -0.14384475261018742 0.11485183459054374 -0.06482350644463594 -0.11106606080669823 0.2220392029621229 0.22613916074065926 0.038545046524052426 -0.03341550139489324 0.01631612489799388 
0.0786516186397511 0.17069272700188168 0.143334542752453 -0.1312745290937726 -0.09307166949498687 -0.16981688381141005 0.1901436952127235 -0.10372162068705214 0.06285619622613133 -0.16254897611274216 -0.11393987405595915 0.0010953158863546521 -0.15637620106975125 -0.043375190203905165 0.014764042238621546 -0.06293414732269577 0.02174925278780858 0.014289058808304798 -0.042692972439505206 0.0769626101525176 0.06992242729409834 0.07341209266312404 0.023932542931440714 -0.05548949244428486 
0.044155212628355846 0.18422216722006382 0.03137685430611515 0.22282008833910033 -0.02295695345919974 0.09207383912887687 -0.18355648524272689 0.11133447130190346 0.02988505247196069 -0.19662998014129848 -0.10258112747893224 0.0226122346936677 0.10545427801525291 -0.21451433617298468 0.01907753308361227 0.140833033187191 0.01344929813296032 0.1745778865227083 -0.16855742220563727 -0.07475614324407844 0.19286340785701506 0.1020083923276839 0.029908404081640895 0.10471271161009983 
0.22470683089543297 0.1669275952683342 0.19818543103707797 -0.1424244169408596 -0.1702480028311388 -0.169067761603974 -0.1928099811914077 0.16018021383375408 -0.22864133409355075 0.13495424511908455 0.0563490592944895 0.04291073639125212 -0.05997810813377238 -0.015570204318514322 -0.09677083404277403 0.23143059356932907 0.07570859285247256 -0.18828192718793652 -0.014955327804750774 -0.08585637622801147 -0.18848459776878998 0.21914216405783965 0.07094716052550525 -0.06667404833789767 
0.11686795467621307 -0.06868848495112406 -0.07531801596442403 0.16970362729534233 0.1894324432202212 0.009146745595321202 0.17932661933159982 0.1535384746046667 0.006999817878156638 -0.049713852111995485 0.0825454739008349 -0.017245975162319887 0.04105319214056394 0.19489651355317053 0.1078282613235933 -0.0648799813141941 -0.1628039098943421 -0.12428061272837389 0.010428954401410244 -0.03230451577733213 0.11850705910642277 0.17175941244041823 -0.12709919123407218 0.14231040425862448 
0.17586673755926274 0.25154666345578475 -0.183451841551478 -0.17548031820218407 -0.19643507669682286 -0.07930872881628537 -0.1762418509358444 -0.08087313448929051 -0.006832751166828063 0.15107412122716551 -0.008949892944961787 -0.14818390538552656 0.051355945593571026 0.08973752747861148 -0.15384345152088327 0.06396489838269336 0.10593997166307464 0.13305831758255518 0.15454878045165613 -0.04613779363822132 -0.041546766986600134 -0.15773409483856957 -0.06851774368595857 0.15964024454625422 
-0.07147167376429356 0.13005615929702766 0.15456707544760465 0.1524197599341386 -0.13580195483585536 0.23230245484467824 0.03293490946772645 -0.11399689004628893 -0.08154789082999281 -0.13429032014621306 -0.026705011691720147 -0.13339832520124265 -0.1321255508861861 -0.11936418212979635 0.07488634671995656 0.08453968383284598 0.21509266850185144 -0.09576630446235784 0.05064120066686766 -0.18483990109024748 0.006287146000612426 0.14977325352262688 0.16430213286585782 -0.19478338860488537 
-0.09716773263734194 -0.10871943621921694 -0.17953973695588088 -0.19466203650075903 -0.003803996849385744 -0.18037065149577192 -0.08703670647610515 0.05472297741478838 -0.08054423825218544 -0.09048184561885361 0.03530086463537759 -0.046652081098769976 0.079440276851622 -0.0015032588352164647 0.05205869697516869 -0.057336181541637055 -0.08357745109715037 -0.1450122677758514 0.17332518129463095 0.12017674578078891 0.1737080647523639 -0.12409054435357866 0.17174061005552352 0.17278928454577297 
-0.09391031277422043 -0.05863733289170197 0.020005276435049634 -0.12412707609634013 -0.02252956997477213 -0.149233992575151 0.23685091113770346 -0.0023953472118206044 0.24475961136746444 0.023324676926111943 -0.006087360248986457 0.16600031252711497 -0.14004413266973142 0.01579547152768393 0.06336548254752944 -0.025756816533697324 -0.23630873542519518 -0.002823018275973476 -0.013548221059951949 0.1770120454193954 -0.09564801137891099 -0.04237102721892368 -0.07331087837628855 0.07307183331461804 
0.2126246122415073 -0.14017209349149107 0.1268234981822373 -0.10587231916163443 -0.1753218473267476 -0.16477287798544019 0.19578682102086561 0.1759735608443642 -0.0924217521745077 0.1935120014247238 0.14962683291662943 -0.03279761665901876 -0.012413063080819119 0.048810505667769045 -0.1350470219878 -0.19279446808407075 -0.0906514382844876 -0.19252649140875056 0.0683473895825206 0.020019814992313954 -0.08261609922458145 0.112953904491116 -0.1539799268546254 -0.10033684929487235 
-0.08148722830614553 -0.09080133943549794 -0.1632310041896493 0.13803484954324013 -0.16313024293414005 0.05858476308129702 -0.150160218232432 -0.1944486810028269 0.040507012365190206 0.16545724122908606 0.17481926949123566 -0.08654456206380659 -0.18778281951323678 0.1185628982127161 0.12063626199923091 0.14672132071678104 0.03610337104432361 0.09793252019062264 0.15736350513127986 -0.017953025027883648 0.022500837716006913 0.0023781905986933827 0.1015290500510519 0.06738789015918333 
0.0784270360235447 0.06626588448898624 0.0022417045119401467 0.12762786402347612 -0.08564051712985232 -0.07431115748422629 0.12868879438113237 0.08967439473686552 -0.16796285042702377 0.10191010695545791 0.1217703115212547 -0.10669370904084036 -0.16500676642211035 0.038120695367562664 -0.1084626037365319 0.1971921836984318 0.07961477657882707 0.12936733318017413 -0.15522471668341364 -0.16470481477575943 0.13423431489473026 -0.059790394474897736 -0.16350760883795354 -0.0503767945462947 
0.06741677953182117 -0.12240726967519093 0.15665111108812582 0.17848237701770472 0.18322336689138483 0.09037744389916098 -0.036541459280589585 0.0958111936276153 -0.08320337129584933 -0.07273124429436226 0.04132147809833643 0.03698666618133769 0.14978293047872718 -0.09646768270514973 0.10474689928720746 0.174913510325682 -0.19836648103505503 -0.009285023441062096 0.06145185233952324 0.13559048811869143 -0.12474734685088133 0.14074138170701023 -0.05301358726771627 0.155260072169371 
-0.1875590256124749 -0.17572829869391574 0.19125231417894614 0.04273712161794562 -0.03209701864863323 -0.15558468848332124 0.06261359762470722 -0.18381083638055898 -0.08621352949423848 -0.06914675505252756 0.0419282296552948 0.06970496838985384 0.1485596417757704 0.17181700410759332 0.06280068121661407 0.030982750640549134 -0.04166946525714343 0.19872581560588876 -0.13663246430816783 0.17193007855825115 -0.0740785683925006 0.027778587898288493 0.07761740489134666 -0.10368752676003372 
-0.13115637658282012 0.007418277212289075 0.147803180311779 0.08852767738827047 -0.15073437110678034 0.20012317442382188 -0.007866489960331293 0.2038570015377718 0.03126804747898539 -0.16449564366209365 -0.11725893996550733 0.15148115669547982 0.08881280107174716 0.15289806390955982 -0.0669068237230496 0.010876183764593858 0.05958548920282271 0.01974394148969363 -0.10568319011758084 -0.028500953878852625 -0.09905043266501937 0.1433778261583415 0.22161882887510595 -0.17185099570733325 
0.12971958993142724 -0.10232389880112021 0.048999509475409105 -0.09506379053884863 0.05907188805522042 -0.05034403951943389 -0.10887826433063093 0.14833219168007059 0.1617175693860337 0.04432716523271901 -0.11246368907433599 0.22766598314732145 0.07720545439674788 0.13437414922602428 -0.11356032968126736 0.13015128331926093 -0.08475046193863361 0.030062533018614918 0.08269818037183524 0.07296111341070428 -0.015931816536584018 0.1481290602816205 0.14444431854994097 0.03407580203466459 
-0.16223499233442776 -0.08461948756808062 -0.15625184823066507 -0.12915672697587588 -0.14773562274415136 0.061041266348296354 -0.1828253635244027 -0.10166003085707466 0.24567056103643345 0.13325058549860092 0.04113527455675411 0.13442665443462623 -0.1811916338031828 0.11695080922455033 -0.07396653798397486 0.05544957010954674 0.058842230345021646 0.10292869498184323 -0.016112738911544584 0.2698869914634964 -0.09515792882008066 0.11586809785018176 0.12964608104534295 0.1928864238302124 
-0.1855630742755185 0.14913585633605725 0.025520005082144134 -0.0029388871294388115 -0.09463085203274994 -0.06782185594802204 -0.09851271453262403 -0.11054762248527883 0.18562398443548475 0.0009287750301297422 -0.165145608955914 0.06963999592429757 0.06932656070717619 0.057672037285118945 0.005974490187539567 -0.03902879895022129 0.16993603762728623 -0.18734415634069004 0.17158242136260782 0.2383479617647793 -0.06129917430583939 -0.1124648507687113 0.10665758825017661 -0.12705611018803334 
0.11067803093635568 -0.11305793971696185 -0.08208510303514742 0.20669631193779484 0.15954595372959407 0.023590071442276442 0.15007612893967698 -0.05767592318185802 0.22644293465818324 -0.025815476099398604 -0.08049667543198794 -0.1946183951868286 0.21293845816384857 -0.020758330194127858 0.09216685936816986 0.06987599027066874 0.08538622532815533 -0.17809549784531226 0.16645036731080362 0.19347631019746137 0.03306906858042141 0.2187916877431339 -0.1036334661377894 0.039849809830787 
-0.040395545666660274 0.11150865180768169 -0.07818983247081114 0.18274200855939957 -0.17055315569843393 -0.18182807338390358 -0.17878841915448543 -0.13808655487635554 -0.0021062241347923065 0.14824870523884262 -0.15402464779984562 0.012552105865508744 0.06456058265452125 -0.1049638300651874 -0.11896323274057914 -0.11001838963081688 -0.18104204585134615 0.08365994105507792 0.06018919295420835 -0.021878076334752982 0.04549571310933759 -0.15435445758289795 0.2439637344319915 0.13731685350920525 
0.06223934320203461 -0.031697993367742594 -0.032514280830358955 0.003341092512566732 0.1725997433044389 0.13206015224946066 -0.018321269657355487 0.021209914668820204 0.18899560157388948 0.1753213585667551 0.05441184185334535 0.08756615837122922 -0.06363602944786857 0.13943934955805962 0.1329555349845277 0.020248870651330773 0.14301789083891708 0.11017802727792625 0.12160672136098916 -0.14602259819360228 -0.0034733135594057518 0.1650483307287917 0.14187703138174956 -0.0308909326310769 
0.2031169169255133 -0.10256210376027074 -0.06514310675237694 0.21356053578059392 0.1217283174824168 0.15316712451540976 -0.19408783388438497 -0.046954653613725854 -0.10500259229807464 -0.08005146600662148 0.09352276683886401 0.08991739835640222 -0.007035645254122004 -0.08991770759998448 0.03300707121859052 0.013097202720609723 0.012999287886531239 0.025808348935082492 -0.04071517979833062 0.12305763025818962 -0.09781974084333536 0.05514021097249153 0.21457874401013946 -0.1973441169747468 
0.07280700288606243 -0.16294694864397255 0.017024128014982945 0.04958198182551951 -0.10110688705269719 0.16433438959412255 0.06258842646887344 -0.10559079414605366 0.1331688980666676 -0.15615338788031313 0.02148580426133859 -0.18834752290128148 0.05221153152339642 -0.14918358495924808 0.05846425748801006 0.08471659083687025 -0.0015524972965512487 0.05652377254863622 0.12356006619453284 0.1431798585874967 0.033880448384814105 -0.027407533682725777 -0.03396715822242402 0.15453157416460378 
0.0634179084053599 -0.1336239656367616 0.025589534357819937 0.2030146425479161 -0.13799226976747841 0.1255524537334878 0.16897458156797365 0.004611986666457876 -0.18356458598509767 -0.13927147133566015 0.21239005049126017 -0.22688016960925925 -0.04981222659497576 0.0244262532891567 -0.11946345972036274 0.1847354593415579 -0.1957520237478741 0.015423024575045035 0.04608029724811004 -0.10587176521549237 -0.042235392865439945 -0.003488309274794623 0.14714844372736127 0.052480541973543786 
-0.012607509856412928 0.042814433312231934 -0.018129481729636306 0.009985380029803074 0.06205477586806781 -0.12576568174927236 0.12677907979287237 0.043727580055341074 0.20960682108923734 -0.10930450483001942 -0.01310723680162672 0.17794410668271154 0.03956995866780404 0.10326100096789442 -0.03364873291246216 0.08302011578349991 0.17660906233610627 -0.1181689978921733 0.1211883086708093 0.22435331285366206 -0.19288089566964756 -0.11216753283064665 -0.1513765166281894 0.10365286865013551 
-0.16594138531147148 0.21472959521069282 -0.043085095815256394 0.24440083654373934 -0.12281126273706629 -0.023009446581015218 0.14797070471558255 0.04023880965786008 0.049782843852638856 0.004908689019960805 0.028777454451799942 -0.024686598090903716 -0.12906422658986458 -0.20314989971274133 -0.13777641623357303 -0.1775378054982463 0.02834589850867278 0.09018901764619036 -0.05507995011772288 -0.16832363964749186 -0.05204495940941065 0.02168682122504358 -0.03388256396929815 0.12253074247173334 
0.17163872287564164 0.18278339579143774 0.08002552100371105 -0.011537570008027445 0.07158984201958735 -0.1933469380011175 0.23623566549301817 -0.1294171703784398 0.20492211197835974 0.1116551713409044 0.1160364484888773 -0.12624900295953545 -0.11136840043075727 -0.06878310838676313 0.1373267734657166 -0.019298671025221127 0.2165609425853294 -0.05761806403556384 0.04662308603533517 0.17617331022401023 0.039660241991457186 -0.18036415461323446 0.009454592217554063 -0.06469240108703586 
0.00023572875689037052 -0.087961427210945 -0.14941207850319582 0.06589335153838784 0.07106042871701182 0.13103851288980745 -0.14534401043436554 0.1445701383815789 0.15679794958814003 0.040743259796694874 -0.11627627367586157 -0.11738187994087522 -0.021711676278868934 -0.0049341808493282326 -0.00876051562893541 -0.012642609111065378 0.12004143526681747 0.14677069434613668 0.12494482151697632 0.19276715875697462 0.017429309798199975 0.19193380711885086 0.05807865815276943 0.03916716708646019 
-0.07080035634483535 0.15411146325278793 -0.1777500670441751 -0.14447416359233364 -0.14620370791270687 0.0010192160152550844 -0.1281132424481591 -0.062167316776304604 -0.12842833273058535 -0.1047777012748267 0.2795516744912376 -0.06925106143923908 -0.1378379726708596 -0.06170882068864896 0.2712736512786911 0.08867211017421191 -0.12323967014807927 -0.08483783966372967 0.10297006576832303 -0.10208790356696833 -0.09661426788601471 -0.16478412620729502 0.2345693075877495 -0.02026650884361907 
0.024047779426445908 0.1266906451996468 0.11684009374345534 -0.020418993074794306 -0.12459199687901519 0.11701311594272254 -0.1862290745827227 0.2303700384092968 0.050407552985638024 0.15349010626237147 0.04236937801410683 -0.14301171068052268 -0.06102263114618809 -0.030968461410152658 0.240747088633788 -0.12444469449674951 -0.007442412464888411 -0.06112494329516975 0.10615695990861075 0.16853803405303971 -0.05490973778070582 -0.1165957924422764 -0.17164161492302143 -0.11878372046569398 
-0.08939076832422865 -0.0058727474613924835 0.1931762562845528 -0.14701205287209426 0.1830523007812168 0.04276685100964255 0.1325243727509929 0.24048422824857732 -0.011128946209840935 0.012270212321276418 0.06456651809362073 -0.020411500642302707 -0.07879213558902015 -0.15620267042146152 -0.0844153602070072 0.09300455586722593 0.016770080244409635 0.0979372201028389 0.006645412671334479 -0.1054292021558224 0.03158145399793946 -0.076853450479429 -0.19875374889652336 0.15208691141374597 
-0.03102543580427657 -0.02906077236488116 0.12556059734987252 0.20173857584650956 -0.16945156754599372 -0.12102880750019167 -0.06959028066493328 -0.10555624863255829 0.005597208655262708 0.12803001833038413 0.13986349042279406 0.036939918862473616 -0.11625468452482601 -0.16029200891623277 0.09566849996647198 -0.10339088098556815 0.010442907051158478 0.08839286674457053 -0.10696466050742386 -0.12844623838126246 -0.18269425601727626 -0.14886682228979187 0.1616898367863696 -0.15650413939722643 
-0.10880106944151488 -0.1855172174651606 0.069081846882466 -0.10558742532304348 -0.03367946183704684 -0.14256424258516487 -0.04795619450250937 -0.005107426750817783 0.028959434304327906 -0.030057869127769858 -0.1572608805581449 0.08031951980020084 -0.14340576068604147 -0.07362696307512998 -0.08956744963989416 -0.0780409862420893 0.03392346425348823 0.0069042839625995224 -0.12220738480986183 0.00763938246479759 -0.06280123530075689 0.052082668873545054 -0.10782369339352414 0.10396478754003281 
0.010186904703949212 -0.07202605185188406 -0.09683174559281962 -0.1237803472886494 -0.010946040964850067 0.20779202565825364 -0.15732607433756 -0.08499860065785127 0.059386377812997125 0.14629504997726472 -0.08686586752248385 -0.008499465109988412 -0.06041728126111158 0.07487582360204621 0.08611044364703067 0.1411995272274529 0.1566112316289927 -0.04139540728139648 0.1687397898856316 0.1105704724120578 -0.075516386735396 -0.07100838780063001 0.09584862932617393 -0.1478772930153053 
0.05215773542925264 -0.07714714273504446 0.12912779976938019 -0.05295138374385588 0.09168235223157635 -0.13266020159385128 -0.007202501093091297 0.11417758176202086 -0.06506156002259146 -0.13362662535178474 0.05827317579420661 0.13138326256794292 -0.08629646540143027 -0.001248274441967628 0.15379723844387605 0.18416391349537792 0.11028831906821814 0.03543962981038136 0.12519631322431168 0.16522744860778743 -0.1977686387582757 -0.040095302111517794 0.026513358242046786 0.09190376372239203 
-0.16341882496493693 -0.011158661779555526 -0.08652333017191145 -0.02979638476114042 -0.000783860779106232 0.03441570469337523 0.03170919831733132 0.04102901869243195 0.07111091685251161 -0.027909968523837664 -0.1967678616176792 -0.16730164411884904 -0.07816652581344746 -0.1394819447760933 0.03848345985792258 0.006632765096448016 -0.01673458468800267 -0.07188239594372697 0.059959541284783854 -0.12212880438730399 -0.1964011969748626 0.06685457424264815 0.00996412541252649 0.08184673989894889 
-0.0892484482438502 -0.2597512767761093 -0.04760570414932023 0.0850852831920492 -0.15723599301803715 -0.07422562870744703 -0.04647805714836399 0.032602836064370276 0.1081585314020654 -0.0734757755027706 0.047474070473351324 -0.033077767043471956 0.053096033301824615 -0.1419281533039903 0.046501203537015395 -0.1350408447305697 -0.21758518006551036 0.05110469763778988 -0.12457189713838741 0.06369081272867631 0.023301749150951036 0.16298062801740706 -0.05302977297589988 0.20181900086147048 
-0.021962077010983228 -0.05460328410772222 0.09416142106059595 0.049646327797543195 -0.053761900119958766 0.020490399339235868 -0.10994986409606583 -0.08080982830916161 -0.2244933447595977 -0.01355559701215983 -0.06729948646164334 0.02301328620855819 -0.19273286586643512 0.02328115081102239 -0.08121595223909683 0.05622457730586648 0.09833553265749674 -0.04311740217079838 0.06386632152559006 -0.07877096383854691 0.23397995350403342 -0.1323583907945888 0.18478295783410964 -0.17144442561462664 
-0.009237287976457962 0.09225578862398452 0.11781528472453823 0.1309025025513076 -0.039154529268988665 0.11660394934167595 0.08371816391162433 -0.07218127850556626 -0.10754277737734518 -0.17206707025315293 -0.045214724777171485 0.10303118024034445 0.07274362510874219 -0.0671383207244739 0.05869747557294316 0.1323552413955403 0.12289797086967197 -0.18672076496422327 -0.13957456339543275 -0.11899885188461172 -0.19681014525280047 0.16763483168375107 0.14231381789870837 0.051064849795806576 
0.016781106517185493 0.0717105490991898 -0.07757601930938454 -0.052081826675269755 0.02918985459142591 0.13737631943726478 -0.11760520284783404 -0.09554268987321671 0.0873131040414533 -0.06225674629553861 -0.1795100936076037 -0.13161637849530974 -0.12069633289593981 0.018021151757751982 0.04688790738806631 0.1877920160500764 0.19626678346290832 -0.0756037869086618 0.09964427289116827 -0.09958165070664464 -0.05135559778311718 -0.08132353784770986 -0.03488813071386749 -0.11236471029786627 
-0.020848754585954886 -0.2104154284402651 0.21300321806096148 -0.011703912971742184 0.12775343175326967 0.17565124970048185 -0.123454825001558 0.024744098736889944 -0.029802456272064275 -0.07639122359466877 -0.015110558646720994 0.17920734198191515 -0.1321049205639941 -0.12883069656740587 -0.11930825858385964 0.22276413170305684 0.19396692400649065 -0.0059764352864373 -0.145172840339785 0.04186468535851026 0.1082404520042409 0.174307172435149 0.07330614058461231 0.2065939646659314 
0.134091802546137 0.059996997848739256 0.06745063309464656 0.07200859682742143 0.10036326353775366 0.2730832515963492 0.11760344832818055 -0.13590413296982382 -0.28282545946146515 0.2374345551394722 0.02695831316923164 0.11303461208659044 0.053635299132148255 -0.13429223292482065 0.14709162975999557 -0.11479590587118592 0.16458001960478208 0.08980787976704156 0.048357170236138225 -0.023952388131377345 0.00450801918557416 0.046690118766623476 0.08985863524032282 0.09506988552414096 
0.038822367273138966 0.057873846610025176 0.18749864843523104 0.09532318201739087 -0.05674168420314676 0.002055192478355195 0.01656765029882608 0.0030477621623675676 -0.056091562454840406 -0.24401679826132286 -0.059293577311599184 -0.0967999295970464 0.27689241801964215 -0.11688663113489084 0.0493627675871286 0.004637037433274564 -0.10441203462862685 -0.2481771087605962 0.09624273306532462 -0.11025686310332639 -0.07988449372998324 -0.13187059249362518 0.13599141565022357 -0.16988872436498903 
0.019403825500855135 -0.19253532579313248 0.19191187678766722 0.03839063244146615 -0.045244927488034985 -0.13957434224231213 0.07720355670261572 0.16071094959889695 -0.07127067380303753 0.10486798812056405 -0.08339727464346378 0.181465325596998 0.07935812150374978 0.04883438538378724 0.1707633272156275 -0.09072516164918691 0.1678905855854882 0.06976443803654785 0.10680977765383416 0.027897350271404688 0.1318141890475256 0.07775957395017312 -0.13963022779381293 0.04389939246576106 
-0.17958563978286426 -0.0489386786263732 -0.27305960996686285 -0.15203680020153532 -0.32814335691252133 0.33244798183349766 0.03348830752442201 -0.019449677609493003 -0.32431584482280923 -0.027089108306088457 -0.0315052077582151 0.3726733966990514 -0.14729372717811354 0.029167284635452186 0.11085505839711361 -0.21308457779917295 0.014525184138389304 0.1701412893590482 
-0.2725565181643188 0.07080729210389046 -0.3584636794549051 -0.380324951242944 -0.3011684501142402 -0.012315523582494652 0.3409394975515027 -0.03851819779492024 -0.31549857143669263 0.2639929756825142 0.012778658017156061 -0.14509508954789382 0.35547516882672975 0.3447124188368678 -0.1620004561124304 -0.20240655394784515 0.0682087143860687 0.2674552065179482 
-0.16263611235389486 0.05761180326333382 -0.24411780169436018 -0.2071086736739846 0.17668686867348424 -0.23796546482047096 -0.2365262170386475 0.13889506950110805 -0.3323531843424728 -0.3207751583939127 -0.14313794291782586 -0.10242685835890476 -0.07830231427788971 0.18846228226091097 -0.3176794432314452 -0.09485367969568441 0.09259913913517726 -0.29627105185197866 
0.23784090278636222 0.09753870653630184 -0.26368414428435466 -0.21297201759860782 0.16579147283974116 -0.06444711628330808 -0.05183727811599358 0.2555958929092768 -0.24676588645538314 0.38798963946689435 -0.313014457475492 -0.2876367804807626 -0.1793386458527827 0.19353989138110092 -0.029294642495113647 0.10275554764875908 -0.2211504284260039 -0.28431818057816094 
-0.019361711639330516 0.16221518635766558 -0.04617570435748606 0.2516783878571557 0.10762070492791688 -0.16951225028251793 -0.2447570229354976 -0.06512771052704133 0.16568814888029493 0.3814483327700803 0.2702188644787911 -0.11849931919850325 -0.02290606712576205 0.046002143735902876 0.031100288013544326 -0.07397002216690518 -0.2718725591159475 0.07100174103459482 
-0.37375439207954386 0.2492162813414829 0.2957448012087501 0.14458807601179482 -0.00898411695299473 0.13402226225702307 -0.15793348193955767 0.2629229845410905 0.18635409271984715 -0.20980400923045717 -0.13594849533048353 -0.07632977179770269 0.008955043341843156 0.003226333188026193 -0.31367542180881264 0.1073201109742587 -0.21804716736201826 -0.11195625295421413 
-0.030455053188911913 -0.10141261356673247 -0.12360078014037061 -0.2170019745228653 -0.29514503119188046 0.03405172561005133 0.09973659696561113 -0.23420873265013453 -0.20657842571242716 -0.16294705701014572 0.2284624782908824 -0.272518617029987 0.051287011031931 0.054149783707106484 -0.105016537482683 -0.10012944697331802 0.34184082933323856 0.04011455096414319 
0.17283444369133732 -0.00612532764287905 0.062254076139484235 0.04951037668186555 -0.24138925689773072 -0.11095785039678992 -0.0290986488941121 -0.288106350797819 -0.09168354373859038 -0.24437026951767424 0.2489006107373887 -0.15280384296394 -0.25349603386762415 -0.03137683786344004 0.12304343540727986 -0.2969009403275197 -0.2167087606248078 0.18904745499202383 
0.19539600057812045 0.07871494872057569 0.2598041020211923 -0.27711484681096493 0.1370308156689594 0.28492379833520104 -0.2467539467251871 -0.1787137978536118 0.016940088397995906 -0.12310138174844967 0.13702535644055636 -0.3372745892787434 -0.23248226492203866 0.17777053856163472 0.32231237043007305 0.2935214059244288 0.2988927550647921 -0.2743137862464766 
-0.3023071882306751 -0.2922510828402178 0.017166956608391147 0.27504219601981084 0.021079393230424216 0.1907368255418453 -0.2877806679683688 0.20996346447898692 -0.21207090882856525 -0.2877511011056195 -0.052293513009185305 0.09149847485595965 0.39961012729459244 -0.3556741826975038 -0.1524613304530056 -0.26929964168673265 -0.07517261426305309 -0.20661361488939498 
0.04171362477107449 -0.10173175184919296 0.3354946914916464 0.1964212636404287 0.2456908528670472 -0.2522945999379146 0.07988824896080066 -0.16618107174486174 0.24580599575812773 -0.37749550139812876 -0.26885501727367 -0.11887701392725666 -0.062389230360938505 -0.14923076718113362 -0.2756135861036785 -0.2597982014407308 -0.12246953110061327 0.3609879344634341 
-0.2387324873970419 0.16701643355223222 -0.17559913608397074 -0.3627229598569937 -0.3316763631837494 -0.23615349892675344 -0.08346495394744682 0.20478447104443404 0.1452589016906324 -0.0810399428569713 -0.012364533078283044 0.26809983139426935 0.32365907685690515 -0.1577356837278191 -0.3399648484066787 -0.3099978838968288 0.16993668850858518 -0.2048426931615227 
0.023273221022267917 -0.2088819483779031 0.24216781747732152 -0.0061956947416271614 0.01799982510671945 -0.1427589502971307 -0.01225425943011224 -0.2526155583069833 -0.15014614326365086 -0.15813329506589346 -0.14558584084655715 -0.33496111878403495 -0.0423193589919428 0.2610665747508479 0.3026586173988811 -0.0017915244906089717 0.05621790887472954 -0.12152697570316841 
-0.27780389851837384 -0.25064394076098157 0.1228075636720899 0.14512262357966724 -0.21766448942660824 -0.05761865606293578 0.07078662241700044 -0.3312255027751739 0.1932590047460407 0.13012849706836474 0.0831305440928796 0.20083323901288724 0.43590319210113504 0.025877177143461407 0.24806010653343544 -0.0541609201603572 0.1107450929566896 0.2740454761407853 
0.16251795467218036 -0.13250042269058793 0.04830018248695902 -0.09965362848613524 -0.11934149419751386 0.07361922299244672 -0.21443620539052827 -0.06822276260552589 0.30478591604870214 -0.12187357106203951 -0.21100614467570333 -0.074272190211767 0.21050277198389714 0.29356948535497446 0.22262354045651594 -0.3348937413068118 -0.1571835318990996 0.4141901157024837 
-0.3120986567234271 -0.00655615940269657 0.1962875486056589 -0.2573705197632556 0.10897856010435637 -0.00788689588724621 -0.2817234603508191 0.32200637728613535 -0.24399850243681817 0.15037624414520828 0.17276954485224572 0.09553120618932504 0.11510980124641641 -0.30793101823289076 -0.12911545689823006 0.05796981127111702 -0.08117649270434997 0.07491534414662025 
0.22203240143233222 -0.21013421498784324 0.3072933035476371 -0.08440809472191335 0.30302708896001 0.07846372721628779 0.1509787965698422 0.01881662582593975 0.005814689226878543 -0.0627042840482931 -0.2523894686527599 -0.022986371459992175 -0.13408565384481982 -0.4185294913536547 -0.15179707935095946 -0.21681488849645705 0.28887374986699976 -0.3878899397688694 
-0.25292001172879025 0.13736106509063462 0.3175133264834372 -0.16788357082136057 -0.32798775923014256 0.31521319870654413 0.08027633728667943 -0.1357654648352952 -0.035196375634060466 0.13959151043648388 -0.08437667314409371 0.3491613564879069 0.24102593514972076 0.27499077896573226 -0.09982518237666446 0.2988589214326734 -0.013841687327288044 0.032976080640489784 
0.15484861787841103 0.20982967686077114 -0.0692606711171423 -0.03458416579499932 0.2153273998971019 0.1466187860383509 0.29806844220186146 0.3286194180996175 -0.217967119305661 -0.17955416701179033 0.145542922579423 0.17609099127456732 0.06523743959619001 0.25322751975536284 -0.1675177798216065 -0.10768913822991678 -0.0035395876856940704 -0.1327380824606374 
0.07781255454495725 0.12264386833811569 -0.20598120049446492 -0.026567035628985557 0.3380279225566973 -0.11811876309293913 -0.4962421517448761 0.2464065227504379 0.002186017969489237 -0.36768858462694454 0.2804684706468813 -0.10257748194432605 0.2767213088445689 -0.055501640295058566 -0.2890553315518124 -0.17211877317807414 -0.10683529111148402 0.22227214229120018 
-0.25096044910074944 -0.04593596038399044 0.2718724987253705 0.00759023221605148 -0.2706622181247037 -0.3257247141980091 0.11304372327939177 0.33822864851444023 0.18481265169372696 0.19471553075389583 0.1178522804777574 0.23158239111172452 -0.2972564389755937 -0.1723391343244107 0.13146086497714635 0.24985034432993988 0.1393922227175901 -0.2482619107744379 
0.3423798794192064 0.2752236761135789 -0.3711608161112772 -0.25078244632131225 -0.151587137673918 0.1609227216632301 0.2374897458961522 0.09734508411618437 -0.21642940260938653 -0.06684856060677748 -0.2641336390203611 0.32395830396684167 0.202351152438509 0.02727220751725976 -0.030827107347167666 -0.27437116603496703 -0.12185744306320026 -0.2953024655019196 
0.24177604652059978 0.029799115749695213 -0.2503530477832996 -0.21360418929057695 -0.16173997645475915 -0.12854488151773216 -0.1101474800004464 -0.14762133673960934 0.11145528114949814 -0.356804473947203 -0.115429258698503 0.17572881330639828 0.35787340775953963 0.24384261958568001 -0.17519868252076157 -0.18064717660696258 -0.23402900265661006 0.2992518047433424 
-0.2042004276275565 0.17451499023965622 -0.24684995976938234 -0.31971432416925333 0.15751455243273774 0.15254355204883113 -0.43765263632683965 -0.10170838760089386 0.30670004058220657 -0.24458044007454793 -0.287254465349141 0.07894600193863378 0.33855748106597494 -0.2756111490902358 0.008610929103352436 0.123681183805559 -0.2228780624288329 -0.3788452569380831 
0.3291852523865952 0.07065565392019964 -0.31113202643328186 -0.31440459696865836 0.09408443133925656 -0.24573553830389205 -0.2144724243573473 -0.2991771680494235 -0.2356188349849993 -0.00718816303155807 0.007604352357092179 0.008920017779678924 0.4646426845320401 
-0.29463500784025115 0.2021073777326136 0.23242432149068915 0.06593347816642756 -0.028791017400189894 0.31341331857737226 0.26030293026271867 -0.3594813093430865 0.37037818816273377 -0.3947793968299967 0.05673481545672903 0.05618641946996787 0.26533454728920414 
-0.08990895925116396 -0.339524975826578 0.031723423559701085 -0.43290602049683147 -0.10845289932996088 0.41209705513867584 0.31698364067175994 -0.31931417575954196 0.3080296091293262 0.21651662144179656 0.3418557642646225 -0.21777533580507982 0.013989065546741 
0.2748643983110504 0.13103389044699343 0.07303527089893089 0.15517148800995997 -0.22981401641888585 -0.38169847085093195 0.18610216704705296 -0.12785385321050266 -0.12599018613792035 0.07184962396257327 0.12295628276801394 -0.2351282149582205 0.25431743786437533 
-0.09338411009657825 0.10282081091932872 0.3731937288651817 0.05021437021291028 -0.1102126974572293 0.09273475115769557 0.0013795700423003925 -0.03684125465886539 0.18290279410287388 0.3388283627935291 -0.01598502878549564 -0.32840307567746074 0.05401571522436419 
-0.20120549544862543 -0.3682744863594716 0.22788566921883044 -0.17886116416257836 0.21894892906177696 -0.009082915509508412 -0.1427573967039546 -0.14587396401795638 -0.3662654703987124 0.026570784804675007 0.25654831258920224 -0.33194892611268184 -0.3117924028099407 
0.07774803992415798 0.11829433630311519 0.12853522225061365 -0.19192309794531798 -0.38016799716701477 -0.10276916348090973 -0.27368395874639434 -0.4726793792630843 0.1895403288764035 0.43074675860353756 -0.08475896270817486 -0.15682825593878988 0.07489158937404328 
0.26842610697853664 0.23340303149297986 0.11907112860786935 -0.0586760804138471 0.16864037968894796 -0.2486808182995566 -0.15892573907563634 0.24421250391897656 0.3960587851007618 -0.3073422156761395 -0.16021227360716578 -0.39570930170478774 -0.06067414999891146 
-0.22406060133256323 0.10443057794908504 0.1647319388125066 -0.29949913348161855 -0.3530571096484658 0.3527235498925097 -0.0862652593862276 0.03806183484764284 0.37058993298010195 0.19738021949085832 -0.13670197585138547 -0.3303504381398233 0.013818815795502237 
-0.1675013046227882 -0.41671436436651604 0.1930375739991442 -0.061686222711648905 0.02259258411586629 0.264451344687533 0.44223667089996005 0.14235693766648483 -0.15319958238861586 -0.35625564815375227 -0.34011465370150007 -0.14135936540012287 0.10207056578305397 
0.15319531055311825 -0.2393809432859488 -0.33284845397314666 -0.1354732143945343 0.01583398638753565 0.23502014537348542 0.04173689841663214 -0.15074728312129332 0.09684535955036871 -0.210759266655184 0.11940791175014938 0.2714409083386857 0.08971563183212225 
0.09444544934855055 -0.1773877159848241 0.2814945250160025 0.4778528748017886 0.19613409627138473 0.11244050781395368 -0.26043961732370896 -0.10882647501395393 -0.123275326430082 -0.21452634386855784 -0.04184075748089054 0.08616388263499451 -0.30024540299834157 
-0.20942938163999306 -0.3428168777307149 -0.19747287947637807 0.02737440014987945 -0.03950705493787404 0.46549297496733943 0.46579212687358384 -0.018793126438571464 0.42680067622107487 -0.25984415223971274 0.0317870000935797 -0.03601762251839713 0.3819500789337119 
0.28642284914778493 -0.2514760008417891 -0.04683949766154154 -0.3194748639525896 0.05231613838351275 0.23031096062868314 -0.41065869431701973 -0.29966841381156223 0.45878227403940536 0.43304181144939446 0.04382307112113718 0.11417411253796574 -0.17260597059574082 
0.3614358070136727 0.13297482884755318 0.13061591256157118 -0.3916818996493783 0.28044182799790196 0.2199621176755928 0.1450365113848695 0.18973533331917347 -0.27268378579777086 0.17208431539300584 -0.32138186522449547 0.16262077478108156 -0.39865560317901344 
0.21825132371055303 -0.006501012718911511 -0.2339250762182846 0.18047690364453237 -0.14457570893349028 0.30557081969493544 -0.25347933844066045 0.3503306199984291 0.37675871429052954 -0.1534848461433324 0.28818622645582787 0.27166931575539266 -0.05849852683890451 
-0.10575433144657673 -0.17237895631420597 0.39525410594969834 -0.23596513306164793 0.38221675811155 -0.0858249980875613 0.3456548734909484 0.2503204851203452 -0.28842039161472954 0.08799292871060282 0.1359406514487633 -0.07322640766050179 -0.40549260346313165 
-0.16443393652540575 0.2741265920953576 -0.34920389929691453 -0.34531383914553826 0.17439752931466568 0.014139641165471471 0.0229996953239674 -0.11590221779981712 0.11230696743855338 0.321081070073701 -0.17553071171196769 0.2737677348247404 -0.0751158432595068 
0.23905369518023825 
-0.018132049612109444 
0.447595899225888 
0.6779859553130645 
-0.017854987648030902 
0.37924591928202905 
0.08207928032854155 
0.3039096614414482 
-0.37289166706762145 
-0.5496068882903368 
0.5772787122396857 
0.3750962585102141 
-0.26644588976998757 
