-0.09938181403527678
0.1969453241654584
-0.1377762294071529
-0.07457629006548956
-0.1909009297061412
-0.00505124167851231
-0.014209565371097738
0.07086103218631742
0.15023992273305
-0.0841654458712986
-0.033660580357961115
0.1625118619743995
0.038057080791043814
0.07789283365882531
-0.07522264381697573
0.009590523512255826
0.057537527153739
-0.15682900961549134
-0.2187299077150953
-0.14229444260099267
-0.014621700146709915
-0.15182255860725127
0.07783428550410644
-0.10424682469487695
0.2931714809838178
-0.35133213571734223
-0.1952230460150705
0.09893753955915174
-0.16193288140754367
-0.37062621976205373
0.061896045103527884
-0.10178236714678483
-0.2820804119475283
0.36472623452316816
-0.25106191248905074
0.18827196929641848
0.32911128004125184
0.2729478689867742
-0.23867922243569092
-0.19895404772556527
-0.3681766789276206
0.31344351140734467
-0.008772067009260243
0.19336957705704266
-0.26398535871010514
0.3944079788032698
0.15366017591888417
0.1279400798203859
-0.18908827345593532
0.2005224937633524
-0.19310930023782769
0.27179804813661473
-0.42984693047613143
-0.29340775519553985
0.02683876368429309
0.1356758218929625
