98 24 18 13 1
-0.0503195761058579 0.07807142900221481 -0.19242446689680884 -0.09156453186449633 -0.1815349332602054 -0.2096400238193659 -0.12453478650116276 -0.016855655348121893 -0.061601333016518295 0.025306538013453613 -0.02994246255705321 0.09349335937036701 -0.16363985713486393 0.178338793009322 -0.2230268332135168 0.08928973257351609 -0.06107129141378543 0.019346250046238044 -0.14157239502478075 -0.1836215790818031 0.1619321901756783 0.2580501357683497 -0.05711654857995207 0.18781437117612407 
0.21933915362983888 0.12593335476793613 -0.175049024951418 -0.21913271937762402 -0.19983038998254243 0.17307230421084255 -0.2638516164075236 -0.10312836643998792 0.1349874814572442 0.043282704468269796 0.07533353445510149 -0.014984082210100216 0.047316707001043665 0.2276862792799288 -0.23197363756399872 0.15389004519526667 0.23209777353941244 0.11186724818663277 -0.09569862665796593 0.10573073336870244 -0.11745916320223802 0.0006675853674824673 0.15315263019524555 -0.014201944839561872 
-0.12496851986945054 -0.19716378606120805 -0.23883195594077986 0.05712220608205131 -0.16081984784594835 -0.12208410500035084 -0.10161991368350648 -0.25318698687146307 0.04711635614023718 -0.16522892272827655 0.07516913916764892 0.0851815756212453 -0.20315238326423093 -0.05694819013435977 0.04666585143300833 -0.02905225756498594 -0.24522649472326882 0.050482718792443225 0.05562417033184592 0.037206897662087186 0.2053314834627794 -0.00663810804678732 0.21465610025831985 -0.12927900297328151 
-0.06673381446439018 0.0380326687145626 -0.0349457542693482 -0.24285380325080358 0.13520751989657145 0.035250857468716174 0.05070212154602908 0.0800563291834321 0.08370617269295835 0.0897999670494282 0.05580495208926838 0.03201011000237822 -0.20200192996802738 0.27097729329953224 -0.07390276555247469 0.30543766912232095 0.08161073993433378 0.10427420580543827 -0.16318572444695095 0.18494906136132647 0.09516929246205262 0.09020629422158273 -0.10095135091223854 -0.023366453406695974 
0.175504383275074 0.015602052610805313 -0.2465174016107782 0.05659020791883355 -0.12157287579894319 0.035267405300882224 0.16993807655140628 -0.04362502495164228 0.1953189282767021 0.0555424332651524 -0.20027040021720982 0.18030490349115047 0.1087512657656315 0.19877113119769937 -0.11789926133075172 -0.15346524631789388 0.22195856014213874 0.0934315827920619 -0.18272502553301445 0.15785222643568855 0.13169110878894186 0.24922849133991248 0.08124665682177908 -0.12556214675077704 
-0.09844188050561525 -0.32394372588710524 -0.18282930079708706 -0.20512781707425518 0.11617823023691437 0.14310629249285 -0.048653743543596084 0.09975690183118367 -0.28875829154321203 -0.0417621985681533 -0.06339544595685175 0.33606979505598283 -0.08761779771141552 -0.08858637270842597 0.0901710268949919 0.0039032997283972794 0.16966051417797012 0.046863563228658936 0.13612740616885713 0.13421297209523422 0.15703143462457864 -0.07804451413946167 -0.2877290086963552 -0.08508167707965654 
-0.1417912497646127 -0.26081631739437633 -0.09223585543548822 0.05301260575685037 -0.008376637148262069 -0.13929045337781729 -0.23188243058036492 0.2476265189263136 -0.01511796763031504 -0.1750068201666186 -0.19817421725811335 0.17180422616592766 -0.15175115219509266 0.10079839786417874 0.20669774191585139 0.21835091306816115 -0.12354109995052362 0.019165077981307614 0.046609279753630814 0.14704855130827965 -0.09210071023061128 -0.13438600522042346 -0.2724694375248213 0.04023834702433255 
0.14021229196141968 -0.06820885858446896 -0.07122873284196539 0.18845091623022214 0.004796789504660533 -0.0063029448669737805 -0.06619221592383898 0.07329549754974553 -0.03421396546242593 -0.043387586530464234 -0.1713259227429248 -0.009229133042472502 -0.02181178763385191 -0.11594380176263908 0.09896021545474917 -0.14168940519740233 -0.08447641831320767 0.1694966450233629 -0.12036828007213471 0.055464449410537305 0.11016567926194892 0.29323856085698075 -0.14904106255937347 -0.12609752859365086 
0.10603096860527822 0.0513375829582887 0.24774689346217163 0.19777475026057234 -0.1924734923361963 -0.10407575905529044 0.0002249278561337375 0.1472173681757978 0.17495537454572202 0.021925134084629847 0.1280106982987136 0.1164497112546268 -0.03672963928738674 0.034633297542635645 0.04049123768625112 0.07802113905571373 0.16106991291194545 0.1757359370805838 -0.04080923890586774 0.21228833908532224 -0.1278333855252699 -0.15126083897439813 -0.1627374997925548 -8.090736235078421e-05 
-0.18941120701222638 0.22903901144409847 0.12857107574096657 -0.19204178070688346 -0.1272481558740959 -0.0654395336233748 -0.14533561474878204 0.11103912953938348 -0.041986060675532746 0.1739122072119253 0.021822395415453753 0.1362923478082572 0.12680039617404548 0.1440122551015825 -0.015509746383889026 -0.012577052424073696 0.11030508420323579 -0.08371969702038519 -0.003760169953170802 0.022790661505849675 -0.1918337863677339 0.03183413915933334 0.0019489274460841922 0.10336979337349969 
-0.11240098358341297 0.1612813187431614 0.03017238905324858 -0.11324020805325692 0.0807614571124452 -0.00640213003161921 -0.2258706236847009 0.046661029736219925 0.11895212971781878 0.17784949317065746 -0.18499043594435755 0.16860017557883467 -0.11205737109026898 0.15956382861056595 0.00974583453027712 0.09438393016106367 0.021226514368552017 0.11158687875830438 -0.09158974829052069 0.046323188363038593 0.09150290538368214 0.16931241637377883 0.17694120343975375 0.18260745079729374 
0.10625644036900823 -0.07415453614037508 0.03904187573977159 -0.04802818560059964 -0.08431997439206312 -0.08723330956954718 -0.0029315694007233713 -0.01976526201705731 0.09162095086605139 -0.04544428520513784 0.24883391082215436 0.044258115486775954 -0.17646131487428499 -0.06752398320432705 -0.09891296361654371 0.1106760683534228 0.07653949768693755 0.15239224779131927 0.0633874476665337 -0.04623889434639577 -0.1534292437929513 0.12358165962530504 0.06379464664967474 0.1868745498438972 
0.10124694074996415 0.09988882040638279 -0.03870302326427892 0.15039494849063006 -0.007153700468381092 -0.08789023490172543 -0.09945919638493289 -0.2669056557296084 -0.09758799588389815 -0.15032967697339428 0.23817396830348259 -0.11881782391749031 0.1530234931262544 0.2131401310193879 0.0650087757956893 0.0573861997793938 -0.14741984891776871 0.05208274245382078 -0.060285176350275554 -0.16066454433209326 0.13656347048105189 0.009957345396942137 0.182947115037233 0.25961649954250593 
-0.09731989385065923 -0.22305227766620397 -0.12055634313296366 0.013960150258138036 0.06214942628947852 -0.15588267087109867 -0.14936040295802633 0.19305471669314267 -0.04486015745060897 0.06870426636882829 -0.10435229286786689 -0.21297386655347514 0.05998231337336037 -0.040841196219411666 -0.14828184626534796 0.036422991298663956 -0.03992158915907804 0.0925527049098277 -0.1399066970951356 0.03189890485477087 -0.047155334867217874 0.10049852183621046 0.14575450644536925 -0.1305904579534136 
-0.03571203800830955 0.12430516283698943 0.21141044495439767 0.01370120397052587 0.12764064251894297 0.18303206318801168 0.052266588918977515 0.15991918707016398 -0.16389582713262238 0.1724217990598871 0.04896661570071046 0.054823352578540104 0.10892705254088356 -0.21394609325976002 0.0977443875658053 0.11977897479403132 -0.03911912099615372 -0.12038642778046287 0.05144555151976454 -0.13324256027840406 0.1295920287023599 -0.055710023833239544 0.12922307189582444 0.20421759188951227 
-0.15207796349917993 -0.11845127336190021 0.16047609436005497 -0.04445876001462835 0.16828728659389658 -0.015431882077032852 0.29509453595875274 -0.054590229416098694 -0.008332799486461671 -0.09484587267901505 0.0093177479161658 -0.2597503569551601 -0.23945847078803317 0.09001911009733327 -0.18582467129300623 -0.06802340286729253 0.14525511135896244 0.08637001386136645 0.0745029448658555 -0.14938962533979405 0.012217893226835757 0.12444440500787025 0.2576870664094816 -0.0610362153191848 
-0.10106324824611365 -0.1106220554858615 0.09793520605802504 -0.016635949737041213 -0.17511703510923296 -0.026673976934577497 -0.12250422006399606 0.157085781363563 -0.08827843412252592 -0.1869534143985005 0.036244000281663045 0.1285131061348993 -0.024248591088245845 0.09060685980718307 0.004298767531455203 -0.00837435801004718 0.19677157154318695 0.10377275161063224 -0.18504769076718833 0.08563682451803764 -0.013188183691759352 0.242211758763205 -0.10921613049808583 -0.09109897334206925 
-0.21463485042089334 -0.05007785721170556 -0.13532376467386611 0.011634473018089434 0.07755124886409359 0.07696841756234246 0.12944230250939856 -0.08202322990131759 0.1244345882812663 -0.06882196004577093 0.13738546578370076 0.0923941291742209 -0.16458159067971184 -0.13363631451909636 -0.2268387321365788 -0.1495948296879664 -0.05904230198653343 -0.20575278159580898 -0.19601163604868815 0.05897259391532867 -0.0007378744998665699 0.12620719464492505 -0.007342038479752419 0.05142028625241184 
0.008175748382282617 -0.08823430988023395 0.1281820496929135 -0.0669346602118677 0.13319943844214574 -0.12925662547859598 0.09324172966877867 -0.17475061542446474 -0.008251303517517648 -0.17019834046311638 -0.06074513594371582 -0.15503420947144264 0.14345018109381522 0.23770863481950658 0.1026332370208456 0.25430859691103647 -0.13640993588830042 -0.11849387016171237 -0.12268300893249892 0.02595355889172145 0.24305687440420556 0.28654880672926586 0.043818574579045116 0.1441741349444356 
0.14876317993680108 -0.03758702422101346 -0.09792604350923148 -0.11205595931792006 -0.19593922854079676 0.1608291476328851 -0.1878419220262678 -0.17766786092436868 0.061303632374907366 -0.10885849665213149 0.22009708227546068 -0.06114149473452187 0.05161575162760171 -0.037692198935720046 0.13357361131387008 0.040979869185314544 -0.048920986992466775 0.05368853605835084 0.16701750390240686 -0.18560275479390662 0.14828307871888097 0.20339877413457091 -0.1601708515957424 0.052579706859276945 
-0.07465109650133442 0.11545365737645642 0.02264901080970195 0.07991960252221232 -0.06663781778107528 0.06784482547853761 -0.07839509578341601 -0.2649518996263229 0.011362411170478814 -0.02618027914945274 0.005388662554069922 0.21037760942872247 -0.06458874384202144 -0.09711871676762941 -0.08789314220679875 0.22982718220815426 0.24890256967972155 0.15128284478484177 0.1612808354697897 -0.09670323402223516 -0.14782400951066718 -0.07775326342000331 -0.08802128533222396 -0.12620168111693603 
0.15112036335048076 -0.0659885256312914 0.15030770930176374 -0.16360865258652424 0.07515296922120374 -0.13314964422726774 0.024403160133315054 0.02884584289602002 -0.1131619008131592 -0.1768129572543065 0.04281347831177753 -0.07804780898307653 -0.008833869296826936 -0.2178907613814992 0.03237544068052412 0.1431077044256335 0.09023200227878914 0.009076638732232176 0.188406281429638 0.22529026975542796 0.0038483319999726645 -0.2624694994397962 -0.2738722513553334 -0.13585242976445727 
0.012959725866057651 -0.06033470826274969 0.16074087951588956 -0.11453084738417206 0.16414580040558757 0.10381619917597669 0.11808104748406618 0.035108004148047496 0.0650556921496314 0.013261969511959173 -0.24586455636928065 -0.05121776274522726 -0.009595674537679936 0.12774409435347095 -0.01212080661908156 0.002765357112401242 -0.1846453152724033 -0.2409921272085657 0.101152506764424 -0.07130867198509235 0.23030530952588682 -0.1374295841567541 -0.09570408983734344 0.02993328843628862 
0.08320542157104256 0.029474823745658935 -0.1478116204171457 -0.07557946904043095 -0.0024386904738190615 0.03998838815356793 0.06015057983536022 -0.1776283498686975 -0.20771330212829883 -0.012444871265236296 0.10217814852588317 -0.23575020808979272 0.132966172900984 0.06716890284703189 -0.019634257119487925 0.1737227715443459 0.08002981941060934 -0.20481641976317394 -0.006009855295067957 0.1452609268502994 0.13409266992714494 0.0768110921729633 0.08857388661193977 0.03152678128317198 
-0.10787522591772496 0.01851015136801687 0.14070412250706002 -0.06255693024816665 0.13133467923930742 -0.2262361306369557 0.04498636906591032 -0.1474209311089249 0.05022288052628985 -0.027994301067464023 0.1376304339264425 0.013457460644675488 -0.06426735543317377 0.20725722907920938 -0.07466699880259896 0.16481597365602949 0.1280887588878165 -0.10923046497885656 -0.11212930939136527 -0.1130679869769521 -0.1407186072662152 0.03644157820876916 -0.13482181324636364 -0.17732023739584665 
0.06296606380040178 0.10676805839546019 -0.16560938953532087 -0.10513271469392889 -0.14046198535622462 0.20734703687752384 0.10478125627778874 0.04851944625302405 -0.045407226941646436 0.08718257198623483 -0.025050046348182673 0.16532331330069186 0.12671131591456916 -0.06526525576194774 -0.14725507636094587 0.1820998381518743 -0.1799496783086123 -0.16372375731542668 -0.02665405057276802 -0.12622563153683203 -0.08256829699831056 0.1134960025681946 -0.1599513366001316 0.14356300247594964 
0.11422914507525328 -0.21117701580563183 0.03918024135402227 0.11078417046821182 0.04603664967888992 0.09259899806771958 -0.14355907342835397 0.1515165313514244 0.21538106864436807 -0.09870916558388014 0.0828193093055387 -0.17827250336633477 0.1372910208816008 -0.17269529074697382 -0.04072278878620303 -0.035240931786739656 -0.20219442564077014 0.16558917958196956 -0.05048246739660166 0.05110428749362873 0.042263907349791206 -0.12406912896111541 -0.25318098369057 -0.16735684913738433 
0.06739513500742289 -0.13100640107293185 -0.05561646073146956 -0.17022103384864157 0.09299217391411296 -0.14649874029222318 0.16710167515448032 -0.15798785034054252 0.021193524919372972 -0.17999173010107333 0.15079060376030728 -0.1178905580227366 -0.06426453806979242 0.0790772754180901 -0.13775024475855327 0.03183109300602787 -0.07925704987995084 0.05212066019387318 0.08713483674962494 -0.13983577140418826 0.2247015877305994 -0.2160279693182982 0.19676030703279573 0.004816558073050688 
0.021921844132670093 0.07461874873804487 0.08681258192133139 0.20494791880432994 -0.09812549178817005 -0.15957793063650572 0.14743899810203184 0.19001031612834832 0.05332522707603203 0.07483942209462635 0.12743138708099716 0.1617261688759847 -0.1324624298263221 0.1140901304458675 0.06741786576607303 0.08374370158260698 0.06899245113130675 0.07701470571977537 -0.19685901190425342 0.050316574638190406 0.1672748494847624 -0.05026946704292985 -0.25274546651334495 -0.14493482845024105 
-0.09404512955840763 0.11716022773318503 0.016690917981414324 -0.15266033636585902 -0.14238660449396326 -0.11047023534587748 -0.04139736223288396 -0.06855923471236351 -0.0679429731475366 0.0038666799381111778 0.06528378137988049 0.013436195938514807 -0.09641289665454622 0.08024240076973703 -0.10919650998638249 -0.028750486511009327 -0.010703207488131137 0.11797299735861143 0.14868734418061638 0.0018611625770105506 0.15977625473869467 0.058078878032334406 0.022909171867161775 -0.14499719938750721 
-0.02595398157581352 0.20029099032219322 0.04094779992939144 0.1635223237506611 -0.025914880547988704 0.015523708336225085 0.10229609648298296 -0.18102891426534728 0.020379097051291015 0.17499285075106086 -0.005193129170469278 -0.11426087692075829 0.19991431171479607 -0.06945949480228658 0.07836401675779193 0.0786245056069866 0.09995003954533252 0.1286868623779301 0.1329128881777811 -0.19490834736594756 0.25358441606982457 -0.10024786035783459 -0.024041425688936656 0.19438326533869005 
-0.19450120909303262 0.10808770234367916 0.13385795414368176 -0.02329116630003976 -0.09558800513156525 0.15746834060546752 -0.029583727683515665 -0.10281584659272226 0.21634864631500686 0.19137953874930544 -0.03574394116974314 0.133116255452198 -0.09256456839997913 0.02973591921502032 -0.041901368989641904 -0.05098077297289699 -0.10686478468912122 0.2179239558875031 -0.08036170472906547 -0.1742668256128485 -0.16996213149063236 -0.19564415998101806 0.026729204059990717 0.053313957615712115 
0.13896992531116364 -0.02645021332859111 0.11449179107367631 0.12129905428756592 0.09425513455867994 -0.019271916641550608 0.016092020684955258 -0.09800124331281754 -0.06932606037861229 -0.15641790650328355 -0.035436534186339706 -0.08053918233119116 -0.037389696510967144 0.21677415580865042 -0.07006360210105327 0.18166216958350162 0.04408987367066467 -0.06714429748709569 0.14071974354120065 0.13103376443184853 -0.12445350889345308 0.1331737635917019 -0.016682443048403432 -0.11646403225123426 
-0.06614261583174813 0.138530947538421 -0.09047393225205008 0.16996628276389705 -0.07993781230256886 0.04020365340443557 -0.017658750873038098 0.154534775236046 0.1880040122563432 -0.12397887953821939 -0.001726538221086765 0.15471885867545276 -0.0013174107093658289 0.16061072655482728 -0.08638064613078272 0.00801364164889888 -0.01277823902961732 -0.10652259923941258 -0.1925479385782101 -0.03228348375692187 0.16922366982893627 -0.11486775834364764 0.144910772824748 -0.2213967332138841 
-0.06155032136518392 -0.19422558560485365 0.0834468409434735 0.05666840413484162 0.07353873768463674 -0.003817518474328282 -0.0055504510246035255 -0.11622336563024006 -0.1242097537361007 -0.049789781210298374 -0.05125056076680247 -0.09245001550265235 -0.05221049842409127 0.17431727603896657 0.007767969479498146 0.16799031731835995 -0.08209464760640577 -0.13794426644405022 0.005470351665693238 0.11346209734280545 -0.03486242862325957 0.016652421497532904 -0.08070189358592968 -0.001045321980332997 
-0.1331173438238726 -0.14850959794288543 -0.09315589748185056 0.14058598270620432 0.11085374222383823 0.0036846996316999866 -0.025577434281364848 -0.13953824665886408 -0.023363278808460685 -0.07928285389941972 0.1234302860067119 0.11365459668416736 0.023316313744259982 -0.09740226501912823 -0.01136222817642998 0.26147947130765753 0.11866896959609849 0.07696936346755949 -0.13703241324288037 0.06863646629092227 0.06119668308111003 0.02945398903968284 -0.09569844689816286 0.038522448374374504 
0.1778563560034798 0.09060189267132515 0.030757923160388067 0.19478758999888823 -0.17196858650178024 0.224085898403137 -0.22229997966979614 -0.13327093754808159 -0.05751764117700166 -0.17741917474370672 0.03380248141349182 -0.1848171558397667 -0.10981984292423215 -0.20657853609641305 0.07946705867745561 0.10310310798697743 0.010500232992254086 -0.12245853486810647 0.09667862849031923 -0.10688769804579072 0.15011021342739675 -0.004957366134630067 -0.006160660778463293 -0.18659588497289106 
0.028944729986924114 -0.014616572918597075 -0.1061253354436861 -0.031316064759502805 -0.0456609765045487 -0.04888031311577466 0.26570798180796407 -0.027847096927100565 0.17648603695516468 0.009520948246387348 0.23390861201729113 -0.11616036416151246 -0.06755483412674367 0.12355685938271253 -0.18052087081268628 0.13553235019044485 0.11013541144007388 -0.04805035827633395 0.19611638253947525 -0.1745391695241686 -0.03666708042151076 -0.18554293829945026 0.08628356808274364 -0.1255420954724338 
0.11511197951834662 0.18447876501628424 0.12973737089007098 -0.01862932928182181 0.07273957792140721 0.20439255383026 -0.03523011643567746 -0.04090266237469165 -0.19366910051759417 -0.05246885348938112 -0.14083760335527068 0.14644658555682918 -0.021325491368817857 0.020694273874820264 0.13632381218585163 0.054450605810778936 -0.05510717004283626 -0.09037813188295854 -0.1690388497739089 -0.031733188271935275 -0.15287154455800267 -0.05414844486811963 -0.017322718271779523 0.23548836539634563 
-0.15400854616001144 0.06905846090463122 -2.6073755845145837e-05 0.10863177220802461 -0.14028257365321226 -0.16453355184969962 -0.04503599226325704 0.19046594792986213 -0.0848130925314154 0.10349168860125667 -0.08190963943823792 -0.17719939708071786 -0.19135565609210983 -0.09733803637777402 -0.046203338253416486 0.01714460039068378 -0.20744907966267773 -0.1802903405509855 -0.1914121515241436 -0.15223636931140455 0.04149934193140331 -0.03777027012690002 -0.11181756446134686 0.02241413479461288 
0.2520767129296465 0.07103803920053185 0.07792859792831469 0.14303921384112273 -0.18205705636622102 -0.16971497372366723 -0.020894066199856277 -0.058715623801041276 0.1068271983471322 -0.03258115884045597 -0.023008821322728464 0.24505082730475664 -0.09659102761559966 0.1939967871730042 -0.09644597505360276 -0.04201434125770827 0.031568354430753266 0.01839673128332034 -0.10973492977317223 0.023708643963810953 -0.06993061250979167 -0.11993369952010322 0.08736991053332402 -0.03814431611937047 
-0.08031757557414389 0.101925344116756 0.009965174797638017 -0.19498266873113448 0.14738985446522423 0.12009214260472979 0.21043374561462327 -0.027992950322249834 0.08482979750608616 -0.06254731932803324 0.011861469789431001 0.13812156823054733 -0.011383509973645308 -0.004418907475386791 -0.06783914138486179 0.04416681640632806 -0.08599819464521435 0.12402769999601189 0.09854439730038977 0.09846888688832962 -0.08388548614776101 -0.1392143073961393 -0.13017660900806952 -0.06946895470972084 
-0.18311331623385704 0.15223888418053405 0.06638937376980654 -0.026930259195186594 0.10493053991821422 -0.054610250726366605 -0.18200407990574552 -0.14381385516134026 -0.0701076044672619 -0.06402317115636995 -0.17697880683918626 -0.01869421183292382 0.07152014125768291 -0.019087986813488167 -0.026197431716144564 0.08779013370298193 0.044202848525212425 -0.1918862623014588 0.14696561127465327 0.06082494387297327 0.07834453835605645 0.17072101330542966 -0.17754376047296763 -0.10379374791292925 
-0.1725314011704016 -0.06822256674009286 0.13491719316237233 -0.16516888108984407 -0.010385394061703218 -0.1606418909121173 0.07952830003627535 0.10813906769769645 -0.22309123504007744 0.01242410680330215 -0.10207009757531468 0.24437174929293767 0.15681988994928042 0.07938421794472152 0.21590509021670015 -0.03704481167134129 0.15067704460608744 -0.015006719218244625 -0.10349864701981003 0.24316995855734805 0.1131105678908892 -0.1718994338567619 0.12826497902937528 0.08083999588336085 
0.07247152266010257 0.05305920911502968 -0.09650257539965158 0.08193524190230422 0.12358121716537633 -0.17625252703597435 -0.1455305342455307 0.11661663335976052 0.05133746129296862 0.0120883437455523 -0.09854501239942492 -0.05914307910278795 0.135603589357975 -0.05509311734276687 -0.1720934037951882 0.21453823765539085 -0.12567888068067512 0.16482625151184302 0.15045695458688693 0.009078956042005416 0.07045941571800901 0.026455111499695788 0.03414374367237793 0.1972665424256093 
-0.08513515090546585 0.21197440934933703 0.026215295060848635 -0.15171180094720602 -0.10700151733020095 0.05999842865701293 -0.1020561208282347 -0.1451677068651892 -0.13398315406212452 0.11344880500743863 0.09092196335652526 0.1703946803398952 -0.05790630672022371 -0.003415186561169726 0.030173976162612682 0.038806709280739905 -0.19524601021947258 0.07428088507709027 0.17076511689624577 0.013401614029823037 -0.09726768716133301 0.06639126232628521 -0.20594084084747696 -0.06693802031737428 
0.24035641780350914 -0.012208961662546402 0.13980090256855343 0.04063250305418476 0.12675866985160072 0.21022113702772618 -0.1001546475574328 -0.148560872784381 0.03689771882085713 -0.0607188191909939 -0.14704427473282963 0.09881045370825314 -0.16569132685324497 -0.08637050014042175 0.10815658038195021 -0.14283085923956707 -0.12108197022418375 -0.18947137741924105 0.19710100766171354 0.03179791321681736 -0.15730983078452912 0.18489155396130133 -0.05417962661796205 -0.017521371234165767 
0.07092304002010662 -0.16132430410373336 -0.07599008728169639 -0.051126049014190725 -0.10007014908109461 0.060188772194476686 0.12778988486675072 -0.16906495515502848 0.2496569405649894 0.1019032301180027 0.1761819783178567 0.0708477510365627 -0.1271168875700852 -0.09019785310476011 -0.021021715362028272 0.07675782242628675 -0.011393371601511186 0.06626293856183586 0.07083770944920408 0.13583024491878556 0.012222128949569602 -0.15026442828644548 0.15420746134307667 0.04522911914801423 
0.1943415214001809 -0.109298245663185 -0.12705539035444952 -0.04228515095559533 -0.06996695026490539 0.1559163413009369 0.046223802260129794 0.10190803922267087 -0.049079590316160146 -0.15800305759613908 -0.1517391098074714 -0.040411848729576975 -0.12020338110866992 0.1596868698870554 0.038665458658655644 0.1002707934381719 -0.01729788269765096 -0.16253345436046038 -0.10379145440424165 0.002370782107918387 -0.11831199593086611 -0.18781406859657757 0.08543264245992292 0.08133174551995988 
-0.06609743154996997 0.13928109618733558 -0.027719877127749742 0.14763994058330226 0.057276869312357655 0.04051446835684917 -0.11746061189672799 -0.01052772783553383 0.16470112379717944 -0.07610622621789158 0.15148808270266692 0.1937650496257433 -0.06631278479466526 0.07761628662335637 0.15746511632309734 -0.21147248401346638 0.18122111913868202 -0.12140327822061028 0.13763031558865166 0.04831598489107893 -0.07661371790167172 -0.13717221818412967 0.048710192521486395 0.16810949547820833 
0.1695713770666115 0.056865774478867 0.17674213335667496 0.034874985529423634 -0.11861445293849798 -0.006368151035067698 -0.07312572091246441 0.2057468396660405 -0.061160032605326715 0.22727764141971724 0.007259107408436537 -0.13182836091380534 -0.16800704664996477 -0.05024764871760844 -0.14837469433584008 0.07360727784183407 -0.03760860827249764 0.19208783628551931 0.16983141547202138 -0.138028639581646 -0.036183554893926585 -0.02914034445133229 0.022210999437669066 0.13480672862240645 
-0.049533676548599595 -0.10491745192066372 -0.09310861882447648 0.17862023059946883 -0.18910935981187138 0.13964873297602118 -0.1223491562731549 0.007220327228388302 -0.06857196387287379 0.22843221627920354 -0.1486341452792403 -0.1217354585846035 0.16227349370311558 0.05263480975904573 -0.07442858367392677 -0.1978096752204864 -0.14567035890255298 -0.13956306466980817 -0.11638212313838471 0.19255504031725582 0.1768486110013317 0.08490719899156506 -0.023901147698433774 0.12695503426837854 
-0.03624813869043074 -0.04709480553570641 -0.08772120856373546 0.20568542778892415 -0.04389209869307455 -0.022339209003044015 -0.10199385519098923 0.18722467226767636 -0.034771849313211464 -0.07903499423158537 0.08823696914065508 -0.15277812022518983 -0.1742756709077583 0.12183244042585131 0.09554086342542818 0.008132426194469565 -0.1285281539573833 0.008277377276933123 0.053818445338220486 -0.06720832998340162 -0.1708607477243072 0.14070337060401572 -0.005136168411637784 0.09419493129366642 
-0.09632426637980156 0.07126510652790646 -0.02758263087560657 -0.045804511502114446 -0.14705322843316487 -0.10014213307181016 -0.16608756770591349 -0.09176674991842847 0.133607738351596 0.03893071748050679 0.057616473267138334 -0.24885480245240307 0.0600550139246916 -0.03388568058712905 -0.10544823349530318 -0.17693409799441032 -0.1610737258730234 0.13542568439977884 0.19107476800265727 0.1619007839547116 -0.05942186905671471 0.11418005057060257 0.05184359391574811 0.10738839632839652 
-0.006280896628997515 -0.0688365796535091 0.11267692921926947 -0.1576839081448634 0.014303498933462971 -0.05211715980845965 0.019509470567071845 0.08901678252309443 -0.1614454596644725 -0.04155272957321984 0.02939785528638386 0.17817164395833684 -0.04119671079274398 0.19841691450358853 -0.037245357502716334 -0.14328482050641012 0.03593620858365772 -0.06451267117743233 -0.11059428465252935 0.2826943744751582 0.19707132513710304 0.03834718902043787 -0.003236028486202503 0.016227430957885935 
0.12448221517243538 0.16326746417452592 0.16668701982515985 -0.13074604797910405 -0.09265713578661436 -0.20372205768560595 0.18567873049470388 -0.10327241597455102 0.04461122620262815 -0.16194736818351488 -0.13739953125257456 0.028269003209641017 -0.20166489840531432 -0.02538573821593225 0.005532055491346534 -0.04430411502922951 0.03949327918603458 0.014210977753073867 -0.04247616063583824 0.07106756644295395 0.10533032407374639 0.09210524299348863 0.0016455700406398997 -0.04644709922518404 
0.043931821655755564 0.18535260349813648 0.03322619960691334 0.21702100615414965 -0.022834275883875918 0.09374736618981834 -0.18291496718885772 0.10769349277325856 0.02103802399878901 -0.19596710251925611 -0.09270047622272577 0.025354479481792522 0.1049996512891135 -0.2054038727695664 0.018974562719181725 0.14349562468720994 0.062325407346612294 0.1825084376932472 -0.16794367434764668 -0.0893726384778791 0.19543606784554102 0.11040379032050902 0.027238446456398124 0.11044470720677813 
0.20724365705785996 0.17812900932959144 0.19752018294408 -0.14186789676799327 -0.16963094543423574 -0.16845300980654437 -0.1921530777853199 0.17557664496731695 -0.2126750628808594 0.18384037653143684 0.06595293080374114 0.027097787487304136 -0.05968686143634223 -0.03984557101448058 -0.09634399301694568 0.21571844948938318 0.08175668193583586 -0.18763238932865894 -0.01487374595435184 -0.08546667548941778 -0.18640382865938904 0.2004882050397082 0.08706849076284544 -0.06635587533018954 
0.11637909961022193 -0.06836241356870218 -0.07496659982031423 0.16908763053342865 0.18878100445626775 0.009096098826779248 0.17869257288391194 0.1529561972497605 0.006960844470868641 -0.04946593271536154 0.08216754048033448 -0.01715245066385951 0.040843821793033586 0.19423631997455593 0.10736630338483041 -0.06456892094723429 -0.1622017748069549 -0.12377088062933023 0.010371397910710322 -0.032135997736089855 0.1180134972773948 0.17113943536204906 -0.126581793663903 0.14175415951407963 
0.17766779233194616 0.2427404979799684 -0.1828105049844776 -0.17485330936195032 -0.19577249862889304 -0.08588069631672267 -0.17561343014972614 -0.08050123499218018 -0.0208491131081171 0.1601438561287115 -0.008900311092704822 -0.1391920436074763 0.042152745667064624 0.05232263821014361 -0.15326049745595224 0.07298346002526557 0.11752031699585173 0.13730265812796238 0.1539642674135591 -0.04590556699150728 -0.03034674070562073 -0.15714264651133986 -0.07934002372957044 0.16818545625899112 
-0.04381462332835753 0.11657934938597893 0.15398252208518604 0.14301344753026857 -0.13526181759087408 0.23773865904853508 0.03212011339777873 -0.11351640448559143 -0.08189321976864807 -0.1337540331424213 -0.02656367702634517 -0.11893685946942671 -0.13159485017750464 -0.11886817958076638 0.07453655084534701 0.09924471207514333 0.2235112121984756 -0.06364864113249628 0.05038926277967475 -0.18419617093060736 0.006252076422575638 0.17002668687767106 0.1484290086970302 -0.19412337174013933 
-0.09673958796755665 -0.11721181836583973 -0.1789053073771814 -0.19400220941386498 -0.0037826424278747674 -0.1797347349395147 -0.08664286770942609 0.0444251300125434 -0.11561241820329633 -0.09007609858937236 0.0351181349845178 -0.028623036983710513 0.06502300572321018 0.009162191482749122 0.05180065692283856 -0.0570558469568762 -0.08319582452665854 -0.14836629966640594 0.17270221825709467 0.12386486155056034 0.21823781066778392 -0.12358133453435359 0.16782044868513596 0.21789858180947477 
-0.08457946597726643 -0.08810467084322891 0.01989755622810568 -0.12361776584047961 -0.022409043625839203 -0.12360642894962268 0.17685331002956925 -0.002381851757889394 0.1835294206127014 0.056402668733924036 -0.006053387636069518 0.18505508794229927 -0.1404496737835977 0.05145596066889169 0.06306048424963973 -0.025620166531102936 -0.17413819373446876 -0.0028071307720361023 -0.013474047010891131 0.12044050253015302 -0.09522487599362836 -0.042155671123861926 -0.10176781324296932 0.07272889369088102 
0.21780813358999426 -0.13452425569826532 0.1263068438355698 -0.10541639328775125 -0.17469513346199333 -0.16270319009013356 0.19348948068989946 0.17196254960167054 -0.09162737245211225 0.19500831572377858 0.14281058729136817 -0.03009696622639361 -0.012344905104003294 0.05908920005483698 -0.13450880242536317 -0.1921375893842491 -0.09437809090830704 -0.19187004006062458 0.0680226490806494 0.019912020536723953 -0.08120456280024894 0.1466317110345013 -0.15069264304085242 -0.09989841164329193 
-0.08111310604092922 -0.15331917522412794 -0.16262798835755995 0.13889280676188168 -0.1625274346177559 0.0456626770691406 -0.1495855434236194 -0.19378918810724885 0.039864574389530276 0.1643250393301983 0.1755366145587562 -0.08634465295176166 -0.18713411255681486 0.11963005919431619 0.12013666301216691 0.14718227557737237 0.038072578759130137 0.11019975825250831 0.15677285486234066 -0.0178558432383637 0.007398712206815506 0.0023647912151920436 0.09936644081484657 0.06656358963947052 
0.007842583779853305 0.1291115311806819 0.0022290697006031946 0.1276694782307683 -0.08525157638381657 -0.12633017531765892 0.1859338560397834 0.0946700175961786 -0.09398373871685743 0.03148829512388291 0.18003515016075036 -0.16551907536161412 -0.16440012094261097 0.046287998312284695 -0.10799870587686121 0.10389538927399491 0.02639508707505756 0.06475165413732194 -0.15463871758116307 -0.16409878281764192 0.04863160356975897 -0.03500978593195092 -0.16290402420712852 -0.050126000284412935 
0.06709568356696931 -0.12190271498907157 0.15606200145210905 0.21170350723546014 0.17706528187797696 0.0899720540416321 -0.044530687429558326 0.1212977679702551 -0.0812534219556366 -0.07238959982222752 0.041110885640855716 0.02954944636683067 0.18140919461184274 -0.12152718556047429 0.09598865905187666 0.18236913234368055 -0.23645989814737267 -0.009233629281435602 0.061154589826390375 0.16619743831761938 -0.15695325264709858 0.14509524327162637 -0.05275146387060091 0.15949001769728446 
-0.18691069245697203 -0.17629342373095144 0.19059790958567085 0.042520110390894206 -0.031929493338803516 -0.14599268430708617 0.058451386039737444 -0.18316887790367903 -0.0914390033218502 -0.06881889976855256 0.041714879944886644 0.07451798628009157 0.14560801006730445 0.17550865867693763 0.0624979572481134 0.03398985286302374 -0.03766203942362344 0.20371269279040355 -0.13609022932113302 0.16771533955656232 -0.08185114210458933 0.03839493101538804 0.07385419189680209 -0.10323842934435998 
-0.13062820467955483 -0.01073905790837439 0.12379172786859975 0.08896712608871161 -0.15015839036799522 0.16947926731295146 -0.007822788565691697 0.2023721525442673 0.029363980884915375 -0.16389003758844814 -0.11676895746976887 0.15317734409202055 0.0908467445171312 0.15422244538010396 -0.06658773328779619 0.01081622803737221 0.06614925393866719 0.020969830825823932 -0.10522785156671555 -0.02835081119276572 -0.09861614832559906 0.1340725112471881 0.2188140365848448 -0.17123084289404952 
0.11314898929669275 -0.09250679373962233 0.048754699814444906 -0.09464259358814918 0.05878436583798786 -0.0500933870496992 -0.11357840860135432 0.16350293638743424 0.1775891609185544 0.044103004073228105 -0.11198773867190641 0.21242428131153396 0.09380926469986081 0.11460944161249366 -0.1130811307771635 0.12978620200886473 -0.09479810519190722 0.05117802699435388 0.08231969900403094 0.0900651279188916 -0.031241000007630977 0.1319608507056557 0.16115837813522638 0.03389885489381458 
-0.16163403514853855 -0.1461458802715836 -0.1556636057943087 -0.12863382728624148 -0.14716652564589483 0.10911016487577681 -0.18218511702443763 -0.1012173564333247 0.14937178813310575 0.18740796544256988 0.04092553011149474 0.18850700192510383 -0.18055425864404542 0.17733607631164336 -0.07362020846608033 0.11734117845643213 0.12198908880644875 0.14172684518301615 -0.016025104716611928 0.17010887649933457 -0.09473641904115372 0.17164035503074054 0.046282050288390116 0.19222939873389194 
-0.18491810883404416 0.1446297947865465 0.025384528788767163 -0.002922352455340284 -0.09421109613978979 -0.06749917115689039 -0.09808017631079356 -0.11007740449786553 0.20404516153410143 0.0009235225401247587 -0.16453868187189005 0.05144497599591526 0.08972842901323286 0.03698409278925215 0.005941137813367842 -0.03882870858087915 0.14565823429366645 -0.18669618279907005 0.17096278428644524 0.2581341736504486 -0.061330659612045556 -0.1119888969126282 0.12706958779474886 -0.12653882866389052 
0.11455124733210706 -0.10103048777079911 -0.08170882459842659 0.19824798727245643 0.15895063683205735 0.028661285075843482 0.14064705721933102 -0.05739417610870918 0.21610370577723798 -0.02567853559200962 -0.08012614263041701 -0.18688809586019112 0.19949431019052724 -0.012528014265753347 0.09175537945754017 0.0798927555841507 0.06426090180910472 -0.17746367859962756 0.1658408093316205 0.19577211014354504 0.038385026343571625 0.18896932802962144 -0.10774214812957299 0.03964594343827027 
-0.04018917870828365 0.04976837271314101 -0.07782774220593411 0.12547298130558593 -0.1699355058513375 -0.1811895747228625 -0.17815534342558678 -0.13754067704816447 -0.04062370190282147 0.1800867017588048 -0.1534412924316975 0.05742776611120707 0.010669215208346678 -0.05711549579346363 -0.11846837017162787 -0.10954976771864143 -0.1804049356747636 0.08327802027162397 0.05989708148792164 -0.02176083869359029 0.08556190889705091 -0.15377037320680073 0.17336275588476452 0.13677289922034225 
0.06193888696260451 -0.04708412723016765 -0.03234476034033679 -0.006888771899991595 0.1719781588068858 0.14316704479724582 -0.008524060317729391 0.021096061725950348 0.14790243644781045 0.17761508846014748 0.05414377872901249 0.09727977500574359 -0.05775055384295939 0.16502894338679136 0.13242268233991816 0.02013990715958337 0.14478400426180751 0.1376715337716058 0.12110439942029429 -0.14545750348282807 0.013914308121561953 0.15809295962012407 0.10613998742609718 -0.030729199729367995 
0.2083784400583298 -0.10596394315972564 -0.06483099857958606 0.20757505135337634 0.12122565562456912 0.15410786214175837 -0.19342890775237992 -0.04671881472479166 -0.10942040057548415 -0.07968255348889224 0.09310671704810329 0.0919875547443494 -0.009761617850739956 -0.0863511608554732 0.03283520020363216 0.01302541468103359 0.018728499759069737 0.04485678037295216 -0.04050735175362302 0.11425344180510232 -0.09738946165612279 0.05820341573983004 0.21060972752639046 -0.1966801465808566 
0.07500384056312259 -0.17491593682170847 0.016931753859458918 0.049334635561998456 -0.10066597943560751 0.16713567059553894 0.06296037082480732 -0.10513574278310887 0.13096624962676065 -0.15556535971444632 0.02137055229154997 -0.18852826678603773 0.04987344226215458 -0.1409972347028406 0.05817924340187734 0.08433091434530804 -0.004180160571407009 0.06258813541528722 0.12305231765156557 0.14390893803870564 0.04337782613113484 -0.03971238724281198 -0.03218085960611788 0.1558313391821447 
0.06337274482453156 -0.14257059257315605 0.025453713302083503 0.20722298979573534 -0.13744662699185195 0.12190533563850281 0.16958273860414327 0.013725378082739829 -0.18292305388892013 -0.13872265311599893 0.2145400599153872 -0.22893270514638708 -0.049563879919920804 0.020972632359629487 -0.11896717538039182 0.18443341172856575 -0.19688265687836567 0.015338992603656973 0.045848325475537445 -0.10541584106079196 -0.042907618776580225 -0.0034687111363420854 0.14832038150990629 0.05222069529951042 
-0.012538318816911063 0.0732994678265339 -0.01803138932562136 0.009930208703737977 0.061755066857719525 -0.12525189227606323 0.12646882130038348 0.04406243986759173 0.21021490356650296 -0.108838044636833 -0.013035395617677505 0.17739384957647003 0.03936737746604377 0.10295493590643037 -0.03347381068045352 0.0826119615772555 0.17960718338202666 -0.11767640259162727 0.12068715853243507 0.2214669224692392 -0.19222387937075014 -0.11169246374708948 -0.15079908203619632 0.10478530292249502 
-0.16533285031609227 0.22135507210606728 -0.042866514477844696 0.23448837244569481 -0.12230558591647747 -0.02288650511999265 0.15690104747340397 0.047657285954397555 0.03717228813475683 0.004881211300155833 0.02862596322992556 -0.03100355893522226 -0.12197085259055765 -0.18737312934477449 -0.13723131218209292 -0.17690700301458345 0.03736646135936292 0.11830826151796499 -0.054809065433817215 -0.16771035309926738 -0.013001623753662544 0.017573600303206365 -0.028846079209918045 0.12202584449874299 
0.18802152040479073 0.1688947583023918 0.07965670304326695 -0.011474076417176566 0.07125255694115866 -0.19268918166010376 0.22321383277955675 -0.1288935798291304 0.19245527765838746 0.1267982789198073 0.10753839269434527 -0.11242191168104008 -0.11012280565337451 -0.05413164401513591 0.13747108077845477 -0.019194566364445467 0.21331427955223684 -0.05733655732089762 0.04638871139389574 0.19338378107144447 0.05494369120943644 -0.17972824964168324 -0.008498377038920002 -0.06438208866850671 
1.6529796271758752e-05 -0.08749355365208629 -0.14883911390383323 0.06557826453337928 0.07072517560452102 0.13416259858845628 -0.14478051539221864 0.14581127780318506 0.1577912449689301 0.02662347038180606 -0.11578913036899159 -0.11854618580015741 -0.022064154092242074 -0.0038990634484920585 -0.008711959283832144 -0.012573231707194729 0.12201716673136684 0.14784815793880185 0.12443326960706291 0.19416029730423529 -0.0001053269351019312 0.19256648613028318 0.05903665078216482 0.037738119737132265 
-0.07046610374561983 0.14931768548899763 -0.17711887699595832 -0.14391273089899712 -0.14563818762625358 0.0115059323333224 -0.12759312334269823 -0.06186715204466387 -0.13355694781358496 -0.10432518457807873 0.27511467126890193 -0.0643075761312903 -0.13729271490230643 -0.054187168907788824 0.26659920743497967 0.09311951978839889 -0.11719057499093997 -0.08445173375034608 0.10252323171531394 -0.1016438667324186 -0.09618794200874188 -0.1641779329547863 0.23062079290758755 -0.02015745539030299 
0.02391963335437042 0.07489898572404313 0.11635131912869684 -0.02030916224385023 -0.12408141061149398 0.0937929187356442 -0.18558297862953835 0.2471998226827785 0.08660680367212094 0.14376594391949152 0.04215402938275773 -0.15832133568910214 -0.048687800101997476 -0.04963482377295446 0.25312852585008305 -0.12393451207209047 -0.04426367596838594 -0.06082901083650466 0.10570015145923765 0.18279546521154683 -0.05427799480846922 -0.11610772391372293 -0.171021864079171 -0.11828936928442517 
-0.08898876539280884 0.008346825303432677 0.1564061033379505 -0.14644464010859073 0.18678384814550403 0.054177054584732355 0.11940599013621031 0.22789369215443847 -0.025156729431135387 0.012202813956433349 0.06425693441903363 -0.007175321412353004 -0.07842782975822209 -0.15561453498588476 -0.08403075194182254 0.10662581348899194 0.06885401848782378 0.11030670042727776 0.006608378798998212 -0.10497465346939881 0.04495604157820105 -0.07649630464091729 -0.19811234954418286 0.16614995209029682 
-0.03086305505864755 -0.04709951864552945 0.10203509121471413 0.20226813123761084 -0.16883606350934008 -0.15211356093156017 -0.06926070342096519 -0.10699482878063078 0.0037007070508623396 0.12751012186328148 0.13931321251819 0.038654834522579694 -0.11471614864172965 -0.15937481421367025 0.09524529672898509 -0.10294271813256069 0.017086260495375646 0.0896199936054045 -0.10650535647170604 -0.1279252297435155 -0.18205423841313534 -0.1428831127587357 0.1589257102983328 -0.1559153486705431 
-0.10833613976914667 -0.1848723301146882 0.06875424397524545 -0.10513238443440893 -0.033504393749852986 -0.14200738494014256 -0.04771594906559434 -0.010553787864496914 0.020294955908919922 -0.02990015923112641 -0.1566704516985797 0.08877550854809327 -0.1428468793237362 -0.06518523594100754 -0.08916483870644513 -0.07767944473730523 0.04360871413508585 0.0068658330277651435 -0.12170338646840652 -0.0001950716046289669 -0.062498509097452026 0.059220404515624776 -0.10736174945323898 0.11490557648059795 
0.01013064906610051 -0.051638211656584665 -0.0964047042870028 -0.12327199130657707 -0.01088571098251108 0.24360655302575632 -0.15547269390399382 -0.08461192587203047 0.07254651493804827 0.13389408929605484 -0.0864726258417112 -0.022069949583358114 -0.06660558572376639 0.08874757324346107 0.08571984967327072 0.14064597817388047 0.13709945616579536 -0.03826135212709423 0.16812568278848983 0.12045865654922813 -0.09339820113178977 -0.07456388305284523 0.10931760277243381 -0.147307867202544 
0.05189927084262358 -0.07189299998703325 0.12860497689035885 -0.05268952567560614 0.09127251462792799 -0.13744946702478736 -0.007162420074044134 0.1078129002572281 -0.07236868484383215 -0.133092041951254 0.05798895224030253 0.13889816392859247 -0.08590521830078478 0.005798518485734502 0.15278081256827733 0.1914524346548178 0.08764058387133587 0.035256247590606166 0.12468407443630047 0.17253173364291313 -0.19710402233833263 -0.039890309943504176 0.01678779398517523 0.09149317500058743 
-0.16281542276792874 -0.023857165567011406 -0.08613128754665772 -0.029639941349450055 -0.000779426170997154 0.04693734295215546 0.01690813047200458 0.04094112471943891 0.051273442706476706 -0.027762714894746254 -0.19610477242087768 -0.1542921590828266 -0.07767828228970826 -0.13893260689410172 0.038285887046099046 0.018086778926470735 0.0077106182465288275 -0.06985496847089977 0.05966837070174783 -0.12162502496808125 -0.19573867103539358 0.09501029044568356 -0.0003997297317848027 0.06572420357057965 
-0.11377978148795016 -0.2718958868771051 -0.0473669979904348 0.1253114786491684 -0.15664561787933182 -0.06827517153306198 -0.021401730916504533 0.027258861187708334 0.0990787690487062 -0.08392270941712372 0.057751540392333336 -0.01884368507016488 0.050019182893313245 -0.12829306017499503 0.06111272795638175 -0.12024283496660652 -0.2346754084683644 0.02822324746970324 -0.1240613659520919 0.09095048633656615 0.038049515489744015 0.1688150741626244 -0.07615978309157216 0.22472823744387513 
0.005757877598159589 -0.017650581747594055 0.0971824619355143 0.05277846206016972 -0.05349659208630876 0.01887629654854926 -0.10831422929229126 -0.10234707996110513 -0.24560586098941212 -0.010450241659056505 -0.07126867387308203 0.02778945687295473 -0.19941415495863923 0.04341320276208422 -0.08084281086847596 0.04983495338508695 0.06365732223472241 -0.03380441002393955 0.06355931265061457 -0.11711113431360626 0.25276125431154883 -0.09382079853066842 0.19245911107460528 -0.16147507760657173 
-0.015959782536963167 0.12537826775203387 0.1237724690794358 0.05974397350569803 -0.03371560063942561 0.1353861555694305 0.09045750722673662 -0.09094363952158205 -0.09019264792755363 -0.17144650335855327 -0.047186985596371314 0.09302310790542849 0.08429933198719973 -0.07178294676930931 0.05845990491702181 0.12453366762051785 0.09714958996825093 -0.18607383875022054 -0.13902499708766192 -0.14741377221077717 -0.11403650909623253 0.1686020459803901 0.1494105839296271 0.0003571707366702443 
0.016689994045185154 0.077798578018945 -0.07721619517147917 -0.051823687454902304 0.02903635575481629 0.11537056056403089 -0.11711422434207115 -0.10317619126254682 0.08090727236153217 -0.061956219639841104 -0.17887571727742985 -0.12568776066895432 -0.12019656483917109 0.025184513100770984 0.04622872896825871 0.19510110706170097 0.1740472594588557 -0.07525130040503701 0.09920806707809388 -0.09565952987824973 -0.051100578418583224 -0.08095000727140438 -0.04239175894712029 -0.11188905425098594 
0.004060003799417519 -0.2274928903571318 0.16008473391207692 0.014363546547998917 0.1346977376715752 0.16624317844735123 -0.11424238926519045 0.01811657092225592 -0.005778608296330208 -0.062249302566589455 -0.013274821242309437 0.1644960114449399 -0.14697355886754626 -0.13794554424170158 -0.12413444063978249 0.2089322238378841 0.15671474748860995 -0.0035297085649290774 -0.1446097500803992 0.047157752263955834 0.09349279504425143 0.15072554926455 0.08499227220505588 0.21282760211661456 
0.13583707402750633 0.0691325167956446 0.1019053299344188 0.09228692991513887 0.108431488953304 0.25468054122750927 0.10438587125996826 -0.11826309555744888 -0.267097603051412 0.2374498876640469 0.012441824705126057 0.10031947923292889 0.0565327346207641 -0.13871288754236505 0.14539951102241372 -0.1387304423945713 0.13882772286694764 0.058204955400837574 0.04748403528515844 -0.032029686158019766 -0.014420245311978091 0.06264321884597344 0.096387861314053 0.08872342198937896 
0.09434245763912057 0.025147577784301607 0.18685041625816332 0.09490112353555127 -0.05646382784385738 0.030863938637141645 0.016477647351572287 0.03757788353558127 -0.08496694381705455 -0.15453686383290094 -0.06971771245100018 -0.07869882796029862 0.22893071926383252 -0.09000138546777145 0.049116375007008425 0.028740766884892324 -0.10815963877378143 -0.17777662773702912 0.09581763167513543 -0.202034097105799 -0.07688108172698016 -0.13450601021774747 0.12130730513438291 -0.12317269210679285 
0.01929918193034413 -0.19187886033931092 0.19125640966413082 0.05604487205866278 -0.05332355940394086 -0.1390247764797897 0.0702030950679157 0.19312431527063428 -0.0679040770149795 0.1044151893159762 -0.08301629121132612 0.1901866728154665 0.10326906731308823 0.04261326965264612 0.16250187373714595 -0.1154898015398073 0.17171439788177312 0.06943418585877255 0.10635095115618386 0.04587612213399618 0.12747522207494627 0.07519592331981505 -0.13908052427444834 0.039257562649683844 
-0.1869033059788229 -0.04869413435409477 -0.23656391747043448 -0.13389563413854166 -0.3273906168698915 0.33169558852971576 0.049812428359162796 -0.09999494037368079 -0.323175993930599 -0.06518560592810402 -0.03134051998868636 0.35047699388310616 -0.15643281868560366 0.0646637849211859 0.1103839157720054 -0.2123984068063481 0.029096871346304426 0.19335075950962513 
-0.2713386644575561 0.07047301280258018 -0.39953481740729174 -0.3253292649804513 -0.30041777668829245 -0.012247884212557625 0.347900074519268 -0.06460884231035759 -0.31426517056721076 0.255384099663832 0.012708558566280247 -0.1539240796432055 0.33916623522994327 0.35166616687915087 -0.16139998607874448 -0.20173505233803396 0.1388667551762224 0.27536525130476586 
-0.20538192621381302 0.057330322561919646 -0.23826441537978646 -0.20643051116870037 0.1760576270421274 -0.23725124287114072 -0.24651646124654333 0.10580120272494267 -0.331600781460791 -0.2709745419234864 -0.1425797042567296 -0.04694255186694127 -0.02384637945210491 0.14450608323230996 -0.31692662365420515 -0.0944331816226912 0.08758270442722663 -0.349314956300039 
0.2526584701387067 0.097109346313196 -0.2587593657416111 -0.16174088752032037 0.16518323995685336 -0.06413778312740719 -0.05168447617906597 0.23154999377925725 -0.24604370204545895 0.3575868976732987 -0.3122619580369439 -0.3237955053581799 -0.2184513384363824 0.22199901857512971 -0.02914063424780103 0.1023093923536175 -0.1945188107744141 -0.2450937633805952 
-0.01298207278111596 0.16161427027523384 -0.03618092624393624 0.2509521861021085 0.10715938346752207 -0.16889662752948867 -0.20527934785777135 -0.09641623780420346 0.16573244901967657 0.3335740510983698 0.2680234506393954 -0.1657411800941631 -0.01679550503485191 0.045397761763649506 0.030937546940840426 -0.07362367948300559 -0.3032744070565814 0.116505935848812 
-0.37386373065532086 0.24849205522204607 0.2867892163723243 0.19608220698158713 -0.008934349880309016 0.1334866623508688 -0.16345749776217192 0.2574067974410011 0.19204568131818864 -0.21327448584348585 -0.12245905002071164 -0.06470161658288927 -0.02147962020759184 -0.0024266037794575977 -0.3129228634784597 0.1068597128157531 -0.23645611945045492 -0.11826011505248162 
-0.01912744424766006 -0.10097072865383032 -0.11048776588415325 -0.21631082686160286 -0.2943958568055189 0.03387489250046687 0.10573341557057607 -0.19891902059297792 -0.20517294326336832 -0.15444664374603273 0.2279994534015705 -0.28375009143443725 0.024873104771855847 0.043510399085917154 -0.10456327488128564 -0.09969167665100372 0.4058189677717475 0.0367443898161117 
0.16233542025572834 -0.006091146474683208 0.04828667144787103 0.02444846781296424 -0.2406718191023398 -0.1104863990319769 -0.03253689966477862 -0.32354094165094344 -0.09127370209010617 -0.2425459894499679 0.24846830546796958 -0.14703388437925757 -0.2533819507249973 -0.03043086084042577 0.12253711509903356 -0.29615128856818884 -0.2804471503621613 0.18206438765451624 
0.18101674657882325 0.07835092637506524 0.2605777001086462 -0.28759466801593514 0.13648757892816477 0.2841780736602001 -0.24796230026996854 -0.1606429050892363 0.02202482262760313 -0.10961484215003299 0.13698240835140926 -0.3262796174336821 -0.2417556436950437 0.1563088474448738 0.32155945124488083 0.2927727027516795 0.3433512139200504 -0.2823136394778652 
-0.33878747232846773 -0.29150276840881495 0.025825296217114616 0.32922528189531447 0.02096620287195745 0.19008325595047637 -0.29891874351476966 0.2852876185503472 -0.21138606064512122 -0.2729231888858888 -0.052034466788378884 0.10879372228435885 0.4210713229207811 -0.369171208236633 -0.15188145587996982 -0.26856146755303467 -0.051662403134077974 -0.22106866298156064 
0.0553814421267743 -0.10128884879569104 0.3353671131643313 0.1965407164023121 0.24496958810452488 -0.2515679155479818 0.0919945239482457 -0.16686195269680903 0.2516191813940953 -0.4037430441718644 -0.26811709941254075 -0.1393008170888038 -0.09355775620553311 -0.12101007605737532 -0.2748720224224395 -0.2590660156159037 -0.11058085885987382 0.38697318455711094 
-0.23802346142117556 0.16640574283551043 -0.18909686072341722 -0.3562282780567572 -0.3309238944513205 -0.23544104042091712 -0.08120673986107596 0.24552277963798025 0.15080612957369244 -0.08190260384279213 -0.012231700983811822 0.26221675807722716 0.2861715240517197 -0.16681907456200043 -0.33921348966049847 -0.3092457104075332 0.20029396912724887 -0.19684020758031598 
0.022880347612360193 -0.20820135647253263 0.24650488368698656 0.040868294745365644 0.017902401720125284 -0.1422016232974717 -0.015615605005837769 -0.4116689548187472 -0.14957150054024626 -0.1559858381540977 -0.14502177480015024 -0.3365021595000158 -0.023941674345995412 0.2619972889797442 0.301907633099829 -0.0017814153262736747 0.1314069742501335 -0.12161857106331288 
-0.29245145529929595 -0.24991855984204245 0.10835313431566318 0.14240237207223386 -0.2169725212505539 -0.057337146888468096 0.0695860019917117 -0.2895673467342932 0.19785320950780622 0.13249883707199286 0.08277665186141776 0.2036683308674652 0.4199641316861486 0.012069096972691873 0.2473368343406852 -0.05389391948879699 0.17623675418403537 0.27455721644715453 
0.15416485484117862 -0.1319687484737744 0.07418875341970745 -0.09921739245916981 -0.11884555607270968 0.07327420726813612 -0.21378388841258478 -0.0017627671004069522 0.30403452877985687 -0.11568048407052318 -0.2103227015937752 -0.07127741272061701 0.21917951860939236 0.28555049911570296 0.22192562288186785 -0.33414162513958606 -0.1601725245391343 0.4071459223293139 
-0.3095909887145435 -0.006519614544388728 0.20988828961905404 -0.255994624601399 0.10851309025993403 -0.007843083427672605 -0.29104658728753663 0.2568795686202437 -0.23867140266891823 0.14285273233517318 0.17234203027935704 0.091221530268461 0.14608155826177294 -0.3106455810749142 -0.1285926667980365 0.057686844550681717 -0.04230710608527339 0.07762038657597078 
0.23619966907278925 -0.2094519344882232 0.2978992279552225 -0.021387627832196717 0.30227603143108556 0.07810062844269225 0.17344724771418116 0.05563682190077092 0.011425505483066914 -0.08010016236120855 -0.2516627103780419 -0.0369092455074167 -0.15058799505854822 -0.4054169024201138 -0.15121869642475347 -0.21612397364172958 0.32739446991941784 -0.37196705090592136 
-0.26189021722251576 0.13681700002515879 0.3091455265332212 -0.16727115504725631 -0.3272350100461288 0.31446052069328595 0.08224807589740224 -0.09439022054183621 -0.02937415218373197 0.12521366883994267 -0.08399220221297607 0.3440503590051123 0.2234348717380877 0.28376947648986206 -0.09938839263388903 0.29810877664487806 -0.030999040379462703 0.03788751316556293 
0.15268898378894555 0.20914780495721427 -0.0689323731348187 -0.034404814410977605 0.21463835337985107 0.1460522925556761 0.2959302143263611 0.32786670750114616 -0.2172747783519374 -0.177460555435825 0.14497895779577738 0.17677620174173675 0.06584641690643983 0.2509474316311677 -0.166906090246233 -0.10722760682184411 -0.0035197040723256626 -0.13347022697658306 
0.04905501366785689 0.12213865609880623 -0.22673859417571496 -0.00489963644809031 0.3372762455640294 -0.11762631160270591 -0.46878091225552526 0.13963493931634333 0.002173695259290839 -0.33305465547093926 0.2805138094349422 -0.07921772724250972 0.300293387445222 -0.09414091540940393 -0.288308073464233 -0.1714981073121407 -0.05445018264535472 0.19703648981919775 
-0.2634112755983464 -0.04570462879737476 0.27960950404294294 0.022852558043105646 -0.26992327311153264 -0.32497185899632236 0.10683676797322494 0.4178930116448954 0.1903390377964608 0.21736251880968574 0.11736059267512597 0.2538582206793321 -0.3304969823514029 -0.19901838309390532 0.1309318967330518 0.24912560218410973 0.15476733976346616 -0.2672212716434067 
0.34665896279927383 0.2744823083240162 -0.3532521571756989 -0.2557385300197096 -0.1510092277689838 0.16032450192844616 0.23725045896510916 0.08417296134836863 -0.21053403844238025 -0.06756673902004155 -0.2647528476683958 0.33133034305623804 0.19845332287203288 0.023853675313035325 -0.030665682029082604 -0.273630232672354 -0.18504822164655618 -0.30061584538297914 
0.24727976387816966 0.029642659101386214 -0.22879103181839136 -0.1802770616164666 -0.16114004853039324 -0.12802360976971233 -0.10999700828887687 -0.21803128518409817 0.11247536776496043 -0.3550782895756924 -0.11494457762771879 0.17027834629194136 0.30596031333281604 0.2381987270780042 -0.17457219818887765 -0.1800107675854206 -0.16755722410343957 0.3067544098026711 
-0.19871029740231577 0.17388978444080377 -0.16432245874702303 -0.3239016803525706 0.15692357660680342 0.15196349336450807 -0.38615655752379563 -0.21717889695983497 0.3059483315254818 -0.2588910541636144 -0.2939741835642013 0.07508663705248339 0.31888121286469073 -0.2708288415466435 0.008563183506859416 0.1231731011598347 -0.1738758222160987 -0.3716567199749442 
0.339678899990189 0.05910568987715509 -0.3103797193651004 -0.3186632136817157 0.0993386349639701 -0.2500305264689838 -0.17679295250258736 -0.2993760162319772 -0.25272699614174154 -0.003415583560542658 0.007562078767001489 0.008870597638875393 0.46905886780201617 
-0.29388597838225744 0.20143631076594576 0.23171562759068093 0.06561823220430142 -0.028639460081326316 0.31266078306346984 0.25957039907830654 -0.3587351047685739 0.36963635341320816 -0.39405101706203893 0.05645698777953789 0.05591088536864825 0.26459874110910286 
-0.13476665806630586 -0.33957850604692785 0.014070716357814962 -0.4329639813991791 -0.10918287856015062 0.4121644034137137 0.33339032755987663 -0.3183771997064972 0.2942776863790831 0.22659290331932627 0.3411047504759306 -0.21708323094186446 -0.030627190527744284 
0.2718677965180476 0.13050603936750038 0.0726924701857428 0.1075386540635542 -0.21069779823832427 -0.4392834222847507 0.19541293116071892 -0.1773250292960777 -0.10120735959589122 0.12401406760422833 0.12245020389175323 -0.2344167732717989 0.3081286581240968 
-0.09296852586110912 0.10237444902577782 0.3724531912559664 0.04996427932006114 -0.10974348890395987 0.09232135256766051 0.001371777203115135 -0.03665130863597295 0.1822624125448929 0.33807681299675757 -0.015898060605983394 -0.327650351422728 0.05374933006853512 
-0.20053574663242069 -0.36753172706886406 0.22718180540894597 -0.17822795696210683 0.21825538744519218 -0.009032613923839704 -0.1422000734466702 -0.14530921899997648 -0.3655218640782809 0.02643011185705133 0.2558184247069744 -0.331196483364525 -0.3110400240939219 
0.04949703535460393 0.11799787816010925 0.11896289605928312 -0.21426617782912122 -0.35805192838077665 -0.12510415600852554 -0.24506582332940446 -0.49018055429957463 0.16616686943183825 0.45771964987491925 -0.08437313611397393 -0.15623876240668197 0.09700009555535827 
0.24073005952522533 0.2326933318751872 0.10369844114417309 0.01382453063396931 0.09614139215911326 -0.17606283944799372 -0.10679477450402615 0.3171566989611875 0.36094451855464604 -0.36060235503292304 -0.15961554785944215 -0.3949815314621885 -0.1650320478103208 
-0.22759025015243697 0.10490374455894039 0.16194131948641974 -0.3039709515757943 -0.35020548875240476 0.3480802408086153 -0.08777936467211385 0.03486079400028563 0.3739563819963206 0.19747037515066626 -0.1361595658539801 -0.3295978533053591 0.014613251688321583 
-0.14975753172275072 -0.42636401014588404 0.1805664153030328 -0.06608547635075664 0.02760239497508944 0.2600721415574849 0.4423435620573813 0.13944503695665722 -0.15580917972966635 -0.35229839369393556 -0.3393633210517818 -0.1408054271281104 0.1054555771648902 
0.15261379653983048 -0.23939266509104515 -0.332096102091734 -0.13045091884407026 0.011844797943481058 0.23892353050264567 0.03980324952345036 -0.14570388277796742 0.09641827349171103 -0.21344905876957582 0.11891178505509947 0.2707015325603342 0.08488342378460823 
0.07278082467573296 -0.1561488896090808 0.2689702314564187 0.47750674980958496 0.19720557229904304 0.11213425484488596 -0.2478977532502397 -0.10439191583495082 -0.14877671163702538 -0.20024853408275195 -0.041627804700466675 0.08577310095974862 -0.30279353328529557 
-0.2159736600342653 -0.35143133801369586 -0.21509805415779332 0.02503281614922284 -0.03623915510083258 0.46314630656417416 0.47771247838319714 -0.016749162174526714 0.4058266897686848 -0.25120138587976343 0.031620960088654296 -0.03583152748150873 0.38318681645249514 
0.2852875934912241 -0.26512031543855297 -0.04660416701056779 -0.3201151362727958 0.05393516150731238 0.22960482926498924 -0.3966882900986183 -0.2998909016723791 0.42450359343768956 0.4359271076559045 0.043601169910143504 0.11369310571670921 -0.17181365143484723 
0.36069030923699935 0.1324419263288138 0.13008915835620116 -0.3909515397228344 0.27969798335150325 0.2192673509725593 0.14447374388384238 0.18908339745845562 -0.27194373715493514 0.17146371548245581 -0.32062894873270953 0.16201901827594478 -0.39792980975206577 
0.21755863383024743 -0.006464770119571754 -0.23321484531622785 0.17984079772181397 -0.14401403479742397 0.30481929581334755 -0.25275173937018364 0.3495815630585485 0.3760199164044386 -0.15290268794815443 0.2874392751577272 0.2709298149697751 -0.05821337106670968 
-0.09922279892473593 -0.17176654104455555 0.37769367808306387 -0.29231688075056295 0.43767019827899684 -0.14031089296849578 0.315831348867399 0.21466225093754596 -0.2511481320585319 0.14389087626573274 0.13540016300919216 -0.07288288109802168 -0.36108088754561174 
-0.16926920933505366 0.2782604689885858 -0.34845454384248803 -0.3435607274261897 0.17361092548577353 0.015876999268192814 0.03096622318736019 -0.10082122869329144 0.10348300817150276 0.3243281270900988 -0.1749036091535582 0.27302711405144514 -0.07673749859518196 
0.2521918659234773 
0.03823324810296619 
0.4393406021697395 
0.6773012671446089 
-0.021042651615168995 
0.3765285271596511 
0.07478357686387192 
0.30273931555749023 
-0.3562864579298747 
-0.5595095212532408 
0.5767816998151507 
0.37435663587440954 
-0.2697303875484032 
