98 24 18 13 1
-0.0367416119295414 0.06737789293054706 -0.18240689560130977 -0.0965125604996859 -0.17025591332304313 -0.22456246906960792 -0.1266105643118496 -0.025369108947385383 -0.06856036034427472 0.01732659392066271 -0.024964860537306604 0.0950237664831816 -0.18141650184908523 0.17321073053055186 -0.22015400925592546 0.09009835178652392 -0.05444990068907149 0.02995572305193075 -0.1431988844142095 -0.17328304277893966 0.15325559226240862 0.24430302584552355 -0.07121923157749828 0.1840341220058411 
0.21303578894264472 0.12441980210840028 -0.15841568107472576 -0.23231129774030326 -0.12472829712823025 0.17890297252054585 -0.2489496579978277 -0.09185622450875425 0.1378892619047612 0.013646163972191316 0.08271281861814467 -0.0213748955806911 0.0631302886314589 0.21341637141002848 -0.24614518875507108 0.15241821748665355 0.24714490852271656 0.1255890817221683 -0.09694777036188805 0.12076266552765152 -0.10793712342032687 -0.011256427187363166 0.15172936424313507 -0.0036596700344817545 
-0.0979925419989216 -0.22251839165147297 -0.22821460020758316 0.03228409192419633 -0.13635778650524846 -0.0959177013634362 -0.08394669065242874 -0.2638240674708921 0.04553483177287795 -0.1502245087161871 0.05446251011418213 0.09548866609812118 -0.2070555486311611 -0.05288392560854294 0.04041676348150369 -0.02235091599200255 -0.23686233086285025 0.051688725070043635 0.05621494675030183 0.007227795949685139 0.21366390398098176 0.0012322495246158665 0.1890320661776304 -0.12036925773277539 
-0.08357825263307152 0.03597826866011608 -0.03552972407484025 -0.2031037021339986 0.1445930067938802 0.04261588367230525 0.05136475818749393 0.08952138111612594 0.07978440932843621 0.12141446238811622 0.0682453773115337 0.02988012266515497 -0.19348734791513805 0.26191270956451834 -0.07673952351634926 0.30290571921918974 0.11430965549452116 0.13207391943859773 -0.16482880469570102 0.16098766611969467 0.09137096017449908 0.08121217119491068 -0.08240728205871391 -0.022642386137444046 
0.17087837624611613 0.015619125048485918 -0.23764511143862221 0.07401475381083987 -0.1102652677234758 0.02767129670464795 0.16740947074714263 -0.04014793287034033 0.20121956220407095 0.07938647953221643 -0.21764129153630354 0.16871717318942372 0.12026971382457807 0.18550760822180018 -0.11434349262422848 -0.1659283062819486 0.20974059696819825 0.07812702514368804 -0.1848596945883912 0.1334183516037932 0.13372900941829235 0.23613620779172023 0.08510046291267057 -0.08732968111908894 
-0.1031627968963169 -0.3234152654682726 -0.20467307211344726 -0.15090836166001156 0.12442917345032524 0.13545534140429 -0.06421530787994854 0.1194299706649889 -0.28885424361823947 -0.004299010551083613 -0.055486729530003144 0.3298399718216048 -0.07700168665328515 -0.09810547240071468 0.0920845745009814 -0.0017974549208723913 0.17032983406878885 0.05943903514954722 0.13637896372053082 0.08933299876157952 0.14792656305763907 -0.08580872509047151 -0.25850932731247667 -0.0935415629379367 
-0.12926839235525234 -0.2692598265491528 -0.07181251737129332 0.040962564816823116 0.00990413459828563 -0.14790893405272768 -0.21097405465904467 0.2558148568877292 -0.013808489682617681 -0.16639203436983097 -0.16293871853764325 0.1576793333267511 -0.12826826562132995 0.08325413660527334 0.18457667573692788 0.20586180899701564 -0.10418223438268019 0.039318920919366444 0.04718930885514917 0.15014950376824515 -0.1077911422151437 -0.11532019053312802 -0.2748300019628341 0.06516838831345231 
0.09847532377988745 -0.029519514848938073 -0.07209669702498057 0.1896830373692009 0.034386295583256773 -0.048801213603676584 -0.032643515370471464 0.07050826013068451 -0.01462201783967022 -0.08954335908059503 -0.17324697010496332 -0.011887168389677924 -0.017410863608151788 -0.12918029932599556 0.10013816815768213 -0.1639885807610148 -0.030578529562807513 0.14242225028161853 -0.12177564268957407 0.03959533046418989 0.09179978456072753 0.2811895075975031 -0.14730317205715882 -0.17140628937837146 
0.12419711959610252 0.04790654475100378 0.2380526008189211 0.1779693699570572 -0.19459518074556945 -0.10530929662496238 0.003707965094326131 0.14784933391940072 0.1763905162617777 0.02220384168872525 0.12488619661777994 0.1146856139073248 -0.05766550862262515 0.028770232205018415 0.040997784530546616 0.07384180884835596 0.18478463176310236 0.19686775494164838 -0.0413196244653605 0.16253254610857099 -0.1416746686813617 -0.14889059190883813 -0.156713248135351 0.025329808768944615 
-0.19150427504531936 0.2117202712975129 0.13006414360393728 -0.19415944306356706 -0.1287274821755124 -0.06624089131556146 -0.14700017862245832 0.11356417771541145 -0.04796256135092164 0.17332385634386155 0.024406170748018468 0.14783979015935123 0.1727496351949169 0.16354899937116 -0.015707999448330803 -0.0005268484581530005 0.11436957396374388 -0.08472912299293864 -0.003808725911149166 0.06899610840778013 -0.19394950798791372 0.024965338392324055 -0.008418517448027659 0.11563466806351876 
-0.11316968425697524 0.1710333725555924 0.030553214052074472 -0.13534059519323366 0.0813511925279476 0.00905495442707188 -0.26143953707750067 0.03525938192347039 0.10708638809365409 0.18106974780674942 -0.2043381838943246 0.17736422062196333 -0.11040951875901404 0.1697330292230336 0.021825472269591056 0.10602198341673147 -0.003162794580834737 0.11684762284841424 -0.09266884936629383 0.0614897105443262 0.09788002948641927 0.158677286306462 0.16308195828914435 0.15610108223028993 
0.12103901903482704 -0.08449724302736532 0.05531738593536674 -0.022030093427464183 -0.06472277123352536 -0.08294974231635383 0.00740836341002726 -0.03172124580156284 0.07836113161779568 -0.11323411281374642 0.2526229372732601 0.0515741481694172 -0.11806207016864576 -0.062026228670143256 -0.08724180480559746 0.11834597597907368 0.0817960770567278 0.16170173061050316 0.06416503477053155 -0.07351530411816387 -0.14654163711872661 0.12291556751317732 0.05479175435340012 0.18365371947288975 
0.109270334865994 0.09931662978941368 0.01550100406246664 0.08789827533470071 0.02512508920796444 -0.08880103963303726 -0.08511055484378281 -0.2641306909784277 -0.12176429298256103 -0.15883178816989962 0.23363038037164077 -0.11710822180455019 0.15221411847853547 0.1941966671650674 0.06589284474377338 0.043880368632756565 -0.1316104280776038 0.03737239160054559 -0.06102666706918726 -0.1684039797002424 0.1519613513786689 -0.02497247973717369 0.18892608046455597 0.25192252780975155 
-0.08733101924411452 -0.256966536271864 -0.1219656841155765 -0.007573485866724186 0.08464700463485018 -0.19320509356459678 -0.13856518987756788 0.19368677479619203 -0.06933103957840388 0.022980823258842976 -0.10558882135701096 -0.208207078404129 0.03914284767661876 -0.04448891660782677 -0.1503625501050024 0.03754961411147558 0.007310232893122463 0.057315924237716635 -0.14151625634498433 0.0510930263151397 -0.046029061896934134 0.09565415476331363 0.14790377264917068 -0.13016585469551434 
-0.09545183151245341 0.12682522752639971 0.22055516710683784 -0.028533696165835343 0.1405400790073408 0.21381971924446488 0.09141783548056276 0.16403228292327474 -0.17694380517407005 0.16982451234498042 0.029025913686575734 0.049293985362618954 0.1360910601638837 -0.19155391695802707 0.09899774248880437 0.10652173800463148 -0.07574166224785972 -0.06779048025858185 0.05208311761327219 -0.07707634571310969 0.12171248330158373 -0.05001881451174021 0.093921324842358 0.22161627659776734 
-0.1572401532869458 -0.11229848877726196 0.14529750080047987 -0.009909633187193479 0.20537876690307555 -0.01237752577970808 0.29328387331811134 -0.047416445474303584 0.002879216040401963 -0.12758508962229873 0.0024026059664599376 -0.2575012295912955 -0.2509194145714988 0.09602429889229583 -0.18788403449666063 -0.07864936221079315 0.09651665172304168 0.07403121112344842 0.07540828558947157 -0.19566341786274807 -0.0025952523504484265 0.11844616560388604 0.2558173501994086 -0.0848310025113153 
-0.13388380524775584 -0.1324618678509621 0.0991019623610911 -0.0168483914150797 -0.17707457162927537 -0.048481702467792105 -0.12405087198660696 0.16747231803340876 -0.09297376418617449 -0.18902340665805975 0.0366990730860903 0.11930698417020909 -0.01922042290787824 0.07694176060526003 0.004354252609064674 -0.01596149316563756 0.23973193532160744 0.08693473143771613 -0.1870997258107177 0.08727318282677278 0.0003898865485911355 0.21187104391957876 -0.110505034197926 -0.09219054971474283 
-0.18501052335531834 -0.08069164484682137 -0.12203499429350219 0.006125293428994488 0.08960122920951616 0.04745630470180573 0.1256517158690883 -0.06706348220952586 0.1263605709849079 -0.03855105236658104 0.16096138953031008 0.08352407142716498 -0.16776218021673822 -0.15243179226676706 -0.2239803808285551 -0.1632702750867575 -0.033645237836838295 -0.18476059796552546 -0.1981336072266852 0.0678153117419947 -0.016434864925949432 0.12451629941772334 -0.02497423344551994 0.06476422203343465 
0.04093557920924897 -0.09000893006466854 0.12197820360756917 -0.05685345784047414 0.16436106470037548 -0.13962287506759105 0.10906116663503604 -0.1427907444707647 -0.017412708592720493 -0.18725987669543964 -0.023898329472960386 -0.15387862935278512 0.1558342056800862 0.23890751538586766 0.10081810663023502 0.24793817963611353 -0.12097900705515238 -0.10324151027885974 -0.12411467775173686 -0.02543946744902737 0.23422004304953253 0.28489528873081704 0.006202717932452167 0.17594814031499428 
0.16129501070375604 -0.04270912615083528 -0.09909269963893685 -0.12994819474551664 -0.20778877108532023 0.16084618752993168 -0.17602715726193746 -0.13047405940424664 0.10312979030377703 -0.07583060341584796 0.22765306168056157 -0.0796566949001668 0.05732663987910513 -0.06763676783467566 0.1473187752382969 0.011139685287063834 -0.044025931748548804 0.022984182098486117 0.1691393031175572 -0.18766002593461795 0.12726825716378037 0.18199963825164756 -0.1551414175341511 0.04051719268672222 
-0.08527021771626742 0.12370062917816585 0.022936740216679206 0.0598772612098631 -0.06969034322867172 0.10177697653750414 -0.09321492027414839 -0.3125130322917027 -0.010492087621713548 -0.0036766587798075538 -0.011860192802903173 0.23302393663959586 -0.07360333475307318 -0.09266832228592402 -0.07504123616757705 0.24113578410619677 0.21750234889797238 0.17016525005493569 0.1631573289138428 -0.1180682689685815 -0.12171910342322849 -0.10689436615780828 -0.06442889021607011 -0.12126031375751278 
0.13619241225562384 -0.10117805421063429 0.1496597372872397 -0.14830171960143848 0.07737568187675534 -0.12152365226454699 0.022883109143015543 0.007311767993207301 -0.12205190706332605 -0.16455565964086216 0.006880097842565211 -0.06578023048879814 0.016067446362100737 -0.21016524861297822 0.01169984135083515 0.15574422615347605 0.11008488198466922 -0.0006122941125726298 0.19048992573292783 0.25049018485726193 0.012423828888916591 -0.20949347962466447 -0.2299478590916116 -0.15381880653265903 
0.022077776561965943 -0.08448392609044454 0.19022922358752112 -0.17118849405303982 0.16806608518844446 0.07495527886855101 0.10053904312223622 0.061900165619060796 0.06880107128586031 0.0011005217942098946 -0.22189151535552273 -0.05683610538000208 -0.0793742057570515 0.0984968926453155 -0.012276195702135506 -0.018978921096071855 -0.12612622483283709 -0.22271262742456405 0.10235434034673814 -0.09635694182263783 0.2418009377964071 -0.08366525290959981 -0.06910757144292848 0.01713560802990706 
0.1191162224864118 0.05323669586241081 -0.1495011038684161 -0.0506775851374752 -0.0024702156595166505 0.06873762280355969 0.08123900979340273 -0.16197461174383457 -0.20625372179248386 -0.046159957649829726 0.09709615539039047 -0.23467749584294695 0.12429709680135842 0.09432056197040191 -0.019884338136832377 0.16535863030040154 -0.027004582045028036 -0.22148303998395114 -0.00608731075711287 0.11524565454736123 0.13471702828883078 0.04445265608147377 0.09776599302765136 0.022898550130613538 
-0.11487906146011748 0.017400146952310167 0.14856708278956676 -0.061565827635127565 0.13188524294849963 -0.2386119337809593 0.05305556026714728 -0.16201000062481324 0.04474364467457552 -0.028348299227355822 0.12125354330323897 0.004517966365416506 -0.08338211656542865 0.20522353974063476 -0.07557420671312418 0.157041657299502 0.1423678843326008 -0.11051952239324202 -0.11344937503394484 -0.11295396216982391 -0.14233642471599858 0.02900267574022929 -0.1486534229696259 -0.1465393096723699 
0.10237106137404305 0.1216560738334343 -0.16747497767347236 -0.10637767639066086 -0.1495012010843799 0.15671511328392523 0.04489959630655377 0.03493985936819157 -0.06536491698013976 0.07726480782749919 -0.025367619073242833 0.17184476081682115 0.11323916019846536 -0.06258622346838595 -0.14893896757113473 0.19410236209047638 -0.17377131052188707 -0.1613043756648336 -0.02699149068943474 -0.10135371762465731 -0.08022601413243505 0.10366855064105937 -0.14978793943859128 0.09012895085604224 
0.05036031480629347 -0.24754380601511533 0.039670940227703726 0.15320513749753556 0.0459168142148712 0.10770491426557226 -0.1628834228061679 0.07671093708041651 0.17706879587108612 0.034413081158882856 0.07217853913029837 -0.14534852965610642 0.10162481880791659 -0.15603955523830934 -0.04123213098304061 0.027321382863555222 -0.18902255687255662 0.19612017030582501 -0.05110861420762259 0.0055940302552327185 -0.02184117132900206 -0.09463092156077682 -0.22935796238086398 -0.1692394465460032 
0.0443443085662533 -0.1554674400171266 -0.05630326148923356 -0.18018519674793787 0.08638097191510491 -0.1309774215871326 0.16123965803398274 -0.1648984220378018 0.006636625013293032 -0.18056662293997344 0.11648887415909648 -0.10227913396281418 -0.0622455077679457 0.12158027731510769 -0.13933781492882483 0.051202069234069184 -0.0982008822423536 0.09546621154054227 0.08818241184413851 -0.13089663908189578 0.23044779247519834 -0.2053857280435692 0.12639007571357322 0.00824578136947661 
-0.09401593356191172 0.09264368274130604 0.09150853056769213 0.21011101159320822 -0.09963041971663927 -0.1808115000701312 0.11906754558604114 0.19691342482215837 0.05266890746918696 0.017694987526478776 0.1198925837545193 0.1661578672775004 -0.119039358701488 0.12042575823427892 0.06781487343532076 0.08907590756018141 0.013288363261292282 0.0779485762579713 -0.19902143664380906 0.05678135873733711 0.14744263405290134 -0.14671793507822048 -0.2266684723772307 -0.13908567285988105 
-0.09429799436275935 0.12650681572504505 0.016904051472693245 -0.15214658851989918 -0.14402135218504397 -0.13118747705359038 -0.020195254707983314 -0.0693965684120228 -0.101175449797992 -0.005119162302106815 0.06794603409438879 0.03247988080954084 -0.08711667826169223 0.08866678801050237 -0.11048520328128074 0.054900694509972855 -0.015432088590357837 0.11131609865658024 0.15038561643266127 -0.04170693666912116 0.16265168346054676 0.06253285337431513 0.01811034832143202 -0.14665834921780815 
-0.004980579923272001 0.16133810811035468 0.041459857448682434 0.09142140333167821 -0.002439478406467089 -0.03508960989114692 0.10477797065812083 -0.17264810839979505 -0.012551601172757408 0.1827786271126512 -0.004537681098982634 -0.11161987276762109 0.16006994466505828 -0.08274400202819948 0.07931316240590205 0.06045477093771771 0.12927777295635817 0.12482526709607558 0.134450839560698 -0.19705268909323814 0.2413793867256478 -0.10549715962172328 -0.05991775254513521 0.20297565108722562 
-0.1966417692343611 0.10430306674322787 0.1354820037832988 -0.01410414294613274 -0.09672904811012806 0.16518637081629112 -0.025059302858049214 -0.09048574343212071 0.22727817429891045 0.18887634258699285 -0.00809594427260182 0.12403785072599996 -0.07772680847859714 0.004463164382100574 -0.06297491680400655 -0.06813582777515657 -0.09427422079204867 0.20826173673474038 -0.08133340031447894 -0.18544909813277677 -0.1675302845336003 -0.20935081912699854 0.03174492779444434 0.04087501399806612 
0.20422874448512016 -0.029271125665306715 0.11583701427625649 0.11222717465901655 0.09373637336362373 -0.05878487406551161 0.015281286396944318 -0.1272756559897575 -0.04049710745863658 -0.16973688645446455 -0.03588177789058074 -0.13298020900428237 -0.12823582831505953 0.17393461821601755 -0.07091821468058267 0.18109153057087377 0.017048648663228545 -0.06774804736645594 0.1373594117069578 0.1322518770228514 -0.033694589028897486 0.10912487148806899 0.012564856162687052 -0.08672621683265846 
-0.06695209835064682 0.08462067176512929 -0.0915585906886661 0.12573248309552235 -0.08090472947906581 0.0248375521929809 -0.01769525259070359 0.15706089044913044 0.17624752087509774 -0.12542411411639998 0.0010332224346404047 0.17832177990922685 -0.019185500213012845 0.16258366689338988 -0.08741981577395753 0.021497343719760854 0.03587759276891766 -0.10778255209418647 -0.19467032096768827 -0.03269021363300809 0.1933576075979566 -0.09703228040064568 0.12700463052528704 -0.12931669345359548 
-0.06230655607931191 -0.21785117047231065 0.09143863362494274 0.05080885732248903 0.07443309353696669 0.010025577008440296 0.01139663067819156 -0.1161196860715851 -0.1365154096402673 -0.05040770303056752 -0.056999598254961904 -0.07522942936080572 -0.046032816674401636 0.18003231933846128 0.00817124873577211 0.18783762661906492 -0.06826929436302165 -0.1395338183139455 0.005540886942668809 0.12533806439341957 -0.041574125290345335 0.005097265027614029 -0.0735216489058929 -0.0010588522890930398 
-0.13465740063223214 -0.15280344647858216 -0.09427018739094248 0.15958912123499164 0.11145758267775414 -0.024056031351763964 -0.012898255134382385 -0.14114405454116377 -0.003628947643824562 -0.08024238105473144 0.14511309318133275 0.0920360309021036 0.04555413304499356 -0.10354522568113078 -0.011507987965457402 0.23776946056453924 0.11814426560881419 0.05467242414119177 -0.13861264596468284 0.06515849245328549 0.0397634235049426 0.026867980106205752 -0.09844001089983369 0.039005181901802924 
0.15685756793674838 0.11238051458636744 0.0311459426831432 0.21485850105181314 -0.17389583568623188 0.19878342536222532 -0.2150193530861811 -0.12604872342315365 -0.05314814591272012 -0.18308991266898114 0.03362714118632655 -0.20232979145961227 -0.1102161935193803 -0.17289894647081025 0.08042866509498653 0.09657840684016106 -0.04474407372642713 -0.12388785075062621 0.09783163201741867 -0.08399956191870796 0.12985774142322182 0.007438964880147076 0.018099340189455197 -0.18899448394856055 
0.01834353154018641 -0.009148579545715048 -0.10738100709041098 -0.06144625646844675 -0.046229666876666166 -0.061819614763951924 0.2743619982259676 -0.05128865545744266 0.18359933098354425 -0.00041535077903893366 0.22300388916993535 -0.1245399221374185 -0.07441418328020587 0.1182668537380731 -0.18253002256528772 0.13551372855095298 0.0020653380455507306 -0.04864758242852838 0.19827192982321756 -0.17649115900429738 -0.038092990028052345 -0.1875996454033744 0.09522171737012394 -0.15353342580138085 
0.12987944836094997 0.18053085837131091 0.12754917931876342 -0.018866816772155924 0.06805232746089723 0.1802154373891734 -0.033285325735705154 -0.021305216013090558 -0.19838011386721466 -0.05140768114466043 -0.14245663020100785 0.14950525097786965 -0.02280355321326415 -0.00029861895473076185 0.14492292487733283 0.053763831159597646 -0.04045382163144264 -0.09146172934630521 -0.1709377724729542 -0.03213317473167486 -0.14850041642114248 -0.03580978618889667 -0.004323137797512226 0.2434037321129026 
-0.15575994466536577 0.06297982986030039 -2.641154464028301e-05 0.1099144063840438 -0.14189595747312195 -0.1663886433594576 -0.04665174756372142 0.20111732713569483 -0.06702557691691671 0.09490462207239984 -0.08289875476287556 -0.19437620096176444 -0.19346691388524148 -0.11560495158090665 -0.04677851585599182 -1.002251856834127e-05 -0.22075573446727734 -0.17965013214312137 -0.1935239369426245 -0.15397012738681548 0.049900543659719764 -0.038243884205808494 -0.07645054443197362 0.022698938145544842 
0.24764963194554115 0.09062973178402496 0.07887281823068773 0.15366374253129447 -0.1840807967570475 -0.18028634297909044 -0.024515085066309384 -0.02172151480333049 0.15453412816509451 0.027897708704486168 -0.020695042412146526 0.21905271935525494 -0.08989754009634268 0.14627346347491332 -0.09759642901779704 -0.059214020433416864 -0.017794451471552907 0.018631300769871986 -0.1110293943726658 0.12415976060073142 -0.09153502403990821 -0.16196201404261712 0.12452027729343015 -0.08984717219087567 
-0.07593975134494872 0.11417278109050728 0.01009316731561583 -0.16930649961279198 0.14907510042791322 0.13665350117193617 0.22043023713967852 -0.03628058519166019 0.09283592384123264 -0.06331515029670581 0.021422932825110808 0.12940633508678157 -0.017280539543959392 0.0031634909797939492 -0.06866818829602218 0.04339565896951004 -0.16159044112146606 0.15034765773764394 0.09971781030580287 0.10665765154609515 -0.10589798079894931 -0.11479639148874148 -0.1231166654665217 -0.07031674265650865 
-0.18514706601971587 0.12383766150002389 0.06720170548232102 -0.03424160037534834 0.1061733180039531 -0.02546642626806571 -0.184027317815786 -0.14546305170073495 -0.09683956608948431 -0.05107585812921024 -0.17895417862364013 0.008571201017808191 0.04499818671573852 0.009997057534181451 -0.026529221739732538 0.12004122161266488 0.006473876180628048 -0.19400247362264547 0.14864659182113502 0.0633137122731094 0.10442206312789153 0.16913929408656966 -0.2332484544650482 -0.10502423386210642 
-0.1744640761655251 -0.07039485973112475 0.1365521379357272 -0.1670301736005091 -0.010518735329647031 -0.174065895489683 0.07897400842849132 0.11002198853465747 -0.23095400627219398 0.015418170475934235 -0.1032818999543937 0.2401550670332377 0.15875272733932963 0.0719696895040423 0.19115516364892376 -0.04188478232828024 0.19219285068056235 -0.011457620377792013 -0.10472593812626631 0.2517431155769548 0.10930176628810233 -0.17382601602451217 0.12907759066543473 0.08916489509381527 
0.05105971135229618 0.09340820285258174 -0.09765364971985933 0.03948703121878112 0.12502229201422463 -0.17822094782873782 -0.14719706364592267 0.14881417594195298 0.05039852686698151 0.012243321009239588 -0.09971843212257867 -0.08805427478755665 0.16207676913957997 -0.05408669736590245 -0.17402185671903436 0.17742715999573408 -0.1004080962768379 0.15080448371735064 0.15217294722319993 0.006689899349836153 0.04664486345200818 0.022235452353429153 0.054801370589767924 0.1608752435420203 
-0.06977716674783346 0.21723147711969967 0.02654730620558377 -0.1534403273274831 -0.10826662749134679 0.03298038970866946 -0.11593452981391734 -0.14683057707348207 -0.11037986295133684 0.10646055453741486 0.09958147601092046 0.15969336426421132 -0.04884461090211613 0.05984235637243235 0.030458169671492945 0.05047785590039272 -0.1862305383346906 0.09274531703523234 0.17079532156128138 0.07865758426248684 -0.10126153613334894 0.06693758850698606 -0.20823266002287052 -0.06775668262370634 
0.2508021173065715 -0.021145031617130695 0.14140938491354463 0.04114075542912061 0.1282329038854167 0.2201046493361769 -0.0830464139069474 -0.15025787656479325 0.030137130142489234 -0.0773564626913363 -0.14872604640594186 0.10607067924667415 -0.18557278239654773 -0.08040289141020031 0.10924154643118478 -0.1511782468142769 -0.0755967159306374 -0.19156500920602443 0.19926567169549186 0.03219869316227004 -0.0662631386864594 0.23338017853875545 -0.06199814659181589 0.010221737869634906 
0.04090120329512779 -0.1290940417551499 -0.07691233464805634 -0.05051376433067178 -0.10126020364173151 0.04017978355275942 0.12077371256980396 -0.17096413086862178 0.24226000247889204 0.08641842034701055 0.16844285404259843 0.07768950256672258 -0.16766541408418884 -0.06281007193898284 -0.021289147550903817 0.033840591243912435 -0.05788378565429913 0.08074582944479786 0.07170119577048914 0.06678100284090319 0.019046869594780587 -0.1389135315365209 0.14827436340781835 0.10742564620096257 
0.183595848563504 -0.11849666788849197 -0.1285327117646748 -0.042813325063842556 -0.07082045407111084 0.14457545833291352 0.025277271267776697 0.11476957976164764 -0.03716938877127035 -0.15979402585509525 -0.1534679086619988 -0.051532899448874604 -0.12160900851859363 0.14754127980874152 0.03914992470122374 0.0891686851961747 -0.029761655606663648 -0.16436898124696459 -0.1050219155294963 0.017800102919265173 -0.11969768567299358 -0.18989215206101603 0.09680952317918809 0.06622742903519227 
-0.06767100817051042 0.14400385203619562 -0.02807048807628866 0.14228707605069071 0.05614247517814051 0.03438456569585814 -0.11883730594344839 0.01156070687245198 0.16852214150032446 -0.07702979208700109 0.1565655085119439 0.188564780146507 -0.06712423230189836 0.07352594792970862 0.1592507711625517 -0.1930809485490919 0.15246540486700078 -0.12282152085090588 0.13921666050049386 0.0811240258507451 -0.06251044907816192 -0.13875388064701022 0.05518621870279446 0.14945609573035365 
0.107513217200977 0.04231351566455094 0.18246310862536075 0.03531338548801852 -0.12000333528990942 -0.027720571902510992 -0.0709751467577799 0.21903137433605047 -0.04947896058091305 0.22367850964352598 0.007352562087407779 -0.14588770469121268 -0.1698959602315522 -0.0608241824403372 -0.15006983030847046 0.05825224020200138 -0.04689828854333845 0.20890527326748426 0.17173801484391915 -0.13961905301941988 -0.048973464638945634 -0.030690719985671903 0.031963313717968414 0.09596799997451073 
-0.05786469357931189 -0.04440743091749287 -0.09422238756165617 0.1747902497704284 -0.19119959890602328 0.14939220224112063 -0.123777325323719 -0.006041743032443719 -0.07007793137054835 0.23736288692877297 -0.15033188399456257 -0.11666651775902993 0.1540947760299283 0.04828999951481399 -0.07533307787808162 -0.19998089173818748 -0.13518566004728094 -0.14116912530936282 -0.11774740314455917 0.19232894480688603 0.18211092590469902 0.09428223336336636 -0.024427846060703036 0.11495954938682441 
-0.035879501214551954 -0.02645376582137728 -0.08877531122954882 0.2234112906995027 -0.04443958884615165 -0.04628910642764097 -0.09725307513618302 0.20570648286437423 -0.015285582866547688 -0.07999172255910988 0.09837795711289934 -0.17104784896091674 -0.16187848914451225 0.10548755876063945 0.09668138890928722 0.03554924409619418 -0.11467574322435163 0.038655403593452396 0.05448406548048409 -0.06803010906498692 -0.17277730191543908 0.13371113384777078 0.01968308537850774 0.07618019819841952 
-0.09747338617778432 0.053865488851934415 -0.02793154718860919 -0.046374919302237805 -0.14873509014793115 -0.10133297169476638 -0.1679578152299836 -0.09459680295221795 0.12798765593625006 0.03692869012593096 0.0627830322410137 -0.23802522946161117 0.09901952429711908 -0.0146267849861989 -0.1066966014774949 -0.16518900975276715 -0.15753338044668833 0.13698946130472928 0.19318340177869742 0.20842216598240995 -0.06015328021843073 0.10768220153141345 0.04157040087862418 0.11966092326918489 
-0.006361826277359648 -0.06892224436428367 0.11400283538765658 -0.15947172464017023 0.014486524085528531 -0.031434457777630924 0.020924686351414187 0.09506406876979352 -0.1566496484056334 -0.042072081818328506 0.04153383309636951 0.1723577378635099 -0.041711770807310415 0.18625552748417365 -0.03771260044330659 -0.1449286653944399 0.0709537314449231 -0.06530330290759169 -0.1118979496502319 0.14802648799676363 0.19265726564576766 0.03882779875994343 0.0008525723901099552 0.016434729072755595 
0.08196124249110494 0.18296792087948818 0.16946925793483528 -0.13226164095611187 -0.09376592550780055 -0.23000815526999083 0.20416723625090186 -0.10449725674789608 0.04808232836624446 -0.16377714965542703 -0.12691495021547014 0.00935024935133605 -0.18355647308946244 -0.017022540256523645 0.005690031068441403 -0.0633046644959788 0.021318716165618527 0.014392833579506313 -0.04300663357007693 0.055510638318421866 0.08687516946653633 0.07605760692868149 0.020501422254755333 -0.06512958849280504 
0.034223750177494926 0.18262771760227015 0.01630054041719973 0.229779145452225 -0.02312431245667747 0.09486817252117842 -0.18494683870415998 0.11427931350999757 0.034734923632741055 -0.19812126631149285 -0.08443902541666332 0.019866208105775527 0.10624317590489707 -0.21810198010641538 0.019216379078896926 0.1388191474313677 0.048607788049783995 0.17050735087011576 -0.16983197261722519 -0.08808190480558088 0.18927053047105705 0.10505516292652259 0.030542895727614622 0.10685192421346217 
0.21815803422495017 0.17579149180195064 0.19968872368140175 -0.14349738466266876 -0.1715356040423637 -0.1703462516172371 -0.19427177834992368 0.16510925014466235 -0.22136902293147434 0.1120100538910065 0.022190039670929106 0.037875214593683953 -0.060421368125393574 -0.023186512608396014 -0.09749332907657034 0.22637787592295433 0.05263240598939173 -0.18970876574456522 -0.015063974001457802 -0.08649564428662306 -0.16073480998150302 0.19924773828912476 0.07932779859790302 -0.06716782032395964 
0.14403422871557775 -0.12231622335594423 -0.07587721628689618 0.16103626290871767 0.26784814027076076 0.06116616980580033 0.18855275245869854 0.15740012455903268 -0.004470790338904208 -0.05008000574679888 0.09218758791047281 -0.004943894435624529 -0.0014317133770044375 0.21559887356868696 0.10863533896811393 -0.0755908003216555 -0.23701682061118862 -0.12521393979525688 0.010504561091897506 -0.032540920926023 0.14550945166565665 0.19322721007779423 -0.16556748774041263 0.17318184989636107 
0.18290863394611245 0.18375448265568245 -0.18484138704429479 -0.17680831499102564 -0.19792485836767418 -0.07396310517796433 -0.17757572740088884 -0.08147450269487304 -0.056718231050803786 0.18139386066247376 -0.009014732015142917 -0.08772084326025736 0.0011738606913471955 0.05646983334122026 -0.15500445621546016 0.10226740131923387 0.1400970035290039 0.13698536043783452 0.1557152258033362 -0.04647718368601321 -0.022023573563821505 -0.15892511391312583 -0.10874660231621298 0.18858555888376477 
-0.05345984296922706 0.1271525200087977 0.15573366192411472 0.1583974730258651 -0.1368239136859973 0.22959586749494174 0.03427223367631495 -0.11485125330495215 -0.0828794464329568 -0.1353006417233339 -0.0268999992384827 -0.1317433493196894 -0.1331192112556885 -0.12025973889512766 0.07544227409997191 0.08613382300984712 0.2216010192277361 -0.07736612295537701 0.051014303450332275 -0.18624016394896573 0.006332636733535552 0.17283887989694774 0.16186833193886044 -0.19626042017618586 
-0.09789325935860389 -0.1190203415717214 -0.18089907647448591 -0.1961381312764897 -0.0038314876263986814 -0.1817364066215844 -0.0876849610493553 0.05512670877323742 -0.10285064101217772 -0.09115634993875535 0.03555949909192298 -0.041573283296425734 0.07718598929144438 -0.007983665254099933 0.05244242868296929 -0.05775955612215976 -0.0841993786454541 -0.16125977807413017 0.17463653900676954 0.11687475892164466 0.20567324937000286 -0.12502241061135003 0.18169153035493954 0.2055096016218642 
-0.08559851723191672 -0.08916303870044963 0.020150933212052163 -0.12505922312252582 -0.022693783538387087 -0.12504776760875186 0.17882748132415285 -0.0024126459547401846 0.18556710870129195 0.05709871027537933 -0.006131401202480139 0.18710719279741378 -0.14206475707904984 0.0520936500793391 0.06383427612242859 -0.02594480718574484 -0.17608633103582375 -0.0028434098814813617 -0.013646582444925281 0.12184862498043593 -0.0963619316659139 -0.04268228649162908 -0.10297633330742151 0.0736140091202622 
0.21194218053882083 -0.1323244881066183 0.12777637362979574 -0.10666441761214722 -0.17664862059488579 -0.16782499438446946 0.20043414489511366 0.1790487617496535 -0.0927316973301639 0.1896076317559255 0.15104436389713283 -0.03647340342381035 -0.012503136434423702 0.051185315404829214 -0.1360631687163869 -0.19425614548047138 -0.09408055363855816 -0.1939861000017535 0.06885380876748373 0.020165578540507715 -0.08706300870914177 0.1282075854201355 -0.14684323537663896 -0.10108659521839791 
-0.08209326335818595 -0.13033835940159932 -0.1644644414349617 0.13989841950108517 -0.1643629025212462 0.04914234110851524 -0.15129281658827443 -0.19592312874096454 0.03703300129569909 0.16860289298561665 0.17174962403427807 -0.08298687312966926 -0.1892058045565661 0.12140314291954045 0.12154158821889052 0.15056768787384722 0.042615032132260824 0.10753863104556734 0.15855166495271655 -0.018083622574126837 0.021013684552729013 0.002395365294149273 0.09610706993541779 0.05900733512489111 
0.07896808809770844 0.06733185315882155 0.002257892446283507 0.12858727158919597 -0.08627814211922219 -0.0837273617109607 0.12856881473248397 0.0903426813855435 -0.17303884134241573 0.10145004137194084 0.12217526852470688 -0.10690787865216808 -0.16625390929006842 0.08432449413889401 -0.10927454086978719 0.197410852131883 0.04858516421597125 0.13829453318053023 -0.15639637622758143 -0.16594962705501637 0.1346918042519605 -0.03544982934930084 -0.1647431808899267 -0.05074791562259517 
0.06791616396895103 -0.12332620089878839 0.15783377468605242 0.2129979890090708 0.1802028258969735 0.09105115231758333 -0.046262255153945796 0.12280181846385545 -0.07951083671725327 -0.07327084001817283 0.04162491053352524 0.02776713486946198 0.18287604933010404 -0.12317643605944728 0.09674880868514793 0.18048182712452826 -0.23737132654864654 -0.009352301016127435 0.06190621616119462 0.16777609094545995 -0.16851163246735903 0.14445773023025152 -0.05340448369143508 0.15743498571643677 
-0.1889802827775792 -0.17761874954156998 0.19270208582816664 0.043051112158068255 -0.03233188609555508 -0.12818221102806907 0.05847265457180356 -0.18520315372121668 -0.09138454081695627 -0.06965921914473809 0.042236186225625034 0.07459841051077587 0.14532957229608198 0.176971469739823 0.06326521454925585 0.034701723490472354 -0.03717914057074744 0.20578929478740277 -0.13766081779867786 0.16793253845631756 -0.07800172380407391 0.0374007311259352 0.07397429387948637 -0.1044629019227329 
-0.132142579340563 0.001775435860275565 0.12947508606379646 0.08755690976212434 -0.15187139696555718 0.1513309739200585 -0.007923450967999674 0.20113048310811063 0.028697315139716857 -0.1657388414894196 -0.11813833389969523 0.15347397032526822 0.07232505946186965 0.15409962230126825 -0.06740235447855056 0.010955049109742286 0.059408666041098436 0.0223495786716016 -0.10647384053819407 -0.028709207338481205 -0.09979034490460507 0.13753717082352798 0.22050236216973493 -0.1731509721538756 
0.121975290835772 -0.09535507465366613 0.049360312572123505 -0.0957732503667944 0.05950832413120097 -0.050714915118936596 -0.10389842380438241 0.15526262093931703 0.1688811402910057 0.044653025376471804 -0.11330629353231071 0.2218668236019782 0.08422263696525754 0.12655701933534352 -0.1144113443707138 0.1312918645834997 -0.0790605930922544 0.05181242296641928 0.08331342116109827 0.08003589011377461 -0.021592555972437654 0.14144380512255544 0.15126237414502158 0.03632836232064523 
-0.1634607426970971 -0.09607259106950801 -0.15743143157035244 -0.13012754620161082 -0.14884952660113168 0.07031362700078134 -0.18421007188594887 -0.10241989506398211 0.23405438281006635 0.14431485800356966 0.04143731893706766 0.14486605336598077 -0.18256372786525688 0.1282626662644834 -0.07451549319443423 0.06561193463505981 0.06972609587747208 0.11337756072846603 -0.016229854036245047 0.25849361657941555 -0.0958681073314239 0.12953904210110898 0.11950320611937344 0.1755018874057834 
-0.186968920796258 0.14406325821058202 0.025706249030382208 -0.0029601169058745104 -0.09533700691853772 -0.06832430212154741 -0.0992485173515564 -0.11137553730950236 0.19156439908304487 0.0009354775795140639 -0.1663938234785646 0.06494175001301461 0.0744932788056947 0.048952336590053075 0.006017712200216287 -0.039315151807579704 0.1563681300891976 -0.18876375452825173 0.17288032435708897 0.24954511422680106 -0.06099867841786413 -0.1133074641347647 0.11356888394143251 -0.12801077424649263 
0.106095126215978 -0.0928012409267736 -0.0826956826710113 0.2087029482199509 0.1607509529864 0.028658955734130142 0.14310463704124493 -0.058101853487503546 0.21944317637901545 -0.026003899467701767 -0.08109518322826159 -0.18620982795036675 0.20609848798941452 -0.015198114731033417 0.09285421291028287 0.07824543405996362 0.08872081850253097 -0.1794436862656628 0.16770865289787282 0.18939668287951753 0.040118627432040595 0.20110507152874946 -0.11075475351754903 0.03893406590468075 
-0.040692077316491354 0.12048824200931584 -0.07877082112605775 0.19990860457623302 -0.1718431126731411 -0.18320508150335846 -0.18014195766745544 -0.1391261060039704 0.011092275436496298 0.13904672435075738 -0.15518705015132458 0.004221812460335176 0.07322949965595589 -0.12329841936914997 -0.11985571074012072 -0.11084224817135291 -0.19803644559541347 0.08428249603678278 0.06063404286601878 -0.022037497072954326 0.036793611118122904 -0.15551940396891578 0.25357139192378936 0.13318485111653017 
0.06269964353277485 -0.06984670922924112 -0.03275224071097577 0.002757172382727496 0.17390550031562232 0.1898686555355363 -0.014010619298595177 0.009097395865164202 0.16329623578821176 0.2002050223315314 0.054813236196312023 0.11287415483694216 -0.0584624086069051 0.1701427690326222 0.13395558275132954 0.02039631654785362 0.18788038875083937 0.14733300709214933 0.12251950217301895 -0.14712329653223033 -0.003944739496172758 0.18230958696884658 0.1140595351716329 -0.031116866494972084 
0.2031477091933834 -0.10458901657094788 -0.06562531604228995 0.2132944499773907 0.12264203242953924 0.15549515395445088 -0.19555949597251598 -0.04730015231751188 -0.1042302216370957 -0.08064659152463946 0.09422046482034062 0.08979798052448267 -0.006613062720223079 -0.09062597257777008 0.03324868443187651 0.013192270149481053 0.01541110738704713 0.04541584043342149 -0.04101409316808073 0.11039950113721207 -0.09855024863353358 0.06950609967535538 0.2146110568445494 -0.19884091562627165 
0.08836080932975779 -0.1559172720262067 0.017147917656676583 0.04994714757098771 -0.10186252097076173 0.16518860004890865 0.04812290618841033 -0.10638073717930621 0.1071146998330229 -0.15733221162455108 0.021642340355021796 -0.16161453301269424 0.03178618021599377 -0.0978376701521082 0.0588961197551884 0.08534718448135749 0.009459921430973786 0.06209749871384372 0.12448785560896597 0.1221571244977179 0.04708089351738717 -0.019155120620242657 -0.03615314009727381 0.14932695976916222 
0.05779751949529102 -0.13487944024129994 0.025776291116884714 0.21057260360691477 -0.13903109476397327 0.11764493966935048 0.17299686055756414 -0.008619256503327647 -0.18495500199348355 -0.14032014874101764 0.21750807473205283 -0.23212937120947033 -0.05017911723670303 0.016579088707786994 -0.12035977884387848 0.18118681813542276 -0.19918534534012938 0.015535091978113529 0.04641925743422602 -0.10666385942472548 -0.04607306579817449 -0.003513514739936357 0.15059186894999535 0.052867438409379026 
-0.012699002328722543 0.0627186590525504 -0.018261373116010015 0.010057755980612922 0.06251368463694996 -0.12671042424535414 0.1195116555309944 0.03193332869895952 0.19784163853828812 -0.11012289260542761 -0.013202377499213146 0.18934375280401128 0.03986034074414067 0.11465038300336043 -0.0338951049658546 0.09500260884086163 0.19094588397130077 -0.11905537791105977 0.12209787527893236 0.21096219067737512 -0.19434324029156502 -0.1130078663836867 -0.15251849455759348 0.10061371308549148 
-0.1671957421457468 0.22358063255668426 -0.04340168299763536 0.24144617004560695 -0.12373329807343289 -0.023177191985991257 0.15889772815668055 0.04996748733070609 0.04397324997245589 0.004944182293106189 0.028987751846019268 -0.03399883813385007 -0.1217253981086857 -0.19011603287042753 -0.13881357887898685 -0.17888168796153053 0.02210465449014202 0.10740583072793826 -0.0554863632520291 -0.16959638537995742 -0.039212823973410874 0.03010082631782806 -0.02802397601522008 0.12345062238463465 
0.1731365112883667 0.18033864493879195 0.08062044943334737 -0.011621256791180031 0.07212079385147464 -0.1948128804684847 0.23505707057539435 -0.1303899929606675 0.20404129862282008 0.11259572295608802 0.118261137653059 -0.12616889569120923 -0.11142142459098425 -0.06948542154857731 0.13654532811993073 -0.01943913998596538 0.2349191284541636 -0.05804355906180844 0.04696610485741714 0.1573132577930481 0.041921031895823434 -0.1817298595756275 0.006775119956338269 -0.06517120786991135 
-0.0038399614372499353 -0.08344650113131807 -0.1505389080058866 0.06638122618514582 0.07158737266666669 0.1314499789775241 -0.14643947822101921 0.14688067304274877 0.15955506982401912 0.04185052626496608 -0.1171481255645912 -0.11999133041752545 -0.020157334179973053 -0.004344576506006496 -0.008823977063527635 -0.012734357771641936 0.11574174326512111 0.14323520930020556 0.12588325386931085 0.19946894781149288 0.013054219254367904 0.19104563385092388 0.0618322989313837 0.03646823407688492 
-0.07132533176204478 0.1556583915152619 -0.1790955883816418 -0.14556292712375807 -0.14730580230354096 -0.002686670129132849 -0.12907603589984937 -0.06262707404295002 -0.12475568423483611 -0.10556141993347887 0.28148157225773784 -0.07085391195959899 -0.13887560937581978 -0.061432347244104304 0.2735249169820552 0.08713034905158328 -0.12576173746565253 -0.08546935591969475 0.10373995120710634 -0.10285104044819884 -0.09733556709258717 -0.16602955064230404 0.23647671149747596 -0.020414084300332345 
0.024223171305862257 0.10691468535276233 0.11771627281630272 -0.020567688670144323 -0.12552771725519102 0.10618129210036338 -0.18764006329803232 0.23706619444485966 0.06521491969942134 0.15570531080472452 0.042680624984203545 -0.1491617173439416 -0.052060558212567457 -0.02707143717139685 0.24459641474481714 -0.12537928268582374 -0.036291024771656924 -0.061576843362776953 0.10695123778249618 0.17363756908704436 -0.060048807025550446 -0.11747009650074952 -0.17293997490340118 -0.1196748201229924 
-0.09005695617280743 -0.008654951620256252 0.15724145299005524 -0.1481203785454574 0.21174537402460714 0.040734002094377324 0.1339891671707874 0.24143796546948323 -0.009660100766763833 0.012359243269317359 0.06504384262842446 -0.020772720081999804 -0.07937769693153374 -0.1573818743667834 -0.08504366188222662 0.09289728482002607 0.07597876053334825 0.09236539573357115 0.0066935039061286564 -0.10621790807290651 0.03157523710739957 -0.07742429705873137 -0.20020213807147524 0.15171354475657844 
-0.0312523655731164 -0.034608374851353575 0.10718532228472324 0.20068954256168783 -0.1707330204191869 -0.1699341277027748 -0.07010609965455054 -0.10752053007325797 0.003089182497578552 0.12899217173528715 0.14091672807236552 0.039235649842527046 -0.12715118361223438 -0.15887545415375862 0.0963825766953025 -0.10416398621129029 0.010392101194723112 0.09084589961690172 -0.1077651235661131 -0.12941159286911397 -0.18407795207683902 -0.14029332006031098 0.16071783589395527 -0.15768566911916257 
-0.1096155997454496 -0.18692270992383264 0.06959382005267677 -0.10637734256475286 -0.033926061841421634 -0.14363828772467513 -0.048309186858125616 -0.007287179539314489 0.025390574886840524 -0.030277636814864072 -0.15844824860043963 0.08427672488002548 -0.14448629043476266 -0.07044495430375654 -0.09023498400236335 -0.07862084501680801 0.03695417736898045 0.006954254772115577 -0.12312478028511721 0.009368547108221431 -0.06326577281225117 0.054620106373193186 -0.10863073604727412 0.10969299504482756 
0.010260748285313813 -0.06628588288641406 -0.09755470587375077 -0.124709829566948 -0.011025415428599618 0.24691582321487307 -0.15851257450307768 -0.08563134024220857 0.05372473816588346 0.15120813958759646 -0.08751282118313765 -0.003815011087640651 -0.05650138294512428 0.09712124374514204 0.0867516457616841 0.14226305735108055 0.15648346792193896 -0.046442727443872595 0.17001574809010747 0.10925340935066788 -0.07174237975334628 -0.0770410997558393 0.09239117251592348 -0.14899228908842893 
0.05254221007006511 -0.06727175683579963 0.13009839648913263 -0.05334181333182244 0.0923660104313335 -0.11908960033915024 -0.00725463771423106 0.1071818411456222 -0.07148795394812674 -0.13463183824775962 0.058703600019316585 0.1378841853656896 -0.08693908368834717 0.0060079523469642225 0.15495719756490756 0.191019879017378 0.0949274376331428 0.035699294821689063 0.1261366787593527 0.15012919524338697 -0.19926871426262346 -0.04038959696057102 0.013283411434230015 0.09258911056191205 
-0.16465371178893573 -0.007242545325827342 -0.0871676756864828 -0.030014217738102932 -0.0007895171379580447 0.030601356628602878 -0.011364658007126832 0.04145276025768084 0.07159935967394011 -0.028113854695841805 -0.19826021211702488 -0.16945905335887976 -0.078620138967391 -0.1405322433935895 0.0387657537772075 0.003604312845082957 -0.023085570639837037 -0.07070718740926603 0.0604026614361223 -0.1230455961313285 -0.1978907171202384 0.07158624046001891 0.01518327469887744 0.05701182368092594 
-0.11233774426963782 -0.2461408310315489 -0.04795607360583011 0.08013764293435602 -0.1584231690463357 -0.12790085301057136 -0.03327629393191067 0.03258517849405648 0.08528341909102151 -0.10951595284750859 0.0369009492867778 -0.020610707774949624 0.05157213992240419 -0.12485733031858776 0.05161094767377548 -0.11874688890623135 -0.1914455961894336 0.0512566231723661 -0.12550746302341134 0.04672705277414782 0.041384551077360304 0.1428569746695796 -0.07541346902472969 0.26297317687821703 
-0.010788273628582368 -0.047414541527567376 0.08108215660271521 0.060439209237053294 -0.054158413819323854 -0.023689012904527164 -0.10364740792945039 -0.09581924990453772 -0.23052424391732937 -0.019756931219655792 -0.061499993809095835 0.030860833822719758 -0.18856983500115 0.037603080675975835 -0.08181992558249755 0.0528449485629253 0.0825740826522397 -0.04715637212350585 0.06433889381729767 -0.0836546421437376 0.2434175397568499 -0.12459757155559917 0.1886818147085786 -0.172150108843223 
-0.022000447577829395 0.10412407195819687 0.13493997740566943 0.05147471049997125 -0.04177248562255527 0.1613608656736282 0.10185378999381975 -0.09496085083850456 -0.09554540201165153 -0.17336871485191632 -0.06365784828245885 0.09503550448444777 0.0979744751699719 -0.07285546550484415 0.05965066647108553 0.12500805315119545 0.10291694089026188 -0.18813555000242257 -0.14062557543853205 -0.1345094556524161 -0.12070635524192896 0.15150471740635144 0.1409740917807888 0.03685203388210949 
0.01690311590863634 0.08201097459262426 -0.07815234896719372 -0.052465731886046425 0.029403201264362452 0.15068343184719715 -0.11848725473086723 -0.10318544237690105 0.08135191995631566 -0.0627171778447124 -0.18086920424623462 -0.12592602777981807 -0.12160212051200499 0.02533709015888353 0.04723223220580998 0.1946587198538641 0.18111052037396486 -0.07616515427094754 0.10038872416233956 -0.11758638459075985 -0.05173405636293509 -0.08192832882167222 -0.04644167291668063 -0.11320655577730711 
0.018472548069653795 -0.21762873809970595 0.1693525817238129 0.003957037818257967 0.17684376206767588 0.18041392858332794 -0.08231824115189224 0.037204614516618315 -0.016455299785221273 -0.07816778341098095 -0.016599417778967326 0.16677238931492153 -0.14830699891550178 -0.13498211420312198 -0.12137089645567291 0.20547993221182792 0.18433391743288607 0.011249331386388913 -0.146266988803834 0.046223992678411874 0.09421169038838122 0.13430388040744273 0.08164382060562494 0.28844965978171905 
0.11381754327613251 0.08818619842487016 0.09604679958062812 0.07689416537960438 0.14577212436410342 0.2646481989936346 0.12229536082564699 -0.12080872924947363 -0.26820904480689567 0.2341807756357695 -0.0024389033827463035 0.09683577800107343 0.06722555631686324 -0.1488486554831166 0.13480047218177624 -0.12722131619466803 0.1396283327488943 0.06987369982211483 0.04808425628401093 -0.03078342971928684 -0.013748376317363446 0.04308226086005935 0.10261961885381687 0.1058088637158342 
0.061780388782208144 0.0292747585214187 0.18891943943653425 0.09603462217539262 -0.057160587697514816 -0.0017906769006525028 0.016688096315445804 0.057184701862058186 -0.053013802364395506 -0.23838293034320748 -0.06447811925251715 -0.10298612529235952 0.2384632068844386 -0.1086415568299334 0.049726291277593655 0.0031842118387685908 -0.12882051136609257 -0.24136083460784485 0.09696119476350022 -0.08129256062718682 -0.07786173123745463 -0.1374113503361862 0.1352574088899819 -0.18500500923804947 
0.019545066307761334 -0.19399500258857913 0.19336674045015556 0.05729769938171462 -0.05284740759806764 -0.14062535258189687 0.06987602732728584 0.19464163073399132 -0.06615745468452763 0.10565239787938088 -0.08401783180049543 0.1884347511891678 0.10471124168305858 0.0409816893974304 0.16394716268833032 -0.11744294358061542 0.1713433210141461 0.07028157455405912 0.10760905456164442 0.047365999058549366 0.11435889086645255 0.07451514668904352 -0.1406816686141595 0.03671832757813464 
-0.20001151595689007 -0.04929902618915351 -0.276064403289606 -0.1293907063809814 -0.3306424385240766 0.33497965887102965 0.036175696471621374 0.003685769362574815 -0.3294411182981195 -0.03576006078695623 -0.03173569067521179 0.3683519686701855 -0.12546259162791648 0.040893282089972234 0.11168532977418479 -0.21470283232770335 0.01780112504066695 0.17325077770022088 
-0.27949366096549905 0.07133232001626058 -0.4122275423254164 -0.31638483994095223 -0.30346257762997864 -0.012404885160220555 0.3384896234488677 -0.02769380268434497 -0.31716527049921267 0.2667165625534389 0.012871399767899316 -0.14378718678621202 0.36141644483729246 0.3376891403088364 -0.16322439645913253 -0.2039424256060855 0.060110772027180674 0.2653688075731845 
-0.1649090237201735 0.05803725119000048 -0.259029491497507 -0.20868082917971406 0.17802418107994322 -0.2397754194103906 -0.23266114561469595 0.12329926942696597 -0.33488414389872334 -0.3146086711921784 -0.14421640884032963 -0.0904001582925072 -0.06498495972739664 0.19607951046276093 -0.32009915981556564 -0.0955615355383302 0.09328979014595234 -0.30650530307232426 
0.2335850140924037 0.09826706722987112 -0.2516570386080637 -0.14780683503974548 0.16704467253819585 -0.06492407163457935 -0.04922937749529686 0.2308269464951373 -0.2486435284574424 0.39251435729978057 -0.31539873389057027 -0.28026296505383613 -0.19357145110979343 0.18719863805839607 -0.029508764111147456 0.10352379187764328 -0.22283087400369544 -0.28655987724550924 
-0.02430189669956029 0.16344078386834268 -0.03696200427114804 0.25359378168091007 0.1084261927093752 -0.1707941716104 -0.24303237690005963 -0.11374119438583542 0.1901859702778217 0.36576962982774136 0.2694658800261069 -0.1449981889707371 -0.03048779061940745 0.0617876773040242 0.031327772052881786 -0.07451900378269613 -0.2739428678847202 0.1215447343478414 
-0.3764689962340198 0.25111275726233384 0.2667828683387631 0.20958792248519426 -0.009049205012855633 0.1350305204466638 -0.13286270269884085 0.3109120783059921 0.21200368441597628 -0.21283949030928373 -0.12336149327934079 -0.07255567175200482 -0.02277787152463739 0.00016637399440825663 -0.316064721734956 0.1081232963727195 -0.23136693412568402 -0.1175440400206625 
-0.020819196399043324 -0.10217058551888049 -0.11973151529119769 -0.21865043852136334 -0.29739323843230214 0.03430108748951692 0.10153653737239385 -0.2276748428233389 -0.2090620854155804 -0.16144069580917045 0.23019352634450785 -0.28080743097247 0.06581524790250451 0.05322051969838762 -0.10580208434567383 -0.10087760723006638 0.33301469740639755 0.04668812946798035 
0.1629266591150345 -0.006169644092359946 0.07248000890727857 0.023194696404729775 -0.2432255535796589 -0.11178890972977701 -0.05169157950863807 -0.32021679906545075 -0.09387866976059143 -0.23351755966787316 0.24925030736208278 -0.15070355858283796 -0.2526684758209784 -0.051161654299492425 0.12396725476163542 -0.29916253948028376 -0.21835496376667712 0.18083907193511173 
0.2023188730210766 0.0792999240021139 0.2570270471007656 -0.28824409109030785 0.13806223657247457 0.2870939631699501 -0.236532095330729 -0.16381367904610372 0.03435506814293541 -0.1272146749360531 0.13660357251656952 -0.3431086310235081 -0.24034138283643067 0.17727510219951492 0.32476724857180883 0.2957572261648798 0.289367276996164 -0.2691654578484355 
-0.2911603569952163 -0.29447720885550516 0.009878452101658476 0.3365752788590331 0.021232941640843897 0.19218261741829146 -0.26091585159872205 0.3244416809244252 -0.21334494446375266 -0.3012500113583937 -0.0526790062444404 0.07751212081255086 0.3871143460169173 -0.34446139980827045 -0.1536116747903591 -0.2713502392578803 -0.06938534371459551 -0.1979527153177503 
0.0456462204027582 -0.10249216460348236 0.3210291522877505 0.19791093868511206 0.2475602302341642 -0.2542147275379717 0.07585136606666051 -0.1628142025579668 0.2747557823002933 -0.3820582677593115 -0.2709022077444396 -0.12145770990212049 -0.07624866751714679 -0.13769256107820274 -0.2777125403025485 -0.2617759398926047 -0.1235721870516827 0.3694932854315356 
-0.23085284154139238 0.16827908860756463 -0.195703279847239 -0.3591357329110066 -0.3342021997218967 -0.2379495084287197 -0.06829733339165701 0.25653515723824405 0.16861295465363738 -0.09302344360895445 -0.014011562686513091 0.2596987466521619 0.29747703786130636 -0.15851866861132538 -0.34255336744910564 -0.3123592247129977 0.1734235365780191 -0.19608405291504677 
0.01734834816705829 -0.21046778494651644 0.25727863371111237 0.05504668769663705 0.018130765788796577 -0.1438344957720012 0.01506224564499373 -0.3491192494850255 -0.1496667276289463 -0.1274915905832481 -0.14668317262075858 -0.32720417565583526 -0.02236979821266588 0.2290020296756659 0.30496409704785304 -0.0018044586706085306 0.061803315131478194 -0.1452882028213872 
-0.2724469687929573 -0.2525513870288597 0.10303806561900872 0.14360543997433617 -0.2193180616319121 -0.05804415554298998 0.06900070211090663 -0.3157749298490298 0.19922671882328782 0.12633477558941242 0.08217863623300604 0.2046546343566393 0.4233825217778469 0.02369964815315089 0.24994769674386924 -0.05456043004579636 0.11213978207038255 0.2757486770866165 
0.1592514016566742 -0.13349696790754007 0.07611978835800372 -0.10039815127291733 -0.1202368767429648 0.07416554621733973 -0.2082155196450836 -0.008080186880658759 0.30710759568190193 -0.12020088254784789 -0.2126083678101769 -0.07384534003291413 0.2142654948492856 0.290043261344501 0.22431534006930204 -0.33744392385483213 -0.15837444150890534 0.4117930439554683 
-0.3011396649923578 -0.006603602705493241 0.19336278823528352 -0.25932962570845824 0.10979445034304021 -0.007944005206307643 -0.2880443664686569 0.25001569227225695 -0.23946082838453916 0.14447576528845316 0.17252388217241105 0.10137669547450812 0.14294082002797975 -0.30987289877884044 -0.1300859586778119 0.058397952717175815 -0.09108465965751555 0.07384480524332017 
0.23091543387869853 -0.21172971210488786 0.28694107722830375 -0.01724282554695461 0.305335375117492 0.07904679515245107 0.15750787301118413 0.05676751203614869 0.022186879302630257 -0.08104257611445857 -0.25431032500492123 -0.03428964146591941 -0.14850631435080142 -0.40503332083872395 -0.15294230069924852 -0.21846190995418557 0.28383222339737546 -0.3724490198754671 
-0.26321148631132985 0.13839502912170742 0.30120291345901146 -0.16915291949150632 -0.33048566203363433 0.3176141834543015 0.07563522997252506 -0.08606666941292604 -0.020720887460576966 0.13649433624020044 -0.08500468047889786 0.3453876503191934 0.22933453423419048 0.27473850514859277 -0.10057101658017092 0.30113544831734584 -0.013942192693067028 0.03818529751462147 
0.1556469046974317 0.21142282470141344 -0.06977399682743077 -0.03483747912341948 0.216962951252152 0.14772408007818097 0.3000996669614581 0.3311221060950006 -0.21962302480059853 -0.18064575233294666 0.14663992354366473 0.1776576119588797 0.06594907547295036 0.25488869874633446 -0.16878430484859966 -0.10849515019556535 -0.0035651643159192955 -0.13395324902971992 
0.07379804694136498 0.12356461745921071 -0.24198644476078104 -0.005207153608398364 0.3406018041982128 -0.11900475745044019 -0.46058660890883374 0.1813442357873341 0.002201803341644758 -0.36856563673180637 0.28105965129005517 -0.10414602288303507 0.2736148840470557 -0.04668452100120973 -0.2912570596581681 -0.17342081693828473 -0.09600759445066827 0.22359448678118818 
-0.24699212078100938 -0.04627384152415908 0.2568768009995668 0.024415581441949167 -0.27272325544701154 -0.328205467533785 0.11527530041673449 0.3698282462570812 0.21009655869839644 0.2155068778061398 0.11873622906476264 0.26808348344069766 -0.31751663884214953 -0.19882466569425764 0.13244941060159654 0.25175169273792636 0.13972055170872733 -0.2763219243982919 
0.35739817304471855 0.2773196455566411 -0.3324291395345332 -0.2562983508557537 -0.1527307399186275 0.16213834495642324 0.23789582452400948 0.07169656626500559 -0.21037977457505838 -0.08305133180359878 -0.26757123875386674 0.3117984930075775 0.19498294639102923 0.03255802346698716 -0.03105256866083956 -0.2764606088514134 -0.122772150011386 -0.2756099676754016 
0.23590163118535168 0.030016968931257066 -0.2619323071151699 -0.1653938892747674 -0.16296190659432375 -0.12951099468514354 -0.09932166835253128 -0.18822900056862824 0.11503963248546792 -0.3463302957937158 -0.11629461088063524 0.18624907059890014 0.3431355092224973 0.23558855954905245 -0.17652450486112964 -0.18201506682618432 -0.23474329380338926 0.2904882863413592 
-0.2479624742350395 0.17583553398090435 -0.2024939997966992 -0.30085552846229724 0.1587038776385484 0.1536945305330497 -0.3988604744745104 -0.15507937808826633 0.3370019452491346 -0.2225295136147034 -0.2880600123939504 0.1112601087737767 0.36058189613517266 -0.30339864603811567 0.008673302530293062 0.12460990400280052 -0.22457182363012412 -0.4060011681580476 
0.3262135590595752 0.06936226819551689 -0.31350199204538426 -0.31761543128142194 0.09789773476930513 -0.24894610582809354 -0.21971099546197395 -0.29703599788525353 -0.22579665657397688 -0.002024394064327566 0.007659408381845496 0.008984639505604977 0.46806207378960735 
-0.296879324409343 0.203640940516656 0.23419162224760742 0.06642165587718582 -0.02900141506425404 0.3158006265301851 0.2622845416982544 -0.3622169356460945 0.37319564055367926 -0.3977792346417991 0.05715366730059766 0.05660114815569035 0.26735475247415397 
-0.1023246041181343 -0.34195542135954543 0.03432375697430261 -0.41104024090592 -0.1306572627957654 0.4341458568603933 0.33418238944676937 -0.2965956150379293 0.28077788138451953 0.23809926325046696 0.344458566580851 -0.21942976264710565 -0.030339749239352187 
0.27693554483045163 0.13201915077249388 0.07357716971420658 0.11291754761437126 -0.2195360690696117 -0.43417338342998696 0.18751217591075084 -0.17388734219401383 -0.06580910593758883 0.11871293992112923 0.12387943243169532 -0.23691633253692995 0.3028147140840372 
-0.09408075004769065 0.10358955444710394 0.37603228624576646 0.050584274072040025 -0.11103804520560866 0.09342643671899234 0.0013895280149579976 -0.03711133427705591 0.18428810031811052 0.34140829418860097 -0.016101209035014996 -0.330904124826688 0.05441413471335657 
-0.20273209782202148 -0.37107615956101364 0.22961801477886543 -0.18021526434635524 0.22061240397659382 -0.009148722401148545 -0.14383293020736693 -0.1469735166548716 -0.369052066628336 0.02676478157017633 0.2585011066144881 -0.33447682583865646 -0.31416738944051836 
0.057900025535852315 0.11906219664297116 0.13882308093757037 -0.1836415641441249 -0.38790774241686576 -0.09455688611892434 -0.26323634967406073 -0.45834531649169163 0.16403431337345178 0.4180388085509203 -0.08538987876604003 -0.15801228621109542 0.06662660751423737 
0.2706774385076378 0.23517786785542313 0.12402859248779416 -0.017413396058728166 0.12567053473873005 -0.20725469340014813 -0.21664568730343858 0.2858734977898755 0.3656909333105158 -0.36017026604391356 -0.16142241451914258 -0.398716066231394 -0.12491566054477185 
-0.24641819627681938 0.10595408663527792 0.1507989090720141 -0.33564234869357473 -0.3475458351424882 0.3447919671741582 -0.08690764009745798 0.01864078548701699 0.407758717177237 0.20022956641851003 -0.13773086458828018 -0.33286623615332167 0.014881976533534132 
-0.16144254341793673 -0.4199525237556989 0.20048840720996888 -0.059091081517089875 0.020485286920014084 0.26703133687318964 0.4175509998845889 0.14791561657629843 -0.15296086558096023 -0.3482634510780163 -0.34270430454950895 -0.1424241269803692 0.09783438239834372 
0.1543513159694756 -0.24119017356057734 -0.33538316183988176 -0.13646844355281054 0.016016747870297172 0.2368596829308269 0.04124575350255023 -0.15187349989475774 0.09756842381686873 -0.21141700596359633 0.12030380431591162 0.27350791078637304 0.09033419522161887 
0.0721481377573587 -0.1746352796940321 0.2905352824513921 0.4775595157699861 0.19642524087769672 0.11215591533190387 -0.29009900808644457 -0.11146587416711365 -0.12402789564201351 -0.2019736484555474 -0.0421480617265798 0.08680549156830916 -0.3034360692375467 
-0.2265046384197826 -0.3465500994628648 -0.1976342532314685 0.026000386095792256 -0.03764593075940704 0.46408053508080377 0.4385379261461664 -0.0160282845927128 0.4269545720315068 -0.25377149837062196 0.03201957049211512 -0.036281581073411104 0.38182293723377136 
0.2756002442025406 -0.25642734080851226 -0.04718413502980773 -0.3165793731691894 0.0503545200996052 0.23314407222250366 -0.41143209157346844 -0.2949709231876191 0.4421927924335417 0.43091496980467964 0.04414516700093952 0.11502983524297758 -0.17525037434065038 
0.364186126594347 0.13397502510514817 0.1315979570122793 -0.39465865189327753 0.28257772606549614 0.22163340331627054 0.14612960908658698 0.19117339316516355 -0.2747603077043689 0.17338609312915276 -0.32382968414405283 0.16384950243763383 -0.4016843024681379 
0.2199094203844119 -0.0065480557126206 -0.23570393176472765 0.18184347915951038 -0.14566525508456968 0.30789847484691557 -0.2554085661653634 0.352997359109032 0.3796239721320879 -0.15464308479211664 0.29038131690884816 0.2737380677670811 -0.05893064702469227 
-0.11366898875160339 -0.17406318686517172 0.3982574800171384 -0.2442241374678191 0.38875207290795855 -0.09368554363470423 0.34768056041856404 0.2518249490249573 -0.29049419091203704 0.09601307484482782 0.1369636781675426 -0.07376975453952021 -0.39987515791709577 
-0.18447482940535073 0.27612328493176214 -0.35186214562748724 -0.34382613824360064 0.17363736648432015 0.01558124690368426 0.01011470409717004 -0.09673312000174715 0.10184047881106811 0.31927926874774504 -0.17685909757925575 0.27585255735088227 -0.07644422818123499 
0.24076502619078563 
-0.01949088966796765 
0.4493971256426827 
0.6747669991806503 
-0.01906450484526376 
0.3806418847010314 
0.0759759240715659 
0.29710895901607143 
-0.35322035792944945 
-0.5435676285786508 
0.5816008736636563 
0.37794906826559055 
-0.2795515817976009 
