98 24 18 13 1
-0.030172325429101216 0.0653755051214751 -0.22791742646634378 -0.10026233005076249 -0.18166591842229768 -0.17966065421194397 -0.10785795031645674 -0.015709378587643437 -0.06406870885401644 0.016930183970458246 -0.03513201298196715 0.09922882483774546 -0.17871056780009073 0.17397654222122322 -0.23338888292425708 0.09813573513835451 -0.05904679384670496 0.06222743591742801 -0.14209536773411485 -0.18427211600663004 0.15977795594425737 0.2514182754478142 -0.0593408510783103 0.1830926889663782 
0.19731789426862617 0.11750143511657812 -0.18860530632846845 -0.2393813318760998 -0.1306366475977053 0.23572780793827341 -0.26194980990821287 -0.10369251619072056 0.12990513045055166 0.04480850815856297 0.08631311672902703 -0.016125987827491178 0.05871703204384538 0.22420773212210324 -0.25048337088283357 0.15419195892927465 0.25383291743080555 0.1358879487907394 -0.0960427478764829 0.127941934582652 -0.1150028854534129 0.00962267848972776 0.1442768207781228 -0.010455265987359321 
-0.10460503506352409 -0.2118875750541564 -0.22233369727324723 0.05229961357237035 -0.12733492006851516 -0.09614083012484434 -0.08801509014138237 -0.2788837289853082 0.061920456731361255 -0.14511937836281444 0.08481339508661458 0.08505885229930384 -0.2069589499552182 -0.05713964699816313 0.04133626950388915 -0.03702166113062776 -0.23471972232538918 0.04119559386080328 0.055695863028705675 0.009132524525766548 0.21391384255267237 -0.006143883889249093 0.20329325947172766 -0.10998188228337621 
-0.06496460545416193 0.03395432441813194 -0.046329008499317884 -0.24977937499184755 0.13468942937964593 0.039312917384052945 0.05465768249743627 0.06269143889679189 0.0806193290848236 0.1302511447301485 0.060855744856967334 0.03701170937131792 -0.19769436200094476 0.274030046109778 -0.07772485460601103 0.30337393981026217 0.0933177222440379 0.13682803117513923 -0.164245292134536 0.16073569474198451 0.09142895431401424 0.10240188514457649 -0.08239030706545131 -0.02248974356189262 
0.17845335563884865 0.0413522409836241 -0.23499558173225593 0.06684961402550653 -0.11349462833193222 0.03737217181084823 0.17596064861937957 -0.051727833104732446 0.186350809177469 0.06415372865615576 -0.21659469492757344 0.1818262128135577 0.11573852503045717 0.20759689741189272 -0.10733581152713312 -0.15012660305361883 0.21043680517178723 0.06505831587256594 -0.18358747464657482 0.14954097419765466 0.12414138823214307 0.252461443310214 0.08726854872009004 -0.09540244157805136 
-0.08927537106838161 -0.32646276723137313 -0.20899763746737388 -0.20785105176067903 0.11680024434970737 0.1347413933198272 -0.04814163135912517 0.09761592452351223 -0.2868049076898663 -0.005464517872400482 -0.05771506957726972 0.33272646041175047 -0.09072342685297148 -0.09125937708492037 0.0912711316070939 -0.0004926286004489222 0.17836721737494518 0.05479482736817749 0.13530995832835727 0.10921543743985289 0.1505325370193792 -0.06014521895618853 -0.2500406456762832 -0.09441833015419834 
-0.17593359190340455 -0.22197604758777864 -0.12665994393143096 0.0467396667758504 0.009384526409018126 -0.12387256335177806 -0.23823418567625546 0.24361329541761328 -0.011245882543730202 -0.19465321595278023 -0.18501177895629692 0.15661824234043667 -0.1450121514823837 0.08726765623662487 0.2048608760490261 0.20224650226014196 -0.13657362577667898 0.03893952498143826 0.046803653445946315 0.13962294070400869 -0.08539383203291269 -0.13949522266327816 -0.2616002514156364 0.041460742220214626 
0.10389383996063525 -0.027714030861993377 -0.07151596609395193 0.190421482154214 0.019983126421265412 -0.025711445261007 -0.036851409553391126 0.07398642090974047 -0.030038081887806718 -0.10211465676348132 -0.1719376988056215 -0.00701321593420395 -0.021025211503413264 -0.12948087329114522 0.09934519172530261 -0.15013148411849 -0.09328167639544688 0.12472682173301115 -0.12082429640889482 0.0382200584092971 0.10522041521587641 0.28492466980190784 -0.13645378175008713 -0.1448035457242607 
0.12231781119401755 0.06377577961105327 0.2097877108822115 0.1554294674097939 -0.19314507809754872 -0.05651934853933163 -0.002131208649218207 0.15487404470184418 0.1801380157180952 0.022019866039127207 0.1294191870608154 0.10927489030227171 -0.05896996976013233 0.02911885546984684 0.04066155779141206 0.07073740208820602 0.19668090901819163 0.20001581372093424 -0.04098081935410778 0.19300364347889037 -0.1346728475638089 -0.16874061333046306 -0.14935431939544389 0.020942475439830188 
-0.1900742914813109 0.1777213674353897 0.129053378799368 -0.19271217116397943 -0.1277262530150356 -0.06570547438501606 -0.1458701397493351 0.1219947250711821 -0.06070361235130277 0.1745416578184167 0.031927158643260005 0.1498242547856632 0.13611999965072255 0.16052435153851635 -0.015577400486099865 0.01800232050094496 0.11763972849274947 -0.08405180166856255 -0.00377686642449781 0.03862243474681584 -0.19250360056758145 0.03641655903813262 -0.02579410442389943 0.12114231149663962 
-0.10467788887129169 0.14872079109614553 0.030301193857955412 -0.138610584341691 0.06432637184575049 -0.01910835450184818 -0.23728845966540232 0.016430954068538166 0.12065741269342838 0.17741598131165096 -0.16728018594803734 0.16896619655839118 -0.11094092144224682 0.1533476289699888 0.028981143492895968 0.1006996907592888 0.019404803045731337 0.11749772757852316 -0.09192980127946267 0.04066075461762904 0.08067957102851452 0.1786851055542416 0.16568399281093885 0.17098517959521511 
0.1126465200099729 -0.06316808933859702 0.04870298257024021 -0.006316528293413663 -0.07125126171432697 -0.07775445183064954 -0.00530016792082947 -0.02611886128837916 0.087534673928872 -0.10677918069957669 0.2558199636635091 0.045700736871199105 -0.14789038621485445 -0.06401148789112299 -0.08272737412032342 0.10670187695849433 0.0596407907770577 0.16201291701171358 0.06364576298050202 -0.051099807303864354 -0.1322210628088301 0.13899329049102985 0.0712349166684309 0.1805697035037002 
0.1357288343519733 0.0806174231914161 -0.03376988757100893 0.17330796497697254 0.048388892331358284 -0.07803450267802216 -0.10073543515038003 -0.24659588853882855 -0.1253187971900345 -0.1550569869416771 0.21062937898369238 -0.09927626390564499 0.1371091379316496 0.21958994174832797 0.07380110761176499 0.06962481553884214 -0.13917717712791777 0.03930472007254517 -0.06053188491305992 -0.17666525714125295 0.12738934982368555 0.012647399608841356 0.17843767427325669 0.2685524649352963 
-0.08360319733869226 -0.24363200904910332 -0.12101296774340722 -0.004116174440099963 0.07537073092709007 -0.1724410709360579 -0.13754573087947874 0.19979944343637038 -0.08749084878234649 0.0022069771343617307 -0.10475550615066384 -0.1810707104647755 0.0557762582947871 -0.01848423047451719 -0.1489553717498596 0.0771351951693259 0.022375255868863693 0.09680881936063493 -0.14042452550994303 0.06641229249985499 -0.01551135271512246 0.09473137150462325 0.07601759705909023 -0.1463886780180802 
-0.0805889210990696 0.09255279989004218 0.1915492482437968 -0.025645486107972185 0.13040017435472917 0.1769517988209545 0.046141909480566415 0.1751367935029746 -0.16312860024248393 0.1646478961830816 0.03262070909706674 0.03752123566863791 0.12382495544878858 -0.21576777288248272 0.10631264023195595 0.11134800237748126 -0.03295842442657632 -0.09027803371444566 0.05165865472457048 -0.09110878823616325 0.09226517921996466 -0.08178489306767399 0.10408568865666741 0.23017741544918366 
-0.14276924273697578 -0.12104897853628874 0.15409585943677273 -0.04090223956827147 0.19255690597756195 -0.012813336333656564 0.2972806816677889 -0.042117583427691 0.00629521335464597 -0.1293662995786701 0.005779534129560733 -0.25612706178766637 -0.25226979947719436 0.08490799098555929 -0.1864777317245868 -0.06551932037121541 0.09971494354651454 0.07608334057978482 0.07480207942569299 -0.15704015815618855 0.004160482855846906 0.0988317945548202 0.2710027223188551 -0.06931816836613826 
-0.13710551759598993 -0.10069514576351543 0.09831668844310577 -0.016708394482538854 -0.17573972632452953 -0.047892524435775116 -0.12295779272734486 0.17463986955431363 -0.0920987853765834 -0.18760963745646694 0.036397379132276655 0.1127527649355638 -0.007213701740904191 0.07158690151636823 0.004317839804730785 -0.02230215152527515 0.24397595102155142 0.08780943491345454 -0.1856985699391787 0.0698810497687849 -0.0006338147978475301 0.19247401182973325 -0.10963559209492636 -0.09145692737548662 
-0.19760890288081426 -0.09016572269555016 -0.17083351947150083 0.004785623901221895 0.07991724927066157 0.13996563805036943 0.12740257446728637 -0.07763135987501808 0.13296877070519308 -0.0397934570949186 0.1487949893339538 0.09346949239595018 -0.16983512882457352 -0.14245590157447086 -0.23831671085931436 -0.14716039069373923 -0.06431976358422231 -0.15574566777402352 -0.1966586332376052 0.05864636640348615 0.008813144569316107 0.1274555549911895 -0.023837628789340193 0.05107356579959261 
0.0165823585755439 -0.06468842151548505 0.11223633590664502 -0.04827537173378843 0.14700540806853685 -0.10437941358955596 0.07732015171854008 -0.16424943392280297 -0.010454104495357755 -0.1804595461060674 -0.056349245943871806 -0.14872010323970072 0.17945193764942732 0.2334365849253965 0.09870774918997381 0.253521253926264 -0.1555787419439789 -0.10118739800602368 -0.12314649359205831 -0.021274481518904435 0.253771658267786 0.2984829706387194 0.009080619192984252 0.1391619658007627 
0.1448981886443668 -0.04243455419616252 -0.09830749462305834 -0.1243835040057153 -0.2114134700350449 0.14868585606715787 -0.18441352866027924 -0.1714887554605905 0.09544917470644183 -0.09338366565666104 0.22525008491474438 -0.07279706639636485 0.03323293840886332 -0.04889916857913892 0.14550959334116664 0.008225659261907187 -0.03162719131654283 0.014748188017836391 0.16790206598319266 -0.20725896723518905 0.13993216651637935 0.198036809354437 -0.17098596607440725 0.04670178457143306 
-0.06648472235730528 0.12889613630512697 0.022746766156137823 0.06298003560977493 -0.08750440272629524 0.05946809785818743 -0.08323080732794266 -0.30011438413456976 -0.023056781607780085 -0.01317938471477682 -0.002048926019973945 0.21853138200192804 -0.07411740441705107 -0.07036140368420273 -0.06985592949103486 0.23115690894802743 0.21265939362634725 0.19001080254523917 0.16191800248851868 -0.13468769647304699 -0.1537428004598814 -0.10433885846228134 -0.06382128132938007 -0.15081237090941801 
0.13612811959498686 -0.08111569474605404 0.10748104258180881 -0.1514654117903486 0.07360651305899239 -0.17148264905360583 0.00831375292116644 0.026052618724523732 -0.11366611159875167 -0.18885473747915177 -0.018026399165431747 -0.07207203661132121 -0.016377552088486205 -0.21808727774825226 0.03364018042756805 0.14897742251375876 0.10771743464031173 0.0228758402062776 0.18906656459147536 0.23051766216590464 0.008267594755039909 -0.19943155750914424 -0.28344703198321003 -0.16138552023559263 
-0.020826131765822434 -0.05055983120635304 0.16275218237648156 -0.15572377771754028 0.23600141631269203 0.08806955404030545 0.10061431396311378 0.03363582777177006 0.062436397960924116 -0.015056841769670457 -0.19980446140873845 -0.052698666393930886 -0.02098730207105768 0.10276852790337195 -0.012173947544175051 -0.006536536030120447 -0.16083553795277755 -0.21326127407893788 0.10154492654507737 -0.08727686229060425 0.26425933123560286 -0.10322407285139262 -0.06536988938041433 0.025501866583783925 
0.13708556360671875 0.04129447769831947 -0.14835369394439676 -0.06965470641936924 0.0017506248814953612 0.07144597894855499 0.059502980333667695 -0.1461324083131622 -0.2055832855894268 -0.030536885151720507 0.073165459027867 -0.2355342021160533 0.1187494918503476 0.08255139832722994 -0.019719378504966995 0.16246631887915022 -0.029097652206894385 -0.2669224522648183 -0.006036449424811162 0.10570946716133121 0.13206602307429904 0.034614169131444925 0.10044488178087507 0.011454893356561536 
-0.09611956762485939 0.04930885383284927 0.11930935075615032 -0.0630068697517055 0.13879717346844442 -0.12047847745869067 0.04850162946756165 -0.14233715247180373 0.04523290521307152 -0.028114186025476686 0.11351961561812093 -0.0027199978917848773 -0.1194199771457152 0.19180790332544628 -0.07496672703332026 0.1551895042550051 0.12566388591880281 -0.10964997418310819 -0.11255841289885529 -0.11088790888054212 -0.14123894554986846 -0.019510333800590952 -0.16555675042663515 -0.13212790458242155 
0.11192389979869799 0.13356725268943961 -0.16620454156845973 -0.1055385478714738 -0.15983450043051517 0.16727923609674303 0.04075186364004799 0.03892998635322211 -0.07138919082621516 0.07974014702055987 -0.025157784474823083 0.16400511824505395 0.1304802040595097 -0.0672131840371472 -0.14779545675529848 0.18558922628177518 -0.1729867643869768 -0.19177863736620826 -0.026768419000898238 -0.11559637754841688 -0.07630198331081689 0.08737435440731109 -0.14013467874651167 0.11902266409268487 
0.09887242198364124 -0.23913235736105415 0.03934535371021097 0.18566112346031083 0.045654283484706376 0.10807960519714814 -0.19590278537759379 0.0978557103239162 0.16689033342536716 0.03139385593283676 0.07662458048157626 -0.1362645941581996 0.10172214288009555 -0.14107078378473986 -0.04089402671496654 0.03123909221430856 -0.19024516588788187 0.18302839041321764 -0.050691860551358214 0.04317340769245134 -0.021803323662852182 -0.07047426529650196 -0.23415208846928925 -0.16795710420878718 
0.06217288657453059 -0.15306234948291614 -0.05584551998437417 -0.20473837322788782 0.07803709420115842 -0.13947180493913783 0.15576219708440162 -0.1517319269534052 0.0028909451904196135 -0.1806283302312272 0.11471944084628408 -0.12244923563539074 -0.06409324747814713 0.08967071193657285 -0.13826138472784866 0.029525568567203897 -0.08431527300764553 0.07330245465130707 0.08747896386427778 -0.15948559281280644 0.22111430182700356 -0.2120421283720842 0.1268245460280765 -0.006222700011551096 
-0.032369875177476616 0.06170098664742886 0.09825233715590961 0.18120830841586616 -0.08708178685003501 -0.13524062625758734 0.1415621920907101 0.19945173838459837 0.07787217968276545 0.08760440240076287 0.15411654300789415 0.15515096611361795 -0.11095837159053701 0.08846484964859758 0.06674764949140163 0.08407765343690599 0.047626216148422655 0.07732290235803566 -0.1975426814773016 0.08783003874340874 0.17017689590085402 -0.11942303417022118 -0.25936913011220264 -0.18489860207653588 
-0.07587775788312696 0.11407623329791283 0.016763596141396456 -0.13032724477774366 -0.14291208484450185 -0.10937028012676801 -0.02252396663891774 -0.06883668963102407 -0.06392300285535757 0.021419046915560305 0.12946215782671502 0.01131430970472202 -0.07925090882471204 0.07334754863168588 -0.10961590641730697 0.0020470238530103397 -0.01056270497386336 0.12376373406203127 0.14923207766610677 0.0015741749447834375 0.15795478926816184 0.040741179736935536 0.018788337112992055 -0.14553068946280445 
-0.026065459989141483 0.17354634289907522 0.04111992919072192 0.17873238910148956 -0.01581025305266704 0.05683047273460198 0.1005449739306593 -0.1803173466486868 0.008005902856364197 0.17561518578954627 -0.0019406694416069287 -0.09892265635709778 0.20530699016389056 -0.0626158462567516 0.07867705748569662 0.0892197641214857 0.10870723148047082 0.11528464489583574 0.13340890609452127 -0.19558665523041538 0.24126940930461185 -0.11195306181242975 -0.01414113275729242 0.20394407104711548 
-0.1951783952269447 0.10896787813132347 0.13237538488121398 -0.023391598374162836 -0.09596145368921653 0.1849224524206356 -0.035102633039027796 -0.1146369898631365 0.21069351046226753 0.18216098654034282 -0.0032760686002792075 0.14083566021817162 -0.07673886241532905 0.030065303275741192 -0.04247108753411545 -0.0445780396677633 -0.10279424898485208 0.21411365084012518 -0.08068188669503507 -0.18201797924662144 -0.16186754852776283 -0.19179226335179134 0.026024963600426335 0.0496674841667751 
0.16000583167916424 -0.014726657002261901 0.11492866508167496 0.034548428013887356 0.09673406434129976 -0.05940513327745531 0.064202176601678 -0.12628480433967745 -0.06696729734936636 -0.1529541275651775 -0.0355866692779604 -0.0953404649818693 -0.027185714650241288 0.2272018407009166 -0.070346575849859 0.22159851395774402 0.04638182719926554 -0.004449165556254629 0.13629592519599973 0.09264841300881681 -0.11037679761004908 0.15254332536205886 -0.012375065759972083 -0.055668438952306436 
-0.066411159749592 0.13176650549012334 -0.09082971519037787 0.17406149165925372 -0.08025648199275962 0.04516810919366279 -0.017174310562523998 0.15363369974375596 0.19934099740666306 -0.12444652777619615 0.0019448947054888583 0.15479968475676303 0.017721229734612876 0.15301436273813257 -0.08672212709633037 0.021829470766697494 -0.004919108050763667 -0.10693308613745826 -0.1932197303579094 -0.03242088111142465 0.16875502286928254 -0.10616714985078428 0.1477501677625069 -0.22080650781477604 
-0.06180177484421972 -0.233575139507137 0.09818263355810221 0.027357292893164086 0.07383437793834201 0.009532681872737498 -0.013831356862582082 -0.11216949548913843 -0.12651736237478733 -0.04999649993313708 -0.05653638238134405 -0.07726821552639072 -0.028539953668945413 0.17892232661111285 0.005211887231598108 0.18664324178322855 -0.07067759190218768 -0.1384560095146555 0.005494578404100782 0.13908580454653285 -0.04129775042387366 0.01592671477665124 -0.07115890560821925 -0.0010499830131785685 
-0.13361400424006367 -0.058336532326940235 -0.09352097259478369 0.1864575714513712 0.11069600096590645 -0.07631176334696226 -0.005011800559378268 -0.1400549345750922 -0.025482704245249062 -0.07959918375526268 0.1292353340066269 0.10055301377677742 0.03156271370433576 -0.1483823577514817 -0.011412100275434007 0.22919858985949412 0.10465590932605036 0.04994456766221326 -0.1375413196027955 0.05434442376117096 0.04093997757931826 -0.012159368144445945 -0.09763349055943339 0.03868494053111572 
0.17406127438627647 0.11770960656368673 0.03088911639524281 0.2189932033395958 -0.17258221898669263 0.21465772724039558 -0.25022534303430605 -0.1183998090724454 -0.0575128105964519 -0.14915384960498113 0.001063550672711729 -0.18419748785516007 -0.08132587617756296 -0.19314594067479235 0.07978404699798479 0.07238189699947682 -0.03891317586557812 -0.12292129703191089 0.09705581569981993 -0.12468433619019874 0.14417510807287243 -0.01199961599934702 0.0018512639495366651 -0.1872511070562308 
0.0392125413815008 -0.01656259143055347 -0.10653449377662459 -0.05327936289049134 -0.04585164847205309 -0.07587311372660434 0.2641070295103944 -0.016868151299121226 0.17841480886912842 0.004006730465179274 0.19209665292434586 -0.11711200577507726 -0.08880243072371644 0.11006150574709322 -0.1811589723080491 0.1408925099702266 0.0007591724933804554 -0.048250338808681126 0.19679801334731145 -0.1792714495141102 -0.02247237153197662 -0.1861952082067155 0.08270978104114417 -0.12601474970282306 
0.09531860002867831 0.19227687685573028 0.1294225083324593 -0.018710214392052706 0.07314800590106847 0.20295112662318493 -0.03585420250002668 -0.020372292180884096 -0.19114014494862996 -0.052678133385815985 -0.14135830911107292 0.1455547278481047 -0.034594529019436084 0.0066437265632847044 0.13394735272606068 0.05181217007137448 -0.06276830977887453 -0.09073358175851208 -0.1696439989412619 -0.03186835080934689 -0.1490373700604144 -0.07111959047589114 -0.014197587931854163 0.23653602906367766 
-0.15456933331792874 0.05457916931433148 -2.619020060286128e-05 0.10904929165875168 -0.14080156458601173 -0.14236340697563785 -0.04533919087823845 0.1791122257278887 -0.0898964816646131 0.10323284074367235 -0.08223533000168091 -0.17197542912818023 -0.19202414469388457 -0.10008340730903771 -0.04639612852635804 0.02354836314490228 -0.21174552233523689 -0.1822289950573876 -0.1920807968240462 -0.15279183063457769 0.045857017475935895 -0.037929760185606225 -0.10785587538214371 0.022510909842717548 
0.2446813539061741 0.05877874484210611 0.07824007730787069 0.15358456813784047 -0.18269950731667028 -0.24368827506032598 -0.02015924517855824 -0.01913689145917865 0.15342932232863343 -0.039723097880800765 -0.007660594507025061 0.23101406245400186 -0.09323554538953274 0.1510891711391144 -0.09682236556706103 -0.046784609553201545 0.0009923655467322188 0.018414218389726535 -0.11015611336124366 0.12373341784764963 -0.07396993599836553 -0.10612253443937303 0.11921271612992085 -0.0746561552861618 
-0.08760548667758748 0.10919383659305515 0.010009007248088645 -0.1777418006973974 0.14793064507536532 0.13563267487221659 0.21513591777556298 -0.027683077848300833 0.08444490810174379 -0.06280250082815733 0.014234879050859196 0.1345081130968181 -0.01393362344352148 0.00811117789332914 -0.06811394693614926 0.03699888922684982 -0.15406837580087132 0.13525281679406193 0.09892795725109965 0.06154604604843846 -0.11255807185214482 -0.14763653901942797 -0.1309553796429864 -0.06974974955723671 
-0.18375874984703205 0.12503465778147255 0.06665883016778049 -0.034108484107634625 0.10533569486243151 -0.048622130547409645 -0.18264638109092798 -0.14434372029142456 -0.07493854421845297 -0.04875224201721093 -0.1776068268361247 -0.010190004832871668 0.059225930520269275 -0.018416653795349187 -0.02630991580052384 0.09815766941826641 0.03267636737998904 -0.19255622191094549 0.14750511023038285 0.06365359277991042 0.09170616869390322 0.1475629282354752 -0.21997192464035348 -0.10419508312073711 
-0.17314665736943405 -0.07090171542806113 0.13343755581045277 -0.1657627437359859 -0.010431045848254637 -0.18153188945204182 0.08107126314473628 0.1071087140923352 -0.22632457434454425 0.019518292237393327 -0.10246562111668774 0.23936639301620663 0.15899795566219246 0.07383234159008467 0.21032970735782877 -0.04522315590799201 0.16859564486743572 -0.012065271334759362 -0.10389898894610469 0.2352334136953374 0.10265406150862873 -0.17251286670491117 0.12891958936201897 0.08470788013066091 
0.06513800552289797 0.053423272348115315 -0.09687915977657177 0.03916292082356785 0.12404758905757039 -0.2112625685028191 -0.14606565498803356 0.1284196939668667 0.06531784927529159 0.016622786832898372 -0.0989285744462872 -0.06098357304034312 0.14176163748275128 -0.058661871200316566 -0.17270739654188053 0.2124249731176613 -0.10961646001923717 0.15766334202367555 0.15100704758406325 0.03732188585903781 0.06396827197568757 0.023110184929578174 0.04011785750159475 0.19095482138401562 
-0.05743445338942426 0.21454004262724322 0.026327852909238357 -0.15226568186434672 -0.10741360418741443 0.03454336351058651 -0.10820936465605066 -0.14570171847488442 -0.09555625690867249 0.10958258421788224 0.07586372236329515 0.1618037896049192 -0.06764871972219143 0.024249207755447665 0.030247314375556514 0.0443370889945063 -0.1941906703405037 0.08324977171734478 0.16960013462552212 0.035660281377701004 -0.10878801592618184 0.07152507757527186 -0.20547805943201441 -0.06720950342622577 
0.2553081829948215 -0.03646561748549345 0.1403184036039604 0.040803383178382654 0.12723520754850529 0.22365764885760478 -0.08037570015868947 -0.14910522243669924 0.03644731310653058 -0.023190143047224738 -0.147584013279137 0.10709490941320926 -0.18418166380325002 -0.09141374268961186 0.11024103732016455 -0.130648423424821 -0.05205935831339108 -0.1901346294368302 0.1977853409400215 0.03193333879212777 -0.15344503349596122 0.252052541667567 -0.07097696239925566 -0.017597571171135046 
0.06710017129392425 -0.15368312077261875 -0.076294594297795 -0.053403918134383666 -0.10045889888101846 0.04320365764661571 0.13181135528013435 -0.16967018014403926 0.2550125819144991 0.0937773941115106 0.17610226280800068 0.06919030379852407 -0.12578968462914283 -0.08622917326548563 -0.02111266504783202 0.023178463687490252 -0.02001208672613575 0.06466712133913555 0.07112351462905579 0.11684235323797303 0.011759732046485893 -0.14520417852629625 0.14832308957111542 0.04532579897618885 
0.18413304056375135 -0.10938523117171105 -0.12753287357658893 -0.04246256632670976 -0.07024957009251205 0.14290667115220262 0.023500143410734333 0.11713013072348448 -0.03709111109099543 -0.15857577445513707 -0.15229307304466896 -0.05101416836010858 -0.12065886387486345 0.14769898154398678 0.038828520882142246 0.08846255794973834 -0.030329208417841886 -0.16311957770876917 -0.10419278189504412 0.006485861477994332 -0.11876134396903291 -0.1884726982406566 0.09656232523574915 0.06899156585227431 
-0.06636580831792337 0.1535484955995628 -0.027838634279823915 0.15094519881210178 0.05568640727206601 0.019255445326828022 -0.11790718960169198 -0.008847723034277298 0.18200192105474838 -0.0764111519343759 0.16922145321039136 0.1761933405073793 -0.06658195803939788 0.055030052379330764 0.1580362326026859 -0.21919014013450366 0.20079115747310686 -0.12186263887456576 0.13814108263607303 0.033875220242179274 -0.08441001007325535 -0.13768155984457925 0.0640738812577949 0.15063157927386972 
0.13232223668688256 0.08108888932889749 0.17550601619040793 0.03502286039552265 -0.11906478381949083 0.018636566296795946 -0.07342084302884708 0.22190343165066553 -0.05106072708097077 0.22389009639340438 0.007291168465665274 -0.1489940610543878 -0.16860919565455473 -0.05900759468275921 -0.1489184787536197 0.054872968970765386 -0.04833992772911327 0.20018059727440507 0.17043886474534475 -0.1385406448376671 -0.05094433113886715 -0.05650114104787919 0.03155073807858898 0.11495748671865637 
-0.048771918420455695 -0.05370654321371506 -0.09347353066493869 0.171805510331515 -0.18977160345877767 0.14023741228842324 -0.12281156625308678 0.004977331048581582 -0.061725407894161095 0.22403187526273222 -0.1491787173222138 -0.12522290955004153 0.16888199602849294 0.059716372678621434 -0.0747274490562601 -0.19849595026849903 -0.13643435530044667 -0.1400798294370296 -0.1168251835881191 0.18315674528594567 0.16852236767190065 0.0896701402111533 -0.012212603806424784 0.1191344691918291 
-0.031183822155482165 -0.04471141089465645 -0.08806738957043986 0.1629720243894482 -0.04407583987078973 -0.024144959020078315 -0.0912010906293186 0.18813455133783946 -0.03350754449619206 -0.07935043759202266 0.07909583266908361 -0.15355951623773084 -0.15102184006214214 0.12428945785800456 0.09591415015580255 0.01058763084176375 -0.13303628631723627 0.00544291477158883 0.05404064824752788 -0.06748081054997639 -0.17147117850233518 0.14592087734169412 -0.0011356939219218424 0.10377436419855163 
-0.09670023993428209 0.0355962287009642 -0.027700823649220184 -0.045995744383151876 -0.14759299424772723 -0.10053112724961091 -0.16668411802300173 -0.07725701951965493 0.09494693634915866 0.044863124510525106 0.06747312262008087 -0.19540398909807805 0.06983110381934109 0.0012320191386522102 -0.10585512448133774 -0.12824706390985158 -0.12420688132317566 0.13592957816020046 0.1917424772557536 0.16389157045305658 -0.05966533060997301 0.11029712639744611 0.018044306053176182 0.12477761121298038 
-0.006308678644852279 -0.06685127939178587 0.11310783778356319 -0.1582556756371166 0.014366004081323732 -0.004520789116673246 0.017246481318310143 0.09928773505660209 -0.14967479993514626 -0.04172725236108411 0.035443770863298314 0.16820677103458853 -0.04136982540884671 0.1865300357006041 -0.03740274876495362 -0.14381306196395596 0.05838040481241589 -0.06477517287298741 -0.11101831592398813 0.2587052864971131 0.18886151446155025 0.038508982247427714 0.00333506447272503 0.01629813979671871 
0.07860059664032269 0.17068296152918014 0.14330250968226393 -0.13123523826391711 -0.09302048751126905 -0.1698062850776025 0.1901543982670091 -0.10367199594945826 0.06280845202359815 -0.16253176448782325 -0.11389304051794685 0.0010939802245241166 -0.15635380159337178 -0.04333614647690433 0.014747593264438244 -0.06288637877399378 0.021726175392212912 0.014273087203112345 -0.0426543294016443 0.07691178163315938 0.06987280782137363 0.07336179236647918 0.023907543253221576 -0.05544442187211463 
0.044115718847684365 0.18484204455854564 0.028135211544942373 0.2151577578576278 -0.02293280399426389 0.09080330362198602 -0.18355984119795987 0.10850777069947748 0.02264310241417764 -0.19664832313780758 -0.10160271410010113 0.02497279393096959 0.10540503811753923 -0.2059910954291155 0.019056904575720374 0.14312224607270163 0.06321827674912382 0.18290395378520202 -0.16854563887215976 -0.08068046597836616 0.19584489272760802 0.09609875386773947 0.047944903025364506 0.10818050430714593 
0.20267475537100477 0.18268696638978485 0.19820566510678803 -0.1423917801030947 -0.17023781328595222 -0.169056456335086 -0.19282377649645546 0.18198780381160345 -0.2060981006882951 0.17727680082654942 0.05750023310641341 0.0204699311200756 -0.059931320454725184 -0.046976144506573864 -0.09672003416091292 0.2083725663200788 0.10147472926676614 -0.1882905113067976 -0.014938687547327911 -0.08580494298913968 -0.18705851274174354 0.19572429598241242 0.09463573117736318 -0.06662520788977301 
0.14252705732708074 -0.12412691658031677 -0.0752674115866796 0.15631937606164267 0.27158786715549377 0.02783959399649903 0.18804860911086205 0.1576946486025775 -0.0022347954289822073 -0.05296029321742482 0.09172017633526082 -0.004872791769676947 -0.004473283040325858 0.2184133670461784 0.10777960768037982 -0.07392330253043608 -0.24902991493061016 -0.12423786141581153 0.010416989138111265 -0.03227279647569981 0.14477852893605372 0.1920403936994417 -0.1638838330970143 0.17369841255818683 
0.15442281000692282 0.25165139828092586 -0.18345508418175943 -0.17547524406767023 -0.19645318433379846 -0.09346994239571467 -0.17623754417036785 -0.08082191438903946 -0.013237635982679975 0.15167556563928447 -0.008939522882165759 -0.14719315483158785 0.050151959983627134 0.04447088563374688 -0.15381903904467548 0.06477722364932555 0.10881668695778013 0.1315513460041619 0.15452492175262172 -0.04609719464936488 -0.02706174419117071 -0.15771280243025565 -0.07106571339603994 0.1598475134855706 
-0.05247124858035142 0.12255694220303891 0.15454323118264415 0.153426325465779 -0.13576519910647572 0.23077701482982726 0.03241732781027675 -0.1139500755802653 -0.08195297550755058 -0.13425269244172644 -0.02667767270443858 -0.12613038570375562 -0.13208671901297087 -0.11931933441827616 0.07483580703739304 0.09167633088665053 0.22458376349971787 -0.0807665590392582 0.05059829636941063 -0.18484465560223445 0.006279732175409336 0.19411077757983103 0.15606026357335756 -0.19479951605147236 
-0.09711698385098128 -0.1180872411859328 -0.17953881978353553 -0.19467801947308488 -0.0037994381056737692 -0.1803706052889402 -0.08698526927116028 0.05467822770383758 -0.1122251089520562 -0.09043049788664928 0.035266988964534784 -0.03250160048438657 0.06838970272679183 0.002451259198891678 0.05201512563531958 -0.057290371126513265 -0.08352607580569396 -0.16083823870570715 0.17331796688302584 0.10392154622112332 0.21452734096273007 -0.12404770680343091 0.17102602350873025 0.21428490184644783 
-0.08491460703661705 -0.08845219338090257 0.019983785481673552 -0.12408425508905709 -0.022505797417567662 -0.12407288179694273 0.17748097147614436 -0.0023924504419399898 0.1841760274455269 0.05663471560153048 -0.006080172620031143 0.1857059878971114 -0.1409691812134767 0.05166910391936268 0.06331758076517711 -0.02573026483132917 -0.17475807500298945 -0.0028196136777736756 -0.013533000826271645 0.12089675249568915 -0.09559707752353316 -0.04233257556341458 -0.1021623150666046 0.07302159232726047 
0.19470070128433614 -0.12723212687578564 0.12678194051194056 -0.10582317756268746 -0.17531661423322606 -0.1427264744640142 0.17253901522987447 0.15373356477704345 -0.0826468192861158 0.17763797908574666 0.13820598054963112 -0.025412032064836953 -0.012399010279912588 0.050694692360590904 -0.13500982759103958 -0.1928082452020673 -0.09207703637892141 -0.19253995472028881 0.06829813026696352 0.019998310626062936 -0.06982117311442498 0.1102882474016755 -0.1399264692839945 -0.10028657824032985 
-0.08143596470213688 -0.13659798810589646 -0.16321439007059516 0.1377292207503597 -0.16311354023843264 0.036449607542612415 -0.1501329998280753 -0.19446441030437095 0.04962535960524497 0.1564548279630592 0.18416006379290678 -0.09570364490447458 -0.1877908412378986 0.10984808377480776 0.12059192983756625 0.1390851715204356 0.027895045286072125 0.10071634812601533 0.15734190866634246 -0.017933459158200115 0.0182747366264001 0.002375314260168411 0.10879705061625983 0.05155945637583774 
0.007877191122304946 0.12959554883058838 0.0022389908735969844 0.12814891625259928 -0.08558908653543829 -0.12680534644237934 0.18658722271438646 0.09504031152637918 -0.09435166961795094 0.03162246199200983 0.18067187355119513 -0.16611396313959087 -0.16499173050201718 0.046481118957087175 -0.10841411823816884 0.10429706643325198 0.026508387135520756 0.06501504336776102 -0.1552013936225839 -0.1646895082079441 0.0488338393029755 -0.0351582036953528 -0.16349123841365126 -0.05033401776581139 
0.06736774854784706 -0.12236368656349034 0.15662893417707746 0.21765035036483404 0.17769426064575533 0.09032609125258495 -0.04471676678886358 0.1275802822905529 -0.07492771961387945 -0.07268106420096263 0.04128366058114586 0.023176152714140755 0.18779970661929135 -0.1276000287265244 0.09623484753561921 0.17570845397419524 -0.24265886783215157 -0.009274289004587422 0.06140456083179602 0.17209615620407578 -0.15262276541614242 0.13942909812673668 -0.05296958230176758 0.15340456556554039 
-0.18756679594473155 -0.17738008247024495 0.19126429473959375 0.042698452450037915 -0.03206545349735981 -0.14715863044816985 0.06379594971323009 -0.18381446823269712 -0.08541447842650847 -0.06909730882508601 0.04189004362835811 0.06957615402378219 0.15110485757838277 0.16911185128683986 0.06275295440293739 0.029141610670261046 -0.043018829812902684 0.1953084489645737 -0.13659619849838756 0.17009491536234214 -0.07402815633894196 0.0160297692279974 0.07858117862441294 -0.10363789481554585 
-0.1311170226789353 -0.0004053502749148505 0.12135689382457576 0.09061365329896431 -0.15070758057816225 0.15132436648930686 -0.007857309595862382 0.20251343091019458 0.029187967438502938 -0.16448015015780895 -0.11721328051837292 0.1527011485093114 0.08353204532837491 0.14937131659641695 -0.06685792276625664 0.010863742727122865 0.063884473285159 0.01930740427363255 -0.10563400378469899 -0.028472159977820224 -0.09899995277032117 0.13806068136781202 0.21757178907238253 -0.17184234409295635 
0.08391169775138624 -0.06647490963600727 0.048957412694177437 -0.0950127931672359 0.059025424856442785 -0.05030127860374293 -0.08044196904824444 0.16309410140859062 0.17550855495759107 0.04428757339769386 -0.11241637515500338 0.17426326634089254 0.0984286127338004 0.09868193021521005 -0.11351337016522037 0.13027235707815663 -0.10219301799535205 0.05139010060041514 0.08264684521913639 0.09521690500073242 -0.04279004438994764 0.10216136032357055 0.15953385688143193 0.03404279228410588 
-0.16221750725368286 -0.1466828800439962 -0.15622934834026603 -0.12911632953229507 -0.14770663645763926 0.10952927449108904 -0.1828279299369707 -0.10160999579549519 0.14991859701799476 0.1880654600545026 0.041097571180739666 0.18916756611077531 -0.1811924548179167 0.1779651165331866 -0.07391614430774839 0.11778736709305875 0.12245033878804994 0.142250293924671 -0.016094953037340758 0.1707171300859188 -0.09510694139628154 0.1722530396868162 0.04647514772452891 0.1929003087874117 
-0.18556862388658443 0.16580547763891265 0.025493652072872332 -0.0029353454331203714 -0.09457981033161518 -0.06777272415517333 -0.09846215337789165 -0.11049972365790624 0.19863778199416288 0.0009276412506156093 -0.165130697798617 0.05642522663794019 0.08390296287845622 0.04660361499370987 0.005967430620833711 -0.038992421270856566 0.15316204360586608 -0.18735168575968436 0.1715735102664168 0.25225079009493395 -0.06116211295780257 -0.11241753721725456 0.12239844039334823 -0.12701466540241493 
0.12775665331240277 -0.10927289768291387 -0.08203380174698165 0.187710721489717 0.1595261685916361 0.037572392307784065 0.14599346219607756 -0.05762998174980487 0.22394040765649156 -0.025788875307469872 -0.0804454844078334 -0.18783839092086851 0.20762247729118147 -0.0195126906612059 0.09211560991229349 0.0763983434546738 0.0874644104017346 -0.1780930830211096 0.16643663825741206 0.18644217134992955 0.039821306510743164 0.19817208270992767 -0.11427384826713816 0.039812907917678844 
-0.04035830061808352 0.10550240251258731 -0.07813885968378588 0.18699152939865857 -0.1705432569203664 -0.18182957123368865 -0.17878672030738701 -0.13805116529737166 -0.004010453076501911 0.15497185674150177 -0.15400037708397427 0.019001436308506307 0.05965148648698186 -0.10742370287416414 -0.11891822643917664 -0.10997033696368931 -0.20270300427727864 0.08360856250691466 0.06014233130029696 -0.02185488354987501 0.05154754740751522 -0.1543304457888813 0.24028656853438068 0.13728099718739015 
0.06219179455619728 -0.04728035087511554 -0.032482406329713005 -0.0069192144749644306 0.1725918189238043 0.143694924527157 -0.008561635920004853 0.021187323049526287 0.14844478606128395 0.17824492490764887 0.054367224693528095 0.09765901867427011 -0.05798770806103169 0.16562239617675348 0.1329171585766374 0.020227155381342087 0.14531684195641412 0.13818242899902103 0.12156279515432307 -0.14599240104791553 0.013975148027798793 0.15866594379081123 0.10654919478199981 -0.030860275892862842 
0.1898331790216831 -0.09794026115822428 -0.06509468235585655 0.18024217556690367 0.12168444291086615 0.15848731786500148 -0.19410313513219607 -0.046913615367413196 -0.10401565883231638 -0.08000031173261905 0.09347162232055783 0.08794345800530322 -0.014830434941852553 -0.052611824192775526 0.03297483463150517 0.013082443988893926 0.019651679965909743 0.04504430554995951 -0.04067773575102446 0.10690285653392358 -0.09776908022481846 0.060899811802691495 0.18275046188442767 -0.19736332538578452 
0.06431862019463155 -0.13598258966077836 0.017005454245182634 0.04953959423254715 -0.10105675072800843 0.1530420870350576 0.07525238752588359 -0.10554158611644168 0.14302445690810972 -0.15613080859936737 0.021462963609901416 -0.1989032382416914 0.06481314869521278 -0.1343687562407432 0.05841801812938374 0.08466517828065379 -0.01849832718842305 0.043258198743307844 0.12351699015687742 0.15589945325210577 0.019173780625298138 -0.027181017049296707 -0.021061230389010137 0.1414690680728689 
0.06402136510010806 -0.1338282978940681 0.025563122925230275 0.20622297752796562 -0.13795682266158665 0.12454559377905482 0.16729139651013172 -0.008158375521502897 -0.18356795071756166 -0.13923681310395872 0.211779774379183 -0.2269770128059163 -0.0497697253539025 0.02147297087635401 -0.11941865156627177 0.18743706203047206 -0.1916638570505978 0.015405918953574873 0.04603972953090044 -0.10582262348489109 -0.03965475795507729 -0.0034841203209444345 0.14445869673845682 0.05243677751080225 
-0.01259325569272865 0.06361287014895367 -0.018109747857707265 0.009973889664868741 0.06200728673501112 -0.12572361853236147 0.12413006542255912 0.045938339042118186 0.21219421897486634 -0.10925624995423958 -0.013092467769058019 0.17544316856003628 0.03953323436319803 0.10075421432265404 -0.03361603013507889 0.08051630593434901 0.17517877793575962 -0.11812368298400816 0.12114420609700681 0.22546523338279142 -0.19289477414154443 -0.11212012565011942 -0.15135020882052388 0.10993390210754753 
-0.16592719304807874 0.21808833949015136 -0.04304622166386375 0.22889344815987325 -0.12276785558104636 -0.004842378705639249 0.14933065372813994 0.037792317213476624 0.03172651178582296 0.004902848381511174 0.02874844076032621 -0.021726162055500584 -0.12077441412374232 -0.18503673643615332 -0.13774083779812532 -0.17753481787600991 0.04623779137425097 0.12186113340472737 -0.05503504997200196 -0.1683116382005042 -0.05066817946206904 0.02617459041152272 -0.033043834137029424 0.12248721293739027 
0.17932107061770647 0.1765069943350193 0.07997436895041425 -0.01152443095472317 0.07153987715524993 -0.19336136422303205 0.23050801653572756 -0.12937690628467977 0.20047510376977098 0.11693155091808566 0.11509730809503053 -0.12106900482682273 -0.11054527528433228 -0.06530718194761138 0.13103521080398708 -0.019277835775183275 0.2447403150081351 -0.05757214480447469 0.04658222495456501 0.17590786789525772 0.04798194888158762 -0.18036410157001148 4.74546716164718e-05 -0.06464410517052362 
-0.011905815938453222 -0.06643386470681836 -0.1493843078607579 0.06584471932612793 0.07101056952624367 0.12159735900778543 -0.14531334240826577 0.15798078217648714 0.16995268547576187 0.039420930377648065 -0.11623025310608041 -0.13089617463789527 -0.009809981932377627 -0.015621498553111153 -0.00875035222786767 -0.012628318660883637 0.11003987965388451 0.13569797337320458 0.12490237483069443 0.2055238148963 0.011551071122657894 0.18056804549417035 0.07016349978178418 0.021524810984952656 
-0.07075055042467035 0.14619792989467065 -0.17774729706970435 -0.14444289927965823 -0.14617363728505534 -0.0005537763366803691 -0.12807231845712605 -0.06211979130014682 -0.13667527044645644 -0.10472830676919084 0.27147138910794 -0.06089615084117103 -0.13780243163493833 -0.05431057374546592 0.26332844271816064 0.09650055161748954 -0.11534921666453304 -0.08478642411878666 0.10292028544525574 -0.1020379494018626 -0.09656344838488691 -0.16476889063781247 0.22708163246889318 -0.020244777365700902 
0.02402268025274466 0.1168814273084977 0.11679427898711936 -0.020397121671093445 -0.12454938774530094 0.10596021057057478 -0.18623536091506993 0.23495516729018426 0.07066180721860996 0.1549310890378512 0.04233092734276652 -0.1464723441834461 -0.05459302557617118 -0.043541302549573585 0.24244678037816875 -0.12440201796540787 -0.030777021543541963 -0.06107776100184278 0.10610788644978361 0.16962106862678916 -0.05691719847895831 -0.11654988804917862 -0.17163276095395086 -0.11873864376870781 
-0.08933937601889348 0.03849644905952405 0.14751128462550667 -0.1469825512586354 0.18185641473178885 0.07172689221195687 0.09505014152723898 0.19186047408571705 -0.03266474111753099 0.012256307817798075 0.07016163415514667 0.0049902820014094 -0.07874109916440772 -0.15618013086525362 -0.08436395588958553 0.10575993250623762 0.05499647263187769 0.11873023245670021 0.006637594755820006 -0.10537995642896275 0.049950899101082316 -0.07680263574283819 -0.18683058640756076 0.15969323019977918 
-0.03099467670955783 -0.036826415253194245 0.10010608943085732 0.20388023501684469 -0.16944062355287462 -0.17035479466738657 -0.06954073439779888 -0.10645951804187202 0.003553535086643088 0.12798905287729914 0.13982920340309604 0.0383438170256981 -0.12020003679401077 -0.16399842965341896 0.09561756841560563 -0.10334118693179979 0.014820577261429192 0.08787484330586705 -0.10691578573122419 -0.12840548107669209 -0.18269668139759893 -0.15791646687197267 0.15773064925107305 -0.15648184339996551 
-0.10875267563739573 -0.18552271650800725 0.06903241551487024 -0.10553821650430498 -0.03364673688378596 -0.14253169791749226 -0.04791463047915907 -0.029403986937042173 -0.010488173441661384 -0.030027852229084363 -0.15723920014789755 0.10724662601433299 -0.14337377524276665 -0.029460709831752353 -0.08951606353335056 -0.07799002990823334 0.06747694492063425 0.006896175292760603 -0.12216371533775221 -0.011977164238942198 -0.06275350831331977 0.08017164974176103 -0.10777503855703317 0.13622182452094653 
0.010175198211166135 -0.06013703774596472 -0.09678095342582162 -0.12373736988941632 -0.010933525886688404 0.2445570779244585 -0.15578083385722702 -0.08494718143991509 0.0706927814869398 0.13582169871495178 -0.08681442979454623 -0.019803997537684696 -0.06441368431876611 0.1012924932607632 0.08605900805650274 0.1411660921234832 0.14237526535834055 -0.04094308853628898 0.16872817708267798 0.11722269870184139 -0.0771572379817891 -0.0691421627142433 0.10662187214248896 -0.14784840828762003 
0.05211411852733792 -0.07556969558345197 0.12908738756225704 -0.05290740664049727 0.09163107086409822 -0.12848312028232342 -0.007194058752940836 0.11246916272823003 -0.06759219033289128 -0.13358862287275358 0.05822700786880273 0.13405916249246608 -0.0862450286105116 0.002186766872886741 0.15385236871933952 0.18772277796852307 0.10436188041289844 0.03540565742241522 0.12515398320244442 0.14984211010848497 -0.19778836388276447 -0.04005824531713888 0.014969427237904632 0.09185249657254652 
-0.16340237623406953 -0.011101118296004893 -0.08647189251331092 -0.02976657078717352 -0.0007829030167091999 0.035743840332219105 0.030328743714131086 0.04111300159095898 0.06875701742221363 -0.02788164815684043 -0.19678637133100946 -0.16617516387769596 -0.0779888844018037 -0.1394474180740376 0.038447435721250735 0.008247303590535514 -0.020389216806021383 -0.07013717813048388 0.05991276014151873 -0.12208510109102459 -0.19641926373608815 0.068584228199902 0.008551410112666047 0.05965619431294241 
-0.09490511148580028 -0.26620224363425543 -0.04756432252151734 0.09926812070663955 -0.15721429226682365 -0.07859085913697496 -0.022047749500321394 0.034093105840861504 0.09805122935732792 -0.1185706646477764 0.04745766744417779 -0.021377291076145194 0.0634032766907524 -0.12306995302894533 0.05014966916550059 -0.14312689377720778 -0.2186618731669686 0.040199517719075324 -0.12452927879341992 0.09406442785768736 0.032077457955680656 0.15033121775810393 -0.07372638205635974 0.24477828075697675 
-0.006996202756291784 -0.05812695387791089 0.0911067119389923 0.05159446563139562 -0.053717564161337265 0.005342537184544053 -0.11291449131753498 -0.09245775037949903 -0.2502198533686633 -0.03521072202764504 -0.08053025732618065 0.02879791721472017 -0.1869345589167361 0.0343346122040905 -0.08116470725299318 0.07328489051204683 0.07968550774372511 -0.03501266908006464 0.063818268191332 -0.09581328082016914 0.22495408732889074 -0.12014667479865541 0.18664407589528606 -0.15566344504719298 
-0.004328665875161583 0.11869390280033461 0.12997344644306089 0.027279000253443306 -0.03639999797391658 0.19805153022414856 0.08299284793251797 -0.08077102869518463 -0.08846479373650602 -0.17205862792563895 -0.07139239358158904 0.0840818082351972 0.09777089854841572 -0.07982970077617689 0.056143235248229756 0.11622256787714033 0.09713708152022843 -0.18672759795063149 -0.13954009472772627 -0.12230946630585364 -0.120467628072453 0.1256980459245529 0.1412548079163546 0.050989653528371225 
0.016762668282123524 0.07407470864781018 -0.07752511622852909 -0.05203824468255535 0.029160515164243173 0.1428508780450617 -0.1175596733491627 -0.09849930175401032 0.08567222961381779 -0.062209192061954334 -0.17950914548867714 -0.13050120017796052 -0.12065202554526311 0.021561343719651353 0.04690888466063274 0.19137098365113647 0.19072301753942267 -0.07555314104456495 0.0995938868742663 -0.1059810117290518 -0.05131235381506937 -0.08127228536436046 -0.04339967250291186 -0.11231736509362822 
-0.015387373473640388 -0.2069532146151688 0.1510982956481968 0.013627678768670924 0.18293306582018304 0.19189942275094532 -0.12305022019019844 0.022142353165084904 -0.017461212282340415 -0.09512738950719249 -0.011518001182928238 0.163452999142773 -0.12559871897370892 -0.1321999394711499 -0.12857164219699907 0.20227411600715647 0.17177703756623913 0.00014144896102965849 -0.14514205432564195 0.05474606138546333 0.09914008652237778 0.1723707329488509 0.10157183049646115 0.25462359280026875 
0.13203956232385475 0.08169946760210252 0.07279314225726455 0.07198617094604876 0.14420843866643718 0.2590208645699964 0.09811810862352231 -0.131939246365302 -0.27424756847665205 0.23644904736592362 0.009599172920388107 0.10130975788037239 0.05442075816424195 -0.12613391551396905 0.13647600149196246 -0.13652160653075554 0.14619647026721833 0.0807912113171969 0.047635724426287475 0.002139385830052652 -0.011972228925926465 0.06706211669005067 0.09962042007715065 0.10374002860071183 
0.08448776568453507 0.006181539205420697 0.1875063510271475 0.09527221232288755 -0.05669610685337616 0.007225282948490953 0.016549419676998092 0.044146951729796484 -0.056856369699236305 -0.15509923475165838 -0.062301639896166675 -0.1022398174884098 0.2082810021729831 -0.13062144151401991 0.04932048888534806 0.0032005177241320845 -0.1073675000146104 -0.1784069249638415 0.09619186822320577 -0.19433704859597076 -0.08717671818788744 -0.1391199010779238 0.14059500277137554 -0.1721679173236085 
0.019382892198493387 -0.19254879943905887 0.19192462294849874 0.061880620303174004 -0.05354317377362257 -0.13953987343591953 0.07048674885494687 0.1994295125655245 -0.06157341085431716 0.1048186139260953 -0.083345906768812 0.18385564008673247 0.10962396612299098 0.036605822725690344 0.16295767046382395 -0.12223292638615946 0.16602258063609862 0.0697148532021437 0.10676086416870349 0.051703747045804785 0.13216803027358215 0.069456763770342 -0.13959579405065176 0.0331386425902876 
-0.17696275189437172 -0.048896612489657904 -0.27095036043210813 -0.15013580343606894 -0.32839231511632994 0.33270660841494976 0.04522805059294511 -0.019292777707458995 -0.32274504605764953 -0.04534727956237888 -0.03147408570631181 0.36199378675388605 -0.12648022745828952 0.05354997693615723 0.11080725047252388 -0.21312405639570114 0.027505310110202148 0.1853635172857431 
-0.26949102865224867 0.07075748475144751 -0.37762300187033343 -0.3716828264432004 -0.30135956709034184 -0.0123015720065487 0.36155487119905444 -0.04406967627556637 -0.3149168372331827 0.2620043393309977 0.012764227092860637 -0.15495253820129073 0.332953546570072 0.3430828354556171 -0.16198276743440448 -0.2024320335427306 0.07538332123764707 0.2768093282629648 
-0.15845245572284816 0.057565886437295086 -0.24003155542068405 -0.20714019004384226 0.17668301300796288 -0.23804146729922976 -0.2455820881671177 0.12330444006868484 -0.33261159674631696 -0.30664093645749074 -0.14310577865909652 -0.08265836672774052 -0.06725863198455426 0.18215053789526053 -0.3179053935293406 -0.09480266051891824 0.0925479206355785 -0.31174651604114956 
0.27085654394697434 0.0974880072704521 -0.3163251613100926 -0.22024723489643475 0.16577714465103283 -0.06439889143677978 -0.07419019765002993 0.23455328062332817 -0.2448884970552929 0.3525036365192153 -0.31323038076230636 -0.33439553068095884 -0.24564141530814315 0.225554050879861 -0.029265220697636388 0.10270572417855986 -0.2166890982265062 -0.23528682148732816 
-0.0253827976820929 0.1621976840616398 -0.01960917691327924 0.25177674665514665 0.10757199731829664 -0.16950136354676382 -0.22780880449801222 -0.09442148673402813 0.19794160277693196 0.3309763862370803 0.26667992791627954 -0.179559258750085 -0.004314983358586778 0.06284903919177114 0.031069472070762875 -0.07391962791665267 -0.27200655977344734 0.1215459772678819 
-0.39939745279103245 0.24931051368101745 0.283379315927163 0.14972364267204333 -0.008973709601102163 0.133984482591889 -0.15017550408006433 0.30877805966607336 0.21917740304084382 -0.19712748418257173 -0.12495712163601451 -0.05602465884759383 0.0032486325618748904 -0.0073653176736090805 -0.31389275702350067 0.10727132612687222 -0.2334523760963324 -0.12620872599062852 
-0.03142998498062509 -0.10136253274809941 -0.1245577919446871 -0.2170468463481498 -0.29532390382238605 0.0340187330951316 0.09771344243110804 -0.2161750789160752 -0.2047376249433082 -0.16216767579158453 0.22780914225841178 -0.2804742672599062 0.0437980479805165 0.05282035331100334 -0.10496719692132238 -0.10007914087372179 0.3421159994292051 0.04254455827376992 
0.1730315772414252 -0.006118096980213638 0.07436492020643086 0.048649055786229946 -0.2414706970978542 -0.11091007311736908 -0.028315112726858997 -0.32332998814146696 -0.08927150913937423 -0.24061877939170181 0.24869509430635628 -0.1520206596663707 -0.2659689794676238 -0.04546506451746587 0.12300013022515555 -0.2970833562418562 -0.20987949149516444 0.19031356298677352 
0.18456916995742073 0.07866392018807714 0.24932921815165426 -0.2730363049656578 0.13699478757034853 0.2850824788898609 -0.25413334603270454 -0.15364150847848748 0.04451999424274557 -0.10642092084902412 0.136570019618269 -0.33140622541928927 -0.24429010146122573 0.15497223553030998 0.32254842021461705 0.29369702147548543 0.3045085218753655 -0.27970642415823854 
-0.3260700932734005 -0.29242416302288415 0.025199430676011842 0.2783934884422975 0.021056919821685047 0.19074821062493197 -0.26506353905750313 0.308445355868772 -0.21190131027610956 -0.2879552792739397 -0.0522498338647425 0.09692013874189555 0.40386397251681166 -0.35183796221077185 -0.1524358481269553 -0.26942892670796786 -0.05860432457646454 -0.2040520799490128 
0.05317430093410213 -0.10168173019156579 0.3121122489962942 0.19643935461070536 0.24577926168244194 -0.25239399909258836 0.08319690069259042 -0.1827744588205712 0.2636715689213142 -0.39308007749865376 -0.2689834924663783 -0.14071474277048232 -0.09935658544801348 -0.11848216173251591 -0.27575453210864315 -0.25991051036758017 -0.11365375040309893 0.39048609749218316 
-0.23218049928525636 0.1670032227718373 -0.19507164309799477 -0.357132188495284 -0.33193324807459645 -0.23622666301859066 -0.060127358391393375 0.2599073270276642 0.1725547945611409 -0.08633069051443289 -0.012844360403022653 0.2569380108146032 0.2818381382227302 -0.1627578542067586 -0.3402406362341162 -0.3102074003002042 0.17709553618379376 -0.19100814940337307 
0.021972997619297323 -0.2089157937682433 0.18727231071837852 -0.0016638850782182215 0.017980214633735215 -0.1427265343328616 -0.010709929254363891 -0.3821041660431599 -0.1548602467055765 -0.1547889434115774 -0.1455553400568505 -0.3469052366165979 -0.0311244464535652 0.25605933913549167 0.3028528023629513 -0.001789349543424388 0.05876585767117722 -0.11315203681979696 
-0.29042833483485775 -0.250740559917747 0.15344011060883078 0.14879066429973936 -0.21771028682465032 -0.05757273660444943 0.0677376774212319 -0.26132244056820103 0.2280937672233694 0.1311682926345376 0.08259136995613009 0.20658953408311967 0.4154630706539818 0.012584727974526517 0.24815241795486387 -0.054116410872067935 0.11208995088185676 0.2733542163328306 
0.16808386095650055 -0.13246179557413085 0.07407277818485512 -0.09960324398292598 -0.11929663746205446 0.07356888733787538 -0.21390761323020763 -0.004419361674652833 0.3049845071457451 -0.12841136465999525 -0.21104281746743359 -0.0761619031715878 0.2087901321588585 0.29850788783514814 0.22267638850096466 -0.3351579130927129 -0.15747797134919062 0.41987402272687596 
-0.3162276323747133 -0.0065484419717404384 0.19450869116070585 -0.25747860337566075 0.10893021493387282 -0.00787769294865163 -0.2722376614012308 0.28901918004014215 -0.21522225584001298 0.13957938457413718 0.17234743530778973 0.08547819173208711 0.14101114504373224 -0.3100928482969486 -0.1290750383945822 0.05792375777949513 -0.0945777981839559 0.08648279908360038 
0.23316689526032297 -0.21016972227301295 0.2873544440596861 -0.08137573617114767 0.3032220348952209 0.07841272490606618 0.16708063457073366 0.06307229405857702 0.026652091456598855 -0.07493568636196332 -0.2524890282443795 -0.026952477698636613 -0.14651597816640885 -0.4121874793358955 -0.15177109007896097 -0.2168594996541489 0.2927353514946788 -0.37496824262982015 
-0.2501502462948721 0.13732523540062802 0.29288807942032735 -0.16787116030965749 -0.328236370152434 0.3154338300856869 0.08672240919951932 -0.12311240715788016 -0.02363681654611923 0.1185860723295618 -0.08432526996888531 0.340599371901289 0.22386838958304356 0.2885195143371763 -0.0997748258208258 0.29904531379260046 -0.02058032967936829 0.04923822738027365 
0.15338294179369358 0.2098647786862341 -0.06921119894565594 -0.034550794079773 0.21536994956939132 0.14658900671179992 0.2969645412242967 0.32886943978967303 -0.2180133407855298 -0.1782400673233148 0.14551239206353145 0.17733139132345277 0.06636116758387701 0.25196954499510965 -0.16750503079134899 -0.10764044835625637 -0.003535338560565681 -0.13390594166793104 
0.046754253265120484 0.12260038804607605 -0.20353075205479507 -0.02089480725900055 0.33829925484022866 -0.11807342891354415 -0.4477850933475838 0.20464085598030368 0.0012711262823563725 -0.32911737704376454 0.2800731198736402 -0.06778716500811911 0.29825745832962697 -0.09778037768926791 -0.2892220841616181 -0.17211038099901052 -0.08999122765381437 0.192476986718989 
-0.2633487668383476 -0.04589547137506416 0.2705507989310403 0.012224945499198305 -0.27079399424181444 -0.32596829163678115 0.10817887501091286 0.3845659027594826 0.2191247722591028 0.20057385242149137 0.11780684456323977 0.2529572667980021 -0.34713108232066275 -0.18402622155573317 0.13142167394016338 0.2499456346997836 0.14427348583310237 -0.26523440929041253 
0.33743643844965365 0.27536389335340156 -0.34364087078577565 -0.246821726216563 -0.15156098915554317 0.16090410475123745 0.21743028672884354 0.06989943232898661 -0.20381693882064053 -0.05107452979316712 -0.26477491821366683 0.3365587970382929 0.21531467295271528 0.008412091460425746 -0.030796499272099525 -0.2745097938312749 -0.12181362351162199 -0.30997999215027205 
0.24096184015397112 0.02976929965118237 -0.23829293876986152 -0.2094027533371237 -0.16172206232619046 -0.12850417383274612 -0.11212757393030053 -0.16832654802240873 0.13923899430993114 -0.3477272125457604 -0.11538293596611097 0.17393063259187472 0.3154055353074429 0.24294227497232196 -0.1751933260560448 -0.18064742176029305 -0.21969966318856257 0.30390051659739076 
-0.26190470828675555 0.17450895169060987 -0.15411635408820146 -0.3159608523731468 0.15749307972320187 0.15251813279970752 -0.4021361485640348 -0.10507329303127735 0.3424283588050104 -0.2389171495534373 -0.28232796466572097 0.10055869824942919 0.3536262904109271 -0.282395639599503 0.008600929329416288 0.12363816193327501 -0.22293127814630953 -0.39877893325907504 
0.32185487064370055 0.06679432790143065 -0.31134394449465247 -0.3173341582213021 0.09632548924824677 -0.24860878908431444 -0.21575733790200294 -0.3052621788545421 -0.2478503894722789 -0.0022067551376789563 0.00759546255098037 0.008909680282300199 0.46762582904090755 
-0.29481285533781 0.20213248010786466 0.23249173053245695 0.06588483505201338 -0.028761992956352168 0.31363009354911975 0.26041612344122744 -0.35980325339679864 0.37072687012018435 -0.3951903292840731 0.05668924082808762 0.05614106418422161 0.2654566635544489 
-0.11799127183922437 -0.33926493451783934 0.02231609116214608 -0.4229647636019094 -0.12093889385375453 0.42225866544273555 0.3105242112979326 -0.3081102455570205 0.28732246187405436 0.20521844431230665 0.34213592400826376 -0.217821288440751 -0.05782135143811626 
0.2751460439784058 0.13099447132200542 0.0729850363753405 0.14687530720045744 -0.22484767799176275 -0.3877811699080038 0.18610831266486988 -0.13395124113698667 -0.10371097228638038 0.07888215011938221 0.12291293923411283 -0.2351997851326153 0.2603949056901569 
-0.09333295379152211 0.10277100051650144 0.37354942825896725 0.05017167224888546 -0.11016470088353614 0.09268354285187488 0.0013778908005031452 -0.03680632092637273 0.18290544388628466 0.3391015335436458 -0.015967368328471506 -0.328652613895651 0.05397126875688049 
-0.20122946568120162 -0.36861795398805497 0.22794623278552248 -0.17885954075617125 0.21899653193156218 -0.009072400611191403 -0.14272497971110706 -0.14584366330618515 -0.36660398164838653 0.02654355646088309 0.25665497565458967 -0.33220642580257886 -0.3120057232516073 
0.07230424510130797 0.11863106907560339 0.12548390745320845 -0.21696846763852082 -0.3543860937005834 -0.12775381761197466 -0.2721916441586125 -0.4977817175291308 0.16585659113491596 0.4585910214284044 -0.0847075490861514 -0.15680622286412513 0.09983957435882214 
0.26669136638298396 0.2340941630106875 0.11317939083128514 0.009252274331901093 0.10087344944481479 -0.1805531813195222 -0.1880649396207598 0.31090403466715566 0.3653906432581806 -0.36022307646657664 -0.16019305139612203 -0.39612266909242894 -0.15748311614972454 
-0.24040488059922854 0.10464775246929571 0.15523149103045833 -0.33283696526028617 -0.3372669884887972 0.32618499150967256 -0.10718386062802698 0.009327915288422937 0.4000191290895326 0.19562832972152802 -0.13666575139471318 -0.3306043389199306 0.04281323627090065 
-0.15758190671480768 -0.43181066102251026 0.19089393516687772 -0.07139028066460712 0.033114377003519976 0.25475597190534544 0.3994716650423237 0.1296408662622559 -0.16659070244103039 -0.34519035419394517 -0.34039078708953485 -0.14132603353004006 0.11059466886962116 
0.15317039384858844 -0.23844274599700996 -0.33310798597060404 -0.13524492220777634 0.015985761215826344 0.23534311220865714 0.03785875988563925 -0.15059110211984622 0.09679456911395427 -0.2111028796316228 0.1193630814486584 0.2715741143785382 0.08946631030767538 
0.08427669573305281 -0.1996405340972315 0.279323868358546 0.4796885510569997 0.19510170554308862 0.11427818862709692 -0.30246854985252375 -0.1069680658491537 -0.13074656552647893 -0.20496365023784013 -0.04180262425700796 0.0861124466545117 -0.3064241413816122 
-0.2227738534988999 -0.3559083723015793 -0.20870853321089702 0.0237333204716016 -0.03486942420693118 0.4618568338754183 0.4275550822074879 -0.02337417326543137 0.4148322390932842 -0.2578330169570674 0.03175566642300576 -0.03598325026735547 0.38416572641078883 
0.2686990439352571 -0.26078979330232094 -0.046798520771062814 -0.3227312149248909 0.05625801032167542 0.2270895934386058 -0.42466135819795425 -0.30628460817127645 0.42539939248613273 0.4361741864709758 0.04378376792509608 0.1141273575988131 -0.16919816869826218 
0.3617624969752432 0.13293646311953902 0.130576272148655 -0.3920847538295874 0.2805918916458334 0.22001115497450527 0.14500563162638685 0.18974556876087784 -0.2728192836204576 0.172075889789157 -0.3216158753542541 0.16260362583057308 -0.3990767148798407 
0.2182979441878655 -0.006493357435280312 -0.23399478722953007 0.18047696930116983 -0.14454451380687086 0.3057710443198297 -0.25358074630581534 0.35063064037359953 0.3771233620615395 -0.15346015413540695 0.2883512708460451 0.2718029420912455 -0.05845227472191928 
-0.09771422028630067 -0.17275763972332722 0.3956662808581997 -0.23579251375272461 0.37591273263965397 -0.0846889767225877 0.3458466991911047 0.24859959191577036 -0.3007904011245206 0.08692938570440539 0.13590397700263573 -0.07317613954093859 -0.4090448416490532 
-0.1747501445079039 0.26545477432518055 -0.3495012543701892 -0.348588751861106 0.1786792375875462 0.010897795943959435 0.0011889929966725984 -0.11109098706060354 0.09752992467551415 0.32498182346146787 -0.17552568817866385 0.2739052408486374 -0.07168413209708376 
0.20680474004252242 
-0.007981504625276376 
0.4401580118928175 
0.6782821514109265 
-0.017955071209672737 
0.374849136774355 
0.06722764592002815 
0.3036902456693721 
-0.3590677041298509 
-0.5550907831700217 
0.5782391806627581 
0.3754567246721463 
-0.27360620298938865 
